{"weights_ih":[-0.8342969971393359,-0.7027948301567648,0.4613705367191865,0.8188498449747892,0.3016659040884728,-0.8303769384224142,0.5733923677154025,0.053074518259878634,0.7489174083424626,0.002283781576599031,-0.10994667747145193,0.3701535059135237,0.045675231248822,-0.05318652797042356,-0.4011176009254238,-0.5527708166132455,-0.8999674716569332,0.7148326707965993,-0.345576836425568,0.23807946794765877,0.004168428070468355,-0.5594848718113214,-0.8704895651404876,-0.9572309520211897,0.3514748904935616,0.003545404792777873,0.16835519362177642,-0.40338927905357513,0.07900614332928946,0.06696663504541234,-0.042853223803865914,0.6544954420425635,-0.3548006988573924,-0.3097762056597386,0.8414442534650259,-0.6949716259709506,0.8866395992621492,0.5566755930207887,0.8720325798324078,-0.9572008367853957,-0.19296076658132488,0.9189637098034471,0.7318400381316681,0.9533864011668465,-0.3121691519764065,-0.9452547446513615,-0.5790481538065333,-0.08692215601481945,-0.6811643836223227,0.6949683653298953,-0.6949455030708018,0.1060239931509408,0.2990904738623712,0.6878467096168945,0.0399062949920197,-0.006891968355396072,0.7981314532190511,0.47142105004657364,0.8207907491757689,0.6058604728426542,-0.05436864842458511,0.6381536917926096,0.08871280425832184,0.2247540261308636,0.19980097278844844,0.6503954058223451,0.1793039891560928,0.5472820806817,0.7540425829902739,-0.5549857397260267,0.8313477285365871,-0.6442756431458481,0.6371997410674557,0.7345986581643695,-0.429304059616874,0.6116642298484671,0.5156820342625743,0.46261976525458093,0.03451133765960046,0.027350191575215455,0.38188665721144166,-0.9063887400730397,0.06604562868869879,-0.09993629239614266,0.9592046105435368,-0.2041931842668574,-0.7617525476793661,0.011792079381276244,-0.6295549075377178,-0.836696199008744,-0.35463012239047864,0.7418809826141797,-0.46324359550550986,0.9212963729993315,-0.1640437894794582,0.6043673900546196,0.3949734793349813,0.35304436794195526,0.8556866578581148,-0.06866284424762936,-0.21773962214520726,0.5638843943625804,0.21178836189365624,0.6240222634128119,-0.6693178943774962,-0.40072444431196996,-0.6113265863051869,0.5699495941131414,0.8785374983789738,-0.29423859822373766,0.0590451505952756,-0.9641705053655076,0.8575368273395259,0.9132134112009125,0.6797524325005619,-0.8114556306445817,0.3437911841222778,0.9762349544614508,-0.37343098745983716,0.048318793206167276,0.25670176949886714,0.2819823263397925,-0.9925147606914777,-0.8111999217190351,0.8750430814407544,0.7510481864099259,0.6295096047297724,-0.387378123613056,0.6905792004309637,-0.5422300480491524,-0.18633424407670685,-0.6026102220412826,0.5804044553238854,-0.4216588757337507,0.15706605522020278,-0.8450497324336608,0.46070472629466597,0.4519490811103488,0.24664568133347897,-0.9069327708761963,-0.7522126877318307,0.22946634270985533,-0.22392895468726626,0.9316710886898083,0.21785783838871242,-0.8583755809402149,-0.07265437265114727,-0.4017009946900454,-0.6719127856932285,-0.5509840926502496,0.36016930449326967,-0.7861365425312838,0.8217507308946517,0.08963474377285041,0.023685441174524646,-0.9742504169588022,0.8707848472218773,0.9868742789408393,0.6156054845714944,0.004367676775818952,0.9820381566812775,0.48970271410881794,-0.27768471573525777,-0.3198218389803831,-0.04904899733401624,-0.1559846396540323,-0.38124237577013065,-0.4556309751955345,-0.41173127090349704,0.48373826804196307,0.29893484230037703,-0.334600838208885,0.03090463254989828,0.8283597306236954,-0.3672033210848942,-0.9985728937032259,-0.11039946969307168,0.11657631276217373,0.291360190115759,-0.8507732209414931,-0.7929000411683262,0.5472726796143161,-0.33291703156604413,0.12496378220515791,0.7293876573959572,0.8917515933198139,0.31392605419769937,-0.8321744701081915,0.29188152490136177,-0.00377723153319498,0.8445359057572013,-0.8045674218064911,-0.278975916450928,-0.8592332138849423,0.7946760661816907,-0.10791102615259063,-0.23015965082348844,0.36192661283226935,-0.013403133942880396,0.4780167424633477,-0.40938250120941233,-0.22390256063184633,-0.8335976056201828,-0.34225126261013905,-0.20047191575990775,0.9305566899986784,0.9537336757540806,-0.8323761939843051,-0.7732376585693581,-0.8815050681704679,-0.7369585360096416,-0.4532229842537243,-0.46139804393371975,-0.9189963155435428,-0.4917222203528926,0.34282723398604253,-0.9251648714495542,0.7668634295034928,-0.5109105214849383,-0.8367487928495281,0.8321938099788753,-0.9202673295006658,0.883823200917899,0.9346168302912465,-0.14746079581233418,0.42427828959988356,0.4212059117668474,0.2785885235236423,-0.16348719746769347,-0.28180199393022964,0.9911228098150631,-0.3750325222377051,-0.5977079823770826,-0.6948209052416772,0.9930639672424741,0.8607729181431454,-0.9729044690287139,0.7598306933664785,-0.5809472667037561,0.6998113801364501,-0.5038555859613225,-0.3669813244895581,0.14298271143921748,0.002471009236731936,0.9486029823004323,0.016623280462447543,0.262507435590249,0.7255211790886409,0.4926878045007439,0.3826833260324609,0.2737574634681379,0.34990598956734975,0.3806368445248267,-0.8932510690161428,0.04246670778939965,-0.6800737107064918,-0.22244826791660333,0.32139156105191513,-0.6193247967664712,0.051364988895206354,-0.3707603592337969,-0.433420201766221,-0.7737788429092056,-0.6038415108418431,0.5696062245824265,-0.24218926828633847,0.11012420363283626,0.24029075352659213,-0.35387896609426694,0.946298871006571,-0.6549406131757476,0.03778828786069943,-0.17045571591877207,0.28302244221090267,0.04635388183120703,-0.9089388116777237,-0.3989445942543386,0.11207017214087078,-0.4237693885902536,0.699140692625225,-0.1722102563377279,0.6870656020155477,0.31423317306802856,-0.6755115305962103,0.3766254028802014,0.43599727342666883,0.8087777342673388,-0.36128695573120506,0.20957450839431413,-0.7796114517915989,-0.35474390765829256,-0.9608688518411321,-0.6621341678552539,0.08015498010511735,0.7739344136922486,0.6234039007164343,-0.7417217885155687,0.44179724058358505,-0.4560317303944914,0.47142142085445404,-0.47497691755456994,-0.4585110260505374,0.3117904178911908,0.5187120011157142,-0.4740137173909691,0.2313792570712263,0.48720704949837557,-0.31308341426084785,0.11793090325118438,0.14952943139361685,0.49758189921449447,0.5622300495828407,-0.3714826240835809,-0.1157654307127387,0.7211974585986429,0.1298347666036943,-0.9738179565036,0.8650584547820375,-0.30981149908985794,0.729660527728841,-0.27655773797800953,-0.7605562668488934,0.11646522434928919,-0.032561128000014206,-0.6547011656283446,0.9521072558113846,0.6633589673642364,-0.6151149808349292,0.04969563013561107,-0.8036450420687844,-0.5650215480279515,0.1424541775176258,-0.52144122900097,-0.6958013039775623,0.22598145593540564,-0.8047591181768152,-0.29064700409447974,0.05542384498744757,-0.6268707082474814,0.008588428895040634,0.10434503625964586,-0.8100282855490029,-0.25269307556118914,-0.9763218153121518,0.4520933871043977,0.7779501835836877,-0.6317228972407734,0.7006019507353409,0.44912896182457307,0.22734576778508075,0.46414834787221104,-0.7399602485481649,0.4291834995444088,-0.12655753625597965,-0.7487283479441464,-0.1835538079327057,0.4317473408157151,-0.8428326607290015,-0.28582248454194126,0.9162528025344367,-0.11484054977877767,0.8720537648364886,0.2552832292175047,0.2785809322468118,0.9772019941951213,-0.5370266434055877,-0.07172788534099217,-0.5610108693240918,-0.9355340059592476,0.8951014649330638,0.2830603252319175,-0.19895534143035354,0.9399439025828509,-0.26587799705130877,0.8752597431126881,0.6135262292698682,-0.5571966647879363,-0.580036210892708,0.23314591009337016,0.08424280628197622,-0.758087524282393,-0.3772796400273648,0.19041135643354146,0.728766202022485,-0.6863286447381001,0.8077965420674635,-0.6000457431386088,-0.7806661152892669,-0.7353362709758433,0.4728564380040965,-0.009414768797662454,-0.7500457045487576,-0.4411010391412251,-0.06423182102335145,-0.9123651951410794,-0.5855832632931675,-0.6938000469039232,0.4309091698534506,0.7620996893078684,-0.7718479601243964,-0.9504577721273277,-0.8812585136795481,-0.763354248372488,0.47887471753347866,0.7223868264169677,0.8953769025812124,-0.22411939294830296,-0.2311449671557706,0.6808219025526656,0.04682182358174525,-0.055064750823239805,-0.9879256374731071,-0.14499831753060421,-0.9475561987477561,0.612479626181202,0.12931639111564386,0.7843046805398044,-0.8614572585501714,0.06431696630322614,-0.5369348177898676,-0.35002818668702784,0.82712986203509,0.912046370090102,-0.06844014067849091,-0.25390172210275486,0.6440783744372467,0.32038727617142126,-0.3272383425280603,-0.030504660856451205,0.5544348750612387,0.23714198223852745,-0.3866042722336893,0.23513779114019906,-0.45459871740355773,-0.18644438566556643,-0.11876717821505833,0.27131872849493965,0.4749505184780529,0.624171665725419,0.08629584356178199,-0.969783235294678,-0.03880415886287669,-0.9529345352736964,0.12416392872264326,-0.8126505738475103,0.20804097691093104,0.012142025150235325,-0.28965329912845306],"weights_hh":[-0.21775601666273303,-0.8261096075391821,-0.8379761408745727,-0.5473933110338318,-0.15901003631037214,-0.41268164581707234,-0.16680019803291923,-0.5650078152777664,-0.4162263757176634,0.1765081955306571,0.7801644720489105,0.8053514884004787,-0.25386148410350406,0.3220641861982041,-0.2818105789391905,-0.2448212094938922,-0.22803267493646495,-0.3400718524032862,0.16659248408242266,0.9843733060514104,0.7740585228617212,0.08355787940962678,-0.33423545150210243,-0.36329051362369524,0.3523310182798223,-0.373747472345624,0.5509944866384278,0.8570772756546947,-0.5414170344643423,0.5643246816488257,-0.29677909266364644,0.5343736748119376,0.4986423380698559,0.595474741320476,-0.004502280796644831,0.7974698031023082,-0.3881165064075536,0.38974777841946806,-0.769224553904811,0.2568550849829705,0.623794217087785,-0.9654684797165372,-0.4987293663634593,-0.9432933962445309,0.24039395638243488,-0.42374014100532453,0.07595450059591813,0.8362018917359815,-0.3390421734887583,0.3329396914258511,0.041618315719323506,0.9692043860352109,-0.545050811701699,-0.654635135903783,-0.5106889882033683,-0.21048647790114527,-0.6291466032116917,0.19415572876795628,0.3679714438547359,-0.04322699916754669,0.4057298568125851,0.4283287605583661,-0.9871392980112113,-0.9335280367037291,-0.6046087086139544,0.46005873222579785,-0.6731721767599699,0.31984386037532,0.7261661668402326,-0.6290371447121983,0.6264668979292329,0.07633788329069557,0.6226025595818991,0.9739009129199896,0.564863551173572,0.45542300961249893,-0.7886654733830027,-0.796359594848721,0.8347057703064811,0.1239228306083211,-0.9965759092286779,0.9785008507452155,0.7156921981784543,-0.019568999073793725,0.9679782169903413,0.47282538280497866,0.49497490511630016,0.652479317117685,-0.29008422613269946,-0.033257810249668784,-0.1864016523582992,-0.18213897292682013,0.4106871697374894,-0.1908809996263261,0.7489638949177719,-0.8348925977447061,0.021702710111633383,-0.45402052394503456,-0.07589333586017477,0.22343122313305885,0.6916128598457143,0.023803807347899886,-0.09385548101133367,-0.9661915439000179,0.40187400112138905,0.8905771400703646,0.710924468640618,0.07810147739175921,-0.5445287794651648,-0.4473250530849564,0.7898612028108314,0.897375225226068,0.015253679283481647,0.25247316034937417,0.1298215579218731,0.6080656221640832,0.46130408646008636,0.2432926009584111,0.12942365957921487,0.8297052467158028,0.08426405499313239,-0.17051895293027775,0.3633080934853332,0.9270168741522244,0.2526488385295338,0.09572751715113337,-0.044946438834459146,-0.3316656401336644,0.2659945706312077,-0.46937554746049015,-0.5556512391078952,-0.1664306057433642,-0.5776306106659694,-0.5326640220110752,0.2720914473843723,0.4805344377227554,-0.29426123334418675,-0.7408522135003288,0.688167087276707,0.11849687279844856,0.5056760867076382,-0.4263484973470364,-0.5744254229902432,-0.6066528819155923,-0.11369981933166295,0.46409366137587127,0.3505383033076652,0.8718580176994533,0.8702615750403688,-0.11394496923485864,0.28287173516151465,-0.283814343245538,-0.22269357779222343,-0.19192938067514542,-0.34943240332814973,0.6046495089552455,0.6598378452976763,0.7561993282903579,-0.8065240657528179,-0.560351959758693,0.8302766527153966,0.8868981920904448,0.6369219213758286,0.8991535202938505,-0.4819921699310685,0.22023881141317792,-0.21433128930545453,-0.9477473040085596,-0.03992928133345486,0.7762254157602424,0.01790528048107931,0.25289606582461177,-0.5213507599331175,0.7696658026982099,-0.3469973441047389,-0.5243032937734062,0.4412055256005345,-0.47296663609159983,0.5320620689665772,-0.8514913127905812,-0.9939876572523381,-0.3263594028296424,0.5895873539614604,0.45339841989612095,-0.8113784273039888,-0.0068176394629866355,-0.850517072576404,0.22193325063161362,-0.469410574331256,0.5201125544037315,-0.4878866970840272,-0.1827211543976024,-0.44294607821443144,-0.4015025172527642,-0.07723098530338324,0.6826496779337607,-0.9541964102478908,-0.31375739417187365,0.3384330761672796,-0.628369749682997,0.36803711251444016,0.5144393661311661,0.0665020989099181,0.23914153112216363,-0.36568619473781716,0.7789887957880777,-0.4191619926797123,0.23907663647523347,-0.18981156936821098,0.7597527886771391,-0.6984701045793011,-0.9926709224533916,-0.8745587404257835,0.6427043686921927,-0.32877357920527017,-0.9901204932334804,-0.8465910902167442,0.4995672527783608,-0.3111955700508844,0.8123741322258329,0.7597390524589847,-0.6558042738244589,-0.5282698759770299,0.9785953395087996,0.4941336725382799,-0.402124524549206,-0.0823993820244091,0.6373026853153241,-0.00371471987377725,-0.012337582594914354,0.7298421739800853,0.8661359882379582,-0.9462412883913971,-0.01205577958342019,-0.805160319238365,-0.9264753815087676,-0.8256702090366816,0.14711395480721823,-0.7711656607979762,0.5197312757193129,-0.5918177872631323,-0.8642722787676254,0.8267499228285144,-0.7834143933683124,0.785672031854687,-0.5923140120181805,0.45177395286517386,-0.4187317971380162,0.38593493232607146,-0.5746368705904816,-0.31908171084942927,0.7602409931749616,-0.9160585250827402,-0.8028454363052167,0.7375607471693593,-0.7784083547782106],"weights_ho":[-0.5571133969618716,-0.17280764735194687,0.5612174082695507,-0.3638215951724917,0.30442053604810604,-0.17402948432650667,-0.30136749811474295,-0.4199266908922068,-0.042118420095430986,0.026123648489707385,0.2766845862831797,0.6798642471567877,0.267276715566805,-0.33351610057183123,-0.4954915666264956,0.6480761746452779,-0.0692625080746816,-0.08987939793269972,0.49289933796004504,0.9589440308830386,0.3677688613676675,-0.4588585120264097,-0.0752248518644636,0.4967776395763106,0.34411776647784476,-0.44827676599879895,-0.9927575677106171,0.4820570776669324,0.8685011232078983,0.1054433423887855,0.04378787997648059,-0.020174761562028243,-0.23233009929148762,-0.49066071209795425,0.4872798684213777,-0.9667912965246566,-0.8048321969804204,0.5976234876962863,-0.29536735963334504,-0.23678949806153682,0.10654657803838297,-0.8951756285817365,0.585554457917357,-0.6288303718461472,0.990715225719655,0.10550170994844588,0.4072455536045565,-0.2035496163173307,0.7101003232306082,-0.7486074904417743,-0.9680494382726628,-0.5924833883070919,0.20410019056064366,0.7596980426039377,0.4942408145769235,-0.41147683012857783,0.29735762557593404,-0.14690646388362816,-0.9255639241473852,0.9585428392430293,-0.12799954343001674,0.7303091863809368,-0.6246558239113447,-0.09347848567360684],"bias_h0":[-0.29542321963620277,-0.919821967247803,0.046014736699638625,-0.13182622316613135,-0.5230754742062536,0.10153032282887575,0.2762748560606447,0.31348351584441025,0.30985310269213784,-0.3329449841143488,0.67240252883166,-0.4182263651690281,0.29227452553037403,0.7794743664575976,0.6213316802752225,0.8733609165354641],"bias_h1":[0.2765439250299875,-0.7736410010702062,-0.9907378326719185,-0.91066013510794,-0.43727321622992155,-0.31744908078731515,-0.783280406348891,0.40133630433464407,-0.21722792317026007,0.8223016373237901,0.5502175494327206,0.26601420609280013,-0.9866437790382736,-0.009773269156031494,-0.13043681474116586,0.9982619250025226],"bias_o":[-0.5992481620924706,-0.6931108853513728,0.28321910864658983,-0.7130556809153712]}