{"weights_ih":[0.3792129181444208,-0.7027948301567648,0.4613705367191865,0.4022105672576095,0.3016659040884728,-0.8303769384224142,0.5733923677154025,-0.6070837048111959,0.158614660137669,0.6110855314475772,-0.49711915227028824,0.3701535059135237,0.045675231248822,-0.05318652797042356,-0.6749972530296375,0.2663258281772374,-0.44943312950116865,-0.6779849766347079,-0.345576836425568,0.9934355328158277,0.9221215707717765,-0.5594848718113214,-0.11797458809464345,0.2946669129329387,0.3514748904935616,0.6202393557366845,0.16835519362177642,-0.5564789026423165,-0.49069414680104706,0.5973279746263069,-0.6283759904831225,0.11088696192319758,0.1477323959825112,0.6211204153413676,-0.9302599832187144,-0.3539163409972159,0.8866395992621492,0.5566755930207887,-0.7613837891305155,0.5875850367053057,0.19759170074650578,0.5732668084169483,0.7318400381316681,0.9533864011668465,-0.6279104400891742,-0.13213154396005966,-0.5790481538065333,-0.8951192692928402,-0.6811643836223227,-0.4421518013192296,-0.6949455030708018,-0.9705887173219996,0.2990904738623712,-0.43935078700471086,0.0399062949920197,-0.006891968355396072,0.7981314532190511,0.47142105004657364,-0.2269532159312655,-0.021524381445819696,0.00956397318199187,-0.7498380257494881,-0.8982398820913484,-0.10586967613782106,0.6172531791200015,-0.8188590379926262,0.9962886348999092,0.5472820806817,-0.6849388246425383,-0.6316925786221459,0.8313477285365871,0.8445169668913026,-0.7907688950791234,0.7345986581643695,-0.7625714889099067,0.35341697577628217,0.9169846778804609,-0.18994033113736908,0.03451133765960046,-0.4887943365690799,0.38188665721144166,0.2192531728581666,0.06604562868869879,-0.8366941246157114,0.9592046105435368,0.02068051982835506,0.6585833081071206,0.7457097991844337,-0.6255245401005571,0.803555716887149,-0.35463012239047864,0.7418809826141797,0.26756267865994343,0.26833269164255324,0.7224675458310788,0.6043673900546196,0.6367454007942355,0.35304436794195526,-0.014807201389361868,-0.06866284424762936,-0.21773962214520726,0.05166178907796537,0.20542899900323675,0.6240222634128119,-0.684623984427982,-0.054302780851915644,-0.7698400297252044,0.7169140112022483,-0.30149202799403074,-0.6837059436324107,0.0590451505952756,-0.9641705053655076,0.3060103887855885,0.1945915401831635,0.6797524325005619,-0.7976771107170235,0.3437911841222778,-0.44715900322247903,-0.2318626363758911,-0.9765748459019983,0.3005291177293343,-0.5605684180101602,-0.1468624580928437,-0.27105863937116537,-0.279659866507745,0.0811682491059551,0.36310645582691636,-0.15969816549545635,0.4626719164127633,-0.5422300480491524,0.5381525690393363,-0.6026102220412826,0.9146765441100821,-0.3389496850230873,0.8916841277154313,-0.8450497324336608,-0.3595187584092585,0.4519490811103488,0.24664568133347897,-0.01339472454993551,-0.7522126877318307,-0.26101368917797263,-0.039105247506864504,0.9316710886898083,0.27414928823827367,0.4267914131807422,-0.7872667659379216,0.040666876146264075,-0.6719127856932285,-0.5564385133669532,0.36016930449326967,0.03806123140391038,0.8217507308946517,0.08963474377285041,-0.7779130236869927,0.4541016578841772,0.7845474945531385,0.3849787571747376,0.8675263336713952,0.004367676775818952,0.0768719431893572,0.4163399674856507,-0.7827473452821754,0.4928037686458202,-0.8858208887711798,-0.1559846396540323,-0.8167457805018343,0.6719676026699122,-0.13048122353981606,-0.5779727678481039,0.29893484230037703,-0.334600838208885,0.21983527549288606,0.8283597306236954,-0.3672033210848942,-0.9985728937032259,-0.8951094906632802,-0.5759617796812655,0.9571202682685962,0.11653935372185065,-0.7929000411683262,0.5472726796143161,-0.33291703156604413,0.12496378220515791,0.7293876573959572,0.8917515933198139,0.31392605419769937,-0.8321744701081915,0.29188152490136177,-0.9653222536307897,0.8445359057572013,-0.2539182327828564,-0.278975916450928,-0.1622600810881918,0.5294492002927438,-0.32912131361673613,-0.23015965082348844,-0.12299407485237501,0.25368185392859166,0.4780167424633477,-0.40938250120941233,-0.9502040492556989,0.9180161907157081,-0.34225126261013905,-0.717853668411857,0.08103547844992454,0.9537336757540806,0.10387830401051179,-0.7732376585693581,-0.5137213970799126,-0.7940041072346946,-0.9527241939271947,-0.46139804393371975,-0.27356571986135747,-0.2908426957544079,0.5518495660132197,-0.9251648714495542,-0.04425025868036392,0.627357541857823,0.9427440146589074,0.8321938099788753,-0.24655287140107363,0.2464234883405403,-0.05155911986318151,-0.14746079581233418,0.42427828959988356,-0.44751101889759215,-0.18176898960574395,-0.16348719746769347,-0.28180199393022964,-0.1365453957599616,0.022021952696745783,0.24520553710694726,-0.09414860623300814,-0.8872672141492337,-0.6216170560441938,-0.8467630115668661,0.7469822469643443,0.38164973034339855,0.58728692162041,-0.3379077559097272,0.8079278771658376,0.4569851447662765,0.5175784153520742,-0.9588085904664119,0.016623280462447543,-0.85149947349063,0.7255211790886409,0.4926878045007439,0.8886940425485965,-0.22485777108591742,0.46404525370201943,0.9009165538398662,-0.3151781094669168,-0.8581093504465598,0.7546794781257113,-0.22244826791660333,-0.6408615289069242,-0.6193247967664712,0.9553764405114453,-0.3707603592337969,0.4601462721948606,-0.41336255352114026,-0.14159838954072224,0.2611667943923124,-0.24218926828633847,0.11012420363283626,0.24029075352659213,-0.35387896609426694,-0.8767729843882273,-0.5352490206298017,0.03778828786069943,-0.17045571591877207,0.28302244221090267,-0.2145967955003798,-0.4479945994848784,0.7611688046068241,-0.484782917526126,-0.1885233758579843,-0.4302156419827514,-0.3712971638189495,-0.059246514996542876,0.31501222870996193,-0.6755115305962103,0.1520234105102063,-0.7080072152810268,0.8087777342673388,0.20700719857675232,0.20957450839431413,-0.7796114517915989,-0.35474390765829256,0.7295203864493458,-0.08195622977529937,-0.8015202922900422,0.798222239984931,0.6234039007164343,-0.003257390182172637,-0.5475189035910895,-0.43417157607839574,0.013706840989670566,0.5780111910301697,-0.8129722035402167,-0.2654094955151496,0.8426380454059321,-0.8501321259296408,-0.787659496504596,0.48720704949837557,-0.31308341426084785,0.11793090325118438,-0.5961016715074214,0.3725075510607705,0.5622300495828407,-0.3714826240835809,-0.22086975813520326,0.7211974585986429,0.6842418982588161,0.2872516116207966,0.1374920088037619,0.7866068809609783,0.06897788611671918,-0.27655773797800953,0.8943995673382075,0.11646522434928919,-0.032561128000014206,-0.6547011656283446,-0.7761875858247185,0.6633589673642364,-0.38592789657571314,-0.2259465164837986,-0.8036450420687844,-0.5650215480279515,-0.577693828167871,0.6000185191327663,0.6740511184592943,-0.5288097804891063,0.1593161041955371,-0.29064700409447974,0.3126020918405248,0.17782146240018637,-0.6914448496868406,-0.8601673443707705,-0.8100282855490029,-0.25269307556118914,-0.01096830005608318,0.4520933871043977,-0.7595638380654288,0.9955816517328995,0.028965091554810973,0.44912896182457307,-0.6015505426224412,-0.10657965257455237,-0.7399602485481649,0.4291834995444088,-0.40397445856504133,-0.10315006385121062,-0.2552012922769198,0.6496253937425194,-0.8428326607290015,-0.6922430067900589,0.9162528025344367,0.0003575591076858675,0.6651512021813852,0.2552832292175047,0.8146704294642875,-0.9370464561619225,-0.6344959514539534,-0.9947882904713654,-0.779250344733212,-0.9049582350399423,-0.5650697655719394,0.2830603252319175,-0.08036906983513559,-0.10207271036877463,0.4937165448931209,-0.7211334221097938,0.6135262292698682,0.09165347088339426,-0.43811926897012077,-0.561322580833798,0.08424280628197622,0.29011564464200257,0.4348231444513475,0.3997181816696065,-0.12540377839016403,-0.9154319302445904,-0.4092446476287057,0.1124286077155443,-0.7806661152892669,0.6707126033362605,-0.9896897603646826,0.07692904898651665,0.939364764702008,0.8951015788361445,-0.06423182102335145,0.8889875446895414,-0.5855832632931675,-0.6938000469039232,0.38534265157400327,0.7620996893078684,-0.7718479601243964,-0.9504577721273277,-0.26896945469272326,0.5411426286645824,0.8329857888605028,-0.0313952596287419,0.8953769025812124,-0.9733090722142816,-0.2311449671557706,0.22875770844140408,0.9991537112708133,0.4985451025076242,-0.025666152966991707,-0.963780895792403,-0.9475561987477561,0.612479626181202,-0.13948527956771684,-0.9014392517088325,-0.8387524916426514,-0.9369023345917047,-0.2410958619907475,0.37709251825188006,-0.41043248768364315,0.912046370090102,-0.06844014067849091,0.610945510721365,0.17641358853052425,0.32038727617142126,-0.3272383425280603,0.8119659576969465,-0.06122386692863446,0.5674997142053257,-0.9402129718886716,0.0969949019536267,-0.45459871740355773,0.19317574920034608,-0.39367612492563864,-0.7556918411762359,0.4749505184780529,-0.40658095768294467,-0.5448144074337002,0.6566604705506529,0.5124275304071169,-0.9529345352736964,0.6954093210176253,-0.8126505738475103,-0.4144191442746412,0.3132888210977658,-0.8313449570468128],"weights_hh":[0.9889042194136259,-0.24402154966545586,-0.17124303301844113,0.08941430575702336,0.1306852951168822,-0.41268164581707234,-0.9750006839394985,0.05479588636824184,0.6045538479020296,-0.7786441753749302,0.7801644720489105,0.739148755583614,-0.25386148410350406,-0.7713040617831504,-0.2818105789391905,-0.16861856056498237,-0.04729707194407662,0.9643876189794922,0.5382499483519354,0.743419299569066,0.8915218713091666,0.08355787940962678,0.12987094360367335,-0.36329051362369524,0.5493740178189204,-0.7848809258470484,0.3427261969223985,0.9114058076822469,-0.5414170344643423,0.5643246816488257,-0.6217079648481125,0.22971663222819405,0.4360645594851771,0.6919676446697032,-0.38072410864603023,0.7974698031023082,0.24550779451445703,0.4598791327546994,0.7360275892845956,-0.1743264782102516,0.6890626886074454,0.34203877363029833,-0.6696225161662381,-0.9432933962445309,0.9141818475934296,0.12557392875561235,-0.9930752838665806,0.23597008141619313,0.7687240618614624,-0.06429485544292857,0.33841543551686937,-0.7664499002001282,-0.8240418814567607,-0.8594531482579284,-0.5106889882033683,0.6462475873447882,-0.6291466032116917,0.42414472205505915,0.3679714438547359,-0.04322699916754669,0.4057298568125851,-0.24279554824140903,-0.5556807108710387,-0.9335280367037291,-0.6046087086139544,0.46005873222579785,-0.6731721767599699,0.31984386037532,-0.17500229275689572,0.18455620744034662,0.6264668979292329,0.07633788329069557,0.14744074564811083,0.9739009129199896,-0.4991615078223608,-0.4563352251967141,-0.7886654733830027,-0.3712293641523132,0.8347057703064811,-0.348395373576011,0.7628602085232326,0.9785008507452155,-0.853260244259495,0.9663102880338188,-0.7482384143675669,0.47282538280497866,0.7862459041291003,0.652479317117685,-0.29008422613269946,-0.9736008525459261,-0.756956806990402,-0.18213897292682013,-0.19484698148323076,-0.1908809996263261,0.7489638949177719,-0.8348925977447061,0.021702710111633383,0.02850606698596936,0.028309877303551723,-0.11668447912453672,-0.6829742129295397,-0.36404636672430724,-0.09385548101133367,0.5105414063823255,0.40187400112138905,-0.0717355466752394,0.48135709032243645,0.764518107160854,-0.1961714543353128,-0.6566992858787126,0.13968724021569323,-0.8331706444958531,0.7703833681391952,-0.6100176460376361,-0.049735538092719134,0.6080656221640832,-0.13943526236348136,-0.08240169300298095,0.9173402089687042,0.8297052467158028,-0.7799835419111913,-0.9116740610770526,-0.07826458620894261,0.9270168741522244,0.2526488385295338,0.6567667970362367,0.8340884208736432,-0.3316656401336644,-0.9833478030245237,0.6448549245314954,0.7668569459497043,0.428934052565072,0.6810737367618247,-0.19596360231575916,-0.16138494650632484,-0.5443214948892305,0.7621058378226708,0.2604958801207855,-0.6259240356144291,0.32752329509810996,-0.437351486894594,0.6902530179540398,-0.5744254229902432,-0.238985478141446,-0.37376395179154076,-0.8578505404638732,-0.2187230446890973,0.2811171436034565,0.8702615750403688,-0.0312368119476627,0.9515870293500359,0.5069974606769174,0.04153271495101363,-0.9160337407991768,-0.49751936410911735,0.8142477829574561,-0.6822731076895163,0.8716732917691561,-0.8065240657528179,0.7761297777800806,-0.6403344740723356,-0.5190711947493905,0.6369219213758286,0.3884820942051963,0.17103541183535853,0.6712521930944118,0.6260451797994466,-0.40032117651854393,-0.30587097244040273,0.7909366447813324,0.831179281809659,0.6479176806868854,-0.14472461703196826,-0.33082839436308276,0.021646259407055668,-0.5243032937734062,0.4478181816099238,0.6561175758270505,0.5320620689665772,-0.2128315863464505,0.13212535251462043,0.5966823941189221,-0.2617915493673666,0.45339841989612095,0.3218839136923102,0.3237418335357807,-0.850517072576404,0.43097190352706116,-0.22861418847722215,0.5201125544037315,-0.43628227433931865,-0.5978331443827649,0.015287746866229135,-0.7617624102136107,-0.07723098530338324,0.5322559312873414,-0.9541964102478908,0.6435919094932216,0.24858985806254785,0.4216507350340053,0.49459223358650606,0.35801546326515843,-0.29233442971617274,0.11015948153129806,-0.36568619473781716,0.015167140134061396,-0.048073939296017,-0.021935853503779468,-0.6500557985252076,-0.35547872389882174,0.0009129873356161777,-0.2661016917938064,-0.8745587404257835,0.9813525195268775,0.9530710080149973,-0.17820806959167368,-0.9717802970209017,0.4995672527783608,-0.3111955700508844,0.8123741322258329,0.08156596904362945,-0.6558042738244589,-0.5282698759770299,-0.6775515638065244,0.6653087247227121,-0.402124524549206,-0.03398938678310093,-0.5718682844652256,-0.8776251293950383,-0.670148539538139,-0.051950761390741285,-0.6316746010178831,-0.7536797643546727,0.9589513557830343,0.8794650039739387,-0.08364206444723066,-0.7478168088489963,0.14711395480721823,0.14048260811116386,0.5197312757193129,-0.5918177872631323,-0.8642722787676254,0.184240068621226,-0.5932703430139916,-0.47277677867870405,-0.5923140120181805,-0.925522830250229,-0.4187317971380162,-0.3987863166715242,-0.30131396795397203,-0.31908171084942927,0.3068681633264576,-0.5156277076549398,-0.8657254853980276,0.4370838860179165,0.40121828655809666],"weights_ho":[0.39459855865302007,-0.17280764735194687,-0.5841554637631305,0.2533318414123944,0.5264677913019276,-0.17402948432650667,-0.45865398617509334,-0.4199266908922068,0.5168142941999654,0.026123648489707385,-0.3103505448146102,-0.806239396982795,0.267276715566805,-0.5958610624748737,-0.7036446304599364,-0.3399811133114927,-0.0692625080746816,0.14890604234717086,0.942364425261305,0.9589440308830386,-0.8402112743658234,0.8760943619401083,0.18450584712768947,-0.5001135107344836,0.37376473702630975,-0.12418659987143643,-0.3600789248778784,0.6913510628037602,0.8685011232078983,-0.9213974484699068,0.09655960588746937,0.2161109484539594,-0.5487124046714031,0.19667396530858006,0.4417748174447189,0.5025053164475981,-0.8048321969804204,-0.43964942686440067,-0.8155781475421182,-0.13353606676032803,-0.8336226520660686,-0.8951756285817365,-0.5633730178675047,0.8624601850304707,0.10688019882074484,-0.42321870305635767,0.45238950106497033,0.178149634032424,0.3577724554346753,-0.7486074904417743,0.3738615804045222,0.019323025028168628,-0.584939579710114,-0.2670156833672157,0.4942408145769235,0.9755162745552888,-0.206084783065543,0.6487881755441012,-0.05166753554594572,0.8626255448839522,-0.12799954343001674,0.2636623457629388,-0.6246558239113447,0.5174567819928659],"bias_h0":[-0.29542321963620277,-0.919821967247803,0.046014736699638625,-0.13182622316613135,0.9175648832588688,0.10153032282887575,-0.6775683568482544,-0.6024766220907232,0.31149385904233284,0.9013295906978382,-0.4206155890435852,0.5852691173515101,0.29227452553037403,-0.0767229171960564,-0.35259979102911276,0.8733609165354641],"bias_h1":[-0.8035856070094529,-0.5794209962228041,-0.1631534220390778,-0.91066013510794,-0.43727321622992155,-0.21116774015345774,-0.5482499853332325,0.6413797745663548,-0.5996811291681949,0.8223016373237901,-0.6270707625213308,-0.09885714884314267,-0.9866437790382736,-0.02757181571355738,-0.13043681474116586,0.28585351039031415],"bias_o":[-0.7859825738005384,-0.6931108853513728,-0.5590301842899235,-0.7130556809153712]}