{"weights_ih":[0.793954498405814,-0.7787533800403523,0.279482584835421,-0.8393797601053916,0.856610390206817,0.4933062157101056,-0.6983347142453102,0.02506175267295574,-0.1871453238972196,0.8206986367320457,-0.10994667747145193,-0.2850329635457476,-0.5485887083459591,-0.8188792607450281,-0.4011176009254238,-0.6155494592856323,-0.8999674716569332,0.886490868885941,-0.8303065210356708,-0.5124444999937825,0.004168428070468355,-0.5556571386457771,0.08710065174397363,-0.2155239912687663,-0.36953024153675473,0.6375768851075101,-0.14468924446149933,0.5275260436677156,0.20484581132936452,-0.8377980579977673,-0.9084631151081024,0.6544954420425635,-0.3476554480937404,0.17154676669512514,0.8414442534650259,-0.2813986227564491,0.5334522845396827,-0.4119197357508415,0.7068647957959935,-0.36622971611861366,-0.19296076658132488,0.9189637098034471,-0.16018640046017274,-0.6121618461056368,0.5493468893131894,-0.01318718533230534,0.7397893150260022,0.3319458649440459,-0.32767796686675976,0.7942270293974523,-0.022447629926940715,0.1060239931509408,-0.6085075353998695,-0.4175902341603497,0.6575933496601103,-0.6028198699285785,-0.3720473287467001,-0.9204052654402091,-0.8946659445074212,0.5868927759540536,-0.05436864842458511,0.3355732521165964,0.08871280425832184,0.2247540261308636,0.9498068788573582,0.1495825727449136,-0.6219266366395753,-0.8249490658672676,0.7540425829902739,0.1887236640154677,-0.6324568190086313,-0.6442756431458481,0.6371997410674557,0.3736227556995291,-0.429304059616874,0.6116642298484671,0.5156820342625743,0.6953055065773854,-0.3821795706097757,0.5685140297016467,0.9700943250417497,-0.7916891262765797,0.07396474399881359,-0.09993629239614266,0.07136624884605358,-0.2041931842668574,-0.7617525476793661,0.381494822091587,-0.43808231252014096,-0.8453309068935997,0.550024383928621,0.04451907269211719,-0.46324359550550986,-0.5667080011432026,-0.1640437894794582,0.6182921763751399,-0.07879548699127237,0.06847678333435425,-0.27314661207056967,-0.631331452815439,-0.9785642213326919,-0.2404238659351572,-0.7260526953068942,-0.1760684552333467,-0.8333060347251349,-0.40072444431196996,-0.6113265863051869,0.5699495941131414,0.7750039452624764,-0.11465458471236811,0.4101442492874454,-0.547340879695331,0.49085727822305447,0.8622673665998193,0.9242642989715548,-0.8114556306445817,0.9435302310033487,-0.3120431715477876,-0.37343098745983716,-0.049700724233901816,0.561858515702482,0.49448249330628924,0.5647769875142656,-0.6017907539372016,0.8750430814407544,-0.3207251460835594,0.6295096047297724,-0.387378123613056,0.6905792004309637,-0.21796895836487384,-0.18633424407670685,0.8352203060985839,-0.6590253527629302,-0.10091187939805102,0.4558435427710634,-0.31188653330045457,-0.7636222630124108,0.27732947131363295,0.7530171250853908,-0.885987588359296,-0.5575907981436943,-0.15115190601904782,-0.22392895468726626,0.8241761606702616,0.21785783838871242,-0.8583755809402149,0.10990357398600237,0.26629422856037177,-0.8240738030426409,0.19459594872250374,0.2976107927554541,0.01993467122717041,0.4428185945416696,-0.0486292774389292,0.023685441174524646,-0.8339131210307626,0.38853264889006356,0.8233080728943107,-0.14872505821003457,0.9876132044044434,0.9820381566812775,-0.41070132388230474,-0.9337120546517734,0.7679288852481174,-0.8879253863163639,0.05068724459801954,0.6436945576412609,0.8522684017462638,0.9408522954628706,-0.7043093285046162,0.08830610407698125,-0.19712295990062634,0.03090463254989828,-0.4606255951222773,-0.22198375495659062,-0.592256679091338,0.481364983347367,-0.11725893898290196,-0.3997072623903526,0.180803045680632,-0.6957387360787304,-0.5504118225713817,-0.9396494639512045,-0.49715163297252785,0.7374396589288637,0.3692259043033761,0.896075133553196,0.04175180928206634,-0.39055181724990295,-0.00377723153319498,0.41950797276091234,-0.6545809191872283,0.05467239408200797,0.9257257946751096,0.9038668979994939,-0.10791102615259063,-0.7965009228127029,0.36192661283226935,-0.07190043139898172,0.1391910738511153,-0.4782896532921268,-0.22390256063184633,-0.8335976056201828,-0.5593132289187732,-0.20047191575990775,0.8586359611637258,0.3176859508722705,-0.8117497879611315,0.4585178650456503,-0.8815050681704679,0.8986798904306519,-0.4532229842537243,-0.4347375617077325,-0.9189963155435428,0.0898747079378106,0.34282723398604253,0.8899715457821067,-0.03843706733665386,0.9548581901069204,-0.50127462785194,0.5911129224624663,-0.6378873642457228,0.03888949534101194,0.9346168302912465,0.37301396894554273,-0.926270437169523,-0.8455001433463112,0.2785885235236423,0.11679711668759718,0.892652688391625,-0.8226796685809816,0.46295144830437485,-0.9723299707826587,0.25239041248825966,0.40920922412449023,0.8607729181431454,0.38144258025110656,-0.6196675143378261,-0.3026652379634527,-0.3732543574516025,0.08016532592036141,-0.3669813244895581,0.14298271143921748,0.002471009236731936,0.9486029823004323,-0.6370740366797698,0.7096363953242966,-0.7657379221024003,0.5422066194561741,0.3826833260324609,-0.18642596688745683,0.9173062769700144,0.8946788527175276,-0.5543536095446169,-0.5945266188586882,0.9866371412912067,0.3236699169023334,-0.5093853842732416,0.07159419291983715,-0.6446152092172754,-0.6399357334817346,-0.1573823957211462,-0.6906557681751724,0.3750809280394891,0.5696062245824265,0.5618694390657697,-0.08214792895236389,-0.4176776151821662,0.25468354832007645,0.3976588824883507,-0.6549406131757476,-0.318426152455628,0.7206157581142576,0.0273534169875167,0.04635388183120703,0.5781588456879605,-0.3989445942543386,0.11207017214087078,-0.4237693885902536,-0.6368223690545516,-0.1722102563377279,0.85286190328,0.31423317306802856,0.46545247802348766,0.12991723699023416,0.43599727342666883,0.9154733339348178,-0.36128695573120506,-0.843580438408073,-0.6427952804525268,0.5665283573963042,0.4686088602578711,-0.6621341678552539,-0.8832641771449323,0.7739344136922486,-0.8628731355791106,0.5214963875897891,-0.08522917751724557,0.16900007933056393,0.47142142085445404,-0.0371746979166101,-0.8304153427176395,0.3117904178911908,0.7949238372098115,-0.412922024002111,0.2313792570712263,0.0941447502233046,-0.5419839684817254,-0.7664623554712124,0.14952943139361685,0.6197864817439878,-0.5302928226444987,-0.08245764693813196,-0.6648211177475445,0.2851756059298296,-0.957415649284254,-0.9738179565036,-0.4854496332548106,-0.1244562859274212,0.8484299776334181,0.6157339831563267,-0.7605562668488934,0.7731299937701519,0.4617715393445361,0.7198378396926117,-0.989412039387086,0.5477564435041382,-0.6151149808349292,-0.7489892503976963,0.22030158612806527,-0.5390745748677812,0.6140518739107386,0.6698727308094989,-0.6958013039775623,0.871214678326709,-0.8047591181768152,-0.38016789091925696,0.05542384498744757,0.13977131081025607,0.008588428895040634,0.10434503625964586,0.48443019578809676,0.07977418864269614,0.5245796855383691,0.833346362279187,0.7779501835836877,0.6072080271946712,0.7006019507353409,-0.9043661642332887,-0.07339905492366605,0.46414834787221104,-0.20103322716462357,-0.3094243949747324,0.02309941229601664,-0.7487283479441464,0.43987370496365896,0.4744243925730709,0.43794207294456355,-0.8381299069438841,0.3425809020432793,-0.5429558367028908,0.8720537648364886,-0.14718540984708617,-0.2515817129815139,0.9772019941951213,-0.5370266434055877,-0.9597322799715051,0.28963621805463746,-0.42224442014818653,0.8951014649330638,0.909042726062169,-0.19895534143035354,0.9399439025828509,-0.4357375639670811,0.7476344412855109,-0.7886925842116239,-0.5571966647879363,0.8592273557905743,0.23314591009337016,-0.14850124141491272,0.29149153454325316,0.348346262503036,0.19041135643354146,0.5476342114583503,-0.3606060441823906,-0.11591625767356373,-0.6000457431386088,0.45908641615123913,0.38056548183323424,-0.3825274818607274,-0.009414768797662454,-0.7995792953228504,0.5232211464771139,0.34314214922594766,-0.9123651951410794,0.7224254430654133,0.17505062617630607,0.7887513793387799,-0.16410307052701456,-0.08017361917766896,0.6748656719664836,-0.640354488333053,-0.763354248372488,0.1651003756805307,0.8262167326786585,-0.4198793452330425,-0.24033386200311435,-0.827955334608607,0.6808219025526656,0.8256667083515836,-0.055064750823239805,-0.9879256374731071,0.7034556551166953,-0.35825654757861636,0.41836380379780347,0.12931639111564386,0.7843046805398044,-0.8614572585501714,-0.6137830834726514,-0.9023710862077814,0.9348375408313638,0.5261507600439785,-0.2530492114783489,-0.6591903800109471,-0.25390172210275486,0.7013818236084897,-0.08398891029503375,0.41802955345361914,-0.030504660856451205,0.04413420962483916,-0.05494894171243825,-0.3866042722336893,-0.12037004293297882,-0.9623270207259145,-0.18644438566556643,0.5834140645837584,-0.6932131199435649,0.43740515171915995,0.624171665725419,0.18394391384546194,-0.2829025881398788,-0.03880415886287669,-0.5591660667208409,0.12416392872264326,-0.49467923264169156,0.20804097691093104,0.37982626260797003,-0.33600381719975925],"weights_hh":[-0.21775601666273303,0.1247836139108136,-0.8379761408745727,-0.6223945876508012,-0.15901003631037214,-0.7070942350663638,-0.16680019803291923,-0.6644472858338111,-0.8101642002983278,-0.14350486155683906,-0.8360739580133549,-0.8843573676596199,0.4642160268473443,0.3220641861982041,-0.5298432164970666,-0.5950354044248383,0.9976504567435056,0.25868892588212655,-0.42622046785566536,0.9843733060514104,-0.3431917471467725,-0.4519133807801221,-0.7212049402216902,0.8911223234278418,-0.880349765047937,-0.373747472345624,0.8373387873166724,0.9390653894948879,0.61143218733017,0.2496447561015438,0.1544647233486225,0.4336888149062543,0.33628068260001887,0.595474741320476,0.7677595424688575,0.6382345704392138,-0.3881165064075536,0.38974777841946806,0.9865104354470979,0.7808689590282112,0.4031311762869887,-0.016203349376418208,0.3520225336823968,-0.9402623975824995,-0.5615071833344087,0.9183272303641024,0.07595450059591813,-0.7557839255268819,-0.3390421734887583,0.8344935003371536,0.041618315719323506,-0.729854699014505,-0.545050811701699,-0.19741104460185444,-0.45983983801470796,-0.6662092952250778,0.8867007047613693,0.02230485971074425,0.34516056890464397,-0.4068839587724771,-0.35625493994935,0.4283287605583661,-0.9871392980112113,-0.776870502034479,-0.9248300158587943,-0.9845352691024267,-0.5870489334954778,-0.9101509259095446,0.03679386108644134,-0.8382323206776101,-0.3990197165786473,-0.785997310183371,0.25342468568119414,-0.5662789360593385,0.564863551173572,0.40492114836675275,0.7347859682289606,-0.38396436336618356,-0.4277698577984119,0.1239228306083211,-0.9965759092286779,-0.18275041612128873,-0.7899661273389997,-0.019568999073793725,0.9679782169903413,0.18936073102739392,-0.40084856020515636,-0.3498704000690829,-0.8035863512813544,0.056660799423786656,-0.1864016523582992,-0.4047259160299772,0.4106871697374894,0.7772403524148521,0.9869490435554868,-0.6074051463672472,0.14258597243190851,-0.550402749507731,-0.07589333586017477,0.38773544714047126,0.6916128598457143,0.019151027493006678,-0.8777816121031172,0.5292377068914202,0.5579417820856132,0.8905771400703646,-0.1583687986805622,0.07810147739175921,0.1011363016882676,-0.4473250530849564,0.08107350726014029,-0.7848133503305692,0.015253679283481647,0.25247316034937417,0.1298215579218731,-0.7518029143400169,-0.473071261775867,0.2432926009584111,0.12942365957921487,0.3339073498722107,0.3136916308713038,-0.17051895293027775,-0.6116774115191894,0.8275791200397702,0.021671361032823855,0.09572751715113337,0.10441344490672333,0.08698973784521336,-0.7660556497966649,0.4283871032933053,0.8785367497047745,0.23871981933831177,-0.14330994985980738,-0.19241348884645526,-0.2160913906479418,0.4805344377227554,-0.29426123334418675,0.7772528601839799,0.42225337900659987,0.11849687279844856,0.5056760867076382,0.6124251343118032,0.3825138142588971,0.9926629106748828,0.9703639709913512,0.46409366137587127,-0.1258781295695579,0.8718580176994533,0.48551956422545994,-0.11394496923485864,0.7607505419797664,0.20154370200701233,-0.22269357779222343,0.760380655576065,-0.34943240332814973,0.6046495089552455,0.6598378452976763,0.7561993282903579,-0.6330936492044392,0.6274286383667971,-0.028704464075933966,-0.7006124728542285,-0.5604194492588623,0.10674909178637404,-0.4819921699310685,-0.4058979456098246,0.5863379847476589,0.556470107731383,-0.06166645135752424,-0.22947833513499805,-0.546675706039566,-0.8643281509725154,0.7099427090956827,-0.9735418194103658,-0.3469973441047389,0.360683760483568,0.8326318893312852,-0.47296663609159983,0.860708116352418,-0.8514913127905812,-0.9939876572523381,0.17441569316424843,-0.47956329299498157,0.6967130135990725,0.07801923896399732,-0.0068176394629866355,-0.7003910622114984,0.44224123024545947,-0.4265348005703431,-0.6846049563912382,-0.44747284504144047,-0.8191633271130299,0.946331686586311,0.640597193994221,-0.9257111808370269,-0.9010407779153227,-0.14565652615734193,-0.7613224672997092,0.3384330761672796,-0.628369749682997,-0.991678229338852,-0.9963260136493461,0.0665020989099181,0.23914153112216363,0.6328919216226636,0.5702216754534459,-0.5167993441990437,-0.2971167561521113,0.1153006842555504,0.7597527886771391,0.5420882201338186,-0.28031334657927554,-0.48828203126906744,0.6427043686921927,-0.5081231808557909,-0.9901204932334804,0.6822584961643776,-0.562602166127774,0.9164850136012985,-0.5471010187638781,0.9325491861462303,-0.8753313301636152,-0.2707490760183786,0.9785953395087996,0.4941336725382799,0.4022487587181989,0.043784743278399096,-0.28366958850764834,-0.265406547257923,-0.012337582594914354,0.7298421739800853,0.4381327477583654,0.21722557945797383,-0.01205577958342019,-0.805160319238365,0.20132207818210035,-0.8256702090366816,-0.16321496244434286,-0.29698663248811674,-0.4819533795874338,0.2609622700867613,-0.8818165728581095,0.7828525703463765,-0.7834143933683124,0.40213268551713566,0.17186447354284806,0.45177395286517386,-0.8968222604074705,0.30834743158830613,-0.5746368705904816,0.7749766422727802,-0.3141203735894291,-0.9160585250827402,-0.8028454363052167,0.8414516947538806,-0.39665034266386345],"weights_ho":[-0.5571133969618716,0.6374477494925024,-0.09073963200500601,-0.3638215951724917,-0.09197405752266752,0.7422660123935598,0.554307301298081,0.953062027620762,-0.042118420095430986,-0.441721862447358,0.20488196232481992,0.6798642471567877,-0.39405111563682715,-0.33351610057183123,-0.6377020577883412,0.5848600987745132,0.7670657463122892,-0.31721984951639914,0.49289933796004504,0.43103568689615157,-0.9751684106272978,-0.4588585120264097,-0.6621005915452822,0.853755107391049,0.34411776647784476,0.6201856417247922,-0.8690045365574197,0.9876873376318656,0.5406460952856056,0.1054433423887855,0.4850742332283886,0.13206412520751387,-0.23233009929148762,-0.492143795675696,0.41403682301193223,-0.9667912965246566,-0.16227302242505792,0.2034647383786392,0.06463439955768724,-0.6557258330323124,0.6863697457746107,-0.8108974990637778,0.585554457917357,0.7985980105535699,0.990715225719655,0.10550170994844588,0.4072455536045565,-0.2035496163173307,0.0684983397670289,-0.6877349065983531,0.7748095409679454,-0.5924833883070919,0.20410019056064366,0.8974389039832347,0.2934586752608064,0.9129077196402366,0.29735762557593404,-0.14690646388362816,0.7035707292617979,0.9813319285185906,-0.8168881121208109,-0.7356887129571328,-0.8784867584618998,0.32734457078879786],"bias_h0":[0.3916780372606121,-0.8888712586113694,0.23625565344993849,0.7017044769265584,-0.8882277154336387,0.01906644918081013,0.21966615824933555,0.31348351584441025,-0.3843162477004709,-0.688764765152174,0.2911922911182865,-0.4182263651690281,0.7983752815844876,-0.2921502460505814,0.6213316802752225,-0.3325833817771848],"bias_h1":[0.2765439250299875,-0.7736410010702062,-0.1339048036630841,-0.12243499375103872,-0.8192076406161746,-0.8828605036841917,0.3130316515008449,-0.6196669219377724,-0.7376193424345359,0.294750476540653,0.5502175494327206,0.26601420609280013,-0.094566270320259,-0.8376253424725133,0.4558114108922189,-0.39149380509184195],"bias_o":[0.04284218333833034,-0.7870230209867646,0.055043036089609254,0.18105242728530402]}