{"weights_ih":[-0.7182270408263141,0.38628051039821454,0.42285661004381137,0.8188498449747892,0.856610390206817,0.4406945605276873,-0.7550404070835679,-0.4510571855885064,-0.1871453238972196,0.002283781576599031,0.8544878359487407,-0.9195535354372322,-0.5485887083459591,-0.012440365333361125,0.9690016337872807,-0.640098397356426,0.28038336065596603,-0.27334800981307206,0.2583773048514326,0.23807946794765877,0.13915751253743092,-0.7565457141400012,0.2624375087052344,0.8841743848173933,0.9655357256641044,0.9204962910586632,0.16019587623481368,0.5275260436677156,0.07900614332928946,-0.250341483443701,0.19066237985417778,0.6544954420425635,-0.3548006988573924,-0.5066423385631198,-0.01831232967329388,0.38912017065895377,0.5334522845396827,0.28935370514046,-0.11202811701632087,-0.8523973685601225,0.7875229897802665,0.9189637098034471,-0.6633281618690143,0.25490856377459514,-0.3121691519764065,-0.9452547446513615,0.6105295467427116,0.4166927099056055,0.1653565190650217,0.7942270293974523,-0.33938362391475074,0.1060239931509408,-0.6780183970679594,-0.7947876066931749,0.4654469906757468,-0.6028198699285785,-0.3720473287467001,0.5193131605017867,-0.2208781111862299,0.6188248690778853,0.3620642131021281,-0.9859008594098901,0.7526983864020838,0.7569730967326578,0.19980097278844844,0.8236661104031755,-0.6219266366395753,0.15076091046111073,-0.0027697807625020054,0.2397617221859898,0.3128230206110796,0.07426782565645951,0.6371997410674557,0.3736227556995291,0.401683780824291,0.6116642298484671,0.5156820342625743,0.46261976525458093,-0.22524135944313683,-0.6029254600964444,0.07595992853953737,-0.9063887400730397,0.8051230319138254,-0.09993629239614266,-0.23258826287946088,-0.32448024260472863,-0.47471723856551873,0.011792079381276244,0.11160851522409931,-0.836696199008744,0.550024383928621,-0.28527579986976814,-0.46324359550550986,-0.5667080011432026,-0.5672054244625211,-0.7866071527159602,-0.5581898898308546,-0.059617853477921035,0.8556866578581148,0.6924196185878764,-0.9785642213326919,0.5638843943625804,0.45772651839123846,-0.8848456735599619,0.6020104696803075,-0.40072444431196996,-0.6113265863051869,0.5699495941131414,-0.7105859502813763,-0.1067613347712768,0.4101442492874454,-0.547340879695331,-0.0009460197355042332,0.7969246284140474,-0.8202120342593038,-0.8114556306445817,0.3313317297266103,0.8035679100215851,0.07444393528027327,0.048318793206167276,0.45226601229559504,0.012620771413968557,0.29749656493764776,0.03930971164710706,0.4054109592537438,-0.9265315376602761,0.3229380571355043,-0.387378123613056,-0.21451033860875302,-0.21796895836487384,0.06422829883559977,0.8352203060985839,0.5804044553238854,-0.49133549326517345,0.4558435427710634,0.7293601706851021,-0.05665280621077451,0.27732947131363295,-0.1655860107284628,-0.9069327708761963,0.247865685083285,-0.15115190601904782,-0.22392895468726626,0.8241761606702616,-0.5895798894074145,0.13842501189482537,-0.8710258711194021,-0.04597844531380457,0.6343950704726493,-0.5509840926502496,0.23571195047891247,-0.6473753428090105,0.18429045218857087,-0.8007624220687037,0.023685441174524646,-0.9742504169588022,0.1501521793993985,0.9868742789408393,-0.2586651571603791,0.1784381977673577,0.9820381566812775,0.3378231113292631,0.6340992733696904,0.2699091144888657,-0.4979856798889222,0.5047156790561997,-0.38124237577013065,0.1561989393105827,-0.41173127090349704,-0.7238460613525834,0.08830610407698125,-0.5115980855991173,0.03090463254989828,0.5136018696451798,-0.15556997009581375,-0.6131193494908445,-0.6512017893282331,0.11657631276217373,0.291360190115759,-0.6856822821147179,-0.6957387360787304,-0.34689504142894045,0.7226090276504469,0.022461345483046236,0.17728160745139454,0.5760447159509465,-0.6942133480232895,-0.2692834273772611,0.7793424342267505,-0.5734453102420747,0.3125137161997438,-0.8045674218064911,0.42156823052310766,0.5741516574868581,0.7946760661816907,-0.10791102615259063,0.07838746052195367,-0.21232153402190357,-0.4571937337932841,-0.8548838968375716,-0.6647732521163294,-0.7313380810687078,-0.2885071017955958,-0.5593132289187732,-0.8217338090484247,0.20863776216495689,-0.9331551805235765,-0.9264478390930655,-0.04293283706008877,0.13587367261332362,-0.7369585360096416,-0.4532229842537243,-0.4347375617077325,-0.9189963155435428,0.7211815303583415,-0.056922324105356914,0.9435474795778251,0.7668634295034928,-0.5109105214849383,0.4420349817652567,-0.49007229207454506,-0.9202673295006658,0.883823200917899,0.6624779553661835,0.691382747223273,0.5423589260006465,-0.9573108277299596,0.2785885235236423,-0.12527962135108117,0.892652688391625,-0.5637946680695092,-0.23116400995161346,0.7304041090122291,-0.6948209052416772,-0.27246807744917567,0.8607729181431454,-0.9729044690287139,0.7598306933664785,-0.5400505531230744,-0.9908378306216143,-0.6495066394070379,-0.8992782364545451,0.14298271143921748,0.002471009236731936,0.5656657638735914,-0.9294041834845967,0.262507435590249,-0.24687333657772825,0.5422066194561741,0.3826833260324609,-0.6733782305500782,-0.1840480002538274,0.3806368445248267,-0.5543536095446169,-0.5945266188586882,-0.1599142997781855,0.2088562892645227,0.7299428192249,0.7230487684783449,0.051364988895206354,-0.5727924594442981,0.8262136598764398,0.7782906104087444,-0.8931891830757954,0.5696062245824265,-0.8349673855034734,-0.08214792895236389,0.42906262690061325,0.85874505868345,0.946298871006571,-0.049695925133907304,-0.318426152455628,0.5127153988198536,0.788205148252884,0.04635388183120703,-0.9089388116777237,-0.3989445942543386,-0.0739571153423566,-0.4237693885902536,-0.036711333618343334,-0.1722102563377279,0.85286190328,0.31423317306802856,0.02280124079196222,0.28627945452963144,0.43599727342666883,0.9154733339348178,-0.36128695573120506,-0.843580438408073,-0.6427952804525268,-0.028542988341805797,0.14371574195557635,-0.6621341678552539,-0.8832641771449323,-0.29212269439702476,-0.3196001954793437,0.4838430273780596,0.2808350066752099,-0.6994162125533472,0.12569075125123264,0.09142654436697861,-0.4585110260505374,-0.38411977308097756,-0.4999478944794282,0.0480945243211548,0.2313792570712263,0.62043641196701,-0.5419839684817254,-0.3288010329896973,0.2517219463658604,0.1612959961336764,0.565479798741553,0.7612507343678556,0.13987098104988238,-0.17964472985727786,0.19748465500462276,-0.9738179565036,0.8650584547820375,0.4848134408760765,0.027626766639117672,-0.34535745155591346,-0.24665468791017697,0.6020861431943183,-0.7254996737062882,0.7198378396926117,0.594202468765255,-0.08665064722548643,-0.6151149808349292,0.04969563013561107,0.22030158612806527,-0.821591121618394,0.6140518739107386,0.6393097238079644,0.15883812703903732,0.871214678326709,-0.8047591181768152,-0.5081713897383278,-0.6797947592875393,0.13977131081025607,0.12972761465429672,-0.264864938147958,0.3109518968716203,-0.7918634239220947,-0.5224854217520505,-0.21439034722750172,-0.41791454224626556,0.28117883158115675,0.4205428164657101,-0.9218474383646842,0.22734576778508075,-0.8531163265295432,0.6680286345436648,-0.3094243949747324,0.02309941229601664,0.1500372939970147,0.49699073241242764,-0.07133690387297165,-0.7830278852146608,-0.3002000406663734,-0.11997290901684754,0.8498141206322476,0.8720537648364886,-0.14718540984708617,-0.6983359255977781,0.9772019941951213,-0.892661271819071,-0.2386773524110528,0.1527551166092349,-0.18313460816042415,0.36294857799359415,-0.4028283337424281,0.2890538251561632,0.9399439025828509,-0.26587799705130877,0.8752597431126881,0.26150485987340133,-0.5571966647879363,-0.871415524505704,0.23314591009337016,-0.14850124141491272,-0.758087524282393,-0.3772796400273648,0.8821901519254609,0.5476342114583503,0.4557057518488956,0.8077965420674635,-0.6000457431386088,0.14083723144129268,-0.31680583821411634,-0.7122306506928333,-0.009414768797662454,-0.28374572695625644,0.5247253544065753,0.34314214922594766,-0.9123651951410794,-0.7226522723540685,0.6134506236349364,0.5700625765456286,-0.16410307052701456,-0.08017361917766896,-0.5833944571744756,-0.43648198859332354,-0.763354248372488,0.47887471753347866,0.8262167326786585,0.5159746634010385,0.43522867995302783,-0.11308027905722473,0.7744698729204507,0.04682182358174525,-0.055064750823239805,-0.9879256374731071,-0.23027341694080627,0.36529123086701243,0.41836380379780347,-0.5281665419260968,0.7843046805398044,-0.8614572585501714,0.8696587796282835,0.19833460726445074,0.9348375408313638,-0.9142844055954367,0.3403181735449161,-0.25844277432785856,-0.25390172210275486,-0.5827426276187893,-0.11091306793720168,0.1641532208031593,-0.09237157052075506,0.5544348750612387,-0.03284881767111281,-0.3866042722336893,0.23513779114019906,0.3163209821172088,-0.4729431654485352,-0.11876717821505833,0.18956593236765018,0.10670192991279848,0.624171665725419,-0.9047071576602326,0.8479536927133944,0.0026462689644735082,-0.5591660667208409,-0.005454380326145092,-0.9137537334033441,0.8052393235523438,0.012142025150235325,0.47559768856207607],"weights_hh":[-0.7563225525572717,0.1247836139108136,-0.8379761408745727,-0.37663123059784764,-0.15901003631037214,-0.7070942350663638,-0.16680019803291923,-0.5650078152777664,-0.8101642002983278,-0.23092964217807466,0.10856333293831555,-0.8843573676596199,-0.7788423425142768,0.9764701605539965,-0.29593326260432695,-0.2448212094938922,-0.5303277908848232,0.3633786287320617,0.16659248408242266,0.506896906876396,0.7740585228617212,-0.8771757820188688,-0.7212049402216902,-0.9196278798063291,-0.880349765047937,-0.44849725786138617,-0.7706710743551939,0.7940450068054301,-0.9398565828058087,0.2496447561015438,-0.29677909266364644,0.4336888149062543,-0.7363055940852465,0.5143439799004228,0.8055634842242902,-0.07522373740409183,-0.9514208281541836,0.38974777841946806,0.9865104354470979,0.38762285884197634,0.623794217087785,-0.3887679004271758,0.5806870545841416,-0.9402623975824995,-0.5615071833344087,0.269608136621758,0.07595450059591813,-0.7557839255268819,-0.3390421734887583,0.7094848422690767,0.041618315719323506,0.1423395909346472,-0.545050811701699,-0.654635135903783,-0.6214929535811511,-0.21048647790114527,-0.08665230900505927,0.6229313522806244,-0.2546028405352436,0.4225405247039389,-0.9441246248554678,-0.8435598590958162,-0.9871392980112113,0.7375766925582881,-0.9248300158587943,0.9748176334357908,-0.5870489334954778,-0.9101509259095446,0.03679386108644134,-0.45854586984181767,0.12288886698504609,-0.785997310183371,0.6226025595818991,0.9874973156592697,0.6176929344636126,0.45542300961249893,-0.2581529392098172,-0.5415374708118492,0.7462777219039032,-0.6359049827418382,-0.670398764748501,-0.18275041612128873,0.7156921981784543,0.24635093175377465,-0.6460689823393997,0.6081782378213281,0.5771812363569839,-0.27339318909938903,-0.2453262471135278,-0.033257810249668784,0.3116401227142602,-0.4047259160299772,0.4106871697374894,0.7772403524148521,-0.18516022678331434,-0.6074051463672472,0.14258597243190851,-0.7782155197371601,-0.07589333586017477,0.38773544714047126,-0.6894896638011547,0.023803807347899886,-0.27492187930220924,0.4874494167717378,0.9980159989449329,0.3228324127500297,-0.5541906542163066,0.07810147739175921,-0.5445287794651648,0.014660116355576402,-0.8078347254767329,-0.8333304411113247,-0.04944301134757034,0.2735159828732934,-0.6535157314466649,0.7094146149081828,0.6276659290582496,0.5043629172232438,0.4521143935203904,0.7415518280188562,0.9938955898539659,-0.33700563713695963,-0.9450592181935034,0.31803585050224337,0.5311130000901316,-0.9450179287111136,0.47085189407137484,-0.48620554751406564,-0.7660556497966649,-0.46937554746049015,0.8785367497047745,-0.1664306057433642,-0.09675841452657918,-0.5326640220110752,0.6662083078039325,-0.27236170932667414,-0.29086105957113406,-0.7408522135003288,-0.1898005670537528,0.11849687279844856,-0.7940688451828026,-0.3236920184161942,0.6748823415458789,-0.3550522227672863,-0.11369981933166295,0.46409366137587127,-0.9112412127846319,0.8718580176994533,-0.8963404320301165,-0.11394496923485864,0.3876102708528506,0.7384986540342828,-0.22269357779222343,-0.5407577432377588,0.5902314043967902,0.10887118850380872,-0.19846428541559025,0.7561993282903579,0.05169865640558147,0.5493050357894789,0.8302766527153966,0.8868981920904448,-0.5604194492588623,0.8991535202938505,-0.7730905649158542,0.22023881141317792,0.5863379847476589,-0.9477473040085596,-0.03992928133345486,0.7762254157602424,-0.814899932692486,0.16060124070748882,-0.5213507599331175,-0.836224927493491,-0.3469973441047389,-0.6836385695312128,-0.9546636676426408,-0.47296663609159983,-0.1027378146133866,-0.8514913127905812,-0.9939876572523381,0.19751211572363436,0.5895873539614604,0.5886683881319366,0.8260051283553578,-0.0068176394629866355,0.4433266241210476,0.5319569864813718,0.7668477556863322,0.044785651301517015,-0.4878866970840272,-0.9058118486878952,-0.44294607821443144,0.640597193994221,-0.9257111808370269,-0.18326660041289022,-0.15940901433935895,-0.31375739417187365,-0.22472993963821275,-0.628369749682997,0.36803711251444016,0.09627161244631521,0.18527512080823216,0.23914153112216363,0.6328919216226636,0.38860799856544737,0.746199560827812,0.7265487930901213,0.9023577713843864,0.7597527886771391,-0.6984701045793011,0.9142932645017618,-0.7344836398854797,0.20832582624521545,-0.32877357920527017,0.780270425664195,-0.8465910902167442,-0.562602166127774,0.9164850136012985,0.6577720203541559,0.9641103522502577,0.6541567492251599,-0.7733540214822674,-0.8144559018324262,0.4941336725382799,0.7802750382681996,-0.8689292303140512,-0.28366958850764834,0.1972789428140338,0.6971952724200983,0.7298421739800853,0.8661359882379582,-0.9462412883913971,-0.01205577958342019,-0.13343751448729613,0.46851972355569216,-0.14710523386749874,-0.16321496244434286,-0.22229263952464762,-0.4819533795874338,0.8165077955185818,0.1714327701542533,0.5311876557833974,-0.7834143933683124,0.5226374439399393,-0.8939635349248352,0.45177395286517386,-0.8968222604074705,0.38593493232607146,-0.5746368705904816,0.9106594592994517,0.7677820012038052,-0.1293945629914961,-0.06270075662908936,0.13073765062358156,-0.7784083547782106],"weights_ho":[-0.5571133969618716,0.6374477494925024,-0.7373575206014937,-0.3638215951724917,0.2124529019283503,0.8265341931477852,-0.30136749811474295,-0.3781460992122587,0.669327188962989,0.41692276999547295,0.20488196232481992,0.6798642471567877,0.002390483428474477,0.9222218157926139,-0.4954915666264956,0.5587379405052426,-0.03415851323980368,0.017078276854579855,0.49289933796004504,-0.20524089661829237,0.3677688613676675,-0.4588585120264097,-0.6621005915452822,0.47242102880932624,0.2977816392026795,0.4558177887564485,-0.9927575677106171,0.520452594910781,0.5406460952856056,0.1054433423887855,0.8975085115117107,0.15087338179831478,0.6524037240913592,-0.492143795675696,-0.03261061844102131,-0.9667912965246566,0.12304844923940683,0.5976234876962863,-0.29536735963334504,0.11612206566298089,0.7308825702966555,0.0610558777315473,0.585554457917357,-0.6288303718461472,0.990715225719655,0.10550170994844588,0.08782086079906493,-0.2035496163173307,-0.7690257982664541,-0.21719509696323458,-0.9680494382726628,-0.5924833883070919,0.10097927765924886,0.8974389039832347,0.2934586752608064,-0.4325305423121957,0.29735762557593404,0.6639839904062954,0.8067365081087206,0.9813319285185906,-0.14545402151713427,0.22299858098254255,-0.8784867584618998,-0.09347848567360684],"bias_h0":[-0.49987176878589623,0.868635605733699,-0.3611778495578346,-0.6201328537096855,-0.450797169002211,0.01906644918081013,0.21966615824933555,0.31348351584441025,0.30985310269213784,-0.688764765152174,0.3616688795824221,-0.4182263651690281,0.2675608238338405,0.7794743664575976,-0.48285277765182677,-0.3325833817771848],"bias_h1":[0.2765439250299875,-0.7736410010702062,-0.9907378326719185,-0.21728437225511854,0.13347763495625453,-0.35902259046153584,-0.783280406348891,0.162879924188706,-0.009573463350492029,-0.5519980650478569,0.5502175494327206,-0.7201425122741918,-0.094566270320259,0.11190824913945474,0.4558114108922189,-0.39149380509184195],"bias_o":[0.7417409338998562,0.606643700494639,0.16206790359577594,0.35213408563171544]}