{"weights_ih":[-0.6764872607042078,-0.40340689746181746,0.42285661004381137,0.8188498449747892,0.27481653502551007,0.4406945605276873,-0.5264533503332169,0.02506175267295574,-0.1871453238972196,0.002283781576599031,0.5997930363743147,-0.9195535354372322,-0.557107998228094,-0.5491423343082174,-0.9045351875312313,-0.6155494592856323,-0.8999674716569332,-0.16694583124950957,-0.8303065210356708,0.23807946794765877,0.3891154605651752,0.05853891967933689,0.2624375087052344,-0.2155239912687663,-0.42258541986122,0.1063624251343982,0.3544348810064466,0.43792214407344865,0.07900614332928946,0.182167691572511,-0.9794685605903739,0.6544954420425635,-0.3548006988573924,0.9347782836660683,0.8414442534650259,-0.06503844291666105,-0.6655322908438912,-0.4119197357508415,-0.11202811701632087,0.2388688487285786,-0.19296076658132488,0.9189637098034471,-0.16018640046017274,-0.12671762352378457,-0.3121691519764065,-0.5947811646394359,0.38086813107395034,-0.016861823875155668,0.1653565190650217,0.7942270293974523,-0.33938362391475074,0.1060239931509408,-0.8074519376461837,-0.4218863591401898,-0.7965432965900192,-0.6636284674444204,-0.8385832830516322,0.29554361752107106,-0.2208781111862299,0.6058604728426542,-0.05436864842458511,-0.2497718374042579,0.08871280425832184,0.2247966782608135,-0.6275276022773302,-0.5834440428179464,-0.6219266366395753,-0.9896966778566321,0.7540425829902739,-0.5035585909419062,0.3128230206110796,-0.6442756431458481,0.6135190345533188,0.3736227556995291,-0.429304059616874,0.19642769162815354,0.5534034344806273,-0.5846144931024932,0.2569241804855211,0.027350191575215455,0.07595992853953737,-0.9063887400730397,0.3356807701402307,-0.09993629239614266,0.07136624884605358,-0.2041931842668574,-0.7617525476793661,0.011792079381276244,-0.7035960179740048,-0.836696199008744,-0.1773824287032415,-0.82236533483663,-0.46324359550550986,-0.10869303641871708,-0.1640437894794582,0.19448486952296729,0.17309947829539318,-0.1133882981840666,0.8556866578581148,0.12022828996150148,-0.9785642213326919,0.5638843943625804,0.21178836189365624,-0.1760684552333467,-0.8333060347251349,-0.9151210421747904,-0.6113265863051869,0.25956736443758865,-0.8726417450922628,0.8493982941465714,0.4101442492874454,-0.547340879695331,0.8575368273395259,0.7969246284140474,-0.8202120342593038,-0.8114556306445817,0.3313317297266103,0.4680451817872562,0.04889147223461254,-0.8081966133825185,0.1414445650663536,0.2819823263397925,0.7687024227791206,0.14293805983850172,0.8750430814407544,0.670367773479204,0.6295096047297724,-0.387378123613056,0.6905792004309637,-0.21796895836487384,-0.18633424407670685,-0.7899349242570883,-0.28814557501097937,0.5025693494971208,-0.10319234988660475,0.7293601706851021,0.15017725471423615,0.4947609783139977,-0.0024150903679525104,-0.9069327708761963,0.25216684720733706,-0.7439537235303311,-0.6743466178304809,0.8241761606702616,0.21785783838871242,-0.8583755809402149,0.9615808900502969,0.5654442659611227,0.6343950704726493,-0.5509840926502496,-0.0010645141711467243,-0.6473753428090105,0.2880807867952111,-0.0486292774389292,-0.13879561439919752,-0.047198893326309,0.1501521793993985,0.9868742789408393,0.6156054845714944,0.1784381977673577,0.23878394063809938,-0.6152050309388402,-0.724514893238722,-0.1442121671678671,0.532617172263979,-0.7448114647230164,0.013472415138205296,-0.4556309751955345,0.5161434450043145,-0.45951410852334473,0.08830610407698125,-0.19712295990062634,0.2587524877180125,0.5136018696451798,-0.1766250297252323,0.050712773848983206,-0.15837499311943315,-0.6253497480824253,0.24534039199451918,0.180803045680632,-0.6957387360787304,-0.4955467947056156,-0.4766637808124523,0.9990547218583692,0.17728160745139454,-0.5059107762433299,0.9444459219259052,0.04175180928206634,-0.39055181724990295,0.16190683263179984,-0.5027226962632889,-0.6886567574141964,-0.8695700487269216,0.5741516574868581,0.7946760661816907,-0.25266550911340024,-0.09500830181898534,-0.4946130512403384,0.2293475702683372,-0.7003017268826832,0.7225419841140879,-0.9256691166615607,0.179849147654372,-0.04161046358185283,-0.7337535303750573,0.9305566899986784,-0.8341701915103994,0.7739288033768363,0.3164664077442796,-0.8815050681704679,-0.7369585360096416,-0.4532229842537243,-0.4347375617077325,-0.9189963155435428,-0.4917222203528926,0.16401946710970972,0.8899715457821067,0.8592108374249103,-0.5109105214849383,-0.8367487928495281,0.5911129224624663,0.41418554171495203,-0.896971474887047,0.9346168302912465,-0.8280298984731767,-0.9775330554134949,-0.16655293392608783,0.2785885235236423,0.9795641901069945,0.892652688391625,0.9911228098150631,-0.0827544140348464,-0.5856360043520759,-0.9350654715786775,0.9930639672424741,0.8607729181431454,-0.40558639149769093,0.7598306933664785,0.7470985783335728,-0.28458362019131345,-0.5038555859613225,0.5586899957383662,0.14298271143921748,0.002471009236731936,-0.5248230285216184,-0.6370740366797698,0.262507435590249,-0.48168824634974783,0.5422066194561741,0.4176631678461282,-0.18642596688745683,0.9173062769700144,0.3806368445248267,-0.5543536095446169,-0.5945266188586882,-0.1599142997781855,0.9130441332216945,-0.9230166193942462,-0.8885302964210327,0.9662690123438098,-0.6399357334817346,-0.433420201766221,0.4670804792069385,0.6871636910611241,0.5696062245824265,0.9193647402206648,-0.08214792895236389,-0.10910040692072087,-0.2962836292429334,0.6240088326413136,0.23694936458615046,-0.318426152455628,0.5643353535006499,0.689388412099428,0.04635388183120703,-0.9089388116777237,-0.3989445942543386,0.018941856790574585,-0.13573910422689406,0.7609068121236742,0.17849106289276162,0.85286190328,0.31423317306802856,0.6418700831259985,0.3766254028802014,-0.38283757728776524,0.9154733339348178,-0.14311190171968446,-0.843580438408073,-0.40314485973596237,0.5665283573963042,0.721226039795259,0.3968409594171345,-0.8832641771449323,0.7739344136922486,-0.8536703246311177,-0.7417217885155687,-0.18485177165897348,0.24815901309028288,0.47142142085445404,-0.47497691755456994,-0.4585110260505374,-0.9221320164881388,0.5187120011157142,-0.412922024002111,0.2313792570712263,0.5761891963864081,-0.5419839684817254,0.42696698452505144,0.14952943139361685,0.49758189921449447,0.565479798741553,0.29646699457364245,-0.1157654307127387,-0.17964472985727786,-0.6386155850098898,0.8358168444293985,0.8010186366427283,0.0875106730346471,0.027626766639117672,0.5798021209224136,0.3824999705357601,-0.008711623776148869,-0.027648507540436018,0.7198378396926117,0.9521072558113846,-0.7025706534564702,0.9278829458819324,0.04969563013561107,0.22030158612806527,-0.5390745748677812,0.07462316585085116,-0.6791825442665094,-0.6958013039775623,0.871214678326709,-0.8047591181768152,-0.5081713897383278,-0.01645469168343472,0.13977131081025607,0.4786426173335361,0.10434503625964586,0.06470758318070913,-0.6596634045644256,0.34232624489204433,0.6868353451974607,0.7779501835836877,0.41178184778216065,-0.3638009269853919,-0.8672109580748053,0.22734576778508075,0.46414834787221104,-0.21927269892544143,-0.3094243949747324,0.1442814663052725,-0.7487283479441464,-0.05572010269682193,-0.5371911865353225,0.43794207294456355,-0.28582248454194126,0.24772234225973833,0.5613944175381478,0.7040934232110596,-0.14718540984708617,-0.2551415015581826,0.9772019941951213,-0.868222309887273,-0.07172788534099217,-0.7621217936096571,0.6291022484590081,-0.7275154885481332,0.909042726062169,-0.19895534143035354,-0.42328494981163556,-0.44442832717464653,0.8752597431126881,0.9740157988589584,-0.6511649403213993,0.2932559435042077,0.6008201911290763,0.9869723391509448,-0.7309417536133611,-0.3772796400273648,0.01820961067631477,0.5476342114583503,-0.2775868173838223,0.8077965420674635,-0.6000457431386088,-0.8740173402503666,-0.4389164791325628,0.7498160649221142,0.6208769018460063,-0.7486351778760105,0.6591111472129463,0.34314214922594766,-0.6884787552525149,-0.5745425627780809,0.6860349489461046,0.7887513793387799,-0.6944570162993404,0.04990838740526815,0.4386000923546314,-0.9576914735375979,-0.763354248372488,0.47887471753347866,-0.5652947533841488,-0.4198793452330425,0.47755825006919017,0.18836699040402438,0.021601343900354175,0.729302777010195,0.05907700158977747,-0.9879256374731071,0.7034556551166953,0.36529123086701243,0.2518473999767985,0.12931639111564386,0.7843046805398044,0.5076625486922404,0.8696587796282835,-0.5369348177898676,0.9348375408313638,0.7882325589980885,-0.466688465987414,-0.6591903800109471,-0.34599326263990204,-0.7288524726743812,-0.08398891029503375,-0.7112680549491084,-0.030504660856451205,0.5544348750612387,-0.03284881767111281,-0.3866042722336893,0.23513779114019906,0.9135426260989166,-0.18644438566556643,-0.11876717821505833,-0.9298781155308979,0.10670192991279848,-0.5988634144740044,-0.14354466534975674,0.3785602226339042,0.7895539336014752,0.42739786116219847,0.12416392872264326,-0.3630671673908459,0.20804097691093104,0.012142025150235325,0.5320096426862835],"weights_hh":[0.04955764269967111,0.1247836139108136,0.56051796457392,-0.6223945876508012,0.32446110764923586,0.357379247033494,-0.16680019803291923,-0.5650078152777664,0.5436195803183348,0.1765081955306571,0.5917044945680572,-0.8843573676596199,0.8257500495868106,0.1960396215765292,-0.8593399104755197,-0.2448212094938922,0.2830019981613465,-0.3400718524032862,0.688183048861386,-0.3952851858541415,0.2543177794281035,-0.7813542186744951,-0.7212049402216902,0.8911223234278418,-0.880349765047937,-0.373747472345624,0.6537909613106403,0.9390653894948879,0.61143218733017,-0.9968783915729276,0.7027652517920409,0.9844249233425257,0.33628068260001887,0.5125442812085459,-0.6578220483435666,-0.07522373740409183,-0.3881165064075536,-0.3097174264759688,0.9865104354470979,0.2568550849829705,-0.6713339593505419,-0.016203349376418208,-0.4987293663634593,-0.9394817273310878,-0.5615071833344087,0.7545420197971695,0.9440911987528624,-0.7557839255268819,-0.3390421734887583,0.3329396914258511,0.6207691792155914,0.30918189624388437,0.4796818004339012,-0.8424205785844454,0.5812529104378612,-0.21048647790114527,0.8867007047613693,-0.8016651846945249,0.6955952521484365,-0.38586921130588436,-0.9441246248554678,-0.7151326365935291,-0.8571512944019233,-0.46746761803773307,-0.7536828317870923,0.9238761396580022,0.3047724376865215,0.8450368626358182,0.032270340832361244,-0.785653499129215,-0.3990197165786473,-0.785997310183371,0.8431284008392343,0.9874973156592697,0.564863551173572,-0.2651452896858797,0.8720438624142224,-0.337965801492079,0.8257848321412371,0.1239228306083211,-0.9965759092286779,-0.18275041612128873,-0.9658068715208601,0.8705699768593307,-0.40804902430956913,0.6081782378213281,-0.7658908668615791,-0.011668008665041585,-0.3681888795335877,0.952760698399377,-0.14393474374070014,0.9432813490910605,0.4106871697374894,-0.12909258675942525,-0.4896525511333829,-0.2727794071347778,-0.34510218361821066,0.8414993745346384,-0.07589333586017477,0.38773544714047126,-0.2684107749851674,-0.19064547409978627,0.23810801851665353,0.6138555741682494,0.05651529848078152,0.8905771400703646,-0.5541906542163066,0.4906775946505826,-0.5445287794651648,-0.4473250530849564,-0.8078347254767329,-0.8333304411113247,-0.7287535549476931,-0.8634987252878246,-0.4113249050158059,-0.7518029143400169,0.46130408646008636,0.2432926009584111,-0.11498853219461314,-0.8613264523779756,0.08426405499313239,-0.17051895293027775,-0.12559096970458383,0.9459206711346089,-0.27384240110187097,0.09572751715113337,-0.8599615558460867,0.6199787054744834,-0.7660556497966649,-0.6202525557089771,0.8785367497047745,-0.1664306057433642,-0.939789322263205,-0.5326640220110752,0.723188670173293,0.4805344377227554,-0.5657615128017646,-0.9856286921329138,0.13365947001642264,0.8344492467434714,0.5056760867076382,-0.4263484973470364,0.6134767416763947,-0.6066528819155923,0.3727115522687183,-0.5387024840797463,0.0377355192870481,0.8718580176994533,-0.8963404320301165,0.6611723700679581,0.28287173516151465,-0.4095825753459108,-0.718771976582353,0.9378903767751519,-0.34943240332814973,0.12239855618508755,0.7128444011729986,0.7561993282903579,-0.790053064497791,0.5493050357894789,0.8302766527153966,0.8868981920904448,-0.5604194492588623,0.8991535202938505,-0.4819921699310685,0.946919618083752,0.5863379847476589,-0.9477473040085596,0.4322853258280819,0.7762254157602424,0.4951286092183962,0.16060124070748882,-0.5213507599331175,0.4946392053027453,-0.61896180559623,0.360683760483568,0.34065789246415434,0.6992542258437455,-0.1027378146133866,-0.8514913127905812,-0.9939876572523381,0.5212050799786951,0.5895873539614604,0.6967130135990725,0.3295320690436494,-0.0068176394629866355,-0.7003910622114984,-0.08929982705855588,-0.4265348005703431,-0.6846049563912382,-0.4878866970840272,0.2894250305137638,-0.44294607821443144,0.640597193994221,0.10359445166967607,0.6826496779337607,-0.14565652615734193,-0.945032993250992,0.7236706095814718,-0.15538896659587564,-0.8182517028040592,0.9472969935648436,-0.37862095881348656,0.23914153112216363,0.4832288569559844,-0.19054374576690747,0.6633135464834781,0.23907663647523347,-0.18981156936821098,0.7597527886771391,0.13955599974335553,-0.6165629916437356,-0.9183648895428018,0.6427043686921927,-0.32877357920527017,-0.25826109708137546,0.7515473501907974,-0.562602166127774,0.20868637261782785,-0.2633200396726534,0.7101624573429746,0.13769351108799244,0.42678822079779977,0.9785953395087996,0.4941336725382799,0.8912953610329983,-0.6234495860831524,-0.28366958850764834,-0.265406547257923,-0.012337582594914354,-0.32041463121756886,0.924095424704894,-0.9462412883913971,-0.01205577958342019,-0.43158533592542936,-0.9264753815087676,-0.8256702090366816,0.7034044307018201,0.007723956877374372,-0.6063920369827156,0.2609622700867613,0.2629695017850573,0.8267499228285144,-0.7834143933683124,0.17419132932854953,0.44683965048568797,0.45177395286517386,-0.8968222604074705,0.38593493232607146,-0.693281441799428,0.9106594592994517,-0.9799140447053372,0.8621888633354082,0.3095538818366008,0.7375607471693593,-0.7784083547782106],"weights_ho":[0.6182740696217808,0.32726531868076836,0.5612174082695507,-0.3638215951724917,-0.2130518890776023,0.8265341931477852,0.9722541929968194,0.953062027620762,-0.042118420095430986,0.24511608063182533,0.20488196232481992,-0.22242520953502964,-0.4711094880332387,-0.33351610057183123,-0.5671544265282269,0.7159345625866442,0.9584080898753675,0.017078276854579855,0.49289933796004504,0.7933877646463634,-0.7380107161188629,-0.4588585120264097,-0.8477938700190519,0.6781204940390946,0.34411776647784476,0.29130724930259255,0.6247851534376194,0.520452594910781,0.7366689570635587,-0.8380167985970253,0.507806552444019,-0.26770884700382,-0.23233009929148762,0.6877225914214038,0.7961126250533375,-0.9667912965246566,-0.16227302242505792,0.19992697842023133,-0.29536735963334504,-0.23678949806153682,0.052875105774230935,-0.5460244796589862,0.703170149744055,-0.8933793345652212,0.7765498735709231,0.10550170994844588,-0.4079306407347043,-0.2035496163173307,0.6248589372054496,-0.02785411768784818,-0.8481839061322436,-0.6571199015688991,0.8791070443279725,0.8974389039832347,0.2934586752608064,-0.03612058925124795,0.29735762557593404,-0.14690646388362816,-0.9255639241473852,-0.2847728849413511,-0.14545402151713427,0.7303091863809368,0.08930411054184528,-0.34708342245331303],"bias_h0":[0.7874317283914996,-0.6406563171928095,0.23625565344993849,0.7017044769265584,-0.450797169002211,0.2823113785294775,0.4122304631576357,0.6536272470945446,0.6516300005619233,-0.688764765152174,0.6567949770187376,-0.4182263651690281,0.0646873175379159,0.7794743664575976,0.6213316802752225,-0.3325833817771848],"bias_h1":[-0.7977686509126267,-0.8569631599447698,-0.9907378326719185,-0.12243499375103872,-0.8192076406161746,-0.8828605036841917,-0.783280406348891,0.40133630433464407,0.4773456149079691,-0.6692373324651024,0.3089164218957141,0.26601420609280013,-0.5630606802803262,-0.009773269156031494,0.4558114108922189,-0.39149380509184195],"bias_o":[-0.5992481620924706,0.606643700494639,0.36280900029586616,-0.709319400465007]}