{"weights_ih":[0.3792129181444208,-0.7027948301567648,0.42285661004381137,0.8188498449747892,0.3016659040884728,-0.8303769384224142,0.5733923677154025,0.053074518259878634,0.7489174083424626,0.8941064197375783,0.8617598358219869,0.3701535059135237,0.045675231248822,-0.05318652797042356,-0.6749972530296375,-0.6155494592856323,-0.8999674716569332,0.7148326707965993,-0.345576836425568,0.9934355328158277,0.9221215707717765,-0.5594848718113214,-0.8704895651404876,-0.2155239912687663,-0.36953024153675473,0.003545404792777873,0.16835519362177642,0.5275260436677156,-0.6149795255898967,-0.250341483443701,-0.042853223803865914,0.6544954420425635,-0.7968762288237221,-0.3097762056597386,0.8414442534650259,-0.6949716259709506,0.5334522845396827,-0.4119197357508415,0.8720325798324078,0.2388688487285786,-0.19296076658132488,0.5732668084169483,-0.16018640046017274,0.9533864011668465,-0.3121691519764065,-0.6185125944791832,-0.5790481538065333,-0.08692215601481945,0.1653565190650217,0.6949683653298953,-0.33938362391475074,0.1060239931509408,0.2990904738623712,-0.4218863591401898,-0.7965432965900192,-0.006891968355396072,0.7981314532190511,-0.9204052654402091,-0.2208781111862299,-0.021524381445819696,0.00956397318199187,0.6381536917926096,-0.7695643564779793,0.2247540261308636,0.19980097278844844,-0.8188590379926262,-0.6219266366395753,0.5472820806817,0.7540425829902739,-0.8231297396551513,0.3128230206110796,-0.6442756431458481,-0.08312456325948414,0.7345986581643695,0.5295826962512671,0.35341697577628217,0.5156820342625743,0.46261976525458093,-0.3821795706097757,0.0247430623450573,0.07595992853953737,-0.9063887400730397,0.07396474399881359,-0.09993629239614266,0.07136624884605358,-0.2041931842668574,-0.7617525476793661,0.011792079381276244,-0.6295549075377178,-0.836696199008744,0.550024383928621,0.04451907269211719,0.26756267865994343,-0.5667080011432026,-0.8597986198860046,0.6043673900546196,0.24220511379849352,0.06847678333435425,-0.014807201389361868,0.6924196185878764,-0.9785642213326919,0.05166178907796537,0.21178836189365624,0.6240222634128119,-0.6693178943774962,-0.40072444431196996,-0.7698400297252044,-0.8204040767525904,-0.7105859502813763,-0.6837059436324107,0.0590451505952756,-0.9641705053655076,0.8575368273395259,0.9132134112009125,-0.8202120342593038,-0.8114556306445817,0.3437911841222778,0.9762349544614508,-0.37343098745983716,-0.9765748459019983,0.3005291177293343,0.2819823263397925,0.5647769875142656,-0.27105863937116537,0.2980938307917185,0.6089504533183756,0.6295096047297724,-0.15969816549545635,0.4626719164127633,-0.5422300480491524,-0.18633424407670685,-0.6026102220412826,0.9146765441100821,0.5025693494971208,0.4558435427710634,0.7293601706851021,0.46070472629466597,0.27732947131363295,0.24664568133347897,-0.01339472454993551,-0.7522126877318307,-0.15115190601904782,-0.22392895468726626,0.8241761606702616,0.21785783838871242,0.3746240758876074,-0.7872667659379216,0.49786905389233116,-0.6719127856932285,-0.5509840926502496,0.36016930449326967,-0.6473753428090105,0.2880807867952111,-0.0486292774389292,0.023685441174524646,-0.9742504169588022,0.8707848472218773,0.3849787571747376,0.6156054845714944,0.004367676775818952,0.9820381566812775,0.48970271410881794,-0.27768471573525777,-0.3179858160132887,-0.8858208887711798,-0.7448114647230164,-0.8167457805018343,0.6719676026699122,-0.01354905603996781,-0.5556099774224912,0.08830610407698125,-0.19712295990062634,0.21983527549288606,0.8283597306236954,-0.1766250297252323,-0.9985728937032259,-0.6512017893282331,0.11657631276217373,0.9571202682685962,0.180803045680632,-0.6957387360787304,-0.4955467947056156,0.7226090276504469,0.12496378220515791,0.7293876573959572,0.5760447159509465,-0.6942133480232895,0.04175180928206634,0.29188152490136177,-0.9653222536307897,0.8445359057572013,-0.2539182327828564,-0.278975916450928,-0.8592332138849423,0.5294492002927438,-0.9905953630094848,-0.23015965082348844,0.567907739561966,-0.013403133942880396,-0.7003017268826832,-0.40938250120941233,-0.9502040492556989,0.9180161907157081,-0.5593132289187732,-0.20047191575990775,0.9305566899986784,0.3176859508722705,-0.8117497879611315,0.4585178650456503,-0.5137213970799126,-0.7369585360096416,-0.9527241939271947,-0.46139804393371975,-0.9189963155435428,-0.4917222203528926,0.34282723398604253,0.8899715457821067,0.7668634295034928,-0.5487401352302137,0.9427440146589074,0.5911129224624663,-0.24655287140107363,0.2464234883405403,0.9346168302912465,0.691382747223273,0.42427828959988356,-0.44751101889759215,0.2785885235236423,-0.16348719746769347,0.892652688391625,0.9911228098150631,0.022021952696745783,0.24520553710694726,-0.09414860623300814,0.9930639672424741,0.8607729181431454,-0.9729044690287139,0.7598306933664785,-0.5809472667037561,-0.9908378306216143,-0.3379077559097272,0.8079278771658376,0.14298271143921748,0.37696056291930913,0.9486029823004323,0.016623280462447543,0.262507435590249,-0.24687333657772825,0.5422066194561741,0.8886940425485965,-0.18642596688745683,0.34990598956734975,0.9009165538398662,-0.8932510690161428,0.04246670778939965,-0.1599142997781855,-0.22244826791660333,0.7299428192249,0.07159419291983715,-0.5012566589698175,-0.6399357334817346,-0.433420201766221,-0.7737788429092056,-0.6038415108418431,0.5696062245824265,0.9193647402206648,-0.08214792895236389,-0.4176776151821662,0.25468354832007645,0.946298871006571,-0.6549406131757476,0.03778828786069943,-0.17045571591877207,0.689388412099428,0.04635388183120703,-0.9089388116777237,-0.3989445942543386,0.11207017214087078,-0.4237693885902536,-0.4302156419827514,-0.3712971638189495,0.85286190328,-0.32662179462676333,-0.6755115305962103,0.3766254028802014,0.43599727342666883,0.8087777342673388,0.20700719857675232,0.20957450839431413,-0.7796114517915989,-0.35474390765829256,-0.9094977504126647,-0.08195622977529937,0.08015498010511735,0.7739344136922486,0.6234039007164343,-0.7417217885155687,-0.18485177165897348,0.24815901309028288,0.47142142085445404,-0.5381916807336029,-0.4585110260505374,-0.2654094955151496,0.5187120011157142,-0.4740137173909691,0.2313792570712263,0.48720704949837557,-0.5419839684817254,0.11793090325118438,0.14952943139361685,0.3725075510607705,0.5622300495828407,-0.3714826240835809,-0.1157654307127387,-0.17964472985727786,0.6842418982588161,-0.9738179565036,0.1374920088037619,0.7866068809609783,0.729660527728841,0.6157339831563267,0.8943995673382075,0.11646522434928919,0.9867442071047245,0.7198378396926117,0.9521072558113846,0.6633589673642364,-0.38592789657571314,-0.2259465164837986,-0.8036450420687844,-0.5390745748677812,0.6140518739107386,-0.52144122900097,-0.6958013039775623,0.871214678326709,-0.8047591181768152,-0.29064700409447974,0.05542384498744757,-0.6268707082474814,0.008588428895040634,-0.39324417666815803,-0.8100282855490029,0.6391064564506945,-0.9763218153121518,0.4520933871043977,-0.7952038039402349,0.9955816517328995,0.7006019507353409,0.44912896182457307,0.22734576778508075,0.46414834787221104,-0.25969063723273766,-0.3094243949747324,-0.12655753625597965,0.9782979478829767,-0.1835538079327057,0.4317473408157151,0.43794207294456355,-0.6922430067900589,-0.11997290901684754,-0.11484054977877767,0.8720537648364886,-0.14718540984708617,0.2785809322468118,-0.9370464561619225,0.14212478880277368,-0.9947882904713654,-0.24272078761449767,0.6291022484590081,0.8951014649330638,0.2830603252319175,-0.19895534143035354,-0.10207271036877463,-0.26587799705130877,-0.7211334221097938,0.43429037484394106,-0.5571966647879363,0.2932559435042077,0.23314591009337016,0.08424280628197622,0.29011564464200257,0.4348231444513475,0.19041135643354146,0.728766202022485,-0.9154319302445904,0.8077965420674635,-0.6000457431386088,-0.8740173402503666,0.2642020716824447,-0.9896897603646826,-0.009414768797662454,-0.7486351778760105,-0.4411010391412251,-0.06423182102335145,-0.9123651951410794,0.7224254430654133,0.6134506236349364,0.7887513793387799,0.7620996893078684,-0.08017361917766896,-0.20200889809013,-0.8812585136795481,-0.7532735252629099,0.8329857888605028,0.7223868264169677,-0.4198793452330425,0.47755825006919017,-0.2311449671557706,0.22875770844140408,0.9991537112708133,0.9970103801917805,-0.2777554915385425,-0.14499831753060421,-0.9475561987477561,0.612479626181202,-0.13948527956771684,0.7843046805398044,-0.8614572585501714,0.06431696630322614,-0.2410958619907475,0.9348375408313638,0.82712986203509,0.3403181735449161,-0.6591903800109471,0.610945510721365,0.7651937690339643,0.32038727617142126,-0.7112680549491084,0.8119659576969465,0.5544348750612387,0.23714198223852745,-0.3866042722336893,0.23513779114019906,-0.45459871740355773,0.19317574920034608,-0.11876717821505833,0.18956593236765018,0.10670192991279848,0.624171665725419,0.08629584356178199,-0.969783235294678,0.5124275304071169,-0.9529345352736964,-0.5372920896719096,-0.11607660978663903,-0.4144191442746412,0.012142025150235325,-0.28965329912845306],"weights_hh":[-0.21775601666273303,0.1247836139108136,-0.17124303301844113,-0.5473933110338318,0.1306852951168822,-0.41268164581707234,-0.9750006839394985,-0.9768685786640752,-0.8101642002983278,0.1765081955306571,0.10856333293831555,-0.8843573676596199,-0.25386148410350406,0.3220641861982041,-0.8593399104755197,-0.16861856056498237,-0.04729707194407662,0.9643876189794922,0.16659248408242266,0.9843733060514104,0.7740585228617212,0.08355787940962678,-0.33423545150210243,0.8911223234278418,-0.880349765047937,-0.7848809258470484,0.5509944866384278,0.9390653894948879,0.61143218733017,0.2496447561015438,-0.6217079648481125,0.5343736748119376,0.4986423380698559,0.6919676446697032,-0.004502280796644831,0.7974698031023082,-0.3881165064075536,0.38974777841946806,-0.769224553904811,0.2568550849829705,0.33787093498953324,-0.9654684797165372,0.482219850306288,-0.9432933962445309,-0.5615071833344087,-0.42374014100532453,-0.526050397288657,-0.7557839255268819,-0.5430043757226055,0.3329396914258511,-0.26765985535903813,0.1423395909346472,-0.8240418814567607,-0.654635135903783,-0.45983983801470796,0.09650603420976922,-0.6291466032116917,0.19415572876795628,0.34516056890464397,-0.4068839587724771,0.4057298568125851,0.8218396684366776,-0.5556807108710387,-0.9335280367037291,-0.6046087086139544,-0.9845352691024267,-0.5870489334954778,0.31984386037532,0.7261661668402326,-0.6290371447121983,-0.3990197165786473,0.07633788329069557,0.14744074564811083,0.9739009129199896,-0.4991615078223608,0.45542300961249893,-0.0007638276748043182,-0.796359594848721,0.8347057703064811,0.09450309859883266,0.7628602085232326,-0.18275041612128873,0.7156921981784543,0.6101640005122833,-0.7482384143675669,0.6081782378213281,0.5771812363569839,-0.011668008665041585,-0.7187607631994724,-0.033257810249668784,-0.1864016523582992,-0.4047259160299772,0.4106871697374894,0.7772403524148521,0.7489638949177719,-0.6074051463672472,0.14258597243190851,-0.45402052394503456,-0.07589333586017477,0.38773544714047126,-0.815832562700836,-0.36404636672430724,-0.8777816121031172,0.5105414063823255,0.8046082709906681,0.8905771400703646,-0.5541906542163066,0.764518107160854,-0.1961714543353128,-0.6566992858787126,-0.8078347254767329,0.897375225226068,0.6953043549492219,0.6615971571715922,0.1298215579218731,-0.7518029143400169,0.46130408646008636,0.2432926009584111,0.9173402089687042,0.8297052467158028,0.9816871944138432,-0.17051895293027775,0.3633080934853332,0.9459206711346089,0.25572396881754833,0.09572751715113337,-0.044946438834459146,0.7260534796197289,0.2659945706312077,-0.46937554746049015,-0.5556512391078952,-0.1664306057433642,-0.5776306106659694,-0.19596360231575916,0.2720914473843723,-0.3194311473348148,-0.29426123334418675,-0.7408522135003288,-0.6259240356144291,0.11849687279844856,-0.437351486894594,-0.4263484973470364,0.6134767416763947,-0.238985478141446,-0.37376395179154076,-0.8578505404638732,-0.2187230446890973,0.2811171436034565,-0.8963404320301165,-0.0312368119476627,0.8265269208441104,0.5069974606769174,-0.22269357779222343,-0.19192938067514542,0.00017863435561804586,0.8142477829574561,0.6598378452976763,0.7561993282903579,-0.8065240657528179,-0.560351959758693,0.8302766527153966,-0.5190711947493905,-0.5604194492588623,0.14152149957011617,-0.4819921699310685,0.22023881141317792,-0.21433128930545453,-0.9477473040085596,-0.7435737880919071,0.7762254157602424,0.01790528048107931,0.16060124070748882,-0.14472461703196826,0.7696658026982099,-0.3469973441047389,-0.5243032937734062,0.4478181816099238,-0.6070847588184023,-0.1027378146133866,-0.8514913127905812,-0.9939876572523381,-0.3263594028296424,0.7854328772937536,0.6967130135990725,-0.8113784273039888,0.1602501581523268,-0.7003910622114984,0.43097190352706116,-0.469410574331256,-0.6846049563912382,-0.4878866970840272,-0.1827211543976024,-0.44294607821443144,0.640597193994221,-0.9257111808370269,0.6826496779337607,-0.14565652615734193,0.38433518956032553,0.3384330761672796,-0.628369749682997,0.49459223358650606,0.35801546326515843,-0.29233442971617274,0.23914153112216363,-0.36568619473781716,0.5702216754534459,-0.048073939296017,-0.021935853503779468,-0.6500557985252076,0.5594237924947827,-0.6984701045793011,-0.28031334657927554,-0.8745587404257835,-0.3745757958777909,-0.32877357920527017,-0.9901204932334804,-0.8465910902167442,-0.562602166127774,-0.3111955700508844,0.8123741322258329,0.9537709402917403,0.6541567492251599,-0.7733540214822674,0.9785953395087996,-0.09088645011100449,-0.402124524549206,0.043784743278399096,-0.28366958850764834,-0.265406547257923,-0.058227293689917525,0.7298421739800853,0.9420161088056644,-0.7536797643546727,0.15950065481277687,-0.805160319238365,-0.9264753815087676,-0.7478168088489963,0.14711395480721823,-0.7711656607979762,-0.4819533795874338,-0.5918177872631323,-0.8642722787676254,0.184240068621226,-0.7834143933683124,0.785672031854687,-0.5923140120181805,0.45177395286517386,-0.8968222604074705,-0.3987863166715242,0.604507778084193,0.9106594592994517,-0.3141203735894291,-0.9160585250827402,-0.8657254853980276,0.7375607471693593,0.40121828655809666],"weights_ho":[0.39459855865302007,-0.17280764735194687,0.5612174082695507,-0.3638215951724917,0.2124529019283503,0.8265341931477852,-0.45865398617509334,-0.4199266908922068,0.5168142941999654,0.026123648489707385,0.20488196232481992,-0.806239396982795,0.002390483428474477,-0.33351610057183123,-0.4954915666264956,0.6480761746452779,-0.0692625080746816,0.017078276854579855,0.49289933796004504,0.9589440308830386,-0.8402112743658234,-0.8144424809389741,-0.0752248518644636,0.4967776395763106,0.34411776647784476,-0.24771191089129885,-0.9927575677106171,0.4820570776669324,0.5406460952856056,-0.9213974484699068,0.3966184875487442,-0.020174761562028243,-0.5487124046714031,-0.49066071209795425,-0.03261061844102131,-0.9667912965246566,-0.16227302242505792,-0.43964942686440067,-0.29536735963334504,-0.23678949806153682,0.10654657803838297,0.0610558777315473,0.585554457917357,0.8624601850304707,0.990715225719655,0.10550170994844588,-0.06748450622573743,0.178149634032424,0.10559834358724696,-0.02785411768784818,-0.9680494382726628,0.019323025028168628,0.20410019056064366,0.7596980426039377,0.4942408145769235,-0.41147683012857783,0.29735762557593404,0.6487881755441012,-0.6769365863161865,0.9813319285185906,-0.12799954343001674,0.7303091863809368,-0.6246558239113447,-0.44952928786939017],"bias_h0":[0.3916780372606121,-0.919821967247803,0.046014736699638625,-0.13182622316613135,-0.5230754742062536,0.01906644918081013,0.2762748560606447,0.31348351584441025,0.6572325912491088,-0.688764765152174,0.67240252883166,-0.4182263651690281,0.29227452553037403,-0.0767229171960564,-0.10437847255480115,0.8733609165354641],"bias_h1":[-0.08754907343583018,-0.5794209962228041,-0.8845655887351109,-0.91066013510794,-0.43727321622992155,-0.8828605036841917,-0.5482499853332325,0.40133630433464407,0.333032876749513,-0.5519980650478569,0.5502175494327206,0.26601420609280013,-0.9866437790382736,-0.02757181571355738,0.4558114108922189,-0.39149380509184195],"bias_o":[-0.5992481620924706,0.606643700494639,0.28321910864658983,-0.7130556809153712]}