{"weights_ih":[-0.6764872607042078,0.1239735570506213,0.812043711750033,0.7013690798293779,0.856610390206817,0.4406945605276873,-0.6983347142453102,0.02506175267295574,0.4362618140804768,0.002283781576599031,0.5997930363743147,-0.9195535354372322,-0.5485887083459591,0.2124731839846663,-0.4011176009254238,-0.6155494592856323,0.6908608367657847,-0.16694583124950957,-0.8303065210356708,0.23807946794765877,0.004168428070468355,-0.5556571386457771,0.6455383893360784,-0.2155239912687663,-0.42258541986122,0.1063624251343982,-0.14468924446149933,0.43792214407344865,0.07900614332928946,0.182167691572511,-0.9084631151081024,-0.1417680608140237,0.604026310812243,0.9347782836660683,-0.48681259922073394,0.38912017065895377,0.5334522845396827,-0.4119197357508415,0.5386088232947379,-0.17430382255521382,0.5703486349127962,0.9189637098034471,-0.16018640046017274,-0.12671762352378457,-0.3121691519764065,-0.9452547446513615,0.38086813107395034,0.4166927099056055,0.1653565190650217,0.7942270293974523,-0.5626338570494531,0.1060239931509408,-0.866447481103541,-0.4218863591401898,-0.7965432965900192,-0.6028198699285785,-0.3720473287467001,0.29554361752107106,-0.2208781111862299,0.6058604728426542,-0.05436864842458511,-0.2497718374042579,0.08871280425832184,0.2247966782608135,-0.6275276022773302,0.6503954058223451,-0.6219266366395753,-0.9896966778566321,0.7540425829902739,-0.5035585909419062,0.3128230206110796,0.6655767667374111,0.6371997410674557,0.37350204940969234,0.8535108009617096,0.19642769162815354,0.5534034344806273,-0.5846144931024932,0.2569241804855211,0.027350191575215455,0.0940616489607029,0.9143217856537054,0.3356807701402307,-0.09993629239614266,0.07136624884605358,-0.2041931842668574,0.22022747034569612,0.011792079381276244,-0.7035960179740048,-0.836696199008744,0.550024383928621,0.04451907269211719,-0.46324359550550986,-0.5667080011432026,-0.1640437894794582,-0.44083366858253803,0.3949734793349813,-0.1133882981840666,0.8556866578581148,0.6924196185878764,-0.565368914797836,0.5638843943625804,0.21178836189365624,-0.1760684552333467,-0.03135351895659677,-0.40072444431196996,0.7086360851932114,0.5699495941131414,-0.8726417450922628,0.8493982941465714,0.4101442492874454,-0.2520238146390821,0.8575368273395259,-0.8327362894920545,-0.8202120342593038,0.6809879674028898,0.3313317297266103,0.9762349544614508,-0.37343098745983716,0.048318793206167276,0.1414445650663536,0.2819823263397925,0.5647769875142656,-0.8111999217190351,0.8750430814407544,0.670367773479204,0.6683817015443825,-0.387378123613056,0.6905792004309637,-0.21796895836487384,-0.18633424407670685,-0.7899349242570883,-0.28814557501097937,0.8220704328052535,-0.10319234988660475,-0.29540790120929095,0.15017725471423615,0.4947609783139977,-0.5519693312771368,-0.9069327708761963,-0.5575907981436943,-0.7439537235303311,-0.6743466178304809,0.8241761606702616,0.21785783838871242,-0.09974100281018661,-0.07265437265114727,0.5654442659611227,-0.1946809629660311,0.4387476183391372,-0.7541225908125877,0.053873554376116406,0.2880807867952111,0.9607036531628346,0.023685441174524646,-0.047198893326309,0.22288142144487422,0.9868742789408393,0.6156054845714944,0.03164356493405518,0.23878394063809938,-0.6152050309388402,0.10819819409770104,-0.3198218389803831,-0.04904899733401624,-0.7448114647230164,-0.38124237577013065,-0.026636309506413047,0.5161434450043145,-0.45951410852334473,0.08830610407698125,-0.5545061771202295,0.2587524877180125,-0.75319744603721,-0.1766250297252323,0.050712773848983206,-0.15837499311943315,-0.6253497480824253,0.291360190115759,0.180803045680632,-0.6957387360787304,-0.7699608810294924,-0.4766637808124523,0.9990547218583692,0.17728160745139454,-0.5059107762433299,-0.6942133480232895,0.4603040156917175,0.8397806115514914,0.16190683263179984,0.6030531357068305,-0.8045674218064911,0.05467239408200797,0.20909021544873196,0.7946760661816907,-0.25266550911340024,0.07838746052195367,0.36192661283226935,0.2293475702683372,-0.7003017268826832,0.7225419841140879,-0.9256691166615607,-0.8335976056201828,-0.5593132289187732,-0.7337535303750573,-0.2691811867524587,-0.8341701915103994,0.7739288033768363,0.3164664077442796,-0.8815050681704679,-0.8256704485058963,-0.4532229842537243,-0.876658564652222,-0.9189963155435428,0.445386794662882,0.34282723398604253,0.9779589324032727,0.7668634295034928,-0.5109105214849383,-0.4885375786837298,0.5911129224624663,-0.9202673295006658,0.883823200917899,0.9346168302912465,0.691382747223273,-0.9775330554134949,-0.16655293392608783,-0.34210402569391096,0.11679711668759718,0.46360217401763615,0.5929210517321284,-0.0827544140348464,-0.5977079823770826,-0.6948209052416772,0.9930639672424741,0.8607729181431454,-0.40558639149769093,0.7598306933664785,-0.5809472667037561,-0.9908378306216143,-0.9032652621384554,0.5586899957383662,0.14298271143921748,0.002471009236731936,-0.5248230285216184,-0.6370740366797698,0.3175269470101898,-0.24687333657772825,0.5422066194561741,0.3826833260324609,0.5845889406736002,0.9173062769700144,0.3806368445248267,0.8999448905334262,-0.5945266188586882,0.66465143060161,0.2088562892645227,0.7299428192249,-0.8885302964210327,0.9662690123438098,-0.6399357334817346,-0.433420201766221,-0.7737788429092056,0.6871636910611241,0.5696062245824265,0.9193647402206648,0.5900488240984358,-0.10910040692072087,-0.2962836292429334,0.946298871006571,0.23694936458615046,0.49582890650756717,0.5643353535006499,-0.3812672164959541,0.04635388183120703,0.9233313908199954,-0.9143462135751534,0.018941856790574585,-0.4237693885902536,0.7609068121236742,-0.6541537054332782,0.26759692718242767,0.935878351184465,0.6418700831259985,-0.9632015337644368,0.43599727342666883,-0.7689914996860807,-0.36128695573120506,-0.021675360455188253,-0.40314485973596237,0.3342446469546203,-0.9094977504126647,-0.6621341678552539,-0.012050859792288815,0.841609371486568,-0.3196001954793437,-0.7417217885155687,-0.18485177165897348,0.6622308526636027,0.47142142085445404,-0.47497691755456994,-0.35706149575232393,0.3117904178911908,0.5187120011157142,-0.9252803666208729,0.2313792570712263,0.62043641196701,-0.2736154343273629,-0.3288010329896973,0.14952943139361685,0.9734675161192856,0.7348652975710379,0.5682439198873042,-0.8745818115408841,-0.5383467625831342,-0.6386155850098898,-0.9738179565036,0.8010186366427283,-0.30981149908985794,0.6782320156006241,0.5798021209224136,-0.7605562668488934,-0.008711623776148869,-0.027648507540436018,0.5935385119129917,0.41962714583403726,-0.08665064722548643,-0.6151149808349292,0.8265352795404943,0.22030158612806527,-0.6578990648322194,0.07462316585085116,-0.6791825442665094,-0.6958013039775623,0.871214678326709,-0.8068591428872298,-0.33241484938748034,0.05542384498744757,0.13977131081025607,0.008588428895040634,0.05821386033409959,0.7814385639826913,-0.6596634045644256,-0.9763218153121518,0.6868353451974607,-0.7661562083153963,-0.6317228972407734,-0.3638009269853919,-0.9218474383646842,0.07633163009929378,0.605997920493043,-0.25969063723273766,-0.4072571682043473,0.1442814663052725,-0.7487283479441464,-0.1835538079327057,-0.5371911865353225,0.5468072342223571,-0.6959344742655424,-0.11997290901684754,0.5613944175381478,0.8720537648364886,0.5652858904460532,0.2785809322468118,0.9772019941951213,-0.868222309887273,-0.07172788534099217,-0.7621217936096571,0.7005597631870024,-0.7275154885481332,-0.024926153955822983,-0.312510109698376,0.9399439025828509,-0.44442832717464653,0.8752597431126881,0.9740157988589584,-0.6511649403213993,-0.2972497566221608,0.23314591009337016,-0.14850124141491272,-0.758087524282393,0.47923385488900627,0.19041135643354146,-0.0723102511463607,-0.2775868173838223,-0.1238904845016795,-0.6000457431386088,-0.8740173402503666,-0.7353362709758433,0.7498160649221142,-0.009414768797662454,-0.7486351778760105,0.6591111472129463,0.6245846343423267,-0.6884787552525149,-0.5745425627780809,0.6860349489461046,-0.7698549345844286,-0.16410307052701456,0.04990838740526815,-0.20200889809013,-0.9576914735375979,-0.763354248372488,0.47887471753347866,0.8262167326786585,-0.4198793452330425,0.5830843008191566,-0.827955334608607,0.6808219025526656,0.729302777010195,-0.055064750823239805,-0.9879256374731071,-0.4118087146939837,0.36529123086701243,0.2518473999767985,0.12931639111564386,0.5877882473135243,0.5076625486922404,-0.7807247984267656,-0.5369348177898676,-0.7817331471133953,0.0652337154929441,-0.466688465987414,-0.6591903800109471,-0.25390172210275486,0.6440783744372467,-0.13872540960768287,-0.2766257425572225,-0.8102309780171748,-0.456387383077667,-0.40827510915633525,-0.3866042722336893,-0.22626567053087743,0.3163209821172088,-0.18644438566556643,0.5556492847197525,0.18956593236765018,0.46748520773217384,-0.5988634144740044,0.08629584356178199,-0.969783235294678,-0.03880415886287669,0.42739786116219847,0.12416392872264326,-0.3630671673908459,0.20804097691093104,0.012142025150235325,0.5320096426862835],"weights_hh":[0.04955764269967111,-0.48615331467047684,0.8228003681554878,-0.33064739937244614,-0.15901003631037214,-0.7070942350663638,-0.16680019803291923,-0.5650078152777664,0.5436195803183348,0.1765081955306571,0.10856333293831555,0.5904064440927899,0.7666149874168315,0.1960396215765292,-0.8593399104755197,-0.29521987271908023,-0.22803267493646495,0.28176942382356596,0.16659248408242266,0.9843733060514104,0.2543177794281035,-0.4519133807801221,-0.4436531491634288,-0.12034430881953395,-0.880349765047937,0.9254325868169799,0.5509944866384278,0.09947764762811007,0.61143218733017,0.2496447561015438,0.7027652517920409,0.4336888149062543,0.45455034059273935,0.5125442812085459,-0.4209251717934863,-0.07522373740409183,-0.3881165064075536,0.38974777841946806,0.9865104354470979,0.2568550849829705,-0.6713339593505419,-0.016203349376418208,-0.4987293663634593,-0.9402623975824995,0.6093580376662313,0.9183272303641024,0.07595450059591813,-0.7557839255268819,-0.3390421734887583,0.3329396914258511,0.041618315719323506,0.1423395909346472,0.4796818004339012,-0.8424205785844454,0.5812529104378612,0.6361263065902252,0.9791508357858181,0.6229313522806244,0.6955952521484365,-0.4068839587724771,0.2127768208742966,-0.7151326365935291,-0.8571512944019233,-0.428542323736385,-0.7536828317870923,0.9238761396580022,-0.5870489334954778,-0.9101509259095446,0.032270340832361244,-0.6290371447121983,-0.8600608916807415,-0.785997310183371,0.8431284008392343,0.9874973156592697,-0.4079449525258019,-0.2651452896858797,-0.0007638276748043182,-0.5415374708118492,0.8257848321412371,-0.6478869175995356,-0.5108186922042679,-0.18275041612128873,-0.9658068715208601,-0.019568999073793725,0.9679782169903413,0.523689230270755,0.5771812363569839,-0.9493231719105906,-0.3681888795335877,-0.033257810249668784,-0.14393474374070014,-0.4047259160299772,0.4106871697374894,-0.12909258675942525,-0.4896525511333829,-0.2727794071347778,0.14258597243190851,-0.7782155197371601,-0.07589333586017477,0.38773544714047126,-0.2684107749851674,-0.19064547409978627,0.23810801851665353,-0.9661915439000179,0.05651529848078152,0.270537234264818,-0.4632239815634378,0.4906775946505826,-0.5445287794651648,-0.4473250530849564,-0.8078347254767329,-0.8333304411113247,0.015253679283481647,0.25247316034937417,0.1298215579218731,-0.7518029143400169,0.1124927883406075,0.2432926009584111,-0.11498853219461314,0.9203878591703276,0.41869916716933675,-0.17051895293027775,-0.12559096970458383,-0.5395321610829753,0.25572396881754833,0.09572751715113337,0.47085189407137484,0.6199787054744834,-0.7660556497966649,-0.6202525557089771,0.7493212103661178,0.9590527362169401,-0.5776306106659694,-0.18222447262686003,0.723188670173293,-0.6068730438069112,-0.29426123334418675,-0.9856286921329138,0.13365947001642264,0.8344492467434714,0.5056760867076382,0.7635085308261478,0.6134767416763947,-0.7631926289596274,-0.11369981933166295,-0.5387024840797463,0.3505383033076652,0.8718580176994533,0.8327744154796624,0.6611723700679581,0.28287173516151465,-0.4095825753459108,-0.22269357779222343,-0.19192938067514542,-0.34943240332814973,0.6046495089552455,0.6598378452976763,0.6755980006977427,0.05169865640558147,0.5493050357894789,0.6658576884436149,0.17216327145896115,0.4534887752290415,0.8991535202938505,-0.4819921699310685,0.22023881141317792,-0.09735547045615078,0.4723719452085766,-0.03992928133345486,0.038077337150553836,0.4951286092183962,0.8270144793929934,0.49249141497065785,0.4946392053027453,-0.3469973441047389,0.5143832621221849,0.34065789246415434,-0.47296663609159983,-0.1027378146133866,0.22314739946182405,-0.9939876572523381,0.5212050799786951,-0.6829310598131317,0.5775025655299808,0.3295320690436494,0.40090105923966957,0.7283138220847427,0.22193325063161362,-0.4265348005703431,-0.6846049563912382,-0.4878866970840272,0.2894250305137638,-0.8379037166268708,0.640597193994221,-0.9257111808370269,0.9696118001540461,-0.28359073296947823,-0.31375739417187365,0.7236706095814718,-0.628369749682997,-0.8182517028040592,0.5144393661311661,0.0665020989099181,0.7913975073272692,0.4832288569559844,-0.19054374576690747,-0.4191619926797123,0.30786237928366145,-0.1837243809692357,0.7597527886771391,-0.6984701045793011,-0.28031334657927554,-0.48828203126906744,0.6427043686921927,-0.6041110927034199,-0.25826109708137546,-0.8465910902167442,-0.562602166127774,0.9164850136012985,-0.2633200396726534,0.7101624573429746,0.6541567492251599,0.42678822079779977,0.9785953395087996,0.4941336725382799,-0.16005879465588535,-0.6234495860831524,-0.28366958850764834,-0.265406547257923,0.8767543288636563,0.7298421739800853,0.8661359882379582,-0.9462412883913971,-0.8110904251256459,-0.805160319238365,-0.7716170353825993,-0.7800032390022369,-0.16321496244434286,0.3883038695068082,-0.6063920369827156,0.2468938677387862,0.2629695017850573,0.5517153218085062,-0.7834143933683124,0.17419132932854953,0.45605399895750476,0.45177395286517386,-0.014050028547792914,-0.9752730027639414,-0.693281441799428,0.9106594592994517,-0.9799140447053372,-0.9160585250827402,0.3095538818366008,0.7375607471693593,-0.7784083547782106],"weights_ho":[-0.5571133969618716,0.32726531868076836,0.5612174082695507,-0.3638215951724917,-0.2130518890776023,-0.5308666638853041,0.9722541929968194,0.953062027620762,0.273558995670685,-0.309989373069848,0.20488196232481992,-0.22242520953502964,-0.4711094880332387,0.6508728402145032,-0.4954915666264956,0.7159345625866442,0.9584080898753675,0.017078276854579855,0.6812281256435906,0.7933877646463634,-0.7380107161188629,-0.9435042538524565,-0.6621005915452822,0.853755107391049,0.7627212504198682,0.29130724930259255,0.6247851534376194,0.43808313106277774,0.7366689570635587,0.1054433423887855,0.507806552444019,0.15087338179831478,0.12256284014695717,0.6877225914214038,-0.03261061844102131,-0.9667912965246566,-0.16227302242505792,0.19992697842023133,-0.29536735963334504,0.20545117161637383,-0.0064218343708621894,-0.5460244796589862,0.703170149744055,-0.6288303718461472,0.990715225719655,0.10550170994844588,-0.4079306407347043,0.1723969040171076,0.6248589372054496,-0.20040821442619827,-0.8481839061322436,-0.6571199015688991,0.8791070443279725,0.12812332745952393,-0.1456449276268239,-0.20209309581142176,0.29735762557593404,-0.14690646388362816,-0.9255639241473852,-0.2847728849413511,-0.14545402151713427,0.3366092490082184,-0.8784867584618998,-0.09347848567360684],"bias_h0":[0.7874317283914996,-0.8888712586113694,0.23625565344993849,0.984337343676835,-0.837773567940471,0.2823113785294775,0.4122304631576357,0.6536272470945446,0.30985310269213784,-0.688764765152174,0.2911922911182865,0.08105865426220205,0.2675608238338405,0.7794743664575976,-0.2800951562856371,-0.3325833817771848],"bias_h1":[-0.7977686509126267,-0.8569631599447698,-0.5249305048499031,-0.23700242215463718,-0.8192076406161746,-0.8828605036841917,-0.8897685541176961,0.6881005463500254,-0.21722792317026007,-0.5519980650478569,0.5502175494327206,-0.5011273161229048,-0.094566270320259,-0.009773269156031494,0.4558114108922189,-0.39149380509184195],"bias_o":[-0.5992481620924706,0.606643700494639,0.36280900029586616,0.5123187591688199]}