{"weights_ih":[-0.8342969971393359,0.1239735570506213,0.812043711750033,0.7013690798293779,0.856610390206817,0.4406945605276873,-0.6983347142453102,-0.11028191542651133,0.4362618140804768,0.7191662424749703,0.5997930363743147,-0.2398896816360554,-0.557107998228094,-0.5491423343082174,-0.9045351875312313,-0.6155494592856323,0.6908608367657847,-0.16694583124950957,-0.417090204245967,0.23807946794765877,0.3891154605651752,-0.5556571386457771,0.2624375087052344,-0.2155239912687663,-0.36953024153675473,0.1063624251343982,0.3544348810064466,0.5275260436677156,0.07900614332928946,-0.250341483443701,-0.9794685605903739,-0.1417680608140237,0.604026310812243,0.9347782836660683,-0.48681259922073394,0.38912017065895377,-0.6655322908438912,-0.4119197357508415,0.5386088232947379,0.2388688487285786,0.5703486349127962,0.9189637098034471,-0.16018640046017274,-0.12671762352378457,-0.002048541695081507,-0.5947811646394359,0.38086813107395034,0.4166927099056055,0.1653565190650217,0.7942270293974523,-0.33938362391475074,0.42504958928695147,-0.866447481103541,0.27239210180691953,-0.7965432965900192,-0.6028198699285785,-0.3720473287467001,-0.9204052654402091,-0.35932449302569025,0.8617035302255909,0.7712363765117092,0.3355732521165964,0.08871280425832184,0.2247966782608135,0.19980097278844844,0.6503954058223451,-0.6219266366395753,-0.9896966778566321,0.7540425829902739,-0.8231297396551513,0.7755067950368078,-0.6442756431458481,0.6135190345533188,0.3736227556995291,0.8535108009617096,0.6116642298484671,0.5534034344806273,-0.5846144931024932,0.2569241804855211,-0.6355558225082862,0.0940616489607029,0.9143217856537054,0.07396474399881359,-0.09993629239614266,0.07136624884605358,0.05088741168926281,-0.7617525476793661,-0.2907615590241912,-0.7035960179740048,-0.09472659127275107,-0.1773824287032415,-0.82236533483663,-0.46324359550550986,-0.10869303641871708,-0.6278456549026179,0.19448486952296729,0.17309947829539318,-0.1133882981840666,-0.9272776975358503,0.12022828996150148,-0.9785642213326919,0.5638843943625804,-0.17915416322884958,0.8317965812409736,-0.8333060347251349,-0.40072444431196996,0.7086360851932114,0.25956736443758865,-0.8726417450922628,0.8493982941465714,0.4101442492874454,-0.547340879695331,0.8575368273395259,0.7969246284140474,-0.24975260771592311,-0.8114556306445817,0.3313317297266103,0.9762349544614508,0.04889147223461254,-0.8081966133825185,0.1414445650663536,0.4419411003567446,0.5647769875142656,0.14293805983850172,0.4461625543658616,0.6089504533183756,0.6295096047297724,-0.387378123613056,0.6905792004309637,0.1734498636027244,-0.18633424407670685,0.8352203060985839,0.5804044553238854,0.8220704328052535,-0.10319234988660475,0.7293601706851021,0.15017725471423615,0.4947609783139977,-0.0024150903679525104,0.061576589581165075,-0.5575907981436943,-0.7439537235303311,-0.6743466178304809,0.9033839530325132,0.21785783838871242,-0.8583755809402149,-0.07265437265114727,0.5654442659611227,0.6343950704726493,0.4387476183391372,-0.7541225908125877,0.053873554376116406,-0.5630117737312876,-0.0486292774389292,-0.13879561439919752,-0.9742504169588022,0.22288142144487422,0.9868742789408393,-0.2994984711004802,0.1784381977673577,0.9820381566812775,-0.6152050309388402,-0.724514893238722,-0.3198218389803831,-0.04904899733401624,0.05266750483145799,-0.38124237577013065,-0.4556309751955345,0.5161434450043145,-0.45951410852334473,0.08830610407698125,-0.19712295990062634,0.2587524877180125,0.5136018696451798,-0.1766250297252323,-0.5598774306282259,-0.6512017893282331,0.11657631276217373,0.291360190115759,0.33179102385355863,-0.5295978012324618,-0.4955467947056156,0.7226090276504469,0.9990547218583692,0.17728160745139454,0.5760447159509465,-0.6942133480232895,0.4603040156917175,0.8397806115514914,0.16190683263179984,-0.5027226962632889,-0.8045674218064911,0.05467239408200797,0.5741516574868581,0.7946760661816907,-0.10791102615259063,0.07838746052195367,-0.4946130512403384,-0.8680417014706665,-0.5596545501586334,0.7225419841140879,-0.22390256063184633,-0.8335976056201828,-0.5593132289187732,-0.7337535303750573,0.9305566899986784,0.3176859508722705,0.7739288033768363,0.3164664077442796,0.1339760252215918,-0.8256704485058963,-0.4532229842537243,-0.4347375617077325,-0.9189963155435428,0.445386794662882,0.16401946710970972,0.8899715457821067,0.7668634295034928,-0.5109105214849383,-0.8367487928495281,0.5911129224624663,0.41418554171495203,-0.896971474887047,-0.02903752590688158,0.691382747223273,-0.9775330554134949,0.4212059117668474,-0.34210402569391096,0.9795641901069945,0.46360217401763615,0.5929210517321284,-0.3750325222377051,-0.5977079823770826,-0.6948209052416772,0.9930639672424741,-0.8995874664853962,-0.9729044690287139,0.7598306933664785,-0.5809472667037561,-0.28458362019131345,-0.9032652621384554,-0.3669813244895581,-0.606083874387946,0.002471009236731936,0.9486029823004323,0.9661885600881384,0.3175269470101898,-0.48168824634974783,-0.9432971207407903,0.4176631678461282,0.5845889406736002,0.9173062769700144,-0.47181477903440827,-0.5543536095446169,-0.5945266188586882,0.66465143060161,0.2088562892645227,0.7299428192249,0.07159419291983715,0.051364988895206354,-0.7386065279797009,-0.433420201766221,-0.7737788429092056,-0.6038415108418431,0.5665656317139045,0.6819406716069718,-0.08214792895236389,-0.10910040692072087,0.25468354832007645,0.946298871006571,-0.6549406131757476,-0.318426152455628,-0.7214692432752208,-0.3812672164959541,0.579391568538677,-0.9089388116777237,-0.3989445942543386,0.018941856790574585,-0.4237693885902536,0.699140692625225,-0.6541537054332782,0.26759692718242767,0.31423317306802856,0.6418700831259985,0.3766254028802014,-0.38283757728776524,-0.7689914996860807,-0.36128695573120506,-0.843580438408073,-0.6427952804525268,0.5665283573963042,-0.9094977504126647,-0.6621341678552539,-0.8832641771449323,0.841609371486568,-0.3196001954793437,-0.8141402493065022,-0.722078592478453,0.6622308526636027,-0.14311262736508956,-0.3199503558527095,-0.4585110260505374,-0.9221320164881388,0.5844032791033649,-0.9252803666208729,-0.5585629128628613,0.62043641196701,-0.5419839684817254,-0.3288010329896973,0.004294305136116394,0.9734675161192856,0.565479798741553,0.5682439198873042,-0.8745818115408841,-0.5383467625831342,0.1298347666036943,0.8358168444293985,0.8650584547820375,0.0875106730346471,0.497562419750857,0.6157339831563267,-0.7605562668488934,0.6020861431943183,0.9867442071047245,0.7198378396926117,0.41962714583403726,-0.7025706534564702,-0.6151149808349292,0.04969563013561107,0.4484517435063282,-0.5390745748677812,0.6140518739107386,-0.6791825442665094,-0.6958013039775623,0.9871385893624844,-0.8068591428872298,-0.33241484938748034,0.05542384498744757,0.13977131081025607,0.4786426173335361,0.05821386033409959,0.06470758318070913,-0.6596634045644256,0.34232624489204433,-0.21439034722750172,0.7779501835836877,0.41178184778216065,-0.3638009269853919,-0.9218474383646842,0.22734576778508075,0.46414834787221104,-0.25969063723273766,-0.3094243949747324,0.02309941229601664,0.7459832143821477,-0.1835538079327057,0.4317473408157151,0.5468072342223571,-0.6959344742655424,-0.11997290901684754,0.5613944175381478,0.7040934232110596,0.5652858904460532,-0.2551415015581826,0.9772019941951213,-0.5370266434055877,-0.07172788534099217,-0.7621217936096571,0.7005597631870024,-0.7275154885481332,-0.024926153955822983,-0.19895534143035354,0.9399439025828509,-0.44442832717464653,0.8752597431126881,0.43429037484394106,-0.6511649403213993,0.2932559435042077,0.6008201911290763,0.9869723391509448,0.5132470655266517,0.47923385488900627,0.01820961067631477,0.5476342114583503,-0.2775868173838223,-0.1238904845016795,-0.3408494916053231,-0.8740173402503666,-0.7353362709758433,0.4728564380040965,-0.009414768797662454,0.7199792314837823,0.6591111472129463,0.6245846343423267,-0.9123651951410794,-0.5745425627780809,0.6860349489461046,-0.7698549345844286,-0.5604910557922469,-0.08017361917766896,0.4386000923546314,-0.9576914735375979,-0.763354248372488,0.47887471753347866,-0.5652947533841488,-0.4198793452330425,0.5830843008191566,-0.827955334608607,0.021601343900354175,0.04682182358174525,-0.055064750823239805,-0.9879256374731071,-0.4118087146939837,0.43048445508246114,0.2518473999767985,0.12931639111564386,0.7843046805398044,0.5076625486922404,0.8696587796282835,-0.2752329994517586,-0.7817331471133953,0.0652337154929441,-0.466688465987414,-0.6591903800109471,-0.25390172210275486,0.6440783744372467,-0.08398891029503375,-0.7112680549491084,-0.8102309780171748,0.5544348750612387,-0.03284881767111281,0.03356618476819251,-0.22626567053087743,0.9135426260989166,-0.5987947128561817,-0.11876717821505833,0.18956593236765018,0.10670192991279848,0.624171665725419,0.08629584356178199,-0.969783235294678,-0.03880415886287669,0.42739786116219847,0.12416392872264326,-0.11607660978663903,0.20804097691093104,0.012142025150235325,0.5320096426862835],"weights_hh":[-0.21775601666273303,-0.48615331467047684,0.56051796457392,-0.33064739937244614,0.32446110764923586,0.357379247033494,-0.16680019803291923,0.18529750505040488,-0.8101642002983278,0.1765081955306571,0.5917044945680572,0.5904064440927899,0.7666149874168315,0.1960396215765292,-0.8593399104755197,-0.2448212094938922,-0.22803267493646495,-0.3400718524032862,0.16659248408242266,-0.3952851858541415,0.7740585228617212,-0.4519133807801221,-0.7212049402216902,-0.12034430881953395,-0.021364285964948992,-0.373747472345624,0.6537909613106403,0.09947764762811007,0.61143218733017,-0.9968783915729276,0.7027652517920409,0.9844249233425257,0.45455034059273935,0.595474741320476,-0.4209251717934863,-0.07522373740409183,-0.3881165064075536,0.38974777841946806,0.9865104354470979,-0.5851463861161388,-0.6713339593505419,-0.016203349376418208,-0.4987293663634593,-0.9402623975824995,0.6093580376662313,0.7545420197971695,0.07595450059591813,-0.7557839255268819,-0.4668239483586327,0.7934797486787983,0.041618315719323506,0.30918189624388437,0.4796818004339012,-0.654635135903783,-0.45983983801470796,-0.21048647790114527,0.8867007047613693,0.6229313522806244,0.34516056890464397,-0.38586921130588436,-0.9441246248554678,0.4283287605583661,-0.8571512944019233,-0.46746761803773307,-0.7536828317870923,-0.9845352691024267,-0.5870489334954778,-0.9101509259095446,0.03679386108644134,-0.6290371447121983,-0.8600608916807415,-0.785997310183371,0.8431284008392343,0.9874973156592697,0.564863551173572,0.45542300961249893,-0.0007638276748043182,-0.5415374708118492,0.8257848321412371,0.1239228306083211,-0.5108186922042679,-0.4741286928270978,-0.9658068715208601,0.8705699768593307,-0.40804902430956913,0.6081782378213281,0.5771812363569839,-0.9493231719105906,-0.7187607631994724,-0.033257810249668784,-0.1864016523582992,-0.4047259160299772,-0.039967510087487446,-0.12909258675942525,-0.4896525511333829,-0.6074051463672472,-0.34510218361821066,-0.7782155197371601,-0.15904739968443637,0.38773544714047126,0.6916128598457143,-0.19064547409978627,-0.8777816121031172,-0.9661915439000179,0.05651529848078152,0.8905771400703646,-0.5541906542163066,0.4906775946505826,-0.7045699380584853,-0.43683475216609513,0.4234468581455051,-0.6815094521162741,-0.7287535549476931,0.25247316034937417,-0.4113249050158059,-0.22440042832827034,0.1124927883406075,0.4113598448101332,-0.11498853219461314,0.9203878591703276,0.08426405499313239,-0.3910147738446772,-0.12559096970458383,-0.5395321610829753,-0.27384240110187097,-0.3235601186119843,-0.8599615558460867,0.6199787054744834,-0.5070088052260857,-0.6202525557089771,0.7493212103661178,-0.1664306057433642,-0.939789322263205,-0.18222447262686003,0.723188670173293,-0.6068730438069112,-0.29426123334418675,-0.7408522135003288,0.688167087276707,0.8344492467434714,0.5056760867076382,-0.4263484973470364,0.6134767416763947,-0.7631926289596274,0.3727115522687183,0.46409366137587127,0.0377355192870481,-0.6497979688747224,-0.8963404320301165,0.6611723700679581,0.9492470125741166,-0.4095825753459108,-0.22269357779222343,0.9378903767751519,-0.34943240332814973,0.12239855618508755,0.7128444011729986,0.7561993282903579,0.05169865640558147,0.5493050357894789,0.8302766527153966,0.8868981920904448,-0.5604194492588623,0.11052743063428982,0.13072951196208815,0.22023881141317792,-0.09735547045615078,0.4723719452085766,-0.03992928133345486,0.038077337150553836,-0.546675706039566,0.8270144793929934,-0.5213507599331175,-0.836224927493491,-0.3469973441047389,0.5143832621221849,0.4412055256005345,-0.47296663609159983,0.7085952447251447,-0.8514913127905812,-0.9939876572523381,-0.3263594028296424,0.5895873539614604,0.5775025655299808,-0.7990682590109865,-0.0068176394629866355,0.7283138220847427,0.22193325063161362,-0.4265348005703431,-0.6846049563912382,-0.4878866970840272,0.2894250305137638,-0.44294607821443144,0.640597193994221,0.10359445166967607,0.9696118001540461,-0.28359073296947823,-0.31375739417187365,0.3384330761672796,-0.15538896659587564,0.36803711251444016,0.9472969935648436,0.0665020989099181,0.23914153112216363,0.4832288569559844,0.5702216754534459,0.6633135464834781,0.23907663647523347,-0.18981156936821098,-0.3506955343258775,0.13955599974335553,-0.6165629916437356,-0.9183648895428018,0.6427043686921927,-0.32877357920527017,-0.25826109708137546,-0.8465910902167442,-0.562602166127774,0.20868637261782785,-0.6158611935417759,0.7101624573429746,0.13769351108799244,-0.7733540214822674,0.9785953395087996,0.33168883889423717,-0.16005879465588535,0.043784743278399096,-0.28366958850764834,-0.265406547257923,0.8767543288636563,0.7298421739800853,0.8661359882379582,-0.9462412883913971,-0.8110904251256459,-0.43158533592542936,-0.9264753815087676,-0.7800032390022369,0.7034044307018201,0.007723956877374372,-0.6063920369827156,0.2468938677387862,-0.21989641248431058,0.5517153218085062,-0.20365679093430566,0.17419132932854953,0.45605399895750476,0.1568339513780339,-0.8968222604074705,-0.9752730027639414,-0.5746368705904816,0.4130189475185191,-0.9799140447053372,0.8621888633354082,0.3095538818366008,0.7375607471693593,-0.7784083547782106],"weights_ho":[-0.5571133969618716,0.32726531868076836,-0.19493610874829903,0.030502116559177228,-0.2130518890776023,-0.5308666638853041,0.9722541929968194,0.953062027620762,0.273558995670685,0.24511608063182533,0.1455381390813637,-0.22242520953502964,-0.4711094880332387,-0.33351610057183123,-0.4954915666264956,0.7159345625866442,0.6582231385930881,-0.9462332315425799,0.6812281256435906,0.7933877646463634,0.3677688613676675,-0.4588585120264097,-0.6621005915452822,0.853755107391049,0.7627212504198682,0.29130724930259255,-0.9927575677106171,0.520452594910781,0.5406460952856056,-0.8380167985970253,0.507806552444019,-0.26770884700382,-0.23233009929148762,-0.492143795675696,-0.03261061844102131,-0.15934511976683097,-0.7124472976228553,0.5976234876962863,0.4732006001508391,0.20545117161637383,-0.0064218343708621894,-0.5460244796589862,0.703170149744055,-0.8933793345652212,0.7765498735709231,-0.31209993874395114,-0.4079306407347043,0.1723969040171076,0.7101003232306082,-0.02785411768784818,-0.8481839061322436,-0.6571199015688991,0.20410019056064366,0.8974389039832347,-0.1456449276268239,-0.03612058925124795,0.29735762557593404,-0.22032808318935992,-0.9255639241473852,-0.2847728849413511,-0.14545402151713427,0.3366092490082184,0.08930411054184528,-0.34708342245331303],"bias_h0":[0.3916780372606121,-0.6406563171928095,0.23625565344993849,0.984337343676835,-0.450797169002211,0.2823113785294775,0.21966615824933555,0.31348351584441025,0.30985310269213784,-0.688764765152174,0.2911922911182865,-0.4182263651690281,0.0646873175379159,0.7794743664575976,0.6213316802752225,-0.3325833817771848],"bias_h1":[-0.7977686509126267,-0.7736410010702062,-0.5249305048499031,-0.23700242215463718,0.9695618839330957,-0.8828605036841917,-0.783280406348891,0.40133630433464407,0.4773456149079691,-0.6692373324651024,0.5502175494327206,-0.5011273161229048,-0.094566270320259,0.5505255677329897,0.4558114108922189,-0.39149380509184195],"bias_o":[-0.5992481620924706,0.29368713971815064,0.36280900029586616,-0.709319400465007]}