{"weights_ih":[0.19198983471922837,-0.23064293234238264,0.33327802187845634,-0.8393797601053916,-0.7457909976839807,-0.4504301019704655,0.5424659440062609,0.6938889678972577,-0.19020870078775154,0.154332976376798,-0.3597484977298111,-0.2850329635457476,0.12554026508226146,0.9429025602073364,0.31959084036306207,0.09944898898708021,0.5385187539009533,-0.6779849766347079,0.49691008806487114,-0.5124444999937825,0.6868756640567555,-0.6222261129742912,0.08710065174397363,-0.16731049067605563,-0.5350247973223914,0.7677720518723481,-0.9123864711655105,-0.5564789026423165,0.4069485921199161,0.5973279746263069,-0.9711059121434227,0.05932480376855964,-0.3476554480937404,0.6211204153413676,-0.9302599832187144,-0.5093130863422846,-0.5971108196470014,-0.4081061497514451,-0.7613837891305155,0.5875850367053057,0.10175167618132086,-0.19624839224113289,-0.6502586493962512,-0.07106947314922252,0.5493468893131894,-0.01318718533230534,0.9300638611785113,0.3319458649440459,-0.37490784527207266,-0.4502449482278652,-0.022447629926940715,-0.18812452033325955,0.6921599684418396,-0.4175902341603497,-0.11566362741647307,0.7887380112192837,0.6102143219928597,0.8497015611511449,-0.050403217487201335,-0.834688430448068,-0.8407778976487017,0.35362326068872285,0.6968089609690977,0.19560070175499167,0.6172531791200015,-0.38074949953190274,-0.7848324271735481,-0.5730393825689017,-0.630037845965358,0.1887236640154677,-0.6324568190086313,-0.937661982485881,-0.9255677710946097,-0.030867547975754084,-0.9235027913252631,-0.15909247590127418,-0.6498589370793972,0.5507171519830869,0.35545881484084063,-0.8926349379996965,-0.5842980140516689,0.3466323205462334,-0.7254864396845884,-0.42105517813732707,0.45414137876063165,-0.30729848084843914,0.816048691395131,0.7828310265636751,-0.6255245401005571,0.9473178122918833,0.3387538851017393,-0.8102313136076504,0.41016731013254915,-0.658055158354315,0.7224675458310788,0.6708287408866438,-0.07879548699127237,0.7461765310587753,-0.608880247708206,0.4959141699926699,0.8288862711937766,0.7838161931201468,0.037665355957332114,-0.47401305826803797,-0.26368150008124247,0.3927142593622759,0.06680051040756729,0.7169140112022483,0.7750039452624764,-0.22273288031368343,-0.6719497617521026,0.18974695909330053,0.49085727822305447,0.8622673665998193,0.8708677670899247,-0.7262091770412149,0.2355291236474526,-0.3120431715477876,0.22482553088516033,0.066037274947494,-0.4297966877524446,-0.5605684180101602,0.841088327990207,-0.6017907539372016,-0.279659866507745,-0.3207251460835594,0.36310645582691636,0.9154071089630127,-0.24228268085777827,-0.06131097243824546,-0.1508833736777162,-0.780995471378032,-0.6590253527629302,-0.10091187939805102,0.8916841277154313,0.2680646269414291,-0.2888084362356682,-0.0694889612392926,0.60525259688971,0.5845780383783881,-0.683915438749908,-0.26101368917797263,0.21089594283668345,0.823807097984484,0.7510153502324699,0.4267914131807422,0.10990357398600237,0.040666876146264075,-0.6870498753583036,-0.1639033182243801,0.13887331704134698,0.03806123140391038,-0.05534309340145693,-0.6017369158772969,-0.609782121756401,-0.5398336842786922,0.38853264889006356,-0.27956053146817883,-0.14872505821003457,-0.4319727134368039,-0.09246754696735882,-0.36804343415226404,-0.7827473452821754,0.4928037686458202,0.9438898673164802,-0.18481321117054583,0.6436945576412609,-0.18396434433611253,-0.13048122353981606,0.8922485385462648,0.5389157294195002,-0.9745687350341563,0.682931886084418,0.3328728922781081,0.04791013374371844,-0.592256679091338,-0.5997786980241344,-0.11725893898290196,-0.3997072623903526,-0.11444656589071456,-0.8006415854208264,-0.1651311430830047,0.8956484127302906,-0.49715163297252785,-0.820546358651218,0.9014895933992952,-0.019488255734178006,-0.8505836120942509,-0.6920282425313071,0.41727565190942406,0.3331219197484736,0.8163714098541988,0.41515868611995255,-0.9465652732977972,0.5724965884553253,-0.5303300745607105,-0.774071982121965,0.7332197891459504,-0.1473276096735301,0.674645961548018,-0.751027514339417,0.926178282960987,0.918981620407904,-0.7287490551814244,-0.10034736479493711,-0.28117241080120214,0.23223850512722932,0.6545714423166276,0.7061104409161876,0.16070275730761474,0.6613887667568192,-0.7016655186570182,0.793165092518411,-0.5233444283480742,0.6493246129247083,0.4883892832873846,0.9460607112058232,-0.986073289899662,0.607591454383406,-0.50127462785194,0.4628172055329933,-0.6378873642457228,0.8643816679605396,0.6313528661558194,0.3083539775192925,0.9524977322149144,-0.9943893965012487,-0.08167667151649605,-0.33941648056425167,-0.6784920081687198,-0.6650321882532173,-0.4726321794700503,0.3365637361997944,-0.5836781810263951,0.40920922412449023,-0.9214603538503379,0.38144258025110656,-0.4110366078511427,-0.3026652379634527,0.8030799014740997,0.08016532592036141,0.13269150523020423,-0.07243965257699281,0.5175784153520742,-0.6432737916602771,-0.8822216239009109,0.023425757801690317,0.5499524869294705,-0.05663434100015219,0.4503149034409182,-0.22485777108591742,0.14920070614735748,0.8946788527175276,-0.47414183037206925,-0.6778573588938293,0.7546794781257113,0.3236699169023334,-0.849174053240423,0.8765583065230655,0.9500624358812884,0.15670755996057362,-0.19466299627926453,-0.6906557681751724,0.3750809280394891,0.5843737174751475,0.5618694390657697,-0.7442176101036808,-0.7758791419125284,-0.7146968524560853,0.3976588824883507,-0.38428121078982747,0.4312299176186791,-0.5514703576329774,0.41319443579245774,-0.2663782448721663,0.1559419755420357,-0.8555535933999898,-0.484782917526126,-0.29139769151006933,-0.31524248690686485,-0.9662362755291227,0.45318044716186834,0.790850248697033,0.5300691822789196,-0.07987945444003541,0.8316996393041698,0.8050819756915519,-0.5956144135869605,-0.8890128973818725,0.05820047441035925,0.5165940972624612,0.4686088602578711,0.5983205385850914,-0.8015202922900422,-0.6449258483520275,-0.4642187942760079,-0.7005989924805922,0.35671037391494376,0.4785064536764183,0.6185699823202051,0.5780111910301697,-0.6974117130592101,0.5828377689464195,0.8426380454059321,-0.4303042953420071,0.3953224351592015,-0.11533189037684322,-0.47372372904094906,0.8561672739965343,0.6194597881636144,0.4518153779537739,0.4582431636490454,-0.9565193860748302,-0.6648211177475445,-0.7639075642459563,-0.8405806802490181,-0.22161518912432454,-0.4854496332548106,-0.7177088792771658,0.9449630176547752,0.5090141264919803,0.09376628659440067,0.5671279824133686,-0.12118451877758352,-0.25900285615547225,-0.989412039387086,0.5477564435041382,0.7764642607050791,0.6795555117533754,0.533547730586954,-0.9524060842121198,0.7801054666899416,0.6000185191327663,-0.20898539430559304,0.5948046633296551,-0.7500975722783385,0.9916088945705301,0.662316235868414,-0.9053145019890365,0.18478112351832943,-0.8601673443707705,-0.7154579289077634,0.9301863652394438,0.5245796855383691,-0.6829941860407875,-0.7595638380654288,0.636208689806568,-0.5575697086488867,0.662579451444657,0.5606255973589174,0.5109817633181051,-0.24737162300773208,-0.7873570399519396,0.6969913195718136,-0.6744770827671385,-0.8187180896183901,-0.10997713954919086,-0.5152008643889903,0.9236556809543497,0.5462757745675477,0.0003575591076858675,-0.4900444323619668,0.09844661830267354,-0.2515817129815139,0.15313391220138284,0.025999981415349982,-0.08269563021622894,-0.779250344733212,-0.9049582350399423,0.8491413137829031,0.2579979017271392,-0.2119348305659845,-0.7163852109893474,0.07610776121433349,-0.8944587594830424,-0.7886925842116239,-0.28952435199790694,0.8592273557905743,-0.561322580833798,-0.542905611033023,0.29149153454325316,-0.578892057258841,0.04060767379771013,-0.2941547313230495,-0.5610138787298995,-0.7452378529542183,0.8186371167542181,0.45908641615123913,0.6707126033362605,0.9180577072793601,0.6368819137171291,0.9510487719377019,0.8951015788361445,-0.6218899696150977,0.7652824484366345,-0.9414106753878908,-0.754236721196385,0.38534265157400327,-0.5406154012629354,0.6151446725464045,-0.17707140734064342,-0.640354488333053,0.5411426286645824,0.9698418720787343,-0.0313952596287419,0.6669091758632999,-0.24033386200311435,0.9999229833983985,-0.13853883002605727,-0.8406598113698913,0.4985451025076242,-0.7785331135909555,0.667349638317591,0.7847565085995816,0.36267024614458365,0.9577768833846072,0.6464204658227231,0.9118968483648302,-0.9369023345917047,-0.25033746255278033,-0.4321816974315418,-0.5972958969628543,0.8778077703600893,-0.9869959026095729,-0.967319726277132,-0.09653848434564427,-0.1299525806516575,0.46492534433372157,0.41366028277228173,-0.21316194302460167,0.5674997142053257,0.4056614923236508,0.0969949019536267,0.9685616645056794,0.4919118470833639,-0.39367612492563864,-0.7556918411762359,-0.142842207400802,0.7005757959817585,0.49100509252641067,-0.9069009726366593,0.3735058831407778,-0.07167946273024928,0.6954093210176253,0.9868219610311733,-0.8996831154073404,0.3132888210977658,-0.8313449570468128],"weights_hh":[0.9889042194136259,-0.24402154966545586,-0.8655604786477087,-0.0469361705106246,-0.6284233375051871,0.551084985617629,-0.11578888701890078,0.05479588636824184,0.18218268879344834,0.261217793864726,-0.08375458039880357,0.8662649936785767,0.24085246736744725,-0.05574239601174824,-0.34018192405971304,-0.5950354044248383,-0.10112353572896837,0.25868892588212655,-0.9442189779952515,0.3211635372698891,-0.3431917471467725,-0.6587198294728511,0.12987094360367335,0.45243937171062143,-0.985333065820476,-0.004508547463078605,0.3427261969223985,0.9114058076822469,-0.1916367425306682,-0.2428432092443813,-0.5149153832800464,0.22971663222819405,0.4360645594851771,0.1659389573187291,0.7321033913119761,0.2128939588339036,-0.9261898346415001,0.4598791327546994,0.7360275892845956,-0.19074426516048248,-0.976616095552584,-0.7761344123506249,0.5763813002234854,0.28578084521889435,-0.435192510813742,0.12557392875561235,0.7959702416957857,0.2392036714201229,0.7687240618614624,0.40062612731053204,-0.6524767217087311,-0.0817036515715972,0.3032092694598494,-0.8594531482579284,0.2802800188714676,-0.6662092952250778,0.5611777701451532,0.02230485971074425,-0.750549373022676,0.056452740161903936,-0.8001624975794961,-0.24279554824140903,-0.3448696892740075,-0.776870502034479,0.06910188126847827,-0.2892423621184266,0.8622747138885487,0.004001925732818101,-0.17500229275689572,0.6455254061385578,0.8336597896806117,-0.3358526678495759,0.4182064897896096,0.38977876593473626,0.37380708247826244,0.7380224310398276,0.058047639646142235,0.2884678188707348,-0.6758165932105851,0.17999124366279107,-0.8508447992380628,-0.22724614536399534,-0.7899661273389997,0.023344178148148043,0.6178930275489383,0.18936073102739392,0.7862459041291003,-0.513756637585439,0.29579330769677914,0.056660799423786656,0.7932389909472533,-0.16824851460060675,0.16681173662532278,0.04001183685425236,0.1386317406316444,-0.7791659924137506,0.8722662144147191,0.7174682708859725,-0.3216421884888472,0.6542540647076347,0.8068157833202576,-0.002120357102287418,-0.9724972859927661,-0.5542708511345398,-0.35965049714272745,-0.6048717600871321,-0.1583687986805622,-0.7639221630737882,0.6408729907396784,-0.056539736072763525,-0.6893880420949643,0.9447289473849196,0.7703833681391952,0.6821470494132462,-0.7895602537450466,0.04572855205043869,-0.13943526236348136,-0.08240169300298095,0.8198455245591181,0.15759461634250593,0.2975794318012692,-0.19877657841604446,-0.07826458620894261,0.32215522679587316,0.47756628981019067,-0.41666420064669163,0.10441344490672333,-0.5661859380808698,-0.6030975077983312,0.7249178988874481,0.7668569459497043,0.7676062353875612,0.03166639832620799,-0.19241348884645526,-0.2160913906479418,-0.5443214948892305,0.8697346251565707,-0.367399151140094,0.22233735314455227,0.14423365304776037,-0.8105129974050909,-0.8802861242176916,0.9855718669181495,0.9926629106748828,0.6844405434826513,-0.13053851875991596,-0.9817745485982032,-0.8123388690387863,-0.7713225056538862,-0.950456668593761,0.7607505419797664,0.20154370200701233,0.04153271495101363,0.31185505948745385,-0.3816224426713406,0.21333463275176734,0.7882822195663073,0.44517939554564046,0.953795399713856,-0.2547135062450825,-0.43901276204662665,-0.4538488282120694,0.9731335324884314,-0.6012386954300175,0.9469472240811725,0.699409333551499,-0.07665345070674423,-0.27033493835715405,-0.30587097244040273,-0.22947833513499805,0.831179281809659,-0.8643281509725154,0.9699608569932274,-0.9735418194103658,0.7366396621115878,0.27720233096886093,0.8326318893312852,0.14806559637107486,-0.27573092647632214,0.009573577497546948,0.1737116984384235,0.5083214623711934,-0.2617915493673666,-0.25508320875165236,0.10076362291224061,-0.8483855728519558,-0.3409565712130367,-0.5638079259377924,-0.22861418847722215,-0.48208973316851944,-0.43628227433931865,-0.8191633271130299,0.946331686586311,0.8205181707041882,0.45858956439914134,0.3580539623466916,0.865057693225523,0.6435919094932216,0.32879031023651395,0.42930760767433496,-0.06360019372849646,-0.653589840756835,-0.4851796278870504,0.11015948153129806,-0.7113676366747068,-0.2647614308997681,-0.7347577795651028,-0.2971167561521113,-0.40805142384291826,-0.8693184452584144,-0.09998152590574327,-0.2661016917938064,0.9954126597314101,0.9813525195268775,0.7433112496005685,-0.4034219730901589,0.6822584961643776,-0.7634071321283711,0.5163939814949681,-0.5471010187638781,-0.8628395249119647,-0.7104650661365643,-0.2707490760183786,-0.05245715447197541,0.6653087247227121,-0.34212638487232994,0.9377272473427867,0.36914858149479346,0.13633892968320072,-0.670148539538139,0.2560571531640379,-0.16631702552673366,0.21722557945797383,0.4107995276791925,-0.1603944872534886,0.20132207818210035,0.4386067882912388,-0.1487561466854408,-0.29698663248811674,-0.14803857746761717,0.2565301785324574,0.9847391770675291,0.7828525703463765,-0.5932703430139916,0.733304019894788,0.45866199770562455,0.7471896766899009,0.10410699484533148,0.35949840251700693,-0.30131396795397203,0.7612601418208618,0.3068681633264576,-0.5057274743138964,-0.8964379096521546,0.4370838860179165,0.6411669224836192],"weights_ho":[0.37695519579509673,-0.020657615172252175,0.6963737494841067,0.6105457078931282,0.7117070067585247,-0.13914814541854148,0.24811311006974557,-0.24819755145359435,-0.48355845095728656,0.00743722161535354,0.9517637499302796,-0.38080828054808324,-0.39405111563682715,-0.12316559577019182,-0.6377020577883412,-0.3399811133114927,-0.34097760250621834,0.14890604234717086,0.5917716210472943,0.5408061890355094,-0.5780770350592925,-0.8122747136320223,-0.12484785744079807,0.19415893244058458,-0.4524956983299253,0.6201856417247922,-0.014579922090038888,0.9876873376318656,-0.0007824415374926286,0.12144239281043401,0.4850742332283886,0.4729242341152078,0.14709062744824442,0.7122222692154057,0.7614782696820397,0.16541090455992413,-0.03570634533161887,-0.16791447981216323,0.4058490131978183,-0.13353606676032803,-0.986895848663857,-0.8108974990637778,-0.7458545622228814,0.7985980105535699,-0.6763406729182504,-0.27395288424819486,0.45238950106497033,0.568758161516892,0.3577724554346753,-0.6877349065983531,0.3738615804045222,-0.26422051730267904,0.6570957044645742,-0.17398884695702233,0.45023510233481123,0.9755162745552888,-0.24835271999577513,0.8439034148992675,-0.05166753554594572,0.7173665940101681,0.8239992342665778,0.2636623457629388,-0.5002569579996705,0.3581875894424278],"bias_h0":[0.9556234873772285,-0.07977693537061259,0.8466751294888251,-0.38339492798064767,-0.9876979508883936,0.1520027825175767,-0.4222902651839482,-0.4323803297221489,0.31149385904233284,0.9013295906978382,-0.024545126111256588,-0.6793085483441264,0.7983752815844876,0.514150616720632,-0.6516428657963036,0.6138623543456707],"bias_h1":[0.13831798985384092,-0.8001963062034705,-0.1631534220390778,0.46323114377752184,0.9699786940074064,0.07674108664130319,0.3130316515008449,-0.9252051790936273,-0.5996811291681949,-0.38405973685294503,-0.6270707625213308,0.3202549180663645,0.9738142820425857,0.8594519419115165,-0.5495660784045122,-0.10606184482670877],"bias_o":[-0.20145390473726055,0.40285718595402376,0.5890792996095404,0.18105242728530402]}