{"weights_ih":[-0.3233035460258151,-0.15515590048995387,0.9123431413574408,-0.14930486003748134,0.6889480406425881,0.7740188797022773,0.11004457122238809,-0.6349326980981318,-0.8035317650066391,-0.3581178780922949,0.45900829286401446,-0.688634407206631,0.49583356277974744,0.33756092805625393,-0.7622295541838606,0.42236862683042053,-0.696279752835572,0.47249976294147467,0.017019903766718913,0.8669825545083409,0.25650984526767084,-0.17048176243167412,-0.424782773944379,0.5700386153481825,-0.32852600293433065,-0.1839472400667974,-0.6537129538304245,-0.3811987484349335,0.444409507005205,-0.438421384150139,-0.6484397936988295,-0.7248883500689016,-0.9092070282867886,0.7401278332582515,-0.46066552442060016,0.5693278813158293,0.31780516795310865,-0.05916243071835625,-0.46099269797697007,-0.841798386506855,-0.4059609949304597,0.35539947144775463,-0.818319227412849,0.028673388785146692,0.8627753780512264,-0.24100608866666406,-0.5518370931632806,0.05529262887525577,0.8743274740289497,0.33786357067815187,0.22396720442843598,0.29986754706191254,-0.6485651335132676,-0.8965988012593757,-0.24053554795225618,-0.5624466122849341,0.9971339800224852,-0.4356494246028788,0.6774824418458127,-0.12274461847328277,-0.14353248059126544,0.22012220634203272,-0.8510575605114683,-0.6665067654866565,-0.3718656672955323,0.6066145525646316,-0.995340142626425,0.6276678491679086,-0.7824389639760843,-0.09270551557247986,-0.5522964838670108,0.8812900230542493,0.5317365310541085,0.5472144946233204,-0.1086818318134255,-0.02069144387727606,-0.4621867305181193,-0.9986196115662371,-0.2284378388455952,0.3147106465201148,-0.3317834492591054,0.06414591564694616,-0.9153523047002163,0.8252267676668388,0.5932220078324537,-0.8507777361317763,0.5868454411421791,0.10826896533482211,-0.8011280861880914,0.24295329150150935,-0.5045164186665554,0.2984882721882136,-0.35065346009669596,0.9507466108661806,0.8514677227437581,0.5382789936512153,-0.3386616099291926,0.8567145332839297,0.1551795489431631,-0.9787303214156982,0.3016018209218092,-0.7334328047584817,-0.4133338734898331,0.49431778512147506,-0.19382445008912264,-0.9402784065173362,-0.3294877359558661,-0.5931848932324777,-0.9338403119568299,0.298891352763206,0.6841681079262443,-0.8013931865315835,0.0294259615712269,-0.9436577784497349,-0.8297572649669875,-0.5300203621003658,0.2983546833077626,-0.19570388613313772,0.9846264563191613,0.9679013325923034,0.7522200146224689,0.1429752202958845,-0.7071332106976866,0.9935272439153766,0.017606861969728715,0.8190302728735301,-0.7109955429360824,0.00836271994763571,-0.13460863790303845,-0.9557509506948678,-0.2758642303546879,-0.7957507663113559,-0.16838210479915716,-0.683693783395978,0.9983432743152896,0.898810438811924,0.19728291879609716,-0.9156462471010898,0.5263287560498129,-0.11961848411873843,-0.021620409480183067,-0.32362136161821153,0.8851960851231804,-0.5999697374588184,-0.07595150942438122,0.5462534776075374,0.686917959901058,-0.1606945574545886,0.8369195990012459,-0.1078131908353388,0.7149213756104253,0.7985428571119488,-0.5947942654925731,0.6088874988872293,-0.8532456250029881,-0.7514305334142346,0.9725721539515806,-0.2697066013239018,-0.5296604957717719,0.41451862395601724,0.49701926770067595,-0.9941962407898568,-0.24057041187927064,-0.961902246776891,-0.442025920225227,0.22205968944338683,0.7629752519569017,0.8730179260310493,0.8860332089004208,-0.3859290857853179,0.9495050832438829,0.13759488118944874,0.13153766346944873,-0.5427801741246154,0.4023565746251887,0.521983675087194,-0.8927884983599756,-0.48230663080328107,-0.2739821849315469,-0.09018482546465711,-0.36943382682952564,0.2564719282533625,-0.0022670113254903423,-0.26138011255300997,-0.6211414712410357,-0.5427554646390726,-0.6445798650088115,0.6075438720918507,-0.5612227212723873,-0.799156727239827,0.29700913500315584,-0.03902467126653075,-0.8639089822052726,-0.04829107793066756,-0.23143234798364132,-0.2531121109761876,0.14143619262253204,0.7621944348369947,0.990437742072569,-0.7783120414679621,0.6045069110959671,0.8393248055427271,0.013842501893207126,-0.5376992815394297,-0.7157284186042048,0.15740987693926334,0.7005627588961367,-0.7185172170279341,-0.2788651397486648,0.17216657915227507,-0.6380586569987916,0.1728708609592262,0.7469917294704593,0.4655415836988577,-0.927305259573699,-0.9032270691530482,-0.10698861784680447,-0.3078409700329392,-0.39994795215816903,0.6651188300364956,0.9883350993398776,0.16820991174376165,0.38260763098492734,0.22527708592103157,-0.24052406204953813,-0.9419036311303137,-0.8910770966823409,0.5055634733655161,-0.8550034431869349,0.14203514102062353,0.786149471359487,-0.970202569855078,-0.512256392893985,-0.17666796912448923,-0.22370680498260143,-0.6306240147000803,0.8510158318147483,0.34663399092481884,-0.6334821075393802,-0.4283893028502994,-0.7605684263247623,0.5895442576106309,-0.03789320469600943,0.6590540177291879,0.8118452289121898,-0.906102652564936,-0.4806812261056814,0.612597270922814,0.6846639881266317,0.0239573741214254,0.07834595279584944,-0.8406403616114946,0.7735906990157078,-0.8678101067566051,0.24109293459413816,0.8514382925579953,0.015234648694299802,0.5705776200961639,-0.7483533031581888,-0.8162889541531677,0.9331243522241432,-0.8613528220008131,-0.8995737643599615,0.03226756786139373,-0.358215580861319,0.11419323574032947,-0.6619100665928295,0.10791910340890976,-0.25295000238737786,-0.9750712307537683,0.5918883090872276,0.22685657513297053,-0.48047344342583864,0.35309849901318957,0.6995469419828695,-0.67273539403478,-0.21130127011582833,-0.040095836546067076,-0.8124473924715585,0.4084618878325479,-0.7952298563398752,-0.7386801654603004,-0.7332745093248254,-0.39861670297157015,-0.7720824301020481,-0.46769993955081035,0.9494370471779656,0.14830843600584398,0.8992355164884427,0.9171264114406872,0.7858307655101868,0.5242532007237957,-0.24847562710387927,-0.859960881360254,0.5667575532897093,-0.08892466295754486,0.7471170973258225,0.5027707813422584,0.39542642331979305,0.45383219685206355,-0.5061384951242405,0.7432241120655414,0.6630281580506174,-0.6160167368962242,0.20578018456810265,0.5990496269943251,-0.14424542340866164,0.934277616612958,-0.6139468040437663,0.9732342456738035,-0.5092508935572826,0.391355474432467,0.20700142829390522,0.6605374925292218,-0.35900662289811835,0.2717984646575351,0.5270703249090543,0.5046593413245593,0.8167455881702834,-0.1060003809472092,-0.12270635148990072,-0.0871130083403342,-0.7158775488962361,-0.24327141347894332,-0.4133841719431681,0.16338437822443397,-0.7755203587879029,0.319736061982568,-0.15485416750421654,-0.5454486740878699,0.43051963859061826,0.7749516418995317,-0.8482813785588157,-0.5079785874339069,0.16299405246943022,0.0632945956630333,-0.2048914490327236,0.7931812904229705,0.8144397510837695,-0.25636006836162184,-0.34777792977296107,-0.7707831875895481,0.04881135242871615,-0.20933356655933588,-0.9361406099812091,0.972997505729086,-0.4499551529168919,-0.005980883755872135,-0.3812331654637746,-0.9436352237897341,-0.09032134988282148,-0.4897584098039234,-0.6336223427335554,-0.5757533760616951,-0.5478562709940158,-0.9974317389793781,0.3154412843932839,0.4121987078404865,0.6640730606358769,0.2866294569424215,-0.6378041140205679,0.17674009542791436,0.9632271679915068,-0.8402259987009231,-0.9604959648344262,0.2970639029421942,-0.10078267608188707,0.20561067273039368,-0.5187496513845373,-0.308360977166102,-0.7085357660764777,-0.560337334814794,0.6101982978963607,0.6230083567440037,0.7219024177213684,0.6890525716786611,0.8869955900682633,-0.6203271114426656,0.9791834912457995,0.21842037378332635,0.0754286627108458,-0.6001940182157324,-0.45881846386850156,0.682575251092278,0.5244192464822115,0.26279387487205663,0.7084943212744774,-0.938140084085838,0.23376627295723118,-0.37184912928146985,0.5577725860985752,-0.03200712262831229,0.4942443626226407,-0.736143105928333,-0.666483044878385,0.2598434823845275,0.028070543319687724,-0.39784835287768994,0.3913611451143528,-0.8273437861327588,0.776790080928317,0.7471628786190538,-0.20203735241844978,-0.46242257222101135,0.6566355433102213,0.5244121663332062,-0.798159683746386,-0.5761106647671037,-0.14846953869731272,-0.7552047351810012,-0.21453710849557472,0.03439288660400308,-0.9665706594848444,-0.4243418956907119,0.6798181888351051,-0.43999609858199684,-0.647009223951994,0.3517521554641121,-0.3290922253568831,0.4563493944524055,0.6849549975779059,-0.5854659254905326,0.7718193733886951,-0.8949506882627138,-0.37744687884775563,0.8333866039561877,-0.5793770151367581,0.30536663411559917,-0.7015449026803524,0.4672019599657662,0.384763434436161,0.5789897856253914,0.5590810858841155,0.6445662163687533,-0.5672514892827085,0.5409253017511715,0.3287610350625325,0.45840997939818795,0.6000150178077484,0.17196151104402246,0.39333447516646025,-0.4647750611618855,-0.27472549120960643,-0.1096978980564951,0.8885613708423228,-0.5613453363512144,0.5426415372822706,0.08165699007473814],"weights_hh":[0.6902627166496025,0.08621115176801775,-0.5598487118583031,0.9147812594726135,0.37540538557457137,-0.20239900789435228,-0.4372496285942056,0.8138903323103024,0.8031222440854118,0.7545948408853058,-0.9258281448653227,0.4782409537564505,0.4436228521172838,0.20114837707799293,-0.06863516601595054,-0.3483272922109173,0.45522843524207524,0.5104171892437306,0.6862945568851777,0.6612414966692943,-0.040327137390900436,-0.9557065521906045,0.9925915929194951,0.9858519347507537,-0.14959479861989466,0.5910841328738192,0.1482376450470828,-0.5290262438584314,-0.21024490084958036,-0.905698181726518,0.7783816152200231,-0.2116408321023111,-0.4487351721927091,0.5724291214284907,-0.4968869593779157,-0.91363499952099,-0.8183192461344255,0.006266341558986754,-0.35738627636812814,0.42434348459853277,-0.8924013514986711,0.6842502150853911,0.9415607408608668,0.705544125221941,0.5961696547475244,-0.0169596238276557,-0.4158351279104815,0.9187773765307512,0.5258889980274226,-0.632391373661247,0.434890516524558,0.5133720089830198,-0.9808392653099536,-0.9834340551925527,0.809260858415098,0.14125369317515268,0.3647770041530556,0.5669056400348675,0.49272430242106147,0.9853064292541367,0.46637938779371946,-0.2351250679562764,0.5363405707507518,-0.6441169271969658,-0.8373745714034802,0.46261699278714197,-0.7449717675205492,0.6267089774309873,0.2449064493068629,0.6395542245920494,0.11109822226095267,-0.3202351841258748,0.09261790759586752,0.9095917108198728,0.16002475744675926,-0.6356186604727345,0.2921434032246315,-0.3742378043693082,-0.1758636878787343,-0.5155661423122739,-0.8048945030745149,-0.7617952994088488,-0.7210888304707157,-0.35337054514304245,-0.041306150773567474,0.02311337313797024,-0.02544026217719675,0.2888804096590101,0.5437612349220611,-0.8796538743606894,-0.523362470481604,0.5451006621916665,0.049897839262522004,-0.11585755429744804,0.42876610895246503,-0.8146567561583935,-0.8587841378262926,0.015373728468959236,0.022215322221034173,-0.018276576304442793,-0.35573270195461393,0.8466280004065543,0.2397241313096281,0.9826750933195796,-0.021174207166609005,0.7936718371543119,-0.7900863522645662,-0.7446710930470375,0.2167102648560082,-0.8813199377205239,0.6222395234203022,-0.49060331746162333,0.5198718413253984,-0.6382808626473395,0.5057867267191751,-0.8246923990491231,-0.9141020717516892,-0.8202785853220942,0.9599409705822974,-0.48949325817530576,-0.6341947739010312,0.6040780667824481,-0.8999040043818884,-0.3012917398316457,-0.15712971893372485,-0.22097454869809185,0.3522954946750605,-0.18669011068852615,-0.576021604557811,-0.5527362934626778,-0.6657139124235822,-0.7257962173412724,0.14054262220662506,-0.705988862337023,0.6593014554988728,0.8023437485981488,-0.8779542599592154,0.9538709705627244,-0.24698252167949186,0.8332313699552356,0.5696544005233668,0.6633622197629343,0.5728913977855716,0.27212086193650675,0.34272602563914045,0.32634380725910694,-0.8110408219834673,0.07206522195789078,-0.2422963005952279,-0.22898370449113803,0.465221919740211,-0.8804058833439712,-0.8953698273246675,0.269618142672035,-0.5545482100544512,0.3322210201745046,0.5223978774258053,-0.0808462829230423,0.8124313860128112,0.7102719988453632,-0.2419340429174821,-0.826609785979993,-0.6764129695359258,0.5695609909589143,0.48288172047660405,-0.07515269158429083,-0.6446543470057053,0.7781396995093104,-0.026159424971314404,-0.6230630973724365,0.19075150538491847,0.12045624566274005,0.4960190557447399,0.749513027792633,0.3015932965037178,-0.39380357569078517,-0.8216036016299595,-0.18927619367789106,0.831519328158792,0.837011485691995,0.004220827633835134,0.9006754041374823,-0.9405199479057773,0.1286449837539878,0.45599540930434324,-0.5614494612548155,0.40386686509516534,0.6261972885884504,0.8563474981122519,-0.4644032493638448,0.8782026329631296,0.3750262827478461,-0.8786920871646076,-0.35570828595424175,-0.2131143540669409,-0.9982460249524205,0.9930365599305531,-0.39770467157885636,0.25199185410740066,-0.03171781218926517,0.568407984148845,-0.5254367593382621,-0.07594654985249294,-0.7795525760806332,-0.052023662012207206,0.5936654987140799,-0.1925103407285762,-0.6119077324348441,0.9425393551676666,0.014680195786339612,0.9324795158246035,0.5717239470137319,-0.2170642082983414,-0.14891942908463962,0.19085303618188032,-0.45927785122229237,-0.31576308554157095,0.7783443043360994,-0.4364636880649069,-0.4874184091592355,0.5445942435772824,0.7073510800398279,-0.5523578283601056,0.5948374707045383,0.47311285921817614,0.2530611619948975,0.6925515790475263,-0.907645748079974,-0.4060722865461859,0.651977663595493,0.1960636836530698,-0.6588324988918446,0.755237988369299,-0.9911205436432615,-0.3229964065195241,-0.6483156316373231,-0.8786842805000934,-0.7268541453106296,-0.47063935056732165,0.48956207948628894,-0.8486054867709376,0.37799928085320866,-0.39009389640794323,0.3985332931283796,-0.03209719536692979,-0.8480370518428386,-0.21153624965367213,0.03655827207704987,-0.15813625085097627,-0.03196692810598112,0.13192388239098807,0.9643728182353524,0.2354501023989959,0.8181542987973769,-0.11923425549194189,-0.2429745635498326],"weights_ho":[0.5505762547179196,0.3234815807597473,0.2784064105551185,-0.7361722292123687,-0.4156204705070199,0.4543894533435955,0.23501720747856814,0.7951435949228098,-0.7504197019746759,-0.7838911957583021,0.8707177429304487,0.8539701764308889,-0.09902540701231999,-0.765115767712027,0.2511531003887486,0.10713168564880493,0.1945855989248555,0.5264958407519384,0.033224460130008904,-0.6402998648890641,-0.3485054645863943,-0.4982826995245264,0.48874409713906686,0.7349765562062385,0.22954411519206674,0.23229551709420693,-0.7400632323710121,-0.15216744882748268,-0.5569963756250753,-0.41469730515010816,0.8373605389848446,-0.29445828188605305,0.16994726826641626,-0.1800384618047468,0.30826994861944335,-0.7906278048033888,0.15156983403354451,-0.22290716781009157,-0.23255902312020948,-0.38874926198639503,0.8930746597605586,0.7551165796903843,0.9526569163618133,0.17237742715670956,-0.6220564038875509,0.749778185384933,0.6956019107543745,0.28967142142729396,-0.652085563804085,0.979281204232207,-0.4756200958960135,-0.8661015342045812,0.417119216413006,0.14535091663253197,-0.6286038327842836,0.15286799943993534,-0.8701461845189005,-0.9276902100690141,0.8796576725874441,0.610571289941259,-0.940737422548729,0.8088965101781969,-0.04807577271281649,-0.5735777889060905],"bias_h0":[0.6493074072875973,-0.3280044854069861,0.03911950817883025,0.10874282902687038,0.30721296320986236,0.24137274305377043,0.8409535532606311,0.9451825535123366,-0.6859807356324805,0.018567797493972638,0.724318600864343,0.25573748301524146,0.6362363020491928,0.23702767452909357,-0.8268147995147359,-0.9263314488464094],"bias_h1":[0.9465592461214667,0.4035013124693523,-0.33961729134600693,0.5599065861314036,-0.9385405885202558,0.5912029045258849,0.9995329768180039,0.009556717875429221,-0.24463112539503262,-0.1706717629012402,-0.5893107308567505,-0.6280387732605139,-0.1388070845260636,-0.5484076228694181,0.773920174995065,0.5783789853406596],"bias_o":[0.43205585634264154,0.566508478004778,0.06989721439858698,-0.8803339490287836]}