{"weights_ih":[-0.6764872607042078,-0.40340689746181746,0.4228953646015985,0.27373995133308204,-0.6899351809881586,-0.8303769384224142,0.7388243554114946,-0.4921723360370309,0.7489174083424626,0.8941064197375783,0.8617598358219869,-0.6550907734657505,-0.18038396365489384,-0.8615765182252917,0.5123745579691985,0.19276876264452225,-0.011152022955942531,-0.300753018725312,-0.7750890105279915,-0.404479965917214,0.7489212830809393,-0.5594848718113214,0.2638525493284214,0.24124993733624756,-0.04516165855676468,-0.3635069480308144,0.3544348810064466,0.43792214407344865,0.4448430383387394,0.06696663504541234,-0.042853223803865914,0.6764214205043331,0.8303874354110385,-0.9697492274475876,0.48649880446969473,-0.14127577620186105,-0.6728578960448262,-0.29550043454101016,0.5048361577748561,-0.9572008367853957,0.9525792365605896,-0.25989144394165065,-0.07397897933353836,0.9533864011668465,-0.6279104400891742,-0.5947811646394359,-0.4208738250704249,-0.08692215601481945,-0.6811643836223227,0.3050754987561195,0.9799346622551177,0.7713898134471793,-0.7744385080563878,0.4636482763673835,0.31044882632747717,-0.5636155449176523,-0.446499329527561,0.47142105004657364,0.8207907491757689,-0.021524381445819696,0.00956397318199187,-0.2497718374042579,-0.7695643564779793,0.7464719220329414,-0.6275276022773302,-0.8188590379926262,-0.08631897345884765,0.5472820806817,-0.48142322423096506,0.13164994540073316,0.7755067950368078,-0.010547662663888069,-0.08312456325948414,0.7345986581643695,0.23732105326053254,0.39434745671468163,0.5534034344806273,-0.18994033113736908,-0.1735254845657761,-0.6355558225082862,0.8291078508305632,-0.2828602837032057,0.06604562868869879,-0.544399963687169,0.5328622281778164,0.05088741168926281,0.22022747034569612,0.2487721367242226,-0.6295549075377178,-0.09472659127275107,-0.6134763294352514,-0.37869211846036266,-0.17895806323302832,0.9212963729993315,-0.6278456549026179,0.9087536954121505,0.17309947829539318,-0.1133882981840666,-0.13125666417137882,0.19136757873079935,-0.21773962214520726,-0.2581447875229972,0.7932832806552359,0.6240222634128119,-0.6693178943774962,-0.42137574493601004,-0.7698400297252044,0.25956736443758865,-0.8127724300798929,-0.6837059436324107,-0.568089731679629,-0.2520238146390821,0.9047162982607444,0.9132134112009125,-0.3879322705036099,-0.9950413590843352,0.6569368533067781,0.48794487034495715,-0.9216470205891867,0.2933626061497363,0.3005291177293343,0.4419411003567446,-0.8106257299604793,0.7545513393330947,0.47611049947999784,0.33179777603014227,0.056472033071653716,-0.7822324724224081,-0.7244429369815626,0.1734498636027244,0.07848392999618503,-0.6026102220412826,-0.28814557501097937,-0.906513769589862,-0.10319234988660475,-0.8450497324336608,-0.6593201726116831,0.4947609783139977,0.24664568133347897,0.45275255354428645,-0.6352256308148834,0.22946634270985533,0.051923883089914025,0.9033839530325132,0.27414928823827367,-0.38097774533306206,0.47421070579574987,-0.4017009946900454,-0.1946809629660311,0.4387476183391372,-0.0010645141711467243,0.7536941872442295,-0.6977970255740755,0.9607036531628346,-0.8035281162189871,-0.9026908952415524,0.22288142144487422,0.6218045655502464,0.703380578218815,0.03164356493405518,-0.16285503741521135,0.48970271410881794,-0.27768471573525777,0.07704570291219581,0.532617172263979,0.05266750483145799,-0.22493385541296895,0.6719676026699122,-0.35842777270355075,0.9704966879438965,-0.9032482867611713,-0.5545061771202295,0.2587524877180125,-0.75319744603721,-0.7054035032112302,-0.2302727984402344,-0.15837499311943315,-0.5963960490529578,0.23505336993456716,-0.21789610974837603,-0.26231429699638475,0.6329496911293402,-0.4766637808124523,0.12496378220515791,-0.0754963200572567,-0.5059107762433299,0.1390042988740836,-0.8321744701081915,-0.33338006465444336,-0.9653222536307897,0.10524770810809625,-0.06413371422858516,-0.4033002088850517,0.20909021544873196,0.49717729408840916,-0.9905953630094848,-0.23015965082348844,0.567907739561966,-0.013403133942880396,-0.6694242408880424,0.5087906533839295,0.7505021695834069,-0.3460380952278619,-0.04161046358185283,0.18211801722652599,-0.6343471533107614,-0.9217568893863024,-0.7780411267526055,0.3164664077442796,-0.5137213970799126,-0.12372008135583035,0.599151518921849,-0.5741579824354501,0.7944373446758051,0.5494782947364247,-0.6658765184712294,-0.9251648714495542,-0.04425025868036392,-0.5487401352302137,0.4149490105243061,-0.8257931304085551,0.41418554171495203,0.2464234883405403,-0.2905053729331324,-0.8280298984731767,0.7778872675596842,0.35991396117496355,-0.34210402569391096,-0.16348719746769347,0.46360217401763615,-0.1365453957599616,-0.0827544140348464,-0.994765714083923,-0.7580889459975655,0.28518201987624114,-0.9051956440531876,-0.8467630115668661,-0.766010501676802,0.7451590481676162,-0.28458362019131345,-0.9032652621384554,0.8079278771658376,0.4569851447662765,0.37696056291930913,-0.34486757875167773,-0.3612628233834201,-0.16268132301147276,0.44264962797986795,0.4926878045007439,0.8886940425485965,0.8247627211656416,0.34990598956734975,-0.07994348568158949,-0.8932510690161428,-0.0031670934934382444,-0.6339625685681121,0.8840798101665646,0.03727923287530355,0.7341276585344676,-0.5012566589698175,0.6162557874148269,0.4601462721948606,-0.3307314195845712,-0.4298048166515849,-0.8526420807454875,0.48585676870066385,0.5900488240984358,0.24029075352659213,0.8127795323742808,0.5203814497250174,-0.39353879050616425,-0.774174486708189,0.017270485063243912,-0.13717914956570953,-0.2145967955003798,-0.4479945994848784,-0.9143462135751534,0.8300215208435386,0.21324124666193822,-0.4302156419827514,-0.0080746130880891,-0.7593663294330943,0.47887203876304274,-0.305887439508264,-0.5331820343905809,0.1212389058897716,-0.7689914996860807,-0.0426271865436596,-0.021675360455188253,-0.23437030349250598,0.8832223276123774,-0.9608688518411321,0.032154242867528326,-0.012050859792288815,-0.2823337276499034,-0.8536703246311177,0.9426822411932256,0.4439814348689486,0.6622308526636027,0.6827827203036345,0.42239777256456446,0.5420895728583526,-0.7847212549877771,0.5844032791033649,-0.6591882054229348,0.2329193408576944,0.48720704949837557,0.22378000911649432,-0.28266854929174823,-0.7957601103635459,0.9734675161192856,0.5622300495828407,-0.7863225711522361,0.15374827762397225,-0.1204798434310339,0.7999103080652146,-0.365527877118484,0.1374920088037619,0.0875106730346471,0.497562419750857,-0.30225270304273977,0.39571637801818493,-0.008711623776148869,-0.6661257383432941,0.5935385119129917,-0.7761875858247185,0.9725213104518855,-0.16734331915217027,-0.3443248741808165,-0.8036450420687844,-0.6578990648322194,-0.7262115273279299,-0.6791825442665094,0.19808860348823742,0.9871385893624844,0.6876498307622336,-0.33241484938748034,0.3126020918405248,-0.20674340584897855,0.4786426173335361,-0.8220856863243633,-0.8509262261411146,0.7041282441184682,-0.13990029707337115,0.519825702497537,-0.7661562083153963,0.12930287921188288,0.9133286072358513,0.44912896182457307,0.07633163009929378,0.605997920493043,0.14518139207119884,-0.4072571682043473,-0.12655753625597965,0.544940907311797,-0.05572010269682193,-0.5371911865353225,0.2396074707117113,-0.6959344742655424,0.9162528025344367,-0.11484054977877767,0.7040934232110596,0.5652858904460532,0.8146704294642875,0.839095868304627,0.14212478880277368,0.7254711349060563,-0.7621217936096571,-0.9355340059592476,-0.25231068286940395,0.22649605246481852,-0.08036906983513559,-0.003170988462662061,0.8019793395146169,-0.7211334221097938,-0.7831076151868797,0.8722062608664705,0.5085941243034644,0.3585843650134597,0.9869723391509448,0.5132470655266517,0.47923385488900627,-0.57094826582092,0.9771273874845803,0.4403455940270957,0.11536064370522991,0.37408782456011425,-0.9837770120254832,-0.487239406896649,-0.7270259681136453,0.07692904898651665,-0.06701756205928544,0.007468747313798874,0.6245846343423267,-0.7092114677647805,0.44027968250720684,-0.849371118569695,-0.5076973558660258,0.5346658334402312,-0.028543482949497045,0.4386000923546314,-0.8812585136795481,0.6463535282753792,0.8329857888605028,-0.5652947533841488,-0.20268407929922838,0.14365172550778404,-0.2311449671557706,0.22875770844140408,0.38004568542251893,0.9970103801917805,-0.7697081756380579,-0.6004164078111767,0.7031320297549721,0.2518473999767985,0.9699768870709713,0.5877882473135243,-0.1028544022260609,0.7142356859861272,-0.5581922961763297,-0.42224048491907906,-0.6113499503297526,0.912046370090102,-0.7221304145992844,0.06615661172951359,0.002510845738730394,-0.7871666151346961,-0.2766257425572225,0.09459943805392568,-0.456387383077667,0.4588136713963915,-0.9402129718886716,-0.3252361396627794,-0.45459871740355773,0.37253527643410855,-0.48961041466453903,0.7228830928795866,-0.2666720537771501,0.15358928580859144,-0.14354466534975674,-0.5253598363769698,-0.5157462792344505,0.7367058480389452,0.0769010425726957,-0.6371010148168006,0.37744814859505293,-0.3244171701879228,0.8719271422284773],"weights_hh":[-0.3360783367133431,-0.8261096075391821,0.56051796457392,-0.5473933110338318,0.1306852951168822,0.357379247033494,-0.4138769633602548,-0.32737956549943936,-0.8810337501373118,0.5759103886833878,0.7801644720489105,0.8053514884004787,0.9823638762854565,-0.7713040617831504,-0.2818105789391905,-0.16861856056498237,0.2830019981613465,0.28176942382356596,-0.16513775669171427,-0.6806815606752947,-0.4666363057290661,-0.7813542186744951,0.5176334455012843,-0.12034430881953395,0.3523310182798223,0.9169840017634006,0.7954026010016984,-0.05871796261052453,-0.5612533937104525,-0.662501966016098,-0.6217079648481125,0.9844249233425257,0.4986423380698559,-0.8029307979665463,-0.6371011695126108,-0.2751190037045703,0.24550779451445703,-0.9482244091658094,0.006821609095506442,-0.1743264782102516,0.33787093498953324,0.3086939287514414,0.482219850306288,-0.9432933962445309,0.1568049285174753,-0.42374014100532453,-0.526050397288657,0.8362018917359815,-0.3038199597239908,0.054844706122689546,-0.26765985535903813,-0.44272977605334773,0.4796818004339012,-0.5856356053709855,0.5812529104378612,0.09650603420976922,-0.6291466032116917,-0.8016651846945249,0.3679714438547359,-0.04322699916754669,-0.08119852189813259,-0.4864731955190764,-0.8571512944019233,-0.428542323736385,-0.6046087086139544,0.46005873222579785,0.3047724376865215,0.8450368626358182,0.7261661668402326,0.27378618414770894,-0.9289304364626139,0.07633788329069557,-0.0398204525199215,0.9739009129199896,0.07080830186911835,-0.7170233147154863,-0.013640473528210961,-0.337965801492079,0.4152187948401389,-0.6478869175995356,0.7628602085232326,0.12197199839714212,0.7491835776099622,0.7264398762635729,0.4490107296209196,0.47282538280497866,0.43926621609568905,0.3251214195682224,-0.3681888795335877,-0.5998780156494761,-0.756956806990402,0.9432813490910605,-0.9646228671726638,0.5057779473028927,0.7489638949177719,-0.7055294142937045,0.021702710111633383,-0.45402052394503456,0.028309877303551723,0.9524473787587617,-0.19331609078033485,-0.36404636672430724,-0.09385548101133367,-0.4439588857072003,0.7441382890189581,-0.7665596729303299,0.09024352751445686,0.4906775946505826,-0.6618346415904488,-0.5220380251362828,0.7898612028108314,0.4840614414214197,0.6953043549492219,0.6615971571715922,0.49583403794940706,-0.34227602979289573,-0.328333480783487,0.4113598448101332,0.8608044057320388,0.9203878591703276,0.9816871944138432,-0.9116740610770526,-0.12559096970458383,-0.33331199049587235,-0.27384240110187097,0.9839618807197921,0.2924429390184706,-0.3316656401336644,-0.31031060685528034,0.6448549245314954,-0.5556512391078952,0.9590527362169401,-0.2471826964971664,-0.19596360231575916,0.30261229921145505,-0.641111836344042,0.32062634501871545,-0.587351965018982,-0.6259240356144291,0.5614089983393102,0.312069303597591,0.7073999411810032,-0.27534810133698295,-0.838676976808693,-0.37376395179154076,0.53618825768322,0.0377355192870481,-0.029532373681814272,-0.9074971595273191,0.6611723700679581,-0.4309205665449487,-0.8469852353640657,-0.13726901371694678,0.9378903767751519,0.00017863435561804586,0.12239855618508755,0.3868705521031637,-0.8881689435134736,-0.3511134140373373,0.1445430324517647,0.9960218243446282,0.5380800273408122,-0.16866455551944837,0.5622397716977936,-0.5401288922633485,0.946919618083752,-0.09735547045615078,0.7297106687410888,-0.7435737880919071,0.038077337150553836,0.01790528048107931,0.7905163442249732,-0.14472461703196826,0.4946392053027453,-0.3271214071919053,0.9746553945273047,-0.525621041163389,0.6992542258437455,-0.1836979394357403,0.22314739946182405,0.556447559450074,-0.7284180568456027,0.7854328772937536,0.45339841989612095,-0.8113784273039888,-0.26515989057528855,0.7283138220847427,-0.6403028874013093,0.7250168748593397,0.5201125544037315,-0.6566346048619802,-0.23785897607967055,-0.8379037166268708,-0.4015025172527642,0.3157443488129421,0.5322559312873414,0.5516139441807764,0.532408942190324,-0.2471747000749085,0.4216507350340053,0.49459223358650606,0.9472969935648436,0.2715230042080894,-0.48065237793825877,-0.833612043215217,0.7789887957880777,-0.048073939296017,0.30786237928366145,0.6099781390074741,0.2327314331693966,0.10356740405907572,-0.602558720234587,-0.8745587404257835,-0.3745757958777909,0.9530710080149973,0.05398309159062431,0.7515473501907974,0.75399147329352,-0.3111955700508844,-0.3246324990357188,-0.03192099838790319,0.2611206700620592,-0.5282698759770299,-0.5807916874377168,0.9724029630186335,-0.402124524549206,-0.0823993820244091,0.3221433148041122,0.7915204345807436,0.8767543288636563,-0.051950761390741285,0.9420161088056644,0.3353085261556472,-0.8110904251256459,-0.43158533592542936,-0.2707859678650264,-0.7478168088489963,-0.3603706278035348,-0.8006251983573169,-0.6063920369827156,-0.12701400723710599,0.42017624673591447,0.5517153218085062,0.056291479341900486,0.5521237976656306,0.45605399895750476,0.13935508749084735,-0.996936915490561,-0.3987863166715242,-0.4988450359829548,-0.5701280572530429,-0.9799140447053372,-0.9981231301144526,-0.2059862675069688,-0.6377657792950169,0.6317171123598881],"weights_ho":[0.6182740696217808,0.0053016035078827795,-0.28053337327257877,-0.39455132081521804,0.30442053604810604,-0.17402948432650667,-0.45865398617509334,-0.1709664749939639,0.5168142941999654,-0.9977230135416413,0.2766845862831797,-0.6013175194197136,0.3464551303356327,0.26364718242073604,-0.9062462409878977,0.2435230780181319,0.916827685879261,0.2781296650808085,0.8105652571195661,0.7779970865925054,-0.7380107161188629,-0.8144424809389741,-0.3881153229647538,0.4967776395763106,0.37376473702630975,0.29130724930259255,0.5255044943266447,0.43808313106277774,-0.29148145223644706,-0.9213974484699068,0.507806552444019,-0.020174761562028243,0.12256284014695717,-0.49066071209795425,-0.06567733744307813,0.619426296168702,0.7121941357053057,0.6298036329064838,-0.48850685748764255,-0.3277864070514884,0.1844601096744516,-0.1464252131783932,0.48195062971048763,-0.4234194515116749,0.7765498735709231,-0.2309866406733887,-0.06748450622573743,0.8733877288146505,0.7707747258707569,0.1816554656865932,-0.8481839061322436,0.6925376539732317,0.8791070443279725,0.15354812343265833,-0.30605600412014056,-0.03612058925124795,-0.0018389913847776107,0.4959671669193837,0.4589587213806372,0.9585428392430293,0.25167361444405323,0.7287607014160065,0.08930411054184528,-0.34708342245331303],"bias_h0":[0.7874317283914996,-0.919821967247803,0.046014736699638625,-0.13182622316613135,-0.5230754742062536,0.10153032282887575,0.5399804016170753,-0.6024766220907232,0.266364069264444,-0.3010975007315444,0.67240252883166,-0.935831684035314,0.0646873175379159,-0.59297376265608,-0.35259979102911276,0.09420120629364948],"bias_h1":[0.7947961185980774,-0.44480263303384127,-0.6914088150329749,-0.23700242215463718,-0.43727321622992155,-0.31744908078731515,-0.5482499853332325,0.6413797745663548,-0.9986260581109294,-0.1872628825878937,-0.9512213592328851,-0.59977189239721,0.7540490884401556,-0.885683413296513,-0.8280941910267792,0.010099322862578752],"bias_o":[-0.4856916603513892,-0.7468385823566412,-0.5910511392821387,0.5989046699159306]}