{"weights_ih":[-0.2210790458936165,-0.15515590048995387,0.6302142748453428,0.6541224435468833,0.6889480406425881,0.7740188797022773,0.264616718081631,-0.6349326980981318,-0.5936962832705817,0.9163692125323855,0.31076348543843624,0.471244558177526,0.24115522858696692,-0.9958245944840052,0.12513339610480045,-0.23984248341022396,-0.34169731476675635,0.47249976294147467,0.8707171828029043,-0.013111820847838684,0.5400516072126966,-0.07427731758438494,0.7579347615827137,0.5700386153481825,0.3191827156343232,0.2413983233443473,0.744996795231117,-0.3811987484349335,-0.7208758608536456,0.9063814089886235,-0.3906176356523092,0.02010975376391677,-0.9092070282867886,0.7792022745655447,0.5193748054863951,0.9403568392400321,0.8242171050156204,-0.05916243071835625,-0.46099269797697007,-0.4374647637492932,-0.4059609949304597,0.12835560202696117,-0.024192219352091815,0.85443054236618,-0.10049323448118264,0.8948504589388129,0.11406301491989623,0.05529262887525577,-0.41310540210990765,0.10300703686184809,-0.3058109985347215,-0.5588536279153344,-0.03234242539071763,-0.4877692999015122,0.5368082459897667,0.43201402448846227,0.1474299758041573,-0.8144665618739664,-0.5892552424374651,0.35514168943252855,0.7204115832681413,-0.9750482591059937,0.9146222266060051,-0.7331814047152456,-0.3718656672955323,0.9388910030516866,-0.995340142626425,0.20621068977443735,-0.7824389639760843,0.6389480644609087,0.3236231999572792,-0.46625837433790607,0.3818287121197579,-0.9300995899383029,0.3805358615342562,0.6482594939004802,0.32702728788556734,-0.46143941709528913,-0.1914507656477089,0.3147106465201148,-0.6818732072277993,0.5290910900449528,0.13454247407536934,0.8252267676668388,-0.5360810085365257,0.5824193003799858,0.6703532051412788,0.26507194781147225,0.8060168829936709,-0.5806066158972494,0.1532453829659004,-0.24264209749329546,-0.33942977776184247,-0.22889480706825505,0.40441065542390975,0.6682366456118243,-0.1801725487345709,-0.5168002833619163,0.1551795489431631,0.16217014976989286,-0.4710501434934833,0.5473174371122416,-0.4133338734898331,-0.32437233081243444,-0.9899918196295296,-0.9609750423204568,-0.3294877359558661,-0.5751734642098685,0.36814047718366116,0.298891352763206,-0.9052678715521696,-0.8013931865315835,0.0294259615712269,-0.9436577784497349,0.2317009983010314,-0.09991697034058444,0.2983546833077626,-0.19570388613313772,0.9846264563191613,-0.29275491474656645,0.13932316102803344,0.1429752202958845,-0.7071332106976866,0.9935272439153766,-0.722687781398204,-0.4550125104871965,-0.7109955429360824,0.00836271994763571,0.6147617971890833,0.3764703902870339,0.9909881933575624,-0.8926757499295077,0.610930349197605,0.7050232594033383,-0.12625432288712202,0.9650541156216621,0.4063538737418735,-0.674192682082758,-0.701685515828149,0.7443453253339922,-0.4843587352590053,-0.8754217530118606,0.8851960851231804,-0.9103564202744254,0.8204745205436923,0.24131068889174734,0.686917959901058,-0.1606945574545886,0.9113219721940247,-0.0726247323564495,0.8175092163871849,0.39741214149933524,0.4325818402589119,0.6088874988872293,-0.7865469379050014,-0.03578248003879314,-0.31992485783256597,0.9088129638941886,-0.9847356370318467,-0.10648200468438551,-0.04564014323976129,0.11428637751991277,0.43313153783585445,-0.052404578610456554,-0.7825419738840675,0.03658242200081263,-0.17960324294491703,-0.34877674201747455,0.4634086025260138,0.005617956394614154,0.9099049323724508,0.18974347370499278,0.2733629505572297,-0.04748599451164903,-0.9606654766263447,0.11166332523755673,0.5910749611958253,-0.24411157242598236,0.47647893696121546,-0.09018482546465711,-0.047434948984970804,-0.6651168691750458,-0.0022670113254903423,0.15123727241387885,0.511572079814018,-0.710651779055413,-0.2814160283167113,-0.531187526478399,0.9726857979489656,0.991025418585272,0.3865238950623193,-0.03902467126653075,-0.8639089822052726,-0.516231772237403,-0.9442906795047588,-0.7818710901114503,-0.19034033216660595,-0.6893471078428313,-0.9524154852694402,-0.6759128877640279,-0.574554874530333,0.8393248055427271,0.82404048666916,-0.5376992815394297,-0.7157284186042048,0.35334204851223827,0.7005627588961367,0.4315678511760497,0.33175422394047227,-0.560549982395462,0.21550767017629902,0.15806827461912154,-0.1396562404929318,0.5891159333669751,-0.927305259573699,-0.9032270691530482,-0.7711353826318854,-0.40641918966775226,0.1253913871042578,0.6651188300364956,0.6079626907389106,0.16820991174376165,0.2851762561802118,0.608384095794511,-0.7552485838114749,0.0935220134268353,0.925951067590181,0.5055634733655161,0.3540019914535475,-0.6007005139818355,0.7367246638247531,-0.8715452885668751,-0.2717572134274193,-0.10399513708704466,0.5802842014226779,-0.008273596422177398,-0.47430618583534545,0.6642130255478338,-0.6334821075393802,0.7292582272184605,0.04470377102013834,0.7218427858031766,0.3246196235206307,-0.21219530290389854,-0.008546161364355598,0.42891487998873035,-0.16650996359996273,0.612597270922814,-0.4493345096969188,-0.8592908273139555,0.07834595279584944,-0.6323464589662557,-0.412638627098469,0.5131457202035372,-0.6006608394351169,0.6550961686952743,-0.19779248827942952,0.04445772440440954,-0.4610455462766161,-0.9933382949294531,-0.7585418754178888,-0.7994892690098669,0.3284726958979227,-0.5959956962353952,-0.358215580861319,0.34796264365693563,0.7595388560791592,-0.23413371350909662,-0.2645786542025075,-0.9750712307537683,0.5918883090872276,-0.3202328521477009,0.42356026235899913,0.9667526435580052,0.09509713326491465,-0.67273539403478,-0.9692957854311832,-0.8081788621221093,0.656333263976111,0.4084618878325479,-0.7952298563398752,-0.44552751575909966,-0.8423317856090737,-0.39861670297157015,-0.9181755133460989,-0.3247051475034004,0.08153730007764892,0.838673617820745,0.8992355164884427,0.9853012271688095,-0.3868670810153638,0.8174364201728825,0.7747062554172002,0.7458261385090696,0.5667575532897093,0.1112144339942609,0.6567721414904615,0.827525636173335,-0.8684372484189125,0.9122211623472114,0.6126644354918693,-0.5505275168826393,-0.39293570559035773,-0.6160167368962242,-0.06360925957266095,0.5990496269943251,-0.5545366171404473,0.5553957335437862,0.18945000255741107,0.9732342456738035,-0.5779752642488734,0.9613937245954656,0.6084911759675997,-0.7766233781168077,0.6082027901117171,-0.22043411743599894,0.961658493124879,0.5046593413245593,0.25675034712226097,-0.1060003809472092,-0.6418967021412132,-0.0871130083403342,0.09545619660260418,-0.1878091347280686,-0.4133841719431681,-0.5329535375953434,0.99839622840543,-0.6971604870014487,-0.15485416750421654,-0.5454486740878699,0.43051963859061826,-0.6584594875573362,-0.8482813785588157,0.860437457816964,-0.6963816798404936,0.11370309441297488,-0.7649651460495728,0.4121287492081154,0.9248914845627454,-0.980369419305092,0.9208817968533762,-0.05169855193706163,-0.8743334835383776,-0.20933356655933588,-0.34428348230910055,-0.726565016734952,0.2320120965047776,0.5848088050983085,0.8156814264624086,-0.9296363540080241,-0.09032134988282148,-0.15841456988992597,0.19830528292549054,0.19664378048549347,0.32354752977444723,0.5478797113901737,0.00519604617148306,0.4121987078404865,0.6640730606358769,0.5564099971709557,-0.6378041140205679,0.09832558892140342,0.273861857196523,-0.8402259987009231,-0.4623958732112212,-0.5889143606786091,0.4110824703106104,-0.47238907322621304,0.2733521075073355,0.1869159719695157,-0.7085357660764777,-0.22044512731976718,-0.21099959115180367,-0.5432657134494558,0.5243268229408418,-0.09420972101228586,-0.375043782395204,0.48837173095926967,-0.29807497545183925,0.593404774853939,0.0754286627108458,0.10744408924436777,-0.8709169307766265,-0.6732645593123063,0.5244192464822115,-0.22618100670049968,-0.07710749005761475,0.7899696118122268,0.23376627295723118,-0.37184912928146985,-0.6147888771859131,-0.03200712262831229,0.27708118760222966,-0.736143105928333,-0.175598201725927,-0.621108625217867,0.7146134186408648,-0.6757973146707057,-0.5468055573723589,-0.8273437861327588,0.776790080928317,0.7459794159751354,0.5042167465816907,-0.41184768661519633,0.7081463159907835,-0.2216192063809692,-0.798159683746386,0.04592936179587159,-0.2606113666744698,-0.7157157270443739,0.20270593333824527,0.13626034301888446,0.13583937841519433,0.2292445855832992,-0.695598214120448,0.38577954921909785,-0.647009223951994,0.3517521554641121,0.9495769890311889,0.4563493944524055,-0.19706422879013408,-0.5854659254905326,0.7718193733886951,0.5616459041277719,0.4494758942929904,0.8333866039561877,0.5444166621183442,0.4253137329980854,-0.49081754534125266,0.4672019599657662,-0.8664018204098853,-0.20783489681917455,0.5242335283178974,0.9239538927455047,0.12045064888669765,0.5409253017511715,-0.4920743434043444,0.654318548314095,-0.37720622954814687,0.17196151104402246,-0.3577960122879664,0.5958393217111191,-0.27472549120960643,-0.1096978980564951,0.8885613708423228,-0.5613453363512144,0.9530688180049736,0.45402713863038424],"weights_hh":[-0.3472176171319019,0.08621115176801775,-0.5598487118583031,-0.34316056668678074,-0.9187246130021209,0.9381278840293026,0.21975332349404386,-0.8826507491936115,0.8031222440854118,-0.4917932694267606,-0.3267197826777106,0.4782409537564505,0.5520853270955066,-0.8073763946931294,-0.5133616099219462,-0.3483272922109173,-0.08006756908456958,-0.926634106275718,0.5091069368481482,0.2742597961903408,-0.8594289636050976,-0.4791698278481542,0.18901324974327793,-0.46287593262160254,-0.14959479861989466,0.5910841328738192,0.7448256311590442,-0.5290262438584314,-0.8344796571442339,-0.515146197215367,0.7109922325788816,0.6265975737282263,-0.9211005844502074,-0.5554760445089844,-0.4968869593779157,-0.14246087046809408,-0.5458262896172339,-0.9687056644315897,0.3438750268655133,-0.4907756133803396,-0.8924013514986711,0.6842502150853911,-0.768124420606199,-0.9361186509017152,0.9738271454609655,-0.20834351851704325,0.572596570568479,0.9187773765307512,-0.8317888042452128,-0.632391373661247,-0.2085478270761958,0.06997831272199151,-0.7622840518118499,0.5658751600453826,-0.8989915488275209,-0.251205775284163,0.29752697070032696,-0.42398758457294705,0.49272430242106147,0.0844837463387722,-0.6832766954855451,-0.7978834056487631,0.5363405707507518,-0.6441169271969658,-0.8358225470596667,0.5264574139055225,-0.4007144778047149,0.6433352872671643,0.3456740583534834,-0.5766623027009077,0.11109822226095267,0.7154253398417523,0.011687943018833247,0.9095917108198728,0.1719503462229861,-0.6356186604727345,-0.7169311686475923,-0.11558964648812498,-0.8017660859238918,0.7659350536310625,0.3807154948324032,0.9789688698238674,-0.7210888304707157,-0.35337054514304245,-0.041306150773567474,0.31131343776635667,0.1801635426544348,-0.7125678076740432,0.9134885639083163,-0.8796538743606894,-0.523362470481604,-0.10171231530296976,-0.4344876224987817,-0.11585755429744804,0.18920778850648956,-0.017539614952915894,0.008935716490759082,-0.253767908756904,0.8288253967719714,-0.018276576304442793,0.8131351716841804,-0.3157436012312447,-0.9576295564838233,-0.49159520340129825,-0.021174207166609005,-0.16854535036398932,-0.14432849938832648,0.169720736959883,0.2167102648560082,0.3182891317161549,-0.4191036919390796,-0.49060331746162333,0.5198718413253984,0.43203746861504433,0.5057867267191751,-0.8246923990491231,0.03874344609226554,0.6485073955324756,0.47470262602689917,-0.48949325817530576,-0.928423034236918,-0.0803230032728588,-0.6713687004536866,-0.27735525939963335,-0.15712971893372485,0.6629498050476976,0.9606081696764055,0.09786794948801525,-0.576021604557811,-0.5527362934626778,-0.2622945533144052,-0.7257962173412724,0.15604034136835865,0.06281960373246398,0.6593014554988728,0.12800187719584288,-0.4122565592667473,0.7767738000297033,-0.1027476986216489,0.8332313699552356,0.7199604867436984,-0.27267771609908076,0.5728913977855716,0.27212086193650675,0.29307240281078273,0.6913512044919976,0.8834533560665738,-0.5656529315278505,0.22165514068978487,-0.22898370449113803,0.465221919740211,-0.8804058833439712,0.36615476215169385,-0.7209272185105389,-0.5545482100544512,-0.0016135997085984233,-0.921104398996933,-0.0808462829230423,-0.36189715378701237,-0.14441601108449453,-0.2419340429174821,0.9571613700175388,-0.9629399763487503,-0.4897118413782866,-0.5219980965402149,-0.07515269158429083,-0.6446543470057053,-0.20388382681871087,-0.026159424971314404,0.008020295601377958,-0.4758839045355472,-0.5163730818877521,-0.4959732765525251,-0.6092132999769351,0.3015932965037178,-0.39380357569078517,0.9516210523659236,-0.18927619367789106,0.7291634950768455,0.8764552742978347,-0.028730974962026368,0.9006754041374823,-0.9405199479057773,0.1286449837539878,0.9725130596529004,0.6832580556244001,-0.41781312091149836,-0.08292848875342096,-0.792750590119871,-0.8807659603166118,-0.4384502849823244,-0.10597641185639883,-0.8786920871646076,0.5495454247237836,-0.9589156985421585,-0.7978670730586142,0.48455978318960735,0.2924211010470257,0.7034464545736812,-0.592792667859023,-0.3824919379528402,-0.5254367593382621,0.7727532124304808,-0.7795525760806332,-0.09030586234391014,0.5936654987140799,-0.9853558164297345,0.4268673529364635,-0.24042558711784578,0.014680195786339612,-0.7669631285472136,-0.9965918312504369,-0.3546231931497321,-0.14891942908463962,0.7551612263616694,-0.3648006178318395,-0.31576308554157095,-0.06765622472074462,-0.4364636880649069,-0.1207829947781851,-0.8129386455085643,0.7073510800398279,-0.5523578283601056,0.5948374707045383,0.48770295663796914,0.48315524718811176,0.6925515790475263,-0.907645748079974,0.4290019496028974,0.651977663595493,-0.4005701786633571,-0.9997197276497125,-0.7856182796071574,-0.3707730147380808,-0.3229964065195241,-0.9843215249940953,-0.8786842805000934,-0.6823409998456638,0.3915030883993702,0.48956207948628894,-0.8486054867709376,-0.980944320246165,-0.42517923059310014,-0.8382952683859242,0.49506907257210964,-0.7692018171580219,-0.21153624965367213,-0.32627882896504623,-0.831044763967127,-0.3063272636278469,0.13192388239098807,-0.2542849030800809,0.2990962386522791,0.9274926188858679,-0.11923425549194189,0.3922611486757117],"weights_ho":[0.4325179747810515,-0.5747607988432015,0.23470088380634135,-0.7361722292123687,-0.7377424491383633,0.7353118882738612,-0.2690919350135321,-0.05648099663170458,-0.5742067536932784,-0.9643799725777875,-0.5228623756996662,0.20816976014022193,-0.33175591757164224,-0.765115767712027,0.2511531003887486,0.7831313766170958,0.6077042499560159,-0.9766510025834592,0.7785035798305386,-0.6402998648890641,0.8187108429021057,-0.4982826995245264,-0.5291373965738952,0.7988834132146205,0.14434283403347448,0.23229551709420693,-0.9527527537638976,-0.7395993148982378,-0.5022304061188045,-0.41469730515010816,0.47721656891535824,-0.9830351319357542,0.16994726826641626,-0.5630337779355079,0.5762204583836876,0.5141163760893153,0.3781819324497999,-0.9002712355280194,-0.25648915532957406,0.11614064862621509,0.3936399307975067,0.6597398143259807,0.34618211594021653,0.17237742715670956,-0.6220564038875509,0.749778185384933,0.2814096607636416,0.28967142142729396,-0.559826919059661,0.06155373821405963,-0.10180483158352271,-0.8661015342045812,-0.34287244476777023,-0.3043661367676065,-0.13240670270864885,0.22470977872813025,-0.819435843727508,0.34243451951987947,0.8072220442988338,0.142341221322819,-0.940737422548729,-0.3922474593455447,0.47002649804352137,-0.5486682044878564],"bias_h0":[0.6936196096703686,0.7525396409608238,0.03911950817883025,-0.0515936085116353,0.3642270848630451,-0.2560291990584189,-0.23033256156601256,-0.48735640564609506,-0.6859807356324805,0.018567797493972638,0.29822204717125733,-0.07602551037463767,0.4951129844307718,0.23702767452909357,-0.8268147995147359,0.3409333256811413],"bias_h1":[0.507694640161501,-0.8553551328795961,0.07636325833994229,-0.9471048451818451,-0.9385405885202558,0.6395755867422803,0.7761684252407177,0.5933625515619985,-0.24463112539503262,0.7334058334947782,-0.5893107308567505,-0.8803051641328818,0.17589661721975447,-0.5261523100398438,0.773920174995065,0.5783789853406596],"bias_o":[-0.9824130109217128,0.46941695342016376,-0.2416045603515149,-0.8803339490287836]}