{"weights_ih":[0.9769142631645986,0.8759391197771929,0.3437107918916704,-0.1842821860237014,0.6889480406425881,-0.7047968946164538,-0.25692171960921106,0.3397211647681544,0.9645564594229399,0.10254350205815577,0.31076348543843624,0.471244558177526,-0.908262751300231,-0.8552694129116329,-0.7622295541838606,0.42236862683042053,0.7347621307984602,-0.018675727019185073,0.017019903766718913,0.8669825545083409,0.0696490251700963,-0.8556195776980122,-0.424782773944379,0.5700386153481825,0.3191827156343232,0.2413983233443473,0.744996795231117,-0.5606967951813604,-0.8605322205407531,-0.438421384150139,-0.5923503342995762,-0.3564109170513783,-0.9092070282867886,-0.015436276151098882,0.5193748054863951,-0.5688673149803611,0.31780516795310865,0.30507510403921834,-0.9202927720746845,-0.6224424720585136,-0.40577313987334285,-0.9566803310435039,0.3981272429034184,0.85443054236618,-0.10049323448118264,0.8153946104635998,0.11406301491989623,0.7763462483986716,0.8743274740289497,0.10300703686184809,-0.3058109985347215,0.29986754706191254,-0.01421519498793522,-0.8965988012593757,-0.24053554795225618,-0.44373941039574416,0.26272058191841996,-0.4356494246028788,0.6774824418458127,-0.12274461847328277,-0.6981040176879763,-0.5581742933079576,-0.5202500999774258,-0.9617880536212255,-0.3718656672955323,-0.16298810984720724,-0.9323632581827082,0.8183574338916126,-0.7824389639760843,-0.16101350135089487,0.8710885424129056,0.8964409178187618,0.8237802760317112,-0.2518223697535069,0.6152728131326546,0.6936163000236559,0.38488004388682606,-0.893357365536259,-0.1914507656477089,0.6655478009037896,0.6703652427579256,0.5290910900449528,0.7930803485693316,0.8252267676668388,0.5941196699879574,-0.8507777361317763,0.5868454411421791,0.7878434310221358,-0.37366318817544353,-0.5806066158972494,0.1532453829659004,-0.6729180157184971,0.6108645143836449,-0.3212116957991029,-0.9672628979639735,0.14416907763283238,0.12932050810438267,0.8567145332839297,-0.22779053953276618,0.09347073673590178,0.8936163445249876,-0.6799608682262979,0.029141691899204014,-0.32437233081243444,-0.19382445008912264,-0.9402784065173362,-0.6523494616557901,0.7259515162192371,-0.2565693359068364,0.48012885822483375,-0.9052678715521696,-0.8013931865315835,0.2950842132313112,-0.33159796580829193,-0.8297572649669875,-0.09991697034058444,0.738449888070313,-0.9701663916880452,0.9846264563191613,-0.6377201391803635,0.7522200146224689,-0.7792619509634453,0.2505488709759578,0.9935272439153766,0.017606861969728715,-0.639196502534505,-0.7109955429360824,0.00836271994763571,0.6147617971890833,0.8779605895465901,0.20625403326671043,0.09024506392044107,0.8052947203533891,-0.8529247453604076,-0.43196953079810485,0.9650541156216621,0.19728291879609716,-0.674192682082758,-0.4807882610489471,0.7443453253339922,0.5260363855657944,-0.5773548381633533,0.8851960851231804,-0.11083841802163952,0.8204745205436923,-0.10586594537051819,0.686917959901058,-0.1606945574545886,0.09868324088422797,-0.1078131908353388,0.864578070983224,0.7985428571119488,-0.7439244534694576,0.6088874988872293,0.38649665266104094,0.9525446414708516,0.2169687734926402,0.9088129638941886,-0.15131288606060322,-0.10648200468438551,-0.30091473586873474,-0.9941962407898568,0.17745659813152503,0.5316927420879096,-0.442025920225227,0.03658242200081263,0.8028514540076799,-0.636072405276944,-0.23126860535816451,0.005617956394614154,0.5675867627251754,0.08939707626945514,0.9768961834107404,-0.34196905556460355,-0.501144343577419,-0.4560345479841279,0.5910749611958253,0.8745052133629345,0.6009756328647811,-0.09018482546465711,-0.486006503685837,0.2564719282533625,-0.0022670113254903423,0.26683450968638955,0.7108051802527984,-0.710651779055413,-0.6445798650088115,0.5221454759167243,0.9726857979489656,0.8392749092464085,0.7815256273259898,-0.03902467126653075,0.8752404224439085,-0.24074756363800165,-0.8598701982921895,0.8892209551430998,0.14143619262253204,0.9294774187690185,0.6190218088738697,-0.6759128877640279,-0.574554874530333,0.3586894465963988,-0.841140599605017,0.48208677863097193,-0.9349527102805448,0.5662776211159473,0.7005627588961367,-0.7185172170279341,-0.31736045779718847,-0.39077203378788106,0.6399568158381574,0.1728708609592262,0.3529293636373385,0.5753127945051033,0.010014222190236177,0.9305699119241579,0.5582793342380341,-0.3078409700329392,0.7944640261440334,0.6651188300364956,-0.8555583983855466,-0.4254259353158216,0.38260763098492734,0.22527708592103157,0.7460120862898398,0.0935220134268353,0.5706520850501124,0.5055634733655161,0.8119672820206523,-0.6007005139818355,0.6650423084365147,-0.6970468317382761,0.4974740183528763,-0.17666796912448923,-0.22370680498260143,-0.6306240147000803,-0.6748849721104238,0.7344192125138187,0.382616344686197,0.7292582272184605,0.735260264026788,0.7218427858031766,0.3246196235206307,-0.5613801325691987,0.8118452289121898,-0.35809905749612136,0.9214503161822725,0.612597270922814,-0.7392589578153168,0.1974392548512669,0.07834595279584944,-0.49330488233041847,-0.412638627098469,0.921559376932878,0.04929244841496083,0.6509082703554456,0.015234648694299802,0.0251907277510095,-0.4610455462766161,-0.8162889541531677,-0.7585418754178888,-0.13337823336901566,0.39304024812957383,0.03226756786139373,-0.3982905508855734,0.40264529109595304,-0.6619100665928295,-0.6593230179260849,0.42884326307978515,0.7287313740456522,-0.6474388967744398,0.10862212464508536,-0.48047344342583864,0.9667526435580052,-0.4529349489906691,0.03028426925686456,-0.7794266257531379,-0.9620869980006705,0.656333263976111,-0.09997798302709415,-0.7952298563398752,0.5734309693451081,0.6629526225927702,0.45139253129167334,-0.5121037089359903,-0.962817890309039,0.08153730007764892,0.006199339467038767,-0.6348997464495101,0.042753887604824126,0.7858307655101868,0.8174364201728825,0.8611827382288639,0.5159236758002721,-0.743812440990834,-0.8958282989144677,-0.9579684436887612,-0.41218211692904005,0.3089542841881803,-0.22012504001180488,-0.9834413433827534,0.8866956321929793,0.1894265687363228,-0.9953599469809427,-0.06360925957266095,0.5990496269943251,-0.14424542340866164,-0.19896763928042782,-0.5319563028947418,0.9732342456738035,-0.5092508935572826,0.9613937245954656,0.5991072644564948,0.6215056943131128,-0.35900662289811835,0.2717984646575351,-0.514567758614829,0.29840756091384213,-0.8950652950855689,-0.024148195161671104,-0.23959734421681245,-0.0871130083403342,0.43830813851039707,-0.15035613998130026,-0.4562146800871656,0.4359093762109283,0.016975026575851482,-0.2919693709449376,-0.15485416750421654,0.43285919414844654,0.43051963859061826,-0.9095798212449981,-0.11474026094531564,-0.5079785874339069,0.45190456246943733,-0.8179451802961153,-0.49090853573142645,-0.20881246636793493,0.9970584490479928,-0.7210174281138448,-0.34777792977296107,-0.05169855193706163,-0.3807607263300061,-0.20933356655933588,-0.34428348230910055,-0.6907402347856981,-0.8146546518419999,-0.20360229417212272,-0.1936022377389166,0.8528031035285006,-0.6587263291585448,0.5331548444658185,0.9977469329053137,-0.529354225653937,0.32354752977444723,-0.9974317389793781,0.3154412843932839,0.4121987078404865,0.6640730606358769,-0.9657739975586017,-0.6959342604306826,0.09832558892140342,0.6615363260468123,-0.8402259987009231,-0.1993368898293244,-0.2173122464252386,-0.4200065967880109,-0.47238907322621304,0.10344867214462217,0.7791545809152913,-0.7085357660764777,0.10315854890730569,-0.9096435538463843,0.6230083567440037,0.7096414100986983,-0.2089799441978899,-0.446583081398237,-0.6203271114426656,-0.1542295642347009,0.4065664352195275,-0.7798076218305989,0.5209714848333689,-0.45881846386850156,-0.20768107964089322,0.5244192464822115,0.5279683022865651,0.9171328734201154,0.5267751666683749,0.23376627295723118,-0.37184912928146985,-0.8872768883446016,-0.03200712262831229,-0.24259317281511983,-0.736143105928333,-0.666483044878385,-0.648752273818072,0.028070543319687724,0.842654665551982,0.5500232091064046,0.8403455277187541,0.776790080928317,0.7459794159751354,-0.5176789746396424,0.8703162616779672,0.7038442060415719,0.5244121663332062,0.7503293387176149,-0.23497337337630952,-0.14846953869731272,0.5528835845716524,-0.5147444590181036,-0.22784082997447586,0.7890226524944759,0.8769033890256479,0.6798181888351051,-0.2585599187348837,0.4519456290660069,0.3517521554641121,0.7589986298393898,0.632068355318216,0.6849549975779059,0.22369598792737388,0.7718193733886951,0.4397268405876469,-0.37744687884775563,0.8333866039561877,-0.9113217694863298,0.30536663411559917,0.7961083285012038,0.5027557250951467,-0.8664018204098853,-0.20783489681917455,0.2889124307187383,-0.8001917525380111,-0.5672514892827085,0.5409253017511715,-0.25001747377045747,0.745962276496897,0.5931879572396739,0.17196151104402246,0.7346562336087903,-0.4647750611618855,0.4939162136980577,-0.039243512620186216,0.9784520140698241,-0.5613453363512144,0.5426415372822706,0.1127360448592789],"weights_hh":[-0.32019382093149296,-0.6366238829843718,-0.5598487118583031,-0.34316056668678074,0.3613174235312673,-0.18011600928947202,-0.9034003641652575,-0.8826507491936115,0.8031222440854118,-0.4917932694267606,-0.44053749191935765,-0.38473538863477175,-0.6201317448073436,-0.3530573687383649,-0.5133616099219462,-0.3483272922109173,0.8548174559323396,-0.926634106275718,0.6862945568851777,0.2742597961903408,-0.2945474432658701,0.9942639050770752,-0.6840056273169985,-0.46287593262160254,-0.734584342024426,0.9138359757450101,0.8558544082507598,-0.5290262438584314,-0.21024490084958036,0.8517232416052793,0.7109922325788816,0.6265975737282263,-0.4487351721927091,-0.5554760445089844,0.06969613990362555,-0.14246087046809408,0.9469453135856796,0.006266341558986754,-0.793411713745303,0.6637337815767614,-0.15508849964625826,0.6842502150853911,0.9415607408608668,-0.8014338797820788,0.279788812331319,0.4408901536642986,-0.4158351279104815,-0.3290427512763119,-0.20407192820751452,-0.632391373661247,0.434890516524558,0.2733400091337983,-0.9808392653099536,-0.9834340551925527,0.3273733589081873,0.14125369317515268,-0.268371449295421,0.925042753197783,-0.8466356882385941,0.266804597511497,0.46637938779371946,0.4838837209864677,0.5363405707507518,0.11465669613618013,-0.0021509864072557505,0.8114820926781434,-0.4007144778047149,-0.4252801955449501,0.5706119452373184,0.14416142998249937,0.11109822226095267,-0.3202351841258748,0.28485720548390225,0.9095917108198728,0.9421821551524303,-0.6356186604727345,0.10203737617204789,-0.27598342248743934,-0.8017660859238918,-0.18413055768435505,0.9919724419064981,-0.7617952994088488,-0.7210888304707157,-0.35337054514304245,-0.12745245947723127,0.7529023914705388,-0.27004074320816374,0.9584639033630422,0.15610023376467397,0.15950775960500296,0.7008422100064686,-0.10171231530296976,0.22636295792328842,0.1494780300153038,0.18920778850648956,0.7725367179886544,0.1952458462557809,0.015373728468959236,0.5530976628186579,-0.05771874830557877,0.8131351716841804,-0.14088841692331955,-0.5656778375584293,-0.8621987379154226,0.3409180047549283,-0.16854535036398932,0.013546030704398193,-0.7446710930470375,0.24095085525353221,-0.9874630630095214,-0.5057779399389339,-0.9810448225623314,-0.8244332467063682,0.9563593716631726,0.5057867267191751,0.08816452673575692,-0.9141020717516892,-0.5788719218973544,-0.8141412003236739,-0.833189056376801,-0.6341947739010312,-0.918578710988188,-0.6983981750183861,-0.43649488709389006,-0.15712971893372485,-0.22097454869809185,0.3522954946750605,0.09786794948801525,-0.6821387484338541,-0.5527362934626778,-0.6657139124235822,0.7687763276645063,0.39472515339516057,-0.8240831397015245,0.16214261513145356,-0.5235891178250263,-0.4445076382461641,0.9538709705627244,0.6097818935674715,0.8332313699552356,0.5696544005233668,-0.11016869435270338,0.11783104199067895,-0.8172855656338214,0.2407103951184999,0.7688260853705731,0.8174471127775074,0.07206522195789078,0.22165514068978487,-0.8454844336105178,0.465221919740211,-0.21932441585614137,0.41896269704305955,-0.9100553927191704,-0.46548054653759996,-0.47916559590981245,-0.921104398996933,-0.0808462829230423,-0.36189715378701237,-0.08586333632366272,-0.2419340429174821,-0.826609785979993,0.6481904971073038,-0.052854507056542044,0.8130996793228042,-0.8614829651681826,-0.6446543470057053,0.3242957088499323,-0.026159424971314404,0.008020295601377958,0.19075150538491847,0.05161090859975914,0.7403036015608988,-0.30637961628169674,0.3015932965037178,-0.8079181814560419,0.24162963736633736,-0.18927619367789106,0.775709446830946,0.837011485691995,-0.028730974962026368,-0.6613692001163318,-0.9405199479057773,0.1286449837539878,0.663669696679962,-0.8700357492726423,0.8226868601096127,-0.09612329943739728,-0.792750590119871,-0.8807659603166118,-0.1396608388918945,0.689182307644912,-0.8786920871646076,-0.8013979876555846,0.0950622347933252,-0.7978670730586142,0.15283615191231292,-0.7802847838057918,0.25199185410740066,-0.27317189028277356,-0.3824919379528402,-0.08262519286002412,0.6867806314178915,-0.11829326518267114,0.6119018023571496,0.06579155131673353,-0.2922254676151357,-0.6119077324348441,0.6572577319888251,0.014680195786339612,-0.16405463862435554,-0.2157862394611587,0.11132300817033425,-0.14891942908463962,-0.7558626200330034,-0.45927785122229237,-0.31617461444432093,0.3361370973690361,0.7334072259537747,0.7970000931126175,0.61235687625471,-0.9746725870177957,-0.3828645359884486,-0.15931708836798197,0.47311285921817614,-0.4924128691591598,-0.6968271691176053,-0.907645748079974,0.10993585783490967,-0.5018680298079385,0.3977002568492267,-0.40867044367849403,0.43314422917650486,0.1132680846110592,-0.3229964065195241,-0.3416113637616278,-0.8786842805000934,0.5164140915185889,0.3915030883993702,-0.3006204845197169,-0.46369828105198385,0.2168554901131423,0.5846322399841706,0.8156657963003613,-0.8045974944411338,-0.7692018171580219,-0.21153624965367213,0.03655827207704987,-0.15813625085097627,-0.03196692810598112,-0.24153789142406001,0.9643728182353524,0.2354501023989959,-0.6564989406411785,-0.8536105210427118,0.3922611486757117],"weights_ho":[0.7035342262959352,0.9342865403341007,0.2784064105551185,-0.7361722292123687,0.2479629798650942,0.7353118882738612,-0.2690919350135321,-0.3953811307407977,-0.7504197019746759,-0.9643799725777875,-0.4494011691997841,0.20816976014022193,0.6898838797340519,-0.3676954878696337,-0.49364134557656913,0.18755857772579532,-0.9949378671297182,0.37030688203525264,-0.9070919941218012,-0.6402998648890641,-0.7032226066312879,0.46302304222718615,0.9887718049150789,0.7349765562062385,0.19564843170505442,0.5270917879801913,-0.9527527537638976,-0.4741935625649696,-0.5569963756250753,-0.6468877300311329,-0.6050383690054402,-0.323319595372213,-0.36091173879911453,0.5165939429929516,0.30826994861944335,0.527501793069709,0.15156983403354451,0.6887360808892173,-0.23255902312020948,-0.9340286193596163,0.7650315703169002,-0.7006683103679867,-0.8949469028021495,0.17237742715670956,0.2020801421090912,0.749778185384933,0.264727827142222,0.33229304275630445,-0.905200540755251,-0.17612753502581358,-0.10180483158352271,-0.22022219154084866,-0.9264759256150283,-0.16762671720602218,-0.13240670270864885,0.11668123101005468,-0.819435843727508,0.6661892482785365,0.8072220442988338,-0.2217308364699282,-0.940737422548729,0.918792247741351,-0.11792301952136053,-0.5486682044878564],"bias_h0":[-0.4407733686461246,-0.8347939208014803,-0.3959216001005459,0.49649751534934494,0.30721296320986236,0.18492568656513098,0.32936134567472597,-0.48735640564609506,-0.03853101771401635,-0.28891340115133834,0.8750387363422893,-0.5547136130606127,0.6362363020491928,0.23702767452909357,0.8285719734820434,-0.361369075712459],"bias_h1":[0.28315983622717056,0.09553287200520799,-0.3323601621880674,-0.9584449981788177,0.5407823051372735,0.1472193887674993,-0.6406252208447869,0.5933625515619985,-0.24463112539503262,-0.7450851893194543,-0.5893107308567505,0.09929481007910712,-0.1388070845260636,-0.5261523100398438,0.773920174995065,0.5892692440461358],"bias_o":[-0.23121610428339556,0.9140246534364065,0.3146136502625325,-0.8803339490287836]}