{"weights_ih":[-0.9284279570237957,0.38628051039821454,0.42285661004381137,0.8188498449747892,-0.0708215619967929,-0.1313969705851885,-0.7550404070835679,-0.4510571855885064,-0.676484196845349,-0.8391873552440376,-0.4037894178147612,-0.8090143702157693,-0.5485887083459591,-0.012440365333361125,0.9690016337872807,-0.6155494592856323,-0.8999674716569332,-0.16694583124950957,-0.8303065210356708,0.23807946794765877,0.4011194767778081,-0.7565457141400012,0.28285409631734004,0.8841743848173933,0.7833237361146812,0.6375768851075101,-0.14468924446149933,0.5275260436677156,-0.5597777937898314,-0.250341483443701,-0.9084631151081024,-0.7443503765421584,0.09922334181203274,-0.6999245876361311,-0.01831232967329388,0.38912017065895377,0.6617498513532845,-0.4119197357508415,-0.11202811701632087,-0.8523973685601225,0.7875229897802665,0.9189637098034471,-0.6633281618690143,-0.6121618461056368,0.5662762637079217,0.8381821796909277,0.6105295467427116,0.5164448249155067,-0.06206233916004433,-0.914446112239911,-0.33938362391475074,0.1060239931509408,-0.6780183970679594,-0.4218863591401898,-0.7965432965900192,-0.9273694584577739,-0.3720473287467001,0.5193131605017867,-0.2208781111862299,0.7448160948839209,-0.18463262907924172,0.3187967763613886,0.08871280425832184,0.7569730967326578,0.8103096176520213,0.6503954058223451,-0.1955713303308999,-0.11396417775137713,-0.21782972332572204,0.2397617221859898,-0.33993217871830317,-0.6442756431458481,0.6371997410674557,0.22582172431673841,-0.429304059616874,-0.6781759421107698,0.5156820342625743,-0.3743179491195632,-0.3821795706097757,0.027350191575215455,0.22051174499591553,0.8864329491967993,0.3128383360180451,0.9051367873845892,-0.23258826287946088,-0.32448024260472863,-0.37854445338180875,0.011792079381276244,0.11160851522409931,0.980699602446595,0.550024383928621,-0.5243645448539689,-0.30071982318876445,-0.5667080011432026,-0.5672054244625211,-0.15752404368756245,0.3949734793349813,0.06847678333435425,0.8556866578581148,-0.16083528373636646,-0.9785642213326919,0.8047702635893332,0.45772651839123846,-0.6172767778513801,-0.8333060347251349,-0.7970670708411292,0.37930927017902216,0.5699495941131414,-0.7105859502813763,-0.29423859822373766,-0.695297291886102,0.6248762581146097,0.8575368273395259,0.4151354183164988,-0.8202120342593038,-0.8114556306445817,-0.7403661495681568,0.8035679100215851,0.07444393528027327,0.16418394070117381,0.08035000980618512,0.6368417929912895,0.5647769875142656,-0.8111999217190351,-0.6420776872782341,-0.7395401718007264,0.8790622015962917,-0.387378123613056,0.8693330441162679,-0.21796895836487384,-0.18633424407670685,0.8352203060985839,0.5804044553238854,0.5025693494971208,-0.38840372803904266,-0.8173661054118633,-0.05665280621077451,-0.5355833498301183,-0.1655860107284628,-0.9069327708761963,-0.5575907981436943,-0.15115190601904782,-0.0428461867455181,0.8241761606702616,-0.7408963148657577,-0.8583755809402149,-0.07265437265114727,-0.9087528254363786,-0.6886539479190661,-0.5509840926502496,0.23571195047891247,-0.6473753428090105,0.18429045218857087,0.7545142062254571,0.023685441174524646,-0.9742504169588022,0.1501521793993985,0.9868742789408393,-0.19523656543076795,-0.16066808014113088,-0.11539307769247809,-0.3767346089458279,0.6340992733696904,-0.3198218389803831,-0.9353920864487919,0.3320343686588412,-0.12899550744901145,-0.4556309751955345,-0.5258265612734505,-0.7238460613525834,0.08830610407698125,-0.19712295990062634,-0.7754011371790677,0.5136018696451798,-0.1766250297252323,-0.6131193494908445,-0.6512017893282331,0.5327017248895924,0.8262614935800632,0.180803045680632,-0.653687018511196,-0.4955467947056156,-0.9687134816264775,0.9989898365736027,0.17728160745139454,0.5760447159509465,-0.8366092089171921,0.04175180928206634,0.7793424342267505,-0.5734453102420747,-0.5027226962632889,0.9236383883170038,0.05467239408200797,0.5741516574868581,0.49034850592442236,-0.10791102615259063,0.07838746052195367,-0.21232153402190357,-0.8680417014706665,0.8888779784270562,-0.6647732521163294,-0.7313380810687078,-0.2885071017955958,0.8226138534386367,-0.20047191575990775,0.32930759919378905,0.3176859508722705,-0.9264478390930655,-0.04293283706008877,-0.8815050681704679,-0.7369585360096416,-0.4267574295998757,-0.8473036988286955,-0.35544308177925266,-0.4917222203528926,-0.7944701530319851,0.6230334458990845,-0.6553651491526418,-0.5109105214849383,-0.8367487928495281,-0.49007229207454506,-0.9202673295006658,0.883823200917899,0.9346168302912465,0.691382747223273,-0.9775330554134949,0.4212059117668474,-0.2682157218499359,0.11679711668759718,0.892652688391625,-0.5637946680695092,-0.3750325222377051,-0.5977079823770826,-0.6948209052416772,0.9930639672424741,0.8607729181431454,-0.9729044690287139,-0.6946203223891803,0.2060571626264036,-0.3628027646404117,-0.5038555859613225,-0.3669813244895581,0.4759173814413671,0.002471009236731936,0.7567077286693358,-0.6370740366797698,0.8386701254050606,-0.24687333657772825,-0.5897919806210019,0.3826833260324609,-0.8661786175400721,-0.46817697831541283,-0.47653120333856513,-0.5543536095446169,-0.5945266188586882,-0.7426974734707867,0.2088562892645227,0.7299428192249,0.07159419291983715,0.890865112704947,-0.6399357334817346,0.3153544993241568,-0.7297740595271089,-0.8931891830757954,0.5696062245824265,-0.8349673855034734,0.7116708552548645,-0.4176776151821662,0.85874505868345,-0.5097921648317281,-0.6549406131757476,0.09123237523048355,-0.7214692432752208,0.788205148252884,-0.22679119173132323,0.020132061694502212,-0.3989445942543386,-0.5999871727625599,-0.1959024185234477,-0.036711333618343334,-0.18439053291476193,-0.15829273554588918,0.31423317306802856,0.6418700831259985,0.3766254028802014,0.43599727342666883,0.6816412725826433,-0.36128695573120506,-0.843580438408073,-0.6687929780635851,0.5665283573963042,-0.48618408297383464,-0.6621341678552539,-0.35442507231311127,-0.29212269439702476,-0.3196001954793437,0.4838430273780596,0.2808350066752099,0.24815901309028288,-0.21933067964255448,-0.9484054809548406,-0.4585110260505374,0.3117904178911908,-0.5180910178298437,0.0480945243211548,0.2313792570712263,0.62043641196701,-0.5419839684817254,-0.7733376310840601,0.14952943139361685,0.49758189921449447,0.565479798741553,0.7612507343678556,0.13987098104988238,-0.17964472985727786,0.19748465500462276,-0.3166927291306565,0.8650584547820375,0.0822400564885939,0.37579979649164263,0.6157339831563267,-0.7605562668488934,0.7602483463246861,0.9867442071047245,0.5857836396800815,0.7053000850215496,0.9576796842349833,-0.8176220949753303,-0.25003663096332907,0.22030158612806527,0.7569461101390116,0.6140518739107386,-0.52144122900097,-0.9778160575632611,0.871214678326709,0.9503504924991009,-0.5081713897383278,0.05542384498744757,0.13977131081025607,-0.12952392767501308,-0.264864938147958,0.06470758318070913,0.6391064564506945,-0.9763218153121518,0.8981692251019118,-0.41791454224626556,0.28117883158115675,0.4205428164657101,0.1429701956204279,0.22734576778508075,0.46414834787221104,-0.25969063723273766,-0.3094243949747324,-0.01974594146766062,0.9289511592396746,-0.1835538079327057,0.4317473408157151,-0.7830278852146608,-0.28582248454194126,-0.11997290901684754,0.3105663013317632,0.8720537648364886,-0.9745238791845081,-0.6983359255977781,0.9772019941951213,-0.5370266434055877,-0.2386773524110528,-0.6650664080962465,-0.18313460816042415,0.36294857799359415,0.23193298816470986,-0.19895534143035354,-0.7176759752056938,-0.26587799705130877,0.9102589702324142,-0.9570635271450989,-0.5571966647879363,-0.871415524505704,0.23314591009337016,-0.5993558452072776,-0.8434944354192828,-0.3772796400273648,0.19041135643354146,0.12340724812140258,0.4557057518488956,0.37033015546951065,0.018929085481425245,-0.8740173402503666,-0.7353362709758433,0.4728564380040965,-0.8335482743486018,0.9924392611063795,-0.4411010391412251,0.34314214922594766,0.5999457208031924,0.7224254430654133,0.6134506236349364,0.37168247136670485,0.683723843807446,-0.08017361917766896,-0.5833944571744756,-0.43648198859332354,-0.9847457085218481,-0.18266286961962597,0.8262167326786585,0.5159746634010385,-0.2588157702110736,-0.32556459667352633,0.7744698729204507,0.4433377962639553,0.573533259743715,0.09290261044119719,0.7034556551166953,0.36529123086701243,-0.46322211896965126,-0.5281665419260968,-0.22715168813457587,-0.12774577473354554,-0.4207357315070408,-0.5369348177898676,0.9348375408313638,0.0652337154929441,0.3403181735449161,-0.6591903800109471,-0.25390172210275486,-0.5827426276187893,0.5979135128532718,-0.3019823935668433,-0.09237157052075506,0.5544348750612387,-0.7789390172694686,0.24947214500784165,0.23513779114019906,0.3163209821172088,-0.18644438566556643,-0.07464508501274869,0.5461185242519286,0.015116471647661278,0.624171665725419,-0.9047071576602326,-0.969783235294678,-0.03880415886287669,-0.5591660667208409,-0.005454380326145092,0.31973903335082765,0.20804097691093104,0.8478146745235824,0.0526135138455881],"weights_hh":[-0.21775601666273303,0.1247836139108136,-0.8379761408745727,-0.6223945876508012,-0.15901003631037214,-0.7070942350663638,-0.16680019803291923,-0.5650078152777664,-0.8101642002983278,0.33706497776403066,0.5847856189967062,-0.8843573676596199,0.7666149874168315,0.9764701605539965,-0.8593399104755197,-0.2448212094938922,-0.5303277908848232,0.3633786287320617,0.16659248408242266,-0.16734428756444664,0.7740585228617212,-0.4519133807801221,-0.7212049402216902,0.8911223234278418,0.14866618616420268,0.3226160674629115,0.5509944866384278,0.9390653894948879,0.61143218733017,0.2496447561015438,0.405168484205634,0.4336888149062543,0.33628068260001887,0.08136867589593733,0.8055634842242902,0.5537878916834627,0.4799254422246848,0.38974777841946806,0.9865104354470979,0.2568550849829705,0.623794217087785,-0.3887679004271758,-0.4987293663634593,-0.9402623975824995,-0.5615071833344087,0.9183272303641024,0.15499422298596,-0.030807724663007408,-0.40299179162715526,0.7094848422690767,-0.07835768047904201,-0.07062347131573432,0.6263387148432522,-0.654635135903783,-0.6214929535811511,-0.6202454305745635,0.8867007047613693,0.6229313522806244,-0.2546028405352436,-0.4068839587724771,-0.9441246248554678,0.4283287605583661,-0.9871392980112113,0.1695816462077966,-0.13753150314617302,-0.9845352691024267,-0.007701191740807634,-0.9101509259095446,0.2881671178481344,-0.6290371447121983,0.9638661784261413,-0.785997310183371,0.6226025595818991,0.9874973156592697,0.4892756584444109,0.45542300961249893,-0.2581529392098172,-0.5415374708118492,0.7780790636379997,0.5049992595089585,0.4622065454283588,-0.18275041612128873,0.7156921981784543,0.24635093175377465,-0.8581526952118428,-0.722333039781712,0.5705725409232549,-0.011668008665041585,-0.7187607631994724,-0.033257810249668784,0.3116401227142602,-0.4047259160299772,0.4106871697374894,0.192398308108918,-0.18516022678331434,0.00865036877469283,0.14258597243190851,-0.29591131033398166,0.4260591015603139,0.38773544714047126,-0.03285856188849423,0.023803807347899886,-0.8777816121031172,-0.9661915439000179,0.8046082709906681,0.8905771400703646,0.5907061870283699,0.07810147739175921,0.6234138325834353,0.014660116355576402,-0.8078347254767329,-0.8333304411113247,-0.6992070808467719,0.0928365600976564,0.987227168673442,0.38027968876845963,0.6276659290582496,0.5043629172232438,0.4521143935203904,-0.26158573160683796,-0.09133833449328854,-0.5098913073316305,0.3633080934853332,0.7546640368386761,-0.4682090499594025,0.09572751715113337,0.70393358053586,0.7260534796197289,0.6579614127739248,-0.46937554746049015,0.8785367497047745,0.35725529871587813,0.7997687664646824,-0.5326640220110752,0.6662083078039325,0.4805344377227554,-0.8319572916753528,0.29360403878366714,0.688167087276707,0.11849687279844856,0.5056760867076382,-0.431952200395771,-0.476051971474287,-0.6066528819155923,-0.11369981933166295,0.46409366137587127,0.684177259174471,0.8718580176994533,-0.47033855419705084,-0.6080200761676364,0.28287173516151465,-0.283814343245538,-0.9632026959540683,-0.19192938067514542,-0.6816008186168441,0.6046495089552455,0.6598378452976763,0.7561993282903579,0.05169865640558147,0.47573184889232945,0.8302766527153966,0.5094305047767691,-0.4504285232764642,0.8991535202938505,-0.4819921699310685,0.22023881141317792,0.5863379847476589,0.326311584640294,-0.03992928133345486,-0.5822711238188814,-0.814899932692486,0.16060124070748882,-0.5213507599331175,-0.836224927493491,-0.3469973441047389,0.19268607504695656,-0.9546636676426408,-0.47296663609159983,-0.7660799308210324,-0.7763697082619962,-0.2542835618109638,0.19751211572363436,-0.9279089019132467,0.6967130135990725,0.3295320690436494,-0.0068176394629866355,-0.7003910622114984,0.22193325063161362,-0.4265348005703431,0.044785651301517015,-0.4878866970840272,-0.9058118486878952,-0.44294607821443144,-0.6655791017738548,-0.9257111808370269,0.6826496779337607,-0.15940901433935895,0.9619210875273319,-0.22472993963821275,-0.628369749682997,0.36803711251444016,0.5144393661311661,0.18527512080823216,0.23914153112216363,0.6328919216226636,0.5702216754534459,-0.4191619926797123,0.23907663647523347,-0.18981156936821098,0.06178536935138346,-0.6984701045793011,-0.28031334657927554,-0.48828203126906744,0.6427043686921927,-0.32877357920527017,0.5907196032228523,-0.9940653048595556,0.22710633376109368,0.9164850136012985,0.6577720203541559,0.9641103522502577,-0.3237906638416219,-0.7733540214822674,-0.8144559018324262,0.4941336725382799,0.7802750382681996,0.043784743278399096,-0.28366958850764834,-0.23630069029068923,-0.012337582594914354,0.7298421739800853,0.8661359882379582,0.6789213913092336,-0.01205577958342019,-0.805160319238365,-0.9109033766681285,-0.14710523386749874,-0.16321496244434286,-0.22229263952464762,-0.7182920497962477,0.8165077955185818,0.1714327701542533,0.5311876557833974,-0.9540037683417524,0.40213268551713566,-0.8939635349248352,0.6864157191034745,-0.8968222604074705,0.9178429681557461,-0.4534700823001758,0.9106594592994517,-0.3141203735894291,-0.9160585250827402,-0.8028454363052167,0.7375607471693593,-0.7784083547782106],"weights_ho":[-0.5571133969618716,0.6374477494925024,0.5612174082695507,0.0827273807017661,0.2124529019283503,-0.0017151044376157998,-0.7816615984469086,-0.3781460992122587,-0.042118420095430986,0.6423840792886042,0.20488196232481992,-0.5506743758348802,0.1837772252448231,-0.33351610057183123,-0.4954915666264956,0.6480761746452779,0.6582231385930881,0.017078276854579855,0.49289933796004504,-0.20524089661829237,0.4925724484870071,-0.4588585120264097,-0.6621005915452822,0.853755107391049,0.2977816392026795,-0.44827676599879895,0.09593593908986975,-0.11897621529103342,-0.21684186069161537,0.1054433423887855,0.3966184875487442,-0.6288834598587569,0.6524037240913592,0.07209495193987236,-0.03261061844102131,-0.9667912965246566,-0.16227302242505792,-0.022395646206727404,-0.20388104372676485,-0.23678949806153682,0.24034416294099437,0.6277935906089833,0.1622408404743121,0.8398260375027524,0.8559944760105582,0.10550170994844588,0.4072455536045565,-0.4304119683722729,0.7101003232306082,-0.02785411768784818,-0.9680494382726628,-0.5924833883070919,0.10097927765924886,0.7469268730664431,0.2934586752608064,-0.20209309581142176,0.29735762557593404,-0.14690646388362816,-0.9255639241473852,0.9813319285185906,-0.1403531055762004,0.22299858098254255,0.5516320099476293,0.5325847651033158],"bias_h0":[0.3916780372606121,0.868635605733699,0.23625565344993849,0.7017044769265584,-0.450797169002211,-0.3218637995773477,0.21966615824933555,0.31348351584441025,0.30985310269213784,-0.688764765152174,0.04952177648027245,-0.09114265430039281,0.1251624166568579,0.7794743664575976,-0.48285277765182677,-0.3325833817771848],"bias_h1":[0.3237188672715261,-0.7815842092926166,0.577854148699037,-0.21728437225511854,-0.8192076406161746,0.7010408035319153,-0.783280406348891,0.8187702451836696,-0.21722792317026007,-0.5519980650478569,0.575242757344564,-0.7201425122741918,-0.094566270320259,0.13107738961151116,-0.9737847804490889,-0.39149380509184195],"bias_o":[-0.21856633436983564,0.606643700494639,0.32684975354153734,-0.40296292039647774]}