{"weights_ih":[0.3792129181444208,-0.7027948301567648,0.4228953646015985,0.27373995133308204,0.9024893498141306,-0.8303769384224142,0.5733923677154025,0.6655583572717974,0.7489174083424626,0.8941064197375783,0.45900829286401446,-0.688634407206631,-0.18038396365489384,0.5771898475909638,0.4629545676419238,-0.05888262649481102,0.3760989845261238,-0.300753018725312,0.32183325778859273,0.6718522712435051,0.8722464386882434,-0.5594848718113214,0.2638525493284214,-0.24451773456420867,0.3514748904935616,-0.1839472400667974,-0.39378799382816343,-0.40338927905357513,0.14233873568419098,0.06696663504541234,-0.8287473636837166,-0.7248883500689016,0.7919613004335708,0.7401278332582515,-0.7740849566596364,0.5693278813158293,0.8866395992621492,0.5128612466158509,0.48642002416229824,0.08123899098238008,-0.5418949760574077,0.5732668084169483,0.25715658877819636,0.9533864011668465,-0.6279104400891742,-0.6185125944791832,-0.5518370931632806,-0.08692215601481945,-0.6811643836223227,0.3050754987561195,0.9799346622551177,0.947652375753439,-0.6485651335132676,0.4636482763673835,-0.5266324146142833,-0.5624466122849341,0.7981314532190511,0.47142105004657364,0.8207907491757689,-0.021524381445819696,-0.14353248059126544,0.6381536917926096,-0.7695643564779793,-0.6665067654866565,-0.2497504085699791,0.6066145525646316,0.1793039891560928,0.6276678491679086,0.7066474182906124,0.13164994540073316,0.8313477285365871,-0.010547662663888069,-0.08312456325948414,0.7345986581643695,0.6815067819377574,0.39434745671468163,-0.06832472502782361,0.9918089994248651,-0.2284378388455952,0.0247430623450573,0.5374367099903572,0.06414591564694616,-0.9153523047002163,-0.612830047953888,0.5932220078324537,0.021026993285528928,0.5598303206101303,0.9945253804872642,-0.8011280861880914,0.24295329150150935,-0.5045164186665554,0.2984882721882136,-0.35065346009669596,0.9507466108661806,-0.9868703532137784,0.7164164390248631,0.24220511379849352,-0.4130020176361606,-0.13125666417137882,-0.9787303214156982,-0.21773962214520726,-0.7334328047584817,-0.45829043663759017,0.49431778512147506,-0.6693178943774962,-0.5730322430262524,0.6786996777843788,-0.8204040767525904,-0.9338403119568299,-0.6837059436324107,0.6841681079262443,0.3447938550834353,0.6981842459702048,0.9132134112009125,-0.040277401705975935,-0.5300203621003658,0.8763230645951583,-0.5449697292904694,-0.9216470205891867,0.9679013325923034,0.2567097322110039,0.9384523546939367,-0.9925147606914777,0.7545513393330947,0.47611049947999784,0.33179777603014227,0.06418382591837268,-0.7822324724224081,0.019911419394632368,-0.5422300480491524,0.5381525690393363,-0.6026102220412826,-0.16838210479915716,-0.906513769589862,0.9983432743152896,0.898810438811924,-0.6593201726116831,-0.9156462471010898,0.24664568133347897,0.45275255354428645,-0.021620409480183067,0.22946634270985533,0.051923883089914025,-0.5999697374588184,0.27414928823827367,0.5462534776075374,0.47421070579574987,-0.4017009946900454,0.8369195990012459,-0.992343978904624,0.7149213756104253,0.3581088265232921,-0.6977970255740755,-0.8632010189965287,-0.8532456250029881,0.848411470169018,-0.7749478215736032,-0.2697066013239018,0.8675263336713952,0.004367676775818952,0.49701926770067595,0.48970271410881794,-0.24057041187927064,-0.961902246776891,-0.854261646012374,0.22205968944338683,-0.22493385541296895,0.8730179260310493,0.8860332089004208,0.9704966879438965,-0.9032482867611713,0.13759488118944874,0.13153766346944873,-0.8164249261310907,-0.8525654934844966,-0.2302727984402344,-0.8927884983599756,-0.5963960490529578,-0.8172456606443708,-0.607780837669291,-0.26231429699638475,0.5472726796143161,-0.33291703156604413,0.12496378220515791,-0.6211414712410357,0.753048563176413,0.8596465833070932,-0.8321744701081915,-0.5612227212723873,-0.799156727239827,-0.31199602242496405,-0.2539182327828564,0.41335424172896573,-0.04829107793066756,-0.23143234798364132,-0.9905953630094848,-0.23015965082348844,0.567907739561966,-0.013403133942880396,-0.6694242408880424,0.5087906533839295,-0.0950635726835487,0.9180161907157081,-0.34225126261013905,0.18211801722652599,0.15740987693926334,0.8579249353684741,-0.05091682727426261,0.06539251070289387,0.530875183868259,-0.12372008135583035,0.2640308192270515,-0.5741579824354501,0.4655415836988577,-0.004238094313421925,0.5518495660132197,-0.10698861784680447,0.9447968678482028,-0.5487401352302137,0.4149490105243061,0.3581620187508967,-0.8813736127735636,0.9871605812638329,0.6003905659484412,-0.24052406204953813,0.42427828959988356,0.22068593757818533,0.04673340236461043,-0.8550034431869349,0.14203514102062353,0.786149471359487,0.022021952696745783,-0.994765714083923,0.5208897517237823,-0.8872672141492337,-0.1427615485781677,-0.8467630115668661,-0.05345229827609965,0.7451590481676162,0.6998113801364501,-0.3379077559097272,0.8079278771658376,0.4569851447662765,0.37696056291930913,0.9373662018963671,-0.3612628233834201,-0.4806812261056814,-0.5414998898665551,0.4926878045007439,0.8886940425485965,0.2737574634681379,0.34990598956734975,0.7735906990157078,-0.8932510690161428,0.2245925417675927,0.8514382925579953,0.7864747608128733,0.5705776200961639,-0.7483533031581888,-0.5012566589698175,0.9331243522241432,0.5693606055155334,-0.41336255352114026,-0.6519572197736172,-0.2988474364077185,0.48585676870066385,-0.289171276793877,0.24029075352659213,0.8127795323742808,-0.3953410124484602,0.05840224192968679,0.22685657513297053,0.017270485063243912,0.35309849901318957,0.6995469419828695,-0.4479945994848784,0.21968443310133812,-0.7032157600883182,-0.8124473924715585,-0.4302156419827514,-0.3712971638189495,0.6870656020155477,-0.7332745093248254,-0.33906734584777,-0.5331820343905809,-0.7182618663937834,-0.2654977117918691,-0.17549117788627622,0.20957450839431413,-0.7796114517915989,-0.9188753730230537,-0.9608688518411321,-0.24847562710387927,-0.859960881360254,-0.609572577854177,-0.08892466295754486,-0.24774855293531273,0.44179724058358505,0.25626671439955206,-0.2538559448444335,0.42239777256456446,0.7432241120655414,-0.6120488625232461,0.6802841303282694,0.20578018456810265,0.1565812414329184,0.48720704949837557,0.934277616612958,-0.7731208695916203,-0.7957601103635459,0.3725075510607705,0.5622300495828407,0.20700142829390522,0.6605374925292218,-0.1204798434310339,-0.5304841407753944,-0.365527877118484,0.1374920088037619,-0.4443846387245258,0.729660527728841,-0.27655773797800953,0.39571637801818493,0.11646522434928919,-0.24327141347894332,-0.6547011656283446,-0.7761875858247185,-0.6841434942594684,0.319736061982568,0.21737920717551829,0.3553876949892312,0.22117643849819335,0.7749516418995317,0.9800420424716321,0.19808860348823742,0.22598145593540564,0.6876498307622336,-0.8715852283308938,0.3126020918405248,-0.6268707082474814,-0.25636006836162184,-0.8220856863243633,-0.7707831875895481,0.7041282441184682,-0.13990029707337115,-0.9361406099812091,0.972997505729086,0.12930287921188288,0.9133286072358513,-0.9442217044915817,-0.6172303028917978,-0.4193531344819932,-0.4897584098039234,-0.6336223427335554,-0.12655753625597965,0.544940907311797,-0.6024179069257403,0.6496253937425194,0.2396074707117113,-0.3182580851005794,0.9162528025344367,-0.20651256723904554,0.17674009542791436,0.1725952855090216,0.13417001158539232,-0.9604959648344262,0.14212478880277368,-0.10078267608188707,-0.24272078761449767,-0.22444596178711085,-0.25231068286940395,-0.25638697010029565,-0.08036906983513559,0.3799717131870801,0.8019793395146169,-0.7211334221097938,0.6890525716786611,-0.5624229078143537,0.5085941243034644,0.9791834912457995,0.08424280628197622,0.29011564464200257,-0.6001940182157324,-0.7337226659342491,0.728766202022485,0.11392117136699542,0.26279387487205663,-0.41815877929685685,-0.6102419851295342,0.2642020716824447,-0.2634297800676617,0.5577725860985752,0.5982274044985179,0.007468747313798874,-0.30021918115515933,0.11601795991943575,0.2598434823845275,-0.018649843220997386,-0.2479348487217654,0.3913611451143528,-0.028543482949497045,-0.09070554952072452,0.7471628786190538,-0.20203735241844978,-0.46242257222101135,0.6566355433102213,-0.6984366290748831,-0.449006351690304,-0.5761106647671037,0.22875770844140408,0.9991537112708133,-0.21453710849557472,0.03439288660400308,-0.9665706594848444,-0.4243418956907119,0.6706349657753101,-0.43999609858199684,0.20413590500864487,-0.1028544022260609,-0.922973190399557,-0.5581922961763297,-0.08689610855411245,-0.5229847548912057,-0.8465244018074081,-0.7221304145992844,0.5827120516338182,0.7651937690339643,0.32038727617142126,-0.8721505370955818,-0.7015449026803524,0.49463314742622577,0.384763434436161,-0.9402129718886716,-0.3252361396627794,-0.45459871740355773,-0.7160060320234325,-0.48961041466453903,0.7228830928795866,0.618515391572805,0.6000150178077484,-0.7415428614228539,-0.5253598363769698,-0.2434825780493144,0.7367058480389452,0.9791668139043415,-0.6371010148168006,0.5024015979077348,-0.20127651263011348,0.08165699007473814],"weights_hh":[-0.3360783367133431,-0.8261096075391821,0.20426152699641942,-0.5473933110338318,0.37540538557457137,-0.16497404244746106,-0.4372496285942056,0.8138903323103024,-0.8810337501373118,0.7545948408853058,-0.9258281448653227,0.8791748725098563,0.9823638762854565,0.20114837707799293,-0.06863516601595054,-0.11767399898468733,0.45522843524207524,-0.3206827798980354,0.8743878053625163,0.08175866833875478,-0.040327137390900436,-0.009517334797388921,0.5176334455012843,0.9858519347507537,-0.4283537520053293,0.9941886030113001,-0.6414089377978929,-0.05871796261052453,-0.018961053444326526,-0.905698181726518,0.7783816152200231,0.5343736748119376,-0.6432962083391638,0.6919676446697032,0.06333072757470304,-0.2751190037045703,0.24550779451445703,-0.9482244091658094,-0.35738627636812814,0.42434348459853277,-0.610251031580346,-0.9654684797165372,-0.46194511097577307,0.705544125221941,0.1568049285174753,-0.0169596238276557,-0.526050397288657,0.13906704036409567,-0.23894236527028845,-0.021325744097304034,-0.9503800405028942,-0.7410054681131331,-0.5500248192454966,-0.6769277925005011,0.809260858415098,0.26221102032551613,-0.6291466032116917,0.45040573898377145,0.014107806806464174,-0.04322699916754669,0.4057298568125851,0.8218396684366776,0.5562005467144775,-0.44515751382684,-0.8373745714034802,0.46261699278714197,-0.7449717675205492,-0.9563972263870535,0.2449064493068629,0.11571241865817683,-0.9289304364626139,0.07633788329069557,-0.7804746041858739,0.9739009129199896,0.23770736580513518,-0.7170233147154863,-0.013640473528210961,-0.796359594848721,-0.1758636878787343,-0.5155661423122739,0.7628602085232326,0.12197199839714212,-0.4188678495135283,0.07008346543061394,0.43058534545525995,0.47282538280497866,0.781144477732399,0.3251214195682224,0.5437612349220611,-0.9736008525459261,-0.3023286242132568,0.5451006621916665,-0.9646228671726638,-0.1908809996263261,0.7489638949177719,-0.36713038170931167,-0.8587841378262926,-0.18207223013702234,0.022215322221034173,-0.23684846598554077,-0.815832562700836,-0.16426057015991136,-0.09385548101133367,-0.28950454853713503,-0.20860841302485422,-0.3386377428292384,-0.2773696446866025,-0.15547152914042495,-0.6618346415904488,-0.8813199377205239,0.7898612028108314,0.4840614414214197,-0.07360425398158021,-0.6382808626473395,-0.8547989895747743,0.815399172031146,-0.7209097568371166,-0.8202785853220942,0.9599409705822974,0.26200184910578006,0.9816871944138432,0.6040780667824481,-0.8999040043818884,-0.10155985938638046,0.012833822526538752,0.9839618807197921,0.14332678540456656,-0.3316656401336644,-0.6739347245020815,0.4880210978954267,-0.6313966466682714,-0.576415289084891,0.14054262220662506,-0.19596360231575916,-0.8415479962372778,-0.9558142342726179,0.32062634501871545,-0.5201899368664566,-0.24698252167949186,-0.11100658633249272,-0.371682121336226,0.7073999411810032,0.8916445904299914,-0.5564099959695206,0.5272232141507223,-0.7624307388030158,-0.2187230446890973,-0.023690475113305798,-0.2422963005952279,-0.3925626620487488,0.332703255006193,0.15987080633125395,-0.10446533982258766,-0.9160337407991768,0.7076683215066923,0.3322210201745046,0.3868705521031637,0.021965115369193544,0.8124313860128112,-0.560351959758693,-0.9328776711769715,-0.02076144162740401,-0.6764129695359258,0.5695609909589143,0.7093184883201213,0.19204757924261173,0.1001629204953094,0.7297106687410888,-0.7435737880919071,-0.6973684477250548,0.5912463653078497,0.12045624566274005,0.4960190557447399,0.10232399655625746,-0.3265124781098685,0.9746553945273047,-0.525621041163389,-0.5348827642481544,0.831519328158792,-0.6340898352413658,0.556447559450074,0.8820770395093835,0.7854328772937536,-0.11047608192151315,0.45599540930434324,-0.22182275114793648,0.40386686509516534,-0.5567297174781904,0.8563474981122519,-0.4644032493638448,-0.6566346048619802,-0.5978331443827649,-0.009646457549846499,-0.35570828595424175,-0.2131143540669409,-0.9982460249524205,0.5516139441807764,-0.39770467157885636,-0.2471747000749085,-0.03171781218926517,-0.03538134055840114,0.35801546326515843,-0.07594654985249294,0.7171067425398958,-0.833612043215217,0.8485882057571323,-0.1925103407285762,0.025401617847313318,-0.7776307971693033,0.5594237924947827,0.10356740405907572,-0.602558720234587,-0.2170642082983414,-0.3745757958777909,0.9530710080149973,-0.7270264690225197,0.10232426758236435,-0.30898211804273545,-0.47983008751508405,0.8692867561705919,0.08218493829513296,0.0721275953006586,-0.5282698759770299,-0.5807916874377168,0.39806562171908544,-0.402124524549206,-0.07246599056124992,0.3221433148041122,-0.453407746417283,0.20966384752450473,0.1960636836530698,0.9420161088056644,0.755237988369299,0.15950065481277687,-0.15417495983174212,0.009445386368122977,-0.7478168088489963,-0.7268541453106296,-0.47063935056732165,0.5197312757193129,-0.12701400723710599,0.37799928085320866,-0.08004361443596597,0.056291479341900486,0.5521237976656306,-0.8480370518428386,-0.8565026211586733,-0.996936915490561,-0.11867944342212478,0.604507778084193,-0.5701280572530429,0.14727391976539983,-0.5328473996692851,-0.857592545233764,0.7247685156438768,0.36636320491053853],"weights_ho":[0.5505762547179196,0.455938445881783,0.4996850200143088,-0.39455132081521804,-0.4156204705070199,0.4543894533435955,-0.45865398617509334,-0.4199266908922068,0.892496176164024,-0.7838911957583021,0.2766845862831797,0.8539701764308889,0.3464551303356327,0.1308985933582878,-0.24735980105386024,0.2435230780181319,0.916827685879261,-0.885207137571568,0.31334348910804466,0.7779970865925054,-0.8402112743658234,-0.8144424809389741,-0.0752248518644636,0.4967776395763106,0.22954411519206674,-0.12607688348997148,-0.7400632323710121,-0.08111825664467398,0.29678300332997654,-0.9213974484699068,0.8373605389848446,-0.020174761562028243,-0.43343648982233995,-0.1800384618047468,-0.28338628667446697,0.8153909450465346,0.7121941357053057,-0.22290716781009157,-0.8155781475421182,-0.38874926198639503,0.10654657803838297,-0.1464252131783932,-0.7230086709634456,-0.4234194515116749,-0.10837340397531725,-0.9035360394692922,-0.06748450622573743,0.8733877288146505,0.7084533837616191,0.1816554656865932,-0.4756200958960135,-0.619187584695251,0.417119216413006,0.7596980426039377,-0.30605600412014056,-0.41147683012857783,-0.8701461845189005,-0.3377932091801743,0.4589587213806372,0.610571289941259,-0.8753946346314301,0.8088965101781969,-0.6246558239113447,-0.44952928786939017],"bias_h0":[-0.29542321963620277,-0.919821967247803,-0.6587227655782018,0.3311509918962974,-0.5230754742062536,0.24137274305377043,0.8409535532606311,-0.6024766220907232,0.266364069264444,-0.5677912269073888,0.724318600864343,-0.8089894932812387,-0.7678051034547726,-0.5201850423342711,-0.7880160590430425,0.09420120629364948],"bias_h1":[0.9465592461214667,0.7036627681856549,-0.03127618090292805,0.5599065861314036,-0.7269915577260546,0.5912029045258849,-0.5482499853332325,0.009556717875429221,-0.31460187506948456,-0.1872628825878937,-0.7709494042755909,-0.59977189239721,0.7473641163224862,-0.32235998278602285,-0.78241138726229,0.9982619250025226],"bias_o":[0.43205585634264154,-0.6931108853513728,0.06989721439858698,-0.9189726036727308]}