{"weights_ih":[-0.2210790458936165,0.4307500912274296,-0.7471248306423441,0.7013690798293779,-0.7869239553163669,-0.6659922820104216,0.264616718081631,-0.4921723360370309,-0.1054272324073271,0.7191662424749703,0.5997930363743147,-0.13885121271210688,0.6863638233376401,-0.9958245944840052,0.12513339610480045,0.19276876264452225,-0.011152022955942531,0.8779790253789888,-0.417090204245967,-0.404479965917214,0.7489212830809393,-0.07427731758438494,0.7579347615827137,0.6090432781874038,-0.04516165855676468,0.5341776740262798,0.6998260638213634,0.5041162234788907,0.4448430383387394,0.182167691572511,-0.9794685605903739,0.02010975376391677,0.20162480573310448,0.7792022745655447,0.48649880446969473,0.9403568392400321,-0.6728578960448262,-0.041021173794324683,0.5048361577748561,-0.9035156518416898,0.9525792365605896,-0.8463143115850456,-0.024192219352091815,0.17743829210355822,0.8245630717294918,-0.5947811646394359,0.44403710023207776,-0.29258242887323593,-0.41310540210990765,0.9363774959361981,-0.2825103112366949,0.7713898134471793,-0.8074519376461837,-0.4877692999015122,0.5368082459897667,0.43201402448846227,-0.446499329527561,0.15444643952145154,-0.35932449302569025,0.35514168943252855,0.7204115832681413,-0.9750482591059937,0.9146222266060051,-0.7331814047152456,0.5648119661477344,0.9388910030516866,-0.08631897345884765,-0.9896966778566321,0.4916449439688657,0.6389480644609087,0.3236231999572792,-0.6512776946469474,0.3818287121197579,0.3187712478018143,0.3342481845466503,0.6482594939004802,0.32702728788556734,0.3242191722928931,-0.5649811081043454,0.5282819188671009,-0.6818732072277993,0.9143217856537054,0.13454247407536934,0.6850067429407856,-0.5360810085365257,0.05088741168926281,0.6703532051412788,0.2487721367242226,-0.9148573793612482,-0.09472659127275107,0.13538297615797146,-0.24264209749329546,-0.10986856832658654,0.6405732274677562,-0.6278456549026179,0.6682366456118243,-0.1801725487345709,-0.1133882981840666,-0.9272776975358503,0.35425350864889293,0.998264352581465,0.22511093832718032,0.8382582354038197,0.028764185154209754,-0.9899918196295296,-0.9609750423204568,0.8885612541468506,-0.5751734642098685,0.32063497229851423,-0.05087247397580219,-0.568089731679629,-0.2520238146390821,-0.12427536663491767,-0.8327362894920545,-0.3879322705036099,-0.9532628547416533,0.6569368533067781,0.48794487034495715,0.04889147223461254,-0.29275491474656645,0.13932316102803344,0.4419411003567446,-0.8106257299604793,-0.8236902885192472,-0.722687781398204,0.7186587154634236,0.780715677633733,0.4201965188487098,-0.07493955196392776,0.1734498636027244,0.07848392999618503,-0.15652156910349868,-0.28814557501097937,0.8220704328052535,-0.818041343141753,-0.29540790120929095,0.4063538737418735,0.05084619563425585,0.2075632365622302,0.8825994840842617,0.25216684720733706,-0.8754217530118606,-0.8301014137169145,-0.9103564202744254,-0.36560844290980943,-0.38097774533306206,0.13800152891851858,-0.715520345659425,0.9113219721940247,-0.0726247323564495,0.8175092163871849,0.39741214149933524,0.4325818402589119,0.9607036531628346,-0.7865469379050014,-0.03578248003879314,0.22288142144487422,0.050422981425540137,0.703380578218815,0.03164356493405518,0.23878394063809938,0.11428637751991277,0.10819819409770104,-0.1442121671678671,0.532617172263979,0.05266750483145799,-0.08945327628408495,-0.026636309506413047,0.4634086025260138,-0.7592138046948642,0.44751937410576215,-0.5545061771202295,0.2587524877180125,-0.04748599451164903,-0.5780359480790664,0.6621082531601639,0.715322679215699,-0.6253497480824253,0.47647893696121546,-0.9355479584621684,0.11010837691398945,0.6329496911293402,-0.4766637808124523,0.9990547218583692,0.511572079814018,-0.5059107762433299,-0.2814160283167113,0.4603040156917175,-0.49482284898582707,0.991025418585272,0.10524770810809625,-0.06413371422858516,-0.12193799074004041,-0.0592512077249181,-0.9442906795047588,-0.7818710901114503,-0.493214553258142,-0.4946130512403384,-0.5591210031197333,-0.09017712180239368,-0.17516738426039757,-0.8296665315194509,0.82404048666916,-0.04161046358185283,-0.7337535303750573,0.6795249413356865,-0.9163692006814679,0.4315678511760497,0.33175422394047227,-0.560549982395462,-0.5579542095363319,0.15806827461912154,-0.1396562404929318,0.7944373446758051,-0.579961716359005,0.14755992967387033,0.5354061209725447,-0.40641918966775226,0.10400547332652788,-0.4885375786837298,0.6079626907389106,0.5844378367794965,-0.896971474887047,0.608384095794511,-0.7552485838114749,0.7778872675596842,0.925951067590181,-0.30966831682611695,-0.5763205977758419,0.02364989452684374,0.5929210517321284,-0.8715452885668751,0.11898365929620769,-0.10399513708704466,0.28518201987624114,-0.008273596422177398,-0.11250186441662735,0.6642130255478338,0.0385330212527637,-0.28458362019131345,-0.9032652621384554,0.9373140752714837,0.9290311792178272,-0.34345422498169476,-0.5248230285216184,-0.2932904973917827,-0.16268132301147276,0.10261596772389514,-0.4493345096969188,-0.8592908273139555,0.8247627211656416,-0.13801535530227693,-0.07994348568158949,-0.6620696458247022,-0.6006608394351169,0.6550961686952743,-0.19779248827942952,-0.8246742154241269,0.5354151360148027,0.9662690123438098,-0.7386065279797009,-0.6874344609547833,0.3284726958979227,-0.4298048166515849,-0.8526420807454875,0.34796264365693563,0.7595388560791592,-0.23413371350909662,-0.2645786542025075,-0.8222988483857492,0.7908404101786943,-0.774174486708189,0.598998034433456,0.6085131696384449,-0.10385944376669198,0.9233313908199954,-0.9692957854311832,-0.8182335165223475,-0.13573910422689406,0.7609068121236742,-0.387036520262676,-0.7593663294330943,0.47887203876304274,0.024990126997854967,-0.97431485802587,0.1212389058897716,-0.811333157644148,-0.0426271865436596,-0.9597531205719831,-0.23437030349250598,-0.3868670810153638,0.721226039795259,0.20553697158618212,-0.012050859792288815,-0.2823337276499034,-0.8536703246311177,0.9426822411932256,0.4439814348689486,-0.8684372484189125,0.9122211623472114,0.6126644354918693,-0.5505275168826393,-0.7847212549877771,0.5844032791033649,-0.7221005876171702,-0.1861680198171325,0.28252863527095196,0.9387550661911777,-0.28266854929174823,0.004294305136116394,-0.5779752642488734,0.7348652975710379,0.29646699457364245,-0.47344487937048485,0.6082027901117171,-0.22043411743599894,0.5895122119624598,0.8010186366427283,0.0875106730346471,0.497562419750857,-0.30225270304273977,0.24026119244624589,-0.43104667515433803,-0.2821910158552783,-0.814526475264691,-0.5329535375953434,0.9725213104518855,0.24645348038783443,-0.12875816486986547,0.4484517435063282,0.43026321033168546,-0.6584594875573362,-0.190442876732138,0.9594182760275654,-0.5867112030137835,-0.8256375151460564,-0.33241484938748034,0.4121287492081154,0.9248914845627454,-0.980369419305092,0.05821386033409959,-0.3644091328569332,-0.8743334835383776,0.6745632408685405,0.104771412763907,-0.726565016734952,-0.32177969215918845,0.5848088050983085,-0.8672109580748053,-0.9296363540080241,0.605997920493043,0.14518139207119884,-0.4072571682043473,0.1442814663052725,0.7459832143821477,-0.05572010269682193,0.00519604617148306,0.3315366680303422,-0.6959344742655424,-0.7184916093191878,-0.500402611838433,0.7040934232110596,0.273861857196523,0.6591147736717686,-0.4623958732112212,-0.5889143606786091,-0.5410902855272601,-0.4331016827265035,0.2733521075073355,-0.7275154885481332,0.22649605246481852,-0.22044512731976718,0.4964295098126492,0.1447874414316601,-0.6894738558563296,-0.7864743293105476,-0.375043782395204,-0.2972497566221608,-0.8875201892618563,0.9869723391509448,-0.6105000562318963,-0.1470682221086177,-0.8709169307766265,0.4561428711611166,-0.9331173628867813,0.11536064370522991,-0.07710749005761475,0.7899696118122268,-0.487239406896649,-0.10012714078727813,0.6208769018460063,-0.21797628059120977,0.27708118760222966,-0.3044612135201272,-0.175598201725927,-0.5745425627780809,0.6860349489461046,-0.5076973558660258,0.5346658334402312,0.04990838740526815,0.4386000923546314,-0.14656899861179662,0.5042167465816907,-0.41184768661519633,-0.5652947533841488,0.6605828624896966,0.16946326305995396,-0.8263788938173908,0.021601343900354175,0.38004568542251893,-0.3582242723155069,0.7030561274283276,-0.4118087146939837,0.21182868188412352,0.2518473999767985,0.38577954921909785,0.5877882473135243,0.5076625486922404,0.9495769890311889,-0.16069622584768206,-0.42224048491907906,-0.33642021421253143,0.2958978341737215,-0.24209468111052446,-0.34599326263990204,0.002510845738730394,-0.22849233444726913,-0.2766257425572225,-0.49081754534125266,-0.456387383077667,-0.579627380442957,-0.16054714864329567,0.5242335283178974,0.9135426260989166,-0.537022433718717,0.5556492847197525,-0.41950793506772954,-0.2666720537771501,-0.03453488968308038,-0.14354466534975674,0.3785602226339042,-0.5157462792344505,-0.0812791083407085,0.48442686857378336,-0.6699445806124433,0.9436107205987745,-0.3244171701879228,0.8719271422284773],"weights_hh":[-0.3472176171319019,-0.48615331467047684,0.56051796457392,0.15365174814337257,0.6022816716348509,0.9381278840293026,-0.4138769633602548,-0.32737956549943936,0.3643866237303841,0.4369058238766492,0.5917044945680572,0.9317622859662467,0.5520853270955066,0.8797163772722187,-0.02770294101060289,-0.16348399064049168,0.2830019981613465,0.28176942382356596,0.5091069368481482,0.1852721658261931,-0.8594289636050976,-0.4791698278481542,0.37225067408736123,-0.7381273679582603,-0.4768397934026707,-0.5891790152610659,0.7954026010016984,0.09947764762811007,-0.8344796571442339,-0.662501966016098,0.6566410350960636,-0.02091489308140959,-0.9211005844502074,-0.8029307979665463,0.8915642342714785,-0.18405569279817646,0.4445483979716913,-0.9687056644315897,-0.4285442923891152,-0.4907756133803396,-0.9429452913067657,0.3086939287514414,-0.768124420606199,0.35917225247046547,0.7161616875049237,0.39952155626465036,0.11443289900920606,0.5936416673144049,-0.4668239483586327,0.2413957734887906,-0.2085478270761958,0.30918189624388437,0.4796818004339012,-0.5856356053709855,0.5812529104378612,-0.251205775284163,0.9791508357858181,-0.42398758457294705,0.6955952521484365,-0.5526058598001089,-0.08119852189813259,-0.4864731955190764,-0.8571512944019233,0.6679962765576213,-0.7536828317870923,0.5264574139055225,0.3047724376865215,0.6433352872671643,-0.9647433060499533,0.27378618414770894,-0.3222815168492703,-0.5515570204623836,-0.0398204525199215,0.5851859297112731,0.07080830186911835,0.16662904571116277,0.48246601189963,-0.337965801492079,0.4152187948401389,-0.6478869175995356,0.3807154948324032,-0.4741286928270978,0.6210529837154846,0.47269987677780234,0.4490107296209196,0.8878634585487657,0.43926621609568905,-0.9493231719105906,-0.3681888795335877,-0.5998780156494761,-0.14393474374070014,0.9432813490910605,-0.4344876224987817,0.5057779473028927,0.3089393700794867,-0.017539614952915894,-0.3431914769697211,-0.253767908756904,-0.15904739968443637,0.9524473787587617,-0.507709191652784,-0.3157436012312447,-0.9576295564838233,-0.49159520340129825,0.5273436685673174,-0.7665596729303299,0.09024352751445686,0.4906775946505826,0.5999556881864077,-0.5220380251362828,0.4234468581455051,-0.6815094521162741,-0.6975824981528191,-0.8634987252878246,0.26343959440448805,0.04297729782368198,0.03874344609226554,0.9184034766744191,0.47470262602689917,0.802250572196791,-0.928423034236918,0.8150883580505088,-0.6713687004536866,-0.27735525939963335,-0.27384240110187097,0.6629498050476976,0.2924429390184706,0.6199787054744834,-0.23043496835276867,-0.8969506253199486,-0.2622945533144052,0.9590527362169401,-0.939789322263205,-0.18222447262686003,0.14022077609617312,0.12800187719584288,-0.36988304161322394,0.7767738000297033,-0.1027476986216489,0.5614089983393102,0.312069303597591,0.7635085308261478,-0.19664330028533672,0.8388171172844192,0.29307240281078273,0.53618825768322,0.8834533560665738,-0.5656529315278505,-0.20270360264579135,0.5363696945359291,0.9492470125741166,-0.4095825753459108,0.36615476215169385,-0.3547004598899346,0.2218275863494501,0.12239855618508755,0.7128444011729986,-0.8881689435134736,0.383577198593019,-0.14441601108449453,-0.47973495584138637,0.5380800273408122,-0.9629399763487503,-0.5285332167373216,-0.5401288922633485,0.946919618083752,-0.09735547045615078,-0.20388382681871087,0.4322853258280819,0.038077337150553836,0.4951286092183962,-0.5163730818877521,-0.4959732765525251,0.4946392053027453,-0.7144806536198218,0.5143832621221849,0.9516210523659236,0.6992542258437455,0.33599125957187415,0.22314739946182405,-0.3238275414527325,0.5212050799786951,-0.4346647794977736,-0.14110332180500018,-0.982488516008799,-0.26515989057528855,-0.41781312091149836,-0.6403028874013093,-0.1580639095897618,0.2947239749154229,0.9211381913278618,-0.23785897607967055,-0.8379037166268708,0.6160757246236233,0.10359445166967607,0.3698992483381409,0.48455978318960735,0.2924211010470257,0.7236706095814718,-0.592792667859023,-0.10904894812875776,0.9472969935648436,-0.37862095881348656,0.7913975073272692,-0.09030586234391014,0.16429111986673606,-0.7228268057044178,0.30786237928366145,-0.7763469555234421,0.8439297074310741,0.3566312780457537,-0.9965918312504369,-0.9183648895428018,0.5396359927258467,-0.6041110927034199,0.05398309159062431,-0.6181999767119262,0.75399147329352,0.7526165290627209,-0.1207829947781851,-0.8129386455085643,-0.6424643422348484,-0.4620283517558539,-0.21886894234905974,0.9724029630186335,0.8912953610329983,-0.6234495860831524,0.5612004265766242,0.4290019496028974,-0.6589579851181306,-0.4005701786633571,-0.9997197276497125,0.3353085261556472,0.30011467410669224,-0.43158533592542936,-0.9843215249940953,-0.14731816790356222,-0.6823409998456638,-0.8896021696913308,-0.6063920369827156,0.2468938677387862,0.10870750334464896,-0.42517923059310014,-0.9066554446637669,0.17419132932854953,0.45605399895750476,0.13935508749084735,-0.014050028547792914,-0.831044763967127,-0.4988450359829548,0.7883228836210578,-0.9799140447053372,-0.9981231301144526,0.9274926188858679,0.7688080527097072,0.8211057256510768],"weights_ho":[0.6182740696217808,0.0053016035078827795,0.23470088380634135,0.030502116559177228,-0.7377424491383633,0.9751101999321543,0.9722541929968194,-0.1709664749939639,-0.5742067536932784,-0.46810791411709785,-0.5228623756996662,0.6611953240869877,-0.33175591757164224,0.26364718242073604,-0.11288301769524178,0.7159345625866442,0.9584080898753675,0.7341975737448152,0.8105652571195661,0.7933877646463634,-0.7380107161188629,0.423603621309701,-0.5291373965738952,-0.04858893183448609,0.14434283403347448,0.29130724930259255,0.5313851499338247,-0.7395993148982378,0.7366689570635587,0.9622371805389114,0.47721656891535824,-0.26770884700382,0.12256284014695717,0.6877225914214038,-0.06567733744307813,0.5141163760893153,-0.7305953691397187,-0.9002712355280194,-0.25648915532957406,-0.9101849801346871,0.3936399307975067,0.6597398143259807,0.34618211594021653,-0.5049097036335133,0.7765498735709231,-0.2309866406733887,-0.4035940087065577,0.1723969040171076,-0.7274342678790795,0.5530598455885869,-0.8481839061322436,-0.6571199015688991,-0.34287244476777023,-0.3043661367676065,0.5606786792181324,-0.03612058925124795,-0.6950668143836094,0.34243451951987947,-0.9013558587220709,-0.2847728849413511,0.25167361444405323,0.14326686378581566,0.47002649804352137,-0.34708342245331303],"bias_h0":[0.7874317283914996,0.2085446356206484,0.8886738654019788,0.984337343676835,0.3642270848630451,-0.2560291990584189,0.6276646892784956,-0.5428881531969183,0.6516300005619233,-0.3421580554257069,0.6567949770187376,-0.935831684035314,0.0646873175379159,-0.59297376265608,0.0049404104546202365,0.3409333256811413],"bias_h1":[0.507694640161501,-0.8553551328795961,0.07636325833994229,-0.23700242215463718,0.9695618839330957,0.5360557168112792,-0.8897685541176961,-0.14807073621456657,-0.1704645657155206,-0.6692373324651024,-0.9512213592328851,-0.8803051641328818,0.17589661721975447,-0.885683413296513,0.6808304620236942,0.010099322862578752],"bias_o":[-0.9824130109217128,0.46941695342016376,-0.9759601291309112,-0.04397405197992388]}