{"weights_ih":[0.9769142631645986,0.8759391197771929,0.3437107918916704,0.3851316157323055,0.20782253533653128,-0.7047968946164538,-0.25692171960921106,0.6131337409169546,-0.5936962832705817,0.9163692125323855,-0.34676471880063864,-0.9149991821419847,-0.908262751300231,0.5305498198865897,-0.3943100284159595,-0.23984248341022396,0.7347621307984602,-0.018675727019185073,0.8707171828029043,-0.013111820847838684,0.9994288442179928,-0.8556195776980122,-0.2995099037467186,0.6090432781874038,0.4559294146674704,-0.7367146824124697,-0.9943571763717385,0.5041162234788907,-0.8605322205407531,0.9063814089886235,-0.3906176356523092,-0.47692320606855687,0.20162480573310448,0.6540677357750655,0.06729746953161975,0.5211918741697026,-0.5873566632214353,-0.041021173794324683,0.784722801709212,-0.4374647637492932,-0.40577313987334285,-0.8463143115850456,0.3981272429034184,0.05951891693745104,-0.7327542140244467,0.7935352271760747,0.44403710023207776,-0.29258242887323593,-0.019362358663256085,-0.1469410889259153,-0.2825103112366949,-0.5588536279153344,-0.03234242539071763,0.6896094788261293,0.004672768426943641,0.7299017410091333,0.8163580968993771,0.4465950195460562,-0.5892552424374651,0.038005856962578966,-0.6981040176879763,-0.9750482591059937,0.9146222266060051,-0.9617880536212255,0.5648119661477344,-0.16298810984720724,-0.9323632581827082,0.8183574338916126,0.4916449439688657,-0.16101350135089487,0.8710885424129056,-0.46625837433790607,0.8237802760317112,-0.9300995899383029,0.3342481845466503,0.6482594939004802,0.32702728788556734,-0.893357365536259,0.0064812909963103404,0.6655478009037896,0.6703652427579256,-0.5205971049363789,0.7930803485693316,0.6850067429407856,-0.5882696273389088,0.7452315471329636,0.1116785954360302,0.7878434310221358,0.8508115281544943,0.1097323030940558,0.9860352136777522,-0.5330506102960051,0.6108645143836449,-0.3212116957991029,0.40441065542390975,-0.6381357090924455,0.12932050810438267,0.05895604328844861,-0.22020203698797136,0.09347073673590178,-0.4710501434934833,0.3626831817571663,0.029141691899204014,0.6368365820366355,-0.268625872004288,-0.9609750423204568,-0.6523494616557901,0.06050321219610755,-0.2565693359068364,-0.8132045734680731,0.38401605869627264,-0.16406842129267996,0.2950842132313112,-0.33159796580829193,0.2317009983010314,-0.9484279576097365,0.738449888070313,-0.9701663916880452,-0.0627147839597979,-0.6586244816201345,-0.33771441288140314,-0.7792619509634453,0.2505488709759578,-0.9301101079782816,0.07476925369213627,0.8420044796985604,-0.39000530952453216,0.4201965188487098,-0.19786849263889406,0.3764703902870339,-0.7013653448333421,0.09024506392044107,0.8052947203533891,0.7050232594033383,-0.818041343141753,0.11279590945419815,0.8696998313352386,0.3459655543785327,-0.701685515828149,-0.4205131291193609,-0.18362591359677638,0.9326278687430611,-0.3439906214270998,-0.9103564202744254,-0.44399447372132705,0.6303929600156652,-0.24913904429183797,-0.715520345659425,0.9113219721940247,0.569810261402603,0.8175092163871849,0.9411857991877499,0.4325818402589119,-0.8638397286503052,-0.7865469379050014,0.9525446414708516,-0.31992485783256597,-0.4748238014289563,-0.15131288606060322,-0.7766356905090122,-0.04564014323976129,0.11428637751991277,0.17745659813152503,-0.052404578610456554,-0.7825419738840675,0.15434165654936716,0.8028514540076799,-0.636072405276944,0.4634086025260138,-0.9648197592076131,0.5675867627251754,0.18974347370499278,0.2733629505572297,-0.04748599451164903,-0.501144343577419,-0.4560345479841279,0.715322679215699,-0.24411157242598236,0.47647893696121546,-0.9355479584621684,-0.486006503685837,-0.6651168691750458,-0.8398608704758803,0.15123727241387885,0.511572079814018,0.3342097152420822,-0.2814160283167113,-0.531187526478399,-0.49482284898582707,0.8392749092464085,0.7815256273259898,0.685511620387151,-0.12193799074004041,-0.24074756363800165,0.5857257746061073,-0.7818710901114503,-0.19034033216660595,-0.8332615957522547,-0.9524154852694402,-0.4766254869416773,-0.17516738426039757,-0.8296665315194509,0.82404048666916,0.48208677863097193,-0.9349527102805448,0.5662776211159473,-0.21293035232806856,-0.7699441803464033,-0.31736045779718847,-0.560549982395462,0.21550767017629902,0.6110350741869057,-0.1396562404929318,0.5753127945051033,-0.579961716359005,0.9305699119241579,-0.7711353826318854,0.8299345120261064,-0.9533606806493589,-0.3014365941972166,0.6079626907389106,0.5844378367794965,0.2851762561802118,0.608384095794511,0.7460120862898398,0.46552398960551544,0.925951067590181,-0.30966831682611695,-0.07770207858178346,0.8428310641202152,0.6650423084365147,-0.8715452885668751,-0.2717572134274193,-0.10399513708704466,-0.1994887636607685,-0.008273596422177398,-0.6748849721104238,0.6642130255478338,0.382616344686197,-0.16261622453752977,0.04470377102013834,0.19702098478082064,0.9290311792178272,-0.5613801325691987,-0.2914073433599309,0.42891487998873035,-0.16650996359996273,-0.8054273381188688,-0.7392589578153168,-0.6940899890453629,-0.5839528843119364,-0.49330488233041847,-0.16480469319132496,0.5131457202035372,0.04929244841496083,0.6550961686952743,-0.5939392279717599,-0.8246742154241269,0.9681687546536675,-0.9933382949294531,-0.23113083470428042,-0.7994892690098669,0.39304024812957383,-0.05600777194031403,-0.3982905508855734,0.34796264365693563,0.23840809694093767,-0.23413371350909662,0.42884326307978515,0.9051775047298598,0.7908404101786943,0.13541352900614978,0.42356026235899913,0.20297297062232245,-0.4529349489906691,0.27240233289856786,-0.7794266257531379,-0.9620869980006705,-0.7582028114610193,-0.09997798302709415,-0.48462022594700693,-0.44552751575909966,-0.8423317856090737,0.024990126997854967,-0.5121037089359903,-0.3247051475034004,-0.811333157644148,0.006199339467038767,-0.6348997464495101,0.042753887604824126,-0.9175468935612974,-0.6304798348007028,0.8068464290758026,0.7458261385090696,-0.9708237116334724,0.1112144339942609,0.6567721414904615,-0.41218211692904005,-0.8684372484189125,0.9122211623472114,0.6126644354918693,-0.5505275168826393,-0.39293570559035773,-0.9953599469809427,0.19783624326994165,0.18805949395541566,0.13291343719936277,-0.19896763928042782,0.18945000255741107,-0.8632175395628647,-0.5779752642488734,-0.9212801785204019,-0.41198916713153944,0.6215056943131128,0.9051889617672995,0.9058829113511511,0.35878183436340594,-0.5467881488335271,0.37519519382566613,-0.6145153194066413,-0.23959734421681245,-0.9891602475077725,0.43830813851039707,-0.15035613998130026,-0.4562146800871656,0.4359093762109283,0.99839622840543,0.24645348038783443,-0.12875816486986547,0.43285919414844654,0.2191503708877629,-0.6584594875573362,-0.190442876732138,0.2711503499075114,0.45190456246943733,0.11370309441297488,-0.7649651460495728,-0.20881246636793493,0.9970584490479928,-0.980369419305092,0.9208817968533762,-0.3644091328569332,-0.47033414751553515,-0.9082118001917525,0.104771412763907,-0.6907402347856981,-0.8146546518419999,-0.20360229417212272,-0.1936022377389166,-0.9296363540080241,-0.9471741404518703,-0.10506431763078594,0.9977469329053137,0.19664378048549347,0.5751258046922556,0.5478797113901737,0.15227370906469395,0.3315366680303422,-0.9490820866106291,0.5564099971709557,-0.8148847155388523,-0.24947927633411138,0.6615363260468123,0.6591147736717686,-0.4623958732112212,-0.5889143606786091,-0.4200065967880109,-0.4331016827265035,0.2733521075073355,0.7791545809152913,-0.6985563438888971,-0.22044512731976718,0.4964295098126492,-0.5432657134494558,0.5243268229408418,-0.2089799441978899,-0.375043782395204,-0.32562813158727977,-0.8875201892618563,-0.5617592631127157,-0.6105000562318963,-0.1470682221086177,0.8611894185443645,-0.20768107964089322,-0.0035504545160558454,-0.22618100670049968,-0.07710749005761475,0.7899696118122268,-0.5140765885651737,-0.10012714078727813,-0.6147888771859131,-0.12370624202847957,-0.24259317281511983,-0.3044612135201272,-0.175598201725927,-0.648752273818072,-0.3159472890404229,-0.6757973146707057,-0.5468055573723589,0.8403455277187541,-0.7913656343594815,-0.6091609629815644,0.5042167465816907,-0.40212447626623327,0.7038442060415719,-0.44444600009081214,0.7503293387176149,-0.027756621878403998,-0.4661196393679079,-0.7157157270443739,0.20270593333824527,0.7030561274283276,0.13583937841519433,0.21182868188412352,-0.695598214120448,0.38577954921909785,-0.1777610934401801,-0.612949516759757,0.22994991154175826,0.5979612432296677,-0.19706422879013408,0.22369598792737388,0.2958978341737215,-0.39198029461201656,-0.6292085987187463,-0.2761678000392176,-0.22849233444726913,0.4253137329980854,-0.9511637934931116,0.5027557250951467,0.4032402155522159,-0.16054714864329567,0.5242335283178974,-0.8001917525380111,0.12045064888669765,-0.74354097170535,-0.41950793506772954,0.9149178218569627,-0.03453488968308038,-0.2649752509773775,-0.3577960122879664,-0.8330161141909966,-0.4001617934489341,-0.039243512620186216,0.9784520140698241,0.6003060227701338,0.29807482325377155,0.45402713863038424],"weights_hh":[-0.3472176171319019,-0.6366238829843718,-0.24371085083706823,0.15365174814337257,0.3613174235312673,0.9381278840293026,0.5107154841184278,-0.6537306666885943,0.3643866237303841,-0.05018556392930007,-0.3267197826777106,-0.38473538863477175,0.6324891672927262,-0.8073763946931294,-0.02770294101060289,-0.16348399064049168,0.34133754001816596,-0.01812990479915877,0.5091069368481482,-0.03409591404822554,-0.2945474432658701,0.9942639050770752,-0.6840056273169985,-0.7381273679582603,-0.734584342024426,-0.5891790152610659,0.7448256311590442,0.6622166578408601,-0.20917245423986364,0.8517232416052793,0.9676633996261954,0.053160720777408965,0.05565958248757119,0.7561685220799292,0.8915642342714785,-0.18405569279817646,0.9469453135856796,0.18308191194672174,-0.793411713745303,-0.4907756133803396,-0.15508849964625826,-0.4256844385562568,-0.768124420606199,0.35917225247046547,0.279788812331319,0.4408901536642986,0.572596570568479,0.5936416673144049,-0.8317888042452128,0.2413957734887906,-0.2085478270761958,0.06997831272199151,0.7672376911950514,0.5658751600453826,0.30180023818768875,-0.7219636768325768,-0.268371449295421,-0.42398758457294705,-0.8466356882385941,0.266804597511497,-0.9212002854795016,-0.7978834056487631,0.47408179607166545,0.6679962765576213,-0.0021509864072557505,0.5264574139055225,-0.020385345323090887,0.6433352872671643,0.3456740583534834,0.35269815081227773,0.22434219163709002,0.7823159734268867,-0.921453915762827,0.5403979310885041,0.9421821551524303,-0.24879057106612557,0.5527057221954224,-0.7721378900744593,-0.1092615708050968,-0.07049154209698272,0.3807154948324032,-0.3052258127103049,0.6210529837154846,0.5615227194775343,0.9183234389544295,-0.7026684909297134,0.1801635426544348,-0.7125678076740432,-0.5986883052950551,0.15950775960500296,0.16545628121839462,-0.6399906537029982,0.22636295792328842,0.1494780300153038,0.46128592349755637,-0.017539614952915894,-0.3431914769697211,0.6064203983602579,0.5530976628186579,-0.05771874830557877,-0.507709191652784,-0.3157436012312447,-0.5656778375584293,-0.8621987379154226,0.5273436685673174,-0.15129581246279744,-0.14432849938832648,0.4636844787466132,0.5999556881864077,-0.33905753628596025,-0.7322681196863023,-0.9810448225623314,-0.8244332467063682,0.43203746861504433,0.26343959440448805,0.08816452673575692,-0.5599040168730651,0.9184034766744191,0.47470262602689917,0.802250572196791,-0.928423034236918,0.8150883580505088,-0.6983981750183861,0.37811574628578626,0.28951701000744223,0.6629498050476976,0.9606081696764055,-0.8715271748800397,-0.6821387484338541,-0.8969506253199486,-0.2622945533144052,0.316005139023805,0.15604034136835865,-0.12626054149501598,0.14022077609617312,0.12800187719584288,-0.4122565592667473,0.7767738000297033,0.802660860696957,-0.8037220036824779,0.43129088362151524,-0.11016869435270338,-0.19664330028533672,-0.3359051873735077,0.2407103951184999,0.7688260853705731,0.8834533560665738,-0.245621489923475,-0.20270360264579135,-0.8454844336105178,0.4339447093232356,-0.5715949785761367,0.41896269704305955,-0.9100553927191704,-0.45066189357860575,-0.017909288000489854,-0.6047178970269393,0.4079812595987278,0.383577198593019,-0.14441601108449453,-0.47973495584138637,0.9571613700175388,-0.9629399763487503,-0.052854507056542044,-0.5219980965402149,0.6521278502345753,0.28661987697967883,-0.20388382681871087,0.2608830999572542,0.007548210155322366,0.9010406123722094,-0.5163730818877521,-0.4959732765525251,-0.30637961628169674,0.36790596126873076,-0.6572697632298155,0.6967021366738875,0.633981678000461,0.775709446830946,-0.46537452553057523,0.34201580692290423,-0.2733168904183787,0.530155982224563,-0.7695068934764571,-0.8748277470663068,-0.8700357492726423,0.8226868601096127,-0.09612329943739728,-0.31797870264422645,0.07591315164947754,-0.1396608388918945,0.689182307644912,0.7728854178222906,0.5495454247237836,0.0950622347933252,0.3698992483381409,0.15283615191231292,-0.6643341033723271,0.7034464545736812,-0.592792667859023,-0.10904894812875776,-0.08262519286002412,0.7727532124304808,-0.11829326518267114,0.6119018023571496,0.4543165148845414,0.09304496725362066,0.4268673529364635,0.6572577319888251,0.8439297074310741,-0.16405463862435554,-0.9965918312504369,0.11132300817033425,0.51410288315543,-0.7558626200330034,0.16518563711266765,-0.31617461444432093,-0.06765622472074462,0.7526165290627209,0.05694335252842042,-0.8129386455085643,-0.6424643422348484,-0.4620283517558539,-0.15931708836798197,0.48770295663796914,0.48315524718811176,0.09268580607871613,0.21226446026781765,0.4290019496028974,-0.6589579851181306,0.04083394004042673,-0.9997197276497125,0.6188476855700691,0.1132680846110592,-0.7319619743805015,-0.0476441448688627,-0.2651085461788729,-0.6823409998456638,-0.8896021696913308,-0.2578915152459169,-0.46369828105198385,0.2168554901131423,0.5846322399841706,0.8156657963003613,0.49506907257210964,0.5055333421298616,-0.7297329938405028,0.801074658917569,0.44401776480521504,-0.3063272636278469,0.7883228836210578,-0.2542849030800809,0.2990962386522791,0.9274926188858679,-0.8536105210427118,-0.9356932860687261],"weights_ho":[0.9551084657377009,0.9342865403341007,0.5072165489088754,0.773933077974869,-0.7377424491383633,0.7045985001239845,0.5733157327561322,-0.05648099663170458,0.9844391115828712,-0.46810791411709785,0.4835539562110711,-0.17912009963594966,0.6898838797340519,-0.8525028387834417,-0.11288301769524178,0.18755857772579532,-0.9949378671297182,0.37030688203525264,0.7785035798305386,-0.8162169119239095,-0.9436995314697398,-0.002361737299154454,-0.5291373965738952,0.6822537715461894,0.14434283403347448,0.5270917879801913,0.4338102584051262,-0.7395993148982378,-0.5022304061188045,-0.6468877300311329,-0.40223284965058737,-0.323319595372213,-0.36091173879911453,-0.5630337779355079,0.06639017039817463,0.527501793069709,-0.6627008077974423,-0.436193451530017,-0.25648915532957406,0.11614064862621509,0.3936399307975067,0.6597398143259807,0.34618211594021653,-0.9631235357112786,0.08519883359563463,0.36305512017702957,0.2814096607636416,0.33229304275630445,-0.559826919059661,-0.17612753502581358,-0.7410381522982463,0.928363559230309,-0.9264759256150283,-0.06806734813540505,-0.4931314157241262,0.22470977872813025,-0.6950668143836094,0.34243451951987947,0.04298379033114763,-0.2217308364699282,-0.30253012229520126,0.6945404445096961,-0.11792301952136053,0.325886063766206],"bias_h0":[-0.2898248606630305,0.2085446356206484,0.13238317888988238,0.49649751534934494,0.9801793214675898,-0.2560291990584189,0.32936134567472597,-0.9459590807352445,-0.03853101771401635,-0.28891340115133834,0.8750387363422893,-0.07602551037463767,0.5142770706560353,-0.880261054786939,0.0049404104546202365,0.3409333256811413],"bias_h1":[0.28315983622717056,-0.8553551328795961,0.07636325833994229,0.38129985759739826,-0.7667340458927807,0.1472193887674993,0.7761684252407177,-0.04759423617254166,-0.3231770958354052,0.7334058334947782,0.6066939202747099,0.915625853100182,0.17589661721975447,0.014660272141729491,0.9325629035287759,0.16560883980756236],"bias_o":[0.30152621181674966,0.46941695342016376,-0.9759601291309112,0.8838749253162068]}