{"weights_ih":[-0.6764872607042078,-0.40340689746181746,0.812043711750033,-0.1842821860237014,0.6889480406425881,0.7740188797022773,0.11004457122238809,-0.4921723360370309,0.9645564594229399,0.7191662424749703,0.31076348543843624,-0.6550907734657505,0.6863638233376401,-0.8615765182252917,0.5123745579691985,0.42236862683042053,-0.696279752835572,0.8779790253789888,0.017019903766718913,0.8669825545083409,0.7489212830809393,-0.17048176243167412,-0.424782773944379,0.5700386153481825,-0.04516165855676468,-0.3635069480308144,0.3544348810064466,0.43792214407344865,0.4448430383387394,-0.438421384150139,-0.6484397936988295,-0.3564109170513783,-0.9092070282867886,-0.9697492274475876,0.5193748054863951,-0.5688673149803611,-0.6728578960448262,-0.29550043454101016,-0.46099269797697007,-0.9035156518416898,-0.4059609949304597,-0.25989144394165065,0.4736893874305006,0.85443054236618,0.277204065888045,-0.5947811646394359,0.38086813107395034,0.05529262887525577,-0.8176609042558969,0.9363774959361981,-0.3058109985347215,0.29986754706191254,-0.9014250341509915,0.27239210180691953,0.31044882632747717,-0.44373941039574416,0.1474299758041573,0.15444643952145154,0.6774824418458127,-0.12274461847328277,0.7823359135197834,-0.5581742933079576,-0.19500150334366406,0.9657242385121882,-0.3718656672955323,-0.6495303444576082,-0.995340142626425,-0.9896966778566321,-0.7824389639760843,-0.09270551557247986,-0.5522964838670108,0.7597493147919614,-0.5077733519176424,0.5472144946233204,0.3805358615342562,0.19642769162815354,0.5534034344806273,-0.9986196115662371,-0.1914507656477089,-0.6355558225082862,0.08185653819863314,0.5290910900449528,0.09367213858048018,-0.544399963687169,0.5328622281778164,0.05088741168926281,0.5868454411421791,0.2487721367242226,-0.9148573793612482,-0.5806066158972494,0.1532453829659004,0.728091067650553,-0.33942977776184247,-0.22889480706825505,-0.6278456549026179,0.14416907763283238,0.17309947829539318,0.8567145332839297,0.1551795489431631,0.19136757873079935,0.998264352581465,0.22511093832718032,-0.4133338734898331,0.028764185154209754,-0.19382445008912264,-0.42137574493601004,-0.3294877359558661,0.25956736443758865,0.5893074443841675,0.298891352763206,-0.9052678715521696,-0.2520238146390821,0.0294259615712269,-0.9436577784497349,-0.3879322705036099,-0.9950413590843352,0.6569368533067781,0.48794487034495715,0.9846264563191613,-0.6377201391803635,0.7522200146224689,0.1429752202958845,-0.7071332106976866,0.9935272439153766,0.017606861969728715,0.7186587154634236,0.056472033071653716,0.00836271994763571,-0.7244429369815626,-0.9557509506948678,0.07848392999618503,-0.15652156910349868,0.610930349197605,-0.683693783395978,-0.10319234988660475,0.9650541156216621,0.15017725471423615,0.4947609783139977,-0.8189263295133302,0.7443453253339922,0.25216684720733706,-0.5773548381633533,-0.6743466178304809,0.9033839530325132,-0.36560844290980943,-0.10586594537051819,0.686917959901058,0.5654442659611227,0.6570126277808694,-0.1078131908353388,-0.0010645141711467243,0.7536941872442295,0.051294721909937335,0.9607036531628346,0.4610635129750542,-0.9026908952415524,0.22288142144487422,0.9088129638941886,0.703380578218815,-0.10648200468438551,0.23878394063809938,-0.9941962407898568,0.10819819409770104,0.5316927420879096,-0.442025920225227,0.03658242200081263,-0.17960324294491703,-0.026636309506413047,-0.35842777270355075,0.005617956394614154,0.6927853207980059,-0.5545061771202295,0.2587524877180125,-0.75319744603721,-0.7054035032112302,0.6621082531601639,-0.15837499311943315,-0.5126703582156038,-0.2739821849315469,-0.09018482546465711,0.11010837691398945,0.2564719282533625,-0.4766637808124523,0.9990547218583692,0.06824377696127493,-0.5059107762433299,0.1390042988740836,0.5086092936407753,0.9726857979489656,-0.530605563440681,0.3865238950623193,-0.06413371422858516,-0.8639089822052726,-0.516231772237403,0.49717729408840916,0.29627562659896967,0.14143619262253204,0.9294774187690185,-0.5591210031197333,-0.09017712180239368,-0.574554874530333,-0.9256691166615607,-0.3460380952278619,-0.5376992815394297,-0.7157284186042048,0.35334204851223827,0.7005627588961367,-0.7185172170279341,0.3164664077442796,0.17216657915227507,-0.6380586569987916,0.1728708609592262,-0.876658564652222,0.7944373446758051,-0.927305259573699,-0.9032270691530482,-0.3263088285326936,-0.3078409700329392,0.10400547332652788,0.6651188300364956,-0.8257931304085551,0.16820991174376165,-0.896971474887047,-0.2905053729331324,-0.8280298984731767,0.0935220134268353,-0.8910770966823409,-0.34210402569391096,0.8119672820206523,-0.6007005139818355,0.8561853155721979,-0.0827544140348464,0.11898365929620769,-0.7580889459975655,-0.22370680498260143,-0.6306240147000803,-0.47430618583534545,-0.766010501676802,-0.6334821075393802,0.7292582272184605,-0.9032652621384554,0.9373140752714837,0.3246196235206307,-0.34345422498169476,-0.5248230285216184,-0.2932904973917827,-0.10314046859929338,0.10261596772389514,0.6846639881266317,0.1974392548512669,0.07834595279584944,-0.6323464589662557,-0.412638627098469,0.5376083950860311,0.24109293459413816,0.6509082703554456,0.8840798101665646,0.04445772440440954,-0.4610455462766161,-0.8162889541531677,-0.7585418754178888,-0.8613528220008131,-0.3307314195845712,0.03226756786139373,-0.358215580861319,0.6425505344269078,-0.6619100665928295,-0.10910040692072087,0.49309773253276346,-0.8222988483857492,0.23694936458615046,0.10862212464508536,0.598998034433456,0.6085131696384449,0.09509713326491465,-0.67273539403478,-0.21130127011582833,-0.040095836546067076,-0.13573910422689406,0.7609068121236742,-0.0080746130880891,0.5734309693451081,0.47887203876304274,-0.39861670297157015,-0.97431485802587,0.14064183303775035,0.08153730007764892,0.14830843600584398,0.8992355164884427,0.9171264114406872,0.8832223276123774,0.721226039795259,0.7747062554172002,0.6921896852044742,-0.2823337276499034,-0.8536703246311177,0.7471170973258225,0.4439814348689486,0.39542642331979305,-0.14311262736508956,0.7218618835382946,-0.1970903883342332,0.1894265687363228,0.5844032791033649,-0.06360925957266095,0.5990496269943251,-0.14424542340866164,0.5553957335437862,-0.28266854929174823,0.9732342456738035,-0.5092508935572826,0.9613937245954656,0.29646699457364245,-0.47344487937048485,-0.35900662289811835,0.7999103080652146,-0.514567758614829,0.8010186366427283,0.25675034712226097,0.497562419750857,-0.30225270304273977,0.24026119244624589,-0.008711623776148869,-0.2821910158552783,0.5935385119129917,0.0651656177536395,0.9725213104518855,-0.6971604870014487,-0.21454832794430678,-0.5454486740878699,-0.6578990648322194,-0.9095798212449981,-0.6791825442665094,0.9594182760275654,-0.6963816798404936,-0.8256375151460564,-0.2048914490327236,0.7931812904229705,0.028269010328724864,-0.7210174281138448,-0.34777792977296107,-0.05169855193706163,-0.6596634045644256,-0.20933356655933588,0.519825702497537,0.610393994046396,0.13106047151965217,0.8293089553868376,-0.8672109580748053,0.07633163009929378,-0.09032134988282148,0.14518139207119884,-0.4072571682043473,-0.529354225653937,0.7459832143821477,-0.9974317389793781,0.3154412843932839,0.4121987078404865,-0.6959344742655424,0.7043777174389094,-0.6378041140205679,0.7040934232110596,0.5652858904460532,-0.8402259987009231,0.839095868304627,0.18830140687924235,0.4110824703106104,-0.47238907322621304,-0.5187496513845373,-0.7275154885481332,-0.7085357660764777,-0.312510109698376,-0.003170988462662061,0.1447874414316601,-0.6894738558563296,-0.09420972101228586,0.8869955900682633,-0.2972497566221608,0.00866216781842466,0.9869723391509448,0.0754286627108458,0.47923385488900627,-0.57094826582092,0.9771273874845803,0.5244192464822115,0.11536064370522991,0.37408782456011425,-0.9837770120254832,-0.487239406896649,-0.37184912928146985,0.02601743134948764,-0.03200712262831229,0.9654064204317301,0.6245846343423267,-0.666483044878385,-0.5745425627780809,0.028070543319687724,-0.5076973558660258,0.5346658334402312,-0.8273437861327588,0.4386000923546314,0.7459794159751354,-0.5176789746396424,0.8703162616779672,0.37455271789630196,0.6605828624896966,-0.798159683746386,-0.23497337337630952,-0.14846953869731272,0.38004568542251893,0.44095673269258673,0.13626034301888446,-0.4118087146939837,0.7069771959610676,0.2518473999767985,0.9699768870709713,-0.647009223951994,0.3517521554641121,0.7142356859861272,-0.16069622584768206,-0.42224048491907906,-0.5854659254905326,0.7718193733886951,-0.24209468111052446,-0.34599326263990204,0.8333866039561877,0.5444166621183442,0.30536663411559917,-0.8102309780171748,-0.456387383077667,-0.8664018204098853,-0.20783489681917455,0.4975149705350337,0.9239538927455047,-0.537022433718717,0.5409253017511715,-0.4920743434043444,-0.2666720537771501,0.15358928580859144,-0.14354466534975674,0.7346562336087903,-0.5157462792344505,-0.27472549120960643,0.0769010425726957,0.8885613708423228,0.37744814859505293,0.5426415372822706,0.1127360448592789],"weights_hh":[0.3604903931399961,-0.48615331467047684,0.56051796457392,0.39170043989097336,-0.9187246130021209,-0.18011600928947202,-0.4138769633602548,-0.32737956549943936,0.5436195803183348,0.5759103886833878,0.5917044945680572,-0.5040834519989905,-0.6201317448073436,0.2517611499637904,-0.5133616099219462,-0.3483272922109173,0.8548174559323396,0.28176942382356596,0.6862945568851777,0.2742597961903408,0.2543177794281035,-0.7813542186744951,0.9925915929194951,-0.46287593262160254,-0.14959479861989466,0.9169840017634006,0.7954026010016984,0.09947764762811007,-0.5612533937104525,-0.5432896454686511,0.7109922325788816,0.9844249233425257,-0.4487351721927091,-0.8029307979665463,-0.6371011695126108,-0.14246087046809408,-0.5458262896172339,-0.3097174264759688,0.3438750268655133,-0.7406465767518631,0.6742282338909837,0.3086939287514414,0.9415607408608668,0.8224946852097066,-0.7119562552194589,-0.20834351851704325,0.11443289900920606,0.42314722417801187,-0.4668239483586327,-0.632391373661247,0.434890516524558,0.30918189624388437,-0.9808392653099536,-0.5856356053709855,-0.8989915488275209,0.6361263065902252,0.29752697070032696,0.9326141546913334,0.49272430242106147,-0.5526058598001089,-0.08119852189813259,-0.4864731955190764,-0.8571512944019233,-0.428542323736385,-0.9352658642875649,0.36902598472474835,0.3047724376865215,0.8450368626358182,-0.6634668075770278,-0.5766623027009077,0.11109822226095267,-0.5515570204623836,-0.0398204525199215,0.9095917108198728,0.07080830186911835,0.42213253549973584,0.10203737617204789,-0.27598342248743934,0.4152187948401389,-0.18413055768435505,0.9919724419064981,-0.7617952994088488,0.7491835776099622,-0.35337054514304245,0.4490107296209196,0.8878634585487657,0.43926621609568905,-0.9493231719105906,0.9134885639083163,-0.5998780156494761,-0.14393474374070014,-0.10171231530296976,-0.039967510087487446,-0.11585755429744804,0.18920778850648956,-0.2727794071347778,-0.34510218361821066,0.015373728468959236,-0.15904739968443637,0.9524473787587617,0.8131351716841804,0.8466280004065543,0.2397241313096281,0.9826750933195796,0.7441382890189581,-0.16854535036398932,0.09024352751445686,-0.7446710930470375,0.9443344039899098,-0.5220380251362828,-0.4191036919390796,-0.6815094521162741,-0.889361660319538,0.9393938093951331,0.5057867267191751,0.04297729782368198,-0.9141020717516892,0.6485073955324756,0.6064177190256475,-0.48949325817530576,-0.6341947739010312,-0.3910147738446772,-0.12559096970458383,-0.33331199049587235,-0.27384240110187097,-0.22097454869809185,0.3522954946750605,0.09786794948801525,-0.576021604557811,-0.6202525557089771,0.7493212103661178,0.9590527362169401,-0.939789322263205,-0.18222447262686003,0.4964423507925484,-0.641111836344042,-0.36988304161322394,0.9538709705627244,0.5772365125147425,0.8332313699552356,0.312069303597591,0.7635085308261478,0.5728913977855716,0.8388171172844192,0.34272602563914045,0.32634380725910694,-0.8110408219834673,0.07206522195789078,0.22165514068978487,-0.22898370449113803,0.465221919740211,-0.8804058833439712,-0.8953698273246675,-0.7209272185105389,-0.5545482100544512,-0.0016135997085984233,-0.921104398996933,-0.0808462829230423,-0.36189715378701237,0.9889362568828413,-0.2419340429174821,-0.826609785979993,0.4534887752290415,-0.8884099208055853,-0.5401288922633485,0.946919618083752,-0.09735547045615078,0.4723719452085766,0.4322853258280819,0.008020295601377958,0.19075150538491847,0.7905163442249732,-0.0052110169753762925,0.4946392053027453,0.3015932965037178,-0.39380357569078517,0.24162963736633736,-0.18927619367789106,0.33599125957187415,0.837011485691995,-0.1644023207662222,0.9006754041374823,-0.4346647794977736,-0.8498021219509011,-0.982488516008799,-0.5614494612548155,0.7283138220847427,-0.6403028874013093,0.7250168748593397,-0.8807659603166118,0.8782026329631296,0.3750262827478461,-0.8379037166268708,-0.8013979876555846,-0.05632107244109874,-0.04316632503891782,0.09883234081839798,0.532408942190324,0.25199185410740066,-0.27317189028277356,-0.3824919379528402,0.9472969935648436,0.6867806314178915,-0.7795525760806332,0.029115380060465545,0.16429111986673606,-0.2922254676151357,0.30786237928366145,-0.24042558711784578,0.2327314331693966,0.13955599974335553,-0.2157862394611587,-0.9183648895428018,0.5396359927258467,-0.6041110927034199,0.05398309159062431,-0.31576308554157095,0.75399147329352,0.4086606719221284,-0.3246324990357188,-0.03192099838790319,0.7073510800398279,-0.5523578283601056,0.5948374707045383,0.47311285921817614,-0.5212432020337037,-0.6234495860831524,-0.907645748079974,0.10993585783490967,0.8767543288636563,0.3977002568492267,0.924095424704894,0.3353085261556472,-0.8110904251256459,-0.3229964065195241,-0.2707859678650264,-0.14731816790356222,0.7034044307018201,0.3915030883993702,-0.6063920369827156,0.2468938677387862,-0.980944320246165,0.5517153218085062,-0.8382952683859242,-0.1847456557871645,-0.7692018171580219,0.13935508749084735,0.03655827207704987,-0.21205452019389193,-0.4988450359829548,-0.012458675951062315,-0.9799140447053372,-0.9981231301144526,-0.2059862675069688,-0.11923425549194189,0.3922611486757117],"weights_ho":[0.7035342262959352,0.3234815807597473,-0.28053337327257877,0.030502116559177228,-0.2130518890776023,0.7353118882738612,-0.2690919350135321,0.7951435949228098,-0.9265297906215124,-0.9977230135416413,0.1455381390813637,0.20816976014022193,-0.3519311437518049,0.26364718242073604,-0.9062462409878977,0.7831313766170958,0.1945855989248555,0.5264958407519384,0.8105652571195661,-0.6402998648890641,-0.7032226066312879,0.423603621309701,0.9887718049150789,-0.04858893183448609,0.7627212504198682,0.29130724930259255,-0.5638709371689299,0.43808313106277774,-0.5569963756250753,-0.8380167985970253,0.507806552444019,-0.26770884700382,0.12256284014695717,0.6877225914214038,-0.06567733744307813,-0.7906278048033888,-0.7305953691397187,0.6887360808892173,-0.48850685748764255,-0.9101849801346871,0.1844601096744516,-0.8926326376109999,0.48195062971048763,-0.8933793345652212,-0.6220564038875509,0.749778185384933,-0.4035940087065577,0.1723969040171076,-0.7274342678790795,0.06155373821405963,-0.10180483158352271,-0.8661015342045812,0.8791070443279725,0.15354812343265833,0.13379441702974293,0.11668123101005468,-0.0018389913847776107,-0.9276902100690141,0.8072220442988338,-0.2847728849413511,0.25167361444405323,0.14326686378581566,0.08930411054184528,-0.5486682044878564],"bias_h0":[0.7874317283914996,0.7656569944522378,0.03911950817883025,0.10874282902687038,0.410036740639123,0.2823113785294775,0.33266061401809943,-0.48735640564609506,0.6516300005619233,0.018567797493972638,0.6567949770187376,-0.935831684035314,0.0646873175379159,-0.59297376265608,0.7951247292966337,0.19613028776747554],"bias_h1":[-0.29635613922759907,-0.5412683371979563,-0.6914088150329749,-0.9584449981788177,-0.9385405885202558,0.6395755867422803,-0.8897685541176961,0.5933625515619985,-0.24463112539503262,-0.6692373324651024,-0.9512213592328851,0.09929481007910712,-0.1388070845260636,-0.5261523100398438,-0.8280941910267792,0.010099322862578752],"bias_o":[-0.23121610428339556,-0.7107396315106151,0.17779522788496216,-0.04397405197992388]}