{"weights_ih":[-0.2210790458936165,-0.9593309239860588,-0.7471248306423441,-0.8393797601053916,-0.04069351808757915,-0.4504301019704655,0.264616718081631,0.6131337409169546,-0.14067628777284846,0.9163692125323855,-0.4151333099202539,-0.2850329635457476,0.43541543958936013,-0.9958245944840052,0.31959084036306207,0.09944898898708021,-0.34169731476675635,0.017811017847300104,-0.06153790070451248,-0.5124444999937825,0.8641623480278979,-0.07427731758438494,0.7579347615827137,0.6090432781874038,0.4559294146674704,0.7677720518723481,-0.9123864711655105,0.421909500773034,0.02018891062083239,-0.8377980579977673,-0.9711059121434227,0.3804100014572338,0.20162480573310448,0.7792022745655447,-0.9745018532051719,0.9403568392400321,0.8242171050156204,-0.4081061497514451,0.7167982779355906,-0.4374647637492932,-0.7936159341936313,-0.8463143115850456,-0.024192219352091815,0.17910962699531496,0.8245630717294918,-0.01318718533230534,0.9300638611785113,-0.29258242887323593,-0.37490784527207266,-0.4502449482278652,-0.2825103112366949,-0.18812452033325955,0.6921599684418396,-0.4877692999015122,-0.6773736473432024,-0.9884979235923788,0.6898470512389234,0.2834087425786833,-0.8946659445074212,-0.834688430448068,-0.8407778976487017,0.9790626542389049,0.9146222266060051,-0.7331814047152456,0.534642000847044,-0.3011186684782423,0.6328243820086437,-0.5730393825689017,-0.630037845965358,0.6389480644609087,0.3236231999572792,0.36475661325498177,-0.9255677710946097,-0.9300995899383029,0.3342481845466503,0.6482594939004802,0.32702728788556734,-0.46143941709528913,-0.5649811081043454,0.5282819188671009,0.9700943250417497,0.3466323205462334,-0.7254864396845884,0.6850067429407856,-0.5360810085365257,0.24185221372660903,0.6703532051412788,0.7828310265636751,0.8508115281544943,-0.8453309068935997,0.13538297615797146,0.6503591717136681,-0.5850453497489536,-0.7922131446592342,0.12246705478830688,0.6682366456118243,-0.1801725487345709,0.9035443050896912,-0.608880247708206,0.4959141699926699,-0.4710501434934833,0.18723512173799883,0.42958601155467324,0.6368365820366355,-0.9899918196295296,-0.9609750423204568,0.4354188911313619,-0.012760641412380647,0.36814047718366116,-0.22273288031368343,0.16472653234562573,-0.015085736977299202,0.49085727822305447,0.2078230338867748,0.2317009983010314,-0.9532628547416533,0.2355291236474526,-0.5089046062087992,0.9436297549060444,-0.29275491474656645,0.13932316102803344,0.49448249330628924,0.841088327990207,-0.6017907539372016,-0.1576068891921587,-0.3207251460835594,0.780715677633733,0.4201965188487098,-0.24228268085777827,0.3764703902870339,-0.1508833736777162,0.6472609306679631,-0.6590253527629302,0.7050232594033383,0.21719570237736074,-0.48253020107043554,0.4063538737418735,0.05084619563425585,0.48870424186858386,-0.9257974256155601,0.0005523256245354435,-0.43239628303726074,0.21089594283668345,-0.9103564202744254,-0.44399447372132705,0.24131068889174734,0.10990357398600237,0.26629422856037177,-0.8240738030426409,-0.0726247323564495,-0.24925268312846516,-0.37730473031230605,0.4325818402589119,-0.19170947361983415,-0.7865469379050014,-0.5398336842786922,0.38853264889006356,-0.4748238014289563,-0.14872505821003457,-0.7766356905090122,-0.04564014323976129,-0.04213731114085251,0.43313153783585445,-0.052404578610456554,-0.8879253863163639,-0.25298101335313694,-0.08945327628408495,-0.18396434433611253,0.4634086025260138,0.8922485385462648,0.09789353698489012,0.9247644824125476,-0.6640506222536178,-0.04748599451164903,-0.5780359480790664,0.11166332523755673,-0.5997786980241344,-0.24411157242598236,0.47647893696121546,-0.9355479584621684,-0.655261101988678,-0.1651311430830047,-0.8398608704758803,-0.49715163297252785,0.511572079814018,-0.8790456492340799,-0.2814160283167113,0.17513088661458753,-0.6920282425313071,0.41727565190942406,0.6351256033860486,0.685511620387151,0.41515868611995255,-0.0592512077249181,-0.9442906795047588,-0.7818710901114503,-0.540388648211769,-0.6893471078428313,-0.9524154852694402,-0.4766254869416773,-0.7190990310841607,-0.8296665315194509,0.82404048666916,-0.6925248519979346,-0.8438210189639166,-0.28117241080120214,0.23223850512722932,0.6545714423166276,0.33175422394047227,0.21096496795209885,0.21550767017629902,0.15806827461912154,-0.46761825741977847,-0.3478751901815036,-0.579961716359005,0.4883892832873846,-0.30763307969249665,-0.40641918966775226,-0.9533606806493589,-0.3014365941972166,0.6079626907389106,0.5844378367794965,0.2851762561802118,0.6313528661558194,0.37301396894554273,-0.926270437169523,-0.40231547012405944,-0.30966831682611695,0.24162501582440665,0.896841668334385,0.7367246638247531,0.46295144830437485,-0.9723299707826587,-0.10399513708704466,0.5802842014226779,0.43846452674021097,0.38144258025110656,0.6642130255478338,-0.3026652379634527,-0.3021266974218213,0.08016532592036141,-0.19428531231212398,-0.07243965257699281,0.1900845548659238,-0.6432737916602771,0.42891487998873035,0.7096363953242966,-0.7657379221024003,0.062290094899753345,-0.8592908273139555,0.39771081703403954,-0.13801535530227693,-0.7085706196256378,-0.47414183037206925,-0.6006608394351169,0.6550961686952743,-0.19779248827942952,-0.8246742154241269,0.11377501656316724,-0.6446152092172754,0.15670755996057362,0.2549479064671645,-0.6906557681751724,-0.5959956962353952,0.5560047314057204,0.34796264365693563,0.7595388560791592,-0.7962408882529153,-0.2645786542025075,0.3976588824883507,0.7908404101786943,0.13541352900614978,-0.8428785980762536,0.20297297062232245,-0.32969633840078094,0.5781588456879605,-0.9692957854311832,-0.37574597771233065,-0.29139769151006933,-0.9788555677580784,0.09324052233047886,-0.44552751575909966,0.790850248697033,0.46545247802348766,-0.07987945444003541,0.8316996393041698,0.4701784337649666,-0.5956144135869605,-0.9597531205719831,0.05820047441035925,0.5165940972624612,-0.6304798348007028,0.8068464290758026,0.7458261385090696,-0.9708237116334724,0.1112144339942609,-0.7005989924805922,0.827525636173335,-0.8693560762723893,0.9122211623472114,0.29770054167110915,-0.5505275168826393,-0.39293570559035773,-0.18857559224706755,-0.7221005876171702,0.3953224351592015,-0.5545366171404473,-0.47372372904094906,0.18945000255741107,0.6704100640481077,-0.5779752642488734,0.4582431636490454,-0.9565193860748302,0.26620513961607917,-0.7639075642459563,-0.22043411743599894,0.961658493124879,-0.4854496332548106,0.37519519382566613,0.9449630176547752,-0.7227237222638374,-0.16366997870391486,0.7731299937701519,-0.59722832750036,-0.8756965782768293,-0.989412039387086,0.99839622840543,0.7764642607050791,-0.9366851909121889,-0.4578926960278511,0.43026321033168546,-0.08788390310121885,0.6698727308094989,0.860437457816964,-0.5867112030137835,0.6745888393794908,0.4668645767014874,0.662316235868414,0.9248914845627454,0.18478112351832943,0.5881065129372633,-0.7154579289077634,-0.8743334835383776,0.5245796855383691,0.833346362279187,-0.726565016734952,0.2320120965047776,-0.5575697086488867,-0.9043661642332887,-0.07339905492366605,-0.9091912213933777,-0.24737162300773208,0.19830528292549054,-0.43299718383602115,-0.6744770827671385,-0.8862504613740825,-0.11862793996621446,0.3315366680303422,0.9236556809543497,0.5462757745675477,-0.8148847155388523,0.9090588255613823,0.273861857196523,0.6591147736717686,0.15313391220138284,0.025999981415349982,0.47875282641421224,0.8304816661114363,-0.42224442014818653,-0.5366715002116718,-0.5337520634306521,-0.2119348305659845,-0.6512650534338968,-0.6550122843454809,0.5243268229408418,-0.7864743293105476,-0.375043782395204,0.48837173095926967,-0.13956030495146643,0.593404774853939,-0.6105000562318963,-0.1470682221086177,-0.8709169307766265,0.4561428711611166,-0.9331173628867813,-0.5130391895163875,-0.07710749005761475,0.7899696118122268,0.3586898833099401,0.9180577072793601,-0.6147888771859131,0.9510487719377019,0.5232211464771139,-0.3044612135201272,-0.175598201725927,-0.9414106753878908,0.7146134186408648,-0.6757973146707057,-0.8654901091549767,0.062031475618466336,0.8850055942942214,-0.6091609629815644,0.5042167465816907,0.1651003756805307,0.7081463159907835,-0.2216192063809692,0.16946326305995396,0.04592936179587159,0.7891072492865936,-0.7157157270443739,0.6911338365594628,-0.7785331135909555,0.667349638317591,-0.35825654757861636,-0.695598214120448,0.38577954921909785,-0.9204890457321468,-0.17859103485943995,0.9495769890311889,0.5979612432296677,-0.4321816974315418,-0.33642021421253143,0.2958978341737215,0.5616459041277719,0.4494758942929904,0.1821462909520668,-0.22849233444726913,0.46492534433372157,0.41366028277228173,-0.21316194302460167,-0.05494894171243825,-0.8246865431792199,-0.6596145527024093,0.8397994179074437,0.12045064888669765,0.5834140645837584,-0.41950793506772954,0.9149178218569627,0.7005757959817585,-0.9710167680908104,-0.3577960122879664,-0.7506738005541551,-0.07167946273024928,-0.5790835759806026,-0.6699445806124433,0.22634613147781746,0.9530688180049736,0.45402713863038424],"weights_hh":[0.40205011819089376,-0.11500469624717247,-0.8655604786477087,0.15365174814337257,-0.6284233375051871,0.9381278840293026,-0.9279104401373985,-0.6644472858338111,0.3643866237303841,0.4369058238766492,-0.3267197826777106,0.9317622859662467,0.4642160268473443,0.6466731251038684,-0.02770294101060289,-0.16348399064049168,-0.08006756908456958,0.25868892588212655,-0.42622046785566536,0.3211635372698891,-0.8594289636050976,-0.4791698278481542,0.18901324974327793,-0.7381273679582603,-0.985333065820476,-0.5891790152610659,0.7448256311590442,0.902029654831561,-0.2913877504746014,-0.515146197215367,0.1544647233486225,-0.02091489308140959,0.1671807462428494,0.7561685220799292,0.7321033913119761,-0.18405569279817646,0.7962846253544589,-0.8767362827155456,-0.08413427928566053,0.7808689590282112,-0.9429452913067657,0.8010064517079096,-0.768124420606199,0.35917225247046547,0.9738271454609655,-0.9535276654405342,0.0899538566288467,0.2392036714201229,-0.4985123427586349,0.2413957734887906,-0.2085478270761958,0.06997831272199151,0.3032092694598494,0.5658751600453826,0.30180023818768875,-0.251205775284163,-0.7688638617692949,-0.42398758457294705,-0.750549373022676,0.9882869551833928,-0.8001624975794961,-0.6658310919401047,-0.3985912730960981,-0.776870502034479,0.06910188126847827,-0.061098033131142815,-0.9721209729350204,0.6433352872671643,0.3456740583534834,-0.8382323206776101,-0.7098861618937218,-0.5482168368699156,-0.921453915762827,0.5851859297112731,0.2288926318299691,0.16662904571116277,-0.7169311686475923,-0.533597629857806,-0.1092615708050968,0.17999124366279107,-0.8508447992380628,0.9789688698238674,-0.7899661273389997,0.5615227194775343,0.11809606409035811,-0.7026684909297134,0.1801635426544348,-0.7125678076740432,0.29579330769677914,0.056660799423786656,0.7932389909472533,0.9828147394107773,-0.4344876224987817,0.6765084047408902,0.46128592349755637,0.9996897072816247,0.5412735909559863,-0.253767908756904,-0.6414237925283288,0.6542540647076347,-0.507709191652784,0.019151027493006678,-0.9724972859927661,-0.49159520340129825,0.8017388275767348,-0.6048717600871321,-0.14432849938832648,-0.7639221630737882,0.6408729907396784,-0.036039547695125185,-0.7322681196863023,-0.12717008501455718,-0.6975824981528191,0.9908724723265185,0.26343959440448805,0.04572855205043869,0.03874344609226554,0.9184034766744191,-0.3768658650737726,0.802250572196791,-0.928423034236918,-0.1430872038009341,0.3285071720233037,-0.27735525939963335,0.28951701000744223,0.5639825423329672,0.9606081696764055,0.08698973784521336,-0.6030975077983312,-0.8969506253199486,0.8940271503903845,0.23871981933831177,0.03166639832620799,-0.19241348884645526,-0.2160913906479418,-0.2036040371634238,-0.4122565592667473,0.7772528601839799,-0.1027476986216489,-0.8037220036824779,-0.8105129974050909,-0.27267771609908076,0.9855718669181495,0.9926629106748828,0.29307240281078273,0.9867802699487673,0.03898373596956439,-0.5656529315278505,0.48551956422545994,0.5363696945359291,-0.20378908316739452,-0.5715949785761367,0.3664372808713068,-0.3547004598899346,-0.45066189357860575,-0.017909288000489854,0.7882822195663073,0.4079812595987278,0.2412935926267772,-0.65444303246159,-0.47973495584138637,-0.3191396435385587,0.20911094879785952,-0.6012386954300175,-0.5219980965402149,0.6521278502345753,-0.07665345070674423,-0.20388382681871087,0.2875322322838323,-0.22947833513499805,-0.4758839045355472,-0.5163730818877521,0.9699608569932274,-0.9735418194103658,-0.7144806536198218,0.9998736511297648,0.8326318893312852,0.9802984559741643,0.4451303976684031,0.8764552742978347,0.1737116984384235,-0.2733168904183787,0.843083994929064,-0.8241197994718832,-0.8748277470663068,-0.8483855728519558,0.585043973048754,-0.08292848875342096,0.4692419270379724,-0.6477670654025469,-0.5188069052501443,-0.10597641185639883,0.946331686586311,0.8205181707041882,0.45858956439914134,0.3580539623466916,0.48455978318960735,0.2924211010470257,0.9204187738542609,-0.592792667859023,-0.10904894812875776,-0.653589840756835,0.7727532124304808,0.4004828870846111,-0.7113676366747068,0.4543165148845414,0.8143465459131072,0.4268673529364635,-0.18453921616254676,0.8439297074310741,0.3566312780457537,-0.9965918312504369,-0.3546231931497321,-0.8058723280937417,0.7551612263616694,-0.4034219730901589,0.6822584961643776,-0.06765622472074462,0.5163939814949681,-0.5471010187638781,-0.8628395249119647,0.679975520253022,-0.2707490760183786,-0.21886894234905974,0.48770295663796914,0.48315524718811176,0.09268580607871613,0.5612004265766242,0.4290019496028974,-0.6589579851181306,-0.4005701786633571,0.4381327477583654,0.21722557945797383,0.4107995276791925,-0.04577707306357248,-0.9843215249940953,0.801035689858818,-0.6823409998456638,-0.29698663248811674,-0.14803857746761717,-0.2629969306881672,-0.7052802115410073,-0.42517923059310014,-0.9066554446637669,0.49506907257210964,-0.4509890621185728,0.7471896766899009,-0.32627882896504623,-0.831044763967127,-0.8006015603211087,-0.32547155215350765,-0.2542849030800809,0.2990962386522791,0.9274926188858679,0.8414516947538806,0.8211057256510768],"weights_ho":[0.4325179747810515,-0.5747607988432015,0.23470088380634135,0.6105457078931282,-0.7377424491383633,0.7422660123935598,-0.13329757813173893,-0.05648099663170458,-0.48355845095728656,-0.46810791411709785,-0.5228623756996662,0.6611953240869877,-0.39405111563682715,-0.16834283716078247,-0.6377020577883412,0.5848600987745132,0.6077042499560159,-0.9766510025834592,0.5917716210472943,-0.8162169119239095,0.8187108429021057,-0.8122747136320223,-0.5291373965738952,0.7988834132146205,-0.2670299396367688,0.11000086096137096,0.35388965798988425,0.9876873376318656,-0.0007824415374926286,0.12144239281043401,0.4850742332283886,-0.9830351319357542,0.8094667096902677,-0.5630337779355079,0.5762204583836876,0.5141163760893153,-0.03570634533161887,-0.16791447981216323,0.4058490131978183,0.11614064862621509,0.6863697457746107,-0.8108974990637778,-0.7458545622228814,-0.5049097036335133,-0.9007229615231642,-0.9857142102530396,0.2814096607636416,0.568758161516892,-0.559826919059661,-0.6877349065983531,0.7748095409679454,0.928363559230309,0.6570957044645742,0.38408567238439995,0.5606786792181324,0.22470977872813025,-0.6950668143836094,0.34243451951987947,0.4989868537364086,0.7979477413195772,-0.8168881121208109,0.5988467426012518,0.47002649804352137,0.325886063766206],"bias_h0":[0.10982153360894786,0.2085446356206484,0.13238317888988238,-0.9127133541275703,-0.8882277154336387,-0.2560291990584189,-0.4222902651839482,-0.5428881531969183,-0.5950690570255475,0.0678255898297273,0.29822204717125733,-0.07602551037463767,0.4951129844307718,-0.240309130946053,0.0049404104546202365,0.6138623543456707],"bias_h1":[0.507694640161501,-0.8553551328795961,0.07636325833994229,0.6817629243019274,0.9699786940074064,-0.8042408816697955,0.3130316515008449,-0.14807073621456657,-0.7555093410727425,0.7334058334947782,0.8803444892627967,-0.8904185692254676,0.17589661721975447,-0.8376253424725133,0.6808304620236942,-0.10606184482670877],"bias_o":[0.04284218333833034,0.40285718595402376,0.5890792996095404,0.62393500358271]}