{"weights_ih":[0.793954498405814,0.4307500912274296,-0.7471248306423441,0.6541224435468833,-0.7869239553163669,0.4933062157101056,-0.5345785322147432,0.4569679996620857,-0.283852350493206,0.9163692125323855,-0.34676471880063864,-0.13885121271210688,0.5122841328101226,-0.9958245944840052,0.40659173568120544,-0.6495943955895997,-0.34169731476675635,0.886490868885941,0.2683228521694354,-0.9630367202102534,0.5017029467107557,-0.07427731758438494,0.07455130522813613,0.6090432781874038,0.4559294146674704,-0.8502884998095381,0.6998260638213634,0.5041162234788907,0.20484581132936452,0.9063814089886235,-0.3906176356523092,0.9174067922722016,0.20162480573310448,0.7792022745655447,-0.24163441103256877,0.9403568392400321,-0.6699235268242727,-0.041021173794324683,-0.051670978514887,-0.36622971611861366,-0.7936159341936313,-0.8463143115850456,-0.25855762202208155,-0.330998910582748,0.4107698758561422,-0.33326151935071135,0.7397893150260022,-0.16550863006819805,-0.41310540210990765,-0.8984345562707667,-0.2825103112366949,-0.7750085104766771,-0.6085075353998695,-0.4877692999015122,0.6575933496601103,-0.46271131927756426,-0.8966783559053781,-0.8144665618739664,-0.5892552424374651,0.5868927759540536,0.22992726663181773,-0.9750482591059937,0.1306174508736475,-0.4460606267535072,0.9498068788573582,0.1495825727449136,-0.931886299381401,0.20621068977443735,0.8168081491017047,0.6389480644609087,-0.7167691025544505,0.15569875601341732,0.865025688572425,-0.9300995899383029,0.3181821758005139,0.39484054317663175,0.32702728788556734,0.3460290845242284,-0.23945297402401966,0.5685140297016467,-0.6818732072277993,-0.7916891262765797,0.13454247407536934,0.6850067429407856,-0.5360810085365257,0.5824193003799858,0.15203290456706142,0.381494822091587,0.5523104310399802,-0.331233138785872,0.9357795384348659,0.8581003732326338,-0.5850453497489536,0.7464194560016866,0.15081823941592787,0.6682366456118243,-0.1801725487345709,-0.5168002833619163,-0.22020203698797136,0.35425350864889293,0.041018181448719604,-0.2404238659351572,-0.7260526953068942,0.6368365820366355,-0.9899918196295296,-0.9609750423204568,0.4354188911313619,-0.5751734642098685,0.36814047718366116,-0.11465458471236811,0.6390794248625349,0.37303818760467333,0.9970737253507662,0.5370828466300333,0.2317009983010314,0.22590390890189638,0.9435302310033487,0.2891902616401161,0.9436297549060444,-0.5492700186640995,0.561858515702482,-0.3531407898605945,0.841960805502387,0.43502018015561617,-0.55987465727989,0.2106818805895947,0.8811803619275203,0.4201965188487098,-0.761380863225283,0.3764703902870339,0.9909881933575624,-0.6805824882764251,-0.3879865330626955,0.7050232594033383,0.4892550679266552,0.5845765060262083,0.4063538737418735,0.6554703705071383,0.7530171250853908,-0.885987588359296,-0.4843587352590053,0.1746203373748374,-0.8301014137169145,-0.148036062102481,0.9103295910764637,0.5469167632812189,-0.24913904429183797,-0.715520345659425,-0.3008579206391835,0.19459594872250374,0.2976107927554541,0.01993467122717041,0.4428185945416696,-0.8638397286503052,-0.45319399344146305,-0.03578248003879314,-0.31992485783256597,-0.9922370053110823,-0.9847356370318467,-0.7766356905090122,-0.04564014323976129,-0.41070132388230474,0.9890171745312919,-0.052404578610456554,0.37917062617109676,0.05068724459801954,0.9483021444930202,-0.12351554409147081,0.4634086025260138,-0.7043093285046162,-0.327346734272423,0.00767663523229456,0.2733629505572297,-0.04748599451164903,-0.5070815649899758,-0.5355506290750132,0.481364983347367,-0.24411157242598236,0.47647893696121546,-0.9355479584621684,0.5753270896163332,-0.6651168691750458,-0.8398608704758803,0.15123727241387885,0.511572079814018,0.3692259043033761,0.8423823069581096,-0.531187526478399,0.9519262352326174,0.991025418585272,0.41950797276091234,0.9929796959314015,-0.38560731540731785,0.9257257946751096,0.9038668979994939,0.020364929424443456,-0.19034033216660595,-0.6893471078428313,-0.9524154852694402,0.1391910738511153,-0.17516738426039757,0.033600897393734064,0.82404048666916,0.34383227608528144,0.35323547317193493,0.8586359611637258,-0.7236008076765241,0.4315678511760497,0.33175422394047227,0.08321554800556363,0.8986798904306519,0.15806827461912154,-0.1396562404929318,-0.3527221698706009,0.0898747079378106,-0.5784624009520085,0.1197594711190153,-0.40641918966775226,-0.9533606806493589,-0.599644762772046,0.6079626907389106,-0.9341216840081148,0.2851762561802118,0.608384095794511,-0.7552485838114749,0.9739174797386918,0.925951067590181,-0.7552012025786559,0.3540019914535475,-0.27528441917646806,-0.015352070324565315,0.3783660809742002,0.8801770942117806,0.25239041248825966,-0.745352559575948,0.24688397934514095,-0.5577791877513814,-0.6196675143378261,-0.11460997648511762,-0.3732543574516025,0.04470377102013834,-0.19428531231212398,0.9290311792178272,0.3083187603131017,-0.008546161364355598,0.42891487998873035,-0.21491168878720068,-0.8054273381188688,-0.44745737423453824,-0.8592908273139555,-0.5839528843119364,0.4218962051216564,-0.7085706196256378,0.5131457202035372,-0.6006608394351169,0.37470114704947166,-0.19779248827942952,-0.8246742154241269,0.5354151360148027,-0.323614833156207,0.44076279869780843,-0.7994892690098669,-0.9971100158656525,-0.6039561057605449,0.5164198799318886,0.9756218677633626,0.7843479806151115,-0.23413371350909662,-0.2645786542025075,0.787072870168138,0.24020907419088466,0.13541352900614978,0.7206157581142576,0.20297297062232245,-0.8638418114402471,-0.8324764012064698,0.6130713009605058,0.37105389785665643,-0.9480945013110582,0.004926912311919329,0.09324052233047886,0.9705543430899184,-0.6137090882282916,0.024990126997854967,0.12991723699023416,0.3296288080841081,-0.811333157644148,0.838673617820745,0.25293908763177475,0.9853012271688095,-0.5886516191811022,-0.945906181608255,0.8068464290758026,0.7458261385090696,-0.9708237116334724,-0.8628731355791106,0.5214963875897891,-0.08522917751724557,0.16900007933056393,0.9122211623472114,-0.0371746979166101,-0.5505275168826393,0.24073347875591655,-0.33403105299586855,-0.7221005876171702,-0.4850827469194334,-0.5545366171404473,0.4515506950309569,0.18945000255741107,0.8172621171716479,0.6197864817439878,-0.5302928226444987,-0.08245764693813196,0.08588339061854788,0.2851756059298296,-0.957415649284254,0.961658493124879,0.860352148398001,0.37519519382566613,-0.6145153194066413,-0.6418967021412132,-0.16366997870391486,-0.43104667515433803,-0.59722832750036,0.6193119758967587,-0.5070803574365754,-0.5488124590326047,-0.6231028898904383,-0.7489892503976963,-0.7568464141747251,0.7173731129934651,0.4307522898860845,-0.190442876732138,0.860437457816964,-0.771578554784824,0.11370309441297488,-0.38016789091925696,0.4121287492081154,0.9169571865906183,-0.980369419305092,0.4404474515587151,-0.3644091328569332,-0.8743334835383776,-0.42314508482518254,-0.6614174338151304,-0.726565016734952,0.6072080271946712,0.6315759558443068,0.1464065344353811,-0.9296363540080241,-0.9471741404518703,-0.10506431763078594,-0.03733053361072858,0.19664378048549347,-0.21879539770518774,0.5478797113901737,0.4744243925730709,0.3315366680303422,-0.9490820866106291,0.5564099971709557,-0.8148847155388523,0.00485802886999398,0.273861857196523,-0.16029147066197402,-0.4623958732112212,-0.5889143606786091,-0.5410902855272601,0.28963621805463746,0.3715325531259306,0.6050528321567943,-0.5337520634306521,-0.06995544716981539,0.4964295098126492,-0.4357375639670811,0.3175062532072297,-0.7864743293105476,0.10213137969747521,0.8356244541585309,-0.8875201892618563,0.593404774853939,-0.6105000562318963,-0.1470682221086177,-0.4467657737497541,0.4561428711611166,-0.9331173628867813,-0.11591625767356373,0.530386344434483,-0.37915890900118443,0.7116630572114113,-0.10012714078727813,-0.6147888771859131,-0.21797628059120977,0.27708118760222966,-0.3044612135201272,-0.5921224258304476,-0.43401889739712796,0.7146134186408648,-0.6757973146707057,0.03932663609564924,-0.1236211530458382,0.8850055942942214,-0.6091609629815644,0.5042167465816907,-0.41184768661519633,0.7081463159907835,-0.2216192063809692,0.16946326305995396,0.04592936179587159,-0.2606113666744698,0.5256087361958164,0.20270593333824527,-0.3061706458403757,0.13583937841519433,0.21182868188412352,-0.695598214120448,0.38577954921909785,-0.1777610934401801,-0.8460244233682992,0.9495769890311889,-0.9023710862077814,-0.19706422879013408,-0.33642021421253143,-0.8339483717107603,0.5616459041277719,0.4494758942929904,0.1821462909520668,-0.22849233444726913,0.41802955345361914,0.17230868029154367,0.04413420962483916,0.4032402155522159,-0.16054714864329567,-0.12037004293297882,0.8397994179074437,0.12045064888669765,-0.06830044275510794,-0.41950793506772954,0.43740515171915995,-0.03453488968308038,-0.9710167680908104,-0.18313993213536217,0.2817433236175677,0.5976105515650663,0.12416401058434756,0.12489255739166505,-0.2166481559672755,0.37982626260797003,-0.9680285486885405],"weights_hh":[-0.7002706272254577,-0.11500469624717247,-0.8424686443403393,0.15365174814337257,0.6022816716348509,-0.3062827209710066,0.21975332349404386,0.4295549297966521,-0.7242941320328917,0.4369058238766492,-0.8360739580133549,0.9317622859662467,-0.7251616569218491,-0.8073763946931294,-0.02770294101060289,-0.4574931743225632,-0.08006756908456958,-0.01812990479915877,0.0505845510814924,0.22658962957154438,-0.8514275541700227,-0.4791698278481542,0.18901324974327793,-0.7381273679582603,0.5168930130750453,-0.5891790152610659,0.7448256311590442,0.6622166578408601,-0.8344796571442339,0.04786826957483936,0.43388437290071136,-0.4026928541722863,-0.651423848998451,0.289397287678002,0.8915642342714785,0.6382345704392138,0.5907595138502564,0.5481660006023856,0.9730629763663785,-0.26189102720469193,-0.9429452913067657,0.8010064517079096,-0.12182334518439664,0.8486787501207937,-0.4508421053678313,0.3338014927963946,0.572596570568479,-0.4922472601601089,-0.8317888042452128,0.8344935003371536,-0.2085478270761958,0.06997831272199151,-0.7622840518118499,0.5658751600453826,0.30180023818768875,0.1690748730213334,0.5463999486105169,-0.42398758457294705,0.7481568826884601,0.0844837463387722,-0.35625493994935,-0.7978834056487631,0.7121124498626394,0.6679962765576213,-0.8358225470596667,0.1859250506121486,-0.9721209729350204,0.17224735597661667,0.3456740583534834,0.8771559713643982,-0.7098861618937218,0.7392357680677148,-0.921453915762827,-0.5662789360593385,0.8281638802164759,0.40492114836675275,0.7347859682289606,-0.11558964648812498,-0.1092615708050968,0.7659350536310625,-0.04416484816965793,0.8822505153703064,0.6210529837154846,-0.8533016715996449,0.9768517378882005,-0.7026684909297134,0.1801635426544348,-0.3498704000690829,-0.8035863512813544,-0.9026049624849313,-0.6344668988672157,0.08434924127421728,-0.28956986444143973,0.4108724764244971,0.46128592349755637,-0.5696785610510451,-0.10973052415442353,-0.253767908756904,-0.6437050787595242,-0.034248740025500934,-0.507709191652784,0.825654405170376,-0.4078564179169406,-0.49159520340129825,0.5579417820856132,-0.6186377117050745,0.6547813091206052,0.169720736959883,0.5999556881864077,-0.2815831090821135,-0.7160499182597835,-0.12717008501455718,-0.6975824981528191,0.30994817318162515,0.26343959440448805,-0.9755494191023681,0.03874344609226554,0.9184034766744191,0.47470262602689917,0.3339073498722107,-0.928423034236918,0.5956839361100952,-0.6713687004536866,-0.27735525939963335,0.28951701000744223,0.3666580403289814,0.9606081696764055,-0.1422803149693066,-0.6796769792210411,0.4283871032933053,-0.2622945533144052,-0.06910220998887628,0.15604034136835865,0.5149530168263698,0.14022077609617312,0.12800187719584288,-0.4122565592667473,0.7767738000297033,-0.1027476986216489,-0.8037220036824779,-0.954517814783981,0.8432810573148233,0.3825138142588971,-0.3359051873735077,0.29307240281078273,0.45206140783181126,0.8834533560665738,0.5058205901877324,-0.20270360264579135,-0.9417758720020786,-0.054979291519972495,-0.5715949785761367,0.05107932174733043,0.760380655576065,-0.7530012765340646,-0.017909288000489854,-0.9538953644464598,-0.8980303558264158,0.383577198593019,0.6274286383667971,-0.47973495584138637,-0.7006124728542285,-0.9629399763487503,-0.4897118413782866,0.4204930331851009,-0.4058979456098246,0.28661987697967883,-0.20388382681871087,-0.06166645135752424,0.671395049587298,-0.4758839045355472,-0.5001221498207595,-0.4959732765525251,-0.48036118309536335,0.714512187693034,0.29660107511917855,0.9516210523659236,0.633981678000461,0.7291634950768455,-0.6960342458458404,0.4565843963993925,-0.4108184252042064,-0.47956329299498157,0.20296791147457127,0.07801923896399732,0.6182280287990791,0.964190607225099,-0.08292848875342096,-0.1580639095897618,-0.5975003033606952,-0.4384502849823244,-0.6563281880942118,0.8817782426546372,0.5495454247237836,-0.5575200726196308,0.3698992483381409,0.48455978318960735,0.2924211010470257,0.7034464545736812,0.5824117822906127,-0.79183624984196,0.7734945585703332,0.7727532124304808,0.4004828870846111,0.8404942617386502,0.4543165148845414,-0.9853558164297345,-0.5288277365177894,0.1153006842555504,-0.08479703521299475,0.5420882201338186,-0.9965918312504369,0.598082974291509,0.549104518948148,0.7551612263616694,-0.3648006178318395,-0.6181999767119262,-0.07989876390124295,0.55804084167003,0.14832251422932474,-0.8129386455085643,-0.6424643422348484,-0.4620283517558539,0.3832956996664092,0.48770295663796914,0.4355949070203051,0.09268580607871613,0.16176116250955097,-0.0047010989614793,-0.6589579851181306,-0.4005701786633571,0.9415635634500328,0.6188476855700691,-0.5812239152394278,-0.19053097285663823,0.0072522050162082685,0.801035689858818,-0.6823409998456638,-0.8896021696913308,-0.6514118572296936,-0.23906252155612306,-0.8818165728581095,-0.42517923059310014,-0.508080748651474,0.5706529121822901,-0.4509890621185728,0.6850645743181227,-0.32627882896504623,0.30834743158830613,-0.1555514844100554,0.7749766422727802,-0.2542849030800809,0.2990962386522791,0.6659230321118921,0.7688080527097072,0.8211057256510768],"weights_ho":[-0.20248082412479862,-0.5747607988432015,-0.09073963200500601,-0.4638277709467531,-0.7377424491383633,-0.9723989761469336,0.5733157327561322,0.37366027023667137,-0.5742067536932784,-0.46810791411709785,-0.5228623756996662,-0.23776017619388012,-0.33175591757164224,-0.8525028387834417,-0.11288301769524178,0.1156160265399504,-0.20449423458101657,-0.9766510025834592,-0.5109392732277596,-0.8162169119239095,0.8187108429021057,-0.002361737299154454,-0.5291373965738952,-0.7666511080647693,-0.8656905868660159,0.11000086096137096,0.5313851499338247,0.3698435432638494,0.38831752416842713,0.9622371805389114,0.47721656891535824,-0.9830351319357542,0.8094667096902677,-0.7681960442601936,0.41403682301193223,0.5141163760893153,0.9324872840632832,-0.9002712355280194,-0.25648915532957406,0.11614064862621509,0.3936399307975067,0.6597398143259807,0.34618211594021653,-0.5049097036335133,0.49972611800660793,-0.9857142102530396,0.9594077427106049,-0.3382903883333461,-0.559826919059661,-0.4703483095657581,-0.33750535797454817,0.928363559230309,-0.6583309289389512,-0.3043661367676065,0.8313877374850098,0.22470977872813025,0.4988822229929297,0.34243451951987947,-0.9013558587220709,0.7979477413195772,-0.30253012229520126,-0.7356887129571328,0.9060287817588979,0.32734457078879786],"bias_h0":[-0.2898248606630305,0.2085446356206484,0.13238317888988238,-0.0515936085116353,-0.8066213803356699,0.34174453336393196,-0.27818358512010044,-0.5549812977172848,-0.3843162477004709,-0.3421580554257069,-0.9855116008901355,-0.07602551037463767,0.4951129844307718,-0.240309130946053,0.38699168138160966,0.3409333256811413],"bias_h1":[0.9710796321698365,0.9577496047020431,0.3320594761002962,0.7698484811650255,-0.49437966024535673,0.3484909019544682,-0.5572726506809125,-0.6196669219377724,-0.7376193424345359,0.294750476540653,0.8803444892627967,-0.9983113725929214,0.9266391588249425,-0.8930695153046975,0.6808304620236942,-0.8777692271892772],"bias_o":[-0.9824130109217128,-0.7870230209867646,0.055043036089609254,0.62393500358271]}