{"weights_ih":[0.3792129181444208,-0.714251958243491,-0.5592257947915376,0.27373995133308204,0.072906982399495,0.6489888301802584,-0.5656391337593727,0.053074518259878634,0.36266415513484174,0.8941064197375783,0.8617598358219869,-0.2955049883963776,-0.18038396365489384,0.26781593632471856,-0.8442884055352746,-0.70696933057411,0.3760989845261238,-0.21701454124918107,-0.926036460505641,-0.7707663262589697,0.8581996667401053,-0.5594848718113214,0.3821497745928002,0.2641550097153367,0.3514748904935616,0.14841276369559764,-0.39378799382816343,-0.40338927905357513,0.06044163939175373,-0.04099167783856439,0.15187000036498,0.5884130443543913,-0.1358383995671124,0.19016385525883095,-0.876302192127913,-0.14127577620186105,0.4202508013939785,0.07222498938279465,-0.5592966426076029,-0.9572008367853957,-0.6523973883201486,0.5732668084169483,0.8148817968368187,0.23108213044839476,0.3710797790130502,0.47654267679623286,-0.696853018075996,-0.5386297878133173,-0.04535677117298387,-0.4142656480126825,0.9799346622551177,0.947652375753439,-0.7744385080563878,0.6502722182414815,0.7757394254354604,-0.13693344009727415,-0.13657998022324436,0.47142105004657364,0.8207907491757689,0.7530367769215836,0.8604144672345375,0.8185639216322262,-0.827228054350678,-0.7663580431465349,-0.2497504085699791,0.8281746287861731,0.1793039891560928,0.5472820806817,0.7037714028486757,0.13164994540073316,0.3377022097467972,-0.010547662663888069,0.7250967732214522,0.9275532772322816,0.7913633450300985,0.39434745671468163,-0.06832472502782361,-0.18994033113736908,0.7118086060763165,0.0247430623450573,0.5374367099903572,0.21560031356504283,0.06604562868869879,-0.612830047953888,-0.77512955242994,0.24678114282935937,0.0574668213142524,0.5675589680760083,-0.6295549075377178,0.803555716887149,0.5554733271417749,-0.37869211846036266,-0.8724485087882365,0.9212963729993315,-0.9868703532137784,-0.4503898636783885,-0.47243452756538673,0.36962138342353823,-0.13125666417137882,-0.6551546846929639,-0.21773962214520726,-0.2581447875229972,0.7932832806552359,0.6240222634128119,-0.6693178943774962,-0.11736265347401775,-0.7698400297252044,-0.8204040767525904,-0.8127724300798929,0.7917936024275356,0.9099209859880015,-0.9641705053655076,-0.5504358495173982,0.8587981720987847,-0.7807363789499413,0.19419165969419394,0.5437777674018605,0.5878726758349158,-0.6128061847654349,-0.6344222049571242,0.3005291177293343,0.9291358026920893,-0.9925147606914777,-0.3739531614664233,0.47611049947999784,0.8896135760486619,0.6092763463417603,-0.7822324724224081,-0.7714502699525367,-0.8933092721615823,0.5381525690393363,-0.6026102220412826,-0.6397909143774028,-0.906513769589862,0.15706605522020278,-0.8450497324336608,-0.6593201726116831,0.12700708626671298,0.24664568133347897,-0.7245562030990993,-0.6352256308148834,0.5047106364660139,0.544301276320605,0.35499681827508445,0.8607734121755268,0.6792067373115123,-0.9369302160392219,-0.4017009946900454,-0.6719127856932285,0.5987972292291726,-0.9654777550885563,-0.1705818445335976,-0.6977970255740755,0.08963474377285041,0.16573022624712297,0.4691606665750263,-0.7749478215736032,0.6470619568892819,-0.3368595749000727,0.004367676775818952,-0.16285503741521135,0.3431940745952142,0.9956446523751517,0.07704570291219581,0.1605654475511593,0.08870100912217715,0.5473191077043185,0.47630851223938353,0.49769444649139927,0.6628653239505446,-0.7337207919212123,0.25704610190753296,0.8671491649119027,-0.8164249261310907,0.8332591001602561,-0.9481691807652721,-0.7990612220144111,-0.5963960490529578,0.8068824363040652,-0.6305196831377393,-0.26231429699638475,0.5472726796143161,-0.33291703156604413,0.12496378220515791,0.7701217057760659,-0.9908385631666423,0.16049012525956474,0.12103724248381798,0.22244826271345586,-0.9136980587352483,-0.31199602242496405,-0.2539182327828564,-0.7415828618289144,-0.8592332138849423,0.5294492002927438,-0.9479358445060575,-0.23015965082348844,0.07576669637558386,0.07611706896246839,-0.6694242408880424,-0.6550531465360672,0.20634028793582582,0.9180161907157081,-0.34225126261013905,0.18211801722652599,0.02705106058968143,-0.9217568893863024,0.44979789533547065,-0.7732376585693581,-0.5137213970799126,-0.8751987737817444,-0.9527241939271947,-0.05404689721606637,-0.27356571986135747,-0.16564341947847017,0.5518495660132197,-0.9251648714495542,-0.04425025868036392,0.3662231324188385,-0.7782560911511973,-0.8560771939851379,-0.03902055563045592,0.2464234883405403,-0.1481612475519012,0.3900352111941856,-0.6834823286012492,-0.44751101889759215,0.9762970528418635,0.26690317767146743,-0.9334876257309936,-0.11783532135568664,0.022021952696745783,-0.10698479535064465,0.22322770266126368,-0.8872672141492337,-0.6216170560441938,0.29740959225012387,-0.7199251078268967,0.46204665786320875,0.6998113801364501,-0.3379077559097272,0.8079278771658376,0.29533834678645476,0.37696056291930913,-0.34486757875167773,-0.016318694290469393,0.005001674641173848,0.12608940796636303,0.4926878045007439,0.44324167271361237,-0.4794063045241783,0.4685206588384401,0.3609002439994591,0.7257079248633789,-0.8253543456575789,-0.6339625685681121,-0.22244826791660333,-0.7270447367883197,0.533436572623124,-0.5012566589698175,0.6162557874148269,0.4601462721948606,-0.41336255352114026,-0.6519572197736172,-0.6419077617199906,0.48585676870066385,0.6870011258462583,0.24029075352659213,0.8127795323742808,0.5203814497250174,0.9998729840974785,-0.9278148474093668,0.017270485063243912,-0.13717914956570953,0.7358441064056542,-0.4479945994848784,0.21968443310133812,0.8996666289998712,0.7164590730404965,-0.4302156419827514,-0.3712971638189495,0.11563044648647747,-0.3486014261965962,-0.018542983297517246,-0.9242156006252638,-0.7182618663937834,-0.2654977117918691,0.0561223461217073,-0.7391851437573012,0.33195833674271924,-0.32191129223154125,-0.9608688518411321,0.032154242867528326,-0.9120430729147544,-0.8036220620949761,0.792357428293609,-0.2979825715309903,-0.7438985348296205,0.5799694850954698,0.6827827203036345,0.648852011806299,0.1907953910075353,-0.6120488625232461,-0.18415481885752905,-0.4740137173909691,0.2329193408576944,0.48720704949837557,0.22378000911649432,-0.36741994794136756,-0.05461300973732919,-0.6190269202181373,-0.4196160853859028,-0.7863225711522361,-0.7941055166194892,-0.1204798434310339,0.6842418982588161,-0.9815919508440185,0.1374920088037619,-0.2124973885187853,0.41119677399104404,0.42796979953119063,0.39571637801818493,0.11646522434928919,-0.6661257383432941,-0.6547011656283446,-0.7761875858247185,-0.9287499613642982,-0.38592789657571314,-0.3443248741808165,-0.1349930787167135,-0.06418450132129205,0.1424541775176258,-0.4164542829081235,0.23611117882868626,0.22598145593540564,0.6876498307622336,-0.8608328524744902,0.3126020918405248,-0.3330105157551353,-0.18344333448039918,-0.411446540763833,0.677637503754454,0.3176478901359585,-0.13990029707337115,-0.15556569951015398,-0.7952038039402349,0.963269850480714,0.027616793164071618,0.7419042875931317,-0.7706689259742574,-0.8817732136429628,0.7419390593175563,0.4291834995444088,-0.12655753625597965,0.544940907311797,0.11097043432079357,0.8900537704182399,0.2396074707117113,-0.6922430067900589,0.9162528025344367,-0.11484054977877767,0.787557863571196,0.8387658173330708,0.8146704294642875,-0.25480654481700316,0.14212478880277368,0.9608609185511805,-0.24272078761449767,-0.9964004019808199,-0.25231068286940395,-0.2450216774756515,-0.08036906983513559,0.3799717131870801,0.8019793395146169,-0.7848522136804397,0.8818575509237869,-0.23596687445909725,-0.6150129299684639,-0.7140407439408727,0.08424280628197622,0.29011564464200257,-0.9600653984671466,-0.19961520488605533,0.728766202022485,-0.41888065063846525,0.6958693858966039,0.1124286077155443,0.898502400518564,0.39777181329474853,0.337594267301607,0.6042305798900898,0.5600177309692205,0.007468747313798874,-0.6143531094942054,-0.7092114677647805,0.44027968250720684,0.7713668310793451,-0.2479348487217654,-0.5264924159611637,-0.028543482949497045,-0.09070554952072452,0.8820997686544014,-0.7532735252629099,0.6335528609716583,0.8902478393001247,-0.09924679276442916,0.4628484741703971,0.9778502026934852,-0.9260901586397523,0.8604208403549205,0.9970103801917805,0.864895618308053,0.4549543640798701,0.40476629608503445,0.6706349657753101,0.4274312955022994,-0.9014392517088325,-0.1028544022260609,-0.922973190399557,-0.5581922961763297,-0.5638986795842198,0.06956844575301413,0.912046370090102,-0.7221304145992844,0.06615661172951359,0.7651937690339643,-0.6521181152036757,-0.544825471831393,0.45779202935383534,-0.8194019239975796,0.4588136713963915,-0.04676774407263018,-0.3252361396627794,-0.45459871740355773,0.37253527643410855,0.8043109823838006,0.7228830928795866,-0.9920078772697924,-0.2592347542966591,-0.5448144074337002,0.4980821329982468,0.5124275304071169,0.5133091239066556,0.549566544544547,0.6667982439035471,0.03206144408878142,0.9181010708189039,-0.9796046588555669],"weights_hh":[-0.9216048954887399,-0.8261096075391821,0.7618053998254859,-0.5473933110338318,0.2799761486907115,0.892182396780469,-0.9302471127771281,0.8088954846517675,0.7356697141512865,-0.6773866991381927,0.7547982770777604,0.8053514884004787,0.9823638762854565,-0.7713040617831504,-0.2818105789391905,-0.16861856056498237,-0.0951502925689176,-0.3206827798980354,0.8743878053625163,-0.18271130637716815,-0.4666363057290661,-0.9563061878737986,0.10763633972305664,-0.20040596115856002,0.3523310182798223,0.5129992895578339,-0.6414089377978929,-0.05871796261052453,-0.5414170344643423,0.5643246816488257,-0.6217079648481125,-0.6086191835101531,-0.745162766685932,-0.8820794786068367,0.09907553695670512,-0.1008184080202017,-0.9533453454676561,-0.9482244091658094,-0.4052929732445465,-0.1743264782102516,0.33787093498953324,0.23956621395189948,-0.9950923750817524,0.7861526906737355,-0.8424456451348556,0.6193929917901093,0.17595820395160766,0.8362018917359815,-0.3038199597239908,-0.03592828268288528,0.8167548937933924,-0.44272977605334773,-0.5500248192454966,-0.6769277925005011,0.040913075186610914,0.09650603420976922,-0.6291466032116917,0.45040573898377145,0.3679714438547359,-0.04322699916754669,0.3368580992476944,0.8218396684366776,0.5562005467144775,0.2930162466213928,-0.6046087086139544,0.4374609905854461,0.13612303949787874,0.8595904841617519,0.7261661668402326,0.4695911882905579,-0.9289304364626139,-0.5500874803667215,-0.7804746041858739,0.9739009129199896,-0.11606046099179324,0.11198208761708317,-0.4963536336910661,-0.796359594848721,0.8347057703064811,-0.5742250532176383,0.7628602085232326,0.12197199839714212,-0.23798124632729767,0.7264398762635729,-0.03845122550848257,0.3424052942816085,0.781144477732399,0.13059395203091073,-0.5022734106544309,0.012869595929249744,-0.4043240139596791,-0.8631137593812834,-0.18173427093538796,-0.9467812914837823,0.1446778391742658,-0.5389819855265077,0.021702710111633383,-0.45402052394503456,0.07388884077960212,-0.19203196740696327,0.3023302092147191,-0.36404636672430724,0.026909934837326954,-0.18805850108208344,-0.25976022889299477,-0.3386377428292384,-0.2773696446866025,0.764518107160854,-0.9389714249864967,-0.22897868900061735,0.7898612028108314,0.4840614414214197,0.6953043549492219,0.30257086749140605,0.49583403794940706,-0.34227602979289573,0.8179290397510761,-0.8100228576746342,0.2761611291843198,-0.10965442156947147,-0.17806840109279465,0.9888241958271633,0.2988269720939125,-0.10155985938638046,0.8496866976765838,0.9839618807197921,0.8967524145347794,-0.3316656401336644,-0.5568938964712493,0.6448549245314954,-0.0986040997221298,0.7318796800930925,-0.2471826964971664,-0.19596360231575916,0.30261229921145505,0.8706646654612757,0.32062634501871545,-0.5201899368664566,-0.5208722122275262,-0.893001487721995,-0.6504644988016084,0.8419135546039667,0.9447609440581215,-0.838676976808693,-0.724447691557853,-0.8578505404638732,0.1718754945256511,-0.029532373681814272,-0.6065328505439631,0.2704446711669357,-0.7924968135984953,0.2656771457819289,-0.13726901371694678,0.36553572600408435,0.00017863435561804586,-0.11420363329653349,0.3868705521031637,0.021965115369193544,-0.22458749925206245,0.09485289705971356,-0.18538211870481613,-0.5190711947493905,-0.16866455551944837,-0.511203899079147,-0.9265319051644187,0.19204757924261173,-0.25031646549107345,0.7297106687410888,0.9952108316172139,0.06347566967157792,0.01790528048107931,0.25289606582461177,-0.14472461703196826,-0.352187454077292,-0.3265124781098685,0.9746553945273047,-0.525621041163389,-0.6070847588184023,0.7267919534529717,-0.6340898352413658,0.556447559450074,-0.4027977461917118,0.07737629076913777,0.06903157827471906,-0.1598672132481911,-0.22182275114793648,0.0514042095597087,-0.5472199398068442,-0.469410574331256,0.5201125544037315,0.8847722101868476,-0.5978331443827649,0.4916685030049164,-0.4015025172527642,0.3157443488129421,0.540887541873317,0.5516139441807764,-0.3492384952453551,-0.2471747000749085,0.4216507350340053,-0.5739038657015492,-0.12262273715689442,0.01969654636271856,-0.48065237793825877,0.8306871175697814,0.7789887957880777,-0.048073939296017,-0.6086685616397847,-0.7776307971693033,-0.6714725963321566,-0.9692804783945017,-0.602558720234587,-0.8745587404257835,-0.3745757958777909,0.6231747139083239,-0.17820806959167368,0.6022932522650322,-0.10297176031453659,-0.3111955700508844,0.8692867561705919,0.08218493829513296,-0.9133769803572249,-0.5282698759770299,-0.5807916874377168,-0.6669891866077127,0.5542342985648645,-0.0823993820244091,-0.4864283047932765,-0.453407746417283,0.20966384752450473,0.5128980126718901,-0.28428070964190266,-0.6872895004010404,0.4390523430563218,-0.4582461209303619,0.009445386368122977,0.5873034023694543,0.9794163484108545,-0.626146636988155,0.5197312757193129,-0.12701400723710599,0.1528418934251472,0.4133188042794962,0.7479377696021023,-0.0823161555101879,0.929732659340017,-0.8565026211586733,-0.6727596775727505,0.6697745402730562,0.604507778084193,0.16454186105638513,0.6113434085634097,0.9082525732554374,-0.8657254853980276,0.11782835698543304,0.36636320491053853],"weights_ho":[0.39459855865302007,0.455938445881783,-0.5169016331970688,-0.39455132081521804,0.30442053604810604,-0.9354696239679212,-0.5277293387560937,-0.5963604947468608,-0.7416012142257906,-0.2397499257091491,-0.13682503712645477,-0.806239396982795,0.3464551303356327,-0.3640253466235672,-0.24735980105386024,-0.568885808213488,0.916827685879261,-0.9046466715760566,0.31334348910804466,-0.4712860927890623,-0.8402112743658234,-0.8144424809389741,-0.0752248518644636,-0.7870871455049879,0.37376473702630975,-0.06820349446710217,0.5255044943266447,-0.05108878405423645,-0.13302757467060888,-0.9789825928417262,0.04378787997648059,-0.020174761562028243,0.4320727180488657,0.12037300395692352,-0.24295036173076023,0.619426296168702,-0.7884947008151995,-0.5304342636577288,-0.43468010127040135,-0.3277864070514884,0.5828954029625015,0.7884770324506627,-0.7230086709634456,-0.7051599695563577,-0.9545960325799159,-0.6732478977075924,-0.06748450622573743,0.8733877288146505,0.7707747258707569,-0.6214268711859661,0.9323681657178207,0.6925376539732317,-0.584939579710114,0.7596980426039377,-0.30605600412014056,-0.41147683012857783,0.7411653121280526,-0.3377932091801743,-0.5765852767193491,0.9585428392430293,0.3101222057229962,0.7287607014160065,-0.6246558239113447,-0.44952928786939017],"bias_h0":[0.5506469592342524,-0.7729561211362739,0.046014736699638625,-0.13182622316613135,-0.8038972143365224,0.10153032282887575,-0.6750101376470294,0.6999693214779026,0.6864333053671412,-0.3329449841143488,-0.35489943024525683,-0.8089894932812387,0.7061455989131156,0.2449362787204814,-0.35259979102911276,0.6148522110734402],"bias_h1":[0.7947961185980774,0.7036627681856549,-0.03127618090292805,-0.8471064727081183,-0.43727321622992155,-0.4464962381186297,-0.8496788284123589,0.6413797745663548,-0.11684835291965112,-0.1872628825878937,-0.7709494042755909,-0.59977189239721,0.7540490884401556,-0.32235998278602285,0.3182185748357129,0.9982619250025226],"bias_o":[0.4914417495522061,-0.2533112117995562,0.5740930481391786,0.5989046699159306]}