{"weights_ih":[-0.6764872607042078,-0.40340689746181746,0.6302142748453428,0.7013690798293779,0.27481653502551007,0.7740188797022773,0.7388243554114946,-0.6349326980981318,-0.1054272324073271,0.7191662424749703,0.5997930363743147,0.19236101675935413,0.24115522858696692,-0.8615765182252917,-0.7622295541838606,0.19276876264452225,-0.011152022955942531,0.47249976294147467,0.017019903766718913,0.8669825545083409,0.7489212830809393,-0.17048176243167412,-0.424782773944379,0.24124993733624756,-0.04516165855676468,0.2413983233443473,0.3544348810064466,0.43792214407344865,0.444409507005205,-0.438421384150139,-0.9794685605903739,-0.3564109170513783,-0.9092070282867886,-0.9697492274475876,0.48649880446969473,0.5655455563323255,0.31780516795310865,-0.29550043454101016,-0.46099269797697007,-0.9035156518416898,0.9525792365605896,-0.25989144394165065,-0.818319227412849,0.85443054236618,0.277204065888045,-0.5947811646394359,0.38086813107395034,-0.016861823875155668,-0.8176609042558969,0.9363774959361981,-0.5626338570494531,0.29986754706191254,-0.9014250341509915,-0.8965988012593757,0.31044882632747717,-0.44373941039574416,0.1474299758041573,0.15444643952145154,-0.35932449302569025,-0.12274461847328277,-0.8658382491052776,-0.2497718374042579,-0.5202500999774258,0.9657242385121882,-0.6275276022773302,0.20536288647707024,-0.995340142626425,-0.9448360497503847,-0.7824389639760843,-0.09270551557247986,0.7755067950368078,0.7597493147919614,-0.9205470059527836,0.3187712478018143,0.3805358615342562,0.19642769162815354,0.5534034344806273,-0.9986196115662371,0.2569241804855211,0.3147106465201148,0.08185653819863314,0.9143217856537054,0.3356807701402307,0.8252267676668388,0.5941196699879574,0.05088741168926281,0.22022747034569612,0.2487721367242226,0.8060168829936709,-0.09472659127275107,0.1532453829659004,0.728091067650553,-0.10986856832658654,-0.22889480706825505,-0.04346459363348876,0.14416907763283238,0.630558712038076,0.8567145332839297,0.1551795489431631,0.19136757873079935,0.8936163445249876,0.22511093832718032,-0.4133338734898331,-0.32437233081243444,-0.8183431026438466,-0.42137574493601004,-0.3294877359558661,0.25956736443758865,0.32063497229851423,-0.05087247397580219,-0.568089731679629,-0.2520238146390821,0.9047162982607444,-0.9436577784497349,-0.3879322705036099,-0.9950413590843352,0.2983546833077626,0.48794487034495715,0.04889147223461254,-0.6377201391803635,0.7522200146224689,0.4419411003567446,-0.7071332106976866,0.14293805983850172,0.4461625543658616,0.7186587154634236,0.056472033071653716,0.09820747336394064,0.6147617971890833,-0.9557509506948678,0.20625403326671043,-0.15652156910349868,0.610930349197605,-0.683693783395978,-0.10319234988660475,0.9650541156216621,0.19728291879609716,0.4947609783139977,0.2075632365622302,0.8825994840842617,0.25216684720733706,-0.5773548381633533,0.8851960851231804,0.9033839530325132,0.8204745205436923,-0.38097774533306206,0.686917959901058,0.5654442659611227,0.6570126277808694,0.4387476183391372,-0.0010645141711467243,0.7985428571119488,-0.5947942654925731,0.9607036531628346,0.4610635129750542,-0.9026908952415524,0.22288142144487422,0.050422981425540137,0.703380578218815,0.03164356493405518,0.23878394063809938,0.7338373081109204,0.10819819409770104,0.5316927420879096,-0.442025920225227,0.05266750483145799,-0.04110656202956253,-0.34877674201747455,-0.23126860535816451,0.005617956394614154,0.9099049323724508,-0.7912248322311344,0.9768961834107404,-0.34196905556460355,-0.7054035032112302,0.6621082531601639,0.5910749611958253,-0.5126703582156038,0.23505336993456716,-0.21789610974837603,-0.047434948984970804,0.2564719282533625,-0.0022670113254903423,0.9990547218583692,0.06824377696127493,-0.5059107762433299,0.1390042988740836,0.5086092936407753,0.9726857979489656,0.16190683263179984,0.10524770810809625,-0.03902467126653075,-0.4033002088850517,-0.516231772237403,-0.8598701982921895,0.29627562659896967,0.14143619262253204,-0.4946130512403384,-0.5591210031197333,-0.6759128877640279,0.5207178761322058,-0.9256691166615607,0.013842501893207126,-0.5376992815394297,-0.7157284186042048,0.35334204851223827,-0.8341701915103994,-0.7185172170279341,-0.2788651397486648,0.17216657915227507,-0.5579542095363319,0.599151518921849,-0.11677421890854367,0.7944373446758051,-0.3838529845738605,-0.9032270691530482,0.5354061209725447,-0.3078409700329392,0.10400547332652788,-0.4885375786837298,0.9883350993398776,0.16820991174376165,0.38260763098492734,0.22527708592103157,-0.8280298984731767,0.7778872675596842,-0.8910770966823409,0.5055634733655161,0.8119672820206523,0.46360217401763615,0.8561853155721979,-0.6970468317382761,0.11898365929620769,-0.17666796912448923,0.28518201987624114,-0.6306240147000803,-0.47430618583534545,0.7344192125138187,0.0385330212527637,-0.28458362019131345,-0.6959581216555162,0.9373140752714837,0.3246196235206307,-0.7105675010581556,0.8118452289121898,-0.2932904973917827,-0.16268132301147276,0.612597270922814,0.6846639881266317,0.1974392548512669,0.8247627211656416,0.9690592760469401,-0.412638627098469,-0.6620696458247022,0.24109293459413816,0.41011410388847946,0.015234648694299802,0.03727923287530355,-0.4610455462766161,0.9662690123438098,-0.7386065279797009,-0.8613528220008131,-0.8995737643599615,0.03226756786139373,-0.8526420807454875,0.6425505344269078,0.5900488240984358,-0.10910040692072087,0.008952089547056286,-0.9750712307537683,0.23694936458615046,0.10862212464508536,-0.48047344342583864,0.9667526435580052,0.579391568538677,-0.67273539403478,-0.9143462135751534,-0.040095836546067076,-0.13573910422689406,0.4084618878325479,-0.0080746130880891,-0.7593663294330943,0.6629526225927702,-0.39861670297157015,0.5277894195778363,0.1212389058897716,0.08153730007764892,-0.0426271865436596,-0.021675360455188253,-0.23437030349250598,0.8832223276123774,0.8174364201728825,0.7747062554172002,-0.012050859792288815,-0.2823337276499034,-0.8536703246311177,0.9426822411932256,0.4439814348689486,0.39542642331979305,0.45383219685206355,-0.853994032335549,-0.1970903883342332,0.1894265687363228,-0.6160167368962242,-0.6591882054229348,-0.1861680198171325,-0.14424542340866164,0.9387550661911777,-0.28266854929174823,0.9732342456738035,0.9734675161192856,0.9613937245954656,0.29646699457364245,-0.47344487937048485,-0.1898516404830164,0.2717984646575351,0.5895122119624598,0.8010186366427283,0.25675034712226097,-0.1060003809472092,0.6299312487766631,-0.0871130083403342,-0.008711623776148869,-0.2821910158552783,0.5935385119129917,0.41962714583403726,0.9725213104518855,-0.16734331915217027,-0.15485416750421654,-0.5454486740878699,0.43051963859061826,-0.9095798212449981,-0.6791825442665094,-0.5079785874339069,0.9871385893624844,0.0632945956630333,-0.33241484938748034,0.7931812904229705,0.028269010328724864,-0.7210174281138448,0.05821386033409959,-0.05169855193706163,-0.6596634045644256,-0.20933356655933588,0.519825702497537,-0.7661562083153963,0.13106047151965217,0.8293089553868376,-0.3812331654637746,-0.9436352237897341,-0.09032134988282148,-0.15841456988992597,-0.4072571682043473,-0.529354225653937,0.32354752977444723,-0.9974317389793781,-0.5371911865353225,0.5468072342223571,-0.6959344742655424,-0.7184916093191878,-0.6378041140205679,0.7040934232110596,0.5652858904460532,-0.8402259987009231,0.839095868304627,-0.868222309887273,0.4110824703106104,-0.7621217936096571,0.35119486264955424,0.1869159719695157,0.22649605246481852,0.9197742632960895,-0.003170988462662061,0.6230083567440037,0.4078321020499709,-0.7831076151868797,0.8869955900682633,-0.6203271114426656,0.00866216781842466,0.9869723391509448,0.5132470655266517,0.10744408924436777,-0.57094826582092,-0.6732645593123063,0.5244192464822115,0.11536064370522991,0.7084943212744774,-0.9837770120254832,-0.487239406896649,-0.37184912928146985,0.02601743134948764,-0.03200712262831229,0.9654064204317301,-0.736143105928333,-0.666483044878385,-0.5745425627780809,0.6860349489461046,-0.5076973558660258,0.5346658334402312,-0.8273437861327588,0.776790080928317,-0.14656899861179662,0.6463535282753792,0.8703162616779672,0.37455271789630196,0.5244121663332062,-0.798159683746386,-0.8263788938173908,0.021601343900354175,0.38004568542251893,0.44095673269258673,-0.7697081756380579,-0.4118087146939837,0.7069771959610676,0.6798181888351051,0.4669783666424714,0.5877882473135243,0.3517521554641121,0.7142356859861272,-0.16069622584768206,0.6849549975779059,-0.5854659254905326,0.9656207158557724,-0.24209468111052446,-0.34599326263990204,0.002510845738730394,-0.7871666151346961,-0.2766257425572225,0.7961083285012038,0.4672019599657662,-0.8664018204098853,-0.20783489681917455,0.24061444232318752,0.9135426260989166,-0.5672514892827085,0.5409253017511715,-0.4920743434043444,0.654318548314095,-0.37720622954814687,0.17196151104402246,0.3785602226339042,-0.5157462792344505,-0.0812791083407085,0.0769010425726957,-0.3630671673908459,-0.5613453363512144,0.5426415372822706,0.1127360448592789],"weights_hh":[-0.32019382093149296,0.08621115176801775,-0.5598487118583031,0.39170043989097336,-0.9187246130021209,0.357379247033494,-0.4138769633602548,-0.8826507491936115,0.8031222440854118,-0.4917932694267606,0.5917044945680572,-0.5040834519989905,-0.6201317448073436,0.8797163772722187,-0.5133616099219462,-0.29521987271908023,0.2830019981613465,0.28176942382356596,-0.16513775669171427,-0.6806815606752947,0.2543177794281035,-0.3371495042387489,0.9925915929194951,-0.46287593262160254,-0.4768397934026707,0.5910841328738192,-0.15563478008429943,-0.5290262438584314,-0.5612533937104525,-0.662501966016098,0.7109922325788816,0.9844249233425257,-0.4487351721927091,-0.8029307979665463,-0.6371011695126108,0.6473418265449531,-0.5458262896172339,0.006266341558986754,0.3438750268655133,-0.7406465767518631,-0.8924013514986711,0.3086939287514414,-0.49104256118928147,0.8224946852097066,0.7161616875049237,-0.20834351851704325,0.11443289900920606,0.9187773765307512,0.5258889980274226,0.054844706122689546,0.434890516524558,0.5133720089830198,0.4796818004339012,-0.9834340551925527,-0.8989915488275209,0.6361263065902252,0.29752697070032696,0.9326141546913334,0.49272430242106147,0.9853064292541367,0.46637938779371946,-0.4864731955190764,-0.8571512944019233,-0.428542323736385,-0.7536828317870923,0.36902598472474835,0.3047724376865215,0.8450368626358182,-0.9647433060499533,-0.5766623027009077,0.11109822226095267,-0.3202351841258748,0.011687943018833247,0.9095917108198728,0.07080830186911835,-0.6356186604727345,0.48246601189963,-0.27598342248743934,-0.8017660859238918,-0.18413055768435505,-0.5108186922042679,-0.4741286928270978,-0.7210888304707157,-0.35337054514304245,-0.041306150773567474,0.8878634585487657,0.43926621609568905,-0.9493231719105906,-0.3681888795335877,-0.5998780156494761,-0.14393474374070014,-0.10171231530296976,0.049897839262522004,-0.11585755429744804,0.18920778850648956,-0.2727794071347778,-0.34510218361821066,-0.5734311810017878,-0.15904739968443637,-0.018276576304442793,0.8131351716841804,-0.19064547409978627,0.2397241313096281,0.9826750933195796,-0.021174207166609005,-0.7665596729303299,0.09024352751445686,-0.7446710930470375,0.2167102648560082,-0.5220380251362828,0.4234468581455051,-0.49060331746162333,0.5198718413253984,-0.8634987252878246,0.5057867267191751,-0.8246923990491231,-0.9141020717516892,0.6485073955324756,0.8608044057320388,-0.48949325817530576,0.41869916716933675,-0.0803230032728588,0.18090123293212335,-0.33331199049587235,-0.15712971893372485,-0.3235601186119843,0.2924429390184706,0.09786794948801525,-0.31031060685528034,-0.5527362934626778,0.7493212103661178,-0.7257962173412724,-0.48752713413244875,-0.18222447262686003,0.6593014554988728,0.8023437485981488,-0.36988304161322394,0.9538709705627244,0.6097818935674715,0.5614089983393102,0.5696544005233668,0.7635085308261478,0.5728913977855716,0.27212086193650675,0.3727115522687183,0.53618825768322,0.0377355192870481,0.07206522195789078,0.8327744154796624,0.6611723700679581,0.9492470125741166,-0.8804058833439712,-0.8953698273246675,-0.7209272185105389,-0.5545482100544512,0.12239855618508755,0.7128444011729986,-0.8881689435134736,-0.3511134140373373,0.9889362568828413,0.6658576884436149,-0.826609785979993,0.6481904971073038,-0.5285332167373216,-0.5401288922633485,0.946919618083752,-0.09735547045615078,0.4723719452085766,-0.026159424971314404,0.008020295601377958,0.4951286092183962,0.7905163442249732,-0.0052110169753762925,0.4946392053027453,0.3015932965037178,-0.39380357569078517,0.08033463301886345,-0.18927619367789106,-0.0913200306318569,0.22314739946182405,-0.1644023207662222,0.5212050799786951,-0.4346647794977736,0.1286449837539878,0.9725130596529004,-0.5614494612548155,0.7283138220847427,-0.6403028874013093,-0.792750590119871,0.2947239749154229,0.8782026329631296,0.3750262827478461,-0.8379037166268708,0.07514946223714802,-0.05632107244109874,-0.04316632503891782,0.09883234081839798,0.532408942190324,0.25199185410740066,-0.15538896659587564,-0.8182517028040592,-0.5254367593382621,0.6867806314178915,0.7913975073272692,0.4832288569559844,0.16429111986673606,-0.7228268057044178,0.30786237928366145,-0.24042558711784578,0.2327314331693966,0.13955599974335553,-0.37124585084356476,0.45077091004236247,-0.14891942908463962,0.19085303618188032,0.05398309159062431,0.7515473501907974,0.75399147329352,0.4086606719221284,0.7970000931126175,-0.33549094271896585,0.13769351108799244,-0.5523578283601056,0.5948374707045383,0.9724029630186335,0.8912953610329983,-0.6234495860831524,-0.8983792879605901,0.7915204345807436,0.8767543288636563,0.42629395819704663,0.41111562275201696,-0.7856182796071574,-0.8110904251256459,-0.43158533592542936,-0.3416113637616278,-0.8786842805000934,0.7034044307018201,0.3915030883993702,0.48956207948628894,-0.8486054867709376,-0.980944320246165,0.5517153218085062,-0.8382952683859242,0.17419132932854953,0.45605399895750476,-0.21153624965367213,-0.014050028547792914,-0.15813625085097627,-0.4988450359829548,-0.012458675951062315,-0.9799140447053372,0.2354501023989959,-0.2059862675069688,-0.11923425549194189,0.3922611486757117],"weights_ho":[0.6182740696217808,0.3234815807597473,0.2784064105551185,-0.7361722292123687,0.2479629798650942,0.7353118882738612,0.9722541929968194,-0.1709664749939639,-0.9265297906215124,-0.9977230135416413,-0.4494011691997841,0.20816976014022193,-0.3519311437518049,0.26364718242073604,0.4308905654964357,0.7831313766170958,0.9584080898753675,0.7341975737448152,0.8105652571195661,-0.6402998648890641,-0.7032226066312879,0.423603621309701,0.9887718049150789,0.7349765562062385,0.19564843170505442,0.23229551709420693,-0.5638709371689299,-0.15216744882748268,0.7366689570635587,-0.41469730515010816,-0.6050383690054402,-0.26770884700382,0.16994726826641626,0.5165939429929516,-0.06567733744307813,0.9031225716047875,-0.7305953691397187,0.6298036329064838,-0.23255902312020948,-0.9101849801346871,0.1844601096744516,-0.8926326376109999,0.9526569163618133,-0.8933793345652212,0.7765498735709231,-0.2309866406733887,0.6956019107543745,0.28967142142729396,0.8566645897844569,0.06155373821405963,-0.8481839061322436,-0.8661015342045812,0.8791070443279725,0.15354812343265833,0.13379441702974293,-0.03612058925124795,-0.819435843727508,-0.9276902100690141,0.8072220442988338,0.142341221322819,-0.940737422548729,-0.3922474593455447,-0.04807577271281649,-0.5486682044878564],"bias_h0":[0.7874317283914996,0.7656569944522378,0.03911950817883025,0.984337343676835,0.410036740639123,0.2823113785294775,0.33266061401809943,0.5025304040843164,-0.6859807356324805,-0.3010975007315444,-0.7998794849390163,0.15740021603418142,0.0646873175379159,0.23702767452909357,-0.8268147995147359,0.19613028776747554],"bias_h1":[-0.29635613922759907,-0.44480263303384127,-0.6914088150329749,-0.9584449981788177,-0.9385405885202558,0.5360557168112792,-0.8897685541176961,0.33815298729307974,-0.1704645657155206,-0.1706717629012402,-0.9512213592328851,0.09929481007910712,-0.8305663746206624,-0.885683413296513,0.773920174995065,0.010099322862578752],"bias_o":[-0.4856916603513892,-0.7468385823566412,0.17779522788496216,-0.8803339490287836]}