{"weights_ih":[0.30286241828374716,0.4307500912274296,0.6302142748453428,0.6541224435468833,-0.7869239553163669,-0.6659922820104216,0.11004457122238809,0.6131337409169546,-0.5936962832705817,0.9163692125323855,-0.34676471880063864,-0.13885121271210688,0.43541543958936013,-0.8552694129116329,-0.7622295541838606,0.42236862683042053,-0.696279752835572,0.34278898768913524,0.017019903766718913,0.8669825545083409,0.5400516072126966,-0.17048176243167412,0.7579347615827137,0.5700386153481825,0.4559294146674704,0.5341776740262798,0.6998260638213634,-0.3811987484349335,0.444409507005205,0.9063814089886235,-0.6484397936988295,-0.3564109170513783,-0.9092070282867886,-0.015436276151098882,0.5193748054863951,0.9403568392400321,0.31780516795310865,-0.05916243071835625,-0.46099269797697007,-0.4374647637492932,-0.4059609949304597,-0.8463143115850456,-0.024192219352091815,0.85443054236618,0.8245630717294918,0.8153946104635998,0.11406301491989623,0.05529262887525577,0.8743274740289497,0.10300703686184809,-0.3058109985347215,-0.5588536279153344,-0.03234242539071763,-0.8965988012593757,0.5368082459897667,-0.44373941039574416,0.8163580968993771,-0.4356494246028788,-0.5892552424374651,-0.12274461847328277,0.7204115832681413,-0.5581742933079576,-0.5202500999774258,-0.7331814047152456,0.5648119661477344,0.20536288647707024,-0.931886299381401,0.20621068977443735,-0.7824389639760843,-0.09270551557247986,0.3236231999572792,-0.46625837433790607,-0.5077733519176424,-0.9300995899383029,0.3805358615342562,-0.02069144387727606,0.32702728788556734,-0.9986196115662371,-0.5649811081043454,0.5282819188671009,-0.6818732072277993,-0.5205971049363789,0.13454247407536934,0.6850067429407856,0.5941196699879574,-0.8507777361317763,0.5868454411421791,0.26507194781147225,0.8508115281544943,-0.5806066158972494,0.1532453829659004,-0.24264209749329546,-0.5850453497489536,-0.7922131446592342,0.40441065542390975,0.6682366456118243,-0.1801725487345709,-0.5168002833619163,0.1551795489431631,0.35425350864889293,0.8936163445249876,0.5473174371122416,0.8382582354038197,0.6368365820366355,-0.9899918196295296,-0.9402784065173362,0.4354188911313619,-0.5751734642098685,0.5893074443841675,0.298891352763206,0.16472653234562573,-0.16406842129267996,0.0294259615712269,0.2078230338867748,-0.8297572649669875,-0.9532628547416533,0.9632913534792868,-0.5089046062087992,0.9846264563191613,-0.6377201391803635,0.13932316102803344,0.1429752202958845,-0.606973470581893,-0.8236902885192472,-0.722687781398204,-0.4550125104871965,0.780715677633733,0.00836271994763571,0.6147617971890833,0.3764703902870339,0.9909881933575624,0.082401183861055,-0.3879865330626955,0.7050232594033383,-0.12625432288712202,0.9650541156216621,0.4063538737418735,-0.674192682082758,-0.701685515828149,0.7443453253339922,-0.4843587352590053,-0.8754217530118606,0.8851960851231804,-0.11083841802163952,0.8204745205436923,0.24131068889174734,-0.24913904429183797,-0.1606945574545886,0.6570126277808694,-0.1078131908353388,0.864578070983224,0.7985428571119488,0.4325818402589119,-0.8638397286503052,0.38649665266104094,-0.03578248003879314,0.9725721539515806,0.9088129638941886,-0.5296604957717719,-0.7766356905090122,-0.30091473586873474,0.11428637751991277,0.43313153783585445,0.5316927420879096,-0.442025920225227,-0.25298101335313694,-0.17960324294491703,-0.15223518389623125,0.4634086025260138,0.005617956394614154,0.9099049323724508,-0.7912248322311344,0.9768961834107404,-0.04748599451164903,-0.9606654766263447,0.521983675087194,0.715322679215699,-0.5126703582156038,-0.2739821849315469,-0.9355479584621684,0.5753270896163332,0.2564719282533625,-0.8398608704758803,0.15123727241387885,0.7108051802527984,-0.8790456492340799,-0.2814160283167113,-0.531187526478399,-0.49482284898582707,0.991025418585272,-0.5400876153555794,0.685511620387151,-0.8639089822052726,-0.0592512077249181,-0.8598701982921895,-0.7818710901114503,0.14143619262253204,-0.6893471078428313,0.990437742072569,-0.4766254869416773,-0.17516738426039757,0.8393248055427271,0.82404048666916,0.34383227608528144,-0.8438210189639166,-0.49810959812822975,0.7005627588961367,-0.7185172170279341,0.33175422394047227,-0.560549982395462,0.21550767017629902,0.15806827461912154,-0.11677421890854367,-0.3478751901815036,-0.927305259573699,-0.9032270691530482,-0.3263088285326936,-0.3078409700329392,-0.9533606806493589,0.6651188300364956,0.6079626907389106,0.16820991174376165,0.2851762561802118,0.608384095794511,-0.7552485838114749,0.46552398960551544,-0.8910770966823409,0.5055634733655161,0.8119672820206523,-0.6007005139818355,0.8561853155721979,-0.6970468317382761,-0.2717572134274193,-0.17666796912448923,-0.22370680498260143,-0.008273596422177398,-0.26096144457771797,0.7344192125138187,-0.6334821075393802,0.7292582272184605,0.04470377102013834,-0.19428531231212398,0.9290311792178272,-0.7105675010581556,-0.008546161364355598,0.42891487998873035,-0.16650996359996273,0.612597270922814,-0.4493345096969188,-0.8592908273139555,0.07834595279584944,-0.6323464589662557,-0.412638627098469,0.5376083950860311,-0.6006608394351169,0.6509082703554456,0.015234648694299802,0.04445772440440954,-0.4610455462766161,-0.9933382949294531,-0.23113083470428042,-0.7994892690098669,0.3284726958979227,0.03226756786139373,0.5164198799318886,0.6425505344269078,-0.6619100665928295,0.28461023393488993,-0.2645786542025075,-0.9750712307537683,0.7908404101786943,0.10862212464508536,-0.48047344342583864,0.9667526435580052,0.09509713326491465,0.27240233289856786,-0.21130127011582833,-0.040095836546067076,0.656333263976111,-0.9788555677580784,0.09324052233047886,0.5734309693451081,-0.8423317856090737,-0.39861670297157015,0.5277894195778363,-0.3247051475034004,-0.811333157644148,0.14830843600584398,-0.9597531205719831,0.9853012271688095,-0.3868670810153638,-0.6304798348007028,0.7747062554172002,0.6921896852044742,0.5667575532897093,0.1112144339942609,0.6567721414904615,0.827525636173335,-0.8684372484189125,0.9122211623472114,0.7218618835382946,-0.1970903883342332,-0.39293570559035773,-0.6160167368962242,-0.7221005876171702,0.5990496269943251,-0.14424542340866164,0.5553957335437862,0.18945000255741107,0.9732342456738035,-0.5092508935572826,0.9613937245954656,0.6084911759675997,-0.7766233781168077,-0.35900662289811835,-0.22043411743599894,-0.514567758614829,-0.5467881488335271,0.37519519382566613,-0.1060003809472092,0.6299312487766631,-0.16366997870391486,-0.43104667515433803,-0.59722832750036,-0.4133841719431681,-0.5329535375953434,-0.7755203587879029,0.24645348038783443,-0.12875816486986547,-0.4578926960278511,0.43051963859061826,-0.9095798212449981,-0.190442876732138,0.860437457816964,-0.6963816798404936,0.0632945956630333,-0.2048914490327236,0.7931812904229705,0.9248914845627454,-0.7210174281138448,-0.34777792977296107,-0.3644091328569332,-0.3807607263300061,-0.9082118001917525,0.104771412763907,-0.726565016734952,0.13106047151965217,0.8293089553868376,0.8156814264624086,-0.9296363540080241,-0.09032134988282148,-0.10506431763078594,-0.47716708091689375,0.19664378048549347,0.5751258046922556,-0.9974317389793781,0.3154412843932839,0.3315366680303422,-0.9490820866106291,0.7043777174389094,-0.6378041140205679,0.00485802886999398,0.9632271679915068,-0.8402259987009231,-0.1993368898293244,0.18830140687924235,0.4110824703106104,-0.4331016827265035,-0.5187496513845373,0.1869159719695157,-0.7085357660764777,-0.22044512731976718,-0.21099959115180367,0.6230083567440037,0.5243268229408418,-0.09420972101228586,0.8869955900682633,-0.6203271114426656,-0.8875201892618563,0.4065664352195275,0.0754286627108458,-0.1470682221086177,-0.45881846386850156,0.4561428711611166,-0.9331173628867813,-0.27318226628424647,-0.07710749005761475,0.7899696118122268,0.23376627295723118,-0.10012714078727813,0.02601743134948764,-0.03200712262831229,0.27708118760222966,-0.3044612135201272,-0.175598201725927,-0.621108625217867,0.028070543319687724,-0.6757973146707057,0.5500232091064046,-0.1236211530458382,0.776790080928317,0.7459794159751354,0.5042167465816907,-0.41184768661519633,0.37455271789630196,-0.2216192063809692,0.16946326305995396,0.04592936179587159,-0.2606113666744698,-0.7157157270443739,0.44095673269258673,0.7030561274283276,0.13583937841519433,0.2292445855832992,-0.695598214120448,0.38577954921909785,-0.1777610934401801,0.3517521554641121,0.9495769890311889,0.4563493944524055,-0.19706422879013408,-0.5854659254905326,0.7718193733886951,0.4397268405876469,-0.37744687884775563,0.1821462909520668,0.5444166621183442,0.30536663411559917,0.7961083285012038,0.899374182371415,-0.8664018204098853,-0.20783489681917455,0.24061444232318752,0.9239538927455047,-0.5672514892827085,-0.06830044275510794,-0.41950793506772954,0.654318548314095,-0.03453488968308038,-0.9710167680908104,-0.3577960122879664,-0.4647750611618855,-0.4001617934489341,0.48442686857378336,0.8885613708423228,0.9436107205987745,0.9530688180049736,0.1127360448592789],"weights_hh":[-0.32019382093149296,0.08621115176801775,-0.5598487118583031,0.15365174814337257,-0.9187246130021209,0.9381278840293026,-0.9034003641652575,-0.8826507491936115,0.8031222440854118,-0.4917932694267606,0.033707162186463524,0.4782409537564505,0.5520853270955066,-0.8073763946931294,-0.02770294101060289,-0.16348399064049168,-0.08006756908456958,-0.01812990479915877,0.6862945568851777,0.2742597961903408,0.6208123042267712,-0.4791698278481542,0.18901324974327793,-0.46287593262160254,0.5168930130750453,0.5910841328738192,0.7448256311590442,0.6622166578408601,-0.8344796571442339,-0.515146197215367,0.9676633996261954,0.6265975737282263,-0.4487351721927091,0.7561685220799292,0.8915642342714785,-0.18405569279817646,0.7962846253544589,-0.9687056644315897,0.3438750268655133,-0.4907756133803396,-0.8924013514986711,0.8010064517079096,0.9415607408608668,-0.9361186509017152,0.9738271454609655,0.3338014927963946,0.572596570568479,0.5936416673144049,-0.8317888042452128,0.2413957734887906,-0.2085478270761958,0.5133720089830198,-0.7622840518118499,0.5658751600453826,0.30180023818768875,-0.251205775284163,0.5463999486105169,-0.42398758457294705,0.9973410077152831,0.0844837463387722,-0.6832766954855451,-0.7978834056487631,0.5363405707507518,-0.6441169271969658,-0.9352658642875649,0.5264574139055225,-0.4007144778047149,0.6433352872671643,-0.6634668075770278,0.35269815081227773,0.11109822226095267,0.7154253398417523,0.011687943018833247,0.9095917108198728,0.1719503462229861,0.16662904571116277,-0.7169311686475923,-0.27598342248743934,-0.1092615708050968,-0.18413055768435505,0.9919724419064981,-0.7617952994088488,0.6210529837154846,-0.35337054514304245,-0.041306150773567474,0.31131343776635667,-0.02544026217719675,0.2888804096590101,-0.5986883052950551,-0.9026049624849313,0.16545628121839462,-0.10171231530296976,-0.4344876224987817,-0.11585755429744804,0.18920778850648956,-0.017539614952915894,0.008935716490759082,-0.253767908756904,0.8288253967719714,-0.018276576304442793,-0.507709191652784,-0.3157436012312447,0.2397241313096281,-0.49159520340129825,0.5273436685673174,0.5669931036776519,-0.7900863522645662,-0.7446710930470375,0.5999556881864077,-0.33905753628596025,-0.7322681196863023,-0.49060331746162333,0.5198718413253984,0.9393938093951331,0.5057867267191751,-0.8246923990491231,0.03874344609226554,0.9184034766744191,0.47470262602689917,-0.48949325817530576,-0.6341947739010312,-0.0803230032728588,-0.6713687004536866,-0.27735525939963335,0.28951701000744223,-0.22097454869809185,0.3522954946750605,0.09786794948801525,-0.23043496835276867,-0.5527362934626778,-0.2622945533144052,-0.7257962173412724,0.15604034136835865,0.06281960373246398,0.14022077609617312,0.12800187719584288,-0.4445076382461641,0.7767738000297033,0.6097818935674715,-0.8037220036824779,0.7199604867436984,-0.27267771609908076,0.5728913977855716,0.27212086193650675,0.29307240281078273,0.32634380725910694,-0.8110408219834673,-0.5656529315278505,0.22165514068978487,0.5363696945359291,0.465221919740211,-0.8804058833439712,-0.8953698273246675,-0.3547004598899346,-0.5545482100544512,-0.0016135997085984233,-0.6047178970269393,0.4079812595987278,0.383577198593019,0.9889362568828413,-0.47973495584138637,0.9571613700175388,-0.9629399763487503,-0.8884099208055853,-0.5236294028065973,-0.07515269158429083,-0.6446543470057053,-0.20388382681871087,0.2875322322838323,0.007548210155322366,-0.4758839045355472,0.05161090859975914,0.49573295628283787,0.749513027792633,0.3015932965037178,-0.6572697632298155,0.9516210523659236,-0.18927619367789106,0.7291634950768455,0.837011485691995,-0.028730974962026368,0.9006754041374823,-0.9405199479057773,0.1286449837539878,0.9725130596529004,-0.5614494612548155,-0.37953134511076914,-0.08292848875342096,-0.1580639095897618,0.07591315164947754,-0.4384502849823244,-0.10597641185639883,0.7728854178222906,-0.8013979876555846,-0.05632107244109874,0.3698992483381409,0.48455978318960735,0.2924211010470257,0.7034464545736812,-0.592792667859023,-0.10904894812875776,-0.5254367593382621,0.6867806314178915,0.4004828870846111,0.029115380060465545,0.4543165148845414,-0.9853558164297345,-0.6119077324348441,-0.24042558711784578,0.014680195786339612,0.3566312780457537,-0.9965918312504369,-0.3546231931497321,0.549104518948148,0.7551612263616694,-0.3648006178318395,-0.31576308554157095,-0.06765622472074462,0.7526165290627209,-0.1207829947781851,-0.8129386455085643,-0.6424643422348484,-0.4620283517558539,0.5948374707045383,0.47311285921817614,0.48315524718811176,0.09268580607871613,0.5612004265766242,0.4290019496028974,0.651977663595493,-0.4005701786633571,0.41111562275201696,0.6188476855700691,0.30011467410669224,-0.3229964065195241,-0.3416113637616278,-0.8786842805000934,-0.6823409998456638,0.3915030883993702,-0.2578915152459169,-0.8486054867709376,-0.980944320246165,-0.39009389640794323,-0.8382952683859242,0.49506907257210964,-0.7692018171580219,-0.21153624965367213,0.03655827207704987,-0.831044763967127,-0.3063272636278469,0.7883228836210578,0.9643728182353524,0.2990962386522791,0.8181542987973769,-0.11923425549194189,0.3922611486757117],"weights_ho":[0.4325179747810515,0.3234815807597473,0.23470088380634135,0.773933077974869,0.2479629798650942,0.7353118882738612,-0.2690919350135321,-0.05648099663170458,-0.7504197019746759,-0.46810791411709785,-0.5228623756996662,0.6611953240869877,-0.09902540701231999,-0.765115767712027,-0.11288301769524178,0.7831313766170958,0.6077042499560159,-0.9766510025834592,0.033224460130008904,-0.8162169119239095,-0.7032226066312879,-0.4982826995245264,-0.5291373965738952,0.7988834132146205,0.14434283403347448,0.11000086096137096,-0.9527527537638976,-0.7395993148982378,-0.5022304061188045,0.9622371805389114,-0.6050383690054402,-0.9830351319357542,0.16994726826641626,0.5165939429929516,0.30826994861944335,-0.7906278048033888,0.15156983403354451,0.6887360808892173,-0.23255902312020948,0.11614064862621509,0.3936399307975067,0.7551165796903843,0.9526569163618133,0.17237742715670956,0.08519883359563463,-0.9857142102530396,0.6956019107543745,0.28967142142729396,-0.652085563804085,-0.9283053943906301,-0.10180483158352271,0.928363559230309,-0.34287244476777023,-0.3043661367676065,0.5606786792181324,0.22470977872813025,-0.6950668143836094,-0.9276902100690141,0.8072220442988338,0.142341221322819,-0.940737422548729,-0.3922474593455447,-0.04807577271281649,0.325886063766206],"bias_h0":[0.6936196096703686,0.7525396409608238,0.13238317888988238,0.10874282902687038,0.3642270848630451,0.18492568656513098,-0.23033256156601256,-0.48735640564609506,-0.6859807356324805,-0.3421580554257069,0.29822204717125733,0.15740021603418142,0.4951129844307718,-0.240309130946053,-0.8268147995147359,0.19613028776747554],"bias_h1":[0.7581663224973807,-0.5412683371979563,0.07636325833994229,0.7698484811650255,-0.7667340458927807,0.6395755867422803,0.7761684252407177,-0.14807073621456657,-0.24463112539503262,-0.1706717629012402,0.8803444892627967,-0.8803051641328818,0.17589661721975447,-0.5261523100398438,0.773920174995065,0.5783789853406596],"bias_o":[-0.23121610428339556,0.46941695342016376,-0.2416045603515149,-0.8803339490287836]}