{"weights_ih":[-0.9284279570237957,0.38628051039821454,-0.8155402361500246,-0.8256810872813807,-0.0708215619967929,-0.311829187619574,-0.7550404070835679,-0.4510571855885064,-0.7669813106577597,0.5551188671569225,-0.4037894178147612,0.8783272510931486,-0.3044094674916551,0.6601998984332667,0.8265265040725516,-0.640098397356426,0.22122983114292505,-0.6063018228308446,-0.8995320050710438,-0.40715045610311584,0.4011194767778081,-0.7565457141400012,0.28285409631734004,0.8841743848173933,0.7833237361146812,0.9204962910586632,0.16019587623481368,0.9970126854999775,-0.5597777937898314,-0.7284653733889201,0.19066237985417778,0.3887556967290524,0.09922334181203274,-0.6999245876361311,0.7280010586884664,0.47481757546768755,0.23585502057339447,0.28935370514046,0.2214257484382247,0.7307795375437678,0.7875229897802665,-0.7655728089161757,-0.6633281618690143,0.25490856377459514,0.5662762637079217,0.8611316109830474,0.3344675314390091,-0.012865569363619489,-0.06206233916004433,0.3755932760022338,0.5107440833064698,0.4475366430227936,-0.6780183970679594,0.08775826937014664,-0.39333995083102846,-0.20158201049226743,0.21842943778604873,-0.06985917236099315,-0.10462443547563938,0.7448160948839209,0.3620642131021281,0.3187967763613886,0.8845340901807355,0.6707411081499683,0.5341884883233028,-0.13539327233061793,0.08303699719374813,-0.1354895696279408,-0.21782972332572204,0.6787700147389035,-0.33993217871830317,0.07426782565645951,0.7077134322619871,-0.6967047206628298,-0.8342357562153828,-0.6781759421107698,-0.8608636428838734,-0.3743179491195632,-0.22524135944313683,-0.6029254600964444,-0.47516665677759207,0.8864329491967993,0.8051230319138254,-0.9383668615049436,-0.23258826287946088,-0.06309681225441488,-0.47471723856551873,-0.2414793198737999,0.2676902563367476,0.980699602446595,-0.11842798058739801,-0.5243645448539689,0.921226236650714,0.9362067948901287,-0.6409986347774943,-0.15752404368756245,-0.8927406685166805,-0.059617853477921035,0.5589238995526813,0.0627415900752537,-0.22275061337857904,0.8047702635893332,0.45772651839123846,-0.6172767778513801,0.6020104696803075,-0.7970670708411292,0.5450607655960165,-0.1184776190975727,-0.6391614610871059,-0.7300302051591181,-0.695297291886102,0.3050706295638588,-0.0009460197355042332,0.867382065199358,-0.3971507358002557,0.4245829977766684,-0.7403661495681568,0.66793985929452,0.07444393528027327,0.16418394070117381,0.45226601229559504,0.012620771413968557,0.29749656493764776,0.03930971164710706,-0.6420776872782341,-0.7395401718007264,0.8790622015962917,0.37832520644798895,0.8693330441162679,0.034596272653855564,0.8877163621676416,0.47235562704875433,-0.7226587083113247,-0.49133549326517345,-0.13737974683991494,-0.8173661054118633,-0.05665280621077451,0.2680980369109991,-0.4291795562589311,-0.3463628856988117,-0.8924518957386358,-0.9103195497503049,-0.35450073170775,-0.29341412322092064,-0.5895798894074145,0.5009854700320184,-0.3128158762975479,-0.9087528254363786,-0.9858692734351164,0.5233684123671454,0.15348727433639464,0.20351866145352004,0.18429045218857087,0.7545142062254571,-0.7811548471284935,-0.989851948609874,0.9390979927032399,0.8019218335326095,-0.2586651571603791,-0.16066808014113088,-0.11539307769247809,0.3378231113292631,0.6340992733696904,0.9606274063034317,-0.9353920864487919,0.5047156790561997,-0.12899550744901145,0.1561989393105827,0.31471948681578477,-0.23547523789784375,-0.9412710758972658,-0.4000007383483166,-0.392050518997034,-0.3069792450534894,-0.5465247094404635,-0.7133312381382224,-0.9489557049682771,0.5327017248895924,-0.7770286299345901,0.6478121498785305,-0.24443335569670266,-0.34689504142894045,-0.9687134816264775,0.9989898365736027,0.17309437973747643,-0.8400052460236345,0.26087519370828294,-0.2692834273772611,0.7793424342267505,-0.5734453102420747,-0.8332581017802136,0.9236383883170038,0.42156823052310766,0.32520228150864283,-0.7110683222224587,0.5354103261936545,-0.055691979405819714,-0.21232153402190357,-0.4571937337932841,0.8888779784270562,-0.6647732521163294,-0.15520498296495955,-0.8379570684762652,-0.01353812543063837,-0.9859327185414677,0.32930759919378905,-0.9331551805235765,-0.9264478390930655,0.866341112733199,0.13587367261332362,0.270714949917795,-0.4267574295998757,-0.7565720046977342,0.9889961740333906,0.7211815303583415,-0.7944701530319851,0.9435474795778251,0.9383377567538711,0.9440177111909307,-0.8635065666571946,-0.49007229207454506,0.8847270573780981,-0.2868616891074527,0.14133094569637983,-0.3012694495685102,-0.4038254374897441,-0.9573108277299596,-0.2682157218499359,-0.12527962135108117,0.34865191264564555,-0.2822396960697233,0.35009076386341764,0.7304041090122291,0.2896287735744214,-0.27246807744917567,-0.9528119365578198,0.6438366444931214,-0.14293217185317264,0.2060571626264036,0.4134193968507973,-0.6495066394070379,-0.8992782364545451,0.4759173814413671,-0.5972017305646962,0.7567077286693358,0.9777882781300204,-0.9663451215989196,0.4031414139677303,-0.036629693671106134,0.3845673373842662,-0.6733782305500782,-0.1840480002538274,-0.3433769820615018,0.3067081175797106,0.6861097961766676,-0.5208927493808044,-0.8469368592168318,-0.824546266240288,0.7230487684783449,0.890865112704947,-0.28487404896676605,0.3153544993241568,0.7782906104087444,-0.8931891830757954,-0.6771068418468722,-0.0951113773288832,0.7116708552548645,0.42906262690061325,0.85874505868345,-0.5097921648317281,-0.049695925133907304,0.09123237523048355,-0.7660837188367897,0.788205148252884,-0.22679119173132323,0.8980412112297178,-0.28013645246897734,-0.5999871727625599,-0.1959024185234477,0.7179421689066363,-0.8582471385457406,0.756488952312407,-0.570617871960774,0.02280124079196222,0.28627945452963144,0.09820908152847307,-0.6345155026657627,0.20519099228412574,-0.20574687670203118,-0.7095456797486546,-0.028542988341805797,0.14371574195557635,0.05431015243723181,-0.1415080696273181,0.45717724346453825,0.37271487303313866,0.4838430273780596,-0.9235064306121505,-0.6994162125533472,-0.21933067964255448,-0.9484054809548406,-0.6292051390964728,-0.38411977308097756,-0.4999478944794282,-0.9776022694620772,-0.8858405127195381,-0.7036784022653659,0.5173231686075621,0.42825805435743547,0.2517219463658604,0.1612959961336764,-0.4794359458376325,0.7612507343678556,0.739168559902798,-0.3097136290575426,0.19748465500462276,-0.3166927291306565,0.008194379186055922,0.0822400564885939,0.37579979649164263,-0.34535745155591346,0.871874076024497,0.9873511862636002,-0.5225705409531787,0.5954441191646551,0.7053000850215496,0.9463743114474608,0.8890671458903225,-0.25003663096332907,0.7885370840180421,0.7569461101390116,0.49413705199706404,0.5604342088685754,0.15883812703903732,0.31413408497738393,0.9503504924991009,-0.7479262800056239,0.3709608021249513,0.4387894474122065,0.12972761465429672,0.16059847323086163,-0.8338313180332173,0.6800688310794849,0.5794035736277243,0.8981692251019118,-0.41791454224626556,0.28117883158115675,0.8218430390712925,0.1429701956204279,0.05610422537075754,-0.8531163265295432,0.3281230586691688,0.664619993272122,-0.01974594146766062,0.9289511592396746,0.49699073241242764,-0.07133690387297165,-0.7830278852146608,0.008841882436189552,0.8273415465395002,0.3105663013317632,-0.7030299513679579,-0.9745238791845081,-0.6983359255977781,0.5596705595382856,-0.5659263148315958,-0.2386773524110528,-0.6650664080962465,-0.18313460816042415,0.36294857799359415,-0.4028283337424281,0.2890538251561632,-0.7176759752056938,0.20770560513787517,0.32041094880926635,0.26150485987340133,-0.5787875900039448,-0.871415524505704,-0.4734123817846818,-0.8040000728140095,-0.1949631525400466,0.1735061185993063,0.48932601934020425,-0.33784879793628586,0.4557057518488956,0.38073901461173243,0.018929085481425245,0.14083723144129268,-0.31680583821411634,-0.7122306506928333,-0.2751805897373647,0.9924392611063795,0.5247253544065753,-0.5531386644543776,0.5999457208031924,0.5689546414737583,0.423391968326172,0.5700625765456286,0.683723843807446,0.42402277939654787,-0.5833944571744756,0.8398005146193919,0.25804461197735096,-0.2651698221992034,0.046247453818622386,0.5159746634010385,0.43522867995302783,-0.32556459667352633,0.7744698729204507,0.4433377962639553,0.573533259743715,0.7420903637432505,0.702831414805902,0.9420885134331731,-0.46322211896965126,0.9934949161121542,0.10478855708048984,-0.12774577473354554,0.27546120779804806,-0.5021328412993866,0.018680746419140748,-0.9180694558905087,0.5228643273736886,0.9381642078770831,-0.4674670534869363,-0.5554822429021009,-0.11091306793720168,0.1641532208031593,-0.9827267982388916,0.8450975248908055,0.9445507658984464,0.24947214500784165,0.5865212958267814,-0.6398088633456289,-0.4729431654485352,-0.07464508501274869,-0.8585493799057602,0.015116471647661278,0.2742930254362377,-0.34129002192506586,0.8479536927133944,0.9692263279196855,0.24002862544878867,-0.005454380326145092,0.9205330753012191,0.4250331975619617,0.8478146745235824,0.597380953272109],"weights_hh":[-0.7563225525572717,-0.007165397477649327,-0.41948037273516636,0.39743166214316683,-0.04432010584235835,0.5179918676910136,0.9695665767371224,0.1635699636812329,0.8703172628801485,-0.23092964217807466,0.5847856189967062,0.7006131873665311,-0.28400080808444317,0.9393277686707495,-0.3027609678082528,0.1916913653361676,-0.5303277908848232,0.7268990723561961,0.561720016091209,0.506896906876396,-0.2850912468961453,0.23330085784141863,-0.4418627749281656,-0.9196278798063291,-0.08957093185428322,-0.44849725786138617,-0.4554943064535688,-0.13723713795832837,-0.016158487554334355,-0.32027666392999365,0.405168484205634,0.0848548280684045,-0.4461203052067866,0.5143439799004228,-0.7480772115562666,-0.2972398430388843,0.4799254422246848,0.4431950429348941,-0.19320054726627367,0.38762285884197634,-0.53335194494795,0.6462710606937316,0.5806870545841416,0.605789895842153,0.11120642166879646,0.269608136621758,-0.7442824450382135,-0.030807724663007408,-0.40299179162715526,0.7094848422690767,-0.07835768047904201,-0.5286849767204844,0.8091981782721638,-0.6149243157351738,0.0027270599975750542,0.6549777780625619,0.7442601746315327,0.115381716498137,0.9525914449996402,0.4225405247039389,0.21651676732365743,-0.8435598590958162,0.9893944214419879,0.7375766925582881,0.31967094781504635,0.34540358165250207,-0.007701191740807634,-0.6752218206865774,0.2881671178481344,-0.45854586984181767,0.9638661784261413,-0.8766334501338706,0.04097681744779824,-0.7924617194096308,0.4892756584444109,0.9537990738825401,0.8290228477826782,0.7824454997041705,0.7462777219039032,0.5049992595089585,-0.670398764748501,-0.7297423890388666,0.055377111825737124,-0.560430946606969,-0.6460689823393997,0.4024571128054397,0.5705725409232549,-0.27339318909938903,-0.2453262471135278,0.7954690866290404,0.8578192664687663,-0.2598931970012406,0.3145574402543603,-0.19666519899922497,-0.6198323927439513,0.00865036877469283,0.6649600202396901,-0.8807191518104964,0.5036871198663038,-0.2838578504736953,-0.03285856188849423,-0.5706123166398434,-0.27492187930220924,-0.669828648731021,0.1386402961747557,0.3228324127500297,-0.4056665495775089,-0.15397593083360372,0.4106713911562305,0.014660116355576402,0.3250242378772177,0.3316760458681973,-0.04944301134757034,0.2735159828732934,-0.6535157314466649,0.7094146149081828,0.5926712976454533,0.5043629172232438,-0.5320948643707888,0.7415518280188562,0.9938955898539659,-0.5098913073316305,-0.8079835520526115,0.31803585050224337,0.5311130000901316,-0.6864060532977199,0.5021613826412823,-0.28715377609489545,-0.9698736070573308,-0.5212413403217964,0.4281650056390014,0.05664486571533889,0.7997687664646824,-0.8465141863165115,0.6662083078039325,-0.27236170932667414,-0.29086105957113406,0.35863318892176266,-0.19956753446796016,-0.7910485300633538,-0.16803283305741634,-0.3236920184161942,-0.476051971474287,-0.3550522227672863,0.5471155398115117,-0.966978416860671,0.684177259174471,-0.6682668194790011,-0.08448378104055099,-0.6080200761676364,0.3876102708528506,-0.9099088317844035,-0.9632026959540683,-0.773207495803339,-0.6816008186168441,-0.2400103647552818,-0.19846428541559025,0.6325286736257496,0.49988258152582454,0.47573184889232945,-0.6786850072492585,0.5094305047767691,0.6413604517669707,-0.2270893741351141,-0.7730905649158542,0.8161493582555293,-0.9380532423145544,0.326311584640294,0.3124997850020066,-0.46162798199524535,-0.814899932692486,-0.5735727524453855,0.021524844207095217,0.6428351861145487,-0.903608634477997,0.19268607504695656,-0.3939643950949685,-0.07743824668998656,-0.01635236526611905,-0.7763697082619962,-0.2542835618109638,0.19751211572363436,-0.9193290707891513,0.5262131384906616,0.44108143108919906,-0.3979820704707022,0.4433266241210476,0.5319569864813718,-0.9740190885596094,0.8561284966244567,-0.5636910395845609,-0.9058118486878952,0.3665301422076108,-0.8427268144287987,-0.5130340780653053,-0.8225814548871511,0.946479741998604,0.4817180213191281,-0.22472993963821275,0.8486441767244846,0.8387460626750289,0.09627161244631521,0.19796128834506943,0.08680436922177814,-0.8879489495537334,0.21096024691217163,0.746199560827812,-0.9658901227494048,0.9023577713843864,0.6882796771127426,0.8070704311049048,0.9142932645017618,-0.6756026409511373,-0.31655835792111975,0.426235990944543,0.780270425664195,-0.2513130048997618,0.22710633376109368,-0.19994622020110087,0.6577720203541559,-0.18461983287413197,-0.8296172250266729,0.933385416913407,-0.8144559018324262,-0.4553023560744316,0.7802750382681996,-0.8689292303140512,0.6391730810766516,-0.23630069029068923,0.6971952724200983,-0.19036795498984405,0.7605975312034836,0.12358583914227239,0.6429040241565076,-0.13343751448729613,0.46851972355569216,0.609063142078683,-0.48232481890959567,-0.22229263952464762,-0.568891363602354,0.7737032151867365,0.1714327701542533,0.31061629296622373,-0.4760364953178551,0.5226374439399393,0.9562705445771353,0.8114844067848055,0.11208890700771912,0.9602511828675404,-0.25061666810523,0.5378515515450779,-0.29578746288497815,-0.1293945629914961,-0.06270075662908936,-0.366177200630875,-0.48558806109587715],"weights_ho":[-0.12251572617521433,-0.9899960588269647,0.9999666574663284,0.0827273807017661,0.6305035520102209,0.6249867408084584,-0.7816615984469086,0.7292414619722312,0.42774660025759914,0.41692276999547295,0.543240305442316,-0.43922247242443513,0.19372268716875785,-0.9446937599350178,0.40601130784437345,-0.20628846070531615,-0.03415851323980368,0.8511229636090247,0.22341847063555353,-0.20524089661829237,0.4925724484870071,-0.7610785507741049,0.3768877254509333,0.47242102880932624,0.2977816392026795,0.3844288064973038,0.8094041107132839,-0.11897621529103342,0.4606335083931492,-0.16219441414168712,0.8975085115117107,0.6081683508996027,0.6524037240913592,0.07209495193987236,-0.9887463927886813,0.7983583961932468,0.6328473172972366,0.4639989751071343,0.8843582508446552,0.11612206566298089,0.24034416294099437,-0.7395619995198459,0.1622408404743121,0.8398260375027524,0.4222461208765105,-0.6568808735474476,0.08782086079906493,-0.4304119683722729,-0.452436691905838,0.43425135283751715,-0.7773537726343882,-0.07876589977341353,0.10097927765924886,-0.07387316353422468,-0.5178881360246859,-0.9231566772828146,0.5133129792571545,0.6639839904062954,0.8067365081087206,0.5306816890695074,0.16385751279651073,0.22299858098254255,-0.8205138236899401,0.5325847651033158],"bias_h0":[-0.10354595288883406,0.608384537375749,0.7414467665123419,-0.6201328537096855,-0.3060071331672425,-0.3218637995773477,-0.6818177475040625,0.6242954128242237,0.6689109196346279,-0.6309570924839885,0.3616688795824221,0.12202344523940689,0.1251624166568579,-0.7899119715228526,-0.6138373652557003,-0.6122531449856075],"bias_h1":[0.3237188672715261,-0.7815842092926166,0.5966771935994939,-0.21728437225511854,0.13347763495625453,0.7010408035319153,0.9869353689668696,0.162879924188706,-0.009573463350492029,0.9612305371798411,-0.06751041559042381,0.1813344096484708,-0.31078234986540965,0.13107738961151116,0.884527152250322,0.06903030955754086],"bias_o":[-0.21856633436983564,-0.7284979130653335,0.32684975354153734,-0.40296292039647774]}