{"weights_ih":[0.21480964950616754,-0.15515590048995387,-0.08408046044257911,-0.1842821860237014,0.6889480406425881,0.7740188797022773,0.11004457122238809,-0.6349326980981318,0.9645564594229399,0.10254350205815577,0.31076348543843624,0.17632179938910397,-0.5762736188629918,0.7683470326781927,0.8438022384949857,-0.8917071755843233,-0.696279752835572,0.47249976294147467,0.017019903766718913,0.8669825545083409,-0.6574879817964188,-0.2086788500577319,0.5207165048596116,0.5700386153481825,0.3191827156343232,0.2413983233443473,0.744996795231117,-0.4937302735896796,0.5440852607663669,-0.2891401695396958,0.19554915859657784,-0.057725245721750085,-0.5833541920467888,0.003449588004133197,-0.7492089369831489,0.5460536120655484,0.31780516795310865,-0.05916243071835625,-0.46099269797697007,0.14199668411696864,0.43702659351807727,0.12835560202696117,-0.818319227412849,0.85443054236618,-0.10049323448118264,0.8153946104635998,0.11406301491989623,0.05529262887525577,0.8743274740289497,0.10300703686184809,-0.3058109985347215,0.49562293904681476,-0.9117579075062081,-0.8965988012593757,-0.24053554795225618,-0.008486843232859087,0.1474299758041573,0.7009870888274112,0.6774824418458127,-0.8246806527573898,0.7823359135197834,-0.671758254027661,0.05099635219644538,0.6020554800676392,-0.3718656672955323,-0.9663557688758557,-0.995340142626425,-0.9448360497503847,0.5505255717370157,-0.09270551557247986,0.39797923624992526,0.320618914269607,-0.5077733519176424,0.5472144946233204,0.3805358615342562,-0.02069144387727606,0.38488004388682606,-0.9986196115662371,-0.1914507656477089,0.14866420079249298,0.29790172141135907,0.3903149276348774,0.09367213858048018,0.8252267676668388,-0.09563095941180899,-0.13374429515954,0.5868454411421791,0.3025208581860148,-0.025877356631037518,0.07652884972573903,0.10141796113302637,-0.6729180157184971,0.9495695296482223,-0.15213205767071325,-0.5769889347657127,0.14416907763283238,0.630558712038076,0.8567145332839297,-0.9442647312175674,0.16217014976989286,0.23539103871088152,-0.050166454876575006,-0.4133338734898331,-0.32437233081243444,-0.19382445008912264,0.1915701514497361,-0.5829794329133178,0.7259515162192371,-0.07483728134355427,0.298891352763206,-0.6110406677622346,-0.8013931865315835,-0.19345772786109294,-0.3628143914923976,-0.2034214197149371,-0.6432885027997342,-0.13106308469670402,0.3613653182717256,0.6483017054454638,-0.7086860835651985,0.7522200146224689,0.1429752202958845,-0.7071332106976866,0.23488164185105442,0.017606861969728715,-0.639196502534505,0.4677572838281294,0.46599389910251054,-0.5374600924069044,0.13912209775463102,-0.3084903384094486,0.082401183861055,-0.9951713441504626,-0.683693783395978,-0.12625432288712202,0.6214314634840254,0.6907500500008306,0.1139371343026474,-0.8189263295133302,0.646068513200186,0.21578313489949386,-0.5773548381633533,-0.012460599128775618,-0.11083841802163952,-0.9993871340885134,-0.10586594537051819,-0.8554387647057102,-0.1606945574545886,0.7729717950087402,-0.9369247823096751,0.864578070983224,-0.9243818214280108,-0.5947942654925731,0.6088874988872293,0.38649665266104094,-0.4685956838233807,0.9725721539515806,0.005880554978934249,-0.5296604957717719,-0.10648200468438551,0.3462765925636109,-0.9941962407898568,0.17563360542802608,0.5316927420879096,-0.442025920225227,0.6345462036418856,-0.3705701017928422,0.4000474047842393,-0.23126860535816451,0.005617956394614154,-0.8112097520254371,-0.5006603795087645,0.9426651362335297,-0.34196905556460355,-0.9606654766263447,-0.2821029271389701,0.5910749611958253,-0.5126703582156038,-0.006233333456421741,0.8358133206761,0.8328631428800066,-0.6888589582255447,0.9053423174544712,0.3425849144992985,0.7108051802527984,-0.2876211844852061,-0.6445798650088115,-0.7291981584849638,0.9726857979489656,-0.530605563440681,0.18992052870106746,0.3653164906244921,-0.8639089822052726,-0.516231772237403,0.19730485006394582,0.29627562659896967,0.14143619262253204,0.9294774187690185,0.2759347299700001,0.7903893576265666,0.8729567002754035,0.8393248055427271,0.013842501893207126,-0.454566986146965,-0.7157284186042048,0.35334204851223827,0.3839259244483326,-0.7185172170279341,-0.6536484219520096,0.17216657915227507,0.6763535534188105,-0.782115058514883,0.0834924210527177,0.32107964906157527,0.9767307778741734,0.3729948044316933,-0.3263088285326936,-0.6632023906104532,0.1253913871042578,-0.4768624089588167,0.3901631224109441,0.9336599820050084,0.02263493522109017,-0.32528724177110835,-0.5785602827767466,-0.7125970429808044,-0.611088824555347,0.5055634733655161,0.8119672820206523,-0.6007005139818355,0.8561853155721979,-0.6970468317382761,0.781094196763086,0.7959317166203201,-0.22370680498260143,-0.9216865109687853,-0.15158199220618762,0.9551159072698217,-0.6334821075393802,0.7292582272184605,-0.8814345066730636,0.7447703052647743,0.08006327629500287,0.21586721059590408,0.8118452289121898,0.35387917808057656,-0.9538893321919564,-0.40825441217299785,0.6846639881266317,-0.38974703280704115,-0.30769056835376163,0.2565379431133623,-0.412638627098469,0.5376083950860311,0.24109293459413816,0.6509082703554456,0.015234648694299802,0.8754250466636275,-0.4610455462766161,-0.8162889541531677,-0.7585418754178888,-0.015644265490946774,0.5551418595969755,0.03992151340365502,-0.358215580861319,0.6425505344269078,0.30104511775952547,-0.5555742104845838,0.008952089547056286,0.9570871804609749,0.5918883090872276,0.10862212464508536,0.2481514607998876,0.9667526435580052,-0.5216629237610524,-0.9671445020625316,-0.21130127011582833,0.27607012640862116,0.14315658272842668,0.4084618878325479,-0.7952298563398752,0.5734309693451081,0.6629526225927702,-0.39861670297157015,-0.17605551585226453,0.2454524480407254,0.6050555518121983,0.14830843600584398,-0.28237481615701565,0.006461882728199919,0.9146627477076938,0.8174364201728825,0.7747062554172002,-0.9808737734620891,-0.9542425863484709,-0.5788433428511011,0.7471170973258225,-0.1040793628959562,0.5921633055188387,0.45383219685206355,0.7218618835382946,-0.1970903883342332,-0.014895264550917942,-0.6160167368962242,-0.06360925957266095,0.5990496269943251,-0.14424542340866164,0.5553957335437862,-0.8056517531456,-0.1774674729553809,-0.5092508935572826,0.3700400771133123,0.31811975652337177,-0.38837082642324217,0.09831233373259218,0.2717984646575351,-0.11350141413124804,0.1773551086687608,0.25675034712226097,-0.1060003809472092,0.6299312487766631,-0.0871130083403342,0.09545619660260418,-0.1878091347280686,-0.4133841719431681,0.5077755429353032,-0.8828867977356689,-0.6082565474867887,-0.15485416750421654,-0.5454486740878699,0.43051963859061826,0.30119511931763343,0.6202811252326885,-0.4434361920305343,-0.6963816798404936,0.0632945956630333,-0.2048914490327236,0.049507785921287795,-0.04781107140505059,-0.7210174281138448,-0.31306848341058546,-0.3897694370775633,-0.3807607263300061,-0.20933356655933588,-0.6169916972816845,0.610393994046396,-0.043252832169317745,0.8293089553868376,-0.3812331654637746,-0.9436352237897341,0.8387773029354837,0.2352094009541994,-0.47716708091689375,0.6200407415994587,-0.619835432865717,-0.9974317389793781,-0.41152185827401744,0.4121987078404865,-0.3333351143077874,0.7043777174389094,-0.6378041140205679,0.09832558892140342,0.9632271679915068,-0.8402259987009231,-0.809914242180499,0.18830140687924235,-0.04545403938139736,0.04248762286043872,-0.8819866322995049,0.05477609492866797,-0.7085357660764777,0.9197742632960895,-0.5853863382830868,-0.052365097523154436,0.4078321020499709,-0.09420972101228586,0.8869955900682633,-0.6691149421546054,0.49648586688285,0.4065664352195275,0.2951394061488708,0.10744408924436777,0.7053704598919217,-0.08879198117017006,0.5244192464822115,-0.27318226628424647,0.7084943212744774,0.5128135828979354,-0.7312818058328387,-0.28738924906188523,0.02601743134948764,-0.9394799026446572,0.9654064204317301,-0.736143105928333,-0.666483044878385,-0.621108625217867,-0.8179747692857449,0.8509722339924408,0.4566837879879977,-0.5133860651155824,0.776790080928317,0.8916797416144226,-0.35478828272756036,0.8703162616779672,0.37455271789630196,0.5244121663332062,-0.23599596232719966,-0.23497337337630952,-0.14846953869731272,0.5528835845716524,0.44095673269258673,-0.15175761891008843,0.03101951287084992,0.2292445855832992,0.6798181888351051,-0.703023379543436,-0.647009223951994,0.3517521554641121,0.7589986298393898,0.4563493944524055,0.306316116613331,-0.5854659254905326,0.7718193733886951,0.4397268405876469,-0.37744687884775563,0.8333866039561877,0.5444166621183442,0.30536663411559917,0.7961083285012038,0.4672019599657662,-0.7693268121508952,-0.7007719482183907,0.24061444232318752,0.8553628299110023,0.055279487180009745,0.7102219793488789,0.5796617538969737,0.654318548314095,-0.7029684307069199,0.8420523432345617,0.9441322398744931,-0.06303379223351357,0.752912388325818,-0.1096978980564951,0.7219183973112231,-0.5613453363512144,0.9615051577589726,0.1127360448592789],"weights_hh":[-0.32019382093149296,-0.10751508934185239,-0.5598487118583031,-0.34316056668678074,-0.9187246130021209,-0.18011600928947202,-0.9034003641652575,-0.8826507491936115,-0.4501375062356785,-0.4917932694267606,0.033707162186463524,0.7713081239386235,-0.11323744596266594,0.6070233741183222,-0.5133616099219462,-0.3483272922109173,0.9108645065469971,-0.40012428208985806,0.6862945568851777,0.2742597961903408,0.6208123042267712,0.7943353417817094,0.9925915929194951,-0.46287593262160254,-0.14959479861989466,0.5910841328738192,-0.6436148130050048,-0.5290262438584314,0.12366294031789504,-0.5432896454686511,0.7109922325788816,0.6265975737282263,-0.6984240885685653,-0.7992148656767972,-0.6364271969587478,-0.14246087046809408,-0.5458262896172339,0.38477915317270517,-0.8503135787805711,-0.7406465767518631,-0.2030891133595878,0.6842502150853911,0.9415607408608668,-0.7778719230229152,0.9818344593133621,-0.5945572198193769,0.213040148797911,0.9187773765307512,0.3408449860167315,-0.632391373661247,0.05728260956516684,-0.00674837149938301,-0.9808392653099536,-0.8776774990622953,-0.4943867784488787,0.8735862058551538,0.29752697070032696,-0.632661439397499,-0.7175662282929813,0.09632593877233298,0.11512554643886719,0.13726257897609595,-0.6927723764902973,-0.6441169271969658,-0.6437798270383539,0.36902598472474835,-0.5302520662144952,0.6331429653233398,-0.6634668075770278,0.33319310742235486,0.11109822226095267,-0.8643304993969296,0.011687943018833247,-0.10762363680330167,0.45572607902297624,-0.3178512358513941,0.10203737617204789,-0.27598342248743934,-0.9839728100059044,-0.38501536508885215,0.9919724419064981,-0.7617952994088488,0.5787917466133143,-0.35337054514304245,-0.041306150773567474,0.31131343776635667,-0.02544026217719675,0.2888804096590101,0.9134885639083163,-0.8796538743606894,0.030295881246520828,0.505786222371136,0.049897839262522004,-0.11585755429744804,0.18920778850648956,-0.022678348122162406,0.03484838502042664,0.9119018874185698,-0.8232271845836401,-0.018276576304442793,0.04464958743285896,-0.7321757932172213,0.2397241313096281,-0.5886836392647401,0.8360622468493808,-0.16854535036398932,-0.7900863522645662,-0.7446710930470375,0.22582725838411366,-0.0877335339124834,0.15936730193017112,-0.49060331746162333,0.5198718413253984,-0.4759652628121236,-0.994292919254439,-0.8246923990491231,-0.9141020717516892,-0.14827143487727112,0.6064177190256475,-0.48949325817530576,-0.6341947739010312,-0.0803230032728588,0.18090123293212335,-0.43649488709389006,-0.15712971893372485,0.06776921018064974,0.3522954946750605,0.09786794948801525,0.1124206207687406,0.15724226896422477,0.5551901079774921,0.6439648396457291,-0.48752713413244875,0.22406002797211344,0.7036829219815957,0.8023437485981488,-0.1674829518051042,0.9538709705627244,0.6097818935674715,0.8332313699552356,0.5696544005233668,0.6633622197629343,0.5728913977855716,0.27212086193650675,-0.03878030445653824,0.32634380725910694,-0.5700967989429491,0.8794500130794782,0.22165514068978487,-0.22898370449113803,0.33716510704275926,-0.13724858223469405,0.1754324147909494,-0.7209272185105389,-0.5545482100544512,-0.798343513955132,-0.921104398996933,-0.0808462829230423,0.021936694776708787,0.9889362568828413,0.04826778744514004,-0.826609785979993,0.44735974779413623,-0.8884099208055853,-0.5236294028065973,-0.07515269158429083,-0.6446543470057053,-0.9564163465636211,-0.3511677883491664,0.008020295601377958,-0.049326353758766706,0.27031314351794244,-0.12091705743558823,0.749513027792633,0.3015932965037178,-0.39380357569078517,0.24162963736633736,0.7620153469408271,0.9023531258813655,0.837011485691995,-0.3535429580095557,-0.6205923254996366,-0.9405199479057773,0.4051472240800631,0.9725130596529004,0.39648885007073176,0.7445076758855371,-0.12266382980280732,-0.792750590119871,-0.8807659603166118,-0.21488808881622967,0.8224533638854032,0.11829147973177045,-0.5827508620001625,-0.05632107244109874,-0.7978670730586142,0.4888089675065028,0.8948023686098026,0.3686659018519338,0.00061881693542154,-0.3824919379528402,-0.5254367593382621,0.6867806314178915,-0.5723913912158272,0.029115380060465545,0.5936654987140799,0.594108397015173,-0.6119077324348441,-0.24042558711784578,0.014680195786339612,-0.7669631285472136,0.9217389169581014,0.44340645066811035,0.9871255481087942,0.19085303618188032,0.10272992542205617,-0.3068024987394409,-0.3448100214529912,-0.4364636880649069,0.7970000931126175,-0.09345989821000211,0.7073510800398279,-0.5523578283601056,-0.9418156056457181,0.47311285921817614,-0.5212432020337037,0.6925515790475263,-0.907645748079974,0.41331606970901213,0.651977663595493,0.5928210937939382,0.41111562275201696,-0.7856182796071574,-0.3707730147380808,-0.49653656764664755,0.38722363380042624,-0.8786842805000934,-0.40665181518864,-0.8381256845947946,0.48956207948628894,0.6269491008298476,0.16795520024886113,-0.39009389640794323,-0.28849771987812245,-0.1847456557871645,-0.7692018171580219,-0.23482222656401563,0.03655827207704987,0.39962445398312796,0.27154062614858954,0.13192388239098807,0.9643728182353524,0.9725018317715257,0.8181542987973769,-0.11923425549194189,0.36043634859064655],"weights_ho":[0.7035342262959352,0.823780700223911,-0.3599818934226855,0.1689231902842283,0.2479629798650942,-0.9739232274108447,-0.3077534083851743,0.7951435949228098,-0.7504197019746759,-0.9643799725777875,0.14962804179074962,0.20816976014022193,0.8332574300905284,-0.9026777177185861,-0.7605254274781164,0.7831313766170958,0.1945855989248555,-0.8349480866706693,0.5600115030299959,0.2353890813034416,-0.7032226066312879,-0.8042974842188928,0.27715477014346646,-0.11194161951134474,0.19564843170505442,0.1671637883508299,-0.9527527537638976,-0.15216744882748268,-0.5569963756250753,-0.6386077849334246,-0.6050383690054402,-0.29445828188605305,0.6773153797944009,-0.8221470640832322,0.30826994861944335,-0.7906278048033888,0.7165403087656583,0.3544992186069762,-0.23255902312020948,0.22707361835261541,-0.3747197449533288,-0.1867762785677245,-0.9021590549691474,-0.7190024044592642,-0.2473856118677802,0.749778185384933,0.6956019107543745,0.28967142142729396,-0.731787571685989,0.31594606216741816,-0.9962591765906406,0.03264973416255201,-0.2864650870603771,-0.16762671720602218,-0.13240670270864885,0.11668123101005468,0.03990081207471774,-0.9276902100690141,-0.033781509101945995,0.7734625409005635,0.10428787024075259,-0.3922474593455447,0.5554453095132106,-0.5486682044878564],"bias_h0":[0.283425780682494,0.7525396409608238,-0.2018173691081233,0.10874282902687038,0.30721296320986236,0.18492568656513098,0.7498670410781052,0.1690936329411823,-0.3667543393368564,-0.8291722509642685,-0.7998794849390163,-0.7398955144322701,0.6362363020491928,0.23702767452909357,-0.8268147995147359,0.19613028776747554],"bias_h1":[-0.8709473291708223,0.6043518577905758,0.7406730599189255,-0.1960179629046217,-0.17085802458872146,-0.9499485301250137,-0.8106500982892839,0.4870579270958626,-0.24463112539503262,-0.1706717629012402,-0.2976901397306564,0.09929481007910712,-0.1388070845260636,-0.5798093743654085,-0.17026224857791883,0.5783789853406596],"bias_o":[-0.23121610428339556,0.26428623186540756,-0.2416045603515149,-0.8803339490287836]}