{"weights_ih":[0.30286241828374716,-0.15515590048995387,0.6302142748453428,0.27373995133308204,0.6889480406425881,-0.8303769384224142,0.5733923677154025,-0.6349326980981318,0.9645564594229399,0.8941064197375783,0.31076348543843624,0.471244558177526,0.24115522858696692,-0.8552694129116329,-0.7622295541838606,0.42236862683042053,-0.696279752835572,-0.300753018725312,0.017019903766718913,-0.7707663262589697,0.5400516072126966,-0.5594848718113214,0.2638525493284214,0.16732017121260911,0.3191827156343232,0.003545404792777873,-0.39378799382816343,-0.40338927905357513,-0.6149795255898967,-0.438421384150139,-0.042853223803865914,-0.3564109170513783,-0.9092070282867886,-0.015436276151098882,0.5193748054863951,-0.5688673149803611,0.8866395992621492,0.8917889613684815,-0.46099269797697007,-0.841798386506855,0.01928992603307167,0.12835560202696117,-0.07397897933353836,0.9533864011668465,-0.10049323448118264,-0.6185125944791832,0.11406301491989623,-0.08692215601481945,0.8743274740289497,0.3050754987561195,0.9799346622551177,0.29986754706191254,-0.7744385080563878,-0.8965988012593757,-0.698762631276868,-0.44373941039574416,0.1474299758041573,0.47142105004657364,0.8207907491757689,-0.12274461847328277,0.7823359135197834,-0.5581742933079576,-0.7695643564779793,0.17857238596201008,-0.3718656672955323,0.20536288647707024,-0.995340142626425,-0.9448360497503847,-0.7824389639760843,-0.09270551557247986,0.8313477285365871,-0.010547662663888069,-0.08312456325948414,0.5472144946233204,0.3805358615342562,-0.02069144387727606,0.38488004388682606,-0.18994033113736908,-0.1735254845657761,0.3147106465201148,0.08185653819863314,0.5290910900449528,0.06604562868869879,-0.612830047953888,0.5941196699879574,-0.8507777361317763,0.5868454411421791,0.9945253804872642,-0.6295549075377178,-0.5806066158972494,0.1532453829659004,-0.6729180157184971,-0.33942977776184247,-0.22889480706825505,-0.04346459363348876,0.14416907763283238,0.630558712038076,0.8567145332839297,0.1551795489431631,0.16217014976989286,0.8936163445249876,0.5473174371122416,-0.4133338734898331,-0.32437233081243444,-0.19382445008912264,-0.9402784065173362,-0.7698400297252044,0.7259515162192371,0.5893074443841675,0.298891352763206,-0.9052678715521696,-0.9641705053655076,0.0294259615712269,-0.9436577784497349,-0.8297572649669875,0.7643865431738583,0.2983546833077626,0.5624373314850004,0.9846264563191613,-0.7846392694086353,0.3005291177293343,-0.6647646528381959,-0.7071332106976866,0.7545513393330947,0.47611049947999784,-0.639196502534505,-0.7109955429360824,-0.7822324724224081,0.019911419394632368,-0.5422300480491524,0.20625403326671043,-0.6026102220412826,0.610930349197605,-0.906513769589862,0.15706605522020278,0.9650541156216621,0.19728291879609716,-0.674192682082758,-0.8189263295133302,0.7443453253339922,0.5260363855657944,0.22946634270985533,0.8851960851231804,-0.11083841802163952,0.27414928823827367,0.3746240758876074,0.686917959901058,-0.1606945574545886,-0.6719127856932285,0.5987972292291726,0.864578070983224,0.7985428571119488,-0.5947942654925731,0.08963474377285041,-0.8035281162189871,-0.7514305334142346,-0.7749478215736032,0.6218045655502464,0.8675263336713952,0.004367676775818952,-0.16285503741521135,-0.9941962407898568,-0.27768471573525777,0.07704570291219581,-0.8858208887711798,0.03658242200081263,-0.17960324294491703,-0.34877674201747455,-0.5337370224735059,0.9704966879438965,0.9099049323724508,0.7841944890326247,0.9768961834107404,-0.34196905556460355,-0.8525654934844966,-0.2302727984402344,-0.11039946969307168,-0.5963960490529578,0.11814016880176492,-0.09018482546465711,-0.047434948984970804,0.5472726796143161,-0.33291703156604413,0.12496378220515791,-0.0754963200572567,0.753048563176413,0.8596465833070932,-0.8321744701081915,0.9726857979489656,-0.530605563440681,-0.31199602242496405,-0.2539182327828564,-0.8639089822052726,-0.8592332138849423,0.5294492002927438,-0.9905953630094848,-0.23015965082348844,0.567907739561966,-0.013403133942880396,-0.6759128877640279,0.5087906533839295,0.7505021695834069,0.9180161907157081,-0.34225126261013905,0.18211801722652599,0.35334204851223827,-0.9217568893863024,0.44979789533547065,-0.2788651397486648,-0.5137213970799126,-0.12372008135583035,0.1728708609592262,-0.5741579824354501,-0.27356571986135747,-0.927305259573699,-0.9032270691530482,-0.3263088285326936,-0.04425025868036392,-0.5487401352302137,0.4149490105243061,0.5763118334151907,-0.24655287140107363,0.2464234883405403,0.22527708592103157,0.3900352111941856,0.42427828959988356,-0.8910770966823409,0.5055634733655161,0.8119672820206523,-0.6007005139818355,0.8561853155721979,0.022021952696745783,0.4974740183528763,-0.17666796912448923,-0.8872672141492337,-0.6306240147000803,-0.8467630115668661,0.7344192125138187,-0.6334821075393802,0.7292582272184605,-0.6959581216555162,0.8079278771658376,0.4569851447662765,0.37696056291930913,0.8118452289121898,0.35387917808057656,-0.85149947349063,0.44264962797986795,0.4926878045007439,0.1974392548512669,0.07834595279584944,-0.6323464589662557,-0.412638627098469,-0.8932510690161428,0.24109293459413816,0.6509082703554456,-0.22244826791660333,0.04445772440440954,0.7341276585344676,-0.8162889541531677,-0.7585418754178888,0.4601462721948606,-0.41336255352114026,0.03226756786139373,-0.6419077617199906,0.48585676870066385,-0.289171276793877,0.24029075352659213,0.008952089547056286,0.5203814497250174,-0.39353879050616425,0.03778828786069943,-0.48047344342583864,-0.13717914956570953,0.09509713326491465,-0.67273539403478,-0.21130127011582833,0.8300215208435386,0.656333263976111,0.4084618878325479,-0.3712971638189495,0.5734309693451081,-0.32662179462676333,-0.018542983297517246,0.5277894195778363,-0.7182618663937834,0.08153730007764892,0.20700719857675232,0.8992355164884427,-0.7796114517915989,-0.35474390765829256,0.8174364201728825,0.032154242867528326,0.6921896852044742,0.5667575532897093,0.5114816742221018,-0.2979825715309903,0.44179724058358505,0.39542642331979305,0.45383219685206355,0.42239777256456446,-0.1970903883342332,0.1894265687363228,-0.18415481885752905,-0.06360925957266095,0.2329193408576944,-0.14424542340866164,0.5553957335437862,-0.6139468040437663,0.9732342456738035,-0.5092508935572826,0.5622300495828407,-0.7863225711522361,0.15374827762397225,-0.1204798434310339,0.2717984646575351,-0.514567758614829,0.5046593413245593,-0.4443846387245258,0.729660527728841,-0.27655773797800953,-0.0871130083403342,0.09545619660260418,-0.1878091347280686,-0.6547011656283446,0.0651656177536395,-0.6841434942594684,-0.6971604870014487,-0.15485416750421654,-0.8036450420687844,-0.9183143953215029,0.1424541775176258,-0.4164542829081235,0.19808860348823742,0.22598145593540564,0.6876498307622336,-0.8715852283308938,0.7931812904229705,-0.6268707082474814,0.6816563945624836,-0.34777792977296107,-0.05169855193706163,0.7041282441184682,-0.20933356655933588,-0.34428348230910055,-0.7952038039402349,0.12930287921188288,0.9133286072358513,0.44912896182457307,-0.9436352237897341,-0.09032134988282148,-0.15841456988992597,0.4291834995444088,-0.12655753625597965,0.544940907311797,0.11097043432079357,0.6496253937425194,0.4121987078404865,0.6640730606358769,0.7043777174389094,-0.11484054977877767,0.09832558892140342,0.9632271679915068,-0.8402259987009231,-0.1993368898293244,0.18830140687924235,0.7254711349060563,-0.24272078761449767,-0.5187496513845373,-0.25231068286940395,-0.7085357660764777,0.9197742632960895,-0.21099959115180367,0.6230083567440037,0.4078321020499709,-0.09420972101228586,0.8869955900682633,0.5085941243034644,-0.29807497545183925,0.08424280628197622,0.0754286627108458,0.10744408924436777,0.12146320676735178,-0.6732645593123063,0.4403455940270957,0.6958693858966039,0.1124286077155443,-0.938140084085838,0.2642020716824447,-0.9896897603646826,0.02601743134948764,-0.03200712262831229,0.9654064204317301,-0.82821573954979,-0.7092114677647805,-0.621108625217867,-0.849371118569695,-0.2479348487217654,-0.5264924159611637,-0.028543482949497045,0.776790080928317,-0.8812585136795481,-0.7532735252629099,0.8703162616779672,0.37455271789630196,-0.20268407929922838,-0.798159683746386,-0.23497337337630952,-0.14846953869731272,0.9991537112708133,0.9970103801917805,0.13626034301888446,0.03101951287084992,0.7031320297549721,0.6706349657753101,0.4669783666424714,-0.647009223951994,-0.1028544022260609,0.7589986298393898,0.4563493944524055,0.6849549975779059,0.82712986203509,0.7718193733886951,0.4397268405876469,0.06615661172951359,0.8333866039561877,0.5444166621183442,0.30536663411559917,0.7961083285012038,0.4672019599657662,-0.8664018204098853,-0.9402129718886716,0.24061444232318752,0.9239538927455047,-0.5672514892827085,-0.48961041466453903,0.7228830928795866,0.654318548314095,-0.2592347542966591,0.17196151104402246,0.7346562336087903,-0.4647750611618855,-0.27472549120960643,0.549566544544547,0.8885613708423228,-0.5613453363512144,-0.20127651263011348,0.1127360448592789],"weights_hh":[-0.3360783367133431,-0.8261096075391821,0.20426152699641942,-0.5473933110338318,-0.9187246130021209,-0.18011600928947202,-0.9302471127771281,0.8088954846517675,-0.8810337501373118,0.674429155774015,0.7801644720489105,0.8053514884004787,-0.6201317448073436,-0.7713040617831504,-0.5133616099219462,-0.3483272922109173,0.8548174559323396,-0.926634106275718,-0.002742734540726266,0.08175866833875478,-0.4666363057290661,-0.3371495042387489,0.5176334455012843,-0.46287593262160254,0.3523310182798223,0.5129992895578339,-0.6414089377978929,-0.05871796261052453,-0.21024490084958036,-0.5432896454686511,0.7109922325788816,0.5343736748119376,-0.4487351721927091,-0.5554760445089844,-0.4968869593779157,-0.2751190037045703,-0.5458262896172339,-0.9482244091658094,0.3438750268655133,-0.7406465767518631,-0.8924013514986711,0.6842502150853911,0.482219850306288,-0.9361186509017152,-0.7119562552194589,-0.20834351851704325,-0.4158351279104815,0.8362018917359815,-0.3038199597239908,-0.632391373661247,-0.26765985535903813,-0.44272977605334773,-0.5500248192454966,-0.9834340551925527,-0.5106889882033683,0.09650603420976922,0.29752697070032696,0.9326141546913334,0.49272430242106147,-0.04322699916754669,0.46637938779371946,0.8218396684366776,0.5562005467144775,-0.6441169271969658,-0.6046087086139544,0.36902598472474835,0.13612303949787874,-0.4252801955449501,0.7261661668402326,-0.5766623027009077,-0.9289304364626139,-0.3202351841258748,-0.7804746041858739,0.9739009129199896,0.23770736580513518,-0.6356186604727345,0.10203737617204789,-0.796359594848721,0.8347057703064811,-0.18413055768435505,0.7628602085232326,-0.7617952994088488,-0.4188678495135283,-0.35337054514304245,-0.041306150773567474,0.47282538280497866,0.781144477732399,0.3251214195682224,-0.5022734106544309,-0.9736008525459261,-0.756956806990402,-0.10171231530296976,-0.9646228671726638,-0.1908809996263261,0.7489638949177719,-0.7055294142937045,0.008935716490759082,0.015373728468959236,0.028309877303551723,-0.19203196740696327,-0.815832562700836,-0.36404636672430724,-0.09385548101133367,0.9826750933195796,-0.021174207166609005,-0.3386377428292384,-0.2773696446866025,-0.7446710930470375,-0.6618346415904488,-0.22897868900061735,-0.4191036919390796,-0.49060331746162333,0.5198718413253984,0.9393938093951331,0.5057867267191751,-0.8246923990491231,-0.9141020717516892,0.6485073955324756,0.6064177190256475,-0.48949325817530576,0.9816871944138432,-0.9116740610770526,0.18090123293212335,-0.10155985938638046,-0.15712971893372485,0.9839618807197921,0.14332678540456656,-0.3316656401336644,0.2659945706312077,0.6448549245314954,-0.6657139124235822,0.7318796800930925,-0.48752713413244875,-0.19596360231575916,0.6593014554988728,-0.3194311473348148,-0.4445076382461641,-0.5201899368664566,0.6097818935674715,0.37468892719412517,0.5696544005233668,0.7073999411810032,0.5728913977855716,-0.838676976808693,0.34272602563914045,0.32634380725910694,-0.2187230446890973,-0.029532373681814272,-0.9074971595273191,-0.3925626620487488,0.465221919740211,-0.8804058833439712,-0.8953698273246675,-0.9160337407991768,-0.5545482100544512,-0.11420363329653349,0.3868705521031637,0.021965115369193544,-0.36189715378701237,0.9889362568828413,-0.2419340429174821,-0.5190711947493905,0.6481904971073038,0.5622397716977936,-0.5236294028065973,-0.07515269158429083,-0.25031646549107345,-0.053522231980323465,-0.026159424971314404,0.008020295601377958,0.19075150538491847,0.25289606582461177,0.49573295628283787,0.749513027792633,-0.3265124781098685,-0.39380357569078517,0.24162963736633736,-0.18927619367789106,-0.0913200306318569,0.837011485691995,-0.028730974962026368,-0.7284180568456027,-0.9405199479057773,0.1286449837539878,0.9725130596529004,-0.22182275114793648,-0.37953134511076914,0.4818740573147713,-0.469410574331256,0.5201125544037315,0.8782026329631296,0.3750262827478461,-0.8786920871646076,-0.8013979876555846,-0.05632107244109874,0.5322559312873414,-0.4702161613495661,-0.7802847838057918,0.25199185410740066,0.4216507350340053,-0.3824919379528402,-0.5254367593382621,0.6867806314178915,-0.7795525760806332,-0.833612043215217,0.5936654987140799,-0.048073939296017,-0.6119077324348441,-0.7776307971693033,0.014680195786339612,-0.7669631285472136,-0.602558720234587,-0.8745587404257835,-0.3745757958777909,0.19085303618188032,-0.17820806959167368,-0.31576308554157095,-0.479005785753289,-0.4364636880649069,0.7970000931126175,-0.33549094271896585,0.2611206700620592,-0.5523578283601056,0.5948374707045383,-0.09088645011100449,-0.5212432020337037,-0.0823993820244091,0.3221433148041122,-0.453407746417283,0.651977663595493,-0.051950761390741285,0.9420161088056644,-0.7856182796071574,0.15950065481277687,-0.3229964065195241,-0.3416113637616278,-0.7478168088489963,-0.3603706278035348,0.3915030883993702,0.48956207948628894,-0.8486054867709376,0.1528418934251472,-0.39009389640794323,-0.8382952683859242,-0.1847456557871645,-0.7692018171580219,-0.8565026211586733,-0.996936915490561,-0.3987863166715242,-0.03196692810598112,0.13192388239098807,0.9643728182353524,0.2354501023989959,0.8181542987973769,0.16608208860697515,0.36636320491053853],"weights_ho":[0.39459855865302007,0.455938445881783,0.19857262510982276,-0.39455132081521804,0.2479629798650942,-0.17402948432650667,-0.45865398617509334,0.7951435949228098,-0.7504197019746759,-0.9643799725777875,-0.4494011691997841,-0.806239396982795,-0.09902540701231999,-0.5958610624748737,0.2511531003887486,0.2435230780181319,0.916827685879261,0.2781296650808085,0.31334348910804466,0.7779970865925054,-0.7032226066312879,-0.4982826995245264,0.9887718049150789,0.7349765562062385,0.37376473702630975,-0.24771191089129885,-0.9527527537638976,-0.15216744882748268,-0.29148145223644706,-0.41469730515010816,-0.6050383690054402,-0.020174761562028243,0.16994726826641626,0.5165939429929516,0.30826994861944335,-0.7906278048033888,0.15156983403354451,-0.5304342636577288,-0.23255902312020948,-0.3277864070514884,0.7650315703169002,0.7551165796903843,0.9526569163618133,0.17237742715670956,-0.6220564038875509,-0.22737005750876516,0.6956019107543745,0.28967142142729396,0.7707747258707569,0.1816554656865932,-0.10180483158352271,0.6925376539732317,-0.584939579710114,0.7596980426039377,-0.13240670270864885,-0.41147683012857783,-0.819435843727508,-0.3377932091801743,0.8072220442988338,0.9585428392430293,-0.940737422548729,0.7287607014160065,-0.04807577271281649,-0.44952928786939017],"bias_h0":[-0.29542321963620277,-0.919821967247803,0.03911950817883025,-0.13182622316613135,0.30721296320986236,0.18492568656513098,-0.23033256156601256,-0.48735640564609506,-0.6859807356324805,0.018567797493972638,0.67240252883166,0.15740021603418142,0.29227452553037403,0.38138504858991196,-0.35259979102911276,0.09420120629364948],"bias_h1":[0.7581663224973807,0.7036627681856549,-0.03127618090292805,-0.8471064727081183,-0.43727321622992155,-0.31744908078731515,-0.5482499853332325,0.6413797745663548,-0.24463112539503262,-0.1872628825878937,-0.7709494042755909,-0.59977189239721,-0.1388070845260636,-0.32235998278602285,0.773920174995065,0.9982619250025226],"bias_o":[-0.7859825738005384,-0.6931108853513728,-0.2416045603515149,0.5989046699159306]}