{"weights_ih":[0.30286241828374716,0.1239735570506213,0.6302142748453428,0.8188498449747892,0.856610390206817,0.4406945605276873,0.11004457122238809,0.02506175267295574,-0.1871453238972196,0.002283781576599031,0.31076348543843624,-0.9195535354372322,0.24115522858696692,-0.8552694129116329,-0.7622295541838606,0.42236862683042053,-0.8999674716569332,-0.16694583124950957,0.017019903766718913,0.8669825545083409,0.004168428070468355,-0.5556571386457771,-0.424782773944379,0.5700386153481825,-0.36953024153675473,0.6375768851075101,-0.14468924446149933,-0.3811987484349335,0.07900614332928946,-0.438421384150139,-0.9084631151081024,0.6544954420425635,-0.3548006988573924,-0.015436276151098882,0.8414442534650259,0.38912017065895377,0.31780516795310865,-0.05916243071835625,-0.11202811701632087,0.2388688487285786,-0.19296076658132488,0.12835560202696117,-0.818319227412849,0.85443054236618,-0.10049323448118264,0.8153946104635998,0.11406301491989623,0.05529262887525577,0.1653565190650217,0.10300703686184809,-0.3058109985347215,0.1060239931509408,-0.866447481103541,-0.8965988012593757,-0.24053554795225618,-0.6028198699285785,-0.3720473287467001,-0.9204052654402091,-0.2208781111862299,0.6058604728426542,-0.05436864842458511,-0.5581742933079576,0.08871280425832184,0.17857238596201008,-0.3718656672955323,-0.6656317120588324,-0.6219266366395753,-0.11396417775137713,-0.7824389639760843,-0.8231297396551513,-0.5522964838670108,0.7597493147919614,-0.5077733519176424,0.5472144946233204,0.3805358615342562,-0.02069144387727606,0.5156820342625743,-0.9986196115662371,-0.3821795706097757,0.027350191575215455,0.07595992853953737,0.5290910900449528,0.09367213858048018,0.8252267676668388,0.07136624884605358,-0.2041931842668574,0.5868454411421791,0.011792079381276244,-0.7035960179740048,-0.836696199008744,0.1532453829659004,0.04451907269211719,-0.33942977776184247,-0.22889480706825505,-0.04346459363348876,0.14416907763283238,0.630558712038076,0.8567145332839297,0.8556866578581148,0.16217014976989286,-0.9785642213326919,0.5638843943625804,-0.4133338734898331,-0.32437233081243444,-0.8333060347251349,-0.40072444431196996,-0.3294877359558661,0.7259515162192371,0.5893074443841675,0.298891352763206,-0.9052678715521696,-0.8013931865315835,0.0294259615712269,0.7969246284140474,-0.8297572649669875,-0.09991697034058444,0.2983546833077626,0.9762349544614508,-0.37343098745983716,-0.6377201391803635,0.7522200146224689,0.1429752202958845,0.5647769875142656,-0.8111999217190351,0.017606861969728715,-0.639196502534505,-0.7109955429360824,-0.387378123613056,0.6905792004309637,-0.9557509506948678,0.20625403326671043,0.082401183861055,0.5804044553238854,0.5025693494971208,0.4558435427710634,0.7293601706851021,0.19728291879609716,-0.674192682082758,-0.4879890522569825,-0.9069327708761963,-0.5575907981436943,-0.15115190601904782,0.8851960851231804,-0.11083841802163952,0.8204745205436923,-0.8583755809402149,0.686917959901058,0.49786905389233116,0.6570126277808694,-0.5509840926502496,-0.7541225908125877,-0.6473753428090105,-0.5947942654925731,-0.0486292774389292,0.38649665266104094,-0.7514305334142346,0.1501521793993985,0.9088129638941886,0.6156054845714944,0.1784381977673577,0.9820381566812775,-0.3767346089458279,0.10591004867833198,0.5316927420879096,-0.04904899733401624,-0.7448114647230164,-0.38124237577013065,-0.4556309751955345,-0.41173127090349704,-0.5556099774224912,0.9099049323724508,-0.19712295990062634,0.03090463254989828,-0.34196905556460355,-0.1766250297252323,0.521983675087194,-0.6512017893282331,-0.5126703582156038,0.291360190115759,-0.09018482546465711,-0.047434948984970804,-0.4955467947056156,-0.0022670113254903423,0.26683450968638955,0.7108051802527984,0.5760447159509465,-0.6445798650088115,0.5086092936407753,0.9726857979489656,-0.530605563440681,-0.5027226962632889,-0.8045674218064911,-0.8639089822052726,0.5741516574868581,-0.8598701982921895,0.29627562659896967,0.07838746052195367,0.9294774187690185,-0.8680417014706665,-0.7003017268826832,0.7225419841140879,-0.22390256063184633,-0.8335976056201828,-0.5376992815394297,-0.7157284186042048,0.35334204851223827,0.3176859508722705,0.23216558665648934,0.4585178650456503,-0.8815050681704679,-0.6380586569987916,0.1728708609592262,-0.11677421890854367,0.5891159333669751,-0.4917222203528926,0.34282723398604253,-0.3263088285326936,-0.3078409700329392,0.1253913871042578,-0.8367487928495281,0.5911129224624663,0.16820991174376165,0.38260763098492734,0.22527708592103157,-0.5785602827767466,-0.9775330554134949,-0.8910770966823409,0.2785885235236423,0.11679711668759718,0.892652688391625,0.9911228098150631,-0.6970468317382761,0.4974740183528763,-0.6948209052416772,-0.22370680498260143,-0.6306240147000803,-0.47430618583534545,0.7598306933664785,-0.6334821075393802,-0.9908378306216143,-0.5038555859613225,-0.3669813244895581,0.14298271143921748,0.002471009236731936,0.9486029823004323,-0.6370740366797698,0.262507435590249,0.612597270922814,0.5422066194561741,0.1974392548512669,0.07834595279584944,-0.6323464589662557,-0.412638627098469,0.5376083950860311,0.24109293459413816,0.6509082703554456,0.015234648694299802,0.7299428192249,-0.4610455462766161,-0.8162889541531677,-0.7585418754178888,-0.433420201766221,-0.7737788429092056,-0.6038415108418431,-0.358215580861319,0.6425505344269078,-0.08214792895236389,0.28461023393488993,0.25468354832007645,0.946298871006571,-0.6549406131757476,0.10862212464508536,-0.48047344342583864,0.9667526435580052,0.04635388183120703,-0.9089388116777237,-0.21130127011582833,-0.040095836546067076,0.656333263976111,0.4084618878325479,-0.1722102563377279,0.5734309693451081,0.31423317306802856,-0.39861670297157015,0.5277894195778363,0.43599727342666883,0.08153730007764892,0.14830843600584398,-0.843580438408073,0.9171264114406872,0.7858307655101868,0.8174364201728825,-0.6621341678552539,0.6921896852044742,0.7739344136922486,-0.8958282989144677,-0.7417217885155687,-0.18485177165897348,0.39542642331979305,0.45383219685206355,0.7218618835382946,-0.1970903883342332,0.1894265687363228,-0.6160167368962242,-0.412922024002111,0.5990496269943251,0.62043641196701,0.5553957335437862,-0.6139468040437663,0.14952943139361685,-0.5092508935572826,0.9613937245954656,0.5682439198873042,-0.1157654307127387,-0.17964472985727786,0.1298347666036943,-0.9738179565036,0.8650584547820375,0.25675034712226097,-0.1060003809472092,0.6157339831563267,-0.0871130083403342,0.09545619660260418,0.9867442071047245,0.7198378396926117,0.0651656177536395,-0.7755203587879029,-0.6971604870014487,-0.15485416750421654,-0.5454486740878699,-0.5390745748677812,-0.9095798212449981,-0.8482813785588157,-0.6958013039775623,0.871214678326709,0.0632945956630333,-0.5081713897383278,0.7931812904229705,0.028269010328724864,0.008588428895040634,-0.34777792977296107,-0.05169855193706163,-0.3807607263300061,-0.20933356655933588,-0.21439034722750172,0.610393994046396,-0.6317228972407734,0.7006019507353409,-0.3812331654637746,0.22734576778508075,-0.09032134988282148,-0.15841456988992597,-0.3094243949747324,0.02309941229601664,0.32354752977444723,-0.9974317389793781,0.3154412843932839,0.43794207294456355,0.6640730606358769,0.7043777174389094,-0.5429558367028908,0.09832558892140342,-0.14718540984708617,0.2785809322468118,-0.1993368898293244,-0.5370266434055877,-0.07172788534099217,-0.47238907322621304,0.6291022484590081,0.8951014649330638,0.909042726062169,-0.19895534143035354,-0.21099959115180367,-0.26587799705130877,0.8752597431126881,-0.09420972101228586,0.8869955900682633,0.2932559435042077,-0.29807497545183925,-0.14850124141491272,-0.758087524282393,0.10744408924436777,-0.45881846386850156,-0.6732645593123063,0.5244192464822115,-0.27318226628424647,0.7084943212744774,-0.8740173402503666,0.23376627295723118,-0.37184912928146985,-0.009414768797662454,-0.7486351778760105,-0.4411010391412251,-0.736143105928333,-0.9123651951410794,-0.621108625217867,0.028070543319687724,0.8509722339924408,0.5500232091064046,-0.08017361917766896,0.776790080928317,0.7459794159751354,-0.5176789746396424,0.47887471753347866,0.37455271789630196,-0.4198793452330425,-0.798159683746386,-0.827955334608607,0.6808219025526656,0.04682182358174525,-0.055064750823239805,-0.9879256374731071,0.7034556551166953,0.36529123086701243,0.6798181888351051,0.12931639111564386,-0.647009223951994,-0.8614572585501714,0.8696587796282835,-0.5369348177898676,0.6849549975779059,-0.5854659254905326,0.3403181735449161,0.4397268405876469,-0.37744687884775563,0.8333866039561877,-0.08398891029503375,0.30536663411559917,0.7961083285012038,0.5544348750612387,-0.03284881767111281,-0.20783489681917455,0.23513779114019906,0.9239538927455047,-0.18644438566556643,0.5409253017511715,-0.4920743434043444,0.10670192991279848,-0.37720622954814687,0.17196151104402246,-0.969783235294678,-0.4647750611618855,-0.27472549120960643,0.12416392872264326,-0.11607660978663903,-0.5613453363512144,0.5426415372822706,0.47559768856207607],"weights_hh":[-0.32019382093149296,0.1247836139108136,-0.8379761408745727,-0.34316056668678074,-0.15901003631037214,-0.18011600928947202,-0.9034003641652575,-0.5650078152777664,-0.8101642002983278,0.1765081955306571,0.10856333293831555,-0.357953920454658,-0.6201317448073436,0.3220641861982041,-0.5133616099219462,-0.3483272922109173,-0.22803267493646495,-0.926634106275718,0.6862945568851777,0.2742597961903408,0.6208123042267712,-0.4519133807801221,0.9925915929194951,-0.46287593262160254,-0.14959479861989466,0.5910841328738192,-0.15563478008429943,0.9390653894948879,0.61143218733017,-0.5432896454686511,-0.29677909266364644,0.6265975737282263,-0.4487351721927091,-0.5554760445089844,-0.4968869593779157,-0.07522373740409183,-0.3881165064075536,0.006266341558986754,0.9865104354470979,0.2568550849829705,0.623794217087785,0.6842502150853911,0.9415607408608668,-0.9402623975824995,-0.7119562552194589,0.9183272303641024,0.07595450059591813,-0.7557839255268819,0.5258889980274226,0.3329396914258511,0.434890516524558,0.1423395909346472,-0.545050811701699,-0.654635135903783,-0.45983983801470796,-0.21048647790114527,0.29752697070032696,0.9326141546913334,0.34516056890464397,0.9853064292541367,0.46637938779371946,0.13726257897609595,0.5363405707507518,-0.46746761803773307,-0.9352658642875649,0.36902598472474835,-0.4007144778047149,-0.4252801955449501,0.03679386108644134,-0.6290371447121983,0.11109822226095267,-0.785997310183371,0.011687943018833247,0.9874973156592697,0.564863551173572,-0.6356186604727345,-0.0007638276748043182,-0.5415374708118492,-0.8017660859238918,-0.18413055768435505,0.9919724419064981,-0.7617952994088488,-0.7210888304707157,-0.35337054514304245,-0.041306150773567474,0.31131343776635667,0.5771812363569839,-0.011668008665041585,0.9134885639083163,-0.033257810249668784,-0.1864016523582992,-0.4047259160299772,0.049897839262522004,0.7772403524148521,0.18920778850648956,-0.8146567561583935,0.14258597243190851,0.015373728468959236,0.8288253967719714,0.38773544714047126,0.6916128598457143,0.023803807347899886,-0.8777816121031172,0.9826750933195796,0.8046082709906681,-0.16854535036398932,-0.7900863522645662,-0.7446710930470375,-0.5445287794651648,0.3182891317161549,-0.8078347254767329,-0.49060331746162333,0.015253679283481647,0.25247316034937417,0.5057867267191751,-0.7518029143400169,0.46130408646008636,0.2432926009584111,0.6064177190256475,-0.48949325817530576,-0.6341947739010312,-0.0803230032728588,0.3633080934853332,0.9459206711346089,-0.15712971893372485,0.09572751715113337,0.3522954946750605,0.7260534796197289,-0.576021604557811,-0.5527362934626778,-0.6657139124235822,-0.7257962173412724,-0.5776306106659694,-0.5326640220110752,0.6593014554988728,0.8023437485981488,-0.29426123334418675,0.9538709705627244,0.6097818935674715,0.8332313699552356,0.5696544005233668,-0.4263484973470364,0.6134767416763947,-0.6066528819155923,0.34272602563914045,0.46409366137587127,0.3505383033076652,0.07206522195789078,0.22165514068978487,-0.11394496923485864,0.28287173516151465,-0.8804058833439712,-0.22269357779222343,-0.19192938067514542,-0.34943240332814973,-0.0016135997085984233,0.6598378452976763,-0.0808462829230423,0.05169865640558147,0.5493050357894789,-0.2419340429174821,0.8868981920904448,-0.5604194492588623,0.8991535202938505,-0.4819921699310685,0.22023881141317792,-0.6446543470057053,-0.9477473040085596,-0.026159424971314404,0.7762254157602424,0.19075150538491847,0.16060124070748882,-0.5213507599331175,0.749513027792633,0.3015932965037178,-0.39380357569078517,0.4412055256005345,-0.47296663609159983,-0.0913200306318569,-0.8514913127905812,-0.9939876572523381,-0.3263594028296424,0.5895873539614604,0.6967130135990725,0.9725130596529004,-0.0068176394629866355,-0.7003910622114984,0.22193325063161362,-0.792750590119871,-0.8807659603166118,-0.4878866970840272,-0.1827211543976024,-0.8786920871646076,0.640597193994221,-0.9257111808370269,-0.7978670730586142,-0.14565652615734193,-0.7802847838057918,0.25199185410740066,-0.628369749682997,0.36803711251444016,-0.5254367593382621,0.6867806314178915,0.23914153112216363,0.6328919216226636,0.5702216754534459,-0.2922254676151357,0.23907663647523347,-0.24042558711784578,0.7597527886771391,-0.7669631285472136,-0.2157862394611587,-0.48828203126906744,0.6427043686921927,0.19085303618188032,-0.9901204932334804,-0.8465910902167442,-0.562602166127774,-0.4364636880649069,0.7970000931126175,0.9537709402917403,0.7073510800398279,-0.7733540214822674,0.9785953395087996,0.47311285921817614,-0.16005879465588535,0.6925515790475263,-0.907645748079974,0.10993585783490967,0.651977663595493,0.7298421739800853,0.41111562275201696,-0.9462412883913971,-0.01205577958342019,-0.805160319238365,-0.3416113637616278,-0.8256702090366816,0.5164140915185889,0.3915030883993702,-0.4819533795874338,0.2609622700867613,-0.980944320246165,-0.39009389640794323,-0.8382952683859242,-0.1847456557871645,-0.7692018171580219,0.45177395286517386,0.03655827207704987,0.38593493232607146,-0.03196692810598112,0.13192388239098807,-0.3141203735894291,0.2354501023989959,-0.8028454363052167,0.7375607471693593,0.3922611486757117],"weights_ho":[0.7035342262959352,0.6374477494925024,0.5612174082695507,-0.7361722292123687,0.2124529019283503,0.8265341931477852,-0.2690919350135321,0.7951435949228098,-0.7504197019746759,0.24511608063182533,-0.4494011691997841,0.20816976014022193,-0.09902540701231999,-0.33351610057183123,-0.4954915666264956,0.7831313766170958,0.6582231385930881,0.5264958407519384,0.49289933796004504,0.43103568689615157,0.3677688613676675,-0.4982826995245264,-0.6621005915452822,0.853755107391049,0.34411776647784476,-0.44827676599879895,-0.9527527537638976,0.520452594910781,0.5406460952856056,0.1054433423887855,0.3966184875487442,0.15087338179831478,0.16994726826641626,0.5165939429929516,-0.03261061844102131,-0.7906278048033888,-0.16227302242505792,0.5976234876962863,-0.29536735963334504,-0.23678949806153682,0.052875105774230935,0.0610558777315473,0.585554457917357,-0.6288303718461472,0.990715225719655,0.10550170994844588,0.4072455536045565,0.28967142142729396,0.7101003232306082,-0.02785411768784818,-0.9680494382726628,-0.5924833883070919,-0.645630542911666,0.8974389039832347,0.2934586752608064,0.11668123101005468,0.29735762557593404,-0.14690646388362816,0.8072220442988338,0.142341221322819,-0.14545402151713427,-0.3922474593455447,-0.04807577271281649,-0.5486682044878564],"bias_h0":[0.6936196096703686,-0.8888712586113694,0.03911950817883025,0.10874282902687038,0.30721296320986236,0.18492568656513098,0.21966615824933555,0.31348351584441025,0.30985310269213784,0.018567797493972638,0.2911922911182865,-0.4182263651690281,0.2675608238338405,0.7794743664575976,0.6213316802752225,0.19613028776747554],"bias_h1":[0.2765439250299875,-0.5412683371979563,-0.9907378326719185,-0.12243499375103872,-0.9385405885202558,0.6395755867422803,-0.6347188294856179,0.40133630433464407,-0.24463112539503262,-0.1706717629012402,-0.5893107308567505,0.09929481007910712,-0.1388070845260636,-0.5261523100398438,0.773920174995065,0.5783789853406596],"bias_o":[-0.5992481620924706,0.606643700494639,0.28321910864658983,-0.8803339490287836]}