{"weights_ih":[-0.7749911643349847,0.4307500912274296,-0.7471248306423441,0.7117493521064984,-0.7869239553163669,0.6489888301802584,0.264616718081631,0.6131337409169546,-0.5936962832705817,-0.1553418063173424,-0.9404390678424746,-0.13885121271210688,0.43541543958936013,0.26781593632471856,0.12513339610480045,-0.23984248341022396,0.6611722185841458,0.34278898768913524,0.8707171828029043,-0.013111820847838684,0.9994288442179928,-0.07427731758438494,0.3821497745928002,0.2641550097153367,0.7139504156396779,0.5341776740262798,0.346339319765677,-0.329612545554006,0.06044163939175373,-0.04099167783856439,0.15187000036498,0.02010975376391677,-0.1358383995671124,0.6296297491604752,-0.9745018532051719,0.9403568392400321,0.4202508013939785,0.07222498938279465,-0.5592966426076029,-0.4374647637492932,-0.7936159341936313,-0.8463143115850456,0.8148817968368187,0.837799768918245,0.3710797790130502,0.8948504589388129,-0.696853018075996,-0.5386297878133173,-0.41310540210990765,-0.4142656480126825,-0.42825340146712354,-0.5588536279153344,-0.633526267877125,-0.4877692999015122,0.5368082459897667,-0.13693344009727415,-0.13657998022324436,-0.8144665618739664,0.9485660119629489,0.7530367769215836,0.7204115832681413,-0.9750482591059937,-0.827228054350678,-0.7331814047152456,0.5648119661477344,0.9388910030516866,0.912068715925489,0.20621068977443735,0.7037714028486757,0.6389480644609087,0.3377022097467972,-0.46625837433790607,0.3818287121197579,0.9275532772322816,0.3342481845466503,0.4862516282797056,-0.2732507594155291,-0.46143941709528913,-0.5649811081043454,0.6397126970447224,-0.6818732072277993,0.21560031356504283,0.13454247407536934,-0.09276415226394708,-0.77512955242994,0.24678114282935937,0.0574668213142524,0.26507194781147225,-0.348440951761005,0.1097323030940558,0.13538297615797146,-0.24264209749329546,-0.5850453497489536,-0.0017025618910679885,0.4453172025208023,0.6682366456118243,-0.1801725487345709,-0.5168002833619163,-0.22020203698797136,-0.30424992286115593,-0.17843696385666408,0.7697779598075776,0.20293885820716584,0.6368365820366355,-0.19475702391929373,-0.9609750423204568,0.02917005735541167,-0.5751734642098685,0.36814047718366116,-0.8132045734680731,0.16472653234562573,-0.16406842129267996,-0.5504358495173982,0.2078230338867748,0.2317009983010314,0.19419165969419394,0.5437777674018605,-0.5089046062087992,0.9436297549060444,-0.29275491474656645,-0.3993224174855925,-0.3531407898605945,-0.4237932739995134,-0.8236902885192472,-0.722687781398204,-0.4550125104871965,0.780715677633733,0.389574905248121,-0.07493955196392776,-0.8933092721615823,0.9586780654223792,-0.8926757499295077,-0.3879865330626955,0.04572586809849688,-0.818041343141753,-0.1714569840774547,-0.4472448588754019,0.05084619563425585,0.32062825133048345,-0.7245562030990993,0.6732273444873063,-0.8754217530118606,-0.8301014137169145,0.35499681827508445,0.8607734121755268,0.6792067373115123,-0.9369302160392219,-0.715520345659425,0.9113219721940247,-0.0726247323564495,0.8175092163871849,-0.1705818445335976,0.4325818402589119,-0.7355217382620998,-0.7865469379050014,-0.03578248003879314,-0.792671531659392,-0.4748238014289563,-0.9847356370318467,-0.7766356905090122,-0.04564014323976129,0.11428637751991277,0.43313153783585445,-0.052404578610456554,-0.7825419738840675,-0.25298101335313694,-0.08945327628408495,-0.12351554409147081,0.4634086025260138,0.6628653239505446,-0.7337207919212123,0.25704610190753296,0.12183165853772127,-0.09256328895963972,0.8332591001602561,0.11166332523755673,-0.7990612220144111,-0.24411157242598236,0.47647893696121546,-0.6305196831377393,0.1412180667414793,-0.6651168691750458,0.33563411477436556,0.8789637538432409,0.7701217057760659,-0.9908385631666423,0.16049012525956474,0.12103724248381798,-0.49482284898582707,0.991025418585272,0.6908319426373419,0.685511620387151,-0.7415828618289144,-0.0592512077249181,-0.9442906795047588,-0.7818710901114503,-0.19034033216660595,-0.6893471078428313,-0.9524154852694402,-0.4766254869416773,-0.17516738426039757,-0.8296665315194509,-0.19786264304936219,0.3723209651224064,-0.003541981540523098,-0.49810959812822975,-0.688758192844237,0.4315678511760497,0.33175422394047227,-0.560549982395462,-0.8751987737817444,-0.6412889515671736,-0.05404689721606637,0.9350589261891764,-0.579961716359005,0.14755992967387033,-0.7711353826318854,-0.40641918966775226,0.3662231324188385,-0.3014365941972166,-0.8560771939851379,0.5844378367794965,0.2851762561802118,-0.7228342649650059,-0.7552485838114749,-0.6834823286012492,-0.006203924455672638,-0.30966831682611695,0.26690317767146743,-0.9334876257309936,0.7367246638247531,-0.8715452885668751,-0.10698479535064465,0.22322770266126368,0.5802842014226779,-0.008273596422177398,0.29740959225012387,0.6642130255478338,0.6629340668604109,0.6839221431172737,-0.47445008875987105,-0.19428531231212398,0.9290311792178272,-0.10815883981539232,-0.777289897672856,0.42891487998873035,0.005001674641173848,-0.8054273381188688,-0.2812490098129772,0.44324167271361237,-0.5839528843119364,-0.13801535530227693,0.3609002439994591,0.7257079248633789,-0.6006608394351169,-0.25791569161521877,-0.19779248827942952,-0.7270447367883197,0.5354151360148027,-0.4202382018559241,-0.23113083470428042,0.4339111906443702,0.37505341847739637,-0.5959956962353952,0.5164198799318886,0.5920971547246132,0.7595388560791592,-0.23413371350909662,-0.2645786542025075,0.7800576846229168,0.9998729840974785,0.13541352900614978,-0.3961199443872061,0.5374719966632473,-0.10385944376669198,0.8231548492916103,-0.9692957854311832,0.8996666289998712,-0.9480945013110582,-0.9788555677580784,0.5615631218986146,0.11563044648647747,-0.3486014261965962,0.024990126997854967,-0.9242156006252638,0.07330757546601618,-0.811333157644148,0.838673617820745,-0.9597531205719831,0.9853012271688095,-0.32191129223154125,0.48348261532214654,0.44587022914537844,-0.9120430729147544,-0.8036220620949761,0.1112144339942609,0.6567721414904615,0.827525636173335,0.5799694850954698,-0.3853422646568838,0.6126644354918693,0.1907953910075353,-0.39293570559035773,-0.33403105299586855,0.8501811062079057,-0.09701114581407544,-0.5545366171404473,0.4515506950309569,-0.36741994794136756,-0.05461300973732919,-0.6190269202181373,-0.9212801785204019,0.8796303245880162,0.26620513961607917,0.6082027901117171,-0.5313744298818068,-0.9815919508440185,0.3951580574741591,0.37519519382566613,-0.6145153194066413,0.42796979953119063,-0.38604111806183217,-0.43104667515433803,-0.59722832750036,-0.3155657404971717,-0.5329535375953434,0.99839622840543,-0.9937579853073684,-0.12875816486986547,-0.1349930787167135,-0.06418450132129205,-0.6584594875573362,0.4350104340482177,0.23611117882868626,0.8117451072033417,-0.544667626338146,-0.7649651460495728,0.4121287492081154,0.9248914845627454,-0.18344333448039918,0.9208817968533762,-0.3644091328569332,0.3176478901359585,-0.9082118001917525,0.104771412763907,-0.3565592397213917,0.963269850480714,0.5848088050983085,0.8156814264624086,-0.7706689259742574,-0.26557463083060573,-0.10506431763078594,-0.2180885691190797,0.19664378048549347,0.5751258046922556,0.5478797113901737,0.8900537704182399,0.3315366680303422,-0.9490820866106291,0.9982654380848428,-0.8148847155388523,0.00485802886999398,0.273861857196523,0.6591147736717686,-0.25480654481700316,-0.5889143606786091,-0.5410902855272601,-0.4916064603031698,0.2733521075073355,-0.5366715002116718,-0.024251348446028942,-0.22044512731976718,0.4964295098126492,-0.5432657134494558,0.5243268229408418,0.8818575509237869,0.45773952767948,0.48837173095926967,-0.7140407439408727,0.34547106489780943,0.14446403265178165,-0.1470682221086177,-0.8709169307766265,0.4561428711611166,-0.41888065063846525,-0.22618100670049968,-0.07710749005761475,0.7899696118122268,0.3586898833099401,-0.10012714078727813,0.6042305798900898,-0.21797628059120977,-0.1476383434352544,-0.6143531094942054,-0.175598201725927,-0.9459148298193665,0.7713668310793451,-0.8529895338321651,-0.5468055573723589,0.48308087180306547,0.8850055942942214,0.8820997686544014,-0.794039754298917,0.6335528609716583,0.7081463159907835,-0.09924679276442916,0.4628484741703971,0.9778502026934852,-0.9260901586397523,0.8604208403549205,0.20270593333824527,0.864895618308053,0.13583937841519433,0.21182868188412352,0.12366590594085514,0.4274312955022994,-0.1777610934401801,-0.10207014044305929,-0.48222286385715263,0.5979612432296677,-0.19706422879013408,0.06956844575301413,0.6112458434342913,0.5616459041277719,0.4494758942929904,0.22250465378255813,-0.6521181152036757,-0.544825471831393,0.45779202935383534,-0.8194019239975796,0.4032402155522159,-0.16054714864329567,-0.3260064029819332,-0.5104297321238394,0.12045064888669765,-0.06830044275510794,-0.790439211500465,-0.9920078772697924,-0.03453488968308038,-0.9710167680908104,0.4980821329982468,0.24534322076877135,0.5133091239066556,-0.8106529340184632,0.6667982439035471,0.9436107205987745,0.9530688180049736,-0.9796046588555669],"weights_hh":[-0.3472176171319019,-0.11500469624717247,0.7618053998254859,0.9160001922452936,0.6022816716348509,0.9381278840293026,-0.30465201348161797,-0.30361070647742827,0.7356697141512865,-0.6773866991381927,0.7547982770777604,0.9250350048107083,0.4533639228241162,0.5446337104323327,0.7211271942494788,0.9886582181001509,-0.08006756908456958,-0.3616228931923604,-0.7734635209835883,-0.18271130637716815,-0.6368245308970011,-0.9563061878737986,0.18901324974327793,-0.7381273679582603,-0.23086423976299542,0.669465905680011,0.7448256311590442,-0.9639709127483871,-0.8344796571442339,0.19546942712883952,-0.8359375057960907,-0.02091489308140959,-0.9211005844502074,-0.8820794786068367,0.976353066604408,-0.18405569279817646,0.7962846253544589,0.2803734939917455,-0.4285442923891152,0.6552002475239909,-0.06617047909027196,0.8010064517079096,-0.9950923750817524,0.35917225247046547,-0.8424456451348556,0.6193929917901093,0.572596570568479,0.5936416673144049,0.8717619709178275,0.2413957734887906,0.8167548937933924,0.06997831272199151,-0.7622840518118499,0.5658751600453826,0.040913075186610914,-0.8948897817549841,-0.18081057266601852,-0.42398758457294705,-0.7899055291427541,0.3900955257109102,-0.6832766954855451,-0.49499150171427053,-0.24079623778089498,0.2930162466213928,-0.656839455471607,0.4374609905854461,0.683488518923349,0.8595904841617519,0.3456740583534834,0.35269815081227773,-0.6678966658676813,0.7154253398417523,0.8167968346365426,0.23097208949198822,0.1719503462229861,0.16662904571116277,-0.7169311686475923,-0.4313217306541195,-0.1092615708050968,0.7659350536310625,0.3807154948324032,-0.45585981813309173,0.6210529837154846,0.38897111170819776,0.9183234389544295,-0.7026684909297134,-0.4250311772903539,0.13059395203091073,-0.5986883052950551,0.012869595929249744,-0.4043240139596791,0.8522001566001096,-0.4344876224987817,-0.9467812914837823,0.46128592349755637,-0.5389819855265077,-0.3431914769697211,-0.253767908756904,-0.6414237925283288,-0.9111503708141959,0.3023302092147191,0.9397616637090367,0.026909934837326954,-0.18805850108208344,-0.25976022889299477,0.5669931036776519,-0.011892629174077296,0.6600811609347019,-0.9389714249864967,-0.7403769225065004,0.4129530813166391,0.3900649243242398,0.4340191211468183,0.43203746861504433,0.26343959440448805,-0.18609828583118726,0.8179290397510761,0.9184034766744191,0.3244551694919433,-0.10965442156947147,-0.17806840109279465,0.9888241958271633,-0.6713687004536866,0.7293510442284263,0.8496866976765838,-0.881589661371184,0.9606081696764055,-0.6539976836308898,-0.5568938964712493,-0.8969506253199486,-0.2622945533144052,0.316005139023805,0.15604034136835865,0.06281960373246398,0.14022077609617312,0.12800187719584288,-0.4122565592667473,0.7767738000297033,-0.5208722122275262,-0.8037220036824779,0.7199604867436984,-0.27267771609908076,-0.19664330028533672,-0.3359051873735077,-0.724447691557853,0.6913512044919976,0.1718754945256511,-0.7131823211719297,-0.20270360264579135,0.5363696945359291,-0.7924968135984953,0.2656771457819289,-0.7975726442419457,0.36553572600408435,-0.089629022413241,-0.017909288000489854,-0.6047178970269393,0.7658825280104822,-0.22458749925206245,-0.14441601108449453,-0.18538211870481613,0.9571613700175388,-0.08504455882721884,-0.4897118413782866,-0.9265319051644187,0.6521278502345753,0.6954927024558986,-0.5507597276540148,0.2875322322838323,0.007548210155322366,0.6744324591068287,0.11766842470827732,0.9181666917379419,-0.352187454077292,-0.7144806536198218,0.12713344814971284,0.9516210523659236,0.633981678000461,0.7291634950768455,0.6451450732860495,-0.3238275414527325,-0.2733168904183787,0.07737629076913777,0.06903157827471906,-0.8748277470663068,0.6832580556244001,-0.41781312091149836,-0.5472199398068442,0.646491326387933,0.07591315164947754,0.8847722101868476,-0.398122304584251,0.7728854178222906,0.5495454247237836,-0.9589156985421585,0.540887541873317,0.48455978318960735,0.2924211010470257,0.8676380880587882,-0.5399812714722183,-0.10904894812875776,0.7734945585703332,0.7727532124304808,-0.6856729879515959,0.8306871175697814,0.5569684982284786,-0.6846251417657885,-0.6086685616397847,-0.7491634019319457,0.8439297074310741,0.3566312780457537,-0.9965918312504369,-0.3546231931497321,0.549104518948148,0.7551612263616694,-0.4202236953957925,0.6022932522650322,-0.10297176031453659,0.3167259988080937,-0.32471083490981845,-0.8129386455085643,-0.9133769803572249,0.7644336230060316,-0.8933075115835538,0.48770295663796914,0.5542342985648645,0.09268580607871613,0.5612004265766242,0.4290019496028974,-0.6589579851181306,0.5128980126718901,-0.9997197276497125,0.5726004439192596,0.30011467410669224,-0.5570969645631878,0.08397048527816464,0.801035689858818,0.9794163484108545,-0.626146636988155,-0.2578915152459169,0.026259122861374662,0.10870750334464896,-0.42517923059310014,-0.9066554446637669,-0.0823161555101879,-0.4509890621185728,0.6785341700110781,-0.6727596775727505,0.6697745402730562,-0.3063272636278469,0.16454186105638513,-0.2542849030800809,0.2990962386522791,-0.6820510515226641,0.11782835698543304,0.8211057256510768],"weights_ho":[0.4325179747810515,-0.5747607988432015,0.23470088380634135,0.773933077974869,-0.597588203527571,-0.9354696239679212,0.5733157327561322,-0.5963604947468608,-0.7416012142257906,-0.2397499257091491,-0.13682503712645477,0.6611953240869877,-0.33175591757164224,-0.3640253466235672,-0.11288301769524178,-0.568885808213488,0.6077042499560159,-0.9046466715760566,0.6856489993386827,-0.8162169119239095,0.8187108429021057,-0.002361737299154454,-0.5291373965738952,-0.7870871455049879,0.14434283403347448,-0.06820349446710217,0.5313851499338247,-0.7395993148982378,-0.5022304061188045,-0.9789825928417262,0.3648209093889021,-0.9830351319357542,0.4320727180488657,-0.5630337779355079,0.5762204583836876,-0.8830429755522691,-0.7884947008151995,0.7172799026047745,-0.25648915532957406,0.07427451156285847,0.3936399307975067,0.6597398143259807,0.34618211594021653,-0.5049097036335133,0.08519883359563463,-0.6732478977075924,0.2814096607636416,0.09254720151217799,-0.559826919059661,-0.6214268711859661,0.9323681657178207,-0.9040753572584952,0.07861128705391418,0.2170727423300176,0.3736046087157525,0.22470977872813025,0.7411653121280526,0.41660319715852356,-0.5765852767193491,0.9272299856833124,-0.30253012229520126,0.832809315936085,0.47002649804352137,0.5224122237208313],"bias_h0":[0.5506469592342524,-0.7729561211362739,-0.8244600670558495,0.8180019788390624,0.3642270848630451,-0.2560291990584189,-0.6750101376470294,-0.5428881531969183,-0.5950690570255475,-0.3421580554257069,0.29822204717125733,-0.07602551037463767,0.7061455989131156,0.2449362787204814,0.4094470449706533,0.6148522110734402],"bias_h1":[0.4376009173665132,-0.8553551328795961,0.07636325833994229,0.36027632073640636,-0.7667340458927807,0.3484909019544682,0.7761684252407177,-0.14807073621456657,0.7389788770983794,0.7334058334947782,0.6488187249159865,-0.8803051641328818,-0.3968273583189492,0.2487166083127479,0.3182185748357129,-0.8184688604223882],"bias_o":[-0.9824130109217128,-0.2533112117995562,0.5740930481391786,0.62393500358271]}