{"weights_ih":[0.30286241828374716,0.8759391197771929,0.6302142748453428,0.3851316157323055,0.20782253533653128,0.7740188797022773,0.11004457122238809,-0.6349326980981318,-0.5062501782827582,-0.49940166345677617,0.31076348543843624,-0.9149991821419847,0.24115522858696692,-0.8552694129116329,-0.3943100284159595,0.42236862683042053,-0.696279752835572,-0.018675727019185073,0.7776592757809229,0.8669825545083409,0.5400516072126966,-0.17048176243167412,-0.2995099037467186,0.5700386153481825,0.3191827156343232,0.2413983233443473,0.744996795231117,-0.3811987484349335,0.444409507005205,0.07115068183040862,-0.6484397936988295,-0.3564109170513783,-0.9092070282867886,0.6540677357750655,0.5193748054863951,-0.5688673149803611,0.31780516795310865,-0.05916243071835625,-0.9202927720746845,-0.841798386506855,-0.40577313987334285,-0.9566803310435039,0.3981272429034184,0.85443054236618,-0.7327542140244467,0.7935352271760747,0.11406301491989623,0.7763462483986716,0.8743274740289497,0.10300703686184809,-0.11235771609956346,0.29986754706191254,-0.01421519498793522,-0.8965988012593757,0.004672768426943641,0.7299017410091333,0.26272058191841996,-0.4356494246028788,-0.7844105457287263,-0.12274461847328277,-0.6981040176879763,-0.5581742933079576,-0.5202500999774258,-0.9617880536212255,-0.3718656672955323,0.20536288647707024,-0.9323632581827082,-0.9448360497503847,0.36461322250670825,-0.16101350135089487,0.8710885424129056,0.8964409178187618,-0.5077733519176424,-0.2518223697535069,0.6152728131326546,0.6936163000236559,0.38488004388682606,-0.9986196115662371,-0.1914507656477089,0.6655478009037896,0.08185653819863314,0.5290910900449528,0.09367213858048018,-0.7073882074584361,-0.5882696273389088,-0.8507777361317763,0.5868454411421791,0.7878434310221358,-0.37366318817544353,-0.5806066158972494,0.1532453829659004,-0.5330506102960051,-0.33942977776184247,-0.22889480706825505,-0.9672628979639735,0.14416907763283238,0.4819919040250309,0.05895604328844861,0.1551795489431631,0.09347073673590178,0.7827138305249017,0.5473174371122416,0.029141691899204014,-0.32437233081243444,-0.19382445008912264,0.9711659928167464,-0.6523494616557901,0.06050321219610755,-0.2565693359068364,0.298891352763206,0.38401605869627264,-0.37324070785648833,0.0294259615712269,-0.33159796580829193,0.08246530246531747,-0.9484279576097365,0.738449888070313,-0.9701663916880452,0.9846264563191613,-0.6377201391803635,0.7522200146224689,0.1429752202958845,0.2505488709759578,-0.9301101079782816,0.07476925369213627,-0.639196502534505,-0.39000530952453216,0.2554809576350554,-0.19786849263889406,-0.9557509506948678,0.20625403326671043,0.082401183861055,0.8052947203533891,-0.8529247453604076,-0.12625432288712202,0.11279590945419815,0.8696998313352386,0.3459655543785327,-0.4807882610489471,-0.4205131291193609,0.5260363855657944,0.9326278687430611,-0.3439906214270998,0.20566001319582328,-0.9360435490588541,0.6303929600156652,0.686917959901058,-0.1606945574545886,0.09868324088422797,0.569810261402603,0.864578070983224,0.7985428571119488,-0.5947942654925731,0.053812848251737266,0.38649665266104094,0.9525446414708516,0.9725721539515806,0.8573126173444663,-0.15131288606060322,0.7112020883979295,-0.30091473586873474,-0.9941962407898568,0.10591004867833198,0.8000681204184268,-0.13669198654106007,0.03658242200081263,0.8028514540076799,-0.34877674201747455,-0.3188653049402319,-0.7536275674571478,0.5675867627251754,0.08939707626945514,0.9768961834107404,-0.34196905556460355,-0.501144343577419,0.521983675087194,0.5910749611958253,0.8745052133629345,0.6009756328647811,-0.09018482546465711,-0.486006503685837,0.46503987027155524,-0.09654398061038805,-0.6351378416422864,0.7108051802527984,0.3342097152420822,-0.5907137216442004,0.5086092936407753,0.9726857979489656,0.8392749092464085,0.7815256273259898,-0.03902467126653075,0.8752404224439085,-0.516231772237403,-0.8598701982921895,0.8892209551430998,-0.8565306034168199,-0.8332615957522547,0.990437742072569,-0.6759128877640279,-0.9986807490788636,0.8393248055427271,0.013842501893207126,-0.5376992815394297,-0.7157284186042048,0.5662776211159473,0.7005627588961367,-0.7699441803464033,-0.31736045779718847,0.17216657915227507,-0.6380586569987916,0.6110350741869057,-0.11677421890854367,0.5753127945051033,-0.927305259573699,0.9305699119241579,-0.3263088285326936,-0.3078409700329392,0.1253913871042578,0.6651188300364956,-0.8555583983855466,-0.4254259353158216,-0.6136948600116232,-0.4864534049915161,0.7460120862898398,-0.8540331819124778,-0.8910770966823409,0.7196377998770966,0.8119672820206523,0.8428310641202152,0.6650423084365147,0.23599377872192173,0.8005763003009156,0.36010130849541033,-0.1994887636607685,-0.6306240147000803,-0.47430618583534545,0.7344192125138187,0.382616344686197,0.7292582272184605,-0.6959581216555162,0.7218427858031766,0.3246196235206307,-0.7105675010581556,0.8118452289121898,-0.35809905749612136,-0.10314046859929338,-0.33783283242221995,-0.7392589578153168,-0.6940899890453629,0.07834595279584944,-0.49330488233041847,-0.16480469319132496,0.921559376932878,0.04929244841496083,0.6509082703554456,0.015234648694299802,0.04445772440440954,-0.4610455462766161,-0.8162889541531677,-0.7585418754178888,-0.13337823336901566,-0.8995737643599615,-0.05600777194031403,-0.358215580861319,0.6425505344269078,-0.6619100665928295,0.28461023393488993,0.008952089547056286,0.7287313740456522,-0.6474388967744398,0.10862212464508536,0.8011107474295636,0.9667526435580052,0.09509713326491465,-0.67273539403478,-0.21130127011582833,-0.9620869980006705,0.656333263976111,-0.09997798302709415,-0.48462022594700693,0.5734309693451081,-0.7125957538280674,-0.39861670297157015,-0.5121037089359903,-0.962817890309039,0.08153730007764892,0.006199339467038767,0.8992355164884427,0.9171264114406872,0.7858307655101868,0.654172799401241,0.7747062554172002,0.5159236758002721,-0.743812440990834,-0.8958282989144677,0.7471170973258225,-0.41218211692904005,0.39542642331979305,-0.22012504001180488,-0.9834413433827534,-0.1970903883342332,-0.9580334725935826,-0.9953599469809427,-0.06360925957266095,0.18805949395541566,-0.14424542340866164,-0.19896763928042782,-0.5319563028947418,-0.8632175395628647,-0.5092508935572826,0.9613937245954656,0.5991072644564948,0.6215056943131128,-0.35900662289811835,0.2717984646575351,0.35878183436340594,0.5046593413245593,0.25675034712226097,-0.1060003809472092,0.6299312487766631,-0.9891602475077725,0.09545619660260418,-0.15035613998130026,-0.4133841719431681,0.0651656177536395,0.7974952366932708,-0.6971604870014487,-0.506720337036241,-0.5454486740878699,0.43051963859061826,-0.9095798212449981,-0.8482813785588157,-0.5079785874339069,-0.6963816798404936,-0.8179451802961153,-0.2048914490327236,-0.20881246636793493,0.9970584490479928,0.15761372358490355,-0.34777792977296107,-0.05169855193706163,-0.3807607263300061,-0.20933356655933588,0.47758527220531133,0.610393994046396,0.13106047151965217,-0.20360229417212272,-0.3812331654637746,0.8528031035285006,-0.6587263291585448,0.5331548444658185,-0.47716708091689375,0.4703272277278654,0.6251659808179018,-0.5772340873148532,0.15227370906469395,0.4121987078404865,0.7686586416595935,0.7043777174389094,-0.6378041140205679,-0.24947927633411138,0.6615363260468123,-0.8402259987009231,0.47759094664776436,-0.2173122464252386,-0.4200065967880109,0.03879118792765812,0.10344867214462217,0.7791545809152913,-0.6985563438888971,0.9197742632960895,-0.9096435538463843,-0.39232236976488233,0.4078321020499709,-0.09420972101228586,-0.446583081398237,-0.32562813158727977,-0.29807497545183925,-0.5617592631127157,0.0754286627108458,0.10744408924436777,-0.45881846386850156,-0.6732645593123063,-0.0035504545160558454,-0.27318226628424647,0.9171328734201154,-0.938140084085838,0.23376627295723118,0.5742478260635311,-0.8872768883446016,-0.03200712262831229,0.9654064204317301,-0.736143105928333,-0.666483044878385,-0.621108625217867,0.028070543319687724,0.8509722339924408,0.11286884571591327,0.8403455277187541,-0.7913656343594815,0.7459794159751354,0.23571951025328208,-0.40212447626623327,0.7038442060415719,-0.44444600009081214,0.7503293387176149,-0.027756621878403998,-0.14846953869731272,0.920898771449195,0.44095673269258673,-0.22784082997447586,0.03101951287084992,0.2292445855832992,0.8363878099174111,0.4669783666424714,0.4519456290660069,0.3517521554641121,0.7589986298393898,0.4563493944524055,0.6849549975779059,-0.5854659254905326,0.8465675811358093,-0.39198029461201656,-0.37744687884775563,0.8333866039561877,-0.9113217694863298,-0.022914936266592356,-0.9511637934931116,0.4672019599657662,-0.3251471043114378,-0.20783489681917455,0.24061444232318752,-0.8001917525380111,0.5243365775904498,-0.74354097170535,-0.25001747377045747,0.745962276496897,-0.37720622954814687,-0.2649752509773775,-0.6248786550107888,-0.4647750611618855,0.4939162136980577,-0.1096978980564951,0.9784520140698241,-0.5613453363512144,0.29807482325377155,0.1127360448592789],"weights_hh":[-0.32019382093149296,0.08621115176801775,-0.23656034146288984,-0.34316056668678074,0.3613174235312673,-0.18011600928947202,-0.9034003641652575,-0.6375172735233627,-0.17368537793515149,-0.05018556392930007,0.033707162186463524,-0.38473538863477175,0.6324891672927262,-0.3530573687383649,-0.5133616099219462,-0.634566997122916,0.34133754001816596,0.20489559639879396,0.010180206865427532,-0.03409591404822554,0.6208123042267712,-0.3371495042387489,-0.6840056273169985,-0.46287593262160254,-0.734584342024426,0.9138359757450101,0.8558544082507598,-0.5300602818144489,-0.20917245423986364,0.8517232416052793,-0.7074899865899271,0.6265975737282263,-0.4487351721927091,0.6864363035999947,-0.4968869593779157,-0.14246087046809408,0.9469453135856796,0.006266341558986754,-0.793411713745303,-0.7406465767518631,-0.8924013514986711,0.6842502150853911,0.9415607408608668,-0.9361186509017152,-0.7119562552194589,0.4408901536642986,-0.23911915622102398,-0.3290427512763119,-0.20407192820751452,-0.02502677575439649,0.5438373038994695,0.5133720089830198,0.7672376911950514,-0.9834340551925527,0.3273733589081873,0.14125369317515268,0.29752697070032696,0.9326141546913334,-0.8466356882385941,0.9853064292541367,-0.9212002854795016,0.4838837209864677,0.5363405707507518,0.11465669613618013,-0.0021509864072557505,0.8114820926781434,-0.020385345323090887,0.9585944009998424,0.5706119452373184,0.14416142998249937,0.22434219163709002,0.7823159734268867,0.011687943018833247,0.5403979310885041,0.45572607902297624,-0.6356186604727345,0.5527057221954224,-0.7721378900744593,0.013095425479987322,-0.18413055768435505,0.789404283293154,-0.7617952994088488,-0.7210888304707157,-0.06460736981118487,-0.041306150773567474,0.7529023914705388,-0.02544026217719675,0.2888804096590101,0.9134885639083163,-0.8796538743606894,-0.523362470481604,-0.6399906537029982,0.22636295792328842,-0.11585755429744804,0.5441673660133532,-0.8146567561583935,0.008935716490759082,0.015373728468959236,0.8288253967719714,-0.018276576304442793,0.9406493342261935,-0.14088841692331955,0.2397241313096281,0.9826750933195796,0.3409180047549283,-0.16854535036398932,-0.7900863522645662,-0.7446710930470375,0.24095085525353221,-0.9874630630095214,-0.4191036919390796,-0.49060331746162333,-0.8244332467063682,0.9563593716631726,0.5057867267191751,-0.8246923990491231,-0.5599040168730651,-0.5788719218973544,0.6064177190256475,-0.833189056376801,-0.42539063461105364,-0.0803230032728588,-0.6983981750183861,-0.43649488709389006,-0.15712971893372485,-0.22097454869809185,0.5910370017010043,-0.8715271748800397,-0.576021604557811,-0.11528727686460316,-0.126182853677695,-0.7257962173412724,0.39472515339516057,-0.12626054149501598,0.6593014554988728,0.8023437485981488,0.6433859317810555,0.34141518575782004,0.6097818935674715,-0.5705497277636233,0.43129088362151524,0.6633622197629343,0.11783104199067895,-0.8172855656338214,0.2407103951184999,0.7688260853705731,-0.8110408219834673,-0.245621489923475,0.22165514068978487,-0.8454844336105178,0.4339447093232356,-0.21932441585614137,0.41896269704305955,-0.7209272185105389,-0.46548054653759996,-0.47916559590981245,0.793578763119889,-0.44520348075610583,-0.36189715378701237,-0.08586333632366272,-0.2419340429174821,-0.826609785979993,0.6481904971073038,-0.052854507056542044,-0.5236294028065973,-0.8614829651681826,-0.6446543470057053,-0.053522231980323465,-0.026159424971314404,0.3516080882399695,0.19075150538491847,0.05161090859975914,0.49573295628283787,0.749513027792633,0.3015932965037178,-0.39380357569078517,0.24162963736633736,-0.18927619367789106,0.775709446830946,0.837011485691995,0.34201580692290423,0.9006754041374823,-0.9405199479057773,-0.7695068934764571,0.9725130596529004,-0.5614494612548155,-0.37953134511076914,-0.09612329943739728,-0.792750590119871,-0.8807659603166118,0.8782026329631296,0.3750262827478461,-0.26920074316053766,0.3361891893802944,-0.05632107244109874,-0.7978670730586142,-0.4702161613495661,-0.7802847838057918,0.25199185410740066,-0.27317189028277356,-0.3824919379528402,-0.5254367593382621,0.6867806314178915,-0.11829326518267114,0.029115380060465545,0.5936654987140799,0.09304496725362066,-0.6119077324348441,-0.24042558711784578,-0.9932479006640984,-0.7669631285472136,-0.9729028568346301,0.45077091004236247,0.51410288315543,0.19085303618188032,0.16518563711266765,-0.31617461444432093,0.3361370973690361,-0.4364636880649069,0.05694335252842042,0.61235687625471,0.7073510800398279,-0.5523578283601056,-0.15931708836798197,0.7312027795537699,-0.5212432020337037,-0.6968271691176053,-0.907645748079974,0.10993585783490967,-0.5018680298079385,0.3977002568492267,-0.40867044367849403,0.43314422917650486,-0.3707730147380808,-0.7319619743805015,-0.3416113637616278,-0.8786842805000934,0.5164140915185889,0.3915030883993702,-0.3006204845197169,-0.46369828105198385,0.2168554901131423,-0.39009389640794323,-0.8382952683859242,-0.1847456557871645,-0.7692018171580219,-0.7297329938405028,0.801074658917569,-0.15813625085097627,0.3414407494109051,-0.24153789142406001,0.8137552382483906,0.8579127397761463,-0.6564989406411785,-0.8536105210427118,-0.9356932860687261],"weights_ho":[0.9551084657377009,0.9342865403341007,0.2784064105551185,0.038665439965679615,0.2479629798650942,-0.04784251167275366,-0.2690919350135321,-0.3953811307407977,0.9844391115828712,-0.9643799725777875,0.4835539562110711,-0.17912009963594966,-0.09902540701231999,-0.765115767712027,-0.49364134557656913,0.18755857772579532,-0.9949378671297182,0.37030688203525264,-0.9070919941218012,-0.024830639900155216,-0.9436995314697398,0.46302304222718615,0.9125025089521264,0.6822537715461894,0.7938601013525981,0.23229551709420693,-0.9527527537638976,-0.4741935625649696,-0.10493384244390569,-0.41469730515010816,-0.40223284965058737,-0.29445828188605305,0.16994726826641626,-0.14299075186369792,0.30826994861944335,0.527501793069709,0.15156983403354451,-0.436193451530017,-0.10803432848547567,-0.5453974227947356,0.7650315703169002,-0.7006683103679867,-0.8949469028021495,-0.9631235357112786,-0.6220564038875509,0.36305512017702957,0.264727827142222,0.28967142142729396,-0.652085563804085,0.06155373821405963,-0.7410381522982463,-0.8661015342045812,-0.9264759256150283,-0.06806734813540505,-0.4931314157241262,0.11668123101005468,-0.7669229064130401,-0.9276902100690141,0.8072220442988338,0.142341221322819,-0.48190402681897115,0.918792247741351,-0.11792301952136053,-0.06087086631693217],"bias_h0":[-0.4407733686461246,-0.8347939208014803,-0.3959216001005459,0.49649751534934494,0.9801793214675898,0.4662179601275549,0.32936134567472597,-0.9459590807352445,-0.6859807356324805,0.018567797493972638,-0.7998794849390163,-0.5547136130606127,0.6362363020491928,0.23702767452909357,0.8285719734820434,-0.361369075712459],"bias_h1":[0.28315983622717056,-0.5412683371979563,-0.3323601621880674,0.38129985759739826,-0.9385405885202558,0.1472193887674993,-0.6347188294856179,0.5933625515619985,-0.3231770958354052,-0.1706717629012402,-0.5893107308567505,0.09929481007910712,-0.1388070845260636,-0.5261523100398438,0.773920174995065,0.5783789853406596],"bias_o":[0.30152621181674966,-0.7107396315106151,-0.2416045603515149,-0.8803339490287836]}