{"weights_ih":[0.19198983471922837,0.1239735570506213,0.42285661004381137,-0.8393797601053916,0.856610390206817,-0.4504301019704655,-0.6983347142453102,0.02506175267295574,-0.1871453238972196,0.6785177816663157,-0.4151333099202539,-0.9195535354372322,-0.5485887083459591,0.6418371399998766,0.31959084036306207,0.09944898898708021,0.5385187539009533,0.017811017847300104,-0.06153790070451248,0.23807946794765877,0.004168428070468355,0.4008093046666934,0.2624375087052344,-0.2155239912687663,-0.5350247973223914,0.7677720518723481,-0.14468924446149933,0.421909500773034,0.07900614332928946,-0.8377980579977673,-0.9084631151081024,0.6544954420425635,-0.3548006988573924,-0.5066423385631198,-0.9010334013198049,0.38912017065895377,0.5334522845396827,-0.4081061497514451,0.7167982779355906,0.2388688487285786,0.10175167618132086,0.9189637098034471,-0.3552595378176149,0.17910962699531496,0.5493468893131894,-0.9452547446513615,-0.9857327627795902,0.3319458649440459,0.1653565190650217,-0.4502449482278652,-0.022447629926940715,-0.18812452033325955,0.6921599684418396,-0.4175902341603497,-0.6773736473432024,-0.6028198699285785,-0.3720473287467001,0.2834087425786833,-0.8946659445074212,-0.834688430448068,-0.05436864842458511,0.3355732521165964,0.9879352214715162,0.19560070175499167,0.19980097278844844,0.6503954058223451,0.6328243820086437,-0.11396417775137713,0.7540425829902739,0.1887236640154677,-0.6324568190086313,0.36475661325498177,-0.9255677710946097,-0.030867547975754084,-0.429304059616874,-0.15909247590127418,0.8617030627235744,0.46261976525458093,-0.39272118332003103,0.027350191575215455,0.07595992853953737,-0.9063887400730397,0.07396474399881359,0.10465560783799166,0.45414137876063165,0.24185221372660903,-0.7617525476793661,0.011792079381276244,-0.7035960179740048,-0.8453309068935997,0.550024383928621,0.04451907269211719,-0.46324359550550986,0.7270035110842668,0.12246705478830688,0.6708287408866438,0.3949734793349813,0.06847678333435425,-0.608880247708206,0.6924196185878764,0.8288862711937766,0.18723512173799883,0.21178836189365624,-0.6879425023503176,-0.8333060347251349,-0.5814952831793152,0.4317509835908335,0.5699495941131414,0.7750039452624764,-0.22273288031368343,0.4101442492874454,-0.015085736977299202,0.49085727822305447,0.7969246284140474,0.9592169635353618,-0.8114556306445817,0.2355291236474526,0.9762349544614508,0.9747975453800026,-0.049700724233901816,0.25670176949886714,0.2819823263397925,0.5647769875142656,-0.6017907539372016,-0.1576068891921587,-0.3207251460835594,0.6295096047297724,-0.5507219981523857,0.6905792004309637,0.2996120552866024,-0.18633424407670685,0.8352203060985839,-0.6590253527629302,-0.10091187939805102,0.21719570237736074,0.7293601706851021,0.46070472629466597,-0.0694889612392926,-0.4879890522569825,-0.9069327708761963,-0.5575907981436943,-0.43239628303726074,0.21089594283668345,0.8241761606702616,0.7510153502324699,-0.8583755809402149,-0.07265437265114727,0.26629422856037177,-0.8240738030426409,-0.1639033182243801,-0.7541225908125877,-0.37730473031230605,-0.05534309340145693,-0.0486292774389292,0.023685441174524646,-0.9742504169588022,0.1501521793993985,0.8233080728943107,0.6156054845714944,0.9876132044044434,0.9820381566812775,-0.3767346089458279,-0.724514893238722,-0.3198218389803831,-0.04904899733401624,0.7400809699235471,-0.38124237577013065,-0.4556309751955345,0.9408522954628706,-0.5556099774224912,0.09789353698489012,0.9247644824125476,-0.6640506222536178,0.5136018696451798,-0.22198375495659062,-0.592256679091338,-0.6512017893282331,0.11657631276217373,-0.3997072623903526,0.180803045680632,-0.655261101988678,-0.1651311430830047,-0.019819644562925953,-0.49715163297252785,0.17728160745139454,-0.5922214173224503,0.896075133553196,0.04175180928206634,-0.39055181724990295,-0.00377723153319498,0.6351256033860486,-0.6545809191872283,0.41515868611995255,-0.6923927317881557,0.7946760661816907,-0.5303300745607105,-0.540388648211769,0.12545121965088635,-0.8680417014706665,-0.32650462596569096,-0.7190990310841607,-0.22390256063184633,-0.8335976056201828,-0.5593132289187732,-0.20047191575990775,-0.28117241080120214,0.3176859508722705,0.6545714423166276,0.7061104409161876,0.21096496795209885,-0.7369585360096416,-0.019279341263632732,-0.4347375617077325,-0.9189963155435428,-0.4917222203528926,0.34282723398604253,0.8899715457821067,-0.03843706733665386,0.9548581901069204,-0.50127462785194,0.4628172055329933,-0.6378873642457228,0.883823200917899,0.9346168302912465,0.691382747223273,-0.926270437169523,0.4212059117668474,0.2785885235236423,0.11679711668759718,0.896841668334385,-0.8226796685809816,-0.3750325222377051,-0.5977079823770826,-0.5836781810263951,0.40920922412449023,0.43846452674021097,-0.9729044690287139,-0.08118963210393915,-0.5809472667037561,-0.9908378306216143,0.08016532592036141,-0.3669813244895581,0.14298271143921748,0.002471009236731936,-0.6432737916602771,-0.6370740366797698,0.7096363953242966,-0.24687333657772825,0.062290094899753345,0.3826833260324609,-0.18642596688745683,0.9173062769700144,0.3806368445248267,-0.47414183037206925,-0.6778573588938293,-0.1599142997781855,0.2088562892645227,0.7299428192249,0.07159419291983715,-0.6446152092172754,0.15670755996057362,0.2549479064671645,-0.7737788429092056,0.3750809280394891,0.5560047314057204,0.5618694390657697,-0.7442176101036808,-0.7962408882529153,-0.7146968524560853,0.946298871006571,-0.6549406131757476,-0.318426152455628,-0.8428785980762536,0.689388412099428,-0.32969633840078094,-0.9089388116777237,-0.8555535933999898,-0.37574597771233065,-0.29139769151006933,0.699140692625225,-0.1722102563377279,0.85286190328,0.790850248697033,0.46545247802348766,-0.07987945444003541,0.43599727342666883,0.4701784337649666,-0.36128695573120506,-0.843580438408073,-0.6427952804525268,0.5165940972624612,0.4686088602578711,-0.6621341678552539,-0.8832641771449323,-0.6449258483520275,-0.3196001954793437,-0.7005989924805922,0.35671037391494376,0.4785064536764183,0.6185699823202051,0.29770054167110915,-0.6974117130592101,0.5828377689464195,0.5187120011157142,0.5507456928582244,0.2313792570712263,0.62043641196701,-0.5419839684817254,0.8561672739965343,0.14952943139361685,0.49758189921449447,0.4582431636490454,0.5682439198873042,-0.1157654307127387,-0.17964472985727786,-0.8405806802490181,-0.9738179565036,-0.4854496332548106,-0.22781145191032004,0.027626766639117672,-0.7227237222638374,-0.7605562668488934,0.7731299937701519,0.4617715393445361,0.7198378396926117,0.9521072558113846,0.5477564435041382,-0.6151149808349292,0.04969563013561107,0.22030158612806527,-0.0894765694625741,-0.08788390310121885,-0.52144122900097,0.16166751759625586,-0.732084791224781,-0.8047591181768152,0.4668645767014874,0.662316235868414,0.13977131081025607,0.008588428895040634,0.5881065129372633,0.06470758318070913,0.6391064564506945,0.5245796855383691,0.833346362279187,0.3844766699398805,-0.6317228972407734,0.7006019507353409,-0.9218474383646842,0.22734576778508075,-0.9091912213933777,-0.25969063723273766,-0.3094243949747324,-0.43299718383602115,-0.6744770827671385,-0.8862504613740825,0.4317473408157151,0.43794207294456355,0.9236556809543497,-0.11997290901684754,-0.5429558367028908,0.9090588255613823,-0.14718540984708617,-0.2515817129815139,0.9772019941951213,0.025999981415349982,0.47875282641421224,0.8304816661114363,-0.42224442014818653,0.8951014649330638,-0.7383816602622062,-0.2119348305659845,0.9399439025828509,-0.6550122843454809,0.7476344412855109,0.43429037484394106,-0.28952435199790694,0.2932559435042077,-0.13956030495146643,-0.14850124141491272,-0.758087524282393,-0.3772796400273648,0.19041135643354146,-0.2941547313230495,-0.3606060441823906,0.8077965420674635,-0.40557116860254383,-0.8740173402503666,0.38056548183323424,0.9180577072793601,-0.009414768797662454,-0.7486351778760105,0.5232211464771139,-0.2220212432984341,0.7652824484366345,-0.9414106753878908,0.6134506236349364,0.3197450930957457,-0.16410307052701456,0.062031475618466336,-0.20200889809013,-0.43648198859332354,-0.763354248372488,0.47887471753347866,0.06099041874772171,-0.4198793452330425,-0.24033386200311435,0.9999229833983985,0.6808219025526656,0.8256667083515836,0.6911338365594628,-0.7785331135909555,0.7034556551166953,-0.35825654757861636,0.41836380379780347,0.9577768833846072,-0.9204890457321468,-0.17859103485943995,-0.6137830834726514,-0.5369348177898676,0.9348375408313638,-0.5972958969628543,0.3403181735449161,-0.6591903800109471,0.9267384620250749,0.7013818236084897,-0.5291840270909685,-0.7112680549491084,0.41366028277228173,0.5544348750612387,-0.05494894171243825,-0.3866042722336893,0.23513779114019906,-0.9623270207259145,0.4919118470833639,0.5834140645837584,-0.6932131199435649,0.10670192991279848,0.624171665725419,0.08629584356178199,-0.2829025881398788,-0.03880415886287669,-0.07167946273024928,0.12416392872264326,-0.49467923264169156,0.22634613147781746,0.012142025150235325,0.47559768856207607],"weights_hh":[0.40205011819089376,-0.5442846673919188,-0.8655604786477087,-0.6223945876508012,-0.6284233375051871,0.551084985617629,-0.9279104401373985,-0.6644472858338111,0.18218268879344834,0.1765081955306571,-0.6489013377689903,-0.2228871646338375,0.7666149874168315,0.3220641861982041,-0.8593399104755197,-0.2448212094938922,-0.10112353572896837,-0.3400718524032862,0.16659248408242266,0.3211635372698891,0.7740585228617212,-0.4519133807801221,-0.7212049402216902,0.9265343649093869,-0.985333065820476,-0.373747472345624,0.5509944866384278,0.902029654831561,0.61143218733017,0.2496447561015438,0.1544647233486225,-0.6302387582015527,0.33628068260001887,0.1659389573187291,-0.4209251717934863,0.2128939588339036,0.6940143745756935,0.38974777841946806,-0.08413427928566053,0.7808689590282112,0.623794217087785,-0.7761344123506249,-0.4987293663634593,-0.5939839025941553,-0.435192510813742,-0.9535276654405342,0.07595450059591813,0.2392036714201229,-0.4985123427586349,0.3329396914258511,-0.2206767705690864,0.1423395909346472,-0.545050811701699,-0.654635135903783,0.2802800188714676,-0.6662092952250778,-0.7688638617692949,0.02230485971074425,0.34516056890464397,0.9882869551833928,-0.9441246248554678,-0.6658310919401047,-0.9871392980112113,-0.46746761803773307,-0.9248300158587943,-0.9845352691024267,-0.5870489334954778,-0.9101509259095446,-0.7519724470380313,-0.8382323206776101,0.8336597896806117,-0.785997310183371,0.6226025595818991,-0.6718540960807309,0.564863551173572,0.7380224310398276,0.058047639646142235,-0.5415374708118492,-0.4277698577984119,0.17999124366279107,-0.8508447992380628,-0.037071508824301214,-0.7899661273389997,0.023344178148148043,0.11809606409035811,0.6081782378213281,-0.40084856020515636,-0.5410319222466462,-0.7187607631994724,0.056660799423786656,0.7932389909472533,0.9828147394107773,0.4106871697374894,0.7772403524148521,0.1386317406316444,0.9996897072816247,0.14258597243190851,-0.7782155197371601,0.1451491030999732,0.6542540647076347,0.8068157833202576,0.019151027493006678,-0.9724972859927661,-0.9661915439000179,0.8017388275767348,-0.6048717600871321,-0.1583687986805622,0.07810147739175921,-0.5445287794651648,-0.4473250530849564,0.08107350726014029,-0.8333304411113247,-0.24969970878026682,0.9908724723265185,0.1298215579218731,-0.7518029143400169,0.46130408646008636,0.2432926009584111,0.12942365957921487,0.15759461634250593,-0.4608107819369125,-0.1430872038009341,0.3285071720233037,0.9459206711346089,0.021671361032823855,0.09572751715113337,0.47085189407137484,0.08698973784521336,-0.7660556497966649,-0.46937554746049015,0.8785367497047745,0.23871981933831177,-0.5776306106659694,-0.19241348884645526,-0.3313175284763985,-0.2036040371634238,-0.29426123334418675,-0.7408522135003288,0.5992481219550696,0.11849687279844856,0.5056760867076382,-0.4263484973470364,0.6134767416763947,0.9926629106748828,0.9703639709913512,0.46409366137587127,0.03898373596956439,0.8718580176994533,-0.8963404320301165,-0.11394496923485864,0.28287173516151465,0.20154370200701233,0.3664372808713068,0.31185505948745385,-0.34943240332814973,0.21333463275176734,0.7882822195663073,0.7561993282903579,0.05169865640558147,0.5493050357894789,-0.028704464075933966,-0.3191396435385587,-0.5604194492588623,-0.6012386954300175,0.9469472240811725,0.8116509744343599,0.5863379847476589,0.48233567986034287,-0.03992928133345486,-0.22947833513499805,-0.546675706039566,0.16060124070748882,-0.5213507599331175,-0.836224927493491,-0.30584818253211643,0.360683760483568,0.8326318893312852,-0.47296663609159983,0.4451303976684031,0.009573577497546948,0.1737116984384235,-0.3263594028296424,-0.5226969305142375,-0.8241197994718832,-0.8995183192047729,-0.0068176394629866355,-0.7003910622114984,0.44224123024545947,-0.4265348005703431,-0.6846049563912382,-0.5188069052501443,-0.1827211543976024,0.946331686586311,0.640597193994221,-0.9257111808370269,0.3580539623466916,0.865057693225523,-0.835829494818823,0.9204187738542609,0.7291190400151522,-0.991678229338852,-0.653589840756835,0.0665020989099181,0.11611511346983927,-0.7113676366747068,0.5702216754534459,0.8143465459131072,0.23907663647523347,-0.18453921616254676,0.7597527886771391,-0.7997477522561307,-0.2614070782040989,-0.6127295564264417,-0.8058723280937417,-0.32877357920527017,-0.4034219730901589,0.6822584961643776,-0.7634071321283711,0.5163939814949681,-0.5471010187638781,-0.8628395249119647,0.679975520253022,-0.2707490760183786,0.9785953395087996,0.8478844960901053,0.4022487587181989,0.043784743278399096,-0.28366958850764834,0.13633892968320072,-0.4934993221828372,0.7298421739800853,0.4381327477583654,0.21722557945797383,-0.01205577958342019,-0.805160319238365,-0.9264753815087676,-0.8256702090366816,-0.16321496244434286,-0.29698663248811674,-0.14803857746761717,0.2609622700867613,-0.7052802115410073,0.8267499228285144,-0.7834143933683124,0.733304019894788,0.45866199770562455,0.7471896766899009,-0.8968222604074705,-0.9234213287452366,-0.8006015603211087,-0.32547155215350765,-0.2555749954749065,-0.9160585250827402,-0.8964379096521546,0.7375607471693593,0.26333126706853305],"weights_ho":[0.013686026326164002,-0.020657615172252175,0.6963737494841067,0.6105457078931282,0.2124529019283503,0.7422660123935598,-0.13329757813173893,0.953062027620762,-0.042118420095430986,0.733161034101403,0.9517637499302796,0.5720300646172778,0.002390483428474477,-0.33351610057183123,-0.6377020577883412,0.6480761746452779,0.6582231385930881,0.017078276854579855,0.49289933796004504,0.43103568689615157,0.3677688613676675,-0.4588585120264097,-0.6621005915452822,-0.9640421208594339,-0.2670299396367688,0.7735369539942607,-0.9927575677106171,0.520452594910781,0.5406460952856056,0.1054433423887855,0.3966184875487442,0.15087338179831478,-0.9125117744317925,-0.492143795675696,0.7614782696820397,0.9861364103342019,-0.16227302242505792,0.5976234876962863,-0.29536735963334504,-0.23678949806153682,0.052875105774230935,0.0610558777315473,0.585554457917357,-0.6288303718461472,-0.9007229615231642,-0.27395288424819486,0.318256155464983,0.568758161516892,0.12797612355285515,-0.6877349065983531,0.7748095409679454,-0.056516924124182966,0.6570957044645742,0.38408567238439995,0.2934586752608064,-0.20209309581142176,0.29735762557593404,0.8439034148992675,-0.9255639241473852,-0.29688237477459345,-0.14545402151713427,0.7303091863809368,-0.8784867584618998,-0.09347848567360684],"bias_h0":[0.3916780372606121,-0.8888712586113694,0.23625565344993849,-0.9127133541275703,-0.450797169002211,-0.4346472558682406,0.21966615824933555,0.31348351584441025,0.30985310269213784,0.0678255898297273,-0.9164177107134872,-0.6793085483441264,0.2675608238338405,0.7794743664575976,0.3194996040123732,-0.3325833817771848],"bias_h1":[0.13831798985384092,-0.7736410010702062,-0.9907378326719185,0.6817629243019274,-0.8192076406161746,-0.8828605036841917,-0.783280406348891,0.6226689027046381,-0.7555093410727425,-0.5519980650478569,-0.2934397259795918,-0.8904185692254676,0.9738142820425857,-0.009773269156031494,-0.5495660784045122,-0.39149380509184195],"bias_o":[0.04284218333833034,0.40285718595402376,0.28321910864658983,0.5123187591688199]}