{"weights_ih":[0.3792129181444208,-0.23064293234238264,0.33327802187845634,0.27373995133308204,-0.7457909976839807,0.5742949892720917,-0.5749682889721857,-0.6070837048111959,-0.19020870078775154,0.154332976376798,0.8617598358219869,-0.7804296367543047,-0.18038396365489384,0.9429025602073364,-0.8442884055352746,0.2663258281772374,0.3760989845261238,-0.6779849766347079,-0.7750890105279915,0.24702429137983617,0.6868756640567555,-0.6222261129742912,0.2638525493284214,0.16732017121260911,0.8469164613596023,0.003545404792777873,0.20597457093896,-0.5564789026423165,-0.6149795255898967,0.5973279746263069,-0.042853223803865914,0.11088696192319758,0.058482440364571175,0.6211204153413676,-0.7740849566596364,-0.3539163409972159,0.8866395992621492,0.8917889613684815,0.9534815437320432,0.5875850367053057,0.01928992603307167,0.5732668084169483,-0.07397897933353836,0.9533864011668465,-0.6279104400891742,-0.6185125944791832,-0.4208738250704249,-0.8951192692928402,-0.6811643836223227,-0.4421518013192296,0.9799346622551177,0.947652375753439,-0.7744385080563878,0.4636482763673835,-0.698762631276868,0.7887380112192837,0.7981314532190511,0.8497015611511449,-0.050403217487201335,0.4014903394168967,0.00956397318199187,0.6381536917926096,-0.7695643564779793,0.549671712041305,0.6172531791200015,-0.8188590379926262,-0.7848324271735481,0.5472820806817,-0.6849388246425383,0.13164994540073316,0.8489610624920869,-0.937661982485881,-0.08312456325948414,0.9036851395426915,0.6815067819377574,0.39434745671468163,-0.06832472502782361,-0.18994033113736908,0.35545881484084063,-0.8926349379996965,0.5374367099903572,-0.2828602837032057,0.17561373014859627,-0.42105517813732707,-0.8681914318053199,-0.30729848084843914,0.7825019162657081,0.9945253804872642,-0.6255245401005571,0.9473178122918833,-0.35463012239047864,-0.8102313136076504,-0.17895806323302832,0.9212963729993315,-0.9868703532137784,0.7164164390248631,0.24220511379849352,0.36962138342353823,-0.13125666417137882,-0.7061295396256821,0.9621981207642452,-0.2581447875229972,0.7932832806552359,0.6240222634128119,-0.6693178943774962,-0.11736265347401775,0.06680051040756729,-0.8204040767525904,-0.30149202799403074,-0.6095495764070169,0.0590451505952756,0.18974695909330053,0.7481991569886335,0.9132134112009125,0.8708677670899247,-0.7262091770412149,-0.37057913601937975,0.5624373314850004,0.22482553088516033,0.066037274947494,0.3005291177293343,-0.5605684180101602,-0.19089483867311952,0.5751708229023049,-0.279659866507745,0.0811682491059551,0.06954808544029278,-0.7822324724224081,-0.7391802975343751,-0.5422300480491524,0.5381525690393363,-0.780995471378032,0.9146765441100821,-0.906513769589862,0.8916841277154313,0.2680646269414291,-0.6593201726116831,0.12700708626671298,0.60525259688971,0.45275255354428645,-0.6352256308148834,0.22946634270985533,-0.039105247506864504,-0.3537398861886234,-0.80873816772622,0.4267914131807422,0.47421070579574987,-0.4017009946900454,-0.6719127856932285,0.5987972292291726,0.13887331704134698,0.03806123140391038,-0.7941356315560038,0.08963474377285041,0.7612804115321388,-0.5016055764134195,0.7845474945531385,0.6218045655502464,-0.4362256927953123,0.004367676775818952,0.35778413122873887,-0.36804343415226404,-0.7827473452821754,0.07704570291219581,0.9438898673164802,-0.18481321117054583,-0.09906167158208978,0.7520648169733126,-0.13048122353981606,0.9704966879438965,0.5389157294195002,0.7841944890326247,0.682931886084418,0.3328728922781081,0.04791013374371844,-0.2302727984402344,-0.11039946969307168,-0.5963960490529578,-0.9955712930867553,-0.8507732209414931,-0.26231429699638475,0.5472726796143161,0.8956484127302906,-0.4999610488535835,-0.820546358651218,0.753048563176413,0.8596465833070932,-0.8321744701081915,0.9333742880184657,-0.9653222536307897,0.3331219197484736,-0.2539182327828564,0.41335424172896573,-0.9465652732977972,0.7637101811530658,-0.9905953630094848,-0.774071982121965,0.7332197891459504,-0.1473276096735301,0.674645961548018,-0.751027514339417,0.07669811606431343,0.918981620407904,-0.7287490551814244,0.18211801722652599,-0.29815517659928537,-0.04193255567251897,0.44979789533547065,-0.7732376585693581,-0.5137213970799126,-0.12372008135583035,-0.9527241939271947,-0.5741579824354501,-0.27356571986135747,0.6493246129247083,0.2211729089732497,0.9460607112058232,-0.04425025868036392,0.607591454383406,-0.2977929721318662,-0.4252874058849392,-0.24655287140107363,0.8643816679605396,-0.6178358742101486,0.3900352111941856,0.42427828959988356,-0.44751101889759215,0.9356503022422826,-0.16348719746769347,0.6793494616055,-0.1365453957599616,0.022021952696745783,0.3365637361997944,0.5208897517237823,0.7361715527046233,-0.6216170560441938,-0.08875867882024102,-0.4110366078511427,0.38164973034339855,0.8030799014740997,-0.546269290470623,0.8079278771658376,0.6274263564099587,0.37696056291930913,-0.34486757875167773,-0.3612628233834201,-0.85149947349063,0.5499524869294705,-0.05663434100015219,0.8886940425485965,-0.22485777108591742,-0.43266264562152856,-0.7337526416962445,-0.8932510690161428,-0.8581093504465598,-0.6339625685681121,-0.22244826791660333,-0.849174053240423,0.7341276585344676,-0.5012566589698175,-0.8851187284087612,-0.19466299627926453,-0.38646916324995506,-0.36797230511381285,-0.6419077617199906,0.5203557394896878,0.9104788220870919,0.24029075352659213,0.8127795323742808,0.5203814497250174,-0.39353879050616425,0.6141400907586576,-0.5514703576329774,-0.13717914956570953,-0.2145967955003798,-0.4479945994848784,0.21968443310133812,-0.484782917526126,0.03887052729078877,-0.4302156419827514,-0.9662362755291227,0.6870656020155477,-0.46545793644170996,0.5300691822789196,-0.6986617104147093,-0.7182618663937834,-0.2654977117918691,0.20700719857675232,0.20957450839431413,-0.7796114517915989,-0.35474390765829256,-0.9608688518411321,-0.6600158270493173,0.08015498010511735,-0.609572577854177,0.5114816742221018,-0.2979825715309903,0.44179724058358505,-0.43417157607839574,0.6827827203036345,0.42239777256456446,0.14553523019045467,-0.005275504593001523,-0.18415481885752905,-0.4740137173909691,0.2329193408576944,0.48720704949837557,0.22378000911649432,-0.32390430004417614,0.6194597881636144,0.3725075510607705,0.5622300495828407,-0.7863225711522361,0.15374827762397225,-0.1204798434310339,0.6842418982588161,-0.365527877118484,-0.7522900963147909,-0.4443846387245258,0.729660527728841,0.5090141264919803,0.09376628659440067,0.5671279824133686,-0.12118451877758352,-0.6547011656283446,-0.7761875858247185,-0.14254662142570518,-0.7241377983230659,0.6795555117533754,-0.8036450420687844,-0.9183143953215029,0.7801054666899416,-0.4164542829081235,0.19808860348823742,0.5948046633296551,0.6876498307622336,-0.8715852283308938,-0.7689342263967562,0.4550819502631718,0.6816563945624836,-0.8220856863243633,-0.7040534263123686,0.9301863652394438,0.6977166662202994,-0.1777560990790965,-0.7595638380654288,0.4281715222224114,0.8858587937338538,0.44912896182457307,-0.3788189607858552,-0.8817732136429628,0.7419390593175563,0.4291834995444088,0.6969913195718136,-0.10315006385121062,0.11097043432079357,-0.10997713954919086,0.5784137640237135,-0.6922430067900589,0.9162528025344367,-0.11484054977877767,-0.4900444323619668,0.09844661830267354,-0.18267524897506138,0.7500778245322333,-0.4993867667876264,0.7254711349060563,-0.24272078761449767,-0.9355340059592476,0.7058449143816772,-0.2450216774756515,-0.7270944803890769,-0.7163852109893474,0.8019793395146169,-0.7211334221097938,-0.3507917327705825,-0.23596687445909725,-0.43811926897012077,-0.561322580833798,-0.9177708149906969,0.29011564464200257,-0.9241339142968099,0.12146320676735178,-0.12540377839016403,0.4403455940270957,-0.7452378529542183,0.1124286077155443,0.898502400518564,0.6707126033362605,-0.6843152751315336,0.6789510198345139,-0.7500457045487576,0.007468747313798874,0.6750447058919979,-0.7092114677647805,0.04379824535772814,-0.849371118569695,-0.2479348487217654,-0.5264924159611637,-0.028543482949497045,-0.09070554952072452,-0.26896945469272326,-0.7532735252629099,0.9698418720787343,-0.0313952596287419,-0.20268407929922838,-0.22411939294830296,0.47327503789636083,-0.13853883002605727,0.9991537112708133,0.9970103801917805,-0.025666152966991707,-0.963780895792403,0.7847565085995816,0.6706349657753101,-0.6234632012711432,0.6464204658227231,-0.1028544022260609,-0.922973190399557,-0.5581922961763297,0.7933469952398238,-0.28000088443894033,0.8778077703600893,-0.4156314626687847,-0.967319726277132,0.7651937690339643,0.32038727617142126,-0.8721505370955818,0.09459943805392568,0.00798906336578753,0.5674997142053257,0.4056614923236508,0.0969949019536267,-0.45459871740355773,0.37253527643410855,-0.48961041466453903,-0.7556918411762359,0.618515391572805,-0.2592347542966591,0.49100509252641067,-0.9069009726366593,0.5124275304071169,-0.47263064196535454,0.6954093210176253,0.9868219610311733,0.5024015979077348,0.3132888210977658,0.22597701800926773],"weights_hh":[-0.3360783367133431,-0.8261096075391821,0.20426152699641942,-0.5473933110338318,-0.207409281294878,0.3273566330958453,-0.11578888701890078,0.8088954846517675,0.6045538479020296,0.261217793864726,-0.08375458039880357,0.8662649936785767,0.9823638762854565,-0.05574239601174824,-0.34018192405971304,-0.16861856056498237,-0.481478479979351,-0.3206827798980354,0.8743878053625163,0.08175866833875478,-0.672590568814728,-0.009517334797388921,0.5176334455012843,-0.20040596115856002,0.3523310182798223,-0.004508547463078605,-0.6414089377978929,0.9114058076822469,-0.5414170344643423,0.5643246816488257,-0.5149153832800464,0.22971663222819405,0.4986423380698559,0.329957925277655,-0.38072410864603023,0.4774673931897673,0.24550779451445703,0.4598791327546994,0.7360275892845956,-0.1743264782102516,0.33787093498953324,-0.9654684797165372,0.5763813002234854,-0.9432933962445309,0.1568049285174753,-0.42374014100532453,0.7959702416957857,0.8362018917359815,-0.3038199597239908,0.049584248236344663,-0.26765985535903813,-0.7664499002001282,-0.6376809304738191,-0.6769277925005011,0.18272322963876153,-0.5480107893448256,0.5611777701451532,0.42414472205505915,0.3679714438547359,-0.04322699916754669,0.4057298568125851,0.8218396684366776,0.5562005467144775,0.24115940484386345,0.22097666633682067,0.46005873222579785,0.13612303949787874,-0.7665916627912359,-0.17500229275689572,0.11571241865817683,-0.9289304364626139,0.07633788329069557,-0.7804746041858739,0.38977876593473626,0.23770736580513518,-0.7170233147154863,-0.013640473528210961,0.2884678188707348,0.8347057703064811,0.09450309859883266,-0.36547613171394255,0.12197199839714212,-0.853260244259495,0.7264398762635729,0.6178930275489383,0.47282538280497866,0.781144477732399,0.3251214195682224,-0.5022734106544309,-0.4936228565363803,-0.2857959799869634,-0.16824851460060675,-0.9646228671726638,-0.1908809996263261,0.7489638949177719,-0.7055294142937045,0.021702710111633383,-0.45402052394503456,-0.3216421884888472,-0.19203196740696327,-0.815832562700836,-0.36404636672430724,-0.09385548101133367,-0.4994671590672233,-0.35965049714272745,-0.0717355466752394,-0.2773696446866025,0.8991586534068048,-0.645585035797132,-0.22897868900061735,0.7898612028108314,-0.8331706444958531,0.7703833681391952,0.6615971571715922,0.49583403794940706,-0.34227602979289573,-0.13943526236348136,-0.8100228576746342,0.2761611291843198,0.411579812076142,0.9816871944138432,-0.19877657841604446,-0.07826458620894261,0.32215522679587316,0.47756628981019067,-0.41666420064669163,0.14332678540456656,-0.3316656401336644,-0.9833478030245237,0.6448549245314954,0.7668569459497043,0.7676062353875612,0.21257068053989303,0.2573316481551726,0.9303190411507847,-0.3194311473348148,0.32062634501871545,-0.5201899368664566,0.22233735314455227,0.37468892719412517,-0.0812860301317988,-0.8802861242176916,-0.27534810133698295,0.2651998608044428,-0.37376395179154076,-0.13053851875991596,-0.9817745485982032,-0.029532373681814272,-0.7713225056538862,-0.3925626620487488,-0.4309205665449487,-0.582688379830812,-0.13726901371694678,-0.03270313091255206,0.00017863435561804586,0.506844445859316,0.3868705521031637,0.3054299169394026,-0.8065240657528179,-0.2547135062450825,-0.43901276204662665,-0.4538488282120694,-0.16866455551944837,0.5622397716977936,0.7093184883201213,0.699409333551499,-0.25031646549107345,-0.27033493835715405,-0.7435737880919071,-0.6973684477250548,0.831179281809659,0.25289606582461177,-0.14472461703196826,0.4398175219660152,-0.3265124781098685,0.9746553945273047,-0.525621041163389,-0.6070847588184023,-0.27573092647632214,0.826636398699738,0.556447559450074,-0.7284180568456027,-0.2617915493673666,0.45339841989612095,-0.8113784273039888,0.3237418335357807,-0.3409565712130367,-0.5638079259377924,-0.22861418847722215,-0.48208973316851944,-0.43628227433931865,-0.5978331443827649,-0.3267522705864674,-0.7617624102136107,-0.7809594705030221,0.5322559312873414,0.41418614558358025,0.6435919094932216,0.32879031023651395,0.42930760767433496,0.49459223358650606,-0.7141755831657339,-0.6223187002211275,0.11015948153129806,-0.833612043215217,0.7789887957880777,-0.048073939296017,0.7534488376576696,-0.40805142384291826,0.9286949950249204,0.10356740405907572,-0.2661016917938064,-0.8745587404257835,-0.3745757958777909,0.9530710080149973,-0.17820806959167368,-0.7152754682838838,-0.30898211804273545,-0.3111955700508844,0.8692867561705919,0.08218493829513296,-0.7104650661365643,-0.5282698759770299,-0.5807916874377168,-0.09088645011100449,-0.34212638487232994,-0.0823993820244091,0.3221433148041122,-0.453407746417283,-0.670148539538139,-0.051950761390741285,-0.16631702552673366,-0.6872895004010404,0.15950065481277687,0.6522420792604515,0.009445386368122977,-0.7478168088489963,-0.3603706278035348,0.14048260811116386,0.5197312757193129,0.2565301785324574,0.9847391770675291,0.6900061893721672,-0.5932703430139916,0.5521237976656306,0.5159689643301446,-0.8565026211586733,0.16792613154660163,0.35949840251700693,-0.30131396795397203,-0.5701280572530429,0.3068681633264576,0.9082525732554374,-0.8657254853980276,0.4370838860179165,0.6411669224836192],"weights_ho":[0.37695519579509673,-0.986760839056998,0.27779582693157656,-0.39455132081521804,0.30442053604810604,-0.17402948432650667,-0.45865398617509334,0.13607757039387147,0.5168142941999654,-0.7194422239470741,-0.3103505448146102,-0.38080828054808324,0.3464551303356327,-0.12316559577019182,-0.24735980105386024,-0.3399811133114927,0.916827685879261,0.2781296650808085,0.31334348910804466,0.7779970865925054,0.3085950649803655,-0.8144424809389741,-0.12484785744079807,0.4967776395763106,0.37376473702630975,-0.24771191089129885,0.5255044943266447,0.6913510628037602,-0.29148145223644706,-0.9213974484699068,-0.15370708458623716,0.4729242341152078,0.14709062744824442,0.7122222692154057,0.4417748174447189,0.16541090455992413,0.49604514512343756,-0.9135913050957265,-0.8813866699655843,-0.3277864070514884,-0.986895848663857,-0.1464252131783932,-0.7230086709634456,-0.4234194515116749,-0.6763406729182504,-0.22737005750876516,0.45238950106497033,-0.024405063153372764,0.3577724554346753,0.8645840636146183,0.3738615804045222,-0.26422051730267904,0.167739449138953,-0.17398884695702233,0.1446917284081799,0.9755162745552888,-0.206084783065543,-0.3377932091801743,-0.05166753554594572,0.7173665940101681,0.8239992342665778,0.7287607014160065,-0.13354086164602852,-0.44952928786939017],"bias_h0":[-0.29542321963620277,-0.07977693537061259,0.046014736699638625,-0.38339492798064767,-0.9876979508883936,0.10153032282887575,-0.6775683568482544,-0.06532007904712267,0.31149385904233284,0.9013295906978382,-0.024545126111256588,-0.5542125495685633,0.29227452553037403,0.38138504858991196,-0.35259979102911276,-0.1597784376956486],"bias_h1":[0.7947961185980774,0.7036627681856549,-0.03127618090292805,-0.8471064727081183,-0.43727321622992155,-0.31744908078731515,-0.8170687561286916,-0.9252051790936273,-0.9986260581109294,-0.38405973685294503,-0.6270707625213308,-0.59977189239721,-0.8679805198357804,-0.32235998278602285,0.4230417515790248,-0.13056747920746892],"bias_o":[-0.20145390473726055,-0.6931108853513728,-0.5590301842899235,0.5989046699159306]}