{"weights_ih":[0.3980891822809416,-0.23111822268675297,0.2879060132336917,0.12775704488070816,0.4094437762405727,-0.4643272120593671,-0.7550404070835679,-0.4510571855885064,0.4362618140804768,-0.5307576044404971,-0.4037894178147612,-0.2398896816360554,-0.3044094674916551,0.2124731839846663,-0.9045351875312313,0.14477428101735645,0.6908608367657847,0.20629557604107318,-0.7231852075772489,-0.2966914809599268,0.4011194767778081,-0.7565457141400012,0.28285409631734004,0.8841743848173933,-0.42258541986122,0.20693992500875935,0.16019587623481368,-0.8342800149489291,-0.11296919594589916,-0.3143702237139596,0.19066237985417778,-0.1417680608140237,0.604026310812243,-0.6999245876361311,-0.48681259922073394,-0.06503844291666105,-0.6655322908438912,0.38552143380535076,-0.4034576146358939,-0.8523973685601225,0.7875229897802665,-0.7203661877861642,0.8319113296061917,0.8357474846470483,0.5662762637079217,0.8381821796909277,0.6105295467427116,0.6847140282702968,-0.06206233916004433,-0.9817407873249184,0.5107440833064698,0.4475366430227936,-0.8775173705712438,0.08775826937014664,0.4654469906757468,0.21910077253777982,-0.5476115506470944,0.29554361752107106,0.5771392108025253,0.8617035302255909,0.7712363765117092,-0.7057918142418107,0.7526983864020838,0.7569730967326578,0.8103096176520213,-0.13539327233061793,0.32885005692692504,0.2808681007435063,0.9222117364983939,-0.5035585909419062,-0.33993217871830317,0.6655767667374111,0.6135190345533188,0.37350204940969234,0.8535108009617096,-0.7330760019975333,0.17296259758950017,-0.3743179491195632,-0.792533613052443,0.4853914535134143,0.22051174499591553,0.8864329491967993,0.3128383360180451,0.9051367873845892,0.8327455130221111,-0.32448024260472863,0.5290621653826222,-0.2907615590241912,0.11160851522409931,0.980699602446595,-0.1773824287032415,-0.5243645448539689,0.639818011592133,-0.10869303641871708,-0.5672054244625211,-0.15752404368756245,-0.5581898898308546,-0.8317900267974407,0.5589238995526813,0.12022828996150148,-0.22275061337857904,0.33746368241958025,-0.3843614149310348,0.8317965812409736,0.6020104696803075,-0.9151210421747904,0.7086360851932114,-0.1184776190975727,-0.8726417450922628,0.8493982941465714,-0.9145979419527601,0.0508580995184833,-0.0009460197355042332,0.4151354183164988,-0.24975260771592311,0.0843227375767448,-0.7266591313652522,0.4680451817872562,0.1089265413086713,0.16418394070117381,0.1414445650663536,0.8842530647847904,0.7687024227791206,-0.5446160228598078,-0.6645399520284299,-0.7395401718007264,0.6683817015443825,-0.5362221973893633,0.8693330441162679,0.6282033138278449,0.06422829883559977,0.359184278810172,0.6621230395211277,-0.49133549326517345,0.2766264371239797,-0.8173661054118633,-0.05665280621077451,-0.5355833498301183,-0.1655860107284628,0.061576589581165075,-0.8924518957386358,0.6362134129895494,-0.0428461867455181,0.128675110892694,0.4694530396525012,-0.09974100281018661,0.9615808900502969,-0.9087528254363786,0.5218686915747832,0.6593473276588426,-0.010648326863341273,0.053873554376116406,-0.5630117737312876,0.7545142062254571,-0.13879561439919752,-0.047198893326309,0.9390979927032399,-0.8999903479671012,-0.19523656543076795,-0.16066808014113088,-0.11539307769247809,0.3378231113292631,-0.8687104573078965,0.8553164067066676,-0.7265266117907223,-0.6504621931669166,0.013472415138205296,0.6181996571004078,0.5161434450043145,-0.45951410852334473,0.9337685733949139,-0.5115980855991173,-0.7754011371790677,-0.651953497278567,-0.15556997009581375,-0.6131193494908445,-0.9489557049682771,0.7828583290563425,0.24534039199451918,0.33179102385355863,-0.653687018511196,-0.7699608810294924,-0.9687134816264775,0.3050042740788621,0.7813804444399064,-0.8400052460236345,-0.8366092089171921,0.6418693448009953,0.7793424342267505,0.778136788664284,0.3125137161997438,0.9236383883170038,-0.8695700487269216,0.6587367475960122,0.49034850592442236,-0.25266550911340024,-0.055691979405819714,-0.7539776487053418,-0.4571937337932841,0.8888779784270562,-0.9371241333353952,-0.7699560395153806,0.179849147654372,0.8226138534386367,-0.9859327185414677,0.32930759919378905,-0.026613852996639764,-0.9264478390930655,-0.5000500734872839,-0.37957883951278326,0.39255933773474916,-0.4267574295998757,-0.9504939175352154,-0.6443836636667195,0.445386794662882,0.16401946710970972,0.9779589324032727,-0.6553651491526418,-0.863027541266594,-0.005527675937636589,-0.49007229207454506,0.23753618565688295,-0.5851912260259173,0.6624779553661835,0.8957302079341207,-0.019260917156389334,-0.9573108277299596,-0.48518674755498203,0.4378687750960164,-0.07727612202501,-0.5637946680695092,0.13899019576726368,-0.5856360043520759,0.2896287735744214,-0.5066129218473705,-0.8995874664853962,-0.5061098895353826,-0.6946203223891803,0.7470985783335728,0.8627123002850361,-0.3010611914718271,-0.6306778530024557,0.4759173814413671,-0.5972017305646962,0.8085979021486942,-0.9294041834845967,0.8386701254050606,-0.48168824634974783,-0.9432971207407903,-0.7006813556411096,-0.8661786175400721,-0.29878734898652426,-0.47181477903440827,0.8999448905334262,0.7121594632442263,0.66465143060161,0.9130441332216945,-0.9230166193942462,0.6943888296147926,0.29560823308187123,-0.3676905755947,0.3153544993241568,-0.7297740595271089,0.6871636910611241,0.5665656317139045,-0.8349673855034734,0.7116708552548645,0.6719616460528754,-0.2962836292429334,-0.5097921648317281,-0.049695925133907304,0.09123237523048355,0.5127153988198536,0.788205148252884,0.24166840586856786,-0.6723063252597263,0.3540338044637299,-0.5999871727625599,0.3624391387412418,0.5615702086916894,-0.18439053291476193,-0.15829273554588918,0.6322863219468673,0.02280124079196222,0.28627945452963144,-0.38283757728776524,-0.653713809979741,-0.8868297854888523,0.17293094549927557,-0.6687929780635851,-0.028542988341805797,-0.954642399981793,-0.5183047041633213,-0.5197437955939535,0.841609371486568,-0.6310837799195828,0.4838430273780596,-0.722078592478453,0.6853080070436603,-0.21933067964255448,-0.9484054809548406,-0.35706149575232393,-0.9221320164881388,-0.5180910178298437,-0.9252803666208729,-0.5585629128628613,0.1928910419179357,-0.7459607978583362,0.42696698452505144,-0.9040178080510772,-0.21790859317771138,-0.7245235619529353,0.28972317058569863,0.13987098104988238,-0.5383467625831342,0.19748465500462276,0.8358168444293985,0.2036846302469013,0.0822400564885939,0.31343696385413367,0.5798021209224136,-0.24665468791017697,-0.9383801268839127,-0.027648507540436018,0.951068424109945,0.7053000850215496,0.9576796842349833,0.9278829458819324,0.8265352795404943,0.7885370840180421,0.7602960250768174,0.07462316585085116,-0.35622030944500427,-0.9420271473021022,0.6025298152805514,0.9503504924991009,-0.9802547234720806,-0.01645469168343472,-0.5690651323846097,-0.12952392767501308,-0.264864938147958,0.3109518968716203,-0.7918634239220947,-0.5224854217520505,0.6868353451974607,-0.41791454224626556,0.28117883158115675,-0.3638009269853919,0.1429701956204279,0.05610422537075754,0.09878766183220855,-0.21927269892544143,0.664619993272122,-0.01974594146766062,0.9289511592396746,-0.718806701314403,0.5755758778856417,-0.7830278852146608,-0.47212402193228753,0.24772234225973833,0.5613944175381478,0.6697953808330355,0.2996301551697407,-0.2551415015581826,-0.4616236532442042,-0.15060714135234732,-0.4713366243687733,-0.9596135339279077,-0.18313460816042415,0.40953633285039204,0.23193298816470986,0.8089706661801377,-0.7176759752056938,-0.44442832717464653,0.9102589702324142,0.9740157988589584,-0.5787875900039448,-0.871415524505704,0.7735485168020333,-0.5993558452072776,-0.8434944354192828,-0.4959464239335818,0.01820961067631477,-0.0723102511463607,0.05981837487808428,0.37033015546951065,-0.3408494916053231,0.14083723144129268,-0.4389164791325628,0.7498160649221142,-0.5263144898055068,0.9924392611063795,0.6591111472129463,-0.040947489209115506,-0.7892037919242925,0.5689546414737583,0.423391968326172,0.37168247136670485,0.683723843807446,-0.18916910441297108,-0.6801336682315213,-0.9576914735375979,-0.9847457085218481,0.9552732331895757,0.046247453818622386,-0.02859395055502989,-0.2588157702110736,0.18836699040402438,0.7744698729204507,0.729302777010195,0.573533259743715,-0.9003158573074643,0.702831414805902,0.43048445508246114,-0.23541210936089807,-0.5069430164012145,0.6446702278621788,0.9005731818661817,-0.4207357315070408,-0.5021328412993866,-0.7817331471133953,-0.9142844055954367,-0.466688465987414,0.9381642078770831,-0.4674670534869363,-0.5827426276187893,0.5979135128532718,-0.4875351501113492,-0.09237157052075506,0.026829352516725136,-0.7789390172694686,0.24947214500784165,0.5865212958267814,-0.6398088633456289,-0.4729431654485352,-0.6252588985891094,0.5461185242519286,0.46748520773217384,0.2742930254362377,-0.9047071576602326,-0.20095221258832252,0.11496438745409199,0.42739786116219847,-0.8017564352395885,0.8977047452105202,-0.7191154105014861,0.8478146745235824,0.5320096426862835],"weights_hh":[0.04955764269967111,0.3632473124897364,0.8433108347982421,-0.37663123059784764,-0.15825075019307433,0.7296133727982161,0.35254802478061986,-0.1733155649582252,0.8703172628801485,0.9875363514627662,0.5847856189967062,0.5904064440927899,-0.6948392776320476,0.9764701605539965,0.08003165639945298,-0.7195800758089701,0.5614073368133841,0.18396975507440816,0.688183048861386,-0.16734428756444664,-0.2850912468961453,0.25804089112289863,-0.4436531491634288,0.2718479359680879,-0.021364285964948992,0.9254325868169799,-0.4554943064535688,-0.13723713795832837,-0.016158487554334355,-0.9968783915729276,0.7027652517920409,0.0848548280684045,-0.7363055940852465,0.08136867589593733,-0.6578220483435666,0.5537878916834627,-0.9237398297892325,0.13379917800899732,-0.19320054726627367,0.3699743417076129,-0.53335194494795,-0.3887679004271758,-0.2605044961540779,0.605789895842153,0.6093580376662313,0.7545420197971695,0.15499422298596,-0.030807724663007408,-0.5202727270049716,0.7094848422690767,0.6060968838221132,-0.07062347131573432,0.6263387148432522,-0.8424205785844454,0.08207009889361228,0.40926051826909693,0.7442601746315327,-0.15644510082226293,0.5920238283553725,0.4225405247039389,0.21651676732365743,-0.5051600553024886,-0.7109788113768274,0.1695816462077966,-0.2765729167789104,0.9748176334357908,-0.01663735466253824,-0.9979704750776848,0.2881671178481344,-0.785653499129215,0.9638661784261413,0.47697120497945145,0.04097681744779824,-0.715336984673419,-0.4079449525258019,0.9537990738825401,0.8720438624142224,0.3041773010484925,0.7780790636379997,0.5049992595089585,0.4622065454283588,-0.7297423890388666,-0.6442092333157032,0.8705699768593307,-0.40804902430956913,0.523689230270755,0.5705725409232549,-0.27339318909938903,-0.3294106672823267,0.952760698399377,-0.6527660794034955,-0.5683846068591087,0.3145574402543603,-0.19666519899922497,-0.4896525511333829,-0.23055644991670676,-0.7206808329221579,0.8414993745346384,0.4260591015603139,-0.5900285108376455,-0.03285856188849423,-0.5706123166398434,0.09192625190466308,0.4874494167717378,0.1386402961747557,0.270537234264818,-0.4632239815634378,-0.15397593083360372,0.6234138325834353,0.014660116355576402,0.6503810314415013,-0.4137831537199741,-0.664236935615228,0.11827333080437263,0.987227168673442,-0.22440042832827034,0.6276659290582496,0.6406609825278977,0.4521143935203904,0.1445136532546467,-0.9527447714266417,-0.4787992015828779,-0.9450592181935034,0.7546640368386761,-0.4682090499594025,0.06419686153779502,0.70393358053586,-0.28715377609489545,-0.5070088052260857,0.05005003377256578,-0.3372033471318583,0.7378227101419153,0.7997687664646824,-0.8465141863165115,0.6662083078039325,-0.6068730438069112,-0.5657615128017646,0.29360403878366714,0.13365947001642264,-0.1887372846945996,-0.7940688451828026,-0.5828851627148068,0.51170995513694,-0.7631926289596274,-0.2276848104007212,-0.966978416860671,0.684177259174471,-0.5706024796105322,-0.47033855419705084,0.08313463376003716,0.6501757482335524,-0.9099088317844035,-0.9632026959540683,-0.5407577432377588,-0.6816008186168441,0.8636934889324288,0.39474443088665345,0.6325286736257496,0.778945885667212,0.47573184889232945,0.009015564930452191,0.17216327145896115,-0.5071579837902791,0.11052743063428982,-0.546207764656127,0.8161493582555293,-0.5913016656028793,0.326311584640294,-0.7887059295690997,-0.5822711238188814,-0.814899932692486,0.4908614733194978,0.49249141497065785,-0.6318139363709558,0.8739129477960519,0.6692955386970025,0.34065789246415434,0.5618199639952288,0.7085952447251447,-0.7763697082619962,-0.8660564273880527,-0.6618305869790573,-0.9279089019132467,0.5262131384906616,-0.7990682590109865,0.40090105923966957,-0.446083142854828,0.47252455551043027,-0.004832426766458564,0.044785651301517015,-0.01670537276765205,0.2894250305137638,-0.412914184778036,0.18418660643788232,0.9027199010034499,0.9696118001540461,-0.15940901433935895,-0.945032993250992,-0.22472993963821275,0.7374104260093826,0.8387460626750289,0.9341359273059804,-0.9035001748558191,-0.9824342745819161,-0.2932260245586096,-0.19054374576690747,0.746199560827812,-0.9412486762003867,-0.1837243809692357,-0.3506955343258775,0.7615825777396013,0.9142932645017618,0.5006137894435729,-0.6186560336443558,-0.5651872352432046,-0.25826109708137546,-0.9940653048595556,0.22710633376109368,-0.10246524857241734,0.6577720203541559,0.9641103522502577,-0.5637403363825371,0.8992725716517429,-0.9771871793396625,0.37430375824464246,0.7802750382681996,0.9286130543349085,0.693635151504923,0.6996397451973488,0.6971952724200983,-0.32041463121756886,0.2833561466367709,-0.136436517655659,0.6429040241565076,0.5630593041330525,-0.7716170353825993,-0.14710523386749874,0.32861434190809113,-0.22229263952464762,-0.7182920497962477,0.8165077955185818,0.2629695017850573,0.5311876557833974,-0.20365679093430566,0.5187352790265827,0.6815120065105331,0.1568339513780339,-0.3435791663469083,-0.9752730027639414,-0.693281441799428,0.4130189475185191,-0.29578746288497815,-0.1293945629914961,0.25252246317272076,0.13073765062358156,-0.32597094871104537],"weights_ho":[-0.5069103216855908,0.32726531868076836,-0.19493610874829903,0.14103062371704467,-0.2604742512955982,-0.0017151044376157998,-0.7816615984469086,-0.3781460992122587,0.273558995670685,0.6423840792886042,0.3102655150832243,-0.5506743758348802,-0.4711094880332387,-0.9446937599350178,-0.5671544265282269,0.5587379405052426,-0.16537767166524353,0.8511229636090247,0.5158713139355824,-0.20524089661829237,0.4925724484870071,0.1345845231078513,-0.8477938700190519,0.6781204940390946,0.2977816392026795,0.4558177887564485,0.6247851534376194,-0.36678066523588515,-0.21684186069161537,-0.1443038999139643,0.8975085115117107,-0.6288834598587569,0.020122762094267,-0.16585253381900422,0.7961126250533375,-0.4306730791569118,-0.7124472976228553,0.19992697842023133,-0.20388104372676485,0.11612206566298089,0.24034416294099437,0.6277935906089833,0.703170149744055,0.8398260375027524,0.8559944760105582,-0.6568808735474476,0.08782086079906493,0.9603310629540676,0.6248589372054496,0.43425135283751715,0.851840457781941,-0.0024759235026188264,0.4568623088593142,0.12812332745952393,-0.1456449276268239,-0.9231566772828146,0.4152103432598586,-0.22032808318935992,0.9691939143939321,0.2716286751222281,0.02894940643014765,0.3366092490082184,0.5516320099476293,0.13140039685865856],"bias_h0":[0.7191279166751938,0.868635605733699,-0.3611778495578346,-0.6201328537096855,-0.6593830554227482,-0.47722443623443644,0.4122304631576357,-0.6213236009943419,-0.003024025560188992,-0.4168674986901515,0.7099076656417145,0.08105865426220205,-0.4943637064231581,-0.868240392328685,-0.2800951562856371,0.4018996465651665],"bias_h1":[0.3237188672715261,-0.7815842092926166,-0.5249305048499031,-0.21728437225511854,0.5599610699326081,-0.06173339118755172,0.3683811839006208,0.8187702451836696,0.6713823566126833,-0.2851236426735009,0.575242757344564,-0.7201425122741918,-0.31078234986540965,0.5505255677329897,-0.9737847804490889,-0.07940856443781841],"bias_o":[-0.21856633436983564,-0.7284979130653335,0.36280900029586616,-0.40296292039647774]}