{"weights_ih":[-0.6764872607042078,-0.40340689746181746,0.279482584835421,0.7013690798293779,0.27481653502551007,-0.4504301019704655,0.5424659440062609,-0.4921723360370309,-0.1054272324073271,0.7191662424749703,0.5997930363743147,-0.2850329635457476,0.6455374711028243,0.6418371399998766,0.5123745579691985,0.09944898898708021,-0.011152022955942531,0.8779790253789888,-0.417090204245967,-0.404479965917214,0.7489212830809393,0.4008093046666934,0.08710065174397363,0.24124993733624756,-0.5350247973223914,-0.3635069480308144,0.3544348810064466,0.421909500773034,0.4448430383387394,0.182167691572511,-0.9711059121434227,0.3804100014572338,0.8303874354110385,0.17154676669512514,-0.9010334013198049,0.5655455563323255,-0.5971108196470014,-0.29550043454101016,0.7167982779355906,-0.4173090803142909,0.9525792365605896,-0.25989144394165065,0.4736893874305006,0.17743829210355822,0.5493468893131894,-0.5947811646394359,0.38086813107395034,0.3319458649440459,-0.37490784527207266,-0.4502449482278652,-0.022447629926940715,0.7713898134471793,0.6921599684418396,0.27239210180691953,0.31044882632747717,-0.9884979235923788,0.6898470512389234,0.2834087425786833,-0.8946659445074212,-0.92898203948678,-0.8658382491052776,0.9790626542389049,0.9879352214715162,0.9657242385121882,0.534642000847044,-0.6495303444576082,0.6328243820086437,-0.5730393825689017,0.12499944224200865,-0.6532880575809048,-0.6324568190086313,0.36475661325498177,-0.9255677710946097,0.3187712478018143,-0.9235027913252631,-0.15909247590127418,0.8617030627235744,0.3242191722928931,-0.39272118332003103,-0.6355558225082862,0.8291078508305632,0.9143217856537054,0.3356807701402307,0.10465560783799166,0.5328622281778164,0.24185221372660903,0.22022747034569612,0.2487721367242226,-0.9148573793612482,-0.8453309068935997,-0.6134763294352514,0.728091067650553,-0.4865022115485078,0.7270035110842668,0.12246705478830688,-0.44083366858253803,0.17309947829539318,-0.1133882981840666,-0.9272776975358503,0.4959141699926699,0.998264352581465,0.18723512173799883,0.42958601155467324,-0.6879425023503176,-0.8183431026438466,-0.42137574493601004,0.8885612541468506,-0.012760641412380647,0.32063497229851423,-0.05087247397580219,-0.568089731679629,-0.2520238146390821,0.49085727822305447,0.8622673665998193,-0.3879322705036099,-0.5994358457281781,0.6569368533067781,-0.3120431715477876,0.9747975453800026,-0.049700724233901816,-0.5286501413927804,0.49448249330628924,0.841088327990207,-0.6017907539372016,0.4461625543658616,0.7186587154634236,0.056472033071653716,-0.5507219981523857,-0.24228268085777827,0.2996120552866024,-0.1508833736777162,-0.15652156910349868,-0.28814557501097937,0.8220704328052535,-0.10319234988660475,-0.48253020107043554,0.15017725471423615,0.4947609783139977,0.2075632365622302,0.16454449689939388,0.25216684720733706,-0.43239628303726074,-0.6743466178304809,0.5886261421943124,0.7510153502324699,-0.38097774533306206,0.10990357398600237,0.26629422856037177,-0.1946809629660311,0.4387476183391372,-0.24925268312846516,-0.37730473031230605,0.051294721909937335,0.9607036531628346,0.4610635129750542,-0.9026908952415524,0.22288142144487422,0.050422981425540137,-0.14872505821003457,0.03164356493405518,-0.09246754696735882,-0.04213731114085251,0.10819819409770104,-0.1442121671678671,0.532617172263979,0.7400809699235471,-0.04110656202956253,-0.18396434433611253,0.9408522954628706,-0.7592138046948642,0.6927853207980059,-0.5545061771202295,0.2587524877180125,-0.2602427441980171,-0.7054035032112302,-0.592256679091338,-0.5997786980241344,-0.11725893898290196,0.23505336993456716,-0.5523563553746087,0.11010837691398945,0.6329496911293402,-0.4766637808124523,-0.49715163297252785,0.06824377696127493,-0.5059107762433299,0.1390042988740836,0.17513088661458753,-0.6920282425313071,0.41727565190942406,0.10524770810809625,-0.06413371422858516,0.41515868611995255,-0.6923927317881557,0.5724965884553253,-0.5303300745607105,-0.540388648211769,0.12545121965088635,-0.07190043139898172,-0.32650462596569096,-0.7190990310841607,-0.9256691166615607,0.7764203491277901,-0.04161046358185283,-0.7337535303750573,-0.28117241080120214,0.23223850512722932,0.6545714423166276,0.7061104409161876,0.1339760252215918,-0.7874223261823512,-0.019279341263632732,-0.876658564652222,-0.5233444283480742,-0.3838529845738605,0.4883892832873846,0.5354061209725447,-0.7481679830916375,0.10400547332652788,-0.50127462785194,0.4628172055329933,0.41418554171495203,0.03888949534101194,-0.2905053729331324,-0.8280298984731767,-0.926270437169523,-0.40231547012405944,-0.08167667151649605,-0.5763205977758419,0.46360217401763615,-0.8226796685809816,0.46295144830437485,-0.9723299707826587,-0.7580889459975655,0.28518201987624114,-0.9051956440531876,0.38144258025110656,-0.766010501676802,0.0385330212527637,-0.28458362019131345,-0.9032652621384554,-0.49864891308010506,-0.07243965257699281,-0.34345422498169476,-0.5248230285216184,-0.8822216239009109,0.7096363953242966,-0.7657379221024003,0.062290094899753345,-0.6168517565179179,0.39771081703403954,0.9690592760469401,-0.07994348568158949,-0.47414183037206925,-0.6778573588938293,0.41011410388847946,0.3236699169023334,-0.5093853842732416,-0.8885302964210327,0.9662690123438098,-0.7386065279797009,-0.6874344609547833,-0.6906557681751724,-0.4298048166515849,-0.8526420807454875,0.5618694390657697,-0.7442176101036808,-0.7962408882529153,-0.7146968524560853,0.3976588824883507,0.310964101268665,0.4312299176186791,0.598998034433456,0.4766240591830224,-0.32969633840078094,0.5781588456879605,-0.8555535933999898,-0.37574597771233065,-0.13573910422689406,-0.6368223690545516,-0.3478099111054911,0.45318044716186834,0.47887203876304274,0.46545247802348766,-0.97431485802587,0.8316996393041698,0.4701784337649666,-0.0426271865436596,-0.8890128973818725,-0.23437030349250598,0.5165940972624612,0.4686088602578711,0.20553697158618212,-0.9639801625342099,-0.2823337276499034,-0.4642187942760079,-0.7005989924805922,0.4439814348689486,0.4785064536764183,-0.14311262736508956,0.29770054167110915,0.5420895728583526,0.5828377689464195,0.5844032791033649,0.5507456928582244,0.3953224351592015,0.28252863527095196,0.9387550661911777,-0.28266854929174823,0.004294305136116394,0.4518153779537739,0.7348652975710379,0.29646699457364245,-0.47344487937048485,-0.1898516404830164,-0.8405806802490181,0.5895122119624598,-0.4854496332548106,-0.22781145191032004,0.9449630176547752,-0.30225270304273977,0.9928687611319351,-0.008711623776148869,0.4617715393445361,0.5935385119129917,-0.989412039387086,0.5477564435041382,-0.16734331915217027,-0.21454832794430678,0.4484517435063282,-0.0894765694625741,-0.08788390310121885,0.6698727308094989,0.16166751759625586,0.9871385893624844,0.6745888393794908,0.4668645767014874,0.662316235868414,-0.20674340584897855,0.18478112351832943,0.5881065129372633,-0.8509262261411146,0.7024533816523701,0.6745632408685405,0.833346362279187,-0.7661562083153963,-0.32177969215918845,-0.6354126698896672,-0.8672109580748053,0.07633163009929378,-0.9091912213933777,-0.24737162300773208,-0.4072571682043473,0.1442814663052725,0.7459832143821477,-0.05572010269682193,-0.11862793996621446,0.5468072342223571,-0.6959344742655424,0.5462757745675477,-0.500402611838433,0.9090588255613823,0.5652858904460532,0.6510341072529087,0.839095868304627,0.025999981415349982,0.7375043128149072,0.8304816661114363,-0.42224442014818653,0.8491413137829031,-0.7383816602622062,-0.2119348305659845,-0.6512650534338968,0.1447874414316601,0.7476344412855109,-0.7886925842116239,0.8722062608664705,-0.2972497566221608,-0.13956030495146643,0.9869723391509448,0.5132470655266517,-0.320754307798353,0.04060767379771013,0.9771273874845803,-0.2775868173838223,0.11536064370522991,0.37408782456011425,-0.9837770120254832,0.38056548183323424,0.9180577072793601,0.6368819137171291,0.9510487719377019,-0.48769452355897713,-0.6218899696150977,-0.6884787552525149,-0.9414106753878908,-0.2483961819325653,0.3197450930957457,-0.8654901091549767,0.04990838740526815,0.4386000923546314,-0.14656899861179662,-0.7117008941743159,0.4471518028723105,-0.5652947533841488,0.6669091758632999,0.14365172550778404,-0.8263788938173908,0.7891072492865936,0.38004568542251893,-0.3582242723155069,-0.7697081756380579,0.667349638317591,0.7069771959610676,0.36267024614458365,0.9699768870709713,-0.9204890457321468,0.5076625486922404,0.7142356859861272,-0.25033746255278033,-0.42224048491907906,-0.5972958969628543,-0.2530492114783489,-0.9869959026095729,0.9267384620250749,0.7013818236084897,-0.7871666151346961,0.46492534433372157,0.41366028277228173,-0.21316194302460167,-0.05494894171243825,-0.8246865431792199,0.4975149705350337,-0.9623270207259145,0.4919118470833639,0.5556492847197525,-0.5902937438168117,-0.142842207400802,0.7005757959817585,-0.14354466534975674,-0.2829025881398788,-0.7506738005541551,-0.07167946273024928,0.0769010425726957,-0.49467923264169156,0.22634613147781746,-0.3244171701879228,-0.33600381719975925],"weights_hh":[0.40205011819089376,-0.5442846673919188,0.56051796457392,0.39170043989097336,0.32446110764923586,0.551084985617629,-0.4138769633602548,-0.6644472858338111,0.5436195803183348,0.5759103886833878,-0.6489013377689903,-0.2228871646338375,0.8257500495868106,0.6466731251038684,-0.43746741223141106,-0.29521987271908023,-0.10112353572896837,0.28176942382356596,-0.16513775669171427,-0.6806815606752947,0.2543177794281035,-0.008776013697706198,0.37225067408736123,0.9265343649093869,-0.4768397934026707,0.9169840017634006,0.7954026010016984,0.09947764762811007,-0.2913877504746014,-0.662501966016098,0.1544647233486225,-0.6302387582015527,0.45455034059273935,-0.8029307979665463,-0.6371011695126108,0.6473418265449531,0.6940143745756935,-0.8767362827155456,-0.08413427928566053,0.7808689590282112,0.4031311762869887,-0.7761344123506249,-0.49104256118928147,-0.5939839025941553,-0.435192510813742,0.39952155626465036,0.11443289900920606,0.42314722417801187,-0.4668239483586327,0.40062612731053204,-0.2206767705690864,0.30918189624388437,0.3032092694598494,-0.5856356053709855,0.5812529104378612,-0.6662092952250778,0.9791508357858181,0.02230485971074425,-0.750549373022676,0.9882869551833928,-0.8001624975794961,-0.6658310919401047,-0.8571512944019233,-0.776870502034479,-0.7536828317870923,-0.061098033131142815,0.4066430757652546,0.8450368626358182,-0.9647433060499533,-0.8382323206776101,0.8336597896806117,-0.5515570204623836,-0.0398204525199215,-0.6718540960807309,0.07080830186911835,0.42213253549973584,0.48246601189963,-0.533597629857806,-0.4277698577984119,0.17999124366279107,-0.5108186922042679,-0.037071508824301214,0.7491835776099622,0.47269987677780234,0.11809606409035811,0.18936073102739392,-0.40084856020515636,-0.9493231719105906,0.29579330769677914,0.056660799423786656,-0.14393474374070014,0.9432813490910605,0.16681173662532278,0.04001183685425236,0.3089393700794867,-0.2727794071347778,-0.34510218361821066,-0.550402749507731,0.1451491030999732,0.9524473787587617,-0.19331609078033485,0.019151027493006678,0.03086004237546014,-0.4439588857072003,0.7441382890189581,-0.6048717600871321,0.09024352751445686,-0.7639221630737882,0.6408729907396784,-0.036039547695125185,0.4234468581455051,-0.6815094521162741,-0.889361660319538,0.9908724723265185,-0.7276985408701817,0.04297729782368198,-0.41260856625725006,-0.2939752068133876,0.8608044057320388,0.15759461634250593,0.41869916716933675,-0.3910147738446772,-0.12559096970458383,0.9595362558015108,-0.27384240110187097,0.5639825423329672,0.2924429390184706,0.08698973784521336,-0.31031060685528034,0.7249178988874481,0.7493212103661178,0.23871981933831177,-0.939789322263205,-0.19241348884645526,0.4964423507925484,-0.2036040371634238,0.8697346251565707,0.7772528601839799,0.5992481219550696,0.14423365304776037,-0.8105129974050909,0.6124251343118032,0.9855718669181495,0.8388171172844192,0.3727115522687183,0.53618825768322,0.03898373596956439,-0.8123388690387863,0.48551956422545994,0.6611723700679581,0.7607505419797664,0.20154370200701233,0.697097899268895,0.9378903767751519,0.2218275863494501,0.21333463275176734,0.7882822195663073,-0.8881689435134736,-0.3511134140373373,0.1445430324517647,0.6658576884436149,0.5380800273408122,0.4534887752290415,-0.6012386954300175,-0.5401288922633485,0.946919618083752,-0.09735547045615078,0.4723719452085766,0.4322853258280819,0.038077337150553836,-0.3157926194439822,-0.8643281509725154,-0.0052110169753762925,0.4946392053027453,-0.3271214071919053,0.9998736511297648,0.8326318893312852,0.9802984559741643,0.4451303976684031,0.22314739946182405,-0.1644023207662222,0.5212050799786951,-0.4346647794977736,-0.8498021219509011,-0.8995183192047729,-0.8483855728519558,0.7283138220847427,-0.6403028874013093,0.4692419270379724,0.2947239749154229,0.9211381913278618,-0.8191633271130299,0.946331686586311,0.07514946223714802,0.10359445166967607,-0.04316632503891782,0.865057693225523,0.532408942190324,0.7236706095814718,0.7291190400151522,-0.8182517028040592,-0.653589840756835,-0.4851796278870504,0.11611511346983927,-0.7113676366747068,0.16429111986673606,-0.7228268057044178,-0.2971167561521113,-0.18453921616254676,0.2327314331693966,-0.7997477522561307,-0.37124585084356476,-0.9183648895428018,-0.8058723280937417,-0.6041110927034199,-0.4034219730901589,0.7515473501907974,0.75399147329352,0.4086606719221284,-0.5471010187638781,-0.03192099838790319,0.679975520253022,-0.2707490760183786,0.1616855318800665,0.9724029630186335,0.8912953610329983,0.9377272473427867,0.36914858149479346,0.7915204345807436,0.8767543288636563,-0.44142890965119497,0.4381327477583654,0.21722557945797383,0.4107995276791925,-0.43158533592542936,0.20132207818210035,-0.14731816790356222,0.7034044307018201,-0.8006251983573169,-0.6063920369827156,-0.2629969306881672,-0.7052802115410073,0.5517153218085062,0.29658430254977164,0.733304019894788,0.45866199770562455,0.13935508749084735,0.10410699484533148,-0.9234213287452366,-0.4988450359829548,-0.32547155215350765,-0.2555749954749065,-0.9981231301144526,-0.8964379096521546,0.8414516947538806,0.6317171123598881],"weights_ho":[0.013686026326164002,-0.020657615172252175,0.6963737494841067,0.6105457078931282,0.8281432454905477,0.7422660123935598,-0.13329757813173893,-0.24819755145359435,-0.9265297906215124,-0.9977230135416413,0.1455381390813637,-0.6013175194197136,-0.3519311437518049,-0.16834283716078247,-0.9062462409878977,0.7159345625866442,-0.34097760250621834,0.6882846892732377,0.5917716210472943,-0.7796411536326715,-0.5780770350592925,-0.8122747136320223,-0.3881153229647538,-0.9640421208594339,-0.2670299396367688,0.6201856417247922,0.35388965798988425,0.43808313106277774,0.7366689570635587,-0.8380167985970253,0.507806552444019,-0.2631501082868992,0.12256284014695717,-0.8482644415101721,0.7614782696820397,0.9861364103342019,-0.7305953691397187,0.6298036329064838,-0.48850685748764255,-0.9101849801346871,0.1844601096744516,-0.8108974990637778,-0.7458545622228814,-0.8933793345652212,-0.9007229615231642,-0.2309866406733887,0.318256155464983,0.568758161516892,0.12797612355285515,-0.6877349065983531,0.7748095409679454,-0.6571199015688991,0.8791070443279725,0.38408567238439995,0.45023510233481123,0.9129077196402366,-0.24835271999577513,0.4959671669193837,-0.9039205467728058,-0.2847728849413511,0.25167361444405323,0.14326686378581566,0.08930411054184528,0.3581875894424278],"bias_h0":[0.10982153360894786,0.7656569944522378,0.3227199551403235,0.984337343676835,0.410036740639123,0.2823113785294775,0.33266061401809943,0.5025304040843164,-0.5263676032164593,-0.3010975007315444,-0.9164177107134872,-0.6793085483441264,0.7983752815844876,-0.6353575291902718,0.7951247292966337,0.8191258777634318],"bias_h1":[0.13831798985384092,-0.44480263303384127,-0.1339048036630841,-0.23700242215463718,0.9699786940074064,0.5360557168112792,-0.8897685541176961,0.33815298729307974,-0.7555093410727425,0.7597407005893106,-0.2934397259795918,-0.8904185692254676,-0.8305663746206624,-0.885683413296513,-0.8280941910267792,0.010099322862578752],"bias_o":[-0.4856916603513892,-0.7468385823566412,0.5890792996095404,-0.04397405197992388]}