{"weights_ih":[0.30286241828374716,-0.15515590048995387,0.3437107918916704,0.3851316157323055,0.20782253533653128,0.7740188797022773,0.11004457122238809,-0.6349326980981318,0.9645564594229399,0.10254350205815577,0.31076348543843624,-0.9149991821419847,0.24115522858696692,-0.8552694129116329,-0.3943100284159595,0.42236862683042053,-0.696279752835572,0.47249976294147467,0.017019903766718913,0.6666068121985578,0.5400516072126966,-0.8556195776980122,-0.424782773944379,0.5700386153481825,0.3191827156343232,-0.7367146824124697,0.744996795231117,-0.3811987484349335,0.444409507005205,-0.438421384150139,-0.6484397936988295,-0.3564109170513783,0.8757301185260866,-0.015436276151098882,0.06729746953161975,0.5211918741697026,-0.5873566632214353,-0.05916243071835625,-0.9202927720746845,-0.841798386506855,-0.40577313987334285,-0.9566803310435039,0.3981272429034184,0.05951891693745104,-0.7327542140244467,0.8153946104635998,0.11406301491989623,0.7763462483986716,0.8743274740289497,0.10300703686184809,-0.11235771609956346,-0.04196377489690106,-0.01421519498793522,0.6896094788261293,-0.24053554795225618,-0.44373941039574416,0.26272058191841996,-0.4356494246028788,-0.7844105457287263,-0.12274461847328277,-0.6981040176879763,-0.5581742933079576,0.6369791711415393,0.17857238596201008,0.9644244675480347,0.20536288647707024,-0.995340142626425,0.8183574338916126,0.36461322250670825,-0.09270551557247986,0.8710885424129056,0.8964409178187618,-0.5077733519176424,-0.2518223697535069,0.6152728131326546,0.6936163000236559,-0.4688052450346758,-0.9986196115662371,-0.1914507656477089,0.3147106465201148,0.6703652427579256,0.5290910900449528,0.09367213858048018,0.8252267676668388,-0.5882696273389088,0.7452315471329636,0.1116785954360302,-0.49539266696233586,-0.37366318817544353,-0.5806066158972494,0.1532453829659004,-0.5330506102960051,0.6108645143836449,-0.22889480706825505,-0.9672628979639735,0.14416907763283238,0.12932050810438267,0.05895604328844861,-0.22779053953276618,0.09347073673590178,0.8936163445249876,0.5473174371122416,0.029141691899204014,-0.973563056074243,-0.19382445008912264,0.9711659928167464,-0.6523494616557901,0.7259515162192371,-0.2565693359068364,0.48012885822483375,-0.9052678715521696,-0.37324070785648833,0.2950842132313112,-0.9436577784497349,-0.8297572649669875,-0.9484279576097365,0.2983546833077626,-0.19570388613313772,0.9846264563191613,-0.6377201391803635,-0.33771441288140314,0.1429752202958845,-0.7071332106976866,0.9935272439153766,0.07476925369213627,0.8420044796985604,-0.7109955429360824,0.2554809576350554,-0.19786849263889406,0.8779605895465901,-0.7013653448333421,0.09024506392044107,0.610930349197605,-0.683693783395978,-0.43196953079810485,0.9650541156216621,0.8696998313352386,-0.674192682082758,-0.8189263295133302,-0.4205131291193609,0.5260363855657944,-0.5773548381633533,-0.3439906214270998,-0.11083841802163952,-0.9360435490588541,-0.10586594537051819,0.686917959901058,-0.1606945574545886,0.6570126277808694,-0.1078131908353388,0.864578070983224,0.7985428571119488,-0.7439244534694576,0.053812848251737266,0.6528588426491662,-0.7514305334142346,0.2169687734926402,0.8573126173444663,-0.15131288606060322,0.7112020883979295,-0.30091473586873474,-0.9941962407898568,0.10591004867833198,0.5316927420879096,-0.442025920225227,0.03658242200081263,0.8028514540076799,-0.34877674201747455,-0.3188653049402319,-0.7536275674571478,0.9099049323724508,0.08939707626945514,0.9768961834107404,-0.7313219671243663,-0.501144343577419,-0.4560345479841279,0.5912178110725872,-0.5126703582156038,-0.2739821849315469,0.1156506285791361,-0.486006503685837,0.2564719282533625,-0.09654398061038805,0.26683450968638955,0.7108051802527984,0.3342097152420822,-0.5907137216442004,0.5221454759167243,0.04036891044716806,0.8392749092464085,0.7815256273259898,0.2957917585700771,-0.8639089822052726,-0.516231772237403,0.5857257746061073,0.8892209551430998,-0.8565306034168199,0.9294774187690185,0.990437742072569,0.09930462183583799,-0.574554874530333,0.3586894465963988,0.013842501893207126,-0.5376992815394297,-0.7157284186042048,0.35334204851223827,-0.21293035232806856,-0.7699441803464033,-0.31736045779718847,0.17216657915227507,0.6399568158381574,0.1728708609592262,-0.11677421890854367,0.5753127945051033,0.010014222190236177,-0.9032270691530482,-0.3263088285326936,0.8299345120261064,0.7944640261440334,0.16673427729893175,0.9883350993398776,0.16820991174376165,0.38260763098492734,0.22527708592103157,-0.5785602827767466,-0.8540331819124778,0.5706520850501124,0.5055634733655161,0.8119672820206523,-0.6007005139818355,0.6650423084365147,-0.6970468317382761,0.4974740183528763,-0.17666796912448923,-0.1994887636607685,-0.8986040351663218,-0.6748849721104238,0.7344192125138187,-0.6334821075393802,0.7292582272184605,0.735260264026788,0.7218427858031766,0.8117029454171205,-0.7105675010581556,-0.2914073433599309,0.35387917808057656,-0.10314046859929338,-0.33783283242221995,-0.7392589578153168,-0.6940899890453629,0.9603005322054334,-0.49330488233041847,-0.412638627098469,0.921559376932878,0.24109293459413816,-0.5109759463437575,-0.5939392279717599,0.04445772440440954,-0.4610455462766161,-0.8438555014266969,-0.7585418754178888,-0.8613528220008131,0.39304024812957383,0.03226756786139373,-0.358215580861319,0.6425505344269078,-0.6619100665928295,0.28461023393488993,0.008952089547056286,-0.9750712307537683,0.5918883090872276,0.10862212464508536,0.8011107474295636,-0.6248009456200692,-0.4529349489906691,0.03028426925686456,-0.7794266257531379,-0.9620869980006705,0.656333263976111,0.4084618878325479,-0.7952298563398752,0.5734309693451081,-0.7125957538280674,-0.39861670297157015,-0.5121037089359903,0.14064183303775035,-0.0963573720036901,0.006199339467038767,0.8992355164884427,0.042753887604824126,-0.9175468935612974,0.8174364201728825,0.7747062554172002,0.6921896852044742,0.5667575532897093,0.2990811295761009,-0.9579684436887612,0.19820800457707777,0.3089542841881803,0.45383219685206355,-0.9834413433827534,-0.1970903883342332,0.1894265687363228,-0.9953599469809427,-0.06360925957266095,0.18805949395541566,-0.14424542340866164,-0.19896763928042782,-0.6139468040437663,0.9732342456738035,-0.19633403611745703,0.9613937245954656,-0.41198916713153944,0.6215056943131128,0.9051889617672995,0.2717984646575351,0.35878183436340594,0.5046593413245593,-0.8950652950855689,-0.024148195161671104,-0.23959734421681245,-0.9891602475077725,0.09545619660260418,-0.1878091347280686,-0.4133841719431681,0.0651656177536395,-0.7755203587879029,-0.6971604870014487,-0.506720337036241,0.43285919414844654,0.43051963859061826,0.6737816282920461,-0.8482813785588157,-0.5079785874339069,0.45190456246943733,0.0632945956630333,-0.49090853573142645,-0.20881246636793493,0.028269010328724864,0.15761372358490355,-0.34777792977296107,-0.05169855193706163,-0.3807607263300061,-0.20933356655933588,0.47758527220531133,-0.6907402347856981,-0.8146546518419999,-0.20360229417212272,-0.3812331654637746,0.8528031035285006,-0.6587263291585448,-0.15841456988992597,0.9977469329053137,0.4703272277278654,0.32354752977444723,-0.5772340873148532,0.15227370906469395,0.2241622903435947,0.7686586416595935,-0.9657739975586017,-0.6378041140205679,-0.24947927633411138,0.6615363260468123,-0.8402259987009231,-0.1993368898293244,-0.2173122464252386,-0.4200065967880109,0.03879118792765812,0.10344867214462217,0.7791545809152913,-0.6985563438888971,0.10315854890730569,-0.9096435538463843,-0.39232236976488233,0.7096414100986983,-0.09420972101228586,-0.446583081398237,-0.6203271114426656,-0.1542295642347009,-0.5617592631127157,-0.7798076218305989,0.5209714848333689,-0.45881846386850156,-0.20768107964089322,0.5244192464822115,-0.27318226628424647,0.9171328734201154,-0.938140084085838,-0.5140765885651737,-0.37184912928146985,-0.8872768883446016,-0.12370624202847957,-0.24259317281511983,0.0417833775244707,0.2670909864070603,-0.621108625217867,-0.3159472890404229,0.8509722339924408,0.11286884571591327,0.8403455277187541,-0.7913656343594815,0.5322929745115641,-0.5176789746396424,-0.40212447626623327,0.37455271789630196,-0.44444600009081214,0.7503293387176149,-0.23497337337630952,-0.4661196393679079,0.920898771449195,-0.5147444590181036,-0.22784082997447586,0.7890226524944759,0.8769033890256479,0.8363878099174111,0.4669783666424714,0.4519456290660069,-0.612949516759757,0.22994991154175826,0.632068355318216,0.6849549975779059,0.22369598792737388,0.7718193733886951,-0.39198029461201656,-0.37744687884775563,0.8333866039561877,0.5444166621183442,0.30536663411559917,-0.9511637934931116,0.4672019599657662,-0.3251471043114378,-0.3745353812078722,0.2889124307187383,0.9239538927455047,0.5243365775904498,0.5409253017511715,-0.25001747377045747,0.654318548314095,0.5931879572396739,0.17196151104402246,-0.6248786550107888,-0.8330161141909966,0.4939162136980577,-0.039243512620186216,0.9784520140698241,0.6003060227701338,0.5426415372822706,0.1127360448592789],"weights_hh":[-0.32019382093149296,0.08621115176801775,-0.5598487118583031,-0.34316056668678074,-0.9187246130021209,-0.4031055594564774,-0.9034003641652575,-0.8826507491936115,0.8031222440854118,-0.05018556392930007,0.033707162186463524,0.4782409537564505,0.6324891672927262,-0.3530573687383649,-0.1916612732000531,-0.634566997122916,0.8548174559323396,0.20489559639879396,0.010180206865427532,-0.03409591404822554,-0.2945474432658701,0.9942639050770752,-0.6840056273169985,-0.46287593262160254,-0.14959479861989466,0.9138359757450101,-0.15563478008429943,0.6450852937532536,-0.20917245423986364,0.8517232416052793,-0.7074899865899271,0.6265975737282263,-0.4487351721927091,-0.5554760445089844,0.06969613990362555,-0.5867455337727285,0.9469453135856796,0.006266341558986754,0.3438750268655133,-0.7406465767518631,-0.8924013514986711,0.6842502150853911,0.9415607408608668,-0.9361186509017152,0.279788812331319,0.4408901536642986,-0.23911915622102398,0.9187773765307512,-0.20407192820751452,-0.02502677575439649,0.434890516524558,0.5133720089830198,-0.9808392653099536,-0.9834340551925527,0.3273733589081873,-0.7219636768325768,-0.268371449295421,0.925042753197783,-0.8466356882385941,0.266804597511497,0.46637938779371946,0.4838837209864677,0.47408179607166545,0.11465669613618013,-0.0021509864072557505,0.36902598472474835,-0.4007144778047149,-0.4252801955449501,-0.6634668075770278,0.14416142998249937,0.22434219163709002,0.7823159734268867,0.011687943018833247,0.9095917108198728,0.9421821551524303,-0.24879057106612557,0.5527057221954224,-0.7721378900744593,0.013095425479987322,-0.07049154209698272,0.789404283293154,-0.7617952994088488,-0.7210888304707157,-0.35337054514304245,-0.041306150773567474,0.31131343776635667,-0.02544026217719675,0.9584639033630422,0.9134885639083163,-0.8796538743606894,-0.523362470481604,-0.10171231530296976,0.22636295792328842,0.1494780300153038,0.18920778850648956,0.7725367179886544,0.1952458462557809,0.015373728468959236,0.8288253967719714,-0.05771874830557877,0.8131351716841804,0.8466280004065543,-0.5656778375584293,0.9826750933195796,0.3409180047549283,-0.15129581246279744,0.013546030704398193,0.4636844787466132,0.24095085525353221,-0.9874630630095214,-0.4191036919390796,-0.49060331746162333,0.5198718413253984,0.9563593716631726,-0.08192798088608577,-0.8246923990491231,-0.9141020717516892,0.6485073955324756,0.6064177190256475,-0.48949325817530576,-0.42539063461105364,-0.0803230032728588,-0.6983981750183861,0.37811574628578626,-0.15712971893372485,0.730725970271366,0.5910370017010043,-0.8715271748800397,-0.6821387484338541,-0.5527362934626778,-0.6657139124235822,0.7687763276645063,-0.48752713413244875,-0.8240831397015245,0.16214261513145356,0.8023437485981488,-0.4445076382461641,0.9538709705627244,0.802660860696957,-0.5705497277636233,0.43129088362151524,0.6633622197629343,0.11783104199067895,0.27212086193650675,0.34272602563914045,0.7688260853705731,-0.8110408219834673,0.07206522195789078,-0.48032496053133467,-0.8454844336105178,0.465221919740211,-0.21932441585614137,0.41896269704305955,-0.7209272185105389,-0.5545482100544512,-0.47916559590981245,0.793578763119889,-0.0808462829230423,-0.36189715378701237,-0.08586333632366272,-0.6126430761258541,-0.826609785979993,-0.8892897311918824,-0.8884099208055853,-0.5236294028065973,-0.8614829651681826,-0.6446543470057053,0.3242957088499323,0.2608830999572542,0.3516080882399695,0.9010406123722094,0.05161090859975914,0.49573295628283787,0.749513027792633,0.36790596126873076,-0.39380357569078517,0.6967021366738875,-0.4451962476284306,0.775709446830946,0.837011485691995,0.34201580692290423,0.9006754041374823,0.530155982224563,0.1286449837539878,0.663669696679962,-0.5614494612548155,-0.37953134511076914,0.6261972885884504,-0.31797870264422645,0.6042280549942347,0.8782026329631296,0.3750262827478461,-0.8786920871646076,-0.8013979876555846,-0.05632107244109874,0.9296570568508615,0.15283615191231292,-0.7802847838057918,0.9880188647584085,-0.27317189028277356,-0.3824919379528402,-0.08262519286002412,0.6867806314178915,-0.11829326518267114,0.6119018023571496,0.06579155131673353,0.09304496725362066,-0.5044818994680944,0.6572577319888251,0.014680195786339612,-0.16405463862435554,-0.2157862394611587,0.11132300817033425,-0.14891942908463962,-0.7558626200330034,-0.45927785122229237,-0.31576308554157095,0.3361370973690361,0.7334072259537747,0.05694335252842042,-0.33549094271896585,-0.9746725870177957,-0.3828645359884486,0.5948374707045383,0.7312027795537699,-0.5212432020337037,-0.6968271691176053,-0.907645748079974,0.10993585783490967,-0.5018680298079385,0.04083394004042673,-0.40867044367849403,0.43314422917650486,-0.3707730147380808,-0.3229964065195241,-0.3416113637616278,-0.2651085461788729,0.7922808999766848,0.3915030883993702,-0.3006204845197169,-0.46369828105198385,-0.980944320246165,0.5846322399841706,-0.8382952683859242,-0.8045974944411338,0.5055333421298616,-0.7297329938405028,0.801074658917569,-0.15813625085097627,0.3414407494109051,-0.24153789142406001,0.9643728182353524,0.8579127397761463,-0.6564989406411785,-0.11923425549194189,0.3922611486757117],"weights_ho":[0.9551084657377009,0.9342865403341007,0.5072165489088754,0.038665439965679615,0.2479629798650942,0.7353118882738612,-0.2690919350135321,0.7951435949228098,-0.7504197019746759,-0.9643799725777875,-0.4494011691997841,-0.17912009963594966,0.6898838797340519,-0.765115767712027,-0.49364134557656913,0.7831313766170958,-0.9949378671297182,0.37030688203525264,-0.9070919941218012,-0.6402998648890641,-0.9436995314697398,-0.4982826995245264,0.9887718049150789,0.6822537715461894,0.7938601013525981,0.23229551709420693,-0.9527527537638976,-0.15216744882748268,-0.10493384244390569,-0.41469730515010816,-0.6050383690054402,-0.323319595372213,0.16994726826641626,-0.14299075186369792,0.30826994861944335,-0.7906278048033888,0.15156983403354451,0.6887360808892173,-0.23255902312020948,-0.9340286193596163,0.7650315703169002,-0.7006683103679867,-0.8949469028021495,-0.9631235357112786,0.2020801421090912,0.749778185384933,0.6956019107543745,0.28967142142729396,-0.905200540755251,0.06155373821405963,-0.10180483158352271,-0.22022219154084866,-0.9264759256150283,-0.16762671720602218,-0.4931314157241262,-0.1203868178279699,-0.819435843727508,0.6661892482785365,0.04298379033114763,0.142341221322819,0.8714695955417646,-0.3922474593455447,-0.11792301952136053,-0.5486682044878564],"bias_h0":[0.6936196096703686,-0.8347939208014803,0.03911950817883025,0.10874282902687038,0.30721296320986236,0.4662179601275549,0.32936134567472597,-0.9459590807352445,-0.03853101771401635,0.018567797493972638,0.8750387363422893,-0.5547136130606127,0.5142770706560353,-0.880261054786939,0.8285719734820434,0.19613028776747554],"bias_h1":[0.7581663224973807,0.09553287200520799,-0.3323601621880674,-0.9584449981788177,-0.9385405885202558,0.6395755867422803,-0.6347188294856179,0.5933625515619985,-0.3231770958354052,-0.1706717629012402,0.6066939202747099,0.915625853100182,-0.23262854342277883,0.014660272141729491,0.773920174995065,0.5783789853406596],"bias_o":[-0.23121610428339556,-0.7107396315106151,-0.2416045603515149,-0.8803339490287836]}