{"weights_ih":[0.8452440429072514,0.0642301123114859,-0.8619122921497746,-0.8393797601053916,0.7259467073669239,-0.4504301019704655,0.15973952523936896,-0.9048166720684929,-0.4116224800242634,-0.8677371114456387,0.4070652477030994,0.6717431185976324,0.6455374711028243,0.9971734715888645,-0.13185075345734076,0.09944898898708021,0.5385187539009533,0.017811017847300104,-0.06153790070451248,-0.5124444999937825,0.8641623480278979,0.28853276700144526,0.08710065174397363,-0.16731049067605563,-0.8594131535211997,0.4280530024628071,-0.9123864711655105,0.421909500773034,0.02018891062083239,-0.8377980579977673,-0.04904637252113697,0.29677929241287115,-0.3476554480937404,-0.12139395019265442,-0.9010334013198049,-0.5093130863422846,-0.6197515403221268,-0.4081061497514451,-0.55207284761587,-0.4173090803142909,0.10175167618132086,-0.19624839224113289,0.3902900297881642,0.17910962699531496,0.7183793574971093,0.5223856469522197,0.9300638611785113,0.3319458649440459,-0.9191561498309302,-0.4502449482278652,0.7443540109188562,-0.18812452033325955,-0.32559697238136454,-0.4175902341603497,-0.8953003171650367,0.9366508892422414,-0.1473073690966984,0.5048559348903487,-0.8946659445074212,-0.834688430448068,-0.8407778976487017,0.9790626542389049,0.9879352214715162,0.19560070175499167,0.534642000847044,-0.7453419314609229,-0.7243652216934602,-0.5730393825689017,0.8742783365723859,0.06682234345531923,-0.06437394675739294,0.8263682081231611,-0.1796055072238496,-0.986228466066766,0.3884107666538481,0.3720631508580916,-0.44210998321669415,0.6953055065773854,-0.39272118332003103,-0.41966340819203296,-0.7683774074877743,0.002613194623001247,-0.7254864396845884,0.10465560783799166,-0.20041914450669962,0.24185221372660903,0.816048691395131,0.568334620573314,-0.43808231252014096,0.2959081052576453,-0.7421342217607239,0.6503591717136681,-0.4865022115485078,0.7270035110842668,0.06215727714765151,0.6708287408866438,-0.07879548699127237,0.9035443050896912,-0.5374150700953508,-0.4816497101894395,0.46174278114421874,0.18723512173799883,-0.7271414452797493,-0.11086930238167247,0.5522984960284949,0.7693738176752207,0.5379909862065517,0.13937690205726216,0.7750039452624764,-0.22273288031368343,-0.6719497617521026,-0.015085736977299202,-0.28661487563126786,-0.7998301731862703,0.351210123536861,-0.5994358457281781,-0.1663051988644113,-0.3120431715477876,0.4643088274229985,-0.16022355886222162,-0.8987986902695788,0.49448249330628924,-0.9241292390238263,-0.04978794060376668,-0.1576068891921587,-0.3207251460835594,-0.21218466119726154,-0.5507219981523857,0.922295502617408,0.8468838681677837,0.08486458495550764,0.6472609306679631,-0.6590253527629302,-0.10091187939805102,0.21719570237736074,-0.4646252083540181,-0.723732043415422,-0.01933794301593017,0.19459045756512405,0.16454449689939388,-0.5029256872613217,-0.43239628303726074,0.21089594283668345,0.008999902315002917,0.7510153502324699,0.7153035246022645,0.10990357398600237,0.26629422856037177,-0.8240738030426409,-0.1639033182243801,0.7987539067688836,0.3224065167893919,-0.05534309340145693,-0.19170947361983415,-0.609782121756401,0.29517251790290633,0.38853264889006356,0.48610845834099603,0.21998844413664842,0.9876132044044434,-0.09246754696735882,-0.7971236809597833,-0.9337120546517734,0.7679288852481174,-0.7866962274890597,0.7400809699235471,-0.48539930678608334,-0.18396434433611253,0.9408522954628706,0.8922485385462648,0.09789353698489012,0.9247644824125476,0.07067053878499041,-0.6554549522096853,-0.4235061067222383,-0.592256679091338,-0.5997786980241344,-0.8194978241557158,-0.3997072623903526,0.37447633520968826,-0.655261101988678,-0.1651311430830047,-0.019819644562925953,-0.24378150934910603,0.7374396589288637,0.9014895933992952,0.896075133553196,0.17513088661458753,0.33332728521382804,0.41727565190942406,0.9049531199891372,-0.6545809191872283,-0.8839171541934954,0.04217727723745157,0.5724965884553253,-0.5303300745607105,-0.540388648211769,0.28709585590926023,-0.5896497676388559,-0.32650462596569096,-0.3249202588275235,0.30732968138596917,0.7764203491277901,-0.6925248519979346,-0.47498499975896724,0.9508834819549707,-0.5411265596528096,0.6545714423166276,0.7061104409161876,0.21096496795209885,0.3117000055104344,-0.019279341263632732,-0.46761825741977847,-0.8888851512096114,0.20444186360698957,0.5796048085392767,-0.7711181218092946,0.16737748844999456,0.9548581901069204,-0.50127462785194,-0.7753508464238961,-0.6378873642457228,0.03888949534101194,0.6313528661558194,0.43634526840907295,-0.926270437169523,-0.6664223449295168,-0.08167667151649605,0.24162501582440665,0.896841668334385,-0.8226796685809816,0.46295144830437485,-0.9723299707826587,0.42222704419647616,0.40920922412449023,0.43846452674021097,0.38144258025110656,-0.08118963210393915,-0.3026652379634527,0.6011914480512799,0.08016532592036141,0.12366872500746484,-0.07243965257699281,0.06684812203809143,-0.190894832276145,-0.8822216239009109,0.7096363953242966,-0.7657379221024003,0.062290094899753345,-0.8676352657846755,0.39771081703403954,-0.38892006532616863,0.5497324554025032,-0.21883089013560908,0.6543757359714584,-0.5772555407195648,0.37567587188734275,0.6568282888897563,0.9164046286049932,-0.6446152092172754,0.15670755996057362,0.5233757700160291,0.16868645283265837,0.2932119093722536,0.5560047314057204,0.1741981241521373,0.8916150196223263,-0.7962408882529153,-0.715312590664615,-0.10589360633789768,0.5721151506355093,0.4312299176186791,-0.8428785980762536,0.4766240591830224,0.655776128571677,0.5781588456879605,0.36314122522598735,-0.07794920186724164,-0.29139769151006933,-0.5412514712002556,-0.3478099111054911,0.16915884966760308,-0.8618751958717052,-0.7867097418799414,-0.07987945444003541,0.8316996393041698,0.10761295511122859,-0.5956144135869605,-0.8890128973818725,0.05820047441035925,0.39444461779235196,0.10749830481810041,0.5983205385850914,0.18555832527248683,-0.6449258483520275,-0.2270725356728467,-0.7005989924805922,0.43553323222805496,0.4785064536764183,-0.39592762924674596,0.17343179853974489,-0.645529183871391,0.536631643717425,-0.5854777733252725,0.5507456928582244,0.3953224351592015,0.0941447502233046,-0.47372372904094906,0.8561672739965343,0.6704100640481077,0.4518153779537739,0.820258393696595,-0.9565193860748302,-0.6648211177475445,-0.6808651191057875,-0.8906362205687763,-0.37580936409964405,0.8980921790318102,-0.22781145191032004,0.9449630176547752,-0.7227237222638374,-0.6687562334105344,0.004123803643935275,0.4617715393445361,-0.8756965782768293,-0.989412039387086,0.5477564435041382,0.7764642607050791,-0.9366851909121889,-0.8186685546447494,-0.0894765694625741,0.917245442216502,0.6698727308094989,-0.5061776711025363,-0.732084791224781,0.6745888393794908,0.4668645767014874,-0.0466287591824579,-0.4643278374519788,-0.06517849813152865,-0.2647275973836922,-0.30829857261613247,0.6197540706537665,0.5245796855383691,0.3493066444920254,0.3844766699398805,0.636208689806568,-0.5575697086488867,0.7314939577057864,-0.07339905492366605,-0.9091912213933777,-0.24737162300773208,0.8977764283305933,-0.43299718383602115,-0.6744770827671385,-0.8862504613740825,-0.48313202535326516,0.2522451465843607,0.9236556809543497,0.5462757745675477,-0.9229913859160019,0.9090588255613823,0.4111884964840211,-0.20672119072833417,0.15313391220138284,0.025999981415349982,0.47875282641421224,0.8304816661114363,-0.42224442014818653,0.8491413137829031,0.4965150033694039,-0.2119348305659845,-0.4627306948395673,-0.6550122843454809,0.38072326732234973,0.4172017411629785,0.8330539336668779,0.8592273557905743,-0.13956030495146643,-0.542905611033023,-0.7409840424609431,0.5471684119958966,0.05016037524882422,-0.2941547313230495,-0.5610138787298995,-0.10637511879334594,-0.29265500446421355,-0.8877779114149595,0.38056548183323424,0.9180577072793601,0.6368819137171291,0.9510487719377019,-0.4764159515644675,-0.6862073798869499,0.7652824484366345,-0.5313606444560881,-0.2483961819325653,0.9992276944745753,-0.8654901091549767,-0.9871806287966323,0.8800493974159036,0.17970700738985612,0.6560712718647268,-0.8908026192842613,-0.8422713351213544,-0.9100862249301764,0.7458275962650602,-0.7715593101536489,0.7891072492865936,0.8256667083515836,0.5843035747909389,-0.5590723359119487,-0.42781613657741224,0.7975566986208271,0.5152150224151195,-0.7916954360364372,-0.9204890457321468,-0.17859103485943995,0.23772179778417302,0.32939376773929285,0.05060396713086046,-0.5972958969628543,-0.2530492114783489,-0.9869959026095729,0.6418556971296372,0.7013818236084897,-0.5291840270909685,0.46492534433372157,0.41366028277228173,0.5809415212358757,-0.05494894171243825,-0.8246865431792199,0.5252826179436012,-0.9623270207259145,0.4919118470833639,-0.7415789432976783,-0.6932131199435649,0.07019440266179999,0.7005757959817585,-0.9036127472309499,-0.2829025881398788,-0.7506738005541551,-0.07167946273024928,-0.5790835759806026,-0.49467923264169156,-0.6898981876622641,-0.12287621327366582,-0.33600381719975925],"weights_hh":[-0.8412972327250035,0.3223609545280304,-0.5237202919356141,-0.0469361705106246,-0.6284233375051871,0.9044983155857278,-0.9279104401373985,-0.9666192777385982,-0.6290182282916035,-0.23687710561313802,-0.6489013377689903,-0.2228871646338375,-0.531841145325612,0.6466731251038684,-0.5298432164970666,0.365692446484696,-0.10112353572896837,0.1763440233366802,0.12438224081114813,-0.16518048548906772,-0.3431917471467725,-0.16879064828612367,0.391490513895679,0.1781564685547743,0.4114291612355778,0.12631493608784194,-0.6747573430037443,-0.8497792336013614,0.872522088454416,-0.16534784444812867,0.1544647233486225,-0.6302387582015527,0.4915406603050534,0.1659389573187291,0.4616925340227309,-0.521893185077603,0.6940143745756935,-0.5691053965830271,-0.08413427928566053,0.7808689590282112,0.4031311762869887,-0.7761344123506249,-0.5100708507595022,-0.6856629188741818,-0.435192510813742,0.48560092574269564,-0.20526844473185535,0.2392036714201229,-0.4985123427586349,0.40062612731053204,-0.2206767705690864,-0.0817036515715972,0.3032092694598494,-0.1442789974805765,0.2802800188714676,0.6967384042640923,0.2160620696549702,0.02230485971074425,-0.750549373022676,0.6559880153132951,0.8933142280638584,0.7989232096602701,0.2885552990901663,0.8614536664635088,0.06910188126847827,0.3705098018219448,-0.5532709455253266,0.004001925732818101,-0.7519724470380313,-0.8382323206776101,0.8510456930761634,-0.5482168368699156,0.4182064897896096,-0.6718540960807309,0.2288926318299691,0.7380224310398276,0.058047639646142235,-0.2318919795402521,-0.6461815289384523,0.17999124366279107,-0.8508447992380628,-0.045597041850380604,-0.5477913377523678,0.2746945887586436,0.11809606409035811,0.18936073102739392,-0.3924115116704283,-0.5410319222466462,0.06665885313675313,0.056660799423786656,0.7932389909472533,0.9828147394107773,0.6015679120204942,-0.40294386449951913,0.1386317406316444,0.9996897072816247,0.5412735909559863,-0.4989146079835338,0.13211837679800942,0.6864805679487467,0.8068157833202576,0.019151027493006678,-0.9724972859927661,-0.5542708511345398,0.8017388275767348,-0.6048717600871321,-0.7418521015090063,0.4939200993743431,0.6408729907396784,0.21736411342832396,-0.07601874833253075,-0.9946688646210575,-0.46155843773154537,0.9908724723265185,-0.7276985408701817,0.04572855205043869,-0.41260856625725006,-0.6196084293409003,-0.3768658650737726,0.5147231692698215,-0.4608107819369125,-0.1430872038009341,-0.9577625115487676,0.3007366280608972,0.6127198971494234,0.5639825423329672,0.10441344490672333,-0.37183404827080735,-0.6030975077983312,0.7249178988874481,0.8940271503903845,0.23871981933831177,-0.9603193255703721,-0.19241348884645526,-0.2160913906479418,-0.1086312739182389,-0.8101023589909511,0.7772528601839799,0.5992481219550696,0.14423365304776037,-0.8105129974050909,0.18924097818748886,0.9855718669181495,0.9926629106748828,0.9703639709913512,0.9867802699487673,0.03898373596956439,0.2740500515706128,0.0509488851376354,0.43426479466044654,0.7607505419797664,0.8440839703420921,-0.2183573035469344,0.4787119496815804,-0.3816224426713406,0.11708428356440437,0.05975473608882664,0.6632363658246159,0.29620951289069075,-0.65444303246159,-0.028704464075933966,-0.23391944813231236,-0.0374469237483408,-0.6012386954300175,0.9469472240811725,0.37600217239160005,0.3107715386113701,0.5945549650013868,0.3155232983158782,-0.22947833513499805,-0.3157926194439822,-0.32700684623028,0.9699608569932274,-0.09966734311927028,-0.30584818253211643,-0.9963823113148347,0.8531010606248286,-0.2701295944488198,0.4451303976684031,0.5621769295178622,0.1737116984384235,0.36249180270376313,0.26768402663348834,-0.8241197994718832,0.1256281504430068,-0.9926429341942848,0.585043973048754,0.037518916601569474,0.4692419270379724,0.6100198646076145,-0.5188069052501443,0.3207002535007748,0.946331686586311,0.12468977989216068,0.45858956439914134,0.3580539623466916,-0.686845943687802,-0.835829494818823,0.41521617980759373,0.7291190400151522,-0.991678229338852,0.9810484254893606,-0.4851796278870504,0.11611511346983927,-0.7113676366747068,0.35363128917853426,-0.7653606753553834,-0.9123388494195765,-0.7277347865181516,-0.8693184452584144,-0.7997477522561307,-0.2614070782040989,0.20089746523225838,-0.8058723280937417,0.7433112496005685,-0.4034219730901589,0.6668959874543523,0.7628205306792548,0.5163939814949681,-0.5471010187638781,-0.8583492785761224,0.9065066768896375,0.15728584983190963,-0.5934530366762973,-0.2700271475723741,0.41906728458616027,0.9377272473427867,0.8207127734811335,0.13633892968320072,0.6640362152258297,0.5070393394580028,0.32811643028465753,0.21722557945797383,-0.339637431595063,0.0807501018867458,0.20132207818210035,-0.9364366219742368,-0.1487561466854408,-0.1047122111589549,-0.14803857746761717,-0.2629969306881672,0.4163406358257522,0.6691258819948058,-0.7138247506371473,0.7245143789301989,0.3112833996151727,-0.5279632296471886,-0.9333899402421324,-0.6931757620024215,-0.2938367432940603,-0.3497012792853069,-0.2555749954749065,0.09337500806388244,-0.8964379096521546,0.8414516947538806,0.26333126706853305],"weights_ho":[0.013686026326164002,-0.7203311858586399,-0.1376840516879123,-0.340331974134382,0.6627250525313941,0.7422660123935598,-0.12400188518927169,-0.24819755145359435,-0.48355845095728656,0.733161034101403,-0.7190620711196059,-0.18690527072296836,0.768082918839692,-0.9898053508895495,0.7645807219886505,-0.1371506836601626,0.06264257863087508,0.4049875125150806,-0.6136868386342664,-0.7796411536326715,0.6970602867575366,-0.8122747136320223,0.8122632705679973,-0.23419766052756397,0.2732509110212351,0.6201856417247922,0.35388965798988425,0.05221852274034666,0.18295657890197115,0.41957382750769856,0.3773322128136478,-0.6640197669923711,-0.9125117744317925,-0.8482644415101721,0.4523328460694369,0.8031608599273783,-0.03570634533161887,-0.6542842676776801,0.4058490131978183,-0.6557258330323124,0.4568802010554378,-0.1434930457825614,-0.7458545622228814,0.7985980105535699,-0.7748717582306246,-0.27395288424819486,0.318256155464983,0.8843673358233075,0.12797612355285515,-0.8845364039668149,0.7748095409679454,0.43507991842556537,0.49774696537872987,0.38408567238439995,-0.2982102520698746,0.9129077196402366,0.9013111245634395,0.052263925391196286,0.4989868537364086,-0.29688237477459345,-0.4651064338996451,0.5988467426012518,-0.5002569579996705,0.3581875894424278],"bias_h0":[0.10982153360894786,-0.22547378480147517,0.0028099272134687325,-0.9127133541275703,0.6555373764898411,0.1078486330134798,0.6350515170162532,0.9256338277581586,-0.5263676032164593,-0.8023594522854349,-0.9164177107134872,-0.6793085483441264,0.7983752815844876,0.7473565245439528,0.3194996040123732,0.6138623543456707],"bias_h1":[0.13831798985384092,-0.9936125878882656,-0.289611100348941,-0.7880250305639114,0.9699786940074064,-0.8042408816697955,0.3130316515008449,-0.1753926841102036,-0.7555093410727425,0.7597407005893106,-0.2934397259795918,0.6223436233239108,0.9738142820425857,-0.8376253424725133,0.8882187735813363,-0.10606184482670877],"bias_o":[-0.6523014482232805,-0.28036578470510864,0.4773711119777573,-0.5717012693527317]}