{"weights_ih":[-0.2210790458936165,0.4307500912274296,-0.7471248306423441,-0.14930486003748134,-0.7869239553163669,-0.6659922820104216,0.264616718081631,0.6131337409169546,-0.8035317650066391,-0.3581178780922949,-0.34676471880063864,-0.13885121271210688,0.49583356277974744,0.33756092805625393,0.4629545676419238,-0.5441996600303833,-0.34169731476675635,0.28087754739321236,0.8707171828029043,-0.013111820847838684,0.9994288442179928,-0.07427731758438494,0.7579347615827137,0.6090432781874038,-0.32852600293433065,-0.1839472400667974,0.6998260638213634,0.2578588620621671,0.14233873568419098,0.7089505297926637,-0.8287473636837166,-0.7248883500689016,0.7919613004335708,0.7401278332582515,-0.9745018532051719,0.5693278813158293,-0.4584078192241994,0.5128612466158509,-0.051670978514887,0.08123899098238008,-0.5418949760574077,-0.8463143115850456,-0.024192219352091815,0.028673388785146692,0.8627753780512264,-0.24100608866666406,0.44403710023207776,0.5521311641524225,-0.41310540210990765,0.33786357067815187,0.22396720442843598,-0.5588536279153344,-0.03234242539071763,0.523601712961445,-0.5266324146142833,0.43201402448846227,0.9971339800224852,-0.48730335634989297,-0.5892552424374651,0.35514168943252855,-0.14353248059126544,-0.9750482591059937,0.9146222266060051,-0.7331814047152456,0.9341820948061654,0.6066145525646316,-0.931886299381401,0.20621068977443735,0.7066474182906124,0.6389480644609087,0.3236231999572792,-0.46625837433790607,0.5317365310541085,-0.9300995899383029,0.3342481845466503,0.6482594939004802,0.32702728788556734,-0.46143941709528913,-0.2284378388455952,0.940460785813305,-0.3317834492591054,0.06414591564694616,-0.9153523047002163,-0.6531853499381881,0.5932220078324537,-0.9653533193670427,0.5598303206101303,0.26507194781147225,-0.8011280861880914,0.1097323030940558,-0.5045164186665554,0.2984882721882136,-0.5850453497489536,0.9507466108661806,0.8514677227437581,0.5382789936512153,-0.3386616099291926,-0.5168002833619163,-0.22020203698797136,0.35425350864889293,-0.4710501434934833,-0.7334328047584817,0.8382582354038197,0.49431778512147506,-0.9899918196295296,-0.5730322430262524,0.4354188911313619,-0.5931848932324777,0.36814047718366116,-0.9351075100259496,0.6841681079262443,-0.16406842129267996,0.6981842459702048,0.8509415487356298,0.2317009983010314,-0.5300203621003658,0.9632913534792868,-0.5449697292904694,0.9436297549060444,-0.29275491474656645,0.13932316102803344,-0.3531407898605945,-0.606973470581893,-0.39483266338628376,0.9986144004648339,0.8190302728735301,0.780715677633733,0.4201965188487098,-0.07493955196392776,-0.5458805487192577,-0.2758642303546879,-0.8926757499295077,-0.3879865330626955,0.37263115644852207,0.9983432743152896,0.898810438811924,0.4063538737418735,0.05084619563425585,0.5263287560498129,-0.9257974256155601,-0.4843587352590053,-0.32362136161821153,-0.8301014137169145,-0.5999697374588184,-0.07595150942438122,0.24131068889174734,-0.24913904429183797,-0.09043153772705592,0.9113219721940247,-0.992343978904624,0.7149213756104253,0.3581088265232921,-0.17259580866247615,-0.8638397286503052,-0.8532456250029881,-0.03578248003879314,-0.31992485783256597,-0.2697066013239018,-0.9847356370318467,-0.7766356905090122,-0.04564014323976129,0.11428637751991277,0.43313153783585445,-0.052404578610456554,-0.7825419738840675,0.22205968944338683,0.7629752519569017,0.8730179260310493,0.8860332089004208,-0.3859290857853179,0.9495050832438829,0.18974347370499278,0.2733629505572297,-0.5427801741246154,-0.5780359480790664,0.11194285195003939,0.715322679215699,-0.24411157242598236,0.47647893696121546,-0.9355479584621684,0.5753270896163332,0.9255276067033942,-0.013811424305073094,-0.26138011255300997,0.511572079814018,-0.8790456492340799,0.7649990794305492,0.6075438720918507,-0.5612227212723873,0.991025418585272,-0.5400876153555794,0.685511620387151,-0.12193799074004041,-0.04829107793066756,-0.9442906795047588,-0.7818710901114503,-0.19034033216660595,-0.6893471078428313,-0.3521733407601979,-0.7783120414679621,0.6045069110959671,-0.0950635726835487,-0.16767694683913126,0.34383227608528144,-0.8281549068089309,0.15740987693926334,-0.19428012358790125,-0.05091682727426261,0.33175422394047227,0.530875183868259,-0.65445790844887,0.15806827461912154,-0.1396562404929318,-0.3478751901815036,-0.004238094313421925,0.6793879568487788,-0.10698861784680447,-0.40641918966775226,-0.39994795215816903,0.074920641192465,0.6079626907389106,-0.8813736127735636,0.2851762561802118,0.6003905659484412,-0.7552485838114749,0.46552398960551544,0.925951067590181,-0.30966831682611695,0.3540019914535475,0.14203514102062353,0.786149471359487,-0.8715452885668751,-0.2717572134274193,-0.10399513708704466,0.5802842014226779,-0.008273596422177398,0.8510158318147483,0.34663399092481884,0.6629340668604109,-0.3021266974218213,-0.7605684263247623,-0.19428531231212398,-0.03789320469600943,0.6590540177291879,0.9373662018963671,0.42891487998873035,-0.16650996359996273,-0.8054273381188688,0.3189566955124923,-0.8592908273139555,-0.6051935825677683,-0.8406403616114946,-0.7085706196256378,-0.8678101067566051,0.2245925417675927,0.6550961686952743,-0.19779248827942952,0.5705776200961639,0.5354151360148027,-0.9933382949294531,-0.23113083470428042,0.5693606055155334,0.3284726958979227,-0.5959956962353952,0.5164198799318886,0.34796264365693563,-0.5744313941643704,0.10791910340890976,-0.2645786542025075,0.9051775047298598,0.05840224192968679,0.22685657513297053,0.6945235776332921,0.20297297062232245,0.6995469419828695,-0.06410417445276906,-0.9821009669013538,-0.8182335165223475,-0.8124473924715585,0.21569527908285768,0.09324052233047886,-0.7386801654603004,-0.7332745093248254,0.024990126997854967,-0.9181755133460989,-0.3247051475034004,-0.811333157644148,0.838673617820745,-0.810585743343369,0.9853012271688095,-0.3868670810153638,0.5242532007237957,0.8068464290758026,0.7458261385090696,0.7758091233970967,0.1112144339942609,0.6567721414904615,0.5027707813422584,-0.8684372484189125,0.9122211623472114,0.6126644354918693,-0.5505275168826393,0.6630281580506174,-0.33403105299586855,-0.7221005876171702,0.6490862876174373,0.24876756286563806,0.934277616612958,-0.7731208695916203,0.8172621171716479,-0.5779752642488734,0.391355474432467,0.20700142829390522,0.26620513961607917,0.6082027901117171,-0.5304841407753944,0.961658493124879,-0.5467881488335271,0.8167455881702834,-0.6145153194066413,-0.12270635148990072,-0.1748865672144415,-0.43104667515433803,-0.24327141347894332,-0.4070542780370201,0.16338437822443397,0.9821763154811727,0.319736061982568,0.21737920717551829,0.3553876949892312,0.43026321033168546,-0.6584594875573362,-0.190442876732138,-0.3232939661478287,-0.5867112030137835,0.11370309441297488,0.24586015753114743,0.4121287492081154,0.9248914845627454,-0.980369419305092,0.9208817968533762,-0.3644091328569332,-0.8743334835383776,-0.1893271605415181,0.104771412763907,0.972997505729086,0.2320120965047776,0.5848088050983085,-0.9442217044915817,-0.6172303028917978,-0.4193531344819932,-0.10506431763078594,0.19830528292549054,0.19664378048549347,-0.5478562709940158,0.5478797113901737,0.00519604617148306,-0.2484691567316477,-0.9490820866106291,0.5564099971709557,-0.20651256723904554,0.00485802886999398,0.1725952855090216,0.6591147736717686,-0.9604959648344262,-0.5889143606786091,-0.10078267608188707,0.20561067273039368,0.2733521075073355,-0.5366715002116718,-0.5337520634306521,-0.560337334814794,0.4964295098126492,0.9397528035887033,0.7219024177213684,-0.7864743293105476,-0.375043782395204,-0.28719354099350847,0.9791834912457995,0.593404774853939,-0.2966856430616669,-0.6001940182157324,-0.7337226659342491,0.682575251092278,-0.9331173628867813,-0.22618100670049968,-0.41815877929685685,-0.6102419851295342,0.8738552097620855,-0.10012714078727813,-0.6147888771859131,-0.21797628059120977,0.4942443626226407,-0.30021918115515933,-0.175598201725927,-0.9459148298193665,0.7146134186408648,-0.39784835287768994,-0.5468055573723589,-0.1236211530458382,0.78444971263931,-0.6091609629815644,0.5042167465816907,-0.46242257222101135,0.7081463159907835,-0.6984366290748831,0.16946326305995396,-0.5761106647671037,0.1298792197472729,-0.7157157270443739,-0.21453710849557472,0.03439288660400308,0.13583937841519433,-0.4243418956907119,-0.695598214120448,0.38577954921909785,-0.1777610934401801,-0.10207014044305929,-0.3290922253568831,0.6226648182304757,-0.08689610855411245,-0.33642021421253143,-0.8465244018074081,-0.8949506882627138,0.5827120516338182,0.1821462909520668,-0.22849233444726913,0.4253137329980854,-0.49081754534125266,0.899374182371415,0.384763434436161,-0.16054714864329567,0.5590810858841155,0.6445662163687533,-0.7160060320234325,0.8162351013324622,-0.41950793506772954,0.9149178218569627,0.6000150178077484,-0.9710167680908104,0.39333447516646025,-0.2434825780493144,-0.4001617934489341,0.48442686857378336,-0.6699445806124433,0.702445979356757,-0.19788879607238297,0.08165699007473814],"weights_hh":[-0.3472176171319019,-0.11500469624717247,-0.24371085083706823,0.15365174814337257,0.37540538557457137,0.9381278840293026,-0.4372496285942056,-0.6537306666885943,-0.42270766498719037,0.4369058238766492,-0.9258281448653227,0.9317622859662467,0.5520853270955066,-0.8073763946931294,-0.02770294101060289,-0.11767399898468733,-0.08006756908456958,-0.01812990479915877,0.21911246022840358,0.1852721658261931,-0.040327137390900436,-0.4791698278481542,0.18901324974327793,-0.7381273679582603,-0.4283537520053293,-0.5891790152610659,0.1482376450470828,0.640692382435293,-0.8344796571442339,-0.905698181726518,0.7783816152200231,-0.2116408321023111,-0.6432962083391638,0.5724291214284907,0.8915642342714785,-0.91363499952099,0.7962846253544589,-0.9687056644315897,-0.4285442923891152,0.42434348459853277,-0.9429452913067657,0.8010064517079096,-0.46194511097577307,0.35917225247046547,0.9738271454609655,-0.0169596238276557,0.572596570568479,0.5936416673144049,-0.23894236527028845,0.2413957734887906,-0.2085478270761958,-0.7410054681131331,-0.20158239554396662,-0.09502174883266568,0.30180023818768875,0.26221102032551613,0.3647770041530556,-0.42398758457294705,0.014107806806464174,0.0844837463387722,-0.28456284196522463,-0.2351250679562764,-0.24079623778089498,0.0730231557266856,-0.12849441856019506,0.46261699278714197,-0.9721209729350204,0.6267089774309873,0.3456740583534834,0.6395542245920494,-0.7098861618937218,0.7233586854890015,0.09261790759586752,0.5851859297112731,0.16002475744675926,0.16662904571116277,-0.7169311686475923,-0.11558964648812498,-0.1092615708050968,0.7659350536310625,-0.8048945030745149,0.9789688698238674,0.2970419467268468,0.5615227194775343,0.43058534545525995,0.02311337313797024,0.1801635426544348,-0.7125678076740432,-0.5986883052950551,-0.6392127454960221,0.16545628121839462,0.5451006621916665,-0.4344876224987817,-0.362766046594589,0.46128592349755637,-0.36713038170931167,-0.3431914769697211,-0.18207223013702234,-0.6414237925283288,-0.23684846598554077,-0.35573270195461393,-0.3157436012312447,0.9999473161617976,-0.28950454853713503,-0.20860841302485422,0.7936718371543119,-0.30124861502475064,0.169720736959883,0.5999556881864077,-0.33905753628596025,0.6222395234203022,0.9923034528364716,-0.07360425398158021,-0.6382808626473395,0.26343959440448805,-0.18609828583118726,-0.9939942862199682,-0.8202785853220942,0.9599409705822974,0.802250572196791,-0.928423034236918,0.8150883580505088,-0.8999040043818884,-0.3012917398316457,-0.334489284141789,0.6629498050476976,0.1331966778872835,-0.6539976836308898,-0.6739347245020815,-0.8969506253199486,-0.2622945533144052,0.316005139023805,0.14054262220662506,-0.705988862337023,0.14022077609617312,0.12800187719584288,-0.8779542599592154,0.7767738000297033,-0.24698252167949186,-0.8037220036824779,0.7019767883122308,-0.27267771609908076,0.8916445904299914,-0.3359051873735077,0.29307240281078273,0.6913512044919976,0.7957699788270618,-0.023690475113305798,-0.20270360264579135,0.5363696945359291,-0.20378908316739452,-0.5715949785761367,-0.10446533982258766,-0.3547004598899346,-0.45066189357860575,-0.017909288000489854,0.5223978774258053,0.4079812595987278,0.383577198593019,0.7102719988453632,-0.9328776711769715,-0.02076144162740401,-0.9629399763487503,-0.4897118413782866,0.48288172047660405,-0.9597710094492453,0.1001629204953094,0.7781396995093104,0.18664936863980452,0.007548210155322366,-0.4758839045355472,-0.5163730818877521,-0.4959732765525251,-0.6092132999769351,-0.9533960137712643,-0.6572697632298155,0.9516210523659236,-0.5348827642481544,0.7291634950768455,0.4095985543168985,-0.3238275414527325,0.8820770395093835,-0.7403205693210699,-0.11047608192151315,0.45599540930434324,-0.8944882569055281,0.40386686509516534,-0.5567297174781904,-0.1580639095897618,0.07591315164947754,0.1403176135615083,-0.10597641185639883,0.7728854178222906,0.5495454247237836,-0.2131143540669409,0.3698992483381409,0.9930365599305531,-0.39770467157885636,0.7034464545736812,-0.03171781218926517,0.568407984148845,0.7734945585703332,0.7727532124304808,0.4004828870846111,-0.09030586234391014,0.4543165148845414,-0.9853558164297345,0.025401617847313318,0.9425393551676666,0.8439297074310741,0.9324795158246035,-0.9965918312504369,-0.2170642082983414,0.549104518948148,0.7551612263616694,-0.3648006178318395,0.10232426758236435,0.7783443043360994,0.7526165290627209,-0.4874184091592355,0.5445942435772824,0.0721275953006586,0.8938956010564769,-0.05309934464627597,0.48770295663796914,0.2530611619948975,0.09268580607871613,0.5612004265766242,-0.4060722865461859,-0.4420499564152196,0.1960636836530698,-0.6588324988918446,0.6188476855700691,-0.9911205436432615,-0.5570969645631878,-0.9843215249940953,0.801035689858818,-0.7268541453106296,-0.47063935056732165,0.7582559082509108,-0.7541743885613705,0.10870750334464896,-0.08004361443596597,-0.9066554446637669,-0.03209719536692979,-0.4509890621185728,0.6785341700110781,-0.32627882896504623,-0.11867944342212478,0.6765810433946897,-0.967068390648745,0.14727391976539983,-0.5328473996692851,-0.857592545233764,0.7688080527097072,0.8211057256510768],"weights_ho":[0.4325179747810515,0.43621453700669965,0.23470088380634135,0.773933077974869,-0.4156204705070199,0.7045985001239845,0.5733157327561322,-0.2130006583333368,-0.5742067536932784,-0.7838911957583021,-0.5228623756996662,0.6611953240869877,0.9328744550713561,0.1308985933582878,-0.11288301769524178,0.1156160265399504,-0.02045135649283525,-0.9766510025834592,-0.2715847769107176,-0.8162169119239095,0.8187108429021057,-0.002361737299154454,0.48874409713906686,0.7988834132146205,0.14434283403347448,-0.12607688348997148,-0.7400632323710121,0.8970978383401622,0.29678300332997654,0.9622371805389114,0.47721656891535824,0.9794528424231885,-0.17291112091425398,-0.5630337779355079,0.5762204583836876,0.8153909450465346,0.5699050574100639,-0.22290716781009157,-0.189602597958769,0.11614064862621509,0.3936399307975067,-0.8838120544103023,-0.4969050496082441,0.24433801069448413,0.08519883359563463,-0.9035360394692922,0.2814096607636416,-0.3382903883333461,-0.559826919059661,0.979281204232207,-0.9446788756426201,0.928363559230309,0.417119216413006,-0.3043661367676065,0.5606786792181324,0.15286799943993534,-0.6950668143836094,0.2487112328665999,-0.9013558587220709,0.610571289941259,-0.30253012229520126,0.8088965101781969,-0.9954496783473119,-0.5735777889060905],"bias_h0":[-0.2898248606630305,0.2085446356206484,0.13238317888988238,-0.0515936085116353,0.3642270848630451,-0.2560291990584189,0.8409535532606311,-0.5428881531969183,-0.6841723776800404,-0.5677912269073888,0.724318600864343,-0.07602551037463767,0.4951129844307718,-0.5201850423342711,-0.7880160590430425,0.3409333256811413],"bias_h1":[0.507694640161501,-0.8553551328795961,0.7706508085028394,0.5599065861314036,-0.7269915577260546,0.3484909019544682,0.7761684252407177,0.009556717875429221,0.7389788770983794,0.7334058334947782,0.8803444892627967,-0.8803051641328818,0.17589661721975447,-0.5484076228694181,0.2906164456282607,-0.9682206870880186],"bias_o":[-0.9824130109217128,0.46941695342016376,-0.9759601291309112,-0.9189726036727308]}