{"weights_ih":[-0.8342969971393359,0.1239735570506213,0.42285661004381137,-0.8393797601053916,0.856610390206817,0.4406945605276873,0.5424659440062609,0.02506175267295574,-0.14067628777284846,0.002283781576599031,-0.10994667747145193,-0.9195535354372322,-0.5485887083459591,0.6418371399998766,0.31959084036306207,-0.6155494592856323,0.5385187539009533,-0.16694583124950957,-0.8303065210356708,0.23807946794765877,0.004168428070468355,-0.5556571386457771,0.08710065174397363,-0.16731049067605563,-0.36953024153675473,0.7677720518723481,-0.14468924446149933,0.5275260436677156,0.07900614332928946,-0.8377980579977673,-0.9711059121434227,0.6544954420425635,-0.3476554480937404,0.17154676669512514,-0.9010334013198049,0.38912017065895377,0.5334522845396827,-0.4081061497514451,-0.11202811701632087,0.2388688487285786,0.10175167618132086,-0.19624839224113289,-0.16018640046017274,-0.6121618461056368,-0.3121691519764065,-0.9452547446513615,0.9300638611785113,0.4166927099056055,0.1653565190650217,-0.4502449482278652,-0.33938362391475074,-0.18812452033325955,-0.866447481103541,-0.4218863591401898,-0.6773736473432024,-0.6028198699285785,-0.3720473287467001,-0.9204052654402091,-0.2208781111862299,-0.834688430448068,-0.8407778976487017,0.3355732521165964,0.08871280425832184,0.2247540261308636,0.19980097278844844,-0.3011186684782423,0.6328243820086437,-0.11396417775137713,0.7540425829902739,0.1887236640154677,0.3128230206110796,-0.6442756431458481,0.6371997410674557,-0.030867547975754084,-0.9235027913252631,0.6116642298484671,0.5156820342625743,0.6953055065773854,-0.39272118332003103,0.027350191575215455,0.07595992853953737,-0.9063887400730397,-0.7254864396845884,-0.09993629239614266,0.07136624884605358,-0.2041931842668574,-0.7617525476793661,0.011792079381276244,-0.43808231252014096,-0.836696199008744,-0.6670338157274798,0.6503591717136681,-0.46324359550550986,0.7270035110842668,-0.1640437894794582,0.19448486952296729,-0.07879548699127237,0.9035443050896912,-0.608880247708206,0.6924196185878764,0.8288862711937766,0.18723512173799883,0.21178836189365624,-0.6879425023503176,-0.26368150008124247,-0.40072444431196996,-0.6113265863051869,0.5699495941131414,-0.7105859502813763,-0.29423859822373766,0.4101442492874454,-0.015085736977299202,0.8575368273395259,0.7969246284140474,-0.8202120342593038,-0.8114556306445817,0.3313317297266103,0.9762349544614508,0.9747975453800026,-0.049700724233901816,-0.5286501413927804,0.2819823263397925,0.841088327990207,-0.8111999217190351,0.8750430814407544,0.6089504533183756,0.6516673591203088,-0.387378123613056,-0.24228268085777827,0.2996120552866024,-0.18633424407670685,0.6472609306679631,0.5804044553238854,-0.10091187939805102,0.21719570237736074,-0.48253020107043554,-0.2888084362356682,0.27732947131363295,0.48870424186858386,0.16454449689939388,-0.5575907981436943,-0.43239628303726074,-0.22392895468726626,0.8241761606702616,0.21785783838871242,-0.8583755809402149,-0.07265437265114727,0.49786905389233116,0.6343950704726493,-0.5509840926502496,-0.24925268312846516,-0.6473753428090105,0.2880807867952111,-0.19170947361983415,-0.609782121756401,-0.9742504169588022,0.1501521793993985,0.9868742789408393,0.6156054845714944,0.1784381977673577,0.9820381566812775,-0.04213731114085251,-0.9337120546517734,-0.3198218389803831,-0.8879253863163639,0.7400809699235471,-0.38124237577013065,-0.4556309751955345,0.9408522954628706,-0.5556099774224912,0.08830610407698125,0.9247644824125476,-0.6640506222536178,0.5136018696451798,-0.1766250297252323,-0.592256679091338,-0.5997786980241344,-0.11725893898290196,-0.3997072623903526,0.180803045680632,-0.6957387360787304,-0.4955467947056156,0.7226090276504469,0.022461345483046236,0.7374396589288637,0.5760447159509465,-0.6942133480232895,0.04175180928206634,-0.39055181724990295,-0.00377723153319498,-0.5027226962632889,-0.6545809191872283,0.05467239408200797,-0.6923927317881557,0.5724965884553253,-0.10791102615259063,-0.540388648211769,0.12545121965088635,-0.8680417014706665,-0.7003017268826832,-0.7190990310841607,-0.22390256063184633,0.7764203491277901,-0.6925248519979346,-0.47498499975896724,0.9305566899986784,0.3176859508722705,-0.8117497879611315,0.4585178650456503,-0.8815050681704679,-0.7874223261823512,-0.4532229842537243,-0.4347375617077325,-0.9189963155435428,0.20444186360698957,0.34282723398604253,0.8899715457821067,-0.03843706733665386,-0.5109105214849383,-0.50127462785194,0.5911129224624663,-0.9202673295006658,0.883823200917899,0.6313528661558194,0.37301396894554273,-0.926270437169523,0.4212059117668474,-0.08167667151649605,0.11679711668759718,0.896841668334385,0.9911228098150631,0.46295144830437485,-0.9723299707826587,-0.6948209052416772,0.40920922412449023,0.8607729181431454,0.38144258025110656,0.7598306933664785,-0.5809472667037561,-0.9908378306216143,-0.5038555859613225,-0.49864891308010506,-0.07243965257699281,0.002471009236731936,0.9486029823004323,-0.6370740366797698,0.262507435590249,-0.24687333657772825,0.062290094899753345,0.3826833260324609,-0.18642596688745683,0.14920070614735748,0.8946788527175276,-0.47414183037206925,-0.5945266188586882,-0.1599142997781855,0.2088562892645227,-0.5093853842732416,0.07159419291983715,-0.6446152092172754,-0.6399357334817346,0.2549479064671645,-0.6906557681751724,0.3750809280394891,0.5696062245824265,0.5618694390657697,-0.7442176101036808,-0.7962408882529153,-0.7146968524560853,0.3976588824883507,0.310964101268665,0.4312299176186791,-0.8428785980762536,0.689388412099428,-0.32969633840078094,0.5781588456879605,-0.8555535933999898,-0.37574597771233065,-0.4237693885902536,0.699140692625225,-0.1722102563377279,0.45318044716186834,0.31423317306802856,0.6418700831259985,-0.07987945444003541,0.8316996393041698,0.4701784337649666,-0.36128695573120506,-0.8890128973818725,0.05820047441035925,0.5165940972624612,0.4686088602578711,-0.6621341678552539,-0.9639801625342099,-0.6449258483520275,-0.4642187942760079,-0.7005989924805922,-0.18485177165897348,0.4785064536764183,0.47142142085445404,0.29770054167110915,-0.4585110260505374,0.3117904178911908,-0.18857559224706755,0.5507456928582244,0.3953224351592015,0.62043641196701,-0.5419839684817254,-0.3288010329896973,0.6704100640481077,0.49758189921449447,0.565479798741553,-0.9565193860748302,-0.1157654307127387,-0.17964472985727786,0.1298347666036943,-0.9738179565036,0.8650584547820375,-0.30981149908985794,0.027626766639117672,0.6157339831563267,-0.7605562668488934,0.6020861431943183,0.4617715393445361,0.7198378396926117,-0.989412039387086,0.5477564435041382,-0.6151149808349292,0.04969563013561107,0.22030158612806527,-0.5390745748677812,0.6140518739107386,0.6698727308094989,0.16166751759625586,0.871214678326709,0.6745888393794908,0.4668645767014874,0.662316235868414,0.13977131081025607,0.18478112351832943,0.5881065129372633,-0.7154579289077634,0.7024533816523701,-0.9763218153121518,0.833346362279187,0.7779501835836877,0.636208689806568,0.7006019507353409,-0.9043661642332887,-0.07339905492366605,0.46414834787221104,-0.24737162300773208,-0.3094243949747324,0.02309941229601664,-0.6744770827671385,-0.1835538079327057,-0.11862793996621446,-0.5152008643889903,-0.28582248454194126,-0.11997290901684754,-0.9229913859160019,0.8720537648364886,-0.14718540984708617,0.2785809322468118,0.9772019941951213,-0.5370266434055877,0.47875282641421224,-0.5610108693240918,0.6291022484590081,0.8951014649330638,-0.7383816602622062,-0.2119348305659845,0.9399439025828509,-0.26587799705130877,0.7476344412855109,0.43429037484394106,-0.5571966647879363,0.2932559435042077,0.23314591009337016,-0.542905611033023,0.29149153454325316,-0.3772796400273648,0.04060767379771013,0.5476342114583503,-0.5610138787298995,-0.5130391895163875,-0.6000457431386088,0.45908641615123913,-0.7353362709758433,0.9180577072793601,0.6368819137171291,-0.7486351778760105,-0.4411010391412251,0.34314214922594766,-0.9123651951410794,-0.9414106753878908,0.6134506236349364,0.3197450930957457,-0.16410307052701456,-0.08017361917766896,0.6748656719664836,-0.640354488333053,-0.763354248372488,0.1651003756805307,0.8262167326786585,0.6669091758632999,-0.24033386200311435,-0.827955334608607,0.7891072492865936,0.04682182358174525,0.6911338365594628,-0.9879256374731071,0.667349638317591,-0.35825654757861636,0.36267024614458365,0.12931639111564386,-0.9204890457321468,-0.8614572585501714,-0.6137830834726514,-0.25033746255278033,-0.4321816974315418,0.0652337154929441,0.3403181735449161,-0.6591903800109471,-0.25390172210275486,0.6440783744372467,-0.5291840270909685,-0.7112680549491084,-0.030504660856451205,-0.21316194302460167,-0.05494894171243825,-0.3866042722336893,0.23513779114019906,0.8582915438783634,-0.18644438566556643,-0.11876717821505833,-0.6932131199435649,0.10670192991279848,0.7005757959817585,-0.8702185856442621,-0.2829025881398788,-0.03880415886287669,-0.07167946273024928,-0.5790835759806026,-0.11607660978663903,0.20804097691093104,0.012142025150235325,-0.33600381719975925],"weights_hh":[0.40205011819089376,-0.5442846673919188,-0.8379761408745727,-0.0469361705106246,-0.6284233375051871,-0.7070942350663638,-0.16680019803291923,-0.6644472858338111,0.18218268879344834,-0.23687710561313802,-0.6489013377689903,-0.2228871646338375,0.7666149874168315,0.6466731251038684,-0.5298432164970666,-0.2448212094938922,-0.22803267493646495,-0.3400718524032862,0.16659248408242266,0.9843733060514104,0.7740585228617212,-0.008776013697706198,-0.7212049402216902,0.8911223234278418,-0.985333065820476,-0.373747472345624,0.5509944866384278,0.9390653894948879,-0.2913877504746014,-0.7659339345593439,0.1544647233486225,0.4336888149062543,0.1671807462428494,0.1659389573187291,0.7321033913119761,0.2128939588339036,0.6940143745756935,-0.8767362827155456,0.9865104354470979,0.7808689590282112,0.4031311762869887,-0.016203349376418208,-0.4987293663634593,-0.9402623975824995,-0.5615071833344087,0.9183272303641024,0.07595450059591813,-0.7557839255268819,-0.4985123427586349,0.40062612731053204,0.041618315719323506,0.1423395909346472,0.3032092694598494,-0.654635135903783,-0.45983983801470796,-0.6662092952250778,-0.7688638617692949,0.02230485971074425,-0.750549373022676,0.9882869551833928,-0.8001624975794961,0.4283287605583661,-0.9871392980112113,-0.776870502034479,0.06910188126847827,-0.9845352691024267,0.4066430757652546,0.004001925732818101,0.03679386108644134,-0.6290371447121983,0.8336597896806117,-0.785997310183371,0.6226025595818991,0.9874973156592697,0.2288926318299691,0.45542300961249893,-0.0007638276748043182,-0.5415374708118492,0.8918663236289879,0.1239228306083211,-0.8508447992380628,-0.18275041612128873,-0.7899661273389997,-0.019568999073793725,0.9679782169903413,0.18936073102739392,-0.40084856020515636,-0.011668008665041585,0.29579330769677914,0.056660799423786656,-0.1864016523582992,-0.4047259160299772,0.16681173662532278,0.04001183685425236,0.1386317406316444,0.9996897072816247,0.14258597243190851,-0.7782155197371601,-0.07589333586017477,0.38773544714047126,0.8068157833202576,0.019151027493006678,-0.9724972859927661,-0.5542708511345398,0.8046082709906681,-0.6048717600871321,-0.1583687986805622,-0.7639221630737882,0.6408729907396784,-0.4473250530849564,-0.8078347254767329,0.9447289473849196,-0.24969970878026682,0.25247316034937417,-0.7276985408701817,0.04572855205043869,0.46130408646008636,0.2432926009584111,0.12942365957921487,0.15759461634250593,-0.4608107819369125,-0.17051895293027775,0.3633080934853332,0.9595362558015108,0.25572396881754833,0.09572751715113337,0.10441344490672333,0.7260534796197289,-0.7660556497966649,-0.46937554746049015,0.8940271503903845,-0.1664306057433642,0.03166639832620799,-0.19241348884645526,0.2720914473843723,-0.2036040371634238,-0.29426123334418675,0.7772528601839799,0.5992481219550696,0.14423365304776037,0.5056760867076382,-0.4263484973470364,0.9855718669181495,0.9926629106748828,-0.11369981933166295,0.9867802699487673,0.03898373596956439,-0.8123388690387863,0.48551956422545994,-0.11394496923485864,0.28287173516151465,-0.283814343245538,-0.22269357779222343,-0.19192938067514542,-0.34943240332814973,0.6046495089552455,0.6598378452976763,0.44517939554564046,0.2412935926267772,-0.65444303246159,0.8302766527153966,0.8868981920904448,0.20911094879785952,-0.6012386954300175,0.9469472240811725,0.22023881141317792,-0.07665345070674423,-0.9477473040085596,0.3155232983158782,0.7762254157602424,-0.3157926194439822,-0.8643281509725154,-0.5213507599331175,-0.836224927493491,-0.30584818253211643,0.9998736511297648,0.8326318893312852,-0.47296663609159983,0.4451303976684031,-0.8514913127905812,-0.9939876572523381,-0.3263594028296424,-0.5226969305142375,-0.8241197994718832,0.3295320690436494,-0.8483855728519558,0.585043973048754,0.44224123024545947,0.4692419270379724,-0.6846049563912382,-0.5188069052501443,-0.1827211543976024,0.946331686586311,0.8205181707041882,0.45858956439914134,0.3580539623466916,0.865057693225523,-0.31375739417187365,0.9204187738542609,0.7291190400151522,0.36803711251444016,-0.653589840756835,0.0665020989099181,0.23914153112216363,0.825584954002877,0.35363128917853426,-0.4191619926797123,-0.2971167561521113,-0.18981156936821098,-0.8693184452584144,-0.6984701045793011,-0.2614070782040989,-0.6127295564264417,-0.8058723280937417,-0.32877357920527017,-0.9901204932334804,-0.8465910902167442,-0.7634071321283711,0.5163939814949681,-0.5471010187638781,0.9537709402917403,0.6541567492251599,-0.2707490760183786,0.9785953395087996,0.8478844960901053,0.4022487587181989,0.9377272473427867,0.36914858149479346,-0.265406547257923,-0.012337582594914354,-0.44142890965119497,0.8661359882379582,0.21722557945797383,-0.01205577958342019,-0.805160319238365,-0.9264753815087676,-0.8256702090366816,-0.16321496244434286,-0.29698663248811674,-0.14803857746761717,-0.2629969306881672,-0.7052802115410073,0.8267499228285144,-0.7834143933683124,0.40213268551713566,0.45866199770562455,0.45177395286517386,0.10410699484533148,0.38593493232607146,-0.8006015603211087,0.9106594592994517,-0.2555749954749065,0.3267229710746571,-0.8964379096521546,0.7375607471693593,-0.7784083547782106],"weights_ho":[0.013686026326164002,0.6374477494925024,0.6963737494841067,-0.3638215951724917,0.8281432454905477,0.7422660123935598,-0.13329757813173893,0.953062027620762,-0.48355845095728656,0.733161034101403,0.9517637499302796,0.5720300646172778,-0.39405111563682715,-0.16834283716078247,-0.4954915666264956,0.5848600987745132,-0.34097760250621834,0.017078276854579855,0.49289933796004504,0.43103568689615157,-0.5780770350592925,-0.8122747136320223,-0.6167618294510755,-0.9640421208594339,-0.2670299396367688,-0.44827676599879895,0.35388965798988425,0.520452594910781,0.5406460952856056,0.1054433423887855,0.3966184875487442,-0.2631501082868992,-0.9125117744317925,-0.492143795675696,0.7614782696820397,0.9861364103342019,-0.16227302242505792,0.5976234876962863,0.4058490131978183,-0.23678949806153682,0.052875105774230935,0.0610558777315473,-0.7458545622228814,0.7985980105535699,0.990715225719655,-0.27395288424819486,0.4072455536045565,0.568758161516892,0.12797612355285515,-0.02785411768784818,-0.9680494382726628,-0.056516924124182966,0.6570957044645742,0.38408567238439995,0.2934586752608064,0.9129077196402366,-0.24835271999577513,-0.14690646388362816,0.4989868537364086,-0.29688237477459345,-0.8168881121208109,0.7303091863809368,-0.5002569579996705,0.3581875894424278],"bias_h0":[0.3916780372606121,-0.8888712586113694,0.3227199551403235,-0.9127133541275703,-0.8882277154336387,-0.4346472558682406,-0.4222902651839482,0.31348351584441025,0.30985310269213784,0.0678255898297273,0.2911922911182865,-0.4182263651690281,0.2675608238338405,0.7794743664575976,0.3194996040123732,0.6138623543456707],"bias_h1":[0.13831798985384092,-0.5736337614290776,-0.1339048036630841,-0.12243499375103872,0.9699786940074064,-0.8042408816697955,-0.783280406348891,0.40133630433464407,-0.21722792317026007,-0.5519980650478569,-0.2934397259795918,-0.8904185692254676,0.9738142820425857,-0.8376253424725133,-0.5495660784045122,-0.10606184482670877],"bias_o":[0.04284218333833034,0.40285718595402376,0.5890792996095404,0.18105242728530402]}