{"weights_ih":[0.09259753606734211,0.38628051039821454,-0.39299772764333385,0.928638205432091,-0.0708215619967929,-0.524315789197578,-0.5720696003844521,-0.4510571855885064,-0.676484196845349,-0.8391873552440376,-0.5289530798865909,-0.8090143702157693,-0.3044094674916551,-0.5863765337946449,-0.2305229883778741,0.33956426196866607,0.5859685669061832,-0.23397590622502462,-0.39175227988361505,-0.2966914809599268,0.4011194767778081,-0.2293236941757979,0.28285409631734004,-0.9086360071536277,0.7833237361146812,0.20693992500875935,0.29121267588435984,0.9970126854999775,-0.5597777937898314,0.10841847299247664,-0.593046105768531,0.611378061241828,0.09922334181203274,0.7504729641359134,0.04889027567761528,0.8376715271131301,0.6617498513532845,0.7029361783639956,-0.4034576146358939,-0.8523973685601225,0.7875229897802665,-0.7655728089161757,-0.953299480974179,-0.03757823242920133,0.27602435355744137,0.38841237143402707,0.6105295467427116,0.7118650418756991,-0.06206233916004433,-0.914446112239911,-0.12369660080062617,-0.37164237057334404,0.4303541397445543,0.06779995338847544,0.4654469906757468,-0.9273694584577739,-0.4768124343159914,-0.9978913232355935,-0.3296168155953094,-0.09063506692248491,-0.8769231285279222,0.3187967763613886,0.7526983864020838,0.8105159920819243,0.8103096176520213,0.3370822663281339,0.7190559587274172,0.4044600791905901,-0.7286359210823639,0.2397617221859898,-0.33993217871830317,-0.9452954932714901,0.6362408074327672,0.22582172431673841,-0.7394403493796553,-0.6781759421107698,-0.8304495712854647,-0.8709214220113266,0.8969731560327943,-0.419188112177749,0.22051174499591553,0.31144962094021245,0.3828986806449104,0.9051367873845892,-0.23258826287946088,0.7689850995641538,-0.37854445338180875,-0.2414793198737999,0.45295038707122837,0.8098451685065879,0.5157319456677973,-0.9593281520841399,0.14474092307432485,0.8590445806650016,-0.5672054244625211,0.3407515593755883,-0.5581898898308546,-0.8715074462578751,0.5589238995526813,-0.16083528373636646,0.665473129896665,0.8047702635893332,-0.5010518037558087,-0.6172767778513801,0.6020104696803075,-0.7970670708411292,0.3761100740248451,-0.14052226962908243,0.5144398636484484,0.82132578381126,0.3488782316721333,0.987482060507251,-0.0009460197355042332,0.4151354183164988,-0.4541278783316356,-0.3663245797737531,-0.7403661495681568,0.8035679100215851,0.07444393528027327,0.16418394070117381,-0.47453888824395274,0.6368417929912895,-0.6506559085879613,-0.6922817823858964,0.5556457062244655,-0.25121108528427283,0.8790622015962917,0.9650157856792909,0.4008949438813767,0.029208736200071472,0.06422829883559977,0.359184278810172,-0.7226587083113247,-0.11780655210000779,0.41494157670514453,0.43055455217794747,0.811821646555428,-0.2149729023687026,-0.1655860107284628,0.3364316294976044,-0.8924518957386358,0.9558458880672478,-0.9214741010974838,-0.5494558127739702,0.3271931587504666,0.13842501189482537,-0.8710258711194021,-0.9087528254363786,-0.6886539479190661,-0.5700812260366241,0.23571195047891247,0.20351866145352004,0.7819812540955957,-0.558460996780187,-0.7811548471284935,0.7654229407485327,0.5726324386109813,0.8019218335326095,0.7847385628035528,0.08842537270972062,-0.5225041232647327,0.6470904289837809,0.27532655305665754,0.9606274063034317,-0.0022345742924632095,0.9809838906418249,-0.9863003590780468,-0.2618392926855073,0.7732006832224816,-0.8811960827495495,-0.08833559623806053,-0.7346563898037011,-0.7754011371790677,0.8616487072128804,0.38972712286377154,-0.6131193494908445,0.8117725086780376,0.5835955717280439,0.8262614935800632,-0.6977215961470822,0.17193203907044952,-0.34689504142894045,0.5259062798912011,0.9198449407679685,0.7813804444399064,-0.8400052460236345,-0.8366092089171921,0.0758438151834182,0.7793424342267505,-0.5734453102420747,0.8146226996585053,0.9236383883170038,-0.9306085663895662,-0.8812229250084906,0.49034850592442236,-0.5529123313560329,-0.055691979405819714,-0.21232153402190357,0.43217697031220625,0.8888779784270562,-0.5053312563137227,-0.37689386112779566,-0.2885071017955958,-0.5471257382689148,0.822296369834274,-0.3584397196581981,-0.2982262715604467,-0.9264478390930655,0.9695496009622175,-0.37957883951278326,0.39255933773474916,-0.040979628789225675,-0.8473036988286955,0.6136218425035649,0.3987290038916229,-0.7944701530319851,-0.9529910798908936,0.6950373260009934,-0.2799859822231294,-0.5701522612394034,0.5088047539610228,0.8847270573780981,0.991986101604486,0.6624779553661835,-0.7448912137903889,-0.4038254374897441,-0.9573108277299596,-0.2682157218499359,0.268699008720368,-0.6604745707295312,-0.5637946680695092,0.35009076386341764,-0.5467602947323769,0.2896287735744214,-0.5785531362135119,0.0996135280043211,-0.7819816271747335,-0.5419353982364843,0.2060571626264036,-0.3628027646404117,-0.3010611914718271,-0.6306778530024557,0.5345834185317027,-0.5549567965001401,0.2113803554983309,-0.9294041834845967,0.15209317837788605,0.4031414139677303,-0.5897919806210019,-0.7006813556411096,-0.30201855508079944,-0.46817697831541283,0.9855560059842803,-0.15154748996828116,0.7121594632442263,-0.9392629299296162,-0.15007982264753772,0.331185463194978,0.6943888296147926,0.32802338653419416,-0.1163671332971179,0.17881759008026465,-0.43293405875575375,-0.8931891830757954,-0.6562572525261157,0.18316785969587146,0.7116708552548645,0.42906262690061325,0.85874505868345,-0.5097921648317281,-0.049695925133907304,0.6674250263332442,0.09421478154091845,-0.5298321153223313,-0.22679119173132323,0.9419406427727468,-0.5382542115150466,0.5758995628623078,0.4776461108074821,-0.036711333618343334,-0.18439053291476193,-0.8178309787125313,-0.7153322786548892,0.6080992521778057,0.28627945452963144,0.09820908152847307,-0.41321829387713804,0.07780534389887617,-0.06732808249173483,-0.6687929780635851,-0.992058690819591,-0.25750556751880715,0.2051646680246364,0.6183149603428628,-0.4896479852301716,0.0625558647038893,0.5523946158348854,0.2808350066752099,-0.6994162125533472,-0.21933067964255448,-0.9484054809548406,-0.2917574440775532,0.21288333393123193,-0.5180910178298437,0.5323496830585366,0.889122108418916,0.7813412194179494,-0.5417418257228324,-0.5087477917584684,0.2517219463658604,-0.43910636609059117,-0.7245235619529353,-0.9192813393610815,-0.09521606464677723,0.38090716355637766,0.5075672848059769,-0.3166927291306565,0.025778978562036148,0.9964198845779682,0.37579979649164263,0.4419276169652917,-0.24665468791017697,0.7602483463246861,-0.34197763185511354,0.5857836396800815,0.7053000850215496,0.7569266460454218,-0.3327108943966681,0.7166419428513358,0.8033364271438876,0.7569461101390116,0.8106180097596101,0.5604342088685754,-0.9778160575632611,0.6025298152805514,0.9503504924991009,0.753858163845565,0.5437874909656888,0.42545404220319627,-0.12952392767501308,-0.264864938147958,0.3109518968716203,-0.7918634239220947,-0.5224854217520505,0.8981692251019118,-0.41791454224626556,-0.29042698643164844,0.4205428164657101,0.1429701956204279,0.05610422537075754,0.09878766183220855,0.6680286345436648,0.20689702195583526,0.2397700913985492,0.9289511592396746,0.9844068001267645,-0.07133690387297165,0.613348190552055,-0.3002000406663734,-0.06888432218729101,0.3105663013317632,0.7821907095683336,-0.9443472386753424,-0.6983359255977781,-0.4616236532442042,0.8312957717348295,-0.725337877280386,-0.6650664080962465,0.2135147096802672,-0.6560275792573862,-0.6430673802792906,-0.4383694999056278,-0.7176759752056938,0.5970490359471496,-0.5966049948118979,-0.6368483508781404,-0.5787875900039448,-0.871415524505704,0.7735485168020333,-0.5993558452072776,-0.8434944354192828,-0.4959464239335818,-0.14494647350258405,0.24022241021807633,0.4557057518488956,0.37033015546951065,0.7933598130863653,-0.258508444909348,-0.31680583821411634,-0.045322376627340955,-0.8335482743486018,0.33248559565083213,0.5247253544065753,-0.11832579133421883,0.6605874103420515,0.5689546414737583,0.423391968326172,0.37168247136670485,-0.7068244490346236,0.06072334902945031,-0.5833944571744756,-0.35829974259452957,0.6056978372133608,0.06507582514480292,0.046247453818622386,-0.2710764477655716,-0.2588157702110736,-0.32556459667352633,0.7744698729204507,0.4433377962639553,-0.39669246845086437,0.09290261044119719,-0.16311125743731347,-0.5030788816657834,-0.8386301308110338,-0.3839248568131075,-0.0831993576198875,-0.12774577473354554,0.1979370501646347,-0.5021328412993866,0.5547177437243012,-0.9142844055954367,-0.967748996770009,0.9381642078770831,-0.3092562218582944,-0.5827426276187893,0.5979135128532718,0.2439361383840748,-0.09769742336470455,-0.7001083778429582,-0.7590157306690148,0.24947214500784165,0.5865212958267814,-0.6398088633456289,-0.4729431654485352,-0.12448329192138274,0.4267280746437072,0.015116471647661278,0.02167760251388673,-0.9047071576602326,0.026737381591819265,0.11496438745409199,-0.32025406058595585,-0.005454380326145092,-0.3909978845844422,0.8052393235523438,0.17247025811048333,0.0526135138455881],"weights_hh":[-0.7563225525572717,0.528570468575311,-0.33900263344232484,-0.37663123059784764,-0.04432010584235835,-0.9053907483870343,0.12437720709455835,-0.1733155649582252,0.12350367430491449,0.4149835237587125,0.5847856189967062,0.4789008794276197,-0.47024466970240786,-0.07959534328911211,-0.7838849484765678,-0.7195800758089701,0.9984580631783093,0.3633786287320617,0.08503999817978558,0.4554533523043005,-0.04586401426537612,0.23330085784141863,0.7241471000686062,-0.8009761183171051,0.13707151669086381,0.3226160674629115,-0.4554943064535688,-0.13723713795832837,-0.24483249347882885,-0.32027666392999365,0.958015445126579,0.0848548280684045,-0.24433795608795217,0.6727999258727355,0.8055634842242902,-0.3480801347771374,0.4799254422246848,0.9991486361572586,0.5722544032284336,-0.6884979590960518,-0.1370518096368165,0.040138694698721,-0.6674585657354721,0.605789895842153,-0.2218015877550683,-0.8000253205682613,0.05956941908857516,0.7738042955748268,0.22421035627328534,0.7094848422690767,-0.5891773802742295,-0.07062347131573432,0.3359624174278826,-0.9554491390546027,0.44690516129049884,-0.9978986281235249,-0.6806340019089665,0.852879688462747,0.09102152701064425,0.4225405247039389,0.21651676732365743,-0.5051600553024886,-0.4885417607079683,-0.5082320944259517,-0.7120856655474568,0.9769314978296673,-0.007701191740807634,-0.9979704750776848,-0.8585456732695094,0.9066832859700567,0.9638661784261413,0.47697120497945145,0.04097681744779824,0.17172042921654906,-0.3734872555175397,0.07308606870496015,-0.25713126276045406,0.30948109819370817,0.27773979880470234,0.35033501535361156,0.8701213495792137,-0.7297423890388666,-0.6442092333157032,-0.45797183388024076,0.31284461089567217,-0.40900805035778554,0.5705725409232549,-0.7051043548403866,0.6568425088000283,0.32324562299667825,0.3116401227142602,0.8381889464180223,0.3145574402543603,-0.19666519899922497,-0.44938204383314706,-0.2507729455458938,0.09368092918300164,-0.29591131033398166,-0.21969948312786713,0.13835586403053002,-0.03285856188849423,-0.5706123166398434,0.09192625190466308,0.2032844696994731,0.1386402961747557,0.3228324127500297,-0.1695875265671587,-0.15397593083360372,0.08741537690374246,0.014660116355576402,0.6503810314415013,-0.8185910640972549,-0.6607643834966275,-0.2496744585445958,0.987227168673442,0.38027968876845963,0.6276659290582496,0.2719119936872423,0.4521143935203904,-0.26158573160683796,0.5057597559021756,-0.5855717475031508,0.23703313559322603,0.7546640368386761,-0.4682090499594025,0.8405987602384783,0.70393358053586,0.9547126551709673,0.6579614127739248,-0.5212413403217964,-0.7710543922024089,0.35725529871587813,0.18852016454377107,-0.8918903778119387,0.6662083078039325,0.8076436070439765,-0.8319572916753528,0.29360403878366714,-0.19956753446796016,-0.1887372846945996,0.681662357038131,-0.431952200395771,-0.476051971474287,-0.3550522227672863,-0.2276848104007212,-0.966978416860671,-0.77300110364686,0.03407825764278538,0.28107843997474946,-0.6080200761676364,-0.3509536264518549,0.08333721058173138,-0.9632026959540683,-0.9389085659856045,0.6950849993822121,-0.9657608194909983,-0.050954471737648666,0.6325286736257496,0.778945885667212,0.47573184889232945,-0.36011256802103353,0.5094305047767691,-0.4504285232764642,0.3440889367170372,0.002492468875009868,0.8161493582555293,-0.9816134642715197,0.326311584640294,0.82044164666886,0.35028508256877755,-0.814899932692486,0.4908614733194978,-0.46069495331681276,-0.6318139363709558,0.6921851951720723,0.19268607504695656,-0.8866255131412817,0.30633577897144715,-0.7660799308210324,-0.2786903031065917,-0.5996239907898961,0.9710938981348682,-0.812703390701746,-0.8077031930476768,-0.47935086335027455,-0.1392747494656701,0.4433266241210476,0.47252455551043027,0.22437738892384185,0.044785651301517015,0.439466926427148,0.4227639687363216,0.7979342715320263,-0.6655791017738548,0.7731145659231595,-0.8225814548871511,0.15958241943533347,0.6200475828530911,0.3766327831618075,0.7374104260093826,0.2178325699000112,0.36748178458447844,0.09970563167910007,-0.6690293947465396,-0.38029114020734744,0.21096024691217163,0.051678424622099595,0.7265487930901213,0.5845827662421823,0.06178536935138346,0.7615825777396013,0.9142932645017618,-0.589168225241687,0.33953305861830163,-0.3527588387255587,-0.08959155512826533,-0.36026055244581223,0.3973976178731222,-0.10246524857241734,0.0027849822805978697,0.9641103522502577,-0.3237906638416219,0.8992725716517429,0.06312503744666453,0.37430375824464246,0.8682908478822318,0.8398277148145439,-0.47955611080796934,-0.23630069029068923,0.5032104594301512,-0.7056549136131685,-0.5228026691596019,0.6789213913092336,0.6429040241565076,0.40122114302911616,-0.9109033766681285,-0.14710523386749874,0.7631355988073729,-0.22229263952464762,-0.20455627160763168,-0.05456598204662866,-0.22328949176868584,-0.05341398931592023,-0.9540037683417524,-0.7440251787889196,-0.8939635349248352,-0.7063807091158572,0.9531161700522892,0.9178429681557461,-0.3195170625221435,0.19437153165593823,-0.29578746288497815,-0.1293945629914961,0.25252246317272076,-0.13385650108424185,0.8232000760205418],"weights_ho":[-0.8038106513029606,-0.9899960588269647,-0.7373575206014937,0.0827273807017661,0.6305035520102209,-0.0017151044376157998,-0.7816615984469086,0.5128426395188947,0.669327188962989,0.9361977120695311,0.3102655150832243,0.0008388272979027445,0.1837772252448231,-0.9446937599350178,-0.6853889096790111,0.5587379405052426,-0.03415851323980368,-0.3033205618748054,0.5158713139355824,-0.20524089661829237,0.4925724484870071,0.1345845231078513,0.04419121840896034,0.7789447722333349,-0.21289467950837127,-0.6541627875442344,0.5725438315942168,-0.11897621529103342,-0.21684186069161537,0.7820554337986956,0.314572237596755,-0.9273372342222022,0.6524037240913592,0.07209495193987236,-0.6676052660638305,0.1769719700616874,0.12304844923940683,0.5977828155637168,-0.20388104372676485,0.18715049896509384,0.24034416294099437,0.6277935906089833,0.1622408404743121,0.6038826314123844,0.31150726138281937,-0.6568808735474476,0.2192518646006405,-0.9783816940156742,-0.2383377654592449,-0.744315439764373,0.5947741795034716,-0.2073924993609224,0.10097927765924886,0.22944325662032572,-0.16459647280764567,-0.8773471307901548,0.4152103432598586,-0.0350415301066509,0.8032105409306496,-0.13369184594608585,-0.049138116685230715,-0.42564790939994324,0.6646600427493541,0.6165537154376186],"bias_h0":[-0.10354595288883406,-0.9103953783725622,-0.3611778495578346,-0.6201328537096855,-0.6593830554227482,0.37456773744603966,-0.6818177475040625,-0.6213236009943419,-0.4052697139684913,-0.6309570924839885,0.3073965300008483,-0.09114265430039281,-0.012117199195101458,-0.7899119715228526,-0.48285277765182677,-0.8084677410445613],"bias_h1":[0.3237188672715261,-0.7815842092926166,0.5668400225380006,-0.21728437225511854,0.13347763495625453,0.7010408035319153,0.9869353689668696,-0.17307184603172665,0.6713823566126833,-0.47623430931981314,-0.3224716819194524,-0.7201425122741918,-0.31078234986540965,0.13107738961151116,-0.0853778469513422,-0.43892252488212535],"bias_o":[-0.21856633436983564,-0.7284979130653335,-0.5575470368286908,-0.40296292039647774]}