{"weights_ih":[-0.8342969971393359,0.7314854166589058,0.42285661004381137,-0.46396116476158666,0.5950554555229401,-0.3898753985132788,-0.6983347142453102,-0.1864816554472466,-0.10478346583453702,0.5645604735205612,0.06587199138604571,0.018645701358861455,-0.5485887083459591,-0.8998208674400918,0.945960534610913,-0.6649501540155898,-0.8999674716569332,-0.693681273875552,-0.8303065210356708,0.9674579066170941,0.7195014208341721,-0.5556571386457771,-0.8058940237814889,-0.2155239912687663,-0.8131534980461614,0.982552615348451,0.5924087732010368,0.5275260436677156,0.7976902560053047,0.6859898115911154,-0.9084631151081024,0.6544954420425635,-0.3548006988573924,0.404695010880314,0.8414442534650259,0.38912017065895377,0.9767086320950407,-0.4119197357508415,-0.11202811701632087,0.1979412905345559,-0.19296076658132488,0.9189637098034471,-0.16018640046017274,-0.4576249133961252,-0.4194552792227011,-0.9452547446513615,0.3293971346884812,-0.2904730164777407,0.8156086477424647,0.3897210604279011,-0.33938362391475074,-0.8876593398256303,-0.866447481103541,-0.416336914710139,-0.7965432965900192,-0.7198561416725355,-0.3720473287467001,-0.8631852246574117,-0.3764227753499094,0.6058604728426542,-0.05436864842458511,0.18941148242845274,0.8023288562789357,0.47024399237669545,0.19980097278844844,0.43045180816680495,-0.6219266366395753,-0.5036699048313602,0.7540425829902739,-0.3304132408625804,0.3128230206110796,-0.6442756431458481,0.41209004014101436,0.3736227556995291,-0.429304059616874,0.14549389729558548,0.5156820342625743,0.9590082211952371,-0.3821795706097757,0.027350191575215455,0.07595992853953737,-0.9063887400730397,-0.6894747886273118,-0.6207005717180611,0.07136624884605358,0.6192166179544218,-0.7617525476793661,0.011792079381276244,-0.7035960179740048,-0.836696199008744,0.8789081256733648,-0.8403047662494976,-0.47851891847866956,-0.5667080011432026,-0.1640437894794582,0.19448486952296729,0.9830155266380893,0.20935655627662975,0.8556866578581148,0.6924196185878764,0.5855280556190103,0.5638843943625804,-0.0038511228692401644,-0.7572948244599604,-0.1931034089669792,-0.40072444431196996,-0.12291256789731575,-0.3718774439415893,-0.6525228909430161,0.6159535565674494,0.4101442492874454,-0.547340879695331,-0.4130253798817973,0.7969246284140474,0.8699549336887304,-0.21672208537631144,0.8074193994158205,0.4046938176455097,-0.5569995394643992,-0.1320843346860825,0.25670176949886714,0.2819823263397925,0.3783685506343666,-0.8111999217190351,0.13699086502109514,0.6089504533183756,-0.8903726484850643,0.6882665090135767,-0.5395633007365632,-0.21796895836487384,0.3611690142174011,0.8352203060985839,0.5804044553238854,-0.16441057833587625,0.401877217840203,-0.6119699847081137,0.42817077528311254,0.23118104892940838,-0.17350712164356996,-0.9069327708761963,-0.5575907981436943,-0.15115190601904782,-0.22392895468726626,0.8241761606702616,0.21785783838871242,-0.8583755809402149,-0.07265437265114727,0.49786905389233116,0.6343950704726493,-0.5509840926502496,-0.7541225908125877,-0.49993298780463413,0.2880807867952111,-0.14656902352528678,0.023685441174524646,-0.9742504169588022,0.1501521793993985,-0.9655906928585438,-0.3401341467075676,-0.6877105099929026,0.9820381566812775,-0.3767346089458279,-0.724514893238722,-0.3198218389803831,-0.04904899733401624,0.9917117063496395,-0.38124237577013065,-0.22990962709042995,0.6100889621604388,-0.5556099774224912,0.08830610407698125,-0.9720432415782629,0.03090463254989828,-0.012575139476011188,-0.1766250297252323,0.050712773848983206,-0.17050751383436857,0.11657631276217373,-0.8214929584610793,0.06852486957012971,-0.6957387360787304,-0.4955467947056156,0.7226090276504469,0.06621362947822762,0.17728160745139454,0.5760447159509465,-0.1667270629648372,0.43402356870856074,-0.23788060652624976,0.2522999100705783,-0.5027226962632889,-0.9277231471095184,-0.8211748027982004,-0.6911913632635152,0.7946760661816907,-0.10791102615259063,-0.3917566404308872,0.6392335650063956,-0.8367563267660574,-0.7003017268826832,-0.8995278004697589,-0.7796445974204109,-0.9602614944674193,-0.5593132289187732,0.4787699951548934,0.9305566899986784,0.3176859508722705,-0.8117497879611315,0.4585178650456503,-0.014856097872843366,-0.7369585360096416,-0.7339570278395453,-0.4347375617077325,-0.9189963155435428,-0.4917222203528926,0.14724562927079732,0.8899715457821067,0.7668634295034928,0.6207435066693969,-0.8367487928495281,0.5911129224624663,-0.9202673295006658,0.7807939423757471,0.753160837179756,0.6604956822910022,-0.9775330554134949,-0.48263825193811805,0.6126643626063837,0.9639129871729901,0.892652688391625,0.9911228098150631,0.22372687429960436,0.18955955531682345,-0.04069522539748416,0.07167632661081247,0.8607729181431454,0.9217337345713192,0.4675834845142226,-0.47584366819234725,-0.9908378306216143,-0.5038555859613225,-0.3669813244895581,0.5833169086489782,0.12251464736344464,0.9486029823004323,-0.876299657349062,-0.3501190400812011,-0.9557663815327799,0.5422066194561741,-0.4580600825023107,0.9818831513780542,-0.03286096147869255,0.8361202014990279,0.13495073200780316,-0.5945266188586882,0.15334228371715208,0.23650245950944537,0.7299428192249,0.07159419291983715,0.051364988895206354,-0.6399357334817346,-0.433420201766221,0.9958664226748182,-0.01141426523089506,0.5696062245824265,-0.2082868034179537,0.20743120564900397,-0.4176776151821662,0.4273104497576128,0.459479419892207,-0.6549406131757476,-0.82414517608283,-0.14640581149944154,0.7267913700812558,0.04635388183120703,-0.9089388116777237,0.1816626795325711,0.11207017214087078,-0.4237693885902536,0.699140692625225,-0.9123784367366956,0.5366981842142711,-0.3506836746939459,0.6418700831259985,0.03220923091480432,0.24741868682479495,0.9154733339348178,-0.2529122787316871,-0.13548830640498433,-0.6427952804525268,0.41640848124672014,-0.5873626386786979,-0.6621341678552539,-0.05023101426634424,-0.640203159746026,-0.3196001954793437,0.8548562716673895,-0.35092541775424935,-0.05055493696604385,0.47142142085445404,-0.47497691755456994,-0.9284207708461076,0.3117904178911908,-0.9204153020098169,-0.412922024002111,0.2313792570712263,-0.6444014289601401,-0.5419839684817254,0.27887858668946297,0.14952943139361685,-0.07955700416838085,-0.7730806200352569,-0.19173603250845783,-0.1157654307127387,-0.17964472985727786,0.1298347666036943,0.6102386463647282,0.8650584547820375,-0.30981149908985794,0.15846771885613875,0.6157339831563267,0.9562592328359993,0.6020861431943183,0.18268191906858422,-0.6289853274814712,0.9521072558113846,0.4040790725350656,-0.6151149808349292,0.08509311178796275,0.22030158612806527,0.019169622598123714,-0.6578744878336931,-0.252736194738173,0.09550483559491929,0.5071174837220034,-0.8047591181768152,0.9836169921692974,-0.2957285650408932,0.13977131081025607,0.008588428895040634,0.10434503625964586,0.06470758318070913,0.18424690565043322,0.9485944577692966,-0.21439034722750172,0.7779501835836877,0.9214324875556179,0.7006019507353409,-0.9218474383646842,0.00921262568477621,0.5541320946777322,-0.25969063723273766,-0.7059969356179494,-0.8536451959873803,-0.7487283479441464,-0.5527259277004277,-0.9732607145328327,-0.07007812314615913,0.7874485315463082,-0.31562332936430715,-0.5429558367028908,0.7136410260005912,-0.14718540984708617,0.2785809322468118,0.9772019941951213,-0.9365522116067142,-0.07172788534099217,-0.5610108693240918,0.6291022484590081,0.8951014649330638,0.11335145231764732,-0.19895534143035354,-0.08160152977684088,-0.26587799705130877,0.8752597431126881,-0.46502137288488177,-0.903358401754851,0.5686778198986402,0.9649296870267863,-0.14850124141491272,-0.8706096767162408,-0.3772796400273648,-0.9410461996360551,0.5476342114583503,-0.9265568929257775,-0.12362856761912577,-0.6000457431386088,-0.13991242101726376,0.7613316130515915,0.4728564380040965,0.44896184833802066,0.26813686302967876,-0.4411010391412251,-0.8839335555003032,0.33432637305608526,0.7224254430654133,0.6134506236349364,0.38696148877687353,-0.3888577975848444,-0.08017361917766896,-0.5061773436802286,-0.43648198859332354,-0.9858640955261369,0.38600158289542597,-0.9212531331934797,-0.2767542515330246,0.47755825006919017,-0.827955334608607,0.6808219025526656,-0.2245232944854345,-0.055064750823239805,-0.9879256374731071,0.6230523167513125,-0.7456882982357573,-0.5240310216781734,0.03322897896027088,0.2396291205819716,-0.8614572585501714,-0.1704099209879224,-0.5369348177898676,0.5328581693610159,-0.08901126589263453,0.3403181735449161,-0.6591903800109471,-0.25390172210275486,0.5738910981601717,0.4021739200321397,-0.722258502952249,0.4941894639816977,-0.323561307751268,-0.03284881767111281,0.8012634613035698,0.23513779114019906,0.3163209821172088,-0.231405500548036,0.25609301499570725,-0.4524599926489352,0.10670192991279848,0.624171665725419,0.08629584356178199,0.9246137267876327,-0.5234921383613813,-0.5591660667208409,0.12416392872264326,-0.9135733742657908,0.20804097691093104,0.363979674341981,0.47559768856207607],"weights_hh":[-0.21775601666273303,0.1502171997748205,-0.8379761408745727,-0.01014797141432,-0.15901003631037214,0.6701344582407212,-0.16680019803291923,-0.6276944216459599,-0.03441269952412762,0.1765081955306571,0.10856333293831555,0.2827319617420747,0.7666149874168315,0.4823296230674692,0.9302808955372079,-0.2448212094938922,-0.22803267493646495,0.7474974924235216,0.5977122232714607,0.9843733060514104,0.7740585228617212,-0.4519133807801221,-0.7212049402216902,0.8911223234278418,-0.36428061761938557,-0.42737031717300944,-0.3511379236494865,0.9390653894948879,-0.6233278361938814,0.2496447561015438,-0.29677909266364644,0.29433540084546794,0.9558790903140957,0.595474741320476,-0.4209251717934863,-0.07522373740409183,-0.3881165064075536,-0.15780512945489145,0.9865104354470979,0.2568550849829705,0.623794217087785,0.5149555588765524,-0.23066623621529248,-0.9402623975824995,-0.6838885304639961,0.9183272303641024,-0.3888427791898268,-0.7557839255268819,-0.3390421734887583,-0.724863157795419,0.041618315719323506,0.1423395909346472,-0.545050811701699,0.6156550522468083,0.6648888466957525,-0.21048647790114527,-0.3318887839198652,0.6229313522806244,-0.38926744554184434,-0.4068839587724771,-0.9441246248554678,0.4283287605583661,-0.9871392980112113,-0.46746761803773307,-0.07913955336720524,-0.9845352691024267,-0.29996442149995484,-0.9101509259095446,-0.02870359102173481,-0.6290371447121983,0.8074171970248305,-0.785997310183371,-0.7815022936629712,-0.8162489386506353,0.564863551173572,-0.8142271177749569,-0.01584538798172752,-0.09652443600616256,0.8918663236289879,0.1239228306083211,-0.4950059923469736,0.561529863834425,-0.6757990816803328,-0.019568999073793725,0.14623071981841185,-0.8686613674246595,0.5771812363569839,-0.6849548131293193,-0.7187607631994724,-0.033257810249668784,0.697493195590773,0.10741168944116608,0.4106871697374894,0.7772403524148521,-0.18516022678331434,-0.6074051463672472,0.008450163994056403,-0.7782155197371601,-0.07589333586017477,-0.4549953025560387,0.6916128598457143,0.023803807347899886,0.9186171913670198,0.2679456183006024,0.8046082709906681,-0.564980097320966,0.09545980464548354,0.22950961236220357,0.23802789236660815,-0.4473250530849564,-0.8078347254767329,-0.8333304411113247,0.7291705789972598,-0.33281056457029123,0.1298215579218731,-0.7518029143400169,0.46130408646008636,-0.20694559884995756,-0.785755211030261,-0.8613264523779756,0.08426405499313239,-0.17051895293027775,0.3633080934853332,0.09599053905912891,-0.8912970164367398,0.09572751715113337,0.47085189407137484,0.03733905983513708,-0.7660556497966649,0.6100979977661001,-0.898926232882538,0.2992232015417673,-0.5776306106659694,-0.7488989149531873,0.2720914473843723,0.4805344377227554,-0.29426123334418675,0.06276994066877073,0.688167087276707,0.11849687279844856,0.5056760867076382,-0.4263484973470364,0.6134767416763947,-0.7191522782606734,-0.3310622740878053,0.8286319879166961,0.3505383033076652,0.8718580176994533,-0.8731536251562739,-0.11394496923485864,0.28287173516151465,-0.283814343245538,-0.22269357779222343,0.8358256090828735,0.41985002113013037,0.6046495089552455,0.38158236927720424,0.7561993282903579,-0.2214910045617855,0.5493050357894789,0.8302766527153966,0.3465750672400387,-0.5604194492588623,0.8991535202938505,-0.4819921699310685,0.22023881141317792,0.5863379847476589,-0.9477473040085596,-0.03992928133345486,0.58091287261732,-0.0337299115674532,-0.0010626410102356765,0.005252666468453571,-0.836224927493491,-0.6535737583557326,-0.40394120752414797,0.4412055256005345,-0.0274498621900805,-0.1027378146133866,-0.9681144440803344,0.4284275728252547,-0.2113351067164262,-0.6548661115014307,0.5988498336213519,0.3295320690436494,-0.0068176394629866355,-0.7003910622114984,0.8330602394921303,-0.5509096819501442,-0.6846049563912382,-0.7425074781031913,0.4880896251703195,-0.44294607821443144,0.640597193994221,0.591193746698278,0.6476685473263035,-0.3414049638480252,-0.4453828710753127,0.3384330761672796,-0.4540700992750726,0.36803711251444016,-0.15005283964511085,-0.9858706427334825,0.6982784254678072,0.6328919216226636,-0.8941708417598504,-0.4191619926797123,0.23907663647523347,-0.6657537579591899,-0.6681809290276219,-0.6984701045793011,0.2562901342636854,0.6981488376344358,0.6427043686921927,-0.7855356356743275,-0.9901204932334804,0.7626792127183364,-0.562602166127774,0.9164850136012985,-0.10891447098364426,0.9537709402917403,0.6541567492251599,-0.7733540214822674,0.9785953395087996,0.4941336725382799,0.44340694970627514,0.043784743278399096,-0.4128515459407922,-0.265406547257923,-0.5135326168104546,0.9144231024569764,0.3458332295909221,-0.9462412883913971,0.47681146231568516,-0.805160319238365,-0.9264753815087676,-0.47420673215292,0.5242955860093867,0.007723956877374372,-0.4819533795874338,0.2609622700867613,-0.21989641248431058,0.8267499228285144,-0.7834143933683124,0.40213268551713566,0.44683965048568797,0.45177395286517386,-0.8968222604074705,0.38593493232607146,-0.5746368705904816,0.2567550157173617,-0.3141203735894291,-0.9160585250827402,-0.8028454363052167,0.7375607471693593,-0.6308181215083335],"weights_ho":[0.025387934622229658,0.6374477494925024,0.5612174082695507,-0.3638215951724917,-0.12772572537390992,0.4756206527574074,0.6499982059609521,0.953062027620762,0.3101364533020272,0.10234274483572858,-0.0880549787210767,0.6798642471567877,0.002390483428474477,-0.815234872863704,-0.4954915666264956,-0.9400854171462809,0.38846645413400616,0.30094209727499255,0.49289933796004504,0.43103568689615157,0.8228751928530202,-0.4588585120264097,0.32145332476119837,-0.8242276251573593,0.34411776647784476,-0.44827676599879895,-0.9927575677106171,0.24904209677892197,0.5406460952856056,-0.3751812030802293,0.3966184875487442,0.717573506362664,-0.7682280663612968,-0.492143795675696,-0.27149675278370955,-0.09619118695163409,-0.16227302242505792,-0.8036530743102304,-0.29536735963334504,-0.25817322453618163,0.8158393554003918,0.05725353087394791,0.7591817130342289,-0.6288303718461472,-0.21607874840454855,0.957407278519185,0.4072455536045565,-0.2035496163173307,0.7101003232306082,-0.02785411768784818,-0.16220835849720983,-0.5924833883070919,0.34192910297252554,0.8974389039832347,0.2934586752608064,0.4260561160027394,-0.9274498581477211,-0.14690646388362816,-0.9255639241473852,0.9813319285185906,-0.4242364165469701,-0.973981804887514,-0.5656431125129227,-0.09347848567360684],"bias_h0":[0.38832240319542954,-0.22463974583069168,0.23625565344993849,-0.8132614097298339,-0.450797169002211,0.19383119446183406,0.007616966238690681,0.31348351584441025,0.17887984296412873,-0.688764765152174,0.46712571630578803,0.11315697327379581,0.20664400489517787,0.7794743664575976,0.6213316802752225,-0.6921135478759473],"bias_h1":[0.7313929802862984,-0.8205667253755808,0.4333841015348483,-0.12243499375103872,-0.8192076406161746,-0.8828605036841917,-0.783280406348891,-0.9069033600035099,-0.6846981468973656,-0.6194432521182769,0.6629871218943792,0.26601420609280013,0.5649180644210374,-0.009773269156031494,0.4558114108922189,-0.41777277522210277],"bias_o":[-0.5992481620924706,0.606643700494639,-0.5187358839970244,-0.05950543555151455]}