{"weights_ih":[-0.2210790458936165,0.4307500912274296,0.279482584835421,-0.8393797601053916,-0.04069351808757915,-0.4504301019704655,0.264616718081631,0.6131337409169546,-0.5936962832705817,0.9163692125323855,-0.4151333099202539,-0.13885121271210688,0.43541543958936013,-0.9958245944840052,0.31959084036306207,0.09944898898708021,-0.34169731476675635,0.34278898768913524,0.8707171828029043,-0.5124444999937825,0.9994288442179928,-0.07427731758438494,0.08710065174397363,0.6090432781874038,0.4559294146674704,0.5341776740262798,0.6998260638213634,0.5041162234788907,-0.7208758608536456,0.9063814089886235,-0.3906176356523092,0.3804100014572338,-0.3476554480937404,0.7792022745655447,-0.9745018532051719,-0.5093130863422846,-0.5971108196470014,-0.4081061497514451,0.7167982779355906,-0.4374647637492932,0.10175167618132086,-0.8463143115850456,-0.3552595378176149,0.837799768918245,0.5493468893131894,-0.01318718533230534,0.9300638611785113,-0.29258242887323593,-0.37490784527207266,-0.4502449482278652,-0.022447629926940715,-0.18812452033325955,-0.03234242539071763,-0.4175902341603497,-0.6773736473432024,-0.9884979235923788,0.8163580968993771,-0.8144665618739664,-0.5892552424374651,-0.834688430448068,0.7204115832681413,-0.9750482591059937,0.9146222266060051,-0.7331814047152456,0.534642000847044,-0.3011186684782423,-0.931886299381401,0.20621068977443735,0.4916449439688657,0.6389480644609087,0.3236231999572792,-0.46625837433790607,0.3818287121197579,-0.030867547975754084,-0.9235027913252631,-0.15909247590127418,0.32702728788556734,0.6953055065773854,-0.5649811081043454,0.5282819188671009,-0.6818732072277993,-0.5205971049363789,0.13454247407536934,0.6850067429407856,0.45414137876063165,0.5824193003799858,0.816048691395131,0.26507194781147225,0.8508115281544943,0.1097323030940558,-0.6670338157274798,0.6503591717136681,-0.5850453497489536,-0.7922131446592342,0.40441065542390975,0.6708287408866438,-0.07879548699127237,0.9035443050896912,-0.608880247708206,0.35425350864889293,-0.4710501434934833,0.18723512173799883,0.8382582354038197,0.6368365820366355,-0.26368150008124247,-0.5814952831793152,0.4354188911313619,-0.5751734642098685,0.7750039452624764,-0.8132045734680731,-0.6719497617521026,-0.015085736977299202,-0.12427536663491767,0.8622673665998193,0.2317009983010314,-0.9532628547416533,0.9632913534792868,-0.5089046062087992,0.9747975453800026,-0.29275491474656645,-0.5286501413927804,-0.3531407898605945,-0.606973470581893,-0.8236902885192472,-0.1576068891921587,-0.4550125104871965,0.6516673591203088,0.4201965188487098,-0.24228268085777827,0.2996120552866024,0.9909881933575624,-0.8926757499295077,-0.6590253527629302,0.7050232594033383,-0.818041343141753,-0.48253020107043554,-0.2888084362356682,-0.0694889612392926,-0.701685515828149,0.16454449689939388,0.0005523256245354435,-0.43239628303726074,-0.3783773409922855,-0.9103564202744254,0.7510153502324699,0.24131068889174734,-0.24913904429183797,0.26629422856037177,-0.8240738030426409,-0.0726247323564495,-0.24925268312846516,0.39741214149933524,0.4325818402589119,-0.8638397286503052,-0.7865469379050014,-0.03578248003879314,0.38853264889006356,-0.4748238014289563,-0.9847356370318467,0.9876132044044434,-0.09246754696735882,-0.04213731114085251,-0.9337120546517734,0.7679288852481174,-0.7825419738840675,-0.25298101335313694,-0.08945327628408495,-0.12351554409147081,0.9408522954628706,-0.9648197592076131,0.44751937410576215,0.18974347370499278,0.2733629505572297,-0.04748599451164903,-0.5780359480790664,-0.592256679091338,-0.5997786980241344,-0.11725893898290196,-0.3997072623903526,-0.5523563553746087,-0.655261101988678,-0.1651311430830047,-0.019819644562925953,-0.49715163297252785,0.7374396589288637,0.9014895933992952,0.896075133553196,0.17513088661458753,-0.6920282425313071,0.41727565190942406,0.6351256033860486,-0.6545809191872283,-0.12193799074004041,-0.0592512077249181,-0.9442906795047588,-0.5303300745607105,-0.19034033216660595,-0.6893471078428313,-0.07190043139898172,-0.32650462596569096,-0.7190990310841607,-0.8296665315194509,0.82404048666916,-0.6925248519979346,-0.47498499975896724,-0.49810959812822975,-0.9163692006814679,0.6545714423166276,0.7061104409161876,0.21096496795209885,0.21550767017629902,-0.019279341263632732,-0.1396562404929318,-0.5233444283480742,0.20444186360698957,0.14755992967387033,-0.7711353826318854,-0.03843706733665386,0.9548581901069204,-0.3014365941972166,0.4628172055329933,-0.6378873642457228,0.2851762561802118,0.6313528661558194,-0.7552485838114749,-0.926270437169523,0.925951067590181,-0.08167667151649605,0.24162501582440665,0.896841668334385,0.7367246638247531,0.46295144830437485,-0.2717572134274193,-0.5836781810263951,0.40920922412449023,0.43846452674021097,-0.26096144457771797,0.6642130255478338,0.6629340668604109,0.7842905852094479,0.08016532592036141,-0.19428531231212398,-0.07243965257699281,-0.21219530290389854,-0.008546161364355598,-0.8822216239009109,0.7096363953242966,-0.7657379221024003,-0.4493345096969188,-0.8592908273139555,-0.5839528843119364,-0.13801535530227693,0.8946788527175276,0.5131457202035372,-0.6778573588938293,0.6550961686952743,0.3236699169023334,-0.8246742154241269,0.11377501656316724,-0.9933382949294531,0.15670755996057362,-0.7994892690098669,0.3284726958979227,-0.5959956962353952,0.5164198799318886,0.34796264365693563,-0.7442176101036808,-0.23413371350909662,-0.2645786542025075,0.9051775047298598,0.7908404101786943,0.13541352900614978,-0.8428785980762536,0.4766240591830224,-0.32969633840078094,0.5781588456879605,-0.8555535933999898,-0.8182335165223475,-0.9480945013110582,-0.6368223690545516,-0.3478099111054911,-0.44552751575909966,0.790850248697033,0.024990126997854967,-0.9181755133460989,-0.3247051475034004,0.4701784337649666,-0.5956144135869605,-0.8890128973818725,0.05820047441035925,0.5165940972624612,-0.6304798348007028,0.8068464290758026,0.7458261385090696,-0.9708237116334724,-0.4642187942760079,-0.7005989924805922,0.827525636173335,-0.8684372484189125,0.6185699823202051,0.29770054167110915,-0.5505275168826393,-0.39293570559035773,-0.33403105299586855,0.5507456928582244,0.3953224351592015,0.0941447502233046,-0.47372372904094906,0.18945000255741107,0.6704100640481077,-0.5779752642488734,-0.9212801785204019,-0.9565193860748302,0.26620513961607917,0.6082027901117171,-0.8405806802490181,-0.22161518912432454,-0.5467881488335271,-0.22781145191032004,0.9449630176547752,-0.6418967021412132,0.9928687611319351,-0.43104667515433803,0.4617715393445361,-0.8756965782768293,-0.5329535375953434,0.99839622840543,0.24645348038783443,-0.9366851909121889,-0.4578926960278511,-0.0894765694625741,-0.6584594875573362,0.6698727308094989,0.860437457816964,-0.5867112030137835,0.6745888393794908,0.4668645767014874,0.662316235868414,0.9248914845627454,0.18478112351832943,0.9208817968533762,-0.3644091328569332,-0.8743334835383776,-0.9082118001917525,0.833346362279187,-0.726565016734952,0.2320120965047776,-0.5575697086488867,0.8156814264624086,-0.07339905492366605,-0.9471741404518703,-0.10506431763078594,0.19830528292549054,0.19664378048549347,0.5751258046922556,-0.8862504613740825,-0.11862793996621446,-0.5152008643889903,0.9236556809543497,0.5564099971709557,-0.8148847155388523,0.00485802886999398,0.273861857196523,0.6591147736717686,0.15313391220138284,-0.5889143606786091,-0.5410902855272601,0.8304816661114363,-0.42224442014818653,0.8491413137829031,-0.7383816602622062,-0.2119348305659845,0.4964295098126492,-0.6550122843454809,0.7476344412855109,-0.7864743293105476,-0.28952435199790694,0.48837173095926967,-0.8875201892618563,-0.542905611033023,-0.6105000562318963,-0.1470682221086177,-0.8709169307766265,0.4561428711611166,-0.9331173628867813,-0.22618100670049968,-0.40557116860254383,0.45908641615123913,0.3586898833099401,0.9180577072793601,-0.6147888771859131,-0.21797628059120977,0.27708118760222966,-0.3044612135201272,-0.175598201725927,-0.9459148298193665,0.7146134186408648,-0.6757973146707057,-0.5468055573723589,0.062031475618466336,0.8850055942942214,-0.640354488333053,0.5042167465816907,0.1651003756805307,0.7081463159907835,0.6669091758632999,-0.24033386200311435,0.9999229833983985,0.7891072492865936,-0.7157157270443739,0.20270593333824527,-0.7785331135909555,0.13583937841519433,0.21182868188412352,0.36267024614458365,0.9577768833846072,-0.9204890457321468,-0.10207014044305929,-0.6137830834726514,-0.25033746255278033,-0.19706422879013408,-0.5972958969628543,0.2958978341737215,-0.9869959026095729,0.4494758942929904,0.1821462909520668,-0.22849233444726913,0.46492534433372157,-0.49081754534125266,-0.21316194302460167,-0.05494894171243825,-0.16054714864329567,-0.6596145527024093,-0.9623270207259145,0.12045064888669765,-0.06830044275510794,-0.41950793506772954,0.9149178218569627,-0.03453488968308038,-0.9710167680908104,-0.2829025881398788,-0.7506738005541551,-0.07167946273024928,-0.5790835759806026,-0.6699445806124433,0.9436107205987745,-0.12287621327366582,0.45402713863038424],"weights_hh":[0.40205011819089376,-0.11500469624717247,-0.24371085083706823,0.15365174814337257,0.6022816716348509,0.551084985617629,-0.9279104401373985,-0.6537306666885943,0.18218268879344834,0.4369058238766492,-0.3267197826777106,-0.2228871646338375,0.5520853270955066,-0.8073763946931294,-0.02770294101060289,-0.5950354044248383,-0.08006756908456958,0.25868892588212655,-0.42622046785566536,0.1852721658261931,-0.3431917471467725,-0.008776013697706198,0.391490513895679,0.9265343649093869,-0.985333065820476,-0.5891790152610659,-0.6747573430037443,0.6622166578408601,-0.8344796571442339,-0.7659339345593439,0.1544647233486225,-0.6302387582015527,-0.9211005844502074,0.1659389573187291,0.7321033913119761,0.2128939588339036,0.7962846253544589,-0.9687056644315897,-0.4285442923891152,0.16034085222146843,0.4031311762869887,0.8010064517079096,-0.768124420606199,-0.5939839025941553,0.9738271454609655,0.3338014927963946,0.0899538566288467,0.5936416673144049,-0.4985123427586349,0.40062612731053204,-0.2085478270761958,-0.0817036515715972,0.3032092694598494,0.5658751600453826,0.30180023818768875,-0.251205775284163,-0.7688638617692949,-0.42398758457294705,-0.750549373022676,0.9882869551833928,-0.8001624975794961,-0.7978834056487631,-0.24079623778089498,0.6679962765576213,0.06910188126847827,-0.061098033131142815,-0.9721209729350204,0.6433352872671643,0.3456740583534834,-0.8382323206776101,-0.7098861618937218,-0.5482168368699156,-0.921453915762827,-0.6718540960807309,0.2288926318299691,0.7380224310398276,-0.7169311686475923,-0.11558964648812498,-0.1092615708050968,0.7659350536310625,0.3807154948324032,-0.037071508824301214,-0.7899661273389997,0.5615227194775343,0.11809606409035811,0.18936073102739392,-0.40084856020515636,-0.7125678076740432,-0.5986883052950551,0.056660799423786656,0.7932389909472533,0.9828147394107773,-0.4344876224987817,0.6765084047408902,0.1386317406316444,-0.017539614952915894,-0.3431914769697211,-0.550402749507731,-0.6414237925283288,-0.9111503708141959,0.8068157833202576,-0.3157436012312447,-0.9724972859927661,-0.49159520340129825,0.5273436685673174,0.5669931036776519,-0.1583687986805622,0.169720736959883,0.6408729907396784,-0.036039547695125185,-0.7322681196863023,0.9447289473849196,-0.6975824981528191,0.43203746861504433,0.26343959440448805,-0.18609828583118726,0.03874344609226554,0.9184034766744191,0.47470262602689917,0.15759461634250593,-0.4608107819369125,0.8150883580505088,0.3285071720233037,0.9595362558015108,0.021671361032823855,0.6629498050476976,0.10441344490672333,-0.6539976836308898,-0.23043496835276867,-0.8969506253199486,0.8940271503903845,0.316005139023805,0.15604034136835865,0.06281960373246398,0.14022077609617312,0.12800187719584288,0.8697346251565707,0.7767738000297033,0.5992481219550696,-0.8037220036824779,0.7199604867436984,0.6124251343118032,-0.19664330028533672,0.9926629106748828,0.29307240281078273,0.6913512044919976,0.8834533560665738,-0.8123388690387863,-0.20270360264579135,0.5363696945359291,0.7607505419797664,0.20154370200701233,0.3664372808713068,-0.3547004598899346,-0.3816224426713406,-0.017909288000489854,-0.6047178970269393,0.44517939554564046,0.383577198593019,-0.65444303246159,-0.028704464075933966,0.9571613700175388,-0.9629399763487503,-0.4897118413782866,-0.5219980965402149,0.6521278502345753,0.28661987697967883,0.48233567986034287,0.3155232983158782,0.007548210155322366,-0.3157926194439822,-0.8643281509725154,0.9699608569932274,-0.9735418194103658,-0.30584818253211643,0.9998736511297648,0.9516210523659236,0.9802984559741643,0.4451303976684031,0.8764552742978347,0.1737116984384235,-0.2733168904183787,0.843083994929064,-0.14110332180500018,-0.8748277470663068,0.6832580556244001,-0.41781312091149836,0.44224123024545947,0.4692419270379724,0.07591315164947754,-0.5188069052501443,-0.8191633271130299,0.946331686586311,0.5495454247237836,0.45858956439914134,0.3698992483381409,0.48455978318960735,-0.835829494818823,0.7034464545736812,0.7291190400151522,-0.991678229338852,-0.653589840756835,-0.4851796278870504,0.11611511346983927,-0.09030586234391014,0.35363128917853426,-0.9853558164297345,0.4268673529364635,-0.18453921616254676,-0.8693184452584144,0.3566312780457537,-0.2614070782040989,-0.3546231931497321,0.549104518948148,0.7433112496005685,-0.4034219730901589,0.6822584961643776,-0.7634071321283711,0.7526165290627209,-0.1207829947781851,-0.8628395249119647,0.679975520253022,-0.4620283517558539,-0.21886894234905974,0.48770295663796914,0.4022487587181989,0.09268580607871613,0.36914858149479346,0.13633892968320072,-0.4934993221828372,-0.44142890965119497,0.4381327477583654,0.6188476855700691,0.30011467410669224,-0.5570969645631878,0.20132207818210035,-0.9674267927548019,-0.6823409998456638,-0.29698663248811674,-0.2578915152459169,0.026259122861374662,-0.7052802115410073,0.7828525703463765,-0.7138247506371473,0.733304019894788,0.45866199770562455,0.7471896766899009,0.10410699484533148,-0.831044763967127,-0.3063272636278469,0.7883228836210578,-0.2555749954749065,0.3267229710746571,0.9274926188858679,0.8414516947538806,0.8211057256510768],"weights_ho":[0.4325179747810515,-0.020657615172252175,0.6963737494841067,0.773933077974869,0.8281432454905477,0.7045985001239845,0.5733157327561322,-0.05648099663170458,-0.48355845095728656,-0.46810791411709785,-0.5228623756996662,0.5720300646172778,-0.39405111563682715,-0.8525028387834417,-0.11288301769524178,0.5848600987745132,-0.34097760250621834,-0.9766510025834592,0.5917716210472943,-0.7796411536326715,0.8187108429021057,-0.002361737299154454,-0.6167618294510755,0.7988834132146205,-0.2670299396367688,0.6201856417247922,0.35388965798988425,-0.7395993148982378,-0.0007824415374926286,0.12144239281043401,0.47721656891535824,-0.2631501082868992,0.8094667096902677,-0.5630337779355079,0.5762204583836876,0.5141163760893153,-0.03570634533161887,-0.9002712355280194,-0.25648915532957406,-0.6557258330323124,0.6863697457746107,0.6597398143259807,-0.7458545622228814,0.7985980105535699,-0.9007229615231642,-0.9857142102530396,0.2814096607636416,0.568758161516892,0.12797612355285515,-0.9283053943906301,-0.9446788756426201,0.928363559230309,0.3445634324738214,0.38408567238439995,0.5606786792181324,0.9129077196402366,-0.24835271999577513,0.34243451951987947,0.4989868537364086,0.7979477413195772,-0.8168881121208109,0.5988467426012518,-0.5002569579996705,0.325886063766206],"bias_h0":[0.10982153360894786,-0.22547378480147517,0.13238317888988238,-0.9127133541275703,0.3642270848630451,-0.2560291990584189,-0.4222902651839482,-0.4323803297221489,-0.5263676032164593,-0.3421580554257069,-0.9164177107134872,-0.6793085483441264,0.4951129844307718,-0.240309130946053,0.0049404104546202365,0.6138623543456707],"bias_h1":[0.507694640161501,-0.5736337614290776,0.07636325833994229,0.6817629243019274,0.9699786940074064,0.3484909019544682,0.7761684252407177,0.6226689027046381,-0.7555093410727425,0.7597407005893106,-0.2934397259795918,-0.8803051641328818,0.17589661721975447,-0.8376253424725133,0.6808304620236942,0.16560883980756236],"bias_o":[-0.9824130109217128,0.46941695342016376,0.5890792996095404,0.62393500358271]}