{"weights_ih":[0.30286241828374716,-0.15515590048995387,0.4613705367191865,-0.1842821860237014,0.3016659040884728,0.7740188797022773,-0.524595976807346,-0.6349326980981318,0.9645564594229399,0.10254350205815577,0.31076348543843624,0.471244558177526,0.045675231248822,-0.8552694129116329,-0.7622295541838606,0.42236862683042053,-0.5259975735697098,0.7148326707965993,0.017019903766718913,0.8669825545083409,0.5400516072126966,-0.17048176243167412,-0.424782773944379,-0.9572309520211897,0.5565291533519552,0.6202393557366845,0.744996795231117,-0.5305459350417714,0.444409507005205,-0.438421384150139,-0.6484397936988295,-0.3564109170513783,-0.7968762288237221,-0.015436276151098882,-0.8492359236927867,-0.5688673149803611,0.31780516795310865,0.5566755930207887,-0.46099269797697007,-0.841798386506855,0.19759170074650578,0.6048684442323695,-0.818319227412849,0.85443054236618,-0.10049323448118264,0.8153946104635998,-0.5790481538065333,0.05529262887525577,0.8743274740289497,0.10300703686184809,-0.3058109985347215,0.29986754706191254,0.2990904738623712,0.6878467096168945,0.0399062949920197,-0.006891968355396072,0.1474299758041573,-0.4356494246028788,0.6774824418458127,-0.11578649722099876,-0.5747685164905301,-0.7498380257494881,-0.5202500999774258,-0.10586967613782106,-0.3718656672955323,0.20536288647707024,-0.995340142626425,0.48836150781600773,-0.7824389639760843,-0.09270551557247986,-0.5522964838670108,0.7597493147919614,-0.7907688950791234,0.5472144946233204,0.5295826962512671,0.35341697577628217,0.38488004388682606,0.966727545229495,-0.1914507656477089,-0.4887943365690799,0.08185653819863314,0.5290910900449528,-0.5485353767113808,-0.8366941246157114,0.9592046105435368,-0.8507777361317763,0.5868454411421791,-0.49539266696233586,0.8060168829936709,-0.5806066158972494,0.1532453829659004,-0.6729180157184971,-0.33942977776184247,0.26833269164255324,-0.04346459363348876,0.6043673900546196,0.630558712038076,0.8567145332839297,-0.014807201389361868,-0.06866284424762936,0.6610973239731333,0.5473174371122416,-0.4133338734898331,-0.32437233081243444,-0.19382445008912264,-0.9402784065173362,-0.3294877359558661,-0.32541116507645396,0.5893074443841675,0.298891352763206,0.46066289198860977,-0.08261061399714031,0.3060103887855885,-0.9436577784497349,-0.8297572649669875,-0.09991697034058444,0.2983546833077626,-0.19570388613313772,-0.2318626363758911,-0.6377201391803635,0.7522200146224689,0.5275734243802448,-0.1468624580928437,0.9935272439153766,0.2980938307917185,-0.639196502534505,0.6568645558021906,0.00836271994763571,0.4626719164127633,-0.9557509506948678,0.20625403326671043,0.4944147067487086,0.610930349197605,-0.683693783395978,-0.12625432288712202,0.9650541156216621,0.19728291879609716,0.4519490811103488,-0.11463929359892644,-0.01339472454993551,-0.7522126877318307,-0.6456987333415665,0.8851960851231804,-0.11083841802163952,-0.41879464561745783,-0.8206892534735888,-0.7872667659379216,-0.6544029174095527,0.6570126277808694,-0.1078131908353388,0.864578070983224,-0.7861365425312838,-0.5947942654925731,0.28431528530114547,0.38649665266104094,-0.7514305334142346,0.8707848472218773,0.3849787571747376,-0.7697432500570391,-0.044130273898313144,0.0768719431893572,0.4163399674856507,-0.12451911851329811,0.5316927420879096,0.7424803899620582,-0.1559846396540323,-0.17960324294491703,0.3615980565155381,-0.01354905603996781,0.005617956394614154,0.29893484230037703,-0.334600838208885,0.9768961834107404,0.8283597306236954,-0.9606654766263447,-0.9985728937032259,0.5910749611958253,-0.5759617796812655,-0.2739821849315469,-0.09018482546465711,-0.047434948984970804,-0.8474708436043716,-0.42742749113458633,0.26683450968638955,0.7108051802527984,0.8917515933198139,0.31392605419769937,-0.018846199468763647,0.9726857979489656,-0.29780569620752373,0.8445359057572013,-0.03902467126653075,-0.8639089822052726,-0.1622600810881918,0.49771227365397497,0.29627562659896967,0.4731688390234401,0.9294774187690185,0.990437742072569,-0.6759128877640279,-0.574554874530333,0.8393248055427271,0.013842501893207126,-0.5376992815394297,-0.7157284186042048,0.35334204851223827,0.7005627588961367,-0.7185172170279341,-0.8452225954032806,0.17216657915227507,-0.6380586569987916,0.8283070749283532,-0.11677421890854367,-0.6861200876814955,-0.927305259573699,0.9461694258070628,-0.045092093561444724,-0.5297900169450072,0.627357541857823,0.9427440146589074,0.8321938099788753,0.16820991174376165,0.38260763098492734,0.22527708592103157,-0.14746079581233418,-0.31846499667861905,-0.8910770966823409,-0.18176898960574395,-0.281928706330542,-0.6007005139818355,0.8561853155721979,-0.7316915895890506,0.24520553710694726,-0.17666796912448923,-0.21103630954825103,-0.6306240147000803,0.9432346461569534,0.7344192125138187,-0.6334821075393802,0.58728692162041,-0.7331801050702051,0.7218427858031766,0.6785774172205423,-0.7105675010581556,0.8118452289121898,0.016623280462447543,-0.10314046859929338,0.612597270922814,0.6846639881266317,-0.784816693407042,0.07834595279584944,-0.6323464589662557,-0.412638627098469,-0.3151781094669168,-0.3892113329370612,0.6509082703554456,0.015234648694299802,-0.6408615289069242,-0.4610455462766161,-0.8162889541531677,-0.3707603592337969,-0.8613528220008131,0.6457605608960937,0.03226756786139373,-0.358215580861319,-0.24218926828633847,0.11012420363283626,0.28461023393488993,0.008952089547056286,-0.19662050734311687,-0.5352490206298017,0.10862212464508536,-0.17045571591877207,0.28302244221090267,-0.4862698830985559,0.9299328153732063,-0.8892979160761125,-0.040095836546067076,0.656333263976111,0.4084618878325479,-0.7952298563398752,0.5734309693451081,0.31501222870996193,-0.39861670297157015,0.5277894195778363,-0.7080072152810268,0.08153730007764892,-0.4909599744932034,0.8992355164884427,-0.1957382344605576,0.7858307655101868,0.8174364201728825,0.7747062554172002,0.6921896852044742,0.5667575532897093,0.6234039007164343,0.7471170973258225,0.19820800457707777,0.39542642331979305,-0.471327217945807,-0.5381916807336029,-0.8129722035402167,0.1894265687363228,-0.6160167368962242,-0.06360925957266095,-0.787659496504596,-0.14424542340866164,0.5553957335437862,0.11793090325118438,0.9732342456738035,-0.5685835772953722,0.28212256273259206,-0.3714826240835809,-0.7766233781168077,0.7211974585986429,0.2717984646575351,-0.399188325758298,0.5046593413245593,0.25675034712226097,0.06897788611671918,0.6299312487766631,-0.0871130083403342,0.5181882051578091,-0.032561128000014206,0.6653741796004335,-0.8455204821828335,-0.7755203587879029,0.6113937214510814,-0.15485416750421654,0.4574787055587801,-0.5650215480279515,-0.577693828167871,0.1632597408501253,-0.5079785874339069,-0.5288097804891063,0.1593161041955371,-0.29064700409447974,-0.8441628433780282,0.17782146240018637,-0.6914448496868406,-0.34777792977296107,-0.05169855193706163,-0.3807607263300061,-0.20933356655933588,-0.34428348230910055,0.610393994046396,0.13106047151965217,0.028965091554810973,-0.2656754542327595,-0.9436352237897341,-0.09032134988282148,-0.7399602485481649,-0.47716708091689375,-0.529354225653937,0.32354752977444723,-0.9974317389793781,0.3154412843932839,0.4121987078404865,0.6640730606358769,0.7043777174389094,-0.8226619681523109,0.09832558892140342,0.9632271679915068,-0.6229521491054244,-0.1993368898293244,-0.6344959514539534,-0.9947882904713654,-0.47238907322621304,-0.5187496513845373,0.1869159719695157,0.2830603252319175,0.9197742632960895,-0.10207271036877463,0.4937165448931209,-0.4393925215949681,-0.09420972101228586,0.8869955900682633,-0.580036210892708,-0.29807497545183925,0.8320361953067135,0.7410337077563045,0.10744408924436777,-0.45881846386850156,-0.6732645593123063,-0.9154319302445904,-0.27318226628424647,0.8671741483307505,-0.7806661152892669,0.23376627295723118,-0.9338034567905464,0.02601743134948764,0.939364764702008,0.9654064204317301,-0.736143105928333,0.8889875446895414,-0.621108625217867,0.028070543319687724,0.4309091698534506,0.5500232091064046,-0.8273437861327588,0.776790080928317,0.837783308219934,-0.5176789746396424,-0.4628488637008852,0.37455271789630196,0.8953769025812124,-0.798159683746386,-0.7025182777825476,-0.14846953869731272,-0.8117392575162552,0.4549365471366853,0.13626034301888446,-0.14499831753060421,-0.9475561987477561,0.612479626181202,-0.9248541778932133,-0.05711676430865942,0.3517521554641121,0.7589986298393898,0.4563493944524055,0.37709251825188006,-0.5854659254905326,-0.20663849445508542,0.4397268405876469,-0.37744687884775563,0.8333866039561877,0.4099326791294884,-0.3272383425280603,0.7961083285012038,0.4672019599657662,0.23714198223852745,0.27612364921667987,0.24061444232318752,-0.1033523949666022,-0.5672514892827085,-0.34336529803479854,0.27131872849493965,0.4749505184780529,-0.23328746504653441,0.5247877942933861,0.7346562336087903,-0.04979579041800242,-0.27472549120960643,-0.1096978980564951,0.8885613708423228,-0.5613453363512144,0.5272816896620289,-0.28965329912845306],"weights_hh":[-0.577055510596316,0.7355780608719045,-0.5598487118583031,0.08941430575702336,-0.9187246130021209,-0.18011600928947202,-0.9034003641652575,-0.9768685786640752,0.8031222440854118,-0.4917932694267606,0.033707162186463524,0.739148755583614,-0.25386148410350406,0.2517611499637904,-0.965685081048582,-0.3483272922109173,-0.04729707194407662,-0.926634106275718,0.5382499483519354,0.2742597961903408,0.6208123042267712,0.08355787940962678,-0.33423545150210243,-0.46287593262160254,-0.14959479861989466,-0.7848809258470484,-0.15563478008429943,0.8570772756546947,-0.21024490084958036,0.28629378208121525,0.7109922325788816,-0.25088658718836476,-0.4487351721927091,-0.8305536467507488,-0.4968869593779157,-0.14246087046809408,-0.09021213809842688,0.006266341558986754,-0.23436263403207525,-0.7406465767518631,-0.8924013514986711,-0.8207466142808855,0.9415607408608668,-0.6913637121044005,-0.7119562552194589,-0.20834351851704325,-0.4158351279104815,-0.13342646755182863,-0.5430043757226055,-0.06429485544292857,0.33841543551686937,0.9692043860352109,-0.8240418814567607,0.561375155122865,-0.8989915488275209,0.6462475873447882,0.29752697070032696,0.9326141546913334,0.1111612449913082,-0.8714815234860629,0.46637938779371946,0.13726257897609595,0.5363405707507518,-0.6441169271969658,-0.08188119437557506,0.36902598472474835,-0.6731721767599699,0.31984386037532,0.4680378538777832,0.18455620744034662,0.6264668979292329,-0.3202351841258748,0.011687943018833247,-0.23891303517400408,-0.4991615078223608,-0.6356186604727345,-0.7886654733830027,-0.3712293641523132,-0.0801163675157417,-0.18413055768435505,0.9919724419064981,0.9785008507452155,-0.7210888304707157,0.6101640005122833,-0.7482384143675669,0.31131343776635667,0.49497490511630016,0.2888804096590101,0.9134885639083163,0.7748107744593877,-0.523362470481604,-0.10171231530296976,-0.19484698148323076,-0.11585755429744804,0.6663091197682731,-0.8348925977447061,0.008935716490759082,0.015373728468959236,0.7179101303316258,-0.11668447912453672,-0.6829742129295397,-0.45141158750725396,0.18416165642778837,0.5105414063823255,-0.021174207166609005,0.42448562850376215,0.710924468640618,-0.7446710930470375,0.2167102648560082,-0.6566992858787126,-0.4191036919390796,0.897375225226068,0.5198718413253984,-0.6100176460376361,0.5057867267191751,-0.8246923990491231,-0.40616477821002994,0.6485073955324756,0.9173402089687042,-0.48949325817530576,-0.6341947739010312,-0.49922716649304566,0.4332832403795426,0.9270168741522244,0.2526488385295338,-0.22097454869809185,0.3522954946750605,0.09786794948801525,0.004418039400805984,-0.036941677035182474,-0.6657139124235822,-0.7257962173412724,-0.48752713413244875,0.10870320800285738,0.6593014554988728,-0.7942353395652728,-0.46712863956175177,0.2604958801207855,0.6097818935674715,0.8332313699552356,-0.437351486894594,0.6633622197629343,-0.5744254229902432,-0.238985478141446,0.9805248890610743,0.32634380725910694,-0.8110408219834673,0.2811171436034565,0.8702615750403688,-0.0312368119476627,0.8265269208441104,-0.8804058833439712,-0.6785801693912454,-0.7932623079311585,-0.5545482100544512,0.8142477829574561,-0.6822731076895163,0.8716732917691561,0.20948598349437586,0.7761297777800806,-0.2419340429174821,-0.826609785979993,0.6369219213758286,0.14152149957011617,0.20036698288988863,0.6712521930944118,-0.6446543470057053,-0.40032117651854393,-0.02377365505249407,0.7909366447813324,0.19075150538491847,0.6479176806868854,0.6167887301744934,0.749513027792633,0.021646259407055668,-0.5243032937734062,0.4478181816099238,-0.18927619367789106,0.5320620689665772,0.837011485691995,0.13212535251462043,0.5966823941189221,-0.9405199479057773,-0.5351042380457782,0.3218839136923102,-0.5614494612548155,-0.37953134511076914,0.6261972885884504,-0.792750590119871,-0.8807659603166118,0.8782026329631296,0.3750262827478461,0.015287746866229135,-0.21271869153713419,-0.05632107244109874,-0.7978670730586142,-0.9541964102478908,0.38433518956032553,0.25199185410740066,-0.27317189028277356,-0.3824919379528402,-0.8708951735085397,-0.29233442971617274,-0.7795525760806332,-0.36568619473781716,0.5936654987140799,-0.2922254676151357,-0.6119077324348441,-0.6500557985252076,0.014680195786339612,-0.7669631285472136,-0.9926709224533916,0.45077091004236247,-0.14891942908463962,0.19085303618188032,0.5026680184014756,-0.31576308554157095,-0.479005785753289,-0.4364636880649069,0.7970000931126175,-0.33549094271896585,0.7073510800398279,0.9303951040041867,-0.6775515638065244,-0.5764894054709278,0.6841442063435899,0.6426881540872171,-0.907645748079974,-0.00371471987377725,0.651977663595493,0.3644665182528677,0.41111562275201696,-0.7536797643546727,-0.3707730147380808,-0.3229964065195241,-0.3416113637616278,0.5627202329678531,0.5164140915185889,0.3915030883993702,-0.851871358034016,-0.8486054867709376,-0.8642722787676254,0.184240068621226,-0.34486684008508783,-0.1847456557871645,-0.7692018171580219,0.30649269483425146,-0.4187317971380162,-0.6443308799122962,-0.8820122550685321,-0.31908171084942927,0.9643728182353524,-0.5156277076549398,-0.9424667243179699,-0.11923425549194189,0.3922611486757117],"weights_ho":[0.3833297527700539,0.3234815807597473,0.2784064105551185,-0.7361722292123687,0.2479629798650942,0.7353118882738612,0.9203128612866527,0.7951435949228098,0.6091428973635189,0.026123648489707385,-0.4494011691997841,0.20816976014022193,-0.09902540701231999,0.7190209213858325,-0.7036446304599364,-0.7719879222890595,-0.0692625080746816,0.5264958407519384,0.942364425261305,-0.6402998648890641,-0.7032226066312879,-0.4982826995245264,0.9887718049150789,-0.5001135107344836,0.07045423254207406,-0.12418659987143643,-0.3600789248778784,-0.15216744882748268,0.8685011232078983,-0.44339552012051864,-0.6050383690054402,0.2161109484539594,0.16994726826641626,0.19667396530858006,0.4872798684213777,-0.7906278048033888,0.15156983403354451,-0.43964942686440067,-0.23255902312020948,-0.9340286193596163,0.7650315703169002,-0.8951756285817365,0.9526569163618133,0.17237742715670956,0.10688019882074484,-0.42321870305635767,0.5693026204681755,0.178149634032424,0.10559834358724696,0.06155373821405963,-0.10180483158352271,-0.8661015342045812,-0.024868752530450955,-0.2670156833672157,-0.13240670270864885,0.11668123101005468,-0.41057357220176494,-0.9276902100690141,0.8072220442988338,0.142341221322819,-0.940737422548729,-0.3922474593455447,-0.4093727754465337,-0.09898560937109835],"bias_h0":[0.9960216087133227,0.14992451482927605,-0.9173754443844335,-0.020660440657177093,0.9175648832588688,0.18492568656513098,0.2762748560606447,-0.48735640564609506,0.6572325912491088,0.5732026724118591,-0.7998794849390163,0.5852691173515101,0.22312026064376966,0.23702767452909357,-0.8268147995147359,0.19613028776747554],"bias_h1":[0.7581663224973807,-0.5412683371979563,-0.33961729134600693,-0.91066013510794,-0.9926836288899459,-0.21116774015345774,-0.6347188294856179,0.550975090840764,0.333032876749513,-0.1706717629012402,-0.5893107308567505,-0.09885714884314267,-0.1388070845260636,-0.02757181571355738,0.773920174995065,0.5783789853406596],"bias_o":[-0.23121610428339556,0.5154864990648991,-0.2416045603515149,-0.8803339490287836]}