{"weights_ih":[-0.5735356653852821,0.7314854166589058,0.6747057721608261,-0.46396116476158666,0.6889480406425881,-0.3898753985132788,0.2984683950779805,-0.6349326980981318,-0.10478346583453702,0.5645604735205612,0.06587199138604571,0.471244558177526,0.24115522858696692,-0.8552694129116329,0.945960534610913,0.42236862683042053,-0.5244229777276315,0.47249976294147467,0.017019903766718913,0.8669825545083409,0.7195014208341721,-0.17048176243167412,-0.424782773944379,0.42325105163775434,-0.8131534980461614,0.982552615348451,0.744996795231117,-0.6180193086708146,0.7976902560053047,-0.438421384150139,-0.8215422813308173,0.1387204177193948,-0.9092070282867886,-0.015436276151098882,-0.42742786353585305,0.22665103415095156,0.9767086320950407,-0.9792269385936452,-0.46099269797697007,0.1979412905345559,-0.7200943922274079,0.12835560202696117,-0.818319227412849,0.85443054236618,-0.4194552792227011,0.8153946104635998,0.3293971346884812,0.05529262887525577,0.8743274740289497,0.10300703686184809,-0.3058109985347215,0.29986754706191254,0.4585732176025248,-0.8965988012593757,-0.9553399458639262,-0.7198561416725355,0.1474299758041573,-0.4356494246028788,0.6774824418458127,-0.12274461847328277,-0.4927541467787089,0.18941148242845274,-0.5202500999774258,0.47024399237669545,-0.5779855906763358,0.43045180816680495,-0.995340142626425,-0.5036699048313602,0.7409184036435661,-0.09270551557247986,-0.5522964838670108,0.537827726941464,-0.5077733519176424,0.5472144946233204,-0.617710748803376,-0.02069144387727606,0.45125889625336346,-0.9986196115662371,-0.1914507656477089,0.3147106465201148,0.08185653819863314,0.5290910900449528,0.09367213858048018,0.8252267676668388,0.5941196699879574,0.6192166179544218,0.27629013269388136,-0.49539266696233586,0.8060168829936709,-0.16571961345362785,0.8789081256733648,-0.8403047662494976,-0.47851891847866956,-0.43849766567465287,-0.5933082477288025,-0.15420937957251013,0.9830155266380893,0.20935655627662975,0.3695164122542909,0.16217014976989286,0.8936163445249876,-0.8030838301745209,-0.0038511228692401644,-0.32437233081243444,-0.19382445008912264,-0.9402784065173362,-0.3294877359558661,0.7259515162192371,-0.6525228909430161,0.6159535565674494,-0.4863599408687691,0.9715510944461978,-0.4130253798817973,-0.9436577784497349,-0.8297572649669875,-0.09991697034058444,0.2983546833077626,0.4046938176455097,-0.5569995394643992,-0.6377201391803635,0.26472628082229166,0.1429752202958845,0.3783685506343666,0.9935272439153766,0.017606861969728715,0.9175150989848162,-0.7109955429360824,0.00836271994763571,-0.5395633007365632,-0.14125734149128943,0.20625403326671043,0.9146546774007873,0.610930349197605,-0.16441057833587625,0.401877217840203,-0.6119699847081137,0.19728291879609716,-0.674192682082758,-0.8189263295133302,-0.2266160481184616,0.5260363855657944,-0.5773548381633533,0.8851960851231804,-0.11083841802163952,0.8204745205436923,-0.10586594537051819,-0.08754782269559458,-0.1606945574545886,0.6570126277808694,-0.1078131908353388,-0.22101423735059078,-0.49993298780463413,0.5047843043081288,0.6088874988872293,0.38649665266104094,0.24473144709043737,-0.5307010590514021,0.9088129638941886,-0.5296604957717719,-0.6877105099929026,0.6620608182100132,-0.9941962407898568,-0.7296272032282305,0.5316927420879096,0.9373586226260902,0.9917117063496395,-0.9640213406482598,-0.22990962709042995,-0.23126860535816451,0.05378399177490789,0.9099049323724508,-0.7912248322311344,-0.3960694060109715,-0.012575139476011188,0.3715243152975847,0.521983675087194,0.5910749611958253,-0.5126703582156038,-0.2739821849315469,-0.09018482546465711,-0.562430608019415,0.2564719282533625,-0.6605937164719582,0.26683450968638955,0.7108051802527984,-0.710651779055413,-0.1667270629648372,0.43402356870856074,0.9726857979489656,-0.530605563440681,0.6646278198328028,-0.9277231471095184,-0.8211748027982004,-0.6911913632635152,-0.8598701982921895,0.29627562659896967,-0.3917566404308872,0.6392335650063956,0.990437742072569,-0.6759128877640279,-0.8995278004697589,-0.7796445974204109,-0.9602614944674193,-0.5376992815394297,-0.7157284186042048,0.9795093265713115,-0.3124494744553621,-0.7185172170279341,-0.9443631506130379,0.17216657915227507,-0.6380586569987916,0.1728708609592262,-0.5027455565895911,0.5891159333669751,-0.927305259573699,0.14724562927079732,-0.3263088285326936,-0.8389151656510887,0.6207435066693969,0.6651188300364956,0.9883350993398776,0.7766937870613397,0.38260763098492734,0.753160837179756,-0.5785602827767466,-0.45999438520949587,-0.8910770966823409,0.5055634733655161,0.8119672820206523,-0.6007005139818355,0.8561853155721979,0.22372687429960436,0.4974740183528763,-0.04069522539748416,-0.22370680498260143,-0.6306240147000803,-0.47430618583534545,0.7344192125138187,-0.47584366819234725,0.370782278903947,-0.14557179421316535,-0.837277270542262,0.3246196235206307,-0.7105675010581556,0.8118452289121898,-0.876299657349062,-0.10314046859929338,-0.9557663815327799,0.6846639881266317,0.1974392548512669,0.9818831513780542,-0.03286096147869255,0.8361202014990279,0.5376083950860311,-0.04379169314098652,0.6509082703554456,0.23650245950944537,0.26406416376946273,-0.4610455462766161,-0.8162889541531677,0.7236691916291242,-0.8613528220008131,-0.8995737643599615,-0.01141426523089506,-0.358215580861319,0.6425505344269078,-0.6619100665928295,0.1987825934436398,0.4273104497576128,0.459479419892207,0.5918883090872276,0.10862212464508536,-0.48047344342583864,0.7267913700812558,0.8206976643367392,-0.9963739847117827,0.1816626795325711,0.3785806994284959,0.656333263976111,0.4084618878325479,-0.7952298563398752,0.5734309693451081,0.6629526225927702,-0.6918109184525219,0.5277894195778363,0.24741868682479495,0.08153730007764892,-0.2529122787316871,-0.13548830640498433,-0.964203744344416,0.41640848124672014,-0.5873626386786979,0.2859326847149122,-0.05023101426634424,-0.640203159746026,-0.8958282989144677,0.8548562716673895,0.19820800457707777,0.39542642331979305,0.9422799993455024,0.7218618835382946,-0.9284207708461076,0.1894265687363228,-0.9204153020098169,0.3843144862461547,0.5990496269943251,-0.6444014289601401,-0.34863234748465555,-0.6139468040437663,0.9732342456738035,-0.5092508935572826,0.9613937245954656,0.5991072644564948,-0.7766233781168077,0.12470499468163343,-0.5815540278159443,-0.514567758614829,0.5046593413245593,0.25675034712226097,-0.1060003809472092,0.6299312487766631,-0.0871130083403342,0.05652307524287292,-0.1878091347280686,-0.6289853274814712,-0.7909243021775858,-0.7755203587879029,-0.6971604870014487,-0.15485416750421654,0.129064984309762,0.43051963859061826,-0.6578744878336931,-0.8482813785588157,0.09550483559491929,0.5071174837220034,0.0632945956630333,-0.2048914490327236,-0.2957285650408932,0.028269010328724864,-0.852801731987122,-0.34777792977296107,-0.05169855193706163,0.18424690565043322,0.9485944577692966,0.5711742744260242,0.610393994046396,0.13106047151965217,0.004498818944109306,-0.3812331654637746,-0.9436352237897341,0.5541320946777322,-0.15841456988992597,-0.47716708091689375,-0.529354225653937,0.40502464919111403,-0.9974317389793781,-0.9732607145328327,0.4121987078404865,0.6640730606358769,-0.31562332936430715,0.9822041694497519,0.09832558892140342,0.9828886013157432,-0.8402259987009231,-0.961648138977393,0.18830140687924235,0.4377666947885468,-0.47238907322621304,-0.5187496513845373,-0.10598382478066881,0.11335145231764732,0.9197742632960895,-0.08160152977684088,0.6230083567440037,0.4078321020499709,-0.46502137288488177,-0.903358401754851,-0.6203271114426656,0.9649296870267863,0.4065664352195275,-0.8706096767162408,0.290479310581957,-0.45881846386850156,-0.6732645593123063,-0.9265568929257775,-0.12362856761912577,0.7084943212744774,-0.938140084085838,0.23376627295723118,-0.37184912928146985,0.44896184833802066,-0.03200712262831229,-0.5998409294075193,-0.736143105928333,0.33432637305608526,0.19930397603248373,-0.4951328900365777,0.38696148877687353,-0.3888577975848444,-0.8273437861327588,0.776790080928317,0.7459794159751354,-0.9858640955261369,0.38600158289542597,-0.9212531331934797,0.5244121663332062,-0.798159683746386,-0.23497337337630952,-0.14846953869731272,0.5528835845716524,0.44095673269258673,-0.7643140697420996,0.6230523167513125,-0.7456882982357573,-0.5240310216781734,0.4669783666424714,0.2396291205819716,0.3259442795062011,0.7589986298393898,0.4563493944524055,0.6849549975779059,-0.5854659254905326,0.7718193733886951,0.4397268405876469,0.347196937871195,0.8333866039561877,0.5444166621183442,0.30536663411559917,0.7961083285012038,-0.323561307751268,-0.8664018204098853,-0.20783489681917455,-0.7880533763292812,0.9239538927455047,-0.5672514892827085,0.25609301499570725,-0.4524599926489352,0.654318548314095,0.28897145290563064,0.17196151104402246,0.7346562336087903,-0.5234921383613813,0.4122065685498222,0.35493425299089565,-0.9135733742657908,-0.6008759885222217,0.363979674341981,0.33952189356564677],"weights_hh":[-0.32019382093149296,0.1502171997748205,-0.5849498137064308,-0.01014797141432,0.2764492583156757,0.6701344582407212,-0.30109820124886943,-0.8826507491936115,0.8031222440854118,-0.863439704107333,-0.9194205938893114,0.2827319617420747,-0.8918249079640768,0.4823296230674692,-0.5133616099219462,-0.3483272922109173,0.8548174559323396,0.7474974924235216,0.6862945568851777,0.2742597961903408,0.6208123042267712,-0.3715271816498391,0.9925915929194951,-0.25810878212011135,-0.36428061761938557,0.5910841328738192,-0.3511379236494865,-0.5290262438584314,-0.6233278361938814,0.6395791264863113,0.7109922325788816,0.6265975737282263,0.9558790903140957,-0.5554760445089844,-0.4968869593779157,0.732102358110619,-0.5851034167046627,0.006266341558986754,0.34448630622242593,-0.7406465767518631,-0.30326866357612325,0.6842502150853911,0.9415607408608668,0.4639374630315709,-0.7119562552194589,-0.20834351851704325,-0.3888427791898268,-0.8355132124268567,0.5258889980274226,-0.632391373661247,0.434890516524558,0.5133720089830198,-0.8144210861618495,0.6156550522468083,-0.8989915488275209,0.14125369317515268,0.29752697070032696,0.9326141546913334,-0.38926744554184434,0.9853064292541367,-0.8433696590443742,0.1472547303227434,0.5363405707507518,-0.6441169271969658,-0.07913955336720524,0.36902598472474835,-0.4007144778047149,-0.4252801955449501,-0.6634668075770278,-0.3630463762781815,0.8074171970248305,-0.3202351841258748,0.011687943018833247,0.9095917108198728,0.45572607902297624,-0.8142271177749569,-0.01584538798172752,-0.27598342248743934,-0.3062518836421746,-0.808220533142892,-0.4950059923469736,0.561529863834425,-0.6757990816803328,-0.39178412045126443,0.14623071981841185,0.31131343776635667,-0.20988482744366466,-0.6849548131293193,0.9508990570021971,-0.8796538743606894,0.697493195590773,-0.10171231530296976,0.049897839262522004,0.9968207072911472,0.059758327783596465,-0.2329831542393701,0.008450163994056403,-0.3635818293094093,0.8288253967719714,-0.4549953025560387,0.8131351716841804,-0.27893971389372085,0.2397241313096281,0.2679456183006024,-0.0914898400279962,-0.16854535036398932,0.09545980464548354,0.22950961236220357,0.23802789236660815,0.3182891317161549,-0.2456777042656455,-0.5787672310074741,0.5198718413253984,0.9393938093951331,0.5057867267191751,0.8166681637313029,-0.9141020717516892,0.6485073955324756,-0.785755211030261,-0.48949325817530576,-0.715394585992756,-0.0803230032728588,0.18090123293212335,0.09599053905912891,-0.15712971893372485,-0.9955926160936328,0.3522954946750605,0.03733905983513708,0.3550429247686204,0.6100979977661001,-0.898926232882538,0.2992232015417673,-0.48752713413244875,-0.7488989149531873,0.6593014554988728,-0.1272987637140286,-0.4445076382461641,0.9538709705627244,0.7307874993425509,0.8332313699552356,0.6157577150226416,0.6633622197629343,0.7537487054290559,0.27212086193650675,0.34272602563914045,0.8286319879166961,-0.8110408219834673,-0.49956067697428197,0.22165514068978487,-0.6839484248523724,0.7215243334197607,-0.8804058833439712,-0.8953698273246675,-0.7209272185105389,0.41985002113013037,-0.0016135997085984233,0.38158236927720424,-0.0808462829230423,-0.36189715378701237,0.9889362568828413,-0.2419340429174821,0.3465750672400387,0.6481904971073038,-0.7766438186459204,-0.10820756603447568,-0.07515269158429083,-0.6446543470057053,-0.22636444964180003,-0.026159424971314404,0.58091287261732,-0.0337299115674532,-0.0010626410102356765,0.005252666468453571,0.749513027792633,-0.6535737583557326,-0.39380357569078517,0.24162963736633736,-0.0274498621900805,-0.0913200306318569,-0.9681144440803344,-0.028730974962026368,-0.2113351067164262,-0.9405199479057773,0.1286449837539878,0.9725130596529004,-0.08137662068352713,-0.37953134511076914,0.8330602394921303,-0.5509096819501442,-0.5704848954668258,-0.7425074781031913,0.3750262827478461,-0.8786920871646076,-0.8013979876555846,0.591193746698278,-0.7978670730586142,-0.4702161613495661,-0.4453828710753127,0.41246780477168943,-0.4540700992750726,-0.3824919379528402,-0.15005283964511085,-0.9858706427334825,0.6982784254678072,0.029115380060465545,-0.8941708417598504,-0.2922254676151357,0.20922651396388225,-0.6657537579591899,0.014680195786339612,0.5621142403509465,-0.2157862394611587,0.45077091004236247,-0.02585074824716771,-0.7855356356743275,-0.5175630872775003,-0.31576308554157095,0.6394035312835251,-0.4364636880649069,-0.10891447098364426,-0.33549094271896585,0.7073510800398279,-0.9487105990581468,0.1870146722270143,0.47311285921817614,-0.5212432020337037,0.6925515790475263,-0.4128515459407922,-0.1606715019728917,-0.5135326168104546,0.9144231024569764,0.3458332295909221,-0.7856182796071574,-0.3707730147380808,-0.3229964065195241,-0.3416113637616278,-0.47420673215292,0.5164140915185889,-0.627882797538492,0.48956207948628894,0.22333574754035546,0.09431242424888575,-0.39009389640794323,-0.6459511267100322,-0.1847456557871645,-0.7692018171580219,0.6732576158120396,0.03655827207704987,-0.15813625085097627,-0.8919102015524123,0.2567550157173617,-0.7979125492201191,-0.8739303730982857,0.8181542987973769,-0.2805201569433986,0.3922611486757117],"weights_ho":[0.7035342262959352,-0.28633987562890195,-0.7587133185811317,-0.485994920591712,0.2479629798650942,0.7353118882738612,-0.2690919350135321,-0.1119608057642314,-0.7504197019746759,-0.9643799725777875,-0.0880549787210767,0.20816976014022193,0.27159615049859864,-0.765115767712027,0.2511531003887486,-0.9400854171462809,0.38846645413400616,0.30094209727499255,0.2244301786424372,-0.6402998648890641,0.8228751928530202,-0.4982826995245264,0.32145332476119837,-0.8242276251573593,0.19564843170505442,0.23229551709420693,-0.9527527537638976,-0.15216744882748268,0.3491512539707575,-0.3751812030802293,-0.6050383690054402,-0.29445828188605305,0.16994726826641626,-0.9106552283253531,-0.27149675278370955,-0.09619118695163409,0.15156983403354451,-0.8036530743102304,-0.23255902312020948,-0.9340286193596163,0.8158393554003918,0.7551165796903843,0.9526569163618133,0.17237742715670956,-0.21607874840454855,0.749778185384933,0.6956019107543745,0.053653293173153704,-0.652085563804085,-0.10874849982832191,-0.10180483158352271,-0.8661015342045812,0.34192910297252554,-0.16762671720602218,-0.37213757334315134,0.11668123101005468,-0.819435843727508,-0.9276902100690141,0.8072220442988338,0.142341221322819,-0.4242364165469701,-0.3922474593455447,-0.5656431125129227,-0.15314492192512907],"bias_h0":[0.38832240319542954,-0.22463974583069168,0.03911950817883025,0.10874282902687038,0.30721296320986236,0.18492568656513098,0.007616966238690681,-0.48735640564609506,-0.6859807356324805,0.018567797493972638,-0.7998794849390163,0.11315697327379581,0.20664400489517787,0.23702767452909357,-0.8268147995147359,-0.6921135478759473],"bias_h1":[0.7581663224973807,-0.5412683371979563,0.4333841015348483,-0.9584449981788177,-0.9385405885202558,0.6395755867422803,-0.6347188294856179,-0.9069033600035099,-0.6846981468973656,-0.1706717629012402,0.6629871218943792,-0.5852201458579747,0.5649180644210374,-0.33541203657632757,0.773920174995065,0.5783789853406596],"bias_o":[-0.23121610428339556,-0.7107396315106151,-0.2416045603515149,-0.8803339490287836]}