{"weights_ih":[0.023196123042068972,0.41173608182440136,0.42285661004381137,0.8188498449747892,0.856610390206817,-0.2252156650336019,-0.524595976807346,0.02506175267295574,0.158614660137669,0.6110855314475772,-0.10994667747145193,0.3701535059135237,-0.5485887083459591,-0.5491423343082174,-0.6749972530296375,-0.6155494592856323,-0.5259975735697098,-0.16694583124950957,-0.345576836425568,0.23807946794765877,0.004168428070468355,-0.5556571386457771,0.2624375087052344,-0.2155239912687663,0.5565291533519552,0.6202393557366845,0.16835519362177642,0.5275260436677156,0.07900614332928946,-0.250341483443701,-0.9084631151081024,0.6544954420425635,-0.7968762288237221,-0.5066423385631198,-0.8492359236927867,0.38912017065895377,-0.5882658632534212,-0.4119197357508415,-0.11202811701632087,0.2388688487285786,-0.19296076658132488,0.6048684442323695,0.7318400381316681,-0.6528008417207356,0.6635074128992902,0.6859168175145804,-0.5790481538065333,0.40926503644563494,0.01705266351983825,0.7942270293974523,-0.6949455030708018,-0.9705887173219996,0.2990904738623712,-0.4218863591401898,-0.7965432965900192,-0.006891968355396072,0.6890973680956205,-0.9204052654402091,-0.2208781111862299,0.6058604728426542,-0.05436864842458511,-0.7498380257494881,0.08871280425832184,0.2247540261308636,0.19980097278844844,0.07695310860889526,0.9962886348999092,0.48836150781600773,-0.29533442422513745,-0.5549857397260267,0.3128230206110796,0.8445169668913026,-0.7907688950791234,0.3736227556995291,-0.429304059616874,0.6116642298484671,0.5156820342625743,0.966727545229495,-0.3821795706097757,-0.4887943365690799,0.38188665721144166,0.2192531728581666,0.07396474399881359,-0.8366941246157114,0.9592046105435368,0.02068051982835506,0.6585833081071206,0.9211303629661958,-0.7035960179740048,-0.836696199008744,0.550024383928621,0.7418809826141797,0.26756267865994343,0.26833269164255324,-0.1640437894794582,0.6043673900546196,0.3949734793349813,0.35304436794195526,0.8556866578581148,0.6924196185878764,0.6610973239731333,0.05166178907796537,0.21178836189365624,-0.1760684552333467,-0.684623984427982,-0.054302780851915644,-0.6113265863051869,0.5699495941131414,0.8785374983789738,0.9052576573812572,0.4101442492874454,-0.547340879695331,0.3060103887855885,-0.9216413900278777,-0.8202120342593038,-0.8114556306445817,0.3313317297266103,0.9762349544614508,-0.2318626363758911,-0.9765748459019983,0.25670176949886714,0.5275734243802448,0.5647769875142656,-0.8111999217190351,0.2980938307917185,0.7510481864099259,0.6295096047297724,-0.387378123613056,0.4626719164127633,-0.21796895836487384,0.22905284273369664,0.4944147067487086,-0.24853048780370535,-0.4216588757337507,0.6583594968607978,-0.9411442422812442,0.46070472629466597,0.4519490811103488,-0.11463929359892644,-0.01339472454993551,-0.5575907981436943,-0.6456987333415665,-0.2663607036199449,0.8241761606702616,-0.41879464561745783,-0.8583755809402149,-0.07265437265114727,-0.6544029174095527,-0.6583206969517361,-0.5509840926502496,-0.7541225908125877,-0.7861365425312838,0.8217507308946517,0.28431528530114547,0.023685441174524646,0.4541016578841772,0.1501521793993985,0.9868742789408393,0.6156054845714944,-0.044130273898313144,0.0768719431893572,-0.3767346089458279,-0.12451911851329811,-0.3179858160132887,-0.04904899733401624,-0.7448114647230164,-0.38124237577013065,-0.4556309751955345,-0.41173127090349704,0.48373826804196307,0.29893484230037703,-0.19712295990062634,0.03090463254989828,0.5136018696451798,-0.3672033210848942,-0.9985728937032259,-0.8951094906632802,-0.5759617796812655,0.9571202682685962,0.180803045680632,-0.6957387360787304,-0.4955467947056156,-0.42742749113458633,0.7192458625150622,0.7293876573959572,0.8917515933198139,0.31392605419769937,0.04175180928206634,-0.39055181724990295,-0.29780569620752373,-0.5027226962632889,-0.8045674218064911,-0.278975916450928,0.5741516574868581,0.49771227365397497,0.8684123485854047,0.07838746052195367,0.36192661283226935,-0.8680417014706665,0.4780167424633477,0.7225419841140879,-0.22390256063184633,0.14203987991037992,-0.7068191663223702,-0.717853668411857,0.08103547844992454,0.9537336757540806,-0.8323761939843051,0.4585178650456503,0.3980427867369205,-0.7940041072346946,0.8283070749283532,-0.4347375617077325,-0.9189963155435428,-0.2908426957544079,0.9461694258070628,-0.045092093561444724,0.7668634295034928,-0.5109105214849383,0.9427440146589074,0.8321938099788753,0.8862350935579981,0.883823200917899,-0.05155911986318151,0.691382747223273,-0.31846499667861905,0.4212059117668474,0.2785885235236423,0.11679711668759718,-0.28180199393022964,0.9911228098150631,-0.7316915895890506,-0.5977079823770826,-0.6948209052416772,-0.21103630954825103,0.8607729181431454,-0.9729044690287139,0.7598306933664785,-0.5809472667037561,-0.9908378306216143,-0.5038555859613225,-0.3669813244895581,0.14298271143921748,0.002471009236731936,-0.9588085904664119,-0.6370740366797698,0.262507435590249,0.7255211790886409,0.5422066194561741,-0.784816693407042,-0.18642596688745683,0.46404525370201943,0.3806368445248267,-0.5543536095446169,-0.3892113329370612,-0.6800737107064918,-0.10427893153789691,0.7299428192249,0.07159419291983715,0.051364988895206354,-0.6399357334817346,-0.03907985235718292,-0.7737788429092056,-0.14159838954072224,0.5696062245824265,-0.24218926828633847,0.11012420363283626,-0.4176776151821662,-0.35387896609426694,0.946298871006571,-0.6549406131757476,-0.318426152455628,-0.17045571591877207,0.689388412099428,-0.4862698830985559,-0.9089388116777237,-0.3989445942543386,0.11207017214087078,-0.1885233758579843,0.699140692625225,0.4316016683967767,0.9673424831741169,0.31423317306802856,-0.6755115305962103,0.3766254028802014,0.43599727342666883,0.9154733339348178,-0.36128695573120506,-0.843580438408073,-0.1957382344605576,0.5665283573963042,-0.9094977504126647,-0.08195622977529937,-0.8832641771449323,0.7739344136922486,-0.3196001954793437,-0.003257390182172637,-0.18485177165897348,0.24815901309028288,-0.471327217945807,-0.47497691755456994,-0.4585110260505374,-0.2654094955151496,0.16578832486557493,-0.8501321259296408,0.2313792570712263,0.62043641196701,-0.5419839684817254,0.11793090325118438,-0.5961016715074214,0.49758189921449447,0.28212256273259206,-0.3714826240835809,-0.1157654307127387,-0.17964472985727786,0.27217150324062755,-0.399188325758298,0.8650584547820375,-0.30981149908985794,0.027626766639117672,-0.4671335613098575,0.8943995673382075,0.6020861431943183,-0.032561128000014206,0.7198378396926117,-0.8455204821828335,0.6633589673642364,-0.6151149808349292,-0.2259465164837986,0.4574787055587801,-0.5390745748677812,-0.577693828167871,-0.52144122900097,-0.6958013039775623,-0.5288097804891063,0.1593161041955371,-0.29064700409447974,-0.8441628433780282,0.13977131081025607,0.008588428895040634,-0.39324417666815803,0.06470758318070913,0.6391064564506945,-0.9763218153121518,-0.21439034722750172,0.7779501835836877,-0.6317228972407734,0.028965091554810973,-0.9218474383646842,-0.6015505426224412,-0.10657965257455237,-0.25969063723273766,-0.3094243949747324,0.02309941229601664,0.9782979478829767,-0.1835538079327057,-0.20332921325358955,-0.8428326607290015,-0.28582248454194126,-0.9174837558964037,-0.8226619681523109,0.8720537648364886,0.2552832292175047,0.2785809322468118,0.9772019941951213,-0.6344959514539534,-0.9947882904713654,-0.5610108693240918,-0.5566700441875339,0.8951014649330638,0.2830603252319175,-0.9186750243023338,-0.10207271036877463,-0.26587799705130877,-0.4393925215949681,0.6135262292698682,-0.5571966647879363,-0.580036210892708,-0.3702523072946533,0.8320361953067135,0.7410337077563045,-0.3772796400273648,0.19041135643354146,-0.13868935289747175,-0.9154319302445904,-0.4092446476287057,-0.6000457431386088,-0.7806661152892669,-0.7353362709758433,-0.9338034567905464,-0.11761202928608872,0.939364764702008,-0.4411010391412251,0.34314214922594766,-0.9123651951410794,0.7224254430654133,0.6134506236349364,0.4309091698534506,-0.16410307052701456,-0.7718479601243964,-0.9504577721273277,-0.43648198859332354,-0.8804370683240321,-0.4628488637008852,0.8262167326786585,-0.4198793452330425,-0.9733090722142816,-0.7025182777825476,0.6808219025526656,0.04682182358174525,-0.055064750823239805,-0.2777554915385425,0.7034556551166953,-0.9475561987477561,0.612479626181202,0.12931639111564386,0.7843046805398044,-0.8614572585501714,0.8696587796282835,-0.2410958619907475,0.37709251825188006,0.0652337154929441,-0.20663849445508542,-0.06844014067849091,0.610945510721365,0.6440783744372467,-0.08398891029503375,-0.3272383425280603,-0.030504660856451205,-0.06122386692863446,-0.03284881767111281,0.27612364921667987,0.23513779114019906,-0.1033523949666022,-0.18644438566556643,-0.11876717821505833,0.27131872849493965,0.10670192991279848,0.624171665725419,0.5247877942933861,-0.969783235294678,-0.03880415886287669,-0.5591660667208409,0.12416392872264326,-0.8126505738475103,-0.4144191442746412,0.012142025150235325,-0.28965329912845306],"weights_hh":[-0.21775601666273303,0.1247836139108136,-0.8379761408745727,-0.6223945876508012,-0.15901003631037214,-0.41268164581707234,-0.16680019803291923,-0.5650078152777664,-0.4162263757176634,0.1765081955306571,0.10856333293831555,0.739148755583614,0.7666149874168315,0.3157627874733089,-0.8593399104755197,-0.2448212094938922,-0.04729707194407662,0.9643876189794922,0.5382499483519354,0.743419299569066,0.8915218713091666,0.08355787940962678,-0.7212049402216902,-0.36329051362369524,0.5493740178189204,-0.7848809258470484,0.6850414060262306,0.9390653894948879,-0.42165851285461575,0.28629378208121525,-0.29677909266364644,-0.25088658718836476,0.33628068260001887,0.595474741320476,-0.004502280796644831,-0.07522373740409183,-0.3881165064075536,0.38974777841946806,-0.23436263403207525,0.2568550849829705,0.6890626886074454,-0.016203349376418208,-0.4987293663634593,-0.9402623975824995,0.24039395638243488,0.9183272303641024,-0.9930752838665806,-0.7557839255268819,-0.5430043757226055,-0.06429485544292857,0.33841543551686937,0.9692043860352109,-0.8240418814567607,0.561375155122865,0.08089245241420628,-0.21048647790114527,0.8867007047613693,0.19415572876795628,0.34516056890464397,-0.4068839587724771,-0.9441246248554678,0.4283287605583661,-0.9871392980112113,-0.9335280367037291,-0.9248300158587943,-0.9845352691024267,-0.5870489334954778,0.31984386037532,0.03679386108644134,0.18455620744034662,-0.3990197165786473,-0.9932389125071941,0.14744074564811083,0.9874973156592697,0.564863551173572,-0.4563352251967141,-0.7886654733830027,-0.3712293641523132,-0.0801163675157417,-0.348395373576011,-0.9965759092286779,-0.18275041612128873,0.5526255735004406,0.6101640005122833,-0.7482384143675669,0.6081782378213281,0.49497490511630016,0.652479317117685,-0.7187607631994724,0.7748107744593877,-0.1864016523582992,-0.18213897292682013,-0.19484698148323076,0.5028262149622647,0.6663091197682731,-0.8348925977447061,-0.5202755118241618,0.02850606698596936,0.7179101303316258,-0.11668447912453672,-0.6829742129295397,0.023803807347899886,0.18416165642778837,-0.9661915439000179,0.8046082709906681,0.8905771400703646,0.710924468640618,0.07810147739175921,-0.5445287794651648,-0.6566992858787126,-0.8078347254767329,-0.8333304411113247,0.015253679283481647,-0.6100176460376361,0.1298215579218731,-0.7518029143400169,0.46130408646008636,0.2432926009584111,0.12942365957921487,-0.5478133169101622,0.08426405499313239,-0.49922716649304566,0.4332832403795426,0.9459206711346089,0.2526488385295338,0.6567667970362367,0.47085189407137484,0.7260534796197289,-0.7660556497966649,-0.036941677035182474,0.13067550782384196,-0.1664306057433642,0.6810737367618247,-0.5326640220110752,-0.16138494650632484,0.4805344377227554,-0.29426123334418675,-0.7408522135003288,0.293821637735838,0.11849687279844856,0.5056760867076382,-0.4263484973470364,-0.5744254229902432,-0.6066528819155923,0.9805248890610743,-0.2883872713791611,0.3505383033076652,0.2811171436034565,-0.8963404320301165,-0.0312368119476627,0.28287173516151465,0.5069974606769174,-0.22269357779222343,-0.7932623079311585,-0.34943240332814973,0.8142477829574561,-0.6822731076895163,0.8716732917691561,0.05169865640558147,0.7761297777800806,0.8302766527153966,-0.114745393044138,0.6369219213758286,0.8991535202938505,0.20036698288988863,0.6712521930944118,-0.21433128930545453,-0.40032117651854393,-0.02377365505249407,0.7762254157602424,-0.546675706039566,0.6479176806868854,-0.5213507599331175,-0.836224927493491,-0.3469973441047389,-0.5243032937734062,0.4412055256005345,0.6561175758270505,0.5320620689665772,-0.8514913127905812,0.13212535251462043,-0.3263594028296424,0.5895873539614604,0.6967130135990725,0.3218839136923102,0.1602501581523268,-0.16960565945015538,0.22193325063161362,-0.4265348005703431,-0.5720958452254985,0.1337232298502784,-0.1827211543976024,0.015287746866229135,-0.21271869153713419,-0.9257111808370269,0.6826496779337607,-0.14565652615734193,-0.31375739417187365,0.3384330761672796,-0.628369749682997,-0.24642736310450042,0.5144393661311661,0.0665020989099181,0.23914153112216363,0.6328919216226636,0.015167140134061396,-0.4191619926797123,-0.021935853503779468,-0.6500557985252076,-0.35547872389882174,-0.6984701045793011,-0.28031334657927554,-0.48828203126906744,0.6427043686921927,0.5949081021633467,-0.9901204932334804,-0.9717802970209017,-0.562602166127774,0.9164850136012985,0.8123741322258329,0.7597390524589847,0.6541567492251599,0.652293414162685,-0.6775515638065244,-0.5764894054709278,0.6841442063435899,0.043784743278399096,0.6373026853153241,-0.265406547257923,-0.058227293689917525,0.3644665182528677,-0.6316746010178831,-0.9462412883913971,0.9589513557830343,0.8794650039739387,-0.9264753815087676,-0.8256702090366816,0.14711395480721823,0.007723956877374372,-0.4819533795874338,-0.5918177872631323,-0.21989641248431058,0.8267499228285144,-0.34486684008508783,0.40213268551713566,-0.5923140120181805,0.45177395286517386,-0.4187317971380162,0.38593493232607146,-0.5746368705904816,-0.31908171084942927,0.7602409931749616,-0.9160585250827402,-0.8028454363052167,0.7375607471693593,0.40121828655809666],"weights_ho":[0.3833297527700539,0.6374477494925024,-0.5841554637631305,0.2533318414123944,0.5264677913019276,0.8265341931477852,-0.30136749811474295,0.62325632038103,-0.042118420095430986,0.026123648489707385,0.20488196232481992,-0.6797495167711625,0.002390483428474477,0.7190209213858325,-0.4954915666264956,0.6480761746452779,-0.0692625080746816,0.017078276854579855,0.49289933796004504,0.43103568689615157,-0.7296848095672477,0.8760943619401083,-0.6621005915452822,-0.5001135107344836,0.34411776647784476,-0.12418659987143643,-0.3600789248778784,0.520452594910781,0.8685011232078983,0.1054433423887855,0.09655960588746937,0.15087338179831478,-0.5487124046714031,-0.492143795675696,-0.03261061844102131,-0.9667912965246566,-0.16227302242505792,-0.43964942686440067,-0.4284027354432738,-0.23678949806153682,-0.8336226520660686,-0.8951756285817365,0.5291506310095972,0.8624601850304707,0.990715225719655,0.10550170994844588,0.4072455536045565,0.178149634032424,0.7101003232306082,-0.02785411768784818,-0.46003419058377437,0.019323025028168628,0.20410019056064366,-0.2670156833672157,0.4942408145769235,-0.20209309581142176,-0.41057357220176494,0.6487881755441012,-0.6769365863161865,0.8626255448839522,-0.14545402151713427,0.4589709255423646,-0.4093727754465337,-0.09898560937109835],"bias_h0":[0.9960216087133227,-0.8888712586113694,-0.9173754443844335,-0.020660440657177093,0.9175648832588688,0.01906644918081013,0.21966615824933555,0.31348351584441025,0.6572325912491088,-0.688764765152174,-0.4206155890435852,-0.4182263651690281,0.2675608238338405,0.7794743664575976,0.15914339353373297,-0.3325833817771848],"bias_h1":[-0.08754907343583018,-0.7736410010702062,-0.9907378326719185,-0.91066013510794,-0.9926836288899459,-0.21116774015345774,-0.03391286747942468,0.550975090840764,-0.21722792317026007,-0.5519980650478569,-0.23128385408086816,0.26601420609280013,-0.9866437790382736,-0.02757181571355738,-0.13043681474116586,-0.39149380509184195],"bias_o":[0.7277609956619919,0.606643700494639,-0.9274200563536081,-0.7130556809153712]}