{"weights_ih":[0.30286241828374716,-0.15515590048995387,0.6302142748453428,0.7013690798293779,0.27481653502551007,0.8011307060684916,0.7388243554114946,-0.6349326980981318,0.9645564594229399,0.7191662424749703,0.31076348543843624,-0.6550907734657505,0.24115522858696692,-0.8552694129116329,0.5123745579691985,0.42236862683042053,-0.011152022955942531,0.8779790253789888,-0.417090204245967,-0.404479965917214,0.5400516072126966,-0.17048176243167412,-0.424782773944379,0.5700386153481825,0.3191827156343232,-0.3635069480308144,0.744996795231117,-0.3811987484349335,0.4448430383387394,-0.438421384150139,-0.9794685605903739,0.6764214205043331,-0.9092070282867886,-0.015436276151098882,0.48649880446969473,0.5655455563323255,-0.6728578960448262,-0.05916243071835625,0.5048361577748561,-0.841798386506855,-0.4059609949304597,0.12835560202696117,-0.818319227412849,0.17743829210355822,0.277204065888045,-0.5947811646394359,0.38086813107395034,-0.016861823875155668,-0.8176609042558969,0.9363774959361981,-0.3058109985347215,0.7713898134471793,-0.9014250341509915,-0.8965988012593757,0.31044882632747717,-0.6636284674444204,0.1474299758041573,0.15444643952145154,0.6774824418458127,-0.92898203948678,0.7823359135197834,-0.2497718374042579,-0.19500150334366406,0.9657242385121882,-0.3718656672955323,0.20536288647707024,-0.08631897345884765,-0.9896966778566321,-0.7824389639760843,-0.6532880575809048,0.7755067950368078,-0.6512776946469474,-0.9205470059527836,0.3187712478018143,0.23732105326053254,0.19642769162815354,0.5534034344806273,-0.9986196115662371,-0.1914507656477089,0.3147106465201148,0.08185653819863314,0.9143217856537054,0.09367213858048018,0.8252267676668388,0.5941196699879574,0.05088741168926281,0.5868454411421791,-0.49539266696233586,-0.9148573793612482,-0.09472659127275107,-0.6134763294352514,0.728091067650553,-0.10986856832658654,-0.22889480706825505,-0.04346459363348876,-0.44083366858253803,0.17309947829539318,0.8567145332839297,-0.9272776975358503,0.19136757873079935,0.8936163445249876,0.5473174371122416,-0.17915416322884958,-0.32437233081243444,-0.19382445008912264,-0.9402784065173362,0.8885612541468506,0.25956736443758865,0.5893074443841675,0.298891352763206,-0.9052678715521696,-0.2520238146390821,0.9047162982607444,-0.9436577784497349,-0.3879322705036099,-0.09991697034058444,0.2983546833077626,-0.19570388613313772,0.9846264563191613,-0.6377201391803635,0.3896249385721482,0.1429752202958845,-0.8106257299604793,0.14293805983850172,0.4461625543658616,-0.639196502534505,-0.7109955429360824,0.00836271994763571,0.6147617971890833,0.1734498636027244,0.20625403326671043,0.082401183861055,-0.28814557501097937,-0.683693783395978,-0.10319234988660475,-0.29540790120929095,0.15017725471423615,-0.674192682082758,0.2075632365622302,0.7443453253339922,0.5260363855657944,-0.7439537235303311,0.8851960851231804,-0.11083841802163952,-0.36560844290980943,-0.38097774533306206,0.13800152891851858,0.5654442659611227,0.6570126277808694,-0.1078131908353388,0.864578070983224,0.7985428571119488,0.051294721909937335,0.9607036531628346,0.4610635129750542,-0.7514305334142346,0.9725721539515806,0.9088129638941886,-0.5296604957717719,0.03164356493405518,0.23878394063809938,-0.9941962407898568,0.10819819409770104,-0.1442121671678671,-0.442025920225227,0.03658242200081263,-0.04110656202956253,-0.026636309506413047,-0.35842777270355075,0.005617956394614154,0.9099049323724508,-0.5545061771202295,0.2587524877180125,-0.34196905556460355,-0.9606654766263447,0.521983675087194,0.5910749611958253,-0.6253497480824253,-0.2739821849315469,-0.21789610974837603,0.11010837691398945,0.6329496911293402,-0.4766637808124523,0.9990547218583692,0.7108051802527984,-0.5059107762433299,-0.6445798650088115,0.4603040156917175,-0.33338006465444336,-0.530605563440681,0.10524770810809625,-0.06413371422858516,-0.8639089822052726,-0.516231772237403,-0.8598701982921895,-0.5795247024476535,-0.493214553258142,-0.4946130512403384,0.990437742072569,-0.09017712180239368,0.5207178761322058,0.8393248055427271,0.013842501893207126,-0.04161046358185283,-0.7157284186042048,0.35334204851223827,-0.8341701915103994,-0.7780411267526055,-0.2788651397486648,0.17216657915227507,-0.5579542095363319,0.1728708609592262,-0.876658564652222,0.5891159333669751,-0.3838529845738605,-0.6658765184712294,0.5354061209725447,-0.7481679830916375,0.10400547332652788,-0.4885375786837298,0.9883350993398776,0.16820991174376165,-0.896971474887047,0.22527708592103157,-0.5785602827767466,0.0935220134268353,-0.8910770966823409,0.5055634733655161,0.8119672820206523,-0.6007005139818355,0.8561853155721979,-0.0827544140348464,0.4974740183528763,-0.7580889459975655,0.28518201987624114,-0.6306240147000803,-0.11250186441662735,0.7344192125138187,0.0385330212527637,-0.28458362019131345,-0.6959581216555162,0.7218427858031766,0.3246196235206307,-0.34345422498169476,0.8118452289121898,-0.2932904973917827,-0.10314046859929338,0.10261596772389514,0.6846639881266317,-0.6168517565179179,0.8247627211656416,0.9690592760469401,-0.07994348568158949,-0.6620696458247022,0.24109293459413816,0.6509082703554456,0.8840798101665646,0.03727923287530355,-0.8885302964210327,-0.8162889541531677,-0.7585418754178888,-0.8613528220008131,-0.3307314195845712,0.03226756786139373,-0.8526420807454875,0.6819406716069718,0.5900488240984358,-0.10910040692072087,0.49309773253276346,-0.8222988483857492,0.5918883090872276,0.10862212464508536,-0.48047344342583864,0.9667526435580052,0.09509713326491465,-0.67273539403478,-0.9143462135751534,-0.040095836546067076,0.656333263976111,0.4084618878325479,-0.7952298563398752,0.5734309693451081,0.6629526225927702,-0.39861670297157015,-0.97431485802587,0.1212389058897716,0.08153730007764892,-0.0426271865436596,-0.021675360455188253,0.9171264114406872,0.8832223276123774,0.8174364201728825,0.7747062554172002,-0.012050859792288815,-0.2823337276499034,-0.8958282989144677,0.7471170973258225,0.4439814348689486,0.6622308526636027,0.45383219685206355,-0.853994032335549,0.5420895728583526,-0.7847212549877771,-0.6160167368962242,-0.06360925957266095,0.5990496269943251,-0.14424542340866164,0.9387550661911777,-0.28266854929174823,0.9732342456738035,0.9734675161192856,0.7348652975710379,0.5991072644564948,-0.7766233781168077,-0.35900662289811835,0.7999103080652146,-0.514567758614829,0.5046593413245593,0.25675034712226097,-0.1060003809472092,-0.30225270304273977,0.24026119244624589,-0.008711623776148869,-0.2821910158552783,0.5935385119129917,0.41962714583403726,-0.7755203587879029,-0.16734331915217027,-0.21454832794430678,0.4484517435063282,0.43051963859061826,-0.9095798212449981,-0.8482813785588157,0.9594182760275654,-0.6963816798404936,0.0632945956630333,-0.2048914490327236,0.8825270583834217,0.028269010328724864,0.4786426173335361,0.05821386033409959,-0.05169855193706163,-0.6596634045644256,0.6745632408685405,-0.34428348230910055,0.610393994046396,-0.32177969215918845,0.8293089553868376,-0.3812331654637746,0.07633163009929378,0.605997920493043,0.14518139207119884,-0.47716708091689375,-0.529354225653937,0.32354752977444723,-0.05572010269682193,0.3154412843932839,0.5468072342223571,-0.6959344742655424,-0.7184916093191878,-0.6378041140205679,0.09832558892140342,0.5652858904460532,-0.8402259987009231,0.839095868304627,-0.868222309887273,0.4110824703106104,-0.7621217936096571,-0.5187496513845373,0.1869159719695157,0.22649605246481852,-0.312510109698376,-0.003170988462662061,0.6230083567440037,0.4078321020499709,-0.09420972101228586,0.8869955900682633,-0.6203271114426656,-0.29807497545183925,0.4065664352195275,0.5132470655266517,0.47923385488900627,-0.45881846386850156,-0.6732645593123063,-0.2775868173838223,-0.27318226628424647,0.37408782456011425,-0.938140084085838,0.23376627295723118,-0.7270259681136453,0.6208769018460063,-0.03200712262831229,-0.48769452355897713,0.6245846343423267,-0.666483044878385,-0.5745425627780809,0.6860349489461046,0.8509722339924408,0.5346658334402312,-0.8273437861327588,0.4386000923546314,0.7459794159751354,0.6463535282753792,0.4471518028723105,-0.5652947533841488,0.5244121663332062,0.14365172550778404,-0.23497337337630952,0.021601343900354175,0.5528835845716524,0.44095673269258673,0.13626034301888446,0.03101951287084992,0.2292445855832992,0.6798181888351051,0.9699768870709713,0.5877882473135243,0.3517521554641121,0.7589986298393898,0.4563493944524055,-0.42224048491907906,-0.5854659254905326,0.9656207158557724,0.4397268405876469,-0.37744687884775563,0.002510845738730394,-0.7871666151346961,0.30536663411559917,0.7961083285012038,-0.456387383077667,-0.8664018204098853,-0.20783489681917455,0.24061444232318752,0.9135426260989166,-0.5672514892827085,0.5556492847197525,-0.4920743434043444,-0.2666720537771501,-0.37720622954814687,-0.14354466534975674,0.7346562336087903,-0.5157462792344505,-0.27472549120960643,0.0769010425726957,0.8885613708423228,-0.5613453363512144,-0.3244171701879228,0.8719271422284773],"weights_hh":[-0.32019382093149296,0.08621115176801775,0.56051796457392,0.39170043989097336,-0.9187246130021209,-0.18011600928947202,-0.9034003641652575,-0.32737956549943936,0.8031222440854118,0.5759103886833878,0.5917044945680572,0.4782409537564505,-0.6201317448073436,0.2517611499637904,-0.5133616099219462,-0.29521987271908023,0.2830019981613465,-0.926634106275718,-0.16513775669171427,-0.6806815606752947,0.2543177794281035,-0.7813542186744951,0.9925915929194951,-0.46287593262160254,-0.14959479861989466,0.9169840017634006,-0.15563478008429943,-0.5290262438584314,-0.5612533937104525,-0.5432896454686511,0.5920590089067796,0.9844249233425257,-0.4487351721927091,-0.5554760445089844,0.4670606892460616,0.6473418265449531,0.4445483979716913,-0.3097174264759688,0.3438750268655133,-0.7406465767518631,-0.8924013514986711,0.6842502150853911,-0.49104256118928147,-0.9361186509017152,-0.7119562552194589,0.39952155626465036,-0.4158351279104815,0.9187773765307512,-0.4668239483586327,0.054844706122689546,0.434890516524558,0.30918189624388437,0.4796818004339012,-0.5856356053709855,-0.8989915488275209,0.6361263065902252,0.29752697070032696,0.9326141546913334,0.49272430242106147,-0.5526058598001089,-0.08119852189813259,0.13726257897609595,-0.8571512944019233,-0.428542323736385,-0.9352658642875649,0.7261939898832421,0.3047724376865215,-0.4252801955449501,-0.6634668075770278,0.27378618414770894,-0.3222815168492703,-0.5515570204623836,0.011687943018833247,0.9095917108198728,0.07080830186911835,-0.6356186604727345,0.10203737617204789,-0.27598342248743934,-0.8017660859238918,-0.18413055768435505,0.9919724419064981,-0.7617952994088488,-0.7210888304707157,0.47269987677780234,0.4490107296209196,0.8878634585487657,0.43926621609568905,-0.9493231719105906,-0.3681888795335877,-0.5998780156494761,-0.14393474374070014,-0.10171231530296976,-0.039967510087487446,0.5057779473028927,0.3089393700794867,-0.2727794071347778,0.008935716490759082,-0.5734311810017878,0.8288253967719714,-0.018276576304442793,-0.19331609078033485,0.8466280004065543,0.03086004237546014,-0.4439588857072003,-0.021174207166609005,-0.16854535036398932,0.09024352751445686,0.4906775946505826,0.2167102648560082,0.3182891317161549,-0.4191036919390796,-0.49060331746162333,-0.889361660319538,-0.8634987252878246,0.5057867267191751,0.04297729782368198,-0.328333480783487,0.4113598448101332,0.6064177190256475,0.9203878591703276,-0.6341947739010312,-0.3910147738446772,-0.12559096970458383,-0.33331199049587235,-0.15712971893372485,-0.3235601186119843,0.3522954946750605,0.09786794948801525,-0.576021604557811,-0.5527362934626778,0.7493212103661178,0.9590527362169401,-0.939789322263205,-0.8240831397015245,0.6593014554988728,-0.641111836344042,-0.36988304161322394,0.9538709705627244,0.5772365125147425,0.8332313699552356,0.5696544005233668,0.6633622197629343,0.5728913977855716,0.8388171172844192,0.34272602563914045,0.32634380725910694,-0.8110408219834673,-0.6497979688747224,0.8327744154796624,-0.22898370449113803,0.9492470125741166,-0.4095825753459108,-0.8953698273246675,-0.7209272185105389,-0.5545482100544512,0.12239855618508755,0.7128444011729986,-0.8881689435134736,-0.3511134140373373,0.1445430324517647,-0.2419340429174821,-0.826609785979993,0.6481904971073038,-0.5285332167373216,-0.5236294028065973,0.946919618083752,-0.09735547045615078,-0.053522231980323465,-0.026159424971314404,0.008020295601377958,0.4951286092183962,0.7905163442249732,0.49573295628283787,0.4946392053027453,-0.3271214071919053,-0.39380357569078517,0.24162963736633736,-0.18927619367789106,-0.0913200306318569,0.22314739946182405,-0.028730974962026368,0.5212050799786951,-0.4346647794977736,0.1286449837539878,0.9725130596529004,-0.26515989057528855,0.7283138220847427,-0.6403028874013093,-0.792750590119871,0.2947239749154229,0.9211381913278618,-0.23785897607967055,-0.8786920871646076,-0.8013979876555846,0.10359445166967607,-0.04316632503891782,-0.4702161613495661,-0.7802847838057918,0.25199185410740066,-0.15538896659587564,-0.3824919379528402,-0.5254367593382621,-0.37862095881348656,0.7913975073272692,0.4832288569559844,0.16429111986673606,-0.2922254676151357,0.30786237928366145,0.6099781390074741,0.2327314331693966,-0.7669631285472136,-0.2157862394611587,0.45077091004236247,-0.14891942908463962,-0.6041110927034199,-0.45927785122229237,-0.31576308554157095,0.75399147329352,-0.4364636880649069,0.7970000931126175,-0.03192099838790319,0.13769351108799244,-0.5523578283601056,0.5948374707045383,0.9724029630186335,0.8912953610329983,0.6925515790475263,-0.907645748079974,0.10993585783490967,0.8767543288636563,0.42629395819704663,0.924095424704894,-0.7856182796071574,-0.8110904251256459,-0.3229964065195241,-0.3416113637616278,-0.14731816790356222,0.7034044307018201,-0.8006251983573169,0.48956207948628894,-0.8486054867709376,-0.980944320246165,-0.39009389640794323,0.29658430254977164,-0.1847456557871645,0.45605399895750476,-0.21153624965367213,0.03655827207704987,-0.15813625085097627,-0.03196692810598112,-0.012458675951062315,-0.9799140447053372,-0.9981231301144526,-0.2059862675069688,-0.6377657792950169,0.3922611486757117],"weights_ho":[0.6182740696217808,0.3234815807597473,-0.28053337327257877,-0.7361722292123687,0.2479629798650942,0.9751101999321543,0.9722541929968194,0.7951435949228098,-0.7504197019746759,-0.9643799725777875,0.1455381390813637,0.20816976014022193,-0.3519311437518049,0.26364718242073604,-0.9062462409878977,0.7159345625866442,0.1945855989248555,0.7341975737448152,0.033224460130008904,-0.6402998648890641,-0.7380107161188629,-0.4982826995245264,0.9887718049150789,0.7349765562062385,0.7627212504198682,0.23229551709420693,-0.5638709371689299,0.43808313106277774,-0.5569963756250753,-0.41469730515010816,0.507806552444019,-0.26770884700382,0.16994726826641626,0.6877225914214038,0.30826994861944335,0.9031225716047875,0.15156983403354451,0.6887360808892173,-0.23255902312020948,-0.9101849801346871,0.1844601096744516,0.7551165796903843,0.48195062971048763,-0.8933793345652212,0.7765498735709231,0.749778185384933,-0.4035940087065577,0.28967142142729396,-0.652085563804085,0.06155373821405963,-0.8481839061322436,-0.8661015342045812,-0.645630542911666,-0.16762671720602218,-0.13240670270864885,0.11668123101005468,-0.0018389913847776107,-0.9276902100690141,0.8072220442988338,-0.2847728849413511,0.25167361444405323,-0.3922474593455447,-0.04807577271281649,-0.34708342245331303],"bias_h0":[0.6936196096703686,0.7525396409608238,0.8886738654019788,0.984337343676835,0.410036740639123,0.2823113785294775,-0.23033256156601256,0.5025304040843164,0.6516300005619233,-0.3010975007315444,0.6567949770187376,0.15740021603418142,0.0646873175379159,-0.59297376265608,-0.8268147995147359,0.19613028776747554],"bias_h1":[-0.29635613922759907,-0.44480263303384127,-0.6914088150329749,-0.9584449981788177,0.9695618839330957,0.5360557168112792,-0.8897685541176961,0.5933625515619985,-0.24463112539503262,-0.1706717629012402,-0.5893107308567505,0.09929481007910712,-0.8305663746206624,-0.5261523100398438,0.773920174995065,0.010099322862578752],"bias_o":[-0.23121610428339556,-0.7468385823566412,-0.2416045603515149,-0.04397405197992388]}