{"weights_ih":[0.02327263950696401,-0.9593309239860588,0.279482584835421,0.5436604371383118,0.31226034072182096,-0.4504301019704655,0.2289150977641765,0.6938889678972577,-0.14067628777284846,-0.7845947802316953,0.5973208769074771,0.5998091055733514,0.6455374711028243,0.6418371399998766,-0.4950284229117228,-0.3716208260324432,0.2517898980300788,0.017811017847300104,-0.06153790070451248,-0.7575652536470103,0.5344399014592385,0.4008093046666934,-0.505224233524955,0.6749788741315563,-0.5350247973223914,0.7677720518723481,-0.11500962375187473,0.421909500773034,0.795264171357446,-0.8377980579977673,0.13027748771281988,-0.22809383131343197,-0.3476554480937404,0.17154676669512514,-0.9010334013198049,-0.5093130863422846,-0.7088623792233875,-0.2299734702477636,0.5871859728386242,-0.4173090803142909,-0.09586170832006546,-0.19624839224113289,-0.3552595378176149,0.17910962699531496,0.5493468893131894,-0.24887589690094747,-0.5823658857844842,0.3319458649440459,-0.37490784527207266,-0.4502449482278652,-0.022447629926940715,-0.9883309363226656,0.6921599684418396,-0.8553063072898148,-0.6773736473432024,-0.9884979235923788,0.6898470512389234,0.2834087425786833,0.7248603036022512,0.38237378460128135,-0.5330926014132931,0.9790626542389049,0.9879352214715162,0.19560070175499167,0.534642000847044,-0.3011186684782423,-0.9798094630606369,-0.8604756813586767,-0.630037845965358,-0.8290918678075581,-0.6324568190086313,0.36475661325498177,0.0010668059876881575,0.20551201251424844,-0.9235027913252631,-0.2543780378490974,-0.4421236312077015,-0.4617038484918048,-0.09634128863366587,0.7873455039513331,0.6762802204742144,0.3466323205462334,-0.7254864396845884,-0.8834341125813776,-0.590756457900016,0.24185221372660903,0.9854988506183673,0.7828310265636751,0.7729936904546373,-0.41210194166410763,-0.6670338157274798,0.6503591717136681,-0.4865022115485078,0.7270035110842668,0.052442129161650364,-0.4216080896296688,-0.07879548699127237,0.9035443050896912,-0.574119928423799,-0.6158268962919917,-0.005460770110411461,0.18723512173799883,0.42958601155467324,-0.6879425023503176,-0.26368150008124247,0.6709289226842945,0.4317509835908335,0.5311096538813354,-0.07400916131205482,-0.30272647556444654,-0.6719497617521026,-0.020187201147865874,0.49085727822305447,-0.5462603558018091,0.030591771831679493,-0.42531571548007463,0.2355291236474526,-0.7061718897219236,0.9747975453800026,-0.049700724233901816,-0.5286501413927804,0.49448249330628924,0.03800236374383181,-0.06720398644580294,-0.1576068891921587,-0.9951554011850319,-0.07911270009920979,0.34947221233938164,-0.24228268085777827,0.6342757830932786,-0.1508833736777162,0.6472609306679631,-0.6590253527629302,-0.012824269857564685,0.21719570237736074,-0.8684238922485306,0.7496764358192738,-0.0694889612392926,0.48870424186858386,0.9083971975071552,0.6279086966001894,-0.43239628303726074,0.21089594283668345,-0.10710518593093665,-0.021516291485642824,0.7153035246022645,0.10990357398600237,0.26629422856037177,-0.8240738030426409,-0.1639033182243801,0.7840605916935346,-0.697194880513909,-0.05534309340145693,-0.19170947361983415,-0.911772579191682,-0.15158111782035766,0.38853264889006356,0.7476561165182132,-0.14872505821003457,0.9876132044044434,0.4454364151580934,-0.04213731114085251,-0.9337120546517734,-0.5206061887802862,-0.8879253863163639,0.7400809699235471,0.6436945576412609,-0.18396434433611253,0.9408522954628706,0.8208566385404117,0.09789353698489012,-0.5309456458654573,-0.6640506222536178,0.11997296730108098,-0.22198375495659062,-0.592256679091338,-0.5997786980241344,-0.11725893898290196,-0.3997072623903526,-0.5523563553746087,-0.655261101988678,0.30824756225288485,-0.7053234543607729,0.17894668684528447,0.7374396589288637,0.9014895933992952,0.896075133553196,-0.052066441333274094,-0.3354242424653102,0.41727565190942406,0.49088554694582975,0.25773360866553996,-0.6540020196939322,-0.6923927317881557,-0.6132511032838581,-0.5303300745607105,-0.540388648211769,0.5111093798597408,-0.07190043139898172,-0.32650462596569096,0.8214511255522836,0.1970246268657847,-0.1349097130190724,-0.6925248519979346,-0.47498499975896724,-0.28117241080120214,0.23223850512722932,0.6545714423166276,0.7061104409161876,0.049815255045343676,-0.48013268638196704,0.8423761454047363,-0.46761825741977847,0.3524225619687842,0.20444186360698957,0.3689344888445043,-0.30763307969249665,-0.2832800969312166,0.9548581901069204,-0.50127462785194,0.3941937178307713,-0.825075245112596,0.03888949534101194,0.992357422212246,0.37301396894554273,-0.926270437169523,-0.7078334149767598,-0.08167667151649605,0.24162501582440665,0.10481649513333013,-0.8226796685809816,0.9328388439803328,-0.9723299707826587,-0.5836781810263951,0.40920922412449023,0.43846452674021097,0.38144258025110656,-0.08118963210393915,-0.3026652379634527,0.7842905852094479,0.8425891868521727,-0.49864891308010506,-0.07243965257699281,-0.07386087612383352,-0.6432737916602771,0.37866995327623276,0.26557890821658026,-0.7657379221024003,0.062290094899753345,-0.8676352657846755,-0.6750954861067355,0.002689444557968379,-0.91707909342958,-0.35841936182126233,-0.6778573588938293,0.3407689516685717,0.3236699169023334,-0.5093853842732416,-0.0021870546762430276,0.18109321373337028,-0.9583422283516878,0.2549479064671645,-0.6906557681751724,0.3750809280394891,0.5560047314057204,-0.27835455928523745,0.8240693580116232,-0.7962408882529153,-0.20089693280437304,0.3976588824883507,0.9718573690132606,0.4312299176186791,-0.8428785980762536,0.4766240591830224,0.10081358526125661,0.5781588456879605,-0.8555535933999898,-0.37574597771233065,-0.9729401488454268,-0.6368223690545516,-0.8077234853762421,0.45318044716186834,0.790850248697033,0.8584688791317885,-0.07987945444003541,0.8316996393041698,0.4701784337649666,-0.5956144135869605,-0.8890128973818725,0.05820047441035925,0.5165940972624612,-0.29095882365704173,-0.11249755863435551,-0.9639801625342099,-0.06421691334409241,-0.4642187942760079,-0.7005989924805922,0.320835311609456,0.4785064536764183,0.4326681983621623,0.29770054167110915,0.25104300467750185,0.5828377689464195,-0.18857559224706755,0.5507456928582244,0.3953224351592015,-0.07216705527381184,-0.47372372904094906,-0.3790197351135738,0.6704100640481077,0.14624928800390347,0.4582431636490454,0.740376751985715,-0.6648211177475445,-0.7639075642459563,-0.8405806802490181,-0.5411248217339315,-0.6017642372471499,-0.22781145191032004,0.8280174392763799,-0.7227237222638374,-0.7742964391861886,0.7731299937701519,0.4617715393445361,0.0705075016393526,-0.989412039387086,0.5477564435041382,0.8154966296423962,0.8512644713511461,0.8540639968260211,-0.0894765694625741,0.515089194008806,0.6698727308094989,0.38801456074093044,-0.732084791224781,0.6745888393794908,0.25860413283861194,-0.3972149470044668,-0.9053145019890365,-0.941653057026903,0.5881065129372633,-0.3145933029238046,-0.4170691963820645,-0.4495762802084584,0.9826990090308092,0.3844766699398805,-0.4689556897096441,-0.6211951778550575,0.27340354749745877,-0.7963096280277846,-0.6259799202201646,0.7648052796936646,0.0684375549964158,0.9812136910334517,0.11781897534326413,-0.8677812760565937,0.8289398778852717,-0.3470006113639603,0.9236556809543497,0.5462757745675477,-0.9229913859160019,0.9090588255613823,-0.2172867252489601,0.420593059331142,0.5410291490673504,0.025999981415349982,0.47875282641421224,-0.6597073326856167,-0.42224442014818653,0.3252797012442761,-0.7383816602622062,0.6198542921640491,-0.6512650534338968,0.6095099718126467,0.7476344412855109,-0.7886925842116239,0.32512824732392875,0.8592273557905743,0.2764437340411734,0.03809182897074104,0.29149153454325316,-0.320754307798353,-0.6311871967625959,0.4732141563956864,-0.5610138787298995,-0.5130391895163875,0.7829889443984177,-0.7120723663028508,0.38056548183323424,0.9180577072793601,0.6368819137171291,0.9510487719377019,0.041228794354761344,0.550277020699502,0.7109812637450574,0.3712908836224933,-0.2483961819325653,0.3197450930957457,-0.8654901091549767,0.062031475618466336,-0.1301073051728232,-0.7349022603426325,-0.7117008941743159,-0.21620177778675664,0.06099041874772171,-0.20953253708089625,0.38585480159672714,0.4046154716348431,0.7891072492865936,0.2865154331866786,0.6911338365594628,-0.7785331135909555,0.667349638317591,-0.35825654757861636,0.36267024614458365,0.9577768833846072,-0.9008951174436619,-0.17202258984679686,-0.16777488482541503,0.6917244197263566,0.11879494272795665,-0.5972958969628543,-0.2530492114783489,-0.9869959026095729,0.9091744258049477,0.7013818236084897,-0.5291840270909685,0.9797246398473063,0.28371207352203864,-0.21316194302460167,-0.05494894171243825,0.2873643961840282,-0.6596145527024093,-0.9623270207259145,0.4919118470833639,0.5834140645837584,-0.15278018058579423,-0.9252074291186712,0.7005757959817585,-0.8702185856442621,0.3951662319892981,-0.4146979767000374,0.8064547764266972,-0.5790835759806026,-0.49467923264169156,0.22634613147781746,-0.12287621327366582,-0.33600381719975925],"weights_hh":[0.40205011819089376,-0.5442846673919188,-0.8655604786477087,-0.0469361705106246,-0.6284233375051871,0.551084985617629,-0.9279104401373985,-0.6644472858338111,0.1001439703448801,-0.23687710561313802,-0.6489013377689903,-0.2228871646338375,0.4642160268473443,0.12088408931343086,0.01939361297027742,-0.5950354044248383,-0.10112353572896837,0.25868892588212655,-0.42622046785566536,-0.6701537404047482,0.34078960152563864,0.95613997419976,0.391490513895679,-0.6432619346343165,-0.985333065820476,-0.5021741597489078,-0.9249348774158295,0.902029654831561,0.25162924649976715,-0.9719696093830938,0.1544647233486225,-0.5392840781968737,0.1671807462428494,0.020524019929872184,0.7321033913119761,0.2128939588339036,0.6940143745756935,-0.8767362827155456,-0.1306568314195058,0.7808689590282112,0.4031311762869887,-0.7761344123506249,0.3520225336823968,-0.5939839025941553,-0.8389819967690366,0.901336191690246,0.0899538566288467,0.7291122825837542,-0.4985123427586349,0.40062612731053204,-0.6625662950006217,-0.9008736077954467,0.3032092694598494,0.15838583888499103,0.2802800188714676,-0.6662092952250778,-0.7688638617692949,0.02230485971074425,-0.6231295737134606,0.9882869551833928,-0.8001624975794961,-0.6658310919401047,-0.3985912730960981,-0.776870502034479,-0.2962156614547773,-0.2800166346549937,0.4066430757652546,-0.9892244406092126,-0.7519724470380313,-0.8382323206776101,-0.6098596796346298,0.24803047869469985,0.4182064897896096,0.4028607350051656,0.2288926318299691,-0.04674769405664869,-0.6813767531185935,-0.533597629857806,0.30803423229115934,0.9465551869049567,0.9876917332425799,-0.037071508824301214,-0.7899661273389997,0.023344178148148043,-0.6529632756202597,-0.15151414685611875,0.18046230255069307,-0.5410319222466462,0.29579330769677914,0.056660799423786656,-0.39340024541974916,0.9828147394107773,0.9566762183371351,0.45661992459666,0.2591619940702412,0.7532887967786792,0.5412735909559863,-0.550402749507731,-0.6333605358375907,-0.9320956043876574,-0.05290282611212738,-0.75078207812898,-0.9724972859927661,-0.5542708511345398,0.5746529634068025,-0.6048717600871321,-0.5104274059253133,-0.7639221630737882,0.6408729907396784,-0.036039547695125185,0.08107350726014029,0.9447289473849196,-0.24969970878026682,0.860934921953111,0.9264552408093039,0.04572855205043869,-0.41260856625725006,-0.2939752068133876,0.33576091138947484,0.15759461634250593,-0.4608107819369125,-0.1430872038009341,-0.12759274540292043,0.9595362558015108,0.40301144985244797,0.5639825423329672,0.10441344490672333,0.08698973784521336,-0.6030975077983312,0.40555804284165187,0.8940271503903845,-0.1675014856079895,0.03166639832620799,-0.19241348884645526,-0.22197957744843966,0.7814739577405965,0.8697346251565707,0.7772528601839799,0.5992481219550696,0.14423365304776037,0.04010806690173996,0.6124251343118032,0.7929442621037683,-0.9370303178768657,0.9703639709913512,0.9867802699487673,0.03898373596956439,-0.45013116882664006,0.48551956422545994,0.43426479466044654,0.31312884294946786,0.20154370200701233,0.3664372808713068,0.7180341436623956,-0.3816224426713406,0.2421113907735477,0.7882822195663073,-0.5490016488824927,0.2412935926267772,-0.46975680298023614,-0.028704464075933966,-0.3191396435385587,0.20911094879785952,0.5361860290242482,-0.28411636259232864,0.6122112404804407,-0.07665345070674423,-0.3764012227909672,0.05557492233295869,-0.22947833513499805,-0.8858594241453288,-0.6249162853709587,-0.26057876483440134,-0.9735418194103658,-0.30584818253211643,0.3963747317805908,0.8326318893312852,-0.36801937197840084,0.6377166359387048,-0.25962489035052805,0.1737116984384235,-0.4562251817589926,-0.5226969305142375,-0.8241197994718832,-0.8995183192047729,-0.9546734541323136,0.585043973048754,0.44224123024545947,-0.49189717331629335,-0.07565740921190778,-0.16227926906567713,-0.9305153597696847,0.9995622877540102,-0.4824360868014803,0.45858956439914134,-0.16111227574566267,0.865057693225523,-0.835829494818823,0.9204187738542609,-0.6088597491837269,-0.5710937160674907,-0.653589840756835,-0.4851796278870504,-0.2600098619482165,-0.5093357038451514,0.35363128917853426,0.8143465459131072,0.8266994660272589,-0.18453921616254676,0.5083992621877949,-0.16997093953026,-0.2614070782040989,0.3039130413756801,-0.6367716475739169,-0.07034845363320064,-0.4034219730901589,-0.27307159701525285,-0.7634071321283711,0.5163939814949681,-0.5471010187638781,0.762357358492763,0.679975520253022,-0.2707490760183786,-0.05245715447197541,-0.4881526337583364,0.4505797248715413,0.9377272473427867,0.36914858149479346,0.13633892968320072,-0.4934993221828372,-0.4045669447428881,-0.7634751889503388,0.21722557945797383,0.7599343521949238,-0.04577707306357248,0.20132207818210035,-0.9515139876212615,-0.1487561466854408,-0.7173079258837503,0.36202245578012526,-0.2629969306881672,-0.7052802115410073,0.6406941870018135,-0.3953031536313305,0.6182513660489111,-0.6854152665219431,0.7471896766899009,0.5641574919944339,-0.5837316080814001,-0.32361588452512824,-0.6113007692991586,-0.2555749954749065,0.3911702451427208,-0.8816387256166585,-0.6202267263257837,-0.06132857209602438],"weights_ho":[0.013686026326164002,-0.15450281050427161,0.5644166760174965,0.6105457078931282,0.3371952377254952,-0.8122395242494107,-0.5671887293848838,-0.24819755145359435,-0.48355845095728656,0.5229536041082936,0.9517637499302796,0.05587949163091488,-0.9632229528573508,-0.16834283716078247,0.5370358950603835,-0.01801192901977733,-0.34097760250621834,0.797421971628316,0.14055397950413862,-0.3027810374099358,0.7854549146078986,-0.8122747136320223,-0.6167618294510755,-0.1111368019674066,-0.9431147919135214,-0.9070567809817687,0.35388965798988425,0.9876873376318656,0.9811469271783675,-0.49118806861998143,0.5574719188994441,-0.8506522902514873,-0.7985141629382442,-0.8482644415101721,-0.42921915861751403,0.9861364103342019,-0.03570634533161887,-0.16791447981216323,0.12074286130312784,-0.6733749886032521,0.6863697457746107,-0.785323948379308,-0.7458545622228814,0.7985980105535699,0.3049253501492759,0.7662612121894765,0.6742456510249268,0.568758161516892,0.12797612355285515,-0.8517050546327654,-0.5455597079081071,0.9857058735590227,0.6570957044645742,0.38408567238439995,0.45023510233481123,0.9129077196402366,-0.24835271999577513,0.8439034148992675,-0.9741833650102294,-0.29688237477459345,-0.8168881121208109,0.5988467426012518,-0.5002569579996705,0.37800016710680184],"bias_h0":[0.10982153360894786,-0.5987397978001006,0.9716891031088168,-0.9127133541275703,-0.8882277154336387,-0.4346472558682406,-0.4222902651839482,0.8371899030828478,0.5108625398654536,0.7624579205496953,0.6596910590440326,-0.6793085483441264,0.7983752815844876,-0.6353575291902718,0.3194996040123732,0.14135659577242832],"bias_h1":[0.13831798985384092,-0.5684731469814706,0.5821430549316517,-0.18928963484354533,-0.14796035789952788,-0.8042408816697955,-0.86643176370115,0.08276742829728123,-0.7555093410727425,0.7679886334054709,0.524100670540502,-0.8904185692254676,-0.7195234455852606,0.6238667163074452,-0.5495660784045122,-0.18393983233292266],"bias_o":[0.5880737103168325,0.40285718595402376,0.7946874076026256,0.5824464939456329]}