{"weights_ih":[-0.8887156348501066,0.1239735570506213,-0.3845255065117672,0.7499243957747126,0.856610390206817,-0.6696686757249017,-0.6983347142453102,-0.5050989575547589,0.0722060545854517,0.669059578601044,-0.10994667747145193,-0.9195535354372322,-0.5485887083459591,-0.5491423343082174,-0.2646984783034312,0.5893412731243537,-0.30734363690242517,0.43269799301424583,-0.8303065210356708,0.8521897531193843,-0.48499755633005814,-0.5556571386457771,0.7902789545613471,-0.3985140728448775,-0.36953024153675473,-0.5251281829007395,-0.14468924446149933,0.9207219966608544,0.07900614332928946,0.38123305318002276,-0.564578128020121,0.192467622735083,-0.8666831596229307,-0.5066423385631198,-0.33164797876893304,-0.0032670274432056168,0.17603325376485968,-0.4119197357508415,-0.11202811701632087,0.5496757264117658,-0.6277985775883603,-0.6507714839335823,0.17552220338198765,-0.6121618461056368,0.49459035877417823,-0.9452547446513615,0.42949679442539046,0.4166927099056055,-0.663168150298276,0.2741553165195809,-0.33938362391475074,0.1060239931509408,-0.3789214657319482,0.8052944165538707,-0.7965432965900192,-0.6028198699285785,-0.3720473287467001,-0.9204052654402091,-0.2208781111862299,0.6058604728426542,0.3997936099325199,0.3355732521165964,0.08871280425832184,0.9421728362172357,0.19980097278844844,0.6503954058223451,-0.6219266366395753,-0.5232974470857639,0.7540425829902739,0.891026951512295,0.3128230206110796,-0.6442756431458481,0.2019895362542108,0.3736227556995291,0.8937087349908828,0.6116642298484671,0.8516384499111453,0.46261976525458093,0.15590349816695825,-0.791684898457921,0.07595992853953737,-0.9063887400730397,0.8498882715091396,-0.09993629239614266,-0.48793477119934314,-0.09921996095086616,0.8946130134178367,-0.8503134050816268,-0.8734997904833857,-0.836696199008744,0.550024383928621,0.04451907269211719,-0.46324359550550986,-0.5667080011432026,-0.1640437894794582,0.19448486952296729,0.6224414504900846,0.06847678333435425,0.9434484283679647,-0.20668820328789517,0.7608048962574674,-0.7174742554429683,-0.44214137258031605,-0.1760684552333467,-0.8333060347251349,-0.40072444431196996,-0.6113265863051869,0.7524366025094613,0.044978571208842855,0.5966265392949104,-0.8505271782185344,-0.547340879695331,0.8575368273395259,0.7969246284140474,-0.5558531796449651,-0.8114556306445817,-0.785473811055851,0.8602391444667725,0.7227837754184796,0.048318793206167276,-0.12473585942815468,0.2819823263397925,0.5647769875142656,0.36929046117555075,0.8750430814407544,0.6089504533183756,-0.306456539224345,-0.387378123613056,-0.029988764532202783,-0.21796895836487384,-0.18633424407670685,0.8352203060985839,0.5804044553238854,0.5025693494971208,-0.6698404974497787,0.7293601706851021,0.46070472629466597,0.5917842844596517,-0.4879890522569825,0.02282396006475218,-0.5575907981436943,-0.15115190601904782,0.8056707829359322,0.3557114396486587,0.900657802096849,-0.36261266527500546,-0.07265437265114727,0.49786905389233116,-0.2195066698405339,-0.5166009832586791,-0.7541225908125877,-0.5705467826378605,0.2880807867952111,-0.0486292774389292,0.023685441174524646,-0.5009590199347467,0.1501521793993985,0.9868742789408393,0.6156054845714944,0.1784381977673577,0.9820381566812775,-0.8393115071030592,-0.4503094165987931,0.08380400008713917,-0.7647417173448601,-0.7448114647230164,-0.38124237577013065,-0.16025001875814326,-0.41173127090349704,-0.5556099774224912,0.11623756585936418,-0.19712295990062634,0.03090463254989828,-0.5012213817724309,-0.1766250297252323,0.050712773848983206,-0.6512017893282331,0.9147889717551723,0.6361451935229576,0.6914271558096996,0.9543785115486696,-0.12191510995407961,0.7226090276504469,0.022461345483046236,-0.1135468997675464,0.5760447159509465,-0.6942133480232895,0.04175180928206634,-0.39055181724990295,-0.00377723153319498,-0.5027226962632889,-0.0884014994618072,0.11932126558892064,0.4923253936126726,-0.9602557969136516,0.7635355427043,0.07838746052195367,-0.12632651420710128,-0.8680417014706665,0.6314925027947416,0.5142250014406986,-0.22390256063184633,-0.8335976056201828,0.7358871759404502,-0.20047191575990775,0.9305566899986784,0.3176859508722705,0.8305232000878398,0.4585178650456503,-0.8815050681704679,-0.7369585360096416,-0.4532229842537243,0.6111249278356421,-0.9189963155435428,-0.4917222203528926,0.6970492113767042,-0.8936807822549582,-0.8690317306343431,-0.5109105214849383,0.14628877415752584,0.5911129224624663,-0.8300320134273764,0.7206223808915353,0.9346168302912465,0.691382747223273,0.8809592457227675,0.4212059117668474,0.2785885235236423,-0.7159319421887451,0.892652688391625,0.5492976643770662,0.2272776635969127,-0.5977079823770826,-0.9736656043043239,0.6165576776555055,0.8607729181431454,-0.7615503537748292,0.26285967122447595,-0.10803324031194061,-0.9908378306216143,-0.5038555859613225,-0.3669813244895581,0.14298271143921748,-0.3898008060962681,0.9486029823004323,0.7270257745727049,0.262507435590249,-0.9018668075583525,-0.6057237348407833,0.07915412406794964,-0.18642596688745683,0.9173062769700144,0.7891108852064403,-0.5543536095446169,-0.5185411303743563,-0.9284006428077292,0.2088562892645227,0.7299428192249,0.07159419291983715,0.8125150937503998,-0.12466360092323181,-0.433420201766221,0.05071680041134763,-0.6038415108418431,0.5696062245824265,0.9193647402206648,-0.08214792895236389,-0.4176776151821662,-0.14927990552405168,-0.7960955696254326,0.805863659558621,0.5268166222705346,-0.7214692432752208,-0.33684312408357764,0.04635388183120703,0.5701933653842508,-0.7410525639849244,0.06016053597774129,-0.4237693885902536,0.699140692625225,-0.1722102563377279,0.85286190328,0.31423317306802856,0.6418700831259985,0.3766254028802014,0.8726479118930943,0.9154733339348178,-0.36128695573120506,-0.843580438408073,0.8288889724358088,0.29165181220409386,0.9455368182132871,-0.6621341678552539,-0.8832641771449323,-0.7805351115934702,0.1524750349447559,0.8530130213926446,-0.18485177165897348,0.24815901309028288,0.47142142085445404,-0.3643656145673446,-0.4585110260505374,-0.0891227485575834,0.5187120011157142,-0.412922024002111,0.2313792570712263,0.62043641196701,-0.5419839684817254,0.04947368052455681,0.14952943139361685,0.49758189921449447,0.565479798741553,0.5682439198873042,-0.31778535356694215,-0.17964472985727786,-0.7350792029796223,-0.9738179565036,0.8650584547820375,-0.30981149908985794,0.027626766639117672,0.5250687027432741,0.3944061997329449,0.6020861431943183,0.18118455558423574,0.7198378396926117,0.728589317110754,-0.08665064722548643,-0.6151149808349292,-0.590500209515944,-0.5461007174365269,-0.5390745748677812,-0.9124697855924389,-0.20960192120599808,0.10244873424581202,0.871214678326709,-0.8047591181768152,-0.5081713897383278,0.05542384498744757,0.13977131081025607,-0.65784016082804,0.9226853605175609,-0.6648927107673741,0.18386201286943304,0.7821285870986847,0.23733926278049333,0.08737505691335246,-0.6317228972407734,0.7006019507353409,-0.7419454166208854,0.22734576778508075,0.46414834787221104,0.12659303950496748,-0.8149835276554533,0.02309941229601664,0.35951362072641,-0.1835538079327057,0.29510369622604404,0.43794207294456355,0.3660459447418276,-0.73722106829672,-0.1673288485941029,0.8720537648364886,0.8970906040274518,0.2785809322468118,-0.5858811280638587,0.2771053203722389,0.7250640768001422,-0.5362720928963016,0.6291022484590081,0.8951014649330638,0.909042726062169,-0.3841977080118437,0.9399439025828509,-0.26587799705130877,0.41900693668591305,0.43429037484394106,-0.5571966647879363,0.2932559435042077,-0.7552361111491133,-0.15337842584104644,-0.4568038244039223,-0.8111122885924162,0.19041135643354146,-0.27709225970649976,0.6415531759549615,-0.49888851596260464,-0.6000457431386088,-0.8740173402503666,-0.47736525810203867,0.4728564380040965,-0.009414768797662454,-0.7486351778760105,-0.4411010391412251,-0.31417709214686784,-0.9123651951410794,0.7224254430654133,0.5515915351351108,0.9471244080348145,-0.16410307052701456,-0.4478340186793508,-0.20200889809013,-0.43648198859332354,-0.763354248372488,0.5774541972942295,-0.2955885948390513,-0.4198793452330425,-0.882182774237076,-0.827955334608607,0.6808219025526656,0.04682182358174525,-0.9438621375866425,-0.9879256374731071,0.7034556551166953,0.9195823601818713,-0.49436104034284356,-0.36479805604116367,0.7843046805398044,-0.8614572585501714,0.8696587796282835,-0.5369348177898676,0.39220795928957974,0.0652337154929441,0.3403181735449161,-0.6591903800109471,-0.25390172210275486,-0.1391059016431586,-0.23098874312866213,-0.7112680549491084,-0.030504660856451205,0.5544348750612387,-0.4454389348811343,-0.7080431797352458,0.23513779114019906,0.3163209821172088,0.5996723626416502,-0.11876717821505833,0.18956593236765018,0.96123882585056,0.624171665725419,-0.6094376313821623,-0.969783235294678,-0.03880415886287669,-0.6959898988410198,-0.9099326995697454,-0.11607660978663903,0.20804097691093104,0.012142025150235325,0.5208277671467838],"weights_hh":[-0.21775601666273303,0.1247836139108136,-0.8379761408745727,-0.6223945876508012,0.664363177850084,0.3037641145964709,-0.16680019803291923,-0.5650078152777664,-0.746962371820934,0.15267073893396232,0.3786436577175414,0.2488758174156751,0.13191198798313586,0.3220641861982041,0.4050222576848592,-0.2448212094938922,0.8942822017036689,-0.3400718524032862,0.16659248408242266,-0.9200359427310967,0.7740585228617212,-0.4519133807801221,0.6802863141508502,0.8911223234278418,-0.880349765047937,-0.09407787029916514,0.5509944866384278,0.05820197213377254,-0.8321735377808275,-0.3542440735458374,-0.29677909266364644,0.4336888149062543,0.8605472519240358,0.595474741320476,-0.4209251717934863,-0.07522373740409183,0.47635467693198885,-0.9160735035070853,0.7537945624132012,-0.8358054014978988,0.623794217087785,-0.016203349376418208,0.12272189154361568,-0.9402623975824995,0.25537180087633615,-0.4901403546077916,0.299696385693758,0.5835119173044832,-0.3390421734887583,-0.9591444809257033,-0.33415052902112885,0.1423395909346472,-0.545050811701699,0.9182753270666377,0.2527470402613754,-0.21048647790114527,0.8867007047613693,0.16014452171203564,0.3535442295274114,-0.4068839587724771,-0.08298004081069932,0.4283287605583661,-0.9871392980112113,-0.46746761803773307,-0.2557033142861467,-0.9845352691024267,-0.6188668752980924,0.22974895706173237,0.03679386108644134,0.206048575835444,-0.3990197165786473,-0.785997310183371,-0.9350734874206406,0.5238658770239066,-0.6055738399046158,0.45542300961249893,-0.0007638276748043182,0.708294596702419,0.8918663236289879,0.1239228306083211,-0.5174287608180583,0.2649573490174477,0.8647906239604439,0.5494440317279583,-0.032441559203722825,-0.23258105414506947,0.5771812363569839,-0.011668008665041585,-0.7187607631994724,-0.033257810249668784,-0.6891434545834378,0.304845470275642,-0.2094405832470383,0.7772403524148521,-0.18516022678331434,-0.7409182031214312,0.14258597243190851,-0.7782155197371601,0.6568872399024654,-0.34650302381878073,-0.4172112200110414,-0.9298912329969569,-0.8777816121031172,-0.9661915439000179,0.8046082709906681,0.8905771400703646,-0.5541906542163066,0.07810147739175921,0.5480525747615781,-0.4473250530849564,-0.8078347254767329,-0.8333304411113247,0.015253679283481647,0.25247316034937417,0.1298215579218731,0.8071043278692804,0.46130408646008636,0.5143279514660666,-0.006077966318522421,0.9197482334958211,0.08426405499313239,-0.9490468537945693,-0.2952103239980639,0.9459206711346089,0.25572396881754833,-0.14556155553449535,0.47085189407137484,-0.5411271419861636,-0.7660556497966649,-0.02363554158933656,0.2844063547494571,-0.027163005125296458,-0.7213263523797155,-0.5326640220110752,0.2720914473843723,0.4805344377227554,-0.29426123334418675,-0.7408522135003288,0.688167087276707,0.9853950703245975,0.5056760867076382,-0.5586930249539805,0.8042016495245443,-0.6066528819155923,0.41292601092596826,0.46409366137587127,0.3505383033076652,0.09952464881082834,-0.23194354932373074,-0.11394496923485864,0.28287173516151465,-0.283814343245538,0.8220643466968103,0.049828348945084144,-0.34943240332814973,-0.7356175215492542,0.6598378452976763,0.7561993282903579,-0.4837908453217057,0.44979992829780135,0.8302766527153966,0.5344446492118831,-0.5604194492588623,0.8991535202938505,-0.7329257389036383,0.24714152508779175,0.5863379847476589,-0.9477473040085596,-0.1654824576979752,0.038202563153305835,-0.546675706039566,0.16060124070748882,-0.5213507599331175,-0.836224927493491,-0.3469973441047389,0.360683760483568,0.4412055256005345,-0.47296663609159983,-0.8062573652382006,-0.8514913127905812,0.03562364212524716,0.9519813145967415,-0.9180552751230906,-0.6766020118317211,0.3295320690436494,-0.0068176394629866355,-0.7003910622114984,0.22193325063161362,0.374323229646359,-0.6846049563912382,-0.4878866970840272,-0.7906311344961887,-0.44294607821443144,-0.3429825846243548,-0.9257111808370269,0.6826496779337607,-0.14565652615734193,-0.31375739417187365,0.3384330761672796,0.07621333510765727,-0.17958603845034826,0.5658745256545508,0.6200425553092783,0.23914153112216363,0.6328919216226636,-0.9470657545667374,-0.4191619926797123,0.23907663647523347,0.8518541123552257,0.7597527886771391,-0.6984701045793011,-0.28031334657927554,0.05909624868784791,-0.6324828151028881,0.5599916357365757,-0.9901204932334804,0.35424609278219554,0.3193015840180118,0.9164850136012985,0.6228001654836388,0.9537709402917403,-0.1327572225130884,-0.9690854378664837,0.9785953395087996,0.4941336725382799,-0.16005879465588535,0.7516402372850239,-0.28366958850764834,-0.265406547257923,-0.012337582594914354,0.7298421739800853,0.5555884449285644,-0.9462412883913971,-0.01205577958342019,0.41180662093609266,0.7786604256232079,-0.3387105546073501,-0.16321496244434286,0.35686136234236976,-0.4819533795874338,-0.8565836936544793,0.6969425541614096,0.8267499228285144,-0.7834143933683124,-0.7759468696429277,0.44683965048568797,0.45177395286517386,-0.6290634201335816,-0.7872374196120997,0.28275620635640886,0.9106594592994517,-0.31611604218958234,-0.9160585250827402,0.05142936182928759,0.24449612296107048,-0.7784083547782106],"weights_ho":[-0.5571133969618716,0.5628628348467224,0.5612174082695507,0.021234762777244676,0.2124529019283503,0.8265341931477852,-0.30136749811474295,0.953062027620762,0.9708261962306366,0.24511608063182533,-0.46270182676560023,-0.18684864825016434,0.002390483428474477,-0.33351610057183123,-0.4954915666264956,0.8412924218203377,0.6582231385930881,-0.9959093976910771,-0.44686239409915074,0.006460025009520587,0.8896699216816935,-0.48665687077310027,-0.6621005915452822,0.7411917044843115,0.34411776647784476,-0.44827676599879895,-0.9927575677106171,0.520452594910781,-0.3353834834103664,0.1054433423887855,0.3966184875487442,-0.4762066189186611,-0.23233009929148762,-0.492143795675696,0.37876497565755174,-0.9667912965246566,-0.16227302242505792,0.5976234876962863,-0.29536735963334504,-0.23678949806153682,0.052875105774230935,0.0610558777315473,-0.03166660981353764,0.6634471675790388,0.9274265685952681,0.9923807700429803,-0.8717995037049011,-0.2035496163173307,0.2735342509427614,0.9056547575107561,-0.9680494382726628,-0.5924833883070919,0.20410019056064366,0.3436495126034038,0.2934586752608064,0.9177342850584671,0.29735762557593404,0.7330851197498902,-0.9255639241473852,-0.5817340940038525,-0.9634530987129457,0.7303091863809368,-0.8784867584618998,-0.19617393446649944],"bias_h0":[0.6435188770182849,-0.8888712586113694,-0.7854214608278158,0.7017044769265584,-0.44882165116983086,-0.8880752445702038,0.21966615824933555,0.36206277223628325,0.30985310269213784,-0.688764765152174,0.2911922911182865,-0.4182263651690281,0.2675608238338405,-0.5990921430252023,0.6213316802752225,-0.13952082818125833],"bias_h1":[0.2765439250299875,-0.8207090291565686,-0.9907378326719185,0.4672277847350619,-0.8192076406161746,-0.7500056890511955,-0.783280406348891,0.40133630433464407,-0.21722792317026007,-0.5519980650478569,0.5502175494327206,-0.22529999666427125,0.18213042413997704,-0.009773269156031494,-0.06218793420802338,0.2940700363344675],"bias_o":[0.13850233160556735,0.606643700494639,0.7307972331529482,0.3339840177715554]}