{"weights_ih":[0.19198983471922837,0.1239735570506213,0.42285661004381137,-0.8393797601053916,0.856610390206817,-0.4504301019704655,-0.6983347142453102,0.6938889678972577,-0.14067628777284846,0.002283781576599031,-0.4151333099202539,-0.2850329635457476,-0.5485887083459591,0.6418371399998766,0.31959084036306207,0.09944898898708021,-0.8999674716569332,0.017811017847300104,-0.8303065210356708,0.23807946794765877,0.004168428070468355,-0.5556571386457771,0.2624375087052344,-0.2155239912687663,-0.36953024153675473,0.7677720518723481,-0.14468924446149933,0.5275260436677156,0.02018891062083239,-0.8377980579977673,-0.9084631151081024,0.6544954420425635,-0.3476554480937404,0.17154676669512514,-0.9010334013198049,0.38912017065895377,0.5334522845396827,-0.4081061497514451,-0.11202811701632087,-0.4173090803142909,0.10175167618132086,0.9189637098034471,-0.16018640046017274,-0.6121618461056368,0.5493468893131894,-0.9452547446513615,0.9300638611785113,0.3319458649440459,0.1653565190650217,-0.4502449482278652,-0.33938362391475074,0.1060239931509408,0.6921599684418396,-0.4175902341603497,-0.7965432965900192,-0.9884979235923788,0.6898470512389234,0.2834087425786833,-0.2208781111862299,0.6058604728426542,-0.8407778976487017,0.3355732521165964,0.9879352214715162,0.2247540261308636,0.534642000847044,-0.3011186684782423,0.6328243820086437,-0.5730393825689017,-0.630037845965358,0.1887236640154677,-0.6324568190086313,-0.6442756431458481,-0.9255677710946097,0.3736227556995291,-0.429304059616874,-0.15909247590127418,0.8617030627235744,0.6953055065773854,-0.39272118332003103,-0.5085513434889786,0.9700943250417497,0.3466323205462334,0.07396474399881359,-0.09993629239614266,0.45414137876063165,-0.2041931842668574,-0.7617525476793661,0.7828310265636751,-0.7035960179740048,-0.8453309068935997,-0.6670338157274798,0.6503591717136681,-0.46324359550550986,0.7270035110842668,0.12246705478830688,0.6708287408866438,0.3949734793349813,0.06847678333435425,-0.608880247708206,0.4959141699926699,-0.9785642213326919,0.5638843943625804,0.21178836189365624,-0.1760684552333467,-0.8333060347251349,-0.5814952831793152,-0.6113265863051869,0.5699495941131414,0.7750039452624764,-0.29423859822373766,-0.6719497617521026,-0.547340879695331,0.8575368273395259,0.7969246284140474,-0.8202120342593038,-0.5994358457281781,0.2355291236474526,-0.3120431715477876,0.9747975453800026,-0.049700724233901816,0.25670176949886714,0.49448249330628924,0.5647769875142656,-0.8111999217190351,-0.1576068891921587,-0.3207251460835594,0.6295096047297724,0.5791229968511595,-0.24228268085777827,-0.21796895836487384,-0.18633424407670685,0.8352203060985839,-0.6590253527629302,-0.10091187939805102,0.4558435427710634,0.7293601706851021,-0.2888084362356682,0.27732947131363295,-0.4879890522569825,-0.9069327708761963,-0.5575907981436943,-0.43239628303726074,-0.22392895468726626,0.5886261421943124,0.7510153502324699,0.7153035246022645,0.10990357398600237,0.26629422856037177,-0.8240738030426409,-0.5509840926502496,-0.24925268312846516,-0.6473753428090105,-0.05534309340145693,-0.19170947361983415,-0.609782121756401,-0.9742504169588022,0.1501521793993985,0.8233080728943107,-0.14872505821003457,0.1784381977673577,0.9820381566812775,-0.3767346089458279,-0.9337120546517734,0.7679288852481174,-0.04904899733401624,0.7400809699235471,0.6436945576412609,-0.4556309751955345,0.9408522954628706,0.8922485385462648,0.08830610407698125,-0.19712295990062634,0.03090463254989828,-0.2602427441980171,-0.1766250297252323,0.050712773848983206,-0.6512017893282331,0.11657631276217373,0.291360190115759,0.180803045680632,-0.655261101988678,-0.1651311430830047,-0.019819644562925953,-0.49715163297252785,0.7374396589288637,0.5760447159509465,0.896075133553196,0.04175180928206634,-0.39055181724990295,-0.00377723153319498,-0.5027226962632889,-0.8045674218064911,0.41515868611995255,-0.6923927317881557,0.7946760661816907,-0.10791102615259063,0.07838746052195367,0.36192661283226935,-0.8680417014706665,-0.7003017268826832,-0.7190990310841607,0.926178282960987,-0.8335976056201828,-0.5593132289187732,-0.47498499975896724,-0.28117241080120214,0.23223850512722932,-0.8117497879611315,0.7061104409161876,-0.8815050681704679,-0.7369585360096416,-0.4532229842537243,-0.46761825741977847,-0.9189963155435428,-0.4917222203528926,0.4883892832873846,-0.30763307969249665,-0.03843706733665386,0.9548581901069204,-0.50127462785194,0.5911129224624663,-0.6378873642457228,0.03888949534101194,0.6313528661558194,0.37301396894554273,-0.926270437169523,0.4212059117668474,-0.08167667151649605,0.11679711668759718,0.892652688391625,-0.8226796685809816,0.46295144830437485,-0.9723299707826587,-0.6948209052416772,0.9930639672424741,0.43846452674021097,-0.9729044690287139,0.7598306933664785,-0.3026652379634527,-0.9908378306216143,0.08016532592036141,-0.49864891308010506,-0.07243965257699281,0.1900845548659238,0.9486029823004323,-0.6370740366797698,0.262507435590249,-0.24687333657772825,0.5422066194561741,-0.8676352657846755,-0.18642596688745683,0.14920070614735748,0.3806368445248267,-0.47414183037206925,-0.5945266188586882,-0.1599142997781855,0.2088562892645227,0.7299428192249,0.11377501656316724,-0.6446152092172754,0.15670755996057362,-0.433420201766221,-0.7737788429092056,0.3750809280394891,0.5696062245824265,0.9193647402206648,-0.08214792895236389,-0.4176776151821662,0.25468354832007645,0.3976588824883507,-0.6549406131757476,0.4312299176186791,-0.8428785980762536,0.4766240591830224,0.04635388183120703,0.5781588456879605,-0.3989445942543386,-0.37574597771233065,-0.29139769151006933,0.699140692625225,-0.1722102563377279,0.85286190328,0.31423317306802856,0.6418700831259985,-0.07987945444003541,0.43599727342666883,0.4701784337649666,-0.5956144135869605,-0.843580438408073,-0.6427952804525268,0.5165940972624612,0.4686088602578711,-0.6621341678552539,-0.9639801625342099,0.7739344136922486,-0.4642187942760079,-0.7417217885155687,0.35671037391494376,0.24815901309028288,0.6185699823202051,0.29770054167110915,-0.6974117130592101,0.3117904178911908,0.5187120011157142,-0.412922024002111,0.3953224351592015,0.0941447502233046,-0.47372372904094906,-0.3288010329896973,0.6704100640481077,0.4518153779537739,0.565479798741553,-0.9565193860748302,-0.6648211177475445,-0.17964472985727786,-0.8405806802490181,-0.9738179565036,-0.4854496332548106,-0.30981149908985794,0.027626766639117672,-0.7227237222638374,0.9928687611319351,0.7731299937701519,0.4617715393445361,0.7198378396926117,0.9521072558113846,-0.08665064722548643,-0.6151149808349292,0.04969563013561107,0.22030158612806527,-0.0894765694625741,-0.08788390310121885,-0.52144122900097,0.16166751759625586,0.871214678326709,-0.8047591181768152,-0.5081713897383278,0.662316235868414,0.13977131081025607,0.18478112351832943,0.5881065129372633,-0.7154579289077634,0.7024533816523701,-0.9763218153121518,0.833346362279187,0.3844766699398805,-0.6317228972407734,-0.5575697086488867,-0.9218474383646842,0.22734576778508075,-0.9091912213933777,-0.25969063723273766,0.8977764283305933,0.02309941229601664,-0.6744770827671385,-0.8862504613740825,-0.11862793996621446,-0.5152008643889903,-0.28582248454194126,0.5462757745675477,-0.9229913859160019,0.9090588255613823,-0.2411774025211415,0.2785809322468118,0.15313391220138284,-0.5370266434055877,-0.07172788534099217,-0.5610108693240918,0.6291022484590081,0.8491413137829031,0.909042726062169,-0.19895534143035354,0.9399439025828509,-0.6550122843454809,0.8752597431126881,-0.7886925842116239,-0.5571966647879363,0.8592273557905743,0.23314591009337016,-0.14850124141491272,-0.758087524282393,-0.320754307798353,0.19041135643354146,0.5476342114583503,-0.5610138787298995,0.8077965420674635,-0.40557116860254383,0.45908641615123913,0.38056548183323424,0.4728564380040965,-0.009414768797662454,-0.7486351778760105,0.5232211464771139,-0.6218899696150977,-0.9123651951410794,-0.9414106753878908,0.6134506236349364,0.3197450930957457,-0.16410307052701456,-0.08017361917766896,0.6748656719664836,-0.43648198859332354,-0.7117008941743159,0.47887471753347866,0.06099041874772171,-0.4198793452330425,0.47755825006919017,0.9999229833983985,0.6808219025526656,0.8256667083515836,0.6911338365594628,-0.9879256374731071,0.7034556551166953,0.36529123086701243,0.36267024614458365,0.9577768833846072,0.7843046805398044,-0.8614572585501714,0.8696587796282835,-0.25033746255278033,0.9348375408313638,-0.5972958969628543,-0.2530492114783489,-0.9869959026095729,0.9267384620250749,0.6440783744372467,-0.08398891029503375,-0.7112680549491084,0.41366028277228173,0.5544348750612387,-0.03284881767111281,-0.3866042722336893,-0.6596145527024093,0.3163209821172088,0.4919118470833639,0.5834140645837584,0.18956593236765018,0.10670192991279848,0.7005757959817585,-0.8702185856442621,-0.969783235294678,-0.7506738005541551,-0.5591660667208409,-0.5790835759806026,-0.11607660978663903,0.20804097691093104,0.012142025150235325,0.47559768856207607],"weights_hh":[-0.21775601666273303,-0.5442846673919188,-0.8655604786477087,-0.6223945876508012,-0.6284233375051871,0.551084985617629,-0.16680019803291923,-0.6644472858338111,0.18218268879344834,0.1765081955306571,-0.6489013377689903,-0.2228871646338375,0.4642160268473443,0.6466731251038684,-0.5298432164970666,-0.2448212094938922,-0.22803267493646495,0.25868892588212655,-0.42622046785566536,0.3211635372698891,0.7740585228617212,-0.4519133807801221,0.391490513895679,0.9265343649093869,-0.880349765047937,-0.5021741597489078,0.5509944866384278,0.902029654831561,-0.2913877504746014,0.2496447561015438,-0.29677909266364644,0.4336888149062543,0.33628068260001887,0.1659389573187291,-0.4209251717934863,0.2128939588339036,0.6940143745756935,0.38974777841946806,-0.08413427928566053,0.7808689590282112,0.623794217087785,-0.7761344123506249,0.3520225336823968,-0.9402623975824995,-0.5615071833344087,0.9183272303641024,0.0899538566288467,-0.7557839255268819,-0.3390421734887583,0.40062612731053204,0.041618315719323506,-0.0817036515715972,0.3032092694598494,-0.654635135903783,0.2802800188714676,-0.6662092952250778,-0.7688638617692949,0.6229313522806244,0.34516056890464397,-0.4068839587724771,-0.9441246248554678,-0.6658310919401047,-0.9871392980112113,-0.776870502034479,0.06910188126847827,-0.061098033131142815,0.4066430757652546,0.004001925732818101,0.03679386108644134,-0.6290371447121983,-0.3990197165786473,-0.5482168368699156,0.4182064897896096,0.9874973156592697,0.2288926318299691,0.7380224310398276,-0.0007638276748043182,-0.533597629857806,-0.4277698577984119,0.17999124366279107,-0.8508447992380628,-0.037071508824301214,-0.7899661273389997,0.023344178148148043,0.11809606409035811,0.18936073102739392,-0.40084856020515636,-0.5410319222466462,0.29579330769677914,-0.033257810249668784,-0.1864016523582992,0.9828147394107773,0.16681173662532278,0.7772403524148521,-0.18516022678331434,-0.6074051463672472,0.5412735909559863,-0.7782155197371601,0.1451491030999732,0.38773544714047126,0.8068157833202576,0.019151027493006678,-0.9724972859927661,-0.9661915439000179,0.8046082709906681,-0.6048717600871321,-0.1583687986805622,0.07810147739175921,-0.5445287794651648,-0.036039547695125185,-0.8078347254767329,-0.8333304411113247,-0.24969970878026682,0.25247316034937417,-0.7276985408701817,-0.7518029143400169,-0.41260856625725006,0.2432926009584111,-0.3768658650737726,-0.8613264523779756,0.08426405499313239,-0.17051895293027775,0.3285071720233037,0.9459206711346089,0.021671361032823855,0.5639825423329672,0.47085189407137484,0.7260534796197289,-0.7660556497966649,0.7249178988874481,0.8940271503903845,-0.1664306057433642,0.03166639832620799,-0.19241348884645526,0.2720914473843723,-0.2036040371634238,-0.29426123334418675,-0.7408522135003288,0.688167087276707,0.11849687279844856,-0.8105129974050909,0.6124251343118032,0.6134767416763947,-0.6066528819155923,0.9703639709913512,0.46409366137587127,0.03898373596956439,0.8718580176994533,-0.8963404320301165,-0.11394496923485864,0.28287173516151465,-0.283814343245538,0.3664372808713068,-0.19192938067514542,-0.34943240332814973,0.6046495089552455,0.6598378452976763,0.44517939554564046,0.05169865640558147,0.5493050357894789,-0.028704464075933966,-0.3191396435385587,0.20911094879785952,-0.6012386954300175,0.9469472240811725,0.22023881141317792,0.5863379847476589,-0.9477473040085596,-0.03992928133345486,0.7762254157602424,-0.3157926194439822,0.16060124070748882,-0.5213507599331175,-0.9735418194103658,-0.30584818253211643,0.360683760483568,0.8326318893312852,0.9802984559741643,-0.1027378146133866,-0.8514913127905812,0.1737116984384235,0.17441569316424843,0.5895873539614604,0.6967130135990725,0.3295320690436494,-0.9492918061634028,0.585043973048754,0.22193325063161362,-0.4265348005703431,-0.6846049563912382,-0.5188069052501443,-0.8191633271130299,0.946331686586311,0.8205181707041882,0.45858956439914134,0.3580539623466916,-0.14565652615734193,-0.31375739417187365,0.9204187738542609,0.7291190400151522,-0.991678229338852,0.5144393661311661,0.0665020989099181,0.23914153112216363,0.6328919216226636,0.35363128917853426,-0.4191619926797123,-0.2971167561521113,-0.18453921616254676,0.7597527886771391,-0.6984701045793011,-0.2614070782040989,-0.6127295564264417,-0.8058723280937417,-0.32877357920527017,-0.4034219730901589,-0.8465910902167442,-0.562602166127774,0.5163939814949681,-0.6158611935417759,0.9537709402917403,0.6541567492251599,-0.7733540214822674,0.9785953395087996,0.4941336725382799,0.4022487587181989,0.9377272473427867,0.36914858149479346,0.13633892968320072,-0.012337582594914354,0.7298421739800853,0.8661359882379582,-0.9462412883913971,0.4107995276791925,-0.805160319238365,0.20132207818210035,-0.8256702090366816,-0.1487561466854408,-0.29698663248811674,-0.4819533795874338,0.2609622700867613,-0.21989641248431058,0.8267499228285144,-0.7834143933683124,0.40213268551713566,0.44683965048568797,0.7471896766899009,0.10410699484533148,-0.9234213287452366,-0.5746368705904816,0.9106594592994517,-0.2555749954749065,0.3267229710746571,-0.8964379096521546,0.7375607471693593,0.26333126706853305],"weights_ho":[0.013686026326164002,0.6374477494925024,0.5612174082695507,0.6105457078931282,0.2124529019283503,0.7422660123935598,-0.30136749811474295,-0.24819755145359435,-0.48355845095728656,0.733161034101403,0.9517637499302796,0.5720300646172778,0.002390483428474477,-0.33351610057183123,-0.4954915666264956,0.5848600987745132,-0.34097760250621834,0.6882846892732377,0.5917716210472943,0.43103568689615157,-0.5780770350592925,-0.4588585120264097,-0.6167618294510755,0.853755107391049,-0.2670299396367688,0.6201856417247922,-0.9927575677106171,0.520452594910781,0.5406460952856056,0.1054433423887855,0.4850742332283886,-0.2631501082868992,-0.9125117744317925,-0.492143795675696,0.7614782696820397,-0.9667912965246566,-0.16227302242505792,0.5976234876962863,0.4058490131978183,-0.6557258330323124,0.6863697457746107,-0.8108974990637778,0.585554457917357,-0.6288303718461472,-0.9007229615231642,-0.27395288424819486,0.4072455536045565,-0.2035496163173307,0.12797612355285515,-0.02785411768784818,0.7748095409679454,-0.5924833883070919,0.6570957044645742,0.8974389039832347,0.45023510233481123,-0.20209309581142176,0.29735762557593404,0.8439034148992675,0.4989868537364086,0.9813319285185906,-0.8168881121208109,0.7303091863809368,-0.5002569579996705,-0.09347848567360684],"bias_h0":[0.3916780372606121,-0.22547378480147517,0.3227199551403235,-0.9127133541275703,-0.450797169002211,-0.4346472558682406,0.21966615824933555,0.31348351584441025,0.30985310269213784,-0.688764765152174,-0.9164177107134872,-0.4182263651690281,0.7983752815844876,-0.6353575291902718,0.6213316802752225,-0.3325833817771848],"bias_h1":[0.2765439250299875,-0.5736337614290776,-0.1339048036630841,0.6817629243019274,0.9699786940074064,-0.8828605036841917,-0.783280406348891,0.40133630433464407,-0.21722792317026007,0.7597407005893106,0.5502175494327206,-0.8904185692254676,0.9738142820425857,-0.8376253424725133,-0.5495660784045122,-0.39149380509184195],"bias_o":[0.04284218333833034,0.606643700494639,0.28321910864658983,0.5123187591688199]}