{"weights_ih":[-0.9284279570237957,0.38628051039821454,-0.39299772764333385,0.928638205432091,-0.0708215619967929,-0.1313969705851885,-0.7550404070835679,-0.4510571855885064,-0.676484196845349,0.8206986367320457,-0.10707026163296374,-0.8090143702157693,-0.3044094674916551,-0.012440365333361125,0.40659173568120544,-0.640098397356426,0.5142434636965101,0.886490868885941,0.2683228521694354,-0.2966914809599268,0.5017029467107557,-0.7565457141400012,0.28285409631734004,0.8270526691504629,0.34611772120684425,0.20693992500875935,0.16019587623481368,-0.9518388549848558,-0.5597777937898314,-0.7624878131392185,0.19066237985417778,-0.7443503765421584,0.8602255937300665,0.9549662947894981,-0.01831232967329388,0.6746055112215059,-0.6699235268242727,-0.6444719799596126,0.7068647957959935,-0.8523973685601225,0.9836657420116148,-0.09281741434965673,-0.6633281618690143,-0.330998910582748,0.4107698758561422,-0.33326151935071135,0.6105295467427116,0.5164448249155067,-0.32767796686675976,-0.914446112239911,-0.8534178537257784,0.4475366430227936,-0.6780183970679594,-0.28231341282265343,0.6575933496601103,-0.9273694584577739,-0.5476115506470944,0.5193131605017867,-0.3296168155953094,0.7448160948839209,-0.18463262907924172,-0.9176854516377204,0.1306174508736475,-0.4460606267535072,0.9498068788573582,0.1495825727449136,0.7741377925628219,-0.8249490658672676,-0.21782972332572204,-0.5393476111083053,-0.7167691025544505,0.0009384329696757732,0.865025688572425,0.22582172431673841,0.401683780824291,0.39484054317663175,0.17296259758950017,-0.3743179491195632,-0.22524135944313683,0.5685140297016467,0.22051174499591553,-0.7916891262765797,0.3128383360180451,0.5897575233504204,0.052615350566795005,-0.238200461171455,0.15203290456706142,0.381494822091587,0.11160851522409931,0.980699602446595,-0.07731999569617765,-0.5243645448539689,-0.30071982318876445,0.8590445806650016,0.15081823941592787,-0.15752404368756245,-0.5581898898308546,0.845668490389339,-0.27314661207056967,-0.16083528373636646,0.041018181448719604,-0.2404238659351572,-0.7260526953068942,-0.919600017934969,0.6020104696803075,0.11329537350499197,0.7907417388499238,-0.1184776190975727,-0.7720312794103661,-0.11465458471236811,0.6390794248625349,0.37303818760467333,0.9970737253507662,0.5370828466300333,-0.3971507358002557,0.0843227375767448,-0.7403661495681568,0.2891902616401161,0.07444393528027327,0.16418394070117381,0.561858515702482,0.6368417929912895,0.29749656493764776,0.43502018015561617,-0.6420776872782341,0.2106818805895947,0.8811803619275203,-0.76216192323598,-0.761380863225283,0.6818067881831298,0.8590803087015899,-0.6805824882764251,-0.3226056152857142,-0.49133549326517345,0.4892550679266552,-0.8173661054118633,-0.05665280621077451,0.6554703705071383,-0.1655860107284628,0.3364316294976044,-0.3140118270955903,0.9558458880672478,-0.38769151543339997,-0.5494558127739702,0.9103295910764637,0.5469167632812189,-0.8710258711194021,-0.9087528254363786,-0.6886539479190661,0.5233684123671454,0.23571195047891247,0.01993467122717041,0.4428185945416696,0.7545142062254571,-0.45319399344146305,-0.3766623150909614,0.9390979927032399,-0.9922370053110823,-0.19523656543076795,-0.9121649388916924,-0.23319011616872132,0.3378231113292631,0.6340992733696904,0.9606274063034317,-0.9353920864487919,0.05068724459801954,0.9483021444930202,0.6181996571004078,-0.40603439908926275,-0.7238460613525834,-0.8629599647094315,0.00767663523229456,-0.7754011371790677,-0.031135154661598552,-0.15556997009581375,-0.6131193494908445,-0.9489557049682771,-0.6598691210483951,0.8262614935800632,0.9639585802266375,0.012052579410334108,-0.34689504142894045,-0.9687134816264775,-0.38932628104779465,0.5548076651173675,-0.8400052460236345,0.8423823069581096,-0.14922288993527388,0.7793424342267505,-0.5734453102420747,0.41950797276091234,0.9929796959314015,0.44065057462496315,0.9257257946751096,0.49034850592442236,-0.9362308857330801,-0.7965009228127029,-0.21232153402190357,0.9886808900491033,0.8888779784270562,-0.6647732521163294,0.033600897393734064,-0.1349214659925546,0.8226138534386367,-0.6807937378583526,0.32930759919378905,-0.7236008076765241,-0.9264478390930655,-0.04293283706008877,0.08321554800556363,0.39255933773474916,-0.4267574295998757,-0.6945605583381704,-0.3527221698706009,0.0898747079378106,-0.7944701530319851,0.1197594711190153,-0.6553651491526418,-0.863027541266594,0.4420349817652567,-0.49007229207454506,0.8847270573780981,-0.34054486540041484,0.6624779553661835,0.8957302079341207,0.9739174797386918,-0.8455001433463112,-0.7552012025786559,0.8956515668424798,-0.6604745707295312,-0.015352070324565315,0.3783660809742002,0.8801770942117806,0.2896287735744214,-0.745352559575948,0.24688397934514095,-0.5577791877513814,-0.6946203223891803,0.2060571626264036,-0.3732543574516025,-0.8053469985812896,-0.6306778530024557,-0.8482854256080639,-0.5972017305646962,-0.19051150301729503,-0.9294041834845967,0.8386701254050606,0.4031414139677303,-0.44745737423453824,-0.7006813556411096,0.3147234240491139,0.4218962051216564,0.035911679959567566,0.7331960426640498,0.6907854262689515,-0.7426974734707867,0.775461143367185,-0.824546266240288,-0.13507942991672706,0.890865112704947,-0.5727924594442981,-0.1573823957211462,-0.7297740595271089,-0.6039561057605449,0.44895252619799586,-0.8349673855034734,0.7843479806151115,-0.2756709109679585,0.7020038105500153,0.787072870168138,-0.049695925133907304,0.09123237523048355,0.5127153988198536,0.788205148252884,-0.22679119173132323,0.020132061694502212,-0.28013645246897734,-0.5999871727625599,-0.1959024185234477,-0.036711333618343334,0.04882437586681543,-0.15829273554588918,0.6322863219468673,0.02280124079196222,0.12991723699023416,0.3296288080841081,0.6816412725826433,-0.206821683516083,0.25293908763177475,-0.6687929780635851,-0.028542988341805797,-0.48618408297383464,-0.5183047041633213,-0.35442507231311127,-0.91388409398717,-0.8628731355791106,0.4838430273780596,-0.08522917751724557,-0.6994162125533472,-0.5355607965197879,-0.0371746979166101,-0.6292051390964728,-0.38411977308097756,0.7949238372098115,0.3544103214809988,-0.8858405127195381,0.1928910419179357,0.4038658396705195,-0.7733376310840601,0.2517219463658604,-0.21790859317771138,-0.7245235619529353,0.7612507343678556,0.13987098104988238,0.38090716355637766,0.19748465500462276,-0.6400846978774128,-0.1221738876134284,-0.1244562859274212,0.37579979649164263,0.4419276169652917,0.6236433272149491,0.7602483463246861,0.22841389968661585,0.5857836396800815,0.7053000850215496,0.9576796842349833,-0.8176220949753303,-0.7489892503976963,-0.7568464141747251,0.7173731129934651,0.4307522898860845,0.5604342088685754,-0.9778160575632611,-0.771578554784824,0.9503504924991009,-0.38016789091925696,-0.8738975863932346,0.9169571865906183,-0.12952392767501308,-0.264864938147958,0.48443019578809676,0.07977418864269614,-0.42314508482518254,0.8981692251019118,0.529923729416466,0.28117883158115675,0.6315759558443068,0.1464065344353811,0.05610422537075754,0.09878766183220855,-0.20103322716462357,0.664619993272122,0.10768846126715426,-0.21879539770518774,0.43987370496365896,-0.07133690387297165,0.9115769024539828,-0.8381299069438841,0.3425809020432793,0.3105663013317632,-0.7030299513679579,-0.08819362404611031,-0.6983359255977781,-0.4616236532442042,-0.5659263148315958,-0.9597322799715051,0.28963621805463746,0.3715325531259306,0.36294857799359415,0.23193298816470986,-0.06995544716981539,-0.14732914701326139,-0.849955671952833,0.9102589702324142,0.13662457153978957,-0.5787875900039448,-0.871415524505704,0.7735485168020333,-0.5993558452072776,0.17629150844128572,-0.4959464239335818,-0.4467657737497541,-0.049625339741037555,0.3383796192302444,-0.11591625767356373,0.530386344434483,0.14083723144129268,0.7116630572114113,-0.3825274818607274,-0.7597444813536336,0.9924392611063795,0.5247253544065753,-0.5531386644543776,0.5999457208031924,-0.43401889739712796,0.17505062617630607,0.37168247136670485,0.03932663609564924,-0.21134729700874888,0.8542701291368555,0.0854301984559327,-0.9847457085218481,-0.0607937540827288,0.046247453818622386,0.5159746634010385,-0.19196124956810645,-0.32556459667352633,0.7744698729204507,0.5256087361958164,0.573533259743715,-0.3061706458403757,0.702831414805902,-0.0036658105858478063,-0.5177781706638618,-0.5281665419260968,0.9354458787183162,-0.195346713554033,-0.02054439829873944,-0.5021328412993866,0.9365723783622109,-0.9142844055954367,-0.8339483717107603,-0.8731193017006644,0.9445190048832368,0.4950690476264987,-0.15227385061051546,-0.3019823935668433,-0.09237157052075506,-0.9686811654880771,0.8851201840972271,0.24947214500784165,-0.12037004293297882,-0.6398088633456289,0.040352554210719704,0.456939359908878,0.6655749962946254,0.43740515171915995,0.2742930254362377,0.18394391384546194,-0.18313993213536217,0.11496438745409199,-0.32025406058595585,0.12416401058434756,0.12489255739166505,-0.2166481559672755,0.8478146745235824,-0.9680285486885405],"weights_hh":[-0.7002706272254577,-0.7756915728228981,-0.8424686443403393,-0.37663123059784764,-0.04432010584235835,-0.9053907483870343,0.12437720709455835,0.4295549297966521,-0.7242941320328917,-0.14350486155683906,-0.8360739580133549,0.25844154801176233,-0.28400080808444317,-0.36422093507934505,-0.3027609678082528,-0.7195800758089701,0.9976504567435056,0.3633786287320617,0.0505845510814924,-0.16734428756444664,-0.8514275541700227,0.5730806577696721,0.7241471000686062,-0.024483370250108605,-0.3094251003586934,-0.6245136728547218,0.8373387873166724,0.07183068879346055,-0.35378110738658997,-0.32027666392999365,0.43388437290071136,0.0848548280684045,-0.7363055940852465,0.289397287678002,0.8055634842242902,0.6382345704392138,0.4799254422246848,0.5481660006023856,0.9730629763663785,-0.13622247995670111,-0.53335194494795,-0.3887679004271758,-0.12182334518439664,0.8486787501207937,-0.4508421053678313,-0.5138709119700546,0.15499422298596,-0.030807724663007408,-0.40299179162715526,0.7094848422690767,0.1472267476765814,-0.07062347131573432,-0.2918215354590956,-0.9554491390546027,-0.6214929535811511,-0.6202454305745635,-0.6076293025637394,0.9191291311665879,0.7481568826884601,0.8318319910352328,0.21651676732365743,-0.5051600553024886,0.9893944214419879,0.1695816462077966,-0.13753150314617302,0.9748176334357908,-0.007701191740807634,-0.9979704750776848,0.2881671178481344,0.9066832859700567,0.9638661784261413,0.7392357680677148,0.25342468568119414,0.17172042921654906,0.4892756584444109,0.9537990738825401,0.7347859682289606,-0.767931705585251,0.7780790636379997,0.5049992595089585,0.4622065454283588,0.8822505153703064,-0.6442092333157032,0.24635093175377465,-0.8581526952118428,0.1056457520604317,0.5705725409232549,-0.3498704000690829,-0.8035863512813544,0.7954690866290404,0.3116401227142602,0.8239096781180808,-0.28956986444143973,-0.19666519899922497,0.9869490435554868,0.00865036877469283,-0.7206808329221579,-0.29591131033398166,-0.6437050787595242,-0.034248740025500934,-0.03285856188849423,0.825654405170376,0.09192625190466308,0.5292377068914202,0.1386402961747557,0.3228324127500297,0.5907061870283699,-0.15397593083360372,0.6234138325834353,0.014660116355576402,-0.7160499182597835,-0.4137831537199741,0.9509938254639627,0.0928365600976564,0.7031669839353363,-0.9755494191023681,0.6276659290582496,0.8483430456789585,0.4521143935203904,-0.26158573160683796,-0.09133833449328854,0.5956839361100952,-0.9450592181935034,0.8275791200397702,0.404538655876558,-0.9450179287111136,0.70393358053586,-0.28715377609489545,0.6579614127739248,0.4283871032933053,0.8635526088122927,0.35725529871587813,-0.14330994985980738,0.5149530168263698,0.6474882031281091,0.12660483991793914,0.24399561212215004,-0.7639200100962047,-0.19956753446796016,-0.1887372846945996,-0.7940688451828026,0.8432810573148233,0.3825138142588971,-0.3550522227672863,-0.8553981682907641,-0.966978416860671,0.684177259174471,0.5058205901877324,-0.08120127589436943,-0.9417758720020786,-0.054979291519972495,-0.9099088317844035,-0.9632026959540683,-0.5407577432377588,-0.6816008186168441,0.10887118850380872,-0.050954471737648666,-0.8980303558264158,-0.6330936492044392,0.6274286383667971,-0.30693203087031606,-0.7006124728542285,-0.4504285232764642,0.10674909178637404,-0.546207764656127,0.8161493582555293,-0.9380532423145544,0.556470107731383,0.82044164666886,-0.5822711238188814,-0.713225418586966,0.4908614733194978,0.7099427090956827,-0.6318139363709558,0.714512187693034,0.29660107511917855,-0.9546636676426408,-0.07743824668998656,-0.7660799308210324,-0.7763697082619962,-0.2542835618109638,0.19751211572363436,-0.9279089019132467,0.20296791147457127,0.44108143108919906,0.6182280287990791,0.964190607225099,-0.07684079080432538,0.7668477556863322,-0.5975003033606952,-0.44747284504144047,-0.9058118486878952,-0.06865486183293101,0.1723140238946519,-0.31078405809291976,-0.8225814548871511,-0.15940901433935895,-0.7613224672997092,-0.22472993963821275,0.7374104260093826,0.8387460626750289,0.09627161244631521,0.6823255317213033,0.16155460197075766,-0.38029114020734744,0.4669616918365398,-0.5167993441990437,-0.5288277365177894,0.1153006842555504,0.06178536935138346,0.5420882201338186,0.9142932645017618,0.598082974291509,-0.31655835792111975,-0.5081231808557909,-0.6307122284305138,-0.9940653048595556,-0.07989876390124295,-0.10246524857241734,0.14832251422932474,0.9325491861462303,-0.8753313301636152,0.8992725716517429,0.3832956996664092,0.37430375824464246,0.4355949070203051,0.9286130543349085,0.693635151504923,-0.23630069029068923,0.6971952724200983,-0.9445238275323593,-0.4679886716621935,-0.9937031976132613,0.6429040241565076,-0.19053097285663823,0.0072522050162082685,0.8534693552142092,-0.23671484896312034,-0.22229263952464762,-0.7182920497962477,-0.23906252155612306,0.1714327701542533,0.1356057829993471,-0.9540037683417524,0.5226374439399393,-0.8939635349248352,0.6850645743181227,0.22088146352541882,0.9178429681557461,-0.4534700823001758,0.7749766422727802,-0.29578746288497815,-0.1293945629914961,0.25252246317272076,-0.49644890918321494,-0.33855491631777146],"weights_ho":[-0.8038106513029606,0.9422172974910397,-0.09073963200500601,-0.4638277709467531,-0.09197405752266752,-0.9723989761469336,0.554307301298081,-0.3781460992122587,0.669327188962989,0.6423840792886042,0.3102655150832243,-0.23776017619388012,-0.49175986910562597,-0.9446937599350178,-0.1059517362918454,0.9510409356815459,-0.03415851323980368,0.8511229636090247,0.5158713139355824,0.7946452531133301,0.4925724484870071,0.1345845231078513,0.04419121840896034,0.13164297363284683,0.2977816392026795,0.4558177887564485,0.09593593908986975,0.3698435432638494,0.38831752416842713,-0.47938359370140615,0.8975085115117107,-0.6288834598587569,0.6524037240913592,-0.7681960442601936,0.41403682301193223,-0.32189429600137487,0.12304844923940683,-0.022395646206727404,0.06463439955768724,-0.9623282151302459,-0.6328918551588534,0.6277935906089833,0.1622408404743121,0.8398260375027524,0.49972611800660793,0.9479409873471896,0.9594077427106049,-0.46293807070158755,-0.7690257982664541,0.43425135283751715,0.30148126634696193,-0.38079911667903965,0.10097927765924886,0.7469268730664431,0.8313877374850098,-0.9231566772828146,0.4988822229929297,0.6639839904062954,0.7035707292617979,-0.016282752915927512,-0.46753212099940455,-0.7356887129571328,0.5516320099476293,0.5325847651033158],"bias_h0":[-0.10354595288883406,-0.5761882628643356,0.8340196591481839,-0.9890652626876559,-0.6593830554227482,0.34174453336393196,-0.27818358512010044,-0.6213236009943419,-0.12016174752690079,0.7151434081617163,0.04952177648027245,-0.42670217700084856,-0.9287127542136535,-0.2921502460505814,-0.48285277765182677,-0.16158832806980716],"bias_h1":[0.3237188672715261,0.9577496047020431,0.577854148699037,-0.21728437225511854,0.13347763495625453,0.7209982526808627,-0.5572726506809125,0.8187702451836696,-0.7376193424345359,-0.2851236426735009,0.5180338071581931,-0.9983113725929214,0.9266391588249425,-0.31019024730704237,0.4629130103458532,-0.8833029906460745],"bias_o":[-0.6065466144913483,-0.7284979130653335,0.32684975354153734,-0.6846586770270535]}