{"weights_ih":[-0.6764872607042078,-0.40340689746181746,-0.7471248306423441,0.6541224435468833,0.27481653502551007,-0.6659922820104216,0.7388243554114946,0.6131337409169546,-0.5936962832705817,0.7191662424749703,0.5997930363743147,-0.13885121271210688,0.43541543958936013,-0.8615765182252917,0.5123745579691985,-0.23984248341022396,-0.011152022955942531,0.34278898768913524,-0.417090204245967,-0.013111820847838684,0.9994288442179928,-0.07427731758438494,-0.8688239865886731,0.6090432781874038,-0.04516165855676468,0.5341776740262798,0.3544348810064466,0.5041162234788907,-0.7208758608536456,0.9063814089886235,-0.9794685605903739,0.02010975376391677,0.20162480573310448,0.7792022745655447,0.48649880446969473,0.5655455563323255,0.8242171050156204,-0.041021173794324683,-0.051670978514887,-0.9035156518416898,0.9525792365605896,-0.8463143115850456,-0.024192219352091815,0.17743829210355822,0.8245630717294918,-0.5947811646394359,0.38086813107395034,-0.29258242887323593,-0.41310540210990765,0.9363774959361981,-0.5626338570494531,0.7713898134471793,-0.8074519376461837,0.27239210180691953,0.31044882632747717,0.43201402448846227,0.8163580968993771,-0.8144665618739664,-0.35932449302569025,0.35514168943252855,0.7204115832681413,-0.2497718374042579,0.9146222266060051,0.9657242385121882,-0.6275276022773302,0.9388910030516866,-0.931886299381401,0.20621068977443735,0.4916449439688657,0.6389480644609087,0.7755067950368078,-0.6512776946469474,-0.9205470059527836,-0.9300995899383029,0.23732105326053254,0.19642769162815354,0.32702728788556734,0.3242191722928931,0.2569241804855211,0.5282819188671009,-0.6818732072277993,-0.5205971049363789,0.3356807701402307,0.6850067429407856,0.5328622281778164,0.05088741168926281,0.6703532051412788,0.26507194781147225,-0.9148573793612482,0.1097323030940558,-0.6134763294352514,0.728091067650553,-0.5850453497489536,-0.7922131446592342,0.40441065542390975,0.6682366456118243,0.17309947829539318,-0.5168002833619163,-0.22020203698797136,0.35425350864889293,0.998264352581465,0.22511093832718032,0.8382582354038197,0.028764185154209754,-0.8183431026438466,-0.9609750423204568,0.8885612541468506,0.25956736443758865,0.32063497229851423,-0.8132045734680731,-0.568089731679629,-0.16406842129267996,0.9047162982607444,-0.8327362894920545,0.2317009983010314,-0.9532628547416533,0.6569368533067781,0.48794487034495715,0.9436297549060444,-0.29275491474656645,0.13932316102803344,0.4419411003567446,-0.8106257299604793,0.14293805983850172,0.4461625543658616,0.7186587154634236,0.780715677633733,0.09820747336394064,-0.7244429369815626,0.3764703902870339,0.9909881933575624,-0.15652156910349868,-0.3879865330626955,0.7050232594033383,-0.10319234988660475,-0.29540790120929095,0.4063538737418735,0.05084619563425585,0.2075632365622302,-0.9257974256155601,0.25216684720733706,-0.7439537235303311,-0.6743466178304809,0.9033839530325132,-0.36560844290980943,-0.38097774533306206,0.13800152891851858,-0.715520345659425,0.9113219721940247,-0.0726247323564495,-0.0010645141711467243,0.39741214149933524,0.4325818402589119,-0.8638397286503052,-0.7865469379050014,-0.9026908952415524,-0.31992485783256597,-0.4748238014289563,0.703380578218815,-0.7766356905090122,-0.04564014323976129,0.11428637751991277,0.43313153783585445,-0.052404578610456554,0.532617172263979,0.05266750483145799,-0.04110656202956253,-0.026636309506413047,0.4634086025260138,-0.7592138046948642,0.6927853207980059,-0.5545061771202295,0.2733629505572297,-0.75319744603721,-0.7054035032112302,0.11166332523755673,-0.15837499311943315,-0.24411157242598236,0.23505336993456716,-0.9355479584621684,0.5753270896163332,-0.6651168691750458,-0.4766637808124523,0.9990547218583692,0.06824377696127493,-0.8790456492340799,0.1390042988740836,0.4603040156917175,-0.49482284898582707,0.991025418585272,0.10524770810809625,0.685511620387151,-0.4033002088850517,-0.0592512077249181,-0.9442906795047588,-0.7818710901114503,-0.19034033216660595,-0.6893471078428313,-0.9524154852694402,-0.09017712180239368,0.5207178761322058,-0.9256691166615607,0.82404048666916,-0.04161046358185283,-0.7337535303750573,0.6795249413356865,-0.9163692006814679,0.4315678511760497,0.3164664077442796,0.1339760252215918,0.21550767017629902,0.599151518921849,-0.1396562404929318,0.7944373446758051,-0.3838529845738605,-0.6658765184712294,0.5354061209725447,-0.40641918966775226,-0.9533606806493589,-0.3014365941972166,0.6079626907389106,0.41418554171495203,0.2851762561802118,0.608384095794511,-0.8280298984731767,0.7778872675596842,0.925951067590181,-0.34210402569391096,-0.5763205977758419,0.02364989452684374,0.7367246638247531,-0.8715452885668751,-0.2717572134274193,-0.10399513708704466,0.28518201987624114,-0.9051956440531876,-0.26096144457771797,0.6642130255478338,0.6629340668604109,-0.28458362019131345,-0.9032652621384554,0.9373140752714837,0.6670026177664548,-0.34345422498169476,-0.008546161364355598,0.42891487998873035,-0.16650996359996273,-0.8054273381188688,-0.4493345096969188,-0.6168517565179179,-0.5839528843119364,0.9690592760469401,-0.07994348568158949,-0.6620696458247022,-0.6006608394351169,0.41011410388847946,0.8840798101665646,-0.8246742154241269,-0.8885302964210327,0.9662690123438098,-0.23113083470428042,-0.6874344609547833,0.3284726958979227,-0.5959956962353952,0.5164198799318886,0.34796264365693563,0.7595388560791592,-0.10910040692072087,0.49309773253276346,0.9051775047298598,0.23694936458615046,-0.774174486708189,0.598998034433456,0.6085131696384449,-0.10385944376669198,0.9233313908199954,-0.9692957854311832,0.018941856790574585,-0.13573910422689406,-0.9788555677580784,-0.0080746130880891,-0.7593663294330943,0.47887203876304274,0.024990126997854967,-0.9181755133460989,0.1212389058897716,-0.7689914996860807,-0.0426271865436596,-0.021675360455188253,-0.23437030349250598,-0.3868670810153638,0.721226039795259,0.8068464290758026,0.7458261385090696,-0.9708237116334724,0.1112144339942609,0.6567721414904615,0.4439814348689486,0.6622308526636027,0.9122211623472114,-0.853994032335549,0.5420895728583526,-0.39293570559035773,-0.33403105299586855,-0.7221005876171702,0.6490862876174373,0.28252863527095196,0.9387550661911777,0.18945000255741107,0.004294305136116394,-0.5779752642488734,0.7348652975710379,0.6084911759675997,-0.47344487937048485,0.6082027901117171,0.7999103080652146,0.5895122119624598,-0.5467881488335271,0.0875106730346471,0.497562419750857,-0.30225270304273977,-0.16366997870391486,-0.43104667515433803,-0.2821910158552783,0.5935385119129917,0.41962714583403726,0.99839622840543,-0.16734331915217027,-0.21454832794430678,0.4484517435063282,0.43026321033168546,-0.6584594875573362,-0.190442876732138,0.860437457816964,-0.5867112030137835,-0.8256375151460564,-0.7649651460495728,0.4121287492081154,0.9248914845627454,0.4786426173335361,0.9208817968533762,-0.3644091328569332,-0.8743334835383776,0.6745632408685405,0.519825702497537,-0.7661562083153963,0.2320120965047776,-0.6354126698896672,0.8156814264624086,0.07633163009929378,-0.9471741404518703,-0.10506431763078594,-0.4072571682043473,0.19664378048549347,0.7459832143821477,-0.05572010269682193,-0.5371911865353225,0.5468072342223571,-0.6959344742655424,0.5564099971709557,-0.8148847155388523,0.00485802886999398,0.5652858904460532,0.6510341072529087,0.839095868304627,-0.5889143606786091,-0.5410902855272601,-0.7621217936096571,0.35119486264955424,-0.5366715002116718,-0.5337520634306521,-0.312510109698376,-0.003170988462662061,-0.5432657134494558,-0.6894738558563296,-0.7831076151868797,-0.375043782395204,-0.2972497566221608,0.00866216781842466,0.593404774853939,-0.6105000562318963,0.47923385488900627,-0.57094826582092,0.4561428711611166,-0.2775868173838223,-0.22618100670049968,-0.07710749005761475,0.7899696118122268,-0.487239406896649,-0.10012714078727813,-0.6147888771859131,-0.06701756205928544,0.27708118760222966,0.6245846343423267,-0.175598201725927,-0.9459148298193665,0.6860349489461046,-0.6757973146707057,0.5346658334402312,0.04990838740526815,0.4386000923546314,-0.14656899861179662,0.5042167465816907,0.4471518028723105,0.7081463159907835,0.6605828624896966,0.16946326305995396,-0.8263788938173908,0.021601343900354175,0.38004568542251893,0.20270593333824527,0.7030561274283276,-0.4118087146939837,0.21182868188412352,0.2518473999767985,0.9699768870709713,0.5877882473135243,-0.10207014044305929,0.7142356859861272,-0.16069622584768206,-0.42224048491907906,-0.6113499503297526,0.2958978341737215,0.5616459041277719,-0.34599326263990204,0.1821462909520668,-0.22849233444726913,0.4253137329980854,-0.49081754534125266,0.899374182371415,-0.579627380442957,0.03356618476819251,0.5242335283178974,0.9135426260989166,0.12045064888669765,-0.06830044275510794,-0.41950793506772954,0.9149178218569627,0.15358928580859144,-0.14354466534975674,0.3785602226339042,-0.5157462792344505,-0.4001617934489341,0.0769010425726957,-0.3630671673908459,0.37744814859505293,-0.3244171701879228,0.8719271422284773],"weights_hh":[0.3604903931399961,-0.48615331467047684,0.56051796457392,0.39170043989097336,0.32446110764923586,0.9381278840293026,-0.4138769633602548,-0.32737956549943936,0.5436195803183348,0.5759103886833878,-0.3267197826777106,0.9317622859662467,0.8257500495868106,-0.8073763946931294,-0.43746741223141106,-0.16348399064049168,-0.08006756908456958,0.28176942382356596,-0.16513775669171427,0.1852721658261931,-0.8594289636050976,-0.7813542186744951,0.18901324974327793,-0.12034430881953395,0.5168930130750453,-0.5891790152610659,0.7954026010016984,0.6622166578408601,-0.5612533937104525,-0.662501966016098,0.5920590089067796,0.9844249233425257,0.45455034059273935,0.7561685220799292,-0.6371011695126108,0.6473418265449531,0.7962846253544589,-0.9687056644315897,-0.4285442923891152,-0.4907756133803396,-0.9429452913067657,0.8010064517079096,-0.768124420606199,0.35917225247046547,0.7161616875049237,0.39952155626465036,0.11443289900920606,0.42314722417801187,-0.4668239483586327,0.054844706122689546,0.6207691792155914,0.06997831272199151,-0.7622840518118499,0.5658751600453826,0.30180023818768875,0.6361263065902252,0.9791508357858181,-0.8016651846945249,0.6955952521484365,0.0844837463387722,-0.6832766954855451,-0.4864731955190764,-0.24079623778089498,0.6679962765576213,-0.7536828317870923,0.7261939898832421,-0.9721209729350204,0.6433352872671643,-0.9647433060499533,0.27378618414770894,-0.7098861618937218,0.7154253398417523,-0.0398204525199215,-0.8715749409420113,0.1719503462229861,0.16662904571116277,-0.7169311686475923,-0.337965801492079,0.4152187948401389,0.7659350536310625,-0.5108186922042679,0.9789688698238674,0.6210529837154846,0.5615227194775343,0.9183234389544295,0.8878634585487657,0.43926621609568905,-0.7125678076740432,-0.5986883052950551,-0.9026049624849313,-0.14393474374070014,0.9432813490910605,-0.039967510087487446,0.5057779473028927,0.46128592349755637,-0.017539614952915894,-0.3431914769697211,-0.5734311810017878,-0.15904739968443637,-0.9111503708141959,-0.19331609078033485,-0.19064547409978627,0.03086004237546014,-0.4439588857072003,0.5273436685673174,-0.7665596729303299,0.09024352751445686,0.169720736959883,0.5999556881864077,-0.33905753628596025,0.4234468581455051,-0.6815094521162741,-0.6975824981528191,-0.8634987252878246,0.26343959440448805,-0.18609828583118726,0.03874344609226554,0.4113598448101332,0.47470262602689917,0.802250572196791,0.41869916716933675,-0.3910147738446772,-0.6713687004536866,-0.33331199049587235,-0.27384240110187097,0.6629498050476976,0.9606081696764055,-0.6539976836308898,-0.23043496835276867,-0.6202525557089771,-0.2622945533144052,0.316005139023805,0.15604034136835865,-0.18222447262686003,0.14022077609617312,0.12800187719584288,-0.36988304161322394,-0.587351965018982,-0.1027476986216489,0.5614089983393102,0.7199604867436984,-0.27267771609908076,-0.19664330028533672,-0.3359051873735077,0.3727115522687183,0.6913512044919976,0.8834533560665738,-0.6497979688747224,-0.20270360264579135,0.6611723700679581,-0.20378908316739452,-0.5715949785761367,0.36615476215169385,-0.3547004598899346,0.2218275863494501,-0.017909288000489854,0.7128444011729986,0.4079812595987278,0.383577198593019,-0.14441601108449453,-0.47973495584138637,0.5380800273408122,-0.9629399763487503,-0.5285332167373216,-0.5401288922633485,0.946919618083752,0.28661987697967883,0.4723719452085766,0.2875322322838323,0.007548210155322366,0.4951286092183962,0.7905163442249732,-0.0052110169753762925,0.4946392053027453,-0.3271214071919053,-0.6572697632298155,0.9516210523659236,0.633981678000461,0.7291634950768455,0.22314739946182405,-0.1644023207662222,-0.2733168904183787,-0.4346647794977736,-0.14110332180500018,-0.8748277470663068,-0.26515989057528855,0.7283138220847427,-0.6403028874013093,-0.1580639095897618,0.07591315164947754,-0.4384502849823244,-0.23785897607967055,0.7728854178222906,0.5495454247237836,-0.9589156985421585,0.3698992483381409,0.48455978318960735,0.532408942190324,0.7236706095814718,-0.592792667859023,-0.8182517028040592,0.7734945585703332,-0.37862095881348656,0.4004828870846111,0.4832288569559844,0.4543165148845414,-0.9853558164297345,0.30786237928366145,-0.7763469555234421,0.2327314331693966,0.13955599974335553,-0.37124585084356476,-0.3546231931497321,0.5396359927258467,-0.6041110927034199,0.05398309159062431,0.7515473501907974,0.75399147329352,0.4086606719221284,-0.3246324990357188,-0.03192099838790319,0.13769351108799244,-0.4620283517558539,0.1616855318800665,0.9724029630186335,0.8912953610329983,-0.6234495860831524,-0.8983792879605901,0.4290019496028974,0.8767543288636563,-0.4005701786633571,0.924095424704894,0.6188476855700691,0.30011467410669224,-0.43158533592542936,-0.2707859678650264,0.801035689858818,0.7034044307018201,-0.8896021696913308,-0.6063920369827156,0.2468938677387862,0.10870750334464896,0.5517153218085062,-0.9066554446637669,0.17419132932854953,0.45605399895750476,0.6785341700110781,-0.32627882896504623,-0.21205452019389193,-0.3063272636278469,0.7883228836210578,-0.2542849030800809,-0.9981231301144526,-0.2059862675069688,0.7688080527097072,0.6317171123598881],"weights_ho":[0.4325179747810515,0.0053016035078827795,-0.28053337327257877,0.030502116559177228,-0.7377424491383633,0.9751101999321543,0.9722541929968194,-0.05648099663170458,-0.5742067536932784,-0.9977230135416413,0.1455381390813637,-0.6013175194197136,-0.33175591757164224,0.26364718242073604,-0.9062462409878977,0.1156160265399504,0.9584080898753675,0.7341975737448152,0.7785035798305386,0.7933877646463634,-0.7380107161188629,-0.002361737299154454,-0.5291373965738952,-0.04858893183448609,0.7627212504198682,0.11000086096137096,-0.5638709371689299,-0.7395993148982378,0.7366689570635587,0.9622371805389114,0.507806552444019,-0.9830351319357542,0.12256284014695717,-0.5630337779355079,-0.06567733744307813,0.5141163760893153,0.3781819324497999,0.6298036329064838,-0.48850685748764255,0.11614064862621509,0.3936399307975067,0.6597398143259807,0.48195062971048763,-0.5049097036335133,0.08519883359563463,-0.9857142102530396,-0.4035940087065577,0.1723969040171076,-0.559826919059661,-0.9283053943906301,-0.8481839061322436,-0.6571199015688991,-0.34287244476777023,0.15354812343265833,0.13379441702974293,0.22470977872813025,-0.6950668143836094,0.4959671669193837,-0.9013558587220709,-0.2847728849413511,-0.30253012229520126,0.6945404445096961,0.08930411054184528,-0.34708342245331303],"bias_h0":[0.7874317283914996,0.7656569944522378,0.8886738654019788,-0.0515936085116353,0.3642270848630451,0.2823113785294775,0.33266061401809943,-0.5428881531969183,-0.5950690570255475,-0.3010975007315444,0.29822204717125733,-0.935831684035314,0.4951129844307718,-0.59297376265608,0.7951247292966337,0.8191258777634318],"bias_h1":[0.507694640161501,-0.44480263303384127,0.07636325833994229,0.7698484811650255,0.9695618839330957,0.3484909019544682,0.7761684252407177,0.33815298729307974,-0.1704645657155206,-0.6692373324651024,-0.9512213592328851,-0.8803051641328818,-0.8305663746206624,-0.885683413296513,-0.8280941910267792,0.16560883980756236],"bias_o":[-0.9824130109217128,0.46941695342016376,-0.9759601291309112,-0.04397405197992388]}