{"weights_ih":[-0.3233035460258151,0.8759391197771929,0.3437107918916704,-0.14930486003748134,0.20782253533653128,-0.0007802166372243846,0.7410615980532147,0.3397211647681544,-0.5062501782827582,-0.49940166345677617,0.45900829286401446,-0.9149991821419847,-0.908262751300231,0.5305498198865897,0.4629545676419238,-0.5441996600303833,0.7347621307984602,0.28087754739321236,0.32183325778859273,0.6666068121985578,0.0696490251700963,-0.8556195776980122,-0.2995099037467186,0.30565420186708536,-0.8401188724159465,-0.7367146824124697,-0.6537129538304245,-0.5606967951813604,-0.8605322205407531,0.7089505297926637,-0.8287473636837166,-0.47692320606855687,0.7919613004335708,0.6540677357750655,0.06729746953161975,0.5211918741697026,-0.5873566632214353,0.30507510403921834,-0.9202927720746845,-0.6224424720585136,-0.40577313987334285,-0.9566803310435039,0.3981272429034184,0.028673388785146692,0.8627753780512264,-0.24100608866666406,0.6510110946765015,0.5521311641524225,0.28929675200514415,0.33786357067815187,0.22396720442843598,-0.04196377489690106,-0.01421519498793522,0.6896094788261293,-0.5266324146142833,0.7299017410091333,0.9971339800224852,0.714122370437186,-0.7844105457287263,0.038005856962578966,-0.14353248059126544,0.031225868464510365,-0.8510575605114683,-0.9617880536212255,0.9644244675480347,0.6066145525646316,-0.9323632581827082,0.6276678491679086,0.36461322250670825,0.6278954153090757,0.8710885424129056,0.8812900230542493,0.5317365310541085,-0.2518223697535069,0.6152728131326546,0.7123367583561522,-0.4621867305181193,0.9918089994248651,-0.2284378388455952,0.6655478009037896,0.6703652427579256,0.06414591564694616,0.7930803485693316,-0.7073882074584361,-0.5882696273389088,-0.9653533193670427,0.1116785954360302,0.10826896533482211,-0.8011280861880914,-0.3858007286618048,-0.5045164186665554,-0.5330506102960051,0.6108645143836449,0.9507466108661806,0.8514677227437581,-0.6381357090924455,0.12932050810438267,-0.4130020176361606,-0.5539059281145207,0.09347073673590178,0.7827138305249017,-0.7334328047584817,0.029141691899204014,-0.973563056074243,-0.268625872004288,-0.5730322430262524,0.6786996777843788,-0.5931848932324777,-0.9338403119568299,0.48012885822483375,0.38401605869627264,0.3447938550834353,0.2950842132313112,0.8509415487356298,-0.8209501387331937,-0.9484279576097365,0.738449888070313,-0.5449697292904694,-0.01755311616366728,-0.6586244816201345,0.2567097322110039,-0.7792619509634453,0.2505488709759578,-0.9301101079782816,0.07476925369213627,0.8190302728735301,-0.39000530952453216,0.2554809576350554,-0.13460863790303845,-0.5458805487192577,-0.7013653448333421,-0.7957507663113559,-0.16838210479915716,-0.8529247453604076,0.9983432743152896,0.11279590945419815,0.792782399561669,-0.9156462471010898,-0.4807882610489471,-0.4205131291193609,-0.021620409480183067,0.9326278687430611,-0.3439906214270998,0.20566001319582328,-0.07595150942438122,0.5462534776075374,0.15497946096621118,-0.09043153772705592,0.09868324088422797,-0.992343978904624,0.7149213756104253,0.9411857991877499,-0.17259580866247615,0.053812848251737266,0.6528588426491662,0.9525446414708516,0.2169687734926402,-0.2697066013239018,-0.15131288606060322,0.7112020883979295,0.49701926770067595,0.3974339956936461,0.17745659813152503,-0.961902246776891,-0.13669198654106007,0.15434165654936716,0.8028514540076799,-0.636072405276944,-0.3188653049402319,-0.7536275674571478,0.5675867627251754,0.13759488118944874,-0.650390750742794,-0.5427801741246154,0.4023565746251887,-0.4560345479841279,0.5912178110725872,-0.48230663080328107,-0.8172456606443708,0.1156506285791361,-0.486006503685837,0.46503987027155524,-0.013811424305073094,-0.6351378416422864,0.8187988496955172,0.3342097152420822,-0.5907137216442004,0.6075438720918507,0.04036891044716806,-0.799156727239827,0.7815256273259898,0.2957917585700771,-0.9795541542396757,-0.04829107793066756,-0.23143234798364132,0.8892209551430998,-0.8565306034168199,-0.8332615957522547,-0.3521733407601979,0.09930462183583799,0.6045069110959671,0.3586894465963988,-0.841140599605017,-0.0887336862101229,-0.8281549068089309,0.15740987693926334,0.8579249353684741,-0.7699441803464033,-0.31736045779718847,-0.39077203378788106,0.6399568158381574,0.2640308192270515,0.7469917294704593,0.4655415836988577,-0.004238094313421925,0.9305699119241579,-0.10698861784680447,0.8299345120261064,0.7944640261440334,0.16673427729893175,-0.8555583983855466,-0.8813736127735636,-0.6136948600116232,-0.4864534049915161,0.7460120862898398,-0.8540331819124778,0.5706520850501124,0.7196377998770966,-0.8550034431869349,0.8428310641202152,0.786149471359487,0.23599377872192173,-0.512256392893985,0.36010130849541033,-0.1994887636607685,-0.1427615485781677,-0.6748849721104238,0.20776636074748778,0.382616344686197,-0.4283893028502994,0.735260264026788,0.19702098478082064,0.8117029454171205,-0.5613801325691987,0.9373662018963671,-0.35809905749612136,-0.4806812261056814,-0.5414998898665551,0.3189566955124923,0.0239573741214254,-0.6051935825677683,-0.49330488233041847,-0.16480469319132496,-0.8678101067566051,0.04929244841496083,-0.5109759463437575,0.7864747608128733,0.5705776200961639,0.9681687546536675,-0.8438555014266969,0.9807938895764592,-0.13337823336901566,0.39304024812957383,0.9748523085972935,-0.2988474364077185,0.40264529109595304,-0.5744313941643704,-0.6593230179260849,0.42884326307978515,0.7287313740456522,-0.6474388967744398,0.22685657513297053,0.6945235776332921,0.35309849901318957,-0.4529349489906691,0.03028426925686456,-0.9821009669013538,-0.7032157600883182,-0.8124473924715585,0.21569527908285768,-0.7997796293089887,0.6995163969515745,-0.7332745093248254,0.45139253129167334,-0.7720824301020481,-0.962817890309039,-0.19886847438709299,-0.17549117788627622,-0.6348997464495101,-0.9262647029009183,-0.9175468935612974,0.654172799401241,0.8611827382288639,-0.859960881360254,-0.743812440990834,-0.08892466295754486,-0.24774855293531273,-0.41218211692904005,0.3089542841881803,-0.22012504001180488,-0.5061384951242405,0.8866956321929793,0.6630281580506174,0.6802841303282694,0.20578018456810265,0.1565812414329184,0.24876756286563806,-0.19896763928042782,-0.7731208695916203,-0.8632175395628647,-0.9692940848702085,-0.9008697092392564,0.20700142829390522,0.6605374925292218,-0.45974501056983597,-0.5304841407753944,0.5270703249090543,0.5665671841789992,0.8167455881702834,-0.024148195161671104,-0.12270635148990072,-0.9891602475077725,-0.7158775488962361,-0.15035613998130026,-0.4070542780370201,0.4359093762109283,0.9821763154811727,0.319736061982568,0.21737920717551829,0.43285919414844654,0.22117643849819335,0.7749516418995317,0.9800420424716321,0.2711503499075114,0.45190456246943733,-0.8179451802961153,-0.49090853573142645,-0.20881246636793493,0.8144397510837695,-0.25636006836162184,-0.35940771648242675,-0.5182889429069002,0.04881135242871615,-0.1893271605415181,0.47758527220531133,-0.6907402347856981,-0.8146546518419999,-0.20360229417212272,-0.1936022377389166,-0.6172303028917978,-0.6587263291585448,0.5331548444658185,-0.6336223427335554,-0.5757533760616951,-0.5478562709940158,-0.5772340873148532,-0.5323662046000668,-0.2484691567316477,-0.3182580851005794,0.2866294569424215,-0.6959342604306826,-0.24947927633411138,0.6615363260468123,-0.6890273852693545,-0.9604959648344262,0.2970639029421942,-0.10078267608188707,0.20561067273039368,0.10344867214462217,0.7791545809152913,-0.6985563438888971,0.10315854890730569,0.6101982978963607,-0.39232236976488233,0.7219024177213684,-0.2089799441978899,-0.5624229078143537,-0.28719354099350847,-0.1542295642347009,0.21842037378332635,-0.7798076218305989,-0.6001940182157324,-0.5372814308420202,0.682575251092278,0.11392117136699542,0.26279387487205663,0.9171328734201154,-0.6102419851295342,0.8738552097620855,-0.2634297800676617,-0.8872768883446016,0.5982274044985179,-0.24259317281511983,-0.30021918115515933,0.11601795991943575,-0.648752273818072,-0.018649843220997386,0.842654665551982,0.3913611451143528,0.42976899565457605,-0.7913656343594815,0.5322929745115641,0.23571951025328208,-0.46242257222101135,0.6566355433102213,-0.44444600009081214,0.7503293387176149,-0.027756621878403998,-0.4661196393679079,-0.7552047351810012,-0.21453710849557472,0.03439288660400308,0.7890226524944759,-0.4243418956907119,-0.07548695196186794,-0.2585599187348837,0.20413590500864487,-0.612949516759757,0.22994991154175826,0.632068355318216,0.4967298350360734,0.22369598792737388,-0.8465244018074081,-0.39198029461201656,0.5827120516338182,-0.2761678000392176,-0.5793770151367581,0.907724310393955,-0.9511637934931116,0.5027557250951467,0.384763434436161,-0.3745353812078722,0.5590810858841155,0.6445662163687533,-0.7160060320234325,0.8162351013324622,-0.25001747377045747,0.45840997939818795,0.6000150178077484,-0.2649752509773775,-0.6248786550107888,-0.2434825780493144,0.14330644495938039,-0.039243512620186216,0.23565979853247176,0.6003060227701338,0.29807482325377155,0.08165699007473814],"weights_hh":[0.6902627166496025,0.029966502522217775,0.7005682916365104,0.9147812594726135,0.37540538557457137,-0.20239900789435228,-0.4372496285942056,0.8138903323103024,-0.42270766498719037,0.7545948408853058,-0.9258281448653227,0.8791748725098563,0.4436228521172838,0.20114837707799293,-0.1916612732000531,-0.11767399898468733,0.45522843524207524,0.5104171892437306,0.21911246022840358,-0.03409591404822554,-0.040327137390900436,-0.9557065521906045,-0.6840056273169985,0.9858519347507537,-0.734584342024426,0.9941886030113001,0.8558544082507598,0.6450852937532536,-0.018961053444326526,-0.905698181726518,-0.7074899865899271,0.053160720777408965,0.05565958248757119,0.5724291214284907,0.06969613990362555,-0.91363499952099,-0.8183192461344255,0.4538483323563134,-0.35738627636812814,0.42434348459853277,-0.610251031580346,-0.4256844385562568,-0.46194511097577307,0.705544125221941,0.5961696547475244,-0.0169596238276557,0.7731826819124572,0.13906704036409567,-0.20407192820751452,-0.02502677575439649,0.5438373038994695,-0.7410054681131331,-0.20158239554396662,-0.09502174883266568,0.3273733589081873,0.26221102032551613,0.3647770041530556,0.5669056400348675,-0.8466356882385941,-0.5956923402758545,-0.9212002854795016,-0.2351250679562764,0.47408179607166545,0.0730231557266856,-0.0021509864072557505,0.8114820926781434,-0.020385345323090887,0.6267089774309873,0.2449064493068629,0.14416142998249937,0.661776413413182,0.7823159734268867,0.28485720548390225,0.5403979310885041,0.9421821551524303,0.3713453683276269,0.5527057221954224,-0.3742378043693082,-0.1758636878787343,-0.5155661423122739,-0.8048945030745149,-0.3052258127103049,0.8189549916249088,-0.06460736981118487,0.43058534545525995,0.02311337313797024,-0.27004074320816374,0.9584639033630422,0.5437612349220611,-0.6392127454960221,0.7008422100064686,-0.6399906537029982,0.22636295792328842,-0.362766046594589,0.42876610895246503,-0.36713038170931167,0.1952458462557809,-0.18207223013702234,0.022215322221034173,-0.23684846598554077,0.9406493342261935,-0.14088841692331955,0.9999473161617976,-0.28950454853713503,0.3409180047549283,-0.15129581246279744,-0.30124861502475064,-0.15547152914042495,0.24095085525353221,-0.8813199377205239,0.6222395234203022,-0.9810448225623314,-0.07360425398158021,0.9563593716631726,-0.8547989895747743,0.08816452673575692,-0.5599040168730651,-0.5788719218973544,-0.8141412003236739,-0.833189056376801,-0.42539063461105364,0.6040780667824481,-0.6983981750183861,0.37811574628578626,-0.38532013316145197,0.1957799054400473,0.5910370017010043,-0.8715271748800397,-0.6739347245020815,-0.11528727686460316,-0.126182853677695,0.7687763276645063,0.14054262220662506,-0.12626054149501598,0.16214261513145356,-0.5235891178250263,0.6433859317810555,-0.2591099005546129,0.802660860696957,-0.11100658633249272,0.7019767883122308,-0.11016869435270338,0.11783104199067895,-0.8172855656338214,0.2407103951184999,-0.7624307388030158,0.8174471127775074,-0.023690475113305798,-0.2422963005952279,0.8846997799063459,0.4339447093232356,-0.21932441585614137,-0.10446533982258766,-0.9100553927191704,0.7076683215066923,-0.47916559590981245,0.793578763119889,-0.44520348075610583,0.8124313860128112,-0.08586333632366272,-0.6126430761258541,0.6120400222560392,-0.8892897311918824,-0.052854507056542044,0.8130996793228042,-0.8614829651681826,-0.13967976491646228,0.3242957088499323,0.2608830999572542,-0.6230630973724365,0.9010406123722094,0.12045624566274005,0.4960190557447399,-0.30637961628169674,0.36790596126873076,-0.0875420211158684,0.6967021366738875,-0.4451962476284306,0.775709446830946,0.4095985543168985,0.004220827633835134,-0.6613692001163318,0.530155982224563,-0.11047608192151315,0.663669696679962,-0.8944882569055281,0.8226868601096127,-0.09612329943739728,0.8563474981122519,-0.4644032493638448,0.1403176135615083,0.689182307644912,-0.26920074316053766,-0.35570828595424175,0.0950622347933252,-0.9982460249524205,0.9930365599305531,-0.39770467157885636,-0.09714621415611302,-0.9667501455578149,0.568407984148845,-0.08262519286002412,-0.07594654985249294,-0.11829326518267114,-0.052023662012207206,0.8485882057571323,0.09304496725362066,0.025401617847313318,0.6572577319888251,-0.3085656585724672,-0.16405463862435554,0.5717239470137319,0.11132300817033425,0.007550061199799618,-0.2299400595891885,-0.7270264690225197,-0.31617461444432093,0.3361370973690361,0.7334072259537747,-0.4874184091592355,0.61235687625471,-0.9746725870177957,-0.3828645359884486,-0.05309934464627597,0.7312027795537699,0.2530611619948975,-0.07246599056124992,-0.20846882487173501,-0.4060722865461859,-0.5018680298079385,0.1960636836530698,-0.40867044367849403,0.43314422917650486,0.1132680846110592,-0.15417495983174212,-0.6483156316373231,-0.6854495505734737,0.7922808999766848,-0.47063935056732165,0.7582559082509108,-0.46369828105198385,0.2168554901131423,0.5846322399841706,0.8156657963003613,-0.8045974944411338,-0.8480370518428386,-0.7276845508989389,0.801074658917569,0.44401776480521504,0.3414407494109051,-0.24153789142406001,0.8137552382483906,-0.5328473996692851,-0.857592545233764,0.7247685156438768,-0.2429745635498326],"weights_ho":[0.9551084657377009,0.9342865403341007,0.5072165489088754,0.038665439965679615,-0.3114394267699594,0.4543894533435955,0.49685083494089644,-0.3953811307407977,0.9844391115828712,-0.7838911957583021,0.4835539562110711,0.8539701764308889,0.9328744550713561,0.1308985933582878,-0.49364134557656913,0.10713168564880493,-0.9949378671297182,0.37030688203525264,-0.9070919941218012,0.7077365483229139,-0.9436995314697398,-0.5889140962715886,0.48874409713906686,0.5692849482369673,0.7938601013525981,-0.12607688348997148,-0.7400632323710121,-0.4741935625649696,-0.10493384244390569,-0.6468877300311329,0.8373605389848446,-0.323319595372213,-0.17291112091425398,-0.1800384618047468,0.06639017039817463,0.527501793069709,0.5699050574100639,-0.436193451530017,-0.10803432848547567,-0.38874926198639503,0.8930746597605586,-0.8838120544103023,-0.8949469028021495,0.24433801069448413,0.2020801421090912,-0.9035360394692922,0.20761496987426642,0.33229304275630445,-0.905200540755251,0.979281204232207,-0.4756200958960135,-0.22022219154084866,0.417119216413006,0.14535091663253197,-0.6286038327842836,-0.1203868178279699,-0.8701461845189005,0.6661892482785365,0.04298379033114763,-0.2217308364699282,-0.8753946346314301,0.8088965101781969,-0.9954496783473119,-0.06087086631693217],"bias_h0":[-0.4407733686461246,-0.3280044854069861,-0.6587227655782018,0.3311509918962974,-0.308569529943826,0.4662179601275549,0.32936134567472597,-0.9459590807352445,-0.6841723776800404,-0.5677912269073888,0.8750387363422893,-0.5547136130606127,-0.7678051034547726,-0.5201850423342711,0.8285719734820434,-0.361369075712459],"bias_h1":[0.28315983622717056,0.4035013124693523,-0.3323601621880674,0.38129985759739826,-0.7269915577260546,0.1472193887674993,-0.6406252208447869,0.009556717875429221,-0.3231770958354052,-0.7450851893194543,-0.13714668006809938,-0.6280387732605139,0.7473641163224862,-0.5484076228694181,0.2906164456282607,-0.9682206870880186],"bias_o":[0.30152621181674966,0.9140246534364065,0.3146136502625325,-0.9189726036727308]}