{"weights_ih":[0.21480964950616754,0.9416867581790327,0.6747057721608261,0.9152624547451877,-0.13026583503782163,-0.111770838319178,0.2984683950779805,0.9133540927956405,-0.10478346583453702,0.5645604735205612,-0.9431823121957008,0.17632179938910397,0.6420825102183967,0.7683470326781927,0.945960534610913,-0.8917071755843233,-0.5244229777276315,0.754879463033781,0.9787545493755057,0.9674579066170941,0.7195014208341721,-0.2086788500577319,-0.8058940237814889,0.42325105163775434,0.020593856755082518,0.982552615348451,0.344812946338251,-0.6180193086708146,0.7976902560053047,0.6859898115911154,-0.8215422813308173,-0.057725245721750085,-0.5833541920467888,0.404695010880314,-0.7492089369831489,0.5460536120655484,0.44684058979628305,-0.9792269385936452,-0.28495633664801967,0.14199668411696864,-0.7200943922274079,0.13670883002395628,0.4126996650570989,-0.4576249133961252,-0.4194552792227011,-0.9936688724377107,0.3293971346884812,0.33994134349630456,-0.6008948313510547,0.3897210604279011,-0.6823806578651646,-0.8876593398256303,0.4585732176025248,-0.8492771275313631,0.7425180809242644,-0.008486843232859087,0.4290752471769421,0.7009870888274112,-0.3764227753499094,-0.8246806527573898,0.9251137561244775,-0.671758254027661,0.05099635219644538,0.6020554800676392,0.38030632616934534,-0.9663557688758557,-0.5343839766457055,-0.5036699048313602,0.7409184036435661,-0.7782902618531773,0.060873647330379255,0.537827726941464,0.41209004014101436,-0.950314117267739,0.8902636188984279,-0.7684070446859119,-0.13860391383214932,0.9590082211952371,-0.5378157322654213,-0.5306738266419415,0.28738372407311674,0.005515460923285698,-0.6894747886273118,0.8721775623783761,-0.09563095941180899,-0.13374429515954,0.27629013269388136,0.3025208581860148,-0.025877356631037518,-0.16571961345362785,0.8789081256733648,0.5683464453932716,0.9495695296482223,-0.15213205767071325,-0.5769889347657127,-0.15420937957251013,0.9830155266380893,0.3690123832619008,-0.9442647312175674,-0.7043903902093065,0.5855280556190103,-0.8030838301745209,-0.6625330276759751,-0.8618004660383791,-0.1931034089669792,0.1915701514497361,-0.5829794329133178,-0.3718774439415893,-0.6525228909430161,0.6159535565674494,-0.6110406677622346,-0.17935357052572853,-0.4130253798817973,-0.5636338722297585,-0.2034214197149371,-0.6432885027997342,-0.13106308469670402,0.3613653182717256,0.6483017054454638,-0.7086860835651985,0.26472628082229166,0.6280064789991742,0.3783685506343666,-0.9302019291701367,0.934460682975472,-0.21967795082103336,-0.8903726484850643,0.6882665090135767,-0.5395633007365632,0.13912209775463102,0.3611690142174011,0.9146546774007873,-0.9951713441504626,-0.16441057833587625,0.35194509394726636,0.6214314634840254,0.6907500500008306,0.23118104892940838,-0.17350712164356996,0.646068513200186,-0.2577900739371659,-0.3503748542533487,-0.995914901383089,-0.9314621534958605,-0.9993871340885134,-0.8105749679761503,-0.8554387647057102,0.36595384581041923,0.7729717950087402,-0.22201711040545158,-0.09007536786273063,-0.49993298780463413,-0.6627114561954146,-0.3413247532118171,-0.9998552465086727,-0.4685956838233807,-0.5307010590514021,-0.9655906928585438,-0.3401341467075676,-0.6877105099929026,0.6620608182100132,0.4769613442461855,0.17563360542802608,-0.15074772664723768,-0.8675620381069771,0.6345462036418856,-0.3705701017928422,-0.22990962709042995,-0.07920571574949653,0.05378399177490789,-0.8112097520254371,-0.5006603795087645,0.9426651362335297,-0.012575139476011188,-0.5419467026012375,-0.6620490631887286,-0.17050751383436857,0.9413966219868981,-0.8214929584610793,0.8358133206761,0.8328631428800066,-0.6888589582255447,0.9053423174544712,0.06621362947822762,-0.4263706868506987,0.4554057101078339,-0.1667270629648372,0.43402356870856074,0.35697972865981886,0.5692009635838051,0.6646278198328028,0.3653164906244921,0.09143227179983326,-0.1896952660791067,0.643412266655119,-0.810543402546632,-0.9489396103281433,-0.2604642819407734,0.2759347299700001,0.7903893576265666,-0.8995278004697589,-0.7796445974204109,-0.9602614944674193,-0.2175885766908192,0.4787699951548934,-0.4334388986060489,-0.3124494744553621,-0.5887278722792559,-0.9443631506130379,-0.014856097872843366,0.22300094796720638,-0.782115058514883,-0.5027455565895911,-0.7524428462652275,0.9767307778741734,0.14724562927079732,-0.5386694508860461,-0.6632023906104532,-0.9982848034405125,-0.4768624089588167,0.07933073266184643,0.7766937870613397,0.7807939423757471,-0.32528724177110835,0.6604956822910022,-0.7125970429808044,-0.611088824555347,0.35045049754660584,0.3612410347249715,0.9327572274379816,0.24249731316375556,0.22372687429960436,0.18955955531682345,0.7959317166203201,0.05361846824748162,-0.9216865109687853,-0.15158199220618762,0.9551159072698217,0.13508636191736034,0.370782278903947,-0.8814345066730636,-0.837277270542262,0.5833169086489782,0.12251464736344464,-0.2940444678551788,-0.876299657349062,-0.3501190400812011,-0.9557663815327799,-0.016097465035122216,-0.4580600825023107,-0.30769056835376163,0.2565379431133623,0.8361202014990279,-0.33029395461300615,-0.04379169314098652,0.10379749391219462,0.23650245950944537,0.26406416376946273,0.3635082792890285,-0.07186489553714792,0.08715323678517262,-0.015644265490946774,0.9958664226748182,-0.01141426523089506,-0.9660118025476043,-0.2082868034179537,0.30104511775952547,0.1987825934436398,-0.35598527323000817,0.9570871804609749,-0.1344613354189561,0.10471786749274381,0.2481514607998876,0.016383004633335085,-0.5216629237610524,-0.9963739847117827,0.3801585720205738,0.27607012640862116,0.2015525568842882,-0.0941152994443124,-0.6406095120084765,0.5366981842142711,-0.3506836746939459,-0.6918109184525219,-0.17605551585226453,0.2454524480407254,-0.4038333026280714,-0.2529122787316871,-0.13548830640498433,-0.964203744344416,0.9146627477076938,0.13266119901761342,0.2859326847149122,-0.05023101426634424,-0.9542425863484709,0.5964531157891804,0.8548562716673895,-0.35092541775424935,0.5921633055188387,0.7390451262482285,-0.18640035070238792,0.4493659886326946,-0.9260970825226367,-0.9204153020098169,0.3843144862461547,-0.8166527093028437,-0.6444014289601401,-0.16301996557443177,0.27887858668946297,0.27757472837885877,-0.07955700416838085,0.3700400771133123,-0.19173603250845783,-0.6547738767971434,0.09831233373259218,-0.5815540278159443,0.6102386463647282,-0.0926724111116266,-0.41784441897755986,-0.495757022736774,-0.36912397074877945,-0.8100652317280135,0.05652307524287292,0.18268191906858422,-0.21534042344182192,-0.7909243021775858,-0.8828867977356689,0.30888135442701126,-0.25895078159088314,-0.41936620107299594,0.2502897439241756,-0.6578744878336931,-0.252736194738173,0.09550483559491929,-0.3888048152224577,-0.23622457915974215,0.8685259958105778,0.049507785921287795,0.861484148903976,-0.852801731987122,-0.31306848341058546,-0.7201637225650976,0.0112562412432331,0.4600094974860247,0.5711742744260242,-0.1654336736486406,0.9214324875556179,0.004498818944109306,0.9790397956860775,0.00921262568477621,0.8387773029354837,0.4123209981897622,-0.7059969356179494,-0.8536451959873803,-0.619835432865717,0.5047509351060135,-0.41152185827401744,0.8025229102962941,-0.3333351143077874,-0.31562332936430715,0.9822041694497519,0.8981974447697965,0.9828886013157432,0.07372296782466958,-0.961648138977393,0.5573244500953294,-0.04545403938139736,0.9987363248777821,-0.8819866322995049,-0.10598382478066881,0.11335145231764732,-0.5521940034631865,-0.08160152977684088,0.2985822026300562,0.030896473918510248,-0.46502137288488177,-0.903358401754851,-0.6691149421546054,0.9649296870267863,0.0718128355108254,0.2951394061488708,0.290479310581957,-0.9410461996360551,0.8148109153693897,-0.9265568929257775,0.2395842043536205,0.3678506944844626,0.5128135828979354,0.7613316130515915,0.38103794494421517,0.44896184833802066,-0.9394799026446572,0.5253543356616805,0.09068735433629138,0.33432637305608526,0.19930397603248373,-0.4951328900365777,0.38696148877687353,-0.3888577975848444,-0.5133860651155824,-0.5061773436802286,0.8916797416144226,-0.35478828272756036,0.38600158289542597,-0.762061877226782,0.6360044757354877,-0.25525575332798,-0.1553349522674381,0.4399176994798131,-0.2245232944854345,0.9410133875792182,-0.15175761891008843,-0.6704992142132902,-0.7051486808370118,-0.07507386227406188,0.03322897896027088,0.2396291205819716,0.3259442795062011,0.24483834756610667,-0.7136822470479931,0.5328581693610159,0.839867577129529,-0.2997596903944555,-0.4677316382187473,0.347196937871195,0.5738910981601717,0.4021739200321397,-0.722258502952249,-0.23980403432734265,0.03287785222740758,0.47569961866508037,0.8012634613035698,-0.7880533763292812,0.8870062944444572,-0.231405500548036,0.25609301499570725,-0.4524599926489352,0.3318329430784652,0.28897145290563064,0.8420523432345617,0.9246137267876327,-0.5234921383613813,0.4122065685498222,-0.3917923859604364,-0.9135733742657908,0.3735124500678535,0.9615051577589726,0.13014709537308145],"weights_hh":[0.04914684692262594,0.1502171997748205,-0.5849498137064308,-0.01014797141432,0.8259148629894975,0.6701344582407212,-0.30109820124886943,0.338701789323715,-0.4501375062356785,0.8142891659405649,0.9663413708532003,0.2827319617420747,-0.11323744596266594,0.4823296230674692,0.9302808955372079,-0.44226529115076896,0.9557216994112285,0.7474974924235216,0.5977122232714607,0.044651639323265435,-0.6585902798130361,0.7943353417817094,0.2320076396319426,-0.25810878212011135,-0.23090651426150366,-0.12917782212097273,-0.3511379236494865,0.3377186096727405,0.12366294031789504,0.6395791264863113,-0.6228462375293891,0.9577340639135914,0.9558790903140957,-0.7992148656767972,0.5083630448522467,0.732102358110619,-0.5851034167046627,0.38477915317270517,0.34448630622242593,-0.7630751259398787,-0.2030891133595878,0.5149555588765524,-0.40584926431869217,-0.7778719230229152,-0.6838885304639961,-0.6701915428675442,-0.3888427791898268,-0.8355132124268567,0.3408449860167315,-0.724863157795419,-0.29507116271824985,0.18735507393049988,-0.4266856859961492,0.6156550522468083,-0.4943867784488787,0.8735862058551538,-0.3318887839198652,-0.632661439397499,-0.38926744554184434,-0.23877325744697653,-0.8433696590443742,-0.5232018310726143,-0.5364198211277633,-0.2328834247634577,-0.6437798270383539,0.6854115852854661,-0.5302520662144952,0.6331429653233398,-0.618854684733908,-0.3630463762781815,0.8074171970248305,-0.8643304993969296,-0.21562803174927203,-0.10762363680330167,0.07809194342917758,-0.8142271177749569,0.2854296447249869,0.16855003492216558,-0.3062518836421746,-0.38501536508885215,0.2783707644469957,0.561529863834425,0.5787917466133143,-0.39178412045126443,0.3732877390260654,-0.8686613674246595,-0.07270959042132041,-0.7603519208299989,0.06265914990423704,0.08315688341033933,0.030295881246520828,0.10741168944116608,-0.5872682887638745,-0.18993991164061663,0.059758327783596465,-0.2329831542393701,0.03484838502042664,-0.3635818293094093,-0.8232271845836401,-0.19503594546848757,0.04464958743285896,-0.7321757932172213,0.9186171913670198,-0.5886836392647401,0.8360622468493808,-0.564980097320966,-0.19485654811121123,0.17608724556235567,0.22582725838411366,-0.6982009389951058,0.15936730193017112,-0.9781512652167463,0.0785143924715892,-0.33281056457029123,-0.15905011674105007,0.8166681637313029,0.589551088488862,-0.14827143487727112,-0.785755211030261,0.372916833875073,-0.9721175870394672,-0.7200169090513637,0.24215606573479742,0.9609774786352896,0.6392590940407914,-0.9955926160936328,0.1255477039367512,0.03733905983513708,0.3550429247686204,0.15724226896422477,0.5551901079774921,0.6439648396457291,0.8984936699922543,-0.7488989149531873,-0.4381221457575539,-0.7688069344444439,0.34385728801828996,-0.4172751248536999,0.7307874993425509,0.20208401827039313,-0.7563473583315088,-0.47038567707177203,0.7537487054290559,-0.7191522782606734,-0.3310622740878053,-0.8382768149853757,0.2572157500165697,-0.49956067697428197,-0.6904032176000159,0.5643743336525255,0.7215243334197607,-0.13724858223469405,0.1754324147909494,0.8358256090828735,0.41985002113013037,-0.9406667190120943,0.38158236927720424,-0.05187527801042102,-0.2214910045617855,0.7890683736910069,0.04826778744514004,0.9635683033337674,0.44735974779413623,0.7365741255902039,-0.10820756603447568,0.5107733748633623,0.6918525339224235,-0.22636444964180003,0.25675828482513774,-0.3319114439003592,-0.049326353758766706,-0.0010626410102356765,-0.12091705743558823,-0.3969201699649043,0.25772376709718725,-0.40394120752414797,-0.7356385495429272,-0.0274498621900805,0.9023531258813655,-0.8037111707339648,0.4284275728252547,-0.6205923254996366,-0.961632887995231,0.4051472240800631,-0.9764159792329539,-0.08137662068352713,0.7445076758855371,0.8330602394921303,-0.5509096819501442,-0.957080474574318,-0.7425074781031913,0.8224533638854032,-0.5524889987168888,-0.5827508620001625,-0.7088312121143674,-0.5403079731698028,0.4888089675065028,0.8948023686098026,0.41246780477168943,-0.4540700992750726,0.3876702135252581,0.9633943186744209,-0.39901255190371065,0.6982784254678072,0.8031018743985168,-0.5431721340014046,0.594108397015173,-0.9902279474557905,-0.9988896468151869,-0.6681809290276219,-0.6114700047633335,0.9217389169581014,0.6981488376344358,0.9871255481087942,0.6175917047787576,-0.5175630872775003,0.7626792127183364,-0.3448100214529912,-0.9309423464051914,-0.10891447098364426,-0.09345989821000211,0.7281738672871088,-0.9487105990581468,-0.9418156056457181,-0.8538179178592364,0.9873532482877061,-0.08097208289298297,-0.4128515459407922,0.41331606970901213,-0.49872289411857285,0.5928210937939382,0.3458332295909221,0.38542191574926266,0.25080536352317506,-0.49653656764664755,0.8673774137624048,-0.47420673215292,0.5242955860093867,-0.627882797538492,0.9893950767078465,0.6269491008298476,0.09431242424888575,0.7773130068441307,-0.28849771987812245,0.526380152337022,0.969640719424844,-0.23482222656401563,0.5611455815077173,0.2517666065529205,-0.8919102015524123,0.2567550157173617,-0.7979125492201191,-0.8739303730982857,0.5222931701093889,-0.2805201569433986,0.36043634859064655],"weights_ho":[-0.5318969731115692,0.823780700223911,-0.7587133185811317,0.1689231902842283,-0.12772572537390992,-0.9739232274108447,0.6499982059609521,0.483185062167401,0.525700503134074,0.9856785466303428,-0.0880549787210767,0.9788749448730885,0.27159615049859864,-0.815234872863704,-0.7605254274781164,0.6302542961481254,0.5843554640036235,0.30094209727499255,0.5600115030299959,0.2353890813034416,0.8228751928530202,0.6978067833264034,0.27715477014346646,-0.11194161951134474,-0.044138841385441996,0.1671637883508299,-0.3504804654285292,-0.21637505349597985,-0.3429646811395961,-0.6386077849334246,-0.5372411068706435,0.717573506362664,0.6773153797944009,-0.9106552283253531,0.2771467086709769,-0.09619118695163409,0.7165403087656583,0.3544992186069762,0.7805508541639263,0.22707361835261541,-0.3747197449533288,0.05725353087394791,-0.9021590549691474,-0.7190024044592642,-0.21607874840454855,0.262245659544289,0.37236446611269813,-0.9340501597875199,0.3666694974205158,-0.10874849982832191,-0.16220835849720983,-0.5570429822650698,-0.2864650870603771,0.747096475446823,-0.9115805545778959,0.4260561160027394,-0.9274498581477211,0.7309765183720258,-0.6172491824072268,-0.8336661878089517,-0.4242364165469701,0.15714179605381262,0.5554453095132106,-0.15314492192512907],"bias_h0":[0.38832240319542954,-0.22463974583069168,-0.2018173691081233,-0.8132614097298339,-0.7618012362872666,-0.5457826074296372,0.007616966238690681,0.1690936329411823,0.17887984296412873,0.4836054860724317,0.46712571630578803,-0.7398955144322701,0.49350269977667205,-0.38010237342610953,-0.14350958361541366,-0.374595863233415],"bias_h1":[0.7313929802862984,0.6043518577905758,0.7406730599189255,-0.37722436077017774,-0.038378637113902325,-0.16869703630668953,-0.8106500982892839,-0.9069033600035099,-0.6846981468973656,0.7481095004847085,0.6629871218943792,-0.5852201458579747,0.5649180644210374,-0.5798093743654085,-0.17026224857791883,0.8666578878540097],"bias_o":[-0.6952982042937412,0.26428623186540756,-0.5187358839970244,-0.3619240864806592]}