{"weights_ih":[0.023196123042068972,-0.9593309239860588,0.4613705367191865,-0.5555834789833314,0.3016659040884728,-0.2252156650336019,-0.524595976807346,0.6938889678972577,0.158614660137669,0.6785177816663157,-0.4151333099202539,0.3701535059135237,0.6455374711028243,0.6418371399998766,0.31959084036306207,-0.5527708166132455,0.5385187539009533,0.7148326707965993,-0.345576836425568,0.9934355328158277,0.8641623480278979,-0.35280651842691646,0.08710065174397363,-0.16731049067605563,-0.5350247973223914,0.6202393557366845,-0.9123864711655105,-0.5305459350417714,-0.49069414680104706,-0.8377980579977673,-0.6283759904831225,0.3804100014572338,-0.3476554480937404,0.17154676669512514,-0.9010334013198049,-0.5093130863422846,-0.5971108196470014,0.5566755930207887,0.8720325798324078,0.4709140804833456,0.19759170074650578,-0.19624839224113289,0.7318400381316681,0.17910962699531496,0.6635074128992902,0.6859168175145804,-0.5790481538065333,0.3319458649440459,-0.37490784527207266,-0.4502449482278652,-0.6949455030708018,-0.9705887173219996,0.6921599684418396,0.6878467096168945,-0.6773736473432024,-0.006891968355396072,0.6890973680956205,-0.3108050049913227,-0.8946659445074212,-0.834688430448068,-0.8407778976487017,-0.7498380257494881,0.9879352214715162,-0.10586967613782106,0.534642000847044,0.07695310860889526,0.6328243820086437,0.48836150781600773,-0.29533442422513745,-0.5549857397260267,0.4700169384204027,0.36475661325498177,-0.7907688950791234,0.03599510988938581,-0.9235027913252631,0.35341697577628217,0.9169846778804609,0.6953055065773854,-0.39272118332003103,-0.4887943365690799,0.9700943250417497,0.2192531728581666,-0.5485353767113808,0.10465560783799166,0.45414137876063165,0.02068051982835506,0.6585833081071206,0.9211303629661958,0.5894281118022509,0.1925551918038355,-0.6670338157274798,0.7418809826141797,-0.4865022115485078,0.26833269164255324,-0.8597986198860046,0.6043673900546196,-0.07879548699127237,0.9035443050896912,-0.014807201389361868,-0.06866284424762936,0.6610973239731333,0.05166178907796537,0.42958601155467324,-0.6879425023503176,-0.26368150008124247,-0.5814952831793152,0.4317509835908335,-0.32541116507645396,0.8785374983789738,0.9052576573812572,-0.6719497617521026,-0.015085736977299202,0.49085727822305447,0.8622673665998193,0.6797524325005619,-0.5994358457281781,0.2355291236474526,-0.3536658700323414,0.9747975453800026,-0.9765748459019983,-0.5286501413927804,0.49448249330628924,0.841088327990207,-0.6017907539372016,-0.1576068891921587,0.7510481864099259,0.6516673591203088,-0.15969816549545635,0.4626719164127633,0.3330683264202401,-0.1508833736777162,0.4944147067487086,-0.24853048780370535,-0.4216588757337507,0.6583594968607978,-0.48253020107043554,-0.2888084362356682,0.4519490811103488,0.48870424186858386,0.16454449689939388,-0.7522126877318307,-0.43239628303726074,0.21089594283668345,0.9316710886898083,0.7510153502324699,-0.8206892534735888,-0.7872667659379216,-0.6544029174095527,-0.6583206969517361,-0.1639033182243801,-0.24925268312846516,-0.37730473031230605,0.8217507308946517,-0.19170947361983415,-0.609782121756401,-0.5398336842786922,0.38853264889006356,0.8233080728943107,-0.7697432500570391,-0.044130273898313144,-0.09246754696735882,-0.04213731114085251,-0.9337120546517734,-0.3179858160132887,-0.8879253863163639,-0.1559846396540323,-0.8167457805018343,-0.18396434433611253,0.9408522954628706,0.8922485385462648,0.29893484230037703,-0.334600838208885,-0.6640506222536178,0.8283597306236954,-0.3672033210848942,-0.592256679091338,-0.8951094906632802,-0.5759617796812655,-0.3997072623903526,0.11653935372185065,-0.655261101988678,-0.8474708436043716,-0.019819644562925953,0.7192458625150622,0.7293876573959572,0.9014895933992952,0.31392605419769937,0.17513088661458753,-0.6920282425313071,0.41727565190942406,0.8445359057572013,-0.5871012903419364,-0.278975916450928,-0.6923927317881557,0.5724965884553253,0.8684123485854047,-0.540388648211769,-0.12299407485237501,-0.07190043139898172,-0.32650462596569096,-0.7190990310841607,0.926178282960987,0.7764203491277901,-0.7068191663223702,-0.47498499975896724,0.08103547844992454,0.23223850512722932,0.6545714423166276,-0.8452225954032806,0.3980427867369205,-0.7874223261823512,0.8283070749283532,-0.46761825741977847,-0.5233444283480742,0.20444186360698957,0.4883892832873846,-0.045092093561444724,-0.03843706733665386,0.627357541857823,0.9427440146589074,0.4628172055329933,0.8862350935579981,0.03888949534101194,0.6313528661558194,-0.14746079581233418,-0.31846499667861905,0.5379944978293567,-0.08167667151649605,-0.281928706330542,-0.28180199393022964,-0.8226796685809816,0.46295144830437485,-0.9723299707826587,-0.09414860623300814,-0.21103630954825103,0.43846452674021097,0.38144258025110656,0.7469822469643443,-0.3026652379634527,0.7842905852094479,0.08016532592036141,-0.5506710028021333,-0.07243965257699281,0.1900845548659238,-0.9588085904664119,-0.8822216239009109,0.5549424756320656,-0.7657379221024003,0.062290094899753345,-0.784816693407042,-0.7536129561244156,0.46404525370201943,0.9009165538398662,-0.3151781094669168,-0.3892113329370612,0.9866371412912067,0.3236699169023334,-0.5093853842732416,-0.6193247967664712,0.9553764405114453,-0.3707603592337969,-0.03907985235718292,0.6457605608960937,0.3750809280394891,0.2611667943923124,-0.24218926828633847,0.11012420363283626,-0.7962408882529153,-0.35387896609426694,-0.19662050734311687,0.310964101268665,0.4312299176186791,-0.8428785980762536,0.4766240591830224,-0.32969633840078094,0.9299328153732063,-0.8555535933999898,-0.37574597771233065,-0.29139769151006933,0.50288798314098,-0.3478099111054911,0.9673424831741169,0.790850248697033,0.46545247802348766,-0.07987945444003541,-0.7080072152810268,0.8087777342673388,-0.5956144135869605,-0.8890128973818725,-0.1957382344605576,0.7311053939205678,0.4686088602578711,-0.08195622977529937,0.7602138663869904,-0.47514297153285034,0.6234039007164343,-0.7005989924805922,-0.5535782630878117,-0.4560317303944914,0.6185699823202051,-0.5381916807336029,-0.8129722035402167,0.5828377689464195,0.16578832486557493,0.5507456928582244,0.3953224351592015,-0.3608559296387337,-0.47372372904094906,0.8561672739965343,-0.5961016715074214,-0.5685835772953722,0.28212256273259206,-0.9565193860748302,-0.22086975813520326,-0.7639075642459563,-0.8405806802490181,-0.22161518912432454,-0.9869059133233977,0.7866068809609783,0.06897788611671918,-0.7227237222638374,0.9928687611319351,0.7731299937701519,-0.032561128000014206,0.6653741796004335,-0.989412039387086,0.6633589673642364,0.6113937214510814,-0.2259465164837986,0.4574787055587801,-0.0894765694625741,-0.577693828167871,0.6698727308094989,0.6740511184592943,-0.5288097804891063,0.6745888393794908,-0.29064700409447974,-0.8441628433780282,-0.9053145019890365,-0.6914448496868406,0.5881065129372633,-0.7154579289077634,0.7024533816523701,-0.01096830005608318,0.833346362279187,-0.7926811282484791,0.9955816517328995,-0.5575697086488867,-0.2656754542327595,-0.6015505426224412,-0.9091912213933777,-0.24737162300773208,-0.7153814659007578,-0.40397445856504133,-0.6744770827671385,-0.8862504613740825,-0.11862793996621446,-0.5152008643889903,0.9236556809543497,0.5462757745675477,-0.9229913859160019,0.6651512021813852,0.2552832292175047,-0.2515817129815139,0.15313391220138284,-0.6344959514539534,0.47875282641421224,0.48172848435860094,-0.5566700441875339,-0.5650697655719394,-0.7383816602622062,-0.2119348305659845,-0.6512650534338968,0.4937165448931209,-0.4393925215949681,0.6135262292698682,-0.06624567354637612,-0.580036210892708,-0.3702523072946533,-0.542905611033023,0.7410337077563045,-0.320754307798353,0.04060767379771013,-0.13868935289747175,-0.5610138787298995,-0.5130391895163875,-0.40557116860254383,-0.7806661152892669,0.38056548183323424,-0.9338034567905464,0.6368819137171291,0.9510487719377019,0.5232211464771139,-0.06423182102335145,0.8889875446895414,-0.9414106753878908,-0.2483961819325653,0.3197450930957457,0.7620996893078684,-0.7718479601243964,-0.9504577721273277,0.837783308219934,-0.8804370683240321,-0.4628488637008852,0.7223868264169677,0.8953769025812124,-0.9733090722142816,0.9999229833983985,0.7891072492865936,-0.8117392575162552,0.4549365471366853,-0.2777554915385425,0.667349638317591,-0.9475561987477561,0.36267024614458365,0.9577768833846072,-0.9204890457321468,-0.17859103485943995,-0.6137830834726514,-0.2410958619907475,0.37709251825188006,-0.5972958969628543,-0.20663849445508542,-0.06844014067849091,0.610945510721365,0.17641358853052425,0.4099326791294884,-0.3272383425280603,0.41366028277228173,-0.21316194302460167,0.23714198223852745,-0.8246865431792199,-0.6596145527024093,-0.1033523949666022,0.4919118470833639,-0.34336529803479854,-0.6932131199435649,-0.142842207400802,-0.23328746504653441,0.5247877942933861,-0.2829025881398788,-0.04979579041800242,-0.9529345352736964,-0.5372920896719096,-0.8126505738475103,0.22634613147781746,0.5272816896620289,-0.28965329912845306],"weights_hh":[-0.577055510596316,0.7355780608719045,-0.8655604786477087,-0.0469361705106246,-0.26824537681696037,0.551084985617629,-0.9750006839394985,-0.9768685786640752,0.18218268879344834,-0.23687710561313802,0.7253404589882295,0.739148755583614,0.4642160268473443,0.6466731251038684,-0.5298432164970666,-0.5950354044248383,-0.10112353572896837,0.9643876189794922,-0.42622046785566536,0.3211635372698891,0.8915218713091666,-0.008776013697706198,-0.33423545150210243,0.9265343649093869,0.5493740178189204,-0.5021741597489078,0.6850414060262306,0.8570772756546947,-0.42165851285461575,-0.7659339345593439,0.1544647233486225,-0.6302387582015527,-0.831149218621265,0.1659389573187291,0.7321033913119761,0.2128939588339036,-0.09021213809842688,0.42499179716553304,-0.08413427928566053,-0.2669373542893101,0.4031311762869887,-0.7761344123506249,-0.6696225161662381,-0.6913637121044005,-0.435192510813742,-0.9535276654405342,0.0899538566288467,-0.13342646755182863,-0.4985123427586349,0.40062612731053204,0.33841543551686937,-0.0817036515715972,-0.8240418814567607,0.561375155122865,0.2802800188714676,-0.6662092952250778,-0.7688638617692949,0.19415572876795628,-0.750549373022676,0.9882869551833928,0.1490431491945159,-0.6658310919401047,-0.3985912730960981,-0.776870502034479,0.06910188126847827,0.5888034312022832,-0.6731721767599699,0.31984386037532,0.4680378538777832,0.18455620744034662,0.6264668979292329,-0.5482168368699156,0.14744074564811083,-0.6718540960807309,-0.4991615078223608,0.7380224310398276,-0.7886654733830027,-0.3712293641523132,-0.0801163675157417,-0.348395373576011,-0.06726246886092047,-0.037071508824301214,0.5526255735004406,0.6101640005122833,-0.7482384143675669,0.18936073102739392,0.49497490511630016,-0.5410319222466462,-0.29008422613269946,0.7748107744593877,0.7932389909472533,-0.18213897292682013,0.16681173662532278,0.5028262149622647,0.1386317406316444,-0.8348925977447061,0.5412735909559863,-0.550402749507731,0.7179101303316258,-0.11668447912453672,-0.6829742129295397,0.019151027493006678,0.18416165642778837,0.5105414063823255,0.8017388275767348,0.42448562850376215,0.710924468640618,0.7119628479884392,-0.1961714543353128,-0.036039547695125185,0.13968724021569323,0.897375225226068,-0.24969970878026682,0.9908724723265185,-0.049735538092719134,0.04572855205043869,-0.40616477821002994,0.10770604301226383,-0.3768658650737726,0.15759461634250593,-0.4608107819369125,-0.1430872038009341,0.4332832403795426,0.9270168741522244,0.021671361032823855,0.5639825423329672,-0.044946438834459146,0.08698973784521336,-0.6030975077983312,0.7249178988874481,0.8940271503903845,0.428934052565072,0.6810737367618247,0.10870320800285738,-0.16138494650632484,-0.2036040371634238,-0.46712863956175177,0.7772528601839799,0.5992481219550696,0.14423365304776037,-0.8105129974050909,0.6902530179540398,-0.5744254229902432,-0.238985478141446,0.9805248890610743,-0.2883872713791611,0.03898373596956439,-0.8123388690387863,0.8702615750403688,0.43426479466044654,0.8265269208441104,0.20154370200701233,0.3664372808713068,0.31185505948745385,-0.49751936410911735,0.21333463275176734,0.7882822195663073,0.44517939554564046,0.20948598349437586,-0.65444303246159,-0.028704464075933966,-0.3191396435385587,0.20911094879785952,-0.6012386954300175,0.9469472240811725,0.6712521930944118,-0.07665345070674423,0.48233567986034287,0.3155232983158782,0.7909366447813324,-0.3157926194439822,-0.8643281509725154,0.6167887301744934,-0.9735418194103658,0.021646259407055668,0.9998736511297648,0.4478181816099238,0.6561175758270505,0.5320620689665772,-0.2128315863464505,0.1737116984384235,0.17441569316424843,-0.5226969305142375,-0.8241197994718832,-0.8995183192047729,-0.8483855728519558,-0.16960565945015538,0.44224123024545947,0.4692419270379724,-0.5720958452254985,-0.5188069052501443,-0.5865192464038458,0.015287746866229135,0.8205181707041882,0.45858956439914134,0.42390433155811547,-0.9541964102478908,0.38433518956032553,0.24858985806254785,0.7291190400151522,-0.991678229338852,-0.653589840756835,-0.29233442971617274,0.11611511346983927,-0.7113676366747068,0.015167140134061396,0.20506279419661944,-0.2971167561521113,-0.6500557985252076,-0.8693184452584144,-0.7997477522561307,-0.2614070782040989,-0.7245837088170952,0.04014932778973712,0.5949081021633467,-0.4034219730901589,0.6822584961643776,-0.7634071321283711,0.5163939814949681,-0.5471010187638781,-0.8628395249119647,0.679975520253022,-0.2707490760183786,-0.6775515638065244,0.8478844960901053,0.4022487587181989,0.9377272473427867,0.36914858149479346,0.13633892968320072,-0.058227293689917525,-0.44142890965119497,0.4381327477583654,-0.7536797643546727,0.4107995276791925,-0.04577707306357248,-0.08364206444723066,0.5627202329678531,-0.1487561466854408,0.014397386167664283,-0.14803857746761717,-0.2629969306881672,-0.7052802115410073,0.7828525703463765,-0.34486684008508783,0.733304019894788,0.45866199770562455,0.7471896766899009,-0.4187317971380162,-0.6443308799122962,-0.8006015603211087,-0.31908171084942927,0.7602409931749616,-0.5156277076549398,-0.9424667243179699,0.8414516947538806,0.26333126706853305],"weights_ho":[0.3833297527700539,-0.020657615172252175,0.6963737494841067,0.6105457078931282,0.8281432454905477,0.7422660123935598,0.9203128612866527,0.62325632038103,0.6091428973635189,0.733161034101403,-0.5831063547616167,0.5720300646172778,-0.39405111563682715,-0.16834283716078247,-0.6377020577883412,0.5848600987745132,-0.34097760250621834,0.6882846892732377,0.5917716210472943,0.9589440308830386,-0.7296848095672477,0.8760943619401083,-0.6167618294510755,-0.5001135107344836,0.07045423254207406,0.6201856417247922,0.35388965798988425,0.9876873376318656,0.8685011232078983,0.12144239281043401,0.4850742332283886,0.2161109484539594,-0.9125117744317925,0.19667396530858006,0.7614782696820397,0.9861364103342019,-0.03570634533161887,-0.16791447981216323,-0.4284027354432738,-0.6557258330323124,0.6863697457746107,-0.8951756285817365,0.5291506310095972,0.7985980105535699,-0.9007229615231642,-0.27395288424819486,0.5693026204681755,0.178149634032424,0.12797612355285515,-0.7486074904417743,0.7748095409679454,0.019323025028168628,0.6570957044645742,0.38408567238439995,0.4942408145769235,0.6582285439474564,-0.41057357220176494,0.6487881755441012,0.4989868537364086,0.8626255448839522,-0.8168881121208109,0.4589709255423646,-0.4093727754465337,0.3581875894424278],"bias_h0":[0.10982153360894786,0.14992451482927605,0.3227199551403235,-0.9127133541275703,0.9175648832588688,0.09706226509683114,-0.4222902651839482,0.47273801120385395,-0.5263676032164593,0.0678255898297273,-0.4206155890435852,-0.6793085483441264,0.7983752815844876,-0.0767229171960564,0.3194996040123732,0.6138623543456707],"bias_h1":[0.13831798985384092,-0.5736337614290776,-0.1339048036630841,-0.91066013510794,0.9699786940074064,-0.21116774015345774,0.3130316515008449,0.550975090840764,-0.7555093410727425,0.7597407005893106,-0.2934397259795918,-0.09885714884314267,-0.9866437790382736,-0.02757181571355738,-0.5495660784045122,0.28585351039031415],"bias_o":[0.7277609956619919,0.40285718595402376,-0.9274200563536081,-0.7130556809153712]}