{"weights_ih":[0.793954498405814,-0.9593309239860588,0.47401516912681685,-0.9336295798769663,-0.04069351808757915,-0.4504301019704655,-0.5345785322147432,0.4569679996620857,-0.14067628777284846,0.8206986367320457,-0.4151333099202539,-0.2850329635457476,0.5122841328101226,0.6418371399998766,0.40659173568120544,-0.6495943955895997,0.5385187539009533,0.017811017847300104,0.2683228521694354,-0.9630367202102534,0.5017029467107557,0.4008093046666934,0.07455130522813613,0.8270526691504629,-0.5350247973223914,0.7677720518723481,0.18341107974202076,-0.9518388549848558,0.02018891062083239,-0.7624878131392185,-0.9711059121434227,0.9174067922722016,-0.3476554480937404,0.9549662947894981,-0.24163441103256877,-0.5093130863422846,-0.6699235268242727,-0.4081061497514451,0.7167982779355906,-0.4173090803142909,0.10175167618132086,-0.09281741434965673,-0.3552595378176149,0.17910962699531496,0.5493468893131894,-0.01318718533230534,0.9300638611785113,-0.16550863006819805,-0.37490784527207266,-0.4502449482278652,-0.022447629926940715,-0.7750085104766771,-0.6085075353998695,-0.28231341282265343,0.6575933496601103,-0.9884979235923788,-0.8966783559053781,0.2834087425786833,-0.8946659445074212,0.5868927759540536,-0.8407778976487017,-0.9176854516377204,0.1306174508736475,0.19560070175499167,0.9498068788573582,0.1495825727449136,0.6328243820086437,-0.8249490658672676,0.8168081491017047,0.1887236640154677,-0.6324568190086313,0.36475661325498177,0.865025688572425,-0.030867547975754084,-0.9235027913252631,-0.15909247590127418,-0.9154444352707882,0.3460290845242284,-0.23945297402401966,-0.5085513434889786,0.08727378728774582,0.3466323205462334,-0.7254864396845884,0.5897575233504204,0.052615350566795005,0.24185221372660903,0.15203290456706142,0.7828310265636751,0.5523104310399802,-0.331233138785872,-0.6670338157274798,0.6503591717136681,-0.8003077658848126,0.7464194560016866,0.15081823941592787,0.6182921763751399,-0.07879548699127237,0.845668490389339,-0.608880247708206,-0.631331452815439,0.8288862711937766,0.18723512173799883,-0.7260526953068942,-0.919600017934969,0.27811003584978256,0.11329537350499197,0.7907417388499238,-0.012760641412380647,0.7750039452624764,-0.22273288031368343,-0.6719497617521026,-0.015085736977299202,0.49085727822305447,0.8622673665998193,0.9242642989715548,-0.5994358457281781,0.2355291236474526,-0.3120431715477876,0.9747975453800026,-0.5492700186640995,0.561858515702482,0.7488833642065782,0.841960805502387,-0.6017907539372016,-0.1576068891921587,-0.3207251460835594,0.8811803619275203,-0.76216192323598,-0.24228268085777827,0.2996120552866024,-0.1508833736777162,0.6472609306679631,-0.6590253527629302,-0.8586947123352258,0.4892550679266552,-0.31188653330045457,-0.2888084362356682,-0.0694889612392926,0.7530171250853908,-0.885987588359296,-0.3140118270955903,-0.43239628303726074,0.21089594283668345,0.5886261421943124,0.7510153502324699,0.7153035246022645,0.10990357398600237,0.26629422856037177,-0.3008579206391835,-0.1639033182243801,0.2976107927554541,-0.37730473031230605,-0.05534309340145693,-0.6917099877806534,-0.45319399344146305,-0.5398336842786922,0.8843885005475498,-0.9922370053110823,-0.14872505821003457,-0.9121649388916924,-0.09246754696735882,-0.41070132388230474,0.9890171745312919,0.7414110106193548,0.37917062617109676,0.7400809699235471,0.6436945576412609,-0.18396434433611253,0.9408522954628706,-0.7043093285046162,-0.327346734272423,0.00767663523229456,0.7657353603704926,-0.4606255951222773,-0.5070815649899758,-0.592256679091338,0.481364983347367,-0.6598691210483951,-0.2717575685790754,-0.5523563553746087,0.012052579410334108,-0.1651311430830047,-0.019819644562925953,-0.49715163297252785,0.5548076651173675,0.9014895933992952,0.896075133553196,-0.14922288993527388,-0.6920282425313071,0.29393865433130517,0.6351256033860486,0.9929796959314015,0.41515868611995255,0.9257257946751096,0.5724965884553253,-0.5303300745607105,-0.540388648211769,-0.7769679252767268,-0.07190043139898172,-0.32650462596569096,-0.4782896532921268,0.033600897393734064,-0.1349214659925546,0.563831590158232,-0.47498499975896724,-0.28117241080120214,-0.7236008076765241,0.9108188189123532,0.10126090652422626,0.21096496795209885,0.8986798904306519,-0.019279341263632732,-0.6945605583381704,-0.5233444283480742,0.0898747079378106,0.4883892832873846,-0.30763307969249665,0.011414861910145069,-0.3635526150174211,-0.599644762772046,0.4628172055329933,-0.9341216840081148,-0.34054486540041484,0.702685325378112,0.37301396894554273,0.9739174797386918,-0.40231547012405944,-0.08167667151649605,0.24162501582440665,-0.27528441917646806,-0.015352070324565315,0.3783660809742002,0.8801770942117806,0.25239041248825966,-0.745352559575948,0.24688397934514095,-0.5577791877513814,-0.6196675143378261,-0.3026652379634527,0.7842905852094479,0.08016532592036141,-0.49864891308010506,-0.8482854256080639,0.3083187603131017,-0.19051150301729503,-0.7079173252249089,-0.21491168878720068,0.43681904543883676,0.062290094899753345,-0.6254741542936675,0.39771081703403954,0.4218962051216564,0.035911679959567566,-0.47414183037206925,0.6907854262689515,0.37470114704947166,0.775461143367185,-0.5093853842732416,0.11377501656316724,-0.6446152092172754,0.15670755996057362,0.2549479064671645,-0.6906557681751724,-0.6039561057605449,0.44895252619799586,0.5618694390657697,0.7843479806151115,-0.7962408882529153,-0.7146968524560853,0.3976588824883507,0.310964101268665,-0.7914176688123467,-0.8428785980762536,0.4766240591830224,-0.32969633840078094,0.5781588456879605,-0.8555535933999898,0.37105389785665643,-0.29139769151006933,0.004926912311919329,0.04882437586681543,0.9705543430899184,-0.6137090882282916,-0.5077682052322574,-0.07987945444003541,0.3296288080841081,-0.013819878814023134,-0.8623531873590189,-0.8890128973818725,-0.49763234907823795,-0.5886516191811022,0.4686088602578711,0.4781858993800987,-0.9639801625342099,-0.91388409398717,-0.4642187942760079,0.5214963875897891,-0.08522917751724557,0.4785064536764183,-0.5355607965197879,-0.0371746979166101,-0.8304153427176395,0.24073347875591655,0.7949238372098115,0.5507456928582244,-0.4850827469194334,-0.07491698870829566,-0.47372372904094906,-0.7664623554712124,0.6704100640481077,0.4518153779537739,0.4582431636490454,-0.9565193860748302,0.08588339061854788,0.2851756059298296,-0.8405806802490181,-0.22161518912432454,0.860352148398001,-0.1244562859274212,0.8484299776334181,-0.7227237222638374,0.6236433272149491,0.7731299937701519,0.4617715393445361,-0.8756965782768293,-0.989412039387086,0.5477564435041382,0.7764642607050791,-0.7489892503976963,0.8540639968260211,-0.0894765694625741,-0.08788390310121885,0.6698727308094989,-0.5648897139318041,-0.732084791224781,0.17063532410936877,0.4668645767014874,-0.8738975863932346,0.9169571865906183,-0.7502553665305278,0.5881065129372633,0.48443019578809676,0.7024533816523701,0.5245796855383691,0.833346362279187,0.3844766699398805,0.636208689806568,0.6315759558443068,0.1464065344353811,-0.3684033079712592,-0.48917046926755847,-0.20103322716462357,0.8977764283305933,-0.43299718383602115,-0.6744770827671385,0.43987370496365896,-0.11862793996621446,-0.5152008643889903,-0.8381299069438841,0.5462757745675477,-0.9229913859160019,-0.023932587249872128,-0.2411774025211415,-0.16029147066197402,0.15313391220138284,-0.4483153474007415,0.47875282641421224,0.28963621805463746,0.3715325531259306,0.8491413137829031,-0.7383816602622062,-0.2119348305659845,-0.6512650534338968,-0.6550122843454809,0.7476344412855109,-0.7886925842116239,0.10213137969747521,0.8592273557905743,-0.13956030495146643,-0.45056684749519227,0.29149153454325316,-0.320754307798353,-0.4467657737497541,-0.049625339741037555,-0.5610138787298995,-0.5130391895163875,0.530386344434483,-0.37915890900118443,0.7116630572114113,0.9180577072793601,0.6368819137171291,-0.7995792953228504,0.5232211464771139,0.5917251390341876,0.7652824484366345,-0.9414106753878908,-0.2483961819325653,0.3197450930957457,-0.8654901091549767,0.17391387238412293,0.6748656719664836,0.0854301984559327,-0.5507913967294522,-0.0607937540827288,0.6074045522634444,0.6970599042045931,-0.19196124956810645,-0.5978906340472279,0.8039365906415685,0.8256667083515836,0.6911338365594628,-0.3061706458403757,-0.8664764890198418,-0.0036658105858478063,0.36267024614458365,0.9577768833846072,-0.9204890457321468,-0.8460244233682992,-0.02054439829873944,-0.9023710862077814,-0.4321816974315418,0.5261507600439785,-0.2530492114783489,-0.8731193017006644,0.9267384620250749,0.7013818236084897,-0.15227385061051546,0.41802955345361914,0.41366028277228173,-0.21316194302460167,-0.05494894171243825,-0.5658970887817794,-0.6596145527024093,-0.9623270207259145,0.4919118470833639,0.456939359908878,0.6655749962946254,0.43740515171915995,0.022245536938552135,-0.8702185856442621,-0.18313993213536217,-0.7506738005541551,-0.07167946273024928,-0.5790835759806026,-0.49467923264169156,0.22634613147781746,0.37982626260797003,-0.9680285486885405],"weights_hh":[0.40205011819089376,-0.5442846673919188,-0.8655604786477087,-0.0469361705106246,-0.6284233375051871,-0.3062827209710066,-0.21091346588218407,-0.6644472858338111,-0.7242941320328917,-0.14350486155683906,-0.6489013377689903,-0.2228871646338375,-0.7251616569218491,-0.36422093507934505,0.4701355662213773,-0.4574931743225632,-0.10112353572896837,-0.6539250004770167,-0.42622046785566536,0.3211635372698891,-0.3431917471467725,-0.008776013697706198,0.391490513895679,0.9265343649093869,-0.3094251003586934,-0.5021741597489078,0.8373387873166724,0.07183068879346055,-0.2913877504746014,0.04786826957483936,0.43388437290071136,-0.4026928541722863,0.1671807462428494,0.289397287678002,0.7677595424688575,0.2128939588339036,0.6940143745756935,0.5481660006023856,-0.08413427928566053,-0.26189102720469193,0.4031311762869887,0.031947134245195574,-0.12182334518439664,-0.5939839025941553,-0.4508421053678313,-0.9535276654405342,-0.3364926798452159,-0.4922472601601089,0.018807899983060317,0.40062612731053204,0.1472267476765814,-0.0817036515715972,0.3032092694598494,0.45317354245260155,-0.7132727507460921,0.1690748730213334,-0.7688638617692949,0.9191291311665879,-0.750549373022676,0.9882869551833928,-0.35625493994935,-0.6658310919401047,0.7121124498626394,0.8329982392790538,0.30735977221902244,-0.061098033131142815,0.4066430757652546,0.004001925732818101,-0.6543912628462525,-0.8382323206776101,0.7264913640917454,-0.5482168368699156,0.4182064897896096,-0.6718540960807309,0.2288926318299691,0.40492114836675275,0.058047639646142235,-0.533597629857806,-0.4277698577984119,0.17999124366279107,-0.04416484816965793,-0.037071508824301214,0.25248085863570346,0.023344178148148043,0.9768517378882005,0.18936073102739392,-0.06629205256530013,-0.5410319222466462,-0.8035863512813544,0.42215134145485633,0.7932389909472533,0.08434924127421728,-0.28956986444143973,0.4108724764244971,0.9869490435554868,-0.5696785610510451,0.5412735909559863,-0.550402749507731,-0.6437050787595242,0.6542540647076347,-0.4589856666018193,0.019151027493006678,-0.9724972859927661,-0.5542708511345398,0.5579417820856132,-0.6048717600871321,-0.1583687986805622,-0.9672466775403343,0.1011363016882676,-0.2815831090821135,-0.7160499182597835,-0.7848133503305692,-0.24969970878026682,0.9908724723265185,0.7031669839353363,-0.9755494191023681,-0.41260856625725006,0.8483430456789585,-0.3768658650737726,0.3339073498722107,-0.4608107819369125,-0.1430872038009341,0.3285071720233037,0.8275791200397702,0.404538655876558,0.5639825423329672,-0.7113638205075465,-0.1422803149693066,-0.6030975077983312,0.4283871032933053,0.8635526088122927,0.23871981933831177,0.03166639832620799,0.5149530168263698,0.6474882031281091,-0.2036040371634238,0.24399561212215004,0.7772528601839799,0.42225337900659987,0.14423365304776037,-0.8105129974050909,0.6124251343118032,0.9855718669181495,0.9926629106748828,-0.8553981682907641,0.45206140783181126,0.03898373596956439,-0.8123388690387863,0.48551956422545994,-0.9417758720020786,-0.054979291519972495,0.20154370200701233,0.3664372808713068,0.760380655576065,-0.7530012765340646,0.7214560631993476,0.7882822195663073,-0.8980303558264158,0.2412935926267772,0.6274286383667971,-0.028704464075933966,-0.7006124728542285,0.20911094879785952,-0.6012386954300175,0.9469472240811725,0.8116509744343599,-0.07665345070674423,0.556470107731383,-0.06166645135752424,-0.22947833513499805,-0.713225418586966,-0.8643281509725154,0.7099427090956827,-0.9735418194103658,0.714512187693034,0.9998736511297648,0.8042356311412662,-0.773448861464568,0.4451303976684031,0.009573577497546948,0.4565843963993925,0.17441569316424843,-0.47956329299498157,0.20296791147457127,-0.8995183192047729,0.6182280287990791,0.585043973048754,0.44224123024545947,-0.9493375168617402,-0.6477670654025469,-0.5188069052501443,-0.6563281880942118,0.8817782426546372,0.8205181707041882,-0.5575200726196308,0.3580539623466916,-0.6692748833648259,-0.7613224672997092,0.9204187738542609,0.5824117822906127,-0.79183624984196,-0.9963260136493461,0.6823255317213033,0.7942706587968977,0.8404942617386502,0.35363128917853426,0.8143465459131072,-0.2971167561521113,-0.18453921616254676,-0.08479703521299475,0.5420882201338186,0.5560674494382325,0.598082974291509,0.9463879885929878,-0.5081231808557909,-0.4034219730901589,0.815256776863861,-0.7634071321283711,0.55804084167003,-0.5471010187638781,0.9325491861462303,0.679975520253022,-0.13078870896017536,0.3832956996664092,0.8478844960901053,0.4022487587181989,0.9377272473427867,0.36914858149479346,-0.0047010989614793,-0.4934993221828372,-0.9445238275323593,0.4381327477583654,-0.9937031976132613,-0.5812239152394278,-0.19053097285663823,0.20132207818210035,-0.9674267927548019,-0.1487561466854408,-0.29698663248811674,-0.6514118572296936,-0.23906252155612306,-0.7052802115410073,0.7828525703463765,-0.7138247506371473,0.733304019894788,0.17186447354284806,0.7471896766899009,0.10410699484533148,-0.9234213287452366,-0.8006015603211087,0.7749766422727802,-0.7330641887355875,0.7821269184881108,-0.8964379096521546,-0.49644890918321494,0.26333126706853305],"weights_ho":[0.013686026326164002,-0.020657615172252175,-0.09073963200500601,-0.4638277709467531,0.8281432454905477,-0.9723989761469336,-0.13329757813173893,0.37366027023667137,-0.48355845095728656,0.733161034101403,0.8555889594846215,0.5720300646172778,-0.49175986910562597,-0.3306533346805185,-0.1059517362918454,0.5848600987745132,-0.20449423458101657,0.6882846892732377,0.5917716210472943,-0.7796411536326715,-0.9751684106272978,-0.8122747136320223,-0.6167618294510755,-0.7666511080647693,-0.2670299396367688,0.27000349460860007,0.35388965798988425,0.3698435432638494,-0.0007824415374926286,0.12144239281043401,-0.37498211769105927,0.13206412520751387,-0.49673861729011515,-0.8482644415101721,0.7614782696820397,-0.32189429600137487,-0.03570634533161887,0.2034647383786392,0.06463439955768724,-0.6557258330323124,0.6863697457746107,-0.8108974990637778,-0.7458545622228814,0.7985980105535699,-0.9007229615231642,-0.27395288424819486,0.9594077427106049,-0.46293807070158755,0.0684983397670289,-0.6877349065983531,-0.33750535797454817,-0.056516924124182966,0.6570957044645742,-0.8099306795126606,0.45023510233481123,0.9129077196402366,-0.24835271999577513,-0.6377267411439214,0.7035707292617979,-0.29688237477459345,-0.46753212099940455,0.5988467426012518,0.9060287817588979,0.32734457078879786],"bias_h0":[-0.6523267303176294,-0.5761882628643356,0.8340196591481839,-0.9127133541275703,-0.8882277154336387,-0.4346472558682406,-0.27818358512010044,-0.4323803297221489,-0.3843162477004709,0.0678255898297273,-0.9855116008901355,-0.42670217700084856,0.7983752815844876,-0.6353575291902718,0.38699168138160966,-0.16158832806980716],"bias_h1":[0.13831798985384092,0.9577496047020431,0.3320594761002962,0.6121040814654266,-0.49437966024535673,-0.8042408816697955,0.3130316515008449,0.6226689027046381,-0.7555093410727425,0.7597407005893106,-0.2934397259795918,-0.9983113725929214,0.9266391588249425,-0.8376253424725133,-0.5495660784045122,-0.8777692271892772],"bias_o":[0.04284218333833034,0.40285718595402376,0.5890792996095404,0.18105242728530402]}