{"weights_ih":[-0.9284279570237957,-0.23064293234238264,-0.39299772764333385,0.928638205432091,-0.0708215619967929,-0.1313969705851885,-0.5749682889721857,-0.6070837048111959,-0.676484196845349,0.6110855314475772,-0.49711915227028824,-0.8090143702157693,-0.3044094674916551,-0.012440365333361125,0.9690016337872807,-0.640098397356426,-0.44943312950116865,-0.6779849766347079,0.2583773048514326,0.9934355328158277,0.4011194767778081,-0.35280651842691646,-0.11797458809464345,0.2946669129329387,0.8469164613596023,0.6202393557366845,0.16019587623481368,-0.5564789026423165,-0.5597777937898314,-0.5195784860622328,-0.6283759904831225,0.05932480376855964,0.09922334181203274,-0.6999245876361311,-0.9302599832187144,-0.3539163409972159,0.6617498513532845,0.5566755930207887,-0.7613837891305155,0.5875850367053057,0.7875229897802665,-0.7655728089161757,-0.6633281618690143,-0.07106947314922252,0.5662762637079217,0.8381821796909277,0.6105295467427116,0.5164448249155067,-0.9103157276338749,-0.4421518013192296,-0.7545365585370643,0.8179934949245922,-0.6780183970679594,0.08775826937014664,0.4654469906757468,0.7887380112192837,-0.5476115506470944,-0.3108050049913227,-0.3296168155953094,0.4014903394168967,-0.5747685164905301,0.3187967763613886,-0.8982398820913484,0.7569730967326578,0.6172531791200015,-0.38074949953190274,-0.1955713303308999,-0.1354895696279408,-0.6849388246425383,-0.6316925786221459,0.8489610624920869,0.0009384329696757732,-0.7907688950791234,0.22582172431673841,-0.7625714889099067,0.35341697577628217,0.9169846778804609,0.5507171519830869,-0.22524135944313683,-0.419188112177749,0.38188665721144166,0.8864329491967993,0.3128383360180451,-0.8366941246157114,-0.23258826287946088,0.02068051982835506,-0.37854445338180875,0.7457097991844337,-0.6255245401005571,0.9473178122918833,-0.07731999569617765,-0.5243645448539689,0.41016731013254915,0.8590445806650016,-0.5672054244625211,-0.8660216632565558,0.6367454007942355,-0.8317900267974407,-0.014807201389361868,-0.16083528373636646,0.6610973239731333,0.05166178907796537,0.45772651839123846,-0.47401305826803797,0.6020104696803075,-0.7970670708411292,0.37930927017902216,0.7169140112022483,-0.7720312794103661,0.9052576573812572,-0.695297291886102,0.6248762581146097,0.3060103887855885,0.4151354183164988,-0.3971507358002557,0.0843227375767448,-0.7403661495681568,0.8035679100215851,0.07444393528027327,0.16418394070117381,0.9932760829123048,0.6368417929912895,0.29749656493764776,-0.27105863937116537,-0.279659866507745,0.0811682491059551,0.8790622015962917,-0.15969816549545635,0.8693330441162679,0.034596272653855564,0.06422829883559977,0.4944147067487086,0.9826451804346923,-0.49133549326517345,0.8916841277154313,-0.8173661054118633,-0.05665280621077451,-0.5355833498301183,-0.1655860107284628,0.5845780383783881,-0.8924518957386358,-0.26101368917797263,-0.039105247506864504,-0.5494558127739702,-0.80873816772622,0.13842501189482537,-0.7872667659379216,0.040666876146264075,-0.6870498753583036,-0.5564385133669532,0.23571195047891247,0.20351866145352004,0.8217507308946517,0.28431528530114547,-0.7779130236869927,0.4541016578841772,0.9390979927032399,0.8019218335326095,-0.4362256927953123,-0.16066808014113088,-0.11539307769247809,0.4163399674856507,-0.7827473452821754,0.4928037686458202,0.7424803899620582,0.3320343686588412,-0.09906167158208978,0.6181996571004078,-0.5258265612734505,-0.7238460613525834,0.29893484230037703,-0.334600838208885,0.21983527549288606,-0.031135154661598552,-0.15556997009581375,-0.6131193494908445,-0.9489557049682771,0.5327017248895924,0.9571202682685962,-0.6856822821147179,-0.8006415854208264,-0.34689504142894045,-0.9687134816264775,0.9989898365736027,0.7813804444399064,0.8917515933198139,-0.8366092089171921,-0.2692834273772611,0.29188152490136177,-0.29780569620752373,0.3125137161997438,-0.5871012903419364,0.6260409975448391,-0.1622600810881918,0.7637101811530658,-0.9362308857330801,0.4731688390234401,-0.12299407485237501,0.25368185392859166,0.8888779784270562,-0.6647732521163294,-0.7313380810687078,0.14203987991037992,0.8226138534386367,-0.9859327185414677,0.08103547844992454,0.9537336757540806,0.10387830401051179,0.8784313075307844,0.3980427867369205,-0.7940041072346946,0.8283070749283532,-0.46139804393371975,-0.35544308177925266,0.3987290038916229,0.9461694258070628,0.9460607112058232,-0.6553651491526418,0.627357541857823,0.4420349817652567,-0.49007229207454506,-0.7124513438719604,-0.9989742680104772,0.6624779553661835,0.8957302079341207,0.9524977322149144,-0.9943893965012487,-0.18176898960574395,0.4378687750960164,-0.6604745707295312,-0.5637946680695092,0.35009076386341764,0.3365637361997944,0.2896287735744214,0.1172191592966274,-0.9528119365578198,-0.5061098895353826,-0.6946203223891803,0.38164973034339855,-0.3628027646404117,-0.3010611914718271,0.13269150523020423,0.6274263564099587,-0.5972017305646962,0.7567077286693358,-0.9294041834845967,0.8386701254050606,0.7255211790886409,-0.05663434100015219,-0.7006813556411096,-0.22485777108591742,-0.46817697831541283,0.9009165538398662,-0.3151781094669168,0.7121594632442263,0.7546794781257113,-0.4431628679782347,-0.824546266240288,0.6943888296147926,0.9553764405114453,-0.5727924594442981,-0.03907985235718292,-0.38646916324995506,-0.8931891830757954,-0.6771068418468722,-0.24218926828633847,0.7116708552548645,0.42906262690061325,0.85874505868345,-0.8767729843882273,-0.5352490206298017,0.010382706667226405,0.5127153988198536,0.41319443579245774,-0.4862698830985559,0.9299328153732063,-0.28013645246897734,-0.5999871727625599,-0.1885233758579843,-0.036711333618343334,0.4316016683967767,-0.059246514996542876,0.6322863219468673,0.02280124079196222,0.1520234105102063,0.09820908152847307,0.6816412725826433,-0.4909599744932034,-0.9123991343128279,-0.1957382344605576,0.7311053939205678,0.7295203864493458,-0.08195622977529937,-0.8015202922900422,0.798222239984931,0.6234039007164343,-0.003257390182172637,0.2808350066752099,-0.6994162125533472,0.013706840989670566,0.5780111910301697,-0.6292051390964728,-0.2654094955151496,-0.5180910178298437,0.0480945243211548,-0.8858405127195381,0.1928910419179357,-0.7459607978583362,0.11793090325118438,-0.5961016715074214,-0.21790859317771138,-0.7245235619529353,-0.3714826240835809,-0.22086975813520326,0.7211974585986429,0.27217150324062755,0.2872516116207966,-0.9869059133233977,0.7866068809609783,0.37579979649164263,0.5090141264919803,-0.24665468791017697,0.7602483463246861,-0.5225705409531787,0.6653741796004335,-0.20461949503671972,0.9576796842349833,-0.8176220949753303,-0.2259465164837986,0.4574787055587801,-0.9524060842121198,-0.577693828167871,0.5604342088685754,0.6740511184592943,0.6025298152805514,0.1593161041955371,-0.9802547234720806,-0.8441628433780282,0.17782146240018637,-0.12952392767501308,-0.8601673443707705,-0.7040534263123686,0.9301863652394438,-0.5224854217520505,0.8981692251019118,-0.7595638380654288,0.4281715222224114,0.028965091554810973,-0.2656754542327595,0.05610422537075754,0.09878766183220855,-0.4435040892738258,0.664619993272122,-0.01974594146766062,-0.10315006385121062,0.9844068001267645,-0.20332921325358955,-0.8428326607290015,0.8217678954577501,-0.5247583798982098,0.3105663013317632,0.6651512021813852,-0.9745238791845081,-0.6983359255977781,0.7500778245322333,-0.5659263148315958,-0.9947882904713654,-0.6650664080962465,-0.9049582350399423,-0.5650697655719394,0.23193298816470986,-0.7270944803890769,-0.10207271036877463,0.5970490359471496,-0.4393925215949681,-0.9570635271450989,0.09165347088339426,-0.871415524505704,-0.561322580833798,-0.9177708149906969,-0.8434944354192828,-0.578892057258841,0.48932601934020425,-0.12540377839016403,0.4557057518488956,-0.4092446476287057,0.018929085481425245,-0.7806661152892669,0.6707126033362605,-0.14642606005978354,-0.8335482743486018,0.9924392611063795,0.5247253544065753,-0.06423182102335145,-0.9550079395286064,-0.5855832632931675,0.423391968326172,0.38534265157400327,0.683723843807446,-0.21134729700874888,-0.5833944571744756,-0.011599042062597542,0.5411426286645824,0.9698418720787343,0.046247453818622386,0.5159746634010385,-0.2588157702110736,-0.32556459667352633,0.7744698729204507,0.4433377962639553,0.4985451025076242,0.09290261044119719,0.702831414805902,-0.5030788816657834,-0.46322211896965126,-0.5281665419260968,-0.22715168813457587,-0.8387524916426514,-0.9369023345917047,-0.2410958619907475,0.018680746419140748,-0.41043248768364315,0.5228643273736886,0.9381642078770831,-0.4674670534869363,0.17641358853052425,0.5979135128532718,-0.3019823935668433,-0.09237157052075506,-0.9686811654880771,-0.7789390172694686,0.24947214500784165,0.5865212958267814,0.9685616645056794,-0.4729431654485352,-0.39367612492563864,0.5461185242519286,-0.3154734745663479,-0.40658095768294467,-0.9047071576602326,-0.6335322141337356,0.3735058831407778,-0.9529345352736964,0.6954093210176253,-0.8126505738475103,-0.4144191442746412,0.8478146745235824,-0.8313449570468128],"weights_hh":[0.9889042194136259,0.528570468575311,0.6181573886251179,-0.37663123059784764,-0.04432010584235835,-0.9053907483870343,-0.11578888701890078,0.05479588636824184,0.6045538479020296,0.261217793864726,0.7253404589882295,0.4789008794276197,-0.28400080808444317,0.3157627874733089,-0.3027609678082528,-0.7195800758089701,-0.04729707194407662,0.3633786287320617,0.5382499483519354,-0.16734428756444664,-0.2850912468961453,0.08355787940962678,0.12987094360367335,0.05538305354897277,0.5493740178189204,0.3226160674629115,-0.4554943064535688,0.9114058076822469,-0.42165851285461575,-0.2428432092443813,-0.5149153832800464,0.0848548280684045,-0.7363055940852465,0.329957925277655,0.8055634842242902,0.7974698031023082,-0.9261898346415001,0.4431950429348941,0.7360275892845956,-0.13622247995670111,-0.53335194494795,0.34203877363029833,-0.2605044961540779,-0.6913637121044005,-0.2218015877550683,0.12557392875561235,-0.9930752838665806,0.23597008141619313,0.7687240618614624,0.7094848422690767,-0.07835768047904201,-0.07062347131573432,0.6263387148432522,-0.9554491390546027,-0.6214929535811511,0.6462475873447882,0.7442601746315327,0.6347084283174507,0.1111612449913082,0.056452740161903936,0.21651676732365743,-0.5051600553024886,0.9893944214419879,-0.9335280367037291,-0.13753150314617302,0.5888034312022832,-0.6731721767599699,-0.9979704750776848,-0.17500229275689572,0.9066832859700567,0.9638661784261413,0.47697120497945145,0.04097681744779824,-0.23891303517400408,-0.4991615078223608,-0.4563352251967141,-0.2581529392098172,-0.3712293641523132,0.7780790636379997,0.5049992595089585,0.4622065454283588,0.9785008507452155,-0.6442092333157032,0.9663102880338188,-0.7482384143675669,-0.722333039781712,0.5705725409232549,-0.27339318909938903,-0.981625232715031,0.7748107744593877,-0.2857959799869634,0.8239096781180808,-0.19484698148323076,0.5028262149622647,0.6663091197682731,-0.7791659924137506,-0.5202755118241618,0.02850606698596936,0.7179101303316258,-0.2838578504736953,-0.03285856188849423,-0.45141158750725396,0.09192625190466308,0.4874494167717378,0.40187400112138905,-0.0717355466752394,0.5907061870283699,-0.15397593083360372,-0.1961714543353128,-0.6566992858787126,0.6503810314415013,-0.4137831537199741,0.7703833681391952,0.0928365600976564,0.987227168673442,0.38027968876845963,0.6276659290582496,-0.08240169300298095,0.8198455245591181,-0.5478133169101622,-0.09133833449328854,-0.5098913073316305,-0.07826458620894261,0.7546640368386761,-0.4682090499594025,0.6567667970362367,0.8340884208736432,-0.28715377609489545,0.6579614127739248,-0.5212413403217964,0.7668569459497043,0.35725529871587813,0.7997687664646824,0.2573316481551726,0.6662083078039325,-0.5443214948892305,-0.8319572916753528,0.29360403878366714,-0.19956753446796016,0.32752329509810996,-0.7940688451828026,-0.431952200395771,-0.38159615455586104,-0.3550522227672863,-0.2276848104007212,-0.13053851875991596,0.684177259174471,0.03407825764278538,-0.7713225056538862,-0.0312368119476627,0.9515870293500359,-0.582688379830812,0.04153271495101363,-0.7932623079311585,-0.6816008186168441,-0.8396143769768718,-0.050954471737648666,0.6325286736257496,0.778945885667212,0.7761297777800806,-0.6403344740723356,-0.4538488282120694,-0.4504285232764642,0.3884820942051963,-0.546207764656127,0.8161493582555293,-0.9380532423145544,0.326311584640294,-0.30587097244040273,-0.8085086007161606,-0.814899932692486,0.4908614733194978,0.3167381741911437,-0.6318139363709558,0.8739129477960519,0.19268607504695656,-0.9546636676426408,0.6561175758270505,-0.27573092647632214,0.826636398699738,-0.2542835618109638,0.5966823941189221,-0.2617915493673666,-0.25508320875165236,0.3218839136923102,-0.8371726032785651,-0.3409565712130367,0.43097190352706116,0.7668477556863322,0.044785651301517015,0.439466926427148,-0.7478656993895867,-0.3267522705864674,-0.6655791017738548,-0.31078405809291976,-0.8225814548871511,-0.15940901433935895,0.6435919094932216,-0.22472993963821275,0.7374104260093826,-0.06360019372849646,0.09627161244631521,0.18527512080823216,0.16155460197075766,-0.38029114020734744,0.21096024691217163,-0.7347577795651028,0.7265487930901213,-0.6500557985252076,0.06178536935138346,0.7615825777396013,0.9142932645017618,-0.7245837088170952,-0.31655835792111975,-0.5651872352432046,-0.20223942599368017,-0.9940653048595556,0.22710633376109368,0.4447382790305958,0.8123741322258329,0.9641103522502577,-0.3237906638416219,0.652293414162685,-0.8144559018324262,0.37430375824464246,0.7802750382681996,-0.03398938678310093,0.693635151504923,-0.23630069029068923,0.6971952724200983,-0.7056549136131685,-0.4679886716621935,-0.7536797643546727,0.9589513557830343,0.8794650039739387,-0.9109033766681285,0.5627202329678531,0.6626912267954308,0.14048260811116386,-0.7182920497962477,0.2565301785324574,-0.8642722787676254,0.5311876557833974,-0.5932703430139916,0.5226374439399393,-0.8939635349248352,-0.925522830250229,0.22088146352541882,0.35949840251700693,-0.4534700823001758,0.7612601418208618,-0.29578746288497815,-0.5057274743138964,0.25252246317272076,0.13073765062358156,-0.33855491631777146],"weights_ho":[0.3833297527700539,-0.986760839056998,-0.7373575206014937,0.2533318414123944,0.6305035520102209,-0.0017151044376157998,-0.7816615984469086,-0.3781460992122587,0.5071412219189269,0.6423840792886042,0.3102655150832243,-0.38080828054808324,0.267276715566805,0.7190209213858325,-0.972889249617281,-0.3399811133114927,-0.0692625080746816,0.8511229636090247,0.942364425261305,0.9589440308830386,0.4925724484870071,0.1345845231078513,0.04419121840896034,0.13164297363284683,0.2977816392026795,0.4558177887564485,-0.3600789248778784,0.6913510628037602,-0.21684186069161537,-0.44339552012051864,0.09655960588746937,-0.6288834598587569,-0.5487124046714031,0.07209495193987236,-0.6676052660638305,-0.4306730791569118,0.49604514512343756,-0.022395646206727404,-0.4284027354432738,0.11612206566298089,0.24034416294099437,0.6277935906089833,0.1622408404743121,0.8398260375027524,-0.6763406729182504,-0.42321870305635767,0.45238950106497033,0.178149634032424,0.3577724554346753,0.8645840636146183,0.3738615804045222,0.019323025028168628,-0.024868752530450955,-0.2670156833672157,0.4942408145769235,0.9755162745552888,0.4152103432598586,0.6639839904062954,-0.05166753554594572,-0.016282752915927512,-0.12799954343001674,0.2636623457629388,-0.13354086164602852,0.5174567819928659],"bias_h0":[0.9960216087133227,0.868635605733699,-0.3611778495578346,-0.6201328537096855,0.9175648832588688,0.09706226509683114,-0.6818177475040625,-0.6213236009943419,0.31149385904233284,0.9013295906978382,-0.4206155890435852,0.5852691173515101,0.1251624166568579,-0.7899119715228526,-0.48285277765182677,0.8733609165354641],"bias_h1":[0.3237188672715261,-0.7815842092926166,-0.1631534220390778,-0.21728437225511854,0.13347763495625453,-0.21116774015345774,0.9869353689668696,0.8187702451836696,-0.5996811291681949,-0.38405973685294503,0.575242757344564,-0.09885714884314267,-0.31078234986540965,0.13107738961151116,-0.13043681474116586,-0.8833029906460745],"bias_o":[-0.20145390473726055,-0.3993468057150398,-0.5590301842899235,-0.476286736072955]}