{"weights_ih":[-0.8342969971393359,-0.7787533800403523,0.279482584835421,-0.8393797601053916,-0.04069351808757915,0.4933062157101056,-0.5345785322147432,0.02506175267295574,-0.283852350493206,0.8206986367320457,-0.4151333099202539,-0.9195535354372322,-0.5485887083459591,-0.5491423343082174,0.40659173568120544,-0.6155494592856323,-0.8999674716569332,0.886490868885941,-0.8303065210356708,-0.5124444999937825,0.5017029467107557,-0.5556571386457771,0.2624375087052344,-0.16731049067605563,0.34611772120684425,0.6375768851075101,-0.14468924446149933,-0.9518388549848558,0.07900614332928946,-0.250341483443701,-0.9711059121434227,0.6544954420425635,-0.3548006988573924,-0.5066423385631198,0.8414442534650259,0.38912017065895377,0.5334522845396827,-0.4081061497514451,-0.11202811701632087,-0.36622971611861366,-0.19296076658132488,0.9189637098034471,-0.16018640046017274,0.17910962699531496,0.5493468893131894,-0.01318718533230534,-0.9857327627795902,0.4166927099056055,0.1653565190650217,0.7942270293974523,-0.022447629926940715,0.1060239931509408,-0.866447481103541,-0.4175902341603497,-0.7965432965900192,-0.6028198699285785,0.6898470512389234,-0.9204052654402091,-0.2208781111862299,0.6058604728426542,-0.8407778976487017,0.3355732521165964,0.9879352214715162,-0.4460606267535072,0.9498068788573582,0.6503954058223451,-0.6219266366395753,-0.11396417775137713,0.7540425829902739,-0.8231297396551513,0.3128230206110796,-0.6442756431458481,-0.9255677710946097,-0.13438167349638297,0.3181821758005139,0.6116642298484671,-0.9154444352707882,0.46261976525458093,-0.3821795706097757,0.027350191575215455,0.07595992853953737,-0.9063887400730397,0.07396474399881359,0.5897575233504204,0.45414137876063165,-0.238200461171455,0.816048691395131,0.381494822091587,-0.7035960179740048,-0.8453309068935997,-0.6670338157274798,0.8581003732326338,-0.8003077658848126,-0.5667080011432026,-0.1640437894794582,0.6182921763751399,-0.07879548699127237,0.06847678333435425,0.8556866578581148,-0.631331452815439,-0.9785642213326919,0.5638843943625804,-0.7260526953068942,-0.6879425023503176,-0.8333060347251349,-0.5814952831793152,-0.6113265863051869,0.5699495941131414,-0.7105859502813763,-0.29423859822373766,0.4101442492874454,-0.547340879695331,0.49085727822305447,0.7969246284140474,-0.8202120342593038,-0.5994358457281781,0.3313317297266103,0.9762349544614508,-0.37343098745983716,0.048318793206167276,0.561858515702482,0.49448249330628924,0.841088327990207,-0.6017907539372016,-0.55987465727989,0.6089504533183756,0.8811803619275203,-0.387378123613056,0.6905792004309637,0.2996120552866024,0.8590803087015899,0.6472609306679631,-0.6590253527629302,0.5025693494971208,0.4558435427710634,0.7293601706851021,0.46070472629466597,0.27732947131363295,-0.4879890522569825,-0.9069327708761963,-0.5575907981436943,0.1746203373748374,0.21089594283668345,0.5886261421943124,0.9103295910764637,-0.8583755809402149,0.10990357398600237,0.26629422856037177,-0.8240738030426409,-0.5509840926502496,0.2976107927554541,-0.6473753428090105,0.2880807867952111,-0.19170947361983415,-0.45319399344146305,-0.9742504169588022,0.1501521793993985,0.9868742789408393,0.6156054845714944,0.1784381977673577,0.9820381566812775,-0.41070132388230474,-0.9337120546517734,0.7679288852481174,-0.8879253863163639,0.05068724459801954,0.6436945576412609,-0.4556309751955345,-0.41173127090349704,-0.7043093285046162,0.08830610407698125,-0.19712295990062634,-0.6640506222536178,0.5136018696451798,-0.1766250297252323,0.050712773848983206,0.481364983347367,-0.11725893898290196,-0.3997072623903526,0.180803045680632,-0.6957387360787304,-0.5504118225713817,-0.9396494639512045,0.022461345483046236,0.7374396589288637,0.3692259043033761,0.896075133553196,0.17513088661458753,0.9519262352326174,0.29393865433130517,-0.5027226962632889,-0.8045674218064911,0.05467239408200797,0.9257257946751096,0.7946760661816907,0.020364929424443456,0.07838746052195367,0.12545121965088635,-0.8680417014706665,0.1391910738511153,0.7225419841140879,-0.22390256063184633,0.7764203491277901,0.563831590158232,-0.47498499975896724,0.8586359611637258,0.3176859508722705,0.6545714423166276,0.10126090652422626,-0.8815050681704679,0.8986798904306519,-0.4532229842537243,-0.46761825741977847,-0.9189963155435428,0.0898747079378106,0.34282723398604253,0.8899715457821067,0.7668634295034928,0.9548581901069204,-0.50127462785194,0.5911129224624663,-0.6378873642457228,0.883823200917899,0.9346168302912465,0.37301396894554273,-0.9775330554134949,-0.8455001433463112,-0.7552012025786559,0.11679711668759718,-0.27528441917646806,-0.8226796685809816,0.46295144830437485,-0.5977079823770826,0.25239041248825966,0.40920922412449023,0.24688397934514095,0.38144258025110656,-0.6196675143378261,-0.3026652379634527,-0.3732543574516025,0.08016532592036141,-0.49864891308010506,0.14298271143921748,0.002471009236731936,-0.6432737916602771,-0.6370740366797698,0.262507435590249,-0.7657379221024003,0.5422066194561741,0.3826833260324609,0.39771081703403954,0.9173062769700144,0.3806368445248267,-0.5543536095446169,-0.6778573588938293,-0.1599142997781855,0.3236699169023334,0.7299428192249,0.07159419291983715,-0.6446152092172754,-0.6399357334817346,-0.1573823957211462,-0.6906557681751724,0.3750809280394891,0.5696062245824265,0.9193647402206648,0.7843479806151115,-0.7962408882529153,-0.7146968524560853,0.3976588824883507,-0.6549406131757476,-0.7914176688123467,-0.7214692432752208,0.689388412099428,0.04635388183120703,0.5781588456879605,-0.3989445942543386,0.11207017214087078,-0.4237693885902536,0.699140692625225,-0.1722102563377279,0.85286190328,-0.6137090882282916,0.46545247802348766,0.3766254028802014,0.8316996393041698,0.9154733339348178,-0.206821683516083,0.25293908763177475,0.05820047441035925,0.5165940972624612,0.4686088602578711,0.4781858993800987,-0.8832641771449323,-0.91388409398717,-0.8628731355791106,0.5214963875897891,-0.08522917751724557,0.16900007933056393,-0.5355607965197879,-0.0371746979166101,-0.4585110260505374,0.5828377689464195,0.7949238372098115,-0.412922024002111,0.2313792570712263,0.62043641196701,-0.5419839684817254,-0.7664623554712124,0.6704100640481077,0.6197864817439878,0.565479798741553,0.5682439198873042,-0.6648211177475445,0.2851756059298296,0.1298347666036943,-0.9738179565036,-0.4854496332548106,-0.30981149908985794,0.027626766639117672,-0.7227237222638374,0.6236433272149491,0.7731299937701519,0.4617715393445361,0.7198378396926117,-0.989412039387086,0.5477564435041382,-0.6151149808349292,0.04969563013561107,0.8540639968260211,-0.5390745748677812,-0.08788390310121885,0.6698727308094989,-0.6958013039775623,-0.732084791224781,0.17063532410936877,-0.5081713897383278,0.05542384498744757,0.9169571865906183,0.008588428895040634,0.10434503625964586,0.48443019578809676,0.6391064564506945,0.5245796855383691,0.833346362279187,0.529923729416466,-0.6317228972407734,0.7006019507353409,-0.9218474383646842,0.22734576778508075,-0.48917046926755847,-0.20103322716462357,0.8977764283305933,-0.43299718383602115,-0.7487283479441464,-0.1835538079327057,0.4744243925730709,0.43794207294456355,-0.8381299069438841,-0.11997290901684754,-0.9229913859160019,0.9090588255613823,-0.2411774025211415,0.2785809322468118,0.9772019941951213,0.025999981415349982,-0.07172788534099217,0.28963621805463746,-0.42224442014818653,0.8951014649330638,0.909042726062169,-0.19895534143035354,0.9399439025828509,-0.4357375639670811,0.8752597431126881,-0.7886925842116239,-0.5571966647879363,0.2932559435042077,-0.13956030495146643,-0.14850124141491272,-0.758087524282393,0.348346262503036,-0.4467657737497541,0.5476342114583503,-0.5610138787298995,-0.11591625767356373,-0.6000457431386088,-0.8740173402503666,-0.7353362709758433,-0.3825274818607274,0.6368819137171291,-0.7995792953228504,-0.4411010391412251,-0.6218899696150977,-0.9123651951410794,-0.43401889739712796,0.17505062617630607,0.7887513793387799,0.03932663609564924,0.062031475618466336,-0.20200889809013,-0.43648198859332354,-0.7117008941743159,0.1651003756805307,0.6074045522634444,0.6970599042045931,-0.24033386200311435,-0.827955334608607,0.8039365906415685,0.8256667083515836,-0.1929802563169869,-0.9879256374731071,-0.8664764890198418,0.36529123086701243,-0.5177781706638618,-0.4527655752315203,0.9354458787183162,-0.17859103485943995,-0.6137830834726514,-0.5369348177898676,0.9348375408313638,0.5261507600439785,-0.2530492114783489,-0.6591903800109471,0.9445190048832368,0.7013818236084897,-0.5291840270909685,0.41802955345361914,-0.030504660856451205,0.5544348750612387,-0.03284881767111281,-0.3866042722336893,0.23513779114019906,0.3163209821172088,0.4919118470833639,0.5834140645837584,0.18956593236765018,0.43740515171915995,0.022245536938552135,0.18394391384546194,-0.969783235294678,0.2817433236175677,-0.5591660667208409,0.12416392872264326,-0.49467923264169156,0.20804097691093104,0.37982626260797003,0.47559768856207607],"weights_hh":[0.40205011819089376,-0.5442846673919188,-0.8379761408745727,-0.6223945876508012,-0.15901003631037214,-0.3062827209710066,-0.16680019803291923,-0.5650078152777664,0.18218268879344834,-0.14350486155683906,-0.8360739580133549,0.25844154801176233,0.7666149874168315,0.3220641861982041,-0.5298432164970666,-0.2448212094938922,-0.22803267493646495,0.25868892588212655,-0.42622046785566536,0.9843733060514104,0.7740585228617212,-0.4519133807801221,0.5265983642942422,-0.024483370250108605,-0.880349765047937,-0.6245136728547218,0.5509944866384278,0.9390653894948879,0.61143218733017,0.2496447561015438,0.1544647233486225,-0.6302387582015527,-0.651423848998451,0.595474741320476,0.7677595424688575,-0.07522373740409183,-0.3881165064075536,0.38974777841946806,0.9865104354470979,0.2568550849829705,0.4031311762869887,0.031947134245195574,-0.4987293663634593,-0.9402623975824995,-0.435192510813742,0.9183272303641024,-0.3364926798452159,0.2392036714201229,-0.4985123427586349,0.3329396914258511,0.041618315719323506,-0.729854699014505,-0.545050811701699,-0.654635135903783,-0.45983983801470796,-0.21048647790114527,-0.7688638617692949,0.6229313522806244,0.34516056890464397,-0.4068839587724771,-0.9441246248554678,0.4283287605583661,-0.3985912730960981,-0.776870502034479,0.06910188126847827,-0.061098033131142815,-0.23929858945612503,-0.9101509259095446,-0.6543912628462525,-0.6290371447121983,-0.3990197165786473,-0.785997310183371,0.6226025595818991,-0.5662789360593385,0.564863551173572,0.40492114836675275,-0.0007638276748043182,-0.38396436336618356,-0.4277698577984119,0.4910413796339277,-0.9965759092286779,-0.037071508824301214,0.7156921981784543,-0.019568999073793725,0.11809606409035811,0.18936073102739392,-0.40084856020515636,-0.011668008665041585,-0.7187607631994724,0.056660799423786656,0.7932389909472533,0.08434924127421728,0.16681173662532278,0.7772403524148521,0.9869490435554868,-0.6074051463672472,0.5412735909559863,-0.550402749507731,-0.6437050787595242,0.38773544714047126,0.6916128598457143,0.023803807347899886,-0.9724972859927661,0.5292377068914202,0.5579417820856132,-0.6048717600871321,-0.5541906542163066,-0.9672466775403343,-0.5445287794651648,-0.4473250530849564,0.08107350726014029,-0.7848133503305692,-0.24969970878026682,0.30994817318162515,-0.7276985408701817,-0.9755494191023681,0.46130408646008636,0.8483430456789585,-0.57265059348598,-0.8613264523779756,0.08426405499313239,-0.1430872038009341,-0.6116774115191894,0.9459206711346089,0.25572396881754833,0.3666580403289814,0.47085189407137484,0.7260534796197289,-0.7660556497966649,0.4283871032933053,0.8785367497047745,0.23871981933831177,-0.5776306106659694,-0.19241348884645526,0.2720914473843723,0.4805344377227554,-0.29426123334418675,-0.7408522135003288,0.688167087276707,0.14423365304776037,0.5056760867076382,-0.4263484973470364,0.6134767416763947,-0.6066528819155923,-0.11369981933166295,0.46409366137587127,-0.1258781295695579,0.8718580176994533,0.48551956422545994,-0.11394496923485864,0.7607505419797664,0.20154370200701233,-0.22269357779222343,-0.19192938067514542,-0.34943240332814973,0.21333463275176734,-0.9538953644464598,0.7561993282903579,-0.6330936492044392,0.6274286383667971,-0.028704464075933966,-0.7006124728542285,-0.5604194492588623,0.10674909178637404,-0.4819921699310685,-0.4058979456098246,-0.6081693357530882,0.556470107731383,-0.03992928133345486,-0.22947833513499805,-0.713225418586966,-0.8643281509725154,0.7099427090956827,-0.836224927493491,-0.3469973441047389,0.360683760483568,0.4412055256005345,-0.773448861464568,0.860708116352418,0.009573577497546948,-0.9939876572523381,-0.3263594028296424,-0.47956329299498157,-0.8241197994718832,0.07801923896399732,-0.0068176394629866355,-0.7003910622114984,0.44224123024545947,-0.4265348005703431,-0.5975003033606952,-0.44747284504144047,-0.1827211543976024,-0.44294607821443144,0.640597193994221,-0.5575200726196308,-0.9010407779153227,-0.14565652615734193,-0.31375739417187365,0.9204187738542609,-0.628369749682997,-0.991678229338852,0.5144393661311661,-0.4851796278870504,0.7942706587968977,0.6328919216226636,0.4669616918365398,-0.4191619926797123,0.23907663647523347,-0.18981156936821098,0.7597527886771391,-0.6984701045793011,0.5560674494382325,-0.6127295564264417,0.6427043686921927,-0.32877357920527017,-0.9901204932334804,-0.8465910902167442,-0.562602166127774,0.9164850136012985,-0.5471010187638781,0.9537709402917403,0.6541567492251599,-0.2707490760183786,0.9785953395087996,0.4941336725382799,-0.16005879465588535,0.9377272473427867,0.16176116250955097,-0.265406547257923,-0.4934993221828372,-0.9445238275323593,0.4381327477583654,0.21722557945797383,-0.01205577958342019,-0.04577707306357248,-0.9264753815087676,0.8534693552142092,-0.16321496244434286,-0.29698663248811674,-0.4819533795874338,0.2609622700867613,-0.21989641248431058,0.7828525703463765,-0.508080748651474,0.40213268551713566,0.44683965048568797,0.45177395286517386,0.10410699484533148,0.30834743158830613,-0.5746368705904816,0.9106594592994517,-0.3141203735894291,0.3267229710746571,-0.8028454363052167,0.8414516947538806,-0.39665034266386345],"weights_ho":[-0.5571133969618716,0.9422172974910397,-0.09073963200500601,-0.4638277709467531,0.2124529019283503,0.7422660123935598,0.554307301298081,0.953062027620762,-0.042118420095430986,-0.441721862447358,0.20488196232481992,0.6798642471567877,-0.39405111563682715,-0.3306533346805185,-0.4954915666264956,0.5848600987745132,0.6582231385930881,0.017078276854579855,0.5917716210472943,-0.7796411536326715,-0.9751684106272978,-0.8122747136320223,-0.7734449047204102,-0.9640421208594339,-0.2670299396367688,-0.44827676599879895,-0.8690045365574197,0.520452594910781,0.5406460952856056,0.12144239281043401,0.3966184875487442,0.15087338179831478,-0.23233009929148762,-0.492143795675696,0.41403682301193223,0.9861364103342019,-0.16227302242505792,0.2034647383786392,-0.29536735963334504,-0.23678949806153682,0.052875105774230935,-0.8108974990637778,0.5553222104973943,0.7985980105535699,0.990715225719655,-0.27395288424819486,0.4072455536045565,-0.2035496163173307,0.7101003232306082,-0.02785411768784818,0.7748095409679454,-0.5924833883070919,0.20410019056064366,0.8974389039832347,0.2934586752608064,-0.20209309581142176,-0.24835271999577513,-0.14690646388362816,0.7035707292617979,-0.29688237477459345,-0.14545402151713427,0.7303091863809368,0.9060287817588979,0.32734457078879786],"bias_h0":[0.3916780372606121,-0.8888712586113694,0.23625565344993849,0.7017044769265584,-0.8882277154336387,0.34174453336393196,0.21966615824933555,-0.4323803297221489,-0.3843162477004709,-0.688764765152174,-0.9855116008901355,-0.42670217700084856,0.2675608238338405,-0.2921502460505814,0.3194996040123732,-0.16158832806980716],"bias_h1":[0.2765439250299875,-0.7736410010702062,-0.9907378326719185,-0.12243499375103872,-0.8192076406161746,-0.8042408816697955,-0.783280406348891,-0.6196669219377724,-0.21722792317026007,-0.5519980650478569,0.5180338071581931,-0.9983113725929214,-0.094566270320259,-0.009773269156031494,-0.5495660784045122,-0.39149380509184195],"bias_o":[0.04284218333833034,-0.7870230209867646,0.28321910864658983,0.18105242728530402]}