{"weights_ih":[-0.6764872607042078,0.38628051039821454,-0.39299772764333385,0.928638205432091,-0.0708215619967929,-0.1313969705851885,-0.7550404070835679,-0.11028191542651133,-0.676484196845349,-0.8391873552440376,-0.4037894178147612,-0.2398896816360554,-0.557107998228094,-0.012440365333361125,0.9690016337872807,0.14477428101735645,0.28038336065596603,-0.6063018228308446,-0.417090204245967,-0.404479965917214,0.3891154605651752,-0.7565457141400012,0.6455383893360784,0.8841743848173933,0.7833237361146812,0.1063624251343982,0.3544348810064466,0.9970126854999775,0.4448430383387394,-0.5195784860622328,-0.9794685605903739,-0.1417680608140237,0.604026310812243,-0.6999245876361311,-0.01831232967329388,0.6746055112215059,-0.6655322908438912,-0.29550043454101016,-0.4034576146358939,-0.8523973685601225,0.5703486349127962,-0.25989144394165065,-0.6633281618690143,0.8357474846470483,-0.002048541695081507,0.8381821796909277,0.6105295467427116,0.5164448249155067,-0.5792185674899417,-0.914446112239911,0.5107440833064698,0.42504958928695147,-0.8074519376461837,0.27239210180691953,0.31044882632747717,-0.6636284674444204,-0.5476115506470944,0.5193131605017867,-0.35932449302569025,0.8617035302255909,-0.18463262907924172,-0.2497718374042579,-0.6062424225153515,0.2247966782608135,0.8103096176520213,-0.13539327233061793,-0.08631897345884765,-0.9896966778566321,-0.21782972332572204,-0.5035585909419062,0.7755067950368078,0.6655767667374111,-0.887195386094616,0.22582172431673841,0.8535108009617096,0.19642769162815354,0.5534034344806273,-0.5846144931024932,-0.22524135944313683,-0.419188112177749,0.0940616489607029,0.9143217856537054,0.3356807701402307,0.9051367873845892,-0.23258826287946088,-0.32448024260472863,-0.37854445338180875,-0.2414793198737999,0.11160851522409931,-0.09472659127275107,-0.07731999569617765,-0.5243645448539689,-0.10986856832658654,0.8590445806650016,-0.6278456549026179,-0.15752404368756245,0.17309947829539318,-0.8317900267974407,-0.9272776975358503,0.12022828996150148,-0.22275061337857904,0.8047702635893332,-0.17915416322884958,0.8317965812409736,0.6020104696803075,-0.9151210421747904,0.7086360851932114,-0.1184776190975727,-0.8726417450922628,0.8493982941465714,-0.568089731679629,-0.2520238146390821,0.9047162982607444,-0.8327362894920545,-0.3971507358002557,0.0843227375767448,0.6569368533067781,0.8035679100215851,0.07444393528027327,-0.8081966133825185,0.1414445650663536,0.4419411003567446,0.7687024227791206,0.14293805983850172,0.4461625543658616,-0.7395401718007264,0.8790622015962917,0.10988035240176397,-0.7244429369815626,0.1734498636027244,0.06422829883559977,0.359184278810172,-0.28814557501097937,0.8220704328052535,-0.38840372803904266,-0.8173661054118633,-0.05665280621077451,0.4947609783139977,-0.1655860107284628,0.061576589581165075,0.25216684720733706,-0.7439537235303311,-0.0428461867455181,-0.5494558127739702,0.4694530396525012,0.13842501189482537,-0.8710258711194021,0.5654442659611227,-0.6886539479190661,0.5233684123671454,-0.0010645141711467243,0.053873554376116406,0.18429045218857087,0.9607036531628346,-0.7811548471284935,-0.3766623150909614,0.22288142144487422,0.8019218335326095,-0.2994984711004802,-0.16066808014113088,-0.11539307769247809,0.3378231113292631,0.6340992733696904,-0.1442121671678671,0.532617172263979,0.3320343686588412,0.013472415138205296,-0.026636309506413047,0.5161434450043145,-0.7238460613525834,-0.8629599647094315,-0.5545061771202295,-0.7754011371790677,-0.75319744603721,0.4788314697156799,-0.6131193494908445,-0.15837499311943315,-0.6253497480824253,0.8262614935800632,0.33179102385355863,-0.5295978012324618,-0.7699608810294924,-0.4766637808124523,0.9989898365736027,0.7813804444399064,-0.5059107762433299,0.9444459219259052,-0.2692834273772611,0.7793424342267505,-0.5734453102420747,0.6030531357068305,-0.6886567574141964,0.44065057462496315,0.20909021544873196,0.7563158978326812,-0.25266550911340024,-0.055691979405819714,-0.4946130512403384,0.2293475702683372,0.8888779784270562,-0.6647732521163294,-0.7313380810687078,0.179849147654372,-0.04161046358185283,-0.7337535303750573,-0.2691811867524587,-0.8341701915103994,-0.9264478390930655,-0.04293283706008877,-0.37957883951278326,-0.8256704485058963,0.599151518921849,-0.876658564652222,-0.35544308177925266,0.3987290038916229,0.16401946710970972,0.9779589324032727,-0.6553651491526418,-0.863027541266594,-0.698779525654357,-0.49007229207454506,0.8847270573780981,-0.9989742680104772,0.6624779553661835,-0.8280298984731767,-0.4038254374897441,-0.9573108277299596,-0.2682157218499359,0.9795641901069945,-0.6604745707295312,-0.5637946680695092,-0.0827544140348464,-0.5856360043520759,-0.9350654715786775,0.1172191592966274,-0.8995874664853962,-0.5061098895353826,-0.6946203223891803,0.7470985783335728,-0.28458362019131345,-0.3010611914718271,0.5586899957383662,-0.606083874387946,-0.5972017305646962,0.7567077286693358,-0.9294041834845967,0.3175269470101898,0.4031414139677303,-0.5897919806210019,0.4176631678461282,0.5845889406736002,-0.46817697831541283,-0.47653120333856513,0.8999448905334262,-0.32896603205412744,0.66465143060161,0.9130441332216945,-0.824546266240288,0.6943888296147926,0.9662690123438098,-0.7386065279797009,-0.6874344609547833,0.4670804792069385,-0.8931891830757954,-0.6771068418468722,0.6819406716069718,0.7116708552548645,-0.10910040692072087,0.85874505868345,0.6240088326413136,0.23694936458615046,0.09123237523048355,0.5127153988198536,-0.3812672164959541,-0.22679119173132323,0.9233313908199954,-0.9143462135751534,0.018941856790574585,-0.13573910422689406,-0.036711333618343334,-0.6541537054332782,-0.15829273554588918,0.6322863219468673,-0.17467148170052016,-0.9632015337644368,0.09820908152847307,0.6816412725826433,-0.8868297854888523,0.019928026665447574,-0.6687929780635851,-0.028542988341805797,0.721226039795259,-0.5183047041633213,-0.35442507231311127,0.841609371486568,0.06335558322716839,-0.8141402493065022,0.2808350066752099,-0.6994162125533472,-0.21933067964255448,-0.9484054809548406,-0.35706149575232393,-0.9221320164881388,0.5844032791033649,-0.9252803666208729,-0.8858405127195381,0.1928910419179357,-0.7459607978583362,-0.7733376310840601,0.2517219463658604,0.9734675161192856,0.7348652975710379,0.29646699457364245,-0.8745818115408841,-0.5383467625831342,-0.6386155850098898,-0.3166927291306565,-0.1221738876134284,0.0875106730346471,0.37579979649164263,0.4419276169652917,-0.24665468791017697,-0.008711623776148869,-0.5225705409531787,0.5935385119129917,0.41962714583403726,0.9576796842349833,-0.8176220949753303,-0.25003663096332907,0.4484517435063282,-0.6578990648322194,0.07462316585085116,0.5604342088685754,-0.9420271473021022,0.6025298152805514,0.9503504924991009,-0.33241484938748034,-0.6797947592875393,0.4387894474122065,0.4786426173335361,-0.264864938147958,0.7814385639826913,-0.7918634239220947,-0.5224854217520505,0.8981692251019118,-0.41791454224626556,0.41178184778216065,-0.3638009269853919,0.1429701956204279,0.07633163009929378,0.09878766183220855,0.6680286345436648,0.664619993272122,0.1442814663052725,0.7459832143821477,-0.05572010269682193,-0.5371911865353225,0.5468072342223571,-0.6959344742655424,-0.5247583798982098,0.5613944175381478,0.7040934232110596,-0.9745238791845081,-0.2551415015581826,0.5302990947057855,-0.5659263148315958,-0.4713366243687733,-0.7621217936096571,0.7005597631870024,-0.7275154885481332,-0.024926153955822983,-0.4383694999056278,-0.7176759752056938,0.5970490359471496,0.9102589702324142,0.9740157988589584,-0.5787875900039448,-0.871415524505704,0.7735485168020333,-0.5993558452072776,-0.8434944354192828,-0.4959464239335818,0.01820961067631477,0.12340724812140258,0.4557057518488956,0.37033015546951065,-0.3408494916053231,0.14083723144129268,-0.31680583821411634,0.7498160649221142,0.6208769018460063,0.7199792314837823,0.5247253544065753,-0.5531386644543776,0.5999457208031924,0.5689546414737583,0.6860349489461046,0.37168247136670485,0.683723843807446,-0.21134729700874888,0.4386000923546314,-0.011599042062597542,-0.9847457085218481,-0.18266286961962597,-0.5652947533841488,0.5159746634010385,0.5830843008191566,0.18836699040402438,0.7744698729204507,0.729302777010195,0.05907700158977747,0.09290261044119719,-0.4118087146939837,0.43048445508246114,-0.46322211896965126,0.9699768870709713,-0.22715168813457587,-0.12774577473354554,-0.4207357315070408,-0.2752329994517586,-0.7817331471133953,-0.9142844055954367,-0.466688465987414,0.9381642078770831,-0.34599326263990204,-0.5827426276187893,0.5979135128532718,-0.3019823935668433,-0.8102309780171748,-0.456387383077667,-0.7789390172694686,0.24947214500784165,0.5865212958267814,0.9135426260989166,-0.4729431654485352,-0.07464508501274869,0.5461185242519286,0.46748520773217384,-0.5988634144740044,-0.9047071576602326,0.3785602226339042,0.11496438745409199,-0.32025406058595585,0.0769010425726957,-0.3630671673908459,0.37744814859505293,-0.3244171701879228,0.0526135138455881],"weights_hh":[-0.7563225525572717,0.528570468575311,0.56051796457392,-0.33064739937244614,-0.04432010584235835,0.357379247033494,0.12437720709455835,-0.1733155649582252,0.8703172628801485,0.33706497776403066,0.5917044945680572,0.5904064440927899,-0.28400080808444317,0.1960396215765292,0.08003165639945298,-0.29521987271908023,-0.5303277908848232,0.3633786287320617,0.08503999817978558,-0.16734428756444664,0.2543177794281035,0.23330085784141863,0.7241471000686062,0.05538305354897277,-0.021364285964948992,0.3226160674629115,-0.4554943064535688,0.09947764762811007,-0.016158487554334355,-0.9968783915729276,0.7027652517920409,0.0848548280684045,-0.7363055940852465,0.08136867589593733,-0.6578220483435666,0.6473418265449531,0.4799254422246848,-0.3097174264759688,-0.19320054726627367,-0.13622247995670111,-0.53335194494795,-0.3887679004271758,-0.49104256118928147,-0.9394817273310878,0.6093580376662313,0.269608136621758,0.15499422298596,-0.030807724663007408,-0.40299179162715526,0.7934797486787983,-0.07835768047904201,0.30918189624388437,0.6263387148432522,-0.9554491390546027,-0.6214929535811511,0.6361263065902252,0.9791508357858181,0.6347084283174507,0.6955952521484365,-0.38586921130588436,0.21651676732365743,-0.7151326365935291,0.9893944214419879,-0.428542323736385,-0.13753150314617302,0.9238761396580022,-0.007701191740807634,0.8450368626358182,0.2881671178481344,0.9066832859700567,-0.8600608916807415,0.47697120497945145,0.04097681744779824,-0.715336984673419,0.4892756584444109,-0.2651452896858797,-0.2581529392098172,-0.337965801492079,0.7780790636379997,0.5049992595089585,0.4622065454283588,-0.7297423890388666,-0.6442092333157032,0.24635093175377465,-0.8581526952118428,0.523689230270755,-0.7658908668615791,-0.27339318909938903,-0.2453262471135278,0.952760698399377,0.3116401227142602,0.8239096781180808,0.3145574402543603,-0.12909258675942525,-0.4896525511333829,0.00865036877469283,-0.7206808329221579,-0.29591131033398166,0.4260591015603139,0.9524473787587617,-0.03285856188849423,-0.5706123166398434,0.23810801851665353,0.6138555741682494,0.1386402961747557,0.3228324127500297,-0.4632239815634378,-0.15397593083360372,-0.7045699380584853,0.014660116355576402,0.4234468581455051,-0.4137831537199741,-0.7287535549476931,-0.8634987252878246,0.987227168673442,-0.22440042832827034,0.6276659290582496,0.4113598448101332,0.4521143935203904,0.9203878591703276,-0.09133833449328854,-0.5098913073316305,-0.12559096970458383,0.7546640368386761,-0.27384240110187097,-0.3235601186119843,0.70393358053586,-0.28715377609489545,-0.5070088052260857,-0.5212413403217964,0.4281650056390014,0.9590527362169401,-0.939789322263205,-0.18222447262686003,0.6662083078039325,-0.6068730438069112,-0.5657615128017646,0.29360403878366714,0.13365947001642264,-0.1887372846945996,-0.7940688451828026,0.7635085308261478,-0.476051971474287,-0.3550522227672863,-0.2276848104007212,-0.966978416860671,0.0377355192870481,-0.6497979688747224,0.8327744154796624,0.6611723700679581,-0.3509536264518549,-0.9099088317844035,-0.9632026959540683,-0.5407577432377588,-0.6816008186168441,0.12239855618508755,0.7128444011729986,0.6325286736257496,0.778945885667212,0.47573184889232945,0.6658576884436149,0.5094305047767691,0.4534887752290415,0.3440889367170372,-0.546207764656127,0.8161493582555293,-0.9380532423145544,0.4723719452085766,0.4322853258280819,-0.5822711238188814,-0.814899932692486,0.8270144793929934,0.49249141497065785,-0.6318139363709558,0.8739129477960519,0.19268607504695656,-0.9546636676426408,-0.07743824668998656,-0.7660799308210324,0.22314739946182405,-0.1644023207662222,0.19751211572363436,-0.6829310598131317,0.5262131384906616,-0.7990682590109865,-0.8371726032785651,0.4433266241210476,0.47252455551043027,-0.004832426766458564,0.044785651301517015,0.9211381913278618,-0.9058118486878952,-0.8379037166268708,-0.6655791017738548,-0.31078405809291976,-0.8225814548871511,-0.28359073296947823,0.9619210875273319,-0.22472993963821275,0.7374104260093826,0.8387460626750289,0.09627161244631521,-0.37862095881348656,0.7913975073272692,0.4832288569559844,0.21096024691217163,0.6633135464834781,0.30786237928366145,0.9023577713843864,-0.3506955343258775,0.7615825777396013,-0.6165629916437356,-0.6756026409511373,-0.31655835792111975,-0.6041110927034199,0.5907196032228523,-0.9940653048595556,0.22710633376109368,0.20868637261782785,-0.2633200396726534,0.9641103522502577,0.13769351108799244,0.42678822079779977,0.1616855318800665,0.37430375824464246,0.7802750382681996,-0.6234495860831524,0.9616499037410231,-0.23630069029068923,0.8767543288636563,-0.32041463121756886,0.924095424704894,0.6789213913092336,-0.8110904251256459,0.5630593041330525,-0.9109033766681285,-0.14710523386749874,0.6626912267954308,-0.22229263952464762,-0.6063920369827156,0.2468938677387862,0.2629695017850573,0.5311876557833974,-0.9540037683417524,0.5226374439399393,0.45605399895750476,0.6864157191034745,-0.014050028547792914,-0.9752730027639414,0.49515388772999325,0.5102504701590258,-0.29578746288497815,-0.1293945629914961,0.3095538818366008,-0.6377657792950169,-0.32597094871104537],"weights_ho":[-0.8038106513029606,-0.9899960588269647,-0.7373575206014937,0.0827273807017661,0.6305035520102209,-0.5308666638853041,0.9722541929968194,-0.3781460992122587,0.669327188962989,0.6423840792886042,0.1455381390813637,-0.22242520953502964,-0.4711094880332387,0.6508728402145032,-0.972889249617281,0.7159345625866442,0.9584080898753675,-0.9462332315425799,0.5158713139355824,0.7933877646463634,-0.7380107161188629,-0.9435042538524565,0.04419121840896034,0.13164297363284683,0.7627212504198682,0.29130724930259255,0.09593593908986975,-0.11897621529103342,-0.21684186069161537,0.07533616808919086,0.507806552444019,-0.6288834598587569,0.6524037240913592,0.07209495193987236,-0.6676052660638305,-0.4306730791569118,-0.7124472976228553,-0.022395646206727404,-0.20388104372676485,0.20545117161637383,-0.0064218343708621894,0.6277935906089833,0.703170149744055,-0.8933793345652212,0.7765498735709231,-0.6568808735474476,0.2511307696851959,-0.4304119683722729,0.6248589372054496,-0.20040821442619827,0.30148126634696193,0.44070359247278756,0.10097927765924886,0.12812332745952393,-0.1456449276268239,-0.9231566772828146,0.4152103432598586,0.6639839904062954,0.8067365081087206,-0.2847728849413511,-0.1403531055762004,0.3366092490082184,0.5516320099476293,0.5325847651033158],"bias_h0":[-0.10354595288883406,0.868635605733699,-0.3077793903613364,0.984337343676835,-0.6593830554227482,-0.3218637995773477,-0.6818177475040625,-0.6213236009943419,0.6516300005619233,-0.3010975007315444,0.04952177648027245,-0.09114265430039281,0.1251624166568579,-0.7899119715228526,-0.2800951562856371,0.8191258777634318],"bias_h1":[0.3237188672715261,-0.8569631599447698,0.577854148699037,-0.21728437225511854,0.13347763495625453,0.7010408035319153,-0.8897685541176961,0.8187702451836696,0.6713823566126833,-0.2851236426735009,0.3089164218957141,-0.5011273161229048,-0.5630606802803262,0.5505255677329897,-0.9737847804490889,0.010099322862578752],"bias_o":[-0.21856633436983564,-0.7284979130653335,0.32684975354153734,-0.40296292039647774]}