{"weights_ih":[-0.8342969971393359,0.1239735570506213,-0.39299772764333385,0.928638205432091,0.856610390206817,-0.1313969705851885,-0.6983347142453102,-0.4510571855885064,-0.1871453238972196,-0.8391873552440376,-0.10994667747145193,-0.8090143702157693,-0.5485887083459591,-0.5737614325420177,-0.4011176009254238,-0.640098397356426,0.28038336065596603,-0.16694583124950957,-0.8303065210356708,-0.2966914809599268,0.4011194767778081,-0.5556571386457771,-0.5771454197788919,-0.2155239912687663,0.7833237361146812,0.20693992500875935,-0.14468924446149933,0.5275260436677156,0.07900614332928946,0.10841847299247664,0.19066237985417778,0.6544954420425635,0.09922334181203274,-0.5066423385631198,-0.01831232967329388,0.38912017065895377,0.6617498513532845,-0.4119197357508415,-0.4034576146358939,0.2388688487285786,0.7875229897802665,0.9189637098034471,-0.16018640046017274,0.8357474846470483,-0.3121691519764065,0.8381821796909277,-0.9857327627795902,0.5164448249155067,-0.06206233916004433,-0.914446112239911,-0.33938362391475074,0.1060239931509408,-0.6780183970679594,0.08775826937014664,0.4654469906757468,-0.6028198699285785,-0.5476115506470944,-0.9204052654402091,-0.2208781111862299,-0.10332859581129394,-0.18463262907924172,0.3355732521165964,0.08871280425832184,0.7569730967326578,0.19980097278844844,-0.13539327233061793,-0.6219266366395753,-0.11396417775137713,-0.21782972332572204,0.2397617221859898,-0.33993217871830317,-0.6442756431458481,0.6371997410674557,0.3736227556995291,-0.429304059616874,0.6116642298484671,0.5156820342625743,0.46261976525458093,-0.22524135944313683,-0.419188112177749,0.07595992853953737,0.8864329491967993,0.07396474399881359,0.9051367873845892,0.07136624884605358,-0.32448024260472863,-0.37854445338180875,-0.2414793198737999,-0.7035960179740048,-0.836696199008744,0.550024383928621,-0.5243645448539689,-0.46324359550550986,0.8590445806650016,-0.5672054244625211,0.19448486952296729,-0.5581898898308546,-0.8317900267974407,0.8556866578581148,-0.16083528373636646,-0.9785642213326919,0.8047702635893332,0.45772651839123846,-0.1760684552333467,0.6020104696803075,-0.40072444431196996,-0.6113265863051869,0.5699495941131414,-0.2975805940395486,-0.29423859822373766,-0.695297291886102,-0.547340879695331,0.8575368273395259,0.4151354183164988,-0.8202120342593038,-0.8114556306445817,-0.7403661495681568,0.9762349544614508,0.07444393528027327,0.048318793206167276,0.25670176949886714,0.2819823263397925,0.29749656493764776,0.7385236729402731,0.8750430814407544,-0.7395401718007264,0.8790622015962917,-0.387378123613056,0.6905792004309637,-0.21796895836487384,0.06422829883559977,0.8352203060985839,0.5804044553238854,-0.49133549326517345,-0.38840372803904266,-0.8173661054118633,0.46070472629466597,-0.5355833498301183,-0.1655860107284628,-0.9069327708761963,-0.8924518957386358,-0.15115190601904782,-0.22392895468726626,-0.5494558127739702,0.21785783838871242,-0.8583755809402149,-0.8710258711194021,-0.9087528254363786,0.6343950704726493,0.5233684123671454,-0.7541225908125877,-0.6473753428090105,0.18429045218857087,0.7545142062254571,0.023685441174524646,-0.3766623150909614,0.1501521793993985,0.9868742789408393,0.6156054845714944,-0.16066808014113088,-0.11539307769247809,0.3378231113292631,0.6340992733696904,0.9606274063034317,-0.9353920864487919,0.3320343686588412,-0.12899550744901145,0.6181996571004078,-0.5258265612734505,-0.5556099774224912,-0.8629599647094315,-0.19712295990062634,-0.7754011371790677,-0.031135154661598552,-0.15556997009581375,0.050712773848983206,-0.6512017893282331,0.11657631276217373,0.291360190115759,0.180803045680632,-0.653687018511196,-0.4955467947056156,0.7226090276504469,0.022461345483046236,0.17728160745139454,-0.8400052460236345,-0.6942133480232895,0.04175180928206634,0.7793424342267505,-0.00377723153319498,0.3125137161997438,0.9236383883170038,0.05467239408200797,-0.8812229250084906,0.49034850592442236,-0.10791102615259063,0.07838746052195367,-0.21232153402190357,-0.8680417014706665,0.8888779784270562,-0.6647732521163294,-0.7313380810687078,-0.2885071017955958,-0.5593132289187732,-0.9859327185414677,0.9305566899986784,0.3176859508722705,-0.8117497879611315,0.4585178650456503,-0.37957883951278326,-0.7369585360096416,-0.4532229842537243,-0.4347375617077325,-0.35544308177925266,0.3987290038916229,-0.7944701530319851,0.6230334458990845,-0.6553651491526418,-0.5109105214849383,-0.8367487928495281,0.5911129224624663,-0.9202673295006658,-0.9989742680104772,0.6624779553661835,0.691382747223273,-0.4038254374897441,-0.9573108277299596,-0.2682157218499359,0.11679711668759718,0.892652688391625,-0.5637946680695092,0.35009076386341764,-0.5467602947323769,0.2896287735744214,0.9930639672424741,0.8607729181431454,-0.5061098895353826,0.7598306933664785,0.2060571626264036,-0.3628027646404117,-0.5038555859613225,-0.6306778530024557,0.14298271143921748,0.002471009236731936,0.9486029823004323,-0.6370740366797698,0.8386701254050606,-0.24687333657772825,-0.5897919806210019,-0.7006813556411096,-0.8661786175400721,-0.46817697831541283,-0.47653120333856513,-0.5543536095446169,0.7121594632442263,-0.7426974734707867,-0.8469368592168318,0.7299428192249,0.07159419291983715,0.890865112704947,-0.6399357334817346,-0.433420201766221,-0.7297740595271089,-0.8931891830757954,0.5696062245824265,-0.8349673855034734,0.7116708552548645,-0.4176776151821662,0.85874505868345,-0.5097921648317281,-0.049695925133907304,0.09123237523048355,0.5127153988198536,0.689388412099428,0.04635388183120703,0.020132061694502212,-0.3989445942543386,-0.5999871727625599,-0.1959024185234477,-0.036711333618343334,-0.1722102563377279,-0.15829273554588918,0.6322863219468673,0.02280124079196222,0.3766254028802014,0.43599727342666883,0.9154733339348178,-0.36128695573120506,-0.843580438408073,-0.6427952804525268,0.5665283573963042,-0.9094977504126647,-0.5183047041633213,-0.8832641771449323,-0.29212269439702476,0.06335558322716839,0.4838430273780596,-0.18485177165897348,0.24815901309028288,-0.21933067964255448,-0.9484054809548406,-0.6292051390964728,0.3117904178911908,-0.5180910178298437,0.0480945243211548,0.2313792570712263,0.62043641196701,-0.5419839684817254,-0.3288010329896973,0.14952943139361685,0.49758189921449447,-0.7245235619529353,0.7612507343678556,0.13987098104988238,0.38090716355637766,0.1298347666036943,-0.9738179565036,-0.1221738876134284,-0.30981149908985794,0.37579979649164263,0.6157339831563267,-0.7605562668488934,0.7602483463246861,-0.5225705409531787,0.7198378396926117,0.9521072558113846,-0.08665064722548643,-0.8176220949753303,-0.25003663096332907,0.22030158612806527,-0.5390745748677812,0.49413705199706404,0.5604342088685754,0.43086046185657834,0.871214678326709,-0.8047591181768152,-0.5081713897383278,0.05542384498744757,0.13977131081025607,-0.12952392767501308,-0.264864938147958,0.06470758318070913,0.6391064564506945,-0.5224854217520505,0.8981692251019118,0.7779501835836877,0.28117883158115675,0.4205428164657101,0.8967255215786558,0.22734576778508075,0.46414834787221104,0.6680286345436648,0.664619993272122,-0.01974594146766062,-0.7487283479441464,-0.1835538079327057,-0.07133690387297165,-0.7830278852146608,-0.3002000406663734,-0.11997290901684754,0.3105663013317632,-0.7030299513679579,-0.9745238791845081,-0.6983359255977781,-0.4616236532442042,-0.5370266434055877,-0.2386773524110528,-0.5610108693240918,-0.18313460816042415,0.8951014649330638,0.909042726062169,-0.4383694999056278,-0.7176759752056938,0.5970490359471496,0.9102589702324142,0.43429037484394106,-0.5787875900039448,0.2932559435042077,0.23314591009337016,-0.14850124141491272,-0.758087524282393,-0.4959464239335818,0.48932601934020425,0.5476342114583503,0.4557057518488956,0.8077965420674635,0.018929085481425245,-0.8740173402503666,-0.7353362709758433,-0.14642606005978354,-0.8335482743486018,0.9924392611063795,-0.4411010391412251,0.34314214922594766,-0.9123651951410794,0.7224254430654133,0.6134506236349364,0.37168247136670485,-0.16410307052701456,-0.21134729700874888,-0.5833944571744756,-0.011599042062597542,-0.763354248372488,-0.18266286961962597,0.046247453818622386,0.5159746634010385,0.47755825006919017,-0.32556459667352633,0.6808219025526656,0.4433377962639553,-0.055064750823239805,0.09290261044119719,0.7034556551166953,-0.5030788816657834,-0.46322211896965126,0.12931639111564386,0.7843046805398044,-0.12774577473354554,-0.4207357315070408,-0.5369348177898676,0.9348375408313638,0.0652337154929441,0.3403181735449161,0.9381642078770831,-0.4674670534869363,0.6440783744372467,0.5979135128532718,-0.3019823935668433,-0.030504660856451205,0.5544348750612387,-0.03284881767111281,0.24947214500784165,0.5865212958267814,0.3163209821172088,-0.18644438566556643,-0.11876717821505833,0.18956593236765018,0.015116471647661278,0.2742930254362377,0.08629584356178199,-0.522347010540507,0.11496438745409199,-0.5591660667208409,0.12416392872264326,-0.11607660978663903,0.20804097691093104,0.8478146745235824,0.0526135138455881],"weights_hh":[-0.7563225525572717,0.528570468575311,-0.8379761408745727,-0.37663123059784764,-0.15901003631037214,-0.7070942350663638,-0.16680019803291923,-0.5650078152777664,-0.8101642002983278,0.1765081955306571,0.5847856189967062,-0.8843573676596199,0.7666149874168315,0.9764701605539965,-0.8593399104755197,-0.7195800758089701,-0.5303277908848232,0.3633786287320617,0.16659248408242266,-0.16734428756444664,0.7740585228617212,-0.4519133807801221,-0.7212049402216902,0.05538305354897277,0.14866618616420268,0.3226160674629115,-0.4554943064535688,-0.13723713795832837,0.61143218733017,-0.32027666392999365,0.405168484205634,0.0848548280684045,-0.7363055940852465,0.595474741320476,-0.4209251717934863,-0.07522373740409183,-0.3881165064075536,0.4431950429348941,0.9865104354470979,0.2568550849829705,-0.53335194494795,-0.3887679004271758,-0.4987293663634593,-0.9402623975824995,-0.2218015877550683,0.269608136621758,0.15499422298596,-0.030807724663007408,-0.3390421734887583,0.3329396914258511,0.041618315719323506,0.1423395909346472,0.6263387148432522,-0.9554491390546027,-0.45983983801470796,-0.21048647790114527,0.7442601746315327,0.6347084283174507,-0.2546028405352436,0.4225405247039389,-0.9441246248554678,0.4283287605583661,0.9893944214419879,-0.46746761803773307,-0.9248300158587943,-0.9845352691024267,-0.007701191740807634,-0.9101509259095446,0.03679386108644134,-0.6290371447121983,-0.3990197165786473,0.47697120497945145,0.04097681744779824,0.9874973156592697,0.4892756584444109,0.45542300961249893,-0.0007638276748043182,-0.5415374708118492,0.7780790636379997,0.5049992595089585,0.4622065454283588,-0.18275041612128873,-0.6442092333157032,-0.019568999073793725,-0.8581526952118428,0.6081782378213281,0.5771812363569839,-0.27339318909938903,-0.7187607631994724,0.7954690866290404,0.3116401227142602,-0.4047259160299772,0.3145574402543603,0.7772403524148521,-0.18516022678331434,0.00865036877469283,0.14258597243190851,-0.7782155197371601,-0.07589333586017477,-0.2838578504736953,-0.03285856188849423,0.023803807347899886,-0.8777816121031172,-0.9661915439000179,0.8046082709906681,0.8905771400703646,0.5907061870283699,0.07810147739175921,0.6234138325834353,-0.4473250530849564,-0.8078347254767329,-0.4137831537199741,0.015253679283481647,0.25247316034937417,0.1298215579218731,-0.7518029143400169,0.6276659290582496,0.2432926009584111,0.12942365957921487,-0.26158573160683796,-0.09133833449328854,-0.17051895293027775,-0.9450592181935034,0.9459206711346089,-0.4682090499594025,0.09572751715113337,0.47085189407137484,-0.28715377609489545,-0.7660556497966649,-0.5212413403217964,0.8785367497047745,-0.1664306057433642,0.7997687664646824,-0.8465141863165115,0.2720914473843723,0.49565595180429045,-0.29426123334418675,0.29360403878366714,0.688167087276707,0.11849687279844856,-0.7940688451828026,-0.431952200395771,-0.476051971474287,-0.6066528819155923,-0.2276848104007212,-0.966978416860671,0.3505383033076652,0.8718580176994533,-0.47033855419705084,-0.11394496923485864,-0.3509536264518549,-0.283814343245538,-0.9632026959540683,-0.5407577432377588,-0.6816008186168441,0.6046495089552455,-0.050954471737648666,0.7561993282903579,0.05169865640558147,0.5493050357894789,0.009015564930452191,0.8868981920904448,-0.4504285232764642,0.8991535202938505,-0.4819921699310685,0.22023881141317792,0.5863379847476589,0.326311584640294,-0.03992928133345486,-0.5822711238188814,-0.546675706039566,0.16060124070748882,0.40066705515555134,-0.6318139363709558,0.8739129477960519,0.19268607504695656,0.4412055256005345,-0.47296663609159983,-0.1027378146133866,-0.7763697082619962,-0.2542835618109638,0.19751211572363436,-0.9279089019132467,0.6967130135990725,0.44108143108919906,-0.8371726032785651,-0.7003910622114984,0.22193325063161362,-0.4265348005703431,-0.6846049563912382,-0.4878866970840272,-0.1827211543976024,-0.44294607821443144,-0.6655791017738548,-0.9257111808370269,-0.8225814548871511,-0.15940901433935895,-0.31375739417187365,-0.22472993963821275,-0.628369749682997,0.36803711251444016,0.5144393661311661,0.0665020989099181,0.16155460197075766,0.6328919216226636,0.5702216754534459,0.746199560827812,0.23907663647523347,-0.18981156936821098,0.06178536935138346,0.7615825777396013,-0.28031334657927554,-0.6756026409511373,0.6427043686921927,-0.5651872352432046,0.5907196032228523,-0.8465910902167442,-0.562602166127774,0.9164850136012985,0.6577720203541559,0.9641103522502577,-0.3237906638416219,-0.7733540214822674,-0.8144559018324262,0.4941336725382799,0.7802750382681996,0.9286130543349085,-0.28366958850764834,-0.265406547257923,-0.012337582594914354,0.7298421739800853,-0.4679886716621935,-0.9462412883913971,0.6429040241565076,-0.805160319238365,-0.9264753815087676,-0.14710523386749874,-0.16321496244434286,0.007723956877374372,-0.4819533795874338,0.2609622700867613,0.1714327701542533,0.5311876557833974,-0.9540037683417524,0.40213268551713566,-0.8939635349248352,0.6864157191034745,0.22088146352541882,0.9178429681557461,-0.4534700823001758,0.9106594592994517,-0.3141203735894291,-0.1293945629914961,-0.8028454363052167,0.7375607471693593,-0.7784083547782106],"weights_ho":[-0.5571133969618716,-0.9899960588269647,-0.7373575206014937,0.0827273807017661,0.6305035520102209,-0.0017151044376157998,-0.7816615984469086,-0.3781460992122587,0.669327188962989,0.24511608063182533,0.3102655150832243,-0.5506743758348802,0.002390483428474477,-0.33351610057183123,-0.4954915666264956,0.5587379405052426,-0.03415851323980368,0.017078276854579855,0.49289933796004504,0.43103568689615157,0.4925724484870071,-0.4588585120264097,0.04419121840896034,0.853755107391049,0.34411776647784476,-0.44827676599879895,0.09593593908986975,0.520452594910781,-0.21684186069161537,0.07533616808919086,0.3966184875487442,-0.6288834598587569,-0.23233009929148762,-0.492143795675696,-0.6676052660638305,-0.4306730791569118,0.12304844923940683,0.5976234876962863,-0.20388104372676485,0.11612206566298089,0.052875105774230935,0.6277935906089833,0.585554457917357,0.8398260375027524,0.8559944760105582,0.10550170994844588,0.4072455536045565,-0.4304119683722729,0.7101003232306082,0.43425135283751715,0.30148126634696193,-0.5924833883070919,0.10097927765924886,0.7469268730664431,0.2934586752608064,-0.9231566772828146,0.29735762557593404,0.6639839904062954,0.8067365081087206,-0.016282752915927512,-0.1403531055762004,0.7303091863809368,-0.8784867584618998,-0.09347848567360684],"bias_h0":[0.3916780372606121,0.868635605733699,-0.3611778495578346,0.7017044769265584,-0.6593830554227482,0.01906644918081013,-0.6818177475040625,0.31348351584441025,-0.12016174752690079,-0.688764765152174,0.04952177648027245,-0.4182263651690281,0.2675608238338405,0.7794743664575976,-0.48285277765182677,-0.3325833817771848],"bias_h1":[0.2765439250299875,-0.7736410010702062,0.577854148699037,-0.21728437225511854,0.13347763495625453,-0.8828605036841917,-0.783280406348891,0.8187702451836696,-0.21722792317026007,-0.5519980650478569,0.5502175494327206,-0.7201425122741918,-0.094566270320259,0.13107738961151116,0.4558114108922189,-0.39149380509184195],"bias_o":[-0.5992481620924706,0.606643700494639,0.28321910864658983,0.5123187591688199]}