{"weights_ih":[-0.8342969971393359,0.1239735570506213,0.279482584835421,0.8188498449747892,0.856610390206817,0.4406945605276873,-0.6983347142453102,0.6938889678972577,-0.283852350493206,0.8206986367320457,-0.4151333099202539,-0.9195535354372322,-0.5485887083459591,-0.8188792607450281,0.40659173568120544,-0.6495943955895997,-0.8999674716569332,0.886490868885941,-0.8303065210356708,0.23807946794765877,0.5017029467107557,-0.5556571386457771,0.08710065174397363,-0.16731049067605563,0.34611772120684425,0.6375768851075101,0.18341107974202076,-0.9518388549848558,0.07900614332928946,-0.8377980579977673,-0.9084631151081024,0.6544954420425635,-0.3476554480937404,-0.5066423385631198,-0.24163441103256877,0.38912017065895377,-0.5971108196470014,-0.4119197357508415,-0.11202811701632087,-0.36622971611861366,0.9836657420116148,-0.09281741434965673,-0.3552595378176149,-0.6121618461056368,0.5493468893131894,-0.01318718533230534,0.7397893150260022,0.4166927099056055,-0.32767796686675976,0.7942270293974523,-0.33938362391475074,-0.18812452033325955,-0.866447481103541,-0.4175902341603497,-0.7965432965900192,-0.6028198699285785,-0.3720473287467001,-0.9204052654402091,-0.8946659445074212,0.5868927759540536,-0.8407778976487017,0.9790626542389049,0.9879352214715162,-0.4460606267535072,0.19980097278844844,0.1495825727449136,0.6328243820086437,-0.8249490658672676,0.7540425829902739,0.1887236640154677,-0.6324568190086313,0.36475661325498177,-0.9255677710946097,-0.13438167349638297,0.3181821758005139,0.6116642298484671,-0.9154444352707882,0.6953055065773854,-0.23945297402401966,0.027350191575215455,0.07595992853953737,-0.9063887400730397,-0.7254864396845884,0.5897575233504204,0.45414137876063165,-0.238200461171455,0.816048691395131,0.381494822091587,-0.7035960179740048,-0.836696199008744,0.550024383928621,0.04451907269211719,-0.8003077658848126,-0.5667080011432026,0.12246705478830688,0.19448486952296729,-0.07879548699127237,0.06847678333435425,0.8556866578581148,-0.631331452815439,0.8288862711937766,0.5638843943625804,-0.7260526953068942,-0.1760684552333467,-0.26368150008124247,-0.5814952831793152,0.7907417388499238,-0.8539188374432656,-0.7105859502813763,-0.11465458471236811,0.4101442492874454,-0.547340879695331,0.49085727822305447,0.7969246284140474,-0.8202120342593038,-0.5994358457281781,0.3313317297266103,0.9762349544614508,-0.37343098745983716,-0.049700724233901816,0.561858515702482,0.2819823263397925,0.5647769875142656,-0.6017907539372016,-0.55987465727989,-0.3207251460835594,0.6295096047297724,-0.387378123613056,0.6905792004309637,-0.21796895836487384,0.8590803087015899,0.6472609306679631,-0.6590253527629302,0.5025693494971208,0.4558435427710634,-0.31188653330045457,0.46070472629466597,0.6554703705071383,0.7530171250853908,-0.9069327708761963,-0.5575907981436943,-0.15115190601904782,0.21089594283668345,0.5886261421943124,0.21785783838871242,0.7153035246022645,0.10990357398600237,0.26629422856037177,0.6343950704726493,-0.5509840926502496,-0.7541225908125877,-0.6473753428090105,0.4428185945416696,-0.19170947361983415,0.023685441174524646,-0.9742504169588022,0.1501521793993985,0.9868742789408393,0.6156054845714944,0.9876132044044434,0.9820381566812775,-0.41070132388230474,-0.724514893238722,0.7679288852481174,-0.8879253863163639,-0.7448114647230164,-0.38124237577013065,0.8522684017462638,-0.41173127090349704,-0.5556099774224912,0.08830610407698125,0.9247644824125476,-0.6640506222536178,-0.4606255951222773,-0.22198375495659062,0.050712773848983206,0.481364983347367,-0.11725893898290196,0.291360190115759,0.180803045680632,0.012052579410334108,-0.4955467947056156,0.7226090276504469,-0.49715163297252785,0.7374396589288637,0.5760447159509465,-0.6942133480232895,0.17513088661458753,-0.39055181724990295,0.29393865433130517,-0.5027226962632889,-0.6545809191872283,-0.38560731540731785,0.9257257946751096,0.9038668979994939,-0.10791102615259063,0.07838746052195367,0.12545121965088635,-0.07190043139898172,0.1391910738511153,0.7225419841140879,-0.22390256063184633,0.7764203491277901,-0.5593132289187732,-0.20047191575990775,0.8586359611637258,0.3176859508722705,-0.8117497879611315,0.4585178650456503,-0.8815050681704679,0.8986798904306519,-0.8551480182692694,-0.46761825741977847,-0.3527221698706009,0.0898747079378106,-0.5784624009520085,0.8899715457821067,0.7668634295034928,-0.5109105214849383,-0.50127462785194,0.8787876981666629,-0.6378873642457228,0.03888949534101194,0.6313528661558194,0.37301396894554273,-0.926270437169523,0.4212059117668474,0.2785885235236423,0.8956515668424798,0.892652688391625,-0.8226796685809816,-0.3750325222377051,-0.5977079823770826,-0.6948209052416772,0.9930639672424741,0.24688397934514095,0.38144258025110656,-0.6196675143378261,-0.3026652379634527,-0.3732543574516025,-0.5038555859613225,-0.3669813244895581,0.14298271143921748,0.002471009236731936,0.9486029823004323,-0.7079173252249089,0.7096363953242966,-0.7657379221024003,0.062290094899753345,0.3826833260324609,0.39771081703403954,0.9173062769700144,0.8946788527175276,-0.5543536095446169,-0.5945266188586882,-0.1599142997781855,0.3236699169023334,-0.5093853842732416,0.07159419291983715,-0.6446152092172754,-0.6399357334817346,-0.1573823957211462,-0.6906557681751724,-0.6038415108418431,0.44895252619799586,0.9193647402206648,-0.08214792895236389,-0.7962408882529153,-0.7146968524560853,0.3976588824883507,-0.6549406131757476,-0.318426152455628,0.7206157581142576,0.0273534169875167,-0.32969633840078094,0.5781588456879605,-0.3989445942543386,0.37105389785665643,-0.4237693885902536,0.699140692625225,-0.3478099111054911,0.9705543430899184,0.31423317306802856,0.6418700831259985,0.12991723699023416,0.8316996393041698,-0.013819878814023134,-0.206821683516083,-0.843580438408073,-0.6427952804525268,0.5665283573963042,0.4686088602578711,-0.6621341678552539,-0.9639801625342099,-0.91388409398717,-0.3196001954793437,-0.7417217885155687,-0.08522917751724557,0.24815901309028288,0.47142142085445404,-0.0371746979166101,-0.8304153427176395,0.5828377689464195,0.5187120011157142,0.3544103214809988,0.2313792570712263,0.0941447502233046,-0.5419839684817254,-0.7664623554712124,0.14952943139361685,0.49758189921449447,-0.5302928226444987,-0.08245764693813196,-0.1157654307127387,-0.17964472985727786,0.1298347666036943,-0.6400846978774128,-0.4854496332548106,-0.30981149908985794,0.8484299776334181,-0.7227237222638374,-0.7605562668488934,0.7731299937701519,0.9867442071047245,0.7198378396926117,0.9521072558113846,0.5477564435041382,-0.6151149808349292,0.04969563013561107,0.8540639968260211,-0.0894765694625741,-0.08788390310121885,-0.52144122900097,0.16166751759625586,-0.732084791224781,0.17063532410936877,-0.38016789091925696,-0.8738975863932346,0.13977131081025607,0.008588428895040634,0.10434503625964586,0.48443019578809676,0.07977418864269614,-0.9763218153121518,-0.21439034722750172,0.529923729416466,-0.6317228972407734,0.7006019507353409,-0.9218474383646842,0.22734576778508075,0.46414834787221104,-0.20103322716462357,-0.3094243949747324,0.02309941229601664,-0.7487283479441464,-0.1835538079327057,0.4317473408157151,-0.5152008643889903,-0.28582248454194126,-0.11997290901684754,-0.9229913859160019,0.9090588255613823,-0.14718540984708617,0.2785809322468118,0.9772019941951213,0.025999981415349982,-0.07172788534099217,-0.5610108693240918,0.6291022484590081,0.8951014649330638,0.909042726062169,-0.19895534143035354,-0.14732914701326139,-0.26587799705130877,0.7476344412855109,0.43429037484394106,-0.5571966647879363,0.2932559435042077,0.23314591009337016,-0.542905611033023,0.29149153454325316,-0.3772796400273648,0.19041135643354146,-0.2941547313230495,-0.5610138787298995,0.8077965420674635,-0.6000457431386088,-0.8740173402503666,-0.7353362709758433,0.4728564380040965,-0.009414768797662454,-0.7486351778760105,0.5232211464771139,0.34314214922594766,-0.9123651951410794,0.7224254430654133,0.17505062617630607,0.15782246558973956,-0.16410307052701456,0.062031475618466336,0.6748656719664836,-0.640354488333053,-0.763354248372488,0.47887471753347866,0.6074045522634444,-0.4198793452330425,0.47755825006919017,-0.827955334608607,0.8039365906415685,0.8256667083515836,-0.055064750823239805,-0.9879256374731071,-0.8664764890198418,0.36529123086701243,-0.5177781706638618,-0.4527655752315203,0.9354458787183162,-0.8614572585501714,-0.6137830834726514,-0.9023710862077814,-0.4321816974315418,0.5261507600439785,-0.2530492114783489,-0.9869959026095729,0.9445190048832368,0.6440783744372467,-0.5291840270909685,0.41802955345361914,-0.030504660856451205,0.5544348750612387,-0.03284881767111281,-0.3866042722336893,-0.12037004293297882,0.3163209821172088,0.4919118470833639,0.5834140645837584,0.18956593236765018,0.43740515171915995,0.022245536938552135,0.08629584356178199,-0.2829025881398788,-0.03880415886287669,-0.5591660667208409,-0.5790835759806026,-0.49467923264169156,0.20804097691093104,0.37982626260797003,0.47559768856207607],"weights_hh":[-0.21775601666273303,-0.5442846673919188,-0.8424686443403393,-0.6223945876508012,-0.6284233375051871,-0.3062827209710066,-0.9279104401373985,-0.5650078152777664,-0.8101642002983278,-0.14350486155683906,0.10856333293831555,-0.8843573676596199,0.4642160268473443,0.6466731251038684,-0.8593399104755197,-0.5950354044248383,0.9976504567435056,-0.3400718524032862,-0.42622046785566536,0.3211635372698891,0.7740585228617212,-0.4519133807801221,-0.7212049402216902,0.8911223234278418,-0.3094251003586934,-0.6245136728547218,0.8373387873166724,0.9390653894948879,-0.2913877504746014,0.2496447561015438,-0.29677909266364644,-0.6302387582015527,0.33628068260001887,0.289397287678002,-0.4209251717934863,-0.07522373740409183,-0.3881165064075536,0.38974777841946806,-0.08413427928566053,0.2568550849829705,0.623794217087785,-0.016203349376418208,-0.4987293663634593,-0.5939839025941553,-0.5615071833344087,-0.9535276654405342,0.07595450059591813,-0.7557839255268819,-0.3390421734887583,0.3329396914258511,0.041618315719323506,-0.729854699014505,-0.545050811701699,-0.654635135903783,0.2802800188714676,-0.6662092952250778,0.8867007047613693,0.6229313522806244,-0.750549373022676,-0.4068839587724771,-0.35625493994935,0.4283287605583661,-0.3985912730960981,-0.776870502034479,0.06910188126847827,-0.061098033131142815,-0.5870489334954778,0.004001925732818101,-0.6543912628462525,-0.6290371447121983,-0.3990197165786473,-0.5482168368699156,0.6226025595818991,-0.5662789360593385,0.564863551173572,0.40492114836675275,-0.0007638276748043182,-0.5415374708118492,-0.4277698577984119,0.4910413796339277,-0.04416484816965793,-0.18275041612128873,-0.7899661273389997,-0.019568999073793725,0.9679782169903413,0.6081782378213281,0.5771812363569839,-0.011668008665041585,-0.8035863512813544,-0.033257810249668784,-0.1864016523582992,0.08434924127421728,0.16681173662532278,0.04001183685425236,-0.18516022678331434,-0.6074051463672472,0.14258597243190851,-0.550402749507731,-0.6437050787595242,-0.034248740025500934,0.6916128598457143,0.019151027493006678,-0.9724972859927661,-0.9661915439000179,0.5579417820856132,-0.6048717600871321,-0.5541906542163066,0.07810147739175921,0.1011363016882676,-0.2815831090821135,0.08107350726014029,-0.7848133503305692,0.015253679283481647,0.30994817318162515,0.1298215579218731,-0.9755494191023681,0.46130408646008636,0.8483430456789585,-0.57265059348598,-0.8613264523779756,0.3136916308713038,-0.17051895293027775,-0.6116774115191894,0.9459206711346089,0.25572396881754833,0.3666580403289814,0.47085189407137484,0.08698973784521336,-0.7660556497966649,0.4283871032933053,0.8940271503903845,-0.1664306057433642,-0.14330994985980738,-0.19241348884645526,0.2720914473843723,0.12660483991793914,-0.29426123334418675,0.7772528601839799,0.42225337900659987,0.11849687279844856,-0.8105129974050909,-0.4263484973470364,0.3825138142588971,0.9926629106748828,-0.11369981933166295,0.46409366137587127,-0.1258781295695579,0.8718580176994533,-0.8963404320301165,0.43426479466044654,0.28287173516151465,0.20154370200701233,0.3664372808713068,-0.19192938067514542,-0.34943240332814973,0.6046495089552455,0.6598378452976763,-0.8980303558264158,-0.6330936492044392,0.5493050357894789,-0.028704464075933966,0.8868981920904448,0.20911094879785952,0.8991535202938505,0.9469472240811725,0.22023881141317792,-0.6081693357530882,0.556470107731383,-0.03992928133345486,-0.22947833513499805,-0.546675706039566,0.16060124070748882,-0.5213507599331175,-0.9735418194103658,0.714512187693034,0.360683760483568,0.8326318893312852,-0.47296663609159983,-0.1027378146133866,-0.8514913127905812,-0.9939876572523381,-0.3263594028296424,-0.47956329299498157,-0.8241197994718832,0.3295320690436494,-0.8483855728519558,0.964190607225099,0.22193325063161362,-0.9493375168617402,-0.6846049563912382,-0.4878866970840272,-0.8191633271130299,0.946331686586311,0.1723140238946519,-0.9257111808370269,-0.9010407779153227,-0.6692748833648259,-0.7613224672997092,0.9204187738542609,-0.628369749682997,0.36803711251444016,-0.9963260136493461,-0.4851796278870504,0.7942706587968977,0.6328919216226636,0.5702216754534459,-0.5167993441990437,0.23907663647523347,-0.18981156936821098,0.7597527886771391,-0.6984701045793011,0.5560674494382325,-0.6127295564264417,-0.8058723280937417,-0.32877357920527017,-0.9901204932334804,0.6822584961643776,-0.562602166127774,0.9164850136012985,-0.6158611935417759,0.9537709402917403,0.6541567492251599,-0.7733540214822674,-0.05245715447197541,0.4941336725382799,0.4022487587181989,0.043784743278399096,-0.28366958850764834,-0.265406547257923,-0.012337582594914354,-0.9445238275323593,0.4381327477583654,-0.9462412883913971,-0.01205577958342019,-0.805160319238365,0.20132207818210035,-0.8256702090366816,-0.1487561466854408,-0.29698663248811674,-0.4819533795874338,-0.2629969306881672,-0.8818165728581095,0.8267499228285144,-0.7834143933683124,0.733304019894788,0.44683965048568797,0.45177395286517386,-0.8968222604074705,0.38593493232607146,-0.8006015603211087,0.9106594592994517,-0.3141203735894291,0.3267229710746571,0.6659230321118921,0.7375607471693593,-0.39665034266386345],"weights_ho":[-0.5571133969618716,0.9422172974910397,-0.09073963200500601,-0.3638215951724917,0.2124529019283503,0.8265341931477852,0.554307301298081,0.37366027023667137,-0.6020419386330651,-0.441721862447358,0.9517637499302796,-0.23776017619388012,0.002390483428474477,-0.3306533346805185,-0.6377020577883412,0.5848600987745132,-0.20449423458101657,0.017078276854579855,0.49289933796004504,0.43103568689615157,0.3677688613676675,-0.8122747136320223,-0.6621005915452822,0.853755107391049,-0.2670299396367688,0.6201856417247922,-0.9927575677106171,0.9876873376318656,0.5406460952856056,0.1054433423887855,0.4850742332283886,0.13206412520751387,-0.23233009929148762,-0.492143795675696,-0.03261061844102131,-0.9667912965246566,-0.03570634533161887,0.2034647383786392,0.06463439955768724,-0.6557258330323124,0.6863697457746107,0.0610558777315473,0.5553222104973943,-0.6288303718461472,-0.9007229615231642,-0.27395288424819486,0.4072455536045565,-0.2035496163173307,0.0684983397670289,-0.02785411768784818,0.7748095409679454,-0.5924833883070919,0.6570957044645742,0.8974389039832347,0.2934586752608064,-0.20209309581142176,0.29735762557593404,-0.14690646388362816,-0.9255639241473852,0.9813319285185906,-0.14545402151713427,0.7303091863809368,0.9060287817588979,-0.09347848567360684],"bias_h0":[-0.6523267303176294,-0.22547378480147517,0.8340196591481839,-0.9890652626876559,-0.8882277154336387,0.34174453336393196,0.21966615824933555,0.31348351584441025,0.30985310269213784,0.0678255898297273,-0.9855116008901355,-0.4182263651690281,0.7983752815844876,0.7794743664575976,0.3194996040123732,-0.16158832806980716],"bias_h1":[0.2765439250299875,-0.5736337614290776,-0.1339048036630841,0.6121040814654266,-0.8192076406161746,-0.8042408816697955,0.3130316515008449,0.40133630433464407,-0.7376193424345359,-0.5519980650478569,0.5180338071581931,0.26601420609280013,-0.094566270320259,-0.8376253424725133,-0.8736313299400722,-0.10606184482670877],"bias_o":[0.04284218333833034,0.606643700494639,0.28321910864658983,0.5123187591688199]}