{"weights_ih":[-0.9284279570237957,0.38628051039821454,-0.39299772764333385,0.928638205432091,-0.0708215619967929,0.4406945605276873,-0.7550404070835679,-0.4510571855885064,-0.1871453238972196,-0.8391873552440376,-0.10994667747145193,-0.8090143702157693,-0.3044094674916551,-0.5491423343082174,0.9690016337872807,-0.640098397356426,-0.8999674716569332,-0.6063018228308446,-0.8303065210356708,0.23807946794765877,0.4011194767778081,-0.5556571386457771,0.2624375087052344,-0.2155239912687663,0.7833237361146812,0.20693992500875935,-0.14468924446149933,0.5275260436677156,0.07900614332928946,-0.5195784860622328,-0.9084631151081024,0.6544954420425635,0.09922334181203274,-0.5066423385631198,-0.01831232967329388,0.38912017065895377,0.6617498513532845,-0.8279993856041479,-0.11202811701632087,0.2388688487285786,0.7875229897802665,-0.7655728089161757,-0.16018640046017274,0.8357474846470483,0.5662762637079217,0.8381821796909277,-0.9857327627795902,0.5164448249155067,-0.06206233916004433,-0.914446112239911,-0.33938362391475074,0.1060239931509408,-0.6780183970679594,0.08775826937014664,0.4654469906757468,-0.6028198699285785,-0.5476115506470944,-0.9204052654402091,-0.3296168155953094,0.6058604728426542,-0.18463262907924172,0.3187967763613886,0.7526983864020838,0.7569730967326578,0.19980097278844844,-0.13539327233061793,-0.6219266366395753,-0.11396417775137713,-0.21782972332572204,-0.8231297396551513,-0.33993217871830317,0.0009384329696757732,0.6371997410674557,0.22582172431673841,0.401683780824291,0.6116642298484671,0.17296259758950017,-0.3743179491195632,-0.22524135944313683,-0.419188112177749,0.07595992853953737,0.8864329491967993,0.3128383360180451,0.9051367873845892,-0.23258826287946088,-0.2041931842668574,-0.7617525476793661,0.011792079381276244,-0.7035960179740048,0.980699602446595,-0.07731999569617765,-0.5243645448539689,-0.46324359550550986,-0.5667080011432026,-0.1640437894794582,0.19448486952296729,-0.5581898898308546,0.06847678333435425,0.5589238995526813,0.6924196185878764,-0.22275061337857904,0.8047702635893332,0.45772651839123846,-0.6172767778513801,-0.8333060347251349,-0.7970670708411292,-0.6113265863051869,-0.1184776190975727,-0.7105859502813763,-0.7300302051591181,-0.695297291886102,-0.547340879695331,-0.0009460197355042332,0.4151354183164988,-0.8202120342593038,-0.8114556306445817,-0.7403661495681568,0.8035679100215851,0.07444393528027327,0.16418394070117381,0.08035000980618512,0.2819823263397925,0.29749656493764776,0.7385236729402731,-0.6420776872782341,0.6089504533183756,0.6295096047297724,-0.387378123613056,0.8693330441162679,-0.21796895836487384,-0.18633424407670685,0.359184278810172,0.5804044553238854,0.5025693494971208,0.4558435427710634,0.7293601706851021,-0.05665280621077451,-0.5355833498301183,-0.1655860107284628,0.3364316294976044,-0.5575907981436943,-0.15115190601904782,-0.22392895468726626,-0.5494558127739702,0.21785783838871242,-0.8583755809402149,-0.8710258711194021,-0.9087528254363786,-0.6886539479190661,0.5233684123671454,0.23571195047891247,0.20351866145352004,0.2880807867952111,0.7545142062254571,0.023685441174524646,-0.9742504169588022,0.1501521793993985,0.8019218335326095,-0.19523656543076795,-0.16066808014113088,-0.11539307769247809,0.3378231113292631,0.6340992733696904,0.9606274063034317,-0.9353920864487919,-0.7448114647230164,-0.38124237577013065,-0.4556309751955345,-0.41173127090349704,-0.7238460613525834,0.08830610407698125,-0.5115980855991173,0.03090463254989828,0.5136018696451798,-0.1766250297252323,0.050712773848983206,-0.9489557049682771,0.5327017248895924,0.291360190115759,-0.6856822821147179,-0.6957387360787304,-0.4955467947056156,0.7226090276504469,0.9989898365736027,0.7813804444399064,-0.8400052460236345,-0.8366092089171921,0.04175180928206634,0.7793424342267505,-0.5734453102420747,0.3125137161997438,-0.8045674218064911,0.05467239408200797,-0.8812229250084906,0.7946760661816907,-0.10791102615259063,0.07838746052195367,0.36192661283226935,-0.4571937337932841,-0.7003017268826832,-0.6647732521163294,-0.22390256063184633,-0.2885071017955958,0.8226138534386367,-0.20047191575990775,0.9305566899986784,0.3176859508722705,-0.9264478390930655,0.4585178650456503,-0.37957883951278326,0.39255933773474916,-0.4532229842537243,-0.4347375617077325,-0.9189963155435428,0.3987290038916229,0.34282723398604253,0.6230334458990845,0.7668634295034928,-0.5109105214849383,-0.8367487928495281,-0.49007229207454506,0.8847270573780981,0.883823200917899,0.9346168302912465,0.691382747223273,-0.9775330554134949,-0.9573108277299596,0.2785885235236423,0.4378687750960164,-0.6604745707295312,0.9911228098150631,-0.3750325222377051,-0.5467602947323769,0.2896287735744214,0.9930639672424741,-0.9528119365578198,-0.5061098895353826,-0.6946203223891803,-0.5809472667037561,-0.9908378306216143,-0.3010611914718271,-0.3669813244895581,0.14298271143921748,-0.5972017305646962,0.7567077286693358,-0.6370740366797698,0.262507435590249,0.4031414139677303,0.5422066194561741,-0.7006813556411096,-0.8661786175400721,0.9173062769700144,-0.47653120333856513,-0.5543536095446169,-0.5945266188586882,-0.1599142997781855,0.2088562892645227,0.7299428192249,0.6943888296147926,0.890865112704947,-0.6399357334817346,-0.433420201766221,-0.7297740595271089,-0.8931891830757954,0.5696062245824265,0.9193647402206648,0.7116708552548645,0.42906262690061325,0.25468354832007645,0.946298871006571,-0.049695925133907304,0.09123237523048355,0.5127153988198536,0.788205148252884,-0.22679119173132323,-0.9089388116777237,-0.3989445942543386,0.11207017214087078,-0.4237693885902536,-0.036711333618343334,-0.1722102563377279,0.85286190328,0.31423317306802856,0.6418700831259985,0.3766254028802014,0.43599727342666883,0.6816412725826433,-0.8868297854888523,0.019928026665447574,-0.6427952804525268,0.5665283573963042,-0.9094977504126647,-0.5183047041633213,-0.35442507231311127,-0.29212269439702476,-0.3196001954793437,-0.7417217885155687,0.2808350066752099,-0.6994162125533472,-0.21933067964255448,-0.47497691755456994,-0.4585110260505374,-0.38411977308097756,-0.5180910178298437,-0.412922024002111,-0.8858405127195381,0.62043641196701,-0.5419839684817254,-0.7733376310840601,0.14952943139361685,0.49758189921449447,-0.7245235619529353,0.7612507343678556,0.13987098104988238,0.38090716355637766,0.1298347666036943,-0.9738179565036,-0.1221738876134284,0.0822400564885939,0.37579979649164263,0.4419276169652917,-0.24665468791017697,0.6020861431943183,0.9867442071047245,0.7198378396926117,0.9521072558113846,-0.08665064722548643,-0.8176220949753303,-0.25003663096332907,0.22030158612806527,0.7569461101390116,0.49413705199706404,-0.52144122900097,-0.9778160575632611,0.6025298152805514,-0.8047591181768152,-0.9802547234720806,0.05542384498744757,0.13977131081025607,0.008588428895040634,0.10434503625964586,0.3109518968716203,-0.7918634239220947,-0.9763218153121518,0.8981692251019118,-0.41791454224626556,-0.6317228972407734,0.4205428164657101,0.1429701956204279,0.05610422537075754,0.46414834787221104,0.6680286345436648,-0.3094243949747324,-0.01974594146766062,-0.7487283479441464,-0.1835538079327057,-0.07133690387297165,0.43794207294456355,-0.3002000406663734,-0.11997290901684754,0.3105663013317632,-0.7030299513679579,-0.14718540984708617,0.2785809322468118,-0.4616236532442042,-0.5370266434055877,-0.2386773524110528,-0.6650664080962465,0.6291022484590081,0.36294857799359415,0.909042726062169,-0.4383694999056278,0.9399439025828509,0.5970490359471496,0.8752597431126881,-0.9570635271450989,-0.5787875900039448,0.2932559435042077,0.7735485168020333,-0.14850124141491272,-0.8434944354192828,-0.3772796400273648,0.19041135643354146,0.12340724812140258,0.4557057518488956,0.37033015546951065,-0.6000457431386088,0.14083723144129268,-0.7353362709758433,0.4728564380040965,-0.8335482743486018,-0.7486351778760105,-0.4411010391412251,-0.5531386644543776,-0.9123651951410794,0.5689546414737583,0.6134506236349364,0.7887513793387799,-0.16410307052701456,-0.08017361917766896,-0.5833944571744756,-0.011599042062597542,-0.763354248372488,0.47887471753347866,0.8262167326786585,0.5159746634010385,-0.2588157702110736,-0.32556459667352633,0.6808219025526656,0.4433377962639553,0.573533259743715,0.09290261044119719,0.7034556551166953,0.36529123086701243,-0.46322211896965126,-0.5281665419260968,0.7843046805398044,-0.12774577473354554,0.8696587796282835,-0.5021328412993866,0.9348375408313638,-0.9142844055954367,0.5228643273736886,0.9381642078770831,-0.25390172210275486,-0.5827426276187893,0.5979135128532718,-0.3019823935668433,-0.030504660856451205,0.5544348750612387,-0.7789390172694686,0.24947214500784165,0.5865212958267814,0.3163209821172088,-0.4729431654485352,-0.07464508501274869,0.5461185242519286,0.015116471647661278,0.624171665725419,0.08629584356178199,-0.6335322141337356,0.11496438745409199,-0.32025406058595585,0.12416392872264326,-0.11607660978663903,0.20804097691093104,0.8478146745235824,0.0526135138455881],"weights_hh":[-0.21775601666273303,0.1247836139108136,0.6181573886251179,-0.37663123059784764,-0.15901003631037214,-0.9053907483870343,-0.16680019803291923,-0.5650078152777664,0.8703172628801485,0.1765081955306571,0.5847856189967062,-0.8843573676596199,-0.28400080808444317,0.9764701605539965,-0.3027609678082528,-0.2448212094938922,-0.5303277908848232,-0.3400718524032862,0.08503999817978558,0.9843733060514104,-0.2850912468961453,0.23330085784141863,0.7241471000686062,0.8911223234278418,0.14866618616420268,0.3226160674629115,0.5509944866384278,-0.13723713795832837,0.61143218733017,-0.32027666392999365,-0.29677909266364644,0.4336888149062543,-0.7363055940852465,0.595474741320476,0.8055634842242902,-0.07522373740409183,-0.3881165064075536,0.4431950429348941,0.9865104354470979,0.2568550849829705,0.623794217087785,-0.3887679004271758,-0.4987293663634593,0.605789895842153,-0.2218015877550683,0.269608136621758,0.15499422298596,-0.7557839255268819,-0.3390421734887583,0.3329396914258511,0.041618315719323506,-0.07062347131573432,-0.545050811701699,-0.654635135903783,-0.6214929535811511,-0.6202454305745635,0.8867007047613693,0.6347084283174507,0.34516056890464397,0.4225405247039389,0.21651676732365743,-0.5051600553024886,-0.9871392980112113,0.1695816462077966,-0.13753150314617302,0.9748176334357908,-0.007701191740807634,-0.9101509259095446,0.03679386108644134,0.9066832859700567,0.9638661784261413,-0.785997310183371,0.04097681744779824,0.9874973156592697,0.564863551173572,0.45542300961249893,-0.0007638276748043182,-0.767931705585251,0.8918663236289879,0.5049992595089585,-0.9965759092286779,-0.18275041612128873,0.7156921981784543,-0.019568999073793725,0.9679782169903413,0.6081782378213281,0.5705725409232549,-0.011668008665041585,-0.7187607631994724,-0.033257810249668784,0.3116401227142602,0.8239096781180808,0.4106871697374894,0.7772403524148521,-0.18516022678331434,-0.6074051463672472,0.14258597243190851,-0.29591131033398166,-0.07589333586017477,-0.2838578504736953,-0.03285856188849423,0.023803807347899886,-0.8777816121031172,0.4874494167717378,0.1386402961747557,0.8905771400703646,0.5907061870283699,-0.15397593083360372,0.6234138325834353,0.014660116355576402,-0.8078347254767329,-0.4137831537199741,-0.664236935615228,0.0928365600976564,0.987227168673442,-0.7518029143400169,0.46130408646008636,0.2432926009584111,0.4521143935203904,-0.8613264523779756,0.08426405499313239,-0.5098913073316305,0.3633080934853332,0.9459206711346089,-0.4682090499594025,-0.9450179287111136,0.70393358053586,-0.28715377609489545,-0.7660556497966649,-0.46937554746049015,0.4281650056390014,-0.1664306057433642,-0.5776306106659694,-0.5326640220110752,0.6662083078039325,0.49565595180429045,-0.8319572916753528,0.29360403878366714,0.688167087276707,-0.1887372846945996,0.5056760867076382,-0.4263484973470364,0.6134767416763947,-0.6066528819155923,-0.2276848104007212,-0.966978416860671,0.3505383033076652,0.03407825764278538,-0.8963404320301165,-0.6080200761676364,-0.3509536264518549,-0.283814343245538,-0.22269357779222343,-0.5407577432377588,-0.6816008186168441,0.10887118850380872,-0.050954471737648666,0.6325286736257496,0.05169865640558147,0.47573184889232945,0.8302766527153966,0.8868981920904448,-0.5604194492588623,0.3440889367170372,-0.4819921699310685,0.8161493582555293,-0.9380532423145544,-0.9477473040085596,0.82044164666886,-0.5822711238188814,-0.814899932692486,0.16060124070748882,0.40066705515555134,-0.6318139363709558,0.8739129477960519,0.19268607504695656,-0.9546636676426408,-0.47296663609159983,-0.7660799308210324,-0.7763697082619962,-0.9939876572523381,0.19751211572363436,0.5895873539614604,0.6967130135990725,0.3295320690436494,-0.0068176394629866355,0.4433266241210476,0.22193325063161362,0.7668477556863322,-0.6846049563912382,-0.4878866970840272,-0.1827211543976024,-0.06865486183293101,0.640597193994221,-0.9257111808370269,0.6826496779337607,-0.15940901433935895,-0.31375739417187365,0.3384330761672796,0.7374104260093826,0.36803711251444016,0.09627161244631521,0.18527512080823216,0.16155460197075766,0.6328919216226636,0.21096024691217163,-0.4191619926797123,0.23907663647523347,-0.18981156936821098,0.06178536935138346,0.7615825777396013,0.9142932645017618,-0.6756026409511373,-0.31655835792111975,-0.5651872352432046,0.5907196032228523,-0.9940653048595556,0.22710633376109368,-0.10246524857241734,0.6577720203541559,0.9641103522502577,0.6541567492251599,0.8992725716517429,0.9785953395087996,0.37430375824464246,-0.16005879465588535,0.9286130543349085,-0.28366958850764834,-0.265406547257923,-0.012337582594914354,0.7298421739800853,0.8661359882379582,-0.9462412883913971,-0.01205577958342019,-0.805160319238365,-0.9109033766681285,-0.14710523386749874,0.6626912267954308,-0.22229263952464762,-0.7182920497962477,0.8165077955185818,0.1714327701542533,0.5311876557833974,-0.9540037683417524,0.5226374439399393,0.44683965048568797,0.45177395286517386,0.22088146352541882,0.9178429681557461,-0.5746368705904816,0.5102504701590258,-0.3141203735894291,-0.9160585250827402,-0.8028454363052167,0.13073765062358156,-0.33855491631777146],"weights_ho":[-0.8038106513029606,-0.9899960588269647,0.5612174082695507,0.0827273807017661,0.2124529019283503,0.8265341931477852,-0.30136749811474295,-0.3781460992122587,-0.042118420095430986,0.6423840792886042,0.3102655150832243,0.6798642471567877,0.1837772252448231,-0.33351610057183123,-0.4954915666264956,0.5587379405052426,-0.03415851323980368,0.8511229636090247,0.5158713139355824,-0.20524089661829237,0.4925724484870071,0.1345845231078513,0.04419121840896034,0.13164297363284683,0.34411776647784476,-0.44827676599879895,0.09593593908986975,0.520452594910781,0.5406460952856056,0.07533616808919086,0.8975085115117107,-0.6288834598587569,0.6524037240913592,0.07209495193987236,-0.6676052660638305,-0.4306730791569118,-0.16227302242505792,-0.022395646206727404,-0.29536735963334504,0.11612206566298089,0.24034416294099437,0.0610558777315473,0.1622408404743121,-0.6288303718461472,0.8559944760105582,-0.6568808735474476,0.4072455536045565,-0.2035496163173307,0.7101003232306082,-0.02785411768784818,-0.9680494382726628,-0.5924833883070919,0.20410019056064366,0.8974389039832347,-0.9298700800984132,-0.20209309581142176,0.29735762557593404,0.6639839904062954,0.8067365081087206,0.9813319285185906,-0.1403531055762004,0.7303091863809368,0.5516320099476293,0.5325847651033158],"bias_h0":[-0.10354595288883406,0.868635605733699,0.23625565344993849,-0.6201328537096855,-0.6593830554227482,0.01906644918081013,0.21966615824933555,-0.6213236009943419,-0.12016174752690079,-0.6309570924839885,0.2911922911182865,-0.09114265430039281,0.1251624166568579,-0.7899119715228526,0.6213316802752225,-0.3325833817771848],"bias_h1":[0.3237188672715261,-0.7815842092926166,0.577854148699037,-0.21728437225511854,0.13347763495625453,0.7010408035319153,0.9869353689668696,0.40133630433464407,0.6713823566126833,-0.5519980650478569,0.575242757344564,-0.7201425122741918,-0.094566270320259,0.13107738961151116,-0.9737847804490889,-0.8833029906460745],"bias_o":[-0.5992481620924706,0.606643700494639,0.32684975354153734,-0.40296292039647774]}