{"weights_ih":[-0.9284279570237957,-0.7027948301567648,0.4613705367191865,0.928638205432091,-0.0708215619967929,-0.8303769384224142,0.5733923677154025,0.053074518259878634,0.7489174083424626,0.8941064197375783,-0.4037894178147612,0.3701535059135237,-0.3044094674916551,-0.05318652797042356,-0.6749972530296375,-0.5527708166132455,0.28038336065596603,-0.6063018228308446,-0.345576836425568,0.9934355328158277,0.4011194767778081,-0.7565457141400012,-0.8704895651404876,-0.9572309520211897,0.3514748904935616,0.20693992500875935,0.16835519362177642,-0.40338927905357513,-0.5597777937898314,0.06696663504541234,-0.042853223803865914,-0.7443503765421584,0.09922334181203274,-0.6999245876361311,-0.8492359236927867,0.6746055112215059,0.8866395992621492,-0.8279993856041479,-0.4034576146358939,-0.8523973685601225,0.19759170074650578,0.5732668084169483,0.7318400381316681,0.8357474846470483,0.5662762637079217,-0.6185125944791832,-0.5790481538065333,0.5164448249155067,-0.06206233916004433,-0.914446112239911,-0.6949455030708018,0.4475366430227936,-0.6780183970679594,0.08775826937014664,0.0399062949920197,-0.006891968355396072,-0.5476115506470944,0.47142105004657364,0.8207907491757689,-0.021524381445819696,0.00956397318199187,0.6381536917926096,-0.7695643564779793,0.7569730967326578,0.8103096176520213,-0.8188590379926262,0.1793039891560928,0.5472820806817,-0.21782972332572204,0.2397617221859898,0.8313477285365871,0.0009384329696757732,-0.08312456325948414,0.22582172431673841,0.401683780824291,-0.6781759421107698,-0.06832472502782361,-0.3743179491195632,0.03451133765960046,0.0247430623450573,0.38188665721144166,0.2192531728581666,0.3128383360180451,0.9051367873845892,0.9592046105435368,-0.32448024260472863,-0.37854445338180875,0.9945253804872642,0.11160851522409931,0.803555716887149,-0.35463012239047864,0.7418809826141797,0.26756267865994343,0.8590445806650016,-0.5672054244625211,0.6043673900546196,-0.5581898898308546,-0.8317900267974407,0.5589238995526813,-0.16083528373636646,-0.22275061337857904,0.05166178907796537,0.7932832806552359,0.6240222634128119,0.6020104696803075,-0.054302780851915644,-0.7698400297252044,-0.8204040767525904,0.8785374983789738,-0.7300302051591181,0.0590451505952756,0.6248762581146097,-0.0009460197355042332,0.4151354183164988,0.6797524325005619,0.0843227375767448,-0.7403661495681568,0.8035679100215851,0.07444393528027327,-0.9765748459019983,0.08035000980618512,-0.6647646528381959,-0.9925147606914777,-0.27105863937116537,0.2980938307917185,-0.7395401718007264,0.8790622015962917,0.9650157856792909,0.4626719164127633,0.034596272653855564,0.06422829883559977,-0.6026102220412826,0.9146765441100821,-0.49133549326517345,-0.38840372803904266,-0.8173661054118633,-0.05665280621077451,-0.5355833498301183,0.24664568133347897,0.3364316294976044,-0.7522126877318307,0.9558458880672478,-0.0428461867455181,0.9316710886898083,0.27414928823827367,0.3746240758876074,-0.7872667659379216,-0.9087528254363786,-0.6719127856932285,0.5233684123671454,0.23571195047891247,0.20351866145352004,0.8217507308946517,0.7545142062254571,-0.8035281162189871,-0.3766623150909614,0.9390979927032399,0.8019218335326095,0.8675263336713952,-0.16066808014113088,-0.16285503741521135,0.3378231113292631,-0.27768471573525777,0.9606274063034317,-0.9353920864487919,0.3320343686588412,-0.8167457805018343,0.6719676026699122,-0.5258265612734505,-0.7238460613525834,-0.8629599647094315,-0.5115980855991173,0.21983527549288606,0.8283597306236954,-0.3672033210848942,-0.9985728937032259,-0.9489557049682771,-0.5759617796812655,0.9571202682685962,-0.6856822821147179,-0.7929000411683262,0.5472726796143161,-0.33291703156604413,0.9989898365736027,0.7813804444399064,0.8917515933198139,0.31392605419769937,-0.8321744701081915,0.29188152490136177,-0.9653222536307897,0.8445359057572013,-0.2539182327828564,0.44065057462496315,-0.8812229250084906,0.49034850592442236,-0.9362308857330801,-0.055691979405819714,0.567907739561966,-0.4571937337932841,0.4780167424633477,-0.40938250120941233,-0.9502040492556989,-0.2885071017955958,0.8226138534386367,-0.9859327185414677,0.32930759919378905,0.9537336757540806,-0.8323761939843051,-0.04293283706008877,-0.37957883951278326,0.39255933773474916,-0.9527241939271947,-0.8473036988286955,-0.35544308177925266,0.3987290038916229,-0.7944701530319851,0.6230334458990845,-0.6553651491526418,-0.863027541266594,0.9427440146589074,-0.49007229207454506,0.8847270573780981,-0.9989742680104772,0.6624779553661835,-0.14746079581233418,0.42427828959988356,-0.44751101889759215,0.8795989329334017,0.4378687750960164,-0.6604745707295312,-0.1365453957599616,0.022021952696745783,0.24520553710694726,0.2896287735744214,0.1172191592966274,-0.9528119365578198,-0.8467630115668661,0.7469822469643443,-0.41092732208432503,-0.3628027646404117,-0.3010611914718271,0.8079278771658376,0.4759173814413671,0.37696056291930913,0.7567077286693358,-0.9294041834845967,0.8386701254050606,0.4031414139677303,0.4926878045007439,0.8886940425485965,-0.8661786175400721,-0.46817697831541283,-0.47653120333856513,-0.8932510690161428,0.7121594632442263,-0.6800737107064918,-0.22244826791660333,-0.824546266240288,-0.6193247967664712,0.890865112704947,-0.5727924594442981,0.3153544993241568,-0.41336255352114026,-0.8931891830757954,0.2611667943923124,-0.24218926828633847,0.7116708552548645,0.24029075352659213,-0.35387896609426694,-0.19662050734311687,-0.049695925133907304,0.09123237523048355,0.5127153988198536,0.788205148252884,-0.22679119173132323,0.020132061694502212,-0.28013645246897734,-0.5999871727625599,-0.1959024185234477,-0.036711333618343334,-0.3712971638189495,0.6870656020155477,0.6322863219468673,0.02280124079196222,0.28627945452963144,-0.7080072152810268,0.8087777342673388,-0.8868297854888523,0.019928026665447574,-0.7796114517915989,-0.35474390765829256,-0.9608688518411321,-0.08195622977529937,0.08015498010511735,-0.47514297153285034,0.06335558322716839,0.4838430273780596,0.44179724058358505,-0.6994162125533472,-0.21933067964255448,-0.5381916807336029,-0.8129722035402167,-0.2654094955151496,-0.18415481885752905,-0.4740137173909691,-0.787659496504596,0.1928910419179357,-0.31308341426084785,-0.7733376310840601,0.2517219463658604,0.3725075510607705,-0.7245235619529353,-0.3714826240835809,0.15374827762397225,0.38090716355637766,0.19748465500462276,-0.3166927291306565,0.1374920088037619,0.0822400564885939,0.729660527728841,0.4419276169652917,-0.24665468791017697,0.11646522434928919,-0.5225705409531787,0.5857836396800815,-0.7761875858247185,0.6633589673642364,-0.38592789657571314,-0.25003663096332907,-0.8036450420687844,0.7569461101390116,0.1424541775176258,0.5604342088685754,0.6740511184592943,0.6025298152805514,0.9503504924991009,-0.29064700409447974,0.3126020918405248,0.4387894474122065,-0.6914448496868406,-0.39324417666815803,0.3109518968716203,-0.25269307556118914,-0.01096830005608318,0.4520933871043977,-0.7952038039402349,0.9955816517328995,0.4205428164657101,0.44912896182457307,-0.6015505426224412,-0.10657965257455237,0.6680286345436648,0.4291834995444088,-0.12655753625597965,0.9782979478829767,-0.2552012922769198,-0.07133690387297165,-0.7830278852146608,-0.6922430067900589,-0.5247583798982098,-0.11484054977877767,0.11376270228712859,0.2552832292175047,0.8146704294642875,-0.4616236532442042,0.14212478880277368,-0.2386773524110528,-0.24272078761449767,-0.18313460816042415,0.36294857799359415,0.23193298816470986,-0.4383694999056278,-0.7176759752056938,0.5970490359471496,-0.7211334221097938,-0.9570635271450989,-0.5787875900039448,-0.580036210892708,0.7735485168020333,0.08424280628197622,0.29011564464200257,0.4348231444513475,0.48932601934020425,0.728766202022485,-0.9154319302445904,0.6958693858966039,0.018929085481425245,0.14083723144129268,-0.31680583821411634,-0.14642606005978354,-0.8335482743486018,0.9924392611063795,0.5247253544065753,-0.5531386644543776,0.5999457208031924,0.5689546414737583,-0.6938000469039232,0.4309091698534506,0.7620996893078684,-0.7718479601243964,-0.9504577721273277,-0.011599042062597542,-0.7532735252629099,0.8329857888605028,0.046247453818622386,0.8953769025812124,-0.2588157702110736,-0.2311449671557706,0.7744698729204507,0.9991537112708133,0.9970103801917805,-0.2777554915385425,0.702831414805902,-0.9475561987477561,0.612479626181202,-0.13948527956771684,-0.9014392517088325,-0.1028544022260609,-0.4207357315070408,-0.5021328412993866,-0.35002818668702784,-0.9142844055954367,0.912046370090102,-0.06844014067849091,-0.4674670534869363,0.7651937690339643,0.32038727617142126,-0.3019823935668433,-0.09237157052075506,-0.9686811654880771,0.23714198223852745,-0.9402129718886716,0.5865212958267814,-0.6398088633456289,-0.4729431654485352,-0.48961041466453903,0.27131872849493965,0.1612647941958394,0.2742930254362377,-0.9047071576602326,-0.6335322141337356,0.5124275304071169,-0.9529345352736964,-0.005454380326145092,-0.9137537334033441,0.8052393235523438,0.8478146745235824,0.0526135138455881],"weights_hh":[-0.577055510596316,0.528570468575311,0.6181573886251179,-0.5473933110338318,-0.04432010584235835,-0.9053907483870343,-0.9750006839394985,-0.9768685786640752,0.8703172628801485,0.33706497776403066,0.5847856189967062,0.8053514884004787,-0.25386148410350406,0.9764701605539965,-0.2818105789391905,-0.16861856056498237,-0.5303277908848232,0.9643876189794922,0.08503999817978558,-0.16734428756444664,0.8915218713091666,0.23330085784141863,-0.33423545150210243,0.05538305354897277,0.3523310182798223,-0.7848809258470484,-0.4554943064535688,0.8570772756546947,-0.016158487554334355,0.5643246816488257,0.405168484205634,0.0848548280684045,0.4986423380698559,0.08136867589593733,-0.004502280796644831,0.5537878916834627,0.4799254422246848,-0.9482244091658094,-0.19320054726627367,-0.1743264782102516,-0.53335194494795,-0.3887679004271758,0.482219850306288,0.605789895842153,0.24039395638243488,-0.42374014100532453,-0.526050397288657,0.8362018917359815,-0.40299179162715526,0.7094848422690767,-0.07835768047904201,-0.07062347131573432,0.6263387148432522,0.561375155122865,-0.6214929535811511,-0.6202454305745635,0.7442601746315327,0.19415572876795628,0.3679714438547359,-0.04322699916754669,0.21651676732365743,-0.5051600553024886,-0.5556807108710387,-0.9335280367037291,-0.6046087086139544,0.46005873222579785,-0.007701191740807634,0.31984386037532,0.2881671178481344,0.9066832859700567,0.6264668979292329,0.47697120497945145,0.14744074564811083,0.9739009129199896,0.4892756584444109,0.9537990738825401,-0.2581529392098172,-0.796359594848721,0.7780790636379997,0.5049992595089585,0.4622065454283588,0.9785008507452155,-0.4188678495135283,0.6101640005122833,-0.7482384143675669,-0.722333039781712,0.5705725409232549,0.652479317117685,-0.2453262471135278,0.7954690866290404,0.3116401227142602,0.8239096781180808,0.3145574402543603,-0.1908809996263261,0.7489638949177719,0.00865036877469283,-0.7206808329221579,-0.29591131033398166,0.4260591015603139,-0.19203196740696327,-0.815832562700836,-0.36404636672430724,0.09192625190466308,0.4874494167717378,0.40187400112138905,0.3228324127500297,0.5907061870283699,-0.15397593083360372,-0.1961714543353128,-0.6566992858787126,0.6503810314415013,-0.4137831537199741,-0.664236935615228,0.6615971571715922,0.987227168673442,0.38027968876845963,0.6276659290582496,0.5043629172232438,0.4521143935203904,0.8297052467158028,0.9816871944138432,-0.9116740610770526,-0.9450592181935034,0.7546640368386761,-0.4682090499594025,-0.9450179287111136,0.70393358053586,-0.28715377609489545,0.6579614127739248,0.6448549245314954,0.4281650056390014,0.428934052565072,0.7997687664646824,-0.19596360231575916,0.30261229921145505,0.49565595180429045,-0.8319572916753528,0.29360403878366714,-0.6259240356144291,0.37468892719412517,-0.7940688451828026,0.6902530179540398,-0.476051971474287,-0.238985478141446,-0.37376395179154076,-0.966978416860671,-0.2187230446890973,0.2811171436034565,-0.47033855419705084,-0.0312368119476627,-0.3509536264518549,0.5069974606769174,-0.9632026959540683,-0.9160337407991768,0.00017863435561804586,0.8142477829574561,-0.050954471737648666,0.6325286736257496,0.778945885667212,-0.560351959758693,0.9960218243446282,0.5094305047767691,0.6369219213758286,0.14152149957011617,0.7093184883201213,0.8161493582555293,-0.9380532423145544,0.326311584640294,0.82044164666886,-0.5822711238188814,0.01790528048107931,0.4908614733194978,0.40066705515555134,-0.6318139363709558,-0.3265124781098685,0.19268607504695656,-0.9546636676426408,-0.07743824668998656,0.5320620689665772,-0.2128315863464505,-0.2542835618109638,0.19751211572363436,0.7854328772937536,0.5262131384906616,0.44108143108919906,0.1602501581523268,0.4433266241210476,0.43097190352706116,0.7668477556863322,0.044785651301517015,0.439466926427148,-0.9058118486878952,0.015287746866229135,-0.6655791017738548,-0.31078405809291976,-0.8225814548871511,-0.15940901433935895,0.38433518956032553,0.24858985806254785,0.7374104260093826,0.49459223358650606,0.09627161244631521,0.18527512080823216,-0.48065237793825877,-0.38029114020734744,0.21096024691217163,-0.048073939296017,0.7265487930901213,-0.6500557985252076,0.5594237924947827,0.7615825777396013,-0.9926709224533916,-0.8745587404257835,-0.31655835792111975,-0.5651872352432046,-0.17820806959167368,-0.9717802970209017,0.4995672527783608,-0.10246524857241734,0.6577720203541559,0.7597390524589847,-0.3237906638416219,0.8992725716517429,-0.5807916874377168,0.37430375824464246,0.7802750382681996,0.9286130543349085,0.6373026853153241,-0.00371471987377725,-0.058227293689917525,-0.051950761390741285,-0.4679886716621935,0.6789213913092336,0.6429040241565076,0.5630593041330525,-0.08364206444723066,-0.7478168088489963,0.14711395480721823,-0.7711656607979762,-0.7182920497962477,-0.5918177872631323,0.1714327701542533,0.5311876557833974,-0.9540037683417524,0.785672031854687,-0.5923140120181805,0.30649269483425146,0.22088146352541882,0.9178429681557461,-0.4534700823001758,-0.31908171084942927,0.7602409931749616,-0.1293945629914961,0.25252246317272076,0.8513149993959404,0.40121828655809666],"weights_ho":[0.39459855865302007,-0.9899960588269647,-0.7373575206014937,0.2533318414123944,0.30442053604810604,-0.17402948432650667,-0.7816615984469086,-0.4199266908922068,0.5168142941999654,0.026123648489707385,0.2766845862831797,-0.806239396982795,0.267276715566805,-0.5958610624748737,-0.972889249617281,0.2435230780181319,-0.0692625080746816,-0.08987939793269972,0.5158713139355824,-0.20524089661829237,0.4925724484870071,-0.8144424809389741,-0.0752248518644636,0.4967776395763106,0.37376473702630975,-0.24771191089129885,0.09593593908986975,-0.11897621529103342,-0.21684186069161537,0.07533616808919086,0.04378787997648059,-0.020174761562028243,0.6524037240913592,0.07209495193987236,-0.6676052660638305,0.5025053164475981,-0.8048321969804204,-0.43964942686440067,-0.8155781475421182,0.11612206566298089,0.10654657803838297,-0.8951756285817365,0.1622408404743121,0.8398260375027524,0.10688019882074484,-0.42321870305635767,0.2511307696851959,-0.4304119683722729,0.10559834358724696,-0.7486074904417743,-0.6339744304993116,0.44070359247278756,0.10097927765924886,0.7596980426039377,0.4942408145769235,-0.41147683012857783,-0.206084783065543,0.6639839904062954,-0.6769365863161865,0.9585428392430293,-0.12799954343001674,0.4589709255423646,0.5516320099476293,0.5325847651033158],"bias_h0":[-0.10354595288883406,0.868635605733699,0.046014736699638625,-0.13182622316613135,-0.5230754742062536,-0.3218637995773477,-0.6818177475040625,-0.6024766220907232,-0.12016174752690079,-0.6309570924839885,0.04952177648027245,-0.8089894932812387,0.29227452553037403,-0.7899119715228526,-0.48285277765182677,-0.8084677410445613],"bias_h1":[-0.08754907343583018,-0.5794209962228041,0.577854148699037,-0.91066013510794,-0.43727321622992155,0.7010408035319153,0.9869353689668696,0.8187702451836696,0.333032876749513,-0.2851236426735009,0.575242757344564,-0.7201425122741918,-0.31078234986540965,-0.02757181571355738,-0.9737847804490889,-0.8833029906460745],"bias_o":[-0.7859825738005384,-0.6931108853513728,-0.5910511392821387,-0.40296292039647774]}