{"weights_ih":[-0.8342969971393359,0.38628051039821454,-0.39299772764333385,0.8188498449747892,0.856610390206817,-0.1313969705851885,-0.7550404070835679,-0.4510571855885064,-0.676484196845349,0.002283781576599031,-0.10994667747145193,-0.8090143702157693,-0.5485887083459591,-0.5491423343082174,0.9690016337872807,-0.6155494592856323,-0.8999674716569332,-0.16694583124950957,-0.8303065210356708,0.23807946794765877,0.4011194767778081,-0.7565457141400012,0.28285409631734004,0.8841743848173933,0.7833237361146812,0.6375768851075101,-0.14468924446149933,0.5275260436677156,-0.5597777937898314,0.10841847299247664,0.19066237985417778,0.6544954420425635,-0.3548006988573924,-0.5066423385631198,0.8414442534650259,0.38912017065895377,0.5334522845396827,-0.8279993856041479,-0.4034576146358939,0.2388688487285786,0.7875229897802665,-0.7655728089161757,-0.16018640046017274,0.8357474846470483,-0.3121691519764065,0.8381821796909277,-0.9857327627795902,0.4166927099056055,0.1653565190650217,-0.914446112239911,0.5107440833064698,0.1060239931509408,-0.866447481103541,0.08775826937014664,-0.7965432965900192,-0.9273694584577739,-0.5476115506470944,-0.9204052654402091,-0.3296168155953094,0.6058604728426542,-0.18463262907924172,0.3187967763613886,0.08871280425832184,0.2247540261308636,0.19980097278844844,0.6503954058223451,-0.1955713303308999,-0.1354895696279408,-0.21782972332572204,0.2397617221859898,0.3128230206110796,-0.6442756431458481,-0.887195386094616,0.22582172431673841,-0.429304059616874,0.6116642298484671,0.5156820342625743,-0.3743179491195632,-0.22524135944313683,0.027350191575215455,0.22051174499591553,-0.9063887400730397,0.3128383360180451,-0.09993629239614266,0.07136624884605358,-0.2041931842668574,-0.37854445338180875,-0.2414793198737999,-0.7035960179740048,-0.836696199008744,0.550024383928621,-0.5243645448539689,-0.30071982318876445,0.8590445806650016,-0.5672054244625211,-0.15752404368756245,-0.5581898898308546,-0.8317900267974407,0.5589238995526813,-0.16083528373636646,-0.22275061337857904,0.5638843943625804,0.45772651839123846,-0.6172767778513801,0.6020104696803075,-0.40072444431196996,0.37930927017902216,0.5699495941131414,-0.7720312794103661,-0.7300302051591181,-0.695297291886102,-0.547340879695331,0.8575368273395259,0.7969246284140474,-0.8202120342593038,0.0843227375767448,-0.7403661495681568,0.9762349544614508,-0.37343098745983716,0.16418394070117381,0.25670176949886714,0.2819823263397925,0.29749656493764776,-0.8111999217190351,0.8750430814407544,-0.7395401718007264,0.8790622015962917,0.9650157856792909,0.6905792004309637,-0.21796895836487384,0.06422829883559977,0.8352203060985839,0.5804044553238854,0.5025693494971208,0.4558435427710634,-0.8173661054118633,-0.05665280621077451,0.27732947131363295,-0.4879890522569825,0.3364316294976044,-0.8924518957386358,0.9558458880672478,-0.22392895468726626,0.8241761606702616,-0.7408963148657577,0.13842501189482537,-0.8710258711194021,-0.9087528254363786,-0.6886539479190661,0.5233684123671454,-0.7541225908125877,0.20351866145352004,0.2880807867952111,0.7545142062254571,-0.7811548471284935,-0.9742504169588022,0.9390979927032399,0.9868742789408393,0.6156054845714944,0.1784381977673577,0.9820381566812775,0.3378231113292631,0.6340992733696904,-0.3198218389803831,-0.9353920864487919,0.3320343686588412,-0.38124237577013065,-0.4556309751955345,-0.41173127090349704,-0.7238460613525834,-0.8629599647094315,-0.5115980855991173,-0.7754011371790677,0.5136018696451798,-0.1766250297252323,-0.6131193494908445,-0.6512017893282331,0.5327017248895924,0.291360190115759,0.180803045680632,-0.653687018511196,-0.34689504142894045,-0.9687134816264775,0.022461345483046236,0.7813804444399064,-0.8400052460236345,-0.6942133480232895,-0.2692834273772611,-0.39055181724990295,-0.5734453102420747,0.3125137161997438,0.9236383883170038,0.05467239408200797,0.5741516574868581,0.7946760661816907,-0.9362308857330801,0.07838746052195367,-0.21232153402190357,-0.8680417014706665,0.8888779784270562,0.7225419841140879,-0.3749940978007986,-0.2885071017955958,0.8226138534386367,-0.20047191575990775,0.9305566899986784,0.3176859508722705,-0.9264478390930655,-0.04293283706008877,-0.37957883951278326,-0.7369585360096416,-0.4532229842537243,-0.8473036988286955,-0.35544308177925266,-0.4917222203528926,0.34282723398604253,0.8899715457821067,0.7668634295034928,-0.5109105214849383,-0.8367487928495281,-0.49007229207454506,-0.9202673295006658,0.883823200917899,0.6624779553661835,0.8957302079341207,-0.4038254374897441,0.4212059117668474,0.2785885235236423,0.4378687750960164,0.892652688391625,-0.5637946680695092,-0.3750325222377051,-0.5977079823770826,0.2896287735744214,0.9930639672424741,-0.9528119365578198,-0.9729044690287139,0.7598306933664785,-0.5809472667037561,-0.3628027646404117,-0.5038555859613225,-0.3669813244895581,0.4759173814413671,0.002471009236731936,0.7567077286693358,-0.6370740366797698,0.262507435590249,-0.24687333657772825,-0.5897919806210019,-0.7006813556411096,-0.8661786175400721,-0.46817697831541283,-0.47653120333856513,-0.5543536095446169,0.7121594632442263,-0.7426974734707867,-0.8469368592168318,-0.824546266240288,0.07159419291983715,0.051364988895206354,-0.5727924594442981,-0.433420201766221,-0.7297740595271089,-0.6038415108418431,0.5696062245824265,0.9193647402206648,0.7116708552548645,-0.4176776151821662,0.25468354832007645,0.946298871006571,-0.6549406131757476,0.09123237523048355,0.5127153988198536,0.689388412099428,-0.22679119173132323,-0.9089388116777237,-0.28013645246897734,-0.5999871727625599,-0.4237693885902536,0.699140692625225,-0.18439053291476193,0.85286190328,0.31423317306802856,0.6418700831259985,0.3766254028802014,0.43599727342666883,0.9154733339348178,-0.36128695573120506,-0.843580438408073,-0.6427952804525268,0.5665283573963042,-0.48618408297383464,-0.6621341678552539,-0.8832641771449323,0.7739344136922486,0.06335558322716839,0.4838430273780596,0.2808350066752099,-0.6994162125533472,-0.21933067964255448,-0.9484054809548406,-0.6292051390964728,0.3117904178911908,0.5187120011157142,-0.412922024002111,-0.8858405127195381,0.62043641196701,-0.5419839684817254,-0.3288010329896973,0.2517219463658604,-0.21790859317771138,0.565479798741553,0.5682439198873042,0.13987098104988238,0.38090716355637766,0.1298347666036943,-0.3166927291306565,-0.1221738876134284,0.0822400564885939,0.027626766639117672,0.6157339831563267,-0.7605562668488934,0.6020861431943183,0.9867442071047245,0.7198378396926117,0.7053000850215496,0.9576796842349833,-0.6151149808349292,-0.25003663096332907,0.22030158612806527,-0.5390745748677812,0.49413705199706404,-0.52144122900097,-0.9778160575632611,0.6025298152805514,0.9503504924991009,-0.5081713897383278,-0.6797947592875393,0.13977131081025607,-0.12952392767501308,-0.264864938147958,0.06470758318070913,0.4454747601219855,-0.9763218153121518,-0.21439034722750172,0.7779501835836877,0.28117883158115675,0.4205428164657101,0.1429701956204279,0.22734576778508075,0.09878766183220855,0.6680286345436648,-0.3094243949747324,0.02309941229601664,-0.7487283479441464,-0.1835538079327057,0.4317473408157151,0.43794207294456355,-0.3002000406663734,-0.11997290901684754,-0.5429558367028908,-0.7030299513679579,-0.9745238791845081,0.2785809322468118,-0.4616236532442042,-0.5659263148315958,-0.07172788534099217,-0.6650664080962465,-0.18313460816042415,0.36294857799359415,0.909042726062169,-0.4383694999056278,-0.7176759752056938,-0.26587799705130877,0.8752597431126881,-0.9570635271450989,-0.5571966647879363,0.2932559435042077,0.7735485168020333,-0.5993558452072776,-0.8434944354192828,-0.4959464239335818,0.19041135643354146,0.12340724812140258,-0.3606060441823906,0.8077965420674635,-0.6000457431386088,-0.8740173402503666,-0.7353362709758433,0.4728564380040965,-0.009414768797662454,0.9924392611063795,-0.4411010391412251,-0.5531386644543776,0.5999457208031924,0.7224254430654133,0.423391968326172,0.37168247136670485,-0.16410307052701456,-0.08017361917766896,-0.20200889809013,-0.43648198859332354,-0.763354248372488,0.47887471753347866,0.046247453818622386,0.5159746634010385,0.47755825006919017,-0.827955334608607,0.7744698729204507,0.04682182358174525,0.573533259743715,0.09290261044119719,0.7034556551166953,-0.5030788816657834,0.41836380379780347,-0.5281665419260968,-0.22715168813457587,-0.12774577473354554,0.8696587796282835,-0.5021328412993866,0.018680746419140748,-0.9142844055954367,0.5228643273736886,0.9381642078770831,-0.25390172210275486,0.6440783744372467,0.5979135128532718,-0.7112680549491084,-0.030504660856451205,0.5544348750612387,-0.03284881767111281,-0.3866042722336893,0.5865212958267814,-0.6398088633456289,-0.4729431654485352,-0.11876717821505833,0.5461185242519286,0.015116471647661278,0.624171665725419,0.08629584356178199,-0.522347010540507,0.11496438745409199,-0.5591660667208409,-0.005454380326145092,-0.11607660978663903,0.20804097691093104,0.012142025150235325,0.0526135138455881],"weights_hh":[-0.7563225525572717,0.1247836139108136,-0.8379761408745727,-0.6223945876508012,-0.04432010584235835,-0.9053907483870343,0.12437720709455835,-0.1733155649582252,0.8703172628801485,0.33706497776403066,0.5847856189967062,0.4789008794276197,-0.28400080808444317,0.9764701605539965,-0.8593399104755197,-0.7195800758089701,-0.22803267493646495,0.3633786287320617,0.08503999817978558,-0.16734428756444664,-0.2850912468961453,-0.4519133807801221,-0.7212049402216902,0.8911223234278418,0.14866618616420268,0.3226160674629115,0.5509944866384278,-0.13723713795832837,-0.016158487554334355,-0.32027666392999365,-0.29677909266364644,0.0848548280684045,0.33628068260001887,0.08136867589593733,-0.4209251717934863,-0.07522373740409183,0.4799254422246848,0.4431950429348941,-0.19320054726627367,0.2568550849829705,0.623794217087785,-0.3887679004271758,-0.2605044961540779,0.605789895842153,-0.5615071833344087,0.9183272303641024,0.07595450059591813,-0.7557839255268819,-0.3390421734887583,0.3329396914258511,0.041618315719323506,0.1423395909346472,-0.545050811701699,-0.654635135903783,-0.45983983801470796,-0.21048647790114527,0.8867007047613693,0.6229313522806244,0.34516056890464397,-0.4068839587724771,-0.9441246248554678,0.4283287605583661,-0.9871392980112113,-0.46746761803773307,-0.13753150314617302,0.9748176334357908,-0.007701191740807634,-0.9979704750776848,0.2881671178481344,-0.6290371447121983,0.9638661784261413,0.47697120497945145,0.04097681744779824,0.17172042921654906,0.4892756584444109,0.9537990738825401,-0.2581529392098172,-0.5415374708118492,0.7780790636379997,0.5049992595089585,0.4622065454283588,-0.7297423890388666,-0.6442092333157032,0.24635093175377465,-0.8581526952118428,0.6081782378213281,0.5705725409232549,-0.011668008665041585,-0.2453262471135278,-0.033257810249668784,-0.1864016523582992,0.8239096781180808,0.3145574402543603,0.7772403524148521,-0.18516022678331434,0.00865036877469283,-0.7206808329221579,-0.7782155197371601,-0.07589333586017477,-0.2838578504736953,0.6916128598457143,0.023803807347899886,0.09192625190466308,-0.9661915439000179,0.8046082709906681,0.3228324127500297,0.5907061870283699,0.07810147739175921,0.6234138325834353,0.014660116355576402,0.6503810314415013,-0.4137831537199741,-0.664236935615228,0.0928365600976564,0.987227168673442,-0.7518029143400169,0.6276659290582496,0.2432926009584111,0.4521143935203904,-0.26158573160683796,-0.09133833449328854,-0.5098913073316305,0.3633080934853332,0.9459206711346089,0.25572396881754833,0.09572751715113337,0.70393358053586,0.7260534796197289,0.6579614127739248,-0.5212413403217964,0.4281650056390014,0.35725529871587813,0.7997687664646824,-0.8465141863165115,0.2720914473843723,0.4805344377227554,-0.29426123334418675,-0.7408522135003288,0.688167087276707,0.11849687279844856,-0.7940688451828026,-0.431952200395771,0.6134767416763947,-0.6066528819155923,-0.2276848104007212,-0.966978416860671,0.684177259174471,0.03407825764278538,-0.47033855419705084,-0.11394496923485864,0.28287173516151465,-0.9099088317844035,-0.22269357779222343,-0.5407577432377588,-0.34943240332814973,0.10887118850380872,-0.050954471737648666,0.6325286736257496,0.05169865640558147,0.5493050357894789,0.009015564930452191,0.5094305047767691,-0.4504285232764642,0.8991535202938505,-0.4819921699310685,0.22023881141317792,-0.9380532423145544,0.326311584640294,-0.03992928133345486,0.7762254157602424,-0.814899932692486,0.16060124070748882,0.40066705515555134,-0.6318139363709558,0.8739129477960519,0.19268607504695656,-0.9546636676426408,-0.07743824668998656,-0.1027378146133866,-0.7763697082619962,-0.9939876572523381,-0.3263594028296424,-0.9279089019132467,0.6967130135990725,0.44108143108919906,-0.0068176394629866355,-0.7003910622114984,0.47252455551043027,0.7668477556863322,0.044785651301517015,0.439466926427148,-0.1827211543976024,-0.44294607821443144,0.640597193994221,-0.9257111808370269,-0.8225814548871511,-0.14565652615734193,0.9619210875273319,-0.22472993963821275,0.7374104260093826,0.36803711251444016,0.09627161244631521,0.18527512080823216,0.16155460197075766,0.6328919216226636,0.5702216754534459,-0.4191619926797123,0.23907663647523347,-0.18981156936821098,0.06178536935138346,-0.6984701045793011,-0.28031334657927554,-0.48828203126906744,0.6427043686921927,-0.32877357920527017,0.5907196032228523,-0.9940653048595556,-0.562602166127774,-0.10246524857241734,0.6577720203541559,0.9641103522502577,0.6541567492251599,-0.7733540214822674,0.9785953395087996,0.4941336725382799,-0.16005879465588535,0.9286130543349085,-0.28366958850764834,-0.265406547257923,-0.012337582594914354,-0.7056549136131685,-0.4679886716621935,-0.9462412883913971,-0.01205577958342019,0.5630593041330525,-0.9264753815087676,-0.14710523386749874,-0.16321496244434286,0.007723956877374372,-0.7182920497962477,0.8165077955185818,-0.21989641248431058,0.8267499228285144,-0.9540037683417524,0.40213268551713566,-0.8939635349248352,0.6864157191034745,0.22088146352541882,0.9178429681557461,-0.4534700823001758,0.5102504701590258,-0.29578746288497815,-0.9160585250827402,-0.8028454363052167,0.13073765062358156,-0.7784083547782106],"weights_ho":[-0.5571133969618716,-0.9899960588269647,-0.7373575206014937,0.0827273807017661,0.2124529019283503,0.8265341931477852,-0.7816615984469086,-0.3781460992122587,-0.042118420095430986,0.24511608063182533,0.3102655150832243,0.6798642471567877,0.1837772252448231,-0.9446937599350178,-0.972889249617281,0.5587379405052426,0.6582231385930881,0.8511229636090247,0.5158713139355824,-0.20524089661829237,0.3677688613676675,-0.4588585120264097,0.04419121840896034,0.853755107391049,0.34411776647784476,0.4558177887564485,-0.9927575677106171,0.520452594910781,-0.21684186069161537,0.07533616808919086,0.8975085115117107,0.15087338179831478,-0.23233009929148762,-0.492143795675696,-0.03261061844102131,-0.4306730791569118,0.12304844923940683,-0.022395646206727404,-0.29536735963334504,0.11612206566298089,0.052875105774230935,0.6277935906089833,0.1622408404743121,-0.6288303718461472,0.990715225719655,0.10550170994844588,0.4072455536045565,-0.2035496163173307,-0.7690257982664541,-0.02785411768784818,-0.9680494382726628,-0.5924833883070919,0.20410019056064366,0.8974389039832347,-0.9298700800984132,-0.20209309581142176,0.29735762557593404,0.6639839904062954,0.8067365081087206,-0.016282752915927512,-0.1403531055762004,0.7303091863809368,0.5516320099476293,-0.09347848567360684],"bias_h0":[0.3916780372606121,0.868635605733699,0.23625565344993849,-0.6201328537096855,-0.6593830554227482,0.01906644918081013,0.21966615824933555,-0.6213236009943419,0.30985310269213784,-0.6309570924839885,0.04952177648027245,-0.09114265430039281,0.1251624166568579,0.7794743664575976,0.6213316802752225,-0.8084677410445613],"bias_h1":[0.3237188672715261,-0.7736410010702062,-0.9907378326719185,-0.21728437225511854,0.13347763495625453,-0.8828605036841917,0.9869353689668696,0.40133630433464407,0.6713823566126833,-0.5519980650478569,0.5502175494327206,0.26601420609280013,-0.31078234986540965,-0.009773269156031494,0.4558114108922189,-0.8833029906460745],"bias_o":[-0.21856633436983564,0.606643700494639,0.32684975354153734,0.5123187591688199]}