{"weights_ih":[-0.8342969971393359,-0.7027948301567648,0.4613705367191865,0.27373995133308204,0.856610390206817,0.4406945605276873,0.5733923677154025,0.053074518259878634,-0.1871453238972196,0.002283781576599031,-0.10994667747145193,0.3701535059135237,-0.5485887083459591,-0.5491423343082174,-0.4011176009254238,-0.5527708166132455,-0.8999674716569332,-0.16694583124950957,-0.345576836425568,0.23807946794765877,0.9221215707717765,-0.5594848718113214,0.2624375087052344,-0.2155239912687663,0.3514748904935616,0.6375768851075101,-0.14468924446149933,0.5275260436677156,0.07900614332928946,0.06696663504541234,-0.9084631151081024,0.11088696192319758,-0.7968762288237221,-0.5066423385631198,0.8414442534650259,-0.6949716259709506,0.5334522845396827,-0.4119197357508415,0.8720325798324078,0.2388688487285786,0.19759170074650578,0.9189637098034471,-0.16018640046017274,-0.6121618461056368,-0.3121691519764065,-0.6185125944791832,-0.9857327627795902,-0.08692215601481945,0.1653565190650217,0.6949683653298953,-0.6949455030708018,-0.9705887173219996,-0.866447481103541,0.6878467096168945,-0.7965432965900192,-0.006891968355396072,0.7981314532190511,0.47142105004657364,-0.2208781111862299,0.6058604728426542,-0.05436864842458511,0.3355732521165964,0.08871280425832184,-0.10586967613782106,0.19980097278844844,0.6503954058223451,-0.6219266366395753,0.5472820806817,-0.29533442422513745,-0.5549857397260267,0.8313477285365871,-0.010547662663888069,0.6371997410674557,0.7345986581643695,-0.429304059616874,0.6116642298484671,0.5156820342625743,0.46261976525458093,-0.3821795706097757,0.027350191575215455,0.38188665721144166,0.2192531728581666,0.06604562868869879,-0.612830047953888,0.07136624884605358,-0.2041931842668574,-0.7617525476793661,0.011792079381276244,-0.6295549075377178,-0.836696199008744,-0.35463012239047864,0.7418809826141797,-0.46324359550550986,-0.5667080011432026,-0.1640437894794582,0.19448486952296729,0.24220511379849352,0.06847678333435425,0.8556866578581148,0.6924196185878764,-0.9785642213326919,0.05166178907796537,0.7932832806552359,-0.1760684552333467,-0.8333060347251349,-0.40072444431196996,-0.7698400297252044,-0.8204040767525904,-0.7105859502813763,-0.6837059436324107,0.4101442492874454,-0.9641705053655076,0.3060103887855885,0.9132134112009125,0.6797524325005619,-0.7976771107170235,0.3313317297266103,0.9762349544614508,-0.37343098745983716,-0.9765748459019983,0.25670176949886714,0.2819823263397925,0.5647769875142656,-0.27105863937116537,0.2980938307917185,0.7510481864099259,0.6295096047297724,-0.387378123613056,0.4626719164127633,-0.5422300480491524,-0.18633424407670685,-0.6026102220412826,0.9146765441100821,-0.4216588757337507,0.15706605522020278,-0.8450497324336608,0.46070472629466597,0.4519490811103488,0.24664568133347897,-0.9069327708761963,-0.5575907981436943,0.22946634270985533,-0.22392895468726626,0.9316710886898083,0.27414928823827367,0.3746240758876074,-0.07265437265114727,0.49786905389233116,0.6343950704726493,-0.5564385133669532,-0.7541225908125877,-0.7861365425312838,0.8217507308946517,-0.0486292774389292,0.023685441174524646,0.4541016578841772,0.1501521793993985,0.3849787571747376,0.8675263336713952,0.1784381977673577,-0.16285503741521135,0.48970271410881794,-0.724514893238722,-0.3179858160132887,-0.04904899733401624,-0.7448114647230164,-0.8167457805018343,-0.4556309751955345,-0.41173127090349704,0.48373826804196307,0.08830610407698125,-0.19712295990062634,0.03090463254989828,0.8283597306236954,-0.3672033210848942,0.050712773848983206,-0.6512017893282331,-0.5759617796812655,0.9571202682685962,0.180803045680632,-0.7929000411683262,0.5472726796143161,-0.33291703156604413,0.022461345483046236,0.7293876573959572,0.5760447159509465,0.31392605419769937,-0.8321744701081915,0.29188152490136177,-0.9653222536307897,-0.5027226962632889,-0.2539182327828564,-0.278975916450928,-0.8592332138849423,0.5294492002927438,-0.9905953630094848,0.07838746052195367,0.36192661283226935,-0.8680417014706665,0.4780167424633477,-0.40938250120941233,-0.22390256063184633,-0.8335976056201828,-0.5593132289187732,0.18211801722652599,0.9305566899986784,0.3176859508722705,-0.8323761939843051,0.4585178650456503,-0.8815050681704679,-0.7940041072346946,-0.4532229842537243,-0.4347375617077325,-0.27356571986135747,-0.4917222203528926,0.5518495660132197,0.8899715457821067,0.7668634295034928,-0.5487401352302137,-0.8367487928495281,0.8321938099788753,-0.24655287140107363,0.2464234883405403,-0.05155911986318151,0.691382747223273,0.42427828959988356,-0.44751101889759215,0.2785885235236423,-0.16348719746769347,-0.28180199393022964,0.9911228098150631,0.022021952696745783,-0.5977079823770826,-0.09414860623300814,0.9930639672424741,0.8607729181431454,-0.8467630115668661,0.7469822469643443,-0.41092732208432503,-0.9908378306216143,-0.5038555859613225,0.8079278771658376,0.4569851447662765,0.37696056291930913,-0.9588085904664119,0.016623280462447543,0.262507435590249,0.7255211790886409,0.5422066194561741,0.8886940425485965,0.2737574634681379,0.9173062769700144,0.9009165538398662,-0.8932510690161428,-0.5945266188586882,-0.1599142997781855,0.2088562892645227,0.7299428192249,-0.6193247967664712,0.051364988895206354,-0.6399357334817346,-0.433420201766221,-0.41336255352114026,-0.6038415108418431,0.5696062245824265,0.9193647402206648,0.11012420363283626,-0.4176776151821662,-0.35387896609426694,0.946298871006571,-0.6549406131757476,-0.20846497072806147,-0.7214692432752208,0.689388412099428,0.04635388183120703,-0.4479945994848784,-0.8892979160761125,0.11207017214087078,0.21324124666193822,0.699140692625225,-0.3712971638189495,0.85286190328,-0.32662179462676333,-0.6755115305962103,-0.5331820343905809,-0.7080072152810268,0.9154733339348178,0.20700719857675232,-0.843580438408073,-0.6427952804525268,0.5665283573963042,-0.9094977504126647,-0.08195622977529937,0.08015498010511735,-0.47514297153285034,-0.3196001954793437,-0.7417217885155687,-0.18485177165897348,0.24815901309028288,0.47142142085445404,-0.5381916807336029,-0.8129722035402167,0.3117904178911908,-0.18415481885752905,-0.4740137173909691,-0.787659496504596,0.62043641196701,-0.31308341426084785,0.11793090325118438,0.14952943139361685,0.3725075510607705,0.5622300495828407,0.5682439198873042,0.15374827762397225,-0.17964472985727786,0.6842418982588161,-0.9738179565036,0.1374920088037619,-0.30981149908985794,0.729660527728841,-0.27655773797800953,-0.7605562668488934,0.11646522434928919,-0.032561128000014206,-0.6547011656283446,0.9521072558113846,0.6633589673642364,-0.6151149808349292,-0.2259465164837986,-0.8036450420687844,-0.5390745748677812,0.6140518739107386,0.1632597408501253,0.6740511184592943,0.871214678326709,0.1593161041955371,-0.29064700409447974,0.3126020918405248,-0.6268707082474814,-0.6914448496868406,0.10434503625964586,0.06470758318070913,0.6391064564506945,-0.9763218153121518,-0.21439034722750172,-0.7952038039402349,-0.6317228972407734,0.7006019507353409,0.44912896182457307,-0.6015505426224412,0.46414834787221104,-0.7399602485481649,-0.3094243949747324,0.02309941229601664,-0.7487283479441464,-0.1835538079327057,0.6496253937425194,-0.8428326607290015,-0.28582248454194126,0.9162528025344367,-0.5429558367028908,0.8720537648364886,-0.14718540984708617,0.2785809322468118,0.9772019941951213,0.14212478880277368,-0.07172788534099217,-0.5610108693240918,0.6291022484590081,-0.25231068286940395,0.2830603252319175,-0.19895534143035354,0.9399439025828509,-0.26587799705130877,0.8752597431126881,0.43429037484394106,-0.23596687445909725,-0.580036210892708,0.23314591009337016,-0.14850124141491272,-0.758087524282393,0.4348231444513475,0.12146320676735178,0.728766202022485,-0.9154319302445904,0.6958693858966039,-0.6000457431386088,-0.8740173402503666,-0.7353362709758433,0.4728564380040965,0.07692904898651665,-0.7500457045487576,-0.4411010391412251,-0.06423182102335145,-0.9123651951410794,-0.5855832632931675,-0.6938000469039232,0.4309091698534506,0.7620996893078684,-0.7718479601243964,-0.9504577721273277,-0.8812585136795481,-0.7532735252629099,0.47887471753347866,0.8262167326786585,0.8953769025812124,-0.22411939294830296,-0.827955334608607,0.22875770844140408,0.04682182358174525,-0.055064750823239805,-0.9879256374731071,0.7034556551166953,-0.9475561987477561,0.41836380379780347,0.12931639111564386,-0.9014392517088325,-0.1028544022260609,0.8696587796282835,-0.5369348177898676,-0.35002818668702784,0.0652337154929441,0.3403181735449161,-0.06844014067849091,-0.25390172210275486,0.6440783744372467,0.32038727617142126,-0.7112680549491084,-0.030504660856451205,0.9723971576860388,0.23714198223852745,-0.3866042722336893,0.23513779114019906,0.3163209821172088,-0.18644438566556643,-0.11876717821505833,0.18956593236765018,0.4749505184780529,-0.23328746504653441,-0.5448144074337002,0.6566604705506529,-0.03880415886287669,-0.5591660667208409,-0.5372920896719096,-0.11607660978663903,0.20804097691093104,0.012142025150235325,0.47559768856207607],"weights_hh":[-0.21775601666273303,-0.8261096075391821,-0.8379761408745727,-0.5473933110338318,-0.15901003631037214,-0.7070942350663638,-0.16680019803291923,-0.9768685786640752,-0.8101642002983278,0.1765081955306571,0.10856333293831555,-0.8843573676596199,0.7666149874168315,-0.7713040617831504,-0.8593399104755197,-0.2448212094938922,-0.04729707194407662,-0.3400718524032862,0.16659248408242266,0.743419299569066,0.8915218713091666,-0.4519133807801221,-0.7212049402216902,0.8911223234278418,-0.880349765047937,-0.7848809258470484,0.6850414060262306,0.9390653894948879,-0.5414170344643423,0.5643246816488257,-0.29677909266364644,0.4336888149062543,0.4986423380698559,0.6919676446697032,-0.004502280796644831,-0.07522373740409183,0.24550779451445703,-0.9482244091658094,0.9865104354470979,-0.1743264782102516,0.623794217087785,-0.016203349376418208,-0.4987293663634593,-0.9432933962445309,-0.5615071833344087,0.9183272303641024,-0.526050397288657,0.8362018917359815,-0.3390421734887583,0.3329396914258511,-0.26765985535903813,0.1423395909346472,-0.8240418814567607,-0.654635135903783,-0.5106889882033683,-0.21048647790114527,-0.6291466032116917,0.6229313522806244,0.34516056890464397,-0.04322699916754669,-0.9441246248554678,0.8218396684366776,-0.9871392980112113,-0.9335280367037291,-0.9248300158587943,-0.9845352691024267,-0.6731721767599699,-0.9101509259095446,0.7261661668402326,0.18455620744034662,-0.3990197165786473,0.07633788329069557,0.14744074564811083,0.9739009129199896,-0.4991615078223608,0.45542300961249893,-0.7886654733830027,-0.5415374708118492,0.8918663236289879,0.09450309859883266,-0.9965759092286779,-0.18275041612128873,0.7156921981784543,-0.019568999073793725,0.9679782169903413,0.47282538280497866,0.5771812363569839,-0.011668008665041585,-0.7187607631994724,-0.033257810249668784,-0.756956806990402,-0.18213897292682013,-0.19484698148323076,0.7772403524148521,0.7489638949177719,-0.6074051463672472,0.14258597243190851,-0.7782155197371601,0.028309877303551723,0.38773544714047126,0.6916128598457143,-0.36404636672430724,-0.8777816121031172,-0.9661915439000179,0.40187400112138905,0.42448562850376215,0.710924468640618,0.764518107160854,-0.1961714543353128,-0.6566992858787126,0.7898612028108314,-0.8333304411113247,0.015253679283481647,0.6615971571715922,0.49583403794940706,0.6080656221640832,0.46130408646008636,-0.8100228576746342,0.9173402089687042,0.8297052467158028,0.08426405499313239,-0.9116740610770526,0.3633080934853332,0.9270168741522244,0.2526488385295338,0.09572751715113337,-0.044946438834459146,-0.3316656401336644,-0.7660556497966649,0.6448549245314954,-0.5556512391078952,0.428934052565072,-0.5776306106659694,-0.19596360231575916,0.30261229921145505,0.4805344377227554,0.32062634501871545,-0.7408522135003288,-0.6259240356144291,0.37468892719412517,0.5056760867076382,-0.4263484973470364,0.6134767416763947,-0.6066528819155923,-0.11369981933166295,0.46409366137587127,-0.2187230446890973,0.8718580176994533,-0.8963404320301165,-0.0312368119476627,0.8265269208441104,0.5069974606769174,-0.22269357779222343,-0.9160337407991768,0.00017863435561804586,0.6046495089552455,-0.6822731076895163,0.7561993282903579,-0.8065240657528179,0.5493050357894789,0.8302766527153966,-0.5190711947493905,0.6369219213758286,0.8991535202938505,0.7093184883201213,0.6712521930944118,-0.21433128930545453,-0.9477473040085596,-0.7435737880919071,0.7762254157602424,0.01790528048107931,0.25289606582461177,-0.5213507599331175,-0.836224927493491,-0.3265124781098685,-0.5243032937734062,0.4478181816099238,-0.6070847588184023,0.5320620689665772,-0.2128315863464505,-0.9939876572523381,-0.3263594028296424,0.5895873539614604,0.6967130135990725,-0.8113784273039888,-0.0068176394629866355,-0.7003910622114984,0.22193325063161362,-0.4265348005703431,-0.6846049563912382,0.1337232298502784,-0.5978331443827649,0.015287746866229135,-0.4015025172527642,-0.9257111808370269,0.5322559312873414,-0.9541964102478908,0.38433518956032553,0.3384330761672796,-0.628369749682997,0.49459223358650606,0.5144393661311661,0.0665020989099181,-0.48065237793825877,0.6328919216226636,0.5702216754534459,-0.4191619926797123,-0.021935853503779468,-0.6500557985252076,0.7597527886771391,-0.6984701045793011,-0.28031334657927554,-0.8745587404257835,-0.3745757958777909,-0.32877357920527017,-0.9901204932334804,-0.9717802970209017,0.4995672527783608,0.9164850136012985,-0.6158611935417759,0.7597390524589847,0.6541567492251599,-0.7733540214822674,0.9785953395087996,-0.09088645011100449,-0.16005879465588535,-0.0823993820244091,0.6373026853153241,-0.00371471987377725,-0.012337582594914354,-0.051950761390741285,0.8661359882379582,-0.9462412883913971,-0.01205577958342019,0.6522420792604515,-0.9264753815087676,-0.7478168088489963,-0.16321496244434286,-0.7711656607979762,0.5197312757193129,0.2609622700867613,-0.21989641248431058,0.8267499228285144,0.056291479341900486,0.785672031854687,0.44683965048568797,0.30649269483425146,-0.8968222604074705,-0.3987863166715242,-0.5746368705904816,0.9106594592994517,0.7602409931749616,-0.9160585250827402,-0.8028454363052167,0.8513149993959404,0.40121828655809666],"weights_ho":[-0.5571133969618716,-0.17280764735194687,0.19857262510982276,0.2533318414123944,0.30442053604810604,0.8265341931477852,-0.30136749811474295,-0.4199266908922068,0.5168142941999654,0.026123648489707385,0.20488196232481992,-0.806239396982795,0.002390483428474477,-0.33351610057183123,-0.4954915666264956,0.2435230780181319,-0.0692625080746816,0.017078276854579855,0.49289933796004504,0.9589440308830386,-0.8402112743658234,-0.8144424809389741,-0.6621005915452822,0.853755107391049,0.34411776647784476,-0.44827676599879895,-0.3600789248778784,0.520452594910781,0.5406460952856056,-0.9213974484699068,0.04378787997648059,0.15087338179831478,-0.5487124046714031,-0.492143795675696,-0.03261061844102131,0.5025053164475981,-0.8048321969804204,-0.43964942686440067,-0.29536735963334504,-0.3277864070514884,0.10654657803838297,-0.8951756285817365,0.585554457917357,0.8624601850304707,0.10688019882074484,-0.42321870305635767,-0.06748450622573743,-0.2035496163173307,0.7101003232306082,-0.02785411768784818,-0.6339744304993116,0.019323025028168628,0.20410019056064366,0.7596980426039377,0.2934586752608064,-0.20209309581142176,-0.206084783065543,-0.14690646388362816,-0.6769365863161865,0.9585428392430293,-0.12799954343001674,0.7303091863809368,-0.8784867584618998,-0.09347848567360684],"bias_h0":[-0.29542321963620277,-0.919821967247803,0.23625565344993849,-0.13182622316613135,-0.5230754742062536,0.10153032282887575,0.2762748560606447,0.31348351584441025,0.30985310269213784,-0.688764765152174,0.67240252883166,-0.8089894932812387,0.2675608238338405,0.7794743664575976,0.6213316802752225,-0.3325833817771848],"bias_h1":[-0.08754907343583018,-0.7736410010702062,-0.9907378326719185,-0.12243499375103872,-0.8192076406161746,-0.8828605036841917,-0.783280406348891,0.40133630433464407,0.333032876749513,-0.5519980650478569,0.5502175494327206,0.26601420609280013,-0.094566270320259,-0.02757181571355738,-0.13043681474116586,0.9982619250025226],"bias_o":[-0.5992481620924706,-0.6931108853513728,-0.5910511392821387,0.5123187591688199]}