{"weights_ih":[-0.8342969971393359,0.38628051039821454,-0.39299772764333385,0.8188498449747892,-0.0708215619967929,-0.1313969705851885,-0.7550404070835679,-0.4510571855885064,-0.1871453238972196,0.002283781576599031,-0.10994667747145193,-0.8090143702157693,-0.3044094674916551,-0.012440365333361125,-0.4011176009254238,-0.640098397356426,0.28038336065596603,-0.6063018228308446,-0.8303065210356708,0.23807946794765877,0.004168428070468355,-0.7565457141400012,0.2624375087052344,-0.2155239912687663,-0.36953024153675473,0.6375768851075101,-0.14468924446149933,0.9970126854999775,0.07900614332928946,0.10841847299247664,0.19066237985417778,0.6544954420425635,-0.3548006988573924,-0.6999245876361311,0.8414442534650259,0.6746055112215059,0.5334522845396827,-0.4119197357508415,-0.4034576146358939,0.2388688487285786,-0.19296076658132488,-0.7655728089161757,-0.6633281618690143,0.8357474846470483,0.5662762637079217,-0.9452547446513615,0.6105295467427116,0.4166927099056055,0.1653565190650217,0.7942270293974523,0.5107440833064698,0.1060239931509408,-0.866447481103541,0.08775826937014664,0.4654469906757468,-0.9273694584577739,-0.3720473287467001,-0.9204052654402091,-0.3296168155953094,0.6058604728426542,-0.05436864842458511,0.3187967763613886,0.08871280425832184,0.7569730967326578,0.19980097278844844,0.6503954058223451,-0.1955713303308999,-0.11396417775137713,-0.21782972332572204,0.2397617221859898,-0.33993217871830317,0.0009384329696757732,0.6371997410674557,0.3736227556995291,0.401683780824291,-0.6781759421107698,0.17296259758950017,-0.3743179491195632,-0.3821795706097757,-0.419188112177749,0.07595992853953737,0.8864329491967993,0.3128383360180451,-0.09993629239614266,-0.23258826287946088,-0.2041931842668574,-0.7617525476793661,0.011792079381276244,-0.7035960179740048,-0.836696199008744,-0.07731999569617765,0.04451907269211719,-0.30071982318876445,-0.5667080011432026,-0.1640437894794582,0.19448486952296729,0.3949734793349813,-0.8317900267974407,0.5589238995526813,-0.16083528373636646,-0.22275061337857904,0.8047702635893332,0.45772651839123846,-0.1760684552333467,0.6020104696803075,-0.40072444431196996,0.37930927017902216,0.5699495941131414,-0.7105859502813763,-0.7300302051591181,0.4101442492874454,-0.547340879695331,-0.0009460197355042332,0.7969246284140474,-0.8202120342593038,-0.8114556306445817,0.3313317297266103,0.8035679100215851,0.07444393528027327,0.048318793206167276,0.08035000980618512,0.6368417929912895,0.29749656493764776,0.7385236729402731,0.8750430814407544,-0.7395401718007264,0.8790622015962917,-0.387378123613056,0.6905792004309637,0.034596272653855564,-0.18633424407670685,0.8352203060985839,-0.7226587083113247,-0.49133549326517345,-0.38840372803904266,0.7293601706851021,-0.05665280621077451,0.27732947131363295,-0.4879890522569825,0.3364316294976044,-0.5575907981436943,-0.15115190601904782,-0.0428461867455181,0.8241761606702616,-0.7408963148657577,0.13842501189482537,-0.07265437265114727,-0.9087528254363786,0.6343950704726493,0.5233684123671454,0.23571195047891247,0.20351866145352004,0.18429045218857087,-0.0486292774389292,-0.7811548471284935,-0.3766623150909614,0.9390979927032399,0.8019218335326095,-0.19523656543076795,-0.16066808014113088,0.9820381566812775,-0.3767346089458279,-0.724514893238722,-0.3198218389803831,-0.9353920864487919,0.3320343686588412,-0.38124237577013065,-0.4556309751955345,-0.41173127090349704,-0.5556099774224912,-0.8629599647094315,-0.19712295990062634,0.03090463254989828,-0.031135154661598552,-0.15556997009581375,0.050712773848983206,-0.9489557049682771,0.5327017248895924,0.8262614935800632,-0.6856822821147179,-0.6957387360787304,-0.4955467947056156,-0.9687134816264775,0.9989898365736027,0.17728160745139454,-0.8400052460236345,-0.6942133480232895,0.04175180928206634,0.7793424342267505,-0.5734453102420747,0.3125137161997438,-0.8045674218064911,0.44065057462496315,0.5741516574868581,0.7946760661816907,-0.10791102615259063,-0.055691979405819714,-0.21232153402190357,-0.8680417014706665,-0.7003017268826832,0.7225419841140879,-0.7313380810687078,-0.2885071017955958,0.8226138534386367,-0.9859327185414677,0.32930759919378905,0.3176859508722705,-0.8117497879611315,-0.04293283706008877,-0.8815050681704679,0.39255933773474916,-0.4267574295998757,-0.8473036988286955,-0.9189963155435428,0.3987290038916229,0.34282723398604253,0.6230334458990845,0.7668634295034928,-0.863027541266594,-0.8367487928495281,-0.49007229207454506,0.8847270573780981,0.883823200917899,0.9346168302912465,0.8957302079341207,-0.9775330554134949,0.4212059117668474,0.2785885235236423,0.4378687750960164,0.892652688391625,0.9911228098150631,0.35009076386341764,-0.5977079823770826,0.2896287735744214,0.9930639672424741,0.8607729181431454,-0.5061098895353826,0.7598306933664785,0.2060571626264036,-0.3628027646404117,-0.5038555859613225,-0.6306778530024557,0.4759173814413671,-0.5972017305646962,0.9486029823004323,-0.6370740366797698,0.262507435590249,0.4031414139677303,-0.5897919806210019,-0.7006813556411096,-0.8661786175400721,0.9173062769700144,-0.47653120333856513,-0.15154748996828116,-0.5945266188586882,-0.7426974734707867,-0.8469368592168318,0.7299428192249,0.07159419291983715,0.051364988895206354,-0.6399357334817346,-0.433420201766221,-0.7737788429092056,-0.6038415108418431,-0.6771068418468722,-0.8349673855034734,-0.08214792895236389,-0.4176776151821662,0.85874505868345,-0.5097921648317281,-0.6549406131757476,0.09123237523048355,-0.7214692432752208,0.788205148252884,-0.22679119173132323,-0.9089388116777237,-0.28013645246897734,0.11207017214087078,-0.1959024185234477,-0.036711333618343334,-0.1722102563377279,0.85286190328,0.31423317306802856,0.02280124079196222,0.3766254028802014,0.43599727342666883,0.6816412725826433,-0.8868297854888523,-0.843580438408073,-0.6427952804525268,0.5665283573963042,-0.48618408297383464,-0.5183047041633213,-0.35442507231311127,0.7739344136922486,-0.3196001954793437,0.4838430273780596,-0.18485177165897348,-0.6994162125533472,0.47142142085445404,-0.9484054809548406,-0.6292051390964728,-0.38411977308097756,-0.5180910178298437,0.0480945243211548,-0.8858405127195381,0.1928910419179357,-0.7459607978583362,-0.7733376310840601,0.14952943139361685,-0.21790859317771138,-0.7245235619529353,0.7612507343678556,0.13987098104988238,-0.17964472985727786,0.19748465500462276,-0.3166927291306565,-0.1221738876134284,0.0822400564885939,0.37579979649164263,0.6157339831563267,-0.7605562668488934,0.7602483463246861,-0.5225705409531787,0.7198378396926117,0.7053000850215496,0.9576796842349833,-0.8176220949753303,0.04969563013561107,0.22030158612806527,-0.5390745748677812,0.49413705199706404,-0.52144122900097,-0.9778160575632611,0.871214678326709,-0.8047591181768152,-0.5081713897383278,0.05542384498744757,0.4387894474122065,0.008588428895040634,-0.264864938147958,0.06470758318070913,0.6391064564506945,-0.9763218153121518,0.8981692251019118,-0.41791454224626556,0.28117883158115675,0.4205428164657101,0.1429701956204279,0.22734576778508075,0.09878766183220855,-0.25969063723273766,-0.3094243949747324,0.02309941229601664,-0.7487283479441464,0.9844068001267645,0.4317473408157151,0.43794207294456355,-0.28582248454194126,-0.5247583798982098,0.3105663013317632,0.8720537648364886,-0.9745238791845081,0.2785809322468118,-0.4616236532442042,-0.5659263148315958,-0.2386773524110528,-0.5610108693240918,0.6291022484590081,0.8951014649330638,0.909042726062169,-0.19895534143035354,0.9399439025828509,0.5970490359471496,0.8752597431126881,-0.9570635271450989,-0.5787875900039448,0.2932559435042077,0.23314591009337016,-0.5993558452072776,-0.8434944354192828,-0.4959464239335818,0.48932601934020425,0.12340724812140258,0.4557057518488956,0.37033015546951065,-0.6000457431386088,-0.8740173402503666,-0.31680583821411634,-0.14642606005978354,-0.009414768797662454,-0.7486351778760105,0.5247253544065753,0.34314214922594766,-0.9123651951410794,0.5689546414737583,0.423391968326172,0.7887513793387799,-0.16410307052701456,-0.21134729700874888,-0.20200889809013,-0.43648198859332354,-0.9847457085218481,-0.18266286961962597,0.8262167326786585,-0.4198793452330425,0.47755825006919017,-0.827955334608607,0.7744698729204507,0.04682182358174525,-0.055064750823239805,0.09290261044119719,0.7034556551166953,0.36529123086701243,-0.46322211896965126,-0.5281665419260968,0.7843046805398044,-0.8614572585501714,0.8696587796282835,-0.5369348177898676,0.018680746419140748,0.0652337154929441,0.3403181735449161,-0.6591903800109471,-0.4674670534869363,-0.5827426276187893,-0.08398891029503375,-0.3019823935668433,-0.030504660856451205,0.5544348750612387,-0.7789390172694686,-0.3866042722336893,0.23513779114019906,-0.6398088633456289,-0.4729431654485352,-0.07464508501274869,0.5461185242519286,0.10670192991279848,0.2742930254362377,-0.9047071576602326,-0.969783235294678,0.11496438745409199,-0.32025406058595585,0.12416392872264326,-0.11607660978663903,0.8052393235523438,0.012142025150235325,0.47559768856207607],"weights_hh":[-0.7563225525572717,0.528570468575311,-0.8379761408745727,-0.37663123059784764,-0.15901003631037214,-0.9053907483870343,-0.16680019803291923,-0.5650078152777664,0.8703172628801485,0.1765081955306571,0.5847856189967062,-0.8843573676596199,0.7666149874168315,0.9764701605539965,-0.3027609678082528,-0.2448212094938922,-0.5303277908848232,0.3633786287320617,0.08503999817978558,0.9843733060514104,0.7740585228617212,0.23330085784141863,-0.7212049402216902,0.8911223234278418,-0.880349765047937,0.3226160674629115,-0.4554943064535688,0.9390653894948879,-0.016158487554334355,0.2496447561015438,-0.29677909266364644,0.4336888149062543,0.33628068260001887,0.08136867589593733,-0.4209251717934863,-0.07522373740409183,0.4799254422246848,0.38974777841946806,0.9865104354470979,-0.13622247995670111,-0.53335194494795,-0.016203349376418208,-0.2605044961540779,0.605789895842153,-0.5615071833344087,0.9183272303641024,0.07595450059591813,-0.7557839255268819,-0.3390421734887583,0.7094848422690767,0.041618315719323506,-0.07062347131573432,-0.545050811701699,-0.654635135903783,-0.6214929535811511,-0.6202454305745635,0.7442601746315327,0.6347084283174507,0.34516056890464397,-0.4068839587724771,-0.9441246248554678,-0.5051600553024886,-0.9871392980112113,-0.46746761803773307,-0.9248300158587943,0.9748176334357908,-0.007701191740807634,-0.9101509259095446,0.2881671178481344,-0.6290371447121983,0.9638661784261413,-0.785997310183371,0.6226025595818991,0.17172042921654906,0.564863551173572,0.9537990738825401,-0.2581529392098172,-0.767931705585251,0.8918663236289879,0.1239228306083211,0.4622065454283588,-0.18275041612128873,0.7156921981784543,-0.019568999073793725,0.9679782169903413,0.6081782378213281,0.5771812363569839,-0.27339318909938903,-0.2453262471135278,0.7954690866290404,-0.1864016523582992,-0.4047259160299772,0.4106871697374894,-0.19666519899922497,-0.18516022678331434,0.00865036877469283,0.14258597243190851,-0.7782155197371601,-0.07589333586017477,0.38773544714047126,0.6916128598457143,-0.5706123166398434,-0.8777816121031172,-0.9661915439000179,0.1386402961747557,0.8905771400703646,-0.5541906542163066,-0.15397593083360372,0.6234138325834353,-0.4473250530849564,0.6503810314415013,-0.8333304411113247,0.015253679283481647,0.0928365600976564,0.987227168673442,0.38027968876845963,0.6276659290582496,0.5043629172232438,0.4521143935203904,-0.8613264523779756,0.08426405499313239,-0.5098913073316305,0.3633080934853332,0.9459206711346089,0.25572396881754833,0.09572751715113337,0.70393358053586,0.7260534796197289,-0.7660556497966649,-0.46937554746049015,0.4281650056390014,-0.1664306057433642,-0.5776306106659694,-0.5326640220110752,0.6662083078039325,0.4805344377227554,-0.8319572916753528,0.29360403878366714,-0.19956753446796016,-0.1887372846945996,-0.7940688451828026,-0.431952200395771,-0.476051971474287,-0.6066528819155923,-0.11369981933166295,-0.966978416860671,0.684177259174471,0.8718580176994533,-0.47033855419705084,-0.11394496923485864,0.28287173516151465,-0.283814343245538,-0.9632026959540683,-0.5407577432377588,-0.6816008186168441,0.10887118850380872,0.6598378452976763,0.6325286736257496,0.778945885667212,0.5493050357894789,0.009015564930452191,0.5094305047767691,-0.4504285232764642,0.3440889367170372,-0.546207764656127,0.8161493582555293,0.5863379847476589,-0.9477473040085596,-0.03992928133345486,0.7762254157602424,-0.546675706039566,0.4908614733194978,0.40066705515555134,-0.6318139363709558,-0.3469973441047389,0.360683760483568,-0.9546636676426408,-0.07743824668998656,-0.1027378146133866,-0.7763697082619962,-0.9939876572523381,0.19751211572363436,-0.9279089019132467,0.6967130135990725,0.44108143108919906,-0.8371726032785651,0.4433266241210476,0.47252455551043027,-0.4265348005703431,-0.6846049563912382,0.439466926427148,-0.9058118486878952,-0.06865486183293101,-0.6655791017738548,-0.9257111808370269,-0.8225814548871511,-0.14565652615734193,-0.31375739417187365,0.3384330761672796,0.7374104260093826,0.36803711251444016,0.09627161244631521,0.18527512080823216,0.23914153112216363,0.6328919216226636,0.5702216754534459,-0.4191619926797123,0.23907663647523347,0.9023577713843864,0.7597527886771391,-0.6984701045793011,-0.28031334657927554,-0.6756026409511373,0.6427043686921927,-0.32877357920527017,-0.9901204932334804,-0.8465910902167442,-0.562602166127774,-0.10246524857241734,-0.6158611935417759,0.9641103522502577,-0.3237906638416219,-0.7733540214822674,0.9785953395087996,0.37430375824464246,0.7802750382681996,0.043784743278399096,-0.28366958850764834,-0.265406547257923,0.6971952724200983,0.7298421739800853,-0.4679886716621935,-0.9462412883913971,-0.01205577958342019,-0.805160319238365,-0.9264753815087676,-0.14710523386749874,0.6626912267954308,0.007723956877374372,-0.4819533795874338,0.2609622700867613,-0.21989641248431058,0.5311876557833974,-0.7834143933683124,0.40213268551713566,-0.8939635349248352,0.45177395286517386,-0.8968222604074705,0.38593493232607146,-0.4534700823001758,0.5102504701590258,-0.3141203735894291,-0.9160585250827402,0.25252246317272076,0.13073765062358156,-0.7784083547782106],"weights_ho":[-0.8038106513029606,-0.9899960588269647,-0.7373575206014937,0.0827273807017661,0.6305035520102209,-0.0017151044376157998,-0.7816615984469086,-0.3781460992122587,0.669327188962989,0.24511608063182533,0.3102655150832243,-0.5506743758348802,0.002390483428474477,-0.9446937599350178,-0.972889249617281,0.6480761746452779,0.6582231385930881,0.8511229636090247,0.5158713139355824,0.43103568689615157,0.3677688613676675,0.1345845231078513,-0.6621005915452822,0.13164297363284683,0.2977816392026795,0.4558177887564485,0.09593593908986975,0.520452594910781,0.5406460952856056,0.07533616808919086,0.8975085115117107,0.15087338179831478,-0.23233009929148762,-0.492143795675696,-0.03261061844102131,-0.4306730791569118,0.12304844923940683,0.5976234876962863,-0.29536735963334504,0.11612206566298089,0.052875105774230935,0.6277935906089833,0.1622408404743121,0.8398260375027524,0.990715225719655,0.10550170994844588,0.4072455536045565,-0.2035496163173307,0.7101003232306082,-0.02785411768784818,0.30148126634696193,-0.5924833883070919,0.20410019056064366,0.8974389039832347,0.2934586752608064,-0.20209309581142176,0.4152103432598586,0.6639839904062954,0.8067365081087206,0.9813319285185906,-0.1403531055762004,0.7303091863809368,0.5516320099476293,-0.09347848567360684],"bias_h0":[0.3916780372606121,0.868635605733699,0.23625565344993849,-0.6201328537096855,-0.450797169002211,0.01906644918081013,0.21966615824933555,-0.6213236009943419,0.30985310269213784,-0.6309570924839885,0.04952177648027245,-0.4182263651690281,0.2675608238338405,0.7794743664575976,-0.48285277765182677,-0.8084677410445613],"bias_h1":[0.2765439250299875,-0.7815842092926166,-0.9907378326719185,-0.21728437225511854,-0.8192076406161746,-0.8828605036841917,0.9869353689668696,0.40133630433464407,0.6713823566126833,-0.2851236426735009,0.575242757344564,-0.7201425122741918,-0.31078234986540965,-0.009773269156031494,-0.9737847804490889,-0.39149380509184195],"bias_o":[-0.21856633436983564,0.606643700494639,0.28321910864658983,0.5123187591688199]}