{"weights_ih":[-0.8342969971393359,0.1239735570506213,0.42285661004381137,0.27373995133308204,0.856610390206817,-0.8303769384224142,-0.6983347142453102,0.02506175267295574,0.7489174083424626,0.002283781576599031,0.8617598358219869,0.3701535059135237,0.045675231248822,-0.05318652797042356,-0.4011176009254238,-0.5527708166132455,-0.8999674716569332,-0.16694583124950957,-0.345576836425568,0.9934355328158277,0.004168428070468355,-0.5556571386457771,0.2624375087052344,-0.9572309520211897,0.3514748904935616,0.6375768851075101,-0.14468924446149933,0.5275260436677156,0.07900614332928946,0.06696663504541234,-0.042853223803865914,0.6544954420425635,-0.3548006988573924,-0.3097762056597386,-0.8492359236927867,-0.6949716259709506,0.5334522845396827,0.5566755930207887,-0.11202811701632087,0.2388688487285786,-0.19296076658132488,0.9189637098034471,-0.16018640046017274,-0.6121618461056368,-0.6279104400891742,-0.6185125944791832,-0.9857327627795902,0.4166927099056055,0.1653565190650217,0.6949683653298953,-0.33938362391475074,0.1060239931509408,0.2990904738623712,0.6878467096168945,0.0399062949920197,-0.6028198699285785,-0.3720473287467001,0.47142105004657364,0.8207907491757689,-0.021524381445819696,0.00956397318199187,0.6381536917926096,0.08871280425832184,0.2247540261308636,0.19980097278844844,-0.8188590379926262,0.1793039891560928,0.5472820806817,0.7540425829902739,-0.8231297396551513,0.8313477285365871,-0.6442756431458481,-0.08312456325948414,0.3736227556995291,0.5295826962512671,0.6116642298484671,-0.06832472502782361,0.46261976525458093,-0.3821795706097757,0.027350191575215455,0.07595992853953737,-0.9063887400730397,0.06604562868869879,-0.09993629239614266,0.9592046105435368,-0.2041931842668574,0.6585833081071206,0.011792079381276244,-0.7035960179740048,-0.836696199008744,-0.35463012239047864,0.04451907269211719,-0.46324359550550986,-0.5667080011432026,-0.8597986198860046,0.6043673900546196,0.24220511379849352,0.35304436794195526,-0.014807201389361868,0.6924196185878764,-0.21773962214520726,0.05166178907796537,0.7932832806552359,0.6240222634128119,-0.6693178943774962,-0.40072444431196996,-0.6113265863051869,-0.8204040767525904,0.8785374983789738,-0.6837059436324107,0.0590451505952756,-0.547340879695331,0.3060103887855885,0.7969246284140474,-0.8202120342593038,-0.8114556306445817,0.3437911841222778,0.5624373314850004,-0.37343098745983716,0.048318793206167276,0.3005291177293343,0.2819823263397925,-0.9925147606914777,-0.27105863937116537,0.2980938307917185,0.7510481864099259,0.6295096047297724,-0.387378123613056,0.6905792004309637,-0.21796895836487384,-0.18633424407670685,-0.6026102220412826,0.9146765441100821,0.5025693494971208,0.4558435427710634,0.7293601706851021,0.46070472629466597,0.27732947131363295,-0.4879890522569825,-0.01339472454993551,-0.7522126877318307,0.22946634270985533,-0.2663607036199449,0.8241761606702616,0.27414928823827367,0.3746240758876074,-0.7872667659379216,-0.4017009946900454,0.6343950704726493,-0.5509840926502496,-0.7541225908125877,-0.6473753428090105,0.8217507308946517,-0.0486292774389292,0.023685441174524646,-0.9742504169588022,0.8707848472218773,0.3849787571747376,0.8675263336713952,0.004367676775818952,0.9820381566812775,0.48970271410881794,-0.27768471573525777,-0.3198218389803831,-0.8858208887711798,-0.1559846396540323,-0.8167457805018343,0.6719676026699122,-0.41173127090349704,0.48373826804196307,0.29893484230037703,-0.19712295990062634,0.03090463254989828,0.8283597306236954,-0.3672033210848942,-0.9985728937032259,-0.6512017893282331,0.11657631276217373,0.9571202682685962,-0.8507732209414931,-0.7929000411683262,0.5472726796143161,-0.33291703156604413,0.022461345483046236,0.17728160745139454,0.5760447159509465,-0.6942133480232895,-0.8321744701081915,0.29188152490136177,-0.9653222536307897,0.8445359057572013,-0.2539182327828564,0.05467239408200797,-0.8592332138849423,0.5294492002927438,-0.9905953630094848,-0.23015965082348844,0.36192661283226935,-0.8680417014706665,-0.7003017268826832,-0.40938250120941233,-0.22390256063184633,0.9180161907157081,-0.5593132289187732,0.18211801722652599,0.9305566899986784,0.9537336757540806,-0.8117497879611315,0.4585178650456503,-0.5137213970799126,-0.7940041072346946,-0.4532229842537243,-0.4347375617077325,-0.9189963155435428,-0.2908426957544079,0.5518495660132197,-0.9251648714495542,0.7668634295034928,-0.5109105214849383,0.9427440146589074,0.5911129224624663,-0.9202673295006658,0.2464234883405403,-0.05155911986318151,-0.14746079581233418,-0.9775330554134949,0.4212059117668474,0.2785885235236423,0.11679711668759718,0.892652688391625,-0.1365453957599616,0.022021952696745783,-0.5977079823770826,-0.6948209052416772,-0.8872672141492337,-0.6216170560441938,-0.8467630115668661,0.7469822469643443,-0.5809472667037561,-0.9908378306216143,-0.5038555859613225,-0.3669813244895581,0.14298271143921748,0.37696056291930913,0.9486029823004323,-0.6370740366797698,-0.85149947349063,0.7255211790886409,0.5422066194561741,0.3826833260324609,-0.18642596688745683,0.9173062769700144,0.3806368445248267,-0.8932510690161428,0.04246670778939965,-0.6800737107064918,-0.22244826791660333,-0.6408615289069242,0.07159419291983715,0.051364988895206354,-0.6399357334817346,0.4601462721948606,-0.7737788429092056,-0.6038415108418431,0.2611667943923124,-0.24218926828633847,0.11012420363283626,-0.4176776151821662,0.25468354832007645,0.946298871006571,-0.6549406131757476,0.03778828786069943,-0.7214692432752208,0.689388412099428,0.04635388183120703,-0.9089388116777237,-0.3989445942543386,0.8300215208435386,0.21324124666193822,-0.4302156419827514,-0.1722102563377279,0.6870656020155477,-0.32662179462676333,0.6418700831259985,0.3766254028802014,-0.7080072152810268,0.9154733339348178,0.20700719857675232,-0.843580438408073,-0.7796114517915989,-0.35474390765829256,-0.9094977504126647,-0.08195622977529937,0.08015498010511735,0.7739344136922486,0.6234039007164343,-0.2979825715309903,-0.18485177165897348,0.24815901309028288,0.47142142085445404,-0.5381916807336029,-0.4585110260505374,-0.2654094955151496,0.5187120011157142,-0.412922024002111,0.2313792570712263,0.48720704949837557,-0.5419839684817254,0.11793090325118438,0.14952943139361685,0.3725075510607705,0.565479798741553,-0.3714826240835809,0.15374827762397225,-0.17964472985727786,0.1298347666036943,-0.399188325758298,0.1374920088037619,-0.30981149908985794,0.027626766639117672,0.6157339831563267,0.8943995673382075,0.6020861431943183,-0.032561128000014206,0.7198378396926117,0.9521072558113846,-0.08665064722548643,-0.6151149808349292,0.04969563013561107,0.22030158612806527,-0.5650215480279515,0.6140518739107386,0.1632597408501253,0.6740511184592943,0.22598145593540564,-0.8047591181768152,-0.29064700409447974,0.3126020918405248,-0.6268707082474814,-0.6914448496868406,0.10434503625964586,0.06470758318070913,0.6391064564506945,-0.9763218153121518,-0.21439034722750172,-0.7952038039402349,0.9955816517328995,0.7006019507353409,-0.9218474383646842,-0.6015505426224412,-0.10657965257455237,-0.7399602485481649,-0.3094243949747324,0.02309941229601664,0.9782979478829767,-0.2552012922769198,0.6496253937425194,0.43794207294456355,-0.28582248454194126,0.9162528025344367,-0.5429558367028908,0.11376270228712859,0.2552832292175047,0.8146704294642875,-0.9370464561619225,-0.5370266434055877,-0.07172788534099217,-0.5610108693240918,0.6291022484590081,0.8951014649330638,0.2830603252319175,-0.19895534143035354,0.9399439025828509,-0.26587799705130877,-0.7211334221097938,0.43429037484394106,-0.23596687445909725,-0.580036210892708,0.3585843650134597,0.08424280628197622,0.29011564464200257,-0.3772796400273648,0.12146320676735178,0.5476342114583503,-0.3606060441823906,0.8077965420674635,-0.6000457431386088,-0.8740173402503666,0.2642020716824447,-0.9896897603646826,-0.009414768797662454,-0.7486351778760105,0.007468747313798874,-0.06423182102335145,0.8889875446895414,-0.5855832632931675,-0.6938000469039232,0.7887513793387799,-0.16410307052701456,-0.7718479601243964,-0.20200889809013,-0.8812585136795481,-0.763354248372488,0.8329857888605028,0.7223868264169677,-0.4198793452330425,-0.22411939294830296,-0.827955334608607,0.22875770844140408,0.04682182358174525,0.9970103801917805,-0.9879256374731071,-0.14499831753060421,0.36529123086701243,0.612479626181202,-0.13948527956771684,0.7843046805398044,-0.1028544022260609,0.06431696630322614,-0.2410958619907475,-0.35002818668702784,0.82712986203509,0.912046370090102,-0.06844014067849091,0.610945510721365,0.7651937690339643,0.32038727617142126,-0.3272383425280603,-0.030504660856451205,0.9723971576860388,0.23714198223852745,-0.9402129718886716,0.23513779114019906,-0.45459871740355773,0.19317574920034608,-0.48961041466453903,0.18956593236765018,0.10670192991279848,0.624171665725419,0.08629584356178199,0.6566604705506529,0.5124275304071169,-0.5591660667208409,0.12416392872264326,-0.8126505738475103,0.20804097691093104,0.012142025150235325,0.47559768856207607],"weights_hh":[-0.21775601666273303,-0.8261096075391821,-0.17124303301844113,-0.6223945876508012,-0.15901003631037214,-0.41268164581707234,-0.16680019803291923,-0.5650078152777664,-0.4162263757176634,0.1765081955306571,0.10856333293831555,0.8053514884004787,-0.25386148410350406,0.3220641861982041,-0.8593399104755197,-0.16861856056498237,-0.04729707194407662,-0.3400718524032862,0.16659248408242266,0.9843733060514104,0.8915218713091666,0.08355787940962678,-0.33423545150210243,0.8911223234278418,-0.880349765047937,-0.7848809258470484,0.6850414060262306,0.9390653894948879,-0.5414170344643423,0.2496447561015438,-0.29677909266364644,0.5343736748119376,0.4986423380698559,0.6919676446697032,-0.4209251717934863,0.7974698031023082,0.24550779451445703,0.38974777841946806,0.9865104354470979,0.2568550849829705,0.33787093498953324,-0.9654684797165372,-0.4987293663634593,-0.9432933962445309,-0.5615071833344087,0.9183272303641024,0.07595450059591813,-0.7557839255268819,-0.3390421734887583,-0.06429485544292857,0.041618315719323506,0.1423395909346472,-0.545050811701699,0.561375155122865,-0.5106889882033683,0.09650603420976922,0.8867007047613693,0.19415572876795628,0.3679714438547359,-0.04322699916754669,-0.9441246248554678,0.8218396684366776,-0.9871392980112113,-0.46746761803773307,-0.6046087086139544,-0.9845352691024267,-0.6731721767599699,0.31984386037532,0.03679386108644134,-0.6290371447121983,-0.3990197165786473,0.07633788329069557,0.6226025595818991,0.9739009129199896,0.564863551173572,0.45542300961249893,-0.0007638276748043182,-0.5415374708118492,0.8918663236289879,0.09450309859883266,0.7628602085232326,-0.18275041612128873,-0.4188678495135283,0.6101640005122833,0.9679782169903413,0.6081782378213281,0.5771812363569839,0.652479317117685,-0.29008422613269946,-0.033257810249668784,-0.1864016523582992,-0.18213897292682013,-0.19484698148323076,-0.1908809996263261,0.7489638949177719,-0.8348925977447061,0.021702710111633383,-0.7782155197371601,-0.07589333586017477,0.38773544714047126,-0.815832562700836,0.023803807347899886,-0.09385548101133367,-0.9661915439000179,0.8046082709906681,0.42448562850376215,0.710924468640618,0.07810147739175921,-0.5445287794651648,-0.6566992858787126,-0.8078347254767329,-0.8333304411113247,0.015253679283481647,0.6615971571715922,0.1298215579218731,-0.7518029143400169,0.46130408646008636,0.2432926009584111,0.12942365957921487,-0.8613264523779756,0.08426405499313239,-0.9116740610770526,0.4332832403795426,0.9270168741522244,0.25572396881754833,0.6567667970362367,0.47085189407137484,0.7260534796197289,0.2659945706312077,0.6448549245314954,0.8785367497047745,-0.1664306057433642,0.6810737367618247,-0.19596360231575916,0.30261229921145505,0.4805344377227554,0.32062634501871545,-0.7408522135003288,-0.6259240356144291,0.11849687279844856,-0.437351486894594,0.6902530179540398,-0.5744254229902432,-0.238985478141446,-0.37376395179154076,0.46409366137587127,0.3505383033076652,0.2811171436034565,-0.8963404320301165,-0.0312368119476627,0.8265269208441104,-0.283814343245538,-0.6785801693912454,-0.9160337407991768,0.00017863435561804586,0.8142477829574561,0.6598378452976763,0.8716732917691561,0.05169865640558147,0.5493050357894789,0.9960218243446282,0.8868981920904448,-0.5604194492588623,0.8991535202938505,0.7093184883201213,0.6712521930944118,-0.21433128930545453,-0.9477473040085596,-0.7435737880919071,0.7762254157602424,0.01790528048107931,0.25289606582461177,-0.14472461703196826,0.7696658026982099,-0.3265124781098685,0.360683760483568,0.4412055256005345,-0.47296663609159983,0.5320620689665772,-0.2128315863464505,-0.9939876572523381,0.5966823941189221,0.7854328772937536,0.6967130135990725,-0.8113784273039888,0.1602501581523268,-0.7003910622114984,0.43097190352706116,-0.4265348005703431,0.5201125544037315,0.1337232298502784,-0.1827211543976024,0.015287746866229135,-0.4015025172527642,-0.07723098530338324,0.5322559312873414,-0.14565652615734193,0.38433518956032553,0.3384330761672796,-0.628369749682997,0.49459223358650606,0.35801546326515843,0.0665020989099181,0.23914153112216363,0.6328919216226636,0.7789887957880777,-0.4191619926797123,0.23907663647523347,-0.18981156936821098,0.7597527886771391,0.0009129873356161777,-0.28031334657927554,-0.48828203126906744,-0.3745757958777909,-0.32877357920527017,-0.17820806959167368,-0.8465910902167442,0.4995672527783608,-0.3111955700508844,0.8123741322258329,0.9537709402917403,-0.6558042738244589,-0.7733540214822674,-0.5807916874377168,-0.09088645011100449,-0.16005879465588535,0.043784743278399096,-0.28366958850764834,-0.265406547257923,-0.012337582594914354,0.7298421739800853,0.8661359882379582,-0.9462412883913971,0.15950065481277687,0.6522420792604515,-0.08364206444723066,-0.7478168088489963,-0.16321496244434286,-0.7711656607979762,0.5197312757193129,0.2609622700867613,-0.21989641248431058,0.184240068621226,0.056291479341900486,0.785672031854687,0.44683965048568797,0.30649269483425146,-0.8968222604074705,0.38593493232607146,-0.5746368705904816,-0.31908171084942927,0.7602409931749616,-0.5156277076549398,-0.8028454363052167,0.7375607471693593,-0.7784083547782106],"weights_ho":[-0.5571133969618716,-0.17280764735194687,0.5612174082695507,-0.3638215951724917,0.2124529019283503,-0.17402948432650667,-0.45865398617509334,0.953062027620762,-0.042118420095430986,0.026123648489707385,0.20488196232481992,0.6798642471567877,0.002390483428474477,-0.5958610624748737,-0.7036446304599364,0.6480761746452779,-0.0692625080746816,0.017078276854579855,0.942364425261305,0.9589440308830386,0.3677688613676675,-0.8144424809389741,-0.0752248518644636,0.853755107391049,0.34411776647784476,-0.24771191089129885,-0.9927575677106171,0.4820570776669324,0.5406460952856056,-0.9213974484699068,0.3966184875487442,-0.020174761562028243,-0.23233009929148762,-0.492143795675696,-0.03261061844102131,0.5025053164475981,-0.16227302242505792,-0.43964942686440067,-0.8155781475421182,-0.23678949806153682,0.052875105774230935,0.0610558777315473,-0.7230086709634456,-0.6288303718461472,0.10688019882074484,-0.42321870305635767,-0.06748450622573743,0.178149634032424,0.10559834358724696,-0.7486074904417743,-0.9680494382726628,-0.5924833883070919,0.20410019056064366,0.7596980426039377,0.4942408145769235,-0.20209309581142176,-0.206084783065543,-0.14690646388362816,-0.9255639241473852,0.9813319285185906,-0.14545402151713427,0.4589709255423646,-0.8784867584618998,-0.44952928786939017],"bias_h0":[0.3916780372606121,-0.919821967247803,0.046014736699638625,0.7017044769265584,-0.5230754742062536,0.10153032282887575,0.21966615824933555,0.31348351584441025,0.30985310269213784,-0.688764765152174,0.2911922911182865,-0.4182263651690281,0.29227452553037403,0.7794743664575976,0.6213316802752225,-0.3325833817771848],"bias_h1":[0.2765439250299875,-0.7736410010702062,-0.8845655887351109,-0.91066013510794,-0.8192076406161746,-0.8828605036841917,-0.783280406348891,0.40133630433464407,-0.21722792317026007,-0.5519980650478569,0.5502175494327206,-0.09885714884314267,-0.094566270320259,-0.009773269156031494,0.4558114108922189,0.9982619250025226],"bias_o":[-0.7859825738005384,-0.6931108853513728,0.28321910864658983,0.5123187591688199]}