{"weights_ih":[-0.8342969971393359,-0.7027948301567648,0.4613705367191865,0.8188498449747892,0.3016659040884728,0.4406945605276873,0.5733923677154025,0.02506175267295574,-0.1871453238972196,0.002283781576599031,0.8617598358219869,0.3701535059135237,0.045675231248822,-0.5491423343082174,-0.6749972530296375,-0.6155494592856323,-0.8999674716569332,-0.16694583124950957,-0.345576836425568,0.23807946794765877,0.004168428070468355,-0.5556571386457771,-0.8704895651404876,-0.9572309520211897,-0.36953024153675473,0.003545404792777873,0.16835519362177642,-0.40338927905357513,-0.6149795255898967,-0.250341483443701,-0.042853223803865914,0.11088696192319758,-0.7968762288237221,-0.3097762056597386,0.8414442534650259,-0.6949716259709506,0.5334522845396827,0.5566755930207887,0.8720325798324078,-0.9572008367853957,-0.19296076658132488,0.5732668084169483,-0.16018640046017274,-0.6121618461056368,-0.3121691519764065,-0.9452547446513615,-0.5790481538065333,0.4166927099056055,0.1653565190650217,0.6949683653298953,-0.33938362391475074,-0.9705887173219996,0.2990904738623712,0.6878467096168945,0.0399062949920197,-0.6028198699285785,0.7981314532190511,-0.9204052654402091,-0.2208781111862299,-0.021524381445819696,0.00956397318199187,0.6381536917926096,-0.7695643564779793,-0.10586967613782106,0.19980097278844844,0.6503954058223451,-0.6219266366395753,-0.11396417775137713,0.7540425829902739,-0.5549857397260267,0.3128230206110796,-0.6442756431458481,0.6371997410674557,0.3736227556995291,0.5295826962512671,0.35341697577628217,0.5156820342625743,-0.18994033113736908,-0.3821795706097757,0.027350191575215455,0.07595992853953737,0.2192531728581666,0.07396474399881359,-0.612830047953888,0.07136624884605358,0.02068051982835506,0.6585833081071206,0.011792079381276244,-0.6295549075377178,-0.836696199008744,-0.35463012239047864,0.7418809826141797,0.26756267865994343,-0.5667080011432026,-0.8597986198860046,0.6043673900546196,0.24220511379849352,0.35304436794195526,-0.014807201389361868,0.6924196185878764,-0.21773962214520726,0.05166178907796537,0.21178836189365624,0.6240222634128119,-0.6693178943774962,-0.054302780851915644,-0.7698400297252044,0.5699495941131414,0.8785374983789738,-0.29423859822373766,0.4101442492874454,-0.9641705053655076,0.3060103887855885,0.7969246284140474,-0.8202120342593038,-0.7976771107170235,0.3313317297266103,0.5624373314850004,-0.37343098745983716,0.048318793206167276,0.3005291177293343,-0.6647646528381959,0.5647769875142656,-0.8111999217190351,0.2980938307917185,0.6089504533183756,0.6295096047297724,-0.15969816549545635,0.6905792004309637,-0.5422300480491524,0.5381525690393363,0.8352203060985839,0.9146765441100821,0.5025693494971208,0.4558435427710634,0.7293601706851021,-0.3595187584092585,0.27732947131363295,0.24664568133347897,-0.9069327708761963,-0.7522126877318307,0.22946634270985533,-0.22392895468726626,0.9316710886898083,0.27414928823827367,-0.8583755809402149,-0.07265437265114727,0.49786905389233116,-0.6719127856932285,-0.5509840926502496,0.36016930449326967,-0.7861365425312838,0.2880807867952111,-0.0486292774389292,-0.8035281162189871,-0.9742504169588022,0.1501521793993985,0.9868742789408393,0.8675263336713952,0.1784381977673577,0.9820381566812775,0.48970271410881794,-0.724514893238722,-0.3179858160132887,-0.04904899733401624,-0.1559846396540323,-0.38124237577013065,0.6719676026699122,-0.01354905603996781,0.48373826804196307,0.29893484230037703,-0.334600838208885,0.03090463254989828,0.5136018696451798,-0.1766250297252323,0.050712773848983206,-0.6512017893282331,0.11657631276217373,0.9571202682685962,-0.8507732209414931,-0.7929000411683262,0.5472726796143161,-0.33291703156604413,0.12496378220515791,0.7293876573959572,0.5760447159509465,0.31392605419769937,0.04175180928206634,-0.39055181724990295,-0.00377723153319498,-0.5027226962632889,-0.2539182327828564,0.05467239408200797,-0.8592332138849423,0.7946760661816907,-0.10791102615259063,0.07838746052195367,0.36192661283226935,-0.8680417014706665,0.4780167424633477,-0.40938250120941233,-0.9502040492556989,0.9180161907157081,-0.34225126261013905,-0.20047191575990775,0.9305566899986784,0.9537336757540806,-0.8117497879611315,0.4585178650456503,-0.8815050681704679,-0.7369585360096416,-0.9527241939271947,-0.4347375617077325,-0.9189963155435428,-0.2908426957544079,0.5518495660132197,-0.9251648714495542,-0.04425025868036392,-0.5487401352302137,-0.8367487928495281,0.5911129224624663,-0.24655287140107363,0.2464234883405403,-0.05155911986318151,-0.14746079581233418,0.42427828959988356,0.4212059117668474,0.8795989329334017,-0.16348719746769347,-0.28180199393022964,0.9911228098150631,-0.3750325222377051,0.24520553710694726,-0.09414860623300814,-0.8872672141492337,0.8607729181431454,-0.9729044690287139,0.7469822469643443,-0.5809472667037561,-0.9908378306216143,-0.3379077559097272,-0.3669813244895581,0.4569851447662765,0.37696056291930913,-0.9588085904664119,0.016623280462447543,-0.85149947349063,0.7255211790886409,0.5422066194561741,0.3826833260324609,0.2737574634681379,0.34990598956734975,0.3806368445248267,-0.8932510690161428,0.04246670778939965,-0.6800737107064918,-0.22244826791660333,0.7299428192249,0.07159419291983715,0.051364988895206354,-0.6399357334817346,0.4601462721948606,-0.41336255352114026,-0.14159838954072224,0.2611667943923124,0.9193647402206648,-0.08214792895236389,0.24029075352659213,0.25468354832007645,0.946298871006571,-0.6549406131757476,0.03778828786069943,-0.7214692432752208,0.28302244221090267,-0.2145967955003798,-0.4479945994848784,-0.8892979160761125,0.11207017214087078,0.21324124666193822,0.699140692625225,-0.1722102563377279,0.6870656020155477,-0.32662179462676333,0.6418700831259985,-0.5331820343905809,-0.7080072152810268,0.9154733339348178,0.20700719857675232,-0.843580438408073,-0.7796114517915989,-0.35474390765829256,-0.9094977504126647,-0.08195622977529937,-0.8832641771449323,-0.47514297153285034,0.6234039007164343,-0.7417217885155687,0.44179724058358505,-0.4560317303944914,0.6827827203036345,-0.5381916807336029,-0.4585110260505374,-0.2654094955151496,-0.18415481885752905,-0.412922024002111,-0.787659496504596,0.48720704949837557,-0.5419839684817254,-0.3288010329896973,-0.5961016715074214,0.3725075510607705,0.5622300495828407,0.5682439198873042,-0.1157654307127387,-0.17964472985727786,0.6842418982588161,-0.399188325758298,0.8650584547820375,-0.30981149908985794,0.729660527728841,0.6157339831563267,-0.7605562668488934,0.11646522434928919,0.9867442071047245,0.7198378396926117,0.9521072558113846,-0.08665064722548643,-0.38592789657571314,-0.2259465164837986,-0.8036450420687844,-0.5390745748677812,0.1424541775176258,-0.52144122900097,-0.6958013039775623,0.22598145593540564,-0.8047591181768152,-0.29064700409447974,0.3126020918405248,0.13977131081025607,0.008588428895040634,-0.39324417666815803,-0.8100282855490029,-0.25269307556118914,-0.01096830005608318,-0.21439034722750172,0.7779501835836877,0.9955816517328995,0.7006019507353409,0.44912896182457307,0.22734576778508075,0.46414834787221104,-0.7399602485481649,0.4291834995444088,0.02309941229601664,0.9782979478829767,-0.1835538079327057,0.4317473408157151,-0.8428326607290015,-0.6922430067900589,-0.11997290901684754,-0.5429558367028908,0.11376270228712859,-0.14718540984708617,0.8146704294642875,-0.9370464561619225,-0.5370266434055877,-0.9947882904713654,-0.5610108693240918,-0.9355340059592476,-0.25231068286940395,0.2830603252319175,-0.08036906983513559,-0.10207271036877463,-0.26587799705130877,0.8752597431126881,0.6135262292698682,-0.5571966647879363,-0.580036210892708,0.23314591009337016,-0.14850124141491272,-0.758087524282393,-0.3772796400273648,0.12146320676735178,0.3885513776642944,-0.3606060441823906,0.6958693858966039,-0.6000457431386088,-0.8740173402503666,-0.7353362709758433,-0.9896897603646826,-0.009414768797662454,-0.7486351778760105,0.007468747313798874,0.34314214922594766,0.8889875446895414,-0.5855832632931675,0.6134506236349364,0.7887513793387799,-0.16410307052701456,-0.08017361917766896,-0.9504577721273277,-0.8812585136795481,-0.763354248372488,0.8329857888605028,0.7223868264169677,-0.4198793452330425,-0.22411939294830296,-0.827955334608607,0.6808219025526656,0.9991537112708133,0.9970103801917805,-0.2777554915385425,0.7034556551166953,-0.9475561987477561,0.41836380379780347,-0.13948527956771684,0.7843046805398044,-0.1028544022260609,0.8696587796282835,-0.5369348177898676,-0.35002818668702784,0.82712986203509,0.3403181735449161,-0.6591903800109471,0.610945510721365,0.6440783744372467,0.32038727617142126,-0.7112680549491084,0.8119659576969465,0.9723971576860388,0.23714198223852745,-0.9402129718886716,0.23513779114019906,0.3163209821172088,-0.18644438566556643,-0.48961041466453903,0.27131872849493965,0.4749505184780529,-0.23328746504653441,-0.5448144074337002,0.6566604705506529,-0.03880415886287669,-0.5591660667208409,0.12416392872264326,-0.11607660978663903,0.20804097691093104,0.012142025150235325,0.47559768856207607],"weights_hh":[-0.21775601666273303,-0.8261096075391821,-0.17124303301844113,-0.6223945876508012,-0.15901003631037214,-0.7070942350663638,-0.16680019803291923,-0.5650078152777664,-0.8101642002983278,-0.7786441753749302,0.7801644720489105,-0.8843573676596199,-0.25386148410350406,0.3220641861982041,-0.8593399104755197,-0.8943309389497536,-0.22803267493646495,-0.3400718524032862,0.5382499483519354,0.9843733060514104,0.8915218713091666,-0.4519133807801221,-0.7212049402216902,0.8911223234278418,-0.880349765047937,-0.7848809258470484,0.6850414060262306,0.9390653894948879,0.61143218733017,0.2496447561015438,-0.6217079648481125,0.4336888149062543,0.4986423380698559,0.595474741320476,-0.004502280796644831,-0.07522373740409183,-0.3881165064075536,0.38974777841946806,0.9865104354470979,0.2568550849829705,0.623794217087785,-0.016203349376418208,-0.4987293663634593,-0.9402623975824995,-0.5615071833344087,-0.42374014100532453,0.07595450059591813,-0.7557839255268819,-0.5430043757226055,-0.06429485544292857,0.041618315719323506,0.9692043860352109,-0.545050811701699,-0.654635135903783,-0.45983983801470796,0.09650603420976922,-0.6291466032116917,0.19415572876795628,0.34516056890464397,-0.04322699916754669,-0.9441246248554678,0.4283287605583661,-0.9871392980112113,-0.46746761803773307,-0.9248300158587943,-0.9845352691024267,-0.6731721767599699,0.31984386037532,0.03679386108644134,-0.6290371447121983,0.6264668979292329,-0.785997310183371,0.6226025595818991,0.9739009129199896,0.564863551173572,0.45542300961249893,-0.0007638276748043182,-0.5415374708118492,0.8918663236289879,0.1239228306083211,-0.9965759092286779,0.9785008507452155,-0.4188678495135283,-0.019568999073793725,-0.7482384143675669,0.47282538280497866,0.5771812363569839,0.652479317117685,-0.7187607631994724,-0.9736008525459261,-0.756956806990402,-0.18213897292682013,0.4106871697374894,0.7772403524148521,0.7489638949177719,-0.6074051463672472,0.14258597243190851,-0.45402052394503456,0.028309877303551723,0.38773544714047126,0.6916128598457143,0.023803807347899886,-0.8777816121031172,0.5105414063823255,0.8046082709906681,0.42448562850376215,0.710924468640618,0.764518107160854,-0.1961714543353128,-0.6566992858787126,-0.8078347254767329,0.897375225226068,0.015253679283481647,0.25247316034937417,0.1298215579218731,-0.7518029143400169,-0.7209097568371166,0.2432926009584111,0.12942365957921487,-0.8613264523779756,0.9816871944138432,-0.17051895293027775,0.4332832403795426,0.9459206711346089,0.25572396881754833,0.6567667970362367,0.47085189407137484,0.7260534796197289,-0.7660556497966649,-0.46937554746049015,-0.5556512391078952,0.428934052565072,-0.5776306106659694,-0.19596360231575916,0.30261229921145505,-0.3194311473348148,-0.29426123334418675,-0.7408522135003288,-0.6259240356144291,0.37468892719412517,0.5056760867076382,-0.4263484973470364,0.6134767416763947,-0.6066528819155923,-0.11369981933166295,0.46409366137587127,0.3505383033076652,0.8718580176994533,0.8702615750403688,-0.11394496923485864,0.8265269208441104,0.5069974606769174,-0.6785801693912454,-0.9160337407991768,0.00017863435561804586,0.6046495089552455,-0.6822731076895163,0.8716732917691561,0.05169865640558147,0.5493050357894789,0.8302766527153966,-0.5190711947493905,0.6369219213758286,0.14152149957011617,0.7093184883201213,0.6712521930944118,0.5863379847476589,-0.9477473040085596,-0.7435737880919071,0.7762254157602424,-0.546675706039566,0.16060124070748882,-0.5213507599331175,0.7696658026982099,-0.3469973441047389,0.360683760483568,0.4412055256005345,-0.47296663609159983,-0.1027378146133866,-0.8514913127905812,0.13212535251462043,0.5966823941189221,0.5895873539614604,0.45339841989612095,-0.8113784273039888,-0.0068176394629866355,-0.850517072576404,0.43097190352706116,-0.469410574331256,0.5201125544037315,0.1337232298502784,-0.5978331443827649,-0.44294607821443144,-0.4015025172527642,-0.9257111808370269,0.6826496779337607,-0.9541964102478908,-0.31375739417187365,0.3384330761672796,-0.628369749682997,0.49459223358650606,0.5144393661311661,-0.29233442971617274,-0.48065237793825877,0.6328919216226636,0.7789887957880777,-0.4191619926797123,0.23907663647523347,-0.18981156936821098,0.5594237924947827,0.0009129873356161777,-0.28031334657927554,-0.8745587404257835,-0.3745757958777909,0.9530710080149973,-0.17820806959167368,-0.9717802970209017,0.4995672527783608,0.9164850136012985,-0.6158611935417759,0.9537709402917403,-0.650752777374036,-0.7733540214822674,0.9785953395087996,0.4941336725382799,-0.402124524549206,0.043784743278399096,-0.28366958850764834,-0.265406547257923,-0.012337582594914354,0.7298421739800853,0.9420161088056644,-0.9462412883913971,0.15950065481277687,0.6522420792604515,-0.9264753815087676,-0.8256702090366816,0.14711395480721823,0.007723956877374372,-0.4819533795874338,-0.5918177872631323,-0.8642722787676254,0.8267499228285144,-0.7834143933683124,0.785672031854687,-0.5923140120181805,0.30649269483425146,-0.4187317971380162,-0.3987863166715242,0.604507778084193,0.9106594592994517,0.7602409931749616,-0.5156277076549398,-0.8657254853980276,0.8513149993959404,-0.7784083547782106],"weights_ho":[0.39459855865302007,0.6374477494925024,0.5612174082695507,0.2533318414123944,0.30442053604810604,0.8265341931477852,-0.30136749811474295,-0.4199266908922068,-0.042118420095430986,0.24511608063182533,0.20488196232481992,-0.806239396982795,0.267276715566805,-0.5958610624748737,-0.4954915666264956,0.2435230780181319,-0.0692625080746816,0.017078276854579855,0.942364425261305,0.43103568689615157,0.3677688613676675,-0.4588585120264097,-0.6621005915452822,0.853755107391049,0.37376473702630975,-0.24771191089129885,-0.9927575677106171,0.520452594910781,0.5406460952856056,-0.9213974484699068,0.04378787997648059,-0.020174761562028243,-0.5487124046714031,-0.492143795675696,-0.03261061844102131,-0.9667912965246566,-0.8048321969804204,-0.43964942686440067,-0.29536735963334504,-0.23678949806153682,0.10654657803838297,0.0610558777315473,0.585554457917357,-0.6288303718461472,0.990715225719655,-0.42321870305635767,-0.06748450622573743,-0.2035496163173307,0.10559834358724696,-0.7486074904417743,-0.9680494382726628,-0.5924833883070919,-0.584939579710114,0.8974389039832347,0.4942408145769235,-0.41147683012857783,-0.206084783065543,0.6487881755441012,-0.6769365863161865,0.9585428392430293,-0.12799954343001674,0.7303091863809368,-0.6246558239113447,-0.09347848567360684],"bias_h0":[-0.29542321963620277,-0.8888712586113694,0.23625565344993849,0.7017044769265584,-0.450797169002211,0.10153032282887575,0.21966615824933555,-0.6024766220907232,0.6572325912491088,-0.3329449841143488,0.2911922911182865,-0.4182263651690281,0.29227452553037403,0.7794743664575976,-0.35259979102911276,0.8733609165354641],"bias_h1":[-0.08754907343583018,-0.7736410010702062,-0.8845655887351109,-0.12243499375103872,-0.8192076406161746,-0.31744908078731515,-0.5482499853332325,0.40133630433464407,-0.21722792317026007,0.8223016373237901,0.5502175494327206,-0.09885714884314267,-0.094566270320259,-0.02757181571355738,-0.13043681474116586,0.9982619250025226],"bias_o":[-0.5992481620924706,-0.6931108853513728,-0.5910511392821387,-0.7130556809153712]}