{"weights_ih":[-0.8342969971393359,0.1239735570506213,0.42285661004381137,0.928638205432091,0.856610390206817,0.4406945605276873,-0.7550404070835679,-0.4510571855885064,-0.1871453238972196,0.002283781576599031,-0.4037894178147612,-0.8090143702157693,-0.3044094674916551,-0.5491423343082174,0.9690016337872807,-0.6155494592856323,0.28038336065596603,-0.16694583124950957,-0.8303065210356708,-0.2966914809599268,0.4011194767778081,-0.7565457141400012,0.2624375087052344,-0.2155239912687663,0.7833237361146812,0.20693992500875935,0.16019587623481368,0.5275260436677156,-0.5597777937898314,-0.250341483443701,-0.9084631151081024,-0.7443503765421584,-0.3548006988573924,-0.6999245876361311,-0.01831232967329388,0.6746055112215059,0.5334522845396827,-0.4119197357508415,-0.4034576146358939,-0.8523973685601225,-0.19296076658132488,-0.7655728089161757,-0.6633281618690143,0.8357474846470483,0.5662762637079217,-0.9452547446513615,0.6105295467427116,0.5164448249155067,-0.06206233916004433,0.7942270293974523,0.5107440833064698,0.1060239931509408,-0.6780183970679594,-0.4218863591401898,0.4654469906757468,-0.9273694584577739,-0.3720473287467001,-0.9204052654402091,-0.2208781111862299,0.6058604728426542,-0.18463262907924172,0.3355732521165964,0.08871280425832184,0.7569730967326578,0.8103096176520213,0.6503954058223451,-0.1955713303308999,-0.11396417775137713,-0.21782972332572204,0.2397617221859898,0.3128230206110796,0.0009384329696757732,0.6371997410674557,0.22582172431673841,-0.429304059616874,0.6116642298484671,0.5156820342625743,-0.3743179491195632,-0.3821795706097757,-0.419188112177749,0.22051174499591553,0.8864329491967993,0.3128383360180451,-0.09993629239614266,-0.23258826287946088,-0.32448024260472863,-0.37854445338180875,0.011792079381276244,0.11160851522409931,0.980699602446595,-0.07731999569617765,0.04451907269211719,-0.46324359550550986,0.8590445806650016,-0.5672054244625211,0.19448486952296729,0.3949734793349813,-0.8317900267974407,0.8556866578581148,0.6924196185878764,-0.22275061337857904,0.8047702635893332,0.45772651839123846,-0.1760684552333467,-0.8333060347251349,-0.40072444431196996,-0.6113265863051869,-0.1184776190975727,-0.7720312794103661,-0.29423859822373766,-0.695297291886102,0.6248762581146097,-0.0009460197355042332,0.7969246284140474,-0.8202120342593038,-0.8114556306445817,-0.7403661495681568,0.8035679100215851,0.07444393528027327,0.048318793206167276,0.08035000980618512,0.2819823263397925,0.5647769875142656,-0.8111999217190351,-0.6420776872782341,0.6089504533183756,0.6295096047297724,-0.387378123613056,0.8693330441162679,0.034596272653855564,-0.18633424407670685,0.359184278810172,0.5804044553238854,-0.49133549326517345,0.4558435427710634,-0.8173661054118633,-0.05665280621077451,-0.5355833498301183,-0.4879890522569825,-0.9069327708761963,-0.8924518957386358,0.9558458880672478,-0.22392895468726626,-0.5494558127739702,-0.7408963148657577,-0.8583755809402149,-0.8710258711194021,-0.9087528254363786,0.6343950704726493,-0.5509840926502496,-0.7541225908125877,0.20351866145352004,0.2880807867952111,-0.0486292774389292,-0.7811548471284935,-0.9742504169588022,0.1501521793993985,0.8019218335326095,-0.19523656543076795,0.1784381977673577,-0.11539307769247809,0.3378231113292631,0.6340992733696904,-0.3198218389803831,-0.04904899733401624,0.3320343686588412,-0.38124237577013065,-0.4556309751955345,-0.41173127090349704,-0.7238460613525834,-0.8629599647094315,-0.19712295990062634,-0.7754011371790677,0.5136018696451798,-0.1766250297252323,-0.6131193494908445,-0.6512017893282331,0.5327017248895924,0.291360190115759,-0.6856822821147179,-0.653687018511196,-0.4955467947056156,0.7226090276504469,0.022461345483046236,0.7813804444399064,0.5760447159509465,-0.8366092089171921,0.04175180928206634,-0.39055181724990295,-0.5734453102420747,-0.5027226962632889,0.9236383883170038,0.44065057462496315,-0.8812229250084906,0.7946760661816907,-0.9362308857330801,0.07838746052195367,0.36192661283226935,-0.4571937337932841,-0.7003017268826832,-0.6647732521163294,-0.22390256063184633,-0.2885071017955958,-0.5593132289187732,-0.20047191575990775,0.9305566899986784,-0.9331551805235765,-0.8117497879611315,0.4585178650456503,-0.37957883951278326,-0.7369585360096416,-0.4267574295998757,-0.4347375617077325,-0.9189963155435428,-0.4917222203528926,0.34282723398604253,0.6230334458990845,-0.6553651491526418,-0.5109105214849383,0.4420349817652567,-0.49007229207454506,0.8847270573780981,-0.9989742680104772,0.6624779553661835,0.691382747223273,-0.4038254374897441,-0.9573108277299596,-0.2682157218499359,0.11679711668759718,0.892652688391625,0.9911228098150631,0.35009076386341764,0.7849734316842192,-0.6948209052416772,0.1172191592966274,-0.9528119365578198,-0.9729044690287139,0.7598306933664785,-0.5809472667037561,-0.3628027646404117,-0.3010611914718271,-0.3669813244895581,0.14298271143921748,-0.5972017305646962,0.9486029823004323,-0.9294041834845967,0.8386701254050606,-0.24687333657772825,-0.5897919806210019,-0.7006813556411096,-0.8661786175400721,-0.46817697831541283,-0.47653120333856513,-0.5543536095446169,0.7121594632442263,-0.1599142997781855,0.2088562892645227,0.7299428192249,0.6943888296147926,0.890865112704947,-0.6399357334817346,0.3153544993241568,-0.7737788429092056,-0.8931891830757954,0.5696062245824265,0.9193647402206648,-0.08214792895236389,-0.4176776151821662,0.25468354832007645,0.946298871006571,-0.049695925133907304,0.09123237523048355,0.5127153988198536,0.689388412099428,-0.22679119173132323,0.020132061694502212,-0.3989445942543386,-0.5999871727625599,-0.1959024185234477,0.699140692625225,-0.18439053291476193,0.85286190328,0.31423317306802856,0.02280124079196222,0.28627945452963144,0.43599727342666883,0.6816412725826433,-0.36128695573120506,0.019928026665447574,-0.6687929780635851,0.5665283573963042,-0.9094977504126647,-0.6621341678552539,-0.35442507231311127,0.7739344136922486,-0.3196001954793437,-0.7417217885155687,-0.18485177165897348,0.24815901309028288,-0.21933067964255448,-0.47497691755456994,-0.4585110260505374,0.3117904178911908,0.5187120011157142,-0.412922024002111,-0.8858405127195381,0.1928910419179357,-0.5419839684817254,-0.7733376310840601,0.14952943139361685,-0.21790859317771138,0.565479798741553,0.5682439198873042,0.13987098104988238,-0.17964472985727786,0.1298347666036943,-0.3166927291306565,0.8650584547820375,-0.30981149908985794,0.37579979649164263,0.6157339831563267,-0.7605562668488934,0.6020861431943183,0.9867442071047245,0.7198378396926117,0.9521072558113846,-0.08665064722548643,-0.6151149808349292,0.04969563013561107,0.22030158612806527,0.7569461101390116,0.49413705199706404,-0.52144122900097,-0.9778160575632611,0.6025298152805514,-0.8047591181768152,-0.9802547234720806,0.05542384498744757,0.13977131081025607,-0.12952392767501308,0.10434503625964586,0.3109518968716203,-0.7918634239220947,-0.5224854217520505,0.8981692251019118,-0.41791454224626556,0.28117883158115675,0.4205428164657101,0.1429701956204279,0.05610422537075754,0.09878766183220855,0.6680286345436648,0.664619993272122,-0.01974594146766062,-0.9849654512290438,0.9844068001267645,0.4317473408157151,0.43794207294456355,-0.3002000406663734,-0.11997290901684754,-0.5429558367028908,-0.7030299513679579,-0.14718540984708617,-0.6983359255977781,-0.4616236532442042,-0.5659263148315958,-0.2386773524110528,-0.6650664080962465,-0.18313460816042415,0.8951014649330638,0.909042726062169,-0.4383694999056278,0.9399439025828509,-0.26587799705130877,0.9102589702324142,0.43429037484394106,-0.5787875900039448,0.2932559435042077,0.7735485168020333,-0.14850124141491272,-0.8434944354192828,-0.3772796400273648,0.48932601934020425,0.5476342114583503,0.4557057518488956,0.8077965420674635,-0.6000457431386088,0.14083723144129268,-0.31680583821411634,0.4728564380040965,-0.009414768797662454,0.9924392611063795,-0.4411010391412251,0.34314214922594766,0.5999457208031924,0.7224254430654133,0.6134506236349364,0.7887513793387799,-0.16410307052701456,-0.08017361917766896,-0.5833944571744756,-0.011599042062597542,-0.763354248372488,0.47887471753347866,0.046247453818622386,0.5159746634010385,0.47755825006919017,-0.827955334608607,0.6808219025526656,0.4433377962639553,-0.055064750823239805,0.09290261044119719,0.7034556551166953,0.36529123086701243,-0.46322211896965126,0.12931639111564386,0.7843046805398044,-0.8614572585501714,-0.4207357315070408,-0.5369348177898676,0.9348375408313638,-0.9142844055954367,0.5228643273736886,-0.6591903800109471,-0.4674670534869363,-0.5827426276187893,0.5979135128532718,-0.7112680549491084,-0.09237157052075506,0.5544348750612387,-0.03284881767111281,-0.3866042722336893,0.23513779114019906,0.3163209821172088,-0.18644438566556643,-0.11876717821505833,0.18956593236765018,0.015116471647661278,0.2742930254362377,-0.9047071576602326,-0.6335322141337356,0.11496438745409199,-0.5591660667208409,-0.005454380326145092,-0.9137537334033441,0.20804097691093104,0.8478146745235824,0.0526135138455881],"weights_hh":[-0.7563225525572717,0.1247836139108136,0.6181573886251179,-0.6223945876508012,-0.04432010584235835,-0.7070942350663638,0.12437720709455835,-0.1733155649582252,-0.8101642002983278,0.33706497776403066,0.10856333293831555,-0.8843573676596199,-0.28400080808444317,0.9764701605539965,-0.3027609678082528,-0.7195800758089701,-0.22803267493646495,-0.3400718524032862,0.16659248408242266,-0.16734428756444664,-0.2850912468961453,-0.4519133807801221,0.7241471000686062,0.8911223234278418,0.14866618616420268,0.3226160674629115,0.5509944866384278,-0.13723713795832837,-0.016158487554334355,-0.32027666392999365,-0.29677909266364644,0.4336888149062543,-0.7363055940852465,0.595474741320476,0.8055634842242902,0.5537878916834627,-0.3881165064075536,0.38974777841946806,0.9865104354470979,-0.13622247995670111,0.623794217087785,-0.016203349376418208,-0.4987293663634593,0.605789895842153,-0.2218015877550683,0.269608136621758,0.07595450059591813,-0.030807724663007408,-0.40299179162715526,0.7094848422690767,-0.07835768047904201,-0.07062347131573432,0.6263387148432522,-0.654635135903783,-0.45983983801470796,-0.6202454305745635,0.7442601746315327,0.6229313522806244,0.34516056890464397,-0.4068839587724771,0.21651676732365743,0.4283287605583661,-0.9871392980112113,-0.46746761803773307,-0.9248300158587943,-0.9845352691024267,-0.007701191740807634,-0.9979704750776848,0.2881671178481344,-0.6290371447121983,-0.3990197165786473,-0.785997310183371,0.6226025595818991,0.9874973156592697,0.4892756584444109,0.9537990738825401,-0.2581529392098172,-0.5415374708118492,0.7780790636379997,0.4511273031727048,0.4622065454283588,-0.18275041612128873,0.7156921981784543,-0.019568999073793725,-0.8581526952118428,-0.722333039781712,0.5771812363569839,-0.27339318909938903,-0.2453262471135278,0.7954690866290404,0.3116401227142602,0.8239096781180808,0.3145574402543603,0.7772403524148521,-0.44938204383314706,0.00865036877469283,-0.7206808329221579,-0.29591131033398166,-0.07589333586017477,0.38773544714047126,0.6916128598457143,0.023803807347899886,0.09192625190466308,0.4874494167717378,0.8046082709906681,0.8905771400703646,-0.5541906542163066,0.07810147739175921,-0.5445287794651648,-0.4473250530849564,-0.8078347254767329,-0.4137831537199741,-0.664236935615228,0.25247316034937417,0.1298215579218731,0.38027968876845963,0.6276659290582496,0.2432926009584111,0.4521143935203904,-0.8613264523779756,-0.09133833449328854,-0.5098913073316305,-0.9450592181935034,0.7546640368386761,0.25572396881754833,0.09572751715113337,0.70393358053586,0.7260534796197289,-0.7660556497966649,-0.46937554746049015,0.4281650056390014,0.35725529871587813,-0.5776306106659694,-0.5326640220110752,0.2720914473843723,0.49565595180429045,-0.8319572916753528,-0.7408522135003288,-0.19956753446796016,-0.1887372846945996,-0.7940688451828026,-0.4263484973470364,-0.476051971474287,-0.3550522227672863,-0.11369981933166295,0.46409366137587127,0.3505383033076652,0.8718580176994533,-0.47033855419705084,-0.6080200761676364,-0.3509536264518549,-0.9099088317844035,-0.22269357779222343,-0.19192938067514542,-0.34943240332814973,0.6046495089552455,-0.050954471737648666,0.7561993282903579,0.778945885667212,0.5493050357894789,0.009015564930452191,0.5094305047767691,-0.4504285232764642,0.3440889367170372,-0.4819921699310685,0.8161493582555293,-0.9380532423145544,-0.9477473040085596,-0.03992928133345486,0.7762254157602424,-0.546675706039566,0.16060124070748882,-0.5213507599331175,-0.836224927493491,-0.3469973441047389,0.19268607504695656,0.4412055256005345,-0.47296663609159983,-0.1027378146133866,-0.8514913127905812,-0.2542835618109638,0.19751211572363436,0.5895873539614604,0.6967130135990725,0.44108143108919906,-0.8371726032785651,0.4433266241210476,0.22193325063161362,0.7668477556863322,-0.6846049563912382,-0.4878866970840272,-0.9058118486878952,-0.44294607821443144,-0.6655791017738548,-0.31078405809291976,0.6826496779337607,-0.14565652615734193,-0.31375739417187365,0.3384330761672796,-0.8919736739917217,0.36803711251444016,0.09627161244631521,0.0665020989099181,0.23914153112216363,0.6328919216226636,0.5702216754534459,0.746199560827812,0.23907663647523347,0.9023577713843864,0.06178536935138346,-0.6984701045793011,-0.28031334657927554,-0.48828203126906744,-0.31655835792111975,-0.32877357920527017,-0.9901204932334804,-0.9940653048595556,-0.562602166127774,-0.10246524857241734,-0.6158611935417759,0.9537709402917403,0.6541567492251599,0.8992725716517429,0.9785953395087996,0.4941336725382799,-0.16005879465588535,0.043784743278399096,-0.28366958850764834,-0.265406547257923,-0.012337582594914354,0.7298421739800853,0.8661359882379582,0.6789213913092336,0.6429040241565076,0.5630593041330525,-0.9109033766681285,-0.14710523386749874,0.6626912267954308,-0.22229263952464762,-0.7182920497962477,0.2609622700867613,0.1714327701542533,0.5311876557833974,-0.7834143933683124,0.40213268551713566,-0.8939635349248352,0.45177395286517386,-0.8968222604074705,0.38593493232607146,-0.4534700823001758,0.9106594592994517,-0.29578746288497815,-0.1293945629914961,-0.8028454363052167,0.13073765062358156,-0.7784083547782106],"weights_ho":[-0.5571133969618716,0.6374477494925024,0.5612174082695507,-0.3638215951724917,0.6305035520102209,-0.0017151044376157998,-0.7816615984469086,-0.3781460992122587,0.669327188962989,0.24511608063182533,0.3102655150832243,-0.5506743758348802,0.1837772252448231,-0.9446937599350178,-0.972889249617281,0.5587379405052426,0.6582231385930881,0.8511229636090247,0.49289933796004504,0.43103568689615157,0.4925724484870071,-0.4588585120264097,-0.6621005915452822,0.853755107391049,0.2977816392026795,-0.44827676599879895,-0.9927575677106171,-0.11897621529103342,0.5406460952856056,0.07533616808919086,0.3966184875487442,0.15087338179831478,0.6524037240913592,-0.492143795675696,-0.6676052660638305,-0.9667912965246566,-0.16227302242505792,0.5976234876962863,-0.20388104372676485,0.11612206566298089,0.052875105774230935,0.0610558777315473,0.585554457917357,-0.6288303718461472,0.8559944760105582,0.10550170994844588,0.2511307696851959,-0.2035496163173307,0.7101003232306082,0.43425135283751715,0.30148126634696193,0.44070359247278756,0.20410019056064366,0.8974389039832347,-0.9298700800984132,-0.9231566772828146,0.29735762557593404,0.6639839904062954,-0.9255639241473852,0.9813319285185906,-0.14545402151713427,0.22299858098254255,0.5516320099476293,-0.09347848567360684],"bias_h0":[-0.10354595288883406,0.868635605733699,-0.3611778495578346,-0.6201328537096855,-0.450797169002211,-0.3218637995773477,-0.6818177475040625,-0.6213236009943419,0.30985310269213784,-0.688764765152174,0.04952177648027245,-0.4182263651690281,0.2675608238338405,0.7794743664575976,-0.48285277765182677,-0.3325833817771848],"bias_h1":[0.2765439250299875,-0.7736410010702062,0.577854148699037,-0.12243499375103872,0.13347763495625453,0.7010408035319153,0.9869353689668696,0.8187702451836696,-0.21722792317026007,-0.2851236426735009,0.575242757344564,0.26601420609280013,-0.31078234986540965,-0.009773269156031494,0.4558114108922189,-0.39149380509184195],"bias_o":[-0.21856633436983564,-0.7284979130653335,0.28321910864658983,0.5123187591688199]}