{"weights_ih":[0.3792129181444208,-0.7027948301567648,0.4613705367191865,0.928638205432091,-0.0708215619967929,-0.1313969705851885,0.5733923677154025,-0.4510571855885064,-0.676484196845349,0.8941064197375783,-0.4037894178147612,0.3701535059135237,0.045675231248822,-0.012440365333361125,0.9690016337872807,-0.5527708166132455,-0.5259975735697098,0.7148326707965993,-0.345576836425568,0.9934355328158277,0.9221215707717765,-0.5594848718113214,-0.8704895651404876,-0.9572309520211897,0.3514748904935616,0.20693992500875935,0.16835519362177642,0.9970126854999775,-0.6149795255898967,0.10841847299247664,0.19066237985417778,0.11088696192319758,-0.7968762288237221,-0.3097762056597386,-0.8492359236927867,0.6746055112215059,0.8866395992621492,-0.8279993856041479,-0.4034576146358939,-0.9572008367853957,0.19759170074650578,0.5732668084169483,-0.6633281618690143,0.9533864011668465,-0.6279104400891742,0.8381821796909277,0.6105295467427116,-0.08692215601481945,-0.6811643836223227,0.6949683653298953,-0.6949455030708018,-0.9705887173219996,0.2990904738623712,0.6878467096168945,0.4654469906757468,-0.006891968355396072,0.7981314532190511,0.47142105004657364,0.8207907491757689,-0.021524381445819696,-0.18463262907924172,0.6381536917926096,-0.7695643564779793,-0.10586967613782106,0.25657578726423913,-0.8188590379926262,-0.1955713303308999,0.5472820806817,-0.29533442422513745,0.2397617221859898,-0.33993217871830317,-0.010547662663888069,-0.887195386094616,0.7345986581643695,0.401683780824291,0.35341697577628217,-0.06832472502782361,-0.18994033113736908,-0.22524135944313683,0.0247430623450573,0.38188665721144166,0.2192531728581666,0.3128383360180451,-0.612830047953888,-0.23258826287946088,-0.32448024260472863,-0.37854445338180875,-0.2414793198737999,0.11160851522409931,0.803555716887149,-0.35463012239047864,0.7418809826141797,-0.30071982318876445,0.9212963729993315,-0.5672054244625211,-0.15752404368756245,-0.5581898898308546,-0.8317900267974407,0.5589238995526813,-0.16083528373636646,-0.21773962214520726,0.05166178907796537,0.45772651839123846,0.6240222634128119,0.6020104696803075,-0.7970670708411292,0.37930927017902216,-0.1184776190975727,-0.7720312794103661,-0.6837059436324107,-0.695297291886102,0.6248762581146097,-0.0009460197355042332,0.4151354183164988,-0.3971507358002557,-0.7976771107170235,0.3437911841222778,0.5624373314850004,0.07444393528027327,0.16418394070117381,0.08035000980618512,0.6368417929912895,0.29749656493764776,-0.27105863937116537,0.2980938307917185,0.7510481864099259,0.6568645558021906,-0.15969816549545635,0.4626719164127633,-0.5422300480491524,0.06422829883559977,0.359184278810172,-0.7226587083113247,-0.4216588757337507,-0.38840372803904266,-0.8173661054118633,-0.05665280621077451,0.4519490811103488,0.24664568133347897,0.3364316294976044,-0.8924518957386358,0.9558458880672478,-0.2663607036199449,0.9316710886898083,-0.7408963148657577,0.3746240758876074,-0.8710258711194021,-0.9087528254363786,-0.6886539479190661,-0.5564385133669532,0.36016930449326967,0.20351866145352004,0.18429045218857087,0.08963474377285041,-0.8035281162189871,-0.3766623150909614,0.9390979927032399,0.3849787571747376,-0.19523656543076795,0.004367676775818952,-0.11539307769247809,0.3378231113292631,-0.27768471573525777,-0.3179858160132887,-0.9353920864487919,-0.1559846396540323,-0.8167457805018343,0.6719676026699122,-0.01354905603996781,0.48373826804196307,-0.8629599647094315,-0.334600838208885,0.21983527549288606,0.8283597306236954,-0.15556997009581375,-0.6131193494908445,-0.11039946969307168,0.5327017248895924,0.8262614935800632,-0.8507732209414931,-0.7929000411683262,0.5472726796143161,-0.9687134816264775,0.9989898365736027,0.7813804444399064,-0.8400052460236345,0.31392605419769937,-0.2692834273772611,0.29188152490136177,-0.9653222536307897,0.8445359057572013,-0.2539182327828564,0.44065057462496315,-0.8592332138849423,0.5294492002927438,-0.9362308857330801,-0.23015965082348844,0.567907739561966,-0.013403133942880396,0.8888779784270562,-0.40938250120941233,-0.7313380810687078,-0.2885071017955958,0.8226138534386367,-0.9859327185414677,0.08103547844992454,0.9537336757540806,-0.9264478390930655,-0.7732376585693581,-0.37957883951278326,-0.7940041072346946,-0.9527241939271947,-0.46139804393371975,-0.35544308177925266,-0.6761005022704432,0.5518495660132197,-0.9251648714495542,-0.04425025868036392,-0.5487401352302137,0.9427440146589074,0.8321938099788753,0.8847270573780981,-0.9989742680104772,0.6624779553661835,-0.14746079581233418,0.42427828959988356,-0.44751101889759215,-0.2682157218499359,0.4378687750960164,-0.28180199393022964,-0.5637946680695092,0.35009076386341764,0.24520553710694726,-0.09414860623300814,0.1172191592966274,-0.6216170560441938,-0.8467630115668661,0.7469822469643443,-0.41092732208432503,0.6998113801364501,-0.3379077559097272,-0.6306778530024557,0.4569851447662765,-0.5972017305646962,0.7567077286693358,0.016623280462447543,-0.85149947349063,0.7255211790886409,0.4926878045007439,0.8886940425485965,-0.8661786175400721,-0.46817697831541283,0.9009165538398662,-0.15154748996828116,0.7121594632442263,-0.7426974734707867,-0.22244826791660333,-0.6408615289069242,-0.6193247967664712,-0.5012566589698175,-0.5727924594442981,0.3153544993241568,-0.41336255352114026,-0.8931891830757954,-0.6771068418468722,-0.8349673855034734,0.7116708552548645,0.42906262690061325,-0.35387896609426694,-0.19662050734311687,-0.049695925133907304,0.09123237523048355,-0.17045571591877207,0.28302244221090267,-0.2145967955003798,0.020132061694502212,-0.8892979160761125,0.8300215208435386,0.21324124666193822,-0.036711333618343334,-0.18439053291476193,-0.15829273554588918,0.6322863219468673,0.02280124079196222,-0.5331820343905809,-0.7080072152810268,0.8087777342673388,-0.8868297854888523,0.019928026665447574,-0.7796114517915989,-0.028542988341805797,-0.48618408297383464,-0.5183047041633213,0.08015498010511735,-0.47514297153285034,0.6234039007164343,0.4838430273780596,0.2808350066752099,-0.6994162125533472,0.6827827203036345,-0.5381916807336029,-0.8129722035402167,-0.38411977308097756,-0.5180910178298437,-0.4740137173909691,-0.787659496504596,0.1928910419179357,-0.31308341426084785,0.11793090325118438,0.2517219463658604,-0.21790859317771138,0.5622300495828407,-0.3714826240835809,0.15374827762397225,0.7211974585986429,0.19748465500462276,-0.399188325758298,0.1374920088037619,0.0822400564885939,0.37579979649164263,0.4419276169652917,-0.24665468791017697,0.7602483463246861,-0.5225705409531787,0.5857836396800815,0.7053000850215496,0.6633589673642364,-0.38592789657571314,-0.2259465164837986,0.7885370840180421,-0.5650215480279515,0.1424541775176258,0.5604342088685754,-0.9778160575632611,0.22598145593540564,0.9503504924991009,-0.29064700409447974,0.3126020918405248,-0.6268707082474814,-0.12952392767501308,-0.39324417666815803,0.3109518968716203,0.4454747601219855,-0.5224854217520505,0.4520933871043977,-0.7952038039402349,0.9955816517328995,0.4205428164657101,0.1429701956204279,-0.6015505426224412,0.09878766183220855,-0.7399602485481649,0.664619993272122,-0.12655753625597965,0.9289511592396746,0.9844068001267645,-0.07133690387297165,-0.7830278852146608,-0.6922430067900589,0.9162528025344367,0.3105663013317632,0.11376270228712859,-0.9745238791845081,-0.6983359255977781,-0.4616236532442042,0.14212478880277368,-0.9947882904713654,-0.6650664080962465,-0.18313460816042415,-0.25231068286940395,0.2830603252319175,-0.08036906983513559,-0.10207271036877463,0.5970490359471496,-0.7211334221097938,0.6135262292698682,-0.23596687445909725,-0.580036210892708,0.7735485168020333,0.08424280628197622,-0.8434944354192828,-0.4959464239335818,0.12146320676735178,0.728766202022485,-0.9154319302445904,0.6958693858966039,0.018929085481425245,0.14083723144129268,0.2642020716824447,-0.14642606005978354,-0.8335482743486018,0.9924392611063795,0.007468747313798874,-0.5531386644543776,0.8889875446895414,-0.5855832632931675,-0.6938000469039232,0.4309091698534506,0.683723843807446,-0.7718479601243964,-0.9504577721273277,-0.011599042062597542,-0.9847457085218481,-0.18266286961962597,0.7223868264169677,0.8953769025812124,-0.22411939294830296,-0.32556459667352633,0.22875770844140408,0.4433377962639553,0.9970103801917805,-0.2777554915385425,-0.14499831753060421,-0.9475561987477561,-0.46322211896965126,-0.5281665419260968,-0.22715168813457587,-0.1028544022260609,0.06431696630322614,-0.5021328412993866,0.018680746419140748,-0.9142844055954367,0.5228643273736886,-0.06844014067849091,0.610945510721365,-0.5827426276187893,0.5979135128532718,-0.3272383425280603,0.8119659576969465,-0.9686811654880771,-0.7789390172694686,-0.9402129718886716,0.5865212958267814,-0.6398088633456289,0.19317574920034608,-0.48961041466453903,0.5461185242519286,0.4749505184780529,0.2742930254362377,-0.5448144074337002,0.6566604705506529,0.11496438745409199,-0.32025406058595585,-0.005454380326145092,-0.9137537334033441,-0.4144191442746412,0.5272816896620289,-0.28965329912845306],"weights_hh":[-0.577055510596316,0.528570468575311,0.6181573886251179,-0.5473933110338318,-0.04432010584235835,-0.41268164581707234,0.12437720709455835,-0.9768685786640752,-0.4162263757176634,0.33706497776403066,0.7801644720489105,0.4789008794276197,-0.25386148410350406,-0.7713040617831504,-0.3027609678082528,-0.16861856056498237,-0.5303277908848232,0.3633786287320617,0.5382499483519354,0.743419299569066,0.8915218713091666,0.08355787940962678,-0.33423545150210243,0.05538305354897277,0.14866618616420268,-0.7848809258470484,-0.4554943064535688,0.8570772756546947,-0.5414170344643423,-0.32027666392999365,-0.6217079648481125,0.0848548280684045,-0.7363055940852465,0.08136867589593733,-0.004502280796644831,0.5537878916834627,0.4799254422246848,-0.9482244091658094,-0.769224553904811,-0.13622247995670111,-0.53335194494795,-0.9654684797165372,0.482219850306288,0.605789895842153,0.24039395638243488,0.269608136621758,0.15499422298596,-0.030807724663007408,-0.5430043757226055,-0.06429485544292857,-0.07835768047904201,0.9692043860352109,-0.8240418814567607,0.561375155122865,-0.6214929535811511,0.09650603420976922,0.7442601746315327,0.19415572876795628,-0.2546028405352436,0.4225405247039389,0.4057298568125851,0.8218396684366776,-0.5556807108710387,-0.9335280367037291,-0.6046087086139544,0.46005873222579785,-0.6731721767599699,0.31984386037532,0.2881671178481344,0.18455620744034662,0.9638661784261413,0.47697120497945145,0.14744074564811083,0.17172042921654906,-0.4991615078223608,-0.4563352251967141,-0.7886654733830027,-0.767931705585251,0.7780790636379997,0.5049992595089585,0.4622065454283588,0.9785008507452155,-0.4188678495135283,0.6101640005122833,-0.8581526952118428,0.47282538280497866,0.5705725409232549,0.652479317117685,-0.2453262471135278,0.7954690866290404,0.3116401227142602,-0.18213897292682013,-0.19484698148323076,-0.1908809996263261,-0.44938204383314706,0.00865036877469283,-0.7206808329221579,-0.45402052394503456,0.4260591015603139,-0.19203196740696327,-0.03285856188849423,-0.36404636672430724,-0.09385548101133367,0.4874494167717378,0.1386402961747557,0.3228324127500297,0.710924468640618,0.764518107160854,0.6234138325834353,-0.6566992858787126,0.7898612028108314,-0.4137831537199741,-0.664236935615228,0.6615971571715922,0.987227168673442,0.38027968876845963,-0.7209097568371166,0.5043629172232438,0.9173402089687042,0.8297052467158028,0.9816871944138432,-0.5098913073316305,-0.9450592181935034,0.9270168741522244,0.2526488385295338,0.6567667970362367,0.70393358053586,-0.3316656401336644,0.2659945706312077,-0.5212413403217964,0.4281650056390014,0.35725529871587813,0.7997687664646824,-0.8465141863165115,0.30261229921145505,0.49565595180429045,0.32062634501871545,0.2604958801207855,-0.6259240356144291,-0.1887372846945996,-0.7940688451828026,0.6902530179540398,-0.5744254229902432,-0.3550522227672863,-0.37376395179154076,-0.966978416860671,-0.2187230446890973,0.03407825764278538,-0.47033855419705084,-0.0312368119476627,-0.3509536264518549,0.5069974606769174,-0.6785801693912454,-0.5407577432377588,0.00017863435561804586,0.10887118850380872,-0.6822731076895163,0.8716732917691561,-0.8065240657528179,0.47573184889232945,0.009015564930452191,0.5094305047767691,-0.4504285232764642,-0.10794857538551672,-0.546207764656127,0.8161493582555293,-0.9380532423145544,-0.34333822060177965,-0.7435737880919071,-0.5822711238188814,0.01790528048107931,0.25289606582461177,0.40066705515555134,0.7696658026982099,0.8739129477960519,0.19268607504695656,0.4478181816099238,-0.6070847588184023,-0.7660799308210324,-0.2128315863464505,0.13212535251462043,0.19751211572363436,0.7854328772937536,0.5262131384906616,-0.8113784273039888,-0.8371726032785651,0.4433266241210476,0.43097190352706116,0.7668477556863322,0.5201125544037315,0.1337232298502784,-0.5978331443827649,-0.06865486183293101,-0.6655791017738548,-0.07723098530338324,0.5322559312873414,-0.15940901433935895,0.38433518956032553,0.24858985806254785,0.4216507350340053,0.8387460626750289,0.35801546326515843,-0.29233442971617274,-0.48065237793825877,-0.36568619473781716,0.7789887957880777,0.746199560827812,0.7265487930901213,0.9023577713843864,0.5594237924947827,0.0009129873356161777,0.9142932645017618,-0.8745587404257835,-0.31655835792111975,0.9530710080149973,0.5907196032228523,-0.9717802970209017,0.4995672527783608,-0.3111955700508844,0.8123741322258329,0.7597390524589847,-0.3237906638416219,-0.5282698759770299,-0.8144559018324262,0.37430375824464246,0.7802750382681996,-0.0823993820244091,0.693635151504923,-0.23630069029068923,0.6971952724200983,-0.051950761390741285,0.9420161088056644,-0.7536797643546727,0.15950065481277687,0.6522420792604515,-0.9109033766681285,-0.7478168088489963,0.14711395480721823,-0.7711656607979762,0.5197312757193129,-0.5918177872631323,-0.8642722787676254,0.184240068621226,-0.9540037683417524,0.785672031854687,-0.8939635349248352,0.6864157191034745,0.22088146352541882,0.9178429681557461,0.604507778084193,-0.31908171084942927,0.7602409931749616,-0.1293945629914961,-0.8657254853980276,0.13073765062358156,-0.33855491631777146],"weights_ho":[0.39459855865302007,-0.17280764735194687,0.19857262510982276,0.0827273807017661,0.30442053604810604,-0.0017151044376157998,-0.7816615984469086,-0.3781460992122587,0.5168142941999654,0.6423840792886042,0.3102655150832243,-0.5506743758348802,0.267276715566805,-0.9446937599350178,-0.972889249617281,0.2435230780181319,-0.0692625080746816,0.8511229636090247,0.5158713139355824,0.9589440308830386,-0.8402112743658234,-0.8144424809389741,-0.0752248518644636,0.13164297363284683,0.2977816392026795,-0.24771191089129885,0.09593593908986975,-0.11897621529103342,-0.21684186069161537,-0.9213974484699068,0.8975085115117107,-0.020174761562028243,-0.5487124046714031,-0.49066071209795425,-0.6676052660638305,-0.4306730791569118,-0.8048321969804204,-0.022395646206727404,-0.20388104372676485,0.11612206566298089,0.24034416294099437,0.6277935906089833,-0.7230086709634456,0.8398260375027524,0.8559944760105582,-0.42321870305635767,-0.06748450622573743,-0.4304119683722729,0.10559834358724696,-0.7486074904417743,0.30148126634696193,0.019323025028168628,-0.584939579710114,0.7469268730664431,-0.9298700800984132,-0.41147683012857783,0.4152103432598586,0.6639839904062954,0.8067365081087206,-0.016282752915927512,-0.1403531055762004,0.4589709255423646,-0.6246558239113447,0.5325847651033158],"bias_h0":[-0.10354595288883406,0.868635605733699,-0.3611778495578346,-0.13182622316613135,-0.6593830554227482,-0.3218637995773477,0.2762748560606447,-0.6024766220907232,0.6572325912491088,-0.3329449841143488,0.04952177648027245,-0.09114265430039281,0.29227452553037403,-0.0767229171960564,-0.48285277765182677,0.8733609165354641],"bias_h1":[0.3237188672715261,-0.5794209962228041,0.577854148699037,-0.21728437225511854,0.13347763495625453,-0.31744908078731515,0.9869353689668696,0.6413797745663548,0.6713823566126833,0.8223016373237901,-0.23128385408086816,-0.09885714884314267,-0.9866437790382736,0.13107738961151116,-0.13043681474116586,-0.8833029906460745],"bias_o":[-0.7859825738005384,-0.6931108853513728,0.32684975354153734,-0.7130556809153712]}