{"weights_ih":[-0.7182270408263141,0.38628051039821454,-0.7471248306423441,0.928638205432091,0.6889480406425881,-0.1313969705851885,-0.7550404070835679,-0.4510571855885064,-0.7669813106577597,0.10254350205815577,0.8544878359487407,-0.8090143702157693,-0.3044094674916551,-0.9958245944840052,-0.7622295541838606,-0.640098397356426,-0.696279752835572,0.34278898768913524,0.2583773048514326,-0.2966914809599268,0.9994288442179928,-0.17048176243167412,0.7579347615827137,0.8841743848173933,0.4559294146674704,0.9204962910586632,0.744996795231117,-0.3811987484349335,0.444409507005205,0.9063814089886235,0.19066237985417778,-0.3564109170513783,0.20162480573310448,-0.5676571971558089,0.5193748054863951,0.47481757546768755,0.31780516795310865,0.28935370514046,0.2214257484382247,-0.8523973685601225,0.7875229897802665,0.453334725270371,-0.024192219352091815,0.85443054236618,-0.10049323448118264,0.8948504589388129,0.11406301491989623,-0.012865569363619489,-0.41310540210990765,-0.914446112239911,-0.17332434237596472,-0.31659088499638854,-0.6780183970679594,-0.4877692999015122,0.4654469906757468,-0.44373941039574416,0.8163580968993771,-0.8144665618739664,-0.10462443547563938,0.1864032592225382,0.7204115832681413,-0.9859008594098901,0.7526983864020838,0.17857238596201008,0.5648119661477344,0.9388910030516866,0.08303699719374813,0.15076091046111073,0.4916449439688657,0.2397617221859898,-0.8402181032387752,-0.46625837433790607,0.7077134322619871,0.5472144946233204,0.401683780824291,0.1636781509801737,0.17296259758950017,-0.9986196115662371,-0.22524135944313683,0.3147106465201148,0.08185653819863314,-0.467012796878135,0.8051230319138254,0.8252267676668388,0.5941196699879574,0.5824193003799858,-0.47471723856551873,-0.49539266696233586,0.8508115281544943,-0.5806066158972494,0.13538297615797146,-0.6729180157184971,-0.5850453497489536,0.9362067948901287,-0.5672054244625211,0.14416907763283238,-0.5581898898308546,-0.059617853477921035,0.1551795489431631,0.35425350864889293,0.8936163445249876,0.3626831817571663,0.45772651839123846,-0.8848456735599619,-0.9899918196295296,-0.7970670708411292,0.5450607655960165,-0.5751734642098685,-0.7720312794103661,0.298891352763206,0.16472653234562573,-0.8013931865315835,0.0294259615712269,0.867382065199358,0.2317009983010314,-0.9532628547416533,0.19126717892724288,0.8035679100215851,0.9846264563191613,-0.29275491474656645,0.7522200146224689,0.012620771413968557,0.29749656493764776,0.03930971164710706,0.4054109592537438,-0.9265315376602761,0.3229380571355043,0.9650157856792909,-0.21451033860875302,-0.9557509506948678,0.06422829883559977,0.082401183861055,0.610930349197605,0.7050232594033383,-0.12625432288712202,-0.8173661054118633,-0.05665280621077451,0.2680980369109991,-0.701685515828149,-0.3463628856988117,0.5260363855657944,-0.5773548381633533,-0.35450073170775,-0.5494558127739702,-0.5895798894074145,0.13842501189482537,-0.8710258711194021,-0.1606945574545886,0.9113219721940247,-0.7075088826718872,0.864578070983224,0.7985428571119488,-0.5947942654925731,-0.8638397286503052,-0.8654798316829091,-0.03578248003879314,0.9390979927032399,0.8019218335326095,-0.2586651571603791,-0.10648200468438551,-0.11539307769247809,0.3378231113292631,0.43313153783585445,0.2699091144888657,-0.442025920225227,-0.25298101335313694,-0.17960324294491703,-0.34877674201747455,0.31471948681578477,-0.9648197592076131,-0.9412710758972658,-0.7912248322311344,0.9768961834107404,-0.3069792450534894,-0.15556997009581375,0.521983675087194,0.323362335084473,-0.5126703582156038,0.8262614935800632,-0.6856822821147179,-0.653687018511196,0.2564719282533625,-0.0022670113254903423,0.26683450968638955,0.7813804444399064,0.6162132385869374,0.26087519370828294,0.5086092936407753,-0.49482284898582707,-0.5734453102420747,0.3125137161997438,-0.03902467126653075,0.42156823052310766,0.32520228150864283,-0.7110683222224587,0.29627562659896967,0.6981433758806606,-0.21232153402190357,-0.4571937337932841,-0.4766254869416773,-0.6647732521163294,-0.7313380810687078,-0.2885071017955958,0.8226138534386367,-0.8217338090484247,0.35334204851223827,-0.9331551805235765,-0.7185172170279341,-0.04293283706008877,-0.560549982395462,0.270714949917795,0.1728708609592262,-0.8473036988286955,-0.3478751901815036,-0.927305259573699,-0.9032270691530482,0.9435474795778251,-0.3078409700329392,-0.863027541266594,0.4420349817652567,-0.49007229207454506,0.16820991174376165,-0.9989742680104772,0.22527708592103157,-0.5785602827767466,0.5423589260006465,0.925951067590181,-0.30966831682611695,0.3540019914535475,-0.6007005139818355,-0.5637946680695092,-0.8715452885668751,-0.2717572134274193,-0.28408986351842547,-0.27246807744917567,-0.008273596422177398,0.6438366444931214,-0.14293217185317264,-0.5400505531230744,-0.3021266974218213,-0.6495066394070379,-0.19428531231212398,-0.4397887214495477,-0.21219530290389854,0.8118452289121898,-0.9294041834845967,-0.16650996359996273,0.612597270922814,-0.5897919806210019,0.3845673373842662,0.07834595279584944,-0.1840480002538274,-0.7085706196256378,-0.15154748996828116,0.24109293459413816,0.6509082703554456,-0.34197322390468177,0.04445772440440954,0.7230487684783449,0.890865112704947,-0.23113083470428042,-0.7994892690098669,0.3284726958979227,-0.8931891830757954,-0.358215580861319,0.6425505344269078,0.7116708552548645,0.42906262690061325,0.008952089547056286,-0.5097921648317281,-0.049695925133907304,0.09123237523048355,0.42356026235899913,0.9667526435580052,0.09509713326491465,0.27240233289856786,0.5089723357373941,-0.0739571153423566,-0.9480945013110582,0.4084618878325479,-0.8582471385457406,-0.15829273554588918,-0.8423317856090737,0.024990126997854967,0.28627945452963144,0.09820908152847307,-0.811333157644148,0.20519099228412574,0.019928026665447574,0.9171264114406872,-0.3868670810153638,0.8174364201728825,0.7747062554172002,-0.35442507231311127,-0.29212269439702476,0.37271487303313866,0.7471170973258225,0.19820800457707777,-0.8684372484189125,0.9122211623472114,0.7218618835382946,-0.1970903883342332,0.1894265687363228,-0.33403105299586855,-0.06360925957266095,0.5990496269943251,-0.9774702212025312,0.5173231686075621,-0.7733376310840601,0.2517219463658604,0.1612959961336764,-0.4794359458376325,0.7612507343678556,0.13987098104988238,-0.3097136290575426,0.19748465500462276,-0.514567758614829,0.008194379186055922,0.4848134408760765,-0.9459843904751613,-0.6418967021412132,-0.24665468791017697,-0.43104667515433803,-0.1878091347280686,0.5857836396800815,0.594202468765255,-0.7755203587879029,0.24645348038783443,0.049877309829572836,0.5218008734724413,0.43051963859061826,-0.6584594875573362,-0.8482813785588157,0.15883812703903732,0.31413408497738393,0.11370309441297488,-0.2048914490327236,0.4121287492081154,0.028269010328724864,0.12972761465429672,-0.34777792977296107,0.3109518968716203,-0.3807607263300061,-0.5224854217520505,-0.34428348230910055,-0.726565016734952,0.2320120965047776,0.4205428164657101,0.1429701956204279,-0.9436352237897341,-0.8531163265295432,0.6680286345436648,-0.47716708091689375,0.19664378048549347,0.5751258046922556,0.5478797113901737,0.00519604617148306,-0.7830278852146608,-0.3002000406663734,0.7043777174389094,0.8498141206322476,0.00485802886999398,0.273861857196523,-0.8402259987009231,0.5596705595382856,-0.892661271819071,-0.2386773524110528,0.1527551166092349,-0.5187496513845373,-0.5366715002116718,-0.7085357660764777,-0.22044512731976718,-0.7176759752056938,-0.5432657134494558,0.5243268229408418,-0.09420972101228586,-0.375043782395204,-0.871415524505704,0.7735485168020333,0.4065664352195275,-0.8434944354192828,0.10744408924436777,0.8821901519254609,0.4561428711611166,0.4557057518488956,-0.22618100670049968,0.7084943212744774,0.14083723144129268,0.23376627295723118,-0.10012714078727813,-0.8335482743486018,-0.28374572695625644,0.5247253544065753,-0.3044612135201272,0.5353702864553087,-0.7226522723540685,0.7146134186408648,0.5700625765456286,-0.5118436443874805,-0.1236211530458382,0.8850055942942214,0.8398005146193919,0.5042167465816907,-0.18266286961962597,0.046247453818622386,0.5244121663332062,0.16946326305995396,-0.23497337337630952,-0.14846953869731272,0.5528835845716524,0.20270593333824527,0.7030561274283276,-0.23027341694080627,0.9420885134331731,-0.46322211896965126,0.4669783666424714,-0.22715168813457587,0.3517521554641121,0.9495769890311889,0.5979612432296677,0.6849549975779059,-0.9142844055954367,0.2958978341737215,0.4397268405876469,-0.9451043006605151,0.1821462909520668,-0.11091306793720168,0.30536663411559917,0.7961083285012038,0.8450975248908055,-0.7789390172694686,-0.16054714864329567,0.24061444232318752,-0.6398088633456289,-0.5672514892827085,-0.06830044275510794,0.5461185242519286,0.654318548314095,0.2742930254362377,0.17196151104402246,0.7346562336087903,-0.4647750611618855,-0.27472549120960643,-0.005454380326145092,0.8885613708423228,0.8052393235523438,0.9530688180049736,0.45402713863038424],"weights_hh":[-0.32019382093149296,-0.007165397477649327,-0.5598487118583031,-0.37663123059784764,-0.9187246130021209,0.9381278840293026,0.21975332349404386,-0.1733155649582252,0.8703172628801485,-0.23092964217807466,0.5847856189967062,0.4782409537564505,-0.7788423425142768,0.9764701605539965,-0.5133616099219462,-0.16348399064049168,-0.5303277908848232,-0.926634106275718,0.08503999817978558,0.506896906876396,-0.0569048680663804,-0.8771757820188688,0.18901324974327793,-0.7381273679582603,-0.08957093185428322,-0.44849725786138617,0.7448256311590442,-0.5290262438584314,-0.9398565828058087,-0.32027666392999365,0.7109922325788816,-0.02091489308140959,-0.9211005844502074,0.7561685220799292,-0.4968869593779157,-0.18405569279817646,-0.9514208281541836,0.006266341558986754,-0.19320054726627367,-0.7406465767518631,-0.53335194494795,0.8010064517079096,0.9415607408608668,0.2612721989355862,0.11120642166879646,0.269608136621758,0.15499422298596,0.9187773765307512,0.5258889980274226,0.2413957734887906,-0.2085478270761958,0.5133720089830198,0.6263387148432522,-0.9834340551925527,0.30180023818768875,-0.251205775284163,-0.08665230900505927,0.9326141546913334,-0.2546028405352436,0.9853064292541367,-0.6832766954855451,-0.8435598590958162,0.9893944214419879,0.6679962765576213,-0.9352658642875649,0.5264574139055225,-0.9721209729350204,-0.4252801955449501,0.3456740583534834,-0.45854586984181767,0.12288886698504609,-0.8766334501338706,0.04097681744779824,0.5851859297112731,0.1719503462229861,0.3554254853170944,-0.7169311686475923,-0.11558964648812498,0.7462777219039032,-0.18413055768435505,0.9919724419064981,-0.7297423890388666,-0.7210888304707157,0.5615227194775343,-0.041306150773567474,-0.722333039781712,-0.45552983552634596,-0.27339318909938903,-0.5986883052950551,0.7954690866290404,0.16545628121839462,0.8239096781180808,-0.653132592843495,-0.19666519899922497,0.18920778850648956,-0.017539614952915894,-0.7206808329221579,-0.253767908756904,0.4260591015603139,-0.9111503708141959,0.8131351716841804,-0.5706123166398434,-0.9576295564838233,0.4874494167717378,0.9980159989449329,0.3228324127500297,0.5907061870283699,0.169720736959883,0.5999556881864077,0.014660116355576402,0.3250242378772177,-0.49060331746162333,-0.04944301134757034,0.43203746861504433,-0.6535157314466649,0.7094146149081828,0.03874344609226554,0.6485073955324756,0.4521143935203904,0.802250572196791,-0.928423034236918,-0.33700563713695963,-0.6713687004536866,-0.43649488709389006,0.5311130000901316,-0.22097454869809185,0.70393358053586,-0.6539976836308898,-0.9698736070573308,-0.5527362934626778,0.4281650056390014,0.05664486571533889,0.15604034136835865,0.9393083352523761,0.14022077609617312,0.12800187719584288,-0.29086105957113406,0.35863318892176266,-0.1027476986216489,-0.8037220036824779,-0.7940688451828026,-0.3236920184161942,0.5728913977855716,-0.3550522227672863,0.5471155398115117,0.6913512044919976,-0.9112412127846319,0.03407825764278538,0.22165514068978487,-0.033949084714378186,0.465221919740211,0.7384986540342828,-0.9632026959540683,-0.5407577432377588,-0.5545482100544512,-0.017909288000489854,-0.921104398996933,-0.0808462829230423,0.778945885667212,0.16893210993674623,-0.6786850072492585,0.9571613700175388,0.6481904971073038,0.3440889367170372,-0.5236294028065973,0.6521278502345753,-0.8345232050268718,0.326311584640294,0.3124997850020066,0.008020295601377958,-0.814899932692486,-0.5735727524453855,-0.4959732765525251,-0.6092132999769351,0.3015932965037178,-0.6836385695312128,0.24162963736633736,-0.7573164182552972,-0.01635236526611905,0.3100182317824349,0.7859239779478076,0.19751211572363436,-0.9279089019132467,0.5886683881319366,-0.8748277470663068,-0.8371726032785651,-0.41781312091149836,0.6261972885884504,-0.792750590119871,0.044785651301517015,0.8782026329631296,-0.9058118486878952,-0.06865486183293101,0.5495454247237836,-0.05632107244109874,-0.18326660041289022,-0.4702161613495661,0.4817180213191281,0.7034464545736812,0.8486441767244846,-0.10904894812875776,0.7734945585703332,0.18527512080823216,0.16155460197075766,-0.38029114020734744,0.38860799856544737,0.746199560827812,0.4268673529364635,-0.7763469555234421,0.8439297074310741,-0.7669631285472136,0.9142932645017618,-0.7344836398854797,0.20832582624521545,-0.5651872352432046,0.780270425664195,-0.2513130048997618,-0.479005785753289,-0.4364636880649069,0.7970000931126175,0.9641103522502577,-0.6424643422348484,0.8992725716517429,-0.21886894234905974,0.37430375824464246,0.48315524718811176,-0.8689292303140512,0.693635151504923,0.10993585783490967,0.6971952724200983,-0.7056549136131685,0.7605975312034836,0.6789213913092336,0.6429040241565076,-0.3229964065195241,0.46851972355569216,-0.14710523386749874,0.6626912267954308,-0.8896021696913308,-0.2578915152459169,-0.8486054867709376,0.1714327701542533,0.5311876557833974,-0.9540037683417524,0.5226374439399393,-0.4509890621185728,0.8114844067848055,-0.32627882896504623,-0.831044763967127,-0.25061666810523,0.5102504701590258,0.7677820012038052,0.2990962386522791,0.9274926188858679,0.13073765062358156,0.3922611486757117],"weights_ho":[-0.8038106513029606,-0.9899960588269647,-0.7373575206014937,0.773933077974869,0.6305035520102209,0.7353118882738612,-0.39987108900341517,-0.3781460992122587,0.669327188962989,-0.9643799725777875,0.3102655150832243,0.6611953240869877,0.1837772252448231,0.9222218157926139,-0.11288301769524178,0.1156160265399504,-0.03415851323980368,0.6551721614392729,0.5158713139355824,-0.20524089661829237,0.9365006647496554,-0.4982826995245264,-0.5291373965738952,0.47242102880932624,0.14434283403347448,0.23229551709420693,0.8094041107132839,-0.031178018767366922,-0.5022304061188045,0.9622371805389114,0.47721656891535824,-0.9830351319357542,0.6524037240913592,-0.9654793531728578,0.30826994861944335,-0.7906278048033888,0.12304844923940683,0.4639989751071343,-0.23255902312020948,-0.9340286193596163,0.7308825702966555,0.7551165796903843,0.34618211594021653,-0.5049097036335133,0.4222461208765105,-0.6568808735474476,0.6956019107543745,-0.3382903883333461,-0.7690257982664541,-0.21719509696323458,-0.9446788756426201,0.928363559230309,-0.645630542911666,-0.07387316353422468,0.5606786792181324,0.22470977872813025,0.5133129792571545,0.6639839904062954,0.8067365081087206,0.142341221322819,-0.940737422548729,0.22299858098254255,0.5516320099476293,0.325886063766206],"bias_h0":[-0.2898248606630305,0.7525396409608238,0.03911950817883025,0.10874282902687038,0.3642270848630451,-0.3218637995773477,-0.23033256156601256,0.6242954128242237,-0.5950690570255475,-0.6309570924839885,0.3616688795824221,-0.09114265430039281,0.30996800367372623,0.23702767452909357,-0.48285277765182677,-0.8084677410445613],"bias_h1":[0.04778268611865788,-0.6955878198495848,0.577854148699037,-0.9584449981788177,-0.7667340458927807,-0.35902259046153584,-0.6347188294856179,0.5933625515619985,0.7389788770983794,-0.1706717629012402,0.575242757344564,-0.7201425122741918,0.17589661721975447,-0.5261523100398438,0.6808304620236942,0.06903030955754086],"bias_o":[-0.23121610428339556,0.46941695342016376,-0.9759601291309112,0.62393500358271]}