{"weights_ih":[0.6637538483176493,-0.9593309239860588,0.4613705367191865,0.3851316157323055,0.20782253533653128,-0.4504301019704655,0.5733923677154025,0.053074518259878634,0.7489174083424626,-0.49940166345677617,-0.4151333099202539,0.3701535059135237,0.6455374711028243,-0.05318652797042356,0.31959084036306207,-0.5527708166132455,-0.5259975735697098,0.7148326707965993,-0.345576836425568,-0.5124444999937825,0.9221215707717765,0.4008093046666934,-0.2995099037467186,-0.16731049067605563,-0.5350247973223914,-0.7367146824124697,0.16835519362177642,-0.40338927905357513,-0.8605322205407531,-0.8377980579977673,-0.042853223803865914,0.3804100014572338,-0.3476554480937404,0.17154676669512514,0.06729746953161975,-0.5093130863422846,-0.5873566632214353,0.5566755930207887,0.7167982779355906,-0.9572008367853957,-0.40577313987334285,-0.9566803310435039,0.7318400381316681,0.9533864011668465,0.5493468893131894,0.7935352271760747,-0.5790481538065333,0.7763462483986716,-0.019362358663256085,0.6949683653298953,-0.6949455030708018,-0.9705887173219996,-0.01421519498793522,-0.4175902341603497,-0.6773736473432024,-0.9884979235923788,0.6898470512389234,0.47142105004657364,0.8207907491757689,-0.021524381445819696,0.00956397318199187,0.6381536917926096,-0.7695643564779793,-0.9617880536212255,0.25657578726423913,-0.8188590379926262,0.6328243820086437,0.8183574338916126,-0.29533442422513745,-0.5549857397260267,0.8710885424129056,-0.010547662663888069,-0.08312456325948414,0.7345986581643695,0.6152728131326546,-0.15909247590127418,-0.4688052450346758,-0.893357365536259,0.0064812909963103404,0.6655478009037896,0.38188665721144166,0.46978904055443227,-0.7254864396845884,-0.612830047953888,0.9592046105435368,0.24185221372660903,0.1116785954360302,0.9945253804872642,-0.6295549075377178,0.803555716887149,0.9860352136777522,0.7418809826141797,0.26756267865994343,0.7270035110842668,-0.8597986198860046,-0.6381357090924455,0.24220511379849352,0.35304436794195526,-0.014807201389361868,0.09347073673590178,0.7827138305249017,0.18723512173799883,0.7932832806552359,-0.973563056074243,-0.6693178943774962,-0.5814952831793152,-0.6523494616557901,-0.8204040767525904,-0.2565693359068364,-0.22273288031368343,0.38401605869627264,-0.015085736977299202,0.49085727822305447,0.9132134112009125,0.351210123536861,-0.9484279576097365,0.3437911841222778,-0.9701663916880452,0.9747975453800026,-0.9765748459019983,-0.5286501413927804,-0.6647646528381959,-0.9925147606914777,-0.27105863937116537,0.2980938307917185,-0.3207251460835594,0.6568645558021906,-0.5507219981523857,0.4626719164127633,0.8779605895465901,0.5381525690393363,0.09024506392044107,-0.6590253527629302,-0.4216588757337507,0.15706605522020278,-0.48253020107043554,-0.3595187584092585,0.3459655543785327,0.48870424186858386,0.16454449689939388,0.0005523256245354435,-0.43239628303726074,-0.3439906214270998,0.9316710886898083,0.27414928823827367,0.3746240758876074,-0.7872667659379216,-0.4017009946900454,0.09868324088422797,-0.5564385133669532,-0.24925268312846516,-0.7861365425312838,0.8217507308946517,-0.19170947361983415,0.6528588426491662,0.4541016578841772,0.2169687734926402,0.3849787571747376,-0.15131288606060322,0.004367676775818952,-0.16285503741521135,0.3974339956936461,-0.9337120546517734,-0.3179858160132887,-0.13669198654106007,-0.1559846396540323,-0.8167457805018343,-0.636072405276944,0.9408522954628706,0.8922485385462648,0.29893484230037703,0.9247644824125476,-0.650390750742794,-0.2602427441980171,-0.501144343577419,-0.592256679091338,0.5912178110725872,-0.5759617796812655,0.6009756328647811,-0.8507732209414931,-0.7929000411683262,-0.1651311430830047,-0.33291703156604413,-0.49715163297252785,0.7293876573959572,0.3342097152420822,0.31392605419769937,-0.8321744701081915,0.29188152490136177,0.41727565190942406,0.8445359057572013,-0.2539182327828564,-0.278975916450928,-0.8592332138849423,0.5294492002927438,-0.5303300745607105,-0.540388648211769,0.567907739561966,0.6190218088738697,0.09930462183583799,-0.7190990310841607,0.3586894465963988,-0.841140599605017,-0.6925248519979346,-0.9349527102805448,0.08103547844992454,0.9537336757540806,-0.7699441803464033,-0.7732376585693581,-0.39077203378788106,-0.7874223261823512,-0.019279341263632732,-0.46761825741977847,-0.5233444283480742,0.20444186360698957,0.4883892832873846,-0.9251648714495542,-0.04425025868036392,0.7944640261440334,0.9427440146589074,0.8321938099788753,-0.6378873642457228,-0.6136948600116232,-0.4864534049915161,0.7460120862898398,0.42427828959988356,-0.40231547012405944,0.8795989329334017,-0.16348719746769347,0.8428310641202152,-0.8226796685809816,0.23599377872192173,0.8005763003009156,0.36010130849541033,-0.8872672141492337,-0.6216170560441938,-0.8467630115668661,0.7469822469643443,-0.41092732208432503,0.7842905852094479,-0.3379077559097272,0.19702098478082064,0.8117029454171205,0.37696056291930913,-0.6432737916602771,0.016623280462447543,0.9214503161822725,-0.7657379221024003,-0.7392589578153168,-0.8676352657846755,0.9603005322054334,0.34990598956734975,0.9009165538398662,-0.8932510690161428,-0.6778573588938293,0.9866371412912067,-0.22244826791660333,-0.6408615289069242,-0.6193247967664712,-0.5012566589698175,0.9807938895764592,0.4601462721948606,-0.6906557681751724,-0.14159838954072224,-0.3982905508855734,-0.24218926828633847,0.11012420363283626,0.24029075352659213,0.42884326307978515,0.3976588824883507,0.310964101268665,0.03778828786069943,-0.17045571591877207,0.28302244221090267,-0.4529349489906691,0.03028426925686456,-0.8555535933999898,-0.37574597771233065,-0.7582028114610193,-0.4302156419827514,-0.3712971638189495,0.45318044716186834,-0.7125957538280674,0.45139253129167334,-0.5121037089359903,0.8316996393041698,-0.0963573720036901,-0.5956144135869605,0.20957450839431413,0.042753887604824126,0.5165940972624612,-0.9608688518411321,-0.08195622977529937,0.5159236758002721,-0.743812440990834,0.2990811295761009,-0.9579684436887612,0.44179724058358505,-0.4560317303944914,-0.22012504001180488,-0.9834413433827534,-0.8129722035402167,0.5828377689464195,-0.18857559224706755,0.19783624326994165,-0.787659496504596,0.0941447502233046,-0.19896763928042782,0.11793090325118438,0.6704100640481077,-0.19633403611745703,-0.9008697092392564,-0.41198916713153944,0.15374827762397225,0.9051889617672995,0.6842418982588161,0.35878183436340594,0.1374920088037619,0.7866068809609783,0.729660527728841,-0.27655773797800953,0.9928687611319351,0.7731299937701519,-0.032561128000014206,-0.4562146800871656,-0.7761875858247185,0.6633589673642364,0.7764642607050791,-0.506720337036241,-0.8036450420687844,0.2191503708877629,-0.08788390310121885,0.1632597408501253,0.16166751759625586,0.22598145593540564,0.1593161041955371,-0.29064700409447974,-0.20881246636793493,-0.6268707082474814,0.15761372358490355,-0.39324417666815803,-0.2741331487842249,0.7024533816523701,0.5245796855383691,0.47758527220531133,-0.6907402347856981,0.9955816517328995,-0.20360229417212272,-0.9043661642332887,0.8528031035285006,-0.10657965257455237,-0.24737162300773208,0.4291834995444088,0.4703272277278654,0.6251659808179018,-0.8862504613740825,-0.11862793996621446,-0.8428326607290015,-0.6922430067900589,0.5462757745675477,-0.11484054977877767,0.11376270228712859,0.2552832292175047,0.8146704294642875,-0.9370464561619225,0.14212478880277368,-0.4200065967880109,0.03879118792765812,-0.9355340059592476,-0.25231068286940395,0.2830603252319175,-0.08036906983513559,-0.10207271036877463,-0.39232236976488233,0.7476344412855109,-0.7886925842116239,-0.446583081398237,0.8592273557905743,0.3585843650134597,0.08424280628197622,-0.7798076218305989,-0.320754307798353,0.12146320676735178,-0.2941547313230495,-0.9154319302445904,0.6958693858966039,0.9171328734201154,0.45908641615123913,-0.5140765885651737,-0.9896897603646826,0.07692904898651665,-0.12370624202847957,-0.24259317281511983,0.0417833775244707,0.7652824484366345,-0.9414106753878908,-0.6938000469039232,0.3197450930957457,-0.8654901091549767,-0.7718479601243964,-0.9504577721273277,-0.8812585136795481,-0.7532735252629099,0.1651003756805307,0.7223868264169677,-0.44444600009081214,-0.24033386200311435,-0.2311449671557706,0.22875770844140408,0.9991537112708133,0.9970103801917805,-0.2777554915385425,0.7890226524944759,-0.9475561987477561,0.612479626181202,-0.13948527956771684,-0.9014392517088325,-0.612949516759757,-0.6137830834726514,-0.25033746255278033,-0.35002818668702784,0.82712986203509,0.912046370090102,-0.39198029461201656,0.9267384620250749,0.7651937690339643,-0.5291840270909685,-0.022914936266592356,0.41366028277228173,0.9723971576860388,0.23714198223852745,-0.9402129718886716,-0.3252361396627794,-0.45459871740355773,0.19317574920034608,-0.74354097170535,-0.6932131199435649,0.4749505184780529,0.5931879572396739,-0.5448144074337002,0.6566604705506529,-0.8330161141909966,-0.9529345352736964,-0.5372920896719096,-0.8126505738475103,0.22634613147781746,0.5272816896620289,-0.28965329912845306],"weights_hh":[0.40205011819089376,-0.6366238829843718,-0.17124303301844113,-0.0469361705106246,0.1306852951168822,-0.41268164581707234,-0.9279104401373985,-0.9768685786640752,-0.17368537793515149,-0.7786441753749302,-0.6489013377689903,0.8053514884004787,0.4642160268473443,-0.7713040617831504,-0.5298432164970666,-0.16861856056498237,-0.04729707194407662,0.9643876189794922,0.5382499483519354,0.743419299569066,-0.2945474432658701,0.08355787940962678,-0.33423545150210243,-0.36329051362369524,0.3523310182798223,-0.7848809258470484,0.6850414060262306,0.8570772756546947,-0.20917245423986364,-0.7659339345593439,-0.6217079648481125,-0.6302387582015527,0.4986423380698559,0.6919676446697032,0.7321033913119761,0.2128939588339036,0.9469453135856796,-0.9482244091658094,-0.08413427928566053,0.7808689590282112,0.33787093498953324,-0.4256844385562568,-0.37052174917924097,-0.9432933962445309,0.279788812331319,-0.9535276654405342,-0.23911915622102398,-0.3290427512763119,-0.5430043757226055,-0.06429485544292857,-0.2206767705690864,0.2733400091337983,-0.8240418814567607,0.561375155122865,0.3273733589081873,-0.6662092952250778,-0.6291466032116917,0.19415572876795628,0.3679714438547359,-0.04322699916754669,0.4057298568125851,0.8218396684366776,-0.3985912730960981,-0.776870502034479,0.06910188126847827,0.46005873222579785,-0.020385345323090887,0.004001925732818101,0.5706119452373184,0.14416142998249937,0.22434219163709002,0.07633788329069557,0.14744074564811083,0.9739009129199896,0.2288926318299691,-0.4563352251967141,-0.7886654733830027,-0.796359594848721,0.8347057703064811,-0.07049154209698272,0.789404283293154,0.9785008507452155,-0.4188678495135283,0.6101640005122833,-0.7482384143675669,0.47282538280497866,0.49497490511630016,0.9584639033630422,-0.29008422613269946,0.056660799423786656,0.7008422100064686,-0.18213897292682013,0.22636295792328842,0.1494780300153038,0.1386317406316444,0.9996897072816247,0.021702710111633383,0.6064203983602579,0.1451491030999732,0.6542540647076347,-0.815832562700836,-0.36404636672430724,-0.5656778375584293,0.5105414063823255,0.40187400112138905,0.42448562850376215,0.013546030704398193,0.4636844787466132,-0.1961714543353128,-0.036039547695125185,0.7898612028108314,0.897375225226068,0.6953043549492219,0.6615971571715922,0.49583403794940706,0.04572855205043869,-0.41260856625725006,-0.8100228576746342,-0.3768658650737726,0.8297052467158028,-0.42539063461105364,-0.9116740610770526,0.4332832403795426,0.9270168741522244,0.021671361032823855,0.5639825423329672,0.10441344490672333,0.08698973784521336,0.2659945706312077,0.7249178988874481,-0.5556512391078952,0.7687763276645063,0.39472515339516057,-0.12626054149501598,0.30261229921145505,-0.5235891178250263,0.8697346251565707,0.2604958801207855,0.802660860696957,0.37468892719412517,0.43129088362151524,-0.11016869435270338,0.9855718669181495,-0.238985478141446,-0.37376395179154076,0.9867802699487673,0.03898373596956439,0.2811171436034565,0.8702615750403688,-0.0312368119476627,0.8265269208441104,0.5069974606769174,-0.6785801693912454,-0.9160337407991768,-0.3816224426713406,0.21333463275176734,0.793578763119889,-0.44520348075610583,-0.8065240657528179,-0.08586333632366272,-0.028704464075933966,0.6120400222560392,-0.8892897311918824,-0.052854507056542044,0.7093184883201213,0.6712521930944118,-0.13967976491646228,0.3242957088499323,-0.7435737880919071,0.7909366447813324,0.9010406123722094,-0.8643281509725154,0.7403036015608988,-0.30637961628169674,-0.30584818253211643,-0.8079181814560419,0.4478181816099238,-0.4451962476284306,0.775709446830946,-0.46537452553057523,0.34201580692290423,0.5966823941189221,0.530155982224563,0.45339841989612095,0.663669696679962,0.1602501581523268,0.585043973048754,-0.09612329943739728,-0.469410574331256,-0.6477670654025469,0.1337232298502784,-0.8191633271130299,0.015287746866229135,0.3361891893802944,0.0950622347933252,0.9296570568508615,-0.9541964102478908,-0.6643341033723271,0.9880188647584085,0.4216507350340053,0.49459223358650606,-0.08262519286002412,-0.8223620834348917,-0.48065237793825877,-0.36568619473781716,0.35363128917853426,0.8143465459131072,-0.5044818994680944,0.6572577319888251,0.5594237924947827,0.0009129873356161777,-0.2614070782040989,-0.8745587404257835,-0.8058723280937417,0.9530710080149973,-0.17820806959167368,0.6822584961643776,0.3361370973690361,0.5163939814949681,0.8123741322258329,0.61235687625471,-0.6558042738244589,-0.5282698759770299,-0.05245715447197541,-0.09088645011100449,-0.402124524549206,-0.6968271691176053,0.36914858149479346,-0.00371471987377725,-0.4934993221828372,-0.051950761390741285,0.9420161088056644,0.43314422917650486,0.15950065481277687,-0.04577707306357248,-0.0476441448688627,-0.7478168088489963,-0.1487561466854408,-0.7711656607979762,-0.14803857746761717,-0.2629969306881672,-0.8642722787676254,0.184240068621226,0.8156657963003613,0.733304019894788,-0.5923140120181805,0.7471896766899009,0.801074658917569,0.44401776480521504,-0.8006015603211087,-0.24153789142406001,0.7602409931749616,-0.5156277076549398,-0.6564989406411785,0.8414516947538806,0.26333126706853305],"weights_ho":[0.9551084657377009,0.9342865403341007,0.19857262510982276,0.038665439965679615,0.30442053604810604,-0.04784251167275366,-0.45865398617509334,-0.4199266908922068,0.9844391115828712,0.026123648489707385,0.9517637499302796,0.5720300646172778,-0.39405111563682715,-0.3676954878696337,-0.49364134557656913,0.5848600987745132,-0.34097760250621834,0.37030688203525264,0.942364425261305,0.9589440308830386,-0.9436995314697398,-0.8144424809389741,-0.0752248518644636,0.4967776395763106,0.37376473702630975,0.6201856417247922,-0.3600789248778784,0.9876873376318656,-0.0007824415374926286,-0.6468877300311329,0.4850742332283886,-0.2631501082868992,-0.5487124046714031,-0.49066071209795425,0.7614782696820397,0.527501793069709,-0.8048321969804204,-0.43964942686440067,-0.10803432848547567,-0.6557258330323124,0.6863697457746107,-0.7006683103679867,-0.7230086709634456,0.8624601850304707,0.10688019882074484,-0.42321870305635767,-0.06748450622573743,0.178149634032424,0.12797612355285515,-0.7486074904417743,-0.6339744304993116,0.019323025028168628,-0.584939579710114,-0.06806734813540505,0.4942408145769235,-0.41147683012857783,-0.206084783065543,0.6487881755441012,-0.6769365863161865,-0.2217308364699282,-0.12799954343001674,0.4589709255423646,-0.6246558239113447,-0.06087086631693217],"bias_h0":[0.10982153360894786,-0.919821967247803,0.046014736699638625,0.49649751534934494,-0.8882277154336387,0.4662179601275549,0.2762748560606447,-0.9459590807352445,0.6572325912491088,-0.3329449841143488,0.67240252883166,-0.5547136130606127,0.7983752815844876,-0.6353575291902718,0.3194996040123732,-0.361369075712459],"bias_h1":[0.13831798985384092,-0.5794209962228041,-0.8845655887351109,-0.91066013510794,0.5407823051372735,0.1472193887674993,-0.5482499853332325,-0.04759423617254166,0.333032876749513,0.7597407005893106,-0.23128385408086816,-0.09885714884314267,-0.9866437790382736,0.014660272141729491,-0.5495660784045122,0.9982619250025226],"bias_o":[-0.7859825738005384,-0.6931108853513728,-0.5910511392821387,0.18105242728530402]}