{"weights_ih":[-0.9284279570237957,0.1239735570506213,-0.39299772764333385,0.8188498449747892,-0.0708215619967929,-0.1313969705851885,-0.7550404070835679,0.02506175267295574,-0.676484196845349,-0.8391873552440376,-0.4037894178147612,-0.9195535354372322,-0.5485887083459591,-0.012440365333361125,-0.4011176009254238,-0.6155494592856323,0.28038336065596603,-0.6063018228308446,-0.8303065210356708,-0.2966914809599268,0.4011194767778081,-0.7565457141400012,0.28285409631734004,0.8841743848173933,-0.36953024153675473,0.6375768851075101,-0.14468924446149933,0.5275260436677156,0.07900614332928946,0.10841847299247664,-0.9084631151081024,0.6544954420425635,-0.3548006988573924,-0.6999245876361311,-0.01831232967329388,0.38912017065895377,0.5334522845396827,-0.8279993856041479,-0.4034576146358939,-0.8523973685601225,0.7875229897802665,0.9189637098034471,-0.6633281618690143,0.8357474846470483,0.5662762637079217,-0.9452547446513615,-0.9857327627795902,0.4166927099056055,-0.06206233916004433,0.7942270293974523,-0.33938362391475074,0.1060239931509408,-0.6780183970679594,0.08775826937014664,0.4654469906757468,-0.9273694584577739,-0.3720473287467001,0.5193131605017867,-0.2208781111862299,0.7448160948839209,-0.05436864842458511,0.3187967763613886,0.7526983864020838,0.2247540261308636,0.19980097278844844,0.6503954058223451,-0.6219266366395753,-0.1354895696279408,0.7540425829902739,0.2397617221859898,0.3128230206110796,-0.6442756431458481,0.6371997410674557,0.3736227556995291,-0.429304059616874,0.6116642298484671,0.5156820342625743,0.46261976525458093,-0.22524135944313683,0.027350191575215455,0.07595992853953737,-0.9063887400730397,0.07396474399881359,0.9051367873845892,-0.23258826287946088,-0.2041931842668574,-0.37854445338180875,0.011792079381276244,0.11160851522409931,-0.836696199008744,-0.07731999569617765,-0.5243645448539689,-0.46324359550550986,-0.5667080011432026,-0.5672054244625211,-0.15752404368756245,0.3949734793349813,0.06847678333435425,0.5589238995526813,0.6924196185878764,-0.9785642213326919,0.5638843943625804,0.45772651839123846,-0.1760684552333467,0.6020104696803075,-0.40072444431196996,-0.6113265863051869,-0.1184776190975727,-0.7105859502813763,-0.7300302051591181,0.4101442492874454,-0.547340879695331,0.8575368273395259,0.7969246284140474,-0.3971507358002557,-0.8114556306445817,-0.7403661495681568,0.9762349544614508,0.07444393528027327,0.048318793206167276,0.08035000980618512,0.6368417929912895,0.29749656493764776,-0.8111999217190351,0.8750430814407544,0.6089504533183756,0.6295096047297724,-0.387378123613056,0.8693330441162679,0.034596272653855564,-0.18633424407670685,0.359184278810172,0.5804044553238854,0.5025693494971208,-0.38840372803904266,-0.8173661054118633,-0.05665280621077451,0.27732947131363295,-0.4879890522569825,0.3364316294976044,-0.8924518957386358,0.9558458880672478,-0.22392895468726626,0.8241761606702616,0.21785783838871242,-0.8583755809402149,-0.07265437265114727,-0.9087528254363786,0.6343950704726493,-0.5509840926502496,-0.7541225908125877,-0.6473753428090105,0.2880807867952111,-0.0486292774389292,0.023685441174524646,-0.3766623150909614,0.1501521793993985,0.8019218335326095,0.6156054845714944,0.1784381977673577,0.9820381566812775,0.3378231113292631,0.6340992733696904,-0.3198218389803831,-0.04904899733401624,-0.7448114647230164,-0.12899550744901145,-0.4556309751955345,-0.5258265612734505,-0.5556099774224912,-0.8629599647094315,-0.5115980855991173,-0.7754011371790677,-0.031135154661598552,-0.1766250297252323,0.050712773848983206,-0.6512017893282331,0.11657631276217373,0.8262614935800632,0.180803045680632,-0.6957387360787304,-0.4955467947056156,-0.9687134816264775,0.9989898365736027,0.17728160745139454,-0.8400052460236345,-0.6942133480232895,-0.2692834273772611,-0.39055181724990295,-0.5734453102420747,0.3125137161997438,0.9236383883170038,0.05467239408200797,-0.8812229250084906,0.49034850592442236,-0.10791102615259063,0.07838746052195367,-0.21232153402190357,-0.4571937337932841,0.8888779784270562,-0.6647732521163294,-0.7313380810687078,-0.2885071017955958,-0.5593132289187732,-0.9859327185414677,0.9305566899986784,0.3176859508722705,-0.9264478390930655,0.4585178650456503,-0.8815050681704679,0.39255933773474916,-0.4532229842537243,-0.4347375617077325,-0.9189963155435428,-0.4917222203528926,0.34282723398604253,0.8899715457821067,-0.6553651491526418,-0.5109105214849383,-0.8367487928495281,0.5911129224624663,0.8847270573780981,0.883823200917899,0.6624779553661835,0.691382747223273,-0.9775330554134949,-0.9573108277299596,-0.2682157218499359,0.4378687750960164,0.892652688391625,-0.5637946680695092,-0.3750325222377051,-0.5977079823770826,-0.6948209052416772,0.1172191592966274,-0.9528119365578198,-0.5061098895353826,0.7598306933664785,0.2060571626264036,-0.9908378306216143,-0.3010611914718271,-0.3669813244895581,0.4759173814413671,-0.5972017305646962,0.9486029823004323,-0.9294041834845967,0.8386701254050606,0.4031414139677303,-0.5897919806210019,-0.7006813556411096,-0.18642596688745683,-0.46817697831541283,-0.47653120333856513,-0.5543536095446169,0.7121594632442263,-0.7426974734707867,-0.8469368592168318,0.7299428192249,0.6943888296147926,0.890865112704947,-0.5727924594442981,0.3153544993241568,-0.7297740595271089,-0.8931891830757954,-0.6771068418468722,0.9193647402206648,-0.08214792895236389,0.42906262690061325,0.85874505868345,0.946298871006571,-0.049695925133907304,0.09123237523048355,0.5127153988198536,0.689388412099428,-0.22679119173132323,-0.9089388116777237,-0.28013645246897734,0.11207017214087078,-0.1959024185234477,-0.036711333618343334,-0.1722102563377279,-0.15829273554588918,0.6322863219468673,0.02280124079196222,0.28627945452963144,0.43599727342666883,0.6816412725826433,-0.36128695573120506,0.019928026665447574,-0.6427952804525268,-0.028542988341805797,-0.9094977504126647,-0.6621341678552539,-0.8832641771449323,-0.29212269439702476,-0.3196001954793437,0.4838430273780596,0.2808350066752099,-0.6994162125533472,0.47142142085445404,-0.47497691755456994,-0.6292051390964728,-0.38411977308097756,-0.5180910178298437,-0.412922024002111,-0.8858405127195381,0.1928910419179357,-0.5419839684817254,-0.3288010329896973,0.2517219463658604,-0.21790859317771138,-0.7245235619529353,0.7612507343678556,-0.1157654307127387,-0.17964472985727786,0.19748465500462276,-0.9738179565036,-0.1221738876134284,-0.30981149908985794,0.37579979649164263,0.6157339831563267,-0.24665468791017697,0.7602483463246861,-0.5225705409531787,0.5857836396800815,0.9521072558113846,0.9576796842349833,-0.8176220949753303,0.04969563013561107,0.7885370840180421,-0.5390745748677812,0.49413705199706404,-0.52144122900097,-0.6958013039775623,0.6025298152805514,0.9503504924991009,-0.5081713897383278,0.05542384498744757,0.13977131081025607,-0.12952392767501308,-0.264864938147958,0.06470758318070913,0.4454747601219855,-0.9763218153121518,-0.21439034722750172,-0.41791454224626556,-0.6317228972407734,0.4205428164657101,-0.9218474383646842,0.05610422537075754,0.46414834787221104,-0.25969063723273766,0.664619993272122,0.02309941229601664,-0.7487283479441464,-0.1835538079327057,-0.07133690387297165,-0.7830278852146608,-0.3002000406663734,-0.11997290901684754,-0.5429558367028908,0.8720537648364886,-0.14718540984708617,-0.6983359255977781,-0.4616236532442042,-0.5370266434055877,-0.07172788534099217,-0.5610108693240918,-0.18313460816042415,0.8951014649330638,0.909042726062169,-0.4383694999056278,0.9399439025828509,0.5970490359471496,0.9102589702324142,0.43429037484394106,-0.5571966647879363,0.2932559435042077,0.7735485168020333,-0.5993558452072776,-0.758087524282393,-0.3772796400273648,0.48932601934020425,0.8823155982941235,-0.3606060441823906,0.8077965420674635,0.018929085481425245,-0.8740173402503666,-0.7353362709758433,-0.14642606005978354,-0.009414768797662454,0.9924392611063795,-0.4411010391412251,0.34314214922594766,0.5999457208031924,0.5689546414737583,0.6134506236349364,0.7887513793387799,0.683723843807446,-0.08017361917766896,-0.5833944571744756,-0.011599042062597542,-0.763354248372488,0.47887471753347866,0.8262167326786585,0.5159746634010385,-0.2588157702110736,-0.827955334608607,0.6808219025526656,0.4433377962639553,-0.055064750823239805,0.09290261044119719,0.7034556551166953,0.36529123086701243,-0.46322211896965126,0.12931639111564386,0.7843046805398044,-0.12774577473354554,0.8696587796282835,-0.5369348177898676,0.018680746419140748,-0.9142844055954367,0.3403181735449161,0.9381642078770831,-0.4674670534869363,0.6440783744372467,-0.08398891029503375,-0.7112680549491084,-0.09237157052075506,-0.9686811654880771,-0.7789390172694686,0.24947214500784165,0.5865212958267814,0.3163209821172088,-0.4729431654485352,-0.11876717821505833,0.18956593236765018,0.10670192991279848,0.2742930254362377,0.08629584356178199,-0.522347010540507,-0.03880415886287669,-0.5591660667208409,0.12416392872264326,-0.11607660978663903,0.8052393235523438,0.8478146745235824,0.0526135138455881],"weights_hh":[-0.7563225525572717,0.528570468575311,0.6181573886251179,-0.6223945876508012,-0.04432010584235835,-0.9053907483870343,-0.16680019803291923,-0.5650078152777664,0.8703172628801485,0.33706497776403066,0.5847856189967062,0.4789008794276197,-0.28400080808444317,0.9764701605539965,-0.3027609678082528,-0.2448212094938922,-0.5303277908848232,-0.3400718524032862,0.16659248408242266,0.9843733060514104,-0.2850912468961453,0.23330085784141863,0.7241471000686062,0.8911223234278418,0.14866618616420268,0.3226160674629115,0.5509944866384278,-0.13723713795832837,0.61143218733017,-0.32027666392999365,-0.29677909266364644,0.4336888149062543,0.33628068260001887,0.595474741320476,-0.4209251717934863,-0.07522373740409183,0.4799254422246848,0.38974777841946806,0.9865104354470979,-0.13622247995670111,-0.53335194494795,-0.016203349376418208,-0.4987293663634593,-0.9402623975824995,-0.5615071833344087,0.9183272303641024,0.15499422298596,-0.030807724663007408,-0.3390421734887583,0.3329396914258511,-0.07835768047904201,-0.07062347131573432,-0.545050811701699,-0.9554491390546027,-0.6214929535811511,-0.21048647790114527,0.7442601746315327,0.6347084283174507,-0.2546028405352436,0.4225405247039389,-0.9441246248554678,0.4283287605583661,-0.9871392980112113,-0.46746761803773307,-0.9248300158587943,0.9748176334357908,-0.5870489334954778,-0.9101509259095446,0.2881671178481344,-0.6290371447121983,-0.3990197165786473,0.47697120497945145,0.6226025595818991,0.17172042921654906,0.4892756584444109,0.45542300961249893,-0.2581529392098172,-0.5415374708118492,0.8918663236289879,0.1239228306083211,0.4622065454283588,-0.18275041612128873,-0.6442092333157032,0.24635093175377465,-0.8581526952118428,-0.722333039781712,0.5705725409232549,-0.011668008665041585,-0.2453262471135278,-0.033257810249668784,-0.1864016523582992,0.8239096781180808,0.3145574402543603,0.7772403524148521,-0.44938204383314706,-0.6074051463672472,0.14258597243190851,-0.7782155197371601,-0.07589333586017477,0.38773544714047126,-0.03285856188849423,0.023803807347899886,-0.8777816121031172,0.4874494167717378,0.1386402961747557,0.8905771400703646,-0.5541906542163066,-0.15397593083360372,-0.5445287794651648,-0.4473250530849564,-0.8078347254767329,-0.4137831537199741,0.015253679283481647,0.25247316034937417,0.987227168673442,0.38027968876845963,0.46130408646008636,0.5043629172232438,0.12942365957921487,-0.8613264523779756,-0.09133833449328854,-0.17051895293027775,0.3633080934853332,0.9459206711346089,0.25572396881754833,0.09572751715113337,0.47085189407137484,0.7260534796197289,-0.7660556497966649,-0.46937554746049015,0.8785367497047745,-0.1664306057433642,0.7997687664646824,-0.5326640220110752,0.2720914473843723,0.4805344377227554,-0.8319572916753528,0.29360403878366714,-0.19956753446796016,0.11849687279844856,0.5056760867076382,-0.4263484973470364,0.6134767416763947,-0.6066528819155923,-0.2276848104007212,-0.966978416860671,0.684177259174471,0.8718580176994533,-0.47033855419705084,-0.6080200761676364,0.28287173516151465,-0.283814343245538,-0.22269357779222343,-0.19192938067514542,-0.6816008186168441,0.6046495089552455,0.6598378452976763,0.6325286736257496,0.778945885667212,0.5493050357894789,0.8302766527153966,0.8868981920904448,-0.5604194492588623,0.8991535202938505,-0.4819921699310685,0.8161493582555293,0.5863379847476589,-0.9477473040085596,0.82044164666886,0.7762254157602424,-0.814899932692486,0.16060124070748882,-0.5213507599331175,-0.6318139363709558,0.8739129477960519,0.19268607504695656,-0.9546636676426408,-0.47296663609159983,-0.7660799308210324,-0.7763697082619962,-0.2542835618109638,0.19751211572363436,-0.9279089019132467,0.5262131384906616,0.3295320690436494,-0.8371726032785651,-0.7003910622114984,0.22193325063161362,0.7668477556863322,-0.6846049563912382,0.439466926427148,-0.1827211543976024,-0.44294607821443144,-0.6655791017738548,-0.9257111808370269,0.6826496779337607,-0.14565652615734193,-0.31375739417187365,0.3384330761672796,0.7374104260093826,0.36803711251444016,0.5144393661311661,0.0665020989099181,0.16155460197075766,0.6328919216226636,0.21096024691217163,0.746199560827812,0.23907663647523347,0.9023577713843864,0.06178536935138346,0.7615825777396013,-0.28031334657927554,-0.6756026409511373,-0.31655835792111975,-0.5651872352432046,-0.9901204932334804,-0.9940653048595556,-0.562602166127774,-0.10246524857241734,-0.6158611935417759,0.9537709402917403,0.6541567492251599,-0.7733540214822674,0.9785953395087996,0.4941336725382799,0.7802750382681996,0.043784743278399096,0.693635151504923,-0.265406547257923,-0.012337582594914354,0.7298421739800853,-0.4679886716621935,0.6789213913092336,0.6429040241565076,-0.805160319238365,-0.9264753815087676,-0.14710523386749874,0.6626912267954308,-0.22229263952464762,-0.7182920497962477,0.8165077955185818,-0.21989641248431058,0.8267499228285144,-0.9540037683417524,0.5226374439399393,0.44683965048568797,0.45177395286517386,-0.8968222604074705,0.9178429681557461,-0.4534700823001758,0.5102504701590258,-0.29578746288497815,-0.9160585250827402,0.25252246317272076,0.13073765062358156,-0.7784083547782106],"weights_ho":[-0.8038106513029606,-0.9899960588269647,-0.7373575206014937,0.0827273807017661,0.6305035520102209,0.8265341931477852,-0.7816615984469086,0.953062027620762,-0.042118420095430986,0.6423840792886042,0.3102655150832243,0.6798642471567877,0.1837772252448231,-0.33351610057183123,-0.4954915666264956,0.5587379405052426,0.6582231385930881,0.017078276854579855,0.49289933796004504,0.43103568689615157,0.4925724484870071,0.1345845231078513,0.04419121840896034,0.13164297363284683,0.2977816392026795,-0.44827676599879895,0.09593593908986975,0.520452594910781,-0.21684186069161537,0.07533616808919086,0.3966184875487442,-0.6288834598587569,0.6524037240913592,-0.492143795675696,-0.03261061844102131,-0.4306730791569118,-0.16227302242505792,0.5976234876962863,-0.29536735963334504,-0.23678949806153682,0.24034416294099437,0.6277935906089833,0.1622408404743121,0.8398260375027524,0.990715225719655,0.10550170994844588,0.08782086079906493,-0.4304119683722729,0.7101003232306082,-0.02785411768784818,-0.9680494382726628,-0.5924833883070919,0.10097927765924886,0.8974389039832347,-0.9298700800984132,-0.20209309581142176,0.29735762557593404,0.6639839904062954,0.8067365081087206,0.9813319285185906,-0.14545402151713427,0.22299858098254255,-0.8784867584618998,-0.09347848567360684],"bias_h0":[0.3916780372606121,0.868635605733699,0.23625565344993849,-0.6201328537096855,-0.6593830554227482,-0.3218637995773477,-0.6818177475040625,-0.6213236009943419,-0.12016174752690079,-0.688764765152174,0.04952177648027245,-0.09114265430039281,0.1251624166568579,-0.7899119715228526,0.6213316802752225,-0.8084677410445613],"bias_h1":[0.2765439250299875,-0.7736410010702062,-0.9907378326719185,-0.21728437225511854,-0.8192076406161746,-0.8828605036841917,0.9869353689668696,0.40133630433464407,-0.21722792317026007,-0.5519980650478569,0.575242757344564,-0.7201425122741918,-0.31078234986540965,-0.009773269156031494,-0.9737847804490889,-0.39149380509184195],"bias_o":[-0.21856633436983564,-0.7284979130653335,0.32684975354153734,0.5123187591688199]}