{"weights_ih":[-0.8342969971393359,-0.7027948301567648,0.42285661004381137,0.8188498449747892,0.856610390206817,-0.8303769384224142,-0.6983347142453102,0.053074518259878634,-0.1871453238972196,0.002283781576599031,0.8617598358219869,0.3701535059135237,-0.5485887083459591,-0.05318652797042356,-0.4011176009254238,-0.5527708166132455,-0.8999674716569332,-0.16694583124950957,-0.8303065210356708,0.9934355328158277,0.004168428070468355,-0.5556571386457771,-0.8704895651404876,-0.2155239912687663,0.3514748904935616,0.003545404792777873,-0.14468924446149933,0.5275260436677156,0.07900614332928946,0.06696663504541234,-0.042853223803865914,0.6544954420425635,-0.3548006988573924,-0.5066423385631198,0.8414442534650259,0.38912017065895377,0.5334522845396827,-0.4119197357508415,-0.11202811701632087,0.2388688487285786,-0.19296076658132488,0.9189637098034471,0.7318400381316681,-0.6121618461056368,-0.6279104400891742,-0.9452547446513615,-0.5790481538065333,0.4166927099056055,0.1653565190650217,0.7942270293974523,-0.6949455030708018,0.1060239931509408,0.2990904738623712,-0.4218863591401898,-0.7965432965900192,-0.6028198699285785,0.7981314532190511,-0.9204052654402091,-0.2208781111862299,0.32680806664243556,0.00956397318199187,0.3355732521165964,0.08871280425832184,0.2247540261308636,0.19980097278844844,0.6503954058223451,-0.6219266366395753,-0.11396417775137713,0.7540425829902739,-0.8231297396551513,0.3128230206110796,-0.6442756431458481,0.6371997410674557,0.3736227556995291,0.5295826962512671,0.6116642298484671,0.5156820342625743,0.46261976525458093,-0.3821795706097757,0.0247430623450573,0.38188665721144166,-0.9063887400730397,0.06604562868869879,-0.09993629239614266,0.07136624884605358,0.02068051982835506,-0.7617525476793661,0.011792079381276244,-0.7035960179740048,-0.836696199008744,0.550024383928621,0.04451907269211719,-0.46324359550550986,0.9212963729993315,-0.1640437894794582,0.19448486952296729,0.3949734793349813,0.35304436794195526,0.8556866578581148,0.6924196185878764,-0.21773962214520726,0.5638843943625804,0.21178836189365624,-0.1760684552333467,-0.6693178943774962,-0.40072444431196996,-0.6113265863051869,-0.06759834921678931,-0.7105859502813763,-0.6837059436324107,0.4101442492874454,-0.9641705053655076,0.8575368273395259,0.9132134112009125,-0.8202120342593038,-0.8114556306445817,0.3437911841222778,0.9762349544614508,-0.37343098745983716,0.048318793206167276,0.25670176949886714,0.2819823263397925,-0.9925147606914777,-0.8111999217190351,0.2980938307917185,0.7510481864099259,0.6295096047297724,-0.387378123613056,0.6905792004309637,-0.21796895836487384,0.5381525690393363,-0.6026102220412826,0.5804044553238854,-0.4216588757337507,0.15706605522020278,0.7293601706851021,0.46070472629466597,0.4519490811103488,-0.4879890522569825,-0.9069327708761963,-0.5575907981436943,-0.15115190601904782,-0.22392895468726626,0.8241761606702616,0.21785783838871242,0.3746240758876074,-0.07265437265114727,-0.4017009946900454,0.6343950704726493,-0.5509840926502496,-0.7541225908125877,-0.7861365425312838,0.2880807867952111,-0.0486292774389292,0.023685441174524646,-0.9742504169588022,0.1501521793993985,0.9868742789408393,0.6156054845714944,0.004367676775818952,0.9820381566812775,-0.3767346089458279,-0.724514893238722,-0.3198218389803831,-0.04904899733401624,-0.7448114647230164,-0.38124237577013065,-0.4556309751955345,-0.41173127090349704,-0.5556099774224912,0.08830610407698125,-0.19712295990062634,0.03090463254989828,0.5136018696451798,-0.1766250297252323,0.050712773848983206,-0.6512017893282331,0.11657631276217373,0.291360190115759,0.180803045680632,-0.6957387360787304,-0.4955467947056156,0.7226090276504469,0.022461345483046236,0.17728160745139454,0.5760447159509465,-0.6942133480232895,0.04175180928206634,-0.39055181724990295,-0.00377723153319498,-0.5027226962632889,-0.8045674218064911,0.05467239408200797,-0.8592332138849423,0.7946760661816907,-0.9905953630094848,0.07838746052195367,0.567907739561966,-0.013403133942880396,-0.7003017268826832,-0.40938250120941233,-0.22390256063184633,-0.8335976056201828,-0.5593132289187732,-0.20047191575990775,0.9305566899986784,0.3176859508722705,-0.8117497879611315,-0.7732376585693581,-0.8815050681704679,-0.7369585360096416,-0.4532229842537243,-0.46139804393371975,-0.9189963155435428,-0.4917222203528926,0.34282723398604253,0.8899715457821067,0.7668634295034928,-0.5109105214849383,-0.8367487928495281,0.8321938099788753,-0.9202673295006658,0.883823200917899,0.9346168302912465,0.691382747223273,0.42427828959988356,0.4212059117668474,0.8795989329334017,0.11679711668759718,0.892652688391625,0.9911228098150631,-0.3750325222377051,-0.5977079823770826,-0.09414860623300814,0.9930639672424741,0.8607729181431454,-0.9729044690287139,0.7598306933664785,-0.5809472667037561,-0.9908378306216143,-0.3379077559097272,-0.07505501001894022,0.14298271143921748,0.002471009236731936,0.9486029823004323,-0.6370740366797698,0.262507435590249,-0.24687333657772825,0.5422066194561741,0.8886940425485965,-0.18642596688745683,0.34990598956734975,0.3806368445248267,-0.5543536095446169,-0.5945266188586882,-0.6800737107064918,0.2088562892645227,0.7299428192249,0.07159419291983715,0.051364988895206354,-0.6399357334817346,-0.433420201766221,-0.7737788429092056,-0.6038415108418431,0.5696062245824265,0.9193647402206648,-0.08214792895236389,-0.4176776151821662,0.25468354832007645,0.946298871006571,-0.5352490206298017,0.03778828786069943,-0.7214692432752208,0.28302244221090267,0.04635388183120703,-0.9089388116777237,-0.8892979160761125,0.8300215208435386,0.21324124666193822,0.699140692625225,-0.1722102563377279,0.85286190328,-0.34060236087873896,0.6418700831259985,0.3766254028802014,0.43599727342666883,0.8087777342673388,-0.36128695573120506,0.20957450839431413,-0.6427952804525268,0.5665283573963042,-0.9094977504126647,-0.6621341678552539,-0.8832641771449323,-0.47514297153285034,-0.3196001954793437,-0.2979825715309903,0.44179724058358505,0.24815901309028288,0.6827827203036345,-0.5381916807336029,-0.8129722035402167,0.3117904178911908,0.5187120011157142,-0.412922024002111,0.2313792570712263,0.48720704949837557,-0.5419839684817254,-0.3288010329896973,0.14952943139361685,0.49758189921449447,0.5622300495828407,0.5682439198873042,-0.1157654307127387,-0.17964472985727786,0.1298347666036943,-0.399188325758298,0.8650584547820375,-0.30981149908985794,0.027626766639117672,-0.27655773797800953,0.8943995673382075,0.6020861431943183,-0.032561128000014206,0.7198378396926117,-0.7761875858247185,-0.08665064722548643,-0.6151149808349292,0.04969563013561107,0.22030158612806527,-0.5390745748677812,0.6140518739107386,-0.52144122900097,0.6740511184592943,0.871214678326709,-0.8047591181768152,-0.5081713897383278,0.05542384498744757,-0.6268707082474814,-0.6914448496868406,0.10434503625964586,-0.8100282855490029,0.6391064564506945,-0.01096830005608318,-0.21439034722750172,0.7779501835836877,-0.6317228972407734,0.7006019507353409,-0.9218474383646842,-0.6015505426224412,0.46414834787221104,-0.25969063723273766,0.4291834995444088,-0.12655753625597965,0.9782979478829767,-0.2552012922769198,0.4317473408157151,-0.8428326607290015,-0.28582248454194126,0.9162528025344367,-0.5429558367028908,0.8720537648364886,0.2552832292175047,0.8146704294642875,0.9772019941951213,-0.5370266434055877,-0.9947882904713654,-0.5610108693240918,0.6291022484590081,0.8951014649330638,0.2830603252319175,-0.19895534143035354,0.9399439025828509,-0.26587799705130877,-0.7211334221097938,0.43429037484394106,-0.5571966647879363,0.2932559435042077,0.23314591009337016,-0.14850124141491272,-0.8599177440345684,0.4348231444513475,0.19041135643354146,0.5476342114583503,-0.3606060441823906,0.6958693858966039,-0.6000457431386088,-0.8740173402503666,-0.7353362709758433,0.4728564380040965,0.07692904898651665,-0.7500457045487576,-0.4411010391412251,0.34314214922594766,-0.9123651951410794,0.7224254430654133,-0.6938000469039232,0.7887513793387799,0.7620996893078684,-0.08017361917766896,-0.20200889809013,-0.43648198859332354,-0.763354248372488,0.8329857888605028,0.7223868264169677,-0.4198793452330425,-0.22411939294830296,-0.827955334608607,0.22875770844140408,0.04682182358174525,-0.055064750823239805,-0.2777554915385425,0.7034556551166953,0.36529123086701243,0.41836380379780347,0.12931639111564386,0.7843046805398044,-0.1028544022260609,0.06431696630322614,-0.5369348177898676,0.9348375408313638,0.82712986203509,0.912046370090102,-0.6591903800109471,-0.25390172210275486,0.6440783744372467,-0.08398891029503375,-0.3272383425280603,-0.030504660856451205,0.5544348750612387,-0.03284881767111281,-0.9402129718886716,0.23513779114019906,-0.45459871740355773,-0.18644438566556643,-0.11876717821505833,0.18956593236765018,0.10670192991279848,0.624171665725419,0.08629584356178199,0.6566604705506529,-0.03880415886287669,-0.5591660667208409,-0.5372920896719096,-0.11607660978663903,-0.4144191442746412,0.012142025150235325,-0.28965329912845306],"weights_hh":[-0.577055510596316,0.1247836139108136,-0.17124303301844113,-0.6223945876508012,0.1306852951168822,-0.7070942350663638,-0.16680019803291923,-0.5650078152777664,-0.8101642002983278,0.1765081955306571,0.10856333293831555,-0.8843573676596199,0.5089818210273032,0.3220641861982041,-0.8593399104755197,-0.2448212094938922,-0.22803267493646495,-0.3400718524032862,0.16659248408242266,0.9843733060514104,0.7740585228617212,-0.4519133807801221,-0.33423545150210243,-0.36329051362369524,-0.880349765047937,-0.7848809258470484,0.5509944866384278,0.8570772756546947,0.61143218733017,0.5643246816488257,-0.29677909266364644,0.5343736748119376,0.33628068260001887,0.6919676446697032,-0.004502280796644831,-0.07522373740409183,-0.3881165064075536,-0.9482244091658094,0.9865104354470979,0.2568550849829705,0.33787093498953324,-0.016203349376418208,-0.4987293663634593,-0.9432933962445309,-0.5615071833344087,0.9183272303641024,0.07595450059591813,-0.7557839255268819,-0.5430043757226055,-0.06429485544292857,-0.26765985535903813,0.9692043860352109,-0.8240418814567607,0.561375155122865,-0.45983983801470796,-0.21048647790114527,0.8867007047613693,0.6229313522806244,0.34516056890464397,-0.4068839587724771,-0.9441246248554678,0.4283287605583661,-0.5556807108710387,-0.46746761803773307,-0.9248300158587943,-0.9845352691024267,-0.5870489334954778,-0.9101509259095446,0.03679386108644134,0.18455620744034662,-0.3990197165786473,-0.785997310183371,0.6226025595818991,0.9874973156592697,0.20262105959886156,0.45542300961249893,-0.0007638276748043182,-0.5415374708118492,0.8918663236289879,0.1239228306083211,0.7628602085232326,-0.18275041612128873,-0.4188678495135283,0.6101640005122833,0.9679782169903413,0.6081782378213281,0.5771812363569839,-0.011668008665041585,-0.7187607631994724,-0.9736008525459261,-0.1864016523582992,-0.4047259160299772,0.4106871697374894,0.7772403524148521,-0.18516022678331434,-0.8348925977447061,0.14258597243190851,-0.7782155197371601,-0.07589333586017477,-0.19203196740696327,0.6916128598457143,0.023803807347899886,-0.8777816121031172,-0.9661915439000179,0.40187400112138905,0.8905771400703646,0.710924468640618,0.07810147739175921,-0.1961714543353128,-0.4473250530849564,-0.8078347254767329,-0.8333304411113247,0.015253679283481647,0.25247316034937417,0.1298215579218731,0.6080656221640832,0.46130408646008636,0.2432926009584111,0.12942365957921487,0.8297052467158028,0.9816871944138432,-0.9116740610770526,0.4332832403795426,0.9459206711346089,0.25572396881754833,0.6567667970362367,0.47085189407137484,0.7260534796197289,-0.7660556497966649,-0.46937554746049015,-0.5556512391078952,-0.1664306057433642,-0.5776306106659694,-0.19596360231575916,0.30261229921145505,0.4805344377227554,-0.29426123334418675,0.2604958801207855,0.688167087276707,0.11849687279844856,-0.437351486894594,-0.4263484973470364,0.6134767416763947,-0.238985478141446,-0.37376395179154076,0.46409366137587127,0.3505383033076652,0.8718580176994533,-0.8963404320301165,-0.11394496923485864,0.8265269208441104,-0.283814343245538,-0.22269357779222343,-0.19192938067514542,0.00017863435561804586,0.6046495089552455,-0.6822731076895163,0.7561993282903579,0.05169865640558147,0.5493050357894789,0.9960218243446282,0.8868981920904448,0.6369219213758286,0.8991535202938505,-0.4819921699310685,0.22023881141317792,0.5863379847476589,-0.40032117651854393,-0.7435737880919071,0.7762254157602424,-0.546675706039566,0.16060124070748882,-0.5213507599331175,0.7696658026982099,-0.3469973441047389,0.360683760483568,0.4478181816099238,-0.47296663609159983,-0.1027378146133866,-0.8514913127905812,0.13212535251462043,-0.3263594028296424,0.5895873539614604,0.6967130135990725,0.3295320690436494,0.1602501581523268,-0.7003910622114984,0.22193325063161362,-0.4265348005703431,-0.6846049563912382,-0.4878866970840272,-0.1827211543976024,-0.44294607821443144,0.640597193994221,-0.9257111808370269,0.5322559312873414,-0.14565652615734193,-0.31375739417187365,0.3384330761672796,-0.628369749682997,0.36803711251444016,0.35801546326515843,-0.29233442971617274,0.23914153112216363,0.6328919216226636,0.5702216754534459,-0.048073939296017,0.23907663647523347,-0.18981156936821098,0.7597527886771391,-0.6984701045793011,-0.28031334657927554,-0.48828203126906744,0.6427043686921927,0.9530710080149973,-0.17820806959167368,-0.8465910902167442,-0.562602166127774,0.9164850136012985,-0.6158611935417759,0.9537709402917403,0.6541567492251599,-0.5282698759770299,0.9785953395087996,0.4941336725382799,-0.16005879465588535,-0.0823993820244091,0.6373026853153241,-0.00371471987377725,-0.012337582594914354,-0.051950761390741285,0.8661359882379582,-0.9462412883913971,0.15950065481277687,-0.805160319238365,-0.9264753815087676,-0.7478168088489963,-0.16321496244434286,0.007723956877374372,-0.4819533795874338,0.2609622700867613,-0.21989641248431058,0.8267499228285144,-0.7834143933683124,0.40213268551713566,0.44683965048568797,0.30649269483425146,-0.8968222604074705,0.38593493232607146,-0.5746368705904816,0.9106594592994517,-0.3141203735894291,-0.5156277076549398,-0.8028454363052167,0.7375607471693593,0.40121828655809666],"weights_ho":[0.39459855865302007,0.6374477494925024,0.5612174082695507,-0.3638215951724917,0.2124529019283503,0.8265341931477852,-0.30136749811474295,0.953062027620762,-0.042118420095430986,0.026123648489707385,0.2766845862831797,-0.806239396982795,0.002390483428474477,-0.33351610057183123,-0.4954915666264956,0.6480761746452779,0.6582231385930881,-0.08987939793269972,0.49289933796004504,0.9589440308830386,-0.8402112743658234,-0.4588585120264097,-0.0752248518644636,0.4967776395763106,0.34411776647784476,-0.24771191089129885,-0.3600789248778784,0.520452594910781,0.8685011232078983,0.1054433423887855,0.04378787997648059,0.15087338179831478,-0.23233009929148762,-0.492143795675696,-0.03261061844102131,-0.9667912965246566,-0.8048321969804204,-0.43964942686440067,-0.29536735963334504,-0.3277864070514884,0.10654657803838297,-0.8951756285817365,-0.7230086709634456,-0.6288303718461472,0.990715225719655,0.10550170994844588,0.4072455536045565,-0.2035496163173307,0.7101003232306082,-0.02785411768784818,-0.9680494382726628,-0.5924833883070919,0.20410019056064366,0.8974389039832347,0.2934586752608064,-0.20209309581142176,0.29735762557593404,-0.14690646388362816,-0.9255639241473852,0.9585428392430293,-0.14545402151713427,0.7303091863809368,-0.8784867584618998,-0.44952928786939017],"bias_h0":[0.3916780372606121,-0.8888712586113694,0.23625565344993849,0.7017044769265584,-0.450797169002211,0.01906644918081013,0.21966615824933555,0.31348351584441025,0.30985310269213784,-0.688764765152174,0.2911922911182865,-0.8089894932812387,0.2675608238338405,-0.0767229171960564,-0.35259979102911276,-0.3325833817771848],"bias_h1":[0.2765439250299875,-0.7736410010702062,-0.8845655887351109,-0.12243499375103872,-0.8192076406161746,-0.8828605036841917,-0.5482499853332325,0.40133630433464407,0.333032876749513,-0.5519980650478569,0.5502175494327206,-0.09885714884314267,-0.094566270320259,-0.009773269156031494,0.4558114108922189,0.9982619250025226],"bias_o":[-0.5992481620924706,0.606643700494639,-0.5910511392821387,-0.7130556809153712]}