{"weights_ih":[-0.8342969971393359,-0.40340689746181746,0.812043711750033,0.7013690798293779,0.856610390206817,0.4406945605276873,-0.6983347142453102,0.02506175267295574,0.4362618140804768,0.7191662424749703,0.5997930363743147,-0.2398896816360554,-0.5485887083459591,0.2124731839846663,-0.9045351875312313,0.14477428101735645,0.6908608367657847,-0.16694583124950957,-0.8303065210356708,-0.404479965917214,0.3891154605651752,0.05853891967933689,0.2624375087052344,0.24124993733624756,-0.36953024153675473,0.1063624251343982,-0.14468924446149933,0.43792214407344865,0.07900614332928946,-0.250341483443701,-0.9794685605903739,-0.1417680608140237,-0.3548006988573924,-0.5066423385631198,0.8414442534650259,0.38912017065895377,-0.6655322908438912,-0.4119197357508415,0.5386088232947379,0.2388688487285786,-0.19296076658132488,-0.25989144394165065,-0.16018640046017274,-0.6121618461056368,-0.3121691519764065,-0.5947811646394359,-0.9857327627795902,0.4166927099056055,-0.5792185674899417,0.9363774959361981,-0.5626338570494531,0.1060239931509408,-0.866447481103541,0.27239210180691953,-0.7965432965900192,-0.6636284674444204,-0.3720473287467001,0.29554361752107106,-0.35932449302569025,0.8617035302255909,0.7712363765117092,0.3355732521165964,-0.6062424225153515,0.2247966782608135,0.19980097278844844,-0.5834440428179464,-0.6219266366395753,-0.9896966778566321,0.9222117364983939,-0.5035585909419062,0.7755067950368078,-0.6442756431458481,0.6371997410674557,0.37350204940969234,-0.429304059616874,0.19642769162815354,0.5534034344806273,-0.5846144931024932,0.2569241804855211,-0.6355558225082862,0.0940616489607029,0.9143217856537054,0.3356807701402307,-0.544399963687169,0.07136624884605358,0.05088741168926281,0.5218969780305427,-0.2907615590241912,-0.7035960179740048,-0.09472659127275107,0.550024383928621,0.04451907269211719,-0.10986856832658654,-0.10869303641871708,-0.6278456549026179,0.19448486952296729,0.3949734793349813,-0.1133882981840666,0.8556866578581148,0.6924196185878764,-0.565368914797836,0.5638843943625804,-0.17915416322884958,-0.1760684552333467,-0.8333060347251349,-0.40072444431196996,-0.6113265863051869,0.5699495941131414,-0.8726417450922628,-0.29423859822373766,0.4101442492874454,-0.547340879695331,0.8575368273395259,-0.8327362894920545,-0.24975260771592311,-0.8114556306445817,0.6569368533067781,0.9762349544614508,-0.37343098745983716,0.048318793206167276,0.25670176949886714,0.2819823263397925,0.7687024227791206,-0.8111999217190351,0.4461625543658616,0.670367773479204,0.6683817015443825,-0.387378123613056,0.6905792004309637,0.1734498636027244,0.07848392999618503,-0.7899349242570883,-0.28814557501097937,0.8220704328052535,-0.10319234988660475,0.7293601706851021,0.15017725471423615,0.27732947131363295,-0.4879890522569825,-0.9069327708761963,-0.5575907981436943,-0.7439537235303311,-0.22392895468726626,0.8241761606702616,0.21785783838871242,-0.09974100281018661,-0.07265437265114727,0.49786905389233116,0.6343950704726493,0.4387476183391372,-0.7541225908125877,0.053873554376116406,0.2880807867952111,0.9607036531628346,-0.13879561439919752,-0.9742504169588022,0.22288142144487422,0.9868742789408393,-0.2994984711004802,0.1784381977673577,0.23878394063809938,-0.3767346089458279,-0.724514893238722,-0.3198218389803831,-0.04904899733401624,-0.7448114647230164,-0.38124237577013065,-0.4556309751955345,0.5161434450043145,-0.5556099774224912,0.08830610407698125,-0.5545061771202295,0.03090463254989828,0.5136018696451798,-0.1766250297252323,-0.5598774306282259,-0.15837499311943315,0.11657631276217373,0.291360190115759,0.180803045680632,-0.5295978012324618,-0.4955467947056156,-0.4766637808124523,0.9990547218583692,0.06824377696127493,0.5760447159509465,0.9444459219259052,0.4603040156917175,0.8397806115514914,0.16190683263179984,-0.5027226962632889,-0.6886567574141964,-0.8695700487269216,0.20909021544873196,0.7946760661816907,-0.25266550911340024,-0.09500830181898534,0.36192661283226935,-0.8680417014706665,-0.7003017268826832,0.7225419841140879,-0.22390256063184633,0.179849147654372,-0.5593132289187732,-0.20047191575990775,0.9305566899986784,-0.8341701915103994,-0.8117497879611315,0.3164664077442796,0.1339760252215918,-0.7369585360096416,-0.4532229842537243,-0.876658564652222,-0.6443836636667195,0.445386794662882,0.34282723398604253,0.9779589324032727,0.8592108374249103,-0.5109105214849383,-0.4885375786837298,0.7519263755257666,0.41418554171495203,-0.896971474887047,0.9346168302912465,-0.8280298984731767,0.7778872675596842,0.4212059117668474,0.2785885235236423,0.9795641901069945,0.46360217401763615,0.9911228098150631,-0.3750325222377051,-0.5856360043520759,-0.6948209052416772,0.9930639672424741,-0.8995874664853962,-0.40558639149769093,0.10272822486897448,0.7470985783335728,-0.28458362019131345,-0.9032652621384554,-0.3669813244895581,-0.606083874387946,0.002471009236731936,0.9486029823004323,-0.6370740366797698,0.262507435590249,-0.24687333657772825,0.5422066194561741,0.3826833260324609,0.5845889406736002,0.9173062769700144,0.3806368445248267,-0.5543536095446169,-0.32896603205412744,-0.1599142997781855,0.9130441332216945,0.7299428192249,0.07159419291983715,0.051364988895206354,-0.6399357334817346,-0.6874344609547833,0.4670804792069385,-0.6038415108418431,0.5696062245824265,0.6819406716069718,0.5900488240984358,-0.4176776151821662,0.25468354832007645,0.946298871006571,-0.6549406131757476,0.49582890650756717,-0.7214692432752208,-0.3812672164959541,0.579391568538677,-0.9089388116777237,-0.9143462135751534,0.11207017214087078,-0.4237693885902536,0.699140692625225,-0.1722102563377279,0.85286190328,0.935878351184465,-0.17467148170052016,-0.9632015337644368,-0.38283757728776524,-0.7689914996860807,-0.14311190171968446,-0.843580438408073,-0.40314485973596237,0.5665283573963042,-0.9094977504126647,0.3968409594171345,-0.8832641771449323,0.841609371486568,-0.3196001954793437,-0.7417217885155687,-0.18485177165897348,0.6622308526636027,0.47142142085445404,-0.3199503558527095,-0.4585110260505374,-0.9221320164881388,0.5187120011157142,-0.412922024002111,0.2313792570712263,0.62043641196701,-0.5419839684817254,-0.3288010329896973,0.14952943139361685,0.49758189921449447,0.565479798741553,0.5682439198873042,-0.8745818115408841,-0.17964472985727786,0.1298347666036943,-0.9738179565036,0.8650584547820375,-0.30981149908985794,0.497562419750857,0.6157339831563267,-0.7605562668488934,-0.008711623776148869,0.9867442071047245,0.7198378396926117,0.9521072558113846,-0.08665064722548643,0.9278829458819324,0.8265352795404943,0.4484517435063282,-0.5390745748677812,0.6140518739107386,-0.52144122900097,-0.9420271473021022,0.871214678326709,-0.8047591181768152,-0.33241484938748034,0.05542384498744757,0.13977131081025607,0.008588428895040634,0.10434503625964586,0.06470758318070913,-0.6596634045644256,-0.9763218153121518,0.6868353451974607,-0.7661562083153963,0.41178184778216065,0.7006019507353409,-0.8672109580748053,0.22734576778508075,0.46414834787221104,-0.25969063723273766,-0.3094243949747324,0.02309941229601664,0.7459832143821477,-0.1835538079327057,0.4317473408157151,0.5468072342223571,-0.28582248454194126,-0.11997290901684754,-0.5429558367028908,0.7040934232110596,0.5652858904460532,0.2785809322468118,0.5302990947057855,-0.868222309887273,-0.07172788534099217,-0.7621217936096571,0.6291022484590081,-0.7275154885481332,0.909042726062169,-0.19895534143035354,0.9399439025828509,-0.44442832717464653,0.4993860601307696,0.43429037484394106,-0.6511649403213993,0.2932559435042077,0.23314591009337016,0.9869723391509448,0.5132470655266517,0.47923385488900627,0.19041135643354146,0.5476342114583503,-0.2775868173838223,-0.7549914464255367,-0.6000457431386088,-0.9837770120254832,-0.7353362709758433,0.4728564380040965,0.6208769018460063,0.7199792314837823,-0.4411010391412251,0.6245846343423267,-0.9123651951410794,-0.5745425627780809,0.6134506236349364,-0.7698549345844286,-0.6944570162993404,-0.08017361917766896,-0.20200889809013,-0.43648198859332354,-0.763354248372488,0.4471518028723105,0.8262167326786585,-0.02859395055502989,0.47755825006919017,-0.827955334608607,0.6808219025526656,0.729302777010195,-0.055064750823239805,-0.9003158573074643,0.7034556551166953,0.36529123086701243,0.2518473999767985,0.12931639111564386,0.5877882473135243,0.5076625486922404,0.8696587796282835,-0.2752329994517586,-0.7817331471133953,0.7882325589980885,-0.466688465987414,-0.24209468111052446,-0.34599326263990204,0.6440783744372467,-0.13872540960768287,-0.2766257425572225,-0.030504660856451205,0.5544348750612387,-0.03284881767111281,-0.3866042722336893,-0.22626567053087743,0.3163209821172088,-0.18644438566556643,0.5556492847197525,0.18956593236765018,0.10670192991279848,0.624171665725419,-0.14354466534975674,0.3785602226339042,0.7895539336014752,-0.5591660667208409,0.12416392872264326,-0.3630671673908459,0.20804097691093104,0.012142025150235325,0.5320096426862835],"weights_hh":[0.04955764269967111,-0.48615331467047684,0.56051796457392,-0.33064739937244614,0.32446110764923586,-0.7070942350663638,-0.16680019803291923,0.18529750505040488,0.5436195803183348,0.1765081955306571,0.5917044945680572,-0.8843573676596199,0.8257500495868106,0.1960396215765292,-0.8593399104755197,-0.2448212094938922,-0.22803267493646495,-0.3400718524032862,0.16659248408242266,0.9843733060514104,0.7740585228617212,-0.4519133807801221,-0.7212049402216902,0.8911223234278418,-0.021364285964948992,-0.373747472345624,0.5509944866384278,0.09947764762811007,0.61143218733017,-0.9968783915729276,-0.29677909266364644,0.4336888149062543,0.45455034059273935,0.5125442812085459,-0.6578220483435666,0.6473418265449531,-0.9237398297892325,-0.3097174264759688,0.9865104354470979,0.2568550849829705,-0.6713339593505419,0.3086939287514414,-0.49104256118928147,-0.9394817273310878,-0.5615071833344087,0.7545420197971695,0.9440911987528624,0.42314722417801187,-0.3390421734887583,0.7934797486787983,0.041618315719323506,0.1423395909346472,-0.545050811701699,-0.8424205785844454,0.5812529104378612,-0.21048647790114527,0.8867007047613693,-0.8016651846945249,0.34516056890464397,-0.38586921130588436,-0.9441246248554678,-0.7151326365935291,-0.8571512944019233,-0.46746761803773307,-0.9248300158587943,0.9238761396580022,0.3047724376865215,-0.9101509259095446,0.032270340832361244,-0.6290371447121983,-0.8600608916807415,0.6953322457016848,0.6226025595818991,0.9874973156592697,-0.4079449525258019,0.45542300961249893,-0.0007638276748043182,-0.337965801492079,0.8918663236289879,0.1239228306083211,-0.5108186922042679,-0.18275041612128873,-0.9658068715208601,-0.019568999073793725,0.9679782169903413,0.523689230270755,-0.7658908668615791,-0.9493231719105906,-0.3681888795335877,-0.033257810249668784,-0.14393474374070014,-0.4047259160299772,-0.039967510087487446,-0.12909258675942525,-0.4896525511333829,-0.2727794071347778,-0.34510218361821066,0.8414993745346384,-0.07589333586017477,0.9524473787587617,-0.2684107749851674,-0.19064547409978627,-0.8777816121031172,0.6138555741682494,0.05651529848078152,0.8905771400703646,-0.4632239815634378,0.07810147739175921,-0.7045699380584853,-0.4473250530849564,0.4234468581455051,-0.6815094521162741,-0.7287535549476931,-0.8634987252878246,0.1298215579218731,-0.7518029143400169,0.46130408646008636,0.2432926009584111,-0.11498853219461314,0.9203878591703276,0.08426405499313239,-0.3910147738446772,-0.12559096970458383,-0.5395321610829753,-0.27384240110187097,0.09572751715113337,-0.8599615558460867,0.7260534796197289,-0.5070088052260857,-0.46937554746049015,0.8785367497047745,-0.1664306057433642,-0.5776306106659694,-0.5326640220110752,0.2720914473843723,0.4805344377227554,-0.29426123334418675,-0.7408522135003288,0.688167087276707,0.8344492467434714,-0.3740065439444935,0.7635085308261478,0.36831270608647326,-0.7631926289596274,-0.11369981933166295,-0.5387024840797463,0.3505383033076652,-0.6497979688747224,-0.8963404320301165,-0.11394496923485864,0.28287173516151465,-0.4095825753459108,-0.22269357779222343,0.9378903767751519,-0.34943240332814973,0.12239855618508755,0.7128444011729986,0.6755980006977427,-0.790053064497791,0.5493050357894789,0.6658576884436149,0.17216327145896115,0.4534887752290415,0.8991535202938505,0.13072951196208815,0.946919618083752,-0.09735547045615078,-0.9477473040085596,0.4322853258280819,0.038077337150553836,-0.546675706039566,0.16060124070748882,0.49249141497065785,-0.836224927493491,-0.3469973441047389,0.360683760483568,0.34065789246415434,0.6992542258437455,-0.1027378146133866,-0.8514913127905812,-0.9939876572523381,-0.3263594028296424,0.5895873539614604,0.5775025655299808,0.3295320690436494,-0.0068176394629866355,0.7283138220847427,0.22193325063161362,-0.004832426766458564,-0.6846049563912382,-0.4878866970840272,0.2894250305137638,-0.8379037166268708,0.640597193994221,-0.9257111808370269,0.9696118001540461,-0.14565652615734193,-0.945032993250992,0.3384330761672796,-0.628369749682997,-0.8182517028040592,0.5144393661311661,-0.37862095881348656,0.23914153112216363,0.6328919216226636,0.5702216754534459,0.6633135464834781,0.30786237928366145,-0.1837243809692357,-0.3506955343258775,0.13955599974335553,-0.6165629916437356,-0.9183648895428018,0.5396359927258467,-0.6041110927034199,-0.9901204932334804,-0.8465910902167442,-0.562602166127774,0.20868637261782785,-0.2633200396726534,0.9537709402917403,0.6541567492251599,-0.7733540214822674,0.9785953395087996,0.4941336725382799,0.8912953610329983,0.043784743278399096,-0.28366958850764834,0.7915204345807436,-0.012337582594914354,-0.32041463121756886,0.924095424704894,-0.136436517655659,-0.8110904251256459,-0.805160319238365,-0.7716170353825993,-0.8256702090366816,0.7034044307018201,0.007723956877374372,-0.6063920369827156,0.2609622700867613,-0.21989641248431058,0.8267499228285144,-0.20365679093430566,0.40213268551713566,0.45605399895750476,0.45177395286517386,-0.8968222604074705,-0.9752730027639414,-0.5746368705904816,0.9106594592994517,-0.9799140447053372,-0.9160585250827402,-0.8028454363052167,-0.6377657792950169,-0.7784083547782106],"weights_ho":[-0.5571133969618716,0.32726531868076836,0.5612174082695507,-0.3638215951724917,0.2124529019283503,0.8265341931477852,0.9722541929968194,-0.1709664749939639,-0.042118420095430986,0.24511608063182533,0.20488196232481992,0.6798642471567877,-0.4711094880332387,0.6508728402145032,-0.4954915666264956,0.6480761746452779,0.6582231385930881,-0.9462332315425799,0.6812281256435906,0.7933877646463634,-0.7380107161188629,-0.9435042538524565,-0.8477938700190519,0.6781204940390946,0.34411776647784476,-0.44827676599879895,0.6247851534376194,0.520452594910781,0.5406460952856056,0.1054433423887855,0.507806552444019,-0.26770884700382,0.12256284014695717,-0.492143795675696,-0.03261061844102131,-0.9667912965246566,-0.7124472976228553,0.5976234876962863,-0.29536735963334504,0.20545117161637383,-0.0064218343708621894,0.0610558777315473,0.703170149744055,-0.8933793345652212,0.7765498735709231,0.10550170994844588,0.4072455536045565,-0.2035496163173307,0.7101003232306082,-0.02785411768784818,-0.8481839061322436,-0.6571199015688991,0.20410019056064366,0.12812332745952393,0.2934586752608064,-0.20209309581142176,0.29735762557593404,-0.22032808318935992,-0.9255639241473852,0.9813319285185906,-0.14545402151713427,0.3366092490082184,0.08930411054184528,-0.34708342245331303],"bias_h0":[0.3916780372606121,-0.8888712586113694,0.23625565344993849,0.7017044769265584,-0.837773567940471,0.2823113785294775,0.21966615824933555,0.6536272470945446,0.6516300005619233,-0.3010975007315444,0.6567949770187376,0.08105865426220205,0.2675608238338405,0.7794743664575976,-0.2800951562856371,-0.3325833817771848],"bias_h1":[-0.7977686509126267,-0.7736410010702062,-0.5249305048499031,-0.23700242215463718,0.9695618839330957,-0.8828605036841917,-0.8897685541176961,0.6881005463500254,0.4773456149079691,-0.5519980650478569,0.5502175494327206,-0.5011273161229048,-0.5630606802803262,0.5505255677329897,-0.8280941910267792,-0.39149380509184195],"bias_o":[-0.4856916603513892,0.606643700494639,0.36280900029586616,0.5123187591688199]}