{"weights_ih":[-0.7604698719642413,-0.6086690315502432,0.4990463222765795,-0.9826560763486585,-0.44684789467395625,0.16161992893890664,-0.20014650437570736,-0.11691840304680223,-0.34930397025386917,-0.25871783554697947,0.48373560656803116,-0.7954457935850456,-0.40411961447986355,0.5664938898672316,-0.9470264051651551,0.15910985081019224,0.8399858367902486,-0.6209033110000668,-0.6243401460615379,0.5048952235761741,0.8719565183212807,-0.5281562146441929,-0.8308642686663175,0.25848715784905774,-0.7614743827274744,0.532285583749954,0.22696231153648982,-0.4617552951517436,0.13961541198333616,-0.8162579958329503,0.9842801414417333,-0.83543210715298,0.9458989141349399,-0.6104666694515661,0.750533748820823,-0.026735651165781027,0.8685699608252562,-0.9501716772333302,0.2838659894440496,0.46191316355936674,-0.31963213741870944,0.8633840951270795,-0.6398055515679248,-0.7096818642936253,-0.6854022818435936,0.3576952277167149,-0.8609511767397846,0.9185587272904969,0.8497075825792324,0.1448038346355358,0.6978120727884773,0.20060800356111397,0.9469125882057297,-0.4113580075943035,0.165633411327754,0.7798904650900886,-0.6482835502860227,0.6848610808193951,0.8230647330705465,0.013068720383429655,0.7950755890103585,-0.34143429122049884,0.3111191486640852,-0.7828756866878781,0.7040386944867429,-0.7645031468688903,-0.09659975319500913,0.9280240401859572,-0.5198905489982193,-0.32288594448008956,-0.7975647648782744,0.15062976219994906,0.1794003934880386,-0.9554973026279343,0.312752770684525,-0.0329161272825258,0.30272182900456257,0.8298879741559435,0.757918577794976,-0.43467796812912796,-0.09433038396616289,0.7417441084564296,0.963224142141498,0.5414088016987733,-0.6537424779137511,-0.46119565672599805,-0.4359194993598705,-0.3862815906292476,-0.6412258513446614,0.586379395670539,0.4034954291080224,-0.31727003691424627,-0.7052193231675219,0.7046950708873385,0.7218813248659739,-0.2732177892513743,0.46700857611093705,0.5745502980408121,-0.9766246405000079,0.20010555045531997,-0.601420229378371,-0.7489923994649914,-0.5775818058500355,0.0158322266605897,0.9716544624663708,-0.3263062765401836,0.07161401212092766,0.9451115488295896,-0.24579255914478693,0.5023522582082927,-0.8538117603684416,-0.7763903682240505,0.9086167646752548,-0.7971668416200499,-0.863980440088026,0.8898327620817803,0.003970725676165854,-0.11621022505760092,-0.24663985334108074,0.8797600490600608,-0.8304830215633567,0.3486785278416642,-0.33958248056043727,0.6827887503958436,-0.4242017959413735,0.08977855663288103,0.8420113438824277,0.3767577866115124,-0.813176778188363,-0.8071609593491273,-0.23012068132204688,0.46651652865342497,0.8972517683679537,-0.7351457421292167,0.4821502941906195,0.7680448970493066,0.9709398514537089,-0.3358111921347975,0.5066695937143544,-0.7545518731527998,0.6325721350208515,0.9861366200311406,-0.318244366325225,-0.7114342559814388,0.3353257404679222,-0.787800627825854,-0.4464848923759932,-0.9998430865093573,-0.8073389504082498,-0.5906565678616154,-0.7268544524570055,-0.7474509771526316,0.09690737673920302,-0.8894302418011208,-0.0061555011279224026,-0.4312513589814575,0.6792739703674184,-0.4898605126248674,-0.20554554278017,-0.39717660674349275,-0.16969165054091695,0.647093535826174,0.605659306953223,0.9745035614048116,0.8790900101023538,0.8276285947144721,-0.5223099075298885,-0.502409613388425,0.07563524214021644,0.40265518780928944,-0.3109722270845796,-0.24760398716466048,0.6605564215086284,0.8541836047034601,0.5817847969882937,0.11841377401282305,-0.3177838655927805,-0.6525751975434315,0.8648512347136899,0.034816379891073,0.17835437606766003,0.10354503070947607,-0.014311005157529477,0.24164837247716653,0.6737408923298631,0.6450831422516918,-0.9926259541304834,-0.23548642841383516,-0.26482148256786453,-0.19847368054494585,0.6522833936867087,-0.04674600427134057,-0.021001203682606606,-0.8859588894461441,-0.7228023254095037,-0.6937607865667739,-0.36639726820806295,-0.441035436708179,-0.1438656397299738,-0.9832568963977832,0.624514390700361,0.2750684039488851,0.10334199955562529,-0.2765116769788125,-0.9637611393619958,0.26049901764586125,-0.379694312793869,-0.004517126249595327,0.1440791537695707,0.7618750028899866,0.06876615853854817,-0.4372167944151064,-0.845004800721397,0.904709699373917,0.8188854698839287,-0.048378509976370276,-0.6895596121605518,-0.28410533477437516,0.24595417175298184,-0.6880399350464999,0.9521337746162324,0.32957478998688927,-0.6299479815824551,0.8428484143978219,-0.21305122800556542,-0.993186378271876,-0.5335868661148002,0.7247223937006695,-0.6582434286197574,-0.34273330056832885,-0.30025067450037257,0.2604468101141837,0.7322183825096291,-0.2266393825178421,-0.9895021412122733,-0.8154198303710662,0.7103795260531856,0.7128086775410107,-0.3541459418864539,-0.4803146794208155,-0.6778616366412971,0.23612682250577,-0.5010203054808013,-0.0899017791774841,0.45455169160818887,0.2808917387092089,0.2584921840449437,-0.7293257805898075,-0.6158697907076205,-0.8367627183095774,0.5256679769157835,-0.07427870615086851,-0.012554949858748943,0.012339166630015663,-0.42103471050772057,0.9971328176998977,-0.431705678417317,0.3931207142547848,-0.8971444389276406,0.013003872736557565,0.9365818877036487,-0.4430229897702995,-0.06649716636794412,-0.5531895228857946,-0.951354117113161,0.5487178193623217,0.7682824426610748,0.5291650705250432,0.4886556673371065,-0.3899184913970035,-0.9853218174943823,-0.2109466186109299,0.2925714216405517,-0.9986561567950374,0.742578764409251,-0.25788665244510867,0.30931947815365235,-0.41147349487709106,0.612812185750164,0.09808342262260461,-0.7375003442865633,-0.2157652669030885,0.32528792026695985,-0.7136122406505789,0.8176096262133441,0.15320927166454346,-0.032277992389542653,-0.6761434275576901,-0.09771015462968702,-0.07043008166921472,-0.6658413465770041,0.7552761267154324,0.47330192181542197,0.3526743172204858,-0.9095230155792844,-0.6663717583405464,-0.8402069541226023,0.3642554593572973,-0.7579951842636816,0.10256766176434184,0.08241357684178485,0.8931535609029617,0.6009042231668544,-0.07501772763187109,0.24400554780806227,-0.8676616353039466,0.76993482010454,-0.5157472263223164,-0.6595547617750259,-0.575612639925386,0.44321261062186035,0.6597421083167865,0.8386554585874995,-0.4849903298247955,0.7995254746610971,0.5172128230853208,-0.0502178806353446,0.8072824231801126,0.2564127321735614,0.1843013145459913,0.6926776852909742,0.03163208948984497,-0.04087577621313199,-0.43537339898657135,-0.7944549102527649,-0.003789874869040366,0.6211834143851109,-0.58843323905829,-0.060905546716676584,-0.3204504606345868,-0.506949396024718,-0.8881261042993436,0.8856214711802164,0.5266347277507901,-0.7639015204713142,-0.15986995274930726,0.2144219368290563,-0.252575561172651,-0.033546104751003725,0.8517571385026388,-0.506299186158558,-0.10952427294714995,0.9828404152984356,0.30488418435418163,-0.7744517847959573,0.5785408391866023,-0.08138050296918165,0.04069674106809207,0.34044362244681214,0.3108987299592878,-0.8622065740219509,0.2557403937316798,-0.9129869954397238,-0.27241037829667847,-0.8388001301891439,0.29805680279756896,0.7094484747865157,-0.9277985665486459,0.029005433109495993,0.47267010846771673,0.1422808295163427,0.9166784493104148,-0.31458600907072864,-0.00835970491002902,-0.186961599007474,-0.3854743121527435,0.6273299019503893,0.9230619983061097,0.6847166936000912,0.29547640403668507,0.5584843246253484,-0.5518871601606674,0.6956658608456241,-0.8278713154302417,-0.345077570073101,-0.20160989250911876,0.6731820316394619,-0.4528199511135882,0.06782136531936378,0.46953333405638653,0.5083482001252151,-0.05677267308356604,0.782571439411746,0.003992495716750755,-0.7993162991781753,0.6911393472468148,-0.6698449521078718,-0.6739599556132765,0.39314029124267,-0.3294502111206232,-0.9062543549722524,-0.9972153181488426,-0.5715352689495286,-0.15604822517079353,0.06974980895422256,0.8875158587407519,0.5043595892104276,0.9725092416077243,0.6275732922974253,-0.1501303633588349,0.5576101361010428,-0.5293128198633328,-0.8565575204394349,0.6946785410228788,0.9777764407334946,-0.628766650883138,-0.8963838278100416,0.9164236400677486,-0.6821572068578008,-0.18138025918204836,-0.9279503314615107,0.3346247002298157,-0.5446978743834823,0.048892922312535836,0.6413044514879296,0.8021900710956014,-0.05035706376435756,0.2528395284350262,0.5111132474561868,-0.4235972791717051,-0.7441662883193556,0.2214681192485639,-0.2014397435587012,-0.179206889712479,0.0020509546510796284,-0.48613321701151957,-0.14900241077146847,0.36355060868981526,0.9034121529770245,-0.9161881568174877,-0.8904583256026462,0.2106073087513276,-0.6770432703586118,0.825877165568383,0.9301052074757004,-0.7907247744000094,-0.6951737324321008,0.7854382339208337,0.44473489144966716,0.19685853275331766,-0.5576839763159078,0.06023086512526987,-0.10576656542035012,-0.027941595784213957,0.8065293681862613,-0.9542515812235524,0.5371054256343897,-0.07180824621489812],"weights_hh":[-0.23072586752548063,0.574767580050233,0.5322451507420487,-0.9952490480074261,-0.4163658998770925,-0.5449261048756278,-0.9213594930378919,0.1457363342182907,-0.5493547948275148,-0.665294718760306,0.8528231565114155,-0.8725024589052248,0.09410070327052522,0.8676594023198629,-0.1083633035594691,-0.8396311538444028,0.9969654246309891,-0.5395493335082531,-0.6801821906281194,-0.9944202507813957,0.46452551627615857,-0.7422464606794581,-0.6469913722278791,-0.4978508143846543,0.12993325396236588,0.07553915812024004,0.06032128983660434,0.6105418882432667,0.9616874588169104,0.9002755762739201,0.037719277649075345,-0.7693606118471841,-0.5878918136256959,0.9034870889123261,0.4882620554609658,-0.4371080696254692,-0.8665462283603438,0.33700762551810715,-0.4182048117335111,-0.8443557639054238,0.33398950308800357,0.6665788584249059,0.31002840438351154,-0.5679349414072612,-0.6283280986377457,-0.2153843706350762,-0.9581675807709529,-0.5661994675851294,-0.33915493683277953,-0.18630467406848883,0.8646440852531267,0.7186409218424643,-0.8816242903215132,0.4028465276576487,-0.03455376072227323,0.8818760111676771,-0.03229373677972158,-0.13380336596926568,-0.6145297888755967,0.5074106389378799,0.6217217689830137,0.9237300818457921,-0.7854186140560258,-0.2837959756908841,0.8624732695555735,-0.908120466592292,0.9204140302729951,-0.26387735685238733,0.3340397633749157,0.9364996573400743,0.993563937721724,0.5215482415924231,0.19004161018361443,0.4148785860748365,-0.5854720434997918,-0.05480818904409501,0.627535617943098,-0.6600655512914719,0.5144895039760626,-0.6067758776210088,0.6427077309938718,-0.7305929315153004,0.9635705616678354,0.4819374936851566,-0.258777667627651,-0.023307402030466662,-0.41644062602902343,-0.03430905259710193,0.45303588595871025,0.5832663781578029,-0.42067493325052374,-0.9960000038606116,-0.46302544096929954,0.06738804007197774,0.5994271415558494,-0.7241866740996352,0.8537017147061321,0.47634631572605635,-0.3157870804853178,-0.30888887086900163,-0.9620554844113625,0.0040640159720648494,0.24270793096828602,0.7791360487986292,-0.7890856736317551,0.5695945489938876,-0.13169000275690612,-0.3360459573190331,-0.49864289199364453,-0.37170801878762383,-0.6061200858959988,0.3914390625542481,0.8008676873725988,0.06069148307760486,-0.8330014501936833,-0.7027855192635919,0.26399734859095214,-0.31258196284331774,-0.24012642186424493,0.154157930351436,0.8366103938150813,-0.8769969631681651,-0.08930285951051076,-0.45238037798107045,0.46423965148325763,-0.7448091851406493,-0.6720735396182724,-0.649589017497509,0.06974094743095671,-0.8863326551086477,0.37872923343213705,-0.5003254348570272,-0.9241185619547807,0.3884538396453676,-0.08652661161001096,-0.4676811829524883,-0.7031931315103135,0.5978138097240384,-0.9134519827592116,0.029214753298608453,0.7943698384805638,0.7893625934070279,0.08149422881047674,-0.9965554034353636,0.7736844689007563,-0.6177151728390824,-0.6463888987913238,0.652207652257724,0.7043368953110396,0.8318237958497492,-0.48330643574650756,0.9538546246952531,0.6754324181401419,0.5597463298054521,0.7052419607940985,-0.036246273960770736,-0.11334240660128136,-0.9949365203313174,-0.7861899610057095,-0.2855197520806354,-0.159272471528225,0.35602765983444873,-0.34630358439135445,0.6435080862163978,0.8195241219124842,0.22722089816744795,0.8198816410953003,0.4218705392443449,-0.07770405418098725,-0.2799047051019723,-0.04007741794619979,-0.08732312691979582,0.6971613045794018,-0.7173577101280075,0.4794907744687651,-0.1657964525681408,0.7223456244989974,0.3970001826706264,0.9541761795036723,0.7181284313789522,0.9032823069988405,-0.9371010200271062,-0.14069456491960763,-0.7939135606853374,-0.46554041200573315,-0.08373025274635326,-0.5685452707474796,-0.20704149429706153,0.7068293783417257,-0.004033577561520563,-0.276110782816569,0.36367185179546424,-0.9690640373390793,-0.967216809013163,-0.6979218571974519,0.9192562695596815,0.7279401988779488,0.29334064048730846,-0.4055583925579851,-0.042780575627320516,-0.2663932419497168,0.28821094912909495,-0.9220351202986092,-0.8780266994644292,-0.014873146459017716,-0.34063822089765305,-0.3474665179727736,0.5731889050746248,0.2421871227693111,-0.8723758849352863,0.7711366621309641,0.4260803393377255,-0.3837662930857053,0.9935402099604842,-0.6231627393608234,0.2722418052970872,-0.17497370246910338,0.379121325483581,-0.19008264812689069,-0.38962804083952074,-0.8703730541799348,-0.35815378048953184,-0.8832581313552059,0.9533130923700306,-0.92765969600959,-0.59093575703591,-0.1941841247379994,-0.07031963621367954,-0.3936764162221802,0.8133714346920509,-0.5048394043554374,-0.45000522942458576,0.7385927377335857,0.11286642999820562,-0.5445655765340107,-0.39722174903848106,0.23805677345917609,0.21821288739795386,0.02716940757649522,0.41031058307064305,-0.13458602322461677,-0.9778144610439161,-0.2454997308440332,0.5331640136063971,0.7457565262193935,-0.7850766633451929,0.7657043070965088,0.18508477215809793,-0.37989248060896563,-0.16831872568739126,0.10070003938869854,-0.43411327514821174,-0.8897314747246634,0.6115571475117645,0.05552502541378135,-0.8787741598887866],"weights_ho":[-0.1103541814105502,-0.5656830773148747,0.12213901476398092,0.22897989880092062,-0.7301771815709877,0.4183783884963217,-0.5351566053272334,-0.29814727591412193,0.2598025909684969,-0.8253302150853701,-0.5091043514555982,-0.0148756676282229,0.35596933877797166,0.9521548946228067,0.3435875758627087,-0.781765102009536,0.3835446841623087,-0.8468030416964494,-0.22929821860161947,0.8659718832539327,0.9165854085593168,0.22856349611106896,0.12820796423304692,-0.9412255409083834,-0.5338168234443417,-0.4681390848193865,0.9569952491857749,-0.34804884523643076,-0.32972772986537247,-0.2979748303919276,0.38048453162075835,-0.29354779887295157,0.7134892217932944,-0.6382053005072854,0.5113391780404382,-0.7645447139902526,-0.6121382399842579,-0.6690657198360623,0.03233375069723121,-0.33027167511034516,0.12956729687907798,0.8174073709495016,0.8972211560529579,-0.8634788246437157,-0.08582450491073934,0.8998089296148633,-0.1154124708247557,-0.6522127046957455,0.4942327504161703,-0.1511248827390015,0.9233732866397912,-0.2128153485791966,-0.5968633297933366,-0.033550649474320515,0.0699334694760434,-0.1321358911572692,0.1261644076265267,0.9570884334876621,0.09391264494795526,0.32210090636091215,-0.38909590776262837,0.037928539300884356,0.40370786596729125,-0.9788684121043238],"bias_h0":[-0.5369162971861856,-0.5918707256307079,0.498416240352777,0.6075353077581256,0.7081196899730449,0.6763735828406858,0.4618766637314353,-0.8628337446391934,-0.5313304293743604,-0.7305426808380977,0.4941817829904185,0.4638612214573108,-0.7832828513884065,0.21156197560898593,-0.7843655423828106,-0.5029859422133736],"bias_h1":[0.3517711349703232,0.06247681335769717,0.560300094301935,0.9915321956340082,-0.41882860789384013,0.47969868313490394,0.8955534270165961,-0.8866056704510183,-0.20995925523683323,-0.7852459651981871,0.2705291140995709,0.46219356685265334,0.5048510014887639,-0.6419676809798898,0.9494366423131053,-0.12979996788005632],"bias_o":[-0.4058087061440381,-0.303118879998604,-0.7353313586475123,-0.9640259944060452]}