{"weights_ih":[0.02327263950696401,-0.8865305672755646,0.9286568534272426,0.5436604371383118,0.31226034072182096,0.8850397740360052,0.2289150977641765,0.08029394129768352,-0.10046532560545862,-0.7845947802316953,0.5973208769074771,0.5998091055733514,0.44237094044298986,-0.7133102912127178,-0.4950284229117228,-0.3716208260324432,0.2517898980300788,0.553233415573481,0.4535148472692778,-0.7575652536470103,0.5344399014592385,0.21456594791692818,-0.505224233524955,0.6749788741315563,0.1728714909135094,-0.2904348391079814,-0.11500962375187473,0.965527092227358,0.795264171357446,0.5639297109499248,0.13027748771281988,-0.22809383131343197,-0.688514637554178,0.8810187919922685,-0.81372395855057,0.02107530819889991,-0.7088623792233875,-0.2299734702477636,0.5871859728386242,0.5570311687198319,-0.09586170832006546,0.18909194839585308,0.979060383427639,-0.4986731420099382,0.7723422751330606,-0.24887589690094747,-0.5823658857844842,-0.07631660373600502,0.3909496316360219,-0.6452968313493095,0.7666796291337237,-0.9883309363226656,0.3437781185008253,-0.8553063072898148,-0.32805734526035524,0.21735040845258213,-0.925567545793978,0.4731389146784346,0.7248603036022512,0.38237378460128135,-0.5330926014132931,-0.645864875799788,0.021971891093427676,0.8689397363984848,-0.4729874484767005,0.8536572512454348,-0.9798094630606369,-0.8604756813586767,0.6197902116783527,-0.8290918678075581,0.4177792840528043,-0.2276762702991395,0.0010668059876881575,0.20551201251424844,0.21671188144669684,-0.2543780378490974,-0.4421236312077015,-0.4617038484918048,-0.09634128863366587,0.7873455039513331,0.6762802204742144,-0.26387882408464614,-0.10609330924155036,-0.8834341125813776,-0.590756457900016,0.802614072105307,0.9854988506183673,0.34449125908630673,0.7729936904546373,-0.41210194166410763,0.7440122534104963,0.30004515277134924,-0.29633514573115427,-0.38291193435012905,0.052442129161650364,-0.4216080896296688,-0.9204013222131451,-0.38264126317753444,-0.574119928423799,-0.6158268962919917,-0.005460770110411461,0.04337230626082844,-0.2838464776132841,-0.048200702971905374,0.39705399656617124,0.6709289226842945,-0.055113483972476285,0.5311096538813354,-0.07400916131205482,-0.30272647556444654,0.9581225099060728,-0.020187201147865874,-0.06157118136339057,-0.5462603558018091,0.030591771831679493,-0.42531571548007463,-0.8441451441071415,-0.7061718897219236,-0.548458177405668,0.4563085274359513,-0.20760612605874962,-0.5211374312937709,0.03800236374383181,-0.06720398644580294,-0.16082379206637532,-0.9951554011850319,-0.07911270009920979,0.34947221233938164,-0.3686324770550946,0.6342757830932786,0.5980756354156567,-0.13163603431903592,0.21544353624582624,-0.012824269857564685,-0.5952334420309984,-0.8684238922485306,0.7496764358192738,0.7623469403056331,0.7810265433135777,0.9083971975071552,0.6279086966001894,0.7118969506546948,-0.8451145003468896,-0.10710518593093665,-0.021516291485642824,0.4970127115701013,0.22646287590683456,-0.08673002908270155,0.9647100444985883,0.20898553473396042,0.7840605916935346,-0.697194880513909,0.6817906695499139,-0.18129103813247482,-0.911772579191682,-0.15158111782035766,-0.9952527516577789,0.7476561165182132,-0.5530360443606075,-0.2736639355176096,0.4454364151580934,0.21759659277515953,-0.765694417174418,-0.5206061887802862,-0.44793693905528165,0.3265916657565886,-0.577321541530557,-0.586937287014031,-0.1101340371685191,0.8208566385404117,0.716551266936468,-0.5309456458654573,-0.06898253384299102,0.11997296730108098,-0.11244572686614673,0.5697876081258861,0.7921556019741289,-0.17396989203990176,-0.5397507850428669,-0.1405103928672966,-0.37067850056495133,0.30824756225288485,-0.7053234543607729,0.17894668684528447,-0.14245164523182718,0.30137945000434896,0.4422625111250309,-0.052066441333274094,-0.3354242424653102,-0.3556822958567667,0.49088554694582975,0.25773360866553996,-0.6540020196939322,0.3039681095319877,-0.6132511032838581,-0.3408085177028428,0.37266484335589345,0.5111093798597408,0.7958065941057813,-0.950097749249712,0.8214511255522836,0.1970246268657847,-0.1349097130190724,0.04306964949396441,-0.2735054508876684,-0.7153928010329396,0.5270590270595552,-0.9883782814796727,-0.05135827890655653,0.049815255045343676,-0.48013268638196704,0.8423761454047363,-0.5441782886750921,0.3524225619687842,-0.4249741190963481,0.3689344888445043,0.11519066068264294,-0.2832800969312166,0.8639415086341176,-0.40759070143161735,0.3941937178307713,-0.825075245112596,0.4578912567720643,0.992357422212246,-0.699812773565182,0.6843554183114866,-0.7078334149767598,0.4145323657983262,-0.932633819026655,0.10481649513333013,-0.442893761223885,0.9328388439803328,0.6391121018549923,-0.9050122979607365,0.33286441841999737,0.7668098981622848,0.330371454676349,-0.6980009362891366,-0.2312461908813097,-0.8109420626480477,0.8425891868521727,-0.6905936428917054,-0.4106452372394551,-0.07386087612383352,-0.6251501746997423,0.37866995327623276,0.26557890821658026,-0.9461407386271068,0.40314067550096544,-0.3924132181714115,-0.6750954861067355,0.002689444557968379,-0.91707909342958,-0.35841936182126233,0.5387259191730531,0.3407689516685717,-0.7580355385336435,-0.7382853532338527,-0.0021870546762430276,0.18109321373337028,-0.9583422283516878,-0.15988924310906905,-0.48483398777975006,0.7419291115728839,-0.024170417959915147,-0.27835455928523745,0.8240693580116232,0.8237285846273255,-0.20089693280437304,-0.8575324356256064,0.9718573690132606,0.26893485691563845,-0.21723735389697363,-0.11982985056230211,0.10081358526125661,-0.8206305119525306,0.6731937137851163,0.26806739769816645,-0.9729401488454268,-0.44325181445111883,-0.8077234853762421,0.8452251705457656,0.07808631830827295,0.8584688791317885,0.26669040934862376,-0.56980928287294,-0.532900441856708,-0.19723986902063673,0.35159503233323863,-0.5086536428022042,0.2246022401010217,-0.29095882365704173,-0.11249755863435551,0.6664596104656118,-0.06421691334409241,0.7071350483390686,-0.7563002127612901,0.320835311609456,0.05974083603532776,0.4326681983621623,-0.11929000849537652,0.25104300467750185,0.49311279870959424,0.8575400488106673,-0.657258584205656,0.9175864634350039,-0.07216705527381184,-0.9112111255390489,-0.3790197351135738,0.7357185875330317,0.14624928800390347,-0.1656520273939115,0.740376751985715,0.2529011654998956,0.1646418513861332,0.20050324924150842,-0.5411248217339315,-0.6017642372471499,0.9461118421544299,0.8280174392763799,-0.23721888468276364,-0.7742964391861886,-0.7436857839230826,0.8134537332580372,0.0705075016393526,-0.23001385608072433,-0.5875920705064712,0.8154966296423962,0.8512644713511461,0.5731363827977314,0.6553026290011716,0.515089194008806,-0.25701638871036847,0.38801456074093044,-0.1356234017165061,0.6774295573873135,0.25860413283861194,-0.3972149470044668,-0.916526076912415,-0.941653057026903,-0.9300615910036063,-0.3145933029238046,-0.4170691963820645,-0.4495762802084584,0.9826990090308092,-0.24173586324223661,-0.4689556897096441,-0.6211951778550575,0.27340354749745877,-0.7963096280277846,-0.6259799202201646,0.7648052796936646,0.0684375549964158,0.9812136910334517,0.11781897534326413,-0.8677812760565937,0.8289398778852717,-0.3470006113639603,0.503752493063554,-0.9841872146854389,-0.561941512491116,-0.8369456888703404,-0.2172867252489601,0.420593059331142,0.5410291490673504,-0.06902298909326965,-0.6721736409469876,-0.6597073326856167,0.8141690021068839,0.3252797012442761,-0.13760854263795474,0.6198542921640491,-0.37066469858453455,0.6095099718126467,0.11931285965890925,0.7412541408815687,0.32512824732392875,-0.9779491704723176,0.2764437340411734,0.03809182897074104,0.6199505724666716,-0.8071709637713163,-0.6311871967625959,0.4732141563956864,0.08046857677815233,0.4103922446805315,0.7829889443984177,-0.7120723663028508,0.7128216161057681,0.5212508493209247,-0.27119755697951975,0.7671726077898979,0.041228794354761344,0.550277020699502,0.7109812637450574,0.3712908836224933,-0.22443359937077978,0.09653762505199892,-0.0312885558841518,0.5503722803428297,-0.1301073051728232,-0.7349022603426325,-0.9367838138171019,-0.21620177778675664,0.5507347441774737,-0.20953253708089625,0.38585480159672714,0.4046154716348431,0.8305880662718153,0.2865154331866786,-0.7275652493929357,0.8359450028263249,-0.7573056359728456,0.3421978397124812,0.23838809484055767,0.8731288114278957,-0.9008951174436619,-0.17202258984679686,-0.16777488482541503,0.6917244197263566,0.11879494272795665,-0.5632513251829967,0.21125994920046876,0.8318648571090395,0.9091744258049477,-0.984676625685309,-0.7403387529257215,0.9797246398473063,0.28371207352203864,0.265656390692091,0.11908602592882134,0.2873643961840282,-0.8721061881613066,0.6129117086119815,-0.49207502804171255,-0.15554290301738738,-0.15278018058579423,-0.9252074291186712,-0.8149236363661696,-0.37032772184940943,0.3951662319892981,-0.4146979767000374,0.8064547764266972,-0.5112998402520108,0.6935342965450311,0.26865009668017215,-0.21634592094723737,-0.27031600425115143],"weights_hh":[-0.16745076933987657,0.11137975386641719,-0.09053841414266994,-0.33934074702651684,0.501157371842077,-0.6647358180873524,0.5862420593234834,0.5409967093960397,0.1001439703448801,0.9650417210006803,-0.6275350367652639,-0.3112874226863509,0.8875960966351513,0.12088408931343086,0.01939361297027742,-0.33599983832673175,0.0507127593580301,0.3224782665222039,0.8018423104419918,-0.6701537404047482,0.34078960152563864,0.95613997419976,-0.752293429719882,-0.6432619346343165,0.8077311907578653,0.7848862845332849,-0.9249348774158295,-0.10536911473761523,0.25162924649976715,-0.9719696093830938,0.6364546619019154,-0.5392840781968737,0.22432603731473466,0.020524019929872184,-0.3901417438063124,0.44223226141273564,-0.8838550589570946,0.5711048341160156,-0.1306568314195058,-0.5434894233445191,-0.8618154520899763,-0.8482174874385187,-0.9802400865807666,0.8770437962549906,-0.8389819967690366,0.901336191690246,0.6668163456887275,0.7291122825837542,0.12156737863811462,-0.47384735330027605,-0.6625662950006217,-0.9008736077954467,-0.18778347896498948,0.15838583888499103,-0.6414017277299733,-0.6015886769869208,-0.6159662760404596,-0.594180050162824,-0.6231295737134606,-0.5306899451811156,-0.10385713905746008,-0.43230543139152133,0.3680013772284174,-0.3784734462703674,-0.2962156614547773,-0.2800166346549937,-0.03574672677211943,-0.9892244406092126,-0.6558013429976166,-0.724154336970193,-0.6098596796346298,0.24803047869469985,0.13703473572133862,0.4028607350051656,0.07982778094297904,-0.04674769405664869,-0.6813767531185935,0.04911439825445818,0.30803423229115934,0.9465551869049567,0.9876917332425799,0.688287991606944,-0.5758592698236249,-0.4208806041859172,-0.6529632756202597,-0.15151414685611875,0.18046230255069307,0.5068261461854864,0.8282108525407492,-0.7680228165318941,-0.39340024541974916,-0.9723004641768838,0.9566762183371351,0.45661992459666,0.2591619940702412,0.7532887967786792,-0.8989137673651357,0.6582492434484473,-0.6333605358375907,-0.9320956043876574,-0.05290282611212738,-0.75078207812898,-0.644598930238085,0.6831374625581057,0.5746529634068025,0.5173651316968557,-0.5104274059253133,-0.32667966031036944,-0.6584151958784201,-0.6785768438220421,0.05777554776508875,0.9018603979013329,-0.6185985139728272,0.860934921953111,0.9264552408093039,-0.40257981593302317,0.8848310081898514,0.8226753715981756,0.33576091138947484,-0.40021812642147925,0.8340150775455502,-0.732606671051627,-0.12759274540292043,-0.19826244880247357,0.40301144985244797,-0.5935778066681481,0.8137434108050348,-0.18085977005718168,-0.5004862494341435,0.40555804284165187,0.8183481663234426,-0.1675014856079895,-0.12874089950275236,-0.4094410603377465,-0.22197957744843966,0.7814739577405965,0.23125127870432727,-0.114974570393515,0.35092966915351553,0.8635122087837546,0.04010806690173996,0.5880355532314179,0.4151128773714965,-0.9370303178768657,-0.1968295050822917,-0.23206450851326443,0.4994983149032286,-0.45013116882664006,-0.4973053875544158,0.8705077991088899,0.31312884294946786,-0.8597469499482033,0.9948728237430495,0.7180341436623956,0.849242523883222,0.2421113907735477,-0.7099215150169245,-0.5490016488824927,-0.3869721632161549,-0.46975680298023614,-0.35966223472586933,-0.0661667212448045,-0.2091451749232871,0.5361860290242482,-0.28411636259232864,0.6122112404804407,0.8554647804460647,-0.3764012227909672,0.05557492233295869,0.12753449976842557,-0.8858594241453288,-0.6249162853709587,-0.26057876483440134,0.61726767362785,0.9539470518311199,0.3963747317805908,0.29913837542095445,-0.36801937197840084,0.6377166359387048,-0.25962489035052805,-0.7814365899472437,-0.4562251817589926,0.5991165017664164,-0.1172042595845122,0.7828736768838103,-0.9546734541323136,0.8950480460261399,0.44898201238614854,-0.49189717331629335,-0.07565740921190778,-0.16227926906567713,-0.9305153597696847,0.9995622877540102,-0.4824360868014803,-0.782251510460297,-0.16111227574566267,0.3265565461966633,-0.3600356099835207,-0.5615862013822974,-0.6088597491837269,-0.5710937160674907,-0.7092121542650704,0.8017875453703791,-0.2600098619482165,-0.5093357038451514,0.5616135691991928,0.4925491522873584,0.8266994660272589,0.08015448967901273,0.5083992621877949,-0.16997093953026,0.6922913474672969,0.3039130413756801,-0.6367716475739169,-0.07034845363320064,-0.7022626953416351,-0.27307159701525285,0.903758496722332,0.972110557648451,-0.674457315497677,0.762357358492763,0.5239331326494778,-0.22948686639395022,0.6522613073646324,-0.4881526337583364,0.4505797248715413,0.9140663889003469,0.2875674260014762,0.2521052019748635,0.552934488020145,-0.4045669447428881,-0.7634751889503388,0.13477564668021635,0.7599343521949238,-0.4367172231098928,-0.8457688578299012,-0.9515139876212615,-0.5392685118032714,-0.7173079258837503,0.36202245578012526,-0.9443308722574413,0.19560964511414225,0.6406941870018135,-0.3953031536313305,0.6182513660489111,-0.6854152665219431,0.868661614248252,0.5641574919944339,-0.5837316080814001,-0.32361588452512824,-0.6113007692991586,-0.2454130986904115,0.3911702451427208,-0.8816387256166585,-0.6202267263257837,-0.06132857209602438],"weights_ho":[0.4489846424706334,-0.15450281050427161,0.5644166760174965,0.13242648362918152,0.3371952377254952,-0.8122395242494107,-0.5671887293848838,0.21541589598103172,0.24300570482338224,0.5229536041082936,0.6402401183297044,0.05587949163091488,-0.9632229528573508,0.8393558598398201,0.5370358950603835,-0.01801192901977733,0.7901328641272647,0.797421971628316,0.14055397950413862,-0.3027810374099358,0.7854549146078986,-0.3410937211980152,-0.986162561628656,-0.1111368019674066,-0.9431147919135214,-0.9070567809817687,-0.22811270818853258,-0.07127611877548157,0.9811469271783675,-0.49118806861998143,0.5574719188994441,-0.8506522902514873,-0.7985141629382442,0.5384378869681423,-0.42921915861751403,0.39911302986271013,-0.9326877725370883,0.4229822898310418,0.12074286130312784,-0.6733749886032521,0.7380528292454909,-0.785323948379308,0.1041288660443378,-0.8637876752905411,0.3049253501492759,0.7662612121894765,0.6742456510249268,0.09125274638348291,-0.2601262448880648,-0.8517050546327654,-0.5455597079081071,0.9857058735590227,-0.8706206000125303,0.7458793413348497,-0.4550573931148352,-0.7188583269104587,-0.7375851816797707,0.18486647507178477,-0.9741833650102294,-0.5362314285101877,-0.9539005182447264,-0.18085218679243975,-0.6401272719801028,0.37800016710680184],"bias_h0":[0.4755827231888763,-0.5987397978001006,0.9716891031088168,-0.011007500113221935,0.965599333809174,-0.39224718194932917,-0.13665657922686325,0.8371899030828478,0.5108625398654536,0.7624579205496953,0.6596910590440326,-0.21716561999049544,-0.17463746849254824,-0.29393538216544624,-0.4667776329276947,0.14135659577242832],"bias_h1":[0.043931446091299176,-0.5684731469814706,0.5821430549316517,-0.18928963484354533,-0.14796035789952788,0.5214323133188847,-0.86643176370115,0.08276742829728123,0.33848225897900375,0.7679886334054709,0.524100670540502,0.2223763972874384,-0.7195234455852606,0.6238667163074452,0.22244333937215321,-0.18393983233292266],"bias_o":[0.5880737103168325,0.1476405926587243,0.7946874076026256,0.5824464939456329]}