{"weights_ih":[0.3087510628181953,-0.6392157612849516,0.6833242324682645,-0.13797901029844217,-0.70078095216931,0.6418710663238192,-0.27473317442509937,0.8352359383906951,-0.943760702161023,0.09320198635268562,-0.5530836777099495,-0.6937493822385792,0.7841465879718534,-0.9794362494608435,0.8949620435019605,0.1401732614077411,0.46100833504013616,-0.2277087108060467,0.5445514432628382,-0.12069553199875638,-0.018545313461364676,0.6144278927966733,-0.2620367274750637,-0.11554914489185086,0.7487776332574356,-0.6692215901491194,-0.3721825539064998,0.13499527077899187,-0.6802908162007852,-0.4239989499586645,0.2605738969583722,0.7091469601091751,0.7135219974773181,0.8564889328462453,0.5526617442353361,0.6536606948346082,-0.1961091645568538,-0.6951855693735074,-0.6059243561323866,0.34649166196479686,0.041785829926228146,0.027560267664802796,0.050564621653198305,0.34669014349809024,0.510496903204424,-0.6344349736573582,-0.568473106274799,-0.24576672220907536,-0.6333505885506323,0.5601201891370446,0.8823549290861203,0.10579700159186389,0.8591965461645241,0.41468055919633073,-0.2871839269936014,0.51804544391275,0.1848804323252684,-0.9822737870787617,0.30882368537836724,-0.46322930506356785,-0.6898173552767854,-0.19369579834377304,0.8670851717328067,0.42382964764361586,-0.0374148409640509,-0.21343942326223453,0.25344721284093485,-0.38436958544100097,-0.1991572360943854,-0.6612463626000793,0.5364951095625095,-0.31987474482892675,-0.671037615342934,0.7591272615550251,0.4724494279897047,-0.2759364310007557,-0.3353956847021111,0.3882233479817403,0.9250277897276131,0.9907632626551226,-0.45953217030883353,-0.7411515403170186,-0.6390980041044738,-0.6784906073236008,0.30739146265164163,0.2397638807115987,-0.51583359898944,0.9053675117672371,0.04597112460129216,-0.630923230678657,-0.44080656558213116,0.7107102312199227,-0.30861824771900825,0.4503955844344829,0.24019949834483767,0.797636462435718,0.9910583760609908,-0.45571093968185394,0.19805625294686635,0.0797274291588741,-0.9857166233320451,0.08871788122792501,0.602675190785662,0.8985795271962267,-0.5349278786305351,-0.8857330991337977,0.35635366590206363,0.9576338960951631,0.4405847400055789,-0.7504726682225513,0.6393718764669658,-0.6231842979050066,-0.3004247540266469,0.754006385765335,0.5508244308232482,0.8120157777355765,-0.4681093125198059,-0.3531027720436699,-0.36244014475989417,0.20046260368482116,0.33309174694979005,-0.6461488070782657,0.19197397454237985,0.7733968681867416,-0.840183269443276,0.8200132706272902,0.5141580555847722,0.8234475215191017,-0.05981486940043346,0.5272637094042534,0.12120629601128607,-0.7541484943957979,-0.007926100175422501,-0.15823980731073828,-0.11842610415996369,0.7469459715464446,-0.4595296392749777,0.7540569249159694,0.2246743087616534,0.5376219734059382,-0.517934322801376,-0.013974831127439913,-0.475740089966334,0.8854904403576127,-0.27618693650809534,-0.2416778276476652,-0.9082409340104127,0.760725320585486,0.32663726521958636,-0.9272862616072011,-0.350249946092116,0.3951695953463896,0.2440548434253238,-0.467670383250923,-0.20058297144651216,0.7944190414156858,-0.4443828516789492,-0.3044754414728923,-0.32925151554776444,-0.14897489265078656,-0.4759777953482922,0.6921652867957382,0.8216041979961008,-0.1290430312124493,0.5302764789124059,-0.00887160304462542,0.9179474590820809,0.2887744219890276,-0.18246673502499,0.9704514698040769,-0.013493537365078634,0.9618805220892828,0.021183201783536276,-0.5259606759204054,0.009035550734868725,-0.5285391526202876,-0.21232112077299226,-0.45187920539116644,0.36559371310960165,-0.696051810988046,0.29721882516621,0.21507121416737607,-0.8504503581757821,0.05794072479368606,0.6778364242912791,-0.40465547978136707,-0.06646583596449296,-0.4360832981145044,0.7227589607882634,0.048857901227822076,0.609004386088094,0.2687497002034924,-0.2924348631672815,0.048436501042279145,0.6516579425419764,-0.4670935695607106,0.8899677594670141,-0.4730680357393535,-0.9449667114796472,0.8153948838648777,-0.5375425017591826,-0.32228263949857405,0.8040145363082922,0.35213825229736306,-0.6882028829270277,-0.2998193787063541,-0.5750654757497371,0.9579478526731133,-0.6141739518038292,0.4209840534808016,-0.5562384080425815,0.6980271525637312,0.35506363935625274,0.575866151594044,0.6483197289348077,0.48272572564193883,0.7812368275867156,-0.0933823850910005,0.6265544186186536,-0.2960553082044113,0.5353641868222456,-0.31084533307080253,0.4814044146913308,0.5077533085427797,0.11797954496271057,-0.8515690472380022,0.1702727998086917,-0.9137710567895636,0.18398944017594565,-0.5910355215565819,0.5258170669389315,-0.5829957666566006,-0.34190643497940565,0.18540272661354007,0.5489313947184897,0.19410405098094552,-0.7951661277091084,-0.919678712249584,-0.5490325689277766,-0.5660231837619722,0.010275275414763918,0.19864940747856585,0.43431616773162385,-0.7433138786578866,-0.25408126274802467,0.7261009086562815,0.08862077531367563,0.2534288426312137,0.20169657493398252,0.4077922791733266,0.6974256716736393,0.9426558165888972,-0.1648879177901621,0.2730268202658581,-0.46483248911887176,-0.7616640729298005,-0.7540484334965338,-0.14317816550944684,-0.14452542790702272,0.21243257920120762,0.16890672054444034,0.5713710427938199,0.6750137260043731,-0.5017228825116491,-0.7598860251902881,-0.6887787009057276,-0.9746529458394944,-0.7948277465697895,-0.31351280829916073,0.012513490794446414,-0.5983360996019818,-0.8690721901997676,-0.26526729437844776,0.05510248419270214,0.6642094120111701,0.2572158475710611,-0.8098239721817371,-0.8846607555251291,0.5204341066822125,-0.38779426125562866,0.8772626845567306,0.29996230909646937,-0.9217804740990447,-0.43988141778561674,0.6858238689415681,0.7915514190269206,-0.3143720221504642,-0.5249888036728692,-0.8846921003699539,-0.5719096913144777,0.5530100296276248,0.3358813693192322,0.01370135450299692,-0.4474451874940455,0.211104954365523,-0.06642469365354753,0.50366554545873,-0.761871584167535,0.9183441009492495,0.6066289051601383,0.011672982883442096,0.31338863450404464,0.5994930621143595,-0.2989751677871739,0.31099575079160124,0.10712246248056156,-0.8979017517597352,0.14941508431092632,-0.046437347869570544,0.09503241376694649,0.46540645124634494,0.5736889592341559,-0.5680595928723109,-0.04962455221707329,0.7684169423360865,0.7725551399647672,0.5158691957336883,0.49563227452895586,-0.48274472324883133,-0.8467603260784775,0.35806422534807214,0.4205659339764929,-0.5167314043194551,0.3175818431251718,0.6760080683767802,0.950314327739447,-0.02679494398028348,-0.33477312425045747,-0.5892926039160873,0.22707680496472982,0.40399926503174566,0.489702800420285,0.6080949482158216,-0.9916532507882285,-0.6904528822929685,-0.17271186032182473,-0.8918763186077572,0.2059221370244173,-0.4656918620371173,0.17789271228241765,-0.26477283586693745,0.8311910165497507,-0.43495096177479975,-0.6706345806700187,-0.3643293373421004,-0.3118882699991514,-0.9771339328745721,0.7787348677795567,-0.6421608761364377,0.09516148499900501,-0.3607013402878494,0.9192487708875554,0.614976995622359,0.10831461815065424,-0.18272368909721592,-0.43197218034162876,-0.712217282167207,-0.569587780417339,-0.45407308579633887,0.525407447568496,0.8623196351641285,0.23285019301205945,-0.5140108216770352,-0.7560652748567251,-0.4818113567786644,0.5410470151119287,-0.13065665682970717,-0.5363411401554099,-0.8857839553992461,0.9921922303493493,-0.7595082515339135,-0.9256631766846197,-0.18640445304912312,-0.7378771613518036,0.8447048521058407,0.33713133215360336,0.34469905318707816,-0.5069069101836079,0.926080352879032,-0.31296835367573883,0.8289000936224495,0.8064934056802302,0.8778706033308872,0.01185223954855208,-0.25913522782081544,-0.5446687498161682,0.6161404103951156,-0.46353143041832334,0.5512166576942046,0.5269660953787645,-0.4088862752062008,0.07055547471264445,-0.2168075351744283,0.4242415540199518,-0.046745734415057694,0.3845642085529202,0.29420744002543175,0.07050036865227671,-0.08149170642081871,0.9074390293874366,-0.012761625974340385,-0.19632392053100967,0.5759320644574253,-0.6470827606877589,-0.02894489458239935,-0.767958782203968,-0.8600900889696328,0.11523706591583327,0.8854339911771894,0.22219156089621261,0.2685545954550299,-0.8552625366982742,0.3985658628750881,0.602705413469834,-0.0756323787869968,0.7335546885544126,0.17872134783375349,-0.7934309080035613,-0.34368103398839356,0.08156205200472288,0.9262007139003565,-0.12239201931673782,-0.8245444171580121,-0.439626748747755,-0.7454582700871064,-0.8804084302613524,0.8008493637592,-0.7334401771688464,0.5855909003747406,0.2234480986381031,0.13620627193147006,0.4209568166221993,0.36505310338744446,0.7187084750741661,-0.0155558663099864,0.6483136670463814,-0.5237363674961037,-0.39716171966790337,0.20721127741604994,-0.379736864695015,0.7017129025647981,0.3690844293727893,-0.07151078899331198,0.07435393375165344,-0.8551367127001817,0.042732671140435885,0.6825211377728331,0.7596625999164321],"weights_hh":[0.7924392319425444,-0.7976272579714647,-0.9228941543485509,-0.7475809647065017,-0.043227112952779256,-0.5507684502766921,0.6364797063995633,0.5741321198078502,-0.28656124508192704,0.36345490386081525,-0.30629170514052495,0.499368939026839,0.8432713247822539,-0.8703557753486535,0.7332172932780143,-0.8346183407318069,0.7386547518490876,0.6699483027394864,-0.5868333427579977,-0.6948477584009376,0.2547555387185527,0.9381964607410094,-0.9042965658770195,0.9611099171501092,0.47428799816922784,-0.6415941190526782,-0.029749144010364104,0.054565009607200565,-0.9890528707481048,-0.5530294599335142,0.3738210937434776,0.5201252253613853,-0.4664585141909905,0.3890984508527857,-0.28584563068348445,0.46186913999761425,0.6952946872024215,0.6613697527838847,0.04872520344826037,0.8182443482513153,0.6390134871119231,0.48144900559230797,-0.7324221799399568,0.8322221480996825,0.023206354435752585,0.8082596191803919,0.7873811732517113,-0.1132056890583637,0.09043531483247547,-0.9538112417078239,-0.384317333964479,-0.7876334140120669,0.21587634253444454,0.06628264407324025,0.8301850265122428,0.9019983731626378,0.3032252571701972,0.641006880270246,0.03568910301692374,0.9373514763606727,0.016489338185588842,0.19956050477751042,-0.5526562106063488,0.28947757148409603,-0.9571500185431037,-0.3800978014088703,-0.8929569691756027,0.9096008464233538,0.906743068821545,-0.2132671078483963,0.266118181093719,-0.31910962620116234,0.056848524963013736,-0.9282723945000002,0.018812871731457514,-0.8463408262262688,0.09429290332158025,-0.7575550025651139,0.46817393097347604,0.26637485388395343,-0.7752306477917792,0.1770482787739518,-0.007928951472037316,0.21549842575558964,-0.16066072260525255,0.44311729081747275,-0.23118959857195143,-0.43124381987573046,-0.5058450231803995,-0.7009268461363087,-0.5795201827187269,0.687842630929768,0.1852600512052307,0.6906869115667951,-0.046106187213961425,0.002999310249153009,-0.22074907421415868,0.8161405187291506,-0.503777728016001,0.8047752808174924,0.19400621465742662,0.7712913959492946,-0.5341801653342291,0.6186068069299042,0.19533898749064726,0.5690241065135986,-0.6915162641827173,-0.2867340729365664,0.522305710923443,0.5565847065688778,0.9410145223525728,0.3315231690028764,0.32622968614552694,0.8927417196007801,0.40910962476069046,0.22175164600129826,-0.928514043933738,-0.02563921873830477,0.24273918556361407,0.09524162039440132,0.7254580496921232,0.5054500921767051,0.5703994112754049,0.25820006295473963,-0.8909997996556307,0.4955202238771965,0.41246552275613446,0.07723999347256427,0.7624588103229015,-0.04509504583765933,0.01873733704753433,-0.602269206920945,0.022906998327091976,-0.6887402775537872,0.08945636779351274,-0.4510684972785435,0.9403233542121094,-0.8226385890683696,-0.8597520095033744,-0.15816833364905514,0.2851279001880742,-0.45506380833986326,0.16578892998287587,-0.7762550356669529,0.6520362713896541,-0.7980478321540485,-0.15419278320193186,0.04905970415068728,-0.6227619032831289,-0.5682467223207806,-0.49022155830810177,0.07170139708502332,0.045481554375853994,0.29971849566446807,0.18403735824043777,-0.10825583097485514,-0.5594984834313315,0.3178449958526426,0.4319589500308012,0.2584774251960995,-0.5000728326016775,-0.5352405835103577,-0.0006448643557128708,0.9706153007543934,0.4487933696123252,-0.25837572149550647,0.1692350298914327,0.017560222838638007,0.18667783626641055,-0.7550804367110315,-0.7678928777616894,-0.7757954218319194,0.6909604903757416,-0.36280910167722213,0.7272313146096603,0.7792197792337499,0.6261635682419358,0.3245292642154509,-0.5053388571222288,-0.5392512163900038,-0.5812024431452352,-0.08459047211092341,-0.9464838172463534,0.5656775304864541,-0.7576686990474748,0.1416994906355704,-0.6418172949461038,-0.29802414381399833,0.6563007277744819,-0.7663234831303829,-0.9404432850877165,-0.04528254665584819,-0.031429229989173635,0.4956780165586392,-0.07455575296976868,0.03180529196502491,0.14094922173078617,0.7526225654467471,-0.6388312366032891,-0.7551411579087459,-0.2625426642140203,0.148436245297892,0.06340625348108819,-0.583846194673042,-0.4446748805232015,0.9918405776414847,-0.31327079782841505,-0.5010408014146197,0.7291864557121939,-0.906620834416918,0.7021137347280104,0.8214636625142977,-0.01958950847359997,-0.4606761879071519,0.21583047602905903,-0.7808843044382492,0.2829669372186019,-0.24673503032188737,0.17848068341856105,0.46058409322439053,-0.2198402452653585,-0.7579842610701826,-0.441303298110431,0.9784946580546052,0.7971640701176383,0.9620172194341827,0.05043839567039021,-0.5148314467146873,-0.505113142011683,-0.8215303568698291,0.8346209852526356,0.5262086765978198,0.45470923883632564,0.7201639940674742,-0.3049590533813642,0.5086271730933536,-0.4327856740400473,0.023966758695427304,-0.918925420995671,0.2920204190198781,-0.6694100194250179,-0.8866974857675993,-0.9785515564502432,0.7829906661416914,0.3441345110088796,0.19637491702831844,0.3702757788316984,0.9766053482242434,0.9686826171794403,-0.5727867302396585,-0.2846031284104531,0.6800716688901758,-0.45519610584133585,-0.4979685150357773,0.6617039169804162,0.8507012672651695],"weights_ho":[0.932104896258062,-0.4814826585168721,0.20261062840438293,-0.6743946104886049,-0.7524737713408967,0.9641026646490911,0.21879676310070484,-0.4279324022127813,0.10933741216146076,0.48002123856593815,0.6888630297475267,-0.7816538216299762,-0.5309777377980309,-0.23380719244802672,-0.09334800313556801,0.2481665857732438,0.6798015963215822,0.127216114098905,-0.41705011015785454,0.5955805361760633,0.11416829885566471,-0.8803137343108529,-0.8262995570781377,0.18618369827977999,-0.5329586514835167,0.3362039306360953,-0.35225086329722255,-0.5959523970829061,0.9184375032579486,-0.5334514471754175,-0.6521206420402013,-0.0690026279584679,0.15426618500010725,-0.7688133674894264,-0.36653441625233185,-0.6129957929565251,-0.6998610839619348,-0.7373038866985473,0.760515600922052,-0.7232003033918522,0.7895273154180464,-0.06947016152687913,0.2771651779488675,-0.6026343052847984,0.16714299008660327,-0.04590602371006702,-0.6235364302595017,0.8037844467451536,-0.7412572276059415,-0.1784922648858045,-0.7641362327349979,-0.9452270555814757,0.013010302037196553,-0.8023069883095477,0.5010998135651374,-0.8555360621942902,-0.3096043263615076,-0.5558765870009088,0.45484917976984063,-0.7749531353890347,0.3080970463835364,0.5061445547296779,0.8083779232041672,-0.5970916665918886],"bias_h0":[-0.8414199540857683,0.5945144098106163,0.7705635960926838,-0.500194877543781,-0.2044204345267151,0.5420689993493284,0.7155174956517192,-0.4711689697976058,0.022360718534609303,-0.7326944647904352,0.46994526284290417,-0.20146915712683255,0.005301977897188559,0.9808919988699265,0.18220474902792105,-0.2582399845917962],"bias_h1":[0.8248837962440585,0.08700074872705699,-0.9237217549521053,-0.8364152524165165,-0.8581350427175776,-0.9163764276298609,0.36149782180596723,-0.3572853743209228,-0.26026754605237246,0.05939935949946684,-0.5198419872132682,0.3278505472961504,0.7188989280968332,0.11858931091782066,-0.8288744873183105,0.8040287802402237],"bias_o":[-0.20145764170852343,-0.7507778486665762,-0.8609660290051802,-0.042114018105854356]}