{"weights_ih":[0.31468537255990703,0.1566756415174122,-0.9395739711931577,0.47372683373481417,0.16131521445358699,-0.14978977697984242,0.8188778252388083,-0.7584812069702818,0.36055265056237595,-0.06475617213415785,-0.13930141124998374,-0.411651001452948,-0.35543595754369206,0.42455322148129704,-0.44701035131310385,-0.8184492630456479,-0.9134905974159186,0.880106041946882,-0.6834552915252583,-0.16969412381312843,-0.0008380907535898707,0.6698153609606567,-0.7468566050692023,-0.8946295728903926,0.05669976515051811,0.7554044390874015,-0.3739331183595591,-0.3346092598422594,0.8275586344956416,0.0651871027898967,-0.7384926116948674,-0.3688393867662183,0.3919585511912751,0.7909583572599626,0.2986065759770493,0.9745714102179541,0.1946768571610935,0.08800455518341899,0.7901963918807335,-0.570489871769825,0.003200902536769412,-0.5319313862424093,-0.6758064308911222,0.9768069557325356,-0.13646446374404042,-0.5471941217204968,-0.5747310635481264,-0.027110940271754203,-0.7950236987580448,-0.8435401970236536,0.9024309885059445,0.8196123958289245,-0.5294506315944669,0.6248157022027172,0.467726546158147,0.8421524911029679,0.7688891295886435,-0.17930001116599814,0.5572246694602547,0.24353188168424245,-0.11219624259863492,-0.04920011044115169,-0.47298594910590075,0.02422947338469217,-0.7565181872713076,0.16908158808236373,0.4333958426548119,0.35832255732245444,-0.13523277171199544,0.02466780496852694,-0.19794021730505862,0.3784765033106898,0.18215165461593474,-0.2240202251669765,-0.5887070239687557,0.7661707619480782,0.8196556249635512,-0.7444413635906053,-0.8058438625083668,-0.40225214719824565,-0.24358295468094315,-0.2834032042928667,-0.9459847533628281,0.7094775341878821,0.41072246632637244,-0.11198671026597906,0.18920762764597554,0.1474769741356321,0.5883840162934475,0.09233426169950065,-0.10592718723196581,0.6461752050554943,0.6515639217146982,-0.46421727751377007,-0.28798777550887733,0.3307025096381728,0.8223230638871166,-0.7031179191604584,-0.4384003454895251,0.731576012812607,-0.16709770183767136,0.718310031087853,0.7428274876837502,-0.24960071174537313,0.8887131679597398,0.6278046147723506,-0.6414086567522788,0.7982082674521218,0.7793397721373274,-0.7369372831880145,0.22035914485077268,-0.06241132757655676,0.22088997009095257,-0.9967270572475668,0.40233352570077874,0.9795557061407081,-0.1999168033922294,-0.9741372911146362,-0.0416311541740757,0.07885244205807984,0.6963458898338215,-0.08927392840075998,-0.5678252169626297,0.6284994693029826,-0.8871076595761982,-0.3598305352722324,-0.81076535735504,0.3373455237047427,-0.5877447554195487,-0.5681130782091837,-0.2782360989889856,-0.2867524460716979,-0.3349407040232606,-0.4234201203473198,-0.8042174866875671,0.2781414210950339,-0.1499598642538187,-0.08330914995754313,0.5646195838585941,0.43382628748574437,-0.2616772673938852,0.6478920179480603,-0.3677089153655948,0.07004365048797467,-0.5966217386635726,-0.9578528589584663,0.5216170495326891,0.5575527177029473,-0.02503696222752394,-0.7528624199340992,-0.9966321154005355,0.4776695203199126,-0.36685292631008903,0.49541826760104435,0.27128689989882315,-0.8715397572460717,0.41776220897499927,-0.6518555782650852,-0.6701853813003564,-0.004359933760863077,0.11344009418227419,0.8786671047575954,-0.749402317453832,-0.5457166420021202,0.44023168005569446,0.9798418189308691,0.6274640551958857,-0.5060832696588857,-0.12017252527592603,-0.20275008435494768,-0.4239609169221292,-0.19375804964999888,-0.696880060836784,0.9537035113440593,0.4391197104549236,-0.6586744706984531,0.5307460728273254,0.24145433687101114,-0.54472353877695,0.0024312866770004327,-0.21713554067472773,-0.13539877676256085,0.03875856247594256,0.41662224787724145,-0.211281084963983,-0.7639369382517371,0.22594808143220613,0.46242505901777076,-0.6092267559179536,-0.6552246094901331,-0.6159128436875212,-0.5927571217230128,0.3601512446154225,0.8338811491987028,-0.6485529311855007,-0.13020575244958832,-0.700689799189012,-0.5907324324080914,-0.9665360161016445,-0.19415874707720304,-0.48959889673781465,0.3127458661954141,0.5233002147768473,-0.2914277844999489,0.3076723384382689,0.14591457498259142,-0.6363553636146893,-0.23174466254888015,-0.7791028435582208,-0.913388196413395,-0.8005770552460343,0.525037553694153,-0.5184109251655704,0.7500159222241278,0.2903298385756983,0.8450759079225063,0.2987837032389842,0.9771140149252773,0.29824671752563203,0.7435265842051428,0.6343340173019911,-0.4325451578196604,-0.6184475982005779,-0.41320638190281955,0.6853315027481344,-0.5055570496083905,-0.4755095742838982,0.9392607032552622,-0.039595723536507865,0.25547935110633757,0.29185314441016996,-0.5736198035775839,0.757906644773275,-0.9950209438047855,-0.4784722428575816,-0.8180186675567152,0.5795105010157375,0.46093370663121624,-0.6750164382140875,0.2929207477564948,-0.09146100062251694,0.911347564494333,0.535136432973305,0.14585028339324513,0.32288064006463935,0.4661076797450241,0.12464505141149873,0.061701457732552756,0.8499486292692646,-0.990074663090228,-0.7213362384432602,-0.9692298455332691,-0.29935650165311634,0.5149005309723718,-0.8371695200747888,0.3822845318815755,0.8952402497118592,0.09455391472911145,-0.29971860370420744,0.993418910718552,0.1930646894788739,0.012857347219062287,0.8272273931974441,-0.9186043504192916,-0.9405290660056009,0.6840354824821584,0.154498128949494,-0.028013555198124207,0.5571631375864188,0.31713170680057523,-0.3694227645130519,-0.979493176949956,-0.8235727904937915,-0.7533578399171801,0.024683964154115667,-0.5866481027865409,-0.5179410613641227,0.05460468420181841,0.9748962540540411,0.5910138589488758,-0.9586174827951901,0.059143206195165776,0.23111888930451951,0.47411888931461843,0.498657359451107,0.5194890306576851,0.8789885494089245,-0.708367075827744,-0.9809094469039967,0.5110964864693788,-0.609305577034976,-0.06162878402890093,-0.6656998432525636,-0.39003859898976123,0.3845762762605378,0.9397167716926331,0.1963979948324306,0.8749148682199013,-0.5968115579502167,-0.12386378231721751,-0.3149779441056688,0.027872897338472313,-0.17073293643829923,-0.2573995584804112,0.5791725236428729,-0.17776053133595315,-0.46735997292594234,0.17468997214655224,-0.956408324049755,0.2211921848889582,-0.3093695486268473,-0.19803047299152032,-0.7515213494504147,0.43962814352258195,0.18952624379483463,0.8637231581426144,-0.8777285069049281,0.3069125096559966,0.07046649167911556,0.00808237354157737,-0.8502756713002586,0.2687837401328643,-0.14874166869914052,-0.12426696492710843,-0.6625556421687813,-0.39529068321562555,-0.29175753872188026,-0.4303461227578007,0.2432404761367104,0.5792323465912277,0.3373594923645986,-0.16618742103999873,0.9377899111793391,-0.7674205078728258,-0.7817677178100149,-0.8123888634796899,0.28938456662669054,0.3892997889349761,0.6768189110366967,-0.016259952786261467,-0.14276551538616356,-0.4710255334728446,0.6062859986139253,-0.6005190416166717,-0.6290592020730392,0.06993011714943531,0.6311407628443542,-0.040504585205811905,-0.2000671489376873,-0.23382241142377458,-0.42564958597640157,-0.8754670260948978,0.805299402427522,0.48233678035503047,-0.34247329220299094,0.7165431807849425,-0.12430773896236724,0.5263772495332069,0.5179083422356094,0.6470877842772456,-0.8194025100004909,-0.7377707978041488,0.5071831161628837,0.24261295283801498,-0.10162623257579528,-0.17274668239829793,-0.19193256280374338,0.5258758997215374,0.6878247834553013,-0.989587651783771,0.8255447788570256,0.19538800608156626,0.9510318622575133,-0.8635204827991811,-0.21404230657441858,-0.9451635491538073,-0.7280236805429645,0.7417663555721659,-0.690033711827382,0.6690998797298187,0.21902385966672422,-0.9790327064858071,0.4750524520562871,-0.8998734604000351,0.8617313608536497,0.9567595141201257,0.4382801757774706,-0.1797420650037609,-0.9621798784323123,-0.11658382848287285,-0.10865058857964804,-0.7627638612693326,-0.9873690523055068,-0.2761564397843024,-0.3404422498019255,0.8019207795181926,-0.7232309561249786,0.5361706586706745,-0.7726141458303168,-0.8289060538896282,-0.257807804636226,-0.507905385467456,0.32386935537295436,0.6309434580346365,0.22010212059081136,0.23706145359859176,-0.3911980963170054,-0.2911056301220345,-0.39910929613626434,-0.0042272073477793715,0.8532131121423145,0.24483104175584747,0.7300410688246459,-0.8674354277165521,-0.174039749461679,-0.5449050288973907,0.8657293484383641,-0.4120716495697434,-0.13262903162941542,-0.19425284404923104,0.2446815663132349,0.9170413835275903,-0.6188925817521349,-0.9710712007526852,-0.10774619320706025,-0.5507318334112044,0.09210717166610438,-0.9654234781290401,0.904657719252518,-0.21164167121208766,0.8704233671699164,-0.9100484988618611,0.6628451844103487,0.47695193625061116,-0.48630854171213733,-0.8021080686825985,0.038441315274090115,-0.04443743545752721,-0.2163332315286346,-0.3870452945017835,-0.4982296057016775,-0.8640755275945966,-0.0318323910449112,0.4618560319039795,0.03244489990801336,-0.6367388064273707,0.061568138588855126,-0.05475395941642924],"weights_hh":[-0.12026194983995198,0.43128717385104887,0.9333683477659811,0.34447685962152375,0.07129144358416006,-0.9132800979438207,-0.03127699683538765,0.6198854435265664,-0.8790779574016108,-0.5056773791709441,-0.25086925635292134,0.05617993394389109,0.9051991302038349,0.3039250097262032,0.5793805456827179,-0.9483859774647387,-0.20769680348272956,-0.448429904936299,-0.3062676512987732,0.20411356417435544,-0.7418336073970082,-0.134143254522624,0.2105598279009251,0.5441292308096968,-0.5664317376186807,0.7039475090821332,0.4773124124821435,-0.5263473970203987,-0.29001608774478704,-0.7706414909314858,-0.6926025637612829,-0.3104237747006726,-0.3491530424160316,-0.6176160846925753,0.736765943759532,-0.8524214038396916,0.21226461334082436,-0.9131439234417924,-0.987854068149902,-0.6357024434029068,-0.839198033108447,0.9317864364466037,0.09772384844731397,-0.6960459742625635,-0.9721672204008986,-0.47882807822009155,-0.7371690724349469,-0.7007979575234469,0.6440076357423585,0.7470638780357157,0.5176369579752822,0.7192783459292214,-0.262198775985379,-0.057352721396229045,-0.08394228417277128,0.5132335220292608,0.5156347579012233,-0.7919772749618408,-0.629790734753028,0.27451693161313684,-0.9996958439299968,0.7905762844121069,-0.2761615545713756,0.3782884760617209,0.6275780104071955,-0.4902252477465243,-0.021970002279744882,-0.9470048408409317,-0.16990383219295402,-0.3115109090702659,0.27298805544086635,0.9334273142755085,-0.008140119018918757,0.22659151987846804,0.9774586070378581,0.19380747343807436,0.3787265713549868,0.2346020028665885,-0.38782192079555133,0.12907342310973258,-0.4351602082980581,-0.9135395199963228,0.8823431421463783,-0.02938911982627279,-0.5627347718032345,0.17103340364806296,0.314217226526861,0.8520280538171183,0.18717405091203965,-0.3906531185362856,0.23041219664931312,-0.5072452047192817,-0.3804094584290849,0.03416596281315365,-0.8901445387886813,0.9231149132491985,0.40442957704613414,0.38369968733362003,-0.9583644058935081,-0.5921669906438727,0.011931959803251457,0.4453441262240525,-0.045146341155980485,-0.9423994097243475,0.6808331919086084,-0.6400646146663054,0.9116829218509694,-0.5325559874163479,-0.31232368619070994,0.8571233129636151,0.8846945581180496,-0.47287292478228893,-0.13502996542845813,-0.29381267609224393,-0.3118902709769342,-0.1243179434318884,-0.07453592401383058,0.5507217497929275,-0.7769346171598048,0.8144173742472989,0.6692703804055347,0.9696625374051555,0.165523632067887,-0.31480174809628636,-0.07099698845968505,0.8991790691617398,0.1449099825358784,-0.47128304760499984,0.29240562375905976,0.028208813621690254,0.6282334260008191,-0.5879933341579984,-0.1347085004086046,-0.3818815946933718,-0.2988469385531909,0.08967785186532384,-0.299837918185879,-0.3029960068243429,-0.7639322541794822,-0.2599860027811436,-0.7699057753579488,0.21215071085861603,-0.28328453392596864,-0.3520719852273184,0.1356603024800056,-0.39956242959931987,-0.404934616948611,0.5287144979379108,0.6401527704084273,-0.23718622149501423,0.493373443172181,-0.04582842992972691,0.10283236246709815,-0.10477490056170868,-0.8553045896477411,0.19254598856824323,-0.8888989069276805,-0.7900422031047847,-0.367192074001329,-0.9123643981546272,-0.9434207017846441,0.7491531972941683,0.14574039060101973,-0.12424031846947514,-0.24874525000796432,-0.2702038881958604,0.9317880171621251,0.698406899014455,0.6715970706826913,0.6482947944233428,-0.4749239665894014,-0.9713281205917905,-0.4889518873062677,0.3397959578605969,0.6469624396862801,0.4707145740881373,-0.8760492408592633,-0.11802851274048809,-0.8102596815195768,0.3744562529513369,0.029531938249913958,-0.11113763554401523,0.7541589109457116,-0.06834431719715606,0.6090351088495352,-0.8956303784050044,0.4099493859193526,0.17454119292060777,-0.5245482559499408,0.5976208314335119,0.5797383429173113,0.07800880809099131,0.924805475119912,-0.8353911690991827,0.849213830394024,-0.231735787692819,0.007768980278287652,-0.07480831144643396,0.12415082480457706,-0.4658404152491318,0.7905273113118461,-0.6249734477118456,-0.1311328094162607,0.7836379352555354,0.16355165988605824,0.8152179937666502,-0.597928935838149,-0.5774958405947133,-0.8127602121596502,0.6170977236720236,0.7544671892152717,-0.28573349359764655,0.4747316651440254,-0.9998314632286718,-0.3275686388533954,0.4096482667436725,0.5815491564517543,-0.18267043751142187,0.07942942953771559,0.46333872214879124,0.96910904498163,0.5448706579025364,0.46822562779695565,0.5577773194228608,0.369575587696263,0.08301011446196926,-0.504421531938186,0.12400457244897356,0.12714152000391366,-0.766455739234944,0.7348680415656148,0.7437848781424032,0.5756173584569881,0.6693814869381982,0.47872021358706074,-0.3156472952700238,0.38188578543714935,0.2667455218021062,0.7655368668234082,-0.14380867068568515,-0.6050081898696797,0.10235963773754153,0.15678655043965373,-0.06768774117106258,0.017807381375770204,-0.9974430224223332,0.8607497423236652,-0.6027591040660747,0.06929504089930227,0.8812224688383561,0.6107434242078071,-0.6015637553173918,0.7189994971133309,-0.22863325697644155,0.9503241320389595,0.9104236971586668],"weights_ho":[0.31637934624850694,0.8611687960027097,-0.2621956377949406,-0.5663211871431042,0.25869565374761927,-0.7239079791730665,0.5485943881632882,-0.44087076307029904,0.8539513109192378,0.29297933275555854,-0.7865999736267268,0.670711557988869,0.6824744406680006,0.41076516495909976,0.9044055544528871,-0.41152627261750707,-0.13433432401976497,0.8705959145696229,0.00016653097681951223,0.27191144642360365,0.7009326636836528,-0.17653485309576733,-0.4997056094608894,-0.6878279342720788,0.26835220747663957,-0.9331596018305475,0.2922104586277736,0.2543358253402914,-0.043929102816722354,-0.8731055897971032,0.160590907129454,-0.5667097524723732,0.10829417043129252,-0.31340450740064885,0.36020226483324413,-0.7690770552969814,0.7564742714828876,0.4428450490521203,0.5610859860875401,-0.30966149075162885,-0.4032449306449102,-0.41163488942586324,0.8522436482716202,0.5613639671356399,0.8324979305393136,-0.47590508694965883,0.9729447358298113,-0.2910110207896277,-0.24317274527192856,-0.08465111551015525,0.30315565207599726,0.55815588696837,-0.5462122717496372,0.8313215549951716,-0.9829038849979146,0.5406994322719643,0.8787633661915304,-0.20044267685139738,0.3207118825268511,0.43562536204827684,0.8602051926882326,0.8111916220471342,0.29964596248833586,0.9993268243349869],"bias_h0":[0.40247897057088267,0.1010456765059613,-0.9661698465475257,-0.6039628344196908,-0.8080565701452151,0.4077673198871006,0.3023279699870334,0.7142821883008508,0.25189574131877546,-0.18025716973340522,-0.07135870001325428,-0.14063335646517294,0.8982502167859054,-0.10877626072938962,0.8167720455749299,-0.9123758785878775],"bias_h1":[-0.1784570149916216,-0.8109983476695153,0.1622989090557203,0.7052580735284524,-0.41796862869477613,-0.7420425078139623,-0.2904434657964541,-0.41760852689274097,0.4597652252142064,0.11653563299562886,0.3853252848429958,-0.9894892572758691,0.8612500986381884,0.3275794891874302,-0.18878905985668748,0.33585682543214945],"bias_o":[-0.4409463023813891,-0.5231213896315252,0.5951490924718261,-0.6339077694409865]}