{"weights_ih":[-0.6220071488714844,0.383196860881829,-0.07939551184670646,-0.21333869737314237,0.19075196542587314,0.7209927385976227,-0.37651181385936483,0.21747185247992706,-0.45150092082023097,-0.03995418730020894,-0.31478799824155534,0.7066708869676226,0.896558965245899,-0.1138440977104791,0.25979315113828827,-0.12140175196999725,-0.5238284121490273,0.3911766624628119,0.1308792468754909,0.32310229103069155,-0.48420872398098647,0.6475204537185695,-0.5567522617180789,0.045586479768902066,0.004082683758062977,-0.1477278983172039,0.7820890180803644,0.5241366388275792,-0.540434886741842,-0.8906166849827428,-0.9613277657505506,-0.31479490341048777,-0.173933874284796,0.07204088464595171,0.2299662668909057,-0.08606952328957518,0.07830240093132979,0.6778734911001569,0.22234248139345802,-0.4654425581736461,0.22802265167919078,-0.7049518449930845,-0.2742075202190106,-0.8840820487507606,-0.4350001855621828,0.18664946528965531,-0.33939496121885226,-0.19722373829833084,-0.03772559577829959,0.5815673232953877,0.8975808735306952,-0.7198177715892984,-0.7022966574989398,0.6564070024788844,-0.9719151923771832,0.3908433932945292,0.9139889340918319,-0.3771705858984695,0.7932481975041716,0.34384478859373924,0.9719110741708801,0.7684069860394431,-0.2094422430842111,-0.5118972684051268,-0.3815242213701595,-0.5823633434369744,-0.1010165143851951,-0.8052167947486975,0.2549744479676437,0.09713644538508137,0.02230594925963958,-0.6166339334884103,0.7106107854671797,-0.2606810754995761,-0.7884810230886565,0.3712893321133637,0.8942773997556173,0.09841578815960439,-0.23815249198727195,-0.7243425305424969,0.4782695368598573,-0.12916542058069536,-0.9945694147763307,0.19116609466268453,-0.7697545540129858,0.6222621508572548,-0.43156425241637253,-0.20948589730559664,0.011830612160994125,0.3203643649081689,-0.31396059871443227,0.6435104316208733,-0.16846601159797658,0.9352951945758325,-0.312262847079116,-0.004191489133885229,-0.06590631843039851,-0.32391104325833875,0.48800116689211204,-0.44305926184083044,0.5772842475653182,-0.5308812192201458,-0.36907811915364364,0.723282029237929,0.22932588794299003,-0.8960796510814864,0.9576498171748642,-0.09512844130611553,0.9982532833050566,-0.6822478782466748,-0.1475226846886879,-0.45056143777852564,0.7262295202812248,-0.3597197366351712,0.6944243646894399,-0.7832260845582573,-0.7146854272053262,0.22296605899471045,-0.17439444806294757,-0.03824908936063931,-0.13965640273051538,-0.7141986384518875,-0.28324556448414717,0.02190645272675895,-0.69833782977118,0.9843138629936152,0.9848513179221063,-0.18293948914230973,-0.5005581036840101,-0.6774621620691887,-0.47137229766092337,0.6865923298757877,0.4553405984043224,0.6761321333537298,-0.6820997618693083,-0.9102072592067585,0.253266733776651,-0.4258792056635121,-0.03109491203482362,-0.2974747604246051,-0.22944770763881683,0.21389700850194981,0.8200259997885326,-0.2302143344787324,0.8408619441970098,0.24607842561516535,-0.30601965795981667,0.12556643903573206,0.38479725894666883,0.8769376326885558,-0.15035199858461779,0.16141823100833408,-0.5509632376845217,-0.45785271799718297,0.7281203834672179,-0.4178435805158698,0.32813198977166014,-0.2513772321849779,-0.7089395249885377,-0.39997317022624124,0.07412139051257594,-0.14965388651869804,0.07237198538109513,0.9037040200773883,-0.37156941807994626,0.49254116719922814,0.02337285924692334,-0.21409275186794408,0.5124012378179241,-0.20643924741277342,-0.3415673551054106,0.9070746413216959,-0.424200715902598,-0.730865634941853,-0.8646101347461972,-0.4536166797384633,0.8825768046478069,0.8207331639370925,-0.41087206206801663,-0.9379424592636016,-0.8840893202130895,0.6466912499966924,0.2963912922397509,-0.7523003729892053,-0.4260618029598877,0.3029021433532453,0.28067201966267663,0.5813955690419992,0.6357443919962196,0.5494290274724769,-0.5724465823220868,0.11579286648590714,-0.3652125509466482,-0.5205870417923908,-0.21219320785849427,0.4212887233528797,0.4988561326924186,-0.8866134476260372,-0.9041702731983583,-0.20401021790944762,-0.3105461791655335,-0.8564892961110968,-0.6969392617519048,0.2326335707876308,0.17221157128585585,-0.5880624318710719,0.636098957445139,-0.5581334881944182,-0.8942477053875619,-0.5398914073924965,-0.13015463559186302,-0.9587175190944546,0.4020295603847994,0.9122029020845688,0.8703797044460821,0.15087710418544042,0.5650369659414636,-0.46941834571343755,-0.649030769914468,0.4766084019714707,0.8097167009591939,0.16031299226889129,0.3483869520423992,-0.4548550893830512,-0.35503651428746563,0.14199455232196323,-0.10068539776649854,0.3476314711588593,-0.7452174495709851,0.06970770635315016,0.8725963949449478,0.9046815584754864,-0.39020419608773715,0.7676411941283166,0.10095108623813265,-0.9926667677391128,0.7954359406277272,-0.4145888035476297,-0.41972026792195805,-0.0437290696393704,0.05043304257650272,-0.8560063832251885,-0.9882066647426935,0.8662576228141181,-0.4836347591612733,-0.9539462343149014,0.8880377538682429,-0.15069176289600295,-0.4002597497557967,0.12714176410252853,-0.056933182812045624,-0.8528409699919848,0.5539362934237788,-0.0036680100123773762,0.01591633163045514,0.5239345335527545,-0.13369764744296275,-0.3493379070804725,0.12322944456819518,0.25603555738142636,-0.37141423433305865,0.4349631169987618,-0.016359122167318718,-0.864687272244324,-0.10480368746671465,0.45365274890544094,0.5300057151260527,-0.10249020116069119,0.5636943729259714,-0.20735163267274204,-0.3994182503316288,-0.7552028226191867,-0.24530891601816474,-0.6640258860514237,0.33539818551720546,-0.9029839021875923,0.1494850815748836,0.03963816985899671,-0.874608488149069,-0.7314791277633061,-0.6440122355488054,0.5363808326803592,0.36826523446400783,-0.37746017595893977,0.5889892027021812,0.4994795657662501,0.3518723352789537,0.5854497071546911,0.18365190823311695,0.6046434366033298,0.5754313436232104,-0.796087755254359,-0.42576352569681775,-0.8384265797943571,-0.9922565073487841,0.7725473533238889,0.1098464407459614,-0.5731483068433239,-0.9492761023559035,-0.9186449867594613,-0.07238423817369277,0.5965848606134598,0.6677490183101771,-0.33485028653714877,-0.5989777785268555,0.02611340076512292,-0.590353011419112,-0.4977909221828847,-0.8841916193239294,-0.6991323606806108,-0.46564454787206744,0.6671840483356668,0.5683223361224983,0.37312698160271207,0.7354019845569695,-0.651862287762057,0.6006028223036906,-0.34924970501114294,-0.33619156008567375,0.1450035635821707,0.8873338340079024,-0.03982718886091363,-0.23347597602838044,0.5011311133892669,0.18387139310912115,0.11327759543413274,-0.05135948907815946,-0.383353820229013,0.06383436826822497,0.25753543266482093,0.7361591663386744,-0.7289823339903774,-0.14548163972849593,0.566245327501756,-0.6878214670898097,0.297781420277766,-0.7385370112791312,-0.9185880704558638,-0.7790290048604731,-0.21030800480445833,0.6218789967442904,0.2562874129164401,0.9656924102762643,-0.879414929614647,0.10290482121272349,-0.6504006515574412,0.47673496325080444,0.29567469528487655,-0.3442575472074274,-0.6789094872673693,-0.9446758276601825,0.16008315098512194,0.8614559751401063,0.917366995565654,0.4673419462011752,0.40005399993832613,-0.40660408535777304,0.26433329074174683,-0.05804669961361797,0.3053766794239692,0.3716892999328594,-0.19471596669857205,-0.9228139183722535,0.1267783151597608,0.013339482955869286,-0.7148089154598367,-0.4203378872056609,-0.5135621714260448,0.6850331636247009,-0.06456098850175973,-0.15282390122326306,0.06236098155379599,-0.6073848784242271,0.026424930002975522,-0.6689572531517294,-0.8323464105060336,0.48928583171791873,-0.9294913091101049,0.5475207551696966,-0.28569869109583657,-0.8647236466298975,-0.15874609661193295,-0.6445108493970673,-0.7913366593846709,-0.24753663158287242,0.08499120114176062,-0.43867096719226883,0.3711484380622574,0.34883121518076665,-0.7537379447224617,0.057587899572408174,-0.17205635385745377,0.6963374847977253,-0.32531747028937197,-0.3478691396687956,-0.12567909652221276,-0.4244807785547955,0.256513897950587,0.06602937505128081,0.41629109453395996,-0.23269287070213163,-0.9445351262973831,-0.9260737621571522,0.1696880360387638,0.3501302319136885,-0.3847818588655987,-0.2629578392980456,-0.6897705938850598,-0.6854859410808711,0.6169699644612667,-0.596046794334538,0.7128726665796217,-0.8581224608640359,0.7845674316267921,-0.3031918596824352,0.0073342338850499456,0.9733506976521973,-0.021761233550322334,0.5832324467173922,0.07918354067312583,0.8936211698971084,-0.1120114302021269,0.0775056554182878,-0.7039207763385575,0.664820725618539,0.9241372106206871,-0.16051635620037286,-0.9982191253388217,0.9643035027987896,0.0029537007945352745,-0.014311511568604773,-0.4437313448782485,0.856251541990142,0.3427180602070077,0.8973984522893399,0.033335476616226156,-0.031872905384604744,0.6988131056840949,-0.5704380772734665,0.5529607921028723,0.5596611710910662,0.5865035554157689,-0.6642935734919282,0.29051650890738,-0.680811883660976,0.8796458329224126,0.5358436514407856,0.719783434855308],"weights_hh":[-0.6002705156845602,0.5870853588360072,0.6371663086995352,0.3644764950238959,0.09465854861483813,0.2965770012413491,0.6618839537134866,0.585410369433438,-0.9041002675276695,-0.398359283692157,-0.24188803126787084,-0.9567535852565128,0.16940918638355362,0.4954056989980251,-0.9182757957459744,-0.6218658172859801,0.7438672413559837,-0.025990760698830995,-0.4510251773196672,0.797862189142972,0.8412041359528974,0.18629085273808266,0.609363678586776,0.5932180601379027,-0.0062481769214419725,0.6451168050807021,0.13732514905141358,0.4781033675263593,0.49570161057367224,0.30311270108069577,0.7686686944812178,-0.1542076494179896,-0.7753886158618151,0.8640875381898325,-0.523611666112956,-0.7157214372066516,-0.16582736360655614,0.5007167643714123,0.4321958301778692,-0.44830674328098974,-0.2668413743828013,-0.3518482494285995,-0.7534862885820821,-0.33463311917361893,0.2955561451552844,-0.28473752892881077,-0.8466446176472742,0.9552699229133377,0.7492999798933364,-0.6058547736519784,-0.15352791334188165,-0.25170508281948756,-0.6398115550508117,0.38530434642231337,0.8294046554497496,0.8278663368317174,-0.5110471932452612,0.48182983707297633,-0.4267797827435298,-0.5112338497903233,0.622909279966845,-0.496016078025882,0.16002441438627568,0.23346208715728967,0.9024105101406121,-0.3876491106521516,-0.3178568532541244,-0.3862783940489678,0.22373240705245068,-0.3547543761358647,0.1115193265733192,0.8543745882291853,0.591563408196986,0.22300038422149915,-0.9685925300359077,-0.37706643023169883,0.36692447694754127,-0.7716280908772464,-0.6683182694740728,-0.7941129769311466,0.8803274296937047,0.8913813780783117,-0.7487664847809863,-0.07934624649427824,0.3858065294683306,0.2995870074112952,0.6363182487274641,-0.6425692573454433,-0.8782719031680453,0.6045557397532733,0.2552820006495773,-0.9240907083327798,-0.7987301144897776,-0.017817647730057784,-0.04936606898530527,-0.24341577090738942,0.4327128310697723,0.18988185134556623,0.8123302000858619,-0.5397157895514202,-0.875787232892945,0.8550669966204416,0.9578664887874051,-0.745008019632867,-0.20130653651571784,-0.7298448033824831,-0.9014130656602146,0.46628929511225903,-0.754324172609073,-0.3101002064221239,-0.643868360418691,0.9890531881138964,-0.16434092872758188,0.36817302725610435,-0.07566768339711416,0.867969368522989,0.40838887300722915,0.8244956361502835,-0.9128021237492936,-0.053879814151942096,0.9015919356373414,0.5657402587600429,-0.1500862600350461,-0.9846033152866849,0.9545613977452319,0.6832198185100804,-0.39234634512040456,0.7640801586034542,-0.14916869885119155,-0.9661681174547083,-0.07264471607979894,-0.38120770997860753,0.73311608465998,0.0618368583236939,0.8703130345482815,0.6650187880576313,-0.33212542207301765,-0.1667595722903117,-0.7493872076646326,0.6228980056067015,0.6733957597590909,0.4631118473682079,-0.26454375191420865,0.01994188877934211,-0.9564769151354058,-0.7788979149137476,0.6201828750755323,-0.3393044436594015,-0.9679430816915899,0.3949863950460537,-0.5905552490594244,-0.30758057279537,-0.19577227651630924,0.028391584531153535,0.10082558012129339,0.9481576214021468,-0.36003622474328223,0.7947971091383155,-0.6098165548670644,-0.5304551362909504,-0.9633896167514797,0.8744836335109729,0.934822291238355,0.40843166069673575,0.20835519992719687,0.13306430358245547,-0.7379798110390778,0.39706274024735855,0.27558004629959676,0.053449910716435234,-0.2238916226015133,-0.17882298153899545,-0.017599272687980116,-0.9761527405191301,-0.8302940498629456,0.7175828043785077,-0.7792738562570141,0.11828501771912148,-0.9444787065125577,-0.7021429755485724,0.3482463036016896,0.44297195643997944,-0.6595170033092179,0.9738493346215145,0.25737821695334495,0.4922702293278378,-0.6688673379353842,-0.1493694412009101,-0.8813553830966996,-0.5044852252792924,0.2237553275081261,0.6485579769207628,0.012940177216980153,-0.2651469359411305,0.6456669648855176,0.1882883177885648,-0.40817804810280944,-0.4733914738058409,-0.3490026078805455,-0.39749290860156106,0.7794202733939002,0.49239678925855546,-0.5282995302395368,-0.7207232716374148,-0.3428561745725449,0.3629717343595733,-0.4671759781727982,0.5196429845790822,0.11928838669215835,-0.7060060677944047,-0.29415080380572856,-0.43484086663500365,0.524510333834131,-0.4576215752738353,0.6013785913257463,0.08496726350503203,-0.8117885659179032,-0.8409532165555227,-0.5916740107278984,0.35251318339561677,-0.22978175593503258,-0.5793856195187981,-0.4292217803532701,0.46558600869464417,0.11950452006823409,0.1440036614482123,0.7109689642254469,-0.6683698274984917,-0.1576958241346964,0.03592676159273944,-0.28925043943136797,0.16330019286480124,-0.11730158609757213,-0.5147144549219056,-0.3706541808570525,-0.8445868920202741,-0.34133083759981764,0.8863889065913764,-0.9354506787236341,-0.03496281964639114,-0.9968221278134319,-0.5974203525724675,-0.7982531093807277,0.6583162442919024,-0.11224361796597115,-0.9364212475962324,0.534220144621679,-0.7972258318218062,0.038465546819955065,0.8357629826713062,-0.3281983365639791,-0.20042318261176084,-0.0790491286288304,0.6075368769553668,-0.6566081886270636,0.7867551233157253],"weights_ho":[-0.7871436712794693,0.6326879891606363,-0.8603587660410332,-0.0018755134436390097,0.3013083758306139,0.3641811296965083,0.9781463153381058,0.8121978699766739,0.8182509376951481,0.7192546827223398,-0.4885956513748575,-0.8276791845133038,-0.955732480599015,0.7124646915736041,-0.7230433089569428,0.6019920356312947,-0.8068365415637395,0.2882909846871726,0.6209353223216032,-0.48630971643345133,0.8928119881734313,0.7826355945266295,0.6549160007117694,-0.056922633249294474,0.8920961031484229,0.15453201232466873,-0.22174175355925763,-0.8643262291918239,-0.2621441755949798,-0.4254931004898319,0.5580177778152882,-0.08033636349366291,0.8359706334169217,-0.3345725603300287,-0.1247711629620063,-0.7356371532410833,-0.2146956920767802,0.7858049222028494,-0.01823266407911106,0.7243311760229099,-0.601514478616709,0.9710921319193937,-0.34789212056396157,0.9123309371974839,0.8670392340126982,0.5786646858571014,-0.7536528896270693,-0.0534832808702288,0.3593591937703844,-0.8590132525669798,0.6424899688780707,0.927686207961981,0.8049302555440954,0.9188597478367828,0.4791891011238798,0.27171576470777503,0.3264037922375036,0.10595743979700711,-0.7513399711518345,0.5724408231024409,-0.15533770705960492,0.44256516596857165,0.4704432166299988,0.26333040696887267],"bias_h0":[-0.25906327885901903,-0.9339361704325309,0.6128334057376423,-0.018529228814232912,-0.8353409117806612,0.7430540578552476,-0.9853421704040122,0.0315148052450096,-0.819209793295167,0.5546904638448971,0.29156145638669395,-0.6194101343857992,0.5566943015542503,0.8950431537704868,-0.4131462054944166,-0.08445946680950933],"bias_h1":[-0.3509475466220646,-0.5963510788641404,-0.6263993809589803,-0.5811669814414291,-0.07079504184533225,-0.5017798993401443,0.4654547928393542,-0.8898256370111235,-0.039336155500854675,-0.5429271351345071,0.9638848954187822,-0.3704696868630626,0.3771128615745063,0.7510001924490668,-0.5933609549039305,-0.3740577907422178],"bias_o":[0.6942242796264835,0.37349416036181293,-0.9135355233342395,-0.1703841806193811]}