{"weights_ih":[-0.9433255184681746,0.42337524871824983,0.35467210726235643,-0.05382406402062423,-0.6908809183782711,-0.6778318466236575,-0.7883928437587275,-0.9985680229365881,-0.730146168933967,0.4358376753211013,0.16920026320702597,0.36580146850850137,-0.18659616834342385,0.8183381439104684,0.20033661503350797,0.30458022131140616,-0.24560932926275658,0.8517904077978089,-0.2590881415790389,-0.028915689299134018,0.15794579456047386,-0.685912588252158,0.8101913209662017,0.9627156337162903,0.5427104360081534,-0.4899618139191586,-0.15788258565346602,-0.33368923274508955,-0.041683568730956244,-0.6096519668342744,-0.71238122945195,-0.2286404702463185,-0.15658872588427353,-0.23787443531604913,0.3529387790892904,0.21078504526734565,-0.21443589857703604,-0.5907965721524386,0.4167800809831801,-0.350892693290374,-0.9816945749113422,-0.3605352334800196,0.6010500686485827,0.7267260909911395,-0.21076455822390705,-0.7475491539319845,-0.7744463771241232,0.27746133902608583,0.9977276755014217,-0.6773011197863672,0.5884291827601611,-0.8301754886406827,-0.1672850025249113,0.9132352775912924,0.38406906178239875,-0.2831400969202724,-0.9721888826598644,-0.46281609980437954,0.061459090685696216,0.2097523263219101,-0.5777628215868309,0.13417057106255603,0.775992026334692,-0.4952210192847395,0.7975174413698578,-0.7031196927570464,0.8281749313486886,0.8850756503060901,0.44353578914163627,0.9985234803788865,-0.31091519278290103,-0.2359885843196734,0.26853383000071496,-0.2550757175454923,-0.5971356698009471,-0.018959187282640677,0.6524327883625491,0.8320484889796038,0.08720782337148059,-0.1418281956606886,-0.9975922632603915,-0.735181021569481,-0.9097358813277256,-0.07614185274186092,-0.375301339982834,0.35914540143038187,0.330776451685457,-0.9572663606339578,-0.38241906639663936,-0.19723975256655812,-0.44665318701946566,-0.2914613147417653,-0.37392648525069716,-0.7825559678898784,-0.2700469612418799,0.24020022994670964,-0.37570050242273556,-0.43638126385368325,0.16947716590642403,0.2525793516148198,0.577936300083518,-0.08972734941960425,-0.8336307033530128,0.7034159143370491,-0.8940997038152325,-0.2054204311363783,-0.37445528239232084,-0.6708426598555992,-0.8717045781636625,-0.8755252416970736,0.9787720689603769,0.9361921765350829,-0.1331099491254022,0.9833340251236504,-0.6914478332925507,-0.9810005396693529,-0.48530094451994765,0.5197041767109507,0.3839244775179289,-0.507864967285965,0.1752361920988943,-0.4184700670499313,0.6632656281577158,-0.639683323596272,0.13156459948617827,0.6771011833554657,-0.12793448147607855,0.5614272854231945,0.026055072802261936,0.9914032596404887,0.20464075528246828,-0.49956636025227485,-0.7831143666325422,-0.8743747085423492,0.5934353913104533,0.0398417650957823,-0.4528205890217989,-0.4438531210021872,0.6598016517518366,0.12655779286262603,0.82818051177481,-0.03688695920502405,0.3388283220662349,-0.8689428189834458,-0.19726722790410767,0.34958191544611816,0.11865928738267262,-0.8444628490258146,-0.7158487028080569,-0.1607180447939065,-0.24834527831469355,0.09018898389366736,0.6726642938321827,-0.4001824917524288,0.7461280091967424,0.2194362690367433,-0.39781094789982197,-0.786681815953624,0.6465035366871867,0.568935734099133,-0.8533725197411814,0.42206840207744145,-0.0319959178996323,0.17289309542138676,-0.0051852113068391326,0.360466350840547,-0.18028075313201675,-0.42283326985578684,0.35621894658804076,-0.6454925261661459,-0.9098594285764598,0.44210714805556184,0.39865662998764195,0.486030797681994,0.8897219661509259,-0.6698206700975318,0.5001951375037246,-0.7835536719336573,0.40348707230859526,0.07631242330231491,-0.19991529425859156,-0.30006678419645816,-0.01578107297674225,-0.09768994438439838,0.1571937426265646,-0.2718280341532735,-0.7250480502526282,-0.13781235080667864,-0.28899480575748804,-0.9265622855743367,-0.7726885242381019,0.9651983708539593,-0.18981510152616288,-0.9100731426889455,0.796457436020297,-0.16534135604091071,-0.7313681880155145,0.6094628273371894,-0.7039591665531737,0.43624893341777704,0.6516355107766938,0.6410978099080817,-0.14620797710159028,-0.013773017140287447,0.5332297353926978,0.9832438895665807,0.40420366086751636,0.8757321321305656,-0.5965424795053853,-0.9176581514878139,-0.319009881592603,0.09177981284385606,0.3315826174979801,-0.14176840627877718,0.24440206876189752,-0.49178260133640883,-0.8786044295137567,0.2818590613270697,0.793770074136827,0.47303570855561183,0.6657199722234943,0.31166063736596605,0.5192834691360486,0.12172554586259565,0.875974135033623,-0.4205554242921139,0.38169637377411414,-0.8503181959220958,0.026884791853178935,-0.08148950279900635,0.8854312972973277,-0.5127634359614073,-0.45407894721339837,-0.6624445232698815,0.6141576676088021,0.9803856035056102,-0.7268129999013622,0.8256824833185132,0.2274898676398056,-0.9306978141418678,0.16332507564799315,-0.793194102656209,0.006150329042118319,0.18477844559534162,-0.01833466672491446,0.7694613844374372,-0.40061665289055015,-0.09880002783253072,-0.7453363142405038,-0.4185441315803111,-0.8583133315469023,-0.02863021175434799,-0.2206696173325755,0.9390099710227635,-0.7711647108090296,-0.18331939378399187,0.05197241287054899,-0.10697685080494423,-0.9739592648164952,0.9985903568869186,-0.546563136592058,0.48163513648157497,0.9325861580871406,-0.16957501783856554,-0.21554719737306627,0.8722928007253581,-0.7157272770031375,-0.9599470966796544,0.32627281111712514,0.44608828153635005,-0.57312171268707,-0.7984206083208605,-0.5652576599780952,-0.24777387553252272,0.21356173668313372,-0.5587280743613128,0.43315486028801287,-0.31040441498002336,0.43860639843002436,0.6128854036004789,0.2908062191703227,-0.16446154217920816,0.6755732951282463,-0.4874765760327937,-0.7473913687721663,0.6494048292741976,-0.8113553512251592,0.989517454403676,0.8024814720030635,0.9085999937320952,0.6013889437964672,-0.6208397947182684,-0.07037476722095337,-0.6361184368322261,0.035113319518307096,-0.05112723233255623,-0.6984238517538097,0.16910355672299415,-0.4411817907139821,-0.17289930376647322,0.6870819014470284,0.3217280371311668,-0.635194093058802,0.4288438122572271,-0.17555720143726528,-0.6449445830761564,0.00015978518591475144,0.9270228601101718,-0.450512956562763,0.9874170220450773,-0.9899106601755252,0.6249865945316455,-0.19473652977431977,0.978489752809439,0.5800178786996231,-0.30587953254375555,0.7383794695163481,0.5498513448808628,0.9857679278003006,0.05889466781353159,-0.6408577950938714,-0.48478816611405784,0.9492923196650422,0.31345699221617607,0.5846193521191325,-0.32175340775699857,0.6980676555331635,0.345306464259834,0.7342948842954922,0.3129218971682304,0.5244258220372355,0.010030104702903442,-0.19149377048025795,0.1727929661353822,-0.8543370511950237,0.4458958519234071,-0.34068896775532265,-0.3057558869911785,0.8590217574831955,-0.09075378901153841,0.858912900714933,0.12820638698455955,0.861157866294044,0.8637244469279135,0.7516993720562262,0.5608541905480264,-0.815197427559567,-0.42017832445139613,-0.2887952877842779,-0.21952400469422528,-0.3921064908089922,-0.09618756863616507,0.6290111975495793,0.04818941618330208,0.05324917786739247,0.8677938273560295,-0.64993651302709,0.2699254427681794,0.003940925028077746,-0.010469295186551486,0.11376778899339768,-0.30637401986796386,-0.7980349572503895,0.9376398289441616,-0.9839909607694741,0.10022278321119371,0.5162623212614328,0.79495307846674,-0.4971493735952921,0.9737770450673697,-0.23395110174912892,-0.12541114826732747,-0.8285162214555042,-0.6400625524427708,0.45852167366851027,0.9948290274064109,0.9808411673012987,0.2133183903481608,0.5339593116319499,-0.2819079350914153,-0.170550783571481,0.14237782861853687,0.7653534702444218,-0.1575886484951421,-0.658783303572761,-0.8878336285035389,-0.15525305435443326,-0.7965198204872117,-0.6289046665333986,0.6705527437141452,-0.3616238980502122,-0.421725291395892,0.06263999112944996,-0.35870869356797885,0.9689655944428861,0.9567486466486754,0.5197619482920155,0.1701483972022353,0.9024533113691713,-0.5416310789231424,0.5793516137709804,-0.9484056277575033,0.07388228920683937,-0.8195639858050374,0.6948040222608316,-0.5025233660191433,-0.7890203333405421,0.3171084467299339,0.7584032256337043,-0.01258858271641361,0.8413479693848314,0.5431137164108373,-0.9778088602803354,-0.5825696877864255,0.13247387176537262,0.4646422570673512,0.9644843017134328,-0.2666841658191079,0.5096202429765524,-0.3872351804846865,0.4149078626028777,-0.848519985679288,-0.9121433740532578,0.3631798668153903,-0.7819473515585746,0.7714393407517328,0.7641918175994211,-0.7430560777287458,0.4111613979721056,0.00009605669999523947,0.8003589555551767,0.03045257599866047,0.7568524930519551,0.007598754441459299,-0.6391580885117512,-0.5966789381942037,0.3904556797485599,0.45135691863891925,0.1900714080578172,0.9881357983763281,-0.7082741340083107,0.8780578392512071,0.9242136200214572,0.06027769273341277,0.36398543957085705,-0.8497469121513506,0.8119706758302503,0.9155735532386653],"weights_hh":[-0.7027027870382958,-0.9937575191264787,0.9545468845828575,-0.40372162422333124,-0.7380187928816802,-0.750893383182802,-0.17458012702861314,-0.6923184582800277,-0.7525302559484082,-0.9082419828828434,0.1577089555346285,0.13150231604541474,0.5997517984050031,-0.6475455078075036,0.47318195636862304,-0.5430206389838925,-0.09175993533534954,0.6901028114276213,-0.08240607413626955,0.17601713981733957,-0.46396253835242707,0.644101795551165,0.21799724678864552,0.051495382161335534,-0.7239138053037881,-0.23421682126537435,0.3301790379628957,-0.5638746858739894,-0.40235883297921293,-0.06795852281632975,-0.12365767226504265,0.1136324862432343,-0.5270988700521448,0.0036303642196691133,-0.6447467591011509,-0.07539742191722332,-0.49999628303819965,0.9732637128635844,-0.7068134606539449,-0.8540639175865317,-0.1913741837252465,0.5773200676394299,0.7643356757699484,-0.06052629374039897,-0.18366321135207153,-0.5276613093816174,0.35242802990173794,-0.0019489886511532273,0.06257417118780961,0.255338461167935,0.4858496577209479,0.0029532748342162574,0.18630491895344892,0.7907059601165736,0.5459704146171103,0.012526520875931091,0.25706310393315346,0.8186712816941819,-0.33050191997832146,-0.7565114857098947,-0.36349714028010127,0.6859250351292343,0.953169104676538,-0.8699487840529325,-0.8188272409011101,0.6386754945768709,-0.29689693203952516,0.1813344577999787,-0.5426960083374228,0.44177844850169445,-0.030234151942726495,0.2585822292154356,0.7256605247093315,0.569766565384602,0.02510190767647047,0.07565486680325884,0.8623216283355153,0.7956969051148559,-0.9746626289326523,-0.17956840105884608,-0.9564004988537624,-0.7149930342590032,-0.3766961968769533,-0.4007625127738843,0.7463657905659502,0.776653614730259,-0.9305998404931577,0.6934560114758501,0.2867880625342496,-0.9779991683620899,-0.9309760514668106,0.35055674468488585,-0.4961460107596847,-0.9820895458043695,0.8539343286488799,-0.9556961246648423,0.5851893344570156,0.38370161846808615,0.6053594510795788,0.5691915945216992,-0.9398698656499938,0.6898513371748718,0.5166621499672805,0.37061305748530926,0.627231179992159,-0.14220664193233867,-0.26609595558312127,-0.871766021341895,-0.9558288305675204,0.4912081952224163,0.8151910898302133,0.30441852379473233,0.9850545817960885,0.03871581163141746,-0.7515082179410577,-0.035649732035398785,-0.603409365444243,0.8074007500710978,0.8047481388808233,0.4194312653211867,-0.17776140740327318,0.8046171888975562,-0.8565765055840875,-0.46775748619941715,0.8475279525611559,0.47883010606852316,0.8754671705261303,-0.4153497254093659,0.6372070011424391,0.07193916235782494,0.17165389459096803,0.5396934083314686,0.1057382931819344,0.3811172709558115,0.19131206313163407,0.4421732931041522,-0.7786741999020139,-0.7919515566650726,-0.38556249689497446,0.5721438021910579,-0.3116618561234126,0.16113541797375452,-0.6929588617421634,0.8028952428429492,0.22609762807943956,0.9527233749180073,-0.666413859955455,0.6791853771073311,-0.5365981931889625,-0.0989680818892098,-0.6031565525530651,-0.05632993227750527,-0.573346626494774,0.26256431413947445,-0.04649201355187449,0.8295454658295609,0.6192837494284207,0.5529790232877476,-0.4216783039611802,-0.7309252721323418,0.6833688188550089,0.8496187908092949,0.5285972149238487,-0.3408432624647566,-0.16199434907283328,-0.30546639485765636,-0.1838824585217551,-0.6689916384984904,0.6640075204867864,-0.21171653807226543,-0.5744912019963455,-0.4796797515262581,-0.38120653732651766,-0.2794063179823105,0.39518529360022625,-0.24442580510035006,-0.6655505904786936,0.33059061539983325,-0.9943824754078026,0.5970126996085299,-0.6883929894180008,-0.7835907892443972,-0.16636272499432425,-0.4908495144601146,0.9973904000001548,0.6146811390805651,-0.48162593561726963,-0.9548114024344547,-0.18305065978480428,-0.7812056125054512,0.4352290821980953,0.8717798443122076,-0.4506168590564821,-0.7068021442233106,0.933636857314861,0.5151432150852833,0.1782996475234755,-0.9219447990755487,0.15530630662951483,-0.41630230733220697,0.6645277997826506,-0.5603247981327,-0.557632354202837,0.09282977758310285,0.41545614437631784,0.45896918430449585,0.24875424174943306,0.20234411632624294,-0.3683677354383008,-0.12179394996398463,-0.31032365408230356,0.9453130276450532,-0.2540790887157327,0.37002643557153436,-0.2538863266328597,-0.8521959277809024,-0.49574739655630085,-0.08962031054690045,0.07439311370899371,0.37844436270031556,0.383049193138836,0.35836881262249687,0.5282324786537571,0.674254308424453,-0.2804309106610958,-0.8643359295675388,-0.5639036294343431,-0.5300284531835386,0.5397720013658354,-0.8920739660215651,-0.1814042679401917,0.881106070978467,-0.6180922943604574,-0.9261638715502496,0.6390607631818064,0.3791795991914477,0.9396322370463548,0.45775934827871945,0.9918525971063301,-0.19314575885620044,-0.5415730124253575,0.5787808943400048,-0.15235892400950335,0.3043571847991633,0.10944305799322951,-0.06524429510229313,0.01975421154333734,-0.11007288267831417,0.5877105760311314,-0.5866846409756352,-0.041258440880806324,0.6363215884462736,0.7996429643991285,0.55037222170915,-0.8646034003622549,0.24710076973649553],"weights_ho":[-0.8750022467848049,0.37533791083132173,-0.6699044573052253,-0.4046722332223822,-0.628997835799743,0.0012092353629717945,-0.11321786922216748,-0.6818348139994004,0.13376957212869134,0.7830081651865919,0.14186176176355692,0.17740420266232615,0.6737097674323598,-0.44839399412202474,-0.9916324593392483,-0.0893900259416438,-0.1038306745628339,-0.9113746425711327,0.9824380380360602,-0.4940234575808975,0.9230952486404169,-0.4523717661719784,-0.19469378712483754,0.2760015755463412,-0.9035817538849289,0.8029195009672401,-0.6665502193360433,0.5179808340292,-0.33082773231472506,0.056783945009072356,0.1975593952862036,-0.6274339270361553,0.3998380628981375,-0.21787759670066387,-0.43293954387780254,-0.45377572164414937,-0.893194631199467,0.9091624790196062,0.41541755382860823,-0.1532197795092738,-0.5723158609012176,-0.1270766103355052,0.5748925657147208,-0.16377294587398583,-0.38554255509471647,-0.195304274682504,-0.4453829170353176,-0.2586623358100124,-0.11752938676480817,-0.6781420160080545,0.7465268589241796,-0.05779555002623393,-0.8561335729500035,-0.12650426949894666,0.6387837077165845,-0.9665799749417348,-0.983713406245543,-0.5251162039372776,-0.19150100925790792,-0.651696832500475,-0.24909775564584513,0.15588899978444504,-0.9863581764946414,0.11274183732452836],"bias_h0":[-0.992112906188036,-0.019024432216305787,0.3236442091150826,0.8712749569181601,0.9528362219438691,0.9145072525050035,-0.7257947370487237,0.2249489320694158,0.48462087713892243,-0.1746437013798532,-0.986051796507972,-0.3843509388392683,-0.3961670850957266,-0.3891641764797593,0.6280827516980083,-0.7577383909891067],"bias_h1":[-0.36854790769666934,0.6873649531264145,0.12371205226548532,-0.4229567416332012,-0.10574094873677597,-0.1169727606621822,0.6095797608664193,0.5828642739423455,0.6250135758543289,-0.6033798874602072,-0.365189645688345,-0.11513987084659738,0.3057703680128949,0.20547126353717893,0.6336970565459279,-0.7155177707657434],"bias_o":[-0.11392813500321841,-0.5577404762770446,0.015491042495886065,-0.647171701251283]}