{"weights_ih":[0.44323238930301834,0.8587748280993817,-0.8387521967221871,-0.3074534876569439,0.437879301651497,-0.559439085652849,0.08610494761811371,0.43885338547565933,-0.30833683905629905,-0.7135301327688026,-0.04306556922130822,0.05273487798575083,-0.6003594464902746,0.5770295340406855,0.3407260597238766,0.3352160588284452,0.35983929584482377,0.8743736821926011,0.9676215875762888,-0.9604099315395043,0.7546398498049407,-0.3239232419954057,-0.2078374320779428,0.28170323808091013,0.7639171721494449,-0.5626406535765136,-0.048317296550685285,-0.6158096875418957,-0.4297497330353197,-0.8690390138488344,0.5927320572711281,-0.6751792768757205,0.6236021930174716,0.5594367304811134,-0.5301157978239375,-0.4299844216494799,-0.5445141879564486,-0.3560261892379224,0.006476287124613123,-0.5333918030658877,-0.5064589108738278,0.7949858458807681,-0.9933493051952089,0.5974206615591298,-0.669953511326806,-0.5112006836930485,-0.19950722382527308,-0.0702078769752541,-0.9702949692262601,0.7556371098664403,0.34647628293354105,0.879980952961561,-0.18622971469022898,0.6951653697228157,-0.19218538510625138,-0.026080232475098608,-0.9520971986779276,0.9684841737950751,0.777244311749612,-0.7221848492461918,-0.2952528424886438,-0.16985798004415975,0.011895340469645577,-0.8133279384300225,0.3425923338276642,-0.6204390953569556,-0.7742892300002457,-0.7972689426517658,-0.0984223387061558,0.5449465696067546,-0.9456553951240061,0.48628553219704984,-0.02589209223079969,-0.31389364997648217,-0.8896766692326763,-0.23141081840530298,-0.020783860913466734,-0.38585137237075995,0.4892583898577727,-0.03522910479561925,-0.15095706866383618,-0.26564073076296224,-0.29242388832953736,-0.9589675848251156,-0.2782702841932412,0.8890859967593645,-0.033505966264584686,-0.0023116630305533015,-0.5143399095485703,-0.7894635813103488,0.3537707956439009,0.6559564825372897,-0.1677461863565044,0.5023803342571562,0.665913893798135,0.3421901884937335,-0.6778953546994566,-0.7359308580477035,0.35451034977760343,0.5988255062612511,-0.40674092226863,0.3093531780190113,-0.00539723906560563,0.13881250007419466,0.30546756461075253,-0.9649389687144934,0.009216660375455321,0.7355615008483685,0.7854441649431503,-0.8279860732478395,0.617211820110712,0.735451231475033,-0.8674660371135565,-0.9126515954936252,-0.6080606779268469,0.811469815739942,-0.7865089806873573,-0.7985171107458184,-0.5484153748536513,0.22049179682452302,0.7925622591490551,0.30922086817218686,-0.9293180442718341,0.38454375031277266,0.10074080183378853,-0.2333810049028573,-0.41610411033289396,-0.9399262968045088,-0.7750286253223764,0.9315977017198747,-0.7224826015688581,-0.48701274922542725,0.6810565974032172,-0.9436163737576793,0.6910310662660688,0.7676133324211192,-0.14635579535242793,0.5229108283852419,0.010230533685180676,0.4652881227744021,-0.48575320350011797,-0.615860379739366,-0.3992186099533106,-0.4655388670872278,0.254196626554273,0.7787257439899165,-0.849426885110008,0.3727460948485799,-0.8646908919578611,0.637294150295457,-0.40607038166686316,0.8661047783355875,-0.48917212343294225,-0.8613867605122139,-0.46032600350696273,0.25948478865894087,-0.4266066884459918,-0.9003018699913057,0.8024803152468865,-0.8513138910471167,-0.8720261931499809,-0.5198703144421137,-0.7483016086429053,0.5488539974126843,-0.8090392783436591,0.6271648174117488,-0.9128934310313537,-0.23418123523238643,0.8278827971394862,0.4994237573030087,0.38332010003281236,0.7715664953710384,-0.6092013449111771,0.7314671092070899,-0.9095873615329455,0.4290388373181302,0.5455887813347178,-0.5151441944947615,0.4918608540344387,-0.2874941649973839,0.08814239391686995,-0.7037651109131096,0.20484347178148843,0.07317537249024908,0.45465076127819337,0.8703054061223605,0.4094245520105195,0.4307868669090482,-0.9345037609250522,-0.5242336283499429,0.18831097499214655,0.23440278838895234,0.1086665266568907,-0.48001080190905565,-0.5769361694801007,0.46311702667757304,0.4286261717102342,-0.0970594084571923,-0.1908566099792437,-0.7871657981937468,-0.13750418577160195,-0.7888217122765748,-0.4612551227528163,-0.7910760994218815,0.4787174986441145,-0.5617854998626164,-0.5968324574435122,0.3799501637475524,0.24753989787833253,-0.12355386913249866,-0.5751158826875233,-0.47421258380738096,-0.0704527481888062,-0.0751918646140024,0.5119749712332184,0.6930857212809232,0.46906555860008914,0.34005521888365386,-0.0338830178619518,0.7031820428080338,-0.1787776209259051,-0.3883496347707722,0.4170246352141107,0.6327780761392376,-0.6037424308153916,-0.5163818905801707,0.5948748836534734,0.8588495492178099,-0.9437995575817391,0.8470243610607302,0.2921790478199153,-0.21561796675180278,-0.016203229496242866,-0.20353622243853575,-0.7932925644003934,0.5600566458997305,0.9604777477305761,-0.4609709259457959,0.9128403683516524,0.687823854199781,0.7212890165730663,-0.641740050731666,0.7993533643030726,0.14426922466529635,0.37988331585508495,-0.9790517481097274,-0.5672191127504635,0.8521407957101677,-0.3559493578985662,0.909406130096907,0.6459730825635439,0.18520727813342508,-0.2818502205811362,-0.18606085221427238,0.09859182771301667,0.973210346676858,0.04892230306279011,0.000687047017621456,0.9263231890804027,0.7025514585700372,0.7419627440034056,-0.25560884443989274,0.8821765221656546,-0.23128116864019677,0.8458029074717444,-0.6155599521999695,0.6216204854359892,-0.8916432084436618,0.7970048551315521,-0.4189556310747873,-0.37881963331945956,0.8636458112038159,0.6716908780191573,-0.8045096282343813,-0.053517751124229296,-0.45331548133407495,0.1659456555913419,-0.49908936953734995,-0.7301436638875001,-0.16372514440144448,0.580872476880959,-0.32417825624487095,0.5963506080037133,0.4742051754059806,0.36899915060156485,-0.6822886733350138,-0.878791850974193,-0.4212321556902894,-0.9522086127736686,0.0453794290830285,-0.7246382082959146,0.4717834553587241,0.30897252421965615,0.3787459051854172,0.6746353525367956,0.3519445079105825,0.20698238922008216,0.36203985455969834,-0.7185709029448057,0.36704362878077657,0.4700436707842608,0.20598986782558737,0.896739023542374,-0.058777638354021056,-0.07787541552980004,-0.5585037851699368,0.6884392133181234,0.9104732749515152,0.42067007949797985,-0.027456479634640374,-0.06792209409479888,0.6247035310011779,-0.7183143305721278,0.547519344711278,0.0005920965554317981,-0.7274129031102774,0.8827234086651561,0.5465808843296474,-0.13417706318385414,-0.7094554368016377,-0.35632653081728494,-0.34892407219372545,-0.8162753945658789,0.2840643415702835,0.8218700539945916,0.016908459978404622,0.5115510223722939,0.07593051003574036,-0.4448591663950805,0.2205320801312678,0.8938079058236834,0.969046633417227,-0.7654498756672956,0.9129418446605508,-0.2606805104431038,-0.9677552794707966,0.9286880723917299,-0.8129291663045697,-0.5987035162490939,-0.8985987620124156,0.058779400976072926,0.6807108552891041,0.26254162149264193,-0.9091074445315617,-0.9715737277617238,0.9364198345729882,0.053364700988810077,-0.9025335488952864,0.6186539916934606,0.33812736642429964,0.5553329298616438,-0.8417124488549148,-0.14770914601345475,0.9336183913180902,-0.0560194759184407,-0.2973874263081435,-0.6771194704757273,-0.6963067798638354,-0.5892645862001018,-0.5311147672792202,-0.32986690507191474,0.8085598264034575,-0.08424978632218116,0.517995809207731,-0.8343003679347178,0.3639000077297301,-0.5675770968584235,-0.4498423434449563,0.011006958547444379,0.6363921858823758,0.6724836367761089,-0.4243176287989967,-0.7728437700707107,0.42039066383837564,0.7402835463222617,-0.20582624465145827,0.5542780124756383,0.5299349923135404,0.19282985883457426,-0.4925749499546441,0.21947667046449082,-0.5465215177159142,-0.5444064691045281,-0.2410613269959978,-0.2352114497754958,-0.008180557431619384,-0.05919044204487012,0.46469016492964554,0.8506668290084982,-0.9998556806219077,0.5877385623220068,0.23017460101263998,-0.8338521586859284,-0.5580069696292653,0.32692591503788115,0.11811607057407558,0.21435682384320875,0.2445224804765369,0.1867356341268167,0.24615171556794868,-0.9391181887000797,-0.4130117734753511,-0.3013994699801672,-0.5556586244957797,0.758999595456463,0.6774636077075329,0.9573122950422055,0.6963124022860447,0.24437989527736081,-0.7275376239567024,0.9139814733905216,0.6958606340731965,-0.9014714319008503,-0.7545747171709378,-0.38819241041212793,-0.08573582986879247,-0.804593481814897,0.01873511654084381,-0.9754073282111353,0.5339593855549958,-0.7196902108938126,-0.2765252046860138,0.5029896158246554,0.3215905399841381,-0.5093249093529166,-0.7285458836583778,-0.17395214053525798,-0.34704371193939654,0.5401081249656512,0.22433722192604466,-0.20843121291688305,-0.6396473512074947,-0.6879821100629486,-0.014174865046565843,-0.06153471645570696,0.6028615615373145,-0.7259192941514825,0.37542681668781763,0.7404512935501641,-0.009207821665070393,0.6316365352478064,-0.8236184506354194,-0.2437022290933757,0.23042700736540822,0.9211043081426191,-0.5355298925059448,0.6366847881943554,-0.24527361500472522],"weights_hh":[-0.9819913774108937,0.5620900449454656,0.25741951290647136,-0.3762221258131635,-0.2795617582939218,0.9376698629315794,0.20868460067293548,-0.5714684842840818,-0.458080118635809,0.14325083284967177,0.12460786561184722,0.14368517157946625,0.6912290630366473,0.09196258332122342,-0.9847028335578341,-0.01322714377416312,0.03037896118412098,0.32271126239491,0.4628740771504718,-0.08625212481742484,-0.3429732477852341,-0.03884567516207427,-0.5577772994735661,-0.3572525472455135,0.07610336371869364,-0.9136986821809119,0.7723215479046708,0.7264413242789722,-0.2526934702831085,-0.47488862098475426,0.2475464507342109,-0.7469804542405927,0.36413456624229235,-0.14789614627330638,0.5940806694129179,0.8066736131829755,-0.9881602164223557,0.48144224916236356,0.26421182217129524,-0.0009389297687196763,-0.6540082894809611,0.16902367147202235,-0.8779492962468451,0.9143960439175709,-0.6952641789899314,-0.5169471078365337,0.02493406995001668,0.2734397141841933,-0.3643904240545095,0.5568675282539839,-0.7561453806853817,-0.675100519004038,-0.18203677049328593,0.8765806149358009,0.914175024781883,0.06922440607296743,0.6064770867877749,-0.5994683603258695,0.23586058661162168,-0.9960889781003675,-0.2173543405255134,-0.17562932307389034,0.8659702584437128,0.5945622393198577,-0.24026758570660967,0.6048003014878991,0.1965085766918686,0.9835303546306384,0.3770595137602004,0.7848532551476104,0.8734674408201193,0.7746779836128759,0.8514559206429193,-0.8505019073250508,-0.7486555664187391,0.19062134879495218,0.1276601760937195,-0.8501604840265369,-0.956303403068153,0.3349555917786038,-0.09931182182335507,0.6983109421479994,-0.7998994022014743,0.2373280225368679,-0.9373942240330171,-0.4209730038464279,-0.17144569181784797,0.648286565475932,-0.8984994135511337,-0.6559043594953813,-0.12195113200007346,0.06587643087737338,-0.9470864680084987,0.4198964756780741,-0.7516367036187801,0.9121017242966714,0.5166475069630867,-0.21990143222893965,0.823357400668703,0.45623668053990185,-0.8302400597497803,0.9983497638796457,-0.7472911586826461,-0.06007426904481683,0.2662712520205277,-0.15791488146450927,-0.8984045522317552,0.2345094540539352,0.2574568219647062,-0.35992424899782893,0.7490930087731635,0.5385706331417688,0.899486866708612,-0.6880836243004045,-0.43517493804536667,-0.564575195198106,0.7010906251290971,0.2653804497199297,0.2106150118522252,-0.013884190759448911,-0.02029328205250125,0.03132166996494168,-0.5786343551370994,-0.771157687234844,0.052685759631928786,-0.5751826234903781,-0.298581536300627,-0.27718328814172244,0.5484665427442927,-0.18405403664487352,-0.9127912006698817,-0.8415595226650487,0.38693688921474756,-0.7273514330586976,-0.51111841380502,-0.7582732475463831,0.7569390890229601,-0.9777525407320535,0.5459992254788502,-0.2878149530216896,-0.36841608207460386,0.47538124048401253,-0.01394214696485685,-0.3472292123962275,-0.17388782133558478,-0.5786871125329476,0.3479749702818855,0.48321407971367747,0.5162850324406627,0.522911122377425,-0.7245868862053002,0.3227714487070512,0.7532375133064937,-0.2388438208579624,-0.7768108764993331,-0.8615265153683225,0.9765518560673216,0.9865981649212023,0.23181426440321928,-0.49807774021714213,-0.6883981652351647,-0.12057045618837403,-0.8166219035094919,0.50536617732558,-0.6369362308069688,0.12231117535366454,-0.6278421783228041,0.7536327968728522,0.31540035221065654,0.468410580541067,-0.43797095545098186,-0.6380527183289528,-0.7395295754521232,-0.9256379438942983,0.5369924795599004,0.35814662998548386,0.39610300180903946,-0.6625906427551254,0.4850009132395565,-0.6853971128155301,0.40639749503286104,-0.24815920517759626,-0.4154521747372457,0.10765209889005845,-0.8941867436737561,0.7435138194167674,0.7007017890218232,0.9564156981120124,0.5089664857750422,-0.8168951273976537,-0.5160905748270397,0.2877896482079332,0.39662569499954614,-0.35219943771125073,-0.40677075145092445,-0.08513866186534069,-0.5521198387412425,0.24193257836146564,0.6795456008042642,0.9930076815090867,-0.346994345477454,0.23660388713872593,-0.7115189818996339,-0.6497996761653693,-0.7515734867710235,0.12792107070447356,-0.6962559595115665,0.3323980539110145,0.1923986419967545,-0.10810047484334984,-0.6215306513263945,0.9693920174087471,-0.40115032558863173,0.26929302375669995,0.9760380031575027,-0.656121814176226,-0.17542595584593634,-0.16077002036823074,0.2362771828367063,0.7302368469022174,0.15161102963017448,-0.908506325701939,-0.5451916473907252,-0.33980011711483993,0.23078575705965965,-0.5090562496295008,-0.0024409924489663393,0.8273366058172387,-0.6895206045686306,0.9988131801661206,0.7209335026413775,0.9634481635172245,0.5649334783644211,-0.37596605833291274,-0.4551893412692847,0.7653205574945097,-0.7207483718072345,-0.077003343127791,-0.9018794825412955,0.9821392321822229,0.3295342687625118,-0.6981397862027476,-0.19526075182110136,0.5162620851589539,-0.39784501963852636,0.3545977434366616,-0.29288826561771497,-0.5033293086711803,-0.36567943297063166,0.8638428443454913,-0.5851559264178345,0.504283725041667,-0.21379165340190753,-0.21562501384338395,-0.3685854867202345,0.5759047081421957],"weights_ho":[0.9775781829309886,0.6406712706715454,0.2462330568943787,0.9441349782134256,-0.810419016620991,0.9037629194972676,0.3761868872020493,-0.65130827093973,0.13704665257610182,0.25539244620518264,-0.006605013215504885,0.86047022559903,0.27839916813118637,0.006875010904784595,-0.7631474291118145,-0.007797475766089024,0.3797306321603888,-0.6895214027641898,-0.6316823994423888,0.7962863077290518,0.4186266555992464,-0.6863732122904891,0.9951988898449167,0.49060811400587645,0.11207389737935647,-0.28707333505097665,0.5785652165181414,0.21669932814009063,-0.18860319149827465,0.23173096399167048,-0.8299579587981261,0.209582545007037,-0.20413970915428026,0.8935901282374326,0.10047081438760364,0.8348786598559874,-0.09311890338112994,0.3980052460520167,-0.5554439524810288,0.055631098383206457,-0.6588115913302746,0.742335087228543,0.5821570415476551,-0.4649223919944452,-0.3377144154056013,-0.5988019676411125,-0.5949573522002662,0.024798571440407313,-0.3759003498630198,0.10109034715676057,0.2890720124255315,0.4787705329339662,0.45618969186494085,0.8154742764721774,0.8595451000616783,0.22063871124570933,-0.6095553503663911,-0.6633314217619588,-0.41989572463884883,0.98807094100689,-0.9470088231860838,-0.655629809005966,-0.4976332075959349,-0.3585026001576668],"bias_h0":[-0.8644247771036959,-0.17994623243066088,-0.857963116514102,0.9746128342030362,-0.45076555553140474,0.5692108415200454,0.5813714519869981,-0.364719578093712,-0.9279907697232412,-0.12735058111360598,0.5905527237560966,-0.3805850678050253,-0.5353307615585985,0.7773416174651999,0.6405273472526039,-0.5313191888745505],"bias_h1":[-0.9807825341334888,0.9346643967669703,-0.34775538783467574,0.9422013378867495,0.5492741143504525,0.9566896728229122,0.26628620879012543,-0.34727709447184796,-0.9969457720081794,-0.20565560819036355,-0.5429937480816343,-0.0017494360587875235,-0.7382194810685501,-0.9046447371111952,0.47839402657474395,0.44287227463675816],"bias_o":[0.9260313415838559,-0.5696920614193941,-0.52564436342451,-0.6139970739758611]}