{"weights_ih":[-0.5985216516893734,-0.7195497752558977,-0.6507952644803863,0.059643681551945216,-0.6940466251454551,-0.3276048072436184,0.29657387449063366,-0.6432504758873003,0.06522551512308672,-0.35150069538979123,-0.014940460323868754,0.8822340023367146,-0.7649617075232387,0.6240353847695614,0.5234085208897146,0.6268482006797171,-0.04424775808974779,0.5975577070883096,0.5535190699052597,0.4915535618787048,-0.5609584887671488,-0.08210205020124128,0.6104219058858109,-0.4847722107420853,-0.15992988807186137,-0.5972950092257945,-0.596591345266152,-0.7036327797095066,-0.07321464552548473,-0.4362242012307833,-0.29224257506804063,-0.17645505242394854,0.7176599521430851,-0.399948047633204,-0.13185713413813338,0.9136198338537866,-0.015334124205392152,-0.6017898803262833,0.4661274655110075,0.42091091311133755,-0.48750727328538934,0.4401638514120416,0.4686190159750392,-0.9722337684725941,0.2829401156688085,0.2883539845136589,0.7211013336139191,0.8596857514278404,0.9235574012564889,0.32445662193468605,-0.5866371529656649,-0.5942772124307536,-0.07688031737826351,0.0843839238837083,-0.1262003092538786,-0.841884999846418,-0.6185292335328121,-0.56297756506167,-0.6898587248137964,0.722149537959532,0.8908306944589452,-0.000854524936234613,0.6215845357435523,-0.09250954557517388,-0.7367017751523874,-0.833210962520363,-0.20561537269435393,-0.47704556313128,0.44779298720348537,0.17256264981154779,0.5475589599357336,0.02373260319197512,0.9654515025175294,0.46051139164178356,0.4216781733333337,0.37775340761742826,-0.1557045607496963,-0.7750995774039839,-0.15138333470626053,0.0998350627535447,0.6674053728721525,-0.9844100409998691,-0.6674903997712629,-0.7108539303987891,-0.09153478034162799,0.6474485535813652,0.3311488133263125,0.8230593771940236,-0.9953128282266721,0.7133886782211902,0.4479812607371516,-0.12563564307748765,-0.5027541678080445,0.7784355637084439,0.3814695111852495,-0.21186008313968618,0.07092071523285703,-0.03814407597555092,0.7324315582064935,-0.057064465388039665,0.9518576931624823,-0.4207588505923481,0.6670464018565172,-0.8531045180639156,0.9390429049203897,-0.5424694616698165,-0.6561415284568388,-0.7894909480586947,-0.20874546602055077,-0.6894365139712524,0.4143701478380599,-0.07086225431253612,-0.21009514538560237,-0.8115561909283457,0.5799836719146785,-0.35798361082678487,-0.3906131362347418,0.6533136350131594,-0.47915764606188493,-0.17891526453662698,-0.359847529743728,0.8154707924279951,0.5121904623835256,-0.11211813837355034,-0.6162041178725022,-0.6393683810151849,0.31361512503562117,-0.8396764608396621,0.12700576275219722,-0.741754026372369,-0.3199575955150644,-0.8448780295603027,-0.7640605451962312,0.6696136875227519,-0.9154574044106356,0.6231682185730478,0.8383360109043538,0.1328587262887626,0.4045939710166817,0.989209642130016,-0.6583264485320228,-0.5699399218781986,0.5792938222249284,-0.2046887227342138,-0.9392403192467378,-0.1653114139819023,0.6610796391359437,0.3046346919515057,0.6906734797498388,0.41244953036474374,-0.21349574653307068,0.02875369351256385,-0.6334798496858709,-0.13922060547778914,-0.6065853136305004,-0.5881241647170299,0.5405026302564329,-0.6988615739442914,0.6946226871481993,-0.9508100685215168,0.039004028831949755,-0.9624965206267411,0.5008435564008227,0.4749378677454703,-0.2280274140337808,0.20936230257055088,-0.08102841413663309,-0.872016089956309,0.10205533939600442,-0.7966213394155588,0.3478866478829816,-0.4874988845709558,0.5138649416075849,-0.9198482431176453,0.10132322705658114,0.6067538768849918,0.3969806214560547,-0.6716287532710858,0.4957886526994282,-0.48800008402781736,0.3499842361786685,0.19234060430563216,-0.5823934853841461,0.16873535761919323,0.09364337466634565,0.6757479723943882,-0.8405831379558462,0.332628530301293,-0.03443124184899826,0.2647018762571558,-0.8874014112418822,-0.4405338208167475,0.8932852454427587,-0.15646406735195373,0.1928716200557501,0.6548032362410976,-0.2354817258965889,0.896609255055822,0.015336916533944311,0.18018565027397337,0.7693808119196777,0.2538142726209922,0.45351120892179253,-0.11404975805423834,0.1851091371338216,0.1367144894460055,0.9418028635802591,-0.4659269178917258,0.6274099706161265,-0.3671028582665934,-0.7968183786935652,0.5985879905076523,-0.6437412266112092,-0.2394906775642638,0.7445010788503841,0.8303282980482751,0.8850981766486818,-0.307905923147179,-0.5979978637466303,0.6242366376639765,0.12221647815265557,0.029419388055589968,0.7784298637808047,-0.5417921283290796,0.6773793923995906,0.6171967195979984,0.5021334498761212,0.5335141799806502,0.344647343860895,0.9177212550770468,0.16094096706036143,0.21778076067531726,-0.24025335963273386,-0.8927856640445961,-0.39602392098142425,0.4062418021145744,0.36725022036550525,-0.28069145773275306,0.4893828512959544,-0.6544606115708869,0.9424492208197468,-0.9346873374074594,0.15883832389613306,0.38922111248167135,-0.30175854023889337,-0.43512917486352776,0.9794954719717148,0.5188436639476532,-0.04436689502206015,0.5696947672797368,-0.9003414953324049,-0.28576141145394507,-0.4900219996239512,0.2427450099315389,-0.8084717651005118,0.6918832571435858,-0.8676150840923633,-0.1676085495981141,0.9636047772206353,0.46540198683334677,-0.24884571371942044,0.9518568353061203,-0.45000083235592747,-0.2687584680857542,0.7189304099102203,0.9184921328050644,0.5956206544209774,-0.6508779775538038,0.17371671715892512,0.14611416916409925,-0.07758416459652429,0.2739946108315803,0.4537645037597573,0.8019751591970965,-0.11979438601551973,-0.8707955850470572,0.40645639254582955,0.19680456199354102,-0.607601755162841,-0.5086977128166748,-0.977170134764024,0.21650974970431758,0.9888845126866586,0.3304184609566545,0.8731180366128115,0.33495364630555047,-0.5982243033739991,-0.7347387702900685,-0.46502469541421143,-0.2639534899165652,-0.41932457495604125,0.007027514361686249,0.9141718952797635,0.9744187867058551,-0.6066878389548593,0.43517135025962217,-0.4662439747148752,-0.014114972176546337,-0.625127270434702,-0.6144821991767495,-0.6080761296999777,-0.9366800397960513,0.3689293656040884,-0.9979095858264215,-0.22547007321059143,-0.5548340777321827,0.7270170758744041,-0.1447064746066027,0.37272121093086796,-0.3368642737907077,0.4141432263316027,0.4025376134455283,0.2896532967130627,-0.8505649460133669,0.8110867192349924,0.6775398133799972,-0.6551326233464299,-0.429641313665865,-0.024242325553675448,-0.15067706269203174,0.49120900680961954,0.44992238821595554,-0.8414899424042319,-0.7249533568464412,0.8447081015272775,-0.9475195833319567,0.08956295024047489,-0.36241227098116613,0.014793039425331056,-0.5976258167854829,-0.8483066087810669,0.30544469308628597,0.4880453941826397,0.4102765286639607,0.41946919215601963,-0.007076556142453505,-0.04092796915706143,-0.5014880041303547,-0.7887820279245743,0.048323487531131804,0.5720736218287235,0.333664117292201,0.1381080783521682,-0.6734871164872325,-0.4663673335585745,-0.43097354454427395,0.38922891118211544,-0.3112479265208059,-0.9216207598373025,-0.6424922033512521,0.0016133949828700533,0.8953083358408711,-0.24293555000988953,-0.9818326686973897,-0.8676028348232419,0.5032682767389687,0.4570563881834546,-0.23886463365376387,-0.5921208887884553,0.8960395051534467,0.49245228035734123,-0.6126870221917491,-0.9315742766795208,-0.06617387434777244,-0.4462050976891574,0.3205729248431648,-0.5850811207510795,-0.2580936854557927,-0.5822325565710578,0.44800685990401123,-0.3916270331074576,0.05939323769193239,0.7734060733767798,0.8196311083021894,0.4065467969309602,0.5095262453548306,0.46443652713322026,0.12202227242945907,0.6887962751111654,0.5611928427274302,0.05202483396237989,-0.14989259141887668,0.9878846404817399,-0.0388359144206043,0.9635373758597363,-0.6489071239397082,0.3438169825772228,0.4749386447567978,-0.9785999225409883,-0.5778707469325868,0.5263964221629773,0.9282958824140386,0.1427642348819873,0.3609411517673855,-0.0049086079969882235,0.7860358121777733,0.14092593527327812,0.8108701472930233,-0.8894277232105254,-0.7828342778391182,-0.4035283554042004,-0.5220370124186615,0.055013509120283466,-0.5782373455117091,0.5980719515068975,0.8579844573176001,-0.15600415415386126,0.7378023797825979,0.08773032565044869,-0.6876733740218555,0.5325817432336937,-0.3856254235497989,0.5509568811811099,0.418477995185335,-0.5800464410165447,-0.9108195526669429,0.3438479892599997,-0.5461639322075411,0.09040547763320905,0.5380111145363033,-0.6658261083598829,0.43833978785150385,-0.05148420873553183,0.16342203967546198,0.4151288043296031,-0.31075580827010096,-0.4190224599987922,0.5295995900450148,-0.9445061252736366,-0.09876306981004168,-0.5455618284427508,0.24223135230569603,0.11018251584995364,-0.23332747434463363,0.5852016831234477,-0.7854369265221859,-0.8774134770814821,0.40245578332912113,0.6939456451898118,-0.8914342573638825,-0.5724734972232353,-0.9988733674179147,0.3733008387196084,0.746901165753544,0.9452631521741437,-0.6921402597356283,-0.5492693661926193,-0.16300123039460512],"weights_hh":[-0.2623732499795177,-0.6828203001649047,0.2780238138958344,-0.2516328171091169,-0.797618139278419,-0.3771790226404754,-0.6623477651691818,-0.23804475948869253,-0.33793737775336474,0.7564098056327846,-0.21224706434846996,-0.8868862094251664,-0.008594836949178841,0.6315594154527397,-0.6636112773844463,-0.9210440539055162,-0.12431031079815824,-0.6758736203851223,0.302949953498193,-0.7359231745594252,0.5677987174935275,-0.6621854561429608,0.3918751919590535,0.3499924969262329,0.31705224698707446,0.8228268169682089,0.5597391770668068,0.11659859168691589,0.0784176237708809,-0.8885317870754346,-0.6271225872129169,0.3606136767462278,0.32597358037419544,0.7076158955653014,0.18537849399972517,0.1375224243706561,-0.5524426038207915,0.028997724864158636,-0.002840358399955445,0.4363512248688972,0.8425663597852635,0.02393370477088541,-0.6623306720063233,-0.21806034002509778,-0.6680194804609467,-0.8781000789731739,0.37367274184526056,0.8524456502546396,-0.3702462552590866,-0.36555704774645736,-0.32349895506751447,0.290930950223373,-0.3408386209886154,0.05365927945795068,0.8088737320375599,-0.5831667172321171,-0.23662123999747142,0.3507917349359826,-0.8204043285373293,-0.8935272470358224,-0.27478138527640916,-0.06641811100114814,-0.18871191741290705,-0.6311798039601952,0.8532303147543112,0.5471646412144089,-0.9115710561556583,-0.2682186298834661,-0.6052429433038502,-0.27530021797111814,-0.35925272851528733,-0.6942597180717565,0.4922477178015445,0.07842269107411881,-0.4318538358725901,-0.732433082946611,0.27764150969939894,0.10702020539698909,-0.9122735884026703,-0.4664729855022245,0.05891488798819755,0.5277001365396163,-0.4332701227077216,-0.7859871026952185,-0.3044252673584289,-0.9354619815756826,0.6247515939473165,0.6791191655356301,-0.16989152892139736,0.6367215568531914,0.48485185881248594,0.36808334429966005,0.9938115365151319,0.7505984020765148,0.3364896853724977,-0.6676908097636893,0.04460465611953257,0.29299274190472957,0.2828080472580763,0.24194191698207712,0.801703863709659,-0.7856459209590909,0.5992239174605385,-0.19238137459252225,-0.47824778598558826,0.6444251830278693,-0.8997201509952126,-0.7783131260168838,0.984460205531237,-0.9642244849882611,0.34772030129013887,-0.40711224815311287,-0.44126017351523883,0.016989943961084553,0.03398073211780783,-0.9897241298672361,0.9328819009524549,-0.8281510853909433,0.7889247870000391,0.07280146375176533,-0.504204785586704,-0.5146260716208699,0.27806727765345896,-0.8522150475717336,-0.7581417181827144,-0.9506736174832542,0.5989890261660744,0.10390458845677597,0.6018836883210807,-0.14300272115731638,0.5979593599625135,-0.48138540078190073,0.2290805979812487,0.1736490928253014,0.24080186506264423,-0.5814282976415202,0.6041690864607616,0.23772494211365225,0.4739802988536226,0.8777153245889937,0.4554952792606193,0.2747672670798853,0.19009879610267033,-0.25199963946341697,-0.2298777243310992,0.8455613869662386,-0.07118328908161842,-0.919224706465336,0.9419448620595243,0.6928532318198353,-0.982529545965086,-0.8883138350429496,0.07148390840344954,0.47730257211484006,-0.09996197396787943,0.2382445006033196,0.6474706361724059,-0.38294735077673514,-0.16150282395913296,0.02922921105608789,-0.9523450407817893,-0.36798536929798864,-0.17464481766710382,0.158309717724473,0.38505648605113074,-0.6683666100621586,-0.0978752325319181,0.2813380642519323,0.8193318006009311,0.2907752963156187,-0.23313774874436266,0.44853996730566514,0.8717380000868851,-0.5294319167476593,-0.07075677287542792,0.15397444679000438,-0.6062838053390303,0.02990237478843283,0.9564057294040142,-0.8610370667391882,0.4468121623521828,0.7412614151834798,-0.3557037540717134,-0.7869741948561528,-0.5424078203305671,-0.7683730745928117,0.8190879841531855,-0.9039598942875446,-0.6916396899575978,0.027464872251226735,-0.49205485866642373,0.41967893361371034,0.46994047419443086,-0.8781565895097401,-0.979282842553767,0.2982317265328238,0.17726869204509055,-0.16938932913728566,-0.7895946817650104,0.5732099238441366,0.6084185965544187,0.9012418889223328,0.4187359871644101,-0.43212454584829296,0.9778650251415806,-0.11297067389849813,0.2683995962240018,0.554790473798074,0.283699026559852,0.5301173470239275,-0.8305579146842119,-0.014160326712312488,0.5484871310593731,-0.12368267893953688,0.8165419461712466,-0.5602226648562068,0.15967592516647167,-0.40897907772739406,-0.48211819517566523,0.10614006032863066,0.04535220408268237,-0.4221757239878827,0.6627122016088389,-0.560828502073424,0.6619510584801245,0.8735614997350933,-0.7200442099079165,0.4154033423640491,0.5236319874191651,-0.5856616452805206,-0.21136146610132056,-0.6849104500015339,-0.9654278250491715,0.36984109281410005,0.670584145884084,-0.7913293367389245,-0.5349033223010735,-0.21447886067292377,0.008739752359348874,0.3950337675522866,0.7082821231354257,0.8603868993995891,0.3182667095767766,0.5365852490045158,-0.37802833556187654,-0.48444058424660685,-0.6498397513018759,0.7495181196641982,0.8377675531591051,0.7685418665226482,-0.6615072124013852,-0.4712932937440195,-0.1305149513784032,0.5031034718451539,0.8557437254879043,-0.9440398607248028],"weights_ho":[0.5376011695252483,0.914181749794607,0.856812984903309,-0.7144615308438829,-0.2775088660163352,-0.3879037174517008,-0.32856666062715667,0.8600655676300732,-0.8680889665652047,0.6724852479640511,0.6188859019925164,-0.16999399207489674,-0.48741064918904464,-0.35385266316205577,0.2518800380591082,0.958151217059851,0.861725085333755,-0.13452946700797175,-0.04165458171744674,-0.04674930288798729,0.8585561728453628,-0.687085103378986,0.1408687354079079,-0.014278201756162234,0.23803873941652998,-0.990144516308664,0.10214006088609806,0.1365850764437495,0.1175036096580635,0.2994348417774826,0.9027171166022399,0.1020701490656113,0.1643745640618408,-0.7910729244982713,-0.20008827110297034,0.11888658236072214,-0.6082446825681622,-0.6728274244585306,-0.3301669179162918,-0.18454970569585916,-0.012831371244609535,0.29984308520876346,0.03854603051070549,0.5887004820257773,0.8989766207456309,0.007992318992758207,-0.3477034599634028,-0.9156874133698156,0.4032344767814151,-0.9365892532921236,-0.44484075408746726,-0.6755069937096372,-0.5376803159394983,-0.4766046125270189,-0.5330689508489315,-0.7910765254986403,0.336916370836839,-0.9847997696089481,0.31642971292114885,0.6172245576418853,0.9931898309274094,0.5439213299228245,0.18173813269731331,-0.2822936734991619],"bias_h0":[0.6958457804407587,0.9833610537486384,-0.15627579689991755,0.2463575947912886,-0.2317451716658705,-0.6652031230987729,-0.3361310776306907,-0.9400004837207869,0.24150772496742956,0.30898071861767695,0.7143397762871206,-0.7192448280910764,-0.2204567133452897,0.4367793611139279,0.7514670867678863,0.4685975566995424],"bias_h1":[-0.461507098551148,0.8626193844697672,0.7164239627093094,-0.5424965284258132,0.8065566628505731,-0.8049962904355672,-0.9029932704565733,-0.9047316538317884,-0.5471497907414167,0.41389530422504817,-0.8928678688776326,-0.02066643165800275,0.42208012065777933,-0.8622430870469258,0.7630934425017835,0.35720631732101316],"bias_o":[-0.17942821354433303,0.6934842164901198,0.7697531774553414,-0.7277734093090575]}