{"weights_ih":[-0.7094916932599777,0.2933406263092919,0.3131753408772897,-0.513817744571764,0.008361851410606524,-0.6391661117531948,-0.43045787673341174,-0.8223146348036492,0.22640791537085247,0.6934147763868501,-0.28877083836500983,0.7743870540632245,-0.5666967931173992,-0.9162780053161141,-0.597149480662371,0.3087308494784491,0.9395030384165688,-0.5587761835702145,-0.3048211003968275,-0.3804750490296951,-0.8380624710031317,0.5276854899527248,0.8839256970989462,0.15227993797609818,0.06121467195968999,0.10407440645502586,0.9108416382704669,0.47703589474454433,0.044153765055011895,-0.5701635879744911,-0.9649010862724747,-0.601903014312571,0.3570091856196427,-0.5055024585677921,0.07001139497638365,-0.44316455898269913,0.3769680279382719,0.09419369084885187,-0.25340563080633016,0.6819451523933713,-0.5662641116088549,0.30340320390065,0.025987914365479314,0.1098515606038053,0.6616145712228638,-0.782567456882308,0.7162002733056203,0.6329993605815392,0.06044471844662058,0.9338971609126687,0.6873127673244217,-0.0942337337080712,0.8481052823946242,0.07499793201927596,-0.514892852548245,-0.817127542855018,0.49929583626858776,-0.009126109217123979,-0.5276907692690991,0.8521988874026807,-0.6435316528842121,-0.09563694671987144,-0.18106849239374356,-0.8721570686708269,-0.0872849937510447,-0.4620231901260268,0.25899666794403076,0.16649006248689457,0.40522793559459136,0.5706921609539122,0.8737888841602397,0.24026724269196942,0.9486776930538026,-0.10114058393696412,0.7228662200148017,-0.8870199046926863,-0.23006348549397204,-0.596006819826058,0.23964771709086397,0.38848287191471864,-0.09076523120433966,0.017441273106224564,-0.9198881627600621,0.08586920726194225,-0.689199268986532,0.6125885078865014,-0.19876934762012133,0.07161788885544729,-0.39831228347170633,0.37382755391294187,0.10105986143105605,0.035995696923039944,-0.622138633063932,0.5656781402808082,-0.9391725279507737,-0.4147321687329164,-0.7839815431177575,0.6484868955117387,0.3576176840618992,-0.42018217017359416,0.5485367166908242,0.4462531779797376,0.4187088064580953,0.01622425053466836,0.48458614847468695,-0.42021856950975756,-0.6551394084957312,-0.7194133283108253,0.7346558583298473,0.8604032645853492,-0.892139711178028,-0.42167961068519055,0.6650729546280139,-0.7146481422713054,-0.1767339938257375,0.16969228617773946,-0.8459224587719503,0.06454232233576196,-0.06510905452340054,-0.8875822497159771,0.5097244985027158,0.941880746102127,0.4392978844452371,0.8945477602560972,-0.312931183003468,-0.7086737717166831,-0.36928285921848314,0.7390030058064683,-0.7427879442225833,-0.9917858190651783,-0.35137921221147206,0.18772913707944006,-0.9860544275429466,-0.34715268899738505,-0.4180256896940029,-0.28582652135719044,-0.27519393572102,0.6388623332701533,-0.049180349339088325,-0.9887515075443638,0.7111267406528974,-0.07140452489487292,0.7590367410244987,0.3939850377818741,0.20254024180184982,0.9182175919178026,-0.722456112828729,-0.584771629528696,0.278123460365159,-0.12889108833606633,-0.3640210299795492,-0.15192056766440465,0.9875505025118869,0.29012054096129236,0.35699000715395224,0.5755087165838564,-0.04015527918682915,-0.5848901827640964,-0.5241270805046037,0.5280261129534267,-0.3384549714779512,0.17035372208253197,-0.6226613305600783,-0.6402869496229113,-0.2166908572581281,0.9647697416785976,0.7710476470431038,-0.043874253810086916,-0.3560970413659794,-0.73933181345998,-0.8822279411821021,0.1263745817673423,0.6143441217388965,0.4164861362944683,-0.5539071242053415,0.9551448166511751,0.29810361911937133,-0.26167262565195926,0.031288946991606226,0.4435069074898714,0.10416565787252119,-0.9845969051371086,-0.9744975267624363,0.516933466114627,-0.7421029216199844,0.9948596834887655,-0.7581546403106112,-0.6393929765733388,-0.9819802156332804,-0.2878539535525886,0.8648313406055335,0.13783649893855587,-0.5825444017681929,0.6348641754720394,-0.8938537192085394,0.7035559600727517,-0.5480805226418959,0.46746483960559404,0.6197073360279599,0.3759862456887684,0.589981464102376,0.4420096668604714,0.6490075749127175,-0.5965976979518146,-0.10431118221929259,-0.5132008947674924,0.02491418420059266,0.663193824700119,0.9680888575837872,0.2306176632253516,0.3212191711501293,0.19289975176303975,-0.4547675311320234,0.7666700376921016,-0.7180626886608159,-0.45251418549690614,0.9167542153712431,0.335818816915713,0.1606367382967766,0.7092391445659287,0.1913476536118539,-0.3018164059945545,-0.9671411269361301,-0.1561396021213035,0.01437520033294648,-0.8665730630821809,0.015361136248024154,-0.3893061841898755,-0.9415836461186853,-0.45325031138717575,-0.5057656282481187,0.145095500967382,-0.6704319392403029,-0.6033520958172063,0.2982274563574907,0.7014531697995372,0.5651704993981288,0.3186646065688312,0.5890184964993863,-0.253799596697609,-0.621006604883481,-0.0639324754620687,0.5236190973174852,-0.8871976123445331,-0.02388256795778898,0.8790719891873848,-0.59558768811079,-0.15634297796406726,0.7925727722986693,-0.024595219098521026,-0.1726153283528209,-0.794861199324226,-0.8203040493168343,-0.033972441659818386,0.6963818232824805,-0.7780125306441987,-0.5886493904751762,0.3116376275866022,0.8549635342392543,-0.5957943663502416,-0.5125424837152128,-0.5980016615185548,0.9111628790718937,-0.07001230041833506,-0.3466847428296971,0.974795182505029,0.6841673778452109,-0.6445447508121946,-0.24498462637201435,-0.8424679189504034,0.4000859304108315,-0.8796806694055916,-0.32496497627809817,0.49736258573688663,-0.3782281110975858,-0.6488280472147312,-0.6148827053238934,0.9298514620246194,0.5590654798391099,0.21175991327204757,-0.9592159351046443,0.6804213647455783,-0.9114752162417037,-0.6228146605449991,0.327747130512803,-0.15536985666141234,0.13004282967188763,-0.6451489304962952,-0.9667841309802949,0.20430657752102754,-0.9198408402902183,0.1366868524546292,-0.1721423053594353,0.11474571742310902,0.8386880709013314,0.9387523909152478,-0.2510649748687821,0.5002757253508496,0.4126982925690672,-0.10188990539352982,0.5313138457330064,-0.8618028627579548,-0.5506036364823714,0.5880974048979011,-0.026840379592430574,-0.126820707169903,0.3319615550555286,0.7602434412680132,0.597359270154963,-0.4660155638174317,-0.827135807172118,0.5379640967073569,0.3239260787067826,0.7285803162964464,0.33163838301544213,-0.7189326678863601,0.3615087064352551,-0.3414003831313084,0.6494241745990357,0.1896534565202208,-0.04471957563430551,-0.7345168843081586,-0.7040673697338382,-0.6330978169089536,0.2573642286084512,-0.7149107773402001,0.6375821827698684,0.09493289234950808,-0.565560727523184,-0.8498131137011753,-0.5307496467402484,-0.530949937091356,-0.24446288706195185,0.6713906741323248,0.15606445278244374,-0.7153705727843716,-0.3546886899784918,0.9272224258582311,0.6600742917628897,0.21616039259878406,-0.03210456871714085,-0.024354215768424448,-0.2711320032655502,0.732813355888986,0.0888536737300456,0.1913911782412041,-0.03162554157750863,-0.9148820885575741,0.36397791879615005,0.9549674549306777,-0.4519531284271807,-0.7946527063667483,0.736302841151776,0.07097883105987712,-0.7787772588672484,0.5391558629668949,-0.6717909795466426,0.9403045841523436,-0.07617973733041183,-0.5845036278536688,0.5304691148725811,-0.05491184646232461,0.9414990954408247,0.07058873993780601,-0.5764479191525429,-0.41328385606036444,-0.9471502704599088,0.7351041080568967,-0.6598600454197794,-0.7055484874355669,-0.7906964059180777,-0.8807208261649382,-0.8586619261284318,0.7858052864947154,-0.6788472382966784,0.03641187603830742,0.3444638436707119,0.2647866561572494,0.7379988352345346,-0.4609090876114612,0.6551471257316925,-0.8285293391227058,-0.08693619025881061,-0.6009715864192733,0.12337391643667273,0.5435090779274558,-0.0554204019332214,-0.20216315547468766,0.90301079350671,-0.4861571192826899,-0.9518323474295054,0.0367539887010091,0.5667174536438235,-0.15046332045932553,-0.1708035760481792,-0.8515705474725894,0.5580041886347762,0.9053636372137392,-0.7541929505945615,0.6933592935925124,-0.9062990853660846,0.5842730865680936,0.7422052663684642,0.7849974042858288,-0.04962390067098843,0.739174304678301,-0.7522845512295475,-0.9629966010301261,-0.9346905688376688,0.02523350551364012,0.6799597864494553,-0.3304013388361562,0.08856108720668554,0.8510871008188445,0.016888980432923528,0.12208410446820772,-0.17164924125876846,-0.609840041239978,-0.009316451413793558,0.6569075640520452,-0.36404201257128865,0.146680216529391,-0.7186490375597867,0.945665132884564,0.007255374861306674,-0.01723786691022644,0.4832492751137232,0.17465162779347998,-0.5882247273391099,-0.9811773242340485,0.9497427356620449,0.8196858142662802,-0.6357267301918417,0.561466825507968,-0.46838165897079387,0.8374657002374613,0.6871552403588119,-0.006892042012330402,0.35716320246167266,-0.7066037606430509,-0.23287547338123815,-0.5640811732455131,-0.11640589918005362,-0.45688702679793125,-0.8153178216624497,0.4560237185255622,0.6359173033476226,-0.4804160037225169],"weights_hh":[0.888373586710554,0.8996832695956705,0.967028596505376,-0.6216614770185755,0.3659098971046568,0.6647755546177732,0.5124825653701364,0.33262847196935885,-0.39740232243516793,-0.992954625513981,0.7328561177550541,-0.6403494340385876,0.8158243913341889,0.5913432213564924,-0.1919677408547431,0.700000623992991,-0.24459855221232685,-0.7622668865168554,-0.6442841764380236,-0.9863309165916228,0.06205424818580685,-0.6149995500754828,-0.9217639208169948,0.972403233556477,-0.8232791388686551,0.6655352642312986,0.46042372498695183,-0.6407063084582267,-0.9868872152548991,0.7063770645948493,0.7552302159273829,0.22004506491973075,0.6964017180548641,-0.8291829237860371,0.4446149134959718,-0.24341923375202934,0.5985973230408679,-0.6772251401249754,0.03248767902888949,0.009670242568687204,0.5726489398147745,-0.3131684697549828,-0.3605476196121291,-0.5877990938726549,0.38032735764213443,0.005862326188465827,-0.787604958091999,0.9366764239786851,-0.048018159011246064,0.3628990070960234,-0.10795152181876522,-0.9630759303486032,-0.8670158732236577,-0.4960580441204996,-0.31832247200551134,0.6810335947842086,-0.6875188296064136,0.02375743041333722,-0.33973793525649887,-0.10878084109110397,-0.15544778437950568,-0.9502388861733673,0.7335907737871992,-0.8710838397641407,0.7114804173471398,-0.4908940983916461,0.44754608949728514,0.22994437446122973,-0.3852879226531021,0.10620556621545418,-0.9674323563928124,-0.7300129984200512,0.4243026529422671,-0.9556013592884356,0.9885034668323345,0.7170449580464635,0.8371564331936383,0.21300626686492907,-0.4681909428100115,0.27139091441865926,-0.4819923711090408,0.24003770436132466,0.7852170609439981,-0.18489358066778916,-0.09939440497924323,0.905368648787805,0.7629437415725171,-0.8113279279469714,-0.5406168725111886,0.10620863391814694,0.6127669649765219,0.16415665094018816,0.939922368420574,-0.4288959502209788,0.4328349470397599,-0.11513852285554305,-0.2372674844878202,0.8141784665368237,-0.019737066486885668,0.17390823507706776,-0.21426324544741315,0.638772713023239,-0.032452130866168716,0.4891660123351551,0.7297726790679697,-0.07962831285818917,-0.49679339367685893,-0.6863833031868507,-0.25708479856652255,-0.0971498867340237,-0.9298739124299653,0.5798121898497659,-0.6981149545841365,0.16477061984517194,0.6767597099465257,-0.3204913967121865,-0.5474041496782185,0.08747899285881533,0.555009135507734,0.5030401770216331,0.8720786862163448,0.7676462878479544,-0.8415338860056556,-0.33645623058353724,-0.39936268550758935,-0.3691415032906209,0.044485480394863774,0.8116968452052007,-0.9983365705467675,0.5554216104187502,-0.5398192178283918,-0.4485295909278162,0.7863027157733509,-0.6849226067898673,0.7712757850937402,-0.7795892562225479,-0.3451429673261812,-0.12420283397626397,0.2804137753651015,0.2463903931195086,0.2504587809607193,0.5922339022277685,-0.11178994617441096,0.4695733851641333,-0.4511182211964344,-0.8372582912670743,0.6913519805712847,0.8727173418662335,0.435968035437317,0.010552992955923601,-0.3461380064078683,0.4550757135105403,-0.1698795115856342,0.2223920180481016,0.021537557879011793,-0.6076959222069043,0.4874264312798229,0.9785958877805299,0.2743748308778837,-0.5047975672202552,-0.8461477929334149,0.812368780720838,0.5425882954164527,0.00041079154472734025,-0.04747136030653687,0.8414994544014269,-0.7277193228933236,0.5176852976150836,0.35425265058238065,0.1325757791313762,-0.0894163882336072,0.517450432021924,0.5787554574753062,-0.08788734623336092,-0.503732778334153,0.08065247804812037,0.2808234538114893,-0.7856662427995953,0.7889983566008474,0.279557808661665,-0.8489861101648928,-0.23973732275854398,-0.2356630965906923,0.4089747062541236,0.9256022301075255,-0.939355928907091,0.8782653711480599,-0.7396242002213995,-0.5326406691684773,-0.2639174767352197,-0.4658927321475561,-0.974364567020813,0.005390188079559266,0.3784453865326982,-0.5282934079824051,0.10774223815688955,-0.311861940661079,0.22903586960927136,0.9395820008495734,-0.40108922694013294,0.6398870349387014,-0.4049460775424598,0.4745353836660955,-0.28581570919985877,-0.7012368216165135,0.6493427951842683,-0.48796275742054473,-0.4860149165941845,0.18204113136588873,-0.732376929200361,-0.10787895768477185,0.6439490502569227,-0.9186760734732857,-0.657467908559382,-0.22056081652066806,0.003960589373287915,-0.5576323795010665,0.35527430419106887,-0.5245809693632237,-0.49739710369183787,-0.8598576000685936,-0.05844921194168862,0.40929743564879795,-0.057833858577881925,0.280448350549817,-0.10454818685865219,-0.6103862532620059,0.23545271880038543,0.8235829859816091,-0.9749919824152904,0.5004684567173356,0.977495283496161,-0.2319899433470789,0.5253747031955556,-0.46949277799103317,0.43171563376937105,0.7745415090701053,0.5566289683393326,-0.3454497506474885,0.3148671884001477,0.827731329925955,0.6881356658006914,0.557361508931739,-0.4944622221028796,-0.327702487206035,-0.59061898996483,-0.4885670387787311,0.285658902659486,-0.8466762971648623,-0.4488497827061584,-0.16924707395226823,0.5053602877366348,0.05521523972976783,-0.8524674282299292,-0.9104547321249197,0.36667070131632173],"weights_ho":[0.4246150041790122,-0.20591453346612631,-0.43442811956161176,-0.04137153416490369,0.6860008753394948,-0.684916040726532,0.04546235684936306,0.13676960933889482,-0.6424286861114823,0.8228230829162999,-0.8972831156612979,-0.9458492341626272,-0.8039804605450473,0.9838421539069404,-0.40673245524170487,-0.7216133397902458,-0.20003164691341757,0.34224211624069567,0.4366006201754027,0.26757831160793444,-0.6086019444587172,0.5375447604796533,-0.4643338499993688,0.7636399947854577,-0.6205053745286504,0.08335248990927102,-0.5823366728655823,-0.27618019179246445,-0.7525584930829521,-0.10720281865810555,-0.07484130450937654,-0.6681042382189883,0.02384324813041605,0.2317349702658804,-0.9552373830522838,0.12327069545010483,0.0435089571517393,-0.5688637901831362,-0.08550977618038669,0.5772428818190531,-0.34574333526556433,0.33195960626322996,-0.6360764691743026,-0.9259761093544028,-0.8572393732468897,-0.03992668643076991,0.7448669947342539,0.6111139583010328,0.15902298753506128,0.9705784872694514,0.3259453311067888,0.7742821561280737,-0.6834457832567569,-0.94644664522107,-0.5067319627288336,-0.658121758445879,-0.9781335495779151,0.2038188913329113,-0.7660104024079679,-0.2492331104192267,0.49924333350308947,-0.379086848127804,-0.7387275488076164,-0.39200424052977034],"bias_h0":[0.9610894763859645,-0.014190908303762129,-0.849740902826472,0.1544571385946194,-0.37668215059179855,-0.6503251603717097,-0.16440198340931844,0.5292114666884973,0.40643755265041936,-0.8083945551277838,0.34519308534379745,-0.8872206153964812,0.3076837711051048,0.5323761720492997,-0.39322583295648017,-0.9274866381513709],"bias_h1":[0.09225395932223823,-0.2230973797483935,0.2025146980582877,-0.6558566547065761,0.6752599501649017,-0.06621579165110969,-0.7390136881172285,-0.8235430736972249,-0.29360754924103016,-0.889918339859006,-0.4452082682817613,-0.677598993574259,-0.8458674401969313,0.36050831457672183,-0.6751875206556375,-0.9963103160735134],"bias_o":[-0.01639409578198414,0.6604789482763336,0.048574068035023954,-0.6152978984771986]}