{"weights_ih":[0.7425803525715675,0.4415656118903166,0.17998354519955995,-0.7354045639881299,-0.014578350855033229,0.335840197913557,-0.7280741409897109,0.7192938279776744,-0.36963064121891187,-0.05653695515683177,-0.2407253953673354,-0.822260714635096,-0.474486010534068,0.07074724676200317,0.6682303202692621,-0.4694804606035736,-0.4107934977576566,-0.3633837610408075,-0.08809777067042601,-0.6340160610946077,0.8583449735445412,0.2177493553023755,0.8536679300902765,-0.35845846496392464,0.38604571694196066,0.28211366957424766,0.22941670152419902,-0.0748106203005321,0.46304935475360987,0.6506452723183689,0.6574731657500295,-0.8629635171463672,-0.8377472470217224,0.23021708847790645,-0.19702777373106484,-0.44232464695741935,0.5448284087027662,0.014628158624373278,0.5410488312599457,-0.590832312269665,0.14056721038890463,-0.6837973333137417,-0.5731275430024472,-0.7589347551168653,0.6125249568776048,0.27401127924119373,0.40435977400379586,0.4519891306299013,0.6524843201482229,0.8166267965984311,0.4895910110484911,-0.43673013349615264,-0.15689307959918763,-0.5960751407168574,0.022320834669480982,0.9282338856793815,-0.9365006774710107,0.8091499314266544,-0.32802131345879215,-0.3420490525028659,0.7693375687086179,-0.49066915212863504,0.4730171076411729,0.1675248929262121,-0.20370425071795362,0.03829621795836302,0.36773283429275594,-0.6121416404211437,-0.8785660935819717,0.4818348682014202,-0.09705705096552664,0.24527601868280935,-0.10153092296144783,0.5182524054110773,-0.2588616815372624,0.46580391821983036,-0.09492046421693368,-0.08792713523041651,-0.5685913292521274,-0.24689131147229104,-0.4206512774222404,0.16217289824195413,0.04382988593342274,0.01026500553589127,-0.7720910252854298,0.6098498913317285,-0.6783643660064371,-0.5975417702591064,0.34128853903058,0.4942318073841625,0.39861499750691576,-0.9746273460573185,0.5570560627717835,0.7649949789137247,0.18592705352811456,-0.5806527837964697,-0.6349847322258377,0.30800129358630834,-0.05984891667319392,0.49825305014955235,0.6585183409831379,0.6822301065617051,-0.8222641038041993,0.9418983868604522,0.6078076498484757,-0.7371232369811211,-0.935181446875992,0.47503021605849005,-0.19138198315371624,0.08775100739937192,0.731594843870019,0.30841779265936986,0.9698319854105886,-0.381075883104147,0.057422213237508624,-0.45195879179717036,-0.9742862272247541,-0.3820090307813795,0.8357436151584567,0.2890321239331186,-0.7155419760307027,-0.7098062139029153,0.6066955519726962,0.13120703308961512,-0.5886715347351883,0.7879785148429517,-0.8870603883999075,0.19964476794562835,0.20522169701495518,-0.31061238534402813,0.7859955535391066,0.28948581133722917,-0.16208513547258452,-0.44186873140014793,0.013631654098255508,-0.9806332077396345,-0.5728707679150571,-0.04194152741804924,-0.26042986286781633,-0.12519752728716527,-0.8300678717087229,-0.7358151585992432,-0.9090507265956713,0.016889926640468733,0.10088092748895972,0.05574099094881446,0.5610289156547661,-0.6853228981516886,-0.39806846480670566,0.15952262771002612,-0.7336383364905459,0.4174440664112291,-0.5606235853129904,0.3877958493014453,0.4428764235123115,0.445747482903353,-0.7053620237145595,0.8920067492508432,0.11253918373930527,-0.43983577894937387,-0.5114454286907937,0.8638338323679089,-0.4271476270686383,0.10373015064288271,-0.5188353187505659,-0.3068207510745733,-0.7973565161030367,-0.47936060082684273,0.5807884125188592,0.21514451132359236,-0.0009169172697991446,-0.17076869600869227,0.7382997744877504,0.017988286592847347,0.9282922376971268,-0.9027215602585787,0.9983050482472198,0.21843329118033106,0.4299811678203651,0.45813795987223105,0.6242312270522725,0.8876636376687153,0.14518194852979516,0.5723180392519076,-0.08831172177712321,0.02484898034248406,-0.480688414354298,-0.8524545710249483,-0.9698713399360794,0.057829376428153445,0.3976304642943509,-0.655055796629324,0.05389333222223924,-0.010345490072269703,0.8951102649262077,0.12011235547232979,0.346516301049562,0.5823680020953312,-0.4315941074904497,0.8609154914525583,0.07922788650198909,-0.4381898666277657,-0.09511400281416726,0.8200631357940777,0.5186179879068253,0.4950312586732697,-0.011899134261377675,-0.6653484564669561,0.7606607159262315,-0.23242916764755805,-0.45214810868419475,-0.9631221376669394,-0.27790596192776595,-0.25574807620584483,0.6970590854108853,0.6073408861260754,-0.43513513751283894,0.34174200848533953,0.20535898406901332,0.590286318854484,-0.08388610329829516,-0.31824979659812724,-0.5755276758435555,-0.21290546953115252,-0.5575003389543656,0.17795301003871677,-0.04980005304910451,0.5944274055322045,0.5257382615538466,-0.45795832259341185,-0.16752654863078797,0.4951576701212319,-0.7658814505864966,0.14524532271940838,-0.35471536120709546,0.8388705775227034,-0.044659731461069496,-0.33592935446010563,-0.3005564668720555,0.08401445901940896,0.9714662631095905,-0.5407915059024986,0.8809653457937641,0.4651401973315581,-0.4762575309310715,-0.7200976976035296,-0.031515444192078856,0.9354600538734597,0.7982561813951736,0.2792157668578641,0.44523852123769503,0.788305684752455,-0.12737073904152485,0.46500839194272636,-0.22156755805822703,-0.5561256798007752,-0.9576219008512896,0.902951473539573,-0.37120513667096855,-0.17275912232424906,0.574469463672338,-0.5892240273047091,0.9733952434449202,-0.08894669394033827,0.7918772880547833,0.9538673697136608,0.8191610040920512,0.30759703528411575,0.005444272135604722,-0.21782080797858283,0.9075794130798607,0.7679923390543892,0.9227466830957842,0.5908989252078156,0.24401061403881297,0.19276841096041064,0.5783805496442262,-0.5173230580035708,-0.7987240012487262,0.6056968419372535,-0.07599873907757826,-0.30486116281027265,-0.3566813371915032,0.7456465442230944,0.5411866985652254,0.12457458825025403,-0.7548371748432119,0.7000286925400889,-0.8272858417238151,-0.30794225076945425,-0.9569678502947647,0.9902020686356439,-0.9001901631444138,0.09761760272672793,0.6318281264302041,-0.7974549701169107,-0.23924170949660928,0.26833750822999414,0.4624198761479972,-0.8693849847568238,0.8318504455555489,-0.129199098969766,0.480360379402075,-0.7988920858794677,0.6597813740609764,0.03359414207324107,-0.9409324954169003,-0.05589599509975085,0.09729772676778592,0.8132293898497427,0.2589040893376413,0.3897187617899376,-0.027687042617174917,0.7655192251418965,0.059203931748754046,-0.3945646924240893,-0.8897059076661715,-0.9671427134527912,0.8882760234173375,-0.29516910903793003,0.13723247045812204,-0.6176407324583026,-0.43347635133473705,-0.8373924924817517,0.18149894889227158,-0.2684163636923975,0.3245771995256914,0.9961817003847642,0.7783558860891988,-0.5503389382902268,-0.6125934409701586,0.8067141257643546,-0.8311124001243106,0.9419273329142019,0.6268882646880063,0.5212773174017684,0.935666452488459,0.4606392194698534,-0.5032113341718341,-0.8167356740483762,0.05965420658982068,-0.7204557140286381,-0.04798111439796848,0.3719732127992599,0.6594766767279774,0.7519922600010451,0.7705109237735341,-0.3410603823857308,0.534260640463275,0.838235352031103,0.6411787028362264,0.7517478429904307,0.2909624816581211,0.5500060812045429,-0.9671425585350455,-0.011004127147533183,-0.22520565587363284,-0.5134294339022882,0.6016612128745549,0.8566115405417256,-0.7942334959030284,0.5089944209514632,0.7652548522680898,-0.9162284773544174,0.30611425171612017,-0.2396290967362844,0.9727107821785279,0.6575058416389106,-0.7518761544424468,0.29634862979611354,-0.2571296546611501,-0.0074370870514604,-0.8017038133491443,0.41169180663629246,-0.767204921883391,0.7385036654630341,-0.15340318777183737,0.32901121575431524,-0.22643682709267798,0.3211307608855769,-0.16005711321283123,0.5740137420646574,-0.8737914059811807,-0.9778212718552324,0.4557238054841688,-0.9018156467724487,-0.5388169533855887,-0.5981930635325436,-0.7833570328851474,-0.5827261815932414,0.17049736105833868,0.2678185815657721,0.4945137734136493,0.10209003108089876,0.43523214518810094,0.5798975732261913,-0.749524006930409,0.24008147472530506,-0.9239063825831901,0.4781706448192815,-0.0678353924799231,0.6599891079443174,-0.678376880981594,-0.1621716280512806,-0.21725060412538144,0.622365416178355,-0.270540191931532,-0.3683261873467909,-0.7118361161977278,0.6511518377605647,0.24368111637956824,0.09531227067094461,-0.7048891308256717,0.41104177616345927,-0.031698305150519746,0.2751180351896456,-0.5539336556886323,-0.04384516787154502,-0.13803602528013048,-0.9440141450457402,0.2863391223841112,-0.1314042577071295,-0.8339343060275719,-0.26618674237048934,-0.44818943041443204,0.049494017041359584,-0.9384339370551049,0.11476006797347926,0.7250884541753504,0.8414570773506076,-0.19658994409576835,-0.49912601008729496,0.6720725733637003,0.7361175587475857,-0.7854892179073174,0.8150546747079879,-0.0042062143728822665,0.0471385498520942,-0.7544407194932319,-0.5943168203067148,0.6984564153004791,-0.6410717923943097,0.8723715576865456,0.73435195243194,-0.10679676327942222,-0.9935328118314519,0.3182312440969661,0.9714185225386605],"weights_hh":[0.5504997292699327,-0.2112874301971508,0.2993480739685339,0.9564045652607991,0.051985966698210984,-0.9226091250483144,0.36438759300240253,-0.1713812029944577,0.11948474822178357,-0.9723119243922131,-0.8663708675208703,-0.32295223400553663,0.9747693961048918,-0.011806732290673638,-0.31006204740671883,0.6365114900605231,0.1593410262906756,-0.08744477543735796,-0.8495337823169737,-0.5659462289795816,-0.09632054475536345,0.3834548786051455,-0.32302239132540933,-0.1237251454436874,-0.5962645127673358,0.2779112597799349,0.6322341011626718,-0.03968708404542509,0.34715449307277857,-0.953204242670058,-0.8761831349036939,-0.19656994359005076,-0.9626118854636259,0.4587726876323428,-0.7475276020555719,-0.9492140952660262,0.7052474947966301,-0.3115426158818022,0.7331879527853242,0.385281630280375,0.8369418725760231,0.8881690007625469,-0.1590801097054204,0.5325180246266323,-0.7360155245208024,0.7130367577718033,-0.9035954140587239,-0.7697429812151575,-0.6981401692114699,0.4294057131112201,-0.6447596179466708,0.006178681712226242,-0.6686913990787509,0.8925226506296879,0.5866792291597709,-0.9637193729809426,-0.4605694932857749,-0.3275090571638155,0.17245275902035484,0.949019966405138,-0.6392751161737851,-0.07292749011871846,-0.07577081633272642,-0.8792053531852766,-0.41331928779603766,0.3855963104211624,0.2942715001853702,0.7372535478137971,-0.29991207318324253,0.9505836331843536,-0.5715054547838281,0.8999448018287788,-0.7918805209667916,-0.4284879416351659,0.08758757401645156,-0.8643629352839164,-0.06471804702056505,-0.5157138551701559,0.8769199694590177,-0.9770548590375316,-0.7300691558818015,-0.5490081554862429,-0.7145893821443317,0.9907087897421665,0.9215266625237595,0.6571263408507091,0.7522953328220865,-0.1948917834732775,0.7825893369605188,0.19172574725178326,-0.14279013091069426,-0.17806794824866112,0.7671739181964456,0.11783828199897495,0.8341450353259667,0.90950505775791,-0.6939785839209685,0.8942019690660861,0.642958633442333,-0.5318127211841839,-0.112729330133166,0.984088562675087,0.2459857949458475,-0.4352497700246176,0.7793015117180793,0.8994048387730806,0.04378718086321309,-0.47521130423677405,-0.016570085454873817,0.8740239657958253,0.08839608243080299,-0.337707018327859,-0.7512969646908272,-0.109328925850535,-0.5702424634926393,-0.9609246526809645,-0.8829501789108927,-0.630380641261628,0.3196143622883727,-0.07135267396447342,-0.9593234875945444,-0.27879310085237696,0.9795441255808732,0.30364609071714677,-0.006345413241706677,0.6512071478708319,0.49504102869821076,0.3495421234015039,-0.006934312118328956,0.7276607016839527,0.5173152648606887,-0.552186036122849,0.8911804305122557,0.22473489921927148,-0.3870043761640998,-0.6527425649989724,0.7482600776968822,0.8932038986221484,-0.382475239644702,-0.3954264297039094,0.13272413872687405,-0.9109674591557422,-0.7799110835706775,-0.44130845448163436,-0.3059373070694882,-0.49500472218681435,0.9437837480171885,-0.8985960489087981,-0.9682227833943384,0.9217354277474965,0.5053396323194246,0.4160452978650555,0.01568258789908117,-0.3328008718738056,-0.254553740570866,0.6508007726107627,-0.7698762614948425,0.1252488403145149,-0.18898990230908375,0.1251283534462988,0.2502883466023438,0.9181906215138327,0.4994391052915501,0.3875559831059068,0.27985885228131924,-0.8399827145067416,-0.39557093094988005,0.18321121512876393,-0.9616154916936113,0.9191093389939184,0.24439984543964566,0.304500990972008,-0.4202889153665543,0.9684525362206147,-0.5787275035518835,0.6550418407523304,0.07358542549783498,-0.8444392024005138,0.5263957761378948,0.8043950195067977,-0.6510823614104109,0.05846295092057008,0.5143179621631093,-0.3012487625915734,0.9252622435735398,-0.023437715133306503,-0.271830145325491,-0.9185757218150621,0.800955264830777,0.8304825074977378,-0.7229655616440611,0.16517277989562684,-0.038803088572272326,0.9885917733543104,-0.12706004687031625,0.7577996690909066,-0.698165037561828,-0.8204743015828677,-0.4325487963218686,0.6728084812546153,-0.16515423173124089,-0.7103520784683031,0.36014215803541383,0.9654476448936848,-0.020496171600487,0.3306702026019068,0.7357573536530209,0.22836765502786727,0.5055887532871861,-0.437599512253684,-0.14414413444158125,-0.12171878684534043,-0.6170856934755087,-0.5487133849446126,-0.9433026768552857,0.080357372437454,0.154988903450479,0.5666326173320015,0.48854117928221363,0.01151430389174024,-0.056051020295787346,-0.060923421663543476,-0.8762051223226739,0.3814506815401133,-0.5358817253936572,0.7843646235882862,0.5683644093811093,0.5831556866177536,-0.3428507948923809,0.5184038279622765,0.9423455866731192,0.8977886056783402,-0.3327163169054359,-0.013505713782827389,0.07543671999831791,0.9426286329495159,0.683730392084565,0.5900756574827639,-0.8375994842032559,-0.03332371105570586,-0.42500782055711817,-0.7041449796190553,0.7284542458693262,0.6123117103727296,0.5317544264477985,-0.038158707595788766,-0.8970671487242297,0.5886970496376653,-0.6524618006786675,0.670957342594092,-0.4710881194254315,-0.2208278499544627,0.9594360947842548,-0.17418357030078835,0.1859241082208487,-0.3056916963732803],"weights_ho":[-0.06918611308852363,0.9141564581247055,-0.736026689927219,-0.7226567145628586,-0.6146932436774537,-0.7623277690807795,0.9611299487073819,-0.5632930730934613,0.11311281295099973,0.21983239942353916,0.13611684615120279,0.8567893555721924,0.3023775578805106,0.5549160177970218,-0.4434465796968077,0.15538922961335788,0.11581535840331081,0.2855051708820524,0.2901131267401367,-0.05844513252389372,-0.8181944741046037,0.9163926458230989,-0.5041343915823839,-0.11304666080025916,-0.8978942745087681,0.07226640820387153,0.8682572532642783,0.9764979726976759,-0.6740836443272793,-0.20646113342451455,-0.9918555300137726,-0.261247858375222,0.4886807028173821,0.6168692067643264,-0.02666142108761904,0.4070736952444509,-0.15995211994949088,0.13825528271116516,0.6773529852488624,0.16665955360329132,-0.8106530075634959,-0.2864944805129186,-0.711950048498889,0.4668014818349835,0.3205187310899247,0.22219170298412894,0.9930379197668173,0.6913032727018462,0.4648449580699052,0.6787702671007827,-0.4144249477337256,-0.9249019017300262,-0.9435194558461522,0.4696720039415052,-0.7160482589116239,0.37645791818323815,-0.011643863466151316,0.7110978659427771,0.052916958372560385,-0.9175485537582211,0.6541249987841644,0.9304079821092057,-0.5247266815544538,-0.23847924543345544],"bias_h0":[0.21709539679837286,0.8640018003373031,-0.2763035009497703,0.01780330893752957,-0.9318026466451832,0.9773051693726771,0.029702204500494656,0.025062234858679977,-0.8421862335435313,-0.8400363995949729,0.5937564917859588,0.233924036752567,0.7208242577756652,0.5220788905452178,0.6694250523174063,-0.17521110028488018],"bias_h1":[0.4420937564407412,-0.1313643078900022,-0.769336740791073,0.654426735960381,-0.4281151280872786,-0.48839028063691714,0.9335356889743363,-0.9605084490242706,0.04707792818944867,-0.8571552948440309,0.3039978526819489,0.43330612254526923,-0.060462107928196396,-0.329517019969509,-0.2002883739636283,0.25714058171883747],"bias_o":[0.11693002217089798,-0.6158206624867573,0.4379221466398706,-0.037932475301753366]}