{"weights_ih":[-0.26481944789627354,0.6154904277886202,-0.8223263454591927,0.26582666963249557,-0.531322739644374,0.4134885144815872,-0.10805180997699493,-0.838044760457938,0.00521509377781304,0.8652447376901429,-0.7808026280728535,0.2945979619798582,-0.6058319971104573,-0.8352616162229269,-0.6132501519240385,0.7447014364976394,0.02056607195720095,-0.305421118462313,-0.678148891263243,0.5410136827478038,0.0179011748712945,0.7704466738317584,-0.6838618504472873,0.6693459258916066,-0.6666076350847474,0.1244170140993428,-0.05610359806145482,-0.629399189321223,-0.23273931114758084,-0.07492646071842568,0.12787827458571588,0.392784659544418,-0.6982031569006717,0.44015951909160433,-0.252541231088099,-0.34332071783068185,-0.49799350496028616,-0.20372883453037027,0.09265314187272389,0.6976196509467785,0.4759341412593916,0.9910624136890098,0.5531241406840726,0.37882947989977356,0.5271179630662397,-0.8716294833010996,-0.3511417786400184,-0.4080859357536242,-0.3232124920524626,0.19528491677623827,0.6695737056221978,0.09570171176154996,-0.21463665082399697,0.5635029435577945,0.519934562260272,-0.2669028316582305,-0.5071553656515877,0.9646466419087429,0.05557524229419464,0.6500021243603191,0.4174125158985176,-0.2148105468065884,0.4680135466544719,-0.7739221608093763,-0.07562192609741047,0.06595872649935397,0.06970244313821095,-0.9897196256697096,-0.6186438829460805,-0.6086377906436966,-0.016907844034383945,-0.6225724079665989,-0.8630952916594199,0.8582484439474587,0.7785582652436842,0.7017933755520223,0.9511921709804629,-0.2620165756259567,0.06548058197955364,-0.5571865207870299,-0.5293243240425407,0.3316925374038415,-0.38399785280199095,-0.4044122089019295,0.2899367660709746,-0.7770899833024167,0.574408233041642,-0.8882757195871482,0.054299440597749715,0.6348802932470505,0.8658792144576839,-0.9264949692004532,-0.10315319362831654,0.9334729373254134,-0.25809426009280934,-0.7627335486287079,-0.9452064393742603,-0.42869638448011793,0.6938129223655667,0.44548987898784187,-0.8756349363615763,-0.5429575343356505,-0.3714501817856761,-0.6833183636799001,0.6572852869371368,0.43780712276071787,-0.70331846480855,0.18829498844409587,-0.9451937893663569,0.9644520296458097,-0.7765942398529269,-0.7422811844980153,0.14665231131479017,-0.005585667673614125,0.09273822391948472,-0.8666082353941438,-0.34786544597020463,0.2606889055975665,0.9799869674154846,0.7597346375408582,-0.6891542948723586,-0.13074195675322486,0.4653079196212351,0.5663454731776916,-0.1756277600990186,0.026373885013023957,-0.48899556773519426,-0.7182643716582717,0.9034971915743193,0.39121580503411546,-0.5540588875385319,0.1690430828757179,0.5391665002639949,0.27362463964256034,0.4089244569343111,-0.90938602295773,0.6366640394969603,-0.3253731061809244,-0.9057195094822066,-0.1644803522825784,-0.3269669207738297,-0.45491217654006855,-0.5512625822784993,0.844064873309627,0.5268663026937608,-0.4867773456213915,0.3574657479897789,-0.5669293379965221,0.03857961491710249,-0.3734516450542571,-0.19411803835283692,0.7424735351855956,0.5530301055850406,0.23849944000869772,-0.10153715683474318,-0.913932894824786,-0.4857076588252647,-0.7202510014018781,-0.5072428185480184,0.39215890444398194,0.8069686883320328,0.2449408954061536,0.44929838598529503,0.4008516473315349,-0.8695187223154022,0.6404745726010437,0.2164018126502636,0.9683415184796715,-0.24258858131143723,0.8941117383983213,0.6674073072417741,-0.34683054386441503,-0.7081796052716824,-0.8224698934347385,-0.212444163722608,0.21904339027101383,0.6408936648652674,0.7682472927088673,0.906972420897288,0.5346777563535765,-0.3928536268751104,0.9102445631664542,-0.6311901199706857,-0.6462087680302684,-0.552993068376636,-0.9399296104549644,0.5530865054688183,-0.5861233520215612,0.9796601976317254,-0.38212421720677825,0.7967019171309293,0.37685503144150423,0.5052633331236447,0.023186515290806176,0.5390057316035233,-0.05618208632106092,0.7450195164706732,-0.6863819858087832,0.2713662904843308,0.8505949769573184,0.0309777619270033,0.4151366305168993,-0.942123469943803,0.1905116485711027,-0.5091537908512129,-0.4427259050920469,-0.4776873944865194,0.8995823280300852,0.549659402725015,0.147926117999146,-0.6752665053033489,0.4001371986479012,0.07716902736595643,-0.17062631420174168,0.02464854592133925,0.46811960064143854,0.46320609897351117,-0.12582966551270514,-0.9726010744232385,-0.17150471449473081,0.9084412320769364,-0.7127680034427963,-0.9757540669302907,0.1163372083327181,0.2375342940340357,0.34646295181369924,-0.8145441052046494,-0.5298996379794847,0.47255225020335523,0.30790888157292184,-0.6439670891660199,-0.08980792227529943,0.08532294621306913,0.6492113170888805,-0.6784745858171923,0.42721934673942297,0.4512420230326968,0.3930770127828578,-0.6185027842900617,-0.9965948073353794,0.012585281469784215,-0.9012399476233957,-0.9038957133267482,-0.6292089722398166,0.9362334953098435,-0.09634189293865392,0.26247805324670637,-0.7730394835217032,0.4825540584891006,-0.9461715511144115,0.7211918356659375,-0.5798179249383051,-0.7833189213814074,-0.37741818845308894,0.5376661336854975,-0.8419012524514351,-0.965295009219892,0.5437656768214789,0.9522659578834667,0.33417135409155896,0.18670931112421485,-0.6260923141010042,0.9477139626949012,-0.47772972343448505,0.7825483809509886,0.6237383263540099,0.46266236523536164,-0.3277416763187804,-0.21075330205955023,0.5788879980819628,-0.9749299315818976,0.9878923778827395,-0.05929418892072946,-0.08309830471132562,0.3232753926194456,0.5420435560593282,-0.23913513789778107,0.863192581552358,-0.7374320543402872,-0.3005148221347249,0.4980668962207866,0.8287066457915677,-0.6526026231097815,0.22764115442121735,-0.03177176752251332,0.3751840720432922,0.5611612289127925,-0.9115298328547414,-0.08126360561429036,0.5398773365693512,-0.785444214178274,0.028981502600853304,-0.5552203095081025,0.9460179905962509,0.03330155255714007,0.019146482562798495,-0.5973640446485611,-0.6610513938205478,-0.8922365337233165,-0.2170362857008008,0.2147115144487537,-0.881859922731572,0.6435688137416213,-0.781000316324107,0.08471059012598614,-0.63059297644939,0.1069886123262298,0.9595320634011659,0.18021745840035486,-0.09939468044580146,0.3540125807546206,0.4274583846543234,0.42220829338151744,-0.10681608152052058,0.32326664599182986,-0.3249301064421932,-0.4305008909789245,0.16764328305222076,0.7567248989527886,-0.6917586537078941,0.10754322733943766,-0.5356072918148305,0.3553354970643179,-0.5887392858554699,0.24063722422432288,0.9357854996366797,0.48108002712462206,-0.11844994548495014,0.6503640443255219,-0.3859168464324436,0.9304261838325865,-0.5232115112266482,-0.1862788013401746,-0.4265250618757821,0.941072443369749,-0.19613342192753835,0.544835195372469,-0.7615779643608049,0.5624942398733959,-0.6818696410737988,-0.42973546271151597,-0.39754979189511097,0.6107177742063121,0.6293288309106475,-0.9896245394426233,0.4859851293024089,-0.20922333337825227,0.058214631474995615,-0.2228106134436656,0.43983190111525095,0.8293623191564647,0.6092132551496225,-0.5675544757645656,-0.9724399920244067,0.8254169606033472,0.8283428461659106,0.32349107422364076,-0.31702324960268013,0.19422599618417213,-0.1923695806421195,0.3632244441680319,0.553268617482751,0.7480987969214425,-0.32571291397902025,0.318396653177041,-0.24202380942996493,-0.7833250749177898,-0.8919373639842951,0.11589852292056224,-0.8367886143879586,0.8021261122318577,-0.6689754982532421,0.03068190106164259,-0.9937992242407012,-0.47411873836489615,0.6044806014263335,0.8632445345104125,0.22113119485487687,0.34431084300387993,0.7835435823177417,0.25386945249589954,0.4770317238011097,0.8931252435377728,-0.8151739572019943,0.8388847039271614,-0.4962243992246915,0.7312899845129419,-0.2294137110936849,-0.47782805697873765,-0.5463991438125153,0.6004523825774539,0.3887693989660945,-0.8077775060470622,-0.8433255515657387,-0.4031562361193204,0.08056796564254398,-0.6243273395999531,-0.7944680209179154,-0.2521784962755902,-0.16569157906831444,-0.4163113974928434,0.5507935463860967,0.13749089297627637,-0.31858181592182744,-0.5186052661495943,0.7910740649829071,0.010187575872612875,-0.0179870758973113,-0.5635412680725123,-0.8987272490582467,-0.25692397969141,-0.2668410682031106,-0.4516269088726814,-0.07078465606638695,0.2170914987024084,0.5825856993675316,0.841950822031946,-0.15657546853996385,0.4289172256218543,0.8438256609857193,0.9057654998497036,-0.11226786885097706,-0.23808064226745462,0.026994902275100374,0.44516515481824914,-0.915098464742343,-0.15866269559870982,0.6953776838096266,0.7771100204131967,0.25403905326543796,-0.8510288264007779,-0.06450036530047276,-0.5100460432047587,-0.17070919340998403,-0.3458857639341939,-0.6686057797617986,0.2479365671994629,0.1919132415577287,-0.22771840353704564,-0.47085653153632023,0.10171979319683166,0.21552236031132388,0.7651455124791826,0.9837094156290906,-0.5017399757875616,-0.19409544081139996,-0.6856511402677654,0.20912493585791703],"weights_hh":[0.28363890423413585,-0.5444964809676296,0.5866238107645756,0.66890880467331,0.14447649547344477,0.7271256063955198,0.3864716607058507,0.29184117029120915,0.15948952590476506,-0.3194605743990728,-0.3656768975040281,-0.49595796655043456,-0.9695939043669135,-0.578674620675141,-0.28227484390164914,-0.15062278019598652,0.13349912692961463,0.9841777253191812,-0.3053304293236876,0.8589790686342367,0.0033317243073760494,-0.5245846702365153,-0.9766028940181293,-0.30041375934095593,0.6669280305888634,0.7304149244226179,0.8837590552953247,0.6907563867351052,-0.8391213394689991,0.919763135753946,0.780238676329339,-0.4669623284772584,0.40483287523554834,0.0479039137822197,0.25600252328609163,-0.4649655438690312,-0.538878173563782,-0.2385200885112202,-0.44245134351345716,-0.7082734758575517,-0.1220115261430399,-0.087175486422012,0.1454079044581036,0.2809324255648593,-0.7989507980311625,-0.0829365415068386,0.651176824819732,-0.1551474515497695,0.3214995986194531,0.5531333898496404,-0.8968050656357838,0.34482546065427755,0.09637942055949811,-0.598329764390608,0.6094193692158787,0.8756325141400103,-0.9056492707325734,-0.859602453451968,0.27307523322601024,0.17688479128982282,-0.5013553602818674,0.13400074810761864,-0.8137827921259961,0.7922550161131752,-0.5090864509186344,0.9595864052889047,-0.7287734372891883,-0.885137365119578,0.03043253944710722,0.5400651332851945,0.174688349029829,0.3050939392607368,-0.7845595313892966,0.3875978702770362,-0.2632622319128777,-0.22971515703165446,0.1440042445754759,-0.9920174200134184,0.72509723803261,0.9788598762951835,0.7557621989534988,-0.9817382312415521,0.4327132323686924,-0.7522554225012226,0.621584356822132,0.4627686495896979,0.35260976033216607,-0.233965863891878,0.749651281116763,-0.6084883771531937,0.3900700978280678,-0.5159016564570176,0.9840178668646666,-0.7409871760714606,-0.8825006934625206,-0.14759353171669032,-0.14155326666273527,-0.7788760335486484,-0.7531201384361874,-0.7439955811724239,-0.3601958145555919,-0.2977888427216664,-0.4411943853283806,-0.25643808475490903,0.43447309392666833,-0.6315043190440872,0.47045724098565955,-0.08022665882674263,0.8317081912552642,-0.09923615943786523,0.06516689704315803,0.42122065599711567,0.7699189331612113,0.464032581468407,0.5566034079249262,0.5181761500947542,-0.7192293627364885,-0.6135351900349586,0.7640153294153296,0.06238823992996134,-0.5165107975795489,0.8832333299984829,0.7616780289686358,0.30449260683800294,-0.8760994561055067,0.42199397771071956,-0.8031356974078305,0.09106450100741315,0.364348288463878,0.6788299981905177,0.678520834288582,0.2761081908915177,-0.6763258337309035,0.6805295246156036,0.5410101045471243,0.539413931749726,0.2134100294274337,0.5954687710248123,0.5531634712992952,0.7387435009179406,0.6494251843507584,0.8186664514102318,0.48422384471490854,0.5948157188993997,-0.8819192043506296,-0.6418378376989422,0.7057415152338549,0.3317728303965828,-0.44962627084962836,-0.9947877128117055,0.9670738864549131,-0.7120888548419224,-0.9296131542415029,-0.9628279413079335,-0.3945566998213077,-0.2626117606571001,-0.368229548543094,-0.24428432082399287,-0.4950177668455822,-0.7987644250841204,0.697099227246671,-0.10644632052227876,0.04212872954751545,-0.388593724388429,0.23253264360098358,0.17852317263804673,0.13748063016322698,-0.12162368432035198,-0.6077699044720752,-0.35094681094687075,-0.2028484552791967,-0.12698989940513572,0.9604290759465806,0.6100270863592956,-0.3809108367951186,-0.8594332519492136,0.8159856726142312,-0.9969415283336553,-0.8759710890471497,-0.7184436220653223,-0.3113127658487924,-0.6665269645981129,0.3754911492564421,0.5011713808928828,-0.91710390402991,-0.6909166296731319,0.09500546785330788,0.5635871533229058,-0.15816979126369102,0.18777279995862473,-0.525016788322261,0.8652550384877633,0.39695207321972936,-0.12454897557832179,0.8794512876779346,0.5160550395511865,0.49523319394130727,0.527784516935947,0.16079902882257957,-0.9501330652284818,-0.6037510848557337,0.042089586641066656,0.4716976452441639,0.1823878035944544,-0.5697461668332011,0.31652210086866983,0.6133847597502042,-0.49448833322225894,0.6173810280621903,-0.577776434556218,-0.7758692238098641,0.782346598485542,0.7784625241772063,-0.0738524725849794,-0.9489845956679837,-0.3035183287875205,-0.07342482448027043,0.9401870663929905,-0.02775618228303567,-0.7129578993447245,-0.8981897819447515,0.34520085394981237,0.2334640882390291,-0.7522115697968792,0.2745748386550788,0.004821435298523191,-0.5885136082960101,-0.7379763360869676,0.7312800443375076,0.15724576224178777,-0.18105160544945154,-0.2890719525591572,-0.30080720268996974,-0.33263588621294526,-0.7467429223755013,-0.8516781546425036,-0.7607086233078708,-0.21510551475000073,0.8498708736347533,-0.1432329811288402,0.09768062020834045,-0.21641743915693534,0.12146418906912149,0.14277381467909334,0.5004087523303957,0.7958517056181436,-0.12114813836070115,0.12468726172476718,-0.996217147314638,-0.6943719083767164,0.17396398888075648,0.10106441508100317,-0.5207521497190499,0.6124773454880534,0.5305690946245942,-0.48175418285111915],"weights_ho":[0.856113185597638,-0.6527735530217447,-0.5623484296018701,0.3985409668932056,-0.5722144254696968,-0.045219604744097586,0.0020242190728838594,0.606303287836671,-0.01659655407808347,-0.23764923639481483,0.7656159803226728,-0.20847276452289476,0.11434076221449807,0.1275158966147727,0.9136814372669864,0.6452608087389582,-0.8549594983778377,-0.5310557499803914,-0.6687123093033192,-0.6317823834473029,0.4520977553803449,-0.19132384231675337,-0.24417686189606846,0.11597972662144773,-0.6815904851764023,0.7331430010127968,-0.7286416020849971,0.7764852978562988,0.7743807777157681,-0.21295138175415507,0.7882505461473903,-0.4029973793673194,0.6615462943329089,-0.9466902681023481,0.9093592678663063,0.2965598307592643,0.8343368643592686,0.6721673938864572,-0.03004533909113727,-0.429509094024332,0.018074091499224343,0.8004044441916625,0.3144151269780957,-0.3508482254931007,0.08033569401002505,-0.28468131840800437,-0.7310124150384836,0.5834208392959648,-0.28230493538332135,-0.15185260225188357,0.6778979068792488,-0.33674298063021935,-0.4064685923599449,0.025754728193524867,-0.889560957681476,-0.23228534310557336,-0.5441009958765739,0.37925216327951494,-0.12880247775519882,0.7681360283946979,-0.6091942383666875,-0.35079146784456494,-0.905394811834503,0.8034077563612978],"bias_h0":[-0.08051180829872395,0.7855509178779196,-0.15053814863673987,-0.713135042718058,0.9567146376778546,0.8496432069191369,0.962130023921165,-0.8103656357069569,-0.8903352132295372,0.6284763557975728,-0.1295233395425397,-0.01986104941095146,-0.30890243718781885,-0.5869497192166,-0.8474353923590763,0.14933156489260302],"bias_h1":[-0.671925961437368,0.19477679632920508,0.4729591402137505,0.9912880924244154,0.6602651122317216,-0.055178990704181974,0.9420246289261558,0.7845046087500687,-0.26882923759132193,-0.7250091471426074,0.0696046909695538,-0.6810003807191156,0.7880079645770295,0.21892517468327166,0.32476602750730277,-0.1677641583111147],"bias_o":[-0.3497009391284682,-0.4514142038560889,-0.6186561280875595,-0.11374905578878369]}