{"weights_ih":[-0.11410389269532017,0.341824986292975,0.2536215671834301,0.5698251940118904,0.4292797703489877,-0.982976488007437,-0.12166990129955813,-0.47823138697997614,-0.19962740861413497,0.9083673350344705,0.1685413940846081,0.7673179551992173,-0.5902744081158433,-0.8218013834241509,-0.1015655046965327,-0.4356034686461432,0.7410834478829595,-0.553134507139474,0.2650256558695443,0.30563248777617047,0.6855474659403553,0.9964225300117704,0.3864056777033624,0.3813503597297818,-0.7569346802844601,0.711554317503394,0.647177846720244,-0.307809161115264,-0.6990483332732487,0.1822995702643857,-0.7880521408592125,-0.5715550925932273,0.6947002513602347,0.6637095548666414,-0.964855273753678,0.13152748160377947,0.46834589879704813,-0.21778289000121687,0.4276379917560096,-0.16020954487647954,0.8637542994050111,0.8432272150036857,0.22571942052942884,-0.6712150627103881,-0.2502600547513598,-0.5179602698191805,-0.7480950780441886,-0.0768203040538431,0.07546678573034105,0.2024588991614027,-0.6368401299972577,0.8695840811637912,0.7310877679826051,0.8982662588236574,-0.16463768735292095,-0.5728946893049038,-0.2459786837119784,0.3019416249456184,0.781192382345282,-0.31954473977300535,0.010471471612475858,0.8873462202699216,-0.9713641592832332,-0.4821506990092399,0.7288196035077612,0.9831281097959579,-0.7674723512933816,-0.38003155839202685,0.2042401636837603,-0.661050723282415,0.96879536379808,0.0016500283723623888,-0.5198592903406543,0.06127533051425482,-0.6576752905268455,-0.9709247363142783,0.8915329995738375,-0.15332639348396637,0.6986212013248054,-0.9881142869041821,-0.07988104862148182,-0.49154524095792995,-0.600759761049938,0.19378988069830894,-0.324816874362307,0.8252901482581341,-0.2911101267832217,-0.5534113182531464,-0.9663711310187004,-0.7617208962115904,0.8556110265675361,0.6432300851729664,0.2961694545504301,-0.31366765502371363,-0.18607318331644884,0.1294743693708651,0.30691802255934686,0.825140262499537,0.354136565832768,0.5627818649849776,-0.5190489543901047,0.5048541797328898,0.2179235771463377,0.5146831291725655,0.8701141178811169,0.3430780053240938,0.7074265848726964,0.41881066984882875,0.5073580028865208,-0.432739084047415,-0.3246747578238913,0.5687173496788254,-0.679163138234042,0.8441371238878257,-0.6797117720908561,0.045726488073549953,-0.6618483688630292,-0.14417579038215855,-0.26918032003014325,0.6701014933725857,-0.22593695918955659,0.8533756387295135,0.6016831988624893,0.06749883714953508,-0.03625467652996206,-0.29756365943418883,0.47915284632497235,0.645259163453715,0.30005935201114453,0.34098678402995897,-0.6892158053338466,0.3923798365345432,0.3669609592732017,-0.43183935134932283,-0.4542964745240232,0.20358932063534252,0.5805969932383606,0.3480386603846388,-0.5146191818978243,-0.7303346396126138,-0.2017126575868804,0.5211068497297642,-0.6988025685569388,-0.6931025058743538,0.6878450543920429,0.9470032220246989,0.5527332528050886,0.41623425986300355,-0.7959315443478923,-0.39923534457727516,-0.32130107027151045,0.2637643612510978,0.8774450598345778,-0.7299856705107977,-0.7801462063582401,0.5810661064695137,0.058783451393257025,0.7723783498464882,-0.709661910074876,0.8024362440263708,0.6957926779494943,-0.07909579944418521,0.26956813831443416,-0.4874831819326235,-0.19318000915183564,-0.014146699781168781,0.5476126090800668,-0.5553199010305268,-0.6097588487883434,-0.1006036237537018,-0.555579241621186,0.9515431611209104,-0.957540941703265,0.5064679298331811,-0.9292477012337064,0.46991169337466054,0.11688603954563548,-0.3298166014673012,-0.32007807033704827,0.8168860097353916,0.6751705544716302,-0.6525891182837205,0.8816885235419765,0.3316132334349171,-0.14473342456476845,-0.9177656907845269,0.23035647828764816,-0.7168005508292012,0.37369829603007876,-0.5157056386719485,-0.3792762638705587,0.8612903271913432,0.4032258001170266,-0.6374819023261422,-0.8512418444442418,0.5747408419886249,0.5798631795283005,-0.6006513514979346,0.7389233146569798,-0.4125332460876723,-0.0483613297122687,0.9482919158233352,0.27456082977720264,0.6633005471718365,0.9586733961290375,-0.9126053160361316,-0.5578372245740975,-0.38394581144002826,-0.2581150265581953,0.4830769572377891,0.5109574600177222,0.7978526657405478,-0.619624781612047,0.8458834927956613,-0.8005847202777441,0.32183315934054635,-0.9900046434727978,-0.5289866866767137,0.35336310066334864,-0.061541206338668886,-0.0701609126008198,-0.06083028136882174,-0.6189418602934174,-0.9242948842142855,-0.7912621889906835,0.6632804974632405,-0.1180287118333685,0.28951265719054753,0.8777677170194498,0.8942071317559495,-0.7738553363457874,0.3242703309776618,0.530011685190056,-0.5884459983076251,0.24457558017148773,-0.8697611460445478,0.4645075307748401,0.6441176956101673,0.5237125105002225,-0.24523106598290512,0.747524905306097,0.2759166347259847,0.4437504622033406,-0.3411413167181643,0.2817167587539573,0.9585125960980168,0.3513547164074846,-0.2678309499351432,-0.5951028405533141,0.43620443514607965,0.09428435018777903,0.6809400746007737,-0.2654980659244288,-0.7704091054935103,0.2681396771988167,0.041423349804448284,0.1507151072042634,0.8732561441321252,-0.2308970419034757,-0.5662490378597478,0.3983326771638449,0.9312938332551659,0.7274800458304331,0.4108366662363876,0.8674388248536886,-0.3006248978293653,0.10779459498659305,-0.019711402396898503,-0.5212815743913681,0.29308569288185593,-0.8481165885802533,0.9689681743250176,0.2058251446587196,0.4586407867190878,-0.30194113181482396,-0.036858877010215174,-0.8894496727316659,0.5904390318353945,0.05664415648177634,0.8561119338255381,-0.5598473043278998,-0.8278056911330502,-0.6353409811986035,-0.3211067954748914,0.8703886191296673,-0.7955258752263592,0.533175317806992,0.11046712995621366,-0.22149552226426983,0.233893472028468,-0.9185992446926827,-0.5294991926168262,0.38824890424366587,0.5840932190829415,0.5415539916780345,0.05064704901798023,0.6317159205645118,-0.3948676553010706,-0.935322932422125,0.4311693879402214,-0.3247393535168266,-0.7220527378089907,0.17884644855368137,-0.48465887599987045,-0.4149021473503973,0.34414609026975773,-0.5793409095588855,-0.2636777308271683,-0.46914812437142994,-0.31455614725978265,-0.6138661315989511,-0.5929012419154847,-0.31944272502187965,-0.36954912369879334,-0.23761981550491784,0.3840653934682843,0.11520685478234616,0.9706670977120988,0.5272022706461179,-0.24315494094831513,-0.4308540693374352,-0.7060750438585786,0.5845227819990975,-0.4618772333071275,0.4427960106461244,0.8545247960743785,-0.5087067352713168,-0.9082521524558882,0.214058903407351,-0.11307766272275743,0.9139953137207699,-0.17273168641536896,0.44443213052851993,-0.05290467529357401,-0.46524391838894474,-0.009528954594179018,0.3373924611155035,-0.08352548089054146,-0.31149950247066815,0.2875553099321344,0.8688993172823578,0.8257429561176801,0.7022691248831197,0.8305738127750011,0.7854499533820933,0.3192703127449459,0.29218208199581985,0.48470753292758095,0.17244955302489262,-0.7902889541266793,0.722606162108185,0.27565463667625156,-0.7112950649933836,-0.1861104613838931,0.37822886939575184,-0.9995966198633555,-0.1119912023614622,0.18941165418895856,0.9746528700208068,-0.6012801540718562,0.32091431714682406,0.4181370248355003,-0.26111401772903386,-0.2516611315639896,0.1395559753643929,-0.020483937135567842,-0.8178469220510223,-0.043821696050108105,-0.9563748109513868,-0.9566485905616346,-0.37181690184699123,-0.41118859594010737,-0.016111700663755668,-0.6718267783106484,0.07189232465596573,-0.7648497278768136,-0.3719995328909733,0.6657371275950623,0.777987876734181,-0.5748625989461262,0.17755718220751238,0.7311808442500651,-0.5438532657664945,-0.8243816168600868,0.8440110171760637,0.4668981081498458,0.14554758171740723,-0.28682806155105456,0.9576140245245242,0.35860915010477523,0.9058130238922608,0.12047683505918338,-0.3837682104633662,-0.5709265727009041,-0.7816148932383788,-0.42893856560125765,-0.06928261721218809,0.6967421713400881,0.34966144200485316,-0.39350977433758216,0.4984075311094238,0.1456637883280134,0.05959594787156686,0.508138744190552,0.4269292897252748,0.15878900412767094,0.19879910292391,0.7545564137623313,-0.6965328606809031,-0.3029363474947888,0.2580584208556751,-0.6544278318176788,0.5223774146384348,0.7817308702175838,0.4653040852631849,-0.021040522937353145,0.9461241325712733,0.7412697854632697,-0.6664258210443694,0.4303228057179487,-0.8862520096379722,0.648610269109672,0.4916062492973987,-0.8222074078912804,-0.1696875297006668,0.04800113688909957,-0.4359082796309719,0.6852594558131218,-0.3126888626116686,0.9171009955857226,0.438872785947956,0.7680815295403729,0.0360642639165889,-0.5868002097454066,-0.639104722424557,0.13094835227653467,0.7830904114523407,-0.7240214089147319,0.07749212234493541,-0.48197656316691884,-0.6292434277414776,0.5390154892544665,-0.5404329318125987,-0.7882590735541597,0.7514874513250784,0.36821061980262315,0.20683157879822,-0.6387871889704353],"weights_hh":[-0.8833529464810888,-0.701375107765515,-0.35975967936327424,0.3578799990832495,0.6389694957629588,0.27456885826649624,0.2539672529994055,0.43382469346409946,-0.6666024056715103,-0.3049340169330339,0.7590778311648578,-0.00749047344423337,-0.12431320553463698,-0.7461567616086804,-0.3712683750112966,-0.2625924417472201,-0.020023922655363124,0.30441516679664593,-0.3135567317250043,-0.12610308732582864,-0.3126636057254666,-0.2970124866597861,0.829659526130827,0.7240681064531429,0.4467437647506325,0.21468405659832213,0.05848883503442126,0.5016186539142704,-0.4425162127295552,0.310233718706342,0.7604569775026042,0.3965191212173109,-0.04155272790765707,-0.7436891149787752,-0.11268454388083371,-0.8402271185960435,0.7983913977951596,0.5875573180989155,0.2669561328680041,0.6830839317925415,-0.20645581935153978,-0.24008771810666318,0.3886072199736239,-0.12606359496839925,0.06340678356200691,-0.388026422693144,-0.849508906806602,-0.02739504913900137,0.973129970831101,0.31459463374671937,-0.01403871973798676,-0.25412486025155645,-0.5617504682721723,-0.5893718196228568,0.49769129470937234,0.27352846081491156,0.11218978591635498,-0.37142886654590135,0.3694287545887365,0.6483023110946176,0.26775732701248045,0.7149082427943589,0.7335354279383863,0.031891854275795994,-0.797826028372143,0.4177240857771012,-0.11805405300769345,0.7945634024725374,-0.7740449053692215,0.3250726214452293,-0.12119368171580547,-0.7135374103311845,-0.7752498937534811,0.575434884018579,-0.5763322203494785,0.050782119331848286,0.570575933025834,0.8467571888688865,-0.8812156304652623,-0.6076363389605979,0.8133826539124789,-0.9351966247855876,0.9905022001020527,0.7954019238422714,-0.5143798893666938,0.7510366784782685,0.004593857664083378,-0.047191533974537236,0.9870483089340341,-0.6299663694279638,-0.19716665801068922,0.7312693884354835,0.2342934402072876,0.7333043922731235,-0.7844941028405459,0.5260405978058516,0.8211290533896598,-0.5612539321913028,0.8690563473666406,-0.6054911913565519,-0.8013749837512774,0.5547150697162135,-0.004588670732123434,-0.8154124354363215,0.8427641353515709,-0.5959833741944236,-0.46967640147464507,0.9606528198277875,-0.39955643504029426,-0.35507602142593453,-0.7789353326747659,0.12217909561215246,-0.19922402751205293,-0.7924612852592756,0.5788044501181331,-0.5414894072860297,-0.7256703910897562,0.43325154091991736,-0.5321227244304017,-0.37217389372919296,0.0806291248981783,0.4211720408708626,0.21648643431194414,0.9439872914390075,-0.20933202268148166,0.6838699072935892,-0.45926181618796647,0.9353659897884599,-0.39192430985874793,0.29170399041880724,-0.8319340645226618,-0.8039593371050653,0.28691911556509786,-0.14029607471698236,0.5361589964875022,-0.6040690523455028,-0.4697340163285495,0.6693363640027603,0.6039160846119913,0.31728553695253625,-0.4756356454653905,0.22075327694664426,0.7229429748883416,0.22720846348697488,-0.26330128258222474,-0.7885417143263624,-0.2689741921397901,0.37846863591298874,0.6953209350668976,0.27364353490395543,-0.6479250139929869,0.4198911687026603,-0.9063000861016319,0.9818692119200738,0.9718689167391139,-0.9689275356434046,-0.3202031882883398,0.862853897775516,-0.8268876034950472,0.6790334329202217,0.7946762555236762,0.4026225343250569,0.9599472133077875,0.9205973222727597,-0.15999352134986333,-0.011393274290349753,0.2110407574469717,-0.43992512574158504,0.3046019569952698,-0.6863838761099934,-0.2910605103159636,0.6296128254399687,-0.5507485810468831,0.7582628250514254,0.2637256161235779,-0.10332557617070903,0.08032818142275566,0.9587685968718476,0.5018994705784754,0.5978891592812141,-0.8146065898329908,-0.5801316155288461,0.49874747128459873,-0.17860099096674098,-0.6702885148188427,0.7175191319553007,0.5537332874030549,-0.42407227559745797,-0.4918337113241864,-0.907482011980753,0.8612249834968217,0.1299052794498763,-0.7396200357771843,0.6576251174136281,0.6930833349061125,-0.6257270890313158,0.023338524949172657,0.9260753159254229,0.14079432753966814,0.9424967229947281,-0.46500467295666015,-0.9758712810215782,0.46571389132437435,0.06462236338099903,-0.08409025444751794,-0.9281753001237896,-0.044749103286684466,0.6058083402887997,0.8378984049438227,0.28015492306054024,0.1621987702948231,0.4450574939214087,-0.6039204016383768,-0.8602226907175539,0.2199101633163587,-0.9749930787852668,-0.29478755386078914,0.9108997600962405,-0.5397627853463025,0.5519884397289734,0.13780674313347352,-0.5323845699508438,-0.4368679202646517,-0.6127801413316865,0.7298648122735731,0.7330946818039943,0.7013444418043198,-0.8917862878732257,-0.4578980569977944,-0.11038170687394744,0.651049773059696,0.8609306780570893,-0.3766605804986982,-0.19687743919255918,-0.9227741794939897,-0.3109658681948828,0.8324328269566568,0.9072340722941297,0.14805934615288874,-0.7783510630226798,0.7599682682964339,0.37467183914253055,0.942329205915335,0.4865446522171295,0.25860267757378486,0.9211673987402527,-0.6362122126542626,-0.4886977998983877,0.02883001163744514,-0.14057295866799935,-0.2625072258569725,-0.5631289436814428,0.5262236558153812,0.15390188237401148,0.5742231814603411,0.11272807215045377],"weights_ho":[-0.14255148628392567,-0.9304523690330668,0.8951109961457189,-0.8465339314034872,0.5464559347950539,0.826392499498745,-0.34019550429821144,0.610563188259909,-0.7784588633432756,0.8616135306330732,0.39298694813106083,0.6608434877402827,-0.8406086226747405,0.9000061843883067,0.5196587692277126,0.5030532121371438,-0.7166303876557807,0.9667167599160662,0.020462560436429245,0.03328441336904109,0.39115989374755356,-0.7402333626800313,0.9062345685372857,0.1461086077982976,-0.3406766045651859,0.8773214176023132,-0.2721154583317773,-0.5841572826955475,0.7511188633726722,0.8113840132040224,0.731845311160024,0.4576679878261669,0.29470953346807205,0.8559098374957583,0.7834321048384183,0.5421924075397435,-0.4811648135070561,-0.4604578364716767,0.02372383123431665,-0.20889112653486985,-0.5862608715032565,0.4716455937756854,-0.5897042696202275,-0.059696153099612737,-0.4017151718178915,-0.9577588244450796,-0.6571395512247702,0.6348714163773037,0.13946101180360126,0.8020905538011605,0.008709430205740443,0.961883837028491,-0.051908209398223715,0.5112117140959203,0.15960557100982942,-0.5341146700131896,0.3864751764273977,-0.4871826815353162,-0.6109173133065828,-0.7873441261959933,-0.7976035883659731,0.7495274826348706,0.3965167751842802,-0.5841816277656366],"bias_h0":[0.516591827312608,0.7946012657976234,-0.3557794924423636,0.3227145353601013,-0.7697170462041087,-0.3393461115607901,-0.3855932907616604,0.43336512368523317,0.7598491120090962,-0.8062758268757586,-0.4897205632364392,-0.5522790221760763,0.7194295268754329,0.9278138159284259,0.9895734455993463,0.6944528816872519],"bias_h1":[-0.6378393972528702,0.6697497280268541,-0.3760735829196107,-0.21200231891702237,-0.4698793995471635,0.15760833535669838,-0.4621940330825889,0.9160110159927493,-0.6748016234744203,0.6904574681246058,-0.4639877541301709,0.9087079352607037,0.00040571505882969205,-0.5694859786865043,0.04440151167730977,0.04008526341217622],"bias_o":[0.09644289511873327,-0.6497236251080873,-0.11613314074431358,0.44846867506169574]}