{"weights_ih":[0.41393098305720377,0.024425051243900375,-0.6016937734861207,-0.9306264184013529,-0.6196104613730995,-0.48863876562852515,0.3922527778860827,0.8369629430820991,0.36111998517381005,0.7047389747521839,-0.6495896400954873,0.629487880284664,0.618950545692448,-0.8107693342648727,-0.9407176329863634,-0.9913579677691591,0.40471950583175387,-0.240180978597323,-0.360203297460298,0.7614954836817123,0.3223716921932249,0.14638906539838836,0.5758900333845365,0.08243791052735006,0.9020887481990314,0.6585463636794795,-0.3395797556730691,0.29235950099732033,0.20812767696736945,-0.338864453679401,-0.05444353631814258,0.4692092524275917,0.044743729170922286,0.05584560576014952,-0.659602928696976,-0.6686961122446946,0.6014746671462576,0.07208212121374946,-0.3644301569228616,-0.8430550235267091,0.28252949204305944,0.2542461517032524,0.3054292758793209,0.38687004382774903,-0.3998270892212634,-0.902238765028855,-0.7004554692320699,0.02012723626020607,0.061691661362924144,-0.46370643046598636,0.3455969312915814,-0.6637954908677908,-0.8466885093337186,-0.8323223403028464,-0.988424500635144,0.7314567297539472,0.3763170964457798,0.3353541498109951,-0.5928765760684225,0.5850398110936716,0.9699328933591091,-0.24743858713620615,-0.5124748029258046,-0.9526177866772654,0.8334923136741463,0.47798025520780874,0.3697490139792714,-0.11199689290614745,0.9953908736272266,0.06607540202410056,-0.016281254742021245,0.3102631018157367,0.24315095735859216,0.3569541337986408,-0.7198561909296093,0.9867565926529169,0.04551028065268725,0.3166848036529313,-0.8679392637183745,0.3959611766412041,0.5024367319268248,0.016211386918398407,-0.4074012698133844,-0.46861161849294386,0.37890453663961643,0.013456320786572107,-0.9976953465382006,0.22734307435687628,-0.9085497043641726,0.039876409021168735,-0.6048685845377033,-0.04687326642258349,0.9986008685365928,-0.4883440796503278,-0.7055235854365678,-0.2733419688610692,0.6544714294843612,-0.6885705564689328,-0.10337684000451053,-0.9141965725424528,0.35931355036893864,-0.5397253090992227,0.6421699622265467,0.19461510539690363,0.5851705105591705,-0.6505060465498618,-0.24663929164901743,0.1531697863753232,-0.30628272306979176,-0.6457334825745353,-0.912998082165962,-0.21218829355772972,0.6139330661270468,-0.5147309816660861,0.04031452004310765,-0.14006860871216475,0.09196592271476045,0.6115958194733349,0.5997845989574404,0.598962660469442,0.933175748107441,0.1845463724547698,0.7819671898765053,0.9257596903749772,-0.6007062721402632,0.6249135048774788,0.9036929649279402,0.8268548722439362,0.9651607245541436,-0.012513635447350069,-0.946800321809202,0.173428898586248,0.8472375056324641,0.7048955864940518,-0.8298383247856824,0.21552378774518433,-0.48165064658255674,0.6836830741808342,-0.3704727688016747,-0.7692819404495117,-0.5602959498986382,0.9810576401703099,-0.29673206558546106,-0.3681823937779183,-0.06204912912105365,-0.9018327716707153,0.34252622491133566,0.6630123885374137,-0.42652303991231233,0.750966872455314,0.7920150088299618,-0.24884362757685174,0.006071972780444801,-0.3935540388816441,0.9388101167606495,0.7133033824323449,0.7001648615380525,-0.43793534526159195,0.32902621398075205,-0.2681598287847058,0.575821124624813,-0.3240819074603154,-0.3432050502470765,-0.5970754035716344,-0.8706175944415953,0.23148665110062216,0.400397919356978,-0.6136006877843703,0.8200685433484036,0.6151401344923024,0.32989213447630505,-0.5888911663476248,0.8825211379289764,-0.6281929384907534,0.3565244262681748,0.5563071506150281,0.7971422540091897,0.8662576892078262,0.8415543975695463,-0.9402750610942208,-0.3358944855982,0.6995121760264447,-0.5495882493234059,0.1894482268325719,0.37654115918877706,0.23820923241542835,-0.8258137856173273,-0.1731230116198248,-0.743048581202888,-0.4728526681744887,-0.4806556936100528,0.6691835238714123,0.9461094816272451,-0.9703506762346248,-0.48420371860629574,-0.052111190779807304,0.7425301161827771,0.17521931709565597,0.5033869380379519,-0.8113342517009823,0.13219356270276483,0.9240323678482381,-0.2945689463817953,0.9846565332244277,-0.3060634053919844,-0.7100498480383004,0.6827990391300609,-0.9030160386958384,-0.13105009980922055,-0.6613244098214168,-0.8216424136772906,-0.4196389154166167,-0.4730073200722802,0.36146477642796415,0.8498206451969863,0.807440912310172,0.7313166414625416,0.10921484136829585,-0.5970991450457903,0.7921040737992848,-0.8366245801737611,0.6312859395463537,0.5707006472996417,-0.9025641634836654,-0.4892098351448706,0.3692649958170551,0.1604360611041742,0.11138687259879987,0.15504258599357534,-0.12642426083578906,-0.7790305730091958,-0.48903555284003897,-0.5400765195953927,-0.5925895585983305,0.8719900677630574,-0.027321032176044202,-0.6841828589311574,0.9208696198517252,0.6738596875742964,0.4985614611640643,0.06510589014078039,-0.25500655670163286,0.36261982339304644,-0.33356559289307475,0.7241993850580557,-0.9327248905209362,0.5970046739450654,-0.9398815337623754,-0.8258851851706086,0.3415376161247079,-0.8926031037307818,0.8455853855491366,0.07505845768684671,-0.4833822028850572,0.45675805599719244,0.12971093000969347,0.41541384640808166,-0.7948918438589856,-0.27274858589392714,-0.5337068060028187,-0.21691693286617153,-0.0007880096834018691,0.34795225545339403,-0.8142925770070981,0.879695514154651,-0.5642201887968459,0.8378113361579609,0.39730657770279443,-0.5712689062599403,-0.3829233160170651,0.34951076410785986,0.12423569684407743,-0.5134645306779506,0.8132804358085173,-0.5252222816197125,0.9170368983304933,0.13243298221692612,-0.7199355483363781,0.249560579624027,-0.437165432033922,0.18806274699812198,0.912352619894393,-0.9157915150518681,-0.4943146784479888,0.4403336475817179,-0.8743353412608796,0.09273636546198394,0.27906692287657187,0.21429246612645092,-0.04548935057119108,-0.7571901246602031,0.13324260433886703,0.7795495118416984,-0.3863997649426516,-0.9446134579983554,0.3304589509635696,0.24014068086483475,-0.6948169972901086,-0.11196028286913595,-0.7112227305061141,-0.6723620370434018,0.10824962108834102,-0.6441063879286306,0.38149885602548705,0.03858502305788036,0.28341675106054387,-0.34392946823159254,0.40536342567779826,0.24134111000086955,-0.5373265667120057,0.3225634564333437,-0.08022887309417959,-0.11860295417351363,-0.7177659148359676,0.223523666616521,0.8003229876031377,-0.9972416831563005,-0.611584492487403,0.9491957633976251,-0.018440833036157622,0.9292692502705708,-0.9628934516071737,-0.4341484291424187,0.09921050517201313,0.5916113998808645,-0.5562607784045532,-0.26221910294568707,0.8886449883158098,0.9062090038611084,0.5937207419943675,0.5137629268949169,-0.6247858539903486,-0.20551204547193702,-0.9121565850561721,0.2584239598472322,0.2008039739111982,0.24230740143771667,-0.2859049894097563,0.2818876042384171,0.4373571795650413,-0.2114858825928121,-0.9341773023191482,0.5935861359146046,0.8379453356160058,0.4383558546585469,-0.954874680201792,0.3100255041875162,0.6411035739942315,0.8759218384674938,0.39231508336857535,-0.5129965143014019,-0.38191901048589005,0.5299239061360534,-0.20944993332323003,0.40804572525416694,-0.7780856187000751,0.6642671678856631,-0.8328663336828124,-0.8810037209934516,0.616289014910218,-0.40301238787647886,-0.945830030490187,-0.5987766172209892,-0.05054775775934206,-0.1413966895705403,0.20148196865411339,-0.06898008798069721,-0.5152273345272265,-0.5023458167096493,-0.871989104874819,0.5209138197361542,0.224750091669915,0.5270251462476767,-0.12283684776552506,-0.7827111142317253,0.06013514107112661,0.5761529130009841,-0.36570140707802223,0.39325899458186964,0.01275982652342611,-0.9206811841959066,0.7311428021766475,0.1974179619919456,-0.8364521710308219,-0.1796954950936287,0.5269004256107357,0.7744168382764016,0.11103243569985,-0.37580345719243646,0.19985870313173537,-0.33527690623008866,-0.2164413548124693,-0.6766144038175073,0.8328139255822007,-0.47296649875140395,-0.8537276747581934,-0.8391657042231169,0.2056853724051706,0.6658629334519204,-0.5850660258320297,-0.601584340904598,-0.542136980972943,-0.7826878184977872,-0.10730250195755886,0.9927462850571434,0.45690471370604,-0.05565956096697655,0.09000078110584742,-0.6049435902891522,0.5590412814709689,0.059189548441447304,0.22545156761586327,-0.9150031132055176,-0.345446298876388,0.8901125172397166,-0.3369241790379218,0.7441590150088071,0.9505642471319053,0.9741917152602333,-0.13001916724639284,-0.5514213803309511,0.40461677942250796,0.1250174308073544,-0.8202130342487894,-0.5190083521496704,-0.08092698804443188,0.8210817495009275,0.30684461927854767,-0.3164818892889494,-0.8692987687880527,0.9193611585354129,-0.5925864391773203,0.02037008359104253,0.744455936936208,0.5640329221781961,-0.19690656677486684,-0.6781939795349825,0.5262493256006995,0.657624950727214,0.5535665626796391,0.8408236734156811,0.1832445280300261,0.7706188471517155,-0.8998168096545185,-0.04296520704144546,0.36851731486019745,-0.3141122186312999,-0.3734991359786688],"weights_hh":[-0.8133958270073625,0.2683104595232648,0.33827970037972155,0.8370655278116035,-0.7021761538506202,-0.3821381132319086,-0.17493182931183404,0.05357407579837958,-0.06232537775076796,-0.6797381590833793,0.9975680546365888,-0.3562043527356038,-0.9687123191653217,-0.9059711959647199,-0.8279493660829533,0.3341468162817447,-0.2555518592294279,-0.7557588468001901,0.3182476331990465,-0.368098360080229,0.4449671919264033,0.6983709459630993,-0.156349943189656,-0.7782862902324439,0.2107487095786933,-0.38019796641101067,0.10079401839916513,-0.8462595837874058,-0.44770486178529545,-0.5424253987080614,0.3136095227982485,-0.12187727157724382,-0.0572203636761508,0.4345277679728008,-0.7013320838766548,-0.777475909489161,-0.7276834190113817,-0.5635663111983105,0.9875098434504734,-0.7941299883064559,0.2442397767262945,-0.2494600825541391,0.2730933872744956,0.8660409739472679,0.7384206539850819,-0.8589882098255253,-0.006640390985880984,-0.7760585228922374,0.3974777947339805,0.9180321805703127,-0.08426204685220906,-0.15088317656025696,-0.32884729809001323,-0.49493364449105215,-0.10836962218751611,-0.27874684879476175,-0.4628264076856705,0.8814834473788518,-0.825603760880413,0.3890610012685525,0.035932780783863416,0.365973126726455,-0.6589255051867391,-0.31684694693110504,-0.5100260314682605,-0.335122215709728,-0.2758671648989375,-0.5864182920197718,-0.826966214884542,0.07365588819449931,-0.5537198089166482,-0.7620392864054228,-0.8060624868761102,-0.15112530753441367,-0.15234519138989566,-0.042859616866372185,-0.7520259240379854,-0.20005486962590457,0.11866476909012791,0.9399288746552226,-0.4163157840443026,-0.462802837824855,0.9171114061131218,0.7726458377535586,-0.692630907165489,0.8551650037268692,-0.47766196543684236,-0.32648040389941957,0.057397517763424055,-0.7216713869475899,-0.9938507316603131,-0.9530767069291683,-0.8824452835300676,0.21673734693050295,0.25148135670737615,0.3990357828477187,-0.31449182822857513,0.023531848158745206,-0.01926249401290203,-0.4558761056966141,-0.9694723659683835,0.5249501472875826,-0.888782812154501,0.5837091559397325,0.3459509596529371,-0.9306942381596941,0.755693988852804,-0.16464489049074227,0.9834143455354094,-0.2847574517732361,-0.7300617415307966,-0.8098409351386664,-0.8103138449634835,-0.361707535026522,0.1184603394335737,0.6971081475116341,0.6711094364714152,0.0005139272638241543,0.352544147732502,0.23124417150311105,-0.44208128839313643,0.6670560372584193,-0.5092034050001493,0.23739896752187084,-0.971747657132173,0.9153295643164998,-0.6533288571980003,0.08770474185691701,-0.4477858171240907,-0.10306206432123743,-0.3464956154149976,-0.004116931342015295,-0.7810735508821942,-0.8384501022804032,0.5964341041451742,-0.3255666784203637,-0.03413431884251139,0.5574446089034948,0.6589761537879941,-0.3318183034082336,0.9131229067254387,0.41191499490869377,0.6076298082956102,0.7772903264838877,-0.554433949460635,0.9490420344922359,-0.5615591055214502,-0.36970091587282394,0.12271402116511809,-0.4586361985546856,0.5033539401366787,-0.7822774419403407,0.820794652564869,-0.19657170009872527,0.6187657525571977,0.7394385626921354,0.2869816503037679,0.2959718902083488,-0.9189097520653302,-0.12187270841454123,-0.4933318804048217,0.0030049585794904576,-0.7602038863406047,0.8093871220503963,0.08793764358839384,-0.9307679379163314,-0.4427781834684288,-0.12592066540380698,-0.08049538665325917,0.07451705795598862,-0.5784857529310741,0.22433358519135593,-0.5257091018678912,0.7471871628694897,0.8586148860376552,-0.5984747323577044,0.2391505450944873,0.22020763045401304,-0.6922228550498357,0.5833512296661645,0.5386645378431543,0.27614475477404765,0.6449989035506041,-0.05230002013121604,-0.7449950583426947,-0.08364845302397761,-0.9307857300863649,-0.01662586700605817,0.536282034560625,-0.5715363355871432,-0.39694637543034306,0.4530561991252533,0.3903104579360155,0.280920380398753,-0.9137589943904192,0.9534265093578584,0.8884329487045683,-0.3149420963020262,0.5357765176119043,-0.36914934265061183,-0.8668564963249736,-0.13284910673906625,0.5493898590843933,0.6355655815862675,-0.6354115655046197,-0.06173311342791021,0.10048833704442162,0.043316369528615395,-0.26833368321824547,0.7271207694065842,-0.33325774388332197,0.9024806287298246,0.6606206983416658,-0.8920299422344324,-0.7279597790527661,-0.3167286253559931,0.26889312261029064,-0.631751298189265,-0.8969022432423648,0.7761430953150315,-0.5057146803149026,0.5330491922437799,0.3184655409641908,0.18423077894333528,0.3887484670629837,-0.5014945866131657,0.6057292445181353,0.5849201422825716,0.6831423571278532,-0.8211960337588526,-0.0863621384266473,-0.6387055424540884,0.8012740176518129,-0.2981823435230391,-0.7306715618837707,-0.25452773172965726,0.7727202850052071,-0.6055045256489244,-0.6869075022241631,0.8717763542130341,0.7977917559715331,-0.9319422691862413,-0.9317097405399224,-0.3703447338321486,-0.6513273212323667,-0.10640846595525488,-0.5512285709636644,-0.3595934428630252,0.656079772339148,-0.550008188837791,-0.1219482283944966,0.7852992340973155,-0.21314275729850163,0.5579237244178654,0.8155269576505573,0.44974604336550694],"weights_ho":[-0.9675648897939182,0.32958935116428756,0.8393203186350111,-0.6531247902403765,0.6145111990392123,0.36178520889431454,0.18777128297688228,-0.8902053608993159,-0.5063111275182031,-0.8074998573181011,-0.11511098368729611,-0.5502226052413144,0.08320521981489515,0.8854734218107323,-0.2205270228665961,0.3185560009619559,0.7917428866025469,0.009482323421249328,-0.5083626477484007,-0.000301513172652923,0.4620337294856991,-0.28089442159278466,0.33837577664686624,0.5089065495044176,0.3853604562242636,0.38908533507590537,-0.7045401445842323,-0.9834596947781029,-0.2542749256594743,0.09199349267462087,0.04868585151594074,-0.2018287481714638,0.2778980938648159,-0.743478849677706,0.32135895047509,-0.3117106965532881,0.2145985829438657,0.6940509634409056,-0.6457560987540041,0.24052512735159892,-0.8479400843118527,0.823373198258539,-0.25553513032563635,0.9092390955572578,0.0686415089909469,0.11746361952830342,0.31713212653610734,-0.5934414720565764,-0.8239827908640096,-0.11657566378780815,0.0888412332134314,-0.3786915476761221,-0.2743455267805479,0.0368596667164387,0.1554921238320761,-0.6110978164041649,-0.9966305535524242,0.6546576744430668,-0.6187668471777525,0.12362834742359219,-0.9728499441006404,-0.3311736143474133,-0.16579869953228688,0.5517708540012778],"bias_h0":[0.5758967986559398,0.5003850769005951,-0.5542873117579661,0.21619559081144524,0.7268902459158404,-0.02380861816456048,0.9597993881934965,0.7766146558151816,0.02249104942106195,0.41957891443601025,0.8446422135073466,0.45190828336356503,-0.728150035385472,-0.6114297867060356,-0.18710473137507355,0.6121656005295366],"bias_h1":[-0.9470656253196714,0.1749801094868899,-0.23092421677062624,-0.8904062803936645,-0.9257368827220454,0.20654862976665678,0.3272219651145667,0.6179852398830883,-0.03589089676958679,0.42240954557088783,-0.7596866828073736,-0.2786109168451274,-0.6761184497979271,-0.6541003755834347,0.39860000613367763,0.4133853741783027],"bias_o":[0.7925767912938817,-0.9995418794753839,-0.824274012221172,0.18193257290544573]}