{"weights_ih":[0.8038621608892735,0.3997113026367516,0.23306765180409883,-0.5641747158688,-0.10030638353308796,-0.08529728380795354,0.09048865156380637,0.6548754130766241,0.8533116142861565,0.3345754946663606,-0.8884786345933138,-0.5653427000001974,0.32711190506270404,0.5817371266950204,0.7857477711023297,0.3728294975152635,0.5451461913150364,-0.35615788990595254,0.3443514112852646,0.8021890867451018,0.44583441456987827,0.888748440078184,-0.423922566518558,-0.5549223598658453,0.6414479150374635,-0.3915850446731408,-0.9015408192535861,0.06808013965085014,0.513397177670808,-0.16713968894166675,-0.0011500652189737615,0.4806637566478298,0.9296948026342227,-0.6671183744136824,0.6775389544078196,-0.12093224662870083,-0.4856815151808589,-0.14472608838189305,-0.5098688842561487,-0.9411154160034312,0.6329999961552255,-0.12120900429647374,0.19707071145385546,0.0332471052141734,-0.11027607572182485,-0.06585152737571343,-0.180965958071438,0.0238087116732697,-0.37428823369462205,0.6442233070498395,0.7621655865418266,-0.20006725259038172,0.2120337342774039,-0.3503853468788971,0.3412694581371718,0.8707252485195753,-0.21386423413338185,0.4869902782770894,0.9099516593022936,0.9486615351170453,-0.7223532799678476,-0.9370196645336593,-0.6873120947703792,-0.10030669141773352,0.007767703725662489,0.5954248338242616,-0.3268713186032062,0.5774857471618484,0.02227667653688581,0.8805668860420666,-0.44816437577446777,0.07144339753160156,-0.8264967484045163,-0.5552590480513411,0.5253574377756582,-0.4267751520831602,-0.5951000630916636,-0.48399093100104484,-0.6723926057395972,0.5692959910562276,0.24040697351359142,-0.24212656011768163,0.6664926656138761,-0.5312414036450688,0.2597370395887302,-0.8328488717705884,-0.32664905989557247,-0.6964225663623607,-0.3470613508693976,-0.553128223431582,-0.8180793250005793,-0.9825910530905166,-0.3591669090576901,-0.1629793730861977,-0.2718048013457006,0.9593606853329284,0.1708599052901174,-0.37689569103521636,-0.8398548564820845,-0.6848918680646039,0.9857940342631417,-0.754557280995914,0.03846751321921538,-0.4347374898051035,-0.6311189617527049,0.9134695209950883,-0.02044423217656588,0.34029242486641786,0.7028977021258089,-0.8990823301302537,0.6938086649363606,-0.6577590331640109,0.31695021593399164,-0.7159766457800363,-0.6645783652389818,-0.3428637273986286,0.1872802568666827,0.3238326059050649,-0.2629109319464289,-0.9154665683824161,-0.47026012018787533,-0.7136582115192598,0.46812924893582863,-0.8950760671351057,0.863698706648395,0.5471450821852726,0.7990885851129601,0.11225841799494174,-0.8567978911044773,0.1499483237119441,-0.38249342604833747,0.4708743654310976,0.27393448264210574,0.7603258446106254,0.9967305633803389,-0.18760500367062694,-0.14650446501619996,-0.2956438872516578,0.3966714304029286,0.8715557885889804,0.6254146678032346,-0.8612998964407597,-0.9889276508008091,0.08603107942851929,0.34797059662912866,0.2711732130519815,0.8621524025293426,-0.6869492473892853,0.9087863840315873,0.6197564743784993,0.4958522457210852,0.7526374844702286,-0.8692896688337484,-0.7078442520471273,-0.058670129555311146,-0.33800831394222874,0.5664194562306752,-0.8562955854838421,0.29500743817206376,0.18231241431704714,0.6520836637592935,0.8522967141663733,-0.5694917975412199,0.688771385419306,-0.1946514034826261,0.9431958573609793,0.46055798417838134,-0.800652258937042,-0.909750175803457,0.9695378132101204,0.789995655898506,-0.7783509421909849,0.07724368118370983,0.9046248126691696,0.7951112789884021,-0.1528961261071471,0.8968951642668848,-0.5645779461815728,-0.525705265568579,0.1514142601471109,-0.7524030101198023,-0.3014049678229238,-0.4439157402283096,0.975062270583573,-0.45722863139693093,0.7299022072430918,0.4042805434502803,-0.8339518404853838,0.7564693992190308,-0.35750802481925903,0.1453611958454324,0.6936615524855974,-0.5562153953905233,-0.10079649522861978,0.569881297093533,-0.05088871055691491,-0.8051108863833352,-0.17061874503400487,-0.7428040545197534,0.6934813119357257,0.47488325957272726,-0.10765299924700478,-0.07537540745093319,0.21135800905123148,0.5693448027582448,0.8468080187967311,0.6425750247639597,0.32409313024638964,0.6571900810721811,-0.8783134786189468,-0.5147683840051505,-0.12301917443059263,-0.40034567299449986,0.08789126634155031,0.5907366057640975,-0.12738791849023223,0.2061794731130624,0.04432323964617657,0.10134878694449068,0.8552226152549935,-0.9910789840383174,-0.1425907349136426,-0.7837570851536075,-0.43012585786128077,0.9437091105811544,-0.5222502909708209,-0.4334557625577029,0.6785902654463307,-0.031842545803082434,0.5110809854970322,-0.843941497439342,-0.28410544976971397,0.89159644386655,-0.5658606850271102,-0.6434048069983918,-0.5550851385375388,0.6710507003296606,-0.1496686782227461,0.3418014864822463,-0.3602420025959774,0.8880224080458095,-0.7864031702359486,-0.5446314044835636,0.10114394136684113,0.9344395304915127,0.6948644421578438,0.11069457097517854,-0.7240864478911224,0.5367848287403227,-0.5855067552684556,0.16711670179844607,0.33880521937200814,0.6725214526399159,0.011692004683952817,-0.5839581609665776,-0.12160049927740069,-0.6933365321655631,-0.6425386053008013,0.6646769029778696,-0.16269463729696798,0.18783593375546537,0.7836212957794044,-0.4027717868500853,-0.3316907468702248,-0.8199450856466317,0.6548576376239945,0.5556933373854915,0.7327785657519454,0.5874814571835032,-0.9894148934188378,-0.23098853670406183,-0.050583652548265245,-0.39540409124468434,0.11915258286297847,-0.5507146933646412,0.1421692702999564,0.04936195583905545,0.4859027022281466,-0.6765629061810656,-0.3535310903172455,0.3206723646513596,-0.07668735858899134,-0.6579941109930909,-0.6226652140102344,0.4400921674422462,0.6780137154813697,-0.056130083535703035,-0.5137794048641855,0.7982476686672724,0.27673007683828077,-0.24836716842130002,0.3426459231551391,0.7696325034509903,0.16354757351482063,0.7693875638719299,-0.8742242114105501,0.21364837370018952,-0.11490057472602766,0.20272968621734444,-0.791665142392971,0.6453652341294209,-0.026632657966025652,0.31136011003760466,0.42226355664664084,0.9959780794216606,0.14724081598386052,-0.038184537778653826,-0.6935627577589412,0.9819308383702015,0.8078254179937261,0.17931894366393175,-0.8895245466672537,-0.37801313420402893,0.22114804462129323,-0.3792332541978858,-0.3724737734793817,-0.13282934208367503,-0.2835743879557353,-0.4271060235637816,-0.9746568708904604,-0.5340973367687458,-0.970195761596814,-0.2217038385886092,-0.37132974914444583,0.21353726095385062,-0.11021015479983731,-0.945298362706644,-0.09706584904103832,-0.50211340572677,0.9727833474234548,-0.988990739763824,0.8325045733988472,0.9317661490278033,0.6967019845944071,-0.1915733935351167,-0.29187818009864586,0.6261791627244353,0.3214810936267627,-0.8370916159199784,0.7199895169107859,0.4197460531319044,0.02095939094882371,-0.49557855972317055,-0.6347039120816338,0.6686135255329986,-0.13266684495237557,-0.010337571033100623,-0.7621962874985413,-0.5616012482048289,-0.920843993065706,-0.10104224797459826,-0.9958811024046688,-0.08245436157676811,-0.24677236648070466,-0.3406144047136974,-0.7473996615895808,-0.19256469083703243,-0.28921777405350757,0.18223084100128917,-0.8775923332079143,0.8431754951581614,0.5409490802216894,-0.08806499393908385,0.40540990500312857,-0.9614747680955038,0.4010072923796122,-0.7962135942949256,0.7951508699683241,-0.2097334448063688,-0.8303914613907379,-0.24057569079495855,-0.4729458671818485,-0.023984872633039833,0.9281652680300843,-0.6831160076159928,0.30711083373064274,-0.17505491080817648,-0.10867719268708087,0.05389798340701635,-0.20481670749655034,-0.35638198182007796,-0.295478698715151,0.3116913915675301,0.5758514158499706,0.17864374095589564,-0.6878550780510908,0.44019553554956703,0.611664397120083,-0.5381462991206942,-0.7403361492602796,0.6547132284171284,-0.8394322256131617,-0.8691154739346834,-0.8905148557314004,0.33862824726861906,0.1772813844734804,-0.5318658802349165,0.3442040320348687,-0.5183337792655276,0.819046607753682,-0.786136937531668,0.45403731529763136,-0.23391836126249954,-0.8789933561686498,-0.9580990998092738,-0.41689167723830334,-0.712945180366978,0.17524242033797988,-0.7630843865720494,0.07113243103596356,0.14701873939540322,-0.864909963352972,-0.3287175850916415,0.8684175412057245,-0.8340222741756247,-0.5359773206218634,-0.905338587798062,-0.02459920892859735,0.3537452447158451,0.23655826909146205,-0.7873389122141787,0.43681024179494354,0.6949059533311124,-0.6002803374792043,0.36446154933045194,0.763031299688526,0.8405587440550586,-0.3138625463034628,0.17033594167786492,-0.7348012695806336,0.615327129238614,0.6281147493975445,-0.896419052339227,0.8120674383306261,0.7367704317429251,-0.6788637402351647,-0.1017791202854994,-0.7146401317565743,0.7579531015790002,0.38318762816988783,-0.07333878540068617,-0.13295179182468853,-0.5003482894233566,0.09941363005589188,-0.9360231371318399,-0.026020914094313508,-0.7538145457212417,0.9982103808533431],"weights_hh":[-0.5504622705823807,-0.9633972667482738,0.8909288577338605,0.8474702517286379,-0.09194689103609832,0.3171878017098855,0.9649686780145841,-0.49112716553411273,-0.36107623140597767,-0.2741847530467145,0.09560299855114396,-0.545766639464083,-0.782492122136937,0.5993257771845208,0.7033397661221816,0.09245440626558943,-0.14513589610796584,0.9969334092640856,0.299006965267649,-0.38526159982910047,-0.45372396425882444,-0.5935125054132366,0.13507997613706846,0.9719839743521863,0.8442850207598833,0.3412509825052523,0.6804229207238393,-0.4700365797108903,0.7690167676173651,0.8816478111434525,0.3893696494880885,0.3498049110736636,0.33308230597154886,-0.616016561096913,0.9654624753029641,0.021462634029392413,-0.19809795324537305,-0.8296339166998228,0.44921794842227736,0.588968383771032,0.41430095201482087,-0.08432870188236108,0.21232188364416182,-0.2637241023330257,-0.5401805292629993,0.8211361605670822,0.6776682819426463,-0.513585640029951,-0.7435405077508532,0.8804950003714589,0.7550958949829467,-0.013898270189517836,0.6901697196821994,0.8804351215730815,0.4718402643825004,-0.31895989440646333,-0.7653659430472537,-0.8651843763903424,0.03636432352817098,0.45035090959582713,-0.5359355082005013,-0.23088198065096344,0.15234514911730335,-0.04678333872752116,-0.9492554626230829,-0.8390578596803822,0.8209111737957766,0.5188259032995619,0.6786014059440384,-0.22187427783790148,-0.5782590348409877,0.113452344686916,-0.2008663775226316,-0.0775239560981178,0.40196644942264204,-0.45304324354596726,-0.7623791360916734,0.5087515621611669,0.996454002449108,0.07729568843521561,0.0349239924789988,-0.28415847510191505,-0.49006601318978094,0.8388771876090966,0.41544054639864614,0.9531369083313919,-0.23538407338223477,-0.5711880990821254,0.3056088144564624,0.8367696775950988,-0.9424873881639044,0.26809374400936625,0.9721177726948227,0.5095717124069163,-0.38932105017730945,-0.6907570461511077,-0.4862351173175745,-0.7509778294325453,0.5254342573676385,-0.35483740648812545,-0.0984993392324538,-0.8951304431651821,-0.27599603427940744,-0.014886660658130824,-0.18478143857208096,0.7021616135602244,0.8193955797543353,0.5833322214376144,0.19572625367121566,-0.2950401952813795,-0.8161329236798816,0.14298778307419657,-0.8534366653277512,-0.14257899038457578,0.071684450473958,0.4703241883823701,-0.353543027067897,-0.5698250741719784,0.3711831952727902,0.8370598514702996,0.932721797707549,-0.004615717333694036,0.5350902391963177,0.08170848023107613,0.31087073061367154,0.8249983451451854,0.41564183561426415,-0.6911283708293787,-0.5099394746103669,0.18584470408927456,-0.9348617359377096,0.2463901342200172,-0.6989712004106787,0.2981098127306354,0.8839915081661107,0.9322475236697347,0.8049649639685421,-0.05304734117238685,0.42177998742608147,-0.3302645221691707,-0.7636142297482189,0.6527007230171025,0.9568896197006229,0.8078285823438054,0.686060236225108,0.0930008178871542,0.800208703816222,-0.8923312520327322,-0.048773847597782805,0.942682460336447,0.5587964149616871,0.7675039930922021,-0.8728038994959513,-0.5011468373928247,0.1646501340670916,-0.21339512170333563,0.3283685640367795,-0.2923314967786672,-0.027951552969382787,-0.42419039744656795,0.15635330193559072,0.6300859182431919,0.15912868756464515,0.4585795501687404,-0.00319161878815466,0.47264603824102647,-0.27365207544210257,0.43304972874880954,-0.30633096097324963,0.724411621268517,-0.3001162127394774,-0.6459077322828015,0.4061544514112312,-0.6891685541291028,-0.6015019057620756,0.8770865271006774,-0.036689522041549294,0.6245892870412493,-0.3211915955837634,-0.4958324824343796,0.22978488750405757,-0.3776368632083862,-0.21570993154076,0.7517817171350272,0.1781178219073678,0.030008705847765604,0.2605818135445448,0.4917235476626469,-0.4523929022863542,0.13162756951402477,0.80785234154842,-0.5384160013870163,0.03890875497324897,0.7953773050872146,-0.9724472489916045,0.6609580748232169,-0.13805678924936582,0.2580926279813307,0.2134107852942373,-0.8999224071259053,0.3237835228508483,-0.009855682523614018,-0.3922671272788132,-0.9146465834417166,-0.5804689331786248,-0.3213436289243903,-0.07182386127460472,-0.9938571276813162,0.31548136739605015,0.4144167220194268,0.626357779272571,0.5361421949557377,-0.9800657480548483,0.794201162355981,-0.3523562649177481,0.5653857832903602,-0.4980312296024956,-0.7801464399862141,-0.013585234531684032,0.44144501676353376,-0.33584089956713425,-0.5847432263734227,0.31017733787878043,-0.41518271423595987,0.225523240427433,0.1903707924980358,-0.9961792278216652,-0.1404803667320751,0.6413721049745049,-0.9561345493589195,0.4841919966461463,0.37850411402522743,-0.22686091495363758,-0.7744700472652855,-0.6909404184428063,-0.5349423348369962,0.3488668822470602,0.350337604461765,0.535305096538033,-0.6164433438377122,0.5070204772619302,0.6860756783317195,-0.8459106527047615,-0.6136629910746172,0.8340711654460706,0.661217895574651,0.6696970637480195,0.7628648559024562,-0.639252854245637,-0.16127470147757705,-0.13058527975292344,0.7915657609028164,-0.43755955272067815,0.9080784467980705,-0.21498144955331666,-0.7654807585127976],"weights_ho":[-0.42398221786219437,-0.6853081780818304,-0.900646300169752,0.49060473804685856,0.1534561719596257,-0.5118487868997574,-0.3681058438847531,0.08500466574014709,-0.1742891304356946,-0.6971637672603408,-0.8194181411198391,-0.5443861215604937,-0.24215568349471228,-0.4007625462713076,-0.24832493776335007,-0.43735748025915,0.24633225646399093,0.11668772599268107,0.6121116197268672,0.9055096473665198,0.9946295046654638,-0.45101248990881637,0.5563650898727937,-0.9723198232355186,0.8348098775970265,0.9518278007130117,0.2218418179548025,-0.18957500114564607,0.6866945415227903,-0.25541366456659254,-0.7974184963726558,0.12279192488813484,-0.1538597123901999,-0.22974096640319197,0.22905282080934186,0.8583746645436252,0.02923497114290985,-0.49169265864467615,-0.2508983980128521,0.2155818771915834,0.15033453531888163,0.9015036114118948,0.3298170627853638,0.5837664115513685,-0.669088271035486,-0.36834975691332894,0.29004836277193613,0.33661998147168704,-0.9570090006639145,0.7707615032341788,-0.3925236070676854,0.49501995107528973,-0.4237861665307583,0.6361250776950595,0.09021689392032717,0.8879082341405711,-0.11500403790347158,0.10885979438233973,-0.9836872168907138,-0.3213422448079961,0.2003373545523699,-0.8657884109266845,-0.5566695935519903,-0.18421716398908972],"bias_h0":[-0.7393619643672664,-0.18466883270861967,-0.6158104382672582,0.04102235875277582,0.03186704951232877,0.504688496714367,0.29414177439621647,0.8634852585973776,-0.4046733404577276,-0.40344183951749346,-0.7635749696193417,0.20624760039661738,-0.545581126891499,-0.3821823458944196,-0.5081233326010823,-0.9914819969239337],"bias_h1":[-0.024384375272368253,-0.2106337408932264,0.0970591353753536,0.9474253025614681,0.8357240042726262,-0.7078999083455082,-0.9754745581218482,0.9128979108538717,0.4380162498327378,-0.3267330332015874,-0.8914922510826935,-0.48759835182991185,0.35740829777907046,0.5137022478442166,-0.9921035113610948,0.6982928869737206],"bias_o":[0.1546746688340106,-0.2578921419209508,0.9140030720568879,0.006711530454208248]}