{"weights_ih":[0.30286241828374716,0.1239735570506213,0.42285661004381137,0.8188498449747892,0.6889480406425881,0.4406945605276873,0.264616718081631,-0.6349326980981318,-0.1871453238972196,0.002283781576599031,-0.10994667747145193,-0.13885121271210688,0.24115522858696692,-0.9958245944840052,-0.7622295541838606,0.42236862683042053,-0.696279752835572,0.34278898768913524,-0.8303065210356708,0.23807946794765877,0.9994288442179928,-0.17048176243167412,0.2624375087052344,-0.2155239912687663,0.4559294146674704,0.5341776740262798,-0.14468924446149933,0.5275260436677156,0.07900614332928946,0.9063814089886235,-0.6484397936988295,0.6544954420425635,-0.3548006988573924,0.7792022745655447,0.5193748054863951,-0.5688673149803611,0.5334522845396827,-0.05916243071835625,-0.11202811701632087,-0.841798386506855,-0.7936159341936313,0.9189637098034471,-0.024192219352091815,-0.6121618461056368,-0.10049323448118264,-0.9452547446513615,0.11406301491989623,0.05529262887525577,-0.41310540210990765,0.10300703686184809,-0.2825103112366949,0.29986754706191254,-0.9014250341509915,-0.4218863591401898,-0.7965432965900192,-0.6028198699285785,0.8163580968993771,-0.9204052654402091,-0.2208781111862299,0.6058604728426542,-0.05436864842458511,-0.9750482591059937,0.08871280425832184,0.2247540261308636,0.5648119661477344,0.9388910030516866,-0.931886299381401,-0.11396417775137713,0.4916449439688657,0.6389480644609087,0.3128230206110796,-0.46625837433790607,0.6371997410674557,0.5472144946233204,0.3342481845466503,0.6482594939004802,0.38488004388682606,0.46261976525458093,-0.3821795706097757,0.027350191575215455,0.08185653819863314,0.5290910900449528,0.13454247407536934,-0.09993629239614266,0.07136624884605358,0.5824193003799858,0.5868454411421791,0.011792079381276244,0.8508115281544943,-0.836696199008744,0.550024383928621,-0.6729180157184971,-0.5850453497489536,-0.5667080011432026,0.40441065542390975,0.14416907763283238,0.3949734793349813,0.06847678333435425,0.1551795489431631,0.6924196185878764,-0.9785642213326919,0.3626831817571663,0.8382582354038197,0.6368365820366355,-0.8333060347251349,-0.40072444431196996,-0.6113265863051869,-0.5751734642098685,-0.7105859502813763,0.298891352763206,0.16472653234562573,-0.8013931865315835,0.8575368273395259,0.7969246284140474,-0.8202120342593038,-0.9532628547416533,0.2983546833077626,-0.5089046062087992,0.9846264563191613,-0.29275491474656645,0.7522200146224689,0.2819823263397925,-0.606973470581893,0.9935272439153766,0.8750430814407544,0.6089504533183756,-0.7109955429360824,0.00836271994763571,0.6905792004309637,-0.21796895836487384,-0.18633424407670685,0.8352203060985839,0.610930349197605,0.5025693494971208,-0.12625432288712202,0.9650541156216621,0.46070472629466597,0.27732947131363295,-0.701685515828149,-0.9257974256155601,-0.5575907981436943,-0.5773548381633533,-0.22392895468726626,0.8241761606702616,0.21785783838871242,-0.8583755809402149,-0.24913904429183797,-0.1606945574545886,0.6343950704726493,-0.1078131908353388,-0.7541225908125877,-0.6473753428090105,0.2880807867952111,-0.8638397286503052,0.38649665266104094,-0.03578248003879314,0.9725721539515806,0.9868742789408393,-0.5296604957717719,-0.10648200468438551,-0.04564014323976129,-0.3767346089458279,-0.724514893238722,-0.3198218389803831,-0.442025920225227,-0.25298101335313694,-0.17960324294491703,-0.34877674201747455,-0.41173127090349704,-0.5556099774224912,0.44751937410576215,-0.7912248322311344,0.03090463254989828,-0.04748599451164903,-0.9606654766263447,0.050712773848983206,0.5910749611958253,0.11657631276217373,0.47647893696121546,0.180803045680632,-0.6957387360787304,0.2564719282533625,0.7226090276504469,0.022461345483046236,0.17728160745139454,-0.710651779055413,-0.6445798650088115,0.04175180928206634,-0.39055181724990295,-0.00377723153319498,-0.5027226962632889,-0.03902467126653075,0.05467239408200797,0.5741516574868581,-0.9442906795047588,0.29627562659896967,0.14143619262253204,0.36192661283226935,-0.8680417014706665,-0.4766254869416773,0.7225419841140879,-0.8296665315194509,-0.8335976056201828,-0.5593132289187732,-0.7157284186042048,0.9305566899986784,-0.9163692006814679,-0.7185172170279341,0.4585178650456503,-0.8815050681704679,-0.7369585360096416,0.1728708609592262,-0.4347375617077325,-0.9189963155435428,-0.927305259573699,-0.19300358749229196,-0.3263088285326936,-0.3078409700329392,-0.5109105214849383,-0.8367487928495281,0.6079626907389106,0.16820991174376165,0.883823200917899,0.22527708592103157,0.691382747223273,0.0935220134268353,0.4212059117668474,-0.30966831682611695,0.11679711668759718,0.892652688391625,0.7367246638247531,-0.8715452885668751,-0.2717572134274193,-0.17666796912448923,0.9930639672424741,-0.008273596422177398,-0.9729044690287139,0.7344192125138187,0.6629340668604109,-0.3021266974218213,-0.5038555859613225,-0.19428531231212398,0.3246196235206307,0.002471009236731936,0.8118452289121898,0.42891487998873035,-0.16650996359996273,0.612597270922814,0.5422066194561741,-0.8592908273139555,-0.18642596688745683,-0.6323464589662557,0.3806368445248267,0.5131457202035372,0.24109293459413816,-0.1599142997781855,0.2088562892645227,0.04445772440440954,0.07159419291983715,-0.9933382949294531,-0.23113083470428042,-0.433420201766221,-0.7737788429092056,-0.6038415108418431,0.5696062245824265,0.9193647402206648,0.7595388560791592,-0.4176776151821662,0.008952089547056286,0.946298871006571,0.7908404101786943,0.13541352900614978,0.42356026235899913,0.689388412099428,0.04635388183120703,-0.9089388116777237,-0.3989445942543386,-0.040095836546067076,-0.9480945013110582,0.4084618878325479,-0.1722102563377279,0.5734309693451081,-0.8423317856090737,0.024990126997854967,-0.9181755133460989,0.14064183303775035,0.9154733339348178,-0.36128695573120506,0.8992355164884427,0.9171264114406872,-0.3868670810153638,-0.9094977504126647,0.7747062554172002,0.6921896852044742,-0.9708237116334724,-0.3196001954793437,0.7471170973258225,0.19820800457707777,-0.8684372484189125,0.47142142085445404,-0.47497691755456994,-0.4585110260505374,0.3117904178911908,0.5187120011157142,-0.06360925957266095,0.2313792570712263,0.62043641196701,-0.5419839684817254,-0.3288010329896973,0.14952943139361685,0.49758189921449447,0.565479798741553,0.5991072644564948,-0.7766233781168077,-0.35900662289811835,0.2717984646575351,-0.514567758614829,0.8650584547820375,0.25675034712226097,0.027626766639117672,-0.6418967021412132,-0.16366997870391486,-0.43104667515433803,-0.1878091347280686,-0.814526475264691,-0.5329535375953434,-0.7755203587879029,-0.6151149808349292,0.04969563013561107,0.22030158612806527,0.43051963859061826,-0.6584594875573362,-0.8482813785588157,-0.6958013039775623,0.871214678326709,-0.8047591181768152,-0.2048914490327236,0.05542384498744757,0.028269010328724864,-0.7210174281138448,0.10434503625964586,0.06470758318070913,-0.3807607263300061,-0.9763218153121518,-0.34428348230910055,0.7779501835836877,0.2320120965047776,0.8293089553868376,-0.9218474383646842,-0.9436352237897341,-0.9471741404518703,-0.25969063723273766,-0.3094243949747324,0.02309941229601664,-0.7487283479441464,-0.1835538079327057,0.4317473408157151,0.43794207294456355,-0.28582248454194126,0.7043777174389094,-0.5429558367028908,0.8720537648364886,-0.14718540984708617,-0.8402259987009231,-0.4623958732112212,-0.5370266434055877,-0.07172788534099217,-0.5610108693240918,0.6291022484590081,-0.5366715002116718,-0.7085357660764777,0.08311418339180099,-0.21099959115180367,-0.26587799705130877,0.8752597431126881,0.43429037484394106,-0.375043782395204,0.2932559435042077,0.23314591009337016,-0.14850124141491272,0.0754286627108458,-0.3772796400273648,-0.45881846386850156,0.5476342114583503,-0.3606060441823906,-0.22618100670049968,0.7084943212744774,-0.938140084085838,0.23376627295723118,-0.10012714078727813,0.02601743134948764,-0.03200712262831229,0.9654064204317301,0.34314214922594766,-0.9123651951410794,-0.621108625217867,0.7146134186408648,-0.6757973146707057,0.5500232091064046,-0.08017361917766896,-0.20200889809013,-0.6091609629815644,-0.763354248372488,0.47887471753347866,0.8262167326786585,-0.4198793452330425,0.16946326305995396,-0.827955334608607,-0.14846953869731272,0.5528835845716524,-0.055064750823239805,-0.9879256374731071,0.13583937841519433,0.36529123086701243,0.41836380379780347,0.4669783666424714,0.7843046805398044,0.3517521554641121,0.9495769890311889,-0.5369348177898676,0.6849549975779059,0.0652337154929441,0.2958978341737215,0.4397268405876469,-0.25390172210275486,0.1821462909520668,0.5444166621183442,0.30536663411559917,-0.030504660856451205,0.899374182371415,-0.03284881767111281,-0.3866042722336893,0.24061444232318752,0.3163209821172088,-0.18644438566556643,-0.11876717821505833,-0.4920743434043444,0.654318548314095,0.624171665725419,0.08629584356178199,0.7346562336087903,-0.03880415886287669,-0.27472549120960643,0.12416392872264326,0.8885613708423228,0.20804097691093104,0.012142025150235325,0.47559768856207607],"weights_hh":[-0.21775601666273303,0.08621115176801775,0.3088366646948537,0.15365174814337257,-0.15901003631037214,0.9381278840293026,0.21975332349404386,-0.6537306666885943,-0.8101642002983278,0.1765081955306571,-0.3267197826777106,0.4782409537564505,0.7666149874168315,-0.8073763946931294,-0.8593399104755197,-0.2448212094938922,0.8548174559323396,-0.3400718524032862,0.16659248408242266,0.9843733060514104,-0.8594289636050976,-0.4519133807801221,-0.7212049402216902,0.8911223234278418,-0.14959479861989466,-0.373747472345624,0.5509944866384278,0.9390653894948879,0.61143218733017,-0.515146197215367,-0.29677909266364644,-0.02091489308140959,0.33628068260001887,0.595474741320476,-0.4209251717934863,-0.07522373740409183,-0.3881165064075536,0.38974777841946806,-0.4285442923891152,0.2568550849829705,0.623794217087785,0.8010064517079096,-0.4987293663634593,0.35917225247046547,0.9738271454609655,0.9183272303641024,0.572596570568479,0.9187773765307512,0.5258889980274226,0.3329396914258511,0.041618315719323506,0.1423395909346472,-0.545050811701699,-0.9834340551925527,-0.45983983801470796,-0.21048647790114527,0.8867007047613693,0.6229313522806244,0.34516056890464397,0.9853064292541367,-0.9441246248554678,-0.7978834056487631,0.5363405707507518,-0.46746761803773307,-0.9352658642875649,-0.9845352691024267,-0.5870489334954778,-0.9101509259095446,0.03679386108644134,-0.5766623027009077,-0.7098861618937218,-0.785997310183371,-0.921453915762827,0.5851859297112731,0.564863551173572,-0.6356186604727345,-0.7169311686475923,-0.11558964648812498,-0.8017660859238918,0.1239228306083211,-0.9965759092286779,-0.18275041612128873,-0.7210888304707157,-0.019568999073793725,0.9679782169903413,0.6081782378213281,-0.02544026217719675,0.2888804096590101,-0.5986883052950551,-0.033257810249668784,0.16545628121839462,-0.10171231530296976,0.4106871697374894,0.7772403524148521,-0.18516022678331434,-0.6074051463672472,0.008935716490759082,-0.253767908756904,-0.6414237925283288,-0.9111503708141959,0.6916128598457143,0.023803807347899886,-0.9576295564838233,-0.9661915439000179,0.8046082709906681,0.8905771400703646,-0.5541906542163066,0.169720736959883,-0.5445287794651648,0.3182891317161549,-0.8078347254767329,-0.49060331746162333,0.015253679283481647,0.25247316034937417,0.1298215579218731,-0.7518029143400169,0.46130408646008636,0.2432926009584111,0.6064177190256475,0.802250572196791,0.08426405499313239,-0.17051895293027775,-0.6713687004536866,0.9459206711346089,0.28951701000744223,0.09572751715113337,0.47085189407137484,0.7260534796197289,-0.576021604557811,-0.46937554746049015,0.8785367497047745,0.316005139023805,-0.5776306106659694,-0.5326640220110752,0.2720914473843723,0.4805344377227554,-0.4122565592667473,0.7767738000297033,-0.1027476986216489,0.11849687279844856,0.5696544005233668,-0.4263484973470364,0.6134767416763947,-0.6066528819155923,0.34272602563914045,0.6913512044919976,0.3505383033076652,-0.5656529315278505,0.22165514068978487,-0.22898370449113803,0.28287173516151465,-0.283814343245538,-0.22269357779222343,-0.19192938067514542,-0.5545482100544512,-0.017909288000489854,-0.921104398996933,-0.0808462829230423,0.05169865640558147,-0.14441601108449453,0.8302766527153966,0.9571613700175388,0.6481904971073038,0.8991535202938505,-0.4819921699310685,0.22023881141317792,-0.6446543470057053,-0.9477473040085596,-0.026159424971314404,0.008020295601377958,-0.546675706039566,0.16060124070748882,-0.4959732765525251,-0.836224927493491,-0.3469973441047389,-0.6572697632298155,0.4412055256005345,-0.18927619367789106,-0.1027378146133866,0.837011485691995,-0.3238275414527325,-0.3263594028296424,-0.9405199479057773,0.6967130135990725,0.3295320690436494,-0.5614494612548155,-0.7003910622114984,0.22193325063161362,-0.7378866189988449,-0.8807659603166118,-0.4878866970840272,-0.1827211543976024,-0.8786920871646076,0.640597193994221,-0.9257111808370269,-0.7978670730586142,-0.4702161613495661,-0.7802847838057918,0.3384330761672796,-0.628369749682997,-0.10904894812875776,0.5144393661311661,0.7727532124304808,0.23914153112216363,0.029115380060465545,0.5702216754534459,-0.4191619926797123,0.23907663647523347,-0.18981156936821098,0.8439297074310741,-0.7669631285472136,-0.28031334657927554,-0.48828203126906744,0.6427043686921927,-0.32877357920527017,-0.9901204932334804,-0.31576308554157095,-0.562602166127774,0.9164850136012985,0.7970000931126175,0.9537709402917403,0.6541567492251599,-0.7733540214822674,-0.21886894234905974,0.48770295663796914,0.48315524718811176,0.6925515790475263,-0.28366958850764834,0.10993585783490967,-0.6589579851181306,-0.4005701786633571,0.8661359882379582,-0.9462412883913971,0.30011467410669224,-0.3229964065195241,-0.9264753815087676,0.801035689858818,0.5164140915185889,0.007723956877374372,-0.4819533795874338,0.2609622700867613,-0.980944320246165,-0.39009389640794323,-0.8382952683859242,-0.1847456557871645,-0.4509890621185728,0.45177395286517386,-0.8968222604074705,-0.831044763967127,-0.5746368705904816,0.9106594592994517,0.9643728182353524,0.2990962386522791,-0.8028454363052167,-0.11923425549194189,0.3922611486757117],"weights_ho":[-0.5571133969618716,0.3234815807597473,0.5612174082695507,0.773933077974869,0.2479629798650942,0.8265341931477852,0.5733157327561322,0.953062027620762,-0.5742067536932784,0.24511608063182533,0.20488196232481992,0.6798642471567877,0.002390483428474477,-0.33351610057183123,-0.4954915666264956,0.1156160265399504,0.6077042499560159,0.017078276854579855,0.033224460130008904,-0.8162169119239095,0.3677688613676675,-0.4588585120264097,-0.5291373965738952,0.7349765562062385,0.14434283403347448,0.23229551709420693,-0.9527527537638976,-0.7395993148982378,0.5406460952856056,0.1054433423887855,0.3966184875487442,-0.9830351319357542,0.16994726826641626,-0.5630337779355079,0.30826994861944335,-0.9667912965246566,-0.16227302242505792,-0.9002712355280194,-0.23255902312020948,-0.23678949806153682,0.052875105774230935,0.7551165796903843,0.34618211594021653,-0.5049097036335133,-0.6220564038875509,-0.9857142102530396,0.6956019107543745,-0.2035496163173307,0.7101003232306082,-0.02785411768784818,-0.9680494382726628,-0.5924833883070919,0.20410019056064366,0.8974389039832347,0.2934586752608064,0.22470977872813025,0.29735762557593404,-0.14690646388362816,0.8072220442988338,0.9813319285185906,-0.940737422548729,-0.3922474593455447,-0.04807577271281649,0.325886063766206],"bias_h0":[-0.2898248606630305,-0.8888712586113694,0.23625565344993849,0.7017044769265584,-0.450797169002211,-0.2560291990584189,-0.23033256156601256,0.31348351584441025,0.30985310269213784,-0.688764765152174,0.29822204717125733,0.15740021603418142,0.4951129844307718,0.23702767452909357,0.6213316802752225,0.19613028776747554],"bias_h1":[0.2765439250299875,-0.8553551328795961,-0.9907378326719185,-0.9584449981788177,-0.8192076406161746,-0.8828605036841917,-0.6347188294856179,0.40133630433464407,-0.21722792317026007,-0.5519980650478569,0.8803444892627967,-0.8803051641328818,-0.094566270320259,-0.5261523100398438,0.4558114108922189,-0.39149380509184195],"bias_o":[-0.5992481620924706,0.606643700494639,-0.9759601291309112,0.5123187591688199]}