{"weights_ih":[-0.8342969971393359,0.38628051039821454,-0.39299772764333385,0.8188498449747892,0.856610390206817,0.4406945605276873,-0.6983347142453102,-0.4510571855885064,-0.1871453238972196,0.002283781576599031,-0.10994667747145193,-0.8090143702157693,-0.3044094674916551,-0.012440365333361125,0.9690016337872807,-0.6155494592856323,-0.8999674716569332,-0.6063018228308446,-0.8303065210356708,-0.2966914809599268,0.004168428070468355,-0.7565457141400012,0.28285409631734004,0.8841743848173933,0.7833237361146812,0.20693992500875935,-0.14468924446149933,0.5275260436677156,0.07900614332928946,-0.5195784860622328,0.19066237985417778,0.6544954420425635,0.09922334181203274,-0.5066423385631198,-0.01831232967329388,0.6746055112215059,0.5334522845396827,-0.8279993856041479,-0.4034576146358939,-0.8523973685601225,-0.19296076658132488,-0.7655728089161757,-0.6633281618690143,-0.6121618461056368,-0.3121691519764065,-0.9452547446513615,0.6105295467427116,0.5164448249155067,-0.06206233916004433,0.7942270293974523,0.5107440833064698,0.1060239931509408,-0.6780183970679594,-0.4218863591401898,-0.7965432965900192,-0.6028198699285785,-0.3720473287467001,-0.9204052654402091,-0.3296168155953094,0.7448160948839209,-0.18463262907924172,0.3187967763613886,0.7526983864020838,0.2247540261308636,0.19980097278844844,-0.13539327233061793,-0.6219266366395753,-0.11396417775137713,-0.21782972332572204,0.2397617221859898,-0.33993217871830317,-0.6442756431458481,-0.887195386094616,0.3736227556995291,-0.429304059616874,0.6116642298484671,0.17296259758950017,0.46261976525458093,-0.3821795706097757,0.027350191575215455,0.07595992853953737,0.8864329491967993,0.07396474399881359,0.9051367873845892,-0.23258826287946088,-0.2041931842668574,-0.7617525476793661,0.011792079381276244,-0.7035960179740048,0.980699602446595,0.550024383928621,0.04451907269211719,-0.30071982318876445,-0.5667080011432026,-0.1640437894794582,0.19448486952296729,0.3949734793349813,0.06847678333435425,0.8556866578581148,-0.16083528373636646,-0.22275061337857904,0.8047702635893332,0.45772651839123846,-0.6172767778513801,-0.8333060347251349,-0.7970670708411292,-0.6113265863051869,0.5699495941131414,-0.7720312794103661,-0.7300302051591181,-0.695297291886102,-0.547340879695331,0.8575368273395259,0.7969246284140474,-0.3971507358002557,0.0843227375767448,-0.7403661495681568,0.9762349544614508,0.07444393528027327,0.048318793206167276,0.25670176949886714,0.6368417929912895,0.5647769875142656,0.7385236729402731,-0.6420776872782341,0.6089504533183756,0.8790622015962917,-0.387378123613056,0.8693330441162679,0.034596272653855564,-0.18633424407670685,0.359184278810172,0.5804044553238854,0.5025693494971208,0.4558435427710634,0.7293601706851021,0.46070472629466597,-0.5355833498301183,-0.4879890522569825,0.3364316294976044,-0.5575907981436943,-0.15115190601904782,-0.22392895468726626,-0.5494558127739702,0.21785783838871242,0.13842501189482537,-0.07265437265114727,-0.9087528254363786,-0.6886539479190661,0.5233684123671454,0.23571195047891247,0.20351866145352004,0.2880807867952111,-0.0486292774389292,0.023685441174524646,-0.3766623150909614,0.1501521793993985,0.9868742789408393,-0.19523656543076795,0.1784381977673577,0.9820381566812775,0.3378231113292631,-0.724514893238722,-0.3198218389803831,-0.9353920864487919,0.3320343686588412,-0.12899550744901145,0.6181996571004078,-0.41173127090349704,-0.7238460613525834,0.08830610407698125,-0.5115980855991173,0.03090463254989828,0.5136018696451798,-0.1766250297252323,0.050712773848983206,-0.9489557049682771,0.11657631276217373,0.291360190115759,-0.6856822821147179,-0.653687018511196,-0.34689504142894045,-0.9687134816264775,0.022461345483046236,0.7813804444399064,0.5760447159509465,-0.6942133480232895,-0.2692834273772611,0.7793424342267505,-0.00377723153319498,-0.5027226962632889,-0.8045674218064911,0.44065057462496315,0.5741516574868581,0.7946760661816907,-0.9362308857330801,0.07838746052195367,0.36192661283226935,-0.4571937337932841,-0.7003017268826832,-0.6647732521163294,-0.7313380810687078,-0.2885071017955958,0.8226138534386367,-0.20047191575990775,0.32930759919378905,-0.9331551805235765,-0.8117497879611315,-0.04293283706008877,-0.8815050681704679,-0.7369585360096416,-0.4267574295998757,-0.8473036988286955,-0.9189963155435428,-0.4917222203528926,0.34282723398604253,0.8899715457821067,-0.6553651491526418,-0.5109105214849383,0.4420349817652567,0.5911129224624663,-0.9202673295006658,-0.9989742680104772,0.9346168302912465,0.691382747223273,-0.9775330554134949,0.4212059117668474,-0.2682157218499359,0.11679711668759718,0.892652688391625,0.9911228098150631,-0.3750325222377051,-0.5977079823770826,-0.6948209052416772,0.1172191592966274,0.8607729181431454,-0.5061098895353826,-0.6946203223891803,-0.5809472667037561,-0.3628027646404117,-0.3010611914718271,-0.3669813244895581,0.4759173814413671,-0.5972017305646962,0.9486029823004323,-0.6370740366797698,0.8386701254050606,-0.24687333657772825,-0.5897919806210019,-0.7006813556411096,-0.8661786175400721,-0.46817697831541283,-0.47653120333856513,-0.5543536095446169,0.7121594632442263,-0.1599142997781855,-0.8469368592168318,-0.824546266240288,0.6943888296147926,0.051364988895206354,-0.5727924594442981,0.3153544993241568,-0.7737788429092056,-0.6038415108418431,-0.6771068418468722,-0.8349673855034734,0.7116708552548645,0.42906262690061325,0.25468354832007645,0.946298871006571,-0.049695925133907304,0.09123237523048355,0.5127153988198536,0.788205148252884,0.04635388183120703,0.020132061694502212,-0.3989445942543386,-0.5999871727625599,-0.1959024185234477,0.699140692625225,-0.1722102563377279,-0.15829273554588918,0.6322863219468673,0.6418700831259985,0.28627945452963144,0.43599727342666883,0.9154733339348178,-0.8868297854888523,0.019928026665447574,-0.6687929780635851,0.5665283573963042,-0.9094977504126647,-0.5183047041633213,-0.8832641771449323,-0.29212269439702476,0.06335558322716839,0.4838430273780596,-0.18485177165897348,-0.6994162125533472,-0.21933067964255448,-0.9484054809548406,-0.4585110260505374,0.3117904178911908,-0.5180910178298437,-0.412922024002111,-0.8858405127195381,0.1928910419179357,-0.7459607978583362,-0.3288010329896973,0.2517219463658604,-0.21790859317771138,0.565479798741553,0.7612507343678556,-0.1157654307127387,0.38090716355637766,0.19748465500462276,-0.9738179565036,0.8650584547820375,0.0822400564885939,0.37579979649164263,0.4419276169652917,-0.7605562668488934,0.6020861431943183,0.9867442071047245,0.5857836396800815,0.7053000850215496,0.9576796842349833,-0.6151149808349292,0.04969563013561107,0.7885370840180421,-0.5390745748677812,0.49413705199706404,0.5604342088685754,-0.6958013039775623,0.6025298152805514,-0.8047591181768152,-0.5081713897383278,-0.6797947592875393,0.13977131081025607,0.008588428895040634,0.10434503625964586,0.06470758318070913,-0.7918634239220947,-0.5224854217520505,-0.21439034722750172,-0.41791454224626556,0.28117883158115675,0.4205428164657101,0.1429701956204279,0.22734576778508075,0.09878766183220855,0.6680286345436648,-0.3094243949747324,-0.01974594146766062,0.9289511592396746,0.9844068001267645,-0.07133690387297165,-0.7830278852146608,-0.3002000406663734,-0.11997290901684754,-0.5429558367028908,-0.7030299513679579,-0.9745238791845081,0.2785809322468118,-0.4616236532442042,-0.5370266434055877,-0.2386773524110528,-0.6650664080962465,0.6291022484590081,0.8951014649330638,0.909042726062169,-0.4383694999056278,0.9399439025828509,0.5970490359471496,0.8752597431126881,0.43429037484394106,-0.5571966647879363,-0.871415524505704,0.7735485168020333,-0.5993558452072776,-0.758087524282393,-0.4959464239335818,0.19041135643354146,0.12340724812140258,0.4557057518488956,0.8077965420674635,0.018929085481425245,0.14083723144129268,-0.7353362709758433,0.4728564380040965,-0.8335482743486018,-0.7486351778760105,-0.4411010391412251,0.34314214922594766,-0.9123651951410794,0.7224254430654133,0.423391968326172,0.7887513793387799,-0.16410307052701456,-0.21134729700874888,-0.20200889809013,-0.011599042062597542,-0.763354248372488,0.47887471753347866,0.046247453818622386,-0.4198793452330425,0.47755825006919017,-0.827955334608607,0.7744698729204507,0.4433377962639553,0.573533259743715,0.09290261044119719,0.7034556551166953,0.36529123086701243,0.41836380379780347,0.12931639111564386,-0.22715168813457587,-0.8614572585501714,-0.4207357315070408,-0.5021328412993866,0.018680746419140748,-0.9142844055954367,0.5228643273736886,-0.6591903800109471,-0.4674670534869363,-0.5827426276187893,0.5979135128532718,-0.7112680549491084,-0.030504660856451205,-0.9686811654880771,-0.03284881767111281,0.24947214500784165,0.5865212958267814,-0.6398088633456289,-0.18644438566556643,-0.11876717821505833,0.5461185242519286,0.10670192991279848,0.2742930254362377,0.08629584356178199,-0.969783235294678,-0.03880415886287669,-0.32025406058595585,-0.005454380326145092,-0.11607660978663903,0.20804097691093104,0.8478146745235824,0.0526135138455881],"weights_hh":[-0.21775601666273303,0.1247836139108136,0.6181573886251179,-0.6223945876508012,-0.15901003631037214,-0.9053907483870343,0.12437720709455835,-0.5650078152777664,0.8703172628801485,0.1765081955306571,0.5847856189967062,-0.8843573676596199,0.7666149874168315,0.9764701605539965,-0.8593399104755197,-0.7195800758089701,-0.5303277908848232,-0.3400718524032862,0.08503999817978558,0.9843733060514104,0.7740585228617212,0.23330085784141863,0.7241471000686062,0.8911223234278418,-0.880349765047937,0.3226160674629115,0.5509944866384278,0.9390653894948879,0.61143218733017,0.2496447561015438,-0.29677909266364644,0.4336888149062543,0.33628068260001887,0.595474741320476,-0.4209251717934863,-0.07522373740409183,-0.3881165064075536,0.38974777841946806,0.9865104354470979,0.2568550849829705,0.623794217087785,-0.3887679004271758,-0.4987293663634593,-0.9402623975824995,-0.2218015877550683,0.9183272303641024,0.15499422298596,-0.030807724663007408,-0.40299179162715526,0.3329396914258511,0.041618315719323506,-0.07062347131573432,-0.545050811701699,-0.9554491390546027,-0.45983983801470796,-0.21048647790114527,0.7442601746315327,0.6347084283174507,-0.2546028405352436,0.4225405247039389,-0.9441246248554678,-0.5051600553024886,0.9893944214419879,-0.46746761803773307,-0.9248300158587943,0.9748176334357908,-0.007701191740807634,-0.9101509259095446,0.03679386108644134,-0.6290371447121983,-0.3990197165786473,-0.785997310183371,0.6226025595818991,0.17172042921654906,0.564863551173572,0.45542300961249893,-0.0007638276748043182,-0.767931705585251,0.8918663236289879,0.5049992595089585,-0.9965759092286779,-0.18275041612128873,-0.6442092333157032,0.24635093175377465,0.9679782169903413,-0.722333039781712,0.5705725409232549,-0.27339318909938903,-0.2453262471135278,0.7954690866290404,0.3116401227142602,0.8239096781180808,0.4106871697374894,-0.19666519899922497,-0.18516022678331434,-0.6074051463672472,0.14258597243190851,-0.7782155197371601,-0.07589333586017477,-0.2838578504736953,-0.03285856188849423,0.023803807347899886,0.09192625190466308,0.4874494167717378,0.8046082709906681,0.8905771400703646,-0.5541906542163066,-0.15397593083360372,0.6234138325834353,0.014660116355576402,-0.8078347254767329,-0.8333304411113247,-0.664236935615228,0.0928365600976564,0.1298215579218731,0.38027968876845963,0.6276659290582496,0.5043629172232438,0.12942365957921487,-0.26158573160683796,-0.09133833449328854,-0.17051895293027775,-0.9450592181935034,0.7546640368386761,-0.4682090499594025,0.09572751715113337,0.70393358053586,0.7260534796197289,0.6579614127739248,-0.5212413403217964,0.8785367497047745,-0.1664306057433642,-0.5776306106659694,-0.5326640220110752,0.2720914473843723,0.49565595180429045,-0.8319572916753528,0.29360403878366714,0.688167087276707,0.11849687279844856,-0.7940688451828026,-0.431952200395771,-0.476051971474287,-0.3550522227672863,-0.2276848104007212,-0.966978416860671,0.3505383033076652,0.8718580176994533,-0.47033855419705084,-0.6080200761676364,0.28287173516151465,-0.283814343245538,-0.9632026959540683,-0.5407577432377588,-0.6816008186168441,0.10887118850380872,0.6598378452976763,0.6325286736257496,0.05169865640558147,0.5493050357894789,0.8302766527153966,0.8868981920904448,-0.5604194492588623,0.8991535202938505,-0.546207764656127,0.8161493582555293,-0.9380532423145544,-0.9477473040085596,0.82044164666886,0.7762254157602424,-0.546675706039566,0.16060124070748882,0.40066705515555134,-0.836224927493491,-0.3469973441047389,0.360683760483568,0.4412055256005345,-0.07743824668998656,-0.7660799308210324,-0.7763697082619962,-0.2542835618109638,0.19751211572363436,0.5895873539614604,0.5262131384906616,0.44108143108919906,-0.0068176394629866355,0.4433266241210476,0.22193325063161362,0.7668477556863322,-0.6846049563912382,0.439466926427148,-0.1827211543976024,-0.44294607821443144,-0.6655791017738548,-0.31078405809291976,-0.8225814548871511,-0.14565652615734193,-0.31375739417187365,-0.22472993963821275,-0.628369749682997,0.8387460626750289,0.09627161244631521,0.0665020989099181,0.16155460197075766,0.6328919216226636,0.5702216754534459,0.746199560827812,0.23907663647523347,0.9023577713843864,0.06178536935138346,-0.6984701045793011,0.9142932645017618,-0.48828203126906744,0.6427043686921927,-0.5651872352432046,-0.9901204932334804,-0.9940653048595556,0.22710633376109368,-0.10246524857241734,-0.6158611935417759,0.9641103522502577,-0.3237906638416219,-0.7733540214822674,0.9785953395087996,0.4941336725382799,0.7802750382681996,0.043784743278399096,0.693635151504923,-0.23630069029068923,0.6971952724200983,-0.7056549136131685,-0.4679886716621935,-0.9462412883913971,-0.01205577958342019,0.5630593041330525,-0.9264753815087676,-0.14710523386749874,-0.16321496244434286,0.007723956877374372,-0.4819533795874338,0.8165077955185818,-0.21989641248431058,0.5311876557833974,-0.9540037683417524,0.40213268551713566,-0.8939635349248352,0.45177395286517386,-0.8968222604074705,0.38593493232607146,-0.5746368705904816,0.5102504701590258,-0.29578746288497815,-0.9160585250827402,-0.8028454363052167,0.7375607471693593,-0.33855491631777146],"weights_ho":[-0.8038106513029606,0.6374477494925024,-0.7373575206014937,0.0827273807017661,0.6305035520102209,0.8265341931477852,-0.30136749811474295,-0.3781460992122587,-0.042118420095430986,0.24511608063182533,0.20488196232481992,-0.5506743758348802,0.002390483428474477,-0.33351610057183123,-0.972889249617281,0.5587379405052426,-0.03415851323980368,0.017078276854579855,0.49289933796004504,0.43103568689615157,0.3677688613676675,-0.4588585120264097,-0.6621005915452822,0.13164297363284683,0.2977816392026795,-0.44827676599879895,0.09593593908986975,0.520452594910781,-0.21684186069161537,0.1054433423887855,0.3966184875487442,0.15087338179831478,-0.23233009929148762,-0.492143795675696,-0.6676052660638305,-0.4306730791569118,-0.16227302242505792,-0.022395646206727404,-0.20388104372676485,-0.23678949806153682,0.24034416294099437,0.6277935906089833,0.1622408404743121,0.8398260375027524,0.990715225719655,0.10550170994844588,0.4072455536045565,-0.4304119683722729,-0.7690257982664541,-0.02785411768784818,0.30148126634696193,-0.5924833883070919,0.20410019056064366,0.8974389039832347,0.2934586752608064,-0.9231566772828146,0.29735762557593404,-0.14690646388362816,-0.9255639241473852,-0.016282752915927512,-0.1403531055762004,0.7303091863809368,0.5516320099476293,0.5325847651033158],"bias_h0":[-0.10354595288883406,0.868635605733699,0.23625565344993849,0.7017044769265584,-0.6593830554227482,0.01906644918081013,-0.6818177475040625,0.31348351584441025,-0.12016174752690079,-0.688764765152174,0.04952177648027245,-0.4182263651690281,0.1251624166568579,0.7794743664575976,-0.48285277765182677,-0.8084677410445613],"bias_h1":[0.3237188672715261,-0.7815842092926166,0.577854148699037,-0.21728437225511854,-0.8192076406161746,-0.8828605036841917,-0.783280406348891,0.8187702451836696,-0.21722792317026007,-0.5519980650478569,0.575242757344564,0.26601420609280013,-0.094566270320259,-0.009773269156031494,0.4558114108922189,-0.39149380509184195],"bias_o":[-0.5992481620924706,-0.7284979130653335,0.32684975354153734,0.5123187591688199]}