{"weights_ih":[-0.9284279570237957,-0.7027948301567648,-0.39299772764333385,0.928638205432091,-0.0708215619967929,-0.1313969705851885,0.5733923677154025,0.053074518259878634,0.7489174083424626,-0.8391873552440376,-0.4037894178147612,0.3701535059135237,-0.3044094674916551,-0.012440365333361125,0.9690016337872807,-0.5527708166132455,-0.5259975735697098,0.7148326707965993,0.2583773048514326,-0.2966914809599268,0.4011194767778081,-0.7565457141400012,0.28285409631734004,0.8841743848173933,0.7833237361146812,0.003545404792777873,0.16835519362177642,-0.40338927905357513,-0.5597777937898314,-0.5195784860622328,-0.042853223803865914,-0.7443503765421584,0.09922334181203274,-0.3097762056597386,-0.01831232967329388,0.6746055112215059,0.8866395992621492,0.5566755930207887,-0.4034576146358939,-0.8523973685601225,0.7875229897802665,-0.7655728089161757,-0.6633281618690143,0.9533864011668465,0.5662762637079217,0.8381821796909277,-0.5790481538065333,0.5164448249155067,-0.6811643836223227,-0.914446112239911,0.5107440833064698,0.4475366430227936,-0.6780183970679594,0.08775826937014664,0.0399062949920197,-0.9273694584577739,0.7981314532190511,0.47142105004657364,0.8207907491757689,-0.021524381445819696,0.00956397318199187,0.3187967763613886,0.7526983864020838,-0.10586967613782106,0.8103096176520213,-0.8188590379926262,0.1793039891560928,-0.1354895696279408,-0.21782972332572204,-0.5549857397260267,-0.33993217871830317,0.0009384329696757732,-0.887195386094616,0.22582172431673841,0.5295826962512671,-0.6781759421107698,0.17296259758950017,-0.18994033113736908,-0.22524135944313683,0.0247430623450573,0.22051174499591553,0.2192531728581666,0.3128383360180451,0.9051367873845892,0.9592046105435368,0.02068051982835506,-0.37854445338180875,-0.2414793198737999,-0.6295549075377178,0.803555716887149,-0.35463012239047864,0.7418809826141797,0.26756267865994343,0.8590445806650016,-0.5672054244625211,-0.15752404368756245,-0.5581898898308546,-0.8317900267974407,0.5589238995526813,-0.16083528373636646,-0.21773962214520726,0.8047702635893332,0.45772651839123846,-0.6172767778513801,0.6020104696803075,-0.054302780851915644,0.37930927017902216,-0.1184776190975727,-0.7720312794103661,-0.6837059436324107,-0.695297291886102,-0.9641705053655076,-0.0009460197355042332,0.9132134112009125,-0.3971507358002557,-0.7976771107170235,0.3437911841222778,0.8035679100215851,0.07444393528027327,-0.9765748459019983,0.3005291177293343,0.6368417929912895,-0.9925147606914777,-0.27105863937116537,-0.6420776872782341,-0.7395401718007264,0.8790622015962917,-0.15969816549545635,0.8693330441162679,0.034596272653855564,0.5381525690393363,-0.6026102220412826,0.9146765441100821,-0.4216588757337507,-0.38840372803904266,-0.8173661054118633,-0.3595187584092585,-0.5355833498301183,0.24664568133347897,0.3364316294976044,-0.7522126877318307,0.9558458880672478,-0.2663607036199449,0.9316710886898083,-0.7408963148657577,0.3746240758876074,-0.7872667659379216,-0.4017009946900454,-0.6719127856932285,-0.5564385133669532,0.36016930449326967,-0.7861365425312838,0.8217507308946517,0.08963474377285041,-0.7811548471284935,0.4541016578841772,0.9390979927032399,0.3849787571747376,-0.19523656543076795,-0.16066808014113088,-0.11539307769247809,0.3378231113292631,0.6340992733696904,-0.3179858160132887,-0.9353920864487919,0.3320343686588412,-0.8167457805018343,0.6181996571004078,-0.5258265612734505,0.48373826804196307,-0.8629599647094315,-0.334600838208885,0.21983527549288606,-0.031135154661598552,-0.15556997009581375,-0.6131193494908445,-0.11039946969307168,-0.5759617796812655,0.9571202682685962,-0.8507732209414931,-0.7929000411683262,-0.34689504142894045,-0.33291703156604413,0.9989898365736027,0.7813804444399064,0.8917515933198139,-0.8366092089171921,-0.2692834273772611,0.7793424342267505,-0.9653222536307897,0.3125137161997438,0.9236383883170038,0.44065057462496315,-0.8812229250084906,0.5294492002927438,-0.9362308857330801,-0.055691979405819714,0.567907739561966,-0.013403133942880396,0.8888779784270562,-0.40938250120941233,-0.7313380810687078,0.9180161907157081,-0.34225126261013905,-0.9859327185414677,0.32930759919378905,0.9537336757540806,-0.9264478390930655,-0.04293283706008877,-0.37957883951278326,-0.7940041072346946,-0.9527241939271947,-0.46139804393371975,-0.35544308177925266,0.3987290038916229,-0.7944701530319851,0.6230334458990845,-0.6553651491526418,-0.5487401352302137,0.9427440146589074,0.8321938099788753,0.8847270573780981,0.2464234883405403,0.6624779553661835,-0.14746079581233418,-0.4038254374897441,-0.9573108277299596,-0.2682157218499359,0.4378687750960164,-0.6604745707295312,-0.5637946680695092,0.022021952696745783,-0.5467602947323769,0.2896287735744214,0.1172191592966274,-0.6216170560441938,-0.5061098895353826,0.7469822469643443,-0.41092732208432503,0.6998113801364501,-0.3379077559097272,-0.6306778530024557,0.4569851447662765,0.37696056291930913,0.7567077286693358,0.016623280462447543,0.8386701254050606,0.7255211790886409,-0.5897919806210019,-0.7006813556411096,0.2737574634681379,-0.46817697831541283,-0.47653120333856513,-0.8932510690161428,0.7121594632442263,-0.6800737107064918,-0.22244826791660333,-0.6408615289069242,-0.6193247967664712,-0.5012566589698175,-0.3707603592337969,0.4601462721948606,-0.7297740595271089,-0.14159838954072224,0.2611667943923124,-0.8349673855034734,0.11012420363283626,0.42906262690061325,0.85874505868345,-0.5097921648317281,-0.049695925133907304,0.03778828786069943,-0.17045571591877207,0.28302244221090267,-0.2145967955003798,0.020132061694502212,-0.28013645246897734,-0.5999871727625599,-0.1959024185234477,-0.4302156419827514,-0.18439053291476193,-0.15829273554588918,0.6322863219468673,0.02280124079196222,0.28627945452963144,0.09820908152847307,0.8087777342673388,0.20700719857675232,0.20957450839431413,-0.7796114517915989,-0.35474390765829256,-0.48618408297383464,-0.08195622977529937,-0.35442507231311127,-0.47514297153285034,0.06335558322716839,0.4838430273780596,0.44179724058358505,-0.6994162125533472,0.6827827203036345,-0.5381916807336029,-0.6292051390964728,-0.2654094955151496,-0.5180910178298437,-0.4740137173909691,-0.787659496504596,0.48720704949837557,-0.31308341426084785,-0.7733376310840601,-0.5961016715074214,-0.21790859317771138,0.5622300495828407,-0.3714826240835809,0.15374827762397225,0.7211974585986429,0.19748465500462276,-0.399188325758298,-0.1221738876134284,0.0822400564885939,0.37579979649164263,-0.27655773797800953,0.8943995673382075,0.7602483463246861,-0.032561128000014206,0.5857836396800815,-0.7761875858247185,0.9576796842349833,-0.38592789657571314,-0.25003663096332907,-0.8036450420687844,0.7569461101390116,0.49413705199706404,0.1632597408501253,-0.9778160575632611,0.22598145593540564,0.9503504924991009,-0.9802547234720806,-0.6797947592875393,0.4387894474122065,-0.12952392767501308,-0.264864938147958,-0.8100282855490029,-0.25269307556118914,-0.5224854217520505,0.8981692251019118,-0.41791454224626556,0.9955816517328995,0.4205428164657101,0.44912896182457307,0.05610422537075754,-0.10657965257455237,-0.7399602485481649,0.4291834995444088,-0.01974594146766062,0.9782979478829767,0.9844068001267645,0.6496253937425194,-0.7830278852146608,-0.3002000406663734,-0.5247583798982098,-0.11484054977877767,-0.7030299513679579,-0.9745238791845081,0.8146704294642875,-0.9370464561619225,-0.5659263148315958,-0.2386773524110528,-0.6650664080962465,-0.9355340059592476,0.36294857799359415,0.2830603252319175,-0.4383694999056278,-0.7176759752056938,0.4937165448931209,-0.7211334221097938,0.6135262292698682,-0.23596687445909725,-0.871415524505704,0.3585843650134597,0.08424280628197622,0.29011564464200257,-0.4959464239335818,0.12146320676735178,0.728766202022485,0.4557057518488956,0.6958693858966039,0.1124286077155443,-0.7806661152892669,-0.31680583821411634,-0.9896897603646826,-0.8335482743486018,0.9924392611063795,0.007468747313798874,-0.5531386644543776,0.5999457208031924,0.5689546414737583,-0.6938000469039232,0.37168247136670485,0.7620996893078684,-0.21134729700874888,-0.9504577721273277,-0.8812585136795481,-0.7532735252629099,0.8329857888605028,0.7223868264169677,0.5159746634010385,-0.22411939294830296,-0.2311449671557706,0.7744698729204507,0.4433377962639553,0.573533259743715,-0.2777554915385425,0.702831414805902,-0.9475561987477561,0.612479626181202,-0.13948527956771684,-0.22715168813457587,-0.12774577473354554,-0.4207357315070408,-0.2410958619907475,0.018680746419140748,-0.9142844055954367,0.912046370090102,0.9381642078770831,0.610945510721365,0.7651937690339643,0.32038727617142126,-0.3272383425280603,0.8119659576969465,-0.9686811654880771,0.23714198223852745,0.24947214500784165,0.5865212958267814,-0.6398088633456289,-0.4729431654485352,-0.48961041466453903,0.5461185242519286,0.4749505184780529,-0.23328746504653441,-0.9047071576602326,0.6566604705506529,0.5124275304071169,-0.32025406058595585,-0.5372920896719096,-0.9137537334033441,-0.4144191442746412,0.8478146745235824,0.0526135138455881],"weights_hh":[-0.577055510596316,0.528570468575311,0.6181573886251179,-0.5473933110338318,0.1306852951168822,-0.9053907483870343,-0.9750006839394985,-0.9768685786640752,-0.4162263757176634,0.33706497776403066,0.7801644720489105,0.4789008794276197,-0.28400080808444317,0.9764701605539965,-0.2818105789391905,-0.7195800758089701,-0.04729707194407662,0.3633786287320617,0.5382499483519354,0.743419299569066,0.8915218713091666,0.08355787940962678,-0.33423545150210243,-0.36329051362369524,0.3523310182798223,0.3226160674629115,-0.4554943064535688,-0.13723713795832837,-0.016158487554334355,-0.32027666392999365,-0.6217079648481125,0.0848548280684045,0.4986423380698559,0.08136867589593733,-0.004502280796644831,0.5537878916834627,0.4799254422246848,0.4431950429348941,-0.769224553904811,-0.13622247995670111,0.33787093498953324,-0.3887679004271758,-0.2605044961540779,0.605789895842153,-0.2218015877550683,0.269608136621758,0.15499422298596,-0.030807724663007408,-0.5430043757226055,-0.06429485544292857,-0.07835768047904201,-0.07062347131573432,0.6263387148432522,0.561375155122865,-0.5106889882033683,-0.6202454305745635,0.7442601746315327,0.19415572876795628,-0.2546028405352436,0.4225405247039389,0.21651676732365743,0.8218396684366776,0.9893944214419879,-0.9335280367037291,-0.13753150314617302,0.46005873222579785,-0.6731721767599699,-0.9979704750776848,0.2881671178481344,0.18455620744034662,0.9638661784261413,0.47697120497945145,0.14744074564811083,0.17172042921654906,-0.4991615078223608,-0.4563352251967141,-0.7886654733830027,-0.767931705585251,0.8347057703064811,0.09450309859883266,0.4622065454283588,0.9785008507452155,-0.6442092333157032,0.24635093175377465,-0.7482384143675669,0.47282538280497866,0.5705725409232549,0.652479317117685,-0.2453262471135278,-0.9736008525459261,0.3116401227142602,-0.18213897292682013,0.3145574402543603,-0.1908809996263261,0.7489638949177719,0.00865036877469283,-0.7206808329221579,-0.29591131033398166,0.4260591015603139,-0.2838578504736953,-0.03285856188849423,-0.5706123166398434,0.09192625190466308,0.4874494167717378,0.1386402961747557,0.3228324127500297,0.710924468640618,-0.15397593083360372,-0.1961714543353128,-0.6566992858787126,0.7898612028108314,-0.4137831537199741,0.6953043549492219,0.6615971571715922,0.49583403794940706,0.38027968876845963,0.6276659290582496,-0.8100228576746342,0.4521143935203904,0.8297052467158028,0.9816871944138432,-0.5098913073316305,-0.9450592181935034,0.7546640368386761,0.2526488385295338,0.6567667970362367,0.70393358053586,-0.3316656401336644,0.2659945706312077,-0.5212413403217964,-0.5556512391078952,0.428934052565072,0.7997687664646824,-0.8465141863165115,0.6662083078039325,0.49565595180429045,0.32062634501871545,0.2604958801207855,-0.19956753446796016,0.37468892719412517,-0.7940688451828026,0.6902530179540398,-0.476051971474287,-0.238985478141446,-0.37376395179154076,-0.966978416860671,0.684177259174471,0.2811171436034565,-0.47033855419705084,-0.6080200761676364,0.8265269208441104,-0.9099088317844035,-0.6785801693912454,-0.9160337407991768,-0.6816008186168441,0.10887118850380872,-0.6822731076895163,0.6325286736257496,0.778945885667212,-0.560351959758693,0.9960218243446282,-0.5190711947493905,-0.4504285232764642,0.14152149957011617,0.7093184883201213,0.4158738897095948,-0.21433128930545453,-0.40032117651854393,-0.7435737880919071,0.7909366447813324,0.01790528048107931,0.25289606582461177,0.40066705515555134,0.7696658026982099,0.8739129477960519,0.19268607504695656,0.4478181816099238,-0.07743824668998656,-0.7660799308210324,-0.7763697082619962,0.13212535251462043,0.5966823941189221,0.7854328772937536,0.45339841989612095,-0.8113784273039888,0.1602501581523268,0.4433266241210476,0.47252455551043027,-0.469410574331256,0.044785651301517015,0.439466926427148,-0.5978331443827649,-0.06865486183293101,-0.4015025172527642,-0.07723098530338324,-0.8225814548871511,-0.9541964102478908,0.38433518956032553,0.24858985806254785,0.4216507350340053,0.49459223358650606,0.09627161244631521,0.18527512080823216,0.16155460197075766,-0.38029114020734744,0.21096024691217163,-0.048073939296017,-0.021935853503779468,0.9023577713843864,0.5594237924947827,0.0009129873356161777,0.9142932645017618,-0.6756026409511373,-0.3745757958777909,0.9530710080149973,-0.17820806959167368,-0.9717802970209017,0.22710633376109368,-0.10246524857241734,0.8123741322258329,0.9641103522502577,-0.6558042738244589,-0.5282698759770299,-0.5807916874377168,0.37430375824464246,-0.402124524549206,0.9286130543349085,0.6373026853153241,-0.00371471987377725,-0.058227293689917525,-0.7056549136131685,-0.4679886716621935,-0.7536797643546727,0.6429040241565076,0.6522420792604515,-0.08364206444723066,-0.7478168088489963,0.14711395480721823,-0.7711656607979762,0.5197312757193129,0.8165077955185818,0.1714327701542533,0.5311876557833974,0.056291479341900486,0.785672031854687,-0.5923140120181805,0.6864157191034745,-0.4187317971380162,-0.3987863166715242,-0.4534700823001758,0.5102504701590258,0.7602409931749616,-0.5156277076549398,-0.8657254853980276,0.13073765062358156,-0.33855491631777146],"weights_ho":[-0.8038106513029606,-0.9899960588269647,-0.7373575206014937,0.0827273807017661,0.6305035520102209,-0.0017151044376157998,-0.45865398617509334,-0.4199266908922068,0.669327188962989,0.026123648489707385,0.3102655150832243,-0.5506743758348802,0.1837772252448231,-0.9446937599350178,-0.972889249617281,0.2435230780181319,-0.03415851323980368,0.8511229636090247,0.5158713139355824,0.9589440308830386,-0.8402112743658234,0.1345845231078513,-0.0752248518644636,0.4967776395763106,0.2977816392026795,-0.24771191089129885,-0.3600789248778784,0.4820570776669324,-0.21684186069161537,0.07533616808919086,0.8975085115117107,-0.020174761562028243,-0.5487124046714031,-0.49066071209795425,-0.6676052660638305,-0.4306730791569118,-0.8048321969804204,-0.43964942686440067,-0.8155781475421182,-0.3277864070514884,0.10654657803838297,-0.8951756285817365,-0.7230086709634456,0.8398260375027524,0.8559944760105582,-0.6568808735474476,0.2511307696851959,-0.4304119683722729,-0.7690257982664541,-0.7486074904417743,0.30148126634696193,0.44070359247278756,0.10097927765924886,0.7469268730664431,0.4942408145769235,-0.41147683012857783,0.4152103432598586,0.6639839904062954,0.8067365081087206,0.9585428392430293,-0.1403531055762004,0.4589709255423646,0.5516320099476293,-0.44952928786939017],"bias_h0":[-0.10354595288883406,0.868635605733699,0.046014736699638625,-0.6201328537096855,-0.5230754742062536,0.10153032282887575,0.2762748560606447,-0.6024766220907232,-0.12016174752690079,-0.6309570924839885,0.67240252883166,-0.09114265430039281,0.1251624166568579,-0.0767229171960564,-0.48285277765182677,0.8733609165354641],"bias_h1":[-0.08754907343583018,-0.7815842092926166,-0.8845655887351109,-0.91066013510794,-0.43727321622992155,0.7010408035319153,-0.5482499853332325,0.8187702451836696,0.333032876749513,0.8223016373237901,-0.23128385408086816,-0.7201425122741918,-0.31078234986540965,-0.02757181571355738,-0.9737847804490889,-0.8833029906460745],"bias_o":[-0.21856633436983564,-0.6931108853513728,0.32684975354153734,-0.40296292039647774]}