{"weights_ih":[0.14685391969443806,0.2215441225102126,-0.9297325852021372,-0.29302580712828963,-0.7895115415762837,-0.3594397222846757,0.5065668197779705,0.7456853901609601,0.7398957653080445,0.5583814283731539,0.3886908468913679,-0.39635625607453395,-0.6819972279514084,-0.4474411071989468,-0.49909696108252377,0.9652481515197082,-0.790641147452918,0.8556000929032446,0.05933941554454525,0.4120206114160452,0.4500170695754502,0.40578635576218636,-0.1297967944556837,-0.18303218146574562,-0.7476677485249488,-0.827197995585939,-0.7302347145118728,-0.689925588787212,0.2858474391944634,0.4306830504509176,-0.837577813891683,-0.011881112709880126,-0.24107099411654498,0.7785785356578299,0.15023105936341707,-0.0013577531253918806,-0.6203124902677919,-0.7366061318450499,-0.8045818443063717,-0.4175854942871098,-0.2988483388425247,0.08997700699873801,0.7050437983883024,-0.2817831176738457,-0.5731864789483647,0.5596305329463025,0.9268843602852188,0.5594294892993801,0.1980008003821434,-0.16817603918191515,0.0009563356644799459,0.033310607332839304,0.8257816128478144,0.4215138372128464,0.8239479946102439,0.9835790569115481,0.4093408357098045,-0.6867659916741213,0.2038906888268821,-0.05137581693966342,-0.43944448520821555,0.06667215126097559,0.013638186678216035,0.34694091753266565,-0.33576348578922866,-0.061098065358790254,-0.48298951840337745,-0.7255950174925936,0.025582391085708922,-0.04358868798454507,0.12660644779603736,0.8424375135283242,-0.43256904521450923,-0.21148017969719435,-0.9198269140457211,-0.1100381170558078,-0.7618774550296026,-0.5069073986202906,-0.42639083903933783,-0.4251292016460042,-0.34915076123469624,-0.9566598867596932,-0.8067418300747258,-0.07291068118016297,0.7431255210936325,0.9336485604043265,0.448777103628198,0.5900342632457294,0.3473768275389719,-0.586395987414577,-0.005543824934361341,-0.35755650782888826,-0.30571492479840656,-0.07653796558170267,-0.4168199073960077,-0.49965974322268303,-0.25784185454141517,-0.5266056719614374,-0.003306285016933641,0.07223376751324317,0.20171124304074528,0.37883768817883645,-0.34208406684281467,-0.8839373092015899,-0.8729536606147204,-0.6559759396061273,-0.7111637914719819,-0.06545305572166282,-0.6442510938671664,0.40459087403133975,0.9359255366983892,-0.7121215753607524,0.4211240031992707,-0.1308450970814503,0.2722392203455637,-0.8134794339763332,-0.06972918923280158,0.6073372246041018,0.8160237458572974,-0.9431803127269103,0.0489239151038483,0.06660740425030465,-0.42836890684527784,-0.06464483602477178,0.07404838878259512,0.9402585033179633,0.9821862936615422,-0.9689397813790033,-0.9064854409116112,-0.9237611401139374,-0.0214063918623546,-0.18197794292063585,0.5496934909237428,0.12528502281181342,-0.40057980190944886,-0.7285641353668633,-0.25585828952487044,0.4168586185857317,0.7493899269058006,-0.688110036701886,0.24016468642621192,-0.9356346016982748,0.5647316524702635,-0.5959454186988298,-0.696926223766603,-0.6017103127623662,0.9324764062258237,0.5024638268491839,-0.47220913926200536,0.8700060541288048,0.9266974664400986,-0.7033209118201675,-0.30193518413717335,-0.3061364452807862,0.8427787000872404,-0.9940622459090838,0.984351382259756,-0.5021509048106418,-0.3526885115241969,-0.0030358273880681796,0.9523100117734093,0.32902048597728495,-0.2274191313268883,0.5534997792893557,-0.26686447855937523,0.5448973529879539,0.3033998787236596,-0.9168205349773533,0.3944781897621923,0.1723869401970728,-0.3295493547509505,0.9882211330846631,0.6124327424602383,0.936418479549255,-0.47645877547373794,-0.013363412008269515,-0.6386173282629368,0.03563828761999388,0.022203833464919276,-0.6384519020937005,0.5835201429337531,-0.09236498579222774,0.5875947635820504,-0.052312472459261405,0.24620943631727688,0.14787253553172364,-0.7753632131723609,0.5502453644202088,-0.6137844001296933,0.42802589222226683,-0.18516992205291705,-0.26501157643176954,0.8744868892697648,0.41362584785774636,0.7619099124520408,0.21612545816731643,0.9291381590403636,-0.04268375401938296,0.3362066804122863,0.8481317425218942,-0.47688742389844796,-0.9905282046525932,0.20509613041636832,0.35827741346610265,0.8179139905164641,0.7388716921513345,0.5504539879235908,-0.19885710589949102,0.03421377882839227,-0.4660821442277028,0.49604432660021924,-0.6170035544015915,0.7312201251876669,-0.5832348996332017,0.6955943689454922,-0.6708257721075639,-0.8568368605304584,-0.627742067501788,-0.9544408148670422,0.76604476422981,0.5967930686063729,-0.06505914814288238,-0.6257496459608713,0.6253546694477339,-0.27672900718047666,-0.45784060976301033,0.027698710005036542,0.8750810625484209,0.47095010947245863,0.5833491500648242,0.9970498720860346,0.021090352729727257,-0.5539514760555619,-0.8407879225009014,0.5541192560555821,-0.2779339127642728,-0.5692767612136429,0.07993215075984339,-0.9404118378011572,0.37119239334687903,0.3329306407393444,0.32644905910485345,-0.9091663061306183,0.9630520456560643,0.6291418244737936,0.3112980484145631,0.9107867085267016,0.5208389580939385,0.9348206607513188,-0.7050679078874083,-0.5625344829569223,0.8026385811567516,-0.8733704450921607,0.8947585314428883,-0.41385784678439075,0.025527187010537133,0.7060477171895561,0.24986151590829442,0.028046662638207653,0.3464088419386222,-0.20343048261124563,0.4575787628216059,-0.8895429262975949,0.5372221298009576,-0.5880203009092189,0.0995143889693022,0.8847283499302565,0.3598758838022236,0.16901526402243494,0.5566229587245939,0.15582441286448145,0.6299740004985184,-0.6151700948932382,0.6744645413148878,-0.5708176221883885,0.10279872126840117,0.25722660707311484,-0.9939459657036784,0.5938679915396223,-0.4979558505951134,0.14535163027061015,0.06948124551175394,-0.6473014512755484,-0.7801916142843808,0.9807241527032047,0.3777520024853882,-0.1526234367249535,-0.019073232308060906,-0.679447472992772,0.7090470560587145,-0.20277731182640535,-0.10646574638767703,0.7189774415006003,-0.8198424332974434,-0.5515917213473951,0.05423605398369813,0.2752237514397684,0.2204721589737353,-0.721290651161475,0.8657775906743517,-0.9691155925260526,0.49106805229814543,-0.7017085025630934,-0.6857630745009251,-0.5348943697560193,-0.21351634977565714,0.38862238447710684,0.5772354200721586,0.4556931816635832,-0.8064268625239246,0.25267867731617066,-0.6412137291762576,-0.28312268416817243,0.7410048826480056,-0.7671248994067881,0.9852751322559743,0.8098351850052581,0.2082643602812173,0.29604294579760837,-0.7687672817715947,0.1820201911463517,0.5391136976668249,-0.6122070240536686,0.3963770970530416,-0.7666656172963104,-0.16632646110108196,-0.7943291362771914,0.8807468800261762,-0.06495011833073572,-0.6722674205337758,-0.5548274207289852,0.8832707290094803,0.20478131614848016,0.3285421789595553,-0.5643748552596728,-0.34164372389253006,-0.11596642078288677,0.08148657757278044,0.10294833571118844,0.18217220932728218,-0.12848868817145087,-0.051857426590496525,0.3134848423997587,-0.759390619428403,0.968382074940872,0.9926023586582058,-0.5996193083078758,-0.4808345490017234,-0.5840467583988209,0.367305518043588,-0.723155830342116,-0.08365836984277908,0.7148084692393353,0.7575533476229181,-0.9156749068256378,-0.8782547764731636,-0.6366267954953251,0.26368694693807493,0.006737970804527649,0.3145839401158801,-0.526436277928968,0.8743525801719205,0.2720376283004786,-0.6308612806243077,-0.8789596675855202,0.7332834218424205,0.7326101052198588,0.2993448454744667,-0.430584953472789,0.8367402306197504,0.9013905940108089,0.7480550752710722,0.4887145371489321,-0.04699464326189884,-0.850327229258915,0.07603911201015112,-0.3178786627182477,-0.8278284619324401,0.0030186634671660606,0.28885511508451445,-0.08720927898337716,0.06298150785428502,-0.4902525777086355,-0.738518561895966,-0.06127579079895806,0.5410946780376962,-0.8744236709330466,0.223268012032396,-0.4260317745623645,0.14059743089786259,0.874817145958531,-0.9753778297092293,-0.9901377307778523,-0.7449871516425521,0.029518158549042717,0.863365037132835,-0.18651874906591726,-0.41654206543186234,-0.4629149784025839,-0.8904286065573261,0.8632070739990605,0.2772237371632831,-0.8342166872611421,-0.876604699844739,0.24891517044779055,-0.13347274090235572,0.3923700070371383,0.04294896722572239,0.4905889148657472,-0.4915302126903778,-0.06127143291866943,-0.2874901885446719,0.733157731756449,-0.47690702608300506,-0.9174819448262679,0.8458032680358882,0.3752560672967975,0.7201098375931845,-0.6192676682025697,0.7854956773240678,-0.31983516264772316,0.4263277906727454,-0.5897318677237569,0.20222560542268386,0.25614587601184624,0.20237976201100372,0.17269130853455672,-0.876249317137177,-0.4969869945770775,-0.5900439648753395,-0.07138476890560197,0.059535035301758965,0.11867048709763273,-0.8912523882827126,-0.07492037115283368,0.9951452295410683,-0.3165362993745202,0.5926292481916644,0.845967098914739,0.7178378695244418,-0.9797075506603676,0.8355480836124911,-0.3052385231985084,0.9454253076797872,0.6144053342237172,0.9308908775610067,-0.17522307727612962,0.3089891891751215],"weights_hh":[-0.17758006309654273,-0.06401602134041018,-0.4931938901304056,0.030916618543072927,-0.20632929340648398,-0.08143010477176782,-0.9258419300809653,-0.5808073569209455,0.3377397789640768,-0.31987676192314485,-0.7860689635018432,-0.30851843612418817,0.7654701570611833,0.36744093805955713,-0.5053158641722533,0.11072375419682134,0.062030684772000466,0.624399484695014,0.7111751382021836,0.5801906432205732,0.33412485372831546,0.6201040087757603,0.12639729055382842,-0.6609531340789743,0.527665374571082,-0.05812433555784091,0.4314322300377178,0.743097467398881,-0.027780179992790588,0.9622486655700679,0.8775747943730325,-0.18765261976269687,0.8711596480638781,0.09005075605211266,-0.9880534336590885,-0.5446857402243965,0.529129543597604,-0.7733259740713159,-0.9664327386630174,-0.7391488527286638,0.09440861551395585,-0.11678514354828762,-0.3328849191579295,0.4949104626489873,0.9380501265601713,-0.4337455598471287,0.4434029474584311,0.23286661300011846,0.29122118997291846,-0.586649463608413,0.03215235528474292,-0.009574840022527953,-0.5469846081831937,-0.8942647708496019,0.12369894615259502,0.8441605929105807,0.5517211989774373,0.4522690038080244,-0.07071499749786181,-0.9136672245616313,0.2514587339100687,0.1971396771492242,-0.34570879423958023,0.9051474447168668,-0.3200735781730868,0.5602127745536882,0.03773912633779397,0.834593809042673,0.9666197213736545,0.8704359184916408,0.8370618250728503,0.6824404985999901,0.34467052429376044,0.9861677162257358,-0.26598034002667315,-0.1252100400173215,-0.04492623628088199,0.622303198037554,-0.9734394823835955,-0.029433402759545535,0.20198005296515698,0.3785155924712329,-0.3316686405900653,-0.49442740831441934,-0.9525181222100603,0.3091430535620132,-0.5958618295543059,0.12183633703628316,-0.9774196449870054,0.6496383213193535,0.3542268258582779,0.4151639596368204,-0.9441826572695291,-0.18292201622146953,0.5683507698936734,0.7090826256762706,-0.7950181778576708,-0.3189506222633003,-0.322059135934629,-0.751325358870436,0.42423936308267907,0.2638190469486963,0.6304641724680091,-0.43597876973927896,-0.9807103448425569,-0.5308097389004227,0.3075649937266203,-0.7640923770017947,-0.41738664619374255,-0.0776545487282041,0.42192898972598125,-0.08976774506064578,-0.670940286011499,-0.40978321565808895,0.3103946633477137,0.9817391118482697,-0.17581731861556826,-0.6016676125382179,-0.478899027278197,0.8674892287977816,-0.9376354382508485,0.2616963347269148,0.3448528688097685,-0.9475288367988084,0.3143321200141178,0.25619376203757316,0.0024358996936666433,-0.3138465172717253,0.48431762491190367,-0.7934470094731263,0.44518690929880367,0.14095642967421873,-0.7755093468887959,0.3121164655689208,-0.01340194205879941,-0.023204383686383778,0.6195669850079304,-0.9032752076937975,-0.964892768746795,0.5714904202304734,-0.3850274971416692,-0.3425869563114252,0.32258177148439704,0.5253943878860927,0.959241248101552,-0.12127979667713062,-0.6566282668681827,0.5035120830065416,-0.6012674424818014,-0.5318935788721129,-0.3109809567674189,0.5840369572182991,0.34299253379106776,-0.37953286451051627,0.38720713750947966,-0.06435158664566942,-0.5523930666287631,-0.24188526473345662,0.19986344965570435,0.6393442917911669,-0.4320909189444666,0.26242547843389774,-0.9637793063465883,0.2518857596339379,-0.9865145357843437,0.8504758914546098,0.6171659868640282,-0.3493596430213488,-0.31459933759015835,0.012577446012648874,-0.19106808504003903,0.021288956630248546,0.4867953170391808,-0.32900533914100993,-0.7043818819128067,-0.4213027722463527,-0.2101771338920515,-0.46348326292296504,-0.601898825069114,-0.6480015562171653,-0.8331555352010929,-0.36384021941803324,0.16243978177998453,0.6284219819335879,0.5435212294547072,0.1712205649041132,-0.7560859971709721,-0.10984055857386288,0.9553949675665265,-0.5070630021298252,-0.3498640401234434,0.4655534421376697,0.016817944118274086,-0.7377309612247707,-0.8570912200260545,0.9894144351376528,-0.8859937261783628,0.9693297098770577,0.9394867560506996,-0.12612668033616758,-0.4387232315201055,0.47796924233777904,-0.07086533935390116,-0.13146226834122898,0.7571939814454112,0.3133647853533701,-0.955768888864533,-0.4989243071513292,0.8896372697188673,0.6926068716153437,0.33987861093650995,0.17010323064779742,-0.7214805494401029,0.9545017842339312,0.17255194192667145,0.8970900409446032,0.36982071869303623,0.26769822884540573,-0.18200968304143839,-0.9506459730918129,0.4041344240388771,-0.198972237789377,-0.3611384914926943,0.9243925335716618,0.13785160598917923,-0.15076633856249932,-0.2227261791942241,-0.8027779423121024,-0.19467701360651501,0.08001955051087961,0.22648344290683986,-0.023790420674005164,-0.06758611871388198,-0.5106526489438188,-0.1877966035148686,0.47548515220603527,-0.22026229208021508,-0.2852036869461767,0.6336786101013459,-0.13170132153087732,0.7487573010794515,-0.8702703057778232,-0.1250454637336953,0.4292536992623246,0.18450592324699966,-0.26334165704952683,0.7198455670074684,0.4321269110021093,-0.03395076002898101,-0.6904516700418091,-0.7629944404326172,-0.7446847310104183,0.7980341411320035,0.22422372427603388,0.8779768720398464,0.7088326630199284],"weights_ho":[0.6161494688661933,-0.6769490770072357,0.08222301596842829,-0.686981987218549,-0.5685481174000973,0.5863712835187529,0.39579350406213143,-0.2954928036438853,0.8758926642920357,0.9784076801586341,0.9541663827079414,0.4661511579675883,-0.21969385747422643,-0.47076865624538433,0.3522262735825732,-0.45790364092392344,0.30451274612314916,-0.45891159416403005,0.2554989796317386,-0.781030114756097,0.756114705725788,0.4878994304549553,0.8993702784214062,0.33743453883702546,0.145294632786084,0.7408505276884338,0.3770050020925855,0.9682567724911846,0.2462085956902682,0.7933403708491262,-0.05901396255666658,0.7464283422305915,0.7691428580902253,-0.2090166099323616,0.21773806923439865,-0.4984855263794139,-0.0293519911593374,-0.7857535929229733,0.3206074421294225,0.4818749902092614,0.02262041221003419,0.15835898260035575,0.8664641014223673,0.2601946510662514,0.09684481967747227,-0.11536578897183314,-0.012468339302708298,-0.539621665653319,0.4552666036736637,0.6172013015507591,0.3429945333212463,0.2578139147432954,-0.27714301772766703,0.6832609723450607,-0.2456201183041118,0.6185841053660173,-0.9804595885963401,-0.1713908606969159,-0.36779988408110076,-0.437996949903136,-0.15336678822528982,0.0502333832844275,0.35404029239215107,-0.03456815372533861],"bias_h0":[-0.009800015743571366,0.06578422909758763,-0.4347178567380394,0.5207625823022128,0.7795541870043414,0.21552189115740306,-0.08159424309898133,-0.010745870956168746,-0.7735682893530544,-0.8073338545760862,0.7453375855934428,-0.6779664050611984,0.6305388435481432,0.4831420062118359,0.6625667852970116,0.04287630982384738],"bias_h1":[-0.6303207480747692,0.9994717877934234,0.2660820755664264,-0.7828533782952716,0.1862620012579579,-0.058751527858514896,-0.3153363006527843,0.13330989697785656,0.5751233144494159,0.8881122008107873,0.8196926132175317,-0.4842796240172078,-0.31275089651531274,0.9562892740545823,0.8152569872108066,-0.7839790207590924],"bias_o":[0.6545339368484941,-0.8895375081645562,-0.916215710205089,0.6584394284653139]}