{"weights_ih":[-0.40378085447657885,-0.05257605530619802,0.553832121840145,-0.24810475039834112,-0.3851404585899336,-0.6391579955712905,0.5718271074497256,-0.9365245408532259,0.17941215070930117,-0.6151049924418737,0.4836047166413444,-0.31053189005587156,0.8316148328651585,-0.2778609692968099,0.961811152285218,0.9732312347452621,0.2999774828028412,-0.8903753018386154,-0.7075342241864038,-0.4488383640127944,-0.5195580601898919,0.010931971554911879,0.6175186940897097,-0.3934904917734039,0.7359742487705636,0.6687908011967871,0.5297803879417942,-0.9195349430556601,-0.44240359782984706,0.7675549596375264,0.5879829306546394,0.6427421124876034,0.44311825040563657,-0.0973728722841285,-0.7323887864382579,-0.7298131929059914,0.3397623796964362,0.7794157106852719,-0.14872662621179145,0.9284282157140886,-0.8291162071600129,-0.36660633798998066,-0.20078575449833624,0.028598635444101683,0.2459317622351911,-0.036900604539397364,-0.37924814563740417,-0.13483328400243866,-0.9861132151928136,-0.40316822755931736,0.2315031090221733,0.2975236339055596,-0.07559193360665173,-0.49830709076274204,-0.2752870733496986,-0.15995498851964451,0.9921334970915305,-0.11627295577621077,0.9162912033397435,-0.19498337019284584,-0.2745393467913786,-0.14549571818981977,-0.16400575336047818,-0.42899913826952063,0.7008305564305191,0.47374079192684526,-0.020116359060575517,0.6616981736167231,0.9262403911501631,0.8243704405917593,-0.6436764259324161,0.1269881246992277,0.5159606308527633,0.8002256228735412,-0.24555396082667724,0.8965092491897744,0.25502565149896683,-0.7989990827958988,-0.2953270184333099,-0.07418530324744754,0.6830143125810544,0.3096682196872944,-0.05708396503228386,-0.544764253740831,-0.5098140943736469,-0.1807351724779358,0.7901523971276467,-0.5552089504944253,0.9518131935453336,0.766174235995895,0.5634603949983434,0.639196942953556,-0.06267809915901768,0.9450864622198203,0.026777138503566,0.18693984712939904,0.3383762128188712,0.11390171921690717,-0.37876202482203647,0.8813450913119787,-0.8412737835162707,0.7842077043040203,0.643475166942034,-0.09637181664476446,-0.911920036392172,0.7908457045472275,0.03965175478490579,0.8768572302812359,0.8037530274076534,-0.7343271024103633,0.37520362753093117,-0.6684577001467451,-0.36170216948615463,0.6359689077467292,-0.7786713518687021,-0.6966064737469395,0.3268953714916598,-0.3713183880813067,0.9256924187639755,0.8994560787682071,0.16407921798777614,-0.23953398189270803,0.8505303984626307,-0.7325837966234394,-0.4805982806157785,-0.5531049538133215,0.5075471721817941,0.7027088099834167,-0.5340331246052676,0.0035465989460123915,0.0518109916840197,0.018387567858169307,-0.9412860830166843,0.07301411961089332,-0.03454602385546379,0.09264002333257149,-0.055794335467628464,0.12484823410564827,0.26009625509963863,0.7453085000887196,0.9766293782049582,0.3996282947985723,-0.4151841501556386,-0.9606475310418958,-0.34295923284577867,0.06530733586040771,0.09462743768365023,-0.572119471635804,-0.16401027702339133,-0.5466951501151476,0.651852992865384,-0.22359412623488972,0.38965004723091456,0.3178181663088666,0.43620770240035056,-0.8749999097251786,0.2650862142102808,-0.11896238677560111,0.8277483448177461,-0.8702032263804353,-0.8561725587505495,0.7335353273601446,0.6223688506386449,-0.9144058903733165,-0.33065383739382104,0.7516011868167842,0.48410753063268874,-0.9701306869645645,-0.681127907364339,-0.7806173886779639,-0.13223095315254096,0.9310341157488118,-0.5691778126523903,-0.7561152187497799,-0.6502658545886519,0.9513797205534025,-0.17052109412249505,0.48991612602773227,-0.7021247952241412,-0.9652089184672545,0.45394075264617406,-0.3393447174193118,-0.44288686205563543,-0.443849537726555,-0.8711524228393044,-0.19731167154745544,-0.034222495493826166,-0.6325378856289474,-0.7406552182798865,-0.25821569609148587,-0.8139015954537059,-0.8089357121803189,0.4625468622497684,-0.21682863885465742,0.12444159782879716,-0.17684253562976004,0.41138014000318757,0.8945355793451317,0.2541423640496394,0.055297172322157806,0.08702060815238455,0.6117565361414687,-0.6983545104715223,-0.08656379494295252,-0.15749485773920435,-0.8342552345301026,-0.8192381858901687,-0.5852161009585239,-0.7686285065900962,-0.6633583260379654,0.36706648480895065,0.9951247087037796,0.768254502050683,-0.3821841759674742,-0.2699133436487182,-0.10924742029460677,-0.11888997973014304,0.26952746147092244,0.22308055739655064,-0.82830235582446,-0.9514648189430954,-0.8800297366880603,-0.3277497593940084,0.0723563294627163,-0.34444188206677206,-0.39064901401355256,-0.8719607351486258,-0.04927173871045509,0.7525345322322441,0.6205703745407913,0.44075220050166175,-0.7769286406294118,0.20220019774249232,0.1753317063834141,-0.8523023517942465,0.9390020926200551,0.9648802007116672,0.4889265374279719,-0.2586288544458195,-0.81333770583158,0.5293439815841803,-0.8618859628573756,-0.22419806197937286,-0.8667121677895495,0.5107275116083256,0.9929711637516072,0.6237731026389495,-0.6985470318379086,-0.3119026602950288,0.1059278383699016,0.29214431760615334,0.5589011000314299,-0.9032072740772146,-0.736134213533647,-0.5752342010732885,-0.4914513288555473,0.2910878814286726,-0.7743020656682682,0.3183466624580238,-0.3944283695644233,-0.8525149336346631,-0.44359155591774635,0.08339181275280638,-0.6804676675057812,-0.489598454336047,0.6922941503194526,0.6691475552125481,-0.7565212672268944,-0.9487113997880479,-0.8001526723582106,-0.9291904497472796,0.02402187476782891,0.3946034920614532,0.5320277297430107,-0.8357244605208203,-0.31312335984836515,0.556660949068208,0.008205080813274535,-0.06900102021125676,-0.16095936802447808,0.4135888133861576,0.5294780687426404,-0.19893284255014598,0.42307417287500093,-0.0022314139280670275,-0.852232820447026,0.8366162438719489,-0.32565581156842405,0.17748347030473255,0.5314984813081409,0.09948070505658047,-0.8123003005478473,0.7012592733021226,0.6759263541425733,-0.8884264216430502,0.7187675492825012,-0.3572638909281134,0.4587147011026367,0.5809790226078415,-0.05860261641159026,-0.9089734443712769,0.2927201110645936,0.5233589184583849,0.9927141097241843,0.6700281000295112,-0.6817960017216971,0.5669614272566887,0.6235533641205584,0.3654372441901157,-0.010769382773575309,0.8292286442822474,-0.28238778477635584,-0.17051558354659724,-0.35728338442396224,-0.548393789654996,0.07862600222809202,0.29633892153304986,-0.3196184231370691,-0.5478656520195553,-0.8649773095951863,0.5986095423997158,-0.9738874967468287,0.5154916183511429,-0.0845459887962734,-0.48489672680536855,-0.15721962209777374,0.7663614707932276,0.18061691887970377,0.45094880446222896,-0.19751216690116435,0.08390329480395553,-0.8347460871118175,0.2140193992593229,-0.39165635885227856,-0.7583800441333479,-0.7033287879745294,0.4666795861873736,0.6537073010798777,-0.693018558890115,0.9777992933362762,-0.3267992034779441,0.7077985629503918,0.5798695276069177,-0.6772628922593695,-0.2830056680260311,0.47196849777837846,0.12627782856651182,-0.5824087145472783,-0.9078036436519259,0.7955694554990371,-0.32961444066637835,-0.8327952101792235,0.14380285525202385,-0.7131737608806079,-0.49981964351692443,-0.6760768388649574,-0.2593290574443101,0.97880151007866,0.019618196507003027,-0.28263494973027226,-0.1782353224831541,-0.7393745634371833,0.18422575452563317,-0.9347036170268439,0.23199751874952645,-0.050647599723365744,0.4747054671338462,-0.6055464481897022,-0.1363278608119627,-0.25573089941921356,0.33203563941600667,0.33023179994808705,0.8088349377119946,0.889267122653479,0.3600213658139888,-0.21156597201777294,0.8089768732560383,0.017109448499371238,0.3262526760722746,-0.21756228693855828,0.7512890574684432,-0.7760915085188409,-0.11192389753907661,0.3403652400118513,-0.2518468014495763,0.8543672039556294,0.5175138733920981,0.11675770759993442,-0.38707192583561056,-0.8539021475943374,-0.8056229682438203,0.9190203919291424,0.026525627945451324,0.27398831026992587,0.21246925766145353,-0.5312836328931114,-0.1671603343552659,-0.7673534899978554,0.9198213772715882,0.5562782887704392,-0.2273386811839746,0.7140183440924177,0.9629443410216403,-0.7733026823508165,0.11780866633961895,0.9340058737265982,0.4914352675789464,0.4292306334836451,-0.7698998547183904,0.2800478478910573,0.1996979593874635,-0.5623729200603618,0.13358458794832884,-0.3138410058919414,-0.5377434045190665,-0.02535227715714461,0.11257585941978787,0.9619299804702415,-0.8963522551537513,-0.34473993592916585,-0.015738851657707276,-0.47550871107780823,-0.5418476245975146,-0.8884428140032548,0.2524896331269646,0.6343650958051021,0.5771005702079703,-0.18404977339112838,0.7776969340755409,0.31131887053147156,-0.17979273751357439,0.5325115228308939,0.4142022728505397,-0.6768761967724373,0.40364783252271863,-0.7905625585172429,0.37584730947910683,-0.4108619517361969,-0.13406594537877736,-0.5952788432557652,-0.0930007890615967,0.663853523304156,0.09907807013903036,-0.5906430066063135,0.14445382857398426,0.353420247235783,0.6041772688184179,-0.468668386771655],"weights_hh":[0.6999544900993198,0.9452834138142621,-0.7036596474230579,-0.6429482275806275,-0.0011332049614023454,0.2604000147399994,-0.7343407172140508,0.3634917942102629,-0.31415813369868095,0.5024028378920313,-0.07445485316230283,-0.17689603963559763,-0.2704459610719079,-0.9870706843282533,-0.5454236595543205,0.6171825392543981,0.45754556977106353,-0.7799383775180226,-0.33402715668636995,-0.24937527790081537,0.4443866983984588,0.24634355337446956,0.4641815565085674,0.7334945055381386,0.15379701093275466,0.032225097728782126,-0.2805995106366346,0.4043373267552839,0.4009850352594697,0.3257029894417738,-0.6781152206100935,0.7075783710147749,0.6346496871517386,-0.41244949426005606,-0.6159004968784554,-0.3069622770777294,-0.25391769111560913,0.7340120864415622,-0.05037096290525511,0.6200747967103892,-0.09376968706973798,0.8083675998682356,-0.917732599907007,0.4832584816064016,-0.6099393234789972,-0.056263706249514156,-0.5688143696852623,0.5217692990972942,-0.15950508105438121,0.44636757972437,-0.052420326331499734,-0.8976571473725947,-0.26726367521023353,-0.025515765833908466,-0.5864892582145516,0.21906498496412108,-0.4358340151251763,0.6500709913641738,-0.34624499688271126,0.7145294676416325,0.14362965224014324,0.8364560713964067,0.9680249327071251,-0.8807638787784826,-0.7635567779784178,0.155542900766372,-0.5884714768328492,0.700620868610961,-0.12645039459068208,0.10659192367514425,-0.07504034837261897,-0.6999012501646751,0.45769732350072667,0.9995826096791065,0.1192544768892001,0.9285818926399112,0.3474834955399235,-0.06935653717030932,-0.265125285415055,-0.005031822198068303,-0.6274417350167387,0.3883697909060626,-0.7469888539499703,-0.05689852997787859,0.5084682306590227,0.03876634459804795,-0.17028202383519897,0.5220549410730002,0.8565191967567731,-0.3923933172360312,-0.9503329429056306,0.22013593465821368,-0.6028801810840332,0.1181651727608406,-0.7846136152960868,-0.7207982264777741,0.9828265701111423,0.5020924840426964,-0.3118414501054845,-0.8240529312570359,0.8115693496017045,-0.3781335073645824,-0.587060582766981,-0.4477754194802841,0.036310524327842764,0.023528615632518513,0.7397951027401457,-0.1479459071622633,-0.7551176383592317,0.6126351444057307,-0.7537130930640525,-0.29192950212383617,-0.7020406506326982,0.4329211510110633,0.32734267950283047,0.5110775070203044,0.7155472032423551,0.3363002867942735,-0.36482662837857127,0.9886301893444109,-0.07533836354909629,0.8046751347091488,-0.14583756616981391,0.2592640301321627,-0.5228222335231159,0.8872154797737113,-0.3804541641471697,0.09782505775897765,0.6247455530775377,-0.5418655837137445,-0.7327603266008935,0.822017140348817,-0.6193216599825127,-0.3877001068808057,0.5816377199242642,-0.265445048261167,0.8230797606208087,-0.6192463868559297,-0.9179195122982229,-0.33821327363197806,-0.404581897696604,-0.5327400896895083,-0.19375991684540117,-0.5074061758599973,0.704123137103418,-0.3111281193022657,0.9002644732058527,0.13556945204898052,-0.023949281162557456,-0.17315308123136242,0.4822045959365213,-0.03884538829823825,-0.8320040757366589,0.9524144606192257,0.7388937755288478,0.6836488454571898,-0.8031006994281469,-0.3099454603580529,0.8119654943056318,-0.8873672176726455,-0.9515184018367326,0.4590730625028989,-0.7045215267480758,-0.23820792054995654,0.3539520276963526,0.71090138969001,0.06369929725339207,-0.8605126690591522,0.6221290560050858,-0.7920842159765469,0.3760986012613019,-0.133110174536208,0.7340767151586822,-0.5577183169166764,-0.9746843246174743,0.9046554434912195,0.16879417350419468,0.6237372096633464,-0.44990796187229143,-0.6407053181413562,0.2861338110668532,0.1816503844769004,-0.7366569127607487,0.7134059798165056,0.13335797930839743,-0.44249889756059213,0.48762497743730004,0.7288107088803819,0.013966437277557864,0.9516500887477815,-0.8839599851461002,-0.2902216426112383,0.2907069533950455,-0.8902388218854189,-0.3118361772110585,-0.8812355300899481,-0.0635638002851362,-0.5086226002196503,0.3491298538254597,-0.26344449950076565,0.8882313297287387,0.5367548896514458,-0.6928696601469209,-0.9452805542035914,0.7276902456799761,0.6561441784326503,0.14199296525906902,-0.9354610935048082,0.2111026664325364,-0.09265143023898559,-0.7873264589254767,-0.20995210473493664,0.5495326903320485,-0.3985953701342446,0.4151035760523385,-0.7448926192655387,0.6924577538572902,0.24835833002679886,-0.6187415049666347,0.9381801158018912,0.5986881298941822,-0.6016135168687577,-0.16015191215909708,-0.6701950714958322,0.7619313663976901,0.20340180273579977,0.8810265342460635,-0.32245899682805534,0.5503300849318924,-0.0010048696668110146,-0.8794705805950735,-0.3829174658022867,-0.49277926089881574,0.44303187693839496,-0.0964601603273898,-0.3009581237403187,0.41314130420393025,-0.1300415037435514,0.9789775949822934,-0.6963635838776148,0.5313763773800624,0.3415870077091172,0.5752383405581705,-0.10308595611215776,-0.7128480821032896,-0.5430798840749957,0.3101057753048535,-0.4922140506335233,-0.607626960691708,0.17562192475410843,0.41304821678914094,-0.27713102654749777,-0.09423411441903373,-0.952620077107545,-0.7582845152113769,-0.21663744573402544],"weights_ho":[0.12778788940731656,-0.3165287989142218,0.12686534338103828,-0.5451808471000674,-0.5278589957582964,0.5905692090171393,0.42187892815051375,0.4823552436426757,0.1044121984762656,-0.2121704642226221,-0.480011716524261,-0.4859029800567738,-0.8902715567857775,-0.022893397408882965,0.9193592904383079,-0.2858766774423551,0.5989547914485571,-0.9539220298975226,0.3732993045265536,0.5260083744511523,0.5690330366149454,0.8928784022257747,0.49907812984617306,0.7185702197290655,0.9132061882396583,-0.6522449139361903,0.16026183700229812,0.9070609901503321,0.5139891421587681,-0.4954418898280226,-0.4395500304353881,-0.23288408795565352,0.6069625427318495,-0.8342154015089038,0.9172005351918662,0.7643606764595172,0.6132263771333333,0.9458646887033433,-0.4676299930152581,0.1938491491376999,0.20988064146013596,0.7923073933666829,0.011049757379578695,0.36166718132525455,-0.7609196707681798,0.13405743706322748,-0.6929659343397252,-0.6279262130565768,-0.6004652028830464,0.15684287303107025,-0.9853395488639936,0.5007098495893509,-0.2887185264522838,0.543453757928575,-0.6771231921472727,0.8537558963212151,-0.47473883436901887,-0.8862144058390964,0.5743757693310003,0.7148412810178664,0.3116750461359037,-0.5667542746609333,-0.6433686269243308,-0.5519500619133824],"bias_h0":[-0.05255132734212431,-0.6544059159901043,0.8899962835429818,-0.4987321479609961,-0.30171993811999775,0.6638680755243991,-0.3220408423538219,0.9969656613455156,0.7086754693454085,-0.9009476226163289,0.607674964085271,0.1890880678470941,-0.3460577222552377,0.7635198313042453,-0.3310723710774579,0.452816347882417],"bias_h1":[-0.8104644300266883,0.5112813065425088,-0.28104714795453734,0.2705571087613985,-0.8129410240028263,-0.5972866053497288,-0.4768557028577143,-0.6825357670292482,0.7553638188010072,-0.5473533341039991,0.614149581725028,-0.26476376066709695,0.4826418945831261,-0.8798655565747064,-0.08428266028803044,0.5680142081110782],"bias_o":[-0.03320009867031448,-0.0809146735929267,-0.6694370506166356,0.941336194237347]}