{"weights_ih":[-0.7618308613077873,0.09964864086738645,0.3445303418216008,0.5956929254299292,-0.8030076955022156,-0.8171331489523634,0.14436545507492737,-0.5947720031906465,0.07144702284426585,0.7444100743905866,0.6331413825254271,-0.9132287532628238,-0.8363288067570471,-0.25806321974142654,-0.9228830193684281,-0.6220101928125477,-0.5651485538397325,-0.2647058375931135,-0.12016550667409742,-0.33207348194745423,-0.5575740161121405,0.41364569814268437,0.11125745282996391,-0.6440779880103897,-0.6024856989816736,-0.6963810313926442,-0.16634979878204548,0.05213889733990262,0.4767565390623709,0.705655326273666,0.970688328796325,-0.5941488539142432,-0.6849775806264062,-0.8931144552025032,0.48999642387675224,-0.5529207397765128,-0.10848629691987255,0.10676315626078847,0.6829631482700544,0.3435564338273933,0.08599629431788114,0.504688406768526,-0.7948430757577281,0.0174881264371467,0.8082084392407836,0.7394203514479241,0.6371966022089357,-0.3873076752474931,0.4716054857923233,-0.418061321601902,-0.3340759876885242,0.5183770893474615,0.5608647562222895,0.9682179654383427,0.9860579233755484,0.04674923835733091,0.4249143120126906,0.3227927132772106,0.3594961822685334,0.5042147753538104,-0.3954403985080519,0.08237457791493408,-0.04337238957726841,0.6786560145400322,0.096395399899043,0.70581768522742,0.8629008292399571,-0.4650499007873645,0.7280332934743154,0.9836520664137114,-0.6603540442763896,0.8105540942217941,-0.8167904020348711,0.18054850768215602,-0.4937941777745729,0.6719650584124017,0.38665477762243605,0.24553852636229,-0.000624744139581912,0.28138439969296214,-0.08282007064511077,0.08696336859717846,0.5491699228829459,-0.9235137780693183,0.26121278933414316,-0.7756063034005969,-0.22071474511027467,0.31562267838630276,0.00025766152406769827,-0.23227846506049143,0.31441612347565107,0.5137537371740846,0.8261806191726873,-0.9735211329981046,-0.2262236118188501,0.5347267088775045,0.9884651740971337,0.6863693490352412,-0.7043236243351199,-0.550658539833538,-0.015425049190038953,0.1496889247384523,0.6067998664343763,0.669850351434035,0.9051004926937534,-0.7316880042365026,0.6093186347096051,-0.32051666070009466,0.2694357155970861,0.6957054385919181,-0.9722411999416147,-0.8595398950380133,-0.8517146292182949,-0.230572869397621,-0.043205078354203064,0.5280735815227069,0.8709116028632771,-0.9306734414548927,-0.814169326903116,0.16333509992846662,0.653912993830887,0.8695366150274932,0.939148951407504,0.8904389769869139,0.5385760775393047,0.05334915924761008,0.9322788280409062,-0.9311662838299031,-0.4883357142286684,0.38439995071020827,-0.9873201573732586,-0.8817146358718069,0.34651556415835416,-0.32641040471616356,-0.7910028183999065,-0.5262127563297438,0.8363825257837598,-0.23237319653248445,-0.7153724415520977,0.10779656007731919,0.8377854043444908,0.8317199332115357,-0.6583028443602832,0.004650748105781366,0.17596839507342033,-0.5171764220542685,0.1619133725935984,-0.4735259815904451,-0.439795282241227,0.7364002615254226,0.3913567578249577,-0.21572141286608892,-0.051455710876840755,-0.3614063808430723,0.4772429572798478,-0.6430547891132143,0.042739063185200044,0.22156787886443796,-0.5832552524138652,0.14026537474608913,-0.0806562029374931,-0.45648123168510346,0.8497100728637159,-0.8270240416158483,0.4932438806501538,-0.1802480968038167,0.8806487439589805,0.42741011954436514,0.2172558473439894,0.7229471504610168,-0.3734449812442968,0.1751686488338644,-0.2796706542493623,-0.5679164211629186,-0.774320807303442,0.5347181119402828,0.08659941740920951,-0.3066341923911591,0.42138815508685035,-0.3150673433040947,0.09702122434231342,-0.02525691104058736,-0.1364329651477807,-0.5182444772623838,-0.6953209211834257,0.9749056671872238,-0.6051991556201255,-0.301891112454455,0.7692611897988575,0.39142893372824616,0.9721241257044189,-0.399565385740128,-0.14338481569432404,0.365248406451016,0.48414336703228056,-0.5545322604537575,0.8251458970687422,0.6238413578750501,0.2883786913046811,-0.18872310674152404,0.33546104634995144,-0.7122616129437267,-0.3133727992118487,-0.12338362266044278,-0.5163431896670292,0.47116842843445683,-0.3955719810032641,0.879498208002049,-0.9378348850078975,-0.5251931587356067,-0.2975088631632321,0.7644574146722605,0.8031631388014762,-0.6157524297260484,-0.1623045590526193,-0.7866251046398665,0.7015985567407468,-0.38403200758954115,0.1823171486384183,-0.5861486927318911,-0.843916044524792,0.1059131048413402,0.7744748005425683,0.18186637575876086,-0.10237302255836567,0.9633186043566189,-0.8336518059338625,0.8257737912787655,0.3843133371998715,-0.8186299755741515,-0.4975978727727217,-0.7573981045621025,0.19106123351800686,0.1589672622900682,-0.9452370527248448,-0.5309436928830049,0.29435361106914515,-0.6753446879031106,0.9744617869736447,0.40904899479994383,0.6116254326200536,0.8016428916517149,-0.810108177411828,-0.6026476813874975,-0.615784461480023,-0.054825317220364767,0.02893521747291472,-0.7562424276758435,-0.47726077396215705,0.47222835515238093,0.49405993789050573,-0.5482768080574065,-0.9568744936940019,-0.1292185927911884,0.903177349410778,-0.0730315399629109,0.7506138555239745,0.29286301367273393,0.1975996510131759,-0.10213188006271712,0.6901559432598037,-0.2626238237572125,-0.10273440730617867,0.7303881551433429,-0.830693979292106,0.2620448351105844,0.7529082928575175,-0.9144731599337412,0.6162157762057607,0.1554255802472717,0.14175816096357563,-0.7939387382536673,0.6666723083919417,-0.3716267114772014,0.5656508646519494,-0.8645277630080874,-0.04981258402563027,0.2992909530188692,-0.8934662484800411,-0.6684662441763762,-0.9251431582288325,-0.04392822261737517,-0.9230087089688233,0.49235708250825994,0.6731337387055223,-0.3908192783592157,-0.9932161958183738,0.15069961791103892,-0.20112770910721678,0.6423609769234597,0.3070757251347185,-0.860495585941871,0.20609523830689347,0.3531849051674889,-0.680640386631282,-0.3701920587738168,-0.2685240438848364,-0.7311664716744211,-0.5032413732470706,0.18694474578966025,-0.6922702469724509,0.30291458567372676,0.34612861424287167,0.7412620886406198,-0.3615753128579575,0.9811302677795466,-0.10501062709589548,-0.8741431311846681,-0.817267763756024,-0.767549621446775,-0.03531703907747641,0.6915820200491491,-0.8392582443998939,0.9515134408472665,-0.5636065632792158,0.8251227158104097,0.913828008128089,0.11026604931559914,-0.8765144170506869,-0.3884434101627754,-0.41867649121604367,-0.5251011212664511,-0.07795588462814051,0.9908265464076789,-0.3106003468343055,-0.7755436526439843,-0.8994936317707012,-0.7037786244550484,0.5111238762084158,-0.8116438957110179,-0.5292570893257229,0.7733562852524334,0.04790853377953974,-0.4809574125607958,0.5489341058442883,0.21575869658425018,-0.30458090883280575,0.6004803044490059,-0.7723901155582347,-0.3047953358840503,-0.9633835126353552,-0.9336854021569985,-0.3620677965730694,0.1670495508043912,0.9879262460967091,0.5285671979138369,0.32500553438879165,-0.049676785306888904,0.5317506901124345,0.510664278330117,0.891922210446064,0.9581872045155697,0.9072911321281536,-0.1983171804267072,0.6283614943557585,0.12220270886148255,0.21013446072614728,-0.04197068942756088,-0.9332951781888403,-0.46072654414196124,0.7415077470756333,0.06257577646500789,0.6307325563382802,-0.8364641064961849,-0.30582838817617475,0.051867664087241305,-0.23480980977045074,-0.7935160012571105,0.8966827528540171,-0.49243364485095964,-0.5035641659152359,0.8199939733514063,-0.05116582056697361,0.13271201937040744,-0.7786214755938623,-0.8212241570996421,0.6811827660667789,0.03644000279668669,-0.8452113480089636,0.9811307390332569,-0.46714365878644615,0.69230367578285,-0.9518525847995525,0.9542494009131668,-0.8088366952059334,-0.6797801895054205,-0.9093795508626068,0.3676185792311746,-0.1565645434982772,-0.38130333788989157,-0.6300814392608762,0.7369922361665622,0.1651739420439835,-0.48376544489640727,-0.06352582685088026,-0.27790079056295247,-0.4706834983858177,-0.9598329872497067,-0.8334340805730516,0.20359600395589017,0.23237093569727252,0.34501077899945987,-0.18060528350699134,-0.3366503637045548,-0.8114743866207355,0.8039546659945507,-0.9885868453040774,0.7494105835456419,-0.7334540184362062,-0.08590173170315807,-0.10074001987632619,0.8212023677341245,-0.6739597401535573,-0.7558126761678676,0.9988253495770336,0.9937369383598611,0.6531835859302291,0.2054199550263729,-0.38750865825950087,-0.23051104587144722,-0.0740473966985371,-0.013595929358298786,-0.5127686119317572,-0.4168960424022823,-0.014720016343076514,0.9339771798353325,0.5138351458284292,-0.8465999838823739,0.09434125969597007,-0.4640242213600543,0.6697284800326846,-0.7708885373475585,-0.49268028580087186,0.016066363362927882,-0.7687697668986402,-0.20350025222381518,-0.7382464641697428,0.6181612547732169,0.5724304056756648,-0.6295363246475034,-0.2447346162786208,0.8068736885206507,0.3339128896678847,-0.42737237233214653,0.05513025331187249,0.9406939203331983,-0.08171817435583262,-0.45787456513897085],"weights_hh":[0.41208598765935833,-0.8669926836701614,-0.3374249956991979,0.7923544204759894,-0.26540426949517837,-0.6712190296591567,0.2450041383244741,-0.7662400393252795,0.32304343269375635,0.7856488727167994,-0.7738393217228348,0.8821820127430111,0.11120722228099722,-0.5927889227702587,-0.029232788801588194,-0.5816963915948643,-0.14777377311085682,0.4116848144565599,-0.6905238039355188,0.4661377973332539,0.6293544838915706,0.419453498385304,0.8387758966454342,0.23778692161177029,0.7010802468984216,-0.24905215284947202,0.17388149394016272,0.5300252188590033,0.7865504093720763,0.9808515454199549,0.1336566493946778,0.7760554372355257,0.8998702155085356,0.5507121987038255,-0.8660211744465056,0.8495260043399955,-0.5650984132536703,-0.03392809920060991,0.48454194849483656,0.026888915067625696,0.06359955228186354,0.36198377100362467,0.6013085723525071,-0.6792284103877526,-0.6987562700047751,-0.14355889391551413,0.23513855605877687,0.13950980602192686,-0.4051415698344816,-0.455439522458438,-0.8820601800721706,0.4560819550828952,-0.7250773488711517,-0.4477017968333925,-0.3198418442218902,-0.0016029380101385549,-0.8479435352396592,-0.26756231809866304,-0.5119420989323957,-0.8525659735993067,0.058591385543639074,-0.32374570082590104,-0.6053488234802242,0.008775617313349748,-0.3806194473859792,-0.08493294117405381,0.5202510257695252,-0.2730573513089962,0.892948663517894,-0.5253106361818554,-0.7368302362608488,-0.19727272003205165,-0.462873344048367,-0.7774527913912215,-0.3376973867348536,0.7119316658011021,-0.9566721199566868,-0.47572624432585253,0.10668608410607172,0.49341154591926295,-0.3703524070550779,0.3384279650648283,-0.6862820230528193,0.5647452639474952,0.14037198774109227,-0.3033990598324088,0.11073235627135336,-0.5346088351287412,-0.927031304523334,0.647137182561976,-0.25066267903247996,0.46645488244453714,0.7725752562160553,0.16238436142885537,-0.6345856436439914,-0.5447665327310178,-0.6447193243707598,-0.9442375300194381,0.27115127304932596,-0.30720881305685266,0.18483232918726245,-0.8272344600691122,-0.048689337095977114,-0.6012536804352873,-0.3122379688240515,-0.1505683447018633,-0.6742063384896875,-0.24462396569210898,-0.00004306219995364735,-0.20379039973888835,-0.45730288147826936,-0.38596217175554637,0.48022158309065643,0.278346964804671,-0.3246555502444757,-0.44996992777349587,0.9960212633551844,-0.252483755542376,-0.20206113722588648,-0.2819753754470664,-0.8870211903532594,-0.4937151384017817,0.44426058232953025,-0.3078781296670763,0.35882088639309107,0.6222086236930073,-0.4925937046254565,0.6563942084615435,0.6646687781650376,0.7172735551297607,0.6355025537690835,-0.6529664259565746,-0.11002417275279863,0.6676083049228552,0.2395877700425244,-0.09166011151359266,0.559315808712936,0.9020643260450407,0.151333680260201,0.03370470946237747,-0.17719660758954303,0.822646411229623,0.5332208081246959,0.9550971143822433,-0.9733818991391969,-0.3574063159239045,0.5399736213139479,0.39739611577063694,-0.09767446455609807,-0.24061160409046312,-0.8583742174978801,0.08072188108221545,0.7861266669670879,-0.3240846142439806,0.3366756194016536,0.5948356391735006,-0.45950174331400895,0.9482379893570223,0.41315029702367934,-0.24016269854091465,-0.04082993829628423,-0.03344939346872233,-0.8278556556573271,-0.658056935203341,0.6100266987595802,-0.30844898443628255,0.9873630750718969,-0.3383719033126611,-0.5448813844756033,0.04820069070901711,-0.19834728056239093,-0.5558317321082478,-0.7721827426745005,0.36924313799607966,-0.2395707946480483,0.44215088044329964,0.16444823031880818,0.07655798887404686,-0.3432647349458344,-0.4656369860803504,0.08076856393485343,-0.06554322830671255,0.6493962098815662,-0.6232322399338155,-0.0057581965810789,0.5741060486139398,0.32032401690139234,-0.2088580256399062,-0.4094733479064503,0.5874216179009046,0.6096414786523261,0.8088418149659193,0.2873718177482618,0.18013009644391853,-0.5346496050090528,-0.4746897763677249,-0.9103020953811383,-0.9250757736899,0.5351690226014694,0.4718150156121459,0.8042501232866086,0.4648704656639864,-0.3337492638630486,0.24085098235369307,-0.17688419094825925,0.09834731216624837,-0.6171852928290531,-0.5033400908631112,-0.37116925581089144,-0.12797444456080398,0.9009465235226122,-0.4557358561537457,0.5651491645534457,0.5804604988895434,0.31631150910969463,-0.738016471519672,-0.7952495340906145,0.32559815026988637,0.4431103782344583,0.8635635849495553,0.17546709992680087,-0.32205521437955253,-0.7215419275520756,-0.46127157068189284,0.6447439591309867,0.7353205508302607,0.32370172202304404,0.23613405701156975,-0.20284798507038126,0.4978834908717813,0.9384892870076791,-0.12464860102264264,-0.824318330359251,0.04378223144531801,0.9412916007714631,-0.010955266655809703,-0.22649262109800827,0.22112268309336836,-0.37488873843161397,0.8869293388639883,-0.8960611135352732,0.5991789457107375,0.9274836608932937,0.14784556679555427,-0.8988891707553859,-0.5605570319306155,-0.5283874491488525,0.26376946568904147,0.9656196946887055,0.3286547874938437,-0.5381007854778777,0.3130123748146283,0.3629418218549756,-0.8059903197384768,-0.22834299187402496,0.9139679911069669],"weights_ho":[0.28977982916125167,-0.2885342091072651,-0.12576969985600717,-0.710387601418665,0.13491479888904445,0.443504944182759,0.8973151208488936,0.566765989250809,0.9546254875353164,0.12209756638040625,-0.8207861801993357,0.9034046961413795,0.24571496782841717,-0.006211032557713159,0.29580169055763617,-0.7283616660804837,-0.4438212965495325,0.7872814947177933,-0.6981148913509796,-0.7154996415151091,0.7664937096130675,0.6950497571139036,-0.3373535978919573,0.01740900769394771,0.5334032317426447,0.22998191874218032,-0.9524541812673633,0.00925109685272818,-0.7796245789546494,-0.12416148710314245,0.6541085647179878,-0.15942817101997075,0.7228285049217262,-0.1845270861505366,-0.9074601180726543,-0.09801481521772182,-0.49692883447014724,0.49438238925237776,-0.8020669673584977,-0.7346172958617312,-0.06485144764280903,0.18652800481554466,-0.3539559274219988,-0.3809520961691153,0.47313741152225197,-0.36618576012145065,-0.06692998258126459,0.47467826265571733,0.13187706736619376,-0.9519413117855748,0.9353752203821089,-0.5977774281209163,-0.5892584209370499,0.4974908463310008,-0.042329892018170945,0.813177058196116,0.9852540084769419,-0.5227001653656143,0.9073339184817493,-0.45794518171537346,0.06965984829423033,-0.10326130791359223,-0.26156445770938075,-0.008775366483778635],"bias_h0":[0.2701654905797146,-0.5235450272071871,0.8386260094763565,0.3568645858064179,-0.6018524114607067,-0.8115079932028841,0.8855506379648561,0.36600688094625844,-0.21191890161296945,0.6682980788835111,-0.7770339397932355,0.9234761692125848,-0.1832000117443644,0.46775456212837807,0.5795317638600035,-0.6826093560667352],"bias_h1":[0.583915320918482,0.48042631175023187,0.09934104137680966,0.6137128616433092,0.47845672177087395,-0.7586778114153507,-0.6239717502392388,0.18691367681657667,0.38662023900043807,-0.3776684888837283,-0.11848447051360211,0.4627962062579578,-0.28185612440362195,0.3627728431423429,-0.7995323387009481,0.028554543806992072],"bias_o":[-0.8023312702229164,0.8057866061938339,-0.8766698476005954,-0.9059530435320806]}