{"weights_ih":[-0.18111443813772565,-0.983876047993486,0.1937939342467947,0.7582766183554672,0.6730035256954707,0.22873886708681823,0.30787830473807865,0.7527822966986868,-0.02964490615975013,0.6189782641507722,0.13055106249748816,0.4590989290476304,-0.3339565060636547,-0.8483658450414469,-0.8122597751605389,-0.45846451082182504,-0.9228413802580446,-0.5292992555361331,-0.9529982527376559,0.6085949439035905,-0.6851556480214305,0.44001295720126987,0.051941380356595124,0.31148430876280586,0.6567424458357116,0.12299414602364345,-0.7294658025255638,-0.02866392289516373,0.30020642638657713,0.978522179326822,-0.3482291339472219,0.6745154486671012,0.4400406503787666,0.9537087762475609,-0.9481429467737146,0.11112949011535167,-0.4404607348266014,-0.2794311121720845,-0.3203806071472133,0.9370079048191846,-0.524448437265483,-0.4508463802954119,0.4691939412696391,-0.36633182564819267,0.11190899043898916,-0.7069001425122154,0.3162991814447573,-0.17780971310166338,0.3747025384247249,-0.46831418717364803,-0.6195095849543872,0.7467429058768127,-0.47119868957037747,-0.7120369630006065,-0.26216572929891435,-0.1381239371210381,0.6427896113062805,0.20512295877411013,-0.10966560720707741,0.5248078076105767,0.3071879509164688,-0.3163752571086593,-0.06621032734137478,-0.7610248513413336,-0.22739273663371784,0.6169039198243738,-0.6434255766231338,0.8448095705728818,-0.570093015507531,0.3832433610672028,-0.936906917482377,-0.7605212329464106,0.04200719636723904,-0.698808394589552,0.2202977796925336,0.9902645276380819,-0.010297324091838922,0.957068388124863,0.07434006303785878,-0.28844495188403396,0.31870760509054574,-0.005288279075837288,-0.42431480368382113,0.7690791522398279,0.7661840788071108,-0.48645523164378557,0.8524436446141386,0.5994224519334357,-0.798875756040166,-0.7390388767018847,-0.8672424316569536,-0.7049384872625513,-0.1255256716594535,-0.05932800576174313,0.3495583062895218,-0.36595054266179083,0.9290971030562754,-0.3970912681651626,-0.9472264521944491,-0.5677532236169476,-0.33919758976706915,0.9850303781421714,-0.07114120503697285,-0.42083872474316153,-0.3900279900569854,0.36172543867912865,-0.3270455917537154,-0.46594388826046695,0.09322142154553892,0.16536807788979302,-0.8920483849877423,-0.058972225626512165,0.04131044463320932,-0.2910405633824624,0.06277032505507685,0.5686389022109093,0.8446943830965461,0.7577368826932673,0.8376679410868073,0.7793614861169307,0.9331998122002938,-0.8580540350618795,-0.11390943749430771,0.6757394872566735,0.6738774687289382,0.669064621639146,0.40419745922644834,-0.29910186515141834,0.39832752625952583,-0.5269028293464109,-0.4113386050563512,0.8486672619063003,0.4335772897121106,-0.40095975453742416,-0.013644276302650526,-0.42116069978586346,-0.9171564526506459,0.4921749061030254,0.3538657986781695,0.23509868890191976,-0.6211996801510737,-0.6118636708927823,0.375139192158479,-0.4879135581459433,-0.48327337528798275,0.5532678230254324,-0.8175218505106567,0.22327407383194564,-0.5583419630459237,0.8261621823389518,0.27191286459476727,0.25463512136158095,0.5616202911377572,0.0997452649850945,-0.003853701134553189,0.981600594437191,-0.8415053287663072,0.26768490898640684,0.02002216165088866,-0.9971955407576263,-0.07534414853100424,0.4127280611417896,0.837862022360665,-0.6180088603224339,-0.5066734282894549,-0.7294777098820655,-0.9167586210529051,-0.7245613467025254,0.4150160406293564,0.5169512753547498,-0.7521667977254276,-0.8997548351462814,0.30297308651981236,-0.4518207715971627,0.661718498916624,0.5153686650126228,-0.234977312974469,-0.9583009803885398,0.7260308857780977,-0.5821059771586798,0.19717734683858712,0.883016741544848,0.20463579810269694,0.6018189904269646,0.6885492955203691,-0.3866431759331921,0.043827787412853425,-0.6101552811386755,-0.5046592421788052,-0.37135931962475666,0.45958213253726954,-0.4135574612580015,0.47803666514371734,0.3126435851303353,-0.9802307344527708,-0.7869895182903668,0.32181714967525576,-0.1905969819354847,0.687613532976068,0.0050632252464568595,-0.06129260076337095,-0.34125934981970074,-0.9980640412455608,-0.7637737023823472,-0.74056821859687,-0.29948283253618224,-0.9797774261706411,0.3757184118902819,0.14637388670949858,0.2893737638865248,-0.06453395730599798,-0.2793344211460358,0.8497337980688247,-0.9289461463668671,-0.5237828658227301,0.3364563157355065,-0.7573263509509471,-0.258640963448014,-0.6499956921015921,-0.481805072124984,0.11143807578582643,-0.7922475652935586,0.36699282908106934,-0.5816601237543952,-0.9453399083814353,-0.6292404476285987,0.4696287786444733,0.6594594669910718,-0.06731772065143016,-0.6938384254405301,0.47297075649870357,0.5934378386117944,-0.10036575197598085,-0.7934182037208968,-0.6303991377000038,-0.0604512418331562,0.3234676408107833,-0.19421775277056974,-0.058182823953508045,0.49724123906017814,-0.5380665093675239,0.14063869859572842,0.6579988349214607,0.9086514148393021,-0.4711185434462304,0.15147856336900478,0.8491403005742602,-0.9060010423648361,-0.6354708314764239,-0.37964911241422516,-0.5382282711013799,0.5066967024898157,0.04200411220373579,0.5223137768291162,-0.4905284669177463,-0.4816112294879795,0.09293700399872562,-0.740622169379199,0.04847328862934508,-0.24019747711223194,-0.21046171221867183,0.45063182696468096,-0.38924239153779494,0.40629810353229434,0.9576334109290661,0.05335916685363129,-0.700468257298374,0.8684556330162823,-0.06325465381416784,-0.07074939379146716,-0.5068604817674822,-0.48047410668995627,0.922393196951828,-0.6581142443762396,0.389084658540066,-0.46590438617056673,0.46534199001810417,-0.8361527096420871,0.240693977291637,-0.5882910252902629,-0.020024560328128826,0.5466568252140431,0.776815499522294,-0.06773215190631565,-0.35693608820669454,0.17833445086203104,0.5738454401106592,-0.6723072115175515,0.3047435143869395,-0.005328878295392414,0.8100452905044784,-0.05592576052325504,-0.27577324642524914,-0.8741404682206844,0.5495201450720082,0.65569669180578,-0.03984215208059916,-0.21420343047725376,-0.5192956125947064,-0.6583624339007899,-0.5067459126459966,0.5063589708221894,0.8204898398798317,0.46176628115991947,0.268491419385938,-0.5217064412386014,-0.9984115912289071,-0.6472809665204136,-0.12132270660625499,-0.40338056591842,-0.8939839878526596,-0.8133197029197872,-0.1748714695890543,-0.5417747491526748,0.411179206858604,-0.04068939795795656,-0.524046204132433,-0.9993299036488954,0.738006753579177,0.13137594453192136,0.8138715079121044,0.24613358911240057,-0.12239749412465617,-0.07027686671759903,-0.660733916739803,-0.6100844029726773,-0.8885386755878413,-0.3685953562132367,0.854360013345048,0.16946365908817063,-0.4442098766025038,0.16855389884767313,0.06169079941973177,0.5510308928606766,-0.5697823290818262,0.7011229847824241,-0.05829884597004931,0.1027964147893925,-0.7655925085137787,-0.6879097949113511,-0.37521094990894976,-0.8578010977432837,-0.041539783840694344,0.8972616273100222,0.9802738982508508,-0.9732576548469696,-0.42344445213024606,0.6172045297923321,0.5515139677007983,0.0480233283017657,-0.0028353536300438353,0.08475568667447142,-0.6047117826945778,0.8395414498817291,0.3513695943544959,0.1569682063376474,0.4347901231859894,-0.48297152730859216,0.013413912955438256,0.28018275768439027,-0.7830521650442988,-0.7416983102037964,0.6749896552293657,0.5576841929356109,-0.7525682662069584,-0.9262404426696031,-0.860201800238473,-0.9274071647662456,0.5226861136659866,-0.372599251952632,0.9555161834296011,-0.5848391544530307,-0.10794975776727656,-0.1309548549473878,0.679844312212984,0.8754658878420987,0.00450008316893169,-0.031842917912875635,-0.34819367427954506,0.9410776426216774,0.12451366224791416,-0.25400666879741496,-0.1584654248659394,0.7127029487167538,-0.3125202749674352,0.5686315347626569,0.9630450301705558,0.4152585474006578,0.1889761744917151,0.9616715784234471,0.5807701084872683,0.5640063277364709,-0.6629926914589317,-0.2004236276207476,0.7900645664979757,0.7845373166200864,-0.9101923084631081,-0.6694438163632985,-0.2069666357184674,-0.2999845349287664,0.9970428674946119,0.9535595862649082,0.7398930862546291,0.7076499477157439,-0.6010753393182755,-0.2751871996708559,0.15179477231891592,0.12938480169247257,0.12534533306824436,0.8716044869717547,-0.3256951191042381,-0.3170199961644873,-0.045102099277654295,-0.23114803118988325,0.2397066771158749,-0.800159961966,-0.7588682880111968,0.9023074315785802,-0.9711506423351057,-0.19190824605339296,-0.2562976295730284,0.002170436547260124,-0.40099676157569664,-0.568365095828153,0.48259153712166647,0.038216279907507644,-0.6030721907207488,0.24279362832102058,-0.4320336237716902,0.6235891616979241,-0.7191508399513789,0.6808145286421208,-0.097433600790237,0.2955535688506514,0.2223373563528448,-0.022453421534248008,-0.30129731533501136,0.04084453963963841,0.2901047840532245,0.0866435596714068,-0.5169667184810722,-0.46092922869239006,-0.15518152638252225,-0.32462485720420764,-0.1774700837471479,-0.5500814209147333,-0.3851097908990291,-0.1488053880545086],"weights_hh":[0.2873977281595337,-0.6004544490965975,-0.561186584640949,0.017834870812530434,-0.1514148053590385,-0.43908571415077824,-0.9900454194867219,0.3844509851414264,-0.44299248105282274,0.5223212528422272,-0.7890552999385074,-0.0623242770029615,-0.6866989222324347,-0.5593605537771995,-0.9125626900894379,0.222293661618985,-0.8089598176662713,0.43449935951179386,-0.9656498466585661,0.7829365223657585,0.8597972491843928,-0.3669218249343542,-0.27646035122566004,-0.010290670310266092,0.7256224707763463,0.08774265748813437,0.8454971195836904,0.9967829693004566,-0.7262300408550597,0.7257171372209703,-0.7162500072915785,-0.006390364774948365,0.2832478387429367,0.9920496412229676,0.6077082487732495,-0.930058787609195,-0.21701873643532688,-0.27154534034127753,-0.4261408763495327,0.5475320546591995,0.7215803577947577,0.44299085346818323,-0.5314864361896177,0.49726293383453846,0.3977314116340098,0.7558619360356658,0.4612129834785357,0.2184185254421125,-0.3333577662520124,-0.17328406310394961,0.5244633850064433,-0.35855922568620824,-0.15015355552050047,-0.6063899639594974,-0.7892376444790192,-0.8934941872243682,-0.3373776920623095,0.09156828279370943,0.5187884426534977,-0.03199273472399211,-0.43110226457133294,0.0857396592336237,-0.4157030460968416,0.26611928162787213,-0.20978448885844414,-0.17684024661595643,-0.8739391379562917,-0.17857523897265026,0.9150587195797169,0.04538506335350201,-0.7316154551444476,0.7373246433223952,-0.7725048918588477,0.5255690003652695,-0.4057662632976271,0.26024985150337354,0.2886236805224591,-0.9537724233178799,0.8208053716241415,-0.12760148240593194,-0.4202957390508628,-0.5976900619286547,0.2616649970654479,0.009090022679087983,-0.3319943593442283,-0.7049305733976776,-0.30548923904001746,-0.8575157005331424,0.0062293221040974345,0.9238350815317298,0.7455193458048859,0.9821231959721977,-0.29982894046554076,-0.7854689148817071,0.823285719015509,-0.7128148138982171,0.1611413168101803,-0.15278033090106957,-0.9731398816069878,0.3787220429312024,-0.6576978195578276,-0.7813935912307461,-0.545118253033595,0.7491932985307728,0.13598574784120077,-0.8269129525708416,0.3982900298314065,-0.1724568160835347,-0.7582251892362986,0.04113192884669603,-0.37798518888692967,-0.2980503001661663,0.6594476599519639,0.8236283858029387,0.7472469533841963,-0.7134107134365975,0.8217516829333555,-0.778602464304341,0.1620004660646761,0.607170054550145,0.1168719988509499,-0.9364202204991461,0.5709208379527368,-0.5114607855755022,0.8083116895964721,0.24912744184843216,0.567814486262046,-0.25306964612537675,-0.4754690445813341,0.7516026396748712,0.623686986777352,0.6808230732968035,0.39487723913149164,0.8349926532968532,-0.6918392868021865,-0.7134004406343455,-0.46849183845387077,0.8701772580370712,0.9632620306385002,-0.7688090488791455,-0.2878483200934696,-0.2861134279442594,0.28167844272471143,0.9349928088176023,-0.30002004351319034,-0.3114019000881967,-0.8313360800036347,-0.10952227862377839,0.1857672975125435,0.8485395751162526,0.6231379877423904,-0.850864163116775,-0.535908621182184,-0.5106133404303062,0.6848404008725815,-0.38584218207346166,0.28736570996776223,-0.06040715189470558,0.49412050867032375,-0.5212671569940643,0.7321361557208579,0.6502027605729297,-0.4677084178638795,-0.169600309964818,0.25355782815397965,-0.037510517421994516,-0.05936704795252523,0.006250368410658513,-0.03108466462887227,-0.8954027073225681,-0.9141659405677423,-0.8466397102834939,0.37134460527175617,0.11485430934864804,0.3235477342044528,-0.9434675444181839,0.6502947060891948,-0.3144277958284465,-0.35906137946552374,-0.5890215184502052,-0.17574890705845547,0.28747472868654467,-0.35577427833778685,-0.4717645026244415,-0.05351734505466155,0.8291771722446661,-0.15960192478429547,-0.24791789743408854,0.8908030640486169,0.16593654632310462,0.4965932440443408,-0.2833431160303459,0.2665673213709865,0.8690622451126644,0.8334658487226281,0.5332267889310609,-0.6133477193528398,-0.6115949972441519,0.5409338959825047,-0.2908007784393942,-0.17230504061494845,0.3255463679330812,0.07590342717475695,0.1346135056988429,0.9497353015294552,-0.002199921663837312,0.9287526073909558,0.6450579772495908,0.40539222048447154,0.2708029415103299,0.5387797588625536,-0.5269045417262543,0.6427065771360785,0.7858848125201188,0.7076217531845079,0.7977339153542011,0.583617220820952,-0.3399800963684174,0.19437718248618507,-0.19786433013359028,0.6072466899555367,-0.9858952264390204,0.9752565536811588,-0.48666575807509815,0.47531713143116683,0.254886452176061,-0.33058382009923504,0.926524179241919,0.3748048390577232,0.556637167854849,0.3262637033338156,-0.2112770656332299,0.6199554275812151,-0.6822017043590005,0.6435049376119257,-0.5821785324398931,-0.045117990823597465,-0.9708584422182682,-0.8177881833947993,0.3003198413245449,0.6171295707369602,0.8782821850497171,-0.5799594098391527,0.44401070947178867,0.13975828584597627,0.4893748747772908,0.8613736143829178,-0.3528961091137135,-0.6092583873585207,-0.4069460572965269,-0.07232234946506555,0.4064340883672939,-0.8884619826114177,-0.037752596848362074,-0.930913613359784,-0.1649749707406214],"weights_ho":[-0.7696501939896538,0.28402580727022286,0.265321215592909,-0.16664896464622614,-0.7089060470019468,-0.7635260916493161,-0.11124351801244003,0.8105726367494013,0.573669772622228,0.7897438850727811,0.07172025684025796,0.6511877871491321,0.7063936699101809,0.16275454298680936,-0.8369426580383814,0.1989823574147429,0.18182959501589058,-0.004135679016242344,-0.45331573510479695,-0.005823707329925654,-0.5524411164187331,-0.34797143063983205,-0.7833541479003443,0.6209124634550172,-0.45816753756484907,-0.3068432052324874,-0.23400329296931166,-0.09260072055087765,-0.970689796948131,-0.9828607099705577,-0.8424612463801953,-0.20304511464770902,0.5396918356644032,-0.1350841549191133,-0.9318814780785047,0.20658161172338296,0.7171463151793982,-0.33341212137470455,0.8676021236515503,-0.20462840862246745,-0.7054224300621141,-0.9988368947571451,0.9521388469590699,0.2465659910479603,-0.2186676899758968,-0.8897150569042536,-0.22629864317271986,-0.9337986263191032,0.9355557305497175,-0.7583750196559049,-0.012899418637427384,0.5214198574155777,0.7207729554471285,0.9797136203415897,-0.5193077782311764,0.9923002326942432,-0.1371454154272569,0.41616010183744256,0.6707082321902809,-0.7230929911902337,-0.8300395095600783,0.611876940526157,0.8865807294338701,0.9720892835402752],"bias_h0":[-0.2070167504158702,0.826497190364591,0.17035458637822232,-0.8454307809861694,-0.2948124516443211,-0.8548140563802391,0.3196785759661216,0.14950173448153747,-0.9046574840554875,0.39122306678696117,-0.6993652824304086,0.8287180757097421,-0.6931812175657812,0.5345468679209855,0.7204258492787408,-0.651420049029537],"bias_h1":[-0.3260031513752071,-0.11940755589900953,0.5594214544688911,-0.01731014686330079,-0.8002947965272833,0.2556902216237116,0.879973109298497,-0.17107944242639328,0.4707319964544312,-0.7292775753774439,-0.8918957587082863,0.3026979573335822,0.6067147004445534,-0.21407109781174527,-0.03242039922622131,-0.09461286699604865],"bias_o":[0.7749901473422975,-0.3864442274452333,-0.49369397192126163,-0.9785993966329183]}