{"weights_ih":[-0.6936084128784452,-0.7447992407724082,0.04145591187682718,0.6741577386799129,-0.9973335855171437,0.32268484934904085,-0.11929904500044275,-0.17765094929729686,-0.250938991967915,0.6208107909946028,0.21025903221358355,0.9612710854011726,0.8571363873353497,0.2958576550019403,0.16344390049567248,0.7391723372550365,0.39347756405170586,-0.34049330605727834,-0.6757594104445157,-0.20534132521272142,-0.3611491035852574,0.9558208578420437,0.5507202900719494,-0.90359289471871,-0.8290062745736937,-0.5349697479956881,0.9096735430827583,-0.051275521966872795,-0.7203954527699781,0.052236074692282086,0.6999360128163279,-0.2613433269871892,0.6781138093872057,0.13675659727530265,-0.5929868199403998,-0.24870378149103467,-0.6867217181949499,0.9670370839920024,-0.0335566284957054,-0.9894787051010236,-0.551109932824073,0.40881671585648083,0.2853440030911045,-0.1859804232281279,-0.4912453160897736,-0.41798923494904905,0.665949747157131,0.22477101366313423,-0.562196391742066,0.18112321979390056,-0.8540730581535017,0.2899047269732107,0.27925384362003736,0.3629417205618988,0.32031553886497677,-0.9859933508968708,0.20619971168949824,-0.4493428517345557,0.7465010849530453,-0.7440229531052087,0.5157155668692517,-0.8599433452970269,-0.614260106256644,-0.3836104729424308,-0.9973412229687604,0.2419479791997241,0.7824462192490915,0.30350927576822806,-0.1243943548252866,0.4582924742389183,0.1245550251312828,0.4836595315870049,-0.8684594427953938,0.9289194505803398,0.4966921025690956,-0.5909650856215156,0.5346345693870138,0.7011845416417231,0.7426251073432601,0.30311482106767507,-0.2673819610249051,-0.13855374368799067,0.6727551318353142,0.8820764102532515,-0.08253681061732099,0.7436286733300932,0.765889026813537,0.6065770946785447,-0.10197263077368413,0.829880926594635,0.5005744788493878,-0.11090577626685616,-0.5226687574480635,-0.35963571079931933,-0.5241710790686098,-0.17791647665347932,0.6976132702530025,-0.6402148861979551,-0.08541126258365939,0.8575069461027762,-0.6382661379867631,-0.8545024795404772,-0.7529524927233446,-0.991935559278941,0.0746289483917395,0.5283164130467295,0.4322172000181188,0.7317746030561512,0.1564114405887369,0.07809081407196183,0.6569907710244527,0.804955209158285,-0.8767096180944756,0.8251052817916427,-0.2314268624071496,-0.8084174252972829,-0.8524160552444939,-0.4531718117125805,-0.4321776105231927,0.8093747754215965,-0.5812361161913928,-0.10333600474272897,-0.8588446399130338,0.9760057046843045,-0.13877756923474704,-0.8818453427979611,-0.8635994812039398,0.17424801361992603,-0.510825259090496,-0.9657119688298921,-0.7245128897599877,-0.16006189948673932,0.41661268161691023,-0.8739842154193882,-0.818457009307838,0.012602697792567952,-0.9407419383664684,-0.9495454030717563,0.34341997826238324,0.7162353142863236,0.8001526873986362,0.3001382529454848,-0.11830323944790777,0.6973557095091136,0.29066262767457585,0.2799926867188862,-0.4351781082582964,-0.7692157141047609,-0.772195430471754,0.5953643319819468,-0.4065312939689736,-0.020232915912659077,-0.9173133787248009,0.09506987211311557,0.6726231119697677,-0.034666573051112204,-0.07332817705358718,0.6965161914311182,0.3933465761315065,-0.06976261408716122,0.5169792503595916,-0.1624685317986474,0.5849509983119425,0.6754867899873072,-0.790577080903407,-0.24561629168226506,0.2695226317354098,0.7444145574794967,-0.744568083100904,-0.8948415338601823,-0.9438659269111354,0.17133746744812095,0.8974760376491189,0.5411729006688408,0.8234945657709187,0.24529657751953904,-0.7300313661713167,0.6098031780713777,-0.4340221283047465,-0.9953327028358094,-0.0683252806388952,-0.18711601552658896,0.8667007659448431,-0.7965178338289836,0.3373263046040491,0.5157778511415443,-0.9136675840437669,-0.7207691633282822,-0.13495873576372408,-0.44397324105495817,0.7343352826440197,0.6472152603377501,-0.23292806434443492,-0.5070018680155044,0.024369218879608967,-0.5038759868937632,0.6626331066453157,-0.18314160904487897,-0.9727983218629666,-0.6430837786615684,0.4506723251806459,0.827114949212842,-0.2313706403565794,0.5089094973819761,-0.8735296305148139,-0.1874247768373809,0.8135746015214418,-0.9003878465690649,0.9419683406144739,0.16261273031769208,-0.623114128490067,0.7850389662474648,0.4978660634208061,0.5472425764974658,-0.20351115884368953,0.6588458343531869,0.743898381003691,-0.34700129549866254,-0.2591809547903363,-0.5029668690003541,0.08399392250727411,-0.7446452033525193,0.13530476694660254,-0.9013186808618523,-0.39491285759269323,0.37403547028956297,0.6809588437193552,0.23665661417084105,-0.7573600515524475,-0.5400178956603698,0.6417740902560385,-0.1319077306295129,0.9779649766602578,0.3608639486642178,-0.7142977187657131,0.0667041763817231,-0.6654971482046934,0.05826946187093607,0.28719557021868325,-0.9440635710835015,0.6860073206324904,-0.5237149114585078,0.29600672673424633,-0.8507980235666961,0.9914391098149109,-0.07296645965683557,-0.008514123757556336,0.09707862740246065,0.4288811352603559,-0.3400638857877647,-0.9776556397277694,0.9749674394308367,-0.9984159221345958,-0.6411412054878525,0.6285320862189265,0.5206212173350879,0.6456419410224257,0.3135303505746456,0.3986771470881445,0.858450599316555,-0.4696392474657345,-0.8808644450386023,-0.8390846127854281,0.5104019446958246,0.22964552270759553,0.3271196298188914,-0.04097615447614156,0.3085301380508838,0.19112243122119765,-0.7148391966268814,-0.9853742689907103,0.48767385959671716,-0.05797883631931766,-0.3277314822448425,0.9475366679343578,-0.9148545218544248,0.8637840794867067,0.30625971720251743,-0.9645608551124683,0.5267261790901006,-0.6754020869465067,-0.7918542247038001,-0.1859315865033524,-0.07283998649711987,-0.21390735775621783,-0.9783065979548704,-0.7315674390607876,-0.6570663948072337,0.6101610864513813,0.8371986954551864,0.9518488430911236,-0.6588016597644812,0.20500813810254415,-0.7431141417933964,-0.8737851684942646,0.0856960537339766,-0.7648324307587389,0.9699122342488833,0.060603189612441044,0.1923082732209802,-0.24986282287920525,-0.6404150103488295,-0.6281497713625932,0.678896352368608,-0.38202913866786314,0.8443531634120103,-0.4639676134736017,-0.9851110036652793,0.91774972187715,-0.9131958742992747,0.8193175792625929,0.4232376748809199,0.5983215539336102,0.23272903384237975,-0.33962131080237334,0.08235117608239961,-0.4272696852358835,-0.09009808078243142,-0.5576407572447515,0.9870847154649471,0.26317248028694373,-0.9822640798533535,-0.9875101607220922,-0.8348587288730429,0.7584181595431798,0.20506535901196976,-0.4287759244635052,-0.42267090134785,0.1566453336944318,0.09098406203058551,0.7522500743577907,0.53023939281714,-0.23243525503527884,0.4239336542294274,-0.13626911325829316,-0.8321524888113079,0.12161137707432967,0.7362155417249479,-0.0754182427912442,0.5251993230532817,-0.43844009711069387,-0.21805982297389193,-0.6786800614473871,-0.5712169966877165,0.19612454800648815,-0.6509546066167673,0.34851959251142883,-0.7875881665914213,-0.4359458431705425,0.9623405382128087,-0.3911916388170247,-0.8288274445113823,-0.1011135181175491,-0.7454093288981403,0.5579572735118576,-0.3743123321008597,0.9559023466351331,-0.5726275432657084,0.1328573684610408,0.9026747746128885,-0.868837207237648,-0.0731926914406571,0.5462612720172122,0.33790456760545506,0.47598520729369187,0.13575300548746694,0.8479649941074605,0.8154118048973362,0.8163868405769539,0.8870986804049261,-0.21898331508979418,0.9637103617319076,-0.6524171872381901,0.18127936918384124,-0.5251868348011683,-0.26883873388397306,-0.3184862958987693,-0.7953432835577925,0.09632453548094344,0.8792613854738793,0.5529905156160855,0.5223546286808614,0.3347480423758129,0.01506661855211111,0.5828616340994608,-0.4329100172098017,-0.6704407303569595,0.32211261614066755,-0.5157149694939314,0.7695630041325914,-0.49892297786917905,0.37109034027541044,0.6670956291392658,0.07814349553052313,0.7041286538359302,0.8443000418500486,-0.05975249407050387,-0.007960553076413301,-0.7072160761282555,0.29003127409855245,0.530567706651867,0.6845667026673314,-0.35463670546581505,-0.7823773924395632,0.39350406465627796,0.4210646007503007,-0.2115743573213893,-0.9967962080579698,0.5358583421680185,0.1189199991706904,-0.9516140761202974,0.6610249918088962,0.39082536181797245,0.01868147309025736,-0.12774324091568712,-0.6784571726620727,0.41433818719019055,0.33828187955042877,-0.9334978875173829,-0.20981035106197954,-0.49636674661131774,-0.4880420928526692,-0.9177741195821731,0.26761947485952997,-0.9721272787049715,0.8843449316784053,-0.4632319021033642,0.607843482789882,-0.8271574080233419,-0.7698823546626476,0.8037919869463681,-0.7722839943636051,-0.47793689851920407,-0.17803361114531002,-0.868073247396131,0.7485414666011316,-0.09229464120805053,-0.7686756070292857,0.9018946076724543,-0.6738951641553699,0.7235270165163648,0.5318271884738499,-0.6755550360085079,-0.8667725063899636,0.4647473336212362,-0.9388338968840024,0.39012066880081453,0.8383130548462869],"weights_hh":[-0.16928402429979617,0.581051793549046,0.38666602783695847,-0.597910925879344,0.7469245944017013,0.2075294397136156,-0.6743923965774126,-0.7529243999616075,0.3898977501487817,-0.968512619495645,0.2802617043991371,0.5207512041654316,-0.42150041904961344,0.2809888544292385,-0.13163637241898019,-0.252088711253148,0.8048794699627666,-0.28150789704647416,0.021202686871001353,0.7053211970322377,0.799461194987543,0.002530010236897251,-0.34254629277043924,-0.07509321152978687,-0.31936342618920577,-0.7528824728389076,-0.8976774015250111,0.557308074174371,-0.6839375525393667,0.9132190898131245,0.5617773574160858,-0.14661255232380066,0.33280605083395187,0.3131200510596248,0.4951238727179468,-0.17719926608275527,0.4941584400022443,0.7415694742341985,0.7007559794558031,0.8568717876103447,0.2661465630256903,0.8904102292840774,0.43667071066502317,0.9210966679705135,-0.16709490646215253,0.7789478273851325,-0.7173906222664501,-0.49451895447406935,-0.07531607166581655,0.7659663302476407,0.848720239650169,-0.20565183995893555,0.348041176307617,0.9113368962963566,0.5792287417960436,0.8033756526355178,0.012530317645440103,0.8570074130303966,-0.3149363531501832,0.23108077388659742,0.16812609044202032,0.47196452629540153,-0.5811213082735931,-0.444977477839555,-0.2838151516083356,0.7625906227529837,-0.017312492383594114,0.4278657807617059,-0.8539556813145532,-0.22531912121462105,-0.8381716424750734,-0.4064216027509693,0.4695335479890461,0.38500532292732825,-0.7199470447029186,0.6172673757866087,0.866434967816399,-0.8191185409980442,0.6182050147666596,0.020257200119796925,0.8017504707720522,0.5597616049478871,-0.8167753974726251,0.3058842763075216,0.003349932714625359,-0.6300028845688717,0.5832253026995187,-0.534219066356707,0.32428446038477854,-0.9158855244637039,-0.9612170348207556,-0.4143086722720071,0.40789945598473776,0.914610678799179,0.6663902898456289,0.10741122703173045,-0.6648721826583766,0.391696644157423,-0.05512627998944897,0.7038523390544202,0.9938476015700983,-0.08326463687794727,0.10794954399513079,-0.42772269979653044,0.8644594103114356,0.3459491819834508,-0.6549462979208032,0.054891453540061974,-0.5448728190386127,0.5657547246148806,0.576564319394304,-0.3764923299764711,-0.0075562869938505806,-0.05291929938574658,-0.20691656551095683,0.6102056063200727,-0.3587838517563666,-0.12796068148801054,0.31237359922421337,-0.5805133670842284,-0.19777548090350994,0.5779475678099901,0.7549989008811464,0.5928777281006248,0.7733604738862958,-0.2335517788920265,-0.3851718418372885,0.6647915965063389,0.5704339287577169,0.7673414153280549,0.5892865475110436,0.16416500943436385,0.19745735624548533,0.9887088731759945,-0.5938910758665445,-0.4007592951784589,0.5011123033281399,-0.48654060592000103,0.21942975342846438,-0.44990119158390596,0.003770400699146803,0.21695560854771379,-0.11627527377024993,-0.9179104712954065,-0.0916475649803512,0.9612531293156821,-0.45103698128373404,0.9005912184861362,0.7881857775986574,0.0796452186987755,-0.22847049577289313,0.18369801363711735,0.9844154020920666,0.4124230324785825,0.3407571028301608,0.06227538293415891,0.970473762887593,0.18150126005093714,0.10100685277471655,-0.23818159597883204,-0.4741879794238073,0.7305388650873077,0.7567347293997944,0.8806077537478874,0.13608692976533243,0.48920122299072655,-0.5459362286349358,-0.2534516301649201,0.294683297976136,-0.08368150485322312,0.3519718047387359,-0.18347304305804601,0.9456949538091477,-0.41796622609638634,-0.6248064399519175,-0.1286518603605875,-0.6755889050267263,0.4984192252663855,-0.33179964917471283,-0.32653641370343234,-0.1668172672227326,-0.8132642161198713,-0.8739839740162549,-0.34838103807999543,0.5468377953566166,-0.1288794389467336,0.15186682574230947,0.16753571057952055,0.27678028402955035,0.23042792727350037,0.22586913123199936,0.533890641644156,0.7669794147443671,0.4364864298775717,0.13274805901490905,0.12782035257450985,0.307796797704053,0.06605135966693076,-0.5339063461127218,-0.6595122239638056,-0.17599144628021612,0.997337978770773,-0.6041527010654246,0.2415730834338543,-0.45304342429960354,0.31227460930137596,-0.6827258910609211,-0.7122833825246131,-0.9151541045454579,0.6939752293873356,-0.4736932434408403,-0.017495325568015696,0.39050589780697287,0.8256871125828644,0.3342197856114544,-0.9685615475023566,0.9601258203181169,0.27151034238600746,-0.8032764455882035,0.5776501573071553,-0.7803663546952659,-0.633011379134939,0.5871131844812938,-0.21685579116569786,0.5459724980340317,-0.9930361984559519,0.2082641585450229,0.7967024311405615,0.7191948662746956,0.035177792874454106,0.10787391874714891,-0.3871129471099639,0.49604835930989255,0.6451368964529591,-0.14430135234909702,-0.08626158321374122,0.6405526821046974,-0.745018798186593,0.227272707880664,-0.8281810430570522,0.3000887793906053,0.4615369608751043,0.06396329014510882,-0.053604923461862075,0.2752455770282489,-0.3499835884077467,0.13678252958169868,0.8536104092627297,0.7374361347082938,0.3076919279650365,0.280318120964538,-0.06961732007018817,-0.02119351239022893,-0.4777184250853961,0.6138547518739987,-0.5104956813567834],"weights_ho":[-0.9869575026609976,0.686684665834913,-0.8628182251912655,0.9461128299289485,0.6893332429053569,-0.553107308084283,-0.6262399541416475,0.5518842504474442,0.5270522439125014,-0.7388040794666888,0.5422374654619553,-0.02027597381549251,0.8634408212209261,0.8315252574661232,-0.25661950629192365,0.4948333266632563,-0.7900376457250824,0.5022934743217122,0.38533685359506786,0.07270861604683687,0.7376074144017033,0.05856222091593222,0.8392813328265574,0.2980934154044399,0.5759573975787311,-0.5268709837945151,0.08065481880728309,-0.6253339694194127,-0.6036261239378364,-0.5286843018050837,0.01603538795559567,0.8894557704919468,-0.7207620679276228,0.6953881250827931,0.8694132995578632,0.5561765282660125,0.35452380552249263,-0.08640368092728679,-0.16778091048309118,0.39885656744070563,0.35382204780748383,-0.4013029455278143,0.9422320879319817,-0.6866228772844489,-0.6563361948962754,-0.8848238667896653,-0.16633333142169993,-0.7336726962126296,-0.6678788666995832,0.9316538957474227,0.596823711774056,-0.0063790173552302765,0.30776710931861495,0.372437915967889,-0.32804455043357783,0.23721010649863383,-0.805470996695151,-0.5789106701623061,0.7835742208837764,-0.4474923613721995,0.8439688670832513,0.3042295280564302,0.46059649935566216,-0.1178167322999446],"bias_h0":[-0.814982160048898,0.3250651583890871,-0.2131999896605643,0.15876843609670277,-0.049897409533231185,0.6349642862172791,-0.25171621893491714,0.6275855598642686,-0.6620790836280304,0.9329686014740484,0.638472317439384,0.5982154901298375,0.9412918424502588,0.09672893550743789,-0.5606118315120681,-0.7958405737484899],"bias_h1":[0.1384407661260887,0.33506439354694395,-0.3854139060027637,0.664394791072823,0.3707040487901243,-0.7809779283078053,0.8080263245173602,0.4058200619547683,0.42757490197963866,-0.37233962291762057,0.2155920507595357,0.29428251396577476,0.2743249397477736,-0.24938399311338477,0.049354105353331956,-0.24797831307661888],"bias_o":[0.9809032102895747,-0.9044995568672429,0.2783177053044936,0.206290867952998]}