{"weights_ih":[0.5707346481342879,-0.8781254100748366,0.5671133676641296,0.5426852523568606,0.24594371235168455,0.8257546943037415,0.18402018395040431,-0.18691532864278004,0.0752451974389623,0.8175904956211681,-0.055050590053867365,0.22760596182508874,0.5851144777914621,-0.905241027168497,-0.5081473762582338,-0.47077998341709804,0.14595458429748143,0.3488960544027626,-0.9970438886069382,-0.5691433969591235,-0.9807395962111334,-0.48366548100378304,-0.5274111200060068,-0.8854056569950968,-0.48081857453805443,0.42901951992531084,0.8066203131957355,0.9063883500028831,0.7202349619842454,-0.2711717118036585,0.782283274718941,0.7149302405564082,0.7080117592757185,-0.6623434382654669,0.7390815172373484,0.8909120290438202,0.26560858135184606,-0.8726652409360429,0.11336726567706168,0.37791414841732074,0.7126701560600401,-0.31920886934762094,-0.7066758073307118,0.536790237497647,-0.09796299442386913,-0.5011556979614717,-0.22999923588341042,0.4607788939661024,0.10792734898947587,0.18606140301393048,-0.6289330004576159,0.27358227141224556,-0.2645078241385861,0.037257510137904015,-0.3927172718691776,-0.6677993140976575,-0.014767042763874416,0.3029710546802791,0.33942673580386384,0.32922271191605934,-0.16991204665119408,0.906845133801282,0.48875187568803,-0.7617154429433142,-0.16684111999772488,-0.6700602330820942,-0.2484989576653731,0.04267771652747765,-0.4438569888497681,0.889722123539743,-0.9374331359708301,-0.9554483753136918,0.022760482418846983,-0.15126979527734497,0.581888856556892,0.7013395651718037,0.6141313967653306,-0.27938004722364873,-0.3373113749868073,-0.601980055832005,0.36621316214262567,-0.3429660502608578,0.7505359669669684,0.3465162021472956,0.6021493062625545,-0.14717080278379746,-0.24426544983037113,0.6023790996359037,0.7281152410036733,-0.9826856469211389,-0.04716707498514472,0.7160253760562509,0.43836961754832027,0.6825268136346017,0.11264922148416412,0.6076893434399901,-0.5499810211726222,-0.465084753450842,0.37468413613258766,-0.7339574133052749,-0.5033976262949824,0.2624267728141507,0.5967096415406181,0.9503603950179031,0.6954372939719005,0.04565531600154826,-0.3695196331893966,-0.8804857540541069,0.10850382688176263,0.12064219905249862,-0.8165404670355554,0.2040300932220087,0.04015362337674788,0.550507507524866,0.5158263622636916,0.26659806721182755,-0.3701637497633443,0.02351334619845913,0.04701979018764302,0.7502937067526458,-0.3907720063864366,-0.9416977149316719,-0.279700030910943,0.700980877953687,0.025281532506695514,0.4976321735468012,-0.4011082473599732,-0.6254011516484999,0.6024291314307806,-0.8759911845281207,-0.5455831533855628,0.9788756733888369,-0.42293534152902823,-0.07288931487229089,0.031908733858304394,-0.8274936912984776,0.6737696882879558,0.23095634976629076,-0.6808402159404263,0.29959300793699817,0.3041015300893155,-0.6541244375979178,-0.4392631838285883,-0.1794495143734054,-0.08065677665964377,0.4242015666444614,-0.2555920974206414,-0.8472779297816055,-0.009921670277739603,0.2504129084339006,0.25253453408020676,-0.22698009723922774,-0.2575610806332289,0.03790081982677429,0.1900780967874951,-0.20247709485767396,-0.5052893011235216,-0.32698424667927095,-0.9493577168461249,-0.28823754053511585,0.9150566855343436,-0.5419332256299689,-0.6258562505587644,-0.4357688330148939,-0.07874154264224642,-0.8550737602069616,0.5327131477847771,-0.2073520172929495,0.04683706904765628,-0.01831312576718691,-0.8631756088604348,-0.6857409325901132,-0.21115702088772403,-0.8828878699393963,-0.27358485361072216,-0.6203533129077798,0.5113910110779982,-0.0958457859786197,-0.12500316650844923,0.18437522109226867,-0.26240873309603385,-0.8740869823028716,0.3742841578098559,-0.7124188383766878,0.7624897434640743,-0.16515713971400925,0.774413778993251,0.44407862817219024,0.29715468645242415,0.7617161648617401,0.7992904600838562,0.11372877263598324,0.716908080340289,-0.44666144551240783,-0.036907767885393516,-0.867774383941208,-0.5258959104363736,-0.4407778509139604,-0.3855770933166094,0.4184071931940001,0.02593717181828059,0.6521424393806328,-0.614367688228812,-0.8420853345450052,0.06522842397284201,0.24380346256345065,-0.5036967825780092,-0.4040924527554297,0.24400085396305848,0.31305389829392527,0.536405145464131,-0.3126791272551688,0.683265911761606,-0.6889491040488607,0.2764709531513654,-0.0035862441740273088,0.25250196236997735,-0.19307620379944823,0.5435705617365394,0.36854810973935526,0.7368932168440154,-0.2657104397770931,-0.8487448267251687,-0.18730225773091091,0.775060664250925,0.7516156280053654,0.4074917160255236,-0.5026943819542791,-0.16721336381276153,-0.30481983789363887,0.235119663510569,-0.8497402397378768,0.6160012142295286,-0.2810431622171976,-0.563488828287569,-0.2529915040498285,0.6967673737920719,-0.6149404025151546,0.0808692275227032,-0.2935468697923771,0.883735831298444,0.043566502912282035,0.7126306252764816,-0.023573642385347426,-0.6930753678468295,0.2678616871453243,0.5407603025337644,-0.5251442778936701,-0.23779320407625493,0.7851439622976684,-0.06999417133254182,-0.9156197421120109,-0.3734589420190546,0.36702903195384584,-0.5939592838983172,0.47257809839520926,-0.4082612400771086,0.42153995069735095,0.32978213926619704,-0.7402651170383079,0.8564611071294852,0.7348944139672822,0.3667826487111181,-0.25720601767424145,0.5309206385704526,-0.7103036686766788,0.8015383700454437,-0.32134644635533793,-0.44175443036523965,0.21849792413801672,-0.10067278405317603,-0.6550435382131328,-0.08450499614489981,0.5987595141465929,-0.5885599014541656,-0.05459792410952269,-0.31795917988056455,-0.8047457168099152,-0.5764001581626881,0.7645320396004749,-0.6869844496209132,0.20301973291760067,-0.3559426435865729,-0.7488674816640228,-0.09733392400995311,-0.6165664364599841,0.618911134892683,0.08895793285781917,-0.6225605572443658,-0.9271125343124031,0.27552101175520183,0.3376177410437533,0.7973189263642497,0.5709772064447685,0.6746949847368564,-0.7508285705460578,0.3252965879835481,0.5130054916680338,-0.3673279078741951,0.16276834906422888,-0.42745076620705946,0.8055900864724446,-0.6899929161970655,-0.06144734050207479,-0.46218173512329197,0.9798704020766313,-0.16625818356903133,0.5387211528815952,-0.5525240288100632,0.4818733735876881,0.5262591429832544,0.11836582431436882,-0.8119625173637917,-0.44755010062963185,0.6408201323703095,-0.3847163330887666,0.3254389209308206,-0.8143447708099547,-0.6756934978197922,-0.5389565794747428,-0.9894073690653458,0.004895636471983433,0.5605117086605895,-0.27843776046995683,-0.5496185018702457,-0.18141462939853725,-0.7134940948677355,0.17476405576717413,-0.36675602658262396,0.8275413831224041,0.6404291403756759,0.5644269051407744,-0.05737613339957126,0.18935910378185095,0.6220238152583772,-0.8359230149685377,-0.5147743066205033,0.8109306092819644,0.4513820599418863,-0.35550294508428704,-0.15313174190073475,0.5943488619982074,0.0972064365418086,-0.8825210829509054,-0.5498887051475914,-0.00254658679479447,0.3259918921850893,-0.9931438753813204,-0.5053634025444376,0.13693868951418864,0.351284143286722,0.2272703840879884,-0.14086346491779267,-0.960099540921848,0.5742016310374105,0.3574822694255242,0.1853837774863092,0.4623671863791736,-0.919022490608703,0.6814559472160369,-0.7564148604185326,-0.7536693564228341,-0.7429788577370993,0.28045233565088856,0.4072724447926117,-0.2670014272382615,-0.03571071116226632,-0.5770438833037097,-0.444125681690839,0.7143637798882962,-0.0740825232211546,0.78793628959656,-0.38472586599695635,0.17538159791143748,0.1480095333837539,-0.5733467496630325,0.4445004839228337,-0.865468652405736,-0.966812556814405,0.1451322577906966,-0.3415775492696327,0.1258461629353862,0.151443320025616,0.8943471123822531,0.8954294673840482,-0.40825599594321105,-0.13978655940658924,0.7136343648285535,0.4447256666302881,-0.2110874455956948,-0.4398402924201821,0.838862061910147,0.3290974984151638,-0.49229414148702033,0.2501396018012729,0.3445748137603195,0.29736594862475174,0.2704308187135893,0.6097889744747651,-0.03817118147162546,-0.45617124366981043,-0.48457680633059086,-0.7809004038248792,-0.43469839669826715,-0.2978809992926623,-0.32406409219336885,0.016748150946969798,-0.04366622959963973,-0.7404180548677153,-0.3321948931212384,-0.039531625274836335,0.08252021451333502,-0.16402389771278036,0.9926386513990195,0.33830247334686514,0.8662621939924322,0.4263791353755697,0.4662841076149109,0.5922178868272516,-0.2953713055472136,-0.5623619730313325,0.8051108535984535,0.6514836939135409,-0.06510822637760372,0.7938962863937986,-0.5171041301844896,-0.08064979709862152,-0.4825615629606954,-0.6947322425999916,0.19153044633296523,0.44402665576308764,-0.8443960757117548,0.4114250763057732,-0.2721640913704184,0.5119661187345839,0.6673845348334386,0.2543895569972525,-0.14631264190925575,-0.8680443648259866,-0.5874043612134212,0.1637858064231814,0.10933966783262905,-0.2424440625316424,-0.4824542365323756,0.964245183598877,0.9551460493870385,-0.1626728878098176,-0.3504230754294002],"weights_hh":[-0.30844990922515936,0.9722344217940599,-0.37381130681406827,0.09455328661876261,0.9259354023580362,-0.7075294874492997,-0.49540781461527006,-0.26181593110768775,-0.7826870696410597,-0.7520515178438107,0.034417740778484696,-0.830524641737534,0.9494044458951765,0.4506364417456479,0.770712355125813,-0.20854067060274972,-0.3252610388779955,0.9393343010757205,-0.6582860879074719,-0.8426682499009479,0.8755216451999139,-0.9280966218831868,-0.6690976608378256,0.49918395182265707,0.14400779595600532,0.353436647584066,0.01760709965422369,-0.8506641045908547,-0.6945240372036028,-0.7428856293087551,0.8390888027183396,-0.7610068960754284,0.39105837645446173,0.6654417572342277,0.8382540503284606,-0.7788561348487368,0.017442009536015712,0.5891110622540916,-0.7322364945094761,-0.5607087051729842,0.2399498476965929,-0.6527422690056295,-0.5493940364930281,-0.010227101084768986,0.7807153700158234,-0.8674698144788877,-0.6064365017400992,-0.570840149013679,-0.7428101159628286,0.5641229491360176,0.17051227228184662,0.4577133862442704,0.8859030927540361,-0.25067121307689444,-0.3751572041582214,0.18769856151840214,0.8999080962896187,-0.7531884084096558,-0.4241764411854261,-0.8561901262327138,0.6434229444252026,-0.8589942564900968,0.3700245922804213,0.051218700316383536,-0.07795131817034529,-0.7190756829157239,0.9212575765977746,0.9795333348677975,0.45393721479635385,-0.62090961720468,-0.3708377248327559,-0.29556771436904894,0.4992805170490291,0.47135071922231586,-0.499364378498528,-0.37587842010852324,-0.08249982074580875,0.06842408674606237,-0.5705806927561643,-0.5889002472554845,0.7428153475578192,-0.35484556122469035,0.6294201765719736,-0.19498035552067017,-0.9337326409385673,0.16822443628263817,-0.995089530987691,0.9590858434281486,0.9544630565514292,-0.106771801473865,-0.6776669717980892,-0.39018929234731026,-0.12784143122844216,0.29416164738391015,0.4972072517579924,0.45681407845788846,0.2998686542893334,-0.002027789089474208,0.10807343065236963,0.6691180453457599,-0.024998968272602173,-0.6888747452278314,0.7589144127170686,0.141683471412819,0.8994716025040179,0.663389435867054,0.20811357323055835,0.12849255489173195,-0.024441676521651967,-0.7363887331202839,-0.5557831374498985,0.8403735235482643,-0.7120970380602725,-0.6262664341933557,0.25750384798963455,-0.9941980745454355,0.8968667819301821,0.9648496911904902,-0.8331462083701597,0.7904748829077635,-0.3157365670977408,-0.1660982003191802,0.8790117275173259,-0.7582658583704307,-0.942614979824214,-0.2111229887706898,-0.8115628603592,0.41973803838580737,-0.5989309194708756,-0.12596622391228873,-0.07622080337744741,-0.19957097126617263,-0.543674343921724,-0.5692938363324731,-0.03080117588236231,0.46668752467290164,0.48126832538788467,0.22280988822480574,0.8278112494399645,0.9105113263094728,0.9149468415915512,0.37215916158107154,-0.7551874156260827,0.07960696670770262,-0.8454683766957505,0.6160424314675426,-0.7429361210891237,0.15953182576741476,0.004488811301615714,0.9186554790702857,0.7732817978464854,-0.19609914046106303,0.16375519710618547,0.15238915602153402,-0.8650288485927082,-0.5936210726352587,-0.5038410855929203,0.6222700721968213,0.5592464380180511,0.29159702055288905,-0.3403929466924416,-0.6399231362308226,-0.3095428412100645,-0.9331760683828396,-0.1765914734828602,0.46017191314592254,-0.7277860902868125,-0.1205431328547073,-0.6819308562891422,0.27652842745151274,-0.6680922470847093,-0.3584607965807127,-0.6583349355016512,-0.4255424081997792,0.9554541633140536,0.7005895930867918,0.186288086244764,-0.0877126120380638,0.9755085709088906,0.7170983821371748,-0.25196719692479896,0.3247143756587483,-0.4806949130989564,-0.3889199938556349,-0.07166989450503536,0.49497569318510304,0.9674122596945895,0.5614811775013062,0.5688085651245973,0.5066412020270579,-0.09405151749681817,0.9628136344902818,0.732550561179728,-0.7979053001994447,-0.020734147890789645,0.4985119249603427,-0.8531581390568628,0.2701769232481108,0.9368390018918393,-0.5389580434527732,0.16971150543232927,-0.05402516056833928,-0.5476170956365625,0.3702072373935843,-0.9352769054821666,0.08182227328495628,-0.2796430291624459,-0.39897930804940773,-0.3502221732685944,0.048890508025181134,-0.1008926162747783,-0.19422813815624074,0.04278184985368094,-0.9811769135631438,-0.1948063087639551,-0.7035609481582656,0.9400794222638766,-0.36500664635730384,0.11009859268418043,-0.6257929550665742,0.06758315177748853,-0.1682578486109776,0.23421631829467082,0.5215265610117619,0.40321949465417384,0.7556070483457222,0.048997117436134996,0.9666404756126852,0.5527134501502982,0.6147062125242455,-0.4638112725371668,-0.5145311115236033,-0.07210065392129006,-0.628726587219254,0.30269149665280204,-0.702271276197102,0.298152435067051,-0.4503065182501733,0.3457424526384141,-0.09459992088330571,0.6629180827776722,-0.6882901389956169,-0.41962220296080144,0.574844161937049,-0.6935737062255314,0.15043209276283398,-0.19796277820760433,0.36629136612489366,-0.08828782273400626,-0.3650127094619595,0.6667884903659751,-0.7474871232235147,0.8342252175051579,0.036973692907323885,0.03449356041909901,-0.663561931692146],"weights_ho":[0.9628389596067957,-0.2948069268971365,-0.604625861773199,0.4451566567919689,0.4733715186843579,0.18926618924718053,0.12292876310101297,0.8110681348417925,0.8367228678299885,0.697394819678308,0.6799653817310709,0.7032200701519555,-0.032170821035770736,0.6520687149516096,0.5317313056837425,-0.31829105104007405,-0.4556537342934579,-0.009263090385427386,0.003035971792703096,-0.5929682122698621,0.0019545806199161575,-0.5380265348248359,0.1588656198134586,0.03026157381794814,-0.47957986933050045,-0.9862054392584008,0.0301281597327423,0.9199899641232723,0.7148703415961626,-0.05890063957532643,-0.7246927922071338,-0.27415494914418836,0.6860367242230594,0.4909000764013154,-0.3059359980941454,0.5238838366958587,-0.966487742424119,-0.6268455614773307,0.3788077348304093,0.8352235986525429,-0.9634486281224897,-0.2041311333067306,-0.8692222694838199,0.4083711590357184,-0.6267436263965469,0.3852828262855419,-0.3165026011938561,0.07846151153904923,-0.3772745344961983,0.9232050132723095,-0.8720997951181695,0.25924307677346947,0.985639272543245,-0.7293629470672465,0.8259558280621013,-0.07195893523003094,-0.15632041020565413,-0.1448424966468942,-0.6571606442216216,-0.43683992802884863,0.262605666699522,0.6050440070687648,-0.6641120266061342,0.7334324006083963],"bias_h0":[-0.14218809170215407,-0.08550129941752438,-0.7050483094883719,-0.7499189465429008,0.8382296388540178,0.9188007416948403,-0.8275179330593934,-0.4917051384913693,-0.1356634887521686,-0.49397366699917145,0.7995113352254368,0.7573146986254911,0.2649065971108431,0.852441958273634,-0.8008076807338522,-0.1761293725187547],"bias_h1":[-0.5137323856080025,0.9260144011260443,0.861117522205969,-0.9832040095525953,-0.1791608849213504,0.8243542985381662,0.5759604011952424,-0.16842801418653885,0.220157855059409,0.04101621747532347,0.7581089538855172,0.6773074159246326,0.05432679006619412,-0.16828758958660583,0.9369394894332004,0.7093249944478581],"bias_o":[0.7461436313677556,-0.8140244113247044,0.1329524703285747,-0.3764284642050437]}