{"weights_ih":[0.141508851991897,-0.35237368673855296,-0.25646862046455765,-0.6537304398756452,-0.237967801752484,0.0655386010338701,0.15278876611443182,-0.2969623442914746,-0.3657515871207031,-0.12993703292773384,0.6885900323628378,0.9234722823050918,-0.9414550467481015,0.3017975232095218,-0.8938442839521159,0.4180706058900441,0.74810926112694,0.9293192274561413,-0.5006939754106132,-0.1009426417882231,0.8994589310515329,0.25383477682240496,-0.4969477071661048,0.8243598362563964,-0.18399074931933246,0.10144951288429094,-0.9514472985897362,-0.21861986807127165,-0.786973337994449,-0.6784785577541028,0.32734992966644905,-0.5825150187358663,0.34704948473220654,0.02402953742455427,0.6151939181218682,-0.03509140808275091,-0.2900710956117627,0.8132804878630691,0.15081864338418982,-0.4556782950640281,-0.05351634608267153,-0.14769636570876887,-0.750132771754529,-0.6633564595733186,-0.8164190251855568,-0.69713594035151,-0.21380103394871197,-0.7778705591717126,-0.8817765958858017,-0.3302685207592404,-0.6640715474077239,-0.7321627195425444,0.8985892423596475,0.6813893338343038,-0.2685405950321431,0.02116384105114144,0.9951625206652239,0.7974449445478915,-0.8359057498599607,0.25364306480877086,0.7328167871983258,0.7399312503957212,-0.25698535937551426,0.32188094563636693,-0.10971546618417527,-0.2901099651895267,0.8091605175932568,-0.6114290781615666,-0.05578089572390743,0.6733346389990564,0.21551596946003504,0.3586475536496754,0.3479443335846535,-0.034408418814510844,-0.7801706523151437,0.9959673646796037,0.5629512918121828,0.3974433998718274,0.8695767055717762,0.3549097749995911,0.08991447265511487,-0.29773524396517126,0.7760119905900213,-0.1836684694723567,-0.35117450657042215,-0.4505140577559972,-0.8667647946346728,0.7764383659866683,0.5495176236631327,-0.13152130430413056,0.14923464953235333,0.46495551436984406,0.2880980932021,0.3964649356871135,-0.944994528160783,0.49431890839187,-0.8610405998285693,0.105928440283231,0.41600937908381774,-0.5357040574768093,0.6511501326255276,0.8606045322796232,0.40176612185113236,0.49731481126231514,-0.4082848643580941,-0.9215186955327981,0.6713106838691025,-0.8294134840153875,-0.3273214979911647,0.9451619460116762,0.028026818775569007,-0.9775918148020044,-0.034103875678031415,0.4687457234635837,-0.5293468210643284,0.8502308266692307,-0.6510098072785817,0.6263802201797244,0.5898221816634523,-0.9186694691879238,0.5737661903137394,0.4385254027701271,0.08112088544329232,0.36986472691858907,-0.020915027855442858,0.4423204099313678,-0.5665467560817987,0.4786311651781392,-0.3264899229833973,-0.5916171381788129,0.7599768066300387,-0.8932751309036002,-0.13965784511267576,0.9194166898267726,-0.7791384967510191,0.9934079107637988,0.17794471912028165,0.746949614015813,0.06423878883489786,0.8272783455276411,-0.23754639083778217,-0.27492109163115086,0.14619069066335322,0.1632824179153296,-0.5202040141314983,0.13027992703108615,-0.7965259086449195,0.8019932257371241,-0.7803326715480909,-0.8061170640337807,-0.002034594313053084,-0.13307064872640995,0.5150861931267605,0.14859205308752776,0.7897527906675563,0.14986891260706847,-0.4808661222592141,0.812922753340477,-0.9110385037778332,0.728541959396847,0.01966702466617609,-0.6176973594078026,-0.5999613546395466,0.038806484837089705,0.26898219885260666,-0.14839215343737377,-0.18084217388762402,0.4508544461272952,-0.4051474342494332,-0.6336315125390282,-0.2312375838796905,-0.21262407020854113,0.5679431910065913,-0.24889783410337607,0.9143224260471958,0.5390192986800602,-0.9601730828557229,0.08966372989655502,-0.16081414353702117,0.5276834350673518,0.8712570766225083,0.6401424276498442,0.6781786510422476,-0.8034873998520422,0.6569060192625076,0.016615147813047848,-0.6674647448997908,-0.20525676729684905,0.09816144152265904,-0.2451411587346013,0.8383733091515861,-0.9406857014502379,0.17927472423868052,0.540102510398079,-0.007910328325747562,0.21049864049531375,0.8470085696581224,0.2190396466139275,-0.49533292972885024,-0.4223450232096151,0.7279642295785589,-0.43906497072947315,0.31977405025360195,-0.18630024534528133,-0.03239126558350125,-0.5448804593881886,0.8474909646676396,-0.1989998060392688,-0.6348003346177069,0.17330940015012208,-0.7801009919747088,-0.3218545661956549,0.12109562953743103,-0.7354195022269019,-0.09039630150479461,-0.29786712889643363,0.5768352112061472,0.4745946010748854,-0.4894857081640944,0.9831257647424225,0.7227206894167599,-0.5939783202501716,0.3612716651466923,0.7502836637138037,0.9750873455118108,-0.22274418280962816,-0.6910762714819765,0.16737316650285594,-0.08147233170645785,-0.4197560841840611,-0.662290492966054,-0.4973952729690947,0.5047043964014821,-0.030107636282269645,-0.807640785859826,-0.9924585249715141,0.7663749336037906,-0.7689020806188969,-0.9549966013457021,-0.41844471982254805,-0.7395672371071604,-0.07421807776675338,0.010752869767994833,-0.5414038183185286,0.9349479910184899,-0.0017683176776472909,-0.12925406380499904,0.8414017438906225,0.06747412524323337,0.9472244683537399,-0.13319192608367048,-0.8228471522930743,-0.8190687711014146,0.7222360102665797,0.9294389524965332,-0.08186427465420465,0.9753706351657443,-0.6425498685901132,-0.6055373144592413,0.5792150658172741,-0.9669461321188486,-0.41820291226932893,-0.48577836001911323,-0.8489873381288708,0.8754178525460852,0.7128368580370621,0.2813982854071524,-0.3233550921005084,0.27811590402186304,0.7227084285258054,-0.33277431802918533,0.3757752400982568,0.25067161486017,-0.3183587093343925,0.017568644188306504,-0.12228941949804595,0.3432835871674831,-0.5397969008967907,-0.4543525994319948,0.6256332525392088,0.43145228875917385,-0.5618453503418357,0.6177186123879126,-0.15585487390884567,-0.9729459878676827,-0.3950713031941766,-0.9065488624679872,0.8294729932097102,-0.35407130191549996,-0.4531979756228184,-0.46064186783256744,0.8034748785940733,0.21172413475791574,-0.034111751138858226,0.02601663342416427,-0.7968303129386005,0.47359368597560736,-0.5047447127120317,0.25355772979780355,0.7709705910100746,-0.5614869356218486,-0.5269394169339601,0.69839193982814,-0.9951279179577381,-0.8473276275593165,-0.8514300535236667,0.7911177158179794,-0.32095854253060274,0.2719594277254147,0.44408259614778767,0.2702097280224949,-0.4856671629430558,-0.22714456713995057,0.7989318324194861,0.2950478844220379,0.5558478354142424,0.29487571423914694,-0.7923412389332534,-0.2958664619056932,-0.5392932238497008,-0.5149069453251556,-0.5410492599542491,0.46589011325073026,0.1254139812606332,-0.8684425189289389,-0.45740979294288153,-0.44531187189529,-0.408845831785551,-0.21449330455019067,0.6224840830972846,-0.41465777172622587,-0.9409322264064031,-0.02052616211733782,0.3058644402937565,-0.24712123173442224,-0.4513926625522706,-0.07170399435779484,-0.20943238635289863,0.1532669692752433,-0.43843096991264763,-0.9990652496365531,0.0047222687788153195,0.7638242883155313,0.9853134063945963,0.7843223953858478,0.8663153597227613,-0.7903498715663975,-0.5723811681232349,-0.5320208645918811,-0.7100243572892526,0.303473283754353,0.042642702512377895,0.4733410604000843,0.3341754772674632,0.7604234754607837,0.8486014743873627,-0.42537152181979465,0.8660078682309671,-0.7708033237949641,-0.21300428447033637,0.6292431283036637,0.2797143845216903,-0.7703899353237686,0.2739348640715866,-0.2730019797490364,0.27945912660286854,-0.5267096048590372,-0.8772622640008547,-0.954582498032057,0.18439080613273795,0.02519861836773374,0.647725648199913,-0.6903987962429738,-0.8535716191787088,0.21752295232349628,0.22752982855778892,0.6748768655863202,0.004671451105809465,0.8336116658253976,0.8492194433632494,-0.4920112681036486,0.6600469948989574,0.47862028444559157,0.3187513604042107,0.7461517815843246,0.702757014878806,-0.3415150640921132,-0.9343084824570904,0.3883276707443748,-0.12327378143576828,-0.8881960462777918,-0.3364479667726197,0.10278224593034602,-0.7746382781063252,0.10168049054798223,0.5178620316606501,0.6258006530992275,-0.229962962250696,-0.734751050846671,-0.8883403887558072,0.3852697304443502,0.5459558717718627,-0.5900728863354596,-0.348257319667727,0.5932387486583588,-0.7133041816435401,0.9947403434190736,-0.1389626784352005,-0.9287411635354363,0.7511884396050359,-0.2556260438956197,0.16052822225690688,0.8556066394307031,0.7940723361738264,-0.22362718491878142,-0.0734700313893637,-0.5723798896813652,-0.7344764158567003,0.2841136313705024,0.7634589743823386,-0.651258284659481,-0.4799462586630068,0.6149922368475831,-0.9069752560457083,0.81324214253203,0.8395094929138169,-0.5406292428244057,-0.43486998312194114,0.25648058368725235,-0.4935853124707914,-0.8496058605741492,-0.9194019175222621,-0.5951616106038327,-0.8444943580309008,0.4389160226299531,0.17235473214997987,0.6934522739771112,-0.7418182345510596,0.7878369074290659,-0.8389256360289958,0.3776080759011009,0.7433911514382274,-0.2569787255289604,-0.937326872609398,-0.003634627270735269,-0.3571802994659774,0.7982240450006741,-0.36667859969552885],"weights_hh":[-0.5422551744168875,-0.21030224648284368,-0.7635474642467024,-0.439409037987448,-0.2857733188296929,-0.9764844128225834,0.6347988865913619,-0.15877532796034632,-0.771063343925515,0.3931906488246357,0.030559721081572677,0.4127253008943548,-0.34386354024723786,0.9891543621628309,0.7751651418415662,-0.9984451328299224,0.6983601711339265,-0.13563348387821295,0.4670074780854536,-0.27413352363252685,0.5548637555729439,-0.8688658858608782,-0.9446610648124312,0.11662396746735681,-0.6315553762318471,-0.9765675711224433,-0.8369129044157371,0.7028566397691001,0.25787429683555163,-0.7373313977675338,0.11131537283189741,-0.36351801244941284,-0.4431857943175477,0.7881558293501032,0.5761269685837664,-0.6099113939642504,-0.7252405273569122,-0.5604127401073014,0.7526979981304349,-0.4219597167393403,0.2620951822638937,0.8899074373528895,-0.14043323370070304,-0.6944045846972691,-0.8487510150619513,0.45937184504271933,-0.9915484035845412,-0.7997560038418741,-0.19126144338583728,-0.771726101217695,-0.7923525228409787,-0.7840707382873491,0.2731808164203482,-0.37611853223847436,-0.9241579215909548,-0.472792790825429,-0.021605569744767683,0.8279579200617331,0.7102658687523198,0.9029850264130517,-0.6436686904803783,-0.7142132936791603,-0.7471959091950464,0.3579505548958368,0.655698997986371,0.3198255924382456,0.27377683906745176,0.47841662289919284,-0.3765569011698302,-0.3826100000699122,-0.7271473249978657,-0.5214072881677752,-0.6414710716891463,-0.7098072346089919,-0.6498940503393691,-0.058884896653124796,-0.10219481915113193,-0.6284558713868573,0.008394637736141242,-0.42797851564695266,-0.6142943748271623,0.8110804112804133,0.982518562516969,-0.43643792451405083,0.6293333832261068,-0.29520876287613773,-0.9921088206178446,-0.27933836929418443,-0.29600084530454795,0.8086043115443122,-0.684219888007694,0.426975564995405,-0.2008400254200744,-0.7552144379136123,0.21536901574709733,-0.1549650029401688,0.36804261334945765,0.9362034898671716,0.20748918096335012,0.2485929723774143,0.11785462959227688,-0.1355815682696584,0.21494673003150933,0.6782668740773332,-0.6255244659286281,0.7480879037225172,0.9050696232305058,-0.6805870796522824,-0.38396242086483023,-0.9970758916752853,-0.857429341461792,0.31543140036965456,0.5330908933852458,-0.15805565562960489,-0.15293675418990493,0.0691045096195757,-0.2815287337125232,-0.975398800575378,-0.8786663277192805,-0.21376535409410446,0.016611254703444933,0.9974398338897539,0.7057895096186462,0.4827709513815863,0.28843069178201874,-0.9214092169755583,-0.20670165577171096,0.9512782101460899,-0.6515470983099485,-0.6066696801404519,-0.27636947519162103,-0.5199147502729999,-0.16685499674296955,0.38225742454097444,-0.5399865295158257,0.789240549237358,-0.8646735861576298,0.008758195290360371,-0.37647401058587304,0.26371291917564355,0.032080762663851736,0.5797793252441352,0.7185294227951007,0.6027957771727541,0.7524834838114853,0.6804794585152278,-0.09923636006096337,0.7953831371379374,0.21992600091667547,0.03580624508205288,-0.15156321847402054,-0.7553714949572965,0.8323539314479513,0.21911365892783352,0.969324267702701,-0.9144495416567875,-0.5624903894685991,-0.8933568144690869,0.13001392074378026,0.4019929752082847,-0.7873633966020368,0.27771572916259046,0.547829145909168,-0.124858665653925,0.36097781819204267,-0.8698823720787976,0.5554987077630464,-0.24074517863389988,-0.7517980615412652,-0.5876698952620523,-0.5980691696218627,0.3850645677671338,0.059645815334041785,0.8844522443593632,0.7107234425013955,-0.34037903141488,-0.924507970519481,0.15705672690292283,-0.9594247460321161,0.5718773623997346,0.40149839745322047,-0.16691752878736654,-0.027762901432445863,0.7836277756641037,-0.2827224358934539,0.15268259086977198,-0.26123139415451657,0.6996672720008728,-0.1384743466423266,-0.0025562778572290057,0.15353490093565547,0.7037677097230375,-0.3514078562690379,0.8804665264654576,-0.5301428777160979,-0.02322220204020864,0.21999621618460963,-0.7970709596224059,-0.06479855244609567,-0.5690086889605965,-0.8317238385654346,-0.7306159979591109,-0.13514778396956006,0.8780805685604882,-0.4414483728595462,-0.6191897970464255,-0.07917389829675892,-0.058335391075022835,-0.203423981425777,-0.7898058054459203,0.38612990352409104,0.4491153067304725,-0.4593773656440814,0.8565200150677104,-0.3301298167389486,0.4460845697818636,0.17316360210646686,0.31374785385931303,-0.3049234403899235,0.13122370992614085,-0.8049832855869148,0.30880067999953953,-0.15273057250975697,0.23772140277733267,0.3046296360273413,0.6650125094944053,0.6868211092936767,-0.7180334168033526,0.5368716235583588,-0.8520463166421417,0.2573191562150563,0.6422576261332706,-0.4033200076306005,-0.5577744988074964,-0.588613424386609,-0.6613674801460603,-0.8573225334107748,0.2663375633034808,-0.5361376680616592,-0.28108335501539794,0.4984963401675617,-0.11216052142998323,0.261731952671429,-0.4593483543345618,-0.4484976289530629,0.35832120343321416,0.03378041793119291,0.5502195193246178,0.7045330312929983,-0.7148486803665635,0.02095659385328985,-0.9357585449297128,0.6463942944893195,-0.2935066071604533,-0.8721686694409594,0.5410196211592482],"weights_ho":[0.5021631403148561,0.43226798548229795,-0.7973546569601344,0.46517173484820873,0.8761692327408801,-0.17335092097839966,-0.7618169842942739,-0.5219369033606029,-0.7993381969017992,0.698089051667391,-0.21920136885387165,-0.37132211087366906,0.980474860569823,-0.01102586450614118,0.6527834146184479,0.02628073371969286,0.28614295577193327,0.037285094676651864,-0.38719568103964774,0.7149932973828559,-0.6820024455618234,-0.8927617957217961,0.20506767379042024,0.8245550412115026,-0.04560261888464079,-0.8492287532335063,-0.30591617992922204,0.15540008463783406,0.298088443106024,0.9958350257972677,0.5891106702080171,0.7342437191972797,-0.3296463742929625,0.5724937151968013,-0.32978297120086864,-0.6252062478066116,0.537652646096235,0.24372871705876342,-0.07422714632070027,0.1348433921158667,-0.15079889098668464,0.8222795654220909,0.9542911739402216,0.5560478655907133,-0.8399936483808674,0.17983971240401653,-0.4352018154367927,0.6865012470177712,-0.315630578624295,-0.09984828414312119,0.13528217786175567,-0.9187116627216156,-0.8949100199855113,-0.9889053143051123,0.17061403773590578,-0.7995510076530163,0.5950739283906805,-0.07735300687317981,0.29499935007477496,-0.6659815838803618,-0.11405106970892387,0.024870849089368985,0.9260817287267531,0.7123226121687503],"bias_h0":[0.7455485342778438,-0.960241798435352,0.9671596156663427,-0.8402815083420534,0.05921502448483329,-0.025117042526482836,-0.7081569826639926,-0.7254311007724457,-0.840011114547222,-0.5067242469778184,-0.7829297071990966,-0.24760173689326948,-0.8440108373029924,0.7227736798506263,0.6120808473769417,-0.19122754645508566],"bias_h1":[0.5002220118117802,0.5804106649226839,-0.2971277696848129,-0.35718538604094596,0.6320207921388987,0.42177618917881166,-0.5319666994734731,-0.08446925960374663,-0.39667783676894053,-0.7999738038399034,-0.2671393582771098,0.37464357324898456,0.27753866411427786,0.9560619988750412,0.607029540609723,-0.19650416706463347],"bias_o":[-0.956502833353438,-0.11416522269714369,0.884853232861998,-0.9442615896170594]}