{"weights_ih":[0.6764842208414477,-0.5558361961076244,0.7061374556877003,0.09588370891521736,0.7059589067127168,0.2227551024444594,0.04427123793439813,-0.339846593914205,0.6701489439535016,0.14929978714020664,-0.2903420676246793,0.19938012814696604,-0.29694244096195543,0.3040331832098493,-0.16321330361495057,-0.26972045323950167,0.8016706997548113,0.937387792411353,-0.1134473866049246,-0.7695978320176156,-0.2924902746950584,-0.9901375409468895,0.5650900779119583,-0.6284368970151775,0.9070114517124905,-0.22476962285234436,-0.6490894687331932,0.8452689202839572,-0.4727855807914392,-0.9600836902593537,-0.44008040148152694,-0.7736690340785013,0.6918129314370318,0.22852236296081285,0.015982995726487648,0.3033007248262185,0.1214451660634317,0.6592214881904563,-0.8505996460441139,0.8917720723345872,-0.27333612069609714,-0.8034277195075921,0.9171715068198076,-0.9836582997196708,0.871839778596377,0.9946151715492402,-0.9701906155981226,0.2715300481809855,-0.4701312724973472,-0.8476873887731198,-0.3429505013147238,0.7874600236883242,0.9590617301032109,-0.30558534261611126,0.7131477588747912,-0.3729195810041832,0.9221215296695633,0.09208196264181878,0.33628385578513353,0.7570476069380851,-0.07520617353419246,0.5454587003732714,0.4911649548908421,0.7083472492814336,-0.4918269669894999,-0.6039690200722834,-0.24052793076220924,0.22385021703940144,-0.01957704387895176,-0.506744030156433,0.35252929496147334,-0.9225283417886301,-0.19006750608081857,0.8603372474390414,-0.16145440270983524,0.023169534709576167,0.7480283869003197,-0.45537759846274106,0.6505637595333562,-0.3215719170788247,-0.8534633980424462,-0.28118922261788915,0.6713125629781358,-0.13491426455080036,0.2593301219331461,0.2624491039725452,0.7815607361898953,0.4110773132614616,0.25558369066381936,0.4051071312575476,-0.9340990764542147,0.828549216730748,-0.21233263700778626,0.8790874619943734,0.8352844545617235,-0.9312147609810404,-0.34148754024161576,0.364565448011263,0.5378400744756191,-0.09071258924470094,0.7876104285351957,-0.21169921413559978,0.4112656440630589,-0.09287364739766324,-0.19761431349715042,-0.4781486135363604,-0.22591174656191382,0.0545591716745395,0.357963952163578,0.85385524372026,-0.2265691408287296,0.9908927879792415,-0.08633823911508842,-0.9102672525642879,0.05575386972365681,-0.7367988696850454,0.3456049659668796,-0.9629717808808638,0.22383263051818347,0.9559482045627137,-0.45904647686397704,0.3143551624004619,0.7449358579153891,-0.7620065275921675,0.13134357231967697,-0.08024182485495523,-0.9374209272252088,-0.5065641301594845,0.7243599207282589,0.32197759599028397,-0.687047524280096,0.14878559677427683,0.15764719413000305,-0.7754274693999319,-0.4291382402236952,0.5416937914228277,-0.40695393794587553,-0.8269299337395766,-0.37734981166598747,0.5259375572220828,0.4936068890231977,0.9505701576639796,0.895476840384283,0.2564742052921687,0.6600871575126994,-0.0466252975570598,-0.18266980843527447,0.38908208155168755,-0.08494898677129159,-0.6821965652501247,-0.8533252305184778,0.14325243501153095,-0.869364659695534,-0.4954820840751901,-0.22594251670868215,0.282557272080763,0.19445500858368758,0.8682814414987858,0.8842573244932601,0.11997591440264976,0.43500256709645546,0.29436822317689515,0.8467666694325562,-0.8195926272029461,0.08059555127577944,-0.3203303277480518,-0.9205799427317094,-0.15177948128142638,0.625718487140402,-0.656004885836581,0.09672118625703718,-0.31961540027998114,-0.8036618920984595,0.3204359011030713,-0.36323958665422884,-0.5507305751447262,0.30399616354839076,0.8644829099608202,0.13391621478695215,0.037156671457377666,0.2559606415810163,-0.04033465450471896,-0.8056872376688331,0.8449003770614649,-0.8858166729879484,-0.7930857138081406,-0.5127598400721303,0.47608219283604747,0.2961390056999966,-0.8050018630156504,-0.1054935357807929,0.5255647137335417,-0.4292332991243759,0.34054892922996305,-0.2409494871945943,-0.5488487737354086,-0.4102814104155088,-0.06361017615103726,0.9142640150714139,0.7616584368853192,-0.582285454551642,-0.27174196283067675,-0.7577694399372872,-0.15782587307621188,0.8145338007562966,0.842205321931099,-0.21336414450017904,0.21930692277490804,0.12432771700016954,-0.40374536150153695,0.9786817098776219,-0.19170966288734936,-0.87404479619608,-0.46396602738324955,-0.42292687963728515,0.8803567200644431,-0.14232011255561217,0.2651851836881225,-0.22950718818768712,-0.42739835300360984,0.8748039939500738,-0.44189873700004023,0.798147989902269,-0.06386099900298037,-0.49282373830223847,-0.7804813741253784,-0.19924680233150394,-0.7387100920680194,-0.7222784703463512,-0.09993374983418035,0.6641700502058319,0.8319572883291864,-0.6293229954942801,-0.7822249125017526,0.7081696614410451,0.10989095062070575,0.19122250554622533,-0.8890591224915589,0.557289288591847,-0.978701364480214,-0.014117688795740824,0.06137797305021597,-0.6385683513105458,-0.4451300632740247,0.7670771773184406,0.3088749702713307,-0.19092949964484052,-0.5272721163052969,0.41691392358906465,0.8673394888002006,0.9222141215078559,0.027311918054178097,0.8503170860791895,0.6108706616983663,-0.7155885806794564,0.20121453761855013,-0.4918614483633663,-0.5556612747140595,0.07261804334071442,0.26566645029985914,0.43164585672873823,-0.5324264953333464,-0.05967443792299432,0.3933150126064584,0.6569806642572764,0.737651146594811,0.3398473026367135,0.8881162375334799,-0.7410605635324918,0.40667674366475404,-0.4038374205862141,0.10477528210759535,-0.19730906187715025,-0.5604519166833033,0.26749086921627474,0.7686709410146808,-0.483572298179894,0.5648216303302216,-0.3629879320559948,-0.6735117942283639,0.17537913642488756,0.40947460344716613,0.04494625060997559,0.846461994730825,0.2945243866452125,-0.9225790891048524,0.4343628009955165,-0.24289070988163908,-0.3976790888804742,-0.36475841012238663,-0.966503046260833,0.11307169913542392,-0.729102723036593,0.5207751784537962,-0.797600087490105,0.4920295715547045,-0.23513966667966346,-0.5181513997611462,0.21797775665278185,0.7163626052228989,-0.0783012284632083,-0.7158297940896625,-0.7254398192806408,0.44412835405396844,0.40775204063205206,0.35329329028297707,0.8323747665112087,0.31714314216091766,-0.8899027403226019,0.27160928023838293,0.9504859916946737,-0.047613850978208916,-0.6282220661757663,-0.889105181751128,-0.8077096643472588,0.18340909165947283,0.2379097404067696,0.07088926609702484,-0.6101275700363196,0.5958016414899174,-0.814068570649662,-0.983673554524586,0.9760543702250373,0.734771465913479,0.25065715378356734,-0.7530363652799261,-0.09676427963242418,0.7708770021671754,0.5092767849987503,-0.2530081518279561,-0.5935035922057921,0.05135946567776717,0.6612428300782576,0.008145777523778097,-0.5445266914420404,0.6772464671068692,-0.9182203190696967,0.5207981104339738,-0.25403892016817564,-0.9424698651788275,-0.6173379104744214,0.5797994277317011,-0.07475880557418191,0.4627596472300408,0.8596746647996312,0.1304111028550221,-0.014077512454312435,-0.7846026352760704,0.49418311410695503,0.25409998790777877,0.8507464978248107,0.40444542217156254,-0.5627791245745657,0.07255339676138028,-0.9070618454743806,0.04450834868893394,0.20597747650811793,0.4552801985987598,-0.16096146500758945,-0.5003960924648316,0.29348781656224454,-0.5467138755690195,0.40499324956115235,-0.4344677341790615,-0.23488407395142752,-0.28857354399598045,0.7763611502409322,-0.28511878513398425,-0.969862336576641,0.5729865983633462,-0.5398410403044909,-0.055871866949689375,0.3461186462453798,-0.26546741070328617,0.7866951697582054,-0.36372504007431083,0.2754277183720677,0.9680203458621948,-0.1535237829748346,0.34027784005380735,0.8903060810505541,-0.02633470415903516,-0.46801034596055735,-0.9438332813179231,-0.2861093615941215,0.6130902737251844,-0.8334744827907141,-0.53415927097867,0.05928083766192582,0.7988836837238917,-0.09474785093625271,-0.09547079676563364,-0.5901639974703357,-0.6006279946836812,0.3362317034845521,0.6438572739670978,-0.7320711306436114,-0.10085353016302867,0.8818716172448913,0.19694644798554695,-0.37274704666666736,-0.08688738748762415,-0.1015218899250645,-0.7496130089626816,0.6993862535819226,-0.25482966864487966,0.42165845860992257,-0.4958751429291339,-0.4446631960615821,0.8652264347418912,-0.42269442625862097,-0.6862580133784819,0.5960682116621825,0.823769748517478,0.7951707408886481,-0.5235542458819786,-0.6542213230534901,-0.1803476290642363,-0.6924642873915152,0.6673790001841862,-0.1572313902795246,-0.8991900391045777,0.7382581600679397,-0.08828166922835767,0.6029776074556552,-0.13871534353424964,-0.2598624825322555,0.03179342055198853,-0.2329475580937166,0.2756324875516256,-0.2290842354797178,-0.4325084024179242,0.5319821417955592,0.4122636830215416,0.5142131862372361,-0.3322316701365675,-0.6812976634716625,0.38976295290173235,-0.15504892014744898,-0.9143420097145891,0.7638166563886435,-0.7659978357482524,-0.04477392774482514,-0.6277706448103764,-0.6588566163932736,-0.395383661588558,-0.6106251551289181,0.10083126932932118],"weights_hh":[0.634248219260334,-0.4584988227122069,-0.8975234103313459,-0.8278463715994904,-0.7320879570661734,0.2537455625633265,0.8917974207255854,-0.17180705633249582,0.9461771120943847,0.15956444806970826,-0.7472736143635794,-0.02127237542968574,-0.8070114131453974,-0.6545929989500978,0.7408670641916295,0.9675419179330575,-0.1441334259270699,0.25541032640365113,0.22849462776878204,-0.1908001943387967,0.950964818254229,0.24095848703224565,-0.7734971941604369,0.2715109453715714,-0.7014173756647206,-0.8375793225922228,-0.037369694847305235,0.32823125902244277,0.27255741111573073,-0.9379226735565034,0.48659722782202697,-0.9352473920314639,-0.04426510491860758,-0.41750609745124656,-0.01503392575338558,0.406004045630747,-0.19908261855233667,-0.5138055605980858,0.7661816521948643,0.6881960165206717,0.5160726488530099,-0.8032429092854279,0.6256759337295021,0.5539968019786545,0.7772183185333117,-0.7746852554832679,-0.4100344006036587,-0.9612506695240421,0.2934481845257979,-0.5571109204735982,0.9805185853586151,-0.5996123910009985,-0.37760239948130514,0.4920587051010019,-0.6285726226804398,-0.45663629401381933,-0.4289015933584448,-0.08976511618269045,0.6247716444858105,-0.6670650216019378,0.01654117814209366,0.7222561710475077,0.15424893795924066,0.328577675053092,-0.9325145886786315,0.5485653633248802,-0.2518070470749554,-0.07872975630056889,-0.19503469272516671,-0.20466220471963625,0.44489739768765646,0.6015017132699683,-0.97689750698879,-0.7317185274899154,0.9851668852442736,0.5582383058574032,0.3907060491493235,0.39765992460425736,0.11882261057223742,-0.24192630467555842,-0.17825555234562218,-0.7878632377753942,0.7171901072718492,-0.09292537806203804,0.7652296493614443,0.4320289621333495,0.2233111720916241,-0.8538833639130636,0.8005663479158052,-0.4049366690083587,-0.4368081518213214,0.06942920684876341,-0.0010887511782284864,0.817062248478611,0.4494813010442038,-0.18983920032725865,0.2956255527820566,-0.43568951082699536,-0.6036390108758245,0.3296742255094416,0.8908352154580936,-0.33872286426460296,-0.842294585777789,0.14161336157210402,-0.3936285804587345,-0.7757947155399176,0.45546697620786936,0.9556558111686679,-0.4893577111019789,-0.48393858588527316,-0.9920691696521995,-0.41345504667246713,0.951908821307395,0.05660366422170515,0.29940566144026337,-0.5498919178878754,0.8083152123929767,-0.4022451326379317,0.36698283265402787,0.535446034729103,0.044887550467676895,-0.3732215363416538,0.528987313007335,0.7588098555496414,0.034255833110879985,-0.18471766576644377,0.04907298507053515,-0.872869142379957,0.053014403369167296,0.8928616412708281,0.9999891255676392,0.7966202072277402,-0.10687615864747024,0.8727433518521417,-0.0990707172747105,-0.10614672329663755,-0.4114565686296392,-0.06886075544386383,-0.7962217058389496,-0.369342768343647,0.19349166081181846,-0.6549367282860596,-0.031766572646795055,-0.864785444136688,0.7133490566235097,0.23418414429684864,-0.08659941863380616,-0.2806716458341407,0.21186531501194028,0.13050206834461076,0.09947242753613628,0.6627164093623379,0.6190971078836132,-0.9757244420875801,0.3519066558234718,0.9172809053409681,0.5470906101560895,-0.21013072032683722,-0.4188169996024367,0.5396103054720547,-0.6845934520317958,-0.9507219845690762,0.5713677923405367,0.35921989837949764,-0.9134629317426517,0.6298470809832397,-0.984284749352436,-0.8625660192248472,-0.21838740327528394,-0.29829275438229885,0.7271283468999687,-0.9922319098757979,0.5641217677560308,0.06418350848626009,0.3546448078794189,0.5105071146270572,-0.11275132664203924,0.4175674399134739,0.2895225943552391,0.40502088467878683,0.6629450553548295,0.18368815302422847,0.7072859804695664,-0.05971449903821924,-0.863843025136068,-0.2950546621620822,0.037461491366491906,-0.5144503883116476,-0.35229226683935533,0.5091738140206175,0.6495057585465014,0.6647816128242054,0.35471402431826626,0.8317979381423051,0.2083751920257988,0.2986772817471095,-0.20972245740895334,0.8794755927073921,-0.4154346932478623,-0.28558629109316014,-0.6430731228067097,-0.679017042030664,0.8258040898066361,-0.0522616557120823,0.9596771716902928,0.492715442733491,-0.08764508943919691,-0.12520033197245706,-0.4928057604545597,0.1249097685264815,-0.532536253622462,-0.036493861020960416,-0.8949740594686528,0.5930430011522321,0.06923637489617707,-0.7854022536144576,-0.5462219251759972,0.6204316439754982,-0.9694425651699929,-0.2437872344627281,-0.12236055292024228,0.9039300129356189,0.8584079751718463,-0.6212614005805177,-0.5105428795016098,-0.5305562426193509,-0.875539470060182,0.7363831981342273,0.0318888275389031,0.27020051749763807,-0.1378028054639564,-0.17820589011417698,0.3129574880704584,-0.034015392100470665,-0.6489456903429247,0.3469490379248821,0.987405159530238,0.18017936852114858,0.9991568044024164,-0.27672060471056703,0.4925348398584475,-0.5683630380371714,-0.408929269935391,-0.07143474215123513,0.694246145498373,-0.3112185983669211,0.7310358388930309,0.4011743226937674,-0.2614145456130734,-0.2951832878970102,0.7674665485939756,0.9768375638948295,-0.7385584030877663,-0.6096667018213715,0.06047010587559143,0.7921878998745608],"weights_ho":[-0.3698471233320062,-0.9197484672582823,-0.9677407325375895,0.3076832480608014,-0.4609559974899151,0.0862749731056196,0.4696281534468585,0.41367239744656326,0.4133266746160893,-0.4204760798189615,-0.35292988877555054,0.07145201238208121,0.9217079741094059,0.6375483159747866,-0.4041591534793927,0.8859602684523855,0.9777989193101382,-0.24683557352891605,-0.5504295080830548,0.412115633876623,-0.8906673089775374,-0.8043716944145103,-0.019747922810979146,0.6570130646646206,-0.049867953763633954,-0.6558667788326171,0.5953516807739019,-0.5192733462091825,0.021612344395298466,0.09651175326356332,-0.4366416089253444,-0.7749800293569065,-0.5215413277351149,0.9374741052666351,0.2067073458705717,-0.7029344674657432,-0.9368370603680178,0.5809278587887627,-0.37703840574539704,-0.018665837545426944,0.7659910191850845,0.3578196590783431,0.9616177037614413,0.43525085969602806,0.4900274516412433,0.23070152731431492,0.6744395261521943,0.09015965906020895,-0.28725281722860463,0.6718022488085758,0.30762872051560075,0.49018838712858614,-0.545011687738594,-0.2290186945345125,0.7374497369635615,-0.33358026050742384,0.6906396254781473,0.05018634606106498,-0.7465399034032985,0.640453342457941,-0.25111742910657076,0.06160230064154515,0.7118776085799337,0.459254306275362],"bias_h0":[0.7881721107248205,0.6404559848749978,-0.2914084749531156,0.38344902503627143,0.15515274456181194,-0.7825260561804941,0.6461117288303551,0.5382974188143128,0.9172628634148401,-0.5914000743943677,0.5921615909392428,0.7808366769486761,-0.3677600082150796,-0.4093478892066067,0.3930924335309449,0.8050272336422577],"bias_h1":[-0.24865661069747547,0.07954024161567341,0.15043432537120371,0.9822927902728362,-0.7465835486569108,0.5962900989892208,-0.8748671569014255,-0.12676451089233787,0.12006581972179986,-0.9692919708229895,0.7467996476379823,-0.3883268636207915,-0.6493984660827705,0.01817624436307086,0.7717263828588581,0.4087288816577346],"bias_o":[0.7537199359726519,0.971969506264974,0.07176124871445388,0.7751235190061829]}