{"weights_ih":[0.35132869365636843,-0.713697778355376,0.7066765984031624,-0.45423651767411033,0.9271475887753879,0.29301815263377007,-0.8141394294889877,-0.41529899291451233,0.7595129697872849,0.6434834669899459,0.5573345293736103,-0.7721848222405088,0.2681859649188243,0.24233016559207088,-0.43271920881514236,0.57313811062526,-0.05181350581895727,-0.6778652087424839,-0.8010266663219447,-0.6104295565752516,0.6177954834458479,-0.0048592914050631375,0.26061167123356466,0.44996940932017826,-0.08098123962158965,-0.5689921121690618,0.40205781523146733,-0.30269951034747145,0.8845480454133514,-0.511243881060899,-0.21791493415464158,-0.20477635311165576,-0.012713348730550189,-0.2606414472787548,0.06719147955818672,0.3977657595161881,0.32684907770668103,-0.09024457212744008,-0.617576130951863,-0.9298959466018786,-0.9540487904928738,-0.10020408566493133,0.4297303101987524,0.7626102998517246,0.7320641131492178,0.11907785157538209,-0.7293031850569238,-0.25778762683639167,0.029356007631023306,0.6986748040680801,-0.37857474755191234,0.913624719803201,-0.3575459751995509,-0.15241429636357107,0.18677805669813252,-0.3744954010045378,0.5327648871150468,0.9360051351880456,-0.7823802976364582,-0.3998796109611549,0.9161153082120408,-0.46130111379426064,-0.6504965157899296,0.7364490452891748,0.10908334865988434,0.765938948138208,0.2119624908108284,0.4807539984296847,-0.9592732170241596,0.4221323588887116,-0.8486782500058487,0.6550463291453785,-0.38258723764791736,0.837289620987296,-0.9355264554848459,0.826950211543352,0.06505895067128553,-0.6756146497124531,0.22227885568200323,-0.649187861160639,0.18604880818103564,0.3232065403901263,0.6676562974943954,0.3616992949564759,-0.02374722488455694,-0.9925121525321241,0.3627546186021786,0.9753896818737866,0.9222440076857483,0.7670161427025624,-0.588620320652995,0.9028467381931122,-0.608882116019533,0.8528538889938999,-0.4021298392641983,0.729011392386929,-0.7135316169337771,0.337040850688326,-0.983202523038265,0.16106384897920623,0.7246013254036074,-0.9300262526498906,0.8751018969825315,0.23791044205261458,-0.8776444898401661,-0.8265025564257387,-0.8618337890436971,0.9962331916456115,0.6464928282808764,-0.13318506316456014,-0.6932784077854199,-0.7829023617847151,0.12426621905836566,0.9016151717664969,-0.6126436226827738,0.4942847348505073,-0.6769108409725215,-0.7858029653645959,0.07524379104039247,0.7674632406324542,-0.49386647318565724,-0.5397278148200921,0.20065293341494717,0.6887511125826871,0.08514235970752382,-0.45001219240393886,-0.49886992757977366,0.8495812147076858,0.6949485564678237,0.5494312205149008,-0.1615512427151755,-0.5971959071802964,0.7561159599677607,0.22834032248700442,-0.152269676325133,-0.6777875893305618,0.1103617955911631,-0.06630878192041822,0.9044754238977548,0.33822835404446905,0.1910160311275535,-0.1129625893927182,0.30912031389784267,0.5872524032427167,0.3816579780006879,0.8206875500715611,0.5265564951617536,0.8473188670015837,-0.7949563213614943,-0.5305979391471545,0.19367885149334296,-0.4180561184068792,0.5698999660929698,-0.9183736844868429,0.16346404680892146,-0.7602947599783882,0.8976354834462932,-0.12159683123610043,0.055177778885113105,-0.5285634327702402,-0.33486444068885923,-0.23737130177408017,0.6495043868712389,-0.2920990423244776,0.2508466822122555,-0.5647935838449232,0.7099800879057947,0.2562959380177947,-0.5765949847513614,0.37419577114721414,0.7075640456388055,-0.7676572943273814,-0.8693927025688584,0.7488777536287086,0.16372284471395693,0.3504304213088849,0.3820001747421582,0.7205923822739972,-0.9474558027813995,0.117992180766608,-0.6242425705600523,0.34786270874433867,0.7175782127952581,-0.4846873398513334,0.4538319793323078,0.049420377447152886,0.16418375882471725,-0.7165636200920471,-0.6978842956929376,0.7089799323874226,0.6159161925364391,-0.34333414378837124,-0.4530558233764683,-0.42956798228528226,-0.23658972860617045,0.13366934107115735,-0.1285729837566263,-0.7112797527260832,0.060720914795011405,0.6667865384173288,-0.4476561849409979,0.758995252377064,-0.5277618862759919,-0.9152007127003492,-0.8538974886942323,-0.9695194398397664,0.3039528256781032,0.42699435330381186,0.14700156112048735,0.9475188952889766,-0.7125541731509066,0.901445926095841,0.7532539895381789,-0.6430825126300979,0.18983424879709232,0.6984867564046873,-0.3581753004077801,-0.4539751122563096,0.7054064996764453,0.9004830961165466,-0.17714913484385164,-0.16925294418902315,-0.7121827086500518,-0.3708486601795187,0.9285730650188044,0.3541004478176071,0.8747704102709482,-0.5830938554942753,-0.38781689636228633,-0.5686294117017108,0.42259741804317974,0.2929502091397971,0.7201793157758147,0.8875728509144829,-0.8610112922888646,-0.02405963448693038,-0.013825689765236238,-0.20886518206390248,-0.9474069225833763,0.13667977354528138,0.6358043731156402,0.48916558964058865,0.2253473750905386,-0.12800096595235866,0.09097615766085365,-0.9348411672120567,0.6332619826498844,0.6552270222652712,-0.31634663600830093,0.7632833065415461,-0.029017173516781014,-0.31051116002539136,-0.7156053830988895,-0.8334735381272054,-0.19940454575697486,0.27918500343679953,0.909808036588891,-0.06359408735675975,0.9255299413738747,-0.12173703519865109,-0.17663789247879214,0.5883774040320786,-0.1714833989827158,0.6231884653820365,0.565855483413765,0.6795452111398186,0.7888064110510544,-0.8456946698504455,0.09080360434532464,0.898732745735451,-0.014874142769092602,-0.5899108510951518,0.8402355857013535,-0.4502387521659168,0.6291261698593058,0.19375034464085017,-0.2796509377237364,0.2652514786930831,0.13930286073383313,0.49403110501032166,0.194291408339329,-0.1886281151285496,0.17528788237789872,-0.09129114305245967,-0.585002554892412,-0.8464154676862807,-0.64060639488564,-0.006029865072753715,-0.45360430191481216,-0.16548721271944578,0.48696748448524363,0.005733170712119762,-0.8344760405038336,0.47438879056240824,-0.3287242917172606,-0.949412351385903,-0.8423959507558396,-0.9343117539023595,0.5034714842850136,-0.6408786303856473,0.6877907778880952,-0.0928502937639415,0.9597921803134459,0.728826896412895,0.3898754995741298,-0.22180150734761073,-0.7756126386793805,0.5484452483642377,-0.31035203557957103,0.42496566731746,0.1776434921637824,-0.8765114342632696,-0.41168209684731205,-0.3804964122892316,0.2717629078084729,0.40101318906530037,-0.3299895524423173,0.7240374493045325,-0.9216591591198968,-0.3604529546297177,0.20089727153340853,0.10558979202395369,0.38697849094747716,0.6638020149920647,0.11637456914737365,-0.6472708348155736,0.5899450520460956,0.6762911192271595,0.9421603593882968,-0.10332378905705242,0.015860840879401872,-0.13720348641018498,0.20898798652248773,-0.8055135341647701,0.19406189720449474,0.6579900443864803,-0.33545588252437986,-0.4436994863759365,0.7657859157298066,-0.8175279520239165,-0.4677348358881199,-0.18547157659866786,0.08843282247282347,-0.5728898867586594,0.9474734474271223,-0.9088713229099119,-0.5919459861166358,0.5843903156597554,-0.7666387589049721,0.7981739257705842,0.5242068644604512,-0.6109318523928837,-0.013114487386520546,-0.5605669084539282,0.14929578961028933,-0.22219043460589694,0.7897878711869875,-0.4581351105996665,-0.9573845431216328,0.36266072945884287,-0.2895587540993334,-0.7071580606092145,-0.03996159646938513,-0.08160704961637255,0.827951292139983,0.5846394089865297,0.04531135493156935,-0.21060032020159136,0.18393452418276368,0.8036985550264466,-0.5084294732276269,-0.45392847647634293,-0.5048204887001104,-0.9889246856138898,-0.32041717491279087,-0.7808011515752611,0.4607461800887487,0.9947395474718204,0.4652999067373329,0.5890851438353346,-0.36137878542953894,0.5415431360715244,0.9335705090270041,0.3607231326809821,-0.5285140017334664,-0.930249501831486,0.8926737156208016,0.9852366174162974,0.9654120485320932,-0.7217575919356127,0.560384884670375,0.763243863408892,0.3241031812142756,-0.845883499550566,-0.6297763750946179,0.04641490817323701,0.9725525645370829,-0.5024223748228913,0.3009446951642012,-0.5553188719626034,-0.05088305659292902,-0.15334470082469887,0.740260606343194,-0.5130504585980049,-0.28398756782959134,0.8974222692564964,0.54737027912857,-0.2322751760769386,0.010838981323720409,0.7004432133460234,-0.5879827144918164,-0.7552878502961808,0.29618300734217784,0.3566976126681345,0.23081537059611534,-0.6484314947019534,-0.6846151133929277,-0.6745208231215547,-0.3392932424312711,0.5000982455697685,-0.1661634045761844,0.5460443205471446,0.3160062853273087,0.5294228447910156,0.5543837767334412,0.4277831973381403,0.04914750021364789,-0.7973736942661467,-0.7576366754715738,-0.13746734490972146,0.6667876105185648,-0.4117800845749675,-0.6835317307947602,-0.9807265094876727,0.3618407344846801,-0.43994367483649355,0.3529551237250026,0.7618573679659886,-0.7877876391946568,-0.8419459966236664,-0.7601235218135285,0.02090140651929384,0.03983457401043733,-0.7408381194832163,-0.8978242220450343,-0.7549542854762261,-0.36448227830345536,0.957733651440746],"weights_hh":[0.9264055123997887,0.7452755929442436,0.6570987027743913,-0.8120937199770859,0.349025307903873,0.3095622276564747,-0.559618635545057,-0.1902910850655959,0.5980977666175189,-0.5390710966024574,-0.9006177890808464,0.5574124327756778,-0.884111394499355,-0.7906134026371126,0.7727343424617665,0.9682588181642431,-0.33872244088911785,0.4350708886902621,-0.4541647318057249,0.987588747026243,0.5409802149711258,0.6954944351874348,0.20042339017105237,0.6859463038505738,-0.2455466747068451,0.9215555653168552,0.38195087323122845,-0.9307738259208969,-0.5710892678079991,0.07493851093020032,-0.3205753633463133,0.21234098889736175,0.4744097472579023,0.828710852750846,0.8143965539907854,-0.5011696452299568,-0.759057500849704,0.929088439684916,0.6223355912305377,-0.7676664640744684,0.7976864072114707,-0.4142316629453331,0.36552853884425573,0.7868119433189076,-0.688633196518674,0.6627813319424798,0.384235708961848,-0.47330919993807474,-0.609360923633439,-0.5546843498917313,-0.8808642382023832,0.010027033976698796,0.7125466079370104,-0.45778090477555367,-0.28401122588396355,0.6182596127854612,-0.742634648284024,0.10979671712596217,0.6567103443212599,0.16687157554779986,-0.010292562726964771,0.5662825995477485,0.7336491737807087,-0.9717827368930418,-0.015027823410746599,-0.45408228454862165,0.07840451377963631,-0.683058453004123,0.5422381588158176,-0.2517590630245021,-0.6514887128565539,0.02167419650225888,-0.886732522442738,-0.5594892579462147,-0.1386094878813371,-0.251781300284768,0.027828812655712687,-0.35896181380319137,-0.38527084435376957,0.9412072664921765,0.14556265034371108,-0.9803027259663322,-0.13614734859727262,-0.3518594868160865,-0.47013808958953573,-0.8256004353614972,0.8063969070391881,0.19108750919615392,-0.13789975967161205,0.7797221453137757,0.9119540217274738,0.697630963988511,0.12765805003077113,-0.2814989053321437,0.2938314493911873,-0.44434612657781325,-0.46197216217803105,-0.47819479763494166,-0.6483475334451536,0.637259276297852,0.8803649332789385,-0.9824010714348517,0.7963882656102874,-0.7400677701927765,0.6835999813662452,-0.04023979836297209,0.5146745766170899,-0.4791396249872908,0.7699388091959478,0.787949384126388,0.14657319434389082,-0.19131926911912966,-0.1644852528327556,0.6856440284188245,-0.48335895666702355,0.8088769229490305,0.96033589974698,-0.4204044529182105,-0.9836545947984039,0.6440930056313046,-0.27849690112679815,-0.19196582515650285,-0.2012908800344937,0.919935566089727,0.2593487071732843,-0.3288302776117138,0.7741005367911269,-0.5911515873153181,-0.05904445972094163,0.582314641662713,0.19367844011629698,-0.2227174645981449,0.09664693246012823,0.8120326086261613,0.8913593399062676,0.3514732428791403,0.6880574141643134,-0.9301621554265025,-0.4215378101084457,-0.6697870990588557,-0.6905232150779377,-0.44942120910865935,-0.15711862088509831,-0.10529760331348315,-0.4861530952404336,-0.20835201531764658,-0.47800053783624663,-0.9158750332032888,-0.2921346464298771,-0.994096998755938,-0.6441816210385227,-0.585951303955867,-0.0801676264151836,-0.7921136671304085,0.4747499326185769,-0.809914383448626,0.8836020622099945,0.9513969474175377,-0.15385598656364907,-0.16873728455201853,0.4449908688829689,0.5397344207836758,-0.9896801040081034,0.9378206550970138,-0.5299262219174123,-0.26711051626480975,0.1060722460031831,0.5039877601823888,-0.11904063770194528,0.6418734756195705,-0.46658756313826233,0.8717440091569371,0.23694576315823412,0.11629405343604415,-0.003241148612211031,-0.3758404710113872,0.3537459695608951,0.34687921301087443,-0.7190096811888935,0.6814484539426648,0.10879995854267777,0.46132103558715665,0.07067264687961483,-0.9899092654320274,0.8061759350592104,-0.02555708549686564,0.31948743535978896,0.9773445178250517,0.7561381577287409,0.7417362630384836,-0.10088766503236113,0.9057279763141393,0.8225428630504348,-0.06254104222697898,0.33451881924720595,-0.3755733382638393,-0.4580626169106137,-0.5778372954703859,-0.8442031182805967,-0.3216125188055039,-0.0546018656435463,0.8422235170685224,-0.6372179168196905,0.5989845458072884,0.3981784719661565,-0.6671029263184867,-0.9545364534224945,-0.3591639808747278,-0.5127248603261143,0.7699211005117499,0.6203172752996766,-0.7037557438676814,-0.8011201051961687,0.8175935037825344,-0.16286628185478036,-0.8456399065845455,0.028847539936329936,-0.42552661416749804,-0.1950225297225292,-0.6894861868253499,0.6734322072276755,0.9974578424598948,0.5615822239049448,-0.11600474004605843,-0.5513977742137426,-0.7766856858849469,-0.8860275833645146,-0.8617885044090952,0.8394842630951507,0.7475093653169005,0.9843002415632027,0.19849577109633398,-0.6741540254042919,-0.6666931503867353,-0.8615685783798179,0.2856836266120486,-0.9354173230147529,-0.14647993371697776,-0.9844993551756591,0.8964490662837483,-0.1657241467802173,-0.008960763209160172,0.05710986249708472,-0.7211506445382199,0.4776047955981437,0.1455803528844235,-0.7382428557450615,-0.3930096016742459,-0.807742776892586,-0.8224910295046892,-0.4853401623093374,0.13837498736401543,-0.037854078563978266,-0.6363778007566363,-0.5693414080426131,0.9622291399654379],"weights_ho":[0.41045614912087136,-0.6063924628277788,-0.23712201101070152,0.022718457965041683,0.7849977135100357,0.05523569745075885,0.4260907376788792,-0.0064509747963739095,-0.22658467541194516,-0.5241172540246979,0.8045721042375926,-0.09292785683703308,0.09679590621003875,-0.17903231411777187,-0.29085050805435086,0.7850821386671878,0.9411097039851624,0.9718343865087589,0.6862596848900446,0.1251151467177185,-0.2816103649599746,0.2507999560111793,0.5096181562791486,-0.2431577608561568,-0.6951133314116915,-0.29699007635443553,-0.3447612348907594,-0.4444387781671586,0.03376853207352237,0.265003080906528,0.19381278314006822,-0.11837113820121603,-0.8394857043674286,-0.8042483764920345,-0.47799825808323315,0.7020647015581842,0.1888077129732666,0.38028705411905595,-0.9624692156077952,0.5868486971849434,-0.37793100890360076,-0.36662084724485533,-0.18679867483674784,-0.403308884295162,-0.072749180034962,-0.7814343927696943,-0.07013320488494545,0.5047907939759844,-0.48508178148668635,-0.08702720368652295,0.48304153381833803,-0.3191515187017644,0.2521719531421984,0.4739291316119765,0.5338024810666262,0.7591730655709108,0.971786104112603,0.49035596128805725,0.2078244669032967,-0.8259742842491999,-0.020571405679404187,0.31599444286895917,-0.18505712912205596,0.9593211089139688],"bias_h0":[-0.17448549606133756,0.6722855915713406,-0.3650256688941804,-0.7777237225740443,-0.6818509352499955,-0.10397619953903181,-0.5088303274627413,-0.8435407518309643,0.4982515997120991,0.03520333775215634,-0.6770266805337481,-0.7373116509572364,0.7235500639825527,0.3610890775005233,0.4855735680917179,0.38814640693566993],"bias_h1":[-0.15861411714724927,0.26062970388742746,-0.4204284355787731,0.775916872276238,0.4927956885248088,-0.7585629888117402,-0.09862429906379688,0.9672612095147413,0.7155168017982132,0.14105730846808084,0.4433930916810638,-0.1523693425455539,-0.47698098964458446,0.351176295597881,0.39349020516284106,-0.6697259564851925],"bias_o":[-0.9817453528511291,-0.8607935821334263,0.4284017350759848,0.08639335075410215]}