{"weights_ih":[0.963559633113843,0.1912930279916787,-0.19512294074335612,0.8208223752640462,0.16377959134473863,-0.749654421039361,-0.22703472770815813,0.5901610201465932,0.9487335603409497,-0.18996296580687022,-0.21971682145205818,-0.3861182264461247,0.3849482084637119,-0.7992506811028837,-0.8197392923097935,0.023333993504387696,0.2676053614823861,0.5107578305467082,0.7760948400028702,0.5128635925230254,0.3656402509981085,-0.7849156623646236,-0.38511732570364954,-0.3033692931364038,0.861876677225146,0.08659356418435582,0.8964798011998956,0.366178837550996,0.3693030735377465,-0.025165836736199765,-0.6617189820286549,0.28207901143500114,-0.8268621662082436,-0.35429706253485116,0.31918120411945305,0.4974150529440535,-0.8286648884941137,-0.36164141121239446,0.5427124153483673,-0.07091944007578621,0.6524749160341075,0.8319098131044553,-0.2590786286908393,-0.4253238928914993,-0.11004165182852854,0.9165196034384604,-0.27197998235572074,-0.41601360507265595,0.5357043296245487,0.8704827130823096,0.9567240827337793,0.8375442538880002,-0.34486564155463206,0.13846026137346845,-0.11339576624299963,-0.3658174652265658,-0.8816940935709305,-0.704528223497435,0.8208449095867729,-0.7730079339239349,-0.4206008916117092,0.07271556156649028,-0.5179602757993682,-0.9429255952798365,0.41337810444290124,-0.950187953687347,0.760318282592439,0.5099081137181714,0.7190628286023755,0.48999475791128244,0.6003245511989388,0.9113812340409924,0.13714490559972758,0.08117579975215006,-0.021509051479344565,0.978545338648928,0.9638958882142385,-0.2507687781716397,0.5120215711740475,0.7288803546611451,-0.5326876722055742,-0.9035576174621214,0.7092133594510983,0.3918835986676139,-0.4424811230099355,0.6383019604210189,-0.2254499535541321,-0.7234316751339567,0.2969629717438347,-0.7230549210747652,0.19266035189592756,0.046168473759761186,0.7902608407227665,-0.9950973275455997,0.8051026418399414,0.37314934564803637,0.8563186494324329,-0.09247730417386824,0.5258735770585172,0.26788035803540655,-0.957660541951074,0.5792086714558293,-0.34063473038384373,0.5911171696805326,-0.7823255480909739,-0.16939585613003816,-0.9836370827090362,-0.3637726580360823,-0.22167261520851222,0.8684340696761705,0.44509864266175647,-0.4101566328686028,0.1709247920895891,-0.716281869081999,-0.8316092266273705,0.5747306538639105,-0.6627082715246513,-0.8461867482495147,0.48912417833899147,0.28747630233053045,-0.22490119036159895,0.48066900937793355,0.6394942556070651,-0.8105508056169473,-0.8336561597598424,-0.03938678863921319,0.5547129391250543,0.18206480566455197,-0.2652190832346828,-0.21664814009891065,-0.6180325755498646,0.4055193315671286,-0.9763551600148026,0.8242649071823094,-0.26761070430224443,-0.8257465838860241,-0.41229638576225924,-0.8751407827637312,-0.6835281282524641,0.15172702036504426,-0.6452954653015219,0.7135377038573016,-0.4230251001258283,-0.5894452254829203,0.613307494326577,-0.8703039772068673,-0.44729599654761154,-0.4767185150740869,-0.8030278288459753,-0.07211185282551646,-0.9707649740180202,0.15050078407372935,0.4378265486668693,-0.06231598788293913,-0.6811594632619764,0.773496302593002,0.6696354027599467,0.30949042857242737,-0.38510711817866117,0.19023634291507907,0.8676402239302521,-0.2183923932890517,-0.35613053847306353,-0.8032721420169993,0.006885879777108306,0.9001892021195461,-0.8904120056228237,0.851502126060178,0.2718576041107217,-0.03953675722979355,-0.2108586675511832,0.7085870170661113,-0.32555654694840075,-0.7522258313489478,0.31866889968732837,0.943192256383059,-0.8612349690886965,0.7992077638147479,-0.8781343777180473,-0.04161762810424152,0.9988565904243463,0.00734979255919832,-0.36752187638652734,-0.8542063410309122,-0.4532031231157958,-0.49941851774186974,0.22475543451113866,-0.6174881323264523,-0.11080647068698246,-0.8919539049083514,0.2819616907233713,0.344566631644724,0.9018222735652195,-0.520787263557035,-0.9074781789247324,0.9062760210689429,0.08436723726247553,-0.03343096365728693,-0.4406909418010858,-0.17585753849377173,-0.1565359176601362,-0.7963891817303388,0.9291722459628751,0.0908759136013797,0.45940870956578017,-0.16512417196084184,0.9762775322907447,0.0729855301781488,0.6138900153508438,0.5157942135607525,0.17683590859333131,-0.6206215182226504,-0.6557837300994498,-0.4052951249602357,-0.9172029817495404,0.5598898965991312,-0.24527592140472465,-0.1940271858709448,0.962878767255315,0.16567925943977824,-0.777740921974222,-0.3067226702077983,-0.3019208014457202,0.7468524103550542,0.8005641284475813,0.8401155175698372,0.6989161444768628,-0.4470615821035042,0.9098766416051294,0.7274804910996484,0.34341354055056117,-0.7340837513096881,-0.14759685026986058,-0.25730186161241964,0.524544909905253,0.3087471360157876,-0.10900771099973738,-0.19593029346837554,-0.2810841504985302,-0.6423801458076162,-0.6067959368526159,-0.7077092750924809,-0.3523061830125407,-0.9483863217977753,0.9481418756021975,0.007732334373507843,-0.4216796453376257,0.06295959852150501,0.728782867895424,0.27860096589666994,0.7385203648219691,-0.23509243509160282,0.1778056985345573,0.22206176746887007,-0.8805138899533371,-0.9971907057282381,0.7541446873022768,0.6738205828151238,0.19766428840976458,-0.694667367522634,0.4077871225232954,-0.12817060158223392,-0.24312330633989032,-0.15263237143298225,-0.5341211702678887,0.6898495085183984,-0.1278819134232978,-0.7128846997439735,-0.9587599620881464,-0.940443334948529,0.5096990252451072,-0.07028981453979055,-0.7561101036112037,-0.46862946353171964,0.5022615988732793,-0.16459175396674963,-0.020491746648485742,0.8562558051794886,-0.8730915858819808,0.47576777799353454,-0.6103492178393617,-0.6631185239330133,0.7424764378594899,-0.7543189839410183,-0.7694515161968729,0.813202073157173,-0.3790132874269414,-0.8488229791796129,0.6224428852295543,-0.7813277785051886,-0.07723989504028661,0.306233486055951,0.22381820822358733,0.0650314950418649,-0.37792701404634665,-0.6512361913529809,-0.8462901904585507,-0.32965813860492177,0.8600712047511012,0.8509889167937881,0.7959415816862565,-0.6318163689270702,-0.36750403290821376,0.09117920642236776,0.6677853116111587,0.20592570902686758,-0.11477400955810313,0.8664677768257458,0.07174471085252687,-0.19073052272650437,-0.988908331944923,-0.19171860049799738,-0.5391448945817554,0.7369459189438934,-0.6347361179943758,0.0747945751657173,0.30307121257794223,0.6075434881887394,0.7037755711844971,-0.5012367974532841,-0.5783678046989744,-0.11852490247798353,0.7756062618643422,-0.7787069393901702,0.47545583776293143,-0.49491243301269505,-0.6156026112677662,0.5343106350537847,-0.8563882292065044,0.07693716896980574,0.7864497823765524,-0.042793734360756286,-0.9140019196579501,-0.2220297938963962,-0.004219770239921816,0.0998701842087708,-0.8790311650807936,0.14820214094637696,0.4208526703438449,0.4565173470887749,0.872455187111759,0.3437715300071691,0.9038732813537704,0.9391178070399933,0.38537119147836263,-0.4595534432470576,-0.7531221754346293,0.9097312653291332,-0.4074270267101021,0.6445519721815067,0.41632749290500204,0.9268886070065776,-0.7873760825885185,-0.5332937360533767,0.45866605064248467,-0.055552891665008985,0.7668922000245166,-0.7231143928295409,-0.45351144965801904,-0.5415923954096515,0.6971413098892674,0.9488460231483129,-0.14127271972838895,0.38407135157922334,-0.006253097941807173,0.609162587424072,-0.6010376703942311,-0.18484202464598076,0.05464072244655083,0.5222613014265607,-0.17985074379187949,-0.07282489082184496,-0.2621824812520923,-0.7092457292677756,0.9758875958056208,-0.9571376965008487,0.5274483105151961,-0.43824685979679256,0.9325408622432991,-0.2713676272115175,-0.7056229639713509,-0.20289318649139343,0.9415265657582539,-0.4425003676099235,0.9604786511871795,0.5203960137624069,0.699649036622443,-0.6728104613678001,-0.8809636501652174,-0.23372986816321184,-0.6327679700337197,0.6210985216996241,0.45905497356514946,0.8896920030142257,-0.5370924929473997,-0.7238333590514141,-0.783575899711551,-0.3710428588187509,0.4980640409708781,0.9417884982486833,-0.5753923071516878,-0.027625005138068648,0.029398478296087438,0.6928290850075118,-0.12874197205923488,-0.1998715203655188,-0.6560831674909613,0.9581313304169417,0.12320116697522865,-0.007160820084178399,0.5618713878452246,-0.23912833442225967,-0.13076406822061837,-0.8008647991363005,0.8412709116907842,-0.09012648812864454,-0.03021853173093425,0.7900487317470983,-0.6026793691252583,0.4793963557859471,-0.9363254295618382,-0.6583820681558932,0.26758765192380296,0.8544144938119704,-0.6425891096991749,-0.23986260541909754,-0.4286024940579707,-0.8242100845412073,0.8029920297314852,0.567281033101876,0.37087107886082915,0.07665067771015432,0.9211820343094577,-0.6578395554762024,0.4100314318306877,-0.48464492644287227,-0.8394568363251131,0.8246707184578821,0.29933926709773373,-0.16531556199829867,0.29938884113589115,-0.980466458253789,0.3435541126714836,-0.47034302930128136,-0.7696132578234014,-0.5695865121929105,-0.9684653597306001,0.6352397311345312],"weights_hh":[0.34143848172441316,-0.2124885434756032,0.2754707397121152,0.6491125001227889,-0.5678314897401109,-0.9203999958086682,0.3548524061500946,0.015411103263122783,0.4071180416309421,-0.39332661169628036,0.22458702679517017,-0.13936653162548573,0.31000763207385096,0.01816631458413842,0.2146179390612668,0.5622562334519075,-0.8106068186306519,0.8277087088169173,-0.7015291676374864,-0.5586124396825647,0.20608678115714274,-0.07666440251470852,-0.5211347661951418,-0.8877345724560237,-0.609111279093991,0.37614874254528896,0.7615184320937873,-0.5020206770772653,-0.8836831764247242,0.04640068174635226,-0.32184436023165874,-0.7339255412070358,0.2971917350975726,-0.11213683125746288,-0.6385950170957964,0.4372637053278223,0.3586255629978914,0.7160324991348896,-0.3542513134661527,-0.21982432690714004,0.5900226363741417,-0.32587167505380976,0.9963045005064366,0.05171065650096107,0.14792238928090362,0.5315022306524129,0.5475887724951416,-0.8421550551193646,0.29831381364914766,-0.6504727118290778,0.4517763143215292,0.06716216905006944,0.34555350546183883,0.13697405359979986,0.6667235263825866,0.9018698715705631,0.7893312998982525,0.20709563433347955,0.9919608015979842,-0.3104989666832074,-0.0048489419113177945,-0.5753082284304181,0.3245357469128898,-0.8029596330548359,0.05135926590596118,-0.8014809102226628,0.9071480532207234,0.055297648688990675,0.8178397348961213,0.08841484524527798,-0.5164735513908081,0.8474105985973532,0.2162555808712514,-0.26733381032568526,-0.17930305041369232,0.6271703181935171,0.8006879635030468,0.1025227080511728,-0.8980874381581454,-0.8326489892337208,-0.3459887348997084,-0.5199591767237393,0.4576752138499709,-0.19578053162375575,-0.9205838322759872,0.40528671097797386,-0.5331792245269542,-0.08553430269136042,-0.20620917568198815,-0.8566833150708866,0.5420480362797677,-0.08222381190852768,-0.1133304357428706,-0.22387878584997556,-0.5578617673234645,-0.7155193262750181,0.1399322078112728,0.7050524515875198,-0.8740295837193421,0.004610816394694295,-0.601784302939359,0.23537215437319636,-0.532805704504427,0.9371895468678761,0.2979822151687055,0.14718623098145733,0.8271668234705432,0.2740119804796477,0.30325025120696014,-0.019887636235820016,-0.8056982252932885,0.6677729749225592,0.9178684129172798,-0.5233280164654655,-0.7605643949769709,0.8794378893921733,-0.5123792201730297,0.9149854140145792,-0.9896128878417676,-0.8721191638443657,-0.5357681916861872,-0.8561779956837641,-0.6699738285234098,-0.29373563979472084,-0.36277370903849526,-0.21152180796815068,-0.2876416621074547,0.32609437559855325,0.399361240185373,0.9516416389205893,0.684619608102542,-0.43259427263280337,-0.669861267428344,0.8576475425520211,-0.11653162261153094,0.9880209698989308,0.23462614901321155,-0.9032547922781291,-0.9597576426030043,-0.43519002919138505,0.3980043045145083,-0.8446546128468042,-0.2874556478363861,-0.8695441500476324,-0.3424311383558052,0.5160520305857876,-0.4838279342328433,-0.058350726522094165,0.5561415349797225,-0.017781410591954927,-0.7198058083890497,-0.8552832097701033,-0.5350377706032521,-0.02149592676102241,-0.36878612637812513,-0.6840329965602274,0.42156814076855054,0.8844544406693504,-0.6724973827350889,-0.4860538207797023,0.25447444774404704,0.6852700454832341,-0.22302801403830608,0.8961278089768596,0.9346695168456962,0.15270467401250487,0.4138610273285428,0.41666453412010007,0.949383693378602,-0.03213380627133655,0.39887806363238565,-0.5947180981528695,-0.8901206888136926,-0.30372242316603604,-0.8885481268809197,0.5287318886871717,0.3398504243659657,-0.6740267177736574,-0.0392080519776099,-0.5748067763390179,-0.5300591760405666,0.7768781538472014,-0.6043996929741844,0.436208183718761,-0.11753893051430064,-0.9987714013681708,0.1384242469696697,-0.130643719104113,0.47489690192297296,0.5322765404712189,-0.9930232612318077,0.22319242074250667,0.8565480408068049,-0.60255250520945,-0.20328865519629846,0.10383295667860937,-0.6659134997491345,0.20630919949984783,0.671421622706855,0.44399922813029447,-0.44185733453073595,-0.35302990246176646,-0.7081069556412396,-0.9526688156884402,0.32403702389096356,0.5164041520755644,-0.25909858223454374,0.22912337505101865,-0.4601180461471224,0.2139339198407315,-0.2433581309384285,0.2607079962748198,-0.5224190780620275,-0.8321774273907918,-0.1388412000866004,-0.5105288316371259,-0.7671074184151321,0.9908178588040433,0.20560589751821734,-0.9182332443031898,0.5321914357500843,0.19549546527308337,-0.8166228683740315,-0.9581954242274997,-0.26544688128175475,0.01982724992135121,-0.8541211260992372,-0.8863311588298932,0.5474619102897171,-0.7143247215612873,-0.8628710423979586,-0.8267739628385684,-0.0301000376104954,0.6187822254312767,0.3179233933263459,-0.9557308966109148,0.9564605664474644,0.8966283633746206,-0.3032250480145564,0.09879279655908779,-0.5182463536545574,0.3284703186553306,0.3635874636574181,-0.19141833224915916,-0.7075581211714959,0.9109892682543921,0.41362353011190733,0.4626429318681051,-0.8089608428722437,0.928668171253128,0.31476420129922755,-0.34420513699489397,-0.145353252131184,-0.786708733909288,0.17096030833210762,-0.8964748969081007],"weights_ho":[0.883205348647075,-0.8180634923589793,0.8304622345692854,0.6950172544525106,0.7283904919235242,0.22521954345342166,0.6896276112758624,-0.35719694177511263,-0.5210560426904414,-0.042709129364206566,0.3303886634816757,0.7180817842081428,0.34321558763527626,-0.7950320203634251,-0.728635415776961,-0.6375267474973347,0.21558589158745378,-0.18358482028602663,-0.915988249366334,-0.8044934933134018,-0.3099446625661306,0.9136906452202394,0.4921618879364531,-0.14385127675907627,-0.49906106738105116,0.6712254395480381,0.6105671076667487,-0.21959815216850775,0.06346102090538341,0.4655913726006846,0.7963311660629517,-0.2044385758693359,-0.009228750808429886,0.24673466258546117,-0.8849327709705395,-0.7233125485352767,-0.7283107788948993,-0.555397797166149,0.8029815472385453,-0.9902931771190038,-0.23969117932136164,0.039722975658732285,0.9459537029068859,-0.6865981832068131,0.09036124127044598,-0.8631134569209387,-0.9887459018111411,-0.6938530536786955,0.5756641934170907,-0.5230681256290828,-0.34007481377622995,-0.30845560932075244,0.6988737260785629,0.5927671300848301,0.6459263969934135,0.20811970679209169,0.9824660519705053,0.9541890118469387,0.14479003974441684,-0.11935091669312636,-0.37743089527637896,0.5607083678301512,-0.9793874652990995,0.15494161731173417],"bias_h0":[0.5016362488464374,-0.7569661020907741,-0.5902922289461605,-0.7476737944139595,0.4741482619159838,-0.3903005815100036,0.16881922175798691,-0.012225140698865822,0.5636352314522428,-0.36978624222803447,-0.9224570629858662,0.34432622527778856,0.5387154125395412,-0.46901087973796285,0.6384812337539103,-0.46057256956073545],"bias_h1":[-0.7485440105560901,0.9321549290355411,0.8238787772911775,0.32999707179124727,0.12272917096619729,0.7040502026769002,0.1596151209474337,-0.6375577629999558,0.7590673605177933,0.008128869505793723,-0.3068838388069268,0.6331195723812542,-0.1039600300923802,0.3413873690847493,-0.7451699518618344,-0.3941513008436299],"bias_o":[0.7251911374495983,-0.6525362840039175,-0.0983578520105648,0.45927826333864497]}