{"weights_ih":[-0.07269582550044906,0.8095442859785917,0.7897407520716164,-0.5987216619396591,-0.7845761044353203,-0.3620179331261715,0.5381900076196768,-0.6216467858136532,0.8535035019229245,-0.31741502761497453,0.13444520695388928,-0.297427150399892,0.6986581254314665,0.21897308292034712,-0.3807954865328418,-0.6951415173848368,0.6390026229050805,0.010884938696972934,-0.1422525670369088,-0.6566144196454309,-0.5182701555024438,0.11981147028575645,0.829013922360929,-0.8897344537955072,0.5056017023880872,0.9687542021539419,0.9256082793871379,-0.3026355453074028,0.8131686690675446,0.9086009151351859,-0.1954255508333167,0.8723003029254999,0.1461275283341683,0.4771806250849193,-0.10605262585871977,-0.3058941934375343,0.9663926629573139,-0.20627005299761825,-0.8246425510387876,-0.25167085536493006,0.20658807623333164,0.1862842281888233,-0.677855199912927,-0.75149304234345,0.5093554882052826,-0.18644039567950954,0.7853058286328896,-0.4733851314340558,-0.034743023351154534,-0.25827383344085386,0.887020383137137,0.07745537137917635,-0.46509644918877746,-0.29747170470514184,-0.12616619885978198,-0.308655729099254,0.09791267329670239,-0.47590015902864535,-0.6316924975631204,0.9712863931828131,-0.6425911067408279,-0.4054000748498927,0.3623586534397294,0.9916307626768708,0.8430984078819201,-0.39556286768997895,-0.256235326248907,-0.5247028805506686,-0.4619971299429064,-0.10576951116911304,0.519821174035181,0.6634678527132778,-0.9446299625156831,-0.31157997335289056,-0.5077146400989021,-0.9659272337087641,-0.2753026609019906,0.7648313304055696,-0.35502485252031235,-0.13531438010505692,-0.2191192354985887,0.6143753074946445,0.19472385872236697,-0.8046718590502087,0.11820671696091511,0.7308453558989516,0.4053679431723958,-0.2563201204813361,-0.9139739761384469,-0.5773395001549886,-0.12324141981377945,-0.2954322691492175,0.9073651019128295,-0.3014731141166467,-0.0399246447451167,0.969192340684506,0.2950095540289803,-0.3113517088534916,-0.010893055812441155,0.7329084340081393,0.1580222770816817,-0.8838929842080134,-0.961566578644997,0.63666858309375,0.45759710751220073,-0.23013628270611575,-0.9447416065834608,-0.7514259551550369,0.18797372224950282,0.3218664102458124,-0.9758147356115434,0.5707646094598606,0.9603883730384881,0.9492168187941599,-0.40059360322330617,0.9498798264291854,-0.8474231115613791,0.755986061260199,0.39180638226457654,-0.5854161595121552,0.19091679701266373,0.5620100558792367,-0.6894477585010936,-0.20024283061212067,0.4616136525059873,-0.6716815190579433,-0.13809570277119976,0.5583464265330333,-0.45574835331051644,-0.20583637623761297,0.8844365982115208,0.6761048527172548,0.7128483659884197,0.3401984864334149,0.11792863478776039,0.5208441705858895,0.25146282306104717,0.13784909824137404,0.059226517483032204,0.7287411053881112,-0.3895903303081334,-0.6119459827005069,0.07708107873525338,0.7053644923928244,0.5655174267270522,0.6407107491757138,-0.917476624844566,0.004293375630995522,-0.33054903757681764,-0.12241107996874945,-0.2433803026001362,-0.05870330512348265,-0.7495620814691262,-0.6803261181459221,0.4272241375203987,0.46137582972614677,0.37001068069769993,-0.04993002392055135,0.14588310988630826,0.8089642303751805,-0.05275671761622003,0.19551724129714998,0.044464842887768974,-0.6373330770223085,0.4528559485321868,-0.2994406348354548,-0.7731783465125901,0.6475479177931842,0.6232713849542832,0.0536089783432947,0.9635966969520597,-0.7455293461713608,0.3079754189868671,-0.1114317387120547,-0.22206046435524152,0.05921895352109097,-0.6562537504106294,0.9721246349217745,0.10688762876972668,-0.37590711420253275,-0.9210432633725527,-0.28113156548743246,0.5281766999453184,0.3306018638844668,-0.49159185632313496,0.743025948097684,-0.3712505270322062,0.2156502101385187,0.3122747783108206,0.17407158104535725,0.41286381125889426,0.49348924840522623,0.44187207908343407,-0.636893626498843,0.3204097342676635,-0.9430414098647388,0.22741307242909903,0.9402600992814014,0.845585165612736,0.31959766011975166,-0.04863678020675266,-0.8567098292366531,-0.6951164119506927,-0.04570179804640495,0.7890332669610693,0.2982827106928685,-0.24362602623115026,-0.7659191161814063,-0.7331440851573516,0.27013665434762624,-0.1344385173685403,0.09828883601496097,-0.540140531837934,-0.11330441834201066,0.36466993809095793,0.1408304913404017,-0.11283383215363174,-0.5188246237107652,-0.548655923457984,0.36206534831278625,0.4670925030523665,-0.2965269729932727,0.2124285876326304,-0.04131476895793518,0.6302111793160083,0.8266057466731307,0.021623042453807306,0.6226755982199905,-0.54731588383452,0.3551565627453708,0.7604927467156057,0.7274249152275281,0.4160512107385672,-0.8386607882376564,0.25475212328392516,-0.8196865402029754,-0.6753985627833552,-0.5512208568873478,0.8463365591087475,-0.17700034863527558,-0.15624071902035164,-0.5069981352557247,-0.24048038943387007,0.16391746762547799,-0.3939984279183131,-0.20859747318435806,-0.9489437875653988,0.8158988861241978,0.31339302830683535,0.6747750387191858,0.19831905461259836,-0.6859700342779818,0.9158608444667837,0.40952883429769504,-0.3809548124862505,-0.8729794851824169,-0.13461078008252114,0.42325823526844286,-0.2521234138022155,-0.6110197241105921,0.06167915155227677,0.7388707381064632,-0.49391084098228033,0.8094233953538756,0.8811401374447121,-0.501648207914883,0.44083877061647314,-0.7441933245275545,-0.30245574920414064,-0.5689838152521447,-0.8687003209506072,-0.8666279456656345,-0.4436643367061812,-0.46875454009511786,-0.8960669330562303,0.6784907315608617,0.8034400475677077,-0.18148441215410993,0.6363710961718121,-0.012524593819652985,0.6521307749861132,-0.2337712104217975,-0.31803466630388244,-0.12021139132447822,0.08455192886963125,-0.5004510082360061,-0.5924152516997923,-0.4260595354754211,-0.48864444441829735,0.3670281187530824,0.8149551174858207,0.4004520461726957,-0.40202736983340936,0.9555025787944382,0.3285785960453431,0.9627668120262767,0.4539748396343257,0.11163239813861536,-0.48649675120700686,0.9625007293995196,0.9297301095688462,-0.3700981943026729,0.9911093063183201,-0.9627194777732742,0.5892225375377598,0.22270870595857373,-0.7470805097615505,0.013143987304403026,-0.7272100010092486,0.02086566443351434,-0.520392757829528,0.5651662086685445,-0.6903998799254916,-0.41874736896680553,-0.7008868363283827,-0.7435610880015311,-0.13690864063813102,0.9039621047334132,-0.8061201160834273,-0.9358916367797308,0.15880141773267908,0.2506651299878735,0.7695753597820096,0.9824356251618627,-0.7485056660877332,0.43427951525454844,-0.2024328158658537,0.9861759839825408,-0.2740861127970673,0.47561221103486595,0.6534675834659576,-0.445675767717999,-0.4875380037413557,0.27039221313980977,0.9413790107177769,0.00895031224763021,0.5743159539263787,-0.8434303412563615,0.7493440511197931,-0.887526341681286,-0.1514205757484519,0.9211025920024085,0.2970215723610885,0.9356831947146087,0.09890821309831654,0.6873557043528149,-0.0015221207377251744,0.7351927676666496,0.19252958750443083,0.6359196306247386,0.1833254337935104,0.04842685184955231,-0.18976378683451944,0.8846866738873291,0.08489766889258288,0.43290916962895,-0.897503816161233,-0.1445033323076208,-0.5736792300129663,0.5036689051830909,-0.7263319773264996,0.7694550044312993,0.24234143577711809,-0.8783196588703042,0.3204001519085147,0.8913360385859344,0.341628187998833,-0.43260460344972196,-0.7560260305585162,-0.8751088051099705,0.6563347996918676,-0.18398014599280077,-0.9619957933177132,-0.47210284459300556,0.160702136888224,-0.9284766630323076,0.6965804368775899,0.41778180798522513,-0.06177383779670498,0.8252812578795508,0.3967793584939301,-0.471586393752363,0.6192272932701235,0.20836173887686327,-0.374641975147777,-0.7865551728854143,-0.24340554412945292,0.5077292021181505,-0.4430718756740837,0.7994416128206792,0.9535171936783944,0.9777220185351458,-0.883631862918087,0.38031637629074333,-0.17205817530339917,-0.5642007965921363,0.055129425724123715,0.3035140424471896,-0.1646677360952713,0.2315663771536045,-0.0016958168748291147,-0.8155440519264419,-0.2935141547749316,0.16758859598629927,0.38970001604558213,0.920845471113193,0.7290155779246645,0.610736673635208,0.7409486082162571,0.6009511584372753,-0.741471910323235,0.972600593059582,0.004264145861564872,0.956380539707461,0.19250207890864646,-0.8599703230287816,-0.5295428484820257,0.26573257342874257,0.649320722877136,-0.3195591178234092,-0.9643976810744281,0.15419674140743833,0.03366586230088764,0.40511525373804913,0.5787336676721189,0.11010016880877904,0.39319415847071126,0.06619931433681425,0.8787351304354725,-0.04234227762010656,-0.33177389463213913,-0.057621603059816895,0.15536711645725054,0.18345279799964898,0.7907884793002717,0.00727749312595849,-0.36513840212665105,0.5933540991799349,0.9311742161688654,0.4963682957614495,0.077602076819979,-0.6085581927273296,-0.32754827411152765,-0.5743136129421511,0.6653666544705332,0.45499827117274005,0.6998913726875742,-0.8923985988760874],"weights_hh":[-0.22800480690194047,-0.32972571683927576,-0.4328116509835349,0.6898207751467307,-0.07764046818728731,-0.10231755703693213,0.18317279824276667,-0.5985462851331214,0.4868582916524904,-0.7373096105315919,0.8759223236311535,-0.10936433984083638,0.6745439412145002,0.19426179710833003,-0.6441538529316939,0.33358520344494225,0.03309914986325957,-0.8134846934086986,-0.017345202777484303,0.022579247870539554,-0.9466670174084426,-0.4549781682785863,-0.9751504318482123,-0.07391465010437259,0.23734051176641024,0.3373481032354344,-0.41045215557386183,-0.739269712026766,-0.6154625929334159,-0.7987982250596555,-0.6188803904576818,0.35613694156382203,-0.9988190809949593,0.44677925321167233,0.6734335027356328,-0.7719751063545328,-0.6222429553746003,0.8184310941095752,-0.8177535735381667,-0.023538693344019812,-0.3713180513178509,-0.22289809049366416,-0.44654026670028313,-0.5102145589407692,-0.8167254383202087,0.7674712598574325,0.13685065907129856,0.5751259125292836,-0.27317460413884187,0.30334389066436285,0.9615818421979478,0.6558805646816788,-0.19258132294989472,-0.9290211581908225,-0.45059423491853545,-0.8546289968824994,-0.8357652432537725,0.9026133426657861,-0.2821152609761486,-0.6962733738905276,0.19576238241731048,-0.8485149757272188,-0.40726821112778255,0.9107395286836726,-0.5630382071040714,0.38854280303761746,-0.24336979427012695,-0.3713682121983286,-0.5518158699960944,-0.6985872221547604,-0.1536534789586268,0.9478791624239802,-0.7079365193485128,0.11256851299247228,-0.49495121316360935,-0.7357802959151378,0.9718116035235311,-0.7592195125314611,0.18816300815824727,0.5631095170748825,-0.21708381250314224,-0.7799617170788355,-0.5509587173388879,0.3431354602503438,-0.7855962828790446,-0.9867588623154047,0.0709255057019964,-0.6584989639579646,0.5374715971974269,-0.10176353605636113,0.08518633183438151,-0.385121954652901,0.7862840744421586,-0.6932204690581973,0.40217582151024533,0.8187689231264141,0.2360501007636706,-0.2545626193599462,0.28771858520241955,-0.36677372392978236,0.7740858849137997,-0.8693637050415706,0.2781516974633156,-0.6723904414464148,-0.5007603056520995,-0.9890241918131255,0.40092334831666276,-0.35813295551573265,0.01876649128269925,0.38589837862215726,0.14647107604293352,0.5487944393644077,-0.16394459227331093,0.8294026008795725,0.6914375052132598,0.06609897465623793,0.30011775042758915,-0.5291854733255212,0.34371129174005577,-0.6090800432357859,0.5058183685468995,0.813843834316043,-0.7076152487163978,0.09316226450108545,-0.974427180554504,0.21035611653570907,-0.5142225717555744,-0.7152013638887256,0.7034110689587527,0.25509010444609403,0.25837390569572793,0.15136890696758432,-0.7253943597346928,-0.23725540998728656,0.5715883427753465,-0.5875663554576838,0.5123856512868004,-0.05982397991997779,-0.21453271064131108,0.9103030061394728,-0.6654897814933176,0.4373984927504515,-0.855054081447481,-0.7897110787822665,-0.43368238085457755,-0.37016045958414323,0.5300703891401468,0.9160514368301427,0.05611610421409452,-0.27516988976983403,0.6651414657080428,0.4019485326037595,-0.36665626106041005,0.7697490715316446,-0.030649794319055346,0.9946235763132893,-0.8913345004845954,0.5305815654900894,-0.022017532847248722,-0.3003352537966688,-0.8290248205875743,-0.28399071069483117,-0.7023371996202425,-0.18837439812922674,-0.9213079911465252,-0.7019380817645979,0.8852735266304352,-0.826805613683997,0.8059225068364892,-0.5640472463265174,-0.3442802225336863,-0.038992557949047546,-0.7887990779394052,0.959841626860845,0.9942690868449704,-0.13038286049769177,0.494743146090898,0.3553096796272808,-0.9417386978542439,0.3355260805603353,0.4550555386762738,0.3921308049938377,-0.5766778527124332,-0.8414404807159224,0.43397582549476854,-0.5117915053248001,0.9673358271928694,0.9165573874031105,-0.11332724352428736,-0.9127120428725333,-0.6142344837130214,-0.3618121757456938,-0.17690956853657713,-0.3293602041359631,-0.1488951045589777,-0.44199010442152553,0.35522225260252704,0.08123785254888571,0.5055405010055365,-0.06928858735597698,-0.5147627918603388,-0.6493189101071457,-0.40895968959408924,-0.9218903067209907,0.8842037702129608,-0.526287197978538,-0.20798399091073572,0.32003384470732343,-0.6726471505470086,0.1707573979540531,0.5537038705739856,-0.48721594493529663,0.1835006646853654,0.35761198959749985,0.3096396160621844,-0.3185955390820643,0.6775574794091856,0.903332576310335,0.9019214572220566,-0.10074290855062507,0.466420126043924,0.30142703348229305,0.5032112608486556,-0.029843321176078463,0.47725432979917404,-0.441250708687037,-0.4023042258245635,0.32403304405066624,0.19059881452318406,-0.9402550622430219,-0.38307999313830443,0.2224044725689267,-0.43578050497574305,0.28885226052958424,0.01419635560139243,0.36164665304255084,-0.983026928697037,-0.3390807270565239,-0.7747145899990855,-0.7368374601603542,0.0394511751914397,0.17890773024692241,0.5831706465241067,0.20613555347083246,0.5954050547506535,-0.22417853808526744,-0.9474415119332578,0.16519757232313248,-0.31293733378180577,0.23118852835371673,0.4219261118526878,-0.7391064301954249,0.6040218535124693,0.23006624136703469,-0.9722534601500816,0.3147168240812368],"weights_ho":[-0.9303135200959047,-0.17940700930086018,-0.6716484399379603,-0.8038799619337789,-0.5313774728706713,0.8879836435789741,-0.2491201187032841,-0.3411178626460085,-0.1289618061050155,-0.7392083870697206,0.4211464302450769,0.7824275576325059,-0.31551328263432765,-0.03797937975042487,0.028797983606997146,-0.8076928255076203,-0.8551947636671033,0.4657040657705884,0.9400612210483652,0.24872616928152302,-0.25773845632803183,-0.8575726886082966,-0.9647847869265291,0.005211307450933678,-0.6576360302043784,-0.03199465535094137,0.48728649717043915,-0.8440300053939562,-0.05420450257137177,0.6612172885710577,0.6181573141351144,-0.9038532717867227,-0.12413773790537341,0.5346093921721553,0.9045473145210938,0.45367760413166014,-0.6584050443310734,-0.9003248365946013,-0.9221867877503014,-0.8910274466913464,0.5743930776014221,0.5683834858298324,0.6595731203595185,-0.6499430194217606,-0.45328549795618645,-0.533528334977335,0.5997554916870547,0.31894309266895915,0.4947616496506064,-0.3894342723336406,0.6429923055936544,-0.49466634992334635,-0.5002851925323262,0.12125689127431971,-0.7377513694874096,0.6115035287961126,-0.7981230224291771,0.19889083478896952,-0.9816338186606335,0.5902101732420317,-0.8798439816945964,-0.2731941680407972,0.35189919883674103,0.40578560592468316],"bias_h0":[-0.26934789544289384,-0.8856406209256587,0.31259137241296586,0.20913759670600585,-0.6257835718706268,-0.6207336276830351,-0.1251627013736223,0.38415326437610364,0.6297056983391007,0.34950025160847864,-0.02606274457449187,-0.008381196659252188,-0.9083685024138857,0.5107998949442756,-0.25354714752946617,0.15484466534210162],"bias_h1":[-0.48808791533132356,-0.42572486305749013,0.75490406140614,-0.8302400845756586,-0.845663586981501,-0.11681543251584281,-0.41226661551205646,0.577719089329003,-0.836225192784471,0.5672807481438151,-0.25649478551995863,0.33930077720608476,-0.4513001577405731,-0.0878125709411619,-0.2594997182776695,-0.4025169349211739],"bias_o":[-0.04202997708971967,0.12950230764540005,0.20316766580897516,-0.826834787232287]}