{"weights_ih":[0.94978095717505,0.2614616808344976,0.41554587970044143,0.6184485390241408,0.4874977604698987,0.5731829822638923,-0.3839058651402807,0.22199572044661653,-0.5835305499849592,-0.7675912369767175,-0.09519169081885148,-0.3232053243486499,-0.4044232958351488,0.6599125773989181,-0.4309467710253947,-0.14631579427190777,0.647918807737196,-0.1001580695666604,-0.8853100596571704,0.3141434130651317,-0.8340263554290823,-0.3276386896858563,-0.7764408806502301,-0.2101254673833861,-0.7342401306533497,0.17366693988762916,-0.9683537184737585,-0.21993006347280852,-0.49557861170887385,0.813961214304687,-0.6346967940183827,-0.7684072385271192,0.975516094803063,-0.11693341099241139,0.017837855993783513,-0.3866890687408584,-0.45403039851349036,-0.044044719794043674,0.3843572263755506,-0.9443540748796364,-0.19258455064485158,-0.35054843886691067,0.38636473165634944,0.1756734411727947,-0.8416096473632684,-0.0028374794988164087,-0.7700397283035876,-0.26979410932688364,0.9111528105195921,-0.8038482789188086,-0.9682774726796037,0.9431441811967887,0.7990951021080894,0.03610631127054975,0.6666613144944344,0.9417684870349539,0.733181689099716,-0.3052855542843522,-0.3250929157550262,-0.1531863688897923,0.5272459170081643,-0.9237078672787771,0.3822577624525252,-0.9844726976740676,-0.8983112381684155,-0.3607135553264089,-0.30159502583911224,-0.8301138308729081,-0.062007488051014636,-0.8303378525900549,0.729393581817749,-0.1920448582583938,0.6104576118918981,0.8572298620216874,-0.5503390316448484,-0.6769036858908817,-0.5782513039595223,-0.5758068523085924,0.48435890926695424,0.9837081113685129,0.4133781289603744,0.15401006537826656,-0.17481163781274445,0.7407090757858474,0.6185485827321289,0.9430433506797367,-0.9946457678369796,0.07884684024986499,0.5470285949923992,-0.3120314750789679,-0.4086202893124937,0.6744423668067341,0.5173541943598432,0.21661541830850206,-0.7489736993647373,0.7061330340207801,-0.3150807248372576,-0.7327936247495608,-0.21661018525882159,0.9377150629871027,0.07244103982825845,-0.1894357156958122,0.24345488151682781,-0.47593010990779505,-0.2517306596682516,0.8614269256210865,0.18078044812413285,-0.8602600686769988,-0.6795436686838614,-0.9937388809177947,0.13089454355256902,-0.1939415849156405,-0.29964227597128335,0.9663393199004622,-0.32165177074299156,-0.5416477462201958,0.3956721753904493,-0.4315779094709584,0.8857158893749477,-0.06126285817631816,0.525909113778205,-0.380697528971373,-0.2977577945345231,0.2921657934180131,0.42006126469293936,0.9408579606107161,0.2993091252118474,-0.7940111690388179,0.8207806589333984,0.1889703286798221,-0.4655082753695674,0.3379824831124236,-0.5127700148973939,0.5680105031223517,-0.33802287571684486,-0.4871234798225883,-0.5659180429573438,0.9386600630722253,0.8799880141701997,-0.625025999765422,-0.019114553557733727,-0.29130932493181394,0.2184503129384172,-0.2393815105558612,0.5229760169278499,0.4280551328953617,-0.1292184190364123,-0.8195761150709633,-0.1919086002753816,-0.12437826179333134,-0.8744568799323813,0.7620871957376778,0.6131126504779656,-0.3512943172705756,-0.4443109989433218,0.6093938579967177,-0.8904068596011159,-0.43049681920866445,-0.5806495013177508,-0.20297827008238745,0.4323295363984867,0.5126297547335428,0.03886127356548408,0.6023866270105296,-0.4520385464559369,-0.5168850239323237,-0.9789805980772872,0.7127093498869981,0.10417803156233307,0.7236209452252698,-0.5835755984391173,0.14118373726225042,-0.09608144613851466,-0.5624521672354961,-0.9853071770026902,-0.669865710968848,-0.3886171289953251,0.43363469501067686,0.09742966560360444,-0.8620976864868666,-0.4865595702378327,-0.09313281989858169,-0.10006564714816957,0.28771703336915455,0.8804452622784202,0.1798397577796771,0.4915422070370383,0.08164680008959269,-0.4520594278748091,-0.5382256434207504,-0.410592475904517,-0.8047544290491533,-0.23021598673135268,-0.8611624334115207,0.7021864623489333,0.6034532936690316,-0.07549234389064918,-0.5714971972994785,0.79469953892277,0.33929407938524525,-0.06420553351907476,-0.4348630112142693,-0.44806360834953574,0.15997264035389147,0.8892349932137771,-0.006479471915798118,0.3077402302459862,0.5616191975830696,-0.7702580551740048,0.9527447209565665,-0.641728697232639,-0.5931807291657045,0.5656541189778355,-0.5127949335614108,-0.7588206798159878,-0.041651199512553916,0.9529782154115476,-0.5466836818420036,-0.3035294051745463,0.4108931514609435,0.3762649133232978,0.4056153327854908,-0.6067058314258513,-0.06627028983588268,0.6780516630839042,0.3316222324181095,-0.9990899841953422,0.8264233902517779,-0.954179613189319,-0.9236711861447442,0.3196321482454696,-0.2763895375170278,-0.3167887379229346,-0.5449567152680714,0.3671798264984776,0.15833501124084504,0.39253505414066026,-0.2855784916622546,-0.0031507945717355046,-0.682185280628083,0.5923602746260028,-0.6239458991964162,-0.0877313223570182,0.9704029057044807,-0.3479641283741137,-0.4717621326554946,0.23283053202132598,0.20559418540182328,0.9079012411313729,0.6790481786046485,0.626412246714434,-0.06509173937706936,0.017978595849781787,0.22445884466530486,-0.20876283141785734,-0.24237405815037194,-0.5859070384546567,0.45035250740755095,0.29508741044595643,-0.5307625273799961,0.6290432446134151,-0.8266120516458877,0.4640981102330093,-0.18230605493712337,-0.36830528001149987,0.8418376664424696,-0.3831219688912313,-0.15039195090599966,-0.8144896769760732,-0.5467172070965769,0.9044946077350076,-0.9112985836088217,0.3946778868554841,-0.025482423392169773,0.5193811677424798,0.593728849851223,0.11181459470221422,-0.8291950556155727,0.8584827351035607,0.9809588848008184,-0.017059014981000153,0.41402383787556185,-0.19889901487798523,-0.912626452438448,0.38433516151779323,-0.38036814352148696,-0.7491751291047859,-0.6236587721718121,0.5857988931133631,-0.7205340850610646,0.9585307413876594,0.6820276225314894,-0.5592899857593077,0.11361155893335395,0.37995442053142003,0.1761237721250548,0.3479127571791225,0.45236347453519343,0.3762430667518004,0.2779239106129219,0.22008234079883748,-0.26075912966935766,0.024259912477243795,-0.5983937550187279,0.7923909207133488,-0.4883238298294741,-0.09434405376832333,0.8390143892445514,-0.3343203391642997,0.7455609094692455,-0.14985073251835002,-0.11310113265995869,0.0013058603788469458,0.1507423014150968,-0.4975091080566447,0.3027350411753691,0.6228475585706954,-0.9742333892337354,-0.5853112178487763,-0.6073456336797094,0.6172693664254871,-0.23576172042948706,0.9278236073938546,-0.9080328657474295,0.6969340783879194,0.37098552733916534,-0.3611889758920761,0.06119992181673517,0.18030853325291818,-0.7325501607726257,-0.5273909232375744,0.355289065761315,-0.31656900647094277,-0.11941454626854431,0.2729354690533472,-0.8968015564918803,0.39510601260910483,0.9675383659679382,0.04776926628217737,-0.2461182463300602,0.53973202025445,0.2796644546144478,0.9722588158627228,0.14753599642028625,-0.6262642407231827,0.3460021140669467,-0.772311057108857,-0.22522271727953447,0.7225133743092382,-0.8701864131218524,-0.048789226628830784,-0.8317193888480916,0.1738419274189975,0.24368426981083458,-0.6586086155037496,-0.08905829771262708,-0.9155060142798621,-0.8864458161124789,-0.143944526629866,0.22747429115462925,-0.9676388005972152,0.9605221915858182,-0.5187816261332443,-0.6963347882887456,-0.6180522160630868,-0.33689728902441884,-0.9638878775318414,-0.29297624613530426,-0.626060285078202,-0.189832925651938,-0.8855755482151189,0.2947328635963571,0.0932153519421135,0.23216778712630082,0.14665847423121647,0.4491609387694677,-0.24740843727150796,0.756649307751134,-0.10453382316043802,-0.5530163580069123,-0.9846854141355799,0.09257182007481912,0.09818088611539855,0.4555730828979443,0.3779816542671457,-0.8566049978559114,-0.17191379479363733,0.14505629710694468,-0.9939106718731452,-0.5565609012912707,0.43745172903848895,0.724046798072415,-0.28218787356287156,0.7523208274528206,-0.5339678326642245,0.25075424018912296,0.5934353960635779,0.3753845393262256,-0.35899593135879515,-0.9965283893188577,0.5220636406453087,0.4813995304275349,0.7482796917325283,0.8311040359479183,0.06604309178087231,0.2623864500528028,0.588035773554979,0.15414841569011695,-0.7088815388311545,-0.4726282267911319,-0.4099065759415452,0.13382455370979773,-0.1046639434299752,0.9881081317773237,0.9080838431440315,-0.3217855637074436,0.6430908376514037,-0.7961705716391478,0.5117348110229196,-0.8627667373306971,0.3887597404690115,0.19649558463262506,-0.13012529613116386,-0.9821422890191027,0.2700035771903151,-0.4522792986123043,0.12326867314552992,0.8101312787021726,-0.7448671940088283,0.7423616287133719,-0.5497099084758563,0.15768374940616803,0.6717764043828129,0.6802081177192765,-0.572894047162277,-0.9943303839294468,0.18973064261215233,-0.6087804347581933,0.20841593106460055,-0.7672617795702299,-0.6426064909741882,0.3443592966523443,-0.4431439912687103,-0.5526196600804436,0.9707086287534532,0.08938765865142995,0.29891324359539606,0.807182434544305],"weights_hh":[-0.904408982079177,0.29479147758442004,-0.7412825539490431,-0.37493003406681846,0.6013771249741497,0.8686625923980087,0.34405236685993623,0.5658254370602964,-0.3508019583437858,0.9868643139604685,0.4750420634816366,-0.39800205295736446,0.89666323536245,-0.8964756616434164,0.5746415866941252,-0.5139971226683511,0.9029410595160443,-0.9550105557045208,0.47786979169197696,-0.38255582817906886,0.5401158131131887,0.8136990979213365,-0.5806755555213932,0.3550749143278433,0.3235409556786537,-0.7906575715498747,0.2504548544055465,-0.532345473192195,-0.4409983625465983,-0.3868667475568204,0.6727810753267482,0.6109093490164863,-0.3391351499834183,-0.8843285967988614,0.030027997677016804,-0.15639450046701886,-0.08522845098277587,-0.7039175528984591,-0.07297567350598388,0.03207610290472207,0.8067498905256905,-0.45385238800605365,0.3179341407626648,0.5278749362909978,0.3340512243841025,0.46901589189157766,0.42325079119010467,-0.44851389295680133,-0.777343559117935,-0.060311543519254496,-0.6315020034556194,0.5737153115616764,-0.07529817356842927,-0.5138293990019889,-0.6098877214424661,-0.5193628694755077,0.09997253939120876,-0.8619579108486137,-0.411940038434331,0.4080261298791892,0.32133736015628434,0.2399629483077108,0.2790239629864477,0.394035158861207,-0.26739749317179906,-0.04099665883891079,-0.02136700837845784,-0.1278518905940753,0.3731712109416445,-0.3530004178738151,-0.7245407975157401,0.23977854684095035,-0.8322860754919295,0.1760538655832009,0.35908891141637955,0.04087320548763618,-0.20330074206892323,-0.958376492243938,-0.05930135898013189,0.6687074387325047,-0.6643185554925941,0.2223469319542326,-0.06920239472689138,-0.5434082425358238,0.3849393225186388,-0.8474680621560082,0.7048520868520998,-0.5680746002404193,-0.13726881451003958,0.34389515476037547,-0.7975857879232136,-0.44717275838796855,0.8849909891493148,-0.6767756438381278,-0.1105135467347107,-0.03864251903359173,0.2450987755610774,0.7184841128538535,0.9986591685288713,-0.2849560571428378,-0.01569961696579525,-0.08678758239126028,-0.9282903920908956,-0.8452868044360486,-0.637745928856009,-0.4581429184170629,0.8302420495991267,-0.802930641908441,0.46000153966251256,-0.14375925790948552,-0.0045809984816926885,-0.4331302517945548,-0.11080509147258866,-0.5294445418503195,-0.014218118978711392,0.1706885907419433,0.9906467673475852,0.13808716488591233,-0.4898109028833957,-0.7012584494228054,0.1309445325134162,0.07598851078885493,0.5725466374917811,-0.34940585594397944,-0.47064080016507837,-0.38219385206568246,0.7594755455476161,0.7400637373100261,-0.673084664838784,0.8449972016939633,0.23771407593769922,0.6312863125341353,0.9614334961940088,0.03226658081964806,-0.7116575242646792,-0.03227576539375909,-0.3183312840376853,-0.00394129281998401,-0.3949039981453273,0.5201895822860325,-0.9128430226405895,-0.9337713472551783,-0.8834025340870659,0.37664579371165763,0.8399040859485749,-0.6432875977254844,-0.3499976792977926,0.7932369249074207,-0.7154180556771479,0.5857862219453949,-0.31562569338822577,-0.9069742687070144,0.7021032836330805,0.9710994831140602,0.1034416836291534,0.9876671824359531,0.12119985986385817,-0.9600043390112747,-0.19278873627618665,-0.17274457016212375,-0.3385417556137511,-0.635032614042057,0.7615333920386451,0.4768411843958569,-0.4057020757000216,0.8924013507924666,-0.03672313702064933,0.9174276362720084,-0.041342748235250415,-0.7866959705106791,-0.12826295881079752,0.02332022226240671,0.8314846112188843,0.04224530102764179,-0.22108658628852496,0.0006174797659750375,-0.05324052163937543,-0.7535254128531139,0.1719016468173975,-0.6402769587434778,-0.31251243923378724,-0.10672453585954056,-0.5169795935356865,-0.1323075000090761,0.29253717775883037,-0.34513173912052175,0.9408106436136632,-0.8204633749004748,0.9139659400159881,0.33228612233055954,0.4131595040506386,-0.9584826948165261,0.4908563620340658,-0.9693009448569572,-0.09016951531812656,-0.40939396151994734,-0.03246635555907673,0.9102774659745074,0.29012359741730354,0.12014088714816862,-0.04720495089175869,-0.09214760121564036,0.6432934881170993,-0.34772776787521154,0.9098302951102026,0.06676172128594904,0.35823131522725893,-0.7946199004132886,0.16801564753772857,-0.656447578359358,0.45959315300491443,-0.5467983072337359,-0.8519551143212867,-0.9706069975657776,0.411288388068481,0.24301594834496543,-0.23017589449329368,0.9472094907707951,-0.6234980339068985,0.059594503849405456,-0.9622980012072293,0.921076802309041,-0.5839287720273323,-0.7966018261210224,-0.6388133068362898,0.5857388163967192,-0.1955767330333662,-0.46135731801556634,0.16141252284793195,0.16933271544437334,-0.36215766683730455,-0.2989431340096538,-0.15514139110294067,0.6022023520693418,-0.8095690582024133,0.11733019512940723,-0.5764201028287557,-0.688587076472762,-0.8524255309433413,-0.3386990948598043,-0.1175532279243916,0.9084493905419759,0.06814540721295481,0.483553333532307,0.5280936004557295,0.7072992332091523,-0.38008386526981663,-0.07150057584411873,-0.2522326831408812,0.6349069097526041,0.9805422688628569,0.014759838568777495,-0.6013264932087086,0.8944767413855383,0.23892921446527793,-0.9010020168945647],"weights_ho":[-0.7297809764160539,-0.05403997650027215,0.13048432383663178,-0.9992079243887602,0.025948897148159844,-0.38188061235870374,-0.7587243881782704,-0.12143595531205387,-0.8958822978149255,0.5953500702965848,-0.8528213470371979,0.9116395358729208,0.7752902674300655,0.6830023534198901,0.54473104100913,-0.13374612256509333,-0.8948164834124335,-0.44129557960638066,-0.8290376654806453,-0.009791706853224946,-0.1982575509808988,-0.03023817416547603,0.04164056165423724,-0.8801162056557208,-0.5271669660892913,-0.757788840427152,-0.20621207155090904,-0.9166671587265329,0.5142091257990802,0.9498676129471613,0.7195995735468861,0.05770199766122941,-0.4330104626168412,0.3304072801712785,0.7154773980629712,0.6595410765657215,0.3859108487060814,0.9075074618970456,0.37011659788742124,0.8395256325694047,0.13850336177804445,0.7423523532232121,-0.3094816995537055,0.5600342383006105,-0.816719272605273,0.3215489786462169,0.3341455554705983,-0.7274342417785822,0.057790572911613936,0.6066623711685732,-0.009232225938041738,-0.43140821149968356,0.9251525404551211,0.727734252002392,0.7969903250896175,0.6862340774841913,0.33903082700509923,-0.5195966242012757,0.33901263165477813,-0.5256819527983445,0.06360499815973109,-0.7227710792254287,-0.21576308388405474,0.28716113143116706],"bias_h0":[-0.6606736693869453,-0.8958580848500115,-0.531431843827864,-0.31640508354048125,0.22592557204621566,-0.7291430859337562,-0.9039859390560252,-0.7286184817877324,-0.7677934968007474,0.2746843079207997,-0.3848698933736181,-0.668293516644451,-0.8134676104085994,-0.568031541543333,0.26304625536945525,-0.12065209768983176],"bias_h1":[-0.9760951153533424,-0.7655804750601469,-0.07319604017608428,0.20369923011727975,0.0762324994403627,-0.21407978494952973,0.241127694190175,-0.1272796745691378,0.17494210353561868,0.26982943500204604,-0.12444032555735962,0.7759273490029537,0.795882389427127,0.3785146162882278,-0.04962001581801534,-0.7045040922104175],"bias_o":[-0.20241868378825023,0.15954628026951512,0.33559728505264386,0.3543044711720449]}