{"weights_ih":[-0.837500127436478,0.7503333781830104,0.3236802406252093,-0.6475116324770842,0.6897096605418045,-0.9269991285582777,-0.5922031893107007,0.4268819920736937,-0.5240233859109278,-0.4894572114705049,-0.1808144549228159,-0.11860276877789278,0.6179327069345801,-0.902879444252241,0.24995145747527658,0.8629547024513238,0.654502171991441,-0.8447609404643677,-0.33554260057267893,-0.8786494397511753,-0.19248115580186065,-0.705255305872249,-0.12591632453555857,-0.5953294468718551,-0.15615358352935527,0.19198629488484298,0.5359329220063074,0.5499887201086218,-0.10078723636480658,0.6185026259862387,-0.8983899364053616,-0.4436145078342879,0.4442988064186726,0.18726185988155386,0.20619180448183005,0.7909052779191528,0.05088326074028493,0.057342450118918364,-0.5810029168956754,0.1726259999486004,-0.9589658188827932,-0.039487204176772206,0.22798206079498606,-0.13074621874609926,0.657360209439035,-0.9917103680063928,0.4655778784925608,0.9068923624754395,0.7552878150696056,0.34214512649353646,-0.5645897083220268,0.698271307856366,0.49685865708536103,0.5380811297120922,-0.4553208540689859,0.4571187129828971,-0.2886325649748547,-0.05750847034179496,0.813421559798881,-0.13210787712474592,-0.31207368288969506,-0.3548992723262119,-0.2854138933833297,0.21806334176623832,-0.7876955222553128,0.39243639916133954,-0.6123294164812665,-0.8993095375746707,0.16083284799886277,0.8778080607407408,0.2848939743391101,0.1234344692973508,0.7032207053261392,0.20582276476041206,-0.4286145592361563,0.8478333966456866,0.7750012206143782,0.8058759153026092,-0.05033353117187711,-0.9380774283616273,0.33456121257938287,0.7100698054711887,0.24782935345422286,0.7724745395625612,0.30570688840675064,-0.956650176283443,-0.002467993685158598,-0.7372428495468757,0.7706175952720482,0.2523207330827286,-0.9472631818524999,0.03447024183211944,-0.5006245647093581,-0.8790092897606017,-0.4136624386637644,0.6116619070144784,0.039296993965447946,0.4509339731919886,0.23333822641475943,-0.5638098034049444,-0.8314885324279706,0.4022393836881073,-0.13287229239902953,0.9703881920001378,-0.3496886691097134,-0.17731020497769778,0.10910438205707362,0.5863504762268472,-0.6309423770335909,0.22960256054496675,-0.40349590506322675,0.23690399366094828,0.639420129768898,-0.39382068657280067,0.38443775635726074,0.4331245125845551,0.6240886469610047,0.4263696500388072,-0.1848745976350279,0.6507414410803078,-0.6846569262505648,0.4356435965732752,-0.2875715341292493,-0.4883348835451342,-0.33581482647766814,-0.7611619064787638,-0.4701323463916329,0.9384518261612518,0.21487750537285422,-0.211292097301488,-0.5372283767545121,0.10813338867087463,-0.6164152751066649,0.8700823550463557,0.3607002810997617,0.5270234046656939,0.9418826007143895,0.6840628051031674,0.6848631030871821,-0.23630667521000626,0.4676535261450758,-0.3566579195328887,0.34054118152071666,0.19551994602922962,-0.738887301213166,-0.23689488529884928,-0.9355128215157831,-0.12816192989069108,-0.11715914677723749,0.8449948581919611,-0.21844467181346716,-0.9658543671207127,-0.5205840769259602,-0.8903057497083129,0.38397953263150675,0.4456582103307427,0.8241155639753859,-0.6056753641927752,0.12239940839431052,0.6499411509858362,0.19176614978292594,-0.9836976371566746,0.7680824515617555,0.6429321985161267,0.29793228653507287,0.3611050640994806,-0.3988711339657949,-0.06000789742667312,0.9376960906918177,0.7288956930181185,-0.1343038094718052,-0.6289385101364902,0.5239722106028339,-0.21788546694218525,-0.17283441404824007,-0.70632049417877,0.5729513508504502,-0.9799090747123722,-0.7694493440201464,0.2358649942008486,-0.6535396270691067,-0.8730906376378502,0.5259200210922461,-0.4743552684396253,-0.8489938318426129,0.7525011851290491,0.030670204436912485,-0.2798641353354696,0.86839708147441,-0.36019724182551394,-0.9477133359466443,-0.1817409560108838,-0.41278537139690386,0.9982531789839617,-0.8976631984671666,0.2149172299185622,-0.34307316451695913,0.11918222338029238,-0.4907770309047723,-0.5923757435693531,-0.9830459789732964,0.21718107320580127,0.9679332617291347,0.7633057594581887,-0.462596167951278,-0.9418749561379549,0.5488626751684385,0.16639701804299678,0.7049883190416779,0.15004098978552616,-0.5210197346912615,-0.7010116502628865,0.5065605042028507,0.15425475906527342,-0.8126662025434235,-0.629264725467729,0.9952286765224236,0.008887328832711816,0.7940504145432825,0.11109543502839836,0.8896308469432133,-0.2129150511074649,0.5895613645818416,-0.34782819249064256,-0.1477469857843512,0.8197705041187502,0.2850960642231275,-0.15320495480661345,-0.3206729121435583,-0.9506502041921692,-0.3484166268555846,-0.24095192466575543,0.6337056439617339,-0.9018196654597104,-0.7740710982816918,0.7327002630138402,-0.49240121956750005,-0.5084464083952611,0.689807469931085,0.687074499144277,-0.44913482346800704,-0.8603143260433443,0.32036350290037774,-0.1393140477787742,0.6539999594363501,-0.5442732461196913,-0.37033533954565745,0.10811579151457362,-0.5019720296245804,-0.6258071514754502,0.21158248274307745,-0.7737322961150028,0.5135269215693048,-0.7720334401633595,-0.25301194980442077,-0.5678637591250522,-0.9861728725096623,-0.9315731612935894,0.3884651069220586,0.4857045523162893,0.5853777560881892,-0.05521991825941197,-0.053796885324460586,-0.7512721301361365,-0.7153223751613746,0.6205126661747355,-0.6757196298408823,-0.4904123282317945,0.27621750200127626,0.036554500861093464,0.38337758232787,0.7447821647267263,0.6026310390570042,-0.5169556839940457,-0.6798982491805834,-0.7621024126664133,-0.6975300013257117,-0.03899199584671753,-0.0953396455276041,0.5060498110443532,-0.48146343618993614,-0.4865030163235218,-0.9661927587754229,-0.29746180456789073,0.8696154781764989,0.7109680390136339,-0.7803776596484482,-0.17658537299247112,-0.6537619754705379,0.9039395164385371,-0.3955959188529157,-0.05269273037709188,0.22944793437435584,0.43355435322748304,-0.4645821320986714,-0.4096170800852639,-0.6050152013324723,-0.8044634925909742,-0.8148599323543311,-0.18481968676750915,0.0697064966494425,0.3682175038663795,-0.180583236179378,0.5226507125743924,-0.38628429647104934,0.11353526361354938,-0.9944212354790352,-0.9201789176046784,0.8797450391783164,-0.7468594981640309,-0.4002891395075858,-0.20216768418859155,0.8961812981492903,0.8309271803049465,0.852864781643613,-0.3445345710998462,0.23413600465164963,0.5463142685142792,0.027948860532978292,0.23350522685276132,-0.7724785726222028,-0.45263113462014126,-0.5878996981800579,0.9670191544491977,0.6522379740818565,0.3293581931120164,-0.628587006940156,0.7872176051041733,0.445885641722934,0.7399659647702859,0.9750069672166164,0.8880058326889828,-0.35206229685200974,0.6169073709670658,-0.4462760630072298,-0.15534468694818715,0.3191430869509475,-0.20985563005725583,-0.2734698842136052,-0.4335977373218698,0.6410331091577801,0.5053960351745286,0.40067576391321946,-0.3722766752340927,0.07422254016498608,0.318982998347628,0.46608921178606066,-0.13681357020057794,0.9500536238435502,-0.3615556953592838,-0.9001302321463964,-0.562990070387462,-0.26637198396052475,0.3165637034831179,0.8488229481736385,0.728195258109537,-0.15523480796602218,0.8089252417075465,-0.7215893794985799,0.6123944427681369,-0.47441849396269475,-0.9442490698578179,-0.578981314043314,0.03780356224218506,0.8825500319381414,0.7376259112779799,-0.8920173475965236,0.8247596227211649,0.8373614493537742,-0.8197255013983766,0.28170523180746176,0.19525597144276752,-0.35205893433452173,0.6080004140224304,-0.3639161832573108,-0.8600308183973095,0.7152900112515703,-0.44234500804905585,-0.6635196725691648,-0.35171404416615437,-0.011453989541956089,0.5744932018421991,0.42697863977025463,-0.4088146733135458,0.5832428096549072,-0.05381063843479805,-0.8551049557426493,0.3253536902900336,-0.04121070258988979,0.18781153463334155,0.8130313687843511,-0.21124739031308848,0.5130450054747504,0.29123356821952195,-0.7955943820862412,0.156587535453395,-0.698044494943006,-0.4126977075315734,0.6647397323899211,0.800972746064103,0.007683293112391354,-0.1738613612379989,0.9350090188632483,0.8089787288634278,-0.993292845924771,-0.24308033993758027,0.5698080676599622,-0.375814133460016,0.5102726644985531,-0.782632051195538,0.28626203580838405,-0.4374261238471746,0.29354370303974364,-0.540037161019,-0.7570529222477069,0.8794745505779227,0.5816141996442301,0.47183509099539567,0.41870518664308554,0.051520877952486055,0.3179921810844377,-0.3874127352115304,0.037307755528800834,0.9407016447423586,0.041877025903357845,0.9592410224665326,0.3129144273137128,-0.9349094337557762,-0.69843366108801,-0.5148911135398915,-0.501600896661162,-0.2715976329250065,0.02584718216831483,-0.6601446292033002,-0.07557006024264457,0.10983089120793488,0.5411885025939922,-0.35759778305725054,0.2750967960436057,-0.9837330863163183,0.5598477161079594,-0.19271574479126263,-0.7050918444147041,-0.18216759421454287,0.4755239544991612,-0.7488537359181893,-0.2400556257646036,-0.024234156598267553],"weights_hh":[-0.2110693651268427,-0.03210927742873504,-0.7434100572176996,0.42489551692809724,0.5768065179710904,-0.6792231397639843,-0.5149668474098781,0.8594315262168093,-0.6139641455198122,-0.9627688273560764,0.0918088240847843,-0.35980667503629205,-0.2004272771683393,-0.2373046970742747,0.8386528038249779,0.5093507811118783,0.04352118700641183,0.45939077638934545,-0.8834024609649205,0.7880425006379352,-0.297353081744107,-0.7067768223980064,-0.9745476981153898,0.5163305731751193,0.10771105005450288,-0.7018569472574541,0.5226458867402219,-0.9664149057544751,0.10298873263392294,0.29728560807313587,-0.9368217940950603,-0.7902599095389189,-0.4797639826524305,0.8922282553593934,0.389781759564948,-0.7946441947803082,0.19914986964517678,-0.5816680057513806,0.025938352174504686,0.5014313085623057,-0.20673996131820482,-0.040610697293308906,-0.3288312143254253,0.9370470011506769,-0.9569856968467501,-0.6699057251617462,0.6577182730954587,-0.18885709028659958,-0.07663776995064708,-0.7756818817525135,-0.043021547660136106,0.9905242393081692,0.9414031667183049,0.4977997186991401,-0.5758087304610329,-0.643972064532649,0.1323983791266512,0.9435404613783431,-0.3137991389928181,-0.9501520863389064,0.3681570603529807,0.9649418902127853,-0.12710596317615863,0.3472341793143201,-0.4330715469632236,-0.3764046637369449,-0.25774408741656973,-0.17104527282852988,0.6816061623872014,0.0762094397059021,-0.6907250665013283,-0.7490473235099067,0.7609693224458143,0.8556797800408391,-0.054887680518124426,-0.11482760924664381,0.6718383771410563,-0.5032734416532119,-0.94472880632936,0.16048571680314017,-0.5002860541786351,0.5655204238085207,0.5398189123352981,0.766182899273542,0.4722496238937868,0.7322348339934126,0.2383650071172303,-0.5270318349666023,0.5916373968686672,0.5298428572957425,-0.8909060698703746,-0.44519898930646384,0.0932525898698453,0.8415368104233896,0.2713321824984811,0.8319915555459334,-0.007897737338689925,-0.8529715891800742,-0.8724471731989893,-0.2456144551544579,-0.04595962271641363,0.5747103241922165,-0.6381602216225846,0.9205324266177148,0.13201453559530707,0.005014421439659467,0.6800164174279402,-0.34099130112266973,-0.8697461497161025,-0.8903366687059886,0.4859943562440667,0.597833850516367,-0.723254666358845,-0.6199260021819204,-0.7325448016646126,-0.8910476815955097,-0.0631243402193078,0.15334739744982673,0.8810331849702286,-0.9619255483451672,-0.8316559507876127,-0.26059413238342954,-0.15579446521453644,-0.8598629938645577,-0.7809864099087567,0.9633652666565191,-0.10550598861734106,-0.3486043508640744,0.38261858169290197,0.47290020259990717,-0.11644643636337126,0.24602031529514523,-0.10648286665800044,0.6263846912237663,0.7602966150717245,-0.9781680091202465,-0.9847521973666997,0.9952353340434053,-0.852258502151684,-0.25489549970765424,-0.9168257580296122,-0.9771507482754629,0.8109363527085494,-0.0423435687763738,-0.6803532246315729,-0.4856323861019174,0.6765373429611423,0.5001112099972045,-0.748527081007986,0.8558726883445618,0.3719057440595337,-0.031018909578502285,-0.879219219791114,0.6455604297267195,-0.8551184914000196,0.8579710001007899,0.42832343293856767,0.9588920365035247,-0.08458283546644485,0.3678748932542859,-0.26620632769041364,0.618555492846506,-0.5959222867562557,-0.5355309495651945,0.6023071324140294,0.43192324803559456,-0.6051824758040258,0.9203815877065586,0.9784654104722599,0.6723434812388578,-0.5368011337990621,-0.10845879702705608,-0.026387219085931335,-0.5055557713712129,0.572607054399277,-0.8573989886763964,-0.29328226357368736,-0.4472068249487755,-0.5965630130302526,0.5908721362915221,0.9177067474485043,0.5270404565938598,0.5146033348031969,0.26927735000356856,0.6406039705152073,-0.9777752943752489,-0.2865504457055956,-0.7256956859366532,-0.7959906930700793,0.5640179348517602,0.13842897770561535,0.9744537008311429,-0.590488951945561,-0.4418004073261783,0.5133970094303093,-0.6022480867404649,0.6312924714380088,-0.8855996697171453,0.68597745520855,0.06137511439964638,0.38431863409519806,-0.7516579177527765,0.4916835135393134,0.8780440946858918,-0.39503622149195805,-0.7167556435588467,0.6324669659369535,-0.2860535660934218,-0.43146673243372957,0.2055650933907276,0.42599244697956373,0.19911043628428482,0.16374433283049483,0.09506169277612608,-0.06818140788899463,-0.45863836544111436,0.7171702382406746,-0.3097047750818853,-0.04390571748619987,-0.9154677844473871,0.26898305579352044,0.5651774581634417,0.7195373237278615,-0.44633974403638565,0.2984187730936756,0.5241035722666372,-0.6610944199449109,-0.8753470319535188,0.7205407702385846,-0.2883233358632322,0.3106575189249996,-0.8317946411720132,0.2687217842362273,-0.20388064463981492,-0.13731319516860152,0.24893491156941305,0.47198948877167823,-0.15003006577340283,-0.2197370786715429,0.2750388923195106,-0.7144591187080316,-0.3085051727886514,-0.12968102905992174,0.38024423872590174,-0.6957698881640331,-0.052926937333783286,0.5309058635168906,0.7442469686569166,0.4849409638384665,0.6774892655787979,-0.46045345523946524,-0.26632443142310147,0.7199589242959645,0.2244936046271846,-0.3287723431998393,-0.14545957774505425],"weights_ho":[0.9817542204385872,-0.5215566688878863,-0.8319473999361862,-0.7575022116151959,-0.30732998184827465,0.331605951372695,0.8821938624565007,-0.532125945534702,0.09462924482208868,-0.46955503374867047,0.09435836397709929,0.8254096569836615,-0.9282187041194303,-0.5831902459482834,0.4101759581953133,-0.4168842456662649,-0.8641571525974117,-0.9531633471924856,0.44199382804389376,0.2215002531316319,-0.6198954657883411,0.34270507241704484,-0.0874832645125092,0.08090106245849071,-0.15560392888652008,-0.7963010045016339,0.16766598288743007,0.9956643488237271,-0.3477543526155833,-0.4917164550633877,-0.17891763586615594,0.2830112048116178,-0.6211876760394304,0.1433406719771464,-0.04961884435588937,-0.5143578418611852,-0.35908967391568636,-0.026061101330088654,-0.20050016208942933,0.19638873800826095,-0.7796084195994697,0.39341000082763955,-0.3931257898467986,0.9848752636366294,0.49285568487299725,0.9925235639510201,0.3488737620588207,-0.5337670636585816,-0.12805391763910978,0.8142304930078423,0.06534735481089782,-0.07352138463273339,-0.7381379641859358,0.37674967363254064,0.13835186038397462,-0.8528613368616025,0.6692689346979583,-0.8988787219944698,-0.7359060433285647,0.8933758328216213,-0.8110684716888685,0.19840111075955447,-0.4696800104663761,-0.764819112270176],"bias_h0":[-0.8693969308347402,0.17564927619406356,-0.02665783897854368,-0.05237555513023384,-0.7398869326510831,0.3182070200834801,0.3686565324930804,-0.9186010803633071,-0.14582853731058498,-0.11549003787452028,-0.7797359926429821,0.7009827488534235,0.9086561442522825,-0.29571320158997416,0.12098935854126158,-0.7145576363885418],"bias_h1":[-0.6548927065381556,-0.8518391127310807,0.49457970321466815,-0.2684843568026438,-0.5347923271466009,0.6946919863372474,-0.08521641205825836,-0.5424957102841566,-0.5573575206092738,-0.40129268703883136,-0.5949868460955048,-0.22925926135736052,0.9505939522289528,0.24265073783244295,0.2529340260510644,-0.40255098572305026],"bias_o":[0.7214623823882267,-0.4382740241552827,0.6274542520413868,-0.9456863555440316]}