{"weights_ih":[-0.19925720640357558,0.6247523328410332,-0.34532337782710676,0.9462014715933809,-0.13830601907440787,-0.8436187295212754,-0.6628105048674304,0.8831085170971265,0.05888960172593194,-0.9362763111119188,0.23117734938165113,0.6068444896539902,0.20181650461746425,0.13296064321682488,-0.350236077499255,-0.18666315026525937,0.23466177661940812,-0.5524537852323712,-0.4408644148444536,-0.15431683266650098,0.06410804521380231,0.511073345536271,-0.8075187238760859,-0.106678444714146,-0.5116139898852634,-0.6712028502801044,0.07197717460320496,-0.8733440217478439,0.2830688364138405,-0.7527861106260896,0.45008622129610343,0.862495235882653,0.2861640909651195,0.9794245874662981,-0.6847512752497249,0.3157831442109895,0.026990367595227216,-0.3966043010869955,-0.7865346963244622,0.6872265978525531,0.721432356499706,-0.3835697539185585,-0.3548717932583787,0.8625526796384342,0.35191515671694074,-0.8219590269861303,-0.8460742883733388,0.768185117510529,0.21181264639905195,0.2801151498791117,0.33408184111586214,-0.7370056308447563,-0.6732006913900883,-0.2240609969450229,0.6153425319512118,0.47191781648584397,0.6273226159222285,0.5804331657626127,0.47005558466706643,-0.3376983021755635,0.21158122688118386,0.37830435769444515,-0.7986802567411029,0.8599355568440099,0.06677194109089868,-0.43491213608577817,0.12900915698664916,0.9825835089932105,0.6167113078348456,0.5155018349313527,0.482371434276593,0.2976448973514445,-0.44187839623124137,0.9913622397710706,-0.6966400040824852,-0.3252366054286069,-0.6528281059891339,0.3213475654419662,0.915690400905719,0.8552111248001635,-0.863198413181943,0.15786939253756982,0.912914895788977,-0.9246503476888766,-0.6429495275470178,0.33748222894056434,0.28867691282247065,0.579193320254999,-0.25132408528401684,-0.06737502437640308,-0.08408107346219706,-0.7171726585344906,-0.4839259844142809,0.43908678969670967,0.2888450324359797,-0.19037653510499575,0.7611722369360969,0.5873890509697575,0.3376143898575268,0.24099075481855903,0.6291132960262484,0.4222422998310338,-0.013008326506259493,-0.5547156539918763,0.2283020912567073,-0.500116146351935,0.5212031424032111,-0.6485744479898432,0.4201336215076603,0.8698550512071703,-0.7985305438205466,0.3609072506175568,0.37437704992795307,0.3201842821260794,-0.7459798311116774,0.5080913400333613,-0.36909101108668607,0.7931807175716674,0.3839177422780471,0.7174454542522071,0.5236362315400027,-0.7826697915062117,0.7745377754910652,0.6220712344779955,0.12399767916148585,-0.9480773970249234,0.36388111413672797,-0.33355809923884294,0.27815222142667273,-0.26822566962940964,0.4248401195411653,-0.31797466763625026,-0.5901029876886477,-0.43297629807136695,0.37257368855561124,-0.7682454990717964,-0.7823558439372591,-0.5899894417335225,0.6807312990894374,0.1706501647831351,0.5807651714007696,-0.011460771972430672,-0.9662891301146157,0.1301804246025402,-0.6892959970795323,0.505589094709181,0.09477853707258399,-0.6806700573462585,0.2549517731557782,-0.7695568748409536,0.015414860701020938,0.8078236158387384,0.4375599207154608,-0.048352008695426774,-0.06879189082512882,0.9036763903105247,-0.13559678525009833,0.9717681747414519,0.43599135279732115,0.1911811598763209,-0.4348618629085359,0.1886367786024432,0.8385841193566443,-0.014590747546944671,0.7026944019070569,-0.6133320471632016,0.06727572146232941,-0.19750309829274304,0.1422509331846502,-0.6004665633641249,-0.38807780478986165,-0.42538478412004666,-0.6241976165326519,-0.01740675074253306,0.7395464925318274,0.18024950541740425,0.1019340540552871,0.6069118041853852,-0.15827230089657274,-0.2747772174341794,0.06302609179510954,-0.29983718978387364,-0.038896517331733715,-0.14498187902397386,0.7179240800725715,0.4741301400527931,0.08570673558730157,0.43333023317489716,0.011714821662480057,-0.9545899538841489,-0.9143853374628064,0.13192078930421114,0.42837561217702524,-0.8664921585718715,0.8035131803231226,-0.4194394528958636,0.745370915273013,-0.7246266689135386,0.08439237667560051,0.7681117608004882,0.5988817203550632,-0.6026125304183116,-0.23293348814514325,-0.6864328161505715,0.7733358945353499,-0.25420361348515663,-0.16787469951462786,-0.6292008521920518,-0.4090805592435498,0.02783500049548082,-0.2590949622069556,0.3017322730119354,0.9035433497174856,-0.15341191537271226,0.898434688154746,0.631321837656085,0.5699571177680252,-0.12887024805364655,0.20504414422696438,-0.6704972862436767,-0.6974923626726666,0.3683273078731346,0.07468711249747684,-0.4604721918153676,-0.11276787477541328,0.5610007738783609,0.16111701607161577,0.26006850032764084,0.5718903761769853,-0.4929097677969778,-0.2699406048991264,0.5486361555332264,-0.1423997043263785,-0.06025355544732891,-0.23200278857258216,-0.7249431114629954,0.05241006674238857,0.12199191773100826,0.5488578792136407,-0.9419187122716148,0.051302701285428354,0.8929996226776227,0.0963048022541082,0.48957000595425626,-0.8624093827872827,0.5333901916703732,0.6399669617282184,0.8783048004154046,-0.7065181749502452,-0.6884217531628019,-0.8302595265055421,-0.9262343479324664,0.8248880021158813,0.029264323304724504,0.04446794664618281,0.21002246142178116,0.8597784981366237,-0.0027920118659614523,-0.6369812893253077,-0.5289868239321744,-0.2463200510082384,0.3624500967392499,-0.028090400942051952,0.3735686818695323,-0.46846282795092264,-0.6056249742108921,-0.3579632973271749,0.7739852643882532,0.42911091770840115,-0.37130184781131637,0.18074759176191502,-0.5171132509865217,-0.029082214531831907,-0.8501949992904096,-0.45140349526083123,0.9529297424472383,-0.5034324768846854,-0.4942285921459655,0.7303449070566201,0.15890106216664135,-0.6716258042313468,0.31886932534352797,0.3357792678696434,-0.6943593697513475,-0.688941259893108,0.18957084436624183,0.7809263656155851,-0.9033478350720967,-0.025561955096174316,0.7448190847652179,0.5054436076106714,0.4278053017776282,-0.14199864619625102,-0.5622114272565961,-0.31483849608855596,0.5357988262894724,-0.39810909598993915,0.39619882318777755,0.6722925447991401,0.8961489396792457,0.346698741985064,0.2522189631241287,0.4969585803736485,-0.7711535036146271,0.5469981657800382,-0.3731380330706382,-0.6125241286823866,0.17490172667154713,0.06483345566239818,0.9682786528408309,-0.6630490890835259,-0.5490307767806168,0.23142283218871773,-0.18101245949961964,-0.04533075961462041,-0.4163165465194234,0.7301719330564085,-0.13991177720935766,-0.7515237197511353,-0.5543434934033309,-0.8106938868974451,-0.8690738618727063,0.6646086773000031,0.6060023417729523,0.7118932324124978,0.9581010132864358,-0.08623225091209608,0.04407698091432333,-0.39567321446389814,0.967767495933912,-0.2216600939483364,-0.029454441914388285,0.7748064179545546,0.03301320732202839,-0.9425278753999742,-0.8558958988451093,0.20569744550014124,0.8773676718112782,-0.08176916463469319,0.5036905730554999,0.05309699395625622,-0.7275270216947725,0.08703395513449852,0.8061390786119429,-0.6138872076145083,0.36525591862091633,0.8523657486880114,0.20207734748126316,0.7417602155536369,-0.6096183204640262,-0.5544705577166076,-0.07709689103392159,-0.7313400220933335,0.9976217887348395,-0.5000408676541912,-0.6052907552780549,0.052660568756468074,0.5340297014486526,0.5801855522280976,0.8489644348845844,-0.14076352690807337,-0.09282319731107469,-0.8902555064212248,-0.46297104868071126,0.8719964790868981,-0.7822074468288878,0.7567804761030732,0.6750878512151193,-0.3358218012789096,-0.5367033929186462,-0.12222155796049372,-0.4446802286813212,-0.08283907463612539,-0.5195215162383982,0.10424525598254153,0.23986165884590638,0.5604929260719411,0.8992027386549275,0.2685006997612642,0.6472899717793752,0.9642927246938147,-0.4907088922087315,0.8718680679073676,0.6477814858401247,-0.48435896214771423,0.8791808025504031,0.8471013822571474,0.21286586569297072,-0.7963951255686708,-0.2692848237333023,-0.8537111890231996,-0.2560291656131366,-0.905488707330032,0.8019766087024969,0.6701841143395029,-0.7347348465933108,-0.7491570630988984,0.0791211560358287,0.7667259112108127,-0.9862384930044172,-0.657846252070142,-0.8025994008733781,0.42038676721078816,-0.01653128456909836,0.7588505423476686,0.22187411129528867,0.2996136829462015,0.022564442539024565,0.9785096848361394,-0.2617239577752053,-0.07106640923717622,-0.976610522306566,0.3432494279628253,-0.3926318245294451,0.6002250493575352,-0.5495507132867319,-0.7583473151933557,0.27612607654086174,0.8180606602603622,-0.9880570616531053,0.9999143740382812,0.3723963568242865,0.15512434742444903,-0.046896874012815504,0.15836628545135079,0.69653629627522,0.45832071211863923,0.8815488355520622,-0.8866206038541047,-0.1504225254225784,-0.9525281137783248,-0.3394786604986997,0.931798805853425,-0.46110264767343834,0.4973720193233042,-0.6910929529170788,0.9077129376021129,0.7064367519780645,-0.7937187568721724,0.5055080979963369,0.8041337325009863,0.03933877065901936,0.950828576145371,0.19359444682718308,0.43230725644413304,-0.6174827182225022,-0.13499452531132516,0.9714486948858816],"weights_hh":[0.3335558809173411,0.5889335975075074,0.7338095866948195,0.6369708322183489,-0.06366722275499215,-0.05635484148279435,0.6547709796834136,0.6490612175519188,0.17609021243382772,0.6664111970933901,0.7592218368769026,-0.6798099056394986,-0.5452347627709395,-0.19335981404241998,-0.3108112488296415,0.4254742473121902,-0.5330922446860185,0.3625283888038038,0.010073133488121,0.12000147965380537,-0.4321254049722374,-0.6708634930035604,0.14361042662668377,0.9614407688154172,-0.5955356084339865,0.2465403528153236,-0.9159140407403108,0.22281637244543395,0.047940541245335755,-0.4733724054598063,-0.993462535864188,0.012038782897415778,-0.20863825990127327,-0.8442746253378979,-0.3181055189163273,0.3925380618245,-0.7989723753670448,-0.12972653669481837,-0.5243254895510407,-0.2310738802753476,0.29930448230846673,0.11890100183241259,0.8287396642607756,-0.3942649883028331,-0.16696962717870711,-0.32856426784828585,0.06657721468677846,-0.005662932895100559,0.7852713686078328,-0.09336063337314182,-0.170503364514206,-0.8170928374961952,0.4729515943920355,0.7974801200897623,-0.07334577139147624,-0.003649658616654783,-0.04057164505518873,0.5347452536577557,-0.05057922215495081,-0.03562710170081007,0.24052709821560536,0.5724455630342473,0.6253855775679353,-0.38217214686977385,-0.4476710654220817,0.21728664140011777,0.33948023577449815,-0.42938109792412904,-0.15896319328305908,0.9654377367155669,-0.03518591173148122,-0.784649045535269,0.5566941664677811,-0.40742799094406523,-0.29736420833444077,-0.33029344216788337,-0.7965343208822144,-0.7352158939378701,-0.2384534860567069,-0.5655662032650453,0.6046658836044714,-0.6428732812726119,0.6625058020252941,0.36592269649853315,0.46296821514919895,-0.9914527561727351,0.43863409555899047,-0.17203998368521267,0.7811282679877611,-0.02341197959588559,-0.7139617862048429,0.1455796011424868,0.2989420459806327,-0.90918589255531,0.16635092486901515,0.14552200362541878,0.7874873680446202,0.6729485496751446,0.17181992236536936,-0.9732697683762039,0.07486153915890359,0.7123081069669859,-0.7351273728876135,-0.9462409361740145,-0.502468295897422,0.7139940687244499,0.6626487515324737,-0.1791293280661137,0.7798257293320545,0.26582148873827816,0.6217011882225241,-0.401569866924262,-0.2935184269563955,0.8678067135656293,-0.8113238519632742,-0.5223841819780444,-0.9616280719582799,0.6982527848939344,0.2368324500804022,-0.28938087902468657,-0.9894369346433067,-0.9319393919956152,-0.5041985913723537,0.6481895137067755,-0.9477942839279956,-0.44388523234650235,0.22743166100160828,0.4287977741799287,0.18171910233276312,0.18584597194884722,-0.6826153340940126,-0.8527672907557808,-0.9994756534130775,-0.6236601625884179,-0.14088938030549936,-0.19225812803098963,0.7346037436655508,0.48654694297570145,0.8868336410641542,0.0034604861006313214,0.3216837465358948,0.15148373283769634,0.18575778600199166,-0.3615014616719445,-0.8107941793704849,0.7443012967024103,-0.9090697056549792,-0.48617698115414165,0.038335318051574196,-0.5878581025231762,0.3437785850238344,-0.8812496924419184,-0.5270459141195405,-0.4143322102275533,-0.6049027095363233,0.32130259058912203,0.6248946364525403,0.7818734612168996,-0.5548470623961612,-0.3131286714997783,0.7352090066844925,-0.29531706555540893,-0.6460001307263648,-0.4888802359778659,-0.9888354768118865,-0.776463560662223,0.016531862524373997,0.2315094887427962,-0.5836169231161201,0.7813035639537311,-0.22388664147110893,0.34290963721982615,0.32784287230963116,-0.5535344081364326,0.8974359018896139,-0.19623117854102579,-0.09923680380318589,0.7017913785822567,0.4150832507436544,0.9850112433769085,0.9066378053189492,-0.36143224538291996,-0.9219835801108305,-0.248705365703197,0.5125554208804466,-0.031193788009801215,-0.04944447303777366,0.4539932858810116,0.21040208937290017,-0.5537770141544136,0.8470064304978939,0.2438950592590674,-0.5241911527978242,0.21719775399029406,-0.6124828370283311,-0.6584996517792789,0.5319444144169208,0.6190307571098952,0.6447931069906363,-0.3323769898730944,0.8920060413331996,-0.24197637471177558,0.8930719962936451,-0.644530540103506,0.08510021174761984,-0.06578066457018461,0.6558269961176812,0.5303026791892134,0.22012973431028193,0.8479940712030885,-0.2083484653546055,0.5336531413465551,-0.5977502768641612,0.8906043026606987,-0.7684733364846086,0.44964924201961143,0.8987061596529384,0.20916288749498269,-0.02987253401285539,-0.6407159496322672,-0.6142241644559199,-0.0356864818482141,-0.6709898875832188,0.39440292911696995,-0.7867657170071145,0.24537892452940513,-0.2852531396947149,-0.13423489590967153,-0.09991872363793353,0.6873153049846814,0.8066915476900633,-0.5286562449626817,0.5586663840877317,0.10843265538219504,-0.1451357992028568,-0.6945418582284979,0.6365529099811336,-0.2987075460574391,0.6657180499416306,0.4544010989609215,-0.008045476800590645,-0.1476411942145428,-0.49673831496603893,0.7747193279260707,-0.7401206655982002,-0.7794741734643353,-0.9122958538242263,0.08504463841544752,0.23475770745839286,0.4256050110682461,-0.15062429980310776,-0.9543023154757502,0.23930976108932733,0.17393936819148537,-0.26555525250129364,-0.13358577692371143],"weights_ho":[0.0620135959219299,-0.07795204425153912,-0.893622757221407,-0.9299097125212636,-0.039325571166043405,-0.15547524822240932,-0.6838037760930766,-0.12235554002299298,0.8819215135489868,0.40293055674467126,0.4001014775862348,-0.5008050032427007,0.6103488079093042,-0.7932402750358496,-0.7614705700159692,-0.76512059205547,-0.866275861573857,-0.6603475991465073,0.8394739177671524,-0.6523084487098463,0.863171010151973,0.6564978561981674,-0.2355303771057371,0.9354086732964779,0.17490362300363804,0.9306358324388508,-0.32142499416471204,0.9377666077166793,0.4251126441139086,0.9514388443404163,0.3595121259907832,-0.08831930746819383,-0.0064254354774611055,-0.8841015582669851,0.5370749381684097,0.9488555212776266,0.2732090673176024,-0.914401697178248,-0.30343862594096027,0.983902038137993,-0.04696453235757425,-0.5499875398564198,-0.57455005998749,0.8308133839380176,0.19654430093405995,0.6790306160437387,0.5599439918119948,0.6234574015766854,-0.343040951863296,0.26147663234855933,-0.3093083094914961,-0.5540892233237877,0.6505039792692362,-0.06689758845055493,-0.5897593792557541,0.05656683554111641,-0.6112758068902626,-0.6679168426008426,-0.455764095172684,0.8921200475471984,-0.9959737809664415,-0.22973476136134363,-0.11443700418241987,0.20949350237530262],"bias_h0":[-0.1060693415109839,-0.6800415741910959,0.30070839058231513,-0.18516838663207524,-0.6763334051491268,-0.5131953587744267,0.9941002414841147,-0.80463068030756,-0.5586172712228119,-0.41469032729105315,0.7245812084300172,0.265737939375027,0.3182539017148114,0.6540669111734008,0.045012654526348284,-0.40821136143255754],"bias_h1":[0.07693151018738753,0.702296628969401,-0.032961755607226806,0.8861660105059186,-0.8178031206428618,0.6276251875080412,0.0036945568228934356,0.7246902595950768,0.03301409898632457,-0.19108736049502428,-0.906435482985732,-0.6821243331322175,-0.7276478227439196,-0.9262264274237817,0.5999620493867335,0.21355754162378537],"bias_o":[-0.9634310229102541,-0.6517201733728728,0.1378331748365358,-0.9100717358640951]}