{"weights_ih":[-0.38910233370215375,-0.6435035791462917,-0.17531546056950464,0.2589710172640993,0.6427541235415719,-0.4678943853426869,0.2705324140922236,-0.8590625089290715,-0.023931934486661977,0.4728628646916473,-0.6477213358494398,0.8174084925677396,0.8407255015035522,-0.4212469733045099,0.5414955675027726,0.6900314374648084,-0.8774024552531245,0.23165738052414175,0.8590073462256087,0.6165157009995386,0.8057068483058736,-0.48914089285759377,0.7812413207172462,-0.537780562602385,0.8750939042421775,0.26891018152961954,0.16309742953249318,-0.9891076318900625,-0.5373559862392028,-0.7309355464270868,0.04716587725536936,0.016727532978063175,0.9546611441477957,-0.4117634901534972,-0.22468273637773706,0.6857390936204661,0.6922755251928605,-0.5372369415491265,-0.22869108694298723,-0.5560614966344755,0.7952698893771706,0.4021589991950685,-0.5591941025102243,-0.3039888682908043,-0.8513491974394201,0.9768280141447023,-0.371519376820042,0.3386618812941975,-0.8053671700000884,-0.41540905265077943,0.8370806497440884,-0.032972716082668496,0.6872530072676881,-0.4714200764210821,-0.2993506500873304,-0.9816397034236091,-0.41630708515605885,0.8577789230822825,-0.7773552407914759,0.16189120561501125,-0.6903005762587711,-0.4902120168421358,0.14096706264012449,0.14199207575459005,-0.11480787420984218,-0.558309066461145,-0.1948957910496789,-0.5057055870026297,0.09610668860245375,-0.5811592721674119,0.27571271788169716,0.6821827973768799,-0.6271186274643561,-0.1400734801526209,0.07798106328819077,-0.9520726165655622,-0.4827931579888598,-0.6146800454640926,-0.31975435942246255,-0.6789604253941111,0.6511844170660257,-0.5433523586241862,0.6010383883625261,0.34670747788941747,0.28115322523242314,0.2919109923793435,-0.5493805180817533,-0.9834885140764502,0.36428594519030155,0.9219563365841723,-0.45152662506675534,-0.6579685001883568,0.9127751039104226,0.5171195429852813,-0.9381964430818261,0.3311561003657941,-0.39241976202493967,-0.136935813382298,0.5602006149095633,0.8063650143007133,-0.3731488571827166,-0.18996605573108005,0.6740889281756488,0.6457711969587179,0.38484800185244894,0.27450777602040977,-0.06785475033213917,0.7875255091698792,0.6836166744783714,-0.24629324669175823,0.2846280053468839,-0.9695240081217764,-0.9718856804921197,-0.09409318645473963,-0.12270310269440987,-0.41285469854065027,0.47983272613051,0.0584345162425266,-0.27965859369346546,0.9399662345087454,0.4143266116405566,0.8752842620933103,-0.3041710255171337,-0.6163022058076066,-0.8134087537489432,-0.059371175185564784,0.8259028665184867,-0.60006101601217,0.9597296589003232,0.9124071108168044,0.8312861683867407,-0.9123040808109599,-0.9300465878473019,0.686389910994309,0.37729943509394404,0.5344553770951905,0.9718581507568815,0.7187298508615136,-0.3263771432475788,0.8452132300183517,-0.1684701992555806,-0.42947819116886343,0.191168008490616,-0.04928698527791697,0.2572597449992824,0.49985700029763924,-0.9092012976404931,-0.992900008959468,0.27765814785096254,-0.7098369559354825,-0.36415931105681487,-0.9141096038854388,0.03765398488419325,-0.91604919700554,-0.42012768853457816,0.3739606406929148,0.2755357702009493,0.11203817350074141,-0.4529836460241006,-0.8879235041994409,0.8060653631138381,0.551572005276026,-0.5903034263400051,-0.20004497276443378,-0.5366215027647727,-0.1993958403409566,-0.08371170706408937,0.5812322869752979,0.1097917639295165,0.46926712716422037,0.9105232685702789,-0.455692466688542,0.9082003269587924,0.9052486718259642,-0.45056228920441144,0.3920516635573099,-0.44912820200477976,-0.6154784581364534,0.5110648227800261,0.6060613906862433,-0.391367338731176,-0.46047864714849296,-0.008254317907101072,0.2774984110731151,-0.5663869546208584,0.6198838920751057,0.5603020748742398,0.3529847724044437,0.13914680381599553,0.1356717534151224,-0.9891865501275297,0.7386807450953825,-0.4782910916898555,0.6087836743150692,-0.3874701032027035,-0.3907400967616652,0.05233979749588835,0.9655481070009915,-0.26261289420640477,-0.9041108098394188,-0.2638313472709297,0.3453157095103274,-0.1469865905454404,0.6273343164738943,0.6735558220937947,0.8860019338763019,-0.5309712622658895,0.6061263491936668,0.3488026362781147,-0.9081722681622522,0.3299800441234495,-0.9046416241133259,0.025349815214876115,-0.12721347951528683,-0.5338678322694621,0.6045348282054162,0.030444433859920128,-0.8595964261106976,-0.5393852087667304,-0.19584226502506952,-0.9648022489142694,0.2755578792785853,-0.33500849685744294,-0.5823132909371918,-0.22088950869866308,-0.5579051735968992,-0.8173980437492319,0.042278613854711766,-0.27265342288445327,-0.07363164952708123,0.6268237989323655,0.7268169343940831,0.45242958190838634,-0.6930755445391572,-0.6802156340726331,0.05284011324586402,-0.05773809942540953,-0.09081185484023768,-0.8105044745376757,-0.8303349124358483,0.6701446616180597,0.4683192445392741,-0.34811092457263926,0.8525463258974846,0.3160614587846464,-0.6132649480174492,-0.1138813486539767,0.2606647651465761,-0.6398974037186396,0.8443756131679296,-0.23882587935811062,-0.11681689112273341,0.06277564609498687,0.31200883753073083,0.6008325664064027,-0.629858259106137,0.6653755249396998,0.5202213830924676,-0.6089041306644951,0.11257815453299336,-0.1628483380628838,0.6877009862558805,0.9881675809978232,-0.6490986603128219,0.8012184649334539,0.30014495612789327,-0.8717209251345441,-0.347596188708178,0.9117735095228634,0.06633337163359632,-0.2821811221291668,0.30686027401730276,0.5113848709954483,-0.23913003315080128,-0.5520771250920329,0.796528135246098,-0.8339762057439091,0.42239265055593633,0.5803655770116214,-0.5155248016610154,0.5876682576320709,0.6209921698066816,-0.3780867520667315,-0.625994549381119,-0.6927994321765005,0.29589841827014807,-0.5266425257149294,0.020737988373750182,-0.7349719456219559,-0.5964692816509962,0.6032780638064796,-0.5656526498299983,-0.9997024992197578,0.8900029806499108,-0.7310497673342922,-0.4980628140176717,-0.8706107080854002,-0.19225734202442735,-0.2519539672152702,0.3956134190462801,0.5922839543286575,-0.7708369732360714,-0.30106686040138375,0.2918293473930784,-0.5312558280307906,0.19476666071601811,-0.9142979963660076,0.4479570828902848,0.7895266155236451,-0.7941607384947931,-0.3707894951100874,0.3028753970342022,0.2734858405045424,-0.0462877032213691,-0.8383825647443688,-0.9533985963141014,-0.39579674404105947,0.9043841961929076,0.5644408414726003,-0.8525311414323176,0.5476279282266181,-0.08467818417684336,0.20651431970944523,-0.8190482632665399,0.6933288141318077,-0.3160914088367279,-0.16165483369420097,0.13179780046473577,0.5598909577192219,-0.5075325469044505,-0.8032168852111856,-0.9519672621062858,0.5141464277573624,-0.3473703819958607,-0.021164377474620633,-0.6923835490831578,-0.38390506426677606,-0.5125860307141277,-0.035394615561557874,0.6922486761471611,-0.848114141008151,0.23782906921621594,0.6426916955682895,0.24916071898713055,-0.5975322460753258,-0.19252702949647627,0.6315842404909329,-0.8794046020762798,0.163172603628724,-0.47208097491346845,-0.6257907950582113,0.611778186245616,-0.8422602541666784,0.43821763909755584,-0.8229055849123035,-0.29066224753703684,0.4115660614219565,0.315224373982367,0.18259689271501078,-0.48800367061960914,0.11223863911363763,-0.9417514258729247,-0.1491828502291126,-0.6056912825845218,0.24077874477679995,0.6317683788558102,0.1312943605290291,-0.5227417840126527,-0.7419586065063877,-0.79251015369155,-0.6491072812973522,0.13382880907924188,0.32273989165498973,0.6383880290645412,0.8859536699310497,0.29687253514105083,0.247098945365142,0.12510254390897768,-0.8145258038669823,0.24881827793397204,0.24264600465436748,0.003074722737302693,0.5298616895523183,0.6851053482509182,-0.8588164616700291,-0.5166415971525655,0.9584770603587773,0.3044309445180218,-0.11330660160875539,0.46351037870145695,-0.7158547659498784,0.9450032762542302,-0.36207990816364233,-0.119976880344558,0.9355636465318864,-0.991374611713949,0.38672658213095845,-0.6073061215182625,-0.9457003574250149,-0.35750003973505673,0.7603703529117101,-0.6769737679630252,0.6277440324407428,0.8863704720663892,-0.13462504433084388,0.2836316673662902,0.632062849137454,0.4525260791182941,0.2821424395437253,0.736489357444311,-0.9443011587853483,0.8582103661948102,0.5530897102117105,-0.7486247529428853,0.41828617397358836,-0.18438135993904203,-0.451409983917223,-0.2961600971629421,0.6125755812396929,0.8707292902184249,-0.39477339547864165,0.2894046235384611,0.4311880331403064,-0.9204947722310752,0.0437162478576254,-0.22239371353780268,0.2498078649665183,0.1887972695057294,0.6987332930852568,-0.6471447868130049,-0.3932330494596201,-0.6785547226665793,0.6456623285669452,0.9006082150910693,-0.935163279045051,-0.21862433310332552,-0.6901889299544692,0.6908159331476349,0.7789646256923526,0.8894585419842413,0.4241928305450364,-0.3853865525770723,-0.4402166734943562,-0.34261359292397375,0.9963377870228438,-0.5463277889993914,0.34806875264259873,0.7326629503866844],"weights_hh":[-0.5592621339551904,0.2966666268772571,-0.44659942009911835,0.21534981754078775,-0.8166533839151751,0.6681068895725555,-0.146427534283867,0.9593132238482309,-0.8236138873306753,0.10820107005189339,-0.2585008374469293,0.7919065018251157,0.3555190534036401,0.2766492527577751,0.8994425778009418,-0.2520786667651769,-0.8564206787906807,0.26254573268175907,-0.4702912170625726,0.009384463999636106,0.12848966160031106,0.2842315421111279,0.6822974575405154,0.39801101952322715,-0.1427809648896099,0.3007796823310398,-0.11851181025352187,-0.5205734842634047,-0.26554604807709326,0.6089372113426401,0.2018516705567046,0.4184128804657259,-0.23973063350875035,-0.3043930165385038,0.5993495342204505,0.3467157946143433,-0.8623245139983122,0.6675245856310006,0.2108433021238052,0.6092609131213866,-0.6633953633301817,0.828088731227099,0.5176245427009636,0.947399706405412,0.07281364858796824,-0.6272011685629986,-0.6119753958758285,0.2876368289776232,0.1807063885223581,-0.6330878616227069,-0.7420747606396982,0.7792224052665795,0.2895287670574931,-0.16654150412034685,-0.17364803333318402,-0.1244738781223349,-0.15965360289417863,0.3991121647001399,-0.918216588252257,0.1725375350687084,-0.8894674743447872,-0.32262839838464363,-0.4771837301479651,-0.36715942188296125,-0.17763039055827434,-0.4029192549940557,0.9183884105124018,0.13903475914355923,-0.37928249710137485,-0.6757247418002092,0.5322018951780705,0.2536136284993995,0.12641252968434924,-0.67980825889536,0.40454524926627045,-0.9148509911173328,-0.8047358824220878,0.827842300758848,-0.24582749555938999,-0.6004336916657846,0.16247411278086998,-0.1229729168518594,0.8332737584476577,-0.6172229037899148,0.3521095000176906,0.9991230661142187,-0.943014762894461,-0.6997421914850916,0.04386345654744783,0.7867482232846481,0.40075864660997507,-0.8341414973886281,0.5634005280177028,0.4514672966806066,-0.9094243470972727,-0.42998450008236966,0.9727100790001528,0.01381849592545259,0.48551374270496295,-0.4583488351596583,0.5400130991008021,0.8136535675733438,-0.31691934378062014,0.17578335327338612,-0.13252273892711552,-0.5320997357645607,0.9385508354120318,0.8141946610636943,-0.08394545175545831,0.012663791912504774,0.5806123828677314,-0.8434562433823454,0.14581540274865312,0.25913856996095364,-0.6759887302823746,-0.005848966321249982,0.12962267715408893,-0.43316976875681434,0.4854701671517567,-0.6960533285582069,0.752943402916072,-0.050932345299189885,-0.7395695620174099,0.7924851835922444,-0.5857750947649571,0.9168866694463302,0.10449738307372769,-0.9484215325481871,0.21547286846505376,-0.30727178139821154,0.5745798453554496,0.27020535582595606,-0.6858349733277438,0.8686471912811007,-0.7094538956176069,0.20418092242830976,0.2907135138250698,0.8742160423950691,-0.13732739663022753,0.15504323010918197,-0.504147858845237,0.4295861232611362,0.6747090718255802,0.02697030486665719,0.2709784967918851,-0.4200368352489179,-0.9188265585370448,-0.9779732457812349,-0.8682230795430033,-0.7048895286134735,0.20725523759064535,-0.02435213793340929,-0.1553391612436157,-0.2964710600335356,-0.7038411078183902,0.09888677631699005,0.8926788032566151,-0.7794367385560146,-0.10653073535305047,0.921650958662211,0.48166567689129747,0.9437389262971092,-0.9609991925469861,-0.8521979615750956,0.6017692325617505,0.3345814189596399,0.8111470232629201,-0.2629101168819856,0.5310071197155659,0.6267648075737027,0.26850939374868665,0.3120804264096835,-0.6496238991545118,-0.6003272611556862,-0.6680670466174201,-0.7616357402560725,0.9960533777105147,0.46159853112696503,0.2548428253844712,-0.3195171161601189,0.9998252920109105,0.14201474992222662,-0.4019666692388808,0.6272719891404617,-0.16274404086491479,-0.6739636456688722,0.5706139276769091,-0.7704690569500634,0.22753160564178398,-0.9039107722277193,0.5813752258836749,0.5954100381286931,0.8869273094639747,-0.04346442155777952,0.4772824410570178,-0.4693808625983944,0.7717365220699715,0.3082561960802326,-0.2390087498922444,0.08199971182305421,0.10572978201756111,-0.2866173444878448,-0.6923069849545715,-0.19013899008557256,-0.6350079863478078,-0.7346092542721401,-0.023440353898981137,0.6629569071097201,-0.10451327460390392,0.8500639991695651,-0.9170389248900062,-0.44426920081918175,-0.5913853138478586,-0.7006191168852267,0.044219916059731856,0.9586224822899327,0.44921722047089907,0.20339445473470885,0.14092267989003648,0.6503149220021525,0.6277944141662326,0.0024688559762002793,-0.875799401905784,0.3835699965880599,-0.10468032987228537,-0.08882825711287712,-0.721882668081111,-0.29351644167909674,0.5762302885329709,-0.5088867713080572,-0.1050845534596847,0.7479854079476231,0.989807798955771,0.8545951607624209,0.4896387960942383,0.8513684323211241,-0.7386155599882027,-0.6350333691957457,0.7598241433249027,0.3814628525467003,-0.4944945172781967,0.8332270044876364,-0.8307188021409957,-0.08394069934577608,-0.128822078934264,0.5547489110590418,-0.4128598142673243,0.9339763746150878,-0.2424765024711466,0.6209440976128859,-0.8328697735335466,-0.8148769246076988,-0.579006893593847,0.16963004910905588,-0.10088975713865178,0.7525013231608793],"weights_ho":[0.4987495987130677,-0.8936766303650312,0.5058106766537214,-0.6448395713989972,-0.6624768923799118,-0.8908440384424832,-0.28839635587657053,-0.056049934616312136,-0.9362119115611351,-0.8235056961249068,0.35588363925541233,-0.3598392532990393,0.12107345886622167,0.14247233159120953,-0.6719947719463895,-0.12867898215181706,0.75715714972062,0.4165205335479574,-0.8064361124473334,-0.8223777316262599,0.805869211778574,0.17922775654143708,-0.5576601520035704,-0.06882246345477183,0.9924091377602489,0.7314576313199108,0.032068994985115395,0.881071566104956,-0.4166003096112667,-0.2758527864125675,-0.6709730600604709,-0.5145883498704948,-0.7934007350616703,0.7897118262100493,0.84322886043973,0.12541803360259696,0.17097950171505283,0.25835317566998306,-0.9089073166930688,0.34929611114067805,-0.7981239389752506,-0.06837620641165465,0.35008001953098034,0.3714280031276218,-0.29447724945313314,0.3051456965603354,0.2721055761125821,-0.6549320173186275,-0.9028877734213994,0.9163825354299828,0.22110336545232223,-0.07223311476715688,-0.6368311696187359,0.9580182517304927,-0.3600263168292359,0.22950675650630625,0.19301780006608094,0.6656590771044195,0.1633294687639273,-0.4625311876015079,-0.5040255007230816,0.803917131940141,0.0681504988966759,0.47083765551425394],"bias_h0":[-0.18928635934606652,-0.5675926025622833,-0.9462984235306804,0.5463549258078926,-0.033357093882231625,-0.8893693711436765,-0.28632060825739103,0.6070607112435091,-0.7092036231433125,-0.5810157889447458,0.07950558871517988,-0.7417391753922535,-0.538801690000537,-0.7069997974822972,0.24314136135516518,-0.39483900194488775],"bias_h1":[-0.3249922190363983,-0.5422211204378908,0.25524008955869637,-0.756788143508913,0.9435175438509271,-0.12162397814259052,-0.8602812893310516,0.3868025283642691,-0.23873847543306104,-0.9031103076986351,-0.14821080140209508,0.3781117598226098,-0.9300845007623806,0.45466264841357296,-0.2661697263505478,0.051472132406076954],"bias_o":[0.8262255870204769,-0.6465304375217507,-0.9111880819019651,-0.6409170518448226]}