{"weights_ih":[0.30508906338520103,0.5377676942836231,0.6703145528222694,-0.4760400924524508,-0.12444777253625872,-0.9529122944377704,-0.48790757777406824,-0.26743380024424845,-0.3838271043006498,-0.052713909742424736,0.4608737122492239,0.7150546969791214,0.24683409592080352,0.31613806189912474,-0.39008773321662793,0.014835256350492099,0.4504980027495722,-0.6691555137699248,0.03919115850533772,-0.9444018391928162,0.78895577345011,0.05746705424814369,-0.453745927391247,0.8975460274618432,-0.7420551026916702,-0.9426558774357414,0.19572153096270206,0.5223104637145211,-0.9035013191114996,-0.15032858845792063,-0.6555918192215797,0.8705642981095194,-0.1937431811813597,0.6397126521470025,0.35747162246545505,0.0416915028307705,-0.7449880822272745,0.01873842915861612,0.7247013802572009,-0.9421516889139527,-0.3133166040160045,-0.5597767158951836,0.023328731777327638,-0.8438017728546492,0.2278188924190394,-0.20912013249103634,-0.5176137001703489,-0.4845740946824202,0.46230155505386317,0.0760147238627249,0.1575877813683455,-0.3339208502163964,0.6361363324835947,-0.6622760998712192,0.882055622566357,-0.7949126843711194,0.4018411492536742,-0.7079123680775266,0.022570409428035454,-0.8928643379771064,-0.0757908581127722,0.8069958475854522,-0.7656616358370036,-0.7545974043164421,-0.6178076150493375,-0.7922097431608393,0.7068804564974094,-0.638295194826602,0.7075176675343986,0.9274758493260618,0.8774164231705941,-0.368657944568769,-0.9112088856328138,-0.5521707187875409,0.4616521936146498,-0.35465315317325175,-0.5452012364903507,0.01476740501791407,-0.9210801132992779,0.028463081325413198,-0.07266972089177837,-0.4680590525899073,0.4128848730561774,0.10462053144162331,-0.6775110283424333,-0.8264266542024277,-0.9903829076726189,0.0032876560950285683,-0.05326682619968359,-0.16600461450545567,-0.6428906403963954,0.40675835908237823,-0.25310417849266664,0.38171659228341204,-0.6464102638166338,0.8526680773270596,0.5564691063807046,0.9363855805160066,0.07496456446055633,0.21252244793655417,0.7782249269500072,-0.9072685290361573,-0.5689563153861374,-0.5755181411791397,-0.502765105156896,-0.8095335561903985,0.0589948963939928,0.15135842162942748,-0.08405811886214654,0.21839608907614316,0.8582331468820612,-0.29930726867502,0.5389740181021287,0.13882084093383695,0.8314315497352591,0.3327826728045715,-0.20372793838773662,0.8917659497222474,0.15147259530618906,-0.7516176818848324,-0.6227832846209451,-0.5388967485361711,-0.00031908969394378595,-0.88039477700555,-0.6744320055390123,0.5605442204362179,0.5684728612762826,0.7669223622835042,-0.7854226217339471,0.00951387695972028,0.30135233165293607,-0.5061028662014095,0.5295342156065697,-0.4834778173058629,0.978679010182248,0.3369114581422903,0.8779912516130213,-0.843899520092311,-0.2617250134438571,-0.669439742965759,-0.006315909959011323,-0.7456689666170109,-0.45197523427145114,-0.9015898444774895,-0.29607813380112313,-0.6060436491445733,-0.6932593563632719,0.2802867877314992,0.9663677514110689,-0.37291492451793196,-0.06510439765127285,0.1671427972842019,-0.07282402115469844,-0.5217450264236454,-0.2844686781011041,-0.2739201987164024,0.7491120841242698,0.7055262797656323,-0.6615865757200001,0.41662851649451715,-0.3718802740962097,-0.07855164120498448,-0.6641636844013343,-0.5069121831667769,0.9848997855650166,0.03115484416128833,-0.2124980895186106,-0.503643468207362,0.8822595978504377,0.2595504043267469,0.42344046869133134,-0.23890413567996083,-0.2992335037600111,0.0632366271537661,-0.20055563356033912,-0.12062469629701011,-0.09022702686215545,0.5240522756021684,-0.22804573642528325,-0.3647507867187165,0.16304334660733621,-0.8303444485310001,-0.6658058541984473,-0.8989223436402447,-0.4161590053657833,0.39933989802470915,-0.47391831852580046,0.22077119245796673,0.682545975896379,0.4598498116548808,-0.8565008092803337,-0.6503714881190397,-0.2512869793269159,-0.15422158066897573,0.8724664480880748,0.6814756571299083,-0.21616156090689365,-0.757285825614801,0.07528747997178975,-0.36864007590422254,-0.5952612224889804,-0.18719595807570988,0.44050711696895184,0.11795994070082605,-0.8377501456320084,0.5016209284353652,0.8897580596239769,0.24141889790791837,0.7483282197984777,0.004161025472024127,0.15665264380908495,-0.11213032603219353,0.3560411021569818,-0.8632899649886114,0.5304331909078366,-0.4359717641921863,0.06896208259837455,-0.24986283361378714,0.8059845968072523,0.6591958471700157,-0.06580415282465157,0.5590574376034128,0.45770824634121676,0.08457965291606162,-0.3589059110605819,-0.9256037558795662,-0.5630202972555911,0.28473685131488957,0.5124865638816891,-0.6727342143590593,0.8384090423615893,0.035376080340893346,-0.7589322543978083,-0.35821346947050836,0.3472313672889549,-0.42321312610304807,-0.46917522748695917,-0.8133719410810929,-0.41337345324280905,0.7648491699694902,0.051235000045344314,-0.8393654539823212,0.19988155097457305,0.2942620737975401,-0.90300910509888,0.4962829036071561,-0.1890765023101495,-0.93196571643107,-0.9656656421459384,-0.09119770534740601,0.34610001324082007,-0.5151853827276902,0.8139119792655862,-0.9645352068806552,0.74537763244235,0.9645556370802326,0.49200973474916365,-0.5913271786824867,0.18741659232340147,0.04883638517800115,0.19045380132841672,-0.2685068148516774,-0.9452257434499802,0.5015599329602465,0.6709597260495441,0.6845454288821613,0.9109761365283133,0.02186610349530227,0.38729474389996876,0.4483555344504979,-0.6139015084663921,-0.900313388744125,-0.3706610119519096,-0.6155220665564687,0.6962133626525278,-0.226143545173221,-0.9550129758782235,-0.29929507871405914,0.15482045526589427,0.59553675171405,0.06880162365635534,0.10065000798328128,-0.889645774137132,0.5660283326397575,0.4146462518646812,0.6425947486295196,-0.40875838085744665,0.909767045209471,0.3814579791036672,-0.38852093270413146,-0.17884495811610313,-0.5965366628754254,0.8455612000687134,0.7157713740709508,0.2938741487931231,-0.8948550836359133,0.764789201805743,-0.8865175355857691,0.28046280118134237,-0.19594699876664023,0.016832993401942442,-0.23483386763672676,-0.12264006069988875,0.3546025934625012,0.5889476177837039,-0.7078989777847073,0.8754766163995413,-0.6386485794277947,-0.8954891270411338,0.27819244366117246,0.924904289533623,-0.06412669723473341,0.5127091002949915,-0.6599755499174247,-0.5739188703420552,-0.8171582404187405,-0.9595813084328351,-0.36676226902217324,-0.1017902188716544,0.11473593040536079,0.9294356805460133,-0.9322619395422085,-0.4560828697761561,-0.5668811525287973,0.6059568461222631,0.8956213687928232,-0.14853905678998625,0.6437870468016862,-0.1407647780254222,-0.5278812434117277,0.17092820898050576,0.8113712921336609,-0.9547513268197076,-0.344420403094831,-0.9969592621747985,0.11963428723191272,0.6806408616257491,0.7287178917229946,-0.07396123037686464,-0.01335082936618548,0.8353038374148638,0.9780304875686352,0.5930753784895668,-0.999422119862347,0.5681787896225083,-0.04450271030411779,-0.4594593787798362,0.3924956334140941,0.7206844258041913,-0.6242379198633186,0.7479371859050512,-0.902231066628556,-0.6771859302857555,0.47350959796706227,0.8476232538752675,-0.9751207088118936,0.026150700816223837,-0.6175763932331442,0.3682693703927611,-0.7199408154058387,-0.9454249663798187,0.10155620379402563,-0.6316953197200776,-0.37890266825808605,0.9510053080583554,0.29541173278611654,0.31690843154548753,0.45116971978756104,0.7453573497250572,-0.6377989506787478,0.23676120249706845,0.25050926519612626,0.0679994359591447,0.6626369717411371,-0.2849068436634059,0.876179652458789,0.2581074565414023,0.7545629674784504,-0.22869797089175536,-0.9083957398778575,-0.33485375667264217,-0.14236761845625945,0.3384485544304858,-0.9427168187117179,-0.5210208272710488,0.3114853722990365,-0.6841058916893477,-0.28210706500117344,-0.5265202941794189,-0.5915595083857776,0.6100964552359538,0.8691437496032293,-0.7401003310815979,0.08358729901537654,-0.8854397609970233,0.9369168148784308,0.012401891244319563,0.19704969195920152,0.7407758927341586,-0.08752992328337106,-0.4736483013546793,-0.5530811263594728,0.6950691891405543,-0.5014010502156354,0.850491679868312,-0.4862747736718669,-0.6540489600301569,-0.6378992705223121,-0.3814764896037466,0.4333684843590775,-0.9490198231531108,-0.6036066605664623,0.06964765636370185,-0.5097374528779595,-0.7079478222184434,0.496202952265447,-0.007445493410177084,0.43618217282461735,-0.11754414090816545,-0.3287408175751505,0.4418458215122105,-0.3358041190313479,0.8659821170783142,-0.9315516394211785,0.6682138694942465,-0.9791243082645833,-0.7093910164429629,-0.7695345426155327,0.040853994338744704,-0.7856746674336195,-0.5337360269018063,-0.9406848119258362,0.7820474322205517,0.8682416983141799,0.6697979410404582,0.563503361970741,-0.22807200603105682,-0.9886324922806939,-0.9035978960064739,-0.4885177153272138,0.9380887512000748,0.032856073991635704,0.9192480958283735,-0.9022804296501017,-0.9975446634235869,-0.25829641877636766,-0.6312007786117728,-0.7540095310901438],"weights_hh":[0.733144980019967,-0.1291677427395268,0.564977452917202,0.12677518830391765,-0.07086173358749459,-0.530150298856189,0.7082246005925721,-0.7947517710438208,0.3153392687074421,-0.9796004926338362,0.20593619440430588,0.6623859639208571,-0.5615664646235725,0.4490226439115017,-0.9274255282194512,0.8003545234675085,0.5487240273335638,-0.5920145807012829,0.6129467341195769,0.44838035833996304,0.9780911973365067,0.5679798187698766,-0.032194545514196315,0.4773203678973965,0.09813764297903727,-0.64875219672237,0.22971415159768083,0.007330001894260807,0.8252117810838817,0.3251128910499579,0.6282657060386752,-0.03729706880767192,0.08669493604581158,-0.338103073414485,0.5377081324817314,0.07730780606757937,-0.22250895853369967,-0.18781151344758706,0.5790366886229601,0.9749041936527769,-0.4717379912300488,0.6822223403849452,-0.9037144615986688,-0.8059365892751527,0.992496657142449,0.9150347137661818,0.33445153814746686,-0.9185037925798736,-0.9149569607202255,-0.7389858981494855,-0.07134797860416953,0.6683999383100558,0.5455478044757012,-0.17400275769967655,-0.9921996304290184,-0.8653875627481595,-0.6053298693824722,0.3075718051521037,0.9074267839670214,-0.9444872408490539,-0.4482003420733529,0.8190329060397052,-0.6916854769071255,-0.5229238628195094,-0.5253708784380913,0.3274852223884692,0.24596135434767286,0.08667691934988353,-0.5132810991272976,-0.26657524037725633,-0.3190018169474427,-0.232426230323318,0.27328389857090274,-0.9109676286305888,0.2993804969935683,0.16229288788302587,0.9794040715327397,0.4059506837417224,0.7660728260297698,0.20431031445292014,-0.9184713625241883,0.7495146847693834,0.3824940466337501,-0.18664010821813037,0.05789693001835272,-0.1071734247309406,0.45045235212181023,-0.47277077374956744,-0.10406429028496711,0.07085219210144578,-0.292492289382688,-0.12159646683675485,-0.16521687743399482,-0.1314036612133842,-0.6042614740169219,0.5758850223945027,0.008169705939330196,0.7505601727663076,0.2986911720505292,-0.4082332254371095,-0.6608668084074738,0.2585828604852596,-0.4800759824719554,0.02044048121966502,0.715059574909573,0.890457233532771,0.7585227530926488,-0.33612250409470756,0.4528254228514972,0.7394280137955229,0.30896385816595173,-0.6849989353275217,-0.048603031195723956,0.07605763423131862,0.923207254851939,0.1685536456159089,0.03588357271954612,0.46060572926989374,0.3775268656758737,-0.6638135298754544,0.5572862584398746,0.6992785416955607,-0.7506258362418612,-0.03341982499315321,-0.20620094333954153,0.7593435285207821,0.8175143471279629,-0.23225750269822498,0.34925414940810917,0.4161111525647545,0.6917206358921726,0.5870384539105464,-0.34892846919488796,-0.34980382678734867,-0.5520572486925475,-0.3783879936782595,-0.7191493748499616,0.07406624411476992,-0.021145079792293187,0.20463338139406906,-0.5516098207431408,-0.9799973337859922,-0.8681236549953419,0.5853820487233681,-0.43068369157016173,0.44278914758789334,0.6683333923258348,0.7894627964202912,-0.10971281399264887,0.042689215245123924,0.8709202758916672,0.9206919896503245,0.352612938688877,-0.4779544144749879,0.439571553061304,0.15838559711417743,-0.8367762381157076,-0.30539991613770967,-0.6257502986051058,0.8514534342753397,0.4594228146425199,-0.3377388731187021,0.06805367067268864,0.4273998277871338,0.9152973425693463,-0.3912415078224878,-0.698342098476276,-0.9499087906636967,0.7074072142381911,-0.06310090056406348,0.2986559061744454,-0.8731976996452311,0.03218584838002614,-0.9428348678587437,-0.44637077846178497,0.8931229409497004,-0.16388167264648423,-0.8162760980059518,-0.7845290556068478,0.7387515016721453,0.6878624530124946,-0.3222344796941985,-0.5006666193556466,-0.47202137322086224,-0.9748770803658275,0.736853589033426,0.8766329476790571,-0.5261978591746435,-0.5081069966910299,0.6044785149294376,0.5771281966539108,-0.7248941132564024,-0.47684256433818595,-0.16997037337350052,-0.9996681104201846,-0.9935545943214121,0.8702085275315046,0.8577100611045481,0.5785433132882283,-0.8582337073301334,0.5155534850058963,-0.4651994396484249,-0.027115817377387552,-0.7916758896405294,0.3184004077820126,-0.5287322507470509,0.36037369219510573,-0.4622838212597835,0.6048915883991111,0.830600515205058,-0.3002369884137033,0.25838352756550265,-0.022682231878036196,0.5857803787618379,0.38464903232832603,0.7813920992802128,-0.9385061826003487,-0.7159609054918086,-0.8476563507530359,-0.02133685508186489,0.7472206277091518,0.278772617440874,-0.9013067122858045,0.018957431974662375,0.6242291154202284,0.14335930173755806,-0.5977712797462844,-0.7459820821529493,0.27695217102856473,-0.24406604236331586,-0.2890100622040461,0.7332194543890229,-0.3612080072795487,0.3568800009616673,-0.1593776343094595,-0.06615805279978382,-0.40347223117476516,0.6717926236925698,-0.2841286999475301,-0.966554065390328,0.6492054654174371,0.6064427521443303,0.644064793756344,-0.7388329988220408,-0.9286548055637296,-0.911073631264776,-0.10152441766126441,-0.5016631916400818,0.12995897913127163,-0.7850589092858511,-0.859792130288096,0.48116319672520524,-0.5407192483769041,-0.3277773467112992,-0.7523925885804557,0.7370816530507875],"weights_ho":[0.013017944717106156,-0.7559382601367979,0.8070431496103028,0.11054902855119297,-0.573761974534001,0.9913421965426916,0.8340513373548895,-0.2136114426909934,-0.2961538230268821,0.4824064110312831,0.10513587281102788,0.3459103780467332,-0.13973853249090573,-0.9193156318309281,0.013299784379523283,0.40559323481309106,-0.0501044904273924,-0.055753710220502795,-0.19177259936961288,0.8787990416911375,0.9731895780548336,0.2810925882130775,-0.07953377996237587,-0.7485239687720664,0.5177397271063418,-0.5794283206568884,-0.4867089810534184,0.16095985407107127,0.6923922183056743,0.40845918425713035,-0.13834235383328286,0.4447444038205437,-0.7067964060671783,0.013985191152093623,-0.2982048559385857,-0.6667876899126084,-0.028008156770569448,0.20882374390172953,-0.19065091977001702,0.0209627009664477,-0.9342687420886353,-0.06914906600302717,0.1280454193454177,-0.1418550234112539,-0.6747859657116022,-0.716203405023345,-0.00045233181855630633,-0.6393473038739026,-0.06348609467977284,-0.4532947561694354,0.6684414865364012,0.2389459856968732,-0.8215160721451815,-0.203287479940228,0.4663823625101877,0.7119381171300461,0.06925938046595004,0.7063619522672921,-0.05476396388731897,-0.28470560717667315,-0.28932241744557574,-0.7480151620250957,0.8825099826273477,0.5923213756594279],"bias_h0":[0.9509449501622143,-0.2689162258073132,-0.6166744451329438,-0.05303716521720836,-0.6232521759602616,0.41670252960191,-0.664673584407093,-0.03680890067562559,-0.28643391294763365,-0.830800055148122,0.6474749710858074,0.46852012443298574,0.2880095360813959,0.236987582325348,0.03886217789950153,0.8739709231128667],"bias_h1":[-0.44826740492956474,-0.8496068324872204,-0.8614843988338166,0.4222222731077485,0.8828862978639049,0.09325964484414273,-0.7540692538386728,0.5677237637314223,0.7099985315813957,-0.8296470689983295,0.8332205062388987,0.37173455598896377,0.46748075602018435,-0.9108415376567449,0.9554343739884956,0.22870976484516747],"bias_o":[-0.04682152912868176,0.28858803541011113,-0.22611875529882886,0.6702365440983398]}