{"weights_ih":[-0.6997885754801401,-0.7926751477307006,0.9875404228631879,-0.19882805554955585,-0.6858938233871312,-0.12396261867163227,0.980042815230227,-0.09746559131389598,0.9225632329552942,0.5464483278053975,-0.06843165829092013,-0.5660456832985874,-0.137402995144831,-0.9627119227638188,-0.04271499114068189,0.9730126469966525,-0.677465555056167,0.9134394280463793,-0.44322419590361517,0.9501506799879598,0.4019794273355759,0.057323697971219945,0.8193853367577275,-0.16168768059646776,0.18139992891353618,0.792473862799246,0.27192281146125863,-0.12011232406977213,-0.9951596040678985,-0.6675218065921962,0.5100677354108412,-0.03733303642208119,0.24623561790593418,0.9664601888958888,-0.30552667478570794,0.4132023027422893,0.21675058870998787,0.68830468533041,-0.7481751404153165,-0.12458345935805593,-0.39609022935270755,-0.4406904038526587,-0.5032241797206105,-0.02602238143329716,-0.15679996190012946,0.6910051949467677,-0.6314015053868147,-0.7798001593647044,-0.8687615800189139,-0.9810180944553828,-0.8118745765544428,-0.9786197651154012,0.3865044138938174,0.716303116769708,-0.6218105662304989,-0.40579041071541866,0.12453662181741842,0.7363740850009945,0.24464171369173537,0.9587044994400855,0.16877451355547768,0.5375197870645758,0.20913173019029396,-0.03342910892320661,0.891010431966021,-0.6458246561831777,0.7984635201306696,-0.16926204452235094,0.5360805647210343,0.6321394496414561,0.9048313444580998,-0.6828120359179142,0.5738239718523754,-0.2353720710980305,0.8597847578843252,0.027854234987658488,0.9635545455085639,-0.30548645143435516,-0.9088205454738858,0.31934195741863447,-0.5907132423228525,0.5875308930802408,-0.1339628311435035,-0.3537693504712798,0.12878284578542276,0.8865894343765406,0.9358125951398673,-0.2165710903535254,0.830467136086313,0.045212215145324475,0.9373031065881945,0.44487594202347847,0.8500740892574625,-0.7404951157286255,0.19998846012017846,0.6913945516842732,0.6905385283948156,-0.6418482711815572,0.9044499913634299,-0.9986470446252174,0.6650425943613376,-0.6859436533375458,-0.7273725342872335,0.417403210528587,0.4438147139917108,0.22698590954613973,0.09643789244127166,0.71648994893209,-0.5501975194017212,-0.9761649971809294,-0.0937607333801842,-0.6110747759678534,0.5139673485322063,0.8932578733901357,0.9997057091949908,0.9607334614350049,-0.20846722722897737,-0.007868967349980105,-0.9050941363764464,-0.5674944951700955,-0.7556708461828023,-0.3389486557941399,-0.07587419292099296,0.48158755530694,0.20634018896031314,0.006629017499492074,-0.1508655854731249,-0.9371623108630922,0.48120169662242507,-0.28976272997633745,0.6365996658184243,0.09743050540336573,-0.3430968765225102,0.8702834431956374,-0.5727467778336051,-0.10893688291742909,-0.47394453355306476,-0.1729359685175882,-0.1707576213365689,0.9096449516430227,0.8286400780425427,-0.29797557957471765,0.5098517574273813,-0.5547171630216883,0.3239182471283668,0.9298747458477958,0.49772282783752364,0.7952960130877036,-0.00469183947331242,-0.28983620413078803,0.6912232969779437,-0.3295624973749449,-0.9137410583374985,0.8175434711574028,0.2644944118274444,0.23214581629658482,0.9005977553935405,-0.058144245216674495,0.6503379112301513,-0.5271511980935943,-0.3490587355836434,0.4525406130615328,0.6859158548542263,-0.20063088885920788,0.883784871133175,-0.31745600807646923,0.5900662121583247,-0.07973764003480466,0.222275903291687,-0.8848719579652204,-0.7516099249316797,-0.8731134988280791,-0.0844856602295434,0.9260075018797898,0.9128413112520581,-0.9277649087198796,-0.8902433224144317,0.9144784379391753,-0.9244911134052363,-0.228610898811475,0.2196079045936512,-0.7540345492501614,-0.6014646004393975,-0.6122508735520602,0.8445475974788388,-0.3940766631097492,0.21722013996314415,0.9508711582279337,-0.6753855524282935,-0.48101076598253023,0.8022525761605142,-0.977067261508465,0.6000864918634385,0.32120008477172246,0.761545062475872,0.8612012109554705,0.08906909320224843,-0.37121125141182576,0.33698675152027313,-0.2708475828461254,0.17431203270959905,-0.7275184707794287,-0.701171491757882,-0.22770247917917263,-0.2468003510112171,-0.6577889263395242,-0.8029272394595772,-0.3004304281559369,0.883244988003566,-0.9535824658205361,-0.86104887683912,0.5821694139952425,0.9560721266246464,0.36467377142455826,0.5923611781659883,-0.06197875506621875,0.7506746161148883,-0.6696669032053704,0.4683618956263278,0.5174771787980621,0.7891142616622724,0.5724017010488416,0.46014835399102716,0.5062450720435303,-0.11550336099129166,-0.35656148624151207,0.37193272399669564,-0.4833031706919819,0.30865043351047716,0.029327296336915776,-0.7705448956849812,-0.6333471924325274,0.1986278526089864,0.6428741201479877,-0.865728151719138,0.5012150028615596,0.44847220337093496,-0.24288090017235486,-0.1888074092975125,0.31502820278459853,-0.9129941031407975,-0.2436707352036276,-0.6988170329068999,0.2732592404429688,-0.3643694842993124,-0.7864595328565649,-0.18057609688953202,-0.04211767478395689,-0.9437555075290658,0.8931873582513303,-0.15146204675559094,-0.9441166388917435,-0.5373315348612573,0.7455689086252759,0.4080908871408333,-0.5136064408530263,0.5745004398645333,0.9579655594183605,0.28821858541467926,-0.14489013154042052,-0.39229249780727127,-0.9758067406944102,0.39916086017854635,-0.5958191046378998,0.007573903646334701,0.5146162403354226,0.002123169966675942,0.5759711846697477,0.033526365193765395,0.050614193574874955,-0.4538137102401927,-0.11340828917312207,0.1814430443018249,-0.8739783127477414,-0.40486094476189605,0.16080558686643665,-0.6890718304779242,-0.8790315546681646,0.30160917365686135,-0.9631814455130756,0.8565565421184638,0.17706196905326865,0.37747738374926665,0.7117822376504537,0.15004992079557056,0.09665938168643162,0.8692819841978501,0.13016516057553118,0.20592705053266003,0.5643228287228599,-0.8134219173899924,0.6376546725933896,0.3255071410757375,-0.24072756573313692,0.16038633148155879,0.09616725245685398,-0.9936992436773127,0.529830582855102,0.8350412134630407,0.4921723677936285,-0.7399273570423648,0.6875803366985782,0.9566313856739821,-0.8272357628739071,0.9070870791460117,-0.8080603903257952,-0.7969280728178518,-0.8105300784872882,0.06919371092289506,0.7376379688640655,0.757357434559432,0.7748851149210478,-0.6255754802442295,-0.8945554550429762,-0.7735997326841779,-0.31481258254355904,0.48591605097047474,0.1982420830936209,-0.5490888070837678,-0.6018489274354799,0.22924749021019442,-0.918460008070376,-0.8323210273010491,-0.08249058051560199,0.4259704851163033,0.628116257767287,0.49090595736970544,-0.21484769463673792,0.9109304781240912,-0.7994891200956269,-0.42656462959881636,0.39145682279398586,0.34537757285827886,0.7848134092383565,0.7718907153806973,-0.937773765870261,0.6674466000981032,-0.9402039735459584,-0.7069710587611902,0.6331031983572095,-0.8348467312175429,-0.9018609045011481,-0.8537277986062175,0.41310421341072345,0.9266530587313597,-0.05935382967978686,0.7618378825561174,-0.15391052650726866,0.441864460796906,0.7682439348873324,-0.9209507442050722,0.022618451992897803,0.7912705769151183,0.956625043232596,0.361909691017152,0.9066518264198014,-0.9082377900640761,0.4321517136137627,0.513631070319098,0.7886273129393737,0.11782275304653322,0.9848396643185584,-0.7039802122098437,0.9868452431899046,0.9219031649477811,-0.6418932564973752,-0.2761125159681306,0.48327392896393917,-0.887931449732136,0.17981388909740526,-0.7109943815987174,0.36229071102399213,0.9756125700538871,0.8611962440356336,-0.3223639179560587,0.2734446811214519,0.667551341893664,0.6094329594634804,0.46662672451084686,0.6548242196442173,-0.40151372415650166,-0.4878741185222637,0.15845891577753135,0.3958351942231668,-0.9876776154565652,-0.6420656658759856,-0.9929711294024257,-0.16079347439722635,-0.5922866791017143,-0.347804739690436,0.49695194937591336,0.45753894328541356,-0.21385940949390947,-0.25683977833545235,0.20437672907507687,-0.3421286989503891,0.19917812025460258,0.025090872961926802,0.016214668186621317,-0.5138409418218752,-0.03703924655000734,-0.7375437948317107,0.5913736718757896,0.5285684983195353,0.9883624301725171,-0.4741591839243402,0.48618399738171325,0.4768528947016697,0.006863289271584305,0.5161870897170477,0.9313314509122737,0.23662382833303064,0.3366598882946841,-0.3867330726831413,0.2178226893880053,-0.54032071215388,-0.04506453076608796,-0.07258478862682338,-0.592782384423618,-0.3539525883020267,0.06519020942873954,0.9481768878179908,0.8076487346383234,-0.9199773875447865,0.6680745864351003,0.40796900200605357,0.556819839788345,-0.8594759043518914,-0.0635609984304264,0.3665280510918707,-0.9896964961919992,-0.48876754172140746,-0.5231045244367307,-0.7066865498206727,-0.4725728629441772,-0.18955847535842896,-0.19625516649407526,-0.7770069154110169,-0.23172309276821168,0.5155797801366762,-0.07834655511576538,-0.8797521212882844,0.710288188580289,0.9004127863005271,0.3507413605670573,0.05286456723997279,-0.9560460143260008,-0.02634028936818167],"weights_hh":[0.7000853795397468,-0.5670748268393575,-0.43847541002929247,0.6994145757469514,-0.1326346817877624,0.5954971422306574,-0.8844480055810582,-0.28437638500044016,0.7113310306185416,0.0069099982932419035,-0.9098620338098096,0.6206062361102571,0.7007462690432966,0.2419350103429334,0.3129128265769652,-0.9067587347769808,0.7937949709808134,-0.571576683373257,0.514384574565317,-0.24997183687828484,0.17018930760718076,-0.8399901877543507,0.8936523795341829,-0.6708508336580719,0.9317810276316911,-0.6294808847839666,0.6455906428236142,0.8533570605313057,0.14953581868211607,0.15476857165599212,-0.6230481978705895,-0.9099025531610574,-0.39135773583907585,0.6299617120484073,0.17752838549790528,0.4011695400342459,-0.8056867182790448,-0.1912980906482329,-0.17328453522570442,0.3091652969630485,-0.49537519957577136,0.6701701149581607,0.5337679790933612,0.22018914784534993,0.8632280343459635,0.9659780007199459,-0.573985382618639,0.5316267863125659,0.22760466106800892,-0.541335173433795,-0.9997416439172033,-0.8941740235687845,-0.1518558468940705,-0.8724510583942373,-0.8020799007925983,0.9751751097143733,0.6594231052479083,0.2686331350463016,-0.8324862153872357,-0.051080262873883564,0.36873365736699504,0.976875687133244,-0.5470728089880696,0.1690117291308575,0.11997412579800804,0.06187797655735361,-0.9654684383074834,0.03234384067612295,0.22069733837801242,0.8854851309993907,0.1826864363835401,-0.09583705571727763,-0.36792619485592293,-0.7938190074700886,-0.29539087639571515,-0.9882117992332524,0.5634923338138336,0.9306981170274442,-0.8230249440828605,0.9052435988772505,0.09240292468462807,0.0035846951584941333,-0.9914864453471999,-0.5882408796826868,0.516030883320939,-0.048668584438311235,-0.40252274103764596,0.8381136419950646,-0.2766399620746238,0.42470174640181924,-0.19626537291840607,-0.08455407039068197,0.34140041947425015,0.2377005530712497,-0.8863123500971721,0.6061527293962277,0.6048691564482414,0.6055928756165885,0.2410943875545979,-0.11854267480784686,-0.1665548513287889,0.9782522118211419,-0.48016693796400833,-0.7662441203121921,0.4404984573151105,0.8821446945386298,0.3150377617419091,0.7645182235221661,0.1437920139280502,0.6979727076321494,0.8466295938551158,0.7210900836040433,-0.962687736819537,-0.8659567434351101,-0.879622644881225,0.9018162534157608,0.23748791385256296,-0.2683544847521109,-0.5091883956947876,-0.6364539161322138,0.9569887712150813,-0.9606370634301182,-0.8160308583978686,-0.6170309083545076,0.14625736979197268,-0.6194463053828696,0.4817617940241441,0.3670879396471274,-0.18737181587231255,-0.5114391731740817,0.36136462618962173,-0.6970978180128484,0.18393359414023114,-0.4379286488270424,0.7026835924285664,-0.11572590567885177,-0.5331233325309657,0.9269208490711505,-0.7395844934431164,0.6763826588474446,0.9999868023896206,0.3735661466653821,0.60515751611952,-0.6874452035073437,0.9127751068225991,0.8718498477471495,0.13130672967323642,0.9033725403918433,0.935151551559035,0.6475199574283408,0.6255418293475101,-0.8782759142745424,0.7803199534557461,0.44924228325767257,0.9651154185076016,-0.01935020396824494,0.9481966738775824,0.7498565190102446,0.10516110001150158,0.7443814881510105,-0.10738402011549097,-0.39738479665687976,0.1444129468261679,0.2864716225494146,0.7377372926132464,-0.6837756068469492,0.5371078813476928,0.7057375908890984,0.6987741867447697,-0.9993402233832758,0.5563209223087997,-0.08135722393075429,0.4418788983613009,0.4394827115709592,0.11891958021121263,0.36077692794838856,0.9782911607198439,-0.6392328267168268,0.4599499313041717,0.5841866398089828,0.3293238221709731,-0.5885040721955559,0.5238661510885048,0.1355442192253855,-0.8707356533131902,-0.9361785104064453,0.8436480836493687,-0.7763600237096204,0.3307313972488941,0.0734147865207635,0.8078882160415957,-0.14453358372948433,-0.14074129264974022,-0.41521295061413155,-0.6787220288020228,0.2722749596797982,-0.9770929523344383,-0.12558568670282466,-0.38267192325028954,-0.14809621469962986,-0.5192501338427811,-0.45874135614800493,0.8903259790418583,0.016665738127360274,0.4967497715835001,-0.8416924283993987,0.7686774309551165,0.42701431050259764,0.01314264877732696,-0.7559390479892214,-0.31276606345243296,-0.4669525676558548,0.9228276597407676,0.7820389035593378,-0.6395605151498018,-0.4899160066876034,0.5783512671566398,0.2479957073250989,0.621809513559276,0.11884358539685391,0.7495324567362502,0.8797501004680282,0.9090995951130341,0.27806508260661356,0.019410707520843173,-0.2798148788710324,-0.6106737452054882,-0.7644695692534447,0.43694779434801645,0.7325540307901672,-0.9865640310352233,0.6207525582303421,0.28578036977717414,0.7917777670703139,-0.9939308700219269,-0.10590950260171272,0.5831435328656873,-0.08730016083821157,-0.18871593227329986,0.12218830403748826,-0.6930078849349075,-0.0938898622349793,-0.8531766947999257,0.9836799052071439,-0.26262374025771096,0.6409764947126722,0.26505984768058255,0.12950311611460497,-0.47117799901964497,-0.4947506418370091,-0.489051800756511,0.19417123144716664,0.9112663289874825,-0.9183172209715584,-0.8453667104863765,-0.3473204797134388],"weights_ho":[-0.6687683945797791,-0.7315772109367771,0.8471788236182978,0.035933576331689254,-0.7461038987597446,-0.9737218458728081,-0.10042517587471966,0.984993896504943,-0.49100436620812626,0.2123728505256819,0.27601276342610337,-0.6124445350089867,0.49921047278037367,0.21384076628862814,-0.33629439773746284,0.09783182038610128,-0.9432800505245593,0.9921369267018374,-0.481846180904564,0.761977533171037,-0.5221961495110294,-0.06967596154322919,0.12219218363860751,-0.9924221176501484,-0.46755699920271,0.6544445604547786,0.8324469508840611,-0.20358688420109683,0.9424941333581651,-0.9333079402082616,-0.6107368330121528,0.8875421208943823,0.6020048297447604,-0.24484306993294291,-0.9550197319659754,0.7991990995695459,-0.5922567365838243,-0.4329510543756676,-0.37449992978795144,0.2459752009299465,-0.7480432917477193,0.49175315712993983,0.2769709602694368,-0.5944622061881555,-0.9150970637999172,-0.9214838388730144,-0.46763611627922397,-0.8421032188575757,0.6810143814268184,0.6984596316855411,-0.15773998388948995,0.32037022955992844,0.7392454113359275,-0.34239359934906055,-0.048909186314135766,0.8510683554198555,-0.1256686967369054,0.7035616607784172,-0.7176597328024614,0.5242025700300366,0.06106455731899296,0.41569295127462724,0.36911354971571453,0.738198739559166],"bias_h0":[0.7794556847235738,0.6319602795826389,0.14270454337000982,-0.4419056505163703,0.06649551469085502,0.915828512930225,-0.8492933767918367,0.6181926384024692,-0.7470533311784222,0.43109927079146715,-0.26774491078934326,-0.39091644633012623,0.022820828246328917,0.3399124945790757,0.2796588451071027,-0.169929063017477],"bias_h1":[0.23246779655682182,-0.4118032862232617,-0.8601644956024805,0.399210233291883,0.9954995432571851,-0.5415823605919052,-0.8599757678152733,0.572687329917771,-0.9319624332872807,-0.0031622597809981556,-0.5268648798347331,-0.48523573835725253,0.012473974074595606,-0.08544657874682593,-0.18352076804039608,-0.8816419073777086],"bias_o":[0.07785309843186128,0.5846051433225163,0.612692017308704,-0.13693036519350543]}