{"weights_ih":[0.032531931216596144,-0.9146077220904572,0.42139155544084295,0.2559338175443697,-0.7486701386482415,0.5369430268087803,-0.5225995453060195,0.3645107486935091,-0.3574890138259148,-0.05646758257600526,0.6050964596537982,-0.8647953938864406,0.5571083527852903,0.9799238682054101,0.04125796554855454,0.9034872935653899,0.7242547620946829,-0.3326057875897175,-0.8076705145317797,-0.032613031726528297,0.9924071635900933,-0.1345389997819857,-0.912537408228763,-0.6971292522638002,0.60816294227824,0.2797139118289278,-0.024620169972094263,0.3275187888222906,0.398569699036174,-0.6786770604908721,0.8895313665883569,-0.28903262406050056,-0.008186048264408274,0.6615509514127424,0.09111077420700919,-0.9667069483097932,-0.4769052206099518,0.13283527996575528,0.5993220667766266,0.6928811231875904,0.9465560754905469,0.854946328523041,0.7897491927199138,-0.929736834028299,-0.38752384489506864,0.6329624214238674,-0.6002801951650816,0.8805635276613899,-0.28226481380151913,0.09492649361228112,0.00484509501133723,-0.24868946576447404,-0.37553387616050316,0.06098160815799214,-0.07538384022147238,0.09104544583852481,0.6633009441689639,0.1229420070273024,0.604821395748343,0.055257589226149095,0.9165790851616109,0.10704290847576337,-0.20041416386494526,-0.3040390620861111,-0.7340232130134554,-0.9089984703497311,-0.15470676304502717,0.17068744062786778,-0.46099098746746425,0.4274353691814554,-0.41876230506109935,-0.10283864202776072,0.005045586686406978,0.07767367615539844,-0.4636965625090681,-0.7675138697865473,-0.6351685516844443,0.1521783122064615,-0.20076081652054079,0.9761088334126897,-0.1049087476653956,-0.7077327604213897,0.5082355564831131,-0.5284265247356841,-0.895331152467933,-0.4098519606329707,-0.4819082460218478,0.23620723184352221,0.5820625481441719,-0.7868942866525854,0.4303947167741853,0.7606070910677736,-0.09282274307134197,-0.6624085942910245,-0.7933600504799068,0.8497968998968934,0.2787436300823243,-0.24813673621142618,-0.5552337712878574,0.6271071548860145,0.6660974976973333,0.13766230590195305,-0.5738033417408002,0.9056174107480823,-0.31601768445113,0.22884962904649253,-0.9838479872078816,-0.030496231764436832,-0.9614078988895935,0.8812224628068328,0.8172135084239016,0.7493384971923511,0.6617115414984995,-0.19034755578503737,0.5714003932511198,0.9083617366344523,-0.25266017612374614,0.31237743420647246,-0.648408620932114,0.7718565574407488,0.6558426588363924,0.9823375428093126,0.3765900712461683,-0.9292462991729196,-0.9068106302193311,0.21440908883150578,0.9798039186966674,-0.08321964808515725,0.9296551418551591,-0.9713795508056353,0.5458944877925918,-0.24781112787311188,-0.6584693877069996,0.06545031678359092,-0.33835882813338714,-0.44497513468830063,-0.5403233378749568,-0.9784685612688815,-0.7633960524983143,0.024333687446802088,0.08773032891830401,-0.6643646435817909,0.5680840950809602,-0.3126125949760381,-0.794245185426379,0.02384831722275349,-0.6900180397149094,-0.5086822819957142,0.0834428836541452,-0.6524474123642006,-0.555332889617633,-0.46202581729427283,-0.3249612783121092,-0.3703952677095568,-0.02743386995284869,0.11351768769389903,-0.8572056835138777,0.8831658551921409,-0.728727666837067,-0.2060711859159563,-0.22007132225440285,-0.5298664429314057,0.8806366477205416,0.5135019606365445,-0.9800155786676912,0.8944681045204412,0.32514156540402417,0.8466209594969663,0.64771801454095,0.43806014906701574,-0.7387299432685286,0.2199089453718075,-0.1987499718976542,0.5235787786733561,0.3399765567406017,0.9458651596143375,-0.5624151794729755,0.33139330393229116,0.3869323271818699,0.5632285521419405,-0.4055264785788151,-0.4244695513234884,-0.3708729215767741,0.4819973989993005,0.42888765026389475,-0.7991789963524683,-0.3646373534880787,0.7406057579842971,0.44249985281807525,0.5705924890065204,-0.5619144649521493,0.6620600491660067,0.6650588670379949,-0.15118642302710006,0.5476826518050621,0.3273051860005154,-0.0036295995386999014,-0.2359207113957058,-0.45733418694528893,0.9129610875215279,-0.37692443181631696,0.304862120690669,-0.6119709617423119,-0.9923266419762957,-0.8631533235338908,-0.08823314402765581,0.4110107004365058,-0.26233776026505917,0.720888714088459,0.12377037936722513,-0.6803743255032926,-0.6205797074531461,-0.4252785809926647,-0.6706661046401385,-0.560991511443079,0.05318118751774681,-0.25180214507200205,0.5765707002371288,0.31924128499488513,0.662977224094006,-0.6494750747683049,-0.2705021379100421,0.5802170033164862,0.4704802336947862,-0.11339838946005387,0.6674672207784571,-0.35100442117947916,-0.6560211658347725,-0.7981939402256284,-0.2260746409407981,-0.3751825014863328,-0.8511160979303867,-0.4043344494367658,0.9824997380370175,-0.4179314485088572,0.27325356637288767,0.7269948889703817,0.40488191682981145,-0.45813029415810225,-0.18287769011697952,0.3464209721403666,0.7778968324250335,-0.8218870261501436,-0.4331372820515891,-0.39403909129929415,-0.08163468966658427,0.8677230530407145,-0.46089701864759225,0.21118589763399842,0.2533023957074998,-0.15274315788571435,-0.9186541725130151,0.6412322568283293,0.7911417742999665,-0.8884550108966618,0.3432288915730848,-0.21194648461033005,-0.43829045913332987,0.7315534276653319,-0.9710881073639228,0.23694126174744778,-0.8921131439705179,0.259881217883251,-0.3912588691417085,0.03855303814127686,0.6895920748028455,0.06043654068725557,0.7751559982048011,-0.7246316229898322,-0.8091520089426305,0.3000655263677545,0.8186972864774407,-0.4243748198825583,0.09865665261265844,-0.43758070643558056,0.468463794112028,0.8551039125553266,0.5314507423017527,0.20229348348969567,0.5814744099168754,-0.3589357858853941,-0.05963805583178883,0.9438093535446823,0.30515328099788896,-0.8413630271640322,0.6027102741012611,-0.6763933297728331,-0.19517858931819565,-0.02021014962417378,-0.2726350426214368,-0.28271325604449293,0.49285387878653886,-0.5447402970399413,-0.037484741373623676,0.3121999872969232,0.5171840238662717,0.9062985316057617,-0.5938500402068689,0.4441703751431034,-0.6648760796875886,-0.9597861569886608,-0.4750960045267436,-0.6863623630959448,0.16829383500700823,-0.9567274425966859,0.8858322918268904,-0.6988821046109446,-0.5384108037224242,-0.7573947178579388,-0.5549893779865047,-0.20924286392887814,0.7957197053118132,-0.6260211570986947,0.8683350132652241,0.5427499432535288,0.4969283055894833,-0.5824098696438649,0.16931882822553646,-0.3483208508011586,0.7873340057196372,0.7844310605002354,0.17776272296720919,-0.8859321355209084,-0.12233813038145702,0.901244494994226,0.3435075621199788,-0.27383339676156004,0.6111673632520838,0.8609570834216418,-0.2043978273228133,0.45257041661067343,-0.1070813699810167,0.3833909972730871,-0.10791417968197825,-0.26621747643757865,-0.8991790690903854,0.30691471024348593,0.46127146817186193,0.9762019598344647,-0.09345371695485016,0.4980111582820268,-0.798251723489918,-0.9676238745281829,-0.17802355743597453,0.666160940863711,0.617826456174259,-0.034469211707436775,0.44716018314187234,-0.7205187104620174,0.33449986882688165,-0.9672396407437811,-0.5729014249917075,-0.2850620962723358,-0.18979840551597538,-0.8589229546508939,0.515372151328338,0.4123472236752912,-0.7555857206313614,0.7867868596814094,0.9989782664999787,0.6791776667583176,-0.27691044587640934,-0.6441166909273135,0.30202716578146105,0.49753583466865203,0.6900772258688015,0.21989051336348298,-0.24388928036298219,0.7237126911303047,-0.6333793725727122,-0.667119192285228,-0.6973941857939097,-0.7529409726123404,0.38185456518800076,-0.9536409791721512,-0.5748962312048085,-0.9655368120326322,-0.2578616948760346,0.06324648115177345,-0.10818507118320464,0.8978098387124802,-0.07452381600810143,-0.7980772968228009,-0.9833871275460968,0.4057850449857152,-0.22313002785446856,-0.21975348485492208,0.3875497526374101,-0.24048792255194162,-0.052845182856701145,0.2639134107869392,0.9033430035937433,-0.20265057801174935,0.6111138316639033,0.020371311679626913,0.04140034623942457,0.04828786740832269,-0.6624963549573131,0.27889687471374747,-0.29877746171427266,0.9642579114285279,-0.7687519525165887,-0.12421884006206496,0.9297679203959315,-0.7832343973590019,0.15627830973526202,0.09497861022200094,-0.6003643141102106,0.2822245853244534,0.7490226006405669,-0.4609347918908835,0.8476642480042202,-0.49509866106073885,0.550762230602013,-0.4700462599335973,0.5383901789231935,-0.10128081908090936,0.523117934710845,0.8019165491930782,0.5500734134552931,-0.7822948176770785,-0.5684376157635667,-0.34347629877731567,0.8622773053834281,0.22321207769339968,-0.9430968178579604,-0.7971000599464091,0.6325693327063837,0.6207268824814538,-0.896022542188325,0.9911647809234863,0.6777249704054686,0.5242844294452147,-0.22872724077184303,0.6837352191946195,0.8272647726447311,-0.11873785211599586,-0.09034794271372282,0.4650846002201048,-0.02241370152736688,0.029609315282924875,-0.6916215973358188,-0.7758619021891617,-0.8115309343704227,0.6958473991105907,-0.10470633129713769,-0.8689610692010639,0.8670670834720984],"weights_hh":[-0.9812808029256053,-0.7327882620005366,-0.7556128066750427,0.46496055067963216,0.8179859418908892,-0.8102416659299205,0.8538662281254816,0.4374294250914319,-0.5985767215344777,-0.0670089457125127,0.9984176853135107,-0.15887597461192926,-0.7171076443995548,0.7085565565150438,-0.7365177225520421,0.832960947074874,0.37690159623854225,-0.5585427006167123,0.3137133386832873,0.6027291363135161,-0.45957624904245176,0.3226519717545946,0.7850846720344133,0.35022777436932984,-0.0015738382016059482,-0.8850291879746133,-0.12217135274142699,0.35873648256421564,-0.18545244765982205,0.6138442739335805,-0.07246266451290495,-0.6902170734252309,-0.7422735758908143,-0.6452233887732122,-0.8457070564445168,0.7170147134410865,-0.5306981799885966,0.36907136385587136,0.86175537014836,0.4862257247566255,0.6418527913281091,0.15742925979377143,-0.6657729729148048,0.5274934873041413,-0.2958024074404755,0.3259901231626965,0.18610810723200388,-0.3402630575496921,0.951888639076697,0.8125590935036924,-0.2881311020748192,-0.2609674025684183,-0.11372014157592192,0.3794140200312244,-0.06346072669557734,-0.9585335070606316,-0.5533302770305404,0.5044554388478026,-0.1589469947409341,-0.5768498686509975,0.5444379898850362,0.70020181853654,0.049503236052726995,-0.31635844110955613,-0.12047264306120842,0.023609580795369123,-0.602546915480376,-0.1869945171647338,-0.6862001787955498,0.834140168290002,0.4528352609157975,-0.4905425636964946,-0.43273113420248555,0.8553820682663333,-0.09554443821231451,-0.7173327490492096,-0.7143306609932174,-0.2100400975565544,0.9027669585295535,0.1421710705581365,0.39443381928872867,-0.358887795027665,0.8204255604497761,0.09060601124782797,0.0692916450332921,0.6692974800826659,-0.7142276549247759,-0.09485515063442862,0.7620239306067345,0.5432703830748444,0.6178994750644142,-0.4652508738105203,0.3956088710618644,0.059982797408890676,0.4190336410932043,-0.9548956143865615,0.6010252450487772,-0.4551220304926058,0.796997500783363,-0.8142308241249092,-0.5161828474697912,0.4706520198956081,0.5387613468053125,-0.21621240197245473,-0.7957458329208598,-0.7483944139104366,0.4032446101274729,-0.4376694635178582,-0.9343352226640596,-0.05474307459883754,-0.20551044641944727,0.5468052113988369,-0.5781937508852399,0.5636691796886697,0.7576967061100994,-0.06982348158591845,-0.21795910724433454,0.7830841161017192,0.5972793739241986,0.9917091277289118,0.8285845099944309,-0.04236693803947489,-0.49296634880001466,0.19697357387756154,0.15683158297164024,-0.9381156121291943,-0.7464531345334153,0.846038324666802,-0.645718003441131,-0.6445506057224382,-0.10344123108203562,-0.30956173858775693,0.8615035302905203,-0.1647978753653676,-0.8623375488824057,-0.3506370172595856,-0.03735469484319931,-0.16018403245022061,0.7428140926154678,0.95787229392966,-0.9520958966922868,-0.2405293508314894,-0.5477144338626077,0.2450768895562816,0.9861335779171039,-0.20731151639594714,-0.1808319452305316,-0.02628140512562549,-0.6530445226268782,-0.022317926523505616,0.1315692674639457,0.7440984778244963,0.6166194867299795,-0.5708584227154765,0.005650320062458247,-0.9384409268519698,0.3594571850513322,-0.9098972992141534,0.05183258031627913,0.2013236885131302,0.32764032806947885,-0.3795873607635265,-0.9884018153009348,-0.04227434266960395,-0.6809905147075175,-0.4675893708049341,0.721432422479799,0.25063776765480417,-0.7872759777841378,-0.04295735702665748,-0.6989850892668321,-0.10464212037571308,-0.3233273400224874,0.6284801429665536,-0.7537970238268572,-0.4561115694092066,-0.9559963924541326,-0.2024845248577678,0.7337677781719807,0.7307406703058414,0.24378790892205648,-0.5359444189246989,-0.9834060128986137,0.14482070628549026,0.5532023480436767,-0.7282464354960503,-0.49426673301988866,0.11197121878560945,-0.755995192785125,0.9130867968981544,-0.16125982458670474,0.7648002431136696,0.38530369037677237,0.9491721115780913,-0.054478390638144525,-0.7937877906679005,0.1792296657051602,-0.690448585520913,-0.79182373489659,-0.5094408840484121,-0.808907697647091,0.32462739790710926,-0.1520890887507662,0.5130682967872828,0.44738259126408786,0.26902920124066965,-0.37559833548802435,0.8579887066565564,-0.5008576632030963,0.7487849710623149,-0.6473091477526214,-0.7749990348329645,0.07363503413973782,0.9370709789415106,0.8060425752125691,-0.22774111978576728,0.2611399487340451,0.5107180934710196,-0.4452036777913617,0.008309054936572746,0.5668161820199595,-0.8473886576644156,0.36100861953819163,-0.5724764385401342,0.3736746833298952,0.38228491899051464,-0.6879978647618676,0.24631061568946366,0.33972336163417927,0.14804990515806882,0.6507925728736408,0.8403076662849145,-0.6351724904886282,0.6261925801959491,-0.7131110378744758,-0.5569900240498664,0.08857126463495746,0.7903172986372773,-0.9607349150733566,-0.7490784015766252,0.808193891226562,-0.4880362586539071,0.9466498797057958,-0.4439175864067386,0.8649551900217238,-0.34221597744667775,-0.16726098629220632,0.9770603799205839,0.8134195395799375,-0.66189506548775,0.1908969847982933,0.09037760864121758,-0.9566499360884593,-0.23423110607626452,-0.8213795434297397,-0.5388868867076904],"weights_ho":[0.2587953694473002,0.6995391677369356,0.0883083404204481,-0.7353393949766589,0.10696075069727429,-0.20379677645468441,-0.49092760465888974,0.9765808271287553,-0.2259923890488873,0.552330822527785,0.22322003270177815,-0.5693669768904361,0.005745961555424506,-0.044181397828320534,0.3344895622101782,0.959047664499235,-0.2896755354608411,-0.6350228170464276,-0.49634840127463176,-0.34280367363101716,-0.9148717715812722,0.02279713543174755,0.6765473309282717,-0.6065357193398861,0.1162827878570869,0.39644219139494674,0.01067072633231847,0.4856725687180907,0.020624103777283187,-0.27633948294211463,-0.7418494643442242,-0.8554686176767556,-0.7683850293217906,0.21674504492818958,-0.8029156298045339,-0.7852555889044897,-0.47510705608283477,-0.38776043874353716,0.20750231846437606,0.9984187270352216,0.19721776393832324,0.48736150133364653,-0.20214975267088575,-0.17130645494903796,-0.13153441142303013,-0.7572155545588624,-0.023735892422490634,0.2040611688283882,-0.14767415752090618,-0.25046327978250704,0.029851691210192488,-0.46971101526345915,0.4084867757345314,0.332300099147804,0.5878746386355187,0.00913672618294914,0.5647178536818609,0.022760748252580676,-0.27570155812671593,-0.2984804203943143,0.6811537057048771,0.22471877088023606,0.09639406793932137,0.6790146918256228],"bias_h0":[-0.9167728529662955,0.16414842964509146,0.36871784321094636,0.13122350554881668,-0.7219664479947103,0.580446256792206,-0.2099290431714449,0.17835592200927808,-0.06779280411376476,0.6760082445956235,-0.99607652254148,-0.8495349490417452,0.6725933837062381,0.7956173562681175,-0.6382585945595387,-0.3253533836140132],"bias_h1":[0.084125111525297,-0.6140640047633377,-0.5925119646221029,-0.7001695469713789,-0.9665617098497268,0.6683022650455366,0.37204177652124426,-0.06502465038712057,-0.06815734508640792,-0.8091231496367339,-0.9821862421263099,-0.23843444531400504,-0.3874763902882823,-0.0634593184210801,-0.15803304933065387,-0.19932803839598212],"bias_o":[-0.10234126037610758,0.33143612624829877,0.6551622787945661,-0.9276179210293976]}