{"weights_ih":[0.6116840398147501,-0.5479433258008524,-0.789484941216325,0.9518933327902377,0.31184097992656534,-0.5600019544616541,0.4079955129302062,-0.8872121443296141,-0.8559037136429497,-0.28502086271487226,0.8132738560388562,0.25622305282717006,0.5105880445898965,-0.010803854859899875,-0.5161700806813723,0.8130573583469227,0.9328549809137978,-0.41496112593267775,-0.09043253472419166,0.12669794958452574,0.30103742034374736,-0.2692837287483043,-0.6644951277928293,0.7417213713770419,-0.9718898315176612,0.13377359935606603,-0.8223701755687909,0.20625850352415953,-0.9410203793786469,0.11834911478396637,-0.6269288067617269,-0.3608036115020594,-0.7328458794468986,0.6915106921357259,0.8631303673785236,0.2936670893836577,-0.9858435490945718,-0.3753227866017963,0.4499523861170991,0.5791181344732204,-0.5630928525854517,0.8075771133136918,0.17132668172711907,0.26045526121684603,0.7050783913352578,0.5268846549363753,0.6381423785998461,0.7873453260330081,0.895648348633278,-0.1109862028911126,0.8572451620099757,-0.776075357144407,0.9973079776122842,0.7372364737721506,0.569874336080751,-0.962043934494863,-0.8946181636423334,0.7676677579531985,-0.3099898707000217,-0.2225546980448263,0.7972098063016668,0.13614802663343517,-0.4895656383015894,-0.9629541104649166,0.7754817440772375,0.30820877272808467,0.17012395947880088,-0.03734863962789525,-0.46859533301912015,-0.5357085649940472,0.49720957777193275,-0.8214491758526721,0.9186987178639194,-0.13392045082395954,0.7604909535503681,-0.5271929483974402,0.2116439117366482,0.7373275823972347,-0.9195277868345455,-0.5844764147373531,0.4550577243788714,0.43584180121304783,0.11255905823343837,0.6562377460807263,-0.2709811547111698,-0.48229323314927663,0.48944407399242373,0.8715299428621519,0.8718716349807205,-0.05425873017235916,0.7036354864134762,-0.6815178265495305,-0.5432671890221614,-0.9911617728455056,0.036522275650914926,-0.5196454848479855,-0.6107612650820149,0.17619979902326222,0.8781794655473265,0.7648994113632175,0.18917966820288523,-0.8181634621822618,0.023592372041339793,0.5214016443067007,-0.6156139163538241,-0.13203337268345283,-0.20423119792703548,-0.8813946715066998,-0.34905903054308407,-0.3396966112914048,-0.11530291932614167,0.7756658892310504,0.8858277655806819,0.009934843325259513,0.23009368989514378,-0.24101518521035836,0.26325579591235404,-0.08838291290259437,0.3356013827635189,0.9554554806424886,-0.8191338505517587,0.6212619814416864,0.7126472630292908,-0.5645303879040615,0.1747884664441428,0.12373765025011796,-0.9855930040385164,-0.7898301037870561,0.11421552289888237,0.7774492998467286,0.8878276966338694,-0.33060808195312474,0.3669440852396848,0.2842585152451407,0.7540967799949154,-0.2842163868941334,-0.7526533449052992,0.38342428153230745,0.27040806709942045,0.9137449355790006,0.9012382693890684,0.9495955357800594,0.5925873989432313,0.24368257398687643,-0.246999382376895,0.8967589097179527,-0.8445514045701141,0.23656035134357034,-0.8157311786291139,0.022946386094007343,0.9487538835293725,0.19707042610082204,0.18663278896848934,0.5525783166329761,-0.8083017778366759,0.5116615670642106,0.10530540334723848,0.4215662779473559,-0.9348319093654174,-0.598894688370496,0.917493776005007,-0.7732496889006863,0.6954974586705347,0.649443148259822,-0.5807078459179649,-0.24104871649651138,0.8640602392866634,0.9035206454056048,-0.29995221042962217,0.35172869343354063,0.12979573682666667,0.8977686353346817,0.3425359433149566,0.45824753681713526,-0.6480152286318863,0.9313346463194188,0.2808103118078733,-0.3906404237907828,-0.5499783085785064,-0.8286153570953727,0.5258372167884351,0.4508010589829652,0.6257495087643257,0.5356448862068055,-0.42513239866701147,-0.9939807421071534,-0.5213175116394184,0.2899255938030163,-0.4323753286814511,0.12645488362967927,0.44898202159551115,-0.14326600302435644,0.6079953259009467,-0.5749975021285489,-0.8548377738092814,-0.3707043642925112,0.48332076228873344,0.4567310102957902,-0.4612422012714863,-0.52585614404973,0.9065528950407864,-0.36065797691081625,-0.3967633467388818,0.33857387692196794,-0.4524465541308409,-0.2125243974587434,0.5072939813090296,-0.4067788284665703,-0.0684194045068156,0.21714999343653285,0.7387519714022406,-0.07321802109314945,-0.35831046480235185,-0.07245599749181508,-0.6994297369409912,-0.5396455355995422,-0.7564317609477895,-0.34605647879352364,0.6177418897839342,-0.38635246693133385,-0.5379616965195262,-0.6751176872424842,0.000803337931055248,-0.7034561900904059,-0.8126052080719297,0.6370075624858673,0.7727320269097706,-0.10988249585398346,-0.676028931109868,-0.4744217929915908,-0.09699874477210235,-0.9168965217281879,0.5024407085311406,0.9250541324733836,-0.5969443430799442,-0.01892897392374704,-0.5389449798068009,-0.7564059571911033,0.4788556087152036,-0.7124841583111929,-0.19272493714007233,-0.025783739250365922,-0.8124244521261093,-0.4749162812921952,-0.39794600529506274,0.5544175961043909,0.3666685300181429,0.6975826943431451,-0.10760344668536703,-0.09340505099007812,0.15870851558354615,0.9172000327449945,0.02672753319908372,0.639989285110045,0.1933952047430576,-0.2174647354796193,-0.976617210213581,0.690877734038607,-0.25549583667212517,-0.42135510039033575,0.1396879867375609,0.39973913191693833,-0.9973071223228103,0.734094863949589,0.2259138108019736,0.44230130530979905,-0.16695097899921163,0.6440426571041387,-0.585600457270421,0.17321936437495644,0.7106134685290237,-0.5624928550730828,-0.3498425165605612,-0.7128224795841842,0.8725129370147668,-0.7882722107804236,0.34097557198957706,0.4271026669805382,-0.30972787801307833,-0.7105976412531054,0.8502014370751978,-0.6262386675179723,-0.05649962428288302,0.3612405566828867,-0.3589826400382534,0.5943087913386316,0.3074485688469628,0.2505963550155581,-0.5791529499057411,-0.28328939480815274,0.3405794015735142,0.560263232855875,0.005959492197270544,-0.19171506105206815,-0.7988141612868898,0.8943198771335656,-0.1961066796588291,-0.979087687868232,0.42034886925033343,-0.4177686820213393,0.27667000799808594,-0.6298483587146404,0.35590717943109906,0.9989016004402227,-0.1616129633224812,-0.17866718205665233,0.24700526522517552,0.8620320542976923,-0.965271268669913,0.14357751401522179,-0.11562258065240871,-0.7447024251466223,-0.11549486072392856,-0.1409879302386643,-0.11279334288984177,-0.4906834240009663,0.7916459089325987,-0.6103457454362136,-0.8546852085982259,-0.5424321233193474,0.6246601481353617,-0.3504317479239305,-0.8415389499714208,-0.5542388411978181,-0.07119983517010153,-0.886617811616992,-0.3001138037451001,-0.6694392497128958,0.988756067250947,0.0942167966493106,-0.8417636609824732,0.34535290872183855,-0.941129544843395,-0.33070578395465033,0.30664855383785716,0.7419689934131071,0.3407323207123836,-0.22665904298007988,0.5543318250688523,-0.3856487610553747,0.4331495902146525,0.07236684633329649,0.780872021405087,0.6543716469078629,0.6284420471392351,0.8360944760887754,-0.852562801273566,-0.7633377036422704,0.7184644305982733,-0.29285987956554527,0.4628517614084109,-0.4913410068625368,0.07616464159224501,0.6907212841056594,0.9421993280977294,-0.7164277198154918,0.15191458178240813,-0.9349798808451923,0.03654999360663869,-0.35548358809444003,0.7880394509469644,-0.319366545491816,-0.1293761601897212,-0.030600685660464366,-0.9205846672606286,-0.8517996865114612,-0.7681769008840822,-0.6947425002096856,-0.043384980713198074,0.1698639681120746,0.6816798213064508,-0.20631210288479962,0.7536089617556765,0.33306393451784766,0.741421647948268,-0.8585755355582039,-0.1612085326901489,0.17091703406218994,0.522205498361358,-0.6376223516543456,0.5886781817597826,0.14648120794742003,-0.936790505844546,0.2713118804273422,0.04787987490667245,-0.21056263445292522,-0.7483674403821019,-0.6727789808537101,-0.02514882395551532,0.7855005708366882,0.4107499941470649,-0.000731196088145758,-0.1087954377721354,0.6118933983874437,-0.6622163890540782,0.02014012985567515,-0.5915963223749583,0.057804818764169985,-0.7253434163276138,0.18867377943219732,0.1229507963360601,-0.702103443009259,0.15525793293506496,0.29407615879793814,-0.6624930806032034,0.912155707094521,-0.15856355568921554,0.5862767263674569,0.2116579838552246,0.5140662458478718,-0.5703373157318874,-0.8249481531702081,-0.9120395769250105,-0.13158025186274003,-0.7294751153588959,-0.5162143688145882,0.9832054623425133,0.45560047486133737,-0.8261882116098569,-0.7342408794481259,0.0600844353754304,-0.17626881339392697,-0.00427395356646687,-0.8351828908738967,0.6484982240776833,0.6146033465127485,-0.19986042208183297,-0.24655328030418944,-0.8059849084992274,-0.4560363567666652,-0.10605817178529597,-0.9096985587371087,0.7834386405900058,-0.6454794399351191,-0.5224704227681334,-0.8720238313071804,0.22478586872336748,0.16806275505432633,0.49203622511676914,-0.24279636360777412,-0.7750681361188736,0.9669613282147136,-0.4921472773722242,-0.9867147528606381,-0.8894913303904044,0.70191809970314,0.18575551655369904,-0.7935131764063341],"weights_hh":[0.3569657446512122,-0.8589852814469798,0.09599542711837472,0.6639827156033293,-0.43875020505861206,0.68924938984699,0.49155916565861557,-0.25102717199595914,-0.3726548208848832,0.19744030816997316,0.26458392478435977,0.9300432887333643,0.7371045768853242,-0.9051678309305191,0.6978797788844142,0.2537712303473538,-0.8220282935456182,-0.6972509395361013,0.7710952181995441,-0.20986260476153884,-0.07258492726545773,0.03379198753468238,-0.3856121160840278,-0.6717963532939588,-0.6583282915669209,0.2755714419406694,-0.015038942301045521,-0.5241408160469341,0.6844600291665432,0.4556899248321604,-0.35362593897818617,0.3280994355677833,0.34623514172741854,0.5460700639054317,-0.4306154695271651,-0.39845991065999575,0.6587132029000724,0.037969813864195956,-0.41854535416063676,0.43563958654651613,0.7464964433197256,0.0853296952724012,0.11846850541196763,-0.587128815683513,0.4175778020282779,0.2851921164797986,-0.6326338790889801,0.9582925227342316,-0.02272530941792139,-0.6856538099519855,0.69530156818204,-0.5978278750230994,0.14720437008682796,-0.7947397755515446,0.8018006193093692,0.1488166834501401,0.9651121088134864,-0.9830172103910209,-0.12926548423858386,-0.3581420918879885,0.3151859416157332,-0.49340619328424373,0.8600737358518564,-0.7353475481456937,0.9321316610155512,0.8706579971958897,-0.41301737381724934,-0.6655606126114393,-0.5956246377792234,-0.1291586983212094,0.8171110482806667,-0.23061319987228202,0.1787398820149808,-0.7859889748858262,-0.6360644693273216,-0.0052881980024479525,-0.8474725930119802,0.2976245898872423,0.7584623340119558,-0.5746726773168407,0.8211572626496346,-0.28245936654384063,-0.47700897274193044,-0.3081403870649335,-0.4256657987230228,-0.12090801383495609,0.7891035443560162,-0.24989931796747888,-0.8470808292070893,0.9699508325533943,-0.20383511253266362,-0.6231177689872516,-0.2701770251008091,0.6462601121258365,0.833802447909556,-0.060163340010357835,-0.008239757941503445,-0.2608690795358386,0.8269408509051064,0.5206604651248845,-0.6615253658756388,-0.7390666856887569,-0.11967224572787849,0.33093237758574334,-0.22124080185039863,0.4421890283888763,-0.9999858329859499,-0.8792955176823583,0.01712865871872471,-0.7639505691986082,0.5901764060671515,0.502177421815813,-0.6165822298608721,-0.6478410917592237,0.2007043154970849,0.8300227141972061,-0.09774716328250244,0.7645629020308247,0.2365822927240928,0.9572460563879002,-0.15025314923703093,-0.4194867354409526,0.4698209785936607,0.7536774237971029,-0.7344076554712851,-0.9700457048190381,0.8357659708464642,0.6652941270870296,-0.08525869055140256,-0.1374191044510915,-0.8050809329864574,-0.6647963078440615,0.7954086920906773,0.56136645256305,0.04370070343042198,-0.6157845192351379,0.4814299892071714,-0.974752639803171,0.02629464754124,-0.26881071643057286,0.21471855932188766,-0.2850824723233851,0.5676587021617339,0.7417327767868602,-0.6419133104630412,-0.8916321957862683,-0.36528921523096924,0.47246821666549255,-0.19354755062041762,0.06451307975513121,-0.22344482952190403,-0.21250733111300413,0.18341218440998608,-0.18163802444765254,-0.4189068389325621,0.7262278445647468,0.8509868221558472,-0.32427044777923064,0.6132869346749124,-0.8686131259320147,-0.9178216961428323,-0.04181530989109872,0.29959905963728417,-0.8902336709267187,0.6361961038087383,-0.19436580022008876,-0.051454361681069205,-0.3886511354860427,-0.8920656492412902,0.48229860722631823,-0.6046368912130669,-0.142232325331769,-0.46025315740794914,-0.11913188387797957,0.5220192887047579,0.9688906507634336,0.25903379392367554,-0.046843152755722706,-0.10690438470376584,0.05903215773272952,0.07745955006272909,0.6472927158708239,-0.6418172573682277,0.382914436822974,0.6315637621402128,0.3801257016070767,-0.584492128405802,-0.4691800055344053,0.7836674406972581,-0.9055988726219031,0.13531168930131243,0.024170363958895935,0.16353516987150596,-0.6298032302944452,-0.2230207990700035,-0.7537492689890595,0.5370755235710127,-0.35995170049890546,0.06566945768936017,-0.8555650096212155,-0.5689293179418426,-0.26007960200977887,0.3292958134271433,-0.24748007282776974,-0.06963199526010011,0.47575913376027046,0.058735752705968425,-0.28298667503272257,-0.036216802098699485,-0.5416838244115771,-0.043053623703034116,0.7484549408146479,-0.2553189296114564,-0.6144780336165165,-0.791042862884233,0.6121644655365661,0.04746940260598698,0.6954399147389982,0.3168245733605193,-0.6006515411122921,-0.7535685721357077,0.20341019237923574,0.3191738217191238,-0.9842587727810932,-0.34786140852254377,0.642478832789328,-0.7909551235427317,0.7133566160122393,0.05039146134678374,-0.5692375869250141,0.15756982578471823,0.7185420595054486,0.061335205416432226,0.5509462435588064,0.4734652618730164,0.864881487706312,-0.8317375313188935,-0.9536974560784257,0.7540634642577773,0.8305409723139816,0.13546290518841264,-0.5921675981014662,0.25727988156362636,-0.8065206049151681,-0.4835709482333155,0.5405926028650274,-0.8602025621536504,-0.08213568668445315,-0.02229143102582598,-0.8903348375510385,-0.072615233445114,-0.1331292106424129,-0.3432186252560987,0.03198048824236577,-0.11915191224275667,0.5754042536002315],"weights_ho":[-0.49379983335480815,-0.776175590724391,-0.5380559363165505,0.941870714587064,0.6300785215965676,0.9739417558910646,-0.37912708271807927,-0.22278771218532611,0.6439060201829883,0.9664227932251794,0.23768329795736554,0.28904965775949987,-0.619901082735048,0.4906810830855626,-0.7027315995330496,0.029175293055588192,-0.4334725464814506,0.6670200612302348,0.8213236314625023,0.9421072692103205,-0.9115302557247036,0.706935998505761,0.6064466382533296,-0.2503512739958882,-0.4747311039776685,0.47895470223219716,0.8429961083474615,0.6022270032804622,0.6512707169192733,-0.6705490693975933,-0.5655323832124897,0.8379577809649008,-0.7357062900830782,0.09051533179260396,-0.8275736324483636,-0.21291595389228823,0.38998688187064223,-0.990379233961084,0.5463616442096442,0.8567637503110179,-0.15938142789675558,0.2525461390674184,-0.7523658965269358,0.5414817007620769,0.9664178724781765,-0.09003142232604544,-0.49951416472470567,-0.0918784719994834,0.11459290789428644,-0.29279921534921827,-0.4432015255147099,0.7911378659911441,0.19034293829079574,-0.16314415611580846,-0.07430610140878957,0.6867395861845615,0.014333055940332073,-0.48756983160998013,-0.14800053479219955,-0.4601439314407092,0.14749588507101707,0.5244280609476939,0.27538399179371753,0.43302371116014204],"bias_h0":[0.017301799686874064,-0.00045550973267816097,0.9687360721757976,0.8717707025379999,-0.2492762100836905,0.6991210970775656,-0.007071253467778149,-0.5090599489839027,0.5093071675910652,-0.5904827379672675,-0.27497702208924935,0.09470524270626313,-0.10846025226392664,-0.0533713827420097,-0.2448801970143668,0.4104441814659434],"bias_h1":[-0.34544810617677246,-0.9409137913656356,-0.8458687330148296,0.2770098431401169,0.8228470426263907,0.5444283179514027,-0.558952303468621,-0.7780514810946051,-0.9587231281790185,-0.3348737804908135,-0.9014978929198301,-0.4540778549101392,0.9854865441649086,-0.45254801834565006,0.10483702986004517,-0.2766189556402445],"bias_o":[-0.6324702772097688,0.6130776158301809,-0.4848726976617863,0.12286711019728669]}